svm_type c_svc
kernel_type rbf
gamma 0.0078125
nr_class 2
total_sv 56
rho -0.0687952
label 0 1
probA -0.250724
probB 0.0333892
nr_sv 28 28
SV
0.03125 1:0 2:0 3:0 4:0 5:0 6:0 7:3 8:7 9:4 10:4 11:2 12:4 13:10 14:0 15:0 16:0 17:0 18:0 19:0 20:0 21:0 22:0 23:1 24:1 25:1 26:3 27:6 28:2 29:3 30:3 31:3 32:3 33:5 34:3 35:0 36:0 37:0 38:0 39:34 
0.03125 1:0 2:0 3:0 4:0 5:4 6:7 7:4 8:4 9:2 10:3 11:12 12:2 13:0 14:0 15:0 16:0 17:0 18:0 19:0 20:1 21:1 22:2 23:3 24:6 25:3 26:2 27:3 28:3 29:4 30:6 31:4 32:0 33:0 34:0 35:0 36:0 37:0 38:0 39:38 
0.03125 1:0 2:0 3:1 4:5 5:7 6:4 7:3 8:2 9:3 10:10 11:0 12:0 13:0 14:0 15:0 16:0 17:0 18:0 19:0 20:1 21:1 22:1 23:2 24:6 25:5 26:3 27:3 28:2 29:2 30:6 31:3 32:0 33:0 34:0 35:0 36:0 37:0 38:0 39:35 
0.03125 1:0 2:0 3:0 4:0 5:3 6:7 7:3 8:4 9:2 10:2 11:11 12:1 13:0 14:0 15:0 16:0 17:0 18:0 19:0 20:0 21:0 22:0 23:2 24:1 25:1 26:2 27:6 28:3 29:3 30:2 31:2 32:4 33:5 34:2 35:0 36:0 37:0 38:0 39:33 
0.03125 1:0 2:0 3:0 4:4 5:7 6:4 7:3 8:2 9:2 10:9 11:0 12:0 13:0 14:0 15:0 16:0 17:0 18:0 19:0 20:0 21:0 22:0 23:1 24:1 25:1 26:3 27:6 28:4 29:3 30:2 31:2 32:2 33:5 34:1 35:0 36:0 37:0 38:0 39:31 
0.03125 1:0 2:0 3:0 4:0 5:0 6:4 7:7 8:4 9:4 10:3 11:4 12:10 13:0 14:0 15:0 16:0 17:0 18:0 19:0 20:0 21:0 22:0 23:1 24:2 25:1 26:3 27:6 28:1 29:3 30:3 31:3 32:4 33:6 34:3 35:0 36:0 37:0 38:0 39:36 
0.03125 1:0 2:0 3:0 4:0 5:0 6:3 7:7 8:5 9:4 10:2 11:3 12:10 13:1 14:0 15:0 16:0 17:0 18:0 19:0 20:0 21:0 22:1 23:1 24:3 25:6 26:3 27:3 28:4 29:2 30:3 31:6 32:3 33:0 34:0 35:0 36:0 37:0 38:0 39:35 
0.03125 1:0 2:0 3:0 4:0 5:0 6:5 7:7 8:3 9:4 10:1 11:4 12:11 13:0 14:0 15:0 16:0 17:0 18:0 19:0 20:0 21:0 22:0 23:0 24:1 25:1 26:3 27:5 28:4 29:3 30:3 31:3 32:4 33:5 34:3 35:0 36:0 37:0 38:0 39:35 
0.03125 1:0 2:0 3:0 4:0 5:0 6:5 7:6 8:4 9:4 10:1 11:4 12:12 13:0 14:0 15:0 16:0 17:0 18:0 19:0 20:0 21:1 22:1 23:1 24:3 25:6 26:4 27:3 28:3 29:3 30:4 31:4 32:3 33:0 34:0 35:0 36:0 37:0 38:0 39:36 
0.03125 1:0 2:0 3:0 4:0 5:0 6:4 7:6 8:4 9:4 10:2 11:3 12:8 13:0 14:0 15:0 16:0 17:0 18:0 19:0 20:0 21:0 22:1 23:1 24:3 25:5 26:3 27:3 28:3 29:1 30:2 31:6 32:3 33:0 34:0 35:0 36:0 37:0 38:0 39:31 
0.03125 1:0 2:0 3:0 4:0 5:4 6:6 7:4 8:3 9:2 10:3 11:12 12:0 13:0 14:0 15:0 16:0 17:0 18:0 19:0 20:0 21:0 22:0 23:1 24:1 25:1 26:3 27:4 28:2 29:3 30:3 31:3 32:4 33:6 34:3 35:0 36:0 37:0 38:0 39:34 
0.03125 1:0 2:0 3:0 4:4 5:7 6:4 7:4 8:1 9:3 10:12 11:1 12:0 13:0 14:0 15:0 16:0 17:0 18:0 19:0 20:0 21:0 22:0 23:0 24:1 25:1 26:1 27:3 28:5 29:3 30:3 31:3 32:4 33:3 34:6 35:3 36:0 37:0 38:0 39:36 
0.03125 1:0 2:0 3:0 4:0 5:0 6:0 7:4 8:7 9:4 10:4 11:2 12:3 13:10 14:0 15:0 16:0 17:0 18:0 19:0 20:0 21:0 22:0 23:0 24:1 25:1 26:1 27:3 28:6 29:2 30:2 31:3 32:3 33:4 34:5 35:3 36:0 37:0 38:0 39:34 
0.03125 1:0 2:0 3:0 4:4 5:7 6:4 7:4 8:2 9:4 10:12 11:0 12:0 13:0 14:0 15:0 16:0 17:0 18:0 19:0 20:1 21:1 22:1 23:3 24:6 25:3 26:3 27:3 28:3 29:4 30:6 31:3 32:0 33:0 34:0 35:0 36:0 37:0 38:0 39:37 
0.03125 1:0 2:0 3:0 4:0 5:3 6:7 7:4 8:4 9:2 10:3 11:10 12:0 13:0 14:0 15:0 16:0 17:0 18:0 19:0 20:0 21:0 22:0 23:0 24:1 25:2 26:1 27:2 28:4 29:3 30:3 31:3 32:2 33:3 34:6 35:3 36:0 37:0 38:0 39:33 
0.03125 1:1 2:0 3:0 4:0 5:1 6:4 7:8 8:4 9:4 10:2 11:4 12:12 13:0 14:0 15:0 16:0 17:0 18:0 19:0 20:0 21:0 22:0 23:1 24:1 25:1 26:4 27:7 28:4 29:2 30:3 31:3 32:4 33:6 34:3 35:1 36:0 37:0 38:0 39:40 
0.03125 1:0 2:0 3:0 4:0 5:0 6:4 7:7 8:2 9:4 10:2 11:3 12:6 13:0 14:0 15:0 16:0 17:0 18:0 19:0 20:0 21:0 22:0 23:1 24:3 25:4 26:3 27:3 28:2 29:2 30:2 31:5 32:3 33:0 34:0 35:0 36:0 37:0 38:0 39:28 
0.03125 1:0 2:0 3:0 4:0 5:5 6:7 7:3 8:4 9:2 10:2 11:11 12:1 13:0 14:0 15:0 16:0 17:0 18:0 19:0 20:1 21:1 22:1 23:3 24:4 25:3 26:3 27:3 28:3 29:3 30:6 31:4 32:0 33:0 34:0 35:0 36:0 37:0 38:0 39:35 
0.03125 1:6 2:1 3:0 4:0 5:0 6:0 7:4 8:6 9:3 10:2 11:2 12:4 13:11 14:0 15:0 16:0 17:0 18:0 19:0 20:0 21:0 22:1 23:1 24:2 25:6 26:4 27:4 28:4 29:3 30:3 31:6 32:2 33:0 34:1 35:2 36:0 37:0 38:0 39:39 
0.03125 1:0 2:0 3:0 4:0 5:5 6:6 7:4 8:3 9:2 10:4 11:12 12:2 13:0 14:0 15:0 16:0 17:0 18:0 19:0 20:0 21:0 22:0 23:0 24:1 25:1 26:1 27:2 28:6 29:4 30:3 31:2 32:3 33:5 34:7 35:3 36:0 37:0 38:0 39:38 
0.03125 1:0 2:0 3:0 4:0 5:0 6:4 7:7 8:2 9:4 10:2 11:3 12:9 13:0 14:0 15:0 16:0 17:0 18:0 19:0 20:0 21:0 22:0 23:0 24:0 25:1 26:1 27:2 28:5 29:3 30:3 31:2 32:2 33:3 34:6 35:3 36:0 37:0 38:0 39:31 
0.03125 1:0 2:0 3:0 4:3 5:7 6:4 7:4 8:3 9:4 10:12 11:0 12:0 13:0 14:0 15:1 16:0 17:0 18:0 19:0 20:1 21:1 22:1 23:3 24:6 25:4 26:3 27:3 28:2 29:4 30:6 31:4 32:0 33:0 34:0 35:0 36:0 37:0 38:0 39:38 
0.03125 1:0 2:0 3:0 4:0 5:5 6:7 7:4 8:4 9:2 10:3 11:12 12:1 13:0 14:0 15:0 16:0 17:0 18:0 19:0 20:0 21:0 22:1 23:1 24:1 25:5 26:5 27:4 28:3 29:3 30:3 31:3 32:6 33:3 34:0 35:0 36:0 37:0 38:0 39:38 
0.03125 1:0 2:0 3:0 4:0 5:0 6:4 7:7 8:4 9:4 10:2 11:4 12:12 13:0 14:0 15:0 16:0 17:0 18:0 19:0 20:0 21:0 22:0 23:0 24:1 25:1 26:1 27:3 28:6 29:3 30:3 31:3 32:3 33:4 34:6 35:3 36:0 37:0 38:0 39:37 
0.03125 1:0 2:0 3:0 4:4 5:7 6:5 7:4 8:1 9:3 10:11 11:0 12:0 13:0 14:0 15:0 16:0 17:0 18:0 19:0 20:0 21:0 22:0 23:0 24:1 25:1 26:1 27:3 28:6 29:2 30:2 31:3 32:3 33:4 34:5 35:3 36:1 37:0 38:0 39:35 
0.03125 1:0 2:0 3:0 4:0 5:0 6:0 7:5 8:7 9:4 10:4 11:2 12:3 13:12 14:0 15:0 16:0 17:0 18:0 19:0 20:1 21:1 22:1 23:3 24:6 25:3 26:3 27:3 28:3 29:4 30:6 31:3 32:0 33:0 34:0 35:0 36:0 37:0 38:0 39:37 
0.03125 1:0 2:0 3:0 4:0 5:0 6:0 7:3 8:7 9:4 10:3 11:1 12:3 13:11 14:0 15:0 16:1 17:0 18:1 19:0 20:0 21:0 22:1 23:1 24:2 25:5 26:2 27:3 28:2 29:3 30:4 31:6 32:3 33:0 34:0 35:0 36:0 37:0 38:0 39:33 
0.03125 1:0 2:0 3:0 4:0 5:0 6:5 7:7 8:4 9:4 10:2 11:4 12:10 13:0 14:0 15:0 16:0 17:0 18:0 19:0 20:0 21:0 22:0 23:0 24:1 25:3 26:6 27:4 28:3 29:3 30:3 31:4 32:6 33:3 34:0 35:0 36:0 37:0 38:0 39:36 
-0.03125 1:0 2:0 3:0 4:0 5:0 6:0 7:2 8:7 9:3 10:3 11:0 12:0 13:0 14:0 15:0 16:0 17:0 18:0 19:0 20:0 21:0 22:1 23:1 24:2 25:4 26:1 27:0 28:0 29:0 30:0 31:3 32:3 33:0 34:0 35:0 36:0 37:0 38:0 39:15 
-0.03125 1:0 2:0 3:0 4:0 5:0 6:2 7:10 8:3 9:3 10:0 11:0 12:0 13:0 14:0 15:0 16:0 17:0 18:0 19:0 20:0 21:0 22:1 23:1 24:3 25:4 26:1 27:1 28:1 29:1 30:1 31:3 32:1 33:0 34:0 35:0 36:0 37:0 38:0 39:18 
-0.03125 1:0 2:0 3:0 4:0 5:0 6:2 7:9 8:4 9:4 10:0 11:0 12:0 13:0 14:0 15:0 16:0 17:0 18:0 19:0 20:0 21:0 22:0 23:0 24:0 25:1 26:1 27:4 28:4 29:1 30:0 31:0 32:1 33:1 34:3 35:3 36:0 37:0 38:0 39:19 
-0.03125 1:0 2:0 3:0 4:0 5:0 6:0 7:2 8:11 9:4 10:4 11:0 12:0 13:0 14:0 15:0 16:0 17:0 18:0 19:0 20:0 21:0 22:0 23:0 24:1 25:1 26:4 27:4 28:1 29:1 30:1 31:1 32:1 33:3 34:3 35:0 36:0 37:0 38:0 39:21 
-0.03125 1:0 2:0 3:0 4:0 5:2 6:10 7:4 8:4 9:0 10:0 11:0 12:0 13:0 14:0 15:0 16:0 17:0 18:0 19:0 20:0 21:0 22:0 23:0 24:0 25:1 26:1 27:4 28:4 29:1 30:1 31:1 32:1 33:1 34:3 35:2 36:0 37:0 38:0 39:20 
-0.03125 1:0 2:0 3:0 4:0 5:0 6:0 7:1 8:9 9:4 10:4 11:0 12:0 13:0 14:0 15:0 16:0 17:0 18:0 19:0 20:0 21:0 22:0 23:0 24:1 25:1 26:3 27:4 28:0 29:1 30:1 31:1 32:1 33:3 34:2 35:0 36:0 37:0 38:0 39:18 
-0.03125 1:0 2:0 3:0 4:0 5:2 6:10 7:4 8:2 9:0 10:0 11:0 12:0 13:0 14:0 15:0 16:0 17:0 18:0 19:0 20:0 21:0 22:0 23:0 24:0 25:0 26:1 27:4 28:4 29:1 30:1 31:1 32:1 33:1 34:2 35:2 36:0 37:0 38:0 39:18 
-0.03125 1:0 2:0 3:0 4:0 5:0 6:0 7:2 8:11 9:4 10:5 11:0 12:0 13:0 14:0 15:0 16:0 17:0 18:0 19:0 20:0 21:0 22:0 23:0 24:1 25:2 26:4 27:4 28:1 29:1 30:1 31:1 32:1 33:3 34:3 35:0 36:0 37:0 38:0 39:22 
-0.03125 1:0 2:0 3:0 4:0 5:2 6:11 7:5 8:3 9:0 10:0 11:0 12:0 13:0 14:0 15:0 16:0 17:0 18:0 19:0 20:0 21:1 22:1 23:4 24:3 25:1 26:2 27:1 28:1 29:1 30:3 31:3 32:0 33:0 34:0 35:0 36:0 37:0 38:0 39:21 
-0.03125 1:0 2:0 3:0 4:2 5:7 6:4 7:4 8:0 9:0 10:0 11:0 12:0 13:0 14:0 15:0 16:0 17:0 18:0 19:0 20:0 21:0 22:0 23:0 24:0 25:0 26:4 27:4 28:1 29:0 30:0 31:1 32:1 33:3 34:3 35:0 36:0 37:0 38:0 39:17 
-0.03125 1:0 2:0 3:0 4:0 5:0 6:2 7:10 8:4 9:4 10:0 11:0 12:0 13:0 14:0 15:0 16:0 17:0 18:0 19:0 20:0 21:0 22:0 23:0 24:1 25:1 26:4 27:4 28:1 29:1 30:1 31:1 32:1 33:3 34:2 35:0 36:0 37:0 38:0 39:20 
-0.03125 1:0 2:0 3:0 4:0 5:1 6:3 7:11 8:4 9:3 10:0 11:0 12:0 13:0 14:0 15:0 16:0 17:0 18:1 19:1 20:0 21:1 22:1 23:3 24:4 25:1 26:1 27:1 28:1 29:1 30:3 31:3 32:0 33:0 34:0 35:0 36:0 37:0 38:0 39:22 
-0.03125 1:0 2:0 3:0 4:0 5:0 6:2 7:9 8:4 9:4 10:0 11:0 12:0 13:0 14:0 15:0 16:1 17:0 18:0 19:0 20:0 21:0 22:0 23:0 24:0 25:4 26:4 27:1 28:1 29:1 30:1 31:1 32:3 33:4 34:0 35:0 36:0 37:0 38:0 39:20 
-0.03125 1:0 2:0 3:0 4:0 5:0 6:3 7:10 8:3 9:4 10:0 11:0 12:0 13:0 14:0 15:0 16:0 17:0 18:0 19:0 20:0 21:0 22:1 23:1 24:4 25:4 26:1 27:0 28:1 29:1 30:1 31:3 32:2 33:1 34:0 35:0 36:0 37:0 38:0 39:20 
-0.03125 1:0 2:0 3:0 4:0 5:0 6:3 7:10 8:4 9:4 10:0 11:0 12:0 13:0 14:0 15:0 16:0 17:0 18:0 19:0 20:0 21:0 22:0 23:2 24:1 25:4 26:4 27:1 28:1 29:1 30:1 31:1 32:3 33:2 34:0 35:0 36:0 37:0 38:0 39:21 
-0.03125 1:0 2:0 3:0 4:0 5:0 6:2 7:8 8:4 9:3 10:0 11:0 12:0 13:0 14:0 15:0 16:0 17:0 18:0 19:0 20:0 21:0 22:0 23:0 24:1 25:1 26:4 27:4 28:1 29:0 30:1 31:0 32:0 33:2 34:3 35:0 36:0 37:0 38:0 39:17 
-0.03125 1:0 2:0 3:0 4:2 5:10 6:4 7:4 8:0 9:0 10:0 11:0 12:0 13:0 14:0 15:0 16:0 17:0 18:0 19:0 20:0 21:0 22:0 23:0 24:1 25:1 26:4 27:4 28:1 29:1 30:1 31:1 32:1 33:3 34:2 35:0 36:0 37:0 38:0 39:20 
-0.03125 1:0 2:0 3:0 4:0 5:0 6:0 7:2 8:10 9:4 10:4 11:0 12:0 13:0 14:0 15:0 16:0 17:0 18:0 19:0 20:0 21:1 22:1 23:4 24:4 25:1 26:0 27:1 28:1 29:1 30:3 31:3 32:0 33:0 34:0 35:0 36:0 37:0 38:0 39:20 
-0.03125 1:0 2:0 3:0 4:0 5:3 6:9 7:4 8:3 9:0 10:0 11:0 12:0 13:0 14:0 15:0 16:0 17:0 18:0 19:0 20:0 21:0 22:1 23:1 24:3 25:4 26:1 27:2 28:1 29:0 30:0 31:3 32:3 33:0 34:0 35:0 36:0 37:0 38:0 39:19 
-0.03125 1:0 2:0 3:0 4:0 5:0 6:0 7:2 8:10 9:4 10:4 11:0 12:0 13:0 14:0 15:0 16:0 17:0 18:0 19:0 20:0 21:1 22:1 23:4 24:4 25:1 26:1 27:1 28:1 29:1 30:3 31:2 32:0 33:0 34:0 35:0 36:0 37:0 38:0 39:20 
-0.03125 1:0 2:0 3:0 4:0 5:2 6:6 7:3 8:2 9:0 10:0 11:0 12:0 13:0 14:0 15:0 16:0 17:0 18:0 19:0 20:0 21:0 22:0 23:1 24:2 25:3 26:0 27:1 28:1 29:0 30:0 31:3 32:2 33:0 34:0 35:0 36:0 37:0 38:0 39:13 
-0.03125 1:0 2:0 3:0 4:0 5:2 6:9 7:4 8:4 9:0 10:0 11:0 12:0 13:0 14:0 15:0 16:0 17:0 18:0 19:0 20:0 21:0 22:0 23:1 24:1 25:4 26:4 27:1 28:1 29:1 30:0 31:0 32:3 33:3 34:0 35:0 36:0 37:0 38:0 39:19 
-0.03125 1:1 2:1 3:0 4:2 5:9 6:4 7:4 8:0 9:0 10:0 11:0 12:0 13:0 14:0 15:0 16:0 17:0 18:0 19:1 20:1 21:0 22:1 23:1 24:4 25:4 26:1 27:1 28:1 29:0 30:0 31:3 32:3 33:0 34:0 35:0 36:0 37:0 38:0 39:21 
-0.03125 1:0 2:0 3:0 4:2 5:9 6:4 7:4 8:0 9:0 10:0 11:0 12:0 13:0 14:0 15:0 16:0 17:0 18:0 19:0 20:0 21:0 22:0 23:4 24:4 25:1 26:1 27:1 28:1 29:1 30:3 31:3 32:0 33:0 34:0 35:0 36:0 37:0 38:0 39:19 
-0.03125 1:1 2:1 3:0 4:0 5:0 6:2 7:10 8:4 9:3 10:0 11:0 12:0 13:0 14:0 15:0 16:0 17:0 18:0 19:1 20:1 21:0 22:0 23:1 24:1 25:3 26:3 27:1 28:1 29:1 30:2 31:0 32:3 33:3 34:0 35:0 36:0 37:0 38:0 39:21 
-0.03125 1:0 2:0 3:0 4:0 5:1 6:9 7:3 8:3 9:0 10:0 11:0 12:0 13:0 14:0 15:0 16:0 17:0 18:0 19:0 20:0 21:0 22:0 23:0 24:0 25:1 26:1 27:3 28:3 29:1 30:1 31:0 32:0 33:1 34:3 35:2 36:0 37:0 38:0 39:16 
-0.03125 1:0 2:0 3:0 4:0 5:0 6:0 7:2 8:11 9:4 10:4 11:0 12:0 13:0 14:0 15:0 16:0 17:0 18:0 19:0 20:0 21:0 22:0 23:0 24:0 25:1 26:1 27:4 28:4 29:1 30:1 31:1 32:1 33:1 34:3 35:3 36:0 37:0 38:0 39:21 
-0.03125 1:0 2:0 3:0 4:0 5:0 6:2 7:10 8:4 9:4 10:0 11:0 12:0 13:0 14:0 15:0 16:0 17:0 18:0 19:0 20:0 21:0 22:0 23:0 24:0 25:0 26:1 27:4 28:4 29:1 30:1 31:1 32:1 33:1 34:3 35:3 36:0 37:0 38:0 39:20 
