svm_type c_svc
kernel_type rbf
gamma 0.0078125
nr_class 2
total_sv 31
rho 0.336398
label 0 1
probA -3.98117
probB -0.355166
nr_sv 14 17
SV
0.8064271881290813 1:0 2:0 3:0 4:5 5:6 6:6 7:4 8:6 9:5 10:4 11:0 12:0 13:0 14:0 15:0 16:0 17:0 18:0 19:0 20:0 21:0 22:0 23:0 24:2 25:5 26:4 27:6 28:7 29:1 30:4 31:4 32:3 33:0 34:0 35:0 36:0 37:0 38:0 39:36 
0.7301507625109126 1:0 2:0 3:0 4:0 5:0 6:4 7:7 8:4 9:4 10:6 11:6 12:4 13:0 14:0 15:0 16:0 17:0 18:0 19:0 20:0 21:0 22:0 23:0 24:0 25:0 26:0 27:4 28:4 29:3 30:7 31:5 32:1 33:4 34:5 35:2 36:0 37:0 38:0 39:35 
1.105363634299955 1:0 2:0 3:0 4:5 5:6 6:5 7:5 8:6 9:6 10:4 11:0 12:0 13:0 14:0 15:0 16:0 17:0 18:0 19:0 20:0 21:0 22:0 23:0 24:0 25:1 26:3 27:5 28:4 29:7 30:5 31:1 32:4 33:5 34:2 35:0 36:0 37:0 38:0 39:37 
0.1601085974750247 1:0 2:0 3:0 4:0 5:4 6:6 7:6 8:5 9:6 10:6 11:2 12:0 13:0 14:0 15:0 16:0 17:0 18:0 19:0 20:0 21:0 22:0 23:0 24:0 25:0 26:0 27:3 28:5 29:3 30:4 31:7 32:1 33:4 34:5 35:3 36:0 37:0 38:0 39:35 
0.8044457511954489 1:0 2:0 3:0 4:0 5:5 6:6 7:5 8:5 9:5 10:4 11:5 12:0 13:0 14:0 15:0 16:0 17:0 18:0 19:0 20:0 21:0 22:0 23:0 24:2 25:5 26:3 27:6 28:6 29:1 30:4 31:5 32:3 33:0 34:0 35:0 36:0 37:0 38:0 39:35 
0.3616215064899467 1:0 2:0 3:0 4:0 5:0 6:0 7:4 8:6 9:6 10:6 11:6 12:6 13:3 14:0 15:0 16:0 17:0 18:0 19:0 20:0 21:0 22:0 23:0 24:0 25:0 26:3 27:5 28:4 29:7 30:6 31:1 32:4 33:4 34:3 35:0 36:0 37:0 38:0 39:37 
1.379190730685647 1:0 2:0 3:0 4:0 5:5 6:6 7:5 8:4 9:6 10:6 11:3 12:1 13:0 14:0 15:0 16:0 17:0 18:0 19:0 20:0 21:0 22:0 23:0 24:0 25:0 26:0 27:2 28:5 29:3 30:5 31:7 32:2 33:4 34:5 35:3 36:0 37:0 38:0 39:36 
1.015630616599225 1:0 2:0 3:0 4:0 5:0 6:5 7:4 8:5 9:6 10:5 11:6 12:3 13:0 14:0 15:0 16:0 17:0 18:0 19:0 20:0 21:0 22:1 23:2 24:5 25:4 26:3 27:6 28:1 29:4 30:5 31:3 32:0 33:0 34:0 35:0 36:0 37:0 38:0 39:34 
0.6817773277982798 1:0 2:0 3:0 4:0 5:0 6:0 7:5 8:6 9:6 10:6 11:6 12:5 13:4 14:0 15:0 16:0 17:0 18:0 19:0 20:0 21:0 22:0 23:3 24:5 25:4 26:6 27:7 28:1 29:4 30:5 31:3 32:0 33:0 34:0 35:0 36:0 37:0 38:0 39:38 
0.8774699678637512 1:0 2:0 3:0 4:0 5:0 6:5 7:6 8:6 9:5 10:6 11:6 12:3 13:0 14:0 15:0 16:0 17:0 18:0 19:0 20:0 21:0 22:0 23:0 24:0 25:2 26:5 27:4 28:7 29:6 30:1 31:4 32:5 33:3 34:0 35:0 36:0 37:0 38:0 39:37 
0.5096056757316503 1:0 2:0 3:0 4:0 5:0 6:4 7:6 8:6 9:4 10:6 11:6 12:3 13:0 14:0 15:0 16:0 17:0 18:0 19:0 20:0 21:0 22:0 23:0 24:0 25:0 26:2 27:5 28:4 29:7 30:7 31:0 32:3 33:5 34:2 35:0 36:0 37:0 38:0 39:35 
1.460025086262464 1:0 2:0 3:0 4:3 5:5 6:5 7:6 8:6 9:5 10:3 11:0 12:0 13:0 14:0 15:0 16:0 17:0 18:0 19:0 20:0 21:0 22:0 23:0 24:2 25:5 26:2 27:7 28:7 29:2 30:0 31:5 32:3 33:0 34:0 35:0 36:0 37:0 38:0 39:33 
0.2792630318628145 1:0 2:0 3:0 4:0 5:0 6:6 7:5 8:6 9:4 10:6 11:6 12:4 13:0 14:0 15:0 16:0 17:0 18:0 19:0 20:0 21:0 22:0 23:3 24:4 25:4 26:7 27:6 28:1 29:4 30:5 31:3 32:0 33:0 34:0 35:0 36:0 37:0 38:0 39:37 
1.185059334296983 1:0 2:0 3:0 4:5 5:6 6:6 7:6 8:6 9:6 10:4 11:0 12:0 13:0 14:0 15:0 16:0 17:0 18:0 19:0 20:0 21:0 22:0 23:3 24:5 25:4 26:7 27:7 28:1 29:4 30:5 31:3 32:0 33:0 34:0 35:0 36:0 37:0 38:0 39:39 
-1.222705189556716 1:1 2:0 3:0 4:0 5:0 6:8 7:11 8:2 9:4 10:4 11:3 12:3 13:0 14:0 15:0 16:0 17:0 18:0 19:0 20:0 21:2 22:1 23:1 24:5 25:3 26:3 27:4 28:5 29:3 30:3 31:4 32:2 33:0 34:0 35:0 36:0 37:0 38:0 39:36 
-0.5273455128397986 1:0 2:0 3:0 4:0 5:0 6:0 7:9 8:12 9:2 10:3 11:4 12:4 13:3 14:0 15:0 16:0 17:0 18:0 19:0 20:0 21:2 22:2 23:2 24:3 25:4 26:4 27:3 28:4 29:4 30:3 31:3 32:3 33:0 34:0 35:0 36:0 37:0 38:0 39:37 
-1.447577092701409 1:1 2:0 3:0 4:0 5:0 6:0 7:6 8:10 9:2 10:3 11:4 12:4 13:2 14:0 15:0 16:0 17:0 18:0 19:0 20:1 21:0 22:0 23:0 24:1 25:2 26:2 27:4 28:3 29:4 30:2 31:5 32:2 33:3 34:2 35:1 36:0 37:0 38:0 39:32 
-0.7500115807992117 1:0 2:0 3:0 4:8 5:12 6:2 7:3 8:4 9:4 10:3 11:0 12:0 13:0 14:0 15:0 16:0 17:0 18:0 19:0 20:0 21:0 22:2 23:1 24:1 25:4 26:4 27:3 28:4 29:4 30:3 31:3 32:4 33:3 34:0 35:0 36:0 37:0 38:0 39:36 
-0.3934717325305063 1:0 2:0 3:0 4:0 5:7 6:10 7:3 8:2 9:4 10:4 11:3 12:0 13:0 14:0 15:0 16:0 17:0 18:0 19:0 20:2 21:1 22:1 23:5 24:4 25:4 26:2 27:5 28:3 29:3 30:2 31:1 32:0 33:0 34:0 35:0 36:0 37:0 38:0 39:33 
-2 1:0 2:0 3:0 4:0 5:9 6:10 7:2 8:3 9:5 10:4 11:2 12:0 13:0 14:0 15:0 16:0 17:0 18:0 19:0 20:0 21:0 22:0 23:0 24:2 25:2 26:1 27:4 28:4 29:4 30:4 31:5 32:2 33:3 34:2 35:2 36:0 37:0 38:0 39:35 
-0.4879549494087752 1:0 2:0 3:0 4:9 5:11 6:3 7:3 8:4 9:4 10:3 11:0 12:0 13:0 14:0 15:0 16:0 17:0 18:0 19:0 20:0 21:2 22:3 23:1 24:4 25:4 26:4 27:4 28:5 29:1 30:3 31:3 32:3 33:0 34:0 35:0 36:0 37:0 38:0 39:37 
-0.9756053660026295 1:0 2:0 3:0 4:0 5:0 6:6 7:10 8:2 9:3 10:3 11:4 12:2 13:0 14:0 15:0 16:0 17:0 18:0 19:0 20:0 21:0 22:0 23:1 24:1 25:2 26:3 27:4 28:3 29:3 30:4 31:3 32:3 33:3 34:0 35:0 36:0 37:0 38:0 39:30 
-0.2740434292320997 1:0 2:0 3:0 4:0 5:7 6:12 7:2 8:3 9:4 10:4 11:2 12:0 13:0 14:0 15:0 16:0 17:0 18:0 19:0 20:0 21:0 22:0 23:0 24:1 25:2 26:1 27:2 28:4 29:3 30:4 31:5 32:3 33:2 34:4 35:3 36:0 37:0 38:0 39:34 
-0.1606757713481038 1:0 2:0 3:0 4:0 5:0 6:10 7:12 8:2 9:2 10:4 11:3 12:3 13:0 14:0 15:0 16:0 17:0 18:0 19:0 20:0 21:0 22:0 23:2 24:2 25:2 26:2 27:4 28:2 29:4 30:5 31:2 32:3 33:4 34:4 35:0 36:0 37:0 38:0 39:36 
-1.235583814014554 1:0 2:0 3:0 4:8 5:8 6:3 7:3 8:4 9:4 10:3 11:0 12:0 13:0 14:0 15:0 16:0 17:0 18:0 19:0 20:1 21:1 22:2 23:3 24:3 25:4 26:4 27:4 28:4 29:2 30:4 31:1 32:0 33:0 34:0 35:0 36:0 37:0 38:0 39:33 
-0.3012728191371185 1:0 2:0 3:0 4:0 5:0 6:0 7:8 8:11 9:2 10:2 11:4 12:4 13:3 14:0 15:0 16:0 17:0 18:0 19:0 20:2 21:2 22:1 23:3 24:3 25:3 26:4 27:5 28:3 29:2 30:4 31:2 32:0 33:0 34:0 35:0 36:0 37:0 38:0 39:34 
-0.1840010636142904 1:0 2:0 3:0 4:0 5:0 6:0 7:8 8:11 9:2 10:2 11:5 12:4 13:3 14:0 15:0 16:0 17:0 18:0 19:0 20:0 21:0 22:1 23:1 24:2 25:4 26:3 27:3 28:5 29:5 30:3 31:2 32:3 33:3 34:0 35:0 36:0 37:0 38:0 39:35 
-0.2060428521887709 1:0 2:0 3:0 4:0 5:6 6:12 7:2 8:3 9:3 10:5 11:3 12:0 13:0 14:0 15:0 16:0 17:0 18:0 19:0 20:0 21:1 22:2 23:3 24:4 25:3 26:3 27:3 28:5 29:2 30:2 31:4 32:2 33:0 34:0 35:0 36:0 37:0 38:0 39:34 
-0.1062537441151753 1:0 2:0 3:0 4:0 5:9 6:12 7:2 8:3 9:4 10:4 11:3 12:0 13:0 14:0 15:0 16:0 17:0 18:0 19:0 20:0 21:1 22:2 23:2 24:3 25:4 26:3 27:4 28:5 29:3 30:3 31:4 32:3 33:0 34:0 35:0 36:0 37:0 38:0 39:37 
-0.3002544489058278 1:0 2:0 3:0 4:0 5:0 6:0 7:8 8:10 9:2 10:2 11:4 12:4 13:3 14:0 15:0 16:0 17:0 18:0 19:0 20:0 21:0 22:0 23:1 24:2 25:1 26:4 27:3 28:3 29:4 30:5 31:1 32:3 33:4 34:2 35:0 36:0 37:0 38:0 39:33 
-0.7833398448061988 1:0 2:0 3:0 4:0 5:0 6:10 7:12 8:4 9:3 10:3 11:4 12:3 13:0 14:0 15:0 16:0 17:0 18:0 19:0 20:0 21:0 22:2 23:1 24:2 25:4 26:4 27:4 28:3 29:4 30:4 31:3 32:4 33:3 34:1 35:0 36:0 37:0 38:0 39:39 
