svm_type c_svc
kernel_type rbf
gamma 0.00012207
nr_class 2
total_sv 11
rho -0.0014466
label 0 1
probA -2.71286
probB -0.158905
nr_sv 5 6
SV
32 1:8 2:0 3:0 4:0 5:1 6:2 7:9 8:4 9:4 10:0 11:0 12:0 13:0 14:0 15:0 16:0 17:0 18:0 19:0 20:1 21:0 22:1 23:1 24:3 25:4 26:2 27:5 28:5 29:1 30:1 31:1 32:1 33:1 34:1 35:0 36:0 37:0 38:0 39:28 
12.5461006034386 1:0 2:0 3:0 4:0 5:3 6:10 7:4 8:4 9:0 10:0 11:0 12:0 13:0 14:0 15:0 16:0 17:0 18:0 19:0 20:0 21:0 22:2 23:3 24:2 25:4 26:4 27:1 28:1 29:1 30:1 31:1 32:1 33:0 34:0 35:0 36:0 37:0 38:0 39:21 
15.84285960266447 1:1 2:0 3:0 4:0 5:0 6:0 7:2 8:10 9:3 10:4 11:0 12:0 13:0 14:0 15:0 16:0 17:0 18:0 19:0 20:0 21:0 22:0 23:1 24:2 25:3 26:1 27:4 28:3 29:1 30:1 31:1 32:1 33:1 34:1 35:0 36:0 37:0 38:0 39:20 
0.3040799238508465 1:0 2:0 3:0 4:2 5:10 6:4 7:4 8:0 9:0 10:0 11:0 12:0 13:0 14:0 15:0 16:0 17:0 18:0 19:0 20:0 21:0 22:0 23:2 24:3 25:1 26:4 27:4 28:1 29:1 30:1 31:1 32:1 33:1 34:0 35:0 36:0 37:0 38:0 39:20 
26.73363073113935 1:0 2:0 3:0 4:0 5:0 6:2 7:10 8:4 9:4 10:0 11:1 12:1 13:0 14:0 15:0 16:0 17:0 18:0 19:0 20:0 21:0 22:2 23:3 24:1 25:4 26:5 27:2 28:1 29:1 30:1 31:1 32:1 33:0 34:0 35:0 36:0 37:0 38:0 39:22 
-32 1:0 2:0 3:0 4:0 5:0 6:0 7:4 8:10 9:2 10:3 11:2 12:4 13:3 14:0 15:0 16:0 17:0 18:0 19:0 20:0 21:0 22:1 23:1 24:1 25:3 26:3 27:3 28:3 29:3 30:3 31:2 32:3 33:2 34:0 35:0 36:0 37:0 38:0 39:28 
-5.681615684777612 1:0 2:0 3:0 4:0 5:0 6:6 7:12 8:2 9:3 10:3 11:4 12:2 13:0 14:0 15:0 16:0 17:0 18:0 19:0 20:0 21:0 22:1 23:2 24:2 25:4 26:3 27:4 28:3 29:3 30:2 31:2 32:4 33:2 34:0 35:0 36:0 37:0 38:0 39:32 
-3.248320628396365 1:0 2:0 3:0 4:0 5:0 6:0 7:8 8:11 9:1 10:2 11:4 12:4 13:2 14:0 15:0 16:0 17:0 18:0 19:0 20:2 21:2 22:1 23:4 24:4 25:4 26:3 27:1 28:3 29:3 30:3 31:2 32:0 33:0 34:0 35:0 36:0 37:0 38:0 39:32 
-3.331643691415601 1:0 2:0 3:0 4:0 5:7 6:10 7:3 8:2 9:4 10:4 11:3 12:0 13:0 14:0 15:0 16:0 17:0 18:0 19:0 20:2 21:1 22:1 23:5 24:4 25:4 26:2 27:5 28:3 29:3 30:2 31:1 32:0 33:0 34:0 35:0 36:0 37:0 38:0 39:33 
-32 1:0 2:0 3:0 4:0 5:0 6:6 7:10 8:2 9:3 10:3 11:4 12:2 13:0 14:0 15:0 16:0 17:0 18:0 19:0 20:0 21:0 22:0 23:1 24:1 25:2 26:3 27:4 28:3 29:3 30:4 31:3 32:3 33:3 34:0 35:0 36:0 37:0 38:0 39:30 
-11.16509085650368 1:0 2:0 3:0 4:8 5:8 6:3 7:3 8:4 9:4 10:3 11:0 12:0 13:0 14:0 15:0 16:0 17:0 18:0 19:0 20:1 21:1 22:2 23:3 24:3 25:4 26:4 27:4 28:4 29:2 30:4 31:1 32:0 33:0 34:0 35:0 36:0 37:0 38:0 39:33 
