svm_type c_svc
kernel_type rbf
gamma 0.0078125
nr_class 2
total_sv 46
rho -0.111862
label 0 1
probA -4.01956
probB -0.117072
nr_sv 24 22
SV
0.07568288444099089 1:0 2:0 3:0 4:0 5:0 6:2 7:10 8:4 9:3 10:1 11:0 12:0 13:0 14:0 15:0 16:0 17:0 18:0 19:0 20:1 21:3 22:2 23:4 24:4 25:1 26:1 27:1 28:1 29:1 30:1 31:0 32:0 33:0 34:0 35:0 36:0 37:0 38:0 39:20 
0.125 1:0 2:0 3:0 4:0 5:0 6:0 7:2 8:10 9:4 10:4 11:0 12:0 13:0 14:0 15:0 16:0 17:0 18:0 19:0 20:2 21:3 22:1 23:4 24:4 25:1 26:1 27:1 28:1 29:1 30:1 31:0 32:0 33:0 34:0 35:0 36:0 37:0 38:0 39:20 
0.125 1:0 2:0 3:0 4:0 5:0 6:0 7:2 8:10 9:4 10:4 11:0 12:0 13:0 14:0 15:0 16:0 17:0 18:0 19:0 20:2 21:3 22:1 23:4 24:4 25:1 26:1 27:1 28:1 29:1 30:1 31:0 32:0 33:0 34:0 35:0 36:0 37:0 38:0 39:20 
0.125 1:0 2:0 3:0 4:2 5:10 6:2 7:3 8:0 9:0 10:0 11:0 12:1 13:1 14:0 15:0 16:0 17:0 18:0 19:0 20:0 21:0 22:0 23:3 24:1 25:3 26:6 27:1 28:1 29:1 30:1 31:1 32:1 33:0 34:0 35:0 36:0 37:0 38:0 39:19 
0.08408473100652955 1:0 2:0 3:0 4:0 5:0 6:2 7:10 8:3 9:4 10:0 11:0 12:0 13:0 14:0 15:0 16:0 17:0 18:0 19:0 20:0 21:0 22:0 23:0 24:2 25:3 26:1 27:4 28:3 29:1 30:1 31:1 32:1 33:1 34:1 35:0 36:0 37:0 38:0 39:19 
0.04961330751047327 1:0 2:0 3:0 4:0 5:0 6:0 7:2 8:8 9:4 10:4 11:0 12:0 13:0 14:0 15:0 16:0 17:0 18:0 19:0 20:0 21:0 22:0 23:0 24:2 25:3 26:1 27:4 28:4 29:1 30:1 31:0 32:0 33:1 34:1 35:0 36:0 37:0 38:0 39:18 
0.125 1:0 2:0 3:0 4:1 5:7 6:3 7:4 8:0 9:0 10:0 11:0 12:0 13:0 14:0 15:0 16:0 17:0 18:0 19:0 20:2 21:4 22:0 23:3 24:2 25:1 26:1 27:1 28:0 29:0 30:1 31:0 32:0 33:0 34:0 35:0 36:0 37:0 38:0 39:15 
0.125 1:8 2:0 3:0 4:0 5:1 6:2 7:9 8:4 9:4 10:0 11:0 12:0 13:0 14:0 15:0 16:0 17:0 18:0 19:0 20:1 21:0 22:1 23:1 24:3 25:4 26:2 27:5 28:5 29:1 30:1 31:1 32:1 33:1 34:1 35:0 36:0 37:0 38:0 39:28 
0.125 1:0 2:0 3:0 4:0 5:3 6:10 7:4 8:4 9:0 10:0 11:0 12:0 13:0 14:0 15:0 16:0 17:0 18:0 19:0 20:0 21:0 22:2 23:3 24:2 25:4 26:4 27:1 28:1 29:1 30:1 31:1 32:1 33:0 34:0 35:0 36:0 37:0 38:0 39:21 
0.07167497550923145 1:0 2:0 3:0 4:0 5:0 6:0 7:7 8:4 9:4 10:0 11:0 12:0 13:0 14:0 15:0 16:0 17:0 18:0 19:0 20:0 21:0 22:0 23:0 24:2 25:3 26:0 27:3 28:3 29:1 30:1 31:1 32:0 33:0 34:1 35:0 36:0 37:0 38:0 39:15 
0.125 1:1 2:0 3:0 4:0 5:0 6:0 7:2 8:9 9:4 10:4 11:0 12:0 13:0 14:0 15:0 16:0 17:0 18:0 19:0 20:2 21:3 22:1 23:4 24:4 25:1 26:0 27:1 28:1 29:1 30:1 31:0 32:0 33:1 34:0 35:0 36:0 37:0 38:0 39:20 
0.125 1:1 2:0 3:0 4:0 5:0 6:0 7:2 8:10 9:3 10:4 11:0 12:0 13:0 14:0 15:0 16:0 17:0 18:0 19:0 20:0 21:0 22:0 23:1 24:2 25:3 26:1 27:4 28:3 29:1 30:1 31:1 32:1 33:1 34:1 35:0 36:0 37:0 38:0 39:20 
0.1036931195831625 1:0 2:0 3:0 4:0 5:0 6:2 7:10 8:4 9:4 10:0 11:0 12:0 13:0 14:0 15:0 16:0 17:0 18:0 19:0 20:0 21:0 22:0 23:2 24:3 25:1 26:4 27:4 28:1 29:1 30:1 31:1 32:1 33:1 34:0 35:0 36:0 37:0 38:0 39:20 
0.125 1:0 2:0 3:0 4:2 5:10 6:4 7:4 8:0 9:0 10:0 11:0 12:0 13:0 14:0 15:0 16:0 17:0 18:0 19:0 20:0 21:0 22:0 23:2 24:3 25:1 26:4 27:4 28:1 29:1 30:1 31:1 32:1 33:1 34:0 35:0 36:0 37:0 38:0 39:20 
0.125 1:0 2:0 3:0 4:2 5:9 6:4 7:4 8:0 9:0 10:0 11:0 12:0 13:0 14:0 15:0 16:0 17:0 18:0 19:0 20:0 21:0 22:2 23:3 24:0 25:4 26:4 27:1 28:1 29:1 30:1 31:1 32:1 33:0 34:0 35:0 36:0 37:0 38:0 39:19 
0.125 1:0 2:0 3:0 4:0 5:0 6:2 7:10 8:4 9:4 10:0 11:1 12:1 13:0 14:0 15:0 16:0 17:0 18:0 19:0 20:0 21:0 22:2 23:3 24:1 25:4 26:5 27:2 28:1 29:1 30:1 31:1 32:1 33:0 34:0 35:0 36:0 37:0 38:0 39:22 
0.125 1:0 2:0 3:0 4:0 5:2 6:9 7:5 8:4 9:0 10:0 11:0 12:0 13:0 14:0 15:0 16:0 17:0 18:0 19:0 20:0 21:0 22:0 23:0 24:2 25:3 26:0 27:4 28:4 29:1 30:1 31:1 32:1 33:2 34:1 35:0 36:0 37:0 38:0 39:20 
0.06605045949682477 1:0 2:0 3:0 4:2 5:8 6:3 7:4 8:0 9:0 10:0 11:0 12:0 13:0 14:0 15:0 16:0 17:0 18:0 19:0 20:0 21:0 22:2 23:3 24:1 25:3 26:4 27:0 28:0 29:1 30:1 31:1 32:1 33:0 34:0 35:0 36:0 37:0 38:0 39:17 
0.125 1:0 2:0 3:0 4:2 5:5 6:3 7:3 8:0 9:0 10:0 11:0 12:0 13:0 14:0 15:0 16:0 17:0 18:0 19:0 20:0 21:1 22:1 23:0 24:4 25:3 26:1 27:1 28:1 29:0 30:0 31:1 32:0 33:0 34:0 35:0 36:0 37:0 38:0 39:13 
0.05582354992854557 1:0 2:0 3:0 4:0 5:0 6:0 7:2 8:9 9:4 10:4 11:0 12:0 13:0 14:0 15:0 16:0 17:0 18:0 19:0 20:0 21:2 22:3 23:1 24:4 25:4 26:0 27:1 28:1 29:1 30:1 31:1 32:0 33:0 34:0 35:0 36:0 37:0 38:0 39:19 
0.0130515113290224 1:0 2:0 3:0 4:0 5:0 6:2 7:10 8:4 9:4 10:0 11:0 12:0 13:0 14:0 15:0 16:0 17:0 18:0 19:0 20:0 21:0 22:2 23:3 24:1 25:4 26:4 27:1 28:1 29:1 30:1 31:1 32:1 33:0 34:0 35:0 36:0 37:0 38:0 39:20 
0.04741062902918255 1:0 2:0 3:0 4:0 5:0 6:1 7:10 8:3 9:3 10:0 11:0 12:0 13:0 14:0 15:0 16:0 17:0 18:0 19:0 20:0 21:3 22:2 23:1 24:2 25:3 26:1 27:1 28:1 29:1 30:1 31:1 32:0 33:0 34:0 35:0 36:0 37:0 38:0 39:17 
0.125 1:0 2:0 3:0 4:0 5:2 6:10 7:4 8:4 9:0 10:0 11:0 12:0 13:0 14:0 15:0 16:0 17:0 18:0 19:0 20:0 21:2 22:3 23:1 24:4 25:4 26:1 27:1 28:1 29:1 30:1 31:1 32:0 33:0 34:0 35:0 36:0 37:0 38:0 39:20 
0.1165503390724884 1:2 2:0 3:0 4:0 5:0 6:0 7:2 8:7 9:4 10:4 11:0 12:0 13:0 14:0 15:0 16:0 17:0 18:0 19:0 20:0 21:0 22:0 23:0 24:3 25:4 26:1 27:4 28:4 29:1 30:0 31:1 32:1 33:0 34:0 35:0 36:0 37:0 38:0 39:19 
-0.125 1:0 2:0 3:0 4:0 5:0 6:3 7:5 8:4 9:4 10:5 11:3 12:4 13:3 14:2 15:3 16:3 17:0 18:0 19:0 20:0 21:0 22:0 23:0 24:4 25:5 26:6 27:4 28:3 29:5 30:5 31:3 32:4 33:0 34:0 35:0 36:0 37:0 38:0 39:39 
-0.125 1:0 2:0 3:0 4:0 5:0 6:2 7:5 8:3 9:4 10:3 11:3 12:5 13:4 14:3 15:3 16:3 17:0 18:0 19:0 20:0 21:0 22:0 23:3 24:5 25:5 26:4 27:3 28:5 29:5 30:4 31:4 32:0 33:0 34:0 35:0 36:0 37:0 38:0 39:38 
-0.125 1:0 2:0 3:0 4:0 5:3 6:4 7:3 8:4 9:3 10:3 11:5 12:2 13:3 14:4 15:2 16:0 17:0 18:0 19:0 20:0 21:0 22:0 23:0 24:3 25:5 26:6 27:3 28:4 29:4 30:4 31:3 32:4 33:0 34:0 35:0 36:0 37:0 38:0 39:36 
-0.125 1:0 2:0 3:0 4:0 5:0 6:0 7:1 8:4 9:3 10:4 11:3 12:3 13:6 14:4 15:2 16:4 17:0 18:0 19:0 20:0 21:0 22:0 23:0 24:0 25:0 26:1 27:3 28:4 29:4 30:4 31:5 32:5 33:4 34:4 35:0 36:0 37:0 38:0 39:34 
-0.09935578058241931 1:0 2:0 3:0 4:0 5:0 6:3 7:3 8:2 9:3 10:4 11:2 12:5 13:5 14:3 15:3 16:2 17:0 18:0 19:0 20:0 21:0 22:0 23:0 24:0 25:0 26:0 27:2 28:4 29:7 30:3 31:4 32:4 33:4 34:4 35:3 36:0 37:0 38:0 39:35 
-0.125 1:0 2:0 3:0 4:0 5:0 6:2 7:3 8:3 9:3 10:3 11:3 12:5 13:4 14:3 15:3 16:5 17:0 18:0 19:0 20:0 21:0 22:0 23:0 24:0 25:0 26:0 27:2 28:5 29:5 30:5 31:3 32:6 33:4 34:4 35:3 36:0 37:0 38:0 39:37 
-0.125 1:0 2:0 3:0 4:3 5:5 6:3 7:4 8:4 9:3 10:5 11:4 12:3 13:4 14:2 15:0 16:0 17:0 18:0 19:0 20:0 21:0 22:0 23:0 24:0 25:2 26:5 27:7 28:4 29:4 30:5 31:5 32:4 33:4 34:0 35:0 36:0 37:0 38:0 39:40 
-0.125 1:0 2:0 3:0 4:0 5:0 6:3 7:5 8:4 9:4 10:4 11:3 12:4 13:4 14:3 15:4 16:3 17:0 18:0 19:0 20:0 21:0 22:0 23:0 24:0 25:3 26:4 27:7 28:4 29:4 30:6 31:5 32:4 33:4 34:0 35:0 36:0 37:0 38:0 39:41 
-0.06959106180718709 1:0 2:0 3:0 4:0 5:0 6:0 7:2 8:5 9:3 10:3 11:4 12:3 13:5 14:4 15:3 16:3 17:0 18:0 19:0 20:0 21:0 22:0 23:0 24:2 25:4 26:4 27:4 28:4 29:5 30:4 31:4 32:4 33:0 34:0 35:0 36:0 37:0 38:0 39:35 
-0.0903207018853433 1:0 2:0 3:0 4:0 5:1 6:3 7:3 8:4 9:4 10:3 11:3 12:4 13:4 14:3 15:3 16:4 17:0 18:0 19:0 20:0 21:0 22:0 23:1 24:3 25:5 26:7 27:3 28:3 29:4 30:5 31:4 32:4 33:0 34:0 35:0 36:0 37:0 38:0 39:39 
-0.125 1:0 2:0 3:0 4:0 5:3 6:3 7:3 8:3 9:4 10:2 11:4 12:4 13:3 14:3 15:2 16:0 17:0 18:0 19:0 20:0 21:0 22:0 23:0 24:0 25:0 26:0 27:3 28:4 29:5 30:3 31:3 32:4 33:4 34:4 35:4 36:0 37:0 38:0 39:34 
-0.02184566124820291 1:0 2:0 3:0 4:3 5:2 6:3 7:4 8:4 9:3 10:5 11:4 12:3 13:3 14:3 15:0 16:0 17:0 18:0 19:0 20:0 21:0 22:0 23:0 24:0 25:3 26:5 27:6 28:3 29:3 30:4 31:5 32:4 33:4 34:0 35:0 36:0 37:0 38:0 39:37 
-0.125 1:0 2:0 3:0 4:0 5:3 6:5 7:3 8:2 9:3 10:3 11:2 12:3 13:3 14:4 15:3 16:0 17:0 18:0 19:0 20:0 21:0 22:0 23:0 24:0 25:0 26:3 27:4 28:7 29:3 30:3 31:3 32:4 33:4 34:3 35:0 36:0 37:0 38:0 39:34 
-0.125 1:0 2:0 3:0 4:0 5:0 6:0 7:3 8:6 9:3 10:4 11:3 12:4 13:5 14:3 15:3 16:5 17:0 18:0 19:0 20:0 21:0 22:0 23:0 24:0 25:2 26:4 27:5 28:4 29:5 30:4 31:6 32:4 33:5 34:0 35:0 36:0 37:0 38:0 39:39 
-0.125 1:0 2:0 3:0 4:3 5:4 6:3 7:4 8:4 9:4 10:5 11:3 12:3 13:3 14:1 15:0 16:0 17:0 18:0 19:0 20:0 21:0 22:0 23:0 24:0 25:0 26:3 27:4 28:5 29:5 30:4 31:4 32:4 33:4 34:4 35:0 36:0 37:0 38:0 39:37 
-0.02995916417844689 1:0 2:0 3:0 4:0 5:0 6:3 7:5 8:3 9:4 10:4 11:2 12:5 13:4 14:3 15:4 16:2 17:0 18:0 19:0 20:0 21:0 22:0 23:0 24:0 25:0 26:1 27:4 28:5 29:5 30:4 31:5 32:6 33:4 34:5 35:0 36:0 37:0 38:0 39:39 
-0.125 1:0 2:0 3:0 4:0 5:0 6:0 7:1 8:4 9:2 10:3 11:3 12:2 13:3 14:4 15:3 16:4 17:0 18:0 19:0 20:0 21:0 22:0 23:0 24:0 25:0 26:0 27:1 28:2 29:5 30:3 31:3 32:6 33:4 34:3 35:2 36:0 37:0 38:0 39:29 
-0.125 1:0 2:0 3:0 4:0 5:0 6:4 7:5 8:3 9:4 10:4 11:3 12:5 13:4 14:3 15:3 16:3 17:0 18:0 19:0 20:0 21:0 22:0 23:1 24:3 25:5 26:6 27:4 28:4 29:5 30:5 31:4 32:4 33:0 34:0 35:0 36:0 37:0 38:0 39:41 
-0.125 1:0 2:0 3:0 4:0 5:2 6:4 7:3 8:4 9:3 10:3 11:4 12:5 13:3 14:2 15:2 16:0 17:0 18:0 19:0 20:0 21:0 22:0 23:3 24:4 25:5 26:3 27:4 28:4 29:4 30:4 31:4 32:0 33:0 34:0 35:0 36:0 37:0 38:0 39:35 
-0.1225631372048518 1:0 2:0 3:0 4:0 5:3 6:5 7:3 8:4 9:4 10:3 11:3 12:4 13:2 14:3 15:3 16:0 17:0 18:0 19:0 20:0 21:0 22:0 23:0 24:0 25:0 26:0 27:3 28:5 29:6 30:5 31:2 32:4 33:5 34:3 35:4 36:0 37:0 38:0 39:37 
-0.125 1:0 2:0 3:0 4:0 5:2 6:5 7:3 8:4 9:3 10:3 11:5 12:4 13:3 14:0 15:1 16:0 17:0 18:0 19:0 20:0 21:0 22:0 23:0 24:0 25:3 26:3 27:4 28:3 29:3 30:4 31:5 32:4 33:4 34:0 35:0 36:0 37:0 38:0 39:33 
-0.125 1:0 2:0 3:0 4:0 5:2 6:5 7:3 8:4 9:4 10:2 11:4 12:4 13:2 14:5 15:3 16:0 17:0 18:0 19:0 20:0 21:0 22:0 23:0 24:0 25:0 26:0 27:3 28:6 29:5 30:4 31:4 32:4 33:5 34:3 35:4 36:0 37:0 38:0 39:38 
