svm_type c_svc
kernel_type rbf
gamma 0.00012207
nr_class 2
total_sv 37
rho -0.206235
label 0 1
probA -4.12925
probB -0.185564
nr_sv 19 18
SV
8 1:0 2:0 3:0 4:0 5:4 6:8 7:5 8:5 9:3 10:3 11:10 12:0 13:0 14:0 15:0 16:0 17:0 18:0 19:0 20:0 21:0 22:0 23:0 24:0 25:0 26:0 27:2 28:4 29:3 30:3 31:3 32:3 33:4 34:5 35:3 36:2 37:6 38:0 39:38 
8 1:0 2:0 3:0 4:0 5:0 6:0 7:4 8:8 9:5 10:5 11:3 12:3 13:8 14:0 15:0 16:0 17:0 18:0 19:0 20:0 21:0 22:0 23:0 24:0 25:0 26:0 27:2 28:5 29:4 30:3 31:3 32:3 33:2 34:5 35:2 36:1 37:6 38:0 39:36 
1.516325594334608 1:0 2:0 3:0 4:4 5:8 6:6 7:6 8:4 9:2 10:9 11:0 12:0 13:0 14:0 15:0 16:0 17:0 18:0 19:0 20:0 21:0 22:0 23:0 24:0 25:0 26:2 27:4 28:1 29:3 30:3 31:3 32:2 33:5 34:3 35:3 36:6 37:4 38:0 39:39 
8 1:0 2:0 3:0 4:0 5:0 6:4 7:8 8:6 9:6 10:4 11:4 12:9 13:0 14:0 15:0 16:0 17:0 18:0 19:0 20:0 21:0 22:0 23:3 24:6 25:3 26:3 27:3 28:2 29:1 30:4 31:3 32:3 33:6 34:4 35:0 36:0 37:0 38:0 39:41 
8 1:0 2:0 3:0 4:0 5:5 6:9 7:4 8:5 9:3 10:2 11:9 12:0 13:0 14:0 15:0 16:0 17:0 18:0 19:0 20:0 21:0 22:0 23:0 24:0 25:0 26:0 27:2 28:5 29:2 30:3 31:3 32:3 33:3 34:5 35:2 36:3 37:6 38:0 39:37 
8 1:0 2:0 3:0 4:4 5:8 6:5 7:3 8:3 9:5 10:11 11:0 12:0 13:0 14:0 15:0 16:0 17:0 18:0 19:0 20:0 21:0 22:0 23:0 24:0 25:2 26:6 27:4 28:3 29:2 30:3 31:3 32:4 33:3 34:2 35:5 36:2 37:0 38:0 39:39 
8 1:0 2:0 3:0 4:5 5:7 6:5 7:6 8:4 9:5 10:10 11:0 12:0 13:0 14:0 15:0 16:0 17:0 18:0 19:0 20:0 21:0 22:0 23:3 24:6 25:3 26:2 27:3 28:3 29:3 30:5 31:2 32:2 33:6 34:4 35:0 36:0 37:0 38:0 39:42 
8 1:0 2:0 3:0 4:3 5:9 6:5 7:6 8:4 9:5 10:10 11:0 12:0 13:0 14:0 15:0 16:0 17:0 18:0 19:0 20:0 21:0 22:0 23:3 24:6 25:4 26:2 27:3 28:2 29:3 30:5 31:2 32:3 33:6 34:3 35:0 36:0 37:0 38:0 39:42 
3.581026792920628 1:0 2:0 3:0 4:0 5:5 6:8 7:4 8:5 9:3 10:3 11:11 12:0 13:0 14:0 15:0 16:0 17:0 18:0 19:0 20:0 21:0 22:0 23:0 24:0 25:0 26:0 27:3 28:6 29:3 30:3 31:3 32:3 33:4 34:5 35:3 36:2 37:4 38:0 39:39 
8 1:0 2:0 3:0 4:0 5:5 6:9 7:5 8:6 9:4 10:2 11:9 12:0 13:0 14:0 15:0 16:0 17:0 18:0 19:0 20:0 21:0 22:0 23:0 24:0 25:3 26:5 27:3 28:3 29:2 30:3 31:3 32:4 33:2 34:3 35:4 36:5 37:0 38:0 39:40 
8 1:0 2:0 3:0 4:0 5:0 6:2 7:9 8:4 9:6 10:4 11:5 12:7 13:0 14:0 15:0 16:0 17:0 18:0 19:0 20:0 21:0 22:0 23:0 24:0 25:0 26:3 27:5 28:3 29:3 30:1 31:2 32:3 33:5 34:2 35:1 36:6 37:3 38:0 39:37 
2.081142131587229 1:0 2:0 3:0 4:0 5:0 6:0 7:5 8:8 9:6 10:5 11:3 12:5 13:10 14:0 15:0 16:0 17:0 18:0 19:0 20:0 21:0 22:0 23:1 24:6 25:4 26:3 27:3 28:3 29:2 30:5 31:3 32:3 33:6 34:3 35:0 36:0 37:0 38:0 39:42 
1.645770319739853 1:0 2:0 3:0 4:0 5:5 6:8 7:6 8:5 9:4 10:4 11:11 12:0 13:0 14:0 15:0 16:0 17:0 18:0 19:0 20:0 21:0 22:0 23:0 24:3 25:6 26:2 27:3 28:3 29:3 30:3 31:4 32:3 33:3 34:6 35:4 36:0 37:0 38:0 39:43 
8 1:0 2:0 3:0 4:0 5:0 6:0 7:3 8:8 9:5 10:6 11:4 12:5 13:9 14:1 15:0 16:0 17:0 18:0 19:0 20:0 21:0 22:1 23:3 24:6 25:3 26:4 27:3 28:3 29:2 30:5 31:2 32:2 33:4 34:3 35:0 36:0 37:0 38:0 39:41 
8 1:0 2:0 3:0 4:0 5:0 6:5 7:8 8:6 9:6 10:4 11:4 12:8 13:0 14:0 15:0 16:0 17:0 18:0 19:0 20:0 21:0 22:0 23:2 24:6 25:3 26:2 27:2 28:2 29:5 30:5 31:2 32:2 33:6 34:4 35:0 36:0 37:0 38:0 39:41 
6.834567807537589 1:0 2:0 3:0 4:0 5:4 6:8 7:6 8:6 9:4 10:3 11:11 12:0 13:0 14:0 15:0 16:0 17:0 18:0 19:0 20:0 21:0 22:0 23:0 24:0 25:3 26:6 27:2 28:3 29:3 30:3 31:2 32:5 33:3 34:2 35:6 36:4 37:0 38:0 39:42 
8 1:0 2:0 3:0 4:6 5:9 6:6 7:6 8:3 9:3 10:4 11:0 12:0 13:0 14:0 15:0 16:0 17:0 18:0 19:0 20:0 21:0 22:0 23:0 24:0 25:0 26:2 27:4 28:4 29:2 30:3 31:2 32:2 33:3 34:2 35:3 36:6 37:4 38:0 39:37 
8 1:0 2:0 3:0 4:0 5:0 6:5 7:7 8:6 9:6 10:3 11:3 12:9 13:0 14:0 15:0 16:0 17:0 18:0 19:0 20:0 21:0 22:0 23:3 24:6 25:3 26:2 27:3 28:3 29:2 30:3 31:2 32:3 33:6 34:3 35:0 36:0 37:0 38:0 39:39 
8 1:0 2:0 3:0 4:0 5:0 6:0 7:5 8:8 9:5 10:5 11:3 12:4 13:9 14:0 15:0 16:0 17:0 18:0 19:0 20:0 21:0 22:0 23:0 24:0 25:0 26:0 27:3 28:6 29:4 30:3 31:2 32:2 33:4 34:4 35:3 36:2 37:6 38:0 39:39 
-8 1:0 2:0 3:0 4:0 5:0 6:0 7:4 8:6 9:6 10:7 11:6 12:5 13:0 14:0 15:0 16:0 17:0 18:0 19:0 20:0 21:0 22:0 23:0 24:0 25:0 26:0 27:6 28:6 29:3 30:2 31:2 32:2 33:1 34:6 35:6 36:0 37:0 38:0 39:34 
-8 1:0 2:0 3:0 4:5 5:6 6:6 7:7 8:5 9:5 10:0 11:0 12:0 13:0 14:0 15:0 16:0 17:0 18:0 19:0 20:0 21:0 22:0 23:0 24:5 25:6 26:3 27:2 28:2 29:2 30:2 31:6 32:6 33:0 34:0 35:0 36:0 37:0 38:0 39:34 
-8 1:0 2:0 3:0 4:0 5:0 6:5 7:6 8:6 9:7 10:6 11:4 12:0 13:0 14:0 15:0 16:0 17:0 18:0 19:0 20:0 21:0 22:0 23:0 24:0 25:0 26:6 27:5 28:3 29:2 30:2 31:2 32:2 33:6 34:6 35:0 36:0 37:0 38:0 39:34 
-8 1:0 2:0 3:0 4:0 5:0 6:0 7:5 8:6 9:6 10:6 11:7 12:5 13:0 14:0 15:0 16:0 17:0 18:0 19:0 20:0 21:0 22:0 23:0 24:0 25:6 26:5 27:3 28:2 29:2 30:2 31:3 32:6 33:6 34:0 35:0 36:0 37:0 38:0 39:35 
-8 1:0 2:0 3:0 4:0 5:0 6:0 7:5 8:6 9:6 10:6 11:6 12:4 13:0 14:0 15:0 16:0 17:0 18:0 19:0 20:0 21:0 22:0 23:0 24:0 25:0 26:0 27:6 28:6 29:1 30:2 31:2 32:2 33:2 34:6 35:6 36:0 37:0 38:0 39:33 
-8 1:8 2:0 3:0 4:0 5:0 6:4 7:6 8:6 9:7 10:5 11:5 12:0 13:0 14:0 15:0 16:0 17:0 18:0 19:0 20:0 21:0 22:1 23:1 24:1 25:7 26:7 27:3 28:3 29:2 30:2 31:2 32:6 33:6 34:0 35:0 36:0 37:0 38:0 39:41 
-8 1:0 2:0 3:0 4:0 5:0 6:6 7:7 8:5 9:7 10:6 11:5 12:0 13:0 14:0 15:0 16:0 17:0 18:0 19:0 20:2 21:0 22:0 23:6 24:6 25:3 26:2 27:2 28:1 29:2 30:6 31:6 32:0 33:0 34:0 35:0 36:0 37:0 38:0 39:36 
-8 1:0 2:0 3:0 4:0 5:5 6:6 7:7 8:6 9:6 10:5 11:0 12:0 13:0 14:0 15:0 16:0 17:0 18:0 19:0 20:0 21:0 22:0 23:0 24:6 25:6 26:3 27:2 28:2 29:2 30:3 31:6 32:5 33:0 34:0 35:0 36:0 37:0 38:0 39:35 
-6.813246685743441 1:0 2:0 3:0 4:0 5:0 6:4 7:6 8:6 9:7 10:6 11:5 12:0 13:0 14:0 15:0 16:0 17:0 18:0 19:0 20:0 21:0 22:0 23:0 24:0 25:0 26:0 27:6 28:6 29:3 30:2 31:2 32:2 33:2 34:6 35:5 36:0 37:0 38:0 39:34 
-8 1:0 2:0 3:0 4:0 5:0 6:4 7:6 8:5 9:7 10:5 11:5 12:1 13:1 14:1 15:0 16:0 17:0 18:0 19:0 20:0 21:0 22:0 23:0 24:0 25:0 26:5 27:4 28:3 29:3 30:3 31:2 32:3 33:6 34:6 35:0 36:0 37:0 38:0 39:35 
-8 1:0 2:0 3:0 4:4 5:6 6:7 7:6 8:5 9:5 10:0 11:0 12:0 13:0 14:0 15:0 16:0 17:0 18:0 19:0 20:0 21:0 22:0 23:0 24:0 25:6 26:5 27:3 28:2 29:2 30:2 31:3 32:5 33:5 34:0 35:0 36:0 37:0 38:0 39:33 
-8 1:0 2:0 3:0 4:0 5:5 6:6 7:6 8:6 9:6 10:5 11:0 12:0 13:0 14:0 15:0 16:0 17:0 18:0 19:0 20:0 21:0 22:0 23:0 24:0 25:0 26:0 27:6 28:6 29:3 30:2 31:1 32:2 33:2 34:6 35:6 36:0 37:0 38:0 39:34 
-0.4079227553631957 1:0 2:0 3:0 4:0 5:0 6:0 7:4 8:6 9:6 10:7 11:6 12:4 13:0 14:0 15:0 16:0 17:0 18:0 19:0 20:0 21:0 22:0 23:0 24:0 25:6 26:5 27:3 28:2 29:2 30:2 31:1 32:6 33:6 34:0 35:0 36:0 37:0 38:0 39:33 
-8 1:0 2:0 3:0 4:0 5:0 6:0 7:5 8:5 9:5 10:6 11:6 12:5 13:0 14:0 15:0 16:0 17:0 18:0 19:0 20:0 21:0 22:0 23:0 24:0 25:0 26:6 27:5 28:3 29:2 30:1 31:1 32:2 33:6 34:6 35:0 36:0 37:0 38:0 39:32 
-8 1:0 2:0 3:0 4:0 5:5 6:6 7:6 8:7 9:6 10:6 11:0 12:0 13:0 14:0 15:0 16:0 17:0 18:0 19:0 20:0 21:0 22:0 23:6 24:6 25:3 26:2 27:2 28:2 29:3 30:6 31:6 32:0 33:0 34:0 35:0 36:0 37:0 38:0 39:36 
-6.80990511608952 1:0 2:0 3:0 4:0 5:5 6:5 7:6 8:6 9:6 10:6 11:0 12:0 13:0 14:0 15:0 16:0 17:0 18:0 19:0 20:0 21:0 22:0 23:6 24:6 25:2 26:3 27:2 28:1 29:2 30:6 31:6 32:0 33:0 34:0 35:0 36:0 37:0 38:0 39:34 
-8 1:0 2:0 3:0 4:0 5:0 6:5 7:6 8:6 9:7 10:5 11:4 12:1 13:0 14:0 15:0 16:0 17:0 18:0 19:0 20:0 21:0 22:0 23:0 24:0 25:0 26:0 27:6 28:7 29:2 30:2 31:2 32:2 33:2 34:5 35:6 36:0 37:0 38:0 39:34 
-1.627758088923753 1:0 2:0 3:0 4:5 5:5 6:5 7:6 8:6 9:5 10:0 11:0 12:0 13:0 14:0 15:0 16:0 17:0 18:0 19:0 20:0 21:0 22:0 23:0 24:0 25:0 26:6 27:4 28:2 29:2 30:2 31:2 32:2 33:6 34:6 35:0 36:0 37:0 38:0 39:32 
