svm_type c_svc
kernel_type rbf
gamma 0.0078125
nr_class 2
total_sv 47
rho -0.286846
label 0 1
probA -4.46898
probB -0.240315
nr_sv 24 23
SV
0.2845315403842159 1:0 2:0 3:0 4:0 5:2 6:9 7:11 8:0 9:0 10:0 11:0 12:0 13:0 14:0 15:0 16:0 17:0 18:0 19:0 20:0 21:0 22:0 23:1 24:2 25:0 26:0 27:0 28:2 29:2 30:1 31:2 32:2 33:2 34:1 35:2 36:3 37:2 38:0 39:22 
0.4531412275278523 1:0 2:0 3:4 4:12 5:12 6:0 7:0 8:0 9:0 10:0 11:0 12:0 13:0 14:0 15:0 16:0 17:0 18:0 19:0 20:0 21:2 22:2 23:0 24:2 25:2 26:3 27:2 28:1 29:2 30:1 31:2 32:2 33:2 34:3 35:2 36:0 37:0 38:0 39:28 
0.02363121601216503 1:0 2:0 3:2 4:11 5:12 6:0 7:0 8:0 9:0 10:0 11:0 12:0 13:0 14:0 15:0 16:0 17:0 18:0 19:0 20:1 21:2 22:0 23:2 24:1 25:2 26:1 27:2 28:2 29:2 30:1 31:2 32:2 33:3 34:2 35:0 36:0 37:0 38:0 39:25 
0.2544988002593228 1:0 2:0 3:1 4:2 5:7 6:12 7:0 8:0 9:0 10:0 11:0 12:0 13:0 14:0 15:0 16:0 17:0 18:0 19:0 20:0 21:0 22:0 23:1 24:0 25:0 26:2 27:1 28:2 29:1 30:2 31:1 32:2 33:1 34:2 35:2 36:3 37:2 38:0 39:22 
0.3081564581831516 1:0 2:0 3:0 4:3 5:12 6:13 7:0 8:0 9:0 10:0 11:0 12:0 13:0 14:0 15:0 16:0 17:0 18:0 19:0 20:1 21:2 22:2 23:0 24:2 25:2 26:2 27:2 28:1 29:1 30:1 31:2 32:3 33:2 34:3 35:2 36:0 37:0 38:0 39:28 
0.5 1:5 2:4 3:1 4:2 5:11 6:11 7:0 8:0 9:0 10:0 11:0 12:0 13:0 14:0 15:0 16:0 17:0 18:0 19:0 20:0 21:0 22:1 23:3 24:3 25:1 26:3 27:2 28:3 29:3 30:3 31:2 32:2 33:1 34:2 35:1 36:2 37:2 38:0 39:34 
0.4975292219320704 1:3 2:3 3:3 4:6 5:8 6:12 7:12 8:0 9:0 10:0 11:0 12:0 13:0 14:0 15:0 16:0 17:0 18:0 19:0 20:1 21:2 22:2 23:2 24:3 25:3 26:5 27:5 28:2 29:4 30:4 31:5 32:3 33:4 34:2 35:0 36:0 37:0 38:0 39:47 
0.5 1:0 2:0 3:0 4:0 5:0 6:1 7:7 8:11 9:0 10:0 11:0 12:0 13:0 14:0 15:0 16:0 17:0 18:0 19:0 20:0 21:0 22:0 23:0 24:2 25:1 26:0 27:1 28:2 29:0 30:1 31:1 32:1 33:2 34:2 35:2 36:1 37:3 38:0 39:19 
0.4476208548916725 1:0 2:0 3:2 4:7 5:13 6:0 7:0 8:0 9:0 10:0 11:0 12:0 13:0 14:0 15:0 16:0 17:0 18:0 19:0 20:1 21:2 22:0 23:2 24:1 25:2 26:1 27:2 28:1 29:1 30:2 31:1 32:1 33:3 34:2 35:0 36:0 37:0 38:0 39:22 
0.4510036679439935 1:0 2:0 3:0 4:0 5:2 6:9 7:12 8:0 9:0 10:0 11:0 12:0 13:0 14:0 15:0 16:0 17:0 18:0 19:0 20:0 21:1 22:2 23:0 24:0 25:1 26:2 27:2 28:2 29:2 30:1 31:2 32:2 33:1 34:3 35:2 36:0 37:0 38:0 39:23 
0.5 1:0 2:0 3:0 4:1 5:6 6:12 7:0 8:0 9:0 10:1 11:0 12:0 13:0 14:0 15:0 16:0 17:0 18:0 19:0 20:0 21:0 22:0 23:0 24:1 25:0 26:0 27:2 28:2 29:1 30:3 31:1 32:2 33:2 34:1 35:1 36:1 37:3 38:0 39:20 
0.2009673494344806 1:1 2:0 3:0 4:0 5:2 6:13 7:11 8:0 9:0 10:0 11:0 12:0 13:0 14:0 15:0 16:0 17:0 18:0 19:0 20:0 21:1 22:2 23:1 24:2 25:3 26:2 27:1 28:2 29:1 30:1 31:2 32:2 33:2 34:3 35:2 36:0 37:0 38:0 39:27 
0.5 1:4 2:5 3:5 4:1 5:0 6:1 7:10 8:12 9:0 10:0 11:0 12:0 13:0 14:0 15:0 16:0 17:0 18:0 19:0 20:0 21:0 22:2 23:1 24:2 25:3 26:2 27:2 28:3 29:3 30:2 31:4 32:3 33:3 34:1 35:2 36:2 37:3 38:0 39:38 
0.5 1:0 2:0 3:0 4:0 5:0 6:2 7:8 8:13 9:0 10:0 11:0 12:0 13:0 14:0 15:0 16:0 17:0 18:0 19:0 20:2 21:1 22:0 23:1 24:2 25:1 26:2 27:2 28:1 29:2 30:2 31:1 32:2 33:2 34:2 35:0 36:0 37:0 38:0 39:23 
0.1600186061791093 1:0 2:0 3:0 4:0 5:1 6:11 7:10 8:0 9:0 10:0 11:0 12:0 13:0 14:0 15:0 16:0 17:0 18:0 19:0 20:0 21:0 22:2 23:2 24:0 25:2 26:0 27:2 28:2 29:2 30:1 31:1 32:2 33:2 34:1 35:2 36:1 37:0 38:0 39:22 
0.3505385990227756 1:0 2:0 3:0 4:0 5:0 6:2 7:9 8:11 9:0 10:0 11:0 12:0 13:0 14:0 15:0 16:0 17:0 18:0 19:0 20:0 21:0 22:0 23:2 24:2 25:0 26:2 27:2 28:1 29:1 30:1 31:2 32:1 33:1 34:1 35:1 36:3 37:2 38:0 39:22 
0.1592355807311666 1:0 2:0 3:0 4:0 5:2 6:11 7:13 8:1 9:0 10:0 11:0 12:0 13:0 14:0 15:0 16:0 17:0 18:0 19:0 20:0 21:0 22:0 23:1 24:3 25:0 26:1 27:2 28:2 29:2 30:1 31:2 32:2 33:2 34:2 35:2 36:3 37:2 38:0 39:27 
0.3498177035685303 1:0 2:0 3:0 4:0 5:2 6:11 7:12 8:0 9:0 10:0 11:0 12:0 13:0 14:0 15:0 16:0 17:0 18:0 19:0 20:2 21:2 22:0 23:1 24:1 25:1 26:2 27:2 28:2 29:1 30:2 31:2 32:2 33:3 34:2 35:0 36:0 37:0 38:0 39:25 
0.4634005339369402 1:0 2:0 3:1 4:2 5:7 6:13 7:0 8:0 9:0 10:0 11:0 12:0 13:0 14:0 15:0 16:0 17:0 18:0 19:0 20:2 21:2 22:0 23:1 24:1 25:1 26:2 27:1 28:1 29:1 30:2 31:1 32:2 33:4 34:2 35:0 36:0 37:0 38:0 39:23 
0.4875590968264443 1:4 2:6 3:5 4:2 5:2 6:12 7:13 8:0 9:0 10:0 11:0 12:0 13:0 14:0 15:0 16:0 17:0 18:0 19:0 20:2 21:2 22:0 23:2 24:4 25:4 26:3 27:3 28:4 29:3 30:2 31:2 32:4 33:5 34:3 35:1 36:0 37:0 38:0 39:44 
0.4782620935156621 1:0 2:0 3:0 4:0 5:0 6:1 7:13 8:12 9:0 10:0 11:0 12:0 13:0 14:0 15:0 16:0 17:0 18:0 19:0 20:0 21:0 22:2 23:2 24:0 25:2 26:1 27:2 28:2 29:1 30:2 31:2 32:2 33:2 34:2 35:2 36:2 37:0 38:0 39:26 
0.3275005506418037 1:0 2:0 3:2 4:9 5:10 6:0 7:0 8:0 9:0 10:0 11:0 12:0 13:0 14:0 15:0 16:0 17:0 18:0 19:0 20:0 21:2 22:1 23:0 24:2 25:2 26:2 27:1 28:1 29:0 30:0 31:2 32:1 33:2 34:3 35:2 36:0 37:0 38:0 39:21 
0.02964989372920791 1:0 2:0 3:0 4:3 5:10 6:13 7:0 8:0 9:0 10:0 11:0 12:0 13:0 14:0 15:0 16:0 17:0 18:0 19:0 20:0 21:0 22:0 23:1 24:2 25:0 26:2 27:2 28:1 29:3 30:2 31:2 32:2 33:1 34:2 35:1 36:3 37:2 38:0 39:26 
0.2921150415887014 1:0 2:0 3:2 4:8 5:13 6:0 7:0 8:0 9:0 10:0 11:0 12:0 13:0 14:0 15:0 16:0 17:0 18:0 19:0 20:0 21:0 22:0 23:2 24:1 25:0 26:1 27:2 28:1 29:1 30:2 31:1 32:2 33:2 34:1 35:2 36:3 37:2 38:0 39:23 
-0.4454060425377869 1:0 2:0 3:0 4:0 5:0 6:0 7:6 8:8 9:2 10:2 11:1 12:1 13:9 14:0 15:0 16:0 17:0 18:0 19:0 20:0 21:0 22:0 23:3 24:2 25:3 26:3 27:3 28:3 29:3 30:6 31:3 32:0 33:0 34:0 35:0 36:0 37:0 38:0 39:29 
-0.1140539179642225 1:0 2:0 3:0 4:0 5:4 6:7 7:2 8:2 9:0 10:2 11:7 12:0 13:0 14:0 15:0 16:0 17:0 18:0 19:0 20:0 21:0 22:0 23:0 24:0 25:0 26:0 27:1 28:2 29:2 30:3 31:2 32:3 33:3 34:5 35:3 36:0 37:0 38:0 39:24 
-0.5 1:0 2:0 3:0 4:5 5:7 6:2 7:2 8:1 9:1 10:7 11:0 12:0 13:0 14:0 15:0 16:0 17:0 18:0 19:0 20:0 21:0 22:0 23:3 24:3 25:2 26:3 27:2 28:2 29:1 30:6 31:3 32:0 33:0 34:0 35:0 36:0 37:0 38:0 39:25 
-0.3037340222750081 1:0 2:0 3:0 4:0 5:0 6:6 7:8 8:2 9:2 10:1 11:2 12:9 13:1 14:0 15:0 16:0 17:0 18:0 19:0 20:0 21:0 22:0 23:0 24:0 25:3 26:3 27:3 28:3 29:2 30:3 31:4 32:7 33:3 34:0 35:0 36:0 37:0 38:0 39:31 
-0.07465147175696778 1:1 2:0 3:0 4:4 5:8 6:2 7:2 8:1 9:1 10:7 11:1 12:0 13:0 14:0 15:0 16:0 17:0 18:0 19:0 20:0 21:0 22:0 23:0 24:0 25:0 26:4 27:2 28:2 29:1 30:3 31:3 32:3 33:5 34:4 35:0 36:0 37:0 38:0 39:27 
-0.5 1:0 2:0 3:0 4:0 5:4 6:6 7:2 8:2 9:1 10:1 11:5 12:0 13:0 14:0 15:0 16:0 17:0 18:0 19:0 20:0 21:0 22:0 23:0 24:0 25:3 26:1 27:1 28:1 29:1 30:3 31:2 32:6 33:3 34:0 35:0 36:0 37:0 38:0 39:21 
-0.5 1:7 2:1 3:0 4:0 5:0 6:0 7:6 8:5 9:2 10:2 11:1 12:3 13:8 14:1 15:0 16:0 17:0 18:0 19:0 20:0 21:0 22:0 23:4 24:3 25:4 26:3 27:6 28:3 29:4 30:6 31:3 32:0 33:0 34:0 35:0 36:0 37:0 38:0 39:36 
-0.4269327308419752 1:0 2:0 3:0 4:5 5:8 6:3 7:1 8:1 9:2 10:9 11:0 12:0 13:0 14:0 15:0 16:0 17:0 18:0 19:0 20:0 21:0 22:0 23:0 24:0 25:3 26:2 27:3 28:3 29:3 30:3 31:4 32:6 33:2 34:0 35:0 36:0 37:0 38:0 39:29 
-0.2022090520236693 1:0 2:0 3:0 4:0 5:5 6:8 7:2 8:2 9:1 10:2 11:6 12:0 13:0 14:0 15:0 16:0 17:0 18:0 19:0 20:0 21:0 22:0 23:3 24:3 25:3 26:3 27:1 28:2 29:3 30:6 31:2 32:0 33:0 34:0 35:0 36:0 37:0 38:0 39:26 
-0.5 1:0 2:0 3:0 4:0 5:0 6:0 7:4 8:8 9:2 10:2 11:1 12:2 13:7 14:0 15:0 16:0 17:0 18:0 19:0 20:0 21:0 22:0 23:0 24:0 25:0 26:0 27:2 28:2 29:1 30:3 31:3 32:2 33:4 34:6 35:3 36:0 37:0 38:0 39:26 
-0.493907581370688 1:0 2:0 3:0 4:0 5:0 6:7 7:8 8:2 9:2 10:1 11:2 12:9 13:0 14:0 15:0 16:0 17:0 18:0 19:0 20:0 21:0 22:1 23:3 24:3 25:3 26:3 27:3 28:3 29:3 30:6 31:3 32:0 33:0 34:0 35:0 36:0 37:0 38:0 39:31 
-0.5 1:0 2:0 3:0 4:0 5:0 6:0 7:4 8:8 9:2 10:2 11:1 12:2 13:4 14:0 15:0 16:0 17:0 18:0 19:0 20:0 21:0 22:0 23:0 24:0 25:3 26:1 27:2 28:1 29:2 30:2 31:3 32:6 33:3 34:0 35:0 36:0 37:0 38:0 39:23 
-0.5 1:1 2:0 3:0 4:0 5:5 6:8 7:2 8:2 9:1 10:1 11:7 12:0 13:0 14:0 15:0 16:0 17:0 18:0 19:0 20:0 21:0 22:0 23:0 24:0 25:0 26:0 27:2 28:2 29:3 30:3 31:3 32:2 33:3 34:6 35:3 36:0 37:0 38:0 39:27 
-0.3711043342851996 1:0 2:0 3:0 4:0 5:5 6:8 7:2 8:2 9:2 10:3 11:9 12:0 13:0 14:0 15:0 16:0 17:0 18:0 19:0 20:0 21:0 22:0 23:0 24:0 25:0 26:3 27:3 28:2 29:3 30:2 31:4 32:4 33:6 34:4 35:0 36:0 37:0 38:0 39:31 
-0.2785266023611019 1:0 2:0 3:0 4:5 5:7 6:1 7:1 8:1 9:1 10:8 11:0 12:0 13:0 14:0 15:0 16:0 17:0 18:0 19:0 20:0 21:0 22:0 23:0 24:0 25:3 26:3 27:2 28:2 29:3 30:3 31:2 32:4 33:2 34:0 35:0 36:0 37:0 38:0 39:24 
-0.1214540373676267 1:0 2:0 3:0 4:0 5:0 6:0 7:5 8:8 9:2 10:2 11:1 12:2 13:9 14:0 15:0 16:0 17:0 18:0 19:0 20:0 21:0 22:0 23:0 24:3 25:3 26:3 27:3 28:2 29:3 30:3 31:6 32:3 33:0 34:0 35:0 36:0 37:0 38:0 39:29 
-0.137919153527069 1:0 2:0 3:0 4:1 5:3 6:8 7:2 8:2 9:1 10:1 11:9 12:0 13:0 14:0 15:0 16:0 17:0 18:0 19:0 20:0 21:0 22:0 23:0 24:2 25:3 26:3 27:3 28:3 29:2 30:2 31:6 32:3 33:0 34:0 35:0 36:0 37:0 38:0 39:27 
-0.2862186665403743 1:0 2:0 3:0 4:0 5:1 6:7 7:7 8:2 9:2 10:1 11:2 12:9 13:1 14:0 15:0 16:0 17:0 18:1 19:1 20:0 21:0 22:0 23:0 24:0 25:0 26:3 27:2 28:3 29:2 30:3 31:4 32:4 33:6 34:3 35:0 36:0 37:0 38:0 39:32 
-0.5 1:0 2:0 3:0 4:0 5:0 6:4 7:8 8:2 9:1 10:1 11:1 12:5 13:0 14:0 15:0 16:0 17:0 18:0 19:0 20:0 21:0 22:0 23:2 24:3 25:1 26:2 27:1 28:2 29:3 30:5 31:3 32:0 33:0 34:0 35:0 36:0 37:0 38:0 39:22 
-0.5 1:0 2:0 3:0 4:0 5:0 6:6 7:7 8:2 9:3 10:1 11:2 12:6 13:0 14:0 15:0 16:0 17:0 18:0 19:0 20:0 21:0 22:0 23:0 24:0 25:0 26:0 27:3 28:3 29:2 30:2 31:2 32:2 33:4 34:5 35:3 36:1 37:0 38:0 39:27 
-0.2630604234575767 1:0 2:0 3:0 4:0 5:0 6:0 7:5 8:7 9:1 10:2 11:1 12:1 13:6 14:0 15:0 16:0 17:0 18:0 19:0 20:0 21:0 22:0 23:0 24:0 25:2 26:2 27:1 28:3 29:2 30:2 31:3 32:5 33:3 34:0 35:0 36:0 37:0 38:0 39:23 
-0.5 1:0 2:0 3:0 4:4 5:8 6:2 7:2 8:1 9:2 10:7 11:0 12:0 13:0 14:0 15:0 16:0 17:0 18:0 19:0 20:0 21:0 22:0 23:0 24:0 25:0 26:3 27:2 28:3 29:1 30:2 31:3 32:3 33:6 34:3 35:0 36:0 37:0 38:0 39:26 
-0.5 1:0 2:0 3:0 4:0 5:3 6:8 7:2 8:2 9:1 10:1 11:6 12:0 13:0 14:0 15:0 16:0 17:0 18:0 19:0 20:0 21:0 22:0 23:3 24:1 25:1 26:1 27:2 28:3 29:3 30:6 31:3 32:0 33:0 34:0 35:0 36:0 37:0 38:0 39:23 
