svm_type c_svc
kernel_type rbf
gamma 0.0078125
nr_class 2
total_sv 30
rho -0.56135
label 0 1
probA -4.26311
probB -0.401313
nr_sv 15 15
SV
0.5739625514658061 1:0 2:0 3:0 4:0 5:2 6:9 7:11 8:0 9:0 10:0 11:0 12:0 13:0 14:0 15:0 16:0 17:0 18:0 19:0 20:0 21:0 22:0 23:1 24:2 25:0 26:0 27:0 28:2 29:2 30:1 31:2 32:2 33:2 34:1 35:2 36:3 37:2 38:0 39:22 
0.09384947658165796 1:0 2:0 3:1 4:2 5:7 6:12 7:0 8:0 9:0 10:0 11:0 12:0 13:0 14:0 15:0 16:0 17:0 18:0 19:0 20:0 21:0 22:0 23:1 24:0 25:0 26:2 27:1 28:2 29:1 30:2 31:1 32:2 33:1 34:2 35:2 36:3 37:2 38:0 39:22 
0.3195032949230696 1:5 2:4 3:1 4:2 5:11 6:11 7:0 8:0 9:0 10:0 11:0 12:0 13:0 14:0 15:0 16:0 17:0 18:0 19:0 20:0 21:0 22:1 23:3 24:3 25:1 26:3 27:2 28:3 29:3 30:3 31:2 32:2 33:1 34:2 35:1 36:2 37:2 38:0 39:34 
0.3035793101743539 1:3 2:3 3:3 4:6 5:8 6:12 7:12 8:0 9:0 10:0 11:0 12:0 13:0 14:0 15:0 16:0 17:0 18:0 19:0 20:1 21:2 22:2 23:2 24:3 25:3 26:5 27:5 28:2 29:4 30:4 31:5 32:3 33:4 34:2 35:0 36:0 37:0 38:0 39:47 
2 1:0 2:0 3:0 4:0 5:0 6:1 7:7 8:11 9:0 10:0 11:0 12:0 13:0 14:0 15:0 16:0 17:0 18:0 19:0 20:0 21:0 22:0 23:0 24:2 25:1 26:0 27:1 28:2 29:0 30:1 31:1 32:1 33:2 34:2 35:2 36:1 37:3 38:0 39:19 
0.8769044561061304 1:0 2:0 3:2 4:7 5:13 6:0 7:0 8:0 9:0 10:0 11:0 12:0 13:0 14:0 15:0 16:0 17:0 18:0 19:0 20:1 21:2 22:0 23:2 24:1 25:2 26:1 27:2 28:1 29:1 30:2 31:1 32:1 33:3 34:2 35:0 36:0 37:0 38:0 39:22 
1.247275967819685 1:0 2:0 3:0 4:0 5:2 6:9 7:12 8:0 9:0 10:0 11:0 12:0 13:0 14:0 15:0 16:0 17:0 18:0 19:0 20:0 21:1 22:2 23:0 24:0 25:1 26:2 27:2 28:2 29:2 30:1 31:2 32:2 33:1 34:3 35:2 36:0 37:0 38:0 39:23 
2 1:0 2:0 3:0 4:1 5:6 6:12 7:0 8:0 9:0 10:1 11:0 12:0 13:0 14:0 15:0 16:0 17:0 18:0 19:0 20:0 21:0 22:0 23:0 24:1 25:0 26:0 27:2 28:2 29:1 30:3 31:1 32:2 33:2 34:1 35:1 36:1 37:3 38:0 39:20 
0.3550230376360032 1:4 2:5 3:5 4:1 5:0 6:1 7:10 8:12 9:0 10:0 11:0 12:0 13:0 14:0 15:0 16:0 17:0 18:0 19:0 20:0 21:0 22:2 23:1 24:2 25:3 26:2 27:2 28:3 29:3 30:2 31:4 32:3 33:3 34:1 35:2 36:2 37:3 38:0 39:38 
0.9271482301437379 1:0 2:0 3:0 4:0 5:0 6:2 7:8 8:13 9:0 10:0 11:0 12:0 13:0 14:0 15:0 16:0 17:0 18:0 19:0 20:2 21:1 22:0 23:1 24:2 25:1 26:2 27:2 28:1 29:2 30:2 31:1 32:2 33:2 34:2 35:0 36:0 37:0 38:0 39:23 
1.542909885913229 1:0 2:0 3:0 4:0 5:1 6:11 7:10 8:0 9:0 10:0 11:0 12:0 13:0 14:0 15:0 16:0 17:0 18:0 19:0 20:0 21:0 22:2 23:2 24:0 25:2 26:0 27:2 28:2 29:2 30:1 31:1 32:2 33:2 34:1 35:2 36:1 37:0 38:0 39:22 
0.7906456736283601 1:0 2:0 3:0 4:0 5:0 6:2 7:9 8:11 9:0 10:0 11:0 12:0 13:0 14:0 15:0 16:0 17:0 18:0 19:0 20:0 21:0 22:0 23:2 24:2 25:0 26:2 27:2 28:1 29:1 30:1 31:2 32:1 33:1 34:1 35:1 36:3 37:2 38:0 39:22 
0.5685720598927539 1:0 2:0 3:1 4:2 5:7 6:13 7:0 8:0 9:0 10:0 11:0 12:0 13:0 14:0 15:0 16:0 17:0 18:0 19:0 20:2 21:2 22:0 23:1 24:1 25:1 26:2 27:1 28:1 29:1 30:2 31:1 32:2 33:4 34:2 35:0 36:0 37:0 38:0 39:23 
0.2651549828130909 1:4 2:6 3:5 4:2 5:2 6:12 7:13 8:0 9:0 10:0 11:0 12:0 13:0 14:0 15:0 16:0 17:0 18:0 19:0 20:2 21:2 22:0 23:2 24:4 25:4 26:3 27:3 28:4 29:3 30:2 31:2 32:4 33:5 34:3 35:1 36:0 37:0 38:0 39:44 
0.8526862684834136 1:0 2:0 3:2 4:9 5:10 6:0 7:0 8:0 9:0 10:0 11:0 12:0 13:0 14:0 15:0 16:0 17:0 18:0 19:0 20:0 21:2 22:1 23:0 24:2 25:2 26:2 27:1 28:1 29:0 30:0 31:2 32:1 33:2 34:3 35:2 36:0 37:0 38:0 39:21 
-0.4398750962795083 1:0 2:0 3:0 4:0 5:0 6:0 7:2 8:7 9:3 10:3 11:0 12:0 13:0 14:0 15:0 16:0 17:0 18:0 19:0 20:0 21:0 22:1 23:1 24:2 25:4 26:1 27:0 28:0 29:0 30:0 31:3 32:3 33:0 34:0 35:0 36:0 37:0 38:0 39:15 
-0.2125697007527679 1:0 2:0 3:0 4:0 5:0 6:0 7:2 8:11 9:4 10:4 11:0 12:0 13:0 14:0 15:0 16:0 17:0 18:0 19:0 20:0 21:0 22:0 23:0 24:1 25:1 26:4 27:4 28:1 29:1 30:1 31:1 32:1 33:3 34:3 35:0 36:0 37:0 38:0 39:21 
-0.9236691264333274 1:0 2:0 3:0 4:0 5:2 6:10 7:4 8:4 9:0 10:0 11:0 12:0 13:0 14:0 15:0 16:0 17:0 18:0 19:0 20:0 21:0 22:0 23:0 24:0 25:1 26:1 27:4 28:4 29:1 30:1 31:1 32:1 33:1 34:3 35:2 36:0 37:0 38:0 39:20 
-1.295339197099364 1:0 2:0 3:0 4:0 5:2 6:10 7:4 8:2 9:0 10:0 11:0 12:0 13:0 14:0 15:0 16:0 17:0 18:0 19:0 20:0 21:0 22:0 23:0 24:0 25:0 26:1 27:4 28:4 29:1 30:1 31:1 32:1 33:1 34:2 35:2 36:0 37:0 38:0 39:18 
-0.5848702609544079 1:0 2:0 3:0 4:0 5:0 6:0 7:2 8:11 9:4 10:5 11:0 12:0 13:0 14:0 15:0 16:0 17:0 18:0 19:0 20:0 21:0 22:0 23:0 24:1 25:2 26:4 27:4 28:1 29:1 30:1 31:1 32:1 33:3 34:3 35:0 36:0 37:0 38:0 39:22 
-1.714123095447992 1:0 2:0 3:0 4:0 5:2 6:11 7:5 8:3 9:0 10:0 11:0 12:0 13:0 14:0 15:0 16:0 17:0 18:0 19:0 20:0 21:1 22:1 23:4 24:3 25:1 26:2 27:1 28:1 29:1 30:3 31:3 32:0 33:0 34:0 35:0 36:0 37:0 38:0 39:21 
-0.9841123304558314 1:0 2:0 3:0 4:0 5:1 6:3 7:11 8:4 9:3 10:0 11:0 12:0 13:0 14:0 15:0 16:0 17:0 18:1 19:1 20:0 21:1 22:1 23:3 24:4 25:1 26:1 27:1 28:1 29:1 30:3 31:3 32:0 33:0 34:0 35:0 36:0 37:0 38:0 39:22 
-1.532662827968203 1:0 2:0 3:0 4:2 5:10 6:4 7:4 8:0 9:0 10:0 11:0 12:0 13:0 14:0 15:0 16:0 17:0 18:0 19:0 20:0 21:0 22:0 23:0 24:1 25:1 26:4 27:4 28:1 29:1 30:1 31:1 32:1 33:3 34:2 35:0 36:0 37:0 38:0 39:20 
-0.6822589854034548 1:0 2:0 3:0 4:0 5:0 6:0 7:2 8:10 9:4 10:4 11:0 12:0 13:0 14:0 15:0 16:0 17:0 18:0 19:0 20:0 21:1 22:1 23:4 24:4 25:1 26:0 27:1 28:1 29:1 30:3 31:3 32:0 33:0 34:0 35:0 36:0 37:0 38:0 39:20 
-0.3143478598418666 1:0 2:0 3:0 4:0 5:2 6:9 7:4 8:4 9:0 10:0 11:0 12:0 13:0 14:0 15:0 16:0 17:0 18:0 19:0 20:0 21:0 22:0 23:1 24:1 25:4 26:4 27:1 28:1 29:1 30:0 31:0 32:3 33:3 34:0 35:0 36:0 37:0 38:0 39:19 
-1.03541517599162 1:1 2:1 3:0 4:2 5:9 6:4 7:4 8:0 9:0 10:0 11:0 12:0 13:0 14:0 15:0 16:0 17:0 18:0 19:1 20:1 21:0 22:1 23:1 24:4 25:4 26:1 27:1 28:1 29:0 30:0 31:3 32:3 33:0 34:0 35:0 36:0 37:0 38:0 39:21 
-0.1378808190131031 1:0 2:0 3:0 4:2 5:9 6:4 7:4 8:0 9:0 10:0 11:0 12:0 13:0 14:0 15:0 16:0 17:0 18:0 19:0 20:0 21:0 22:0 23:4 24:4 25:1 26:1 27:1 28:1 29:1 30:3 31:3 32:0 33:0 34:0 35:0 36:0 37:0 38:0 39:19 
-0.9988218952549072 1:1 2:1 3:0 4:0 5:0 6:2 7:10 8:4 9:3 10:0 11:0 12:0 13:0 14:0 15:0 16:0 17:0 18:0 19:1 20:1 21:0 22:0 23:1 24:1 25:3 26:3 27:1 28:1 29:1 30:2 31:0 32:3 33:3 34:0 35:0 36:0 37:0 38:0 39:21 
-0.9119737029025764 1:0 2:0 3:0 4:0 5:0 6:0 7:2 8:11 9:4 10:4 11:0 12:0 13:0 14:0 15:0 16:0 17:0 18:0 19:0 20:0 21:0 22:0 23:0 24:0 25:1 26:1 27:4 28:4 29:1 30:1 31:1 32:1 33:1 34:3 35:3 36:0 37:0 38:0 39:21 
-0.9492951217823616 1:0 2:0 3:0 4:0 5:0 6:2 7:10 8:4 9:4 10:0 11:0 12:0 13:0 14:0 15:0 16:0 17:0 18:0 19:0 20:0 21:0 22:0 23:0 24:0 25:0 26:1 27:4 28:4 29:1 30:1 31:1 32:1 33:1 34:3 35:3 36:0 37:0 38:0 39:20 
