svm_type c_svc
kernel_type rbf
gamma 0.00012207
nr_class 2
total_sv 23
rho -1.59016
label 0 1
probA -3.67554
probB -0.472035
nr_sv 12 11
SV
2.88753854057519 1:0 2:0 3:4 4:12 5:12 6:0 7:0 8:0 9:0 10:0 11:0 12:0 13:0 14:0 15:0 16:0 17:0 18:0 19:0 20:0 21:2 22:2 23:0 24:2 25:2 26:3 27:2 28:1 29:2 30:1 31:2 32:2 33:2 34:3 35:2 36:0 37:0 38:0 39:28 
6.396361471706064 1:0 2:0 3:0 4:3 5:12 6:13 7:0 8:0 9:0 10:0 11:0 12:0 13:0 14:0 15:0 16:0 17:0 18:0 19:0 20:1 21:2 22:2 23:0 24:2 25:2 26:2 27:2 28:1 29:1 30:1 31:2 32:3 33:2 34:3 35:2 36:0 37:0 38:0 39:28 
8 1:5 2:4 3:1 4:2 5:11 6:11 7:0 8:0 9:0 10:0 11:0 12:0 13:0 14:0 15:0 16:0 17:0 18:0 19:0 20:0 21:0 22:1 23:3 24:3 25:1 26:3 27:2 28:3 29:3 30:3 31:2 32:2 33:1 34:2 35:1 36:2 37:2 38:0 39:34 
8 1:3 2:3 3:3 4:6 5:8 6:12 7:12 8:0 9:0 10:0 11:0 12:0 13:0 14:0 15:0 16:0 17:0 18:0 19:0 20:1 21:2 22:2 23:2 24:3 25:3 26:5 27:5 28:2 29:4 30:4 31:5 32:3 33:4 34:2 35:0 36:0 37:0 38:0 39:47 
4.162077672095628 1:0 2:0 3:0 4:1 5:6 6:12 7:0 8:0 9:0 10:1 11:0 12:0 13:0 14:0 15:0 16:0 17:0 18:0 19:0 20:0 21:0 22:0 23:0 24:1 25:0 26:0 27:2 28:2 29:1 30:3 31:1 32:2 33:2 34:1 35:1 36:1 37:3 38:0 39:20 
8 1:4 2:5 3:5 4:1 5:0 6:1 7:10 8:12 9:0 10:0 11:0 12:0 13:0 14:0 15:0 16:0 17:0 18:0 19:0 20:0 21:0 22:2 23:1 24:2 25:3 26:2 27:2 28:3 29:3 30:2 31:4 32:3 33:3 34:1 35:2 36:2 37:3 38:0 39:38 
8 1:0 2:0 3:0 4:0 5:0 6:2 7:8 8:13 9:0 10:0 11:0 12:0 13:0 14:0 15:0 16:0 17:0 18:0 19:0 20:2 21:1 22:0 23:1 24:2 25:1 26:2 27:2 28:1 29:2 30:2 31:1 32:2 33:2 34:2 35:0 36:0 37:0 38:0 39:23 
8 1:0 2:0 3:0 4:0 5:0 6:2 7:9 8:11 9:0 10:0 11:0 12:0 13:0 14:0 15:0 16:0 17:0 18:0 19:0 20:0 21:0 22:0 23:2 24:2 25:0 26:2 27:2 28:1 29:1 30:1 31:2 32:1 33:1 34:1 35:1 36:3 37:2 38:0 39:22 
1.992875371498817 1:0 2:0 3:0 4:0 5:2 6:11 7:12 8:0 9:0 10:0 11:0 12:0 13:0 14:0 15:0 16:0 17:0 18:0 19:0 20:2 21:2 22:0 23:1 24:1 25:1 26:2 27:2 28:2 29:1 30:2 31:2 32:2 33:3 34:2 35:0 36:0 37:0 38:0 39:25 
8 1:4 2:6 3:5 4:2 5:2 6:12 7:13 8:0 9:0 10:0 11:0 12:0 13:0 14:0 15:0 16:0 17:0 18:0 19:0 20:2 21:2 22:0 23:2 24:4 25:4 26:3 27:3 28:4 29:3 30:2 31:2 32:4 33:5 34:3 35:1 36:0 37:0 38:0 39:44 
8 1:0 2:0 3:0 4:0 5:0 6:1 7:13 8:12 9:0 10:0 11:0 12:0 13:0 14:0 15:0 16:0 17:0 18:0 19:0 20:0 21:0 22:2 23:2 24:0 25:2 26:1 27:2 28:2 29:1 30:2 31:2 32:2 33:2 34:2 35:2 36:2 37:0 38:0 39:26 
2.234386155506708 1:0 2:0 3:0 4:3 5:10 6:13 7:0 8:0 9:0 10:0 11:0 12:0 13:0 14:0 15:0 16:0 17:0 18:0 19:0 20:0 21:0 22:0 23:1 24:2 25:0 26:2 27:2 28:1 29:3 30:2 31:2 32:2 33:1 34:2 35:1 36:3 37:2 38:0 39:26 
-8 1:0 2:0 3:0 4:1 5:2 6:5 7:6 8:5 9:6 10:5 11:2 12:0 13:0 14:0 15:0 16:0 17:0 18:0 19:0 20:0 21:0 22:0 23:0 24:3 25:3 26:2 27:5 28:4 29:3 30:4 31:5 32:3 33:0 34:0 35:0 36:0 37:0 38:0 39:32 
-1.582224951548878 1:0 2:0 3:0 4:0 5:0 6:0 7:3 8:6 9:4 10:6 11:6 12:3 13:1 14:0 15:0 16:0 17:0 18:0 19:0 20:0 21:0 22:0 23:0 24:0 25:0 26:3 27:5 28:2 29:3 30:5 31:1 32:4 33:4 34:2 35:0 36:0 37:0 38:0 39:29 
-0.5627559840199065 1:0 2:0 3:0 4:0 5:2 6:6 7:6 8:6 9:6 10:6 11:2 12:0 13:0 14:0 15:0 16:0 17:0 18:0 19:0 20:0 21:0 22:0 23:4 24:5 25:3 26:2 27:5 28:3 29:4 30:5 31:3 32:0 33:0 34:0 35:0 36:0 37:0 38:0 39:34 
-8 1:1 2:0 3:0 4:0 5:3 6:7 7:6 8:6 9:5 10:4 11:1 12:0 13:0 14:0 15:0 16:0 17:0 18:0 19:0 20:0 21:0 22:0 23:0 24:0 25:0 26:4 27:5 28:2 29:4 30:4 31:3 32:2 33:5 34:4 35:0 36:0 37:0 38:0 39:33 
-8 1:0 2:0 3:0 4:0 5:4 6:7 7:5 8:5 9:6 10:6 11:2 12:0 13:0 14:0 15:0 16:0 17:0 18:0 19:0 20:0 21:0 22:0 23:0 24:0 25:0 26:0 27:4 28:6 29:3 30:3 31:4 32:3 33:4 34:5 35:3 36:0 37:0 38:0 39:35 
-7.528258275813623 1:0 2:0 3:0 4:0 5:3 6:7 7:6 8:6 9:5 10:6 11:2 12:0 13:0 14:0 15:0 16:0 17:0 18:0 19:0 20:0 21:0 22:0 23:0 24:0 25:0 26:4 27:6 28:2 29:5 30:4 31:2 32:4 33:5 34:3 35:0 36:0 37:0 38:0 39:35 
-8 1:0 2:0 3:0 4:0 5:2 6:6 7:6 8:6 9:6 10:5 11:2 12:0 13:0 14:0 15:0 16:0 17:0 18:0 19:0 20:0 21:0 22:0 23:4 24:6 25:2 26:3 27:5 28:3 29:3 30:4 31:3 32:0 33:0 34:0 35:0 36:0 37:0 38:0 39:33 
-8 1:0 2:0 3:0 4:0 5:3 6:6 7:6 8:5 9:4 10:4 11:2 12:0 13:0 14:0 15:0 16:0 17:0 18:0 19:0 20:0 21:0 22:0 23:0 24:0 25:0 26:3 27:4 28:2 29:3 30:4 31:3 32:4 33:5 34:2 35:0 36:0 37:0 38:0 39:30 
-8 1:0 2:0 3:0 4:3 5:7 6:6 7:6 8:6 9:6 10:2 11:0 12:0 13:0 14:0 15:0 16:0 17:0 18:0 19:0 20:0 21:0 22:0 23:0 24:4 25:6 26:3 27:3 28:5 29:3 30:4 31:5 32:3 33:0 34:0 35:0 36:0 37:0 38:0 39:36 
-8 1:0 2:0 3:0 4:4 5:7 6:6 7:6 8:6 9:6 10:2 11:0 12:0 13:0 14:0 15:0 16:0 17:0 18:0 19:0 20:0 21:0 22:0 23:0 24:4 25:6 26:3 27:4 28:5 29:3 30:4 31:5 32:3 33:0 34:0 35:0 36:0 37:0 38:0 39:37 
-8 1:0 2:0 3:0 4:0 5:0 6:3 7:7 8:5 9:4 10:6 11:6 12:1 13:0 14:0 15:0 16:0 17:0 18:0 19:0 20:0 21:0 22:0 23:0 24:0 25:3 26:5 27:3 28:3 29:4 30:2 31:4 32:5 33:3 34:0 35:0 36:0 37:0 38:0 39:32 
