svm_type c_svc
kernel_type rbf
gamma 0.03125
nr_class 2
total_sv 64
rho 0.253216
label 0 1
probA -6.63243
probB 0.288857
nr_sv 29 35
SV
0.7821394302043744 1:0 2:0 3:0 4:0 5:0 6:0 7:10 8:12 9:2 10:2 11:3 12:4 13:2 14:0 15:0 16:0 17:0 18:0 19:0 20:0 21:0 22:0 23:2 24:2 25:1 26:3 27:4 28:1 29:4 30:5 31:3 32:3 33:3 34:3 35:1 36:0 37:0 38:0 39:35 
0.3634352461033595 1:1 2:0 3:0 4:0 5:0 6:8 7:11 8:2 9:4 10:4 11:3 12:3 13:0 14:0 15:0 16:0 17:0 18:0 19:0 20:0 21:2 22:1 23:1 24:5 25:3 26:3 27:4 28:5 29:3 30:3 31:4 32:2 33:0 34:0 35:0 36:0 37:0 38:0 39:36 
0.5541248817179529 1:0 2:0 3:0 4:0 5:10 6:12 7:1 8:2 9:2 10:3 11:2 12:0 13:0 14:0 15:0 16:0 17:0 18:0 19:0 20:0 21:0 22:1 23:2 24:2 25:3 26:3 27:3 28:3 29:4 30:3 31:3 32:3 33:2 34:0 35:0 36:0 37:0 38:0 39:32 
0.7132958308647921 1:0 2:0 3:1 4:6 5:11 6:3 7:3 8:4 9:4 10:3 11:0 12:0 13:0 14:0 15:0 16:0 17:0 18:0 19:0 20:2 21:2 22:2 23:4 24:4 25:3 26:4 27:5 28:2 29:3 30:3 31:1 32:0 33:0 34:0 35:0 36:0 37:0 38:0 39:35 
0.7808590735373954 1:0 2:0 3:0 4:0 5:0 6:0 7:9 8:12 9:2 10:3 11:4 12:4 13:3 14:0 15:0 16:0 17:0 18:0 19:0 20:0 21:2 22:2 23:2 24:3 25:4 26:4 27:3 28:4 29:4 30:3 31:3 32:3 33:0 34:0 35:0 36:0 37:0 38:0 39:37 
0.9517051855598857 1:0 2:0 3:0 4:0 5:0 6:0 7:4 8:10 9:2 10:3 11:2 12:4 13:3 14:0 15:0 16:0 17:0 18:0 19:0 20:0 21:0 22:1 23:1 24:1 25:3 26:3 27:3 28:3 29:3 30:3 31:2 32:3 33:2 34:0 35:0 36:0 37:0 38:0 39:28 
0.2228875789076945 1:0 2:0 3:0 4:0 5:0 6:9 7:12 8:2 9:3 10:2 11:4 12:3 13:0 14:0 15:0 16:0 17:0 18:0 19:0 20:0 21:2 22:2 23:1 24:4 25:2 26:4 27:4 28:5 29:2 30:3 31:3 32:3 33:0 34:0 35:0 36:0 37:0 38:0 39:35 
0.3735282396083032 1:0 2:0 3:0 4:0 5:0 6:6 7:12 8:2 9:3 10:3 11:4 12:2 13:0 14:0 15:0 16:0 17:0 18:0 19:0 20:0 21:0 22:1 23:2 24:2 25:4 26:3 27:4 28:3 29:3 30:2 31:2 32:4 33:2 34:0 35:0 36:0 37:0 38:0 39:32 
0.6451286320265803 1:1 2:0 3:0 4:0 5:0 6:0 7:6 8:10 9:2 10:3 11:4 12:4 13:2 14:0 15:0 16:0 17:0 18:0 19:0 20:1 21:0 22:0 23:0 24:1 25:2 26:2 27:4 28:3 29:4 30:2 31:5 32:2 33:3 34:2 35:1 36:0 37:0 38:0 39:32 
0.6818019486273097 1:0 2:0 3:0 4:0 5:0 6:0 7:8 8:11 9:1 10:2 11:4 12:4 13:2 14:0 15:0 16:0 17:0 18:0 19:0 20:2 21:2 22:1 23:4 24:4 25:4 26:3 27:1 28:3 29:3 30:3 31:2 32:0 33:0 34:0 35:0 36:0 37:0 38:0 39:32 
0.008042185693746012 1:0 2:0 3:0 4:7 5:12 6:2 7:3 8:4 9:4 10:3 11:0 12:0 13:0 14:0 15:0 16:0 17:0 18:0 19:0 20:1 21:2 22:2 23:3 24:3 25:3 26:4 27:4 28:3 29:3 30:4 31:3 32:0 33:0 34:0 35:0 36:0 37:0 38:0 39:35 
0.6776276806878877 1:0 2:0 3:0 4:8 5:12 6:2 7:3 8:4 9:4 10:3 11:0 12:0 13:0 14:0 15:0 16:0 17:0 18:0 19:0 20:0 21:0 22:2 23:1 24:1 25:4 26:4 27:3 28:4 29:4 30:3 31:3 32:4 33:3 34:0 35:0 36:0 37:0 38:0 39:36 
0.8890489750520826 1:0 2:0 3:0 4:0 5:7 6:10 7:3 8:2 9:4 10:4 11:3 12:0 13:0 14:0 15:0 16:0 17:0 18:0 19:0 20:2 21:1 22:1 23:5 24:4 25:4 26:2 27:5 28:3 29:3 30:2 31:1 32:0 33:0 34:0 35:0 36:0 37:0 38:0 39:33 
0.4903784688211242 1:0 2:0 3:0 4:0 5:9 6:10 7:2 8:3 9:5 10:4 11:2 12:0 13:0 14:0 15:0 16:0 17:0 18:0 19:0 20:0 21:0 22:0 23:0 24:2 25:2 26:1 27:4 28:4 29:4 30:4 31:5 32:2 33:3 34:2 35:2 36:0 37:0 38:0 39:35 
0.817052640551047 1:0 2:0 3:0 4:9 5:11 6:3 7:3 8:4 9:4 10:3 11:0 12:0 13:0 14:0 15:0 16:0 17:0 18:0 19:0 20:0 21:2 22:3 23:1 24:4 25:4 26:4 27:4 28:5 29:1 30:3 31:3 32:3 33:0 34:0 35:0 36:0 37:0 38:0 39:37 
0.8475485949773058 1:0 2:0 3:0 4:0 5:0 6:6 7:10 8:2 9:3 10:3 11:4 12:2 13:0 14:0 15:0 16:0 17:0 18:0 19:0 20:0 21:0 22:0 23:1 24:1 25:2 26:3 27:4 28:3 29:3 30:4 31:3 32:3 33:3 34:0 35:0 36:0 37:0 38:0 39:30 
0.729840258985754 1:0 2:0 3:0 4:0 5:7 6:12 7:2 8:3 9:4 10:4 11:2 12:0 13:0 14:0 15:0 16:0 17:0 18:0 19:0 20:0 21:0 22:0 23:0 24:1 25:2 26:1 27:2 28:4 29:3 30:4 31:5 32:3 33:2 34:4 35:3 36:0 37:0 38:0 39:34 
0.8613475986147594 1:0 2:0 3:0 4:0 5:0 6:10 7:12 8:2 9:2 10:4 11:3 12:3 13:0 14:0 15:0 16:0 17:0 18:0 19:0 20:0 21:0 22:0 23:2 24:2 25:2 26:2 27:4 28:2 29:4 30:5 31:2 32:3 33:4 34:4 35:0 36:0 37:0 38:0 39:36 
0.6126797998193352 1:0 2:0 3:0 4:8 5:8 6:3 7:3 8:4 9:4 10:3 11:0 12:0 13:0 14:0 15:0 16:0 17:0 18:0 19:0 20:1 21:1 22:2 23:3 24:3 25:4 26:4 27:4 28:4 29:2 30:4 31:1 32:0 33:0 34:0 35:0 36:0 37:0 38:0 39:33 
0.491059608656589 1:0 2:0 3:0 4:0 5:0 6:0 7:8 8:11 9:2 10:2 11:4 12:4 13:3 14:0 15:0 16:0 17:0 18:0 19:0 20:2 21:2 22:1 23:3 24:3 25:3 26:4 27:5 28:3 29:2 30:4 31:2 32:0 33:0 34:0 35:0 36:0 37:0 38:0 39:34 
0.3835694336548146 1:0 2:0 3:0 4:0 5:0 6:0 7:8 8:11 9:2 10:2 11:5 12:4 13:3 14:0 15:0 16:0 17:0 18:0 19:0 20:0 21:0 22:1 23:1 24:2 25:4 26:3 27:3 28:5 29:5 30:3 31:2 32:3 33:3 34:0 35:0 36:0 37:0 38:0 39:35 
0.4186373207846396 1:0 2:0 3:0 4:0 5:6 6:12 7:2 8:3 9:3 10:5 11:3 12:0 13:0 14:0 15:0 16:0 17:0 18:0 19:0 20:0 21:1 22:2 23:3 24:4 25:3 26:3 27:3 28:5 29:2 30:2 31:4 32:2 33:0 34:0 35:0 36:0 37:0 38:0 39:34 
0.3630534926985192 1:0 2:0 3:0 4:0 5:8 6:12 7:2 8:2 9:3 10:4 11:2 12:0 13:0 14:0 15:0 16:0 17:0 18:0 19:0 20:0 21:0 22:0 23:1 24:2 25:2 26:3 27:4 28:2 29:3 30:5 31:3 32:3 33:3 34:2 35:0 36:0 37:0 38:0 39:33 
0.6700418598336544 1:0 2:0 3:0 4:0 5:9 6:12 7:2 8:3 9:4 10:4 11:3 12:0 13:0 14:0 15:0 16:0 17:0 18:0 19:0 20:0 21:1 22:2 23:2 24:3 25:4 26:3 27:4 28:5 29:3 30:3 31:4 32:3 33:0 34:0 35:0 36:0 37:0 38:0 39:37 
0.5140882552208044 1:0 2:0 3:0 4:0 5:0 6:0 7:8 8:10 9:2 10:2 11:4 12:4 13:3 14:0 15:0 16:0 17:0 18:0 19:0 20:0 21:0 22:0 23:1 24:2 25:1 26:4 27:3 28:3 29:4 30:5 31:1 32:3 33:4 34:2 35:0 36:0 37:0 38:0 39:33 
0.9828364748695314 1:0 2:0 3:0 4:0 5:0 6:10 7:12 8:4 9:3 10:3 11:4 12:3 13:0 14:0 15:0 16:0 17:0 18:0 19:0 20:0 21:0 22:2 23:1 24:2 25:4 26:4 27:4 28:3 29:4 30:4 31:3 32:4 33:3 34:1 35:0 36:0 37:0 38:0 39:39 
0.4319366526370028 1:0 2:0 3:0 4:0 5:1 6:8 7:12 8:2 9:3 10:3 11:3 12:2 13:0 14:0 15:0 16:0 17:0 18:0 19:0 20:0 21:2 22:2 23:1 24:4 25:5 26:3 27:4 28:5 29:2 30:2 31:3 32:1 33:0 34:0 35:0 36:0 37:0 38:0 39:34 
0.7807374602846535 1:0 2:0 3:0 4:7 5:11 6:0 7:3 8:4 9:4 10:3 11:0 12:0 13:0 14:0 15:0 16:0 17:0 18:0 19:0 20:0 21:0 22:2 23:2 24:1 25:4 26:4 27:2 28:2 29:4 30:3 31:2 32:4 33:2 34:0 35:0 36:0 37:0 38:0 39:32 
0.4232088783151269 1:1 2:0 3:0 4:0 5:0 6:10 7:11 8:1 9:3 10:4 11:4 12:2 13:0 14:0 15:0 16:0 17:0 18:0 19:0 20:0 21:2 22:2 23:2 24:4 25:4 26:2 27:3 28:5 29:3 30:2 31:4 32:3 33:0 34:0 35:0 36:0 37:0 38:0 39:36 
-0.335811652714306 1:0 2:0 3:0 4:5 5:11 6:3 7:4 8:4 9:4 10:7 11:3 12:0 13:0 14:0 15:0 16:0 17:0 18:0 19:0 20:0 21:0 22:0 23:0 24:0 25:0 26:0 27:5 28:7 29:2 30:3 31:3 32:4 33:3 34:6 35:5 36:1 37:2 38:0 39:41 
-0.4659792006741779 1:0 2:0 3:0 4:0 5:0 6:8 7:10 8:2 9:3 10:4 11:4 12:7 13:2 14:0 15:0 16:0 17:0 18:0 19:0 20:0 21:0 22:0 23:0 24:0 25:0 26:0 27:4 28:6 29:3 30:3 31:3 32:3 33:3 34:7 35:4 36:2 37:2 38:0 39:40 
-0.4763470137374201 1:0 2:0 3:0 4:0 5:0 6:10 7:12 8:1 9:3 10:3 11:4 12:7 13:2 14:0 15:0 16:0 17:0 18:0 19:0 20:0 21:0 22:0 23:0 24:0 25:0 26:5 27:7 28:3 29:4 30:3 31:3 32:3 33:6 34:2 35:2 36:2 37:2 38:0 39:42 
-0.2957485725004048 1:0 2:0 3:0 4:8 5:11 6:2 7:4 8:4 9:5 10:6 11:3 12:0 13:0 14:0 15:0 16:0 17:0 18:0 19:0 20:0 21:0 22:0 23:0 24:3 25:7 26:3 27:4 28:5 29:4 30:3 31:5 32:5 33:1 34:1 35:2 36:0 37:0 38:0 39:43 
-0.5516071041098981 1:0 2:0 3:0 4:0 5:7 6:11 7:2 8:2 9:4 10:4 11:5 12:3 13:0 14:0 15:0 16:0 17:0 18:0 19:0 20:0 21:0 22:0 23:0 24:0 25:3 26:6 27:3 28:4 29:2 30:4 31:1 32:6 33:5 34:1 35:2 36:1 37:0 38:0 39:38 
-0.6646160062195732 1:0 2:0 3:0 4:0 5:10 6:11 7:2 8:4 9:4 10:4 11:5 12:1 13:0 14:0 15:0 16:0 17:0 18:0 19:0 20:0 21:0 22:0 23:0 24:0 25:0 26:5 27:7 28:3 29:4 30:3 31:1 32:2 33:7 34:4 35:2 36:2 37:1 38:0 39:41 
-0.294777223779222 1:0 2:0 3:0 4:8 5:12 6:2 7:4 8:4 9:4 10:7 11:3 12:0 13:0 14:0 15:0 16:0 17:0 18:0 19:0 20:0 21:0 22:0 23:0 24:5 25:7 26:3 27:4 28:4 29:4 30:2 31:7 32:4 33:1 34:1 35:2 36:0 37:0 38:0 39:44 
-0.1693644536898836 1:0 2:0 3:0 4:0 5:0 6:8 7:10 8:2 9:4 10:5 11:4 12:7 13:2 14:0 15:0 16:0 17:0 18:0 19:0 20:0 21:0 22:0 23:0 24:0 25:3 26:7 27:3 28:3 29:3 30:4 31:2 32:7 33:5 34:1 35:2 36:2 37:0 38:0 39:42 
-0.4083320811437626 1:0 2:0 3:0 4:0 5:8 6:11 7:3 8:3 9:3 10:3 11:7 12:3 13:0 14:0 15:0 16:0 17:0 18:0 19:0 20:0 21:0 22:0 23:0 24:0 25:0 26:0 27:4 28:6 29:3 30:4 31:4 32:4 33:3 34:7 35:3 36:2 37:1 38:0 39:41 
-0.5822308057103521 1:0 2:0 3:0 4:0 5:0 6:1 7:9 8:9 9:2 10:3 11:4 12:3 13:6 14:2 15:0 16:0 17:0 18:0 19:0 20:0 21:0 22:0 23:0 24:0 25:0 26:3 27:7 28:2 29:3 30:4 31:4 32:0 33:6 34:5 35:1 36:2 37:2 38:0 39:39 
-0.1319599492752468 1:0 2:0 3:0 4:7 5:11 6:2 7:4 8:4 9:4 10:7 11:3 12:0 13:0 14:0 15:0 16:0 17:0 18:0 19:0 20:0 21:0 22:0 23:0 24:0 25:0 26:0 27:4 28:7 29:3 30:3 31:4 32:4 33:3 34:6 35:4 36:2 37:2 38:0 39:42 
-0.3140952856827479 1:0 2:0 3:0 4:0 5:8 6:12 7:2 8:4 9:4 10:3 11:6 12:3 13:0 14:0 15:0 16:0 17:0 18:0 19:0 20:0 21:0 22:0 23:0 24:0 25:5 26:7 27:2 28:4 29:4 30:2 31:3 32:6 33:5 34:1 35:1 36:2 37:0 38:0 39:42 
-0.4892865494321844 1:0 2:0 3:0 4:0 5:0 6:9 7:12 8:3 9:4 10:3 11:4 12:7 13:3 14:0 15:0 16:0 17:0 18:0 19:0 20:0 21:0 22:0 23:0 24:0 25:0 26:5 27:7 28:2 29:3 30:5 31:4 32:3 33:7 34:4 35:1 36:2 37:2 38:0 39:45 
-0.4700027914755381 1:0 2:0 3:0 4:7 5:11 6:2 7:4 8:4 9:4 10:7 11:2 12:0 13:0 14:0 15:0 16:0 17:0 18:0 19:0 20:0 21:0 22:0 23:0 24:0 25:5 26:7 27:2 28:4 29:2 30:3 31:3 32:5 33:5 34:2 35:2 36:1 37:0 38:0 39:41 
-0.8934431971961313 1:0 2:0 3:0 4:0 5:0 6:0 7:5 8:10 9:1 10:3 11:4 12:3 13:6 14:3 15:0 16:0 17:0 18:0 19:0 20:0 21:0 22:0 23:0 24:0 25:2 26:5 27:3 28:3 29:3 30:4 31:0 32:6 33:4 34:2 35:2 36:1 37:0 38:0 39:35 
-0.4604087106964163 1:0 2:0 3:0 4:7 5:11 6:3 7:4 8:3 9:4 10:7 11:3 12:0 13:0 14:0 15:0 16:0 17:0 18:0 19:0 20:0 21:0 22:0 23:0 24:0 25:3 26:7 27:3 28:3 29:3 30:4 31:3 32:7 33:6 34:2 35:1 36:0 37:0 38:0 39:42 
-0.7671473901834875 1:0 2:0 3:0 4:0 5:0 6:0 7:7 8:11 9:2 10:4 11:3 12:4 13:6 14:2 15:0 16:0 17:0 18:0 19:0 20:0 21:0 22:0 23:0 24:5 25:7 26:1 27:4 28:3 29:2 30:2 31:7 32:3 33:2 34:1 35:2 36:0 37:0 38:0 39:39 
-0.4581733973973024 1:0 2:0 3:0 4:0 5:0 6:0 7:6 8:11 9:1 10:3 11:4 12:3 13:7 14:3 15:0 16:0 17:0 18:0 19:0 20:0 21:0 22:0 23:0 24:0 25:0 26:4 27:7 28:2 29:3 30:4 31:3 32:2 33:6 34:3 35:2 36:2 37:0 38:0 39:38 
-0.4742522909291276 1:0 2:0 3:0 4:0 5:0 6:8 7:11 8:4 9:4 10:4 11:4 12:7 13:1 14:0 15:0 16:0 17:0 18:0 19:0 20:0 21:0 22:0 23:0 24:0 25:0 26:0 27:4 28:7 29:4 30:2 31:3 32:4 33:4 34:7 35:5 36:2 37:1 38:0 39:43 
-0.49904662427035 1:0 2:0 3:0 4:0 5:0 6:5 7:12 8:2 9:4 10:4 11:4 12:7 13:2 14:0 15:0 16:0 17:0 18:0 19:0 20:0 21:0 22:0 23:0 24:0 25:4 26:6 27:3 28:4 29:4 30:2 31:2 32:7 33:4 34:1 35:2 36:1 37:0 38:0 39:40 
-0.7338788799967131 1:0 2:0 3:0 4:0 5:1 6:11 7:12 8:2 9:4 10:4 11:4 12:7 13:2 14:0 15:0 16:0 17:0 18:0 19:0 20:0 21:0 22:0 23:5 24:7 25:3 26:4 27:3 28:4 29:3 30:7 31:6 32:1 33:2 34:2 35:0 36:0 37:0 38:0 39:47 
-0.7654583105272728 1:0 2:0 3:0 4:0 5:0 6:9 7:10 8:4 9:4 10:3 11:3 12:4 13:5 14:0 15:0 16:0 17:0 18:0 19:0 20:0 21:0 22:0 23:0 24:7 25:7 26:3 27:2 28:2 29:6 30:7 31:1 32:2 33:2 34:2 35:1 36:0 37:0 38:0 39:42 
-0.2132414482416337 1:0 2:0 3:0 4:0 5:8 6:11 7:2 8:3 9:3 10:4 11:7 12:3 13:0 14:0 15:0 16:0 17:0 18:0 19:0 20:0 21:0 22:0 23:0 24:0 25:5 26:5 27:3 28:4 29:3 30:4 31:3 32:7 33:4 34:2 35:1 36:0 37:0 38:0 39:41 
-0.9481097817249294 1:0 2:0 3:0 4:0 5:0 6:0 7:8 8:11 9:2 10:3 11:3 12:3 13:6 14:2 15:0 16:0 17:0 18:0 19:0 20:0 21:0 22:0 23:3 24:6 25:2 26:3 27:4 28:4 29:2 30:7 31:3 32:1 33:2 34:1 35:0 36:0 37:0 38:0 39:38 
-0.7178688868558768 1:0 2:0 3:0 4:1 5:8 6:12 7:2 8:4 9:4 10:4 11:5 12:3 13:0 14:0 15:0 16:0 17:0 18:0 19:0 20:0 21:0 22:0 23:0 24:6 25:6 26:3 27:2 28:3 29:4 30:3 31:6 32:5 33:2 34:2 35:1 36:0 37:0 38:0 39:43 
-0.4854695824807376 1:0 2:0 3:0 4:0 5:0 6:9 7:12 8:2 9:4 10:4 11:4 12:6 13:2 14:0 15:0 16:0 17:0 18:0 19:0 20:0 21:0 22:0 23:0 24:0 25:5 26:7 27:3 28:3 29:2 30:4 31:2 32:7 33:5 34:2 35:1 36:2 37:0 38:0 39:43 
-0.8309587177417552 1:0 2:0 3:0 4:0 5:1 6:6 7:12 8:2 9:2 10:4 11:3 12:6 13:3 14:0 15:0 16:0 17:0 18:0 19:0 20:0 21:0 22:0 23:0 24:3 25:3 26:3 27:3 28:4 29:3 30:3 31:7 32:5 33:1 34:2 35:2 36:0 37:0 38:0 39:39 
-0.2039054659088152 1:0 2:0 3:0 4:7 5:10 6:2 7:4 8:4 9:4 10:7 11:3 12:0 13:0 14:0 15:0 16:0 17:0 18:0 19:0 20:0 21:0 22:0 23:0 24:0 25:0 26:0 27:4 28:7 29:3 30:4 31:4 32:4 33:3 34:7 35:4 36:1 37:0 38:0 39:41 
-0.4103480078503898 1:0 2:0 3:0 4:0 5:7 6:11 7:2 8:4 9:3 10:3 11:7 12:4 13:0 14:0 15:0 16:0 17:0 18:0 19:0 20:0 21:0 22:0 23:0 24:0 25:0 26:0 27:4 28:5 29:3 30:4 31:3 32:4 33:3 34:7 35:5 36:2 37:1 38:0 39:41 
-0.7150152313147726 1:0 2:0 3:0 4:9 5:11 6:2 7:4 8:4 9:4 10:6 11:2 12:0 13:0 14:0 15:0 16:0 17:0 18:0 19:0 20:0 21:0 22:0 23:4 24:7 25:3 26:4 27:3 28:3 29:3 30:6 31:5 32:2 33:0 34:2 35:0 36:0 37:0 38:0 39:42 
-0.283158469064057 1:0 2:0 3:0 4:8 5:10 6:2 7:3 8:4 9:3 10:7 11:3 12:0 13:0 14:0 15:0 16:0 17:0 18:0 19:0 20:0 21:0 22:0 23:0 24:0 25:0 26:0 27:5 28:7 29:2 30:3 31:4 32:4 33:3 34:7 35:3 36:0 37:2 38:0 39:40 
-0.1972438034707345 1:0 2:0 3:0 4:0 5:8 6:11 7:1 8:3 9:4 10:3 11:7 12:3 13:0 14:0 15:0 16:0 17:0 18:0 19:0 20:0 21:0 22:0 23:0 24:0 25:5 26:7 27:3 28:3 29:3 30:3 31:3 32:4 33:5 34:1 35:1 36:2 37:0 38:0 39:40 
-0.2735506849498067 1:0 2:0 3:0 4:9 5:11 6:2 7:4 8:3 9:4 10:6 11:3 12:0 13:0 14:0 15:0 16:0 17:0 18:0 19:0 20:0 21:0 22:0 23:0 24:5 25:7 26:3 27:3 28:4 29:3 30:2 31:6 32:4 33:1 34:2 35:2 36:0 37:0 38:0 39:42 
-0.706451991897787 1:0 2:0 3:0 4:0 5:0 6:0 7:8 8:10 9:2 10:3 11:4 12:4 13:6 14:3 15:0 16:0 17:0 18:0 19:0 20:0 21:0 22:0 23:0 24:0 25:0 26:0 27:5 28:7 29:3 30:3 31:4 32:4 33:0 34:6 35:4 36:2 37:2 38:0 39:40 
-0.774352124473211 1:0 2:0 3:0 4:7 5:11 6:2 7:2 8:2 9:2 10:5 11:2 12:0 13:0 14:0 15:0 16:0 17:0 18:0 19:0 20:0 21:0 22:0 23:0 24:0 25:0 26:0 27:4 28:7 29:2 30:4 31:2 32:3 33:3 34:4 35:1 36:1 37:2 38:0 39:33 
