svm_type c_svc
kernel_type rbf
gamma 0.0078125
nr_class 2
total_sv 36
rho -0.536723
label 0 1
probA -3.88578
probB 0.291979
nr_sv 20 16
SV
0.5 1:1 2:0 3:0 4:0 5:0 6:8 7:11 8:2 9:4 10:4 11:3 12:3 13:0 14:0 15:0 16:0 17:0 18:0 19:0 20:0 21:2 22:1 23:1 24:5 25:3 26:3 27:4 28:5 29:3 30:3 31:4 32:2 33:0 34:0 35:0 36:0 37:0 38:0 39:36 
0.006943158219072093 1:0 2:0 3:1 4:6 5:11 6:3 7:3 8:4 9:4 10:3 11:0 12:0 13:0 14:0 15:0 16:0 17:0 18:0 19:0 20:2 21:2 22:2 23:4 24:4 25:3 26:4 27:5 28:2 29:3 30:3 31:1 32:0 33:0 34:0 35:0 36:0 37:0 38:0 39:35 
0.2836303161851476 1:0 2:0 3:0 4:0 5:0 6:0 7:9 8:12 9:2 10:3 11:4 12:4 13:3 14:0 15:0 16:0 17:0 18:0 19:0 20:0 21:2 22:2 23:2 24:3 25:4 26:4 27:3 28:4 29:4 30:3 31:3 32:3 33:0 34:0 35:0 36:0 37:0 38:0 39:37 
0.4557191359029826 1:0 2:0 3:0 4:0 5:0 6:0 7:4 8:10 9:2 10:3 11:2 12:4 13:3 14:0 15:0 16:0 17:0 18:0 19:0 20:0 21:0 22:1 23:1 24:1 25:3 26:3 27:3 28:3 29:3 30:3 31:2 32:3 33:2 34:0 35:0 36:0 37:0 38:0 39:28 
0.5 1:1 2:0 3:0 4:0 5:0 6:0 7:6 8:10 9:2 10:3 11:4 12:4 13:2 14:0 15:0 16:0 17:0 18:0 19:0 20:1 21:0 22:0 23:0 24:1 25:2 26:2 27:4 28:3 29:4 30:2 31:5 32:2 33:3 34:2 35:1 36:0 37:0 38:0 39:32 
0.4734348742315621 1:0 2:0 3:0 4:8 5:12 6:2 7:3 8:4 9:4 10:3 11:0 12:0 13:0 14:0 15:0 16:0 17:0 18:0 19:0 20:0 21:0 22:2 23:1 24:1 25:4 26:4 27:3 28:4 29:4 30:3 31:3 32:4 33:3 34:0 35:0 36:0 37:0 38:0 39:36 
0.2214339341975478 1:0 2:0 3:0 4:0 5:7 6:10 7:3 8:2 9:4 10:4 11:3 12:0 13:0 14:0 15:0 16:0 17:0 18:0 19:0 20:2 21:1 22:1 23:5 24:4 25:4 26:2 27:5 28:3 29:3 30:2 31:1 32:0 33:0 34:0 35:0 36:0 37:0 38:0 39:33 
0.5 1:0 2:0 3:0 4:0 5:9 6:10 7:2 8:3 9:5 10:4 11:2 12:0 13:0 14:0 15:0 16:0 17:0 18:0 19:0 20:0 21:0 22:0 23:0 24:2 25:2 26:1 27:4 28:4 29:4 30:4 31:5 32:2 33:3 34:2 35:2 36:0 37:0 38:0 39:35 
0.07630594592488273 1:0 2:0 3:0 4:9 5:11 6:3 7:3 8:4 9:4 10:3 11:0 12:0 13:0 14:0 15:0 16:0 17:0 18:0 19:0 20:0 21:2 22:3 23:1 24:4 25:4 26:4 27:4 28:5 29:1 30:3 31:3 32:3 33:0 34:0 35:0 36:0 37:0 38:0 39:37 
0.5 1:0 2:0 3:0 4:0 5:0 6:6 7:10 8:2 9:3 10:3 11:4 12:2 13:0 14:0 15:0 16:0 17:0 18:0 19:0 20:0 21:0 22:0 23:1 24:1 25:2 26:3 27:4 28:3 29:3 30:4 31:3 32:3 33:3 34:0 35:0 36:0 37:0 38:0 39:30 
0.4514380057724978 1:0 2:0 3:0 4:0 5:7 6:12 7:2 8:3 9:4 10:4 11:2 12:0 13:0 14:0 15:0 16:0 17:0 18:0 19:0 20:0 21:0 22:0 23:0 24:1 25:2 26:1 27:2 28:4 29:3 30:4 31:5 32:3 33:2 34:4 35:3 36:0 37:0 38:0 39:34 
0.09184813688677823 1:0 2:0 3:0 4:0 5:0 6:10 7:12 8:2 9:2 10:4 11:3 12:3 13:0 14:0 15:0 16:0 17:0 18:0 19:0 20:0 21:0 22:0 23:2 24:2 25:2 26:2 27:4 28:2 29:4 30:5 31:2 32:3 33:4 34:4 35:0 36:0 37:0 38:0 39:36 
0.2507835200872416 1:0 2:0 3:0 4:8 5:8 6:3 7:3 8:4 9:4 10:3 11:0 12:0 13:0 14:0 15:0 16:0 17:0 18:0 19:0 20:1 21:1 22:2 23:3 24:3 25:4 26:4 27:4 28:4 29:2 30:4 31:1 32:0 33:0 34:0 35:0 36:0 37:0 38:0 39:33 
0.3680448785222459 1:0 2:0 3:0 4:0 5:0 6:0 7:8 8:11 9:2 10:2 11:5 12:4 13:3 14:0 15:0 16:0 17:0 18:0 19:0 20:0 21:0 22:1 23:1 24:2 25:4 26:3 27:3 28:5 29:5 30:3 31:2 32:3 33:3 34:0 35:0 36:0 37:0 38:0 39:35 
0.09399657147989535 1:0 2:0 3:0 4:0 5:6 6:12 7:2 8:3 9:3 10:5 11:3 12:0 13:0 14:0 15:0 16:0 17:0 18:0 19:0 20:0 21:1 22:2 23:3 24:4 25:3 26:3 27:3 28:5 29:2 30:2 31:4 32:2 33:0 34:0 35:0 36:0 37:0 38:0 39:34 
0.00464197380615983 1:0 2:0 3:0 4:0 5:8 6:12 7:2 8:2 9:3 10:4 11:2 12:0 13:0 14:0 15:0 16:0 17:0 18:0 19:0 20:0 21:0 22:0 23:1 24:2 25:2 26:3 27:4 28:2 29:3 30:5 31:3 32:3 33:3 34:2 35:0 36:0 37:0 38:0 39:33 
0.06421465614570923 1:0 2:0 3:0 4:0 5:9 6:12 7:2 8:3 9:4 10:4 11:3 12:0 13:0 14:0 15:0 16:0 17:0 18:0 19:0 20:0 21:1 22:2 23:2 24:3 25:4 26:3 27:4 28:5 29:3 30:3 31:4 32:3 33:0 34:0 35:0 36:0 37:0 38:0 39:37 
0.4114818903399265 1:0 2:0 3:0 4:0 5:0 6:0 7:8 8:10 9:2 10:2 11:4 12:4 13:3 14:0 15:0 16:0 17:0 18:0 19:0 20:0 21:0 22:0 23:1 24:2 25:1 26:4 27:3 28:3 29:4 30:5 31:1 32:3 33:4 34:2 35:0 36:0 37:0 38:0 39:33 
0.4173802089981397 1:0 2:0 3:0 4:0 5:0 6:10 7:12 8:4 9:3 10:3 11:4 12:3 13:0 14:0 15:0 16:0 17:0 18:0 19:0 20:0 21:0 22:2 23:1 24:2 25:4 26:4 27:4 28:3 29:4 30:4 31:3 32:4 33:3 34:1 35:0 36:0 37:0 38:0 39:39 
0.1312641039549028 1:0 2:0 3:0 4:7 5:11 6:0 7:3 8:4 9:4 10:3 11:0 12:0 13:0 14:0 15:0 16:0 17:0 18:0 19:0 20:0 21:0 22:2 23:2 24:1 25:4 26:4 27:2 28:2 29:4 30:3 31:2 32:4 33:2 34:0 35:0 36:0 37:0 38:0 39:32 
-0.5 1:0 2:0 3:0 4:0 5:0 6:3 7:5 8:4 9:4 10:5 11:3 12:4 13:3 14:2 15:3 16:3 17:0 18:0 19:0 20:0 21:0 22:0 23:0 24:4 25:5 26:6 27:4 28:3 29:5 30:5 31:3 32:4 33:0 34:0 35:0 36:0 37:0 38:0 39:39 
-0.5 1:0 2:0 3:0 4:0 5:0 6:2 7:5 8:3 9:4 10:3 11:3 12:5 13:4 14:3 15:3 16:3 17:0 18:0 19:0 20:0 21:0 22:0 23:3 24:5 25:5 26:4 27:3 28:5 29:5 30:4 31:4 32:0 33:0 34:0 35:0 36:0 37:0 38:0 39:38 
-0.5 1:0 2:0 3:0 4:0 5:3 6:4 7:3 8:4 9:3 10:3 11:5 12:2 13:3 14:4 15:2 16:0 17:0 18:0 19:0 20:0 21:0 22:0 23:0 24:3 25:5 26:6 27:3 28:4 29:4 30:4 31:3 32:4 33:0 34:0 35:0 36:0 37:0 38:0 39:36 
-0.08806647731343475 1:0 2:0 3:0 4:0 5:0 6:0 7:1 8:4 9:3 10:4 11:3 12:3 13:6 14:4 15:2 16:4 17:0 18:0 19:0 20:0 21:0 22:0 23:0 24:0 25:0 26:1 27:3 28:4 29:4 30:4 31:5 32:5 33:4 34:4 35:0 36:0 37:0 38:0 39:34 
-0.02708589297458976 1:0 2:0 3:0 4:0 5:0 6:0 7:3 8:5 9:3 10:3 11:4 12:3 13:5 14:3 15:3 16:3 17:0 18:0 19:0 20:0 21:0 22:0 23:0 24:0 25:2 26:4 27:6 28:4 29:3 30:5 31:3 32:4 33:4 34:0 35:0 36:0 37:0 38:0 39:35 
-0.5 1:0 2:0 3:0 4:3 5:5 6:3 7:4 8:4 9:3 10:5 11:4 12:3 13:4 14:2 15:0 16:0 17:0 18:0 19:0 20:0 21:0 22:0 23:0 24:0 25:2 26:5 27:7 28:4 29:4 30:5 31:5 32:4 33:4 34:0 35:0 36:0 37:0 38:0 39:40 
-0.3442367297909652 1:0 2:0 3:0 4:0 5:3 6:3 7:3 8:3 9:4 10:2 11:4 12:4 13:3 14:3 15:2 16:0 17:0 18:0 19:0 20:0 21:0 22:0 23:0 24:0 25:0 26:0 27:3 28:4 29:5 30:3 31:3 32:4 33:4 34:4 35:4 36:0 37:0 38:0 39:34 
-0.1122647194958288 1:0 2:0 3:0 4:3 5:2 6:3 7:4 8:4 9:3 10:5 11:4 12:3 13:3 14:3 15:0 16:0 17:0 18:0 19:0 20:0 21:0 22:0 23:0 24:0 25:3 26:5 27:6 28:3 29:3 30:4 31:5 32:4 33:4 34:0 35:0 36:0 37:0 38:0 39:37 
-0.405573250750754 1:0 2:0 3:0 4:0 5:3 6:5 7:3 8:2 9:3 10:3 11:2 12:3 13:3 14:4 15:3 16:0 17:0 18:0 19:0 20:0 21:0 22:0 23:0 24:0 25:0 26:3 27:4 28:7 29:3 30:3 31:3 32:4 33:4 34:3 35:0 36:0 37:0 38:0 39:34 
-0.3039939239980147 1:0 2:0 3:0 4:0 5:0 6:0 7:3 8:6 9:3 10:4 11:3 12:4 13:5 14:3 15:3 16:5 17:0 18:0 19:0 20:0 21:0 22:0 23:0 24:0 25:2 26:4 27:5 28:4 29:5 30:4 31:6 32:4 33:5 34:0 35:0 36:0 37:0 38:0 39:39 
-0.5 1:0 2:0 3:0 4:3 5:4 6:3 7:4 8:4 9:4 10:5 11:3 12:3 13:3 14:1 15:0 16:0 17:0 18:0 19:0 20:0 21:0 22:0 23:0 24:0 25:0 26:3 27:4 28:5 29:5 30:4 31:4 32:4 33:4 34:4 35:0 36:0 37:0 38:0 39:37 
-0.02134031633110469 1:0 2:0 3:0 4:0 5:0 6:3 7:5 8:3 9:4 10:4 11:2 12:5 13:4 14:3 15:4 16:2 17:0 18:0 19:0 20:0 21:0 22:0 23:0 24:0 25:0 26:1 27:4 28:5 29:5 30:4 31:5 32:6 33:4 34:5 35:0 36:0 37:0 38:0 39:39 
-0.5 1:0 2:0 3:0 4:0 5:0 6:0 7:1 8:4 9:2 10:3 11:3 12:2 13:3 14:4 15:3 16:4 17:0 18:0 19:0 20:0 21:0 22:0 23:0 24:0 25:0 26:0 27:1 28:2 29:5 30:3 31:3 32:6 33:4 34:3 35:2 36:0 37:0 38:0 39:29 
-0.5 1:0 2:0 3:0 4:0 5:2 6:4 7:3 8:4 9:3 10:3 11:4 12:5 13:3 14:2 15:2 16:0 17:0 18:0 19:0 20:0 21:0 22:0 23:3 24:4 25:5 26:3 27:4 28:4 29:4 30:4 31:4 32:0 33:0 34:0 35:0 36:0 37:0 38:0 39:35 
-0.5 1:0 2:0 3:0 4:0 5:3 6:5 7:3 8:4 9:4 10:3 11:3 12:4 13:2 14:3 15:3 16:0 17:0 18:0 19:0 20:0 21:0 22:0 23:0 24:0 25:0 26:0 27:3 28:5 29:6 30:5 31:2 32:4 33:5 34:3 35:4 36:0 37:0 38:0 39:37 
-0.5 1:0 2:0 3:0 4:0 5:2 6:5 7:3 8:4 9:3 10:3 11:5 12:4 13:3 14:0 15:1 16:0 17:0 18:0 19:0 20:0 21:0 22:0 23:0 24:0 25:3 26:3 27:4 28:3 29:3 30:4 31:5 32:4 33:4 34:0 35:0 36:0 37:0 38:0 39:33 
