svm_type c_svc
kernel_type rbf
gamma 0.000488281
nr_class 2
total_sv 33
rho -0.0979472
label 0 1
probA -3.94536
probB -0.12107
nr_sv 17 16
SV
0.5 1:0 2:0 3:0 4:0 5:0 6:0 7:7 8:9 9:1 10:1 11:2 12:9 13:6 14:1 15:2 16:1 17:0 18:0 19:0 20:0 21:0 22:0 23:0 24:0 25:0 26:0 27:6 28:7 29:4 30:4 31:4 32:4 33:3 34:3 35:4 36:0 37:0 38:0 39:39 
0.5 1:3 2:0 3:0 4:0 5:0 6:6 7:8 8:0 9:2 10:2 11:8 12:6 13:1 14:1 15:2 16:6 17:0 18:0 19:0 20:0 21:0 22:0 23:0 24:1 25:1 26:8 27:8 28:3 29:4 30:4 31:4 32:3 33:5 34:4 35:0 36:0 37:0 38:0 39:45 
0.292223020144856 1:0 2:0 3:0 4:0 5:5 6:7 7:2 8:1 9:2 10:7 11:6 12:1 13:2 14:2 15:5 16:7 17:0 18:0 19:0 20:0 21:0 22:0 23:0 24:7 25:11 26:5 27:2 28:4 29:6 30:4 31:2 32:6 33:0 34:0 35:0 36:0 37:0 38:0 39:47 
0.5 1:0 2:0 3:0 4:0 5:0 6:1 7:6 8:8 9:1 10:2 11:2 12:9 13:7 14:1 15:2 16:2 17:0 18:0 19:0 20:0 21:0 22:0 23:0 24:0 25:7 26:9 27:4 28:3 29:4 30:4 31:4 32:4 33:2 34:0 35:0 36:0 37:0 38:0 39:41 
0.2752781746338051 1:0 2:0 3:0 4:0 5:0 6:5 7:7 8:1 9:2 10:2 11:8 12:7 13:1 14:1 15:3 16:8 17:0 18:0 19:0 20:0 21:0 22:0 23:0 24:0 25:0 26:0 27:4 28:10 29:4 30:4 31:5 32:4 33:4 34:6 35:4 36:0 37:0 38:0 39:45 
0.411276875721025 1:5 2:0 3:0 4:0 5:0 6:3 7:8 8:1 9:2 10:2 11:8 12:6 13:1 14:2 15:1 16:6 17:0 18:0 19:0 20:0 21:0 22:0 23:0 24:6 25:8 26:4 27:6 28:3 29:6 30:3 31:5 32:4 33:0 34:0 35:0 36:0 37:0 38:0 39:45 
0.5 1:0 2:0 3:0 4:6 5:7 6:1 7:2 8:2 9:7 10:7 11:1 12:1 13:1 14:8 15:7 16:0 17:0 18:0 19:0 20:0 21:0 22:0 23:0 24:0 25:0 26:0 27:7 28:8 29:5 30:6 31:6 32:4 33:6 34:3 35:5 36:0 37:0 38:0 39:50 
0.5 1:0 2:0 3:0 4:0 5:0 6:6 7:9 8:2 9:2 10:2 11:7 12:6 13:1 14:2 15:2 16:6 17:0 18:0 19:0 20:0 21:0 22:0 23:0 24:0 25:8 26:10 27:5 28:2 29:4 30:4 31:4 32:3 33:5 34:0 35:0 36:0 37:0 38:0 39:45 
0.5 1:0 2:0 3:0 4:0 5:0 6:3 7:9 8:1 9:2 10:2 11:9 12:7 13:1 14:2 15:2 16:4 17:0 18:0 19:0 20:0 21:0 22:0 23:0 24:0 25:7 26:9 27:5 28:4 29:3 30:3 31:4 32:3 33:4 34:0 35:0 36:0 37:0 38:0 39:42 
0.1355991943261093 1:2 2:0 3:0 4:0 5:0 6:4 7:9 8:1 9:1 10:2 11:7 12:7 13:1 14:2 15:2 16:7 17:0 18:0 19:0 20:0 21:0 22:0 23:1 24:1 25:0 26:0 27:5 28:10 29:4 30:3 31:4 32:5 33:4 34:5 35:3 36:0 37:0 38:0 39:45 
0.5 1:3 2:0 3:0 4:0 5:0 6:7 7:7 8:1 9:1 10:1 11:7 12:8 13:1 14:1 15:2 16:2 17:0 18:0 19:0 20:0 21:0 22:0 23:0 24:0 25:0 26:3 27:12 28:6 29:5 30:3 31:4 32:4 33:2 34:2 35:0 36:0 37:0 38:0 39:41 
0.5 1:0 2:0 3:0 4:0 5:0 6:4 7:8 8:1 9:1 10:2 11:6 12:6 13:1 14:2 15:2 16:6 17:0 18:0 19:0 20:0 21:0 22:0 23:0 24:0 25:0 26:0 27:7 28:9 29:5 30:3 31:3 32:4 33:4 34:3 35:1 36:0 37:0 38:0 39:39 
0.5 1:0 2:0 3:0 4:0 5:0 6:5 7:8 8:0 9:2 10:2 11:7 12:7 13:1 14:2 15:2 16:6 17:0 18:0 19:0 20:0 21:0 22:0 23:0 24:8 25:9 26:4 27:3 28:4 29:2 30:4 31:4 32:4 33:0 34:0 35:0 36:0 37:0 38:0 39:42 
0.5 1:0 2:0 3:0 4:0 5:0 6:5 7:8 8:1 9:2 10:2 11:7 12:6 13:1 14:2 15:1 16:7 17:0 18:0 19:0 20:0 21:0 22:0 23:0 24:8 25:8 26:5 27:4 28:5 29:2 30:4 31:4 32:2 33:0 34:0 35:0 36:0 37:0 38:0 39:42 
0.4294258872846223 1:0 2:0 3:0 4:0 5:0 6:7 7:9 8:1 9:2 10:2 11:8 12:6 13:1 14:2 15:2 16:5 17:0 18:0 19:0 20:0 21:0 22:0 23:0 24:0 25:8 26:10 27:4 28:4 29:4 30:4 31:4 32:3 33:4 34:0 35:0 36:0 37:0 38:0 39:45 
0.5 1:0 2:0 3:0 4:0 5:0 6:0 7:7 8:9 9:1 10:2 11:3 12:9 13:7 14:1 15:3 16:2 17:0 18:0 19:0 20:0 21:0 22:1 23:7 24:9 25:4 26:4 27:3 28:3 29:4 30:4 31:5 32:0 33:0 34:0 35:0 36:0 37:0 38:0 39:44 
0.5 1:0 2:0 3:0 4:0 5:0 6:4 7:9 8:1 9:1 10:1 11:7 12:6 13:1 14:2 15:2 16:4 17:0 18:0 19:0 20:0 21:0 22:0 23:0 24:0 25:0 26:0 27:7 28:8 29:3 30:3 31:4 32:3 33:4 34:4 35:2 36:0 37:0 38:0 39:38 
-0.5 1:0 2:0 3:0 4:0 5:0 6:6 7:8 8:1 9:2 10:2 11:2 12:9 13:0 14:0 15:0 16:0 17:0 18:0 19:0 20:0 21:0 22:0 23:0 24:0 25:3 26:2 27:3 28:2 29:3 30:3 31:5 32:6 33:3 34:0 35:0 36:0 37:0 38:0 39:30 
-0.5 1:0 2:0 3:0 4:0 5:0 6:0 7:6 8:8 9:2 10:2 11:1 12:1 13:9 14:0 15:0 16:0 17:0 18:0 19:0 20:0 21:0 22:0 23:3 24:2 25:3 26:3 27:3 28:3 29:3 30:6 31:3 32:0 33:0 34:0 35:0 36:0 37:0 38:0 39:29 
-0.5 1:0 2:0 3:0 4:0 5:0 6:6 7:8 8:2 9:2 10:1 11:2 12:9 13:1 14:0 15:0 16:0 17:0 18:0 19:0 20:0 21:0 22:0 23:0 24:0 25:3 26:3 27:3 28:3 29:2 30:3 31:4 32:7 33:3 34:0 35:0 36:0 37:0 38:0 39:31 
-0.5 1:0 2:0 3:0 4:0 5:0 6:4 7:7 8:2 9:2 10:2 11:2 12:9 13:0 14:0 15:0 16:0 17:0 18:0 19:0 20:0 21:0 22:0 23:0 24:1 25:3 26:3 27:2 28:3 29:3 30:3 31:6 32:4 33:0 34:0 35:0 36:0 37:0 38:0 39:28 
-0.5 1:7 2:1 3:0 4:0 5:0 6:0 7:6 8:5 9:2 10:2 11:1 12:3 13:8 14:1 15:0 16:0 17:0 18:0 19:0 20:0 21:0 22:0 23:4 24:3 25:4 26:3 27:6 28:3 29:4 30:6 31:3 32:0 33:0 34:0 35:0 36:0 37:0 38:0 39:36 
-0.5 1:0 2:0 3:0 4:5 5:8 6:3 7:1 8:1 9:2 10:9 11:0 12:0 13:0 14:0 15:0 16:0 17:0 18:0 19:0 20:0 21:0 22:0 23:0 24:0 25:3 26:2 27:3 28:3 29:3 30:3 31:4 32:6 33:2 34:0 35:0 36:0 37:0 38:0 39:29 
-0.5 1:0 2:0 3:0 4:0 5:1 6:5 7:6 8:3 9:2 10:1 11:2 12:7 13:0 14:0 15:1 16:1 17:0 18:0 19:0 20:0 21:0 22:0 23:0 24:0 25:0 26:2 27:2 28:2 29:3 30:2 31:3 32:4 33:6 34:3 35:2 36:0 37:0 38:0 39:29 
-0.5 1:0 2:0 3:0 4:0 5:5 6:7 7:2 8:2 9:1 10:2 11:8 12:0 13:0 14:0 15:0 16:1 17:0 18:0 19:0 20:0 21:0 22:0 23:0 24:3 25:4 26:2 27:3 28:2 29:3 30:3 31:6 32:2 33:0 34:0 35:0 36:0 37:0 38:0 39:28 
-0.5 1:0 2:0 3:0 4:0 5:0 6:7 7:8 8:2 9:2 10:1 11:2 12:9 13:0 14:0 15:0 16:0 17:0 18:0 19:0 20:0 21:0 22:1 23:3 24:3 25:3 26:3 27:3 28:3 29:3 30:6 31:3 32:0 33:0 34:0 35:0 36:0 37:0 38:0 39:31 
-0.5 1:0 2:0 3:0 4:0 5:5 6:8 7:2 8:2 9:2 10:3 11:9 12:0 13:0 14:0 15:0 16:0 17:0 18:0 19:0 20:0 21:0 22:0 23:0 24:0 25:0 26:3 27:3 28:2 29:3 30:2 31:4 32:4 33:6 34:4 35:0 36:0 37:0 38:0 39:31 
-0.5 1:0 2:0 3:0 4:0 5:0 6:3 7:8 8:2 9:2 10:1 11:2 12:9 13:0 14:0 15:0 16:0 17:0 18:0 19:0 20:0 21:0 22:0 23:0 24:0 25:2 26:2 27:3 28:2 29:2 30:3 31:4 32:6 33:3 34:0 35:0 36:0 37:0 38:0 39:27 
-0.5 1:0 2:0 3:0 4:0 5:0 6:0 7:5 8:8 9:2 10:2 11:1 12:2 13:9 14:0 15:0 16:0 17:0 18:0 19:0 20:0 21:0 22:0 23:0 24:3 25:3 26:3 27:3 28:2 29:3 30:3 31:6 32:3 33:0 34:0 35:0 36:0 37:0 38:0 39:29 
-0.5 1:0 2:0 3:0 4:1 5:3 6:8 7:2 8:2 9:1 10:1 11:9 12:0 13:0 14:0 15:0 16:0 17:0 18:0 19:0 20:0 21:0 22:0 23:0 24:2 25:3 26:3 27:3 28:3 29:2 30:2 31:6 32:3 33:0 34:0 35:0 36:0 37:0 38:0 39:27 
-0.5 1:0 2:0 3:0 4:0 5:1 6:4 7:8 8:1 9:2 10:1 11:2 12:9 13:0 14:0 15:0 16:0 17:0 18:0 19:0 20:0 21:0 22:0 23:3 24:3 25:3 26:3 27:3 28:2 29:3 30:5 31:3 32:0 33:0 34:0 35:0 36:0 37:0 38:0 39:28 
-0.5 1:0 2:0 3:0 4:0 5:1 6:7 7:7 8:2 9:2 10:1 11:2 12:9 13:1 14:0 15:0 16:0 17:0 18:1 19:1 20:0 21:0 22:0 23:0 24:0 25:0 26:3 27:2 28:3 29:2 30:3 31:4 32:4 33:6 34:3 35:0 36:0 37:0 38:0 39:32 
-0.04380315211041769 1:0 2:0 3:0 4:0 5:0 6:6 7:7 8:2 9:3 10:1 11:2 12:6 13:0 14:0 15:0 16:0 17:0 18:0 19:0 20:0 21:0 22:0 23:0 24:0 25:0 26:0 27:3 28:3 29:2 30:2 31:2 32:2 33:4 34:5 35:3 36:1 37:0 38:0 39:27 
