svm_type c_svc
kernel_type rbf
gamma 0.00012207
nr_class 2
total_sv 22
rho -0.651172
label 0 1
probA -3.47057
probB -0.296052
nr_sv 12 10
SV
8 1:0 2:0 3:0 4:0 5:0 6:0 7:7 8:9 9:1 10:1 11:2 12:9 13:6 14:1 15:2 16:1 17:0 18:0 19:0 20:0 21:0 22:0 23:0 24:0 25:0 26:0 27:6 28:7 29:4 30:4 31:4 32:4 33:3 34:3 35:4 36:0 37:0 38:0 39:39 
3.658387949007968 1:0 2:0 3:0 4:0 5:5 6:7 7:2 8:1 9:2 10:7 11:6 12:1 13:2 14:2 15:5 16:7 17:0 18:0 19:0 20:0 21:0 22:0 23:0 24:7 25:11 26:5 27:2 28:4 29:6 30:4 31:2 32:6 33:0 34:0 35:0 36:0 37:0 38:0 39:47 
8 1:0 2:0 3:0 4:0 5:0 6:1 7:6 8:8 9:1 10:2 11:2 12:9 13:7 14:1 15:2 16:2 17:0 18:0 19:0 20:0 21:0 22:0 23:0 24:0 25:7 26:9 27:4 28:3 29:4 30:4 31:4 32:4 33:2 34:0 35:0 36:0 37:0 38:0 39:41 
8 1:0 2:0 3:0 4:6 5:7 6:1 7:2 8:2 9:7 10:7 11:1 12:1 13:1 14:8 15:7 16:0 17:0 18:0 19:0 20:0 21:0 22:0 23:0 24:0 25:0 26:0 27:7 28:8 29:5 30:6 31:6 32:4 33:6 34:3 35:5 36:0 37:0 38:0 39:50 
1.335694282315771 1:1 2:0 3:0 4:5 5:8 6:1 7:1 8:2 9:8 10:7 11:1 12:2 13:2 14:7 15:6 16:0 17:0 18:0 19:0 20:0 21:0 22:1 23:0 24:0 25:0 26:7 27:11 28:4 29:4 30:6 31:6 32:5 33:3 34:4 35:0 36:0 37:0 38:0 39:51 
2.800588308711188 1:0 2:0 3:0 4:0 5:0 6:3 7:9 8:1 9:2 10:2 11:9 12:7 13:1 14:2 15:2 16:4 17:0 18:0 19:0 20:0 21:0 22:0 23:0 24:0 25:7 26:9 27:5 28:4 29:3 30:3 31:4 32:3 33:4 34:0 35:0 36:0 37:0 38:0 39:42 
6.68851415637717 1:3 2:0 3:0 4:0 5:0 6:7 7:7 8:1 9:1 10:1 11:7 12:8 13:1 14:1 15:2 16:2 17:0 18:0 19:0 20:0 21:0 22:0 23:0 24:0 25:0 26:3 27:12 28:6 29:5 30:3 31:4 32:4 33:2 34:2 35:0 36:0 37:0 38:0 39:41 
8 1:0 2:0 3:0 4:0 5:0 6:4 7:8 8:1 9:1 10:2 11:6 12:6 13:1 14:2 15:2 16:6 17:0 18:0 19:0 20:0 21:0 22:0 23:0 24:0 25:0 26:0 27:7 28:9 29:5 30:3 31:3 32:4 33:4 34:3 35:1 36:0 37:0 38:0 39:39 
1.233511071374138 1:0 2:0 3:0 4:0 5:0 6:5 7:8 8:0 9:2 10:2 11:7 12:7 13:1 14:2 15:2 16:6 17:0 18:0 19:0 20:0 21:0 22:0 23:0 24:8 25:9 26:4 27:3 28:4 29:2 30:4 31:4 32:4 33:0 34:0 35:0 36:0 37:0 38:0 39:42 
8 1:0 2:0 3:0 4:0 5:0 6:5 7:8 8:1 9:2 10:2 11:7 12:6 13:1 14:2 15:1 16:7 17:0 18:0 19:0 20:0 21:0 22:0 23:0 24:8 25:8 26:5 27:4 28:5 29:2 30:4 31:4 32:2 33:0 34:0 35:0 36:0 37:0 38:0 39:42 
6.838492719828776 1:0 2:0 3:0 4:0 5:0 6:0 7:7 8:9 9:1 10:2 11:3 12:9 13:7 14:1 15:3 16:2 17:0 18:0 19:0 20:0 21:0 22:1 23:7 24:9 25:4 26:4 27:3 28:3 29:4 30:4 31:5 32:0 33:0 34:0 35:0 36:0 37:0 38:0 39:44 
8 1:0 2:0 3:0 4:0 5:0 6:4 7:9 8:1 9:1 10:1 11:7 12:6 13:1 14:2 15:2 16:4 17:0 18:0 19:0 20:0 21:0 22:0 23:0 24:0 25:0 26:0 27:7 28:8 29:3 30:3 31:4 32:3 33:4 34:4 35:2 36:0 37:0 38:0 39:38 
-8 1:0 2:0 3:0 4:0 5:0 6:1 7:4 8:7 9:6 10:6 11:6 12:6 13:1 14:0 15:0 16:0 17:0 18:0 19:0 20:0 21:0 22:0 23:0 24:0 25:0 26:4 27:6 28:3 29:4 30:6 31:2 32:4 33:5 34:3 35:0 36:0 37:0 38:0 39:37 
-8 1:0 2:0 3:0 4:0 5:0 6:0 7:4 8:6 9:6 10:6 11:5 12:6 13:2 14:0 15:0 16:0 17:0 18:0 19:0 20:0 21:0 22:0 23:0 24:0 25:0 26:0 27:4 28:5 29:3 30:4 31:5 32:3 33:4 34:4 35:3 36:0 37:0 38:0 39:35 
-8 1:0 2:0 3:0 4:0 5:0 6:4 7:7 8:5 9:6 10:6 11:6 12:2 13:0 14:0 15:0 16:0 17:0 18:0 19:0 20:0 21:0 22:0 23:0 24:4 25:6 26:3 27:4 28:5 29:3 30:4 31:4 32:3 33:0 34:0 35:0 36:0 37:0 38:0 39:36 
-8 1:0 2:0 3:0 4:0 5:0 6:0 7:4 8:5 9:4 10:6 11:6 12:6 13:3 14:0 15:0 16:0 17:0 18:0 19:0 20:0 21:0 22:0 23:0 24:0 25:0 26:0 27:3 28:5 29:3 30:3 31:5 32:3 33:4 34:5 35:3 36:0 37:0 38:0 39:34 
-3.427059034620462 1:0 2:0 3:0 4:0 5:0 6:0 7:4 8:5 9:6 10:6 11:7 12:5 13:1 14:0 15:0 16:0 17:0 18:0 19:0 20:0 21:0 22:0 23:0 24:0 25:0 26:3 27:6 28:3 29:3 30:4 31:2 32:4 33:5 34:3 35:1 36:0 37:0 38:0 39:34 
-3.128129452994548 1:0 2:0 3:0 4:3 5:7 6:6 7:6 8:6 9:6 10:2 11:0 12:0 13:0 14:0 15:0 16:0 17:0 18:0 19:0 20:0 21:0 22:0 23:0 24:4 25:6 26:3 27:3 28:5 29:3 30:4 31:5 32:3 33:0 34:0 35:0 36:0 37:0 38:0 39:36 
-8 1:0 2:0 3:0 4:4 5:7 6:6 7:6 8:6 9:6 10:2 11:0 12:0 13:0 14:0 15:0 16:0 17:0 18:0 19:0 20:0 21:0 22:0 23:0 24:4 25:6 26:3 27:4 28:5 29:3 30:4 31:5 32:3 33:0 34:0 35:0 36:0 37:0 38:0 39:37 
-8 1:9 2:1 3:0 4:0 5:0 6:3 7:6 8:6 9:6 10:5 11:6 12:1 13:0 14:0 15:0 16:0 17:0 18:0 19:0 20:0 21:0 22:0 23:0 24:0 25:1 26:1 27:4 28:8 29:2 30:5 31:6 32:3 33:4 34:6 35:3 36:0 37:0 38:0 39:43 
-8 1:0 2:0 3:0 4:0 5:0 6:0 7:3 8:7 9:5 10:6 11:6 12:6 13:2 14:0 15:0 16:0 17:0 18:0 19:0 20:0 21:0 22:0 23:0 24:3 25:6 26:3 27:3 28:5 29:3 30:4 31:5 32:3 33:0 34:0 35:0 36:0 37:0 38:0 39:35 
-8 1:3 2:0 3:0 4:0 5:3 6:8 7:6 8:6 9:6 10:5 11:2 12:0 13:0 14:0 15:0 16:0 17:0 18:0 19:0 20:0 21:1 22:0 23:1 24:4 25:6 26:3 27:4 28:5 29:3 30:5 31:4 32:3 33:0 34:0 35:0 36:0 37:0 38:0 39:39 
