svm_type c_svc
kernel_type rbf
gamma 0.00012207
nr_class 2
total_sv 18
rho -1.16131
label 0 1
probA -3.28582
probB 0.000232835
nr_sv 9 9
SV
24.52984352211285 1:0 2:0 3:1 4:6 5:8 6:1 7:1 8:1 9:2 10:7 11:0 12:0 13:0 14:0 15:0 16:0 17:0 18:0 19:0 20:0 21:0 22:1 23:3 24:7 25:3 26:2 27:3 28:2 29:2 30:2 31:2 32:0 33:0 34:0 35:0 36:0 37:0 38:0 39:27 
20.76977272129305 1:0 2:0 3:0 4:0 5:0 6:0 7:7 8:8 9:1 10:1 11:2 12:2 13:5 14:0 15:0 16:0 17:0 18:0 19:0 20:0 21:0 22:0 23:0 24:0 25:3 26:6 27:3 28:2 29:3 30:3 31:2 32:2 33:2 34:0 35:0 36:0 37:0 38:0 39:26 
32 1:0 2:0 3:0 4:0 5:9 6:8 7:1 8:1 9:3 10:2 11:7 12:0 13:0 14:0 15:0 16:0 17:0 18:0 19:0 20:0 21:0 22:0 23:0 24:0 25:1 26:4 27:6 28:4 29:3 30:3 31:3 32:3 33:2 34:2 35:0 36:0 37:0 38:0 39:31 
32 1:3 2:3 3:0 4:0 5:0 6:0 7:5 8:9 9:1 10:1 11:2 12:2 13:7 14:0 15:0 16:0 17:0 18:0 19:0 20:0 21:0 22:0 23:1 24:1 25:1 26:1 27:5 28:6 29:4 30:2 31:3 32:2 33:3 34:2 35:2 36:0 37:0 38:0 39:33 
30.87483820036626 1:0 2:0 3:0 4:0 5:0 6:6 7:9 8:2 9:1 10:2 11:2 12:7 13:0 14:0 15:0 16:0 17:0 18:0 19:0 20:0 21:0 22:0 23:0 24:0 25:0 26:0 27:3 28:6 29:3 30:3 31:3 32:3 33:3 34:2 35:2 36:1 37:0 38:0 39:29 
5.547737597515412 1:0 2:0 3:0 4:6 5:8 6:1 7:1 8:2 9:2 10:5 11:0 12:0 13:0 14:0 15:0 16:0 17:0 18:0 19:0 20:0 21:0 22:0 23:0 24:0 25:4 26:6 27:3 28:1 29:2 30:3 31:2 32:2 33:2 34:0 35:0 36:0 37:0 38:0 39:25 
7.037768388639059 1:0 2:0 3:0 4:0 5:7 6:8 7:1 8:1 9:2 10:2 11:6 12:0 13:0 14:0 15:0 16:0 17:0 18:0 19:0 20:0 21:0 22:0 23:0 24:0 25:0 26:0 27:3 28:5 29:3 30:3 31:3 32:3 33:2 34:3 35:2 36:0 37:0 38:0 39:27 
28.10060424972946 1:4 2:3 3:0 4:0 5:0 6:6 7:8 8:1 9:1 10:2 11:3 12:7 13:0 14:0 15:0 16:0 17:0 18:0 19:0 20:0 21:0 22:1 23:4 24:6 25:2 26:2 27:4 28:4 29:5 30:3 31:3 32:1 33:0 34:0 35:0 36:0 37:0 38:0 39:35 
15.34035460476901 1:0 2:0 3:0 4:0 5:0 6:0 7:6 8:9 9:1 10:1 11:2 12:2 13:6 14:0 15:0 16:0 17:0 18:0 19:0 20:0 21:0 22:0 23:0 24:0 25:0 26:0 27:4 28:6 29:3 30:2 31:2 32:3 33:3 34:2 35:2 36:0 37:0 38:0 39:27 
-11.9361812114633 1:0 2:0 3:0 4:1 5:2 6:5 7:6 8:5 9:6 10:5 11:2 12:0 13:0 14:0 15:0 16:0 17:0 18:0 19:0 20:0 21:0 22:0 23:0 24:3 25:3 26:2 27:5 28:4 29:3 30:4 31:5 32:3 33:0 34:0 35:0 36:0 37:0 38:0 39:32 
-32 1:0 2:0 3:0 4:0 5:0 6:0 7:3 8:6 9:4 10:6 11:6 12:3 13:1 14:0 15:0 16:0 17:0 18:0 19:0 20:0 21:0 22:0 23:0 24:0 25:0 26:3 27:5 28:2 29:3 30:5 31:1 32:4 33:4 34:2 35:0 36:0 37:0 38:0 39:29 
-32 1:0 2:0 3:0 4:0 5:0 6:0 7:4 8:5 9:4 10:6 11:6 12:6 13:3 14:0 15:0 16:0 17:0 18:0 19:0 20:0 21:0 22:0 23:0 24:0 25:0 26:0 27:3 28:5 29:3 30:3 31:5 32:3 33:4 34:5 35:3 36:0 37:0 38:0 39:34 
-32 1:0 2:0 3:0 4:0 5:2 6:6 7:6 8:6 9:6 10:5 11:2 12:0 13:0 14:0 15:0 16:0 17:0 18:0 19:0 20:0 21:0 22:0 23:4 24:6 25:2 26:3 27:5 28:3 29:3 30:4 31:3 32:0 33:0 34:0 35:0 36:0 37:0 38:0 39:33 
-32 1:0 2:0 3:0 4:0 5:3 6:6 7:6 8:5 9:4 10:4 11:2 12:0 13:0 14:0 15:0 16:0 17:0 18:0 19:0 20:0 21:0 22:0 23:0 24:0 25:0 26:3 27:4 28:2 29:3 30:4 31:3 32:4 33:5 34:2 35:0 36:0 37:0 38:0 39:30 
-32 1:0 2:0 3:0 4:3 5:7 6:6 7:6 8:6 9:6 10:2 11:0 12:0 13:0 14:0 15:0 16:0 17:0 18:0 19:0 20:0 21:0 22:0 23:0 24:4 25:6 26:3 27:3 28:5 29:3 30:4 31:5 32:3 33:0 34:0 35:0 36:0 37:0 38:0 39:36 
-1.620257573967674 1:0 2:0 3:0 4:4 5:7 6:6 7:6 8:6 9:6 10:2 11:0 12:0 13:0 14:0 15:0 16:0 17:0 18:0 19:0 20:0 21:0 22:0 23:0 24:4 25:6 26:3 27:4 28:5 29:3 30:4 31:5 32:3 33:0 34:0 35:0 36:0 37:0 38:0 39:37 
-17.87773225517944 1:0 2:0 3:0 4:0 5:0 6:0 7:3 8:6 9:6 10:5 11:5 12:5 13:1 14:0 15:0 16:0 17:0 18:0 19:0 20:0 21:0 22:0 23:0 24:0 25:0 26:0 27:3 28:5 29:3 30:4 31:2 32:2 33:4 34:5 35:3 36:0 37:0 38:0 39:31 
-4.76674824381467 1:0 2:0 3:0 4:0 5:0 6:3 7:7 8:5 9:4 10:6 11:6 12:1 13:0 14:0 15:0 16:0 17:0 18:0 19:0 20:0 21:0 22:0 23:0 24:0 25:3 26:5 27:3 28:3 29:4 30:2 31:4 32:5 33:3 34:0 35:0 36:0 37:0 38:0 39:32 
