svm_type c_svc
kernel_type rbf
gamma 0.000488281
nr_class 2
total_sv 41
rho 0.0958404
label 0 1
probA -4.60366
probB -0.236174
nr_sv 20 21
SV
8 1:0 2:0 3:0 4:0 5:0 6:3 7:5 8:5 9:4 10:3 11:3 12:10 13:0 14:0 15:0 16:0 17:0 18:0 19:0 20:0 21:0 22:0 23:4 24:5 25:2 26:1 27:3 28:3 29:4 30:6 31:3 32:1 33:1 34:0 35:0 36:0 37:0 38:0 39:33 
2.212583266638704 1:0 2:0 3:0 4:0 5:0 6:0 7:4 8:7 9:3 10:4 11:2 12:3 13:11 14:0 15:0 16:0 17:0 18:0 19:0 20:0 21:0 22:0 23:4 24:5 25:3 26:3 27:3 28:2 29:4 30:6 31:2 32:1 33:1 34:0 35:0 36:0 37:0 38:0 39:34 
8 1:0 2:0 3:0 4:4 5:6 6:4 7:4 8:3 9:4 10:11 11:0 12:0 13:0 14:0 15:0 16:0 17:0 18:0 19:0 20:0 21:0 22:0 23:4 24:6 25:3 26:3 27:3 28:3 29:3 30:6 31:3 32:1 33:1 34:0 35:0 36:0 37:0 38:0 39:36 
8 1:0 2:0 3:0 4:0 5:0 6:0 7:3 8:6 9:4 10:4 11:4 12:2 13:9 14:0 15:0 16:0 17:0 18:0 19:0 20:0 21:0 22:0 23:0 24:0 25:0 26:0 27:4 28:6 29:3 30:2 31:3 32:3 33:2 34:5 35:4 36:0 37:0 38:0 39:32 
8 1:0 2:0 3:0 4:0 5:3 6:6 7:4 8:4 9:3 10:3 11:11 12:0 13:0 14:0 15:0 16:0 17:0 18:0 19:0 20:0 21:0 22:0 23:0 24:0 25:4 26:6 27:1 28:3 29:2 30:3 31:4 32:6 33:3 34:1 35:1 36:0 37:0 38:0 39:34 
8 1:0 2:0 3:0 4:3 5:6 6:4 7:4 8:3 9:3 10:6 11:0 12:0 13:0 14:0 15:0 16:0 17:0 18:0 19:0 20:0 21:0 22:0 23:0 24:0 25:0 26:0 27:4 28:5 29:3 30:2 31:2 32:2 33:2 34:5 35:3 36:1 37:0 38:0 39:29 
8 1:0 2:0 3:0 4:0 5:0 6:3 7:7 8:4 9:4 10:3 11:4 12:8 13:0 14:0 15:0 16:0 17:0 18:0 19:0 20:0 21:0 22:0 23:0 24:0 25:4 26:6 27:3 28:3 29:2 30:2 31:4 32:6 33:3 34:0 35:0 36:0 37:0 38:0 39:33 
8 1:0 2:0 3:0 4:0 5:4 6:7 7:4 8:4 9:3 10:4 11:8 12:1 13:0 14:0 15:0 16:0 17:0 18:0 19:0 20:0 21:0 22:0 23:0 24:0 25:0 26:5 27:6 28:3 29:3 30:2 31:3 32:4 33:6 34:3 35:0 36:0 37:0 38:0 39:35 
8 1:0 2:0 3:0 4:0 5:0 6:5 7:5 8:4 9:4 10:2 11:1 12:9 13:0 14:0 15:0 16:0 17:0 18:0 19:0 20:0 21:0 22:0 23:0 24:0 25:0 26:2 27:4 28:2 29:3 30:3 31:2 32:3 33:6 34:3 35:1 36:1 37:0 38:0 39:30 
8 1:0 2:0 3:0 4:0 5:0 6:3 7:7 8:4 9:4 10:3 11:4 12:9 13:0 14:0 15:0 16:0 17:0 18:0 19:0 20:0 21:0 22:0 23:0 24:0 25:0 26:0 27:4 28:6 29:3 30:2 31:3 32:3 33:4 34:5 35:3 36:1 37:0 38:0 39:34 
1.7958862839605 1:0 2:0 3:0 4:0 5:3 6:7 7:4 8:4 9:3 10:4 11:10 12:0 13:0 14:0 15:0 16:0 17:0 18:0 19:0 20:0 21:0 22:0 23:0 24:0 25:0 26:4 27:6 28:3 29:3 30:3 31:3 32:3 33:6 34:2 35:1 36:1 37:0 38:0 39:35 
8 1:0 2:0 3:0 4:4 5:7 6:4 7:4 8:3 9:4 10:8 11:1 12:0 13:0 14:0 15:0 16:0 17:0 18:0 19:0 20:0 21:0 22:0 23:4 24:5 25:4 26:1 27:2 28:3 29:4 30:6 31:3 32:2 33:1 34:0 35:0 36:0 37:0 38:0 39:35 
1.694539977617847 1:0 2:0 3:0 4:0 5:0 6:5 7:6 8:4 9:4 10:3 11:3 12:10 13:0 14:0 15:0 16:0 17:0 18:0 19:0 20:0 21:0 22:0 23:0 24:0 25:4 26:6 27:3 28:3 29:3 30:3 31:2 32:6 33:3 34:1 35:1 36:0 37:0 38:0 39:35 
8 1:0 2:0 3:0 4:0 5:0 6:4 7:7 8:4 9:4 10:1 11:3 12:8 13:0 14:0 15:0 16:0 17:0 18:0 19:0 20:0 21:0 22:0 23:0 24:0 25:0 26:3 27:5 28:4 29:3 30:2 31:2 32:1 33:6 34:3 35:1 36:1 37:0 38:0 39:31 
8 1:0 2:0 3:0 4:0 5:0 6:0 7:4 8:6 9:4 10:4 11:2 12:4 13:8 14:0 15:0 16:0 17:0 18:0 19:0 20:0 21:0 22:0 23:0 24:2 25:6 26:4 27:3 28:1 29:3 30:4 31:5 32:3 33:0 34:1 35:0 36:0 37:0 38:0 39:32 
8 1:0 2:0 3:0 4:5 5:6 6:4 7:4 8:3 9:3 10:9 11:0 12:0 13:0 14:0 15:0 16:0 17:0 18:0 19:0 20:0 21:0 22:0 23:0 24:4 25:6 26:3 27:3 28:3 29:3 30:3 31:6 32:3 33:0 34:0 35:0 36:0 37:0 38:0 39:34 
8 1:0 2:0 3:0 4:5 5:6 6:4 7:4 8:3 9:4 10:9 11:0 12:0 13:0 14:0 15:0 16:0 17:0 18:0 19:0 20:0 21:0 22:0 23:0 24:0 25:4 26:6 27:4 28:3 29:1 30:2 31:4 32:6 33:3 34:1 35:1 36:0 37:0 38:0 39:35 
8 1:0 2:0 3:0 4:3 5:6 6:3 7:4 8:3 9:4 10:11 11:0 12:0 13:0 14:0 15:0 16:0 17:0 18:0 19:0 20:0 21:0 22:0 23:0 24:4 25:6 26:3 27:2 28:3 29:3 30:3 31:5 32:3 33:1 34:1 35:0 36:0 37:0 38:0 39:34 
8 1:0 2:0 3:0 4:0 5:3 6:6 7:4 8:4 9:3 10:3 11:10 12:0 13:0 14:0 15:0 16:0 17:0 18:0 19:0 20:0 21:0 22:0 23:0 24:0 25:4 26:6 27:3 28:2 29:3 30:3 31:2 32:5 33:3 34:1 35:1 36:0 37:0 38:0 39:33 
4.179826934964407 1:0 2:0 3:0 4:0 5:4 6:7 7:3 8:4 9:3 10:3 11:9 12:0 13:0 14:0 15:0 16:0 17:0 18:0 19:0 20:0 21:0 22:0 23:0 24:0 25:0 26:0 27:3 28:6 29:2 30:3 31:3 32:3 33:4 34:6 35:2 36:1 37:0 38:0 39:33 
-8 1:0 2:0 3:0 4:0 5:0 6:0 7:4 8:6 9:6 10:7 11:6 12:5 13:0 14:0 15:0 16:0 17:0 18:0 19:0 20:0 21:0 22:0 23:0 24:0 25:0 26:0 27:6 28:6 29:3 30:2 31:2 32:2 33:1 34:6 35:6 36:0 37:0 38:0 39:34 
-7.900525947378702 1:0 2:0 3:0 4:5 5:6 6:6 7:7 8:5 9:5 10:0 11:0 12:0 13:0 14:0 15:0 16:0 17:0 18:0 19:0 20:0 21:0 22:0 23:0 24:5 25:6 26:3 27:2 28:2 29:2 30:2 31:6 32:6 33:0 34:0 35:0 36:0 37:0 38:0 39:34 
-8 1:0 2:0 3:0 4:0 5:0 6:0 7:5 8:6 9:6 10:6 11:7 12:5 13:0 14:0 15:0 16:0 17:0 18:0 19:0 20:0 21:0 22:0 23:0 24:0 25:6 26:5 27:3 28:2 29:2 30:2 31:3 32:6 33:6 34:0 35:0 36:0 37:0 38:0 39:35 
-6.09078893207885 1:0 2:0 3:0 4:0 5:0 6:0 7:5 8:6 9:6 10:6 11:6 12:4 13:0 14:0 15:0 16:0 17:0 18:0 19:0 20:0 21:0 22:0 23:0 24:0 25:0 26:0 27:6 28:6 29:1 30:2 31:2 32:2 33:2 34:6 35:6 36:0 37:0 38:0 39:33 
-8 1:0 2:0 3:0 4:5 5:6 6:6 7:6 8:4 9:5 10:0 11:0 12:0 13:0 14:0 15:0 16:0 17:0 18:0 19:0 20:0 21:0 22:0 23:6 24:6 25:1 26:1 27:2 28:2 29:2 30:6 31:6 32:0 33:0 34:0 35:0 36:0 37:0 38:0 39:32 
-8 1:0 2:0 3:0 4:5 5:6 6:6 7:6 8:5 9:4 10:0 11:0 12:0 13:0 14:0 15:0 16:0 17:0 18:0 19:0 20:0 21:0 22:0 23:0 24:6 25:5 26:3 27:2 28:2 29:2 30:2 31:5 32:5 33:0 34:0 35:0 36:0 37:0 38:0 39:32 
-2.719620368231311 1:0 2:0 3:0 4:0 5:4 6:5 7:5 8:6 9:5 10:5 11:0 12:0 13:0 14:0 15:0 16:0 17:0 18:0 19:0 20:0 21:0 22:0 23:0 24:0 25:0 26:0 27:5 28:2 29:3 30:2 31:2 32:2 33:2 34:6 35:6 36:0 37:0 38:0 39:30 
-8 1:0 2:0 3:0 4:0 5:0 6:0 7:4 8:5 9:6 10:6 11:4 12:5 13:0 14:0 15:0 16:0 17:0 18:0 19:0 20:0 21:0 22:0 23:5 24:5 25:2 26:1 27:2 28:2 29:2 30:5 31:6 32:0 33:0 34:0 35:0 36:0 37:0 38:0 39:30 
-4.383605353220227 1:0 2:0 3:0 4:0 5:4 6:6 7:6 8:6 9:5 10:4 11:0 12:0 13:0 14:0 15:0 16:0 17:0 18:0 19:0 20:0 21:0 22:0 23:5 24:4 25:2 26:2 27:2 28:2 29:2 30:6 31:6 32:0 33:0 34:0 35:0 36:0 37:0 38:0 39:31 
-8 1:0 2:0 3:0 4:0 5:0 6:4 7:6 8:5 9:7 10:5 11:5 12:1 13:1 14:1 15:0 16:0 17:0 18:0 19:0 20:0 21:0 22:0 23:0 24:0 25:0 26:5 27:4 28:3 29:3 30:3 31:2 32:3 33:6 34:6 35:0 36:0 37:0 38:0 39:35 
-8 1:0 2:0 3:0 4:4 5:6 6:7 7:6 8:5 9:5 10:0 11:0 12:0 13:0 14:0 15:0 16:0 17:0 18:0 19:0 20:0 21:0 22:0 23:0 24:0 25:6 26:5 27:3 28:2 29:2 30:2 31:3 32:5 33:5 34:0 35:0 36:0 37:0 38:0 39:33 
-8 1:0 2:0 3:0 4:0 5:5 6:6 7:6 8:6 9:6 10:5 11:0 12:0 13:0 14:0 15:0 16:0 17:0 18:0 19:0 20:0 21:0 22:0 23:0 24:0 25:0 26:0 27:6 28:6 29:3 30:2 31:1 32:2 33:2 34:6 35:6 36:0 37:0 38:0 39:34 
-8 1:0 2:0 3:0 4:0 5:0 6:0 7:4 8:6 9:6 10:7 11:6 12:4 13:0 14:0 15:0 16:0 17:0 18:0 19:0 20:0 21:0 22:0 23:0 24:0 25:6 26:5 27:3 28:2 29:2 30:2 31:1 32:6 33:6 34:0 35:0 36:0 37:0 38:0 39:33 
-8 1:0 2:0 3:0 4:0 5:5 6:6 7:5 8:5 9:6 10:6 11:0 12:0 13:0 14:0 15:0 16:0 17:0 18:0 19:1 20:1 21:0 22:0 23:0 24:0 25:5 26:5 27:2 28:2 29:2 30:1 31:2 32:6 33:6 34:0 35:0 36:0 37:0 38:0 39:33 
-8 1:0 2:0 3:0 4:0 5:0 6:0 7:5 8:5 9:5 10:6 11:6 12:5 13:0 14:0 15:0 16:0 17:0 18:0 19:0 20:0 21:0 22:0 23:0 24:0 25:0 26:6 27:5 28:3 29:2 30:1 31:1 32:2 33:6 34:6 35:0 36:0 37:0 38:0 39:32 
-5.247402458768742 1:0 2:0 3:0 4:0 5:5 6:6 7:6 8:7 9:6 10:6 11:0 12:0 13:0 14:0 15:0 16:0 17:0 18:0 19:0 20:0 21:0 22:0 23:6 24:6 25:3 26:2 27:2 28:2 29:3 30:6 31:6 32:0 33:0 34:0 35:0 36:0 37:0 38:0 39:36 
-4.231842139457059 1:1 2:0 3:0 4:0 5:0 6:5 7:6 8:3 9:7 10:6 11:4 12:0 13:0 14:0 15:0 16:0 17:0 18:0 19:0 20:0 21:0 22:0 23:0 24:0 25:1 26:6 27:5 28:2 29:3 30:2 31:2 32:2 33:4 34:5 35:0 36:0 37:0 38:0 39:32 
-7.941418645818851 1:0 2:0 3:0 4:0 5:0 6:0 7:5 8:5 9:6 10:7 11:5 12:5 13:0 14:0 15:0 16:0 17:0 18:0 19:0 20:0 21:0 22:0 23:0 24:6 25:6 26:3 27:2 28:2 29:1 30:2 31:5 32:6 33:0 34:0 35:0 36:0 37:0 38:0 39:33 
-8 1:0 2:0 3:0 4:0 5:0 6:0 7:3 8:4 9:5 10:7 11:6 12:4 13:0 14:0 15:0 16:0 17:0 18:0 19:0 20:0 21:0 22:0 23:0 24:0 25:0 26:4 27:6 28:3 29:2 30:2 31:2 32:1 33:5 34:4 35:0 36:0 37:0 38:0 39:29 
-1.497841188108718 1:0 2:0 3:0 4:0 5:0 6:0 7:3 8:6 9:6 10:6 11:5 12:5 13:0 14:0 15:0 16:0 17:0 18:0 19:0 20:0 21:0 22:0 23:5 24:6 25:2 26:1 27:2 28:2 29:2 30:5 31:6 32:0 33:0 34:0 35:0 36:0 37:0 38:0 39:31 
-1.869791430118996 1:0 2:0 3:0 4:0 5:5 6:6 7:6 8:6 9:6 10:5 11:0 12:0 13:0 14:0 15:0 16:0 17:0 18:0 19:0 20:0 21:0 22:0 23:0 24:0 25:6 26:6 27:3 28:2 29:2 30:2 31:2 32:6 33:5 34:0 35:0 36:0 37:0 38:0 39:34 
