svm_type c_svc
kernel_type rbf
gamma 0.0078125
nr_class 2
total_sv 53
rho 0.00294827
label 0 1
probA -4.19747
probB 0.100557
nr_sv 25 28
SV
0.125 1:0 2:0 3:0 4:0 5:7 6:9 7:1 8:2 9:2 10:0 11:0 12:0 13:0 14:0 15:0 16:0 17:0 18:0 19:0 20:0 21:0 22:0 23:0 24:4 25:5 26:1 27:2 28:2 29:2 30:2 31:1 32:2 33:0 34:0 35:0 36:0 37:0 38:0 39:21 
0.0259359975513243 1:0 2:0 3:0 4:0 5:6 6:8 7:1 8:2 9:2 10:0 11:0 12:0 13:0 14:0 15:0 16:0 17:0 18:0 19:0 20:0 21:0 22:0 23:0 24:0 25:0 26:0 27:3 28:4 29:2 30:2 31:1 32:2 33:1 34:2 35:2 36:0 37:0 38:0 39:19 
0.125 1:2 2:0 3:0 4:0 5:0 6:7 7:9 8:1 9:1 10:2 11:0 12:0 13:0 14:0 15:0 16:0 17:0 18:0 19:0 20:0 21:0 22:0 23:0 24:0 25:0 26:0 27:3 28:6 29:2 30:2 31:1 32:3 33:2 34:1 35:2 36:0 37:0 38:0 39:22 
0.125 1:0 2:0 3:0 4:0 5:8 6:9 7:1 8:2 9:2 10:1 11:0 12:0 13:0 14:0 15:0 16:0 17:0 18:0 19:0 20:0 21:0 22:0 23:0 24:1 25:3 26:5 27:2 28:2 29:2 30:2 31:2 32:2 33:2 34:0 35:0 36:0 37:0 38:0 39:23 
0.125 1:0 2:0 3:0 4:0 5:1 6:8 7:9 8:1 9:2 10:2 11:0 12:0 13:0 14:0 15:0 16:0 17:0 18:0 19:0 20:0 21:0 22:0 23:1 24:4 25:5 26:2 27:2 28:2 29:2 30:1 31:3 32:1 33:0 34:0 35:0 36:0 37:0 38:0 39:23 
0.04460481693171078 1:0 2:0 3:0 4:0 5:0 6:4 7:9 8:1 9:2 10:2 11:0 12:0 13:0 14:0 15:0 16:0 17:0 18:0 19:0 20:0 21:0 22:0 23:0 24:3 25:5 26:1 27:2 28:1 29:1 30:1 31:2 32:2 33:0 34:0 35:0 36:0 37:0 38:0 39:18 
0.125 1:0 2:0 3:0 4:4 5:8 6:1 7:2 8:2 9:0 10:0 11:0 12:0 13:0 14:0 15:0 16:0 17:0 18:0 19:0 20:0 21:0 22:0 23:0 24:0 25:0 26:3 27:4 28:1 29:2 30:2 31:0 32:2 33:1 34:2 35:0 36:0 37:0 38:0 39:17 
0.125 1:1 2:0 3:0 4:0 5:0 6:0 7:6 8:9 9:1 10:2 11:2 12:0 13:0 14:0 15:0 16:0 17:0 18:0 19:0 20:0 21:0 22:0 23:0 24:0 25:0 26:0 27:4 28:4 29:2 30:1 31:2 32:2 33:2 34:2 35:2 36:0 37:0 38:0 39:21 
0.06383391707156867 1:0 2:0 3:0 4:0 5:6 6:8 7:0 8:2 9:2 10:0 11:0 12:0 13:0 14:0 15:0 16:0 17:0 18:0 19:0 20:0 21:0 22:0 23:0 24:0 25:0 26:3 27:3 28:1 29:2 30:1 31:2 32:2 33:2 34:2 35:0 36:0 37:0 38:0 39:18 
0.125 1:0 2:0 3:0 4:0 5:6 6:9 7:2 8:1 9:2 10:0 11:0 12:1 13:0 14:0 15:0 16:0 17:0 18:0 19:0 20:0 21:0 22:1 23:0 24:0 25:0 26:0 27:4 28:3 29:3 30:2 31:1 32:2 33:1 34:2 35:2 36:0 37:0 38:0 39:21 
0.125 1:0 2:0 3:0 4:0 5:0 6:0 7:7 8:7 9:1 10:2 11:2 12:0 13:0 14:0 15:0 16:0 17:0 18:0 19:0 20:0 21:0 22:0 23:0 24:0 25:0 26:4 27:5 28:1 29:2 30:1 31:1 32:2 33:2 34:1 35:0 36:0 37:0 38:0 39:19 
0.125 1:0 2:0 3:0 4:6 5:8 6:1 7:2 8:2 9:0 10:0 11:0 12:0 13:0 14:0 15:0 16:0 17:0 18:0 19:0 20:0 21:0 22:0 23:0 24:0 25:0 26:0 27:3 28:5 29:2 30:1 31:2 32:2 33:2 34:2 35:0 36:0 37:0 38:0 39:19 
0.125 1:0 2:0 3:0 4:5 5:9 6:0 7:2 8:2 9:0 10:0 11:0 12:0 13:0 14:0 15:0 16:0 17:0 18:0 19:0 20:0 21:0 22:0 23:0 24:4 25:4 26:2 27:1 28:2 29:1 30:1 31:1 32:2 33:0 34:0 35:0 36:0 37:0 38:0 39:18 
0.125 1:0 2:0 3:0 4:0 5:0 6:6 7:9 8:1 9:2 10:2 11:0 12:0 13:0 14:0 15:0 16:0 17:0 18:0 19:0 20:0 21:0 22:0 23:4 24:4 25:2 26:2 27:2 28:2 29:1 30:1 31:2 32:0 33:0 34:0 35:0 36:0 37:0 38:0 39:20 
0.125 1:0 2:0 3:0 4:0 5:0 6:1 7:6 8:8 9:2 10:2 11:2 12:0 13:0 14:0 15:0 16:0 17:0 18:0 19:0 20:0 21:0 22:0 23:0 24:0 25:4 26:4 27:4 28:2 29:2 30:2 31:2 32:1 33:0 34:0 35:0 36:0 37:0 38:0 39:21 
0.125 1:4 2:1 3:0 4:0 5:4 6:9 7:1 8:2 9:2 10:0 11:0 12:0 13:0 14:0 15:0 16:0 17:0 18:0 19:0 20:0 21:0 22:0 23:0 24:4 25:5 26:1 27:1 28:2 29:1 30:2 31:3 32:3 33:1 34:0 35:0 36:0 37:0 38:0 39:23 
0.125 1:0 2:0 3:0 4:0 5:0 6:7 7:10 8:1 9:2 10:1 11:0 12:0 13:0 14:0 15:0 16:0 17:0 18:0 19:0 20:0 21:0 22:1 23:1 24:4 25:3 26:2 27:2 28:2 29:2 30:1 31:2 32:1 33:0 34:0 35:0 36:0 37:0 38:0 39:21 
0.125 1:0 2:0 3:0 4:0 5:0 6:0 7:6 8:8 9:1 10:1 11:1 12:0 13:0 14:0 15:0 16:0 17:0 18:0 19:0 20:0 21:0 22:0 23:0 24:0 25:0 26:0 27:4 28:3 29:2 30:1 31:2 32:2 33:0 34:2 35:1 36:0 37:0 38:0 39:17 
0.0963406222964323 1:0 2:0 3:0 4:0 5:5 6:8 7:1 8:2 9:2 10:1 11:0 12:0 13:0 14:0 15:0 16:0 17:0 18:0 19:0 20:0 21:0 22:0 23:0 24:0 25:0 26:3 27:6 28:1 29:1 30:2 31:1 32:2 33:2 34:1 35:0 36:0 37:0 38:0 39:19 
0.125 1:0 2:0 3:0 4:0 5:0 6:0 7:8 8:7 9:1 10:2 11:1 12:0 13:0 14:0 15:0 16:0 17:0 18:0 19:0 20:0 21:0 22:0 23:0 24:0 25:3 26:4 27:2 28:1 29:2 30:2 31:1 32:2 33:2 34:0 35:0 36:0 37:0 38:0 39:19 
0.125 1:1 2:1 3:0 4:0 5:0 6:7 7:8 8:1 9:2 10:2 11:0 12:0 13:0 14:0 15:0 16:0 17:0 18:0 19:0 20:0 21:0 22:0 23:0 24:0 25:4 26:5 27:2 28:1 29:2 30:1 31:1 32:2 33:2 34:1 35:1 36:0 37:0 38:0 39:22 
0.125 1:0 2:0 3:0 4:0 5:0 6:0 7:5 8:9 9:1 10:2 11:2 12:0 13:0 14:0 15:0 16:0 17:0 18:0 19:0 20:0 21:0 22:0 23:0 24:0 25:0 26:3 27:4 28:2 29:2 30:2 31:1 32:2 33:2 34:1 35:0 36:0 37:0 38:0 39:19 
0.125 1:0 2:0 3:0 4:0 5:7 6:9 7:1 8:2 9:2 10:0 11:0 12:0 13:0 14:0 15:0 16:0 17:0 18:0 19:0 20:0 21:0 22:0 23:0 24:4 25:5 26:1 27:2 28:2 29:2 30:2 31:1 32:2 33:0 34:0 35:0 36:0 37:0 38:0 39:21 
0.08338912783657883 1:0 2:0 3:0 4:0 5:0 6:5 7:9 8:2 9:2 10:2 11:0 12:0 13:0 14:0 15:0 16:0 17:0 18:0 19:0 20:0 21:0 22:0 23:0 24:0 25:3 26:5 27:1 28:1 29:2 30:1 31:2 32:3 33:2 34:0 35:0 36:0 37:0 38:0 39:20 
0.125 1:2 2:0 3:0 4:6 5:9 6:1 7:2 8:2 9:0 10:0 11:0 12:0 13:0 14:0 15:0 16:0 17:0 18:0 19:0 20:0 21:0 22:0 23:0 24:0 25:0 26:4 27:5 28:2 29:2 30:1 31:2 32:2 33:3 34:1 35:0 36:0 37:0 38:0 39:22 
-0.125 1:0 2:0 3:0 4:0 5:0 6:1 7:4 8:7 9:6 10:6 11:6 12:6 13:1 14:0 15:0 16:0 17:0 18:0 19:0 20:0 21:0 22:0 23:0 24:0 25:0 26:4 27:6 28:3 29:4 30:6 31:2 32:4 33:5 34:3 35:0 36:0 37:0 38:0 39:37 
-0.05349450073570404 1:0 2:0 3:0 4:1 5:2 6:5 7:6 8:5 9:6 10:5 11:2 12:0 13:0 14:0 15:0 16:0 17:0 18:0 19:0 20:0 21:0 22:0 23:0 24:3 25:3 26:2 27:5 28:4 29:3 30:4 31:5 32:3 33:0 34:0 35:0 36:0 37:0 38:0 39:32 
-0.125 1:0 2:0 3:0 4:0 5:4 6:6 7:5 8:6 9:6 10:5 11:2 12:0 13:0 14:0 15:0 16:0 17:0 18:0 19:0 20:0 21:0 22:0 23:0 24:0 25:3 26:6 27:2 28:4 29:5 30:3 31:4 32:4 33:3 34:0 35:0 36:0 37:0 38:0 39:34 
-0.125 1:0 2:0 3:0 4:0 5:0 6:0 7:3 8:6 9:4 10:6 11:6 12:3 13:1 14:0 15:0 16:0 17:0 18:0 19:0 20:0 21:0 22:0 23:0 24:0 25:0 26:3 27:5 28:2 29:3 30:5 31:1 32:4 33:4 34:2 35:0 36:0 37:0 38:0 39:29 
-0.05739479000806288 1:0 2:0 3:0 4:0 5:0 6:0 7:4 8:6 9:6 10:6 11:5 12:6 13:2 14:0 15:0 16:0 17:0 18:0 19:0 20:0 21:0 22:0 23:0 24:0 25:0 26:0 27:4 28:5 29:3 30:4 31:5 32:3 33:4 34:4 35:3 36:0 37:0 38:0 39:35 
-0.125 1:0 2:0 3:0 4:0 5:2 6:6 7:6 8:6 9:6 10:6 11:2 12:0 13:0 14:0 15:0 16:0 17:0 18:0 19:0 20:0 21:0 22:0 23:4 24:5 25:3 26:2 27:5 28:3 29:4 30:5 31:3 32:0 33:0 34:0 35:0 36:0 37:0 38:0 39:34 
-0.125 1:0 2:0 3:0 4:0 5:0 6:4 7:6 8:4 9:6 10:6 11:6 12:2 13:0 14:0 15:0 16:0 17:0 18:0 19:0 20:0 21:0 22:0 23:4 24:6 25:3 26:3 27:4 28:3 29:3 30:5 31:3 32:0 33:0 34:0 35:0 36:0 37:0 38:0 39:34 
-0.125 1:1 2:0 3:0 4:0 5:3 6:7 7:6 8:6 9:5 10:4 11:1 12:0 13:0 14:0 15:0 16:0 17:0 18:0 19:0 20:0 21:0 22:0 23:0 24:0 25:0 26:4 27:5 28:2 29:4 30:4 31:3 32:2 33:5 34:4 35:0 36:0 37:0 38:0 39:33 
-0.1111322816078087 1:0 2:0 3:0 4:0 5:0 6:3 7:6 8:6 9:6 10:6 11:6 12:1 13:0 14:0 15:0 16:0 17:0 18:0 19:0 20:0 21:0 22:0 23:0 24:0 25:0 26:0 27:4 28:6 29:1 30:4 31:5 32:2 33:4 34:5 35:3 36:0 37:0 38:0 39:34 
-0.125 1:0 2:0 3:0 4:0 5:4 6:7 7:5 8:5 9:6 10:6 11:2 12:0 13:0 14:0 15:0 16:0 17:0 18:0 19:0 20:0 21:0 22:0 23:0 24:0 25:0 26:0 27:4 28:6 29:3 30:3 31:4 32:3 33:4 34:5 35:3 36:0 37:0 38:0 39:35 
-0.09226684139889874 1:0 2:0 3:0 4:0 5:3 6:7 7:6 8:6 9:5 10:6 11:2 12:0 13:0 14:0 15:0 16:0 17:0 18:0 19:0 20:0 21:0 22:0 23:0 24:0 25:0 26:4 27:6 28:2 29:5 30:4 31:2 32:4 33:5 34:3 35:0 36:0 37:0 38:0 39:35 
-0.125 1:0 2:0 3:0 4:0 5:0 6:0 7:4 8:5 9:4 10:6 11:6 12:6 13:3 14:0 15:0 16:0 17:0 18:0 19:0 20:0 21:0 22:0 23:0 24:0 25:0 26:0 27:3 28:5 29:3 30:3 31:5 32:3 33:4 34:5 35:3 36:0 37:0 38:0 39:34 
-0.125 1:0 2:0 3:0 4:0 5:2 6:6 7:6 8:6 9:6 10:5 11:2 12:0 13:0 14:0 15:0 16:0 17:0 18:0 19:0 20:0 21:0 22:0 23:4 24:6 25:2 26:3 27:5 28:3 29:3 30:4 31:3 32:0 33:0 34:0 35:0 36:0 37:0 38:0 39:33 
-0.005304736828974416 1:0 2:0 3:0 4:0 5:0 6:2 7:6 8:6 9:6 10:6 11:6 12:2 13:0 14:0 15:0 16:0 17:0 18:0 19:0 20:0 21:0 22:0 23:0 24:0 25:4 26:6 27:2 28:3 29:5 30:3 31:3 32:5 33:3 34:0 35:0 36:0 37:0 38:0 39:34 
-0.03718059626004593 1:0 2:0 3:0 4:0 5:0 6:3 7:6 8:6 9:6 10:6 11:6 12:2 13:0 14:0 15:0 16:0 17:0 18:0 19:0 20:0 21:0 22:0 23:4 24:6 25:3 26:2 27:5 28:3 29:4 30:5 31:3 32:0 33:0 34:0 35:0 36:0 37:0 38:0 39:35 
-0.125 1:0 2:0 3:0 4:0 5:3 6:6 7:6 8:5 9:4 10:4 11:2 12:0 13:0 14:0 15:0 16:0 17:0 18:0 19:0 20:0 21:0 22:0 23:0 24:0 25:0 26:3 27:4 28:2 29:3 30:4 31:3 32:4 33:5 34:2 35:0 36:0 37:0 38:0 39:30 
-0.125 1:0 2:0 3:0 4:3 5:7 6:6 7:6 8:6 9:6 10:2 11:0 12:0 13:0 14:0 15:0 16:0 17:0 18:0 19:0 20:0 21:0 22:0 23:0 24:4 25:6 26:3 27:3 28:5 29:3 30:4 31:5 32:3 33:0 34:0 35:0 36:0 37:0 38:0 39:36 
-0.125 1:0 2:0 3:0 4:4 5:7 6:6 7:6 8:6 9:6 10:2 11:0 12:0 13:0 14:0 15:0 16:0 17:0 18:0 19:0 20:0 21:0 22:0 23:0 24:4 25:6 26:3 27:4 28:5 29:3 30:4 31:5 32:3 33:0 34:0 35:0 36:0 37:0 38:0 39:37 
-0.125 1:0 2:0 3:0 4:0 5:0 6:0 7:2 8:7 9:5 10:6 11:5 12:6 13:2 14:0 15:0 16:0 17:0 18:0 19:0 20:0 21:0 22:0 23:0 24:0 25:0 26:4 27:6 28:2 29:3 30:5 31:2 32:4 33:5 34:2 35:0 36:0 37:0 38:0 39:33 
-0.125 1:0 2:0 3:0 4:0 5:0 6:0 7:3 8:6 9:6 10:5 11:5 12:5 13:1 14:0 15:0 16:0 17:0 18:0 19:0 20:0 21:0 22:0 23:0 24:0 25:0 26:0 27:3 28:5 29:3 30:4 31:2 32:2 33:4 34:5 35:3 36:0 37:0 38:0 39:31 
-0.125 1:9 2:1 3:0 4:0 5:0 6:3 7:6 8:6 9:6 10:5 11:6 12:1 13:0 14:0 15:0 16:0 17:0 18:0 19:0 20:0 21:0 22:0 23:0 24:0 25:1 26:1 27:4 28:8 29:2 30:5 31:6 32:3 33:4 34:6 35:3 36:0 37:0 38:0 39:43 
-0.125 1:0 2:0 3:0 4:1 5:1 6:2 7:7 8:4 9:6 10:5 11:7 12:2 13:0 14:0 15:0 16:0 17:0 18:0 19:1 20:0 21:0 22:0 23:0 24:6 25:6 26:3 27:3 28:3 29:3 30:3 31:4 32:3 33:0 34:0 35:0 36:0 37:0 38:0 39:35 
-0.006840031254300448 1:0 2:0 3:0 4:0 5:0 6:2 7:7 8:6 9:5 10:6 11:6 12:1 13:0 14:0 15:0 16:0 17:0 18:0 19:0 20:0 21:0 22:0 23:0 24:4 25:5 26:3 27:3 28:5 29:2 30:4 31:5 32:2 33:0 34:0 35:0 36:0 37:0 38:0 39:33 
-0.05551040383317694 1:0 2:0 3:0 4:0 5:0 6:5 7:6 8:6 9:5 10:5 11:5 12:1 13:0 14:0 15:0 16:0 17:0 18:0 19:0 20:0 21:0 22:0 23:0 24:3 25:6 26:3 27:4 28:4 29:3 30:2 31:5 32:3 33:0 34:0 35:0 36:0 37:0 38:0 39:33 
-0.125 1:0 2:0 3:0 4:0 5:0 6:3 7:7 8:5 9:4 10:6 11:6 12:1 13:0 14:0 15:0 16:0 17:0 18:0 19:0 20:0 21:0 22:0 23:0 24:0 25:3 26:5 27:3 28:3 29:4 30:2 31:4 32:5 33:3 34:0 35:0 36:0 37:0 38:0 39:32 
-0.125 1:0 2:0 3:0 4:0 5:0 6:0 7:3 8:7 9:5 10:6 11:6 12:6 13:2 14:0 15:0 16:0 17:0 18:0 19:0 20:0 21:0 22:0 23:0 24:3 25:6 26:3 27:3 28:5 29:3 30:4 31:5 32:3 33:0 34:0 35:0 36:0 37:0 38:0 39:35 
-0.125 1:3 2:0 3:0 4:0 5:3 6:8 7:6 8:6 9:6 10:5 11:2 12:0 13:0 14:0 15:0 16:0 17:0 18:0 19:0 20:0 21:1 22:0 23:1 24:4 25:6 26:3 27:4 28:5 29:3 30:5 31:4 32:3 33:0 34:0 35:0 36:0 37:0 38:0 39:39 
-0.01998029976064282 1:2 2:0 3:0 4:0 5:0 6:3 7:7 8:6 9:6 10:6 11:5 12:2 13:0 14:0 15:0 16:0 17:0 18:0 19:0 20:0 21:0 22:0 23:0 24:0 25:0 26:0 27:4 28:5 29:2 30:4 31:5 32:4 33:5 34:5 35:3 36:0 37:0 38:0 39:37 
