svm_type c_svc
kernel_type rbf
gamma 0.0078125
nr_class 2
total_sv 46
rho -0.0723943
label 0 1
probA -4.5454
probB -0.327277
nr_sv 21 25
SV
0.5 1:0 2:0 3:0 4:0 5:0 6:0 7:6 8:8 9:2 10:2 11:1 12:1 13:9 14:0 15:0 16:0 17:0 18:0 19:0 20:0 21:0 22:0 23:3 24:2 25:3 26:3 27:3 28:3 29:3 30:6 31:3 32:0 33:0 34:0 35:0 36:0 37:0 38:0 39:29 
0.5 1:0 2:0 3:0 4:5 5:7 6:2 7:2 8:1 9:1 10:7 11:0 12:0 13:0 14:0 15:0 16:0 17:0 18:0 19:0 20:0 21:0 22:0 23:3 24:3 25:2 26:3 27:2 28:2 29:1 30:6 31:3 32:0 33:0 34:0 35:0 36:0 37:0 38:0 39:25 
0.4463191059533756 1:0 2:0 3:0 4:0 5:0 6:6 7:8 8:2 9:2 10:1 11:2 12:9 13:1 14:0 15:0 16:0 17:0 18:0 19:0 20:0 21:0 22:0 23:0 24:0 25:3 26:3 27:3 28:3 29:2 30:3 31:4 32:7 33:3 34:0 35:0 36:0 37:0 38:0 39:31 
0.2560478184361331 1:1 2:0 3:0 4:4 5:8 6:2 7:2 8:1 9:1 10:7 11:1 12:0 13:0 14:0 15:0 16:0 17:0 18:0 19:0 20:0 21:0 22:0 23:0 24:0 25:0 26:4 27:2 28:2 29:1 30:3 31:3 32:3 33:5 34:4 35:0 36:0 37:0 38:0 39:27 
0.5 1:7 2:1 3:0 4:0 5:0 6:0 7:6 8:5 9:2 10:2 11:1 12:3 13:8 14:1 15:0 16:0 17:0 18:0 19:0 20:0 21:0 22:0 23:4 24:3 25:4 26:3 27:6 28:3 29:4 30:6 31:3 32:0 33:0 34:0 35:0 36:0 37:0 38:0 39:36 
0.5 1:0 2:0 3:0 4:5 5:8 6:3 7:1 8:1 9:2 10:9 11:0 12:0 13:0 14:0 15:0 16:0 17:0 18:0 19:0 20:0 21:0 22:0 23:0 24:0 25:3 26:2 27:3 28:3 29:3 30:3 31:4 32:6 33:2 34:0 35:0 36:0 37:0 38:0 39:29 
0.2022293591015131 1:0 2:0 3:0 4:0 5:1 6:5 7:6 8:3 9:2 10:1 11:2 12:7 13:0 14:0 15:1 16:1 17:0 18:0 19:0 20:0 21:0 22:0 23:0 24:0 25:0 26:2 27:2 28:2 29:3 30:2 31:3 32:4 33:6 34:3 35:2 36:0 37:0 38:0 39:29 
0.4597813597255908 1:0 2:0 3:0 4:0 5:5 6:8 7:2 8:2 9:1 10:2 11:6 12:0 13:0 14:0 15:0 16:0 17:0 18:0 19:0 20:0 21:0 22:0 23:3 24:3 25:3 26:3 27:1 28:2 29:3 30:6 31:2 32:0 33:0 34:0 35:0 36:0 37:0 38:0 39:26 
0.5 1:0 2:0 3:0 4:0 5:0 6:0 7:4 8:8 9:2 10:2 11:1 12:2 13:7 14:0 15:0 16:0 17:0 18:0 19:0 20:0 21:0 22:0 23:0 24:0 25:0 26:0 27:2 28:2 29:1 30:3 31:3 32:2 33:4 34:6 35:3 36:0 37:0 38:0 39:26 
0.5 1:0 2:0 3:0 4:0 5:5 6:7 7:2 8:2 9:1 10:2 11:8 12:0 13:0 14:0 15:0 16:1 17:0 18:0 19:0 20:0 21:0 22:0 23:0 24:3 25:4 26:2 27:3 28:2 29:3 30:3 31:6 32:2 33:0 34:0 35:0 36:0 37:0 38:0 39:28 
0.5 1:0 2:0 3:0 4:0 5:0 6:7 7:8 8:2 9:2 10:1 11:2 12:9 13:0 14:0 15:0 16:0 17:0 18:0 19:0 20:0 21:0 22:1 23:3 24:3 25:3 26:3 27:3 28:3 29:3 30:6 31:3 32:0 33:0 34:0 35:0 36:0 37:0 38:0 39:31 
0.3921749756644559 1:0 2:0 3:0 4:0 5:0 6:0 7:4 8:8 9:2 10:2 11:1 12:2 13:4 14:0 15:0 16:0 17:0 18:0 19:0 20:0 21:0 22:0 23:0 24:0 25:3 26:1 27:2 28:1 29:2 30:2 31:3 32:6 33:3 34:0 35:0 36:0 37:0 38:0 39:23 
0.2145319884782066 1:1 2:0 3:0 4:0 5:5 6:8 7:2 8:2 9:1 10:1 11:7 12:0 13:0 14:0 15:0 16:0 17:0 18:0 19:0 20:0 21:0 22:0 23:0 24:0 25:0 26:0 27:2 28:2 29:3 30:3 31:3 32:2 33:3 34:6 35:3 36:0 37:0 38:0 39:27 
0.5 1:0 2:0 3:0 4:0 5:5 6:8 7:2 8:2 9:2 10:3 11:9 12:0 13:0 14:0 15:0 16:0 17:0 18:0 19:0 20:0 21:0 22:0 23:0 24:0 25:0 26:3 27:3 28:2 29:3 30:2 31:4 32:4 33:6 34:4 35:0 36:0 37:0 38:0 39:31 
0.5 1:0 2:0 3:0 4:0 5:0 6:0 7:5 8:8 9:2 10:2 11:1 12:2 13:9 14:0 15:0 16:0 17:0 18:0 19:0 20:0 21:0 22:0 23:0 24:3 25:3 26:3 27:3 28:2 29:3 30:3 31:6 32:3 33:0 34:0 35:0 36:0 37:0 38:0 39:29 
0.1163269487682008 1:0 2:0 3:0 4:1 5:3 6:8 7:2 8:2 9:1 10:1 11:9 12:0 13:0 14:0 15:0 16:0 17:0 18:0 19:0 20:0 21:0 22:0 23:0 24:2 25:3 26:3 27:3 28:3 29:2 30:2 31:6 32:3 33:0 34:0 35:0 36:0 37:0 38:0 39:27 
0.2981857889044026 1:0 2:0 3:0 4:0 5:1 6:4 7:8 8:1 9:2 10:1 11:2 12:9 13:0 14:0 15:0 16:0 17:0 18:0 19:0 20:0 21:0 22:0 23:3 24:3 25:3 26:3 27:3 28:2 29:3 30:5 31:3 32:0 33:0 34:0 35:0 36:0 37:0 38:0 39:28 
0.4012686012895077 1:0 2:0 3:0 4:0 5:1 6:7 7:7 8:2 9:2 10:1 11:2 12:9 13:1 14:0 15:0 16:0 17:0 18:1 19:1 20:0 21:0 22:0 23:0 24:0 25:0 26:3 27:2 28:3 29:2 30:3 31:4 32:4 33:6 34:3 35:0 36:0 37:0 38:0 39:32 
0.138456832786649 1:0 2:0 3:0 4:0 5:0 6:4 7:8 8:2 9:1 10:1 11:1 12:5 13:0 14:0 15:0 16:0 17:0 18:0 19:0 20:0 21:0 22:0 23:2 24:3 25:1 26:2 27:1 28:2 29:3 30:5 31:3 32:0 33:0 34:0 35:0 36:0 37:0 38:0 39:22 
0.5 1:0 2:0 3:0 4:0 5:0 6:6 7:7 8:2 9:3 10:1 11:2 12:6 13:0 14:0 15:0 16:0 17:0 18:0 19:0 20:0 21:0 22:0 23:0 24:0 25:0 26:0 27:3 28:3 29:2 30:2 31:2 32:2 33:4 34:5 35:3 36:1 37:0 38:0 39:27 
0.4824887929462163 1:0 2:0 3:0 4:4 5:8 6:2 7:2 8:1 9:2 10:7 11:0 12:0 13:0 14:0 15:0 16:0 17:0 18:0 19:0 20:0 21:0 22:0 23:0 24:0 25:0 26:3 27:2 28:3 29:1 30:2 31:3 32:3 33:6 34:3 35:0 36:0 37:0 38:0 39:26 
-0.3481768705639631 1:0 2:0 3:0 4:0 5:0 6:0 7:4 8:6 9:6 10:7 11:6 12:5 13:0 14:0 15:0 16:0 17:0 18:0 19:0 20:0 21:0 22:0 23:0 24:0 25:0 26:0 27:6 28:6 29:3 30:2 31:2 32:2 33:1 34:6 35:6 36:0 37:0 38:0 39:34 
-0.17119489791652 1:0 2:0 3:0 4:0 5:0 6:0 7:5 8:6 9:6 10:6 11:7 12:5 13:0 14:0 15:0 16:0 17:0 18:0 19:0 20:0 21:0 22:0 23:0 24:0 25:6 26:5 27:3 28:2 29:2 30:2 31:3 32:6 33:6 34:0 35:0 36:0 37:0 38:0 39:35 
-0.1054716619915369 1:0 2:0 3:0 4:0 5:0 6:0 7:5 8:6 9:6 10:6 11:6 12:4 13:0 14:0 15:0 16:0 17:0 18:0 19:0 20:0 21:0 22:0 23:0 24:0 25:0 26:0 27:6 28:6 29:1 30:2 31:2 32:2 33:2 34:6 35:6 36:0 37:0 38:0 39:33 
-0.5 1:8 2:0 3:0 4:0 5:0 6:4 7:6 8:6 9:7 10:5 11:5 12:0 13:0 14:0 15:0 16:0 17:0 18:0 19:0 20:0 21:0 22:1 23:1 24:1 25:7 26:7 27:3 28:3 29:2 30:2 31:2 32:6 33:6 34:0 35:0 36:0 37:0 38:0 39:41 
-0.1721637511109835 1:0 2:0 3:0 4:0 5:0 6:6 7:7 8:5 9:7 10:6 11:5 12:0 13:0 14:0 15:0 16:0 17:0 18:0 19:0 20:2 21:0 22:0 23:6 24:6 25:3 26:2 27:2 28:1 29:2 30:6 31:6 32:0 33:0 34:0 35:0 36:0 37:0 38:0 39:36 
-0.01221056296414497 1:0 2:0 3:0 4:5 5:6 6:6 7:6 8:4 9:5 10:0 11:0 12:0 13:0 14:0 15:0 16:0 17:0 18:0 19:0 20:0 21:0 22:0 23:6 24:6 25:1 26:1 27:2 28:2 29:2 30:6 31:6 32:0 33:0 34:0 35:0 36:0 37:0 38:0 39:32 
-0.1416077977531583 1:0 2:0 3:0 4:0 5:5 6:4 7:5 8:6 9:6 10:5 11:0 12:0 13:0 14:0 15:0 16:0 17:0 18:0 19:0 20:0 21:0 22:0 23:0 24:6 25:5 26:3 27:2 28:1 29:0 30:2 31:6 32:6 33:0 34:0 35:0 36:0 37:0 38:0 39:31 
-0.4603904648542254 1:0 2:0 3:0 4:5 5:6 6:6 7:6 8:5 9:4 10:0 11:0 12:0 13:0 14:0 15:0 16:0 17:0 18:0 19:0 20:0 21:0 22:0 23:0 24:6 25:5 26:3 27:2 28:2 29:2 30:2 31:5 32:5 33:0 34:0 35:0 36:0 37:0 38:0 39:32 
-0.5 1:0 2:0 3:0 4:0 5:4 6:5 7:5 8:6 9:5 10:5 11:0 12:0 13:0 14:0 15:0 16:0 17:0 18:0 19:0 20:0 21:0 22:0 23:0 24:0 25:0 26:0 27:5 28:2 29:3 30:2 31:2 32:2 33:2 34:6 35:6 36:0 37:0 38:0 39:30 
-0.5 1:0 2:0 3:0 4:0 5:0 6:0 7:4 8:5 9:6 10:6 11:4 12:5 13:0 14:0 15:0 16:0 17:0 18:0 19:0 20:0 21:0 22:0 23:5 24:5 25:2 26:1 27:2 28:2 29:2 30:5 31:6 32:0 33:0 34:0 35:0 36:0 37:0 38:0 39:30 
-0.3637046694756327 1:0 2:0 3:0 4:0 5:4 6:6 7:6 8:6 9:5 10:4 11:0 12:0 13:0 14:0 15:0 16:0 17:0 18:0 19:0 20:0 21:0 22:0 23:5 24:4 25:2 26:2 27:2 28:2 29:2 30:6 31:6 32:0 33:0 34:0 35:0 36:0 37:0 38:0 39:31 
-0.4472384262505045 1:0 2:0 3:0 4:4 5:6 6:7 7:6 8:5 9:5 10:0 11:0 12:0 13:0 14:0 15:0 16:0 17:0 18:0 19:0 20:0 21:0 22:0 23:0 24:0 25:6 26:5 27:3 28:2 29:2 30:2 31:3 32:5 33:5 34:0 35:0 36:0 37:0 38:0 39:33 
-0.3203753213423889 1:0 2:0 3:0 4:0 5:0 6:5 7:6 8:6 9:5 10:6 11:5 12:0 13:0 14:0 15:0 16:0 17:0 18:0 19:0 20:0 21:0 22:0 23:0 24:6 25:6 26:2 27:1 28:2 29:2 30:2 31:6 32:6 33:0 34:0 35:0 36:0 37:0 38:0 39:33 
-0.5 1:0 2:0 3:0 4:4 5:6 6:4 7:6 8:5 9:5 10:0 11:0 12:0 13:0 14:0 15:0 16:0 17:0 18:0 19:0 20:0 21:0 22:0 23:5 24:4 25:2 26:2 27:2 28:2 29:2 30:6 31:5 32:0 33:0 34:0 35:0 36:0 37:0 38:0 39:30 
-0.321764477559992 1:0 2:0 3:0 4:0 5:5 6:6 7:6 8:6 9:6 10:5 11:0 12:0 13:0 14:0 15:0 16:0 17:0 18:0 19:0 20:0 21:0 22:0 23:0 24:0 25:0 26:0 27:6 28:6 29:3 30:2 31:1 32:2 33:2 34:6 35:6 36:0 37:0 38:0 39:34 
-0.147848625280775 1:0 2:0 3:0 4:0 5:0 6:0 7:4 8:6 9:6 10:7 11:6 12:4 13:0 14:0 15:0 16:0 17:0 18:0 19:0 20:0 21:0 22:0 23:0 24:0 25:6 26:5 27:3 28:2 29:2 30:2 31:1 32:6 33:6 34:0 35:0 36:0 37:0 38:0 39:33 
-0.4495095016061247 1:0 2:0 3:0 4:0 5:5 6:6 7:5 8:5 9:6 10:6 11:0 12:0 13:0 14:0 15:0 16:0 17:0 18:0 19:1 20:1 21:0 22:0 23:0 24:0 25:5 26:5 27:2 28:2 29:2 30:1 31:2 32:6 33:6 34:0 35:0 36:0 37:0 38:0 39:33 
-0.4635141920405107 1:0 2:0 3:0 4:0 5:0 6:0 7:5 8:5 9:5 10:6 11:6 12:5 13:0 14:0 15:0 16:0 17:0 18:0 19:0 20:0 21:0 22:0 23:0 24:0 25:0 26:6 27:5 28:3 29:2 30:1 31:1 32:2 33:6 34:6 35:0 36:0 37:0 38:0 39:32 
-0.2577396698198879 1:1 2:0 3:0 4:0 5:0 6:5 7:6 8:3 9:7 10:6 11:4 12:0 13:0 14:0 15:0 16:0 17:0 18:0 19:0 20:0 21:0 22:0 23:0 24:0 25:1 26:6 27:5 28:2 29:3 30:2 31:2 32:2 33:4 34:5 35:0 36:0 37:0 38:0 39:32 
-0.5 1:0 2:0 3:0 4:4 5:4 6:6 7:7 8:4 9:5 10:0 11:0 12:0 13:0 14:0 15:0 16:0 17:0 18:0 19:0 20:0 21:0 22:0 23:5 24:6 25:3 26:1 27:2 28:2 29:1 30:6 31:4 32:0 33:0 34:0 35:0 36:0 37:0 38:0 39:30 
-0.2632790312327697 1:0 2:0 3:0 4:0 5:0 6:0 7:5 8:5 9:6 10:7 11:5 12:5 13:0 14:0 15:0 16:0 17:0 18:0 19:0 20:0 21:0 22:0 23:0 24:6 25:6 26:3 27:2 28:2 29:1 30:2 31:5 32:6 33:0 34:0 35:0 36:0 37:0 38:0 39:33 
-0.5 1:0 2:0 3:0 4:0 5:0 6:0 7:3 8:4 9:5 10:7 11:6 12:4 13:0 14:0 15:0 16:0 17:0 18:0 19:0 20:0 21:0 22:0 23:0 24:0 25:0 26:4 27:6 28:3 29:2 30:2 31:2 32:1 33:5 34:4 35:0 36:0 37:0 38:0 39:29 
-0.06957128524900262 1:0 2:0 3:0 4:0 5:0 6:5 7:6 8:6 9:7 10:5 11:4 12:1 13:0 14:0 15:0 16:0 17:0 18:0 19:0 20:0 21:0 22:0 23:0 24:0 25:0 26:0 27:6 28:7 29:2 30:2 31:2 32:2 33:2 34:5 35:6 36:0 37:0 38:0 39:34 
-0.3920503650421305 1:0 2:0 3:0 4:0 5:0 6:0 7:3 8:6 9:6 10:6 11:5 12:5 13:0 14:0 15:0 16:0 17:0 18:0 19:0 20:0 21:0 22:0 23:5 24:6 25:2 26:1 27:2 28:2 29:2 30:5 31:6 32:0 33:0 34:0 35:0 36:0 37:0 38:0 39:31 
-0.5 1:0 2:0 3:0 4:5 5:5 6:5 7:6 8:6 9:5 10:0 11:0 12:0 13:0 14:0 15:0 16:0 17:0 18:0 19:0 20:0 21:0 22:0 23:0 24:0 25:0 26:6 27:4 28:2 29:2 30:2 31:2 32:2 33:6 34:6 35:0 36:0 37:0 38:0 39:32 
