svm_type c_svc
kernel_type rbf
gamma 0.0078125
nr_class 2
total_sv 39
rho 0.650517
label 0 1
probA -3.98136
probB -0.20548
nr_sv 16 23
SV
0.5 1:0 2:0 3:0 4:0 5:0 6:3 7:5 8:4 9:4 10:5 11:3 12:4 13:3 14:2 15:3 16:3 17:0 18:0 19:0 20:0 21:0 22:0 23:0 24:4 25:5 26:6 27:4 28:3 29:5 30:5 31:3 32:4 33:0 34:0 35:0 36:0 37:0 38:0 39:39 
0.5 1:0 2:0 3:0 4:0 5:0 6:2 7:5 8:3 9:4 10:3 11:3 12:5 13:4 14:3 15:3 16:3 17:0 18:0 19:0 20:0 21:0 22:0 23:3 24:5 25:5 26:4 27:3 28:5 29:5 30:4 31:4 32:0 33:0 34:0 35:0 36:0 37:0 38:0 39:38 
0.4183640946801648 1:0 2:0 3:0 4:0 5:3 6:4 7:3 8:4 9:3 10:3 11:5 12:2 13:3 14:4 15:2 16:0 17:0 18:0 19:0 20:0 21:0 22:0 23:0 24:3 25:5 26:6 27:3 28:4 29:4 30:4 31:3 32:4 33:0 34:0 35:0 36:0 37:0 38:0 39:36 
0.243175495207361 1:0 2:0 3:0 4:0 5:0 6:0 7:1 8:4 9:3 10:4 11:3 12:3 13:6 14:4 15:2 16:4 17:0 18:0 19:0 20:0 21:0 22:0 23:0 24:0 25:0 26:1 27:3 28:4 29:4 30:4 31:5 32:5 33:4 34:4 35:0 36:0 37:0 38:0 39:34 
0.3005355705508326 1:0 2:0 3:0 4:3 5:5 6:3 7:4 8:4 9:3 10:5 11:4 12:3 13:4 14:2 15:0 16:0 17:0 18:0 19:0 20:0 21:0 22:0 23:0 24:0 25:2 26:5 27:7 28:4 29:4 30:5 31:5 32:4 33:4 34:0 35:0 36:0 37:0 38:0 39:40 
0.5 1:0 2:0 3:0 4:0 5:3 6:3 7:3 8:3 9:4 10:2 11:4 12:4 13:3 14:3 15:2 16:0 17:0 18:0 19:0 20:0 21:0 22:0 23:0 24:0 25:0 26:0 27:3 28:4 29:5 30:3 31:3 32:4 33:4 34:4 35:4 36:0 37:0 38:0 39:34 
0.5 1:0 2:0 3:0 4:3 5:2 6:3 7:4 8:4 9:3 10:5 11:4 12:3 13:3 14:3 15:0 16:0 17:0 18:0 19:0 20:0 21:0 22:0 23:0 24:0 25:3 26:5 27:6 28:3 29:3 30:4 31:5 32:4 33:4 34:0 35:0 36:0 37:0 38:0 39:37 
0.2240877657028513 1:0 2:0 3:0 4:0 5:3 6:5 7:3 8:2 9:3 10:3 11:2 12:3 13:3 14:4 15:3 16:0 17:0 18:0 19:0 20:0 21:0 22:0 23:0 24:0 25:0 26:3 27:4 28:7 29:3 30:3 31:3 32:4 33:4 34:3 35:0 36:0 37:0 38:0 39:34 
0.1947548159493097 1:0 2:0 3:0 4:0 5:0 6:0 7:3 8:6 9:3 10:4 11:3 12:4 13:5 14:3 15:3 16:5 17:0 18:0 19:0 20:0 21:0 22:0 23:0 24:0 25:2 26:4 27:5 28:4 29:5 30:4 31:6 32:4 33:5 34:0 35:0 36:0 37:0 38:0 39:39 
0.5 1:0 2:0 3:0 4:3 5:4 6:3 7:4 8:4 9:4 10:5 11:3 12:3 13:3 14:1 15:0 16:0 17:0 18:0 19:0 20:0 21:0 22:0 23:0 24:0 25:0 26:3 27:4 28:5 29:5 30:4 31:4 32:4 33:4 34:4 35:0 36:0 37:0 38:0 39:37 
0.003905973822804535 1:0 2:0 3:0 4:0 5:0 6:3 7:4 8:2 9:5 10:4 11:3 12:3 13:4 14:3 15:4 16:4 17:0 18:0 19:0 20:0 21:0 22:0 23:0 24:0 25:3 26:5 27:7 28:3 29:4 30:4 31:5 32:3 33:4 34:1 35:0 36:0 37:0 38:0 39:39 
0.1562973473728142 1:0 2:0 3:0 4:0 5:0 6:3 7:5 8:3 9:4 10:4 11:2 12:5 13:4 14:3 15:4 16:2 17:0 18:0 19:0 20:0 21:0 22:0 23:0 24:0 25:0 26:1 27:4 28:5 29:5 30:4 31:5 32:6 33:4 34:5 35:0 36:0 37:0 38:0 39:39 
0.5 1:0 2:0 3:0 4:0 5:0 6:0 7:1 8:4 9:2 10:3 11:3 12:2 13:3 14:4 15:3 16:4 17:0 18:0 19:0 20:0 21:0 22:0 23:0 24:0 25:0 26:0 27:1 28:2 29:5 30:3 31:3 32:6 33:4 34:3 35:2 36:0 37:0 38:0 39:29 
0.5 1:0 2:0 3:0 4:0 5:2 6:4 7:3 8:4 9:3 10:3 11:4 12:5 13:3 14:2 15:2 16:0 17:0 18:0 19:0 20:0 21:0 22:0 23:3 24:4 25:5 26:3 27:4 28:4 29:4 30:4 31:4 32:0 33:0 34:0 35:0 36:0 37:0 38:0 39:35 
0.466525545170812 1:0 2:0 3:0 4:0 5:3 6:5 7:3 8:4 9:4 10:3 11:3 12:4 13:2 14:3 15:3 16:0 17:0 18:0 19:0 20:0 21:0 22:0 23:0 24:0 25:0 26:0 27:3 28:5 29:6 30:5 31:2 32:4 33:5 34:3 35:4 36:0 37:0 38:0 39:37 
0.5 1:0 2:0 3:0 4:0 5:2 6:5 7:3 8:4 9:3 10:3 11:5 12:4 13:3 14:0 15:1 16:0 17:0 18:0 19:0 20:0 21:0 22:0 23:0 24:0 25:3 26:3 27:4 28:3 29:3 30:4 31:5 32:4 33:4 34:0 35:0 36:0 37:0 38:0 39:33 
-0.5 1:0 2:0 3:0 4:0 5:0 6:0 7:4 8:6 9:6 10:7 11:6 12:5 13:0 14:0 15:0 16:0 17:0 18:0 19:0 20:0 21:0 22:0 23:0 24:0 25:0 26:0 27:6 28:6 29:3 30:2 31:2 32:2 33:1 34:6 35:6 36:0 37:0 38:0 39:34 
-0.1636131218067382 1:0 2:0 3:0 4:5 5:6 6:6 7:7 8:5 9:5 10:0 11:0 12:0 13:0 14:0 15:0 16:0 17:0 18:0 19:0 20:0 21:0 22:0 23:0 24:5 25:6 26:3 27:2 28:2 29:2 30:2 31:6 32:6 33:0 34:0 35:0 36:0 37:0 38:0 39:34 
-0.5 1:0 2:0 3:0 4:0 5:0 6:0 7:5 8:6 9:6 10:6 11:7 12:5 13:0 14:0 15:0 16:0 17:0 18:0 19:0 20:0 21:0 22:0 23:0 24:0 25:6 26:5 27:3 28:2 29:2 30:2 31:3 32:6 33:6 34:0 35:0 36:0 37:0 38:0 39:35 
-0.4144333384515415 1:8 2:0 3:0 4:0 5:0 6:4 7:6 8:6 9:7 10:5 11:5 12:0 13:0 14:0 15:0 16:0 17:0 18:0 19:0 20:0 21:0 22:1 23:1 24:1 25:7 26:7 27:3 28:3 29:2 30:2 31:2 32:6 33:6 34:0 35:0 36:0 37:0 38:0 39:41 
-0.2387741909218335 1:0 2:0 3:0 4:0 5:0 6:6 7:7 8:5 9:7 10:6 11:5 12:0 13:0 14:0 15:0 16:0 17:0 18:0 19:0 20:2 21:0 22:0 23:6 24:6 25:3 26:2 27:2 28:1 29:2 30:6 31:6 32:0 33:0 34:0 35:0 36:0 37:0 38:0 39:36 
-0.1060975574483344 1:0 2:0 3:0 4:0 5:5 6:6 7:7 8:6 9:6 10:5 11:0 12:0 13:0 14:0 15:0 16:0 17:0 18:0 19:0 20:0 21:0 22:0 23:0 24:6 25:6 26:3 27:2 28:2 29:2 30:3 31:6 32:5 33:0 34:0 35:0 36:0 37:0 38:0 39:35 
-0.1543144994525441 1:0 2:0 3:0 4:5 5:6 6:6 7:6 8:4 9:5 10:0 11:0 12:0 13:0 14:0 15:0 16:0 17:0 18:0 19:0 20:0 21:0 22:0 23:6 24:6 25:1 26:1 27:2 28:2 29:2 30:6 31:6 32:0 33:0 34:0 35:0 36:0 37:0 38:0 39:32 
-0.0661318338196074 1:0 2:0 3:0 4:5 5:6 6:6 7:6 8:5 9:4 10:0 11:0 12:0 13:0 14:0 15:0 16:0 17:0 18:0 19:0 20:0 21:0 22:0 23:0 24:6 25:5 26:3 27:2 28:2 29:2 30:2 31:5 32:5 33:0 34:0 35:0 36:0 37:0 38:0 39:32 
-0.04199506628348869 1:0 2:0 3:0 4:0 5:4 6:5 7:5 8:6 9:5 10:5 11:0 12:0 13:0 14:0 15:0 16:0 17:0 18:0 19:0 20:0 21:0 22:0 23:0 24:0 25:0 26:0 27:5 28:2 29:3 30:2 31:2 32:2 33:2 34:6 35:6 36:0 37:0 38:0 39:30 
-0.01729975854272769 1:0 2:0 3:0 4:0 5:0 6:0 7:4 8:5 9:6 10:6 11:4 12:5 13:0 14:0 15:0 16:0 17:0 18:0 19:0 20:0 21:0 22:0 23:5 24:5 25:2 26:1 27:2 28:2 29:2 30:5 31:6 32:0 33:0 34:0 35:0 36:0 37:0 38:0 39:30 
-0.1683652526748573 1:0 2:0 3:0 4:0 5:0 6:4 7:6 8:6 9:7 10:4 11:4 12:0 13:0 14:0 15:1 16:1 17:0 18:0 19:0 20:0 21:0 22:0 23:0 24:0 25:4 26:7 27:3 28:2 29:2 30:2 31:2 32:6 33:5 34:0 35:0 36:0 37:0 38:0 39:33 
-0.5 1:0 2:0 3:0 4:0 5:0 6:4 7:6 8:5 9:7 10:5 11:5 12:1 13:1 14:1 15:0 16:0 17:0 18:0 19:0 20:0 21:0 22:0 23:0 24:0 25:0 26:5 27:4 28:3 29:3 30:3 31:2 32:3 33:6 34:6 35:0 36:0 37:0 38:0 39:35 
-0.3699586766160543 1:0 2:0 3:0 4:4 5:6 6:7 7:6 8:5 9:5 10:0 11:0 12:0 13:0 14:0 15:0 16:0 17:0 18:0 19:0 20:0 21:0 22:0 23:0 24:0 25:6 26:5 27:3 28:2 29:2 30:2 31:3 32:5 33:5 34:0 35:0 36:0 37:0 38:0 39:33 
-0.1455685297298544 1:0 2:0 3:0 4:0 5:0 6:5 7:6 8:6 9:5 10:6 11:5 12:0 13:0 14:0 15:0 16:0 17:0 18:0 19:0 20:0 21:0 22:0 23:0 24:6 25:6 26:2 27:1 28:2 29:2 30:2 31:6 32:6 33:0 34:0 35:0 36:0 37:0 38:0 39:33 
-0.08554346534353977 1:0 2:0 3:0 4:4 5:6 6:4 7:6 8:5 9:5 10:0 11:0 12:0 13:0 14:0 15:0 16:0 17:0 18:0 19:0 20:0 21:0 22:0 23:5 24:4 25:2 26:2 27:2 28:2 29:2 30:6 31:5 32:0 33:0 34:0 35:0 36:0 37:0 38:0 39:30 
-0.4542725635172482 1:0 2:0 3:0 4:0 5:5 6:6 7:6 8:6 9:6 10:5 11:0 12:0 13:0 14:0 15:0 16:0 17:0 18:0 19:0 20:0 21:0 22:0 23:0 24:0 25:0 26:0 27:6 28:6 29:3 30:2 31:1 32:2 33:2 34:6 35:6 36:0 37:0 38:0 39:34 
-0.1732069079864429 1:0 2:0 3:0 4:0 5:5 6:6 7:5 8:5 9:6 10:6 11:0 12:0 13:0 14:0 15:0 16:0 17:0 18:0 19:1 20:1 21:0 22:0 23:0 24:0 25:5 26:5 27:2 28:2 29:2 30:1 31:2 32:6 33:6 34:0 35:0 36:0 37:0 38:0 39:33 
-0.2814522325784491 1:0 2:0 3:0 4:0 5:5 6:6 7:6 8:7 9:6 10:6 11:0 12:0 13:0 14:0 15:0 16:0 17:0 18:0 19:0 20:0 21:0 22:0 23:6 24:6 25:3 26:2 27:2 28:2 29:3 30:6 31:6 32:0 33:0 34:0 35:0 36:0 37:0 38:0 39:36 
-0.3818760068513399 1:0 2:0 3:0 4:0 5:0 6:0 7:5 8:5 9:6 10:7 11:5 12:5 13:0 14:0 15:0 16:0 17:0 18:0 19:0 20:0 21:0 22:0 23:0 24:6 25:6 26:3 27:2 28:2 29:1 30:2 31:5 32:6 33:0 34:0 35:0 36:0 37:0 38:0 39:33 
-0.4412373292870531 1:0 2:0 3:0 4:0 5:0 6:0 7:3 8:4 9:5 10:7 11:6 12:4 13:0 14:0 15:0 16:0 17:0 18:0 19:0 20:0 21:0 22:0 23:0 24:0 25:0 26:4 27:6 28:3 29:2 30:2 31:2 32:1 33:5 34:4 35:0 36:0 37:0 38:0 39:29 
-0.1128502548735293 1:0 2:0 3:0 4:0 5:0 6:5 7:6 8:6 9:7 10:5 11:4 12:1 13:0 14:0 15:0 16:0 17:0 18:0 19:0 20:0 21:0 22:0 23:0 24:0 25:0 26:0 27:6 28:7 29:2 30:2 31:2 32:2 33:2 34:5 35:6 36:0 37:0 38:0 39:34 
-0.4243527047414123 1:0 2:0 3:0 4:0 5:0 6:0 7:3 8:6 9:6 10:6 11:5 12:5 13:0 14:0 15:0 16:0 17:0 18:0 19:0 20:0 21:0 22:0 23:5 24:6 25:2 26:1 27:2 28:2 29:2 30:5 31:6 32:0 33:0 34:0 35:0 36:0 37:0 38:0 39:31 
-0.2663033175303542 1:0 2:0 3:0 4:5 5:5 6:5 7:6 8:6 9:5 10:0 11:0 12:0 13:0 14:0 15:0 16:0 17:0 18:0 19:0 20:0 21:0 22:0 23:0 24:0 25:0 26:6 27:4 28:2 29:2 30:2 31:2 32:2 33:6 34:6 35:0 36:0 37:0 38:0 39:32 
