svm_type c_svc
kernel_type rbf
gamma 0.03125
nr_class 2
total_sv 62
rho 0.35538
label 0 1
probA -5.60492
probB -0.0840031
nr_sv 28 34
SV
0.9749981868455465 1:0 2:0 3:0 4:0 5:0 6:3 7:5 8:5 9:4 10:5 11:5 12:2 13:1 14:0 15:0 16:0 17:0 18:0 19:0 20:0 21:0 22:0 23:0 24:0 25:4 26:4 27:3 28:3 29:2 30:3 31:4 32:2 33:5 34:0 35:0 36:0 37:0 38:0 39:30 
0.484061679788253 1:0 2:0 3:0 4:0 5:0 6:0 7:2 8:5 9:5 10:3 11:4 12:5 13:2 14:0 15:0 16:0 17:0 18:0 19:0 20:0 21:0 22:0 23:3 24:3 25:4 26:2 27:2 28:2 29:4 30:2 31:4 32:0 33:0 34:0 35:0 36:0 37:0 38:0 39:26 
0.009368887617291995 1:0 2:0 3:0 4:0 5:2 6:5 7:3 8:4 9:5 10:5 11:2 12:0 13:0 14:0 15:0 16:0 17:0 18:0 19:0 20:0 21:0 22:0 23:4 24:2 25:4 26:2 27:2 28:3 29:3 30:2 31:4 32:0 33:0 34:0 35:0 36:0 37:0 38:0 39:26 
0.3566296318394154 1:0 2:0 3:0 4:0 5:0 6:1 7:5 8:5 9:4 10:4 11:5 12:2 13:0 14:0 15:0 16:0 17:0 18:0 19:0 20:0 21:0 22:0 23:0 24:0 25:0 26:0 27:3 28:3 29:4 30:2 31:3 32:3 33:4 34:2 35:2 36:0 37:0 38:0 39:26 
0.941064258503696 1:0 2:0 3:0 4:2 5:4 6:5 7:3 8:5 9:5 10:2 11:0 12:0 13:0 14:0 15:0 16:0 17:0 18:0 19:0 20:0 21:0 22:0 23:4 24:3 25:3 26:2 27:1 28:3 29:3 30:3 31:4 32:0 33:0 34:0 35:0 36:0 37:0 38:0 39:26 
0.343302374733157 1:0 2:0 3:0 4:0 5:0 6:2 7:6 8:4 9:4 10:5 11:5 12:2 13:0 14:0 15:0 16:0 17:0 18:0 19:0 20:0 21:0 22:0 23:0 24:4 25:3 26:4 27:3 28:2 29:2 30:4 31:2 32:4 33:0 34:0 35:0 36:0 37:0 38:0 39:28 
0.6404561100646515 1:3 2:0 3:0 4:0 5:0 6:2 7:5 8:4 9:4 10:5 11:5 12:2 13:0 14:0 15:0 16:0 17:0 18:0 19:0 20:0 21:0 22:1 23:0 24:4 25:3 26:3 27:3 28:2 29:4 30:4 31:2 32:4 33:0 34:0 35:0 36:0 37:0 38:0 39:30 
0.1588368459114819 1:0 2:0 3:0 4:0 5:3 6:6 7:4 8:4 9:5 10:4 11:2 12:0 13:0 14:0 15:0 16:0 17:0 18:0 19:0 20:2 21:0 22:0 23:0 24:0 25:0 26:4 27:2 28:4 29:3 30:2 31:3 32:3 33:2 34:3 35:0 36:0 37:0 38:0 39:28 
1.090346995266372 1:0 2:0 3:1 4:1 5:1 6:6 7:5 8:4 9:5 10:5 11:2 12:0 13:0 14:0 15:0 16:0 17:0 18:0 19:0 20:0 21:0 22:0 23:0 24:0 25:0 26:3 27:4 28:5 29:4 30:1 31:3 32:4 33:2 34:4 35:0 36:0 37:0 38:0 39:30 
0.4859316601804319 1:0 2:0 3:0 4:0 5:2 6:6 7:6 8:4 9:4 10:5 11:2 12:0 13:0 14:0 15:0 16:0 17:0 18:0 19:0 20:0 21:0 22:0 23:0 24:0 25:4 26:3 27:4 28:3 29:2 30:3 31:4 32:2 33:4 34:0 35:0 36:0 37:0 38:0 39:29 
0.7125622175869456 1:0 2:0 3:0 4:0 5:0 6:0 7:2 8:6 9:3 10:3 11:4 12:4 13:2 14:0 15:0 16:0 17:0 18:0 19:0 20:0 21:0 22:0 23:0 24:4 25:3 26:3 27:2 28:1 29:2 30:3 31:2 32:4 33:0 34:0 35:0 36:0 37:0 38:0 39:24 
0.4631540186851071 1:0 2:0 3:0 4:0 5:2 6:6 7:5 8:4 9:6 10:4 11:0 12:0 13:0 14:0 15:0 16:0 17:0 18:0 19:0 20:0 21:0 22:0 23:3 24:3 25:4 26:3 27:3 28:3 29:4 30:2 31:2 32:0 33:0 34:0 35:0 36:0 37:0 38:0 39:27 
0.05646479957148274 1:0 2:0 3:0 4:0 5:0 6:2 7:5 8:4 9:4 10:5 11:5 12:2 13:0 14:0 15:0 16:0 17:0 18:0 19:0 20:0 21:0 22:0 23:0 24:0 25:0 26:0 27:4 28:3 29:3 30:3 31:1 32:3 33:4 34:2 35:4 36:0 37:0 38:0 39:27 
0.4566925367685771 1:0 2:0 3:0 4:0 5:0 6:1 7:4 8:5 9:4 10:3 11:3 12:2 13:0 14:0 15:0 16:0 17:0 18:0 19:0 20:0 21:0 22:0 23:3 24:2 25:2 26:2 27:2 28:3 29:5 30:2 31:1 32:0 33:0 34:0 35:0 36:0 37:0 38:0 39:22 
0.1279242826872394 1:0 2:0 3:0 4:0 5:2 6:6 7:5 8:4 9:5 10:4 11:2 12:0 13:0 14:0 15:0 16:0 17:0 18:0 19:0 20:0 21:0 22:0 23:0 24:4 25:2 26:3 27:4 28:2 29:3 30:4 31:2 32:4 33:0 34:0 35:0 36:0 37:0 38:0 39:28 
0.5241579365079779 1:0 2:0 3:0 4:0 5:0 6:1 7:5 8:5 9:3 10:4 11:4 12:1 13:0 14:0 15:0 16:0 17:0 18:0 19:0 20:0 21:0 22:0 23:0 24:3 25:3 26:4 27:3 28:1 29:4 30:4 31:1 32:0 33:0 34:0 35:0 36:0 37:0 38:0 39:23 
0.5505881480808584 1:0 2:0 3:0 4:0 5:0 6:0 7:1 8:4 9:4 10:4 11:4 12:5 13:2 14:0 15:0 16:0 17:0 18:0 19:0 20:0 21:0 22:0 23:4 24:3 25:4 26:3 27:1 28:2 29:4 30:1 31:2 32:0 33:0 34:0 35:0 36:0 37:0 38:0 39:24 
0.4365365513743383 1:0 2:0 3:0 4:0 5:0 6:2 7:4 8:4 9:4 10:5 11:5 12:2 13:0 14:0 15:0 16:0 17:0 18:0 19:0 20:0 21:0 22:1 23:4 24:3 25:3 26:3 27:1 28:3 29:3 30:1 31:4 32:0 33:0 34:0 35:0 36:0 37:0 38:0 39:26 
0.1465659341152815 1:0 2:0 3:0 4:0 5:0 6:3 7:6 8:5 9:3 10:3 11:5 12:2 13:0 14:0 15:0 16:0 17:0 18:0 19:0 20:0 21:0 22:0 23:0 24:0 25:4 26:2 27:4 28:2 29:2 30:2 31:4 32:2 33:4 34:1 35:0 36:0 37:0 38:0 39:27 
0.7515371699008826 1:6 2:0 3:0 4:0 5:2 6:6 7:5 8:4 9:5 10:3 11:1 12:0 13:0 14:0 15:0 16:0 17:0 18:0 19:0 20:0 21:0 22:0 23:0 24:5 25:2 26:4 27:3 28:3 29:4 30:5 31:3 32:3 33:0 34:0 35:0 36:0 37:0 38:0 39:32 
0.8151783518621748 1:0 2:0 3:0 4:2 5:5 6:4 7:4 8:4 9:4 10:2 11:0 12:0 13:0 14:0 15:0 16:0 17:0 18:0 19:0 20:0 21:0 22:0 23:0 24:0 25:0 26:4 27:3 28:3 29:1 30:2 31:3 32:3 33:3 34:3 35:0 36:0 37:0 38:0 39:25 
0.7011817135008752 1:0 2:0 3:0 4:0 5:2 6:5 7:4 8:3 9:5 10:5 11:2 12:0 13:0 14:0 15:0 16:0 17:0 18:0 19:0 20:0 21:0 22:0 23:0 24:0 25:0 26:0 27:4 28:3 29:3 30:2 31:1 32:3 33:4 34:2 35:4 36:0 37:0 38:0 39:26 
0.1218479120117377 1:0 2:0 3:0 4:0 5:1 6:5 7:5 8:4 9:5 10:5 11:3 12:0 13:0 14:0 15:0 16:0 17:0 18:0 19:0 20:0 21:0 22:0 23:3 24:3 25:4 26:3 27:2 28:3 29:4 30:2 31:2 32:0 33:0 34:1 35:1 36:0 37:0 38:0 39:28 
0.1767964876598866 1:0 2:0 3:0 4:0 5:2 6:5 7:5 8:4 9:5 10:4 11:1 12:0 13:1 14:1 15:0 16:0 17:0 18:0 19:0 20:0 21:0 22:0 23:0 24:0 25:0 26:0 27:4 28:3 29:4 30:4 31:2 32:3 33:4 34:2 35:2 36:0 37:0 38:0 39:28 
0.5639188816547914 1:0 2:0 3:0 4:1 5:4 6:4 7:3 8:5 9:5 10:2 11:0 12:0 13:0 14:0 15:0 16:0 17:0 18:0 19:0 20:0 21:0 22:0 23:0 24:2 25:2 26:4 27:3 28:0 29:3 30:4 31:2 32:4 33:0 34:0 35:0 36:0 37:0 38:0 39:24 
0.927755671210315 1:0 2:0 3:0 4:0 5:0 6:2 7:6 8:5 9:4 10:5 11:5 12:2 13:1 14:0 15:0 16:0 17:0 18:0 19:0 20:0 21:0 22:0 23:0 24:0 25:0 26:0 27:4 28:3 29:4 30:3 31:2 32:3 33:4 34:2 35:4 36:1 37:0 38:0 39:30 
0.2659319205056885 1:0 2:0 3:0 4:2 5:5 6:5 7:4 8:4 9:4 10:2 11:0 12:0 13:0 14:0 15:0 16:0 17:0 18:0 19:0 20:0 21:0 22:0 23:0 24:3 25:2 26:3 27:3 28:2 29:3 30:4 31:2 32:4 33:0 34:0 35:0 36:0 37:0 38:0 39:26 
0.9640145184320612 1:6 2:0 3:0 4:0 5:2 6:5 7:5 8:4 9:5 10:5 11:2 12:0 13:0 14:0 15:0 16:1 17:0 18:0 19:0 20:0 21:0 22:0 23:1 24:4 25:3 26:4 27:4 28:3 29:4 30:4 31:3 32:4 33:0 34:0 35:1 36:0 37:0 38:0 39:35 
-0.3587599712009601 1:0 2:0 3:0 4:0 5:0 6:0 7:4 8:6 9:6 10:7 11:6 12:5 13:0 14:0 15:0 16:0 17:0 18:0 19:0 20:0 21:0 22:0 23:0 24:0 25:0 26:0 27:6 28:6 29:3 30:2 31:2 32:2 33:1 34:6 35:6 36:0 37:0 38:0 39:34 
-0.4651991826705328 1:0 2:0 3:0 4:0 5:3 6:6 7:6 8:7 9:6 10:5 11:0 12:0 13:0 14:0 15:0 16:0 17:0 18:0 19:0 20:0 21:0 22:0 23:0 24:0 25:0 26:6 27:5 28:3 29:2 30:2 31:2 32:2 33:5 34:6 35:0 36:0 37:0 38:0 39:33 
-0.2180105278082725 1:0 2:0 3:0 4:5 5:6 6:6 7:7 8:5 9:5 10:0 11:0 12:0 13:0 14:0 15:0 16:0 17:0 18:0 19:0 20:0 21:0 22:0 23:0 24:5 25:6 26:3 27:2 28:2 29:2 30:2 31:6 32:6 33:0 34:0 35:0 36:0 37:0 38:0 39:34 
-0.330049419963553 1:0 2:0 3:0 4:0 5:0 6:0 7:5 8:6 9:6 10:6 11:7 12:5 13:0 14:0 15:0 16:0 17:0 18:0 19:0 20:0 21:0 22:0 23:0 24:0 25:6 26:5 27:3 28:2 29:2 30:2 31:3 32:6 33:6 34:0 35:0 36:0 37:0 38:0 39:35 
-0.2697121180589661 1:0 2:0 3:0 4:0 5:0 6:0 7:5 8:6 9:6 10:6 11:6 12:4 13:0 14:0 15:0 16:0 17:0 18:0 19:0 20:0 21:0 22:0 23:0 24:0 25:0 26:0 27:6 28:6 29:1 30:2 31:2 32:2 33:2 34:6 35:6 36:0 37:0 38:0 39:33 
-0.6412187859143624 1:8 2:0 3:0 4:0 5:0 6:4 7:6 8:6 9:7 10:5 11:5 12:0 13:0 14:0 15:0 16:0 17:0 18:0 19:0 20:0 21:0 22:1 23:1 24:1 25:7 26:7 27:3 28:3 29:2 30:2 31:2 32:6 33:6 34:0 35:0 36:0 37:0 38:0 39:41 
-0.3819349934870652 1:0 2:0 3:0 4:0 5:0 6:6 7:7 8:5 9:7 10:6 11:5 12:0 13:0 14:0 15:0 16:0 17:0 18:0 19:0 20:2 21:0 22:0 23:6 24:6 25:3 26:2 27:2 28:1 29:2 30:6 31:6 32:0 33:0 34:0 35:0 36:0 37:0 38:0 39:36 
-0.3167300541983157 1:0 2:0 3:0 4:0 5:5 6:6 7:7 8:6 9:6 10:5 11:0 12:0 13:0 14:0 15:0 16:0 17:0 18:0 19:0 20:0 21:0 22:0 23:0 24:6 25:6 26:3 27:2 28:2 29:2 30:3 31:6 32:5 33:0 34:0 35:0 36:0 37:0 38:0 39:35 
-0.139097245367491 1:0 2:0 3:0 4:5 5:6 6:6 7:6 8:4 9:5 10:0 11:0 12:0 13:0 14:0 15:0 16:0 17:0 18:0 19:0 20:0 21:0 22:0 23:6 24:6 25:1 26:1 27:2 28:2 29:2 30:6 31:6 32:0 33:0 34:0 35:0 36:0 37:0 38:0 39:32 
-0.4605698221195942 1:0 2:0 3:0 4:0 5:5 6:4 7:5 8:6 9:6 10:5 11:0 12:0 13:0 14:0 15:0 16:0 17:0 18:0 19:0 20:0 21:0 22:0 23:0 24:6 25:5 26:3 27:2 28:1 29:0 30:2 31:6 32:6 33:0 34:0 35:0 36:0 37:0 38:0 39:31 
-0.2723279727267174 1:0 2:0 3:0 4:0 5:0 6:4 7:6 8:6 9:7 10:6 11:5 12:0 13:0 14:0 15:0 16:0 17:0 18:0 19:0 20:0 21:0 22:0 23:0 24:0 25:0 26:0 27:6 28:6 29:3 30:2 31:2 32:2 33:2 34:6 35:5 36:0 37:0 38:0 39:34 
-0.3600418169729037 1:0 2:0 3:0 4:5 5:6 6:6 7:6 8:5 9:4 10:0 11:0 12:0 13:0 14:0 15:0 16:0 17:0 18:0 19:0 20:0 21:0 22:0 23:0 24:6 25:5 26:3 27:2 28:2 29:2 30:2 31:5 32:5 33:0 34:0 35:0 36:0 37:0 38:0 39:32 
-0.7756924721078418 1:0 2:0 3:0 4:0 5:4 6:5 7:5 8:6 9:5 10:5 11:0 12:0 13:0 14:0 15:0 16:0 17:0 18:0 19:0 20:0 21:0 22:0 23:0 24:0 25:0 26:0 27:5 28:2 29:3 30:2 31:2 32:2 33:2 34:6 35:6 36:0 37:0 38:0 39:30 
-0.7207186283525217 1:0 2:0 3:0 4:0 5:0 6:0 7:4 8:5 9:6 10:6 11:4 12:5 13:0 14:0 15:0 16:0 17:0 18:0 19:0 20:0 21:0 22:0 23:5 24:5 25:2 26:1 27:2 28:2 29:2 30:5 31:6 32:0 33:0 34:0 35:0 36:0 37:0 38:0 39:30 
-0.589939404204923 1:0 2:0 3:0 4:0 5:0 6:4 7:6 8:6 9:7 10:4 11:4 12:0 13:0 14:0 15:1 16:1 17:0 18:0 19:0 20:0 21:0 22:0 23:0 24:0 25:4 26:7 27:3 28:2 29:2 30:2 31:2 32:6 33:5 34:0 35:0 36:0 37:0 38:0 39:33 
-0.4905012050021769 1:0 2:0 3:0 4:0 5:4 6:6 7:6 8:6 9:5 10:4 11:0 12:0 13:0 14:0 15:0 16:0 17:0 18:0 19:0 20:0 21:0 22:0 23:5 24:4 25:2 26:2 27:2 28:2 29:2 30:6 31:6 32:0 33:0 34:0 35:0 36:0 37:0 38:0 39:31 
-0.2817333652046153 1:0 2:0 3:0 4:0 5:0 6:4 7:6 8:5 9:7 10:5 11:5 12:1 13:1 14:1 15:0 16:0 17:0 18:0 19:0 20:0 21:0 22:0 23:0 24:0 25:0 26:5 27:4 28:3 29:3 30:3 31:2 32:3 33:6 34:6 35:0 36:0 37:0 38:0 39:35 
-0.486113062630349 1:0 2:0 3:0 4:4 5:6 6:7 7:6 8:5 9:5 10:0 11:0 12:0 13:0 14:0 15:0 16:0 17:0 18:0 19:0 20:0 21:0 22:0 23:0 24:0 25:6 26:5 27:3 28:2 29:2 30:2 31:3 32:5 33:5 34:0 35:0 36:0 37:0 38:0 39:33 
-0.5556319019479271 1:0 2:0 3:0 4:0 5:0 6:5 7:6 8:6 9:5 10:6 11:5 12:0 13:0 14:0 15:0 16:0 17:0 18:0 19:0 20:0 21:0 22:0 23:0 24:6 25:6 26:2 27:1 28:2 29:2 30:2 31:6 32:6 33:0 34:0 35:0 36:0 37:0 38:0 39:33 
-0.4464241124052993 1:0 2:0 3:0 4:4 5:6 6:4 7:6 8:5 9:5 10:0 11:0 12:0 13:0 14:0 15:0 16:0 17:0 18:0 19:0 20:0 21:0 22:0 23:5 24:4 25:2 26:2 27:2 28:2 29:2 30:6 31:5 32:0 33:0 34:0 35:0 36:0 37:0 38:0 39:30 
-0.3320443725568283 1:0 2:0 3:0 4:0 5:5 6:6 7:6 8:6 9:6 10:5 11:0 12:0 13:0 14:0 15:0 16:0 17:0 18:0 19:0 20:0 21:0 22:0 23:0 24:0 25:0 26:0 27:6 28:6 29:3 30:2 31:1 32:2 33:2 34:6 35:6 36:0 37:0 38:0 39:34 
-0.3016514329139765 1:0 2:0 3:0 4:0 5:0 6:5 7:6 8:5 9:7 10:5 11:5 12:0 13:0 14:0 15:0 16:0 17:0 18:0 19:0 20:0 21:0 22:0 23:6 24:4 25:3 26:2 27:2 28:2 29:2 30:6 31:6 32:0 33:0 34:0 35:0 36:0 37:0 38:0 39:33 
-0.4107963058609433 1:0 2:0 3:0 4:0 5:0 6:0 7:4 8:6 9:6 10:7 11:6 12:4 13:0 14:0 15:0 16:0 17:0 18:0 19:0 20:0 21:0 22:0 23:0 24:0 25:6 26:5 27:3 28:2 29:2 30:2 31:1 32:6 33:6 34:0 35:0 36:0 37:0 38:0 39:33 
-0.4191880880443203 1:0 2:0 3:0 4:0 5:5 6:6 7:5 8:5 9:6 10:6 11:0 12:0 13:0 14:0 15:0 16:0 17:0 18:0 19:1 20:1 21:0 22:0 23:0 24:0 25:5 26:5 27:2 28:2 29:2 30:1 31:2 32:6 33:6 34:0 35:0 36:0 37:0 38:0 39:33 
-0.2642468723453936 1:0 2:0 3:0 4:0 5:0 6:0 7:5 8:5 9:5 10:6 11:6 12:5 13:0 14:0 15:0 16:0 17:0 18:0 19:0 20:0 21:0 22:0 23:0 24:0 25:0 26:6 27:5 28:3 29:2 30:1 31:1 32:2 33:6 34:6 35:0 36:0 37:0 38:0 39:32 
-0.370394447690765 1:0 2:0 3:0 4:0 5:5 6:6 7:6 8:7 9:6 10:6 11:0 12:0 13:0 14:0 15:0 16:0 17:0 18:0 19:0 20:0 21:0 22:0 23:6 24:6 25:3 26:2 27:2 28:2 29:3 30:6 31:6 32:0 33:0 34:0 35:0 36:0 37:0 38:0 39:36 
-0.7202597703577913 1:1 2:0 3:0 4:0 5:0 6:5 7:6 8:3 9:7 10:6 11:4 12:0 13:0 14:0 15:0 16:0 17:0 18:0 19:0 20:0 21:0 22:0 23:0 24:0 25:1 26:6 27:5 28:2 29:3 30:2 31:2 32:2 33:4 34:5 35:0 36:0 37:0 38:0 39:32 
-0.3291109145950109 1:0 2:0 3:0 4:4 5:4 6:6 7:7 8:4 9:5 10:0 11:0 12:0 13:0 14:0 15:0 16:0 17:0 18:0 19:0 20:0 21:0 22:0 23:5 24:6 25:3 26:1 27:2 28:2 29:1 30:6 31:4 32:0 33:0 34:0 35:0 36:0 37:0 38:0 39:30 
-0.2214001123018964 1:0 2:0 3:0 4:0 5:4 6:6 7:6 8:7 9:5 10:5 11:0 12:0 13:0 14:0 15:0 16:0 17:0 18:0 19:0 20:0 21:0 22:0 23:0 24:0 25:6 26:6 27:2 28:2 29:2 30:2 31:1 32:6 33:6 34:0 35:0 36:0 37:0 38:0 39:33 
-0.582098824268427 1:0 2:0 3:0 4:0 5:0 6:0 7:5 8:5 9:6 10:7 11:5 12:5 13:0 14:0 15:0 16:0 17:0 18:0 19:0 20:0 21:0 22:0 23:0 24:6 25:6 26:3 27:2 28:2 29:1 30:2 31:5 32:6 33:0 34:0 35:0 36:0 37:0 38:0 39:33 
-0.7629431084242074 1:0 2:0 3:0 4:0 5:0 6:0 7:3 8:4 9:5 10:7 11:6 12:4 13:0 14:0 15:0 16:0 17:0 18:0 19:0 20:0 21:0 22:0 23:0 24:0 25:0 26:4 27:6 28:3 29:2 30:2 31:2 32:1 33:5 34:4 35:0 36:0 37:0 38:0 39:29 
-0.2890030694239171 1:0 2:0 3:0 4:0 5:0 6:5 7:6 8:6 9:7 10:5 11:4 12:1 13:0 14:0 15:0 16:0 17:0 18:0 19:0 20:0 21:0 22:0 23:0 24:0 25:0 26:0 27:6 28:7 29:2 30:2 31:2 32:2 33:2 34:5 35:6 36:0 37:0 38:0 39:34 
-0.09534904095021966 1:0 2:0 3:0 4:0 5:0 6:0 7:3 8:6 9:6 10:6 11:5 12:5 13:0 14:0 15:0 16:0 17:0 18:0 19:0 20:0 21:0 22:0 23:5 24:6 25:2 26:1 27:2 28:2 29:2 30:5 31:6 32:0 33:0 34:0 35:0 36:0 37:0 38:0 39:31 
-0.5889132607884338 1:0 2:0 3:0 4:5 5:5 6:5 7:6 8:6 9:5 10:0 11:0 12:0 13:0 14:0 15:0 16:0 17:0 18:0 19:0 20:0 21:0 22:0 23:0 24:0 25:0 26:6 27:4 28:2 29:2 30:2 31:2 32:2 33:6 34:6 35:0 36:0 37:0 38:0 39:32 
