svm_type c_svc
kernel_type rbf
gamma 0.0078125
nr_class 2
total_sv 61
rho -0.0890372
label 1 0
probA -6.66869
probB 0.728588
nr_sv 30 31
SV
0.1188620525956804 1:0 2:0 3:0 4:0 5:0 6:2 7:8 8:2 9:2 10:1 11:1 12:8 13:1 14:0 15:0 16:0 17:0 18:0 19:0 20:0 21:0 22:0 23:2 24:3 25:2 26:3 27:2 28:3 29:3 30:5 31:2 32:0 33:0 34:0 35:0 36:0 37:0 38:0 39:25 
0.125 1:0 2:0 3:0 4:0 5:0 6:6 7:8 8:1 9:2 10:2 11:2 12:9 13:0 14:0 15:0 16:0 17:0 18:0 19:0 20:0 21:0 22:0 23:0 24:0 25:3 26:2 27:3 28:2 29:3 30:3 31:5 32:6 33:3 34:0 35:0 36:0 37:0 38:0 39:30 
0.125 1:0 2:0 3:0 4:0 5:0 6:0 7:6 8:8 9:2 10:2 11:1 12:1 13:9 14:0 15:0 16:0 17:0 18:0 19:0 20:0 21:0 22:0 23:3 24:2 25:3 26:3 27:3 28:3 29:3 30:6 31:3 32:0 33:0 34:0 35:0 36:0 37:0 38:0 39:29 
0.125 1:0 2:0 3:1 4:5 5:7 6:2 7:1 8:1 9:1 10:9 11:0 12:0 13:0 14:0 15:0 16:0 17:0 18:0 19:0 20:0 21:0 22:0 23:0 24:0 25:1 26:3 27:2 28:2 29:2 30:3 31:3 32:3 33:5 34:3 35:0 36:0 37:0 38:0 39:27 
0.1147534927311303 1:0 2:0 3:0 4:0 5:4 6:7 7:2 8:2 9:0 10:2 11:7 12:0 13:0 14:0 15:0 16:0 17:0 18:0 19:0 20:0 21:0 22:0 23:0 24:0 25:0 26:0 27:1 28:2 29:2 30:3 31:2 32:3 33:3 34:5 35:3 36:0 37:0 38:0 39:24 
0.125 1:0 2:0 3:0 4:5 5:7 6:2 7:2 8:1 9:1 10:7 11:0 12:0 13:0 14:0 15:0 16:0 17:0 18:0 19:0 20:0 21:0 22:0 23:3 24:3 25:2 26:3 27:2 28:2 29:1 30:6 31:3 32:0 33:0 34:0 35:0 36:0 37:0 38:0 39:25 
0.125 1:0 2:0 3:0 4:0 5:0 6:6 7:8 8:2 9:2 10:1 11:2 12:9 13:1 14:0 15:0 16:0 17:0 18:0 19:0 20:0 21:0 22:0 23:0 24:0 25:3 26:3 27:3 28:3 29:2 30:3 31:4 32:7 33:3 34:0 35:0 36:0 37:0 38:0 39:31 
0.125 1:1 2:0 3:0 4:4 5:8 6:2 7:2 8:1 9:1 10:7 11:1 12:0 13:0 14:0 15:0 16:0 17:0 18:0 19:0 20:0 21:0 22:0 23:0 24:0 25:0 26:4 27:2 28:2 29:1 30:3 31:3 32:3 33:5 34:4 35:0 36:0 37:0 38:0 39:27 
0.1078956035100405 1:0 2:0 3:0 4:0 5:0 6:4 7:7 8:2 9:2 10:2 11:2 12:9 13:0 14:0 15:0 16:0 17:0 18:0 19:0 20:0 21:0 22:0 23:0 24:1 25:3 26:3 27:2 28:3 29:3 30:3 31:6 32:4 33:0 34:0 35:0 36:0 37:0 38:0 39:28 
0.125 1:0 2:0 3:0 4:0 5:4 6:6 7:2 8:2 9:1 10:1 11:5 12:0 13:0 14:0 15:0 16:0 17:0 18:0 19:0 20:0 21:0 22:0 23:0 24:0 25:3 26:1 27:1 28:1 29:1 30:3 31:2 32:6 33:3 34:0 35:0 36:0 37:0 38:0 39:21 
0.125 1:7 2:1 3:0 4:0 5:0 6:0 7:6 8:5 9:2 10:2 11:1 12:3 13:8 14:1 15:0 16:0 17:0 18:0 19:0 20:0 21:0 22:0 23:4 24:3 25:4 26:3 27:6 28:3 29:4 30:6 31:3 32:0 33:0 34:0 35:0 36:0 37:0 38:0 39:36 
0.125 1:0 2:0 3:0 4:5 5:8 6:3 7:1 8:1 9:2 10:9 11:0 12:0 13:0 14:0 15:0 16:0 17:0 18:0 19:0 20:0 21:0 22:0 23:0 24:0 25:3 26:2 27:3 28:3 29:3 30:3 31:4 32:6 33:2 34:0 35:0 36:0 37:0 38:0 39:29 
0.125 1:0 2:0 3:0 4:0 5:1 6:5 7:6 8:3 9:2 10:1 11:2 12:7 13:0 14:0 15:1 16:1 17:0 18:0 19:0 20:0 21:0 22:0 23:0 24:0 25:0 26:2 27:2 28:2 29:3 30:2 31:3 32:4 33:6 34:3 35:2 36:0 37:0 38:0 39:29 
0.125 1:0 2:0 3:0 4:0 5:5 6:8 7:2 8:2 9:1 10:2 11:6 12:0 13:0 14:0 15:0 16:0 17:0 18:0 19:0 20:0 21:0 22:0 23:3 24:3 25:3 26:3 27:1 28:2 29:3 30:6 31:2 32:0 33:0 34:0 35:0 36:0 37:0 38:0 39:26 
0.125 1:0 2:0 3:0 4:0 5:0 6:0 7:4 8:8 9:2 10:2 11:1 12:2 13:7 14:0 15:0 16:0 17:0 18:0 19:0 20:0 21:0 22:0 23:0 24:0 25:0 26:0 27:2 28:2 29:1 30:3 31:3 32:2 33:4 34:6 35:3 36:0 37:0 38:0 39:26 
0.125 1:0 2:0 3:0 4:0 5:5 6:7 7:2 8:2 9:1 10:2 11:8 12:0 13:0 14:0 15:0 16:1 17:0 18:0 19:0 20:0 21:0 22:0 23:0 24:3 25:4 26:2 27:3 28:2 29:3 30:3 31:6 32:2 33:0 34:0 35:0 36:0 37:0 38:0 39:28 
0.125 1:0 2:0 3:0 4:0 5:0 6:7 7:8 8:2 9:2 10:1 11:2 12:9 13:0 14:0 15:0 16:0 17:0 18:0 19:0 20:0 21:0 22:1 23:3 24:3 25:3 26:3 27:3 28:3 29:3 30:6 31:3 32:0 33:0 34:0 35:0 36:0 37:0 38:0 39:31 
0.125 1:0 2:0 3:0 4:0 5:0 6:0 7:4 8:8 9:2 10:2 11:1 12:2 13:4 14:0 15:0 16:0 17:0 18:0 19:0 20:0 21:0 22:0 23:0 24:0 25:3 26:1 27:2 28:1 29:2 30:2 31:3 32:6 33:3 34:0 35:0 36:0 37:0 38:0 39:23 
0.125 1:1 2:0 3:0 4:0 5:5 6:8 7:2 8:2 9:1 10:1 11:7 12:0 13:0 14:0 15:0 16:0 17:0 18:0 19:0 20:0 21:0 22:0 23:0 24:0 25:0 26:0 27:2 28:2 29:3 30:3 31:3 32:2 33:3 34:6 35:3 36:0 37:0 38:0 39:27 
0.125 1:0 2:0 3:0 4:0 5:5 6:8 7:2 8:2 9:2 10:3 11:9 12:0 13:0 14:0 15:0 16:0 17:0 18:0 19:0 20:0 21:0 22:0 23:0 24:0 25:0 26:3 27:3 28:2 29:3 30:2 31:4 32:4 33:6 34:4 35:0 36:0 37:0 38:0 39:31 
0.125 1:0 2:0 3:0 4:5 5:7 6:1 7:1 8:1 9:1 10:8 11:0 12:0 13:0 14:0 15:0 16:0 17:0 18:0 19:0 20:0 21:0 22:0 23:0 24:0 25:3 26:3 27:2 28:2 29:3 30:3 31:2 32:4 33:2 34:0 35:0 36:0 37:0 38:0 39:24 
0.125 1:0 2:0 3:0 4:0 5:0 6:0 7:5 8:8 9:2 10:2 11:1 12:2 13:9 14:0 15:0 16:0 17:0 18:0 19:0 20:0 21:0 22:0 23:0 24:3 25:3 26:3 27:3 28:2 29:3 30:3 31:6 32:3 33:0 34:0 35:0 36:0 37:0 38:0 39:29 
0.125 1:0 2:0 3:0 4:1 5:3 6:8 7:2 8:2 9:1 10:1 11:9 12:0 13:0 14:0 15:0 16:0 17:0 18:0 19:0 20:0 21:0 22:0 23:0 24:2 25:3 26:3 27:3 28:3 29:2 30:2 31:6 32:3 33:0 34:0 35:0 36:0 37:0 38:0 39:27 
0.125 1:0 2:0 3:0 4:0 5:1 6:4 7:8 8:1 9:2 10:1 11:2 12:9 13:0 14:0 15:0 16:0 17:0 18:0 19:0 20:0 21:0 22:0 23:3 24:3 25:3 26:3 27:3 28:2 29:3 30:5 31:3 32:0 33:0 34:0 35:0 36:0 37:0 38:0 39:28 
0.125 1:0 2:0 3:0 4:0 5:1 6:7 7:7 8:2 9:2 10:1 11:2 12:9 13:1 14:0 15:0 16:0 17:0 18:1 19:1 20:0 21:0 22:0 23:0 24:0 25:0 26:3 27:2 28:3 29:2 30:3 31:4 32:4 33:6 34:3 35:0 36:0 37:0 38:0 39:32 
0.09414911698051429 1:0 2:0 3:0 4:0 5:0 6:4 7:8 8:2 9:1 10:1 11:1 12:5 13:0 14:0 15:0 16:0 17:0 18:0 19:0 20:0 21:0 22:0 23:2 24:3 25:1 26:2 27:1 28:2 29:3 30:5 31:3 32:0 33:0 34:0 35:0 36:0 37:0 38:0 39:22 
0.125 1:0 2:0 3:0 4:0 5:0 6:6 7:7 8:2 9:3 10:1 11:2 12:6 13:0 14:0 15:0 16:0 17:0 18:0 19:0 20:0 21:0 22:0 23:0 24:0 25:0 26:0 27:3 28:3 29:2 30:2 31:2 32:2 33:4 34:5 35:3 36:1 37:0 38:0 39:27 
0.125 1:0 2:0 3:0 4:0 5:0 6:0 7:5 8:7 9:1 10:2 11:1 12:1 13:6 14:0 15:0 16:0 17:0 18:0 19:0 20:0 21:0 22:0 23:0 24:0 25:2 26:2 27:1 28:3 29:2 30:2 31:3 32:5 33:3 34:0 35:0 36:0 37:0 38:0 39:23 
0.125 1:0 2:0 3:0 4:4 5:8 6:2 7:2 8:1 9:2 10:7 11:0 12:0 13:0 14:0 15:0 16:0 17:0 18:0 19:0 20:0 21:0 22:0 23:0 24:0 25:0 26:3 27:2 28:3 29:1 30:2 31:3 32:3 33:6 34:3 35:0 36:0 37:0 38:0 39:26 
0.1130804106137279 1:0 2:0 3:0 4:0 5:3 6:8 7:2 8:2 9:1 10:1 11:6 12:0 13:0 14:0 15:0 16:0 17:0 18:0 19:0 20:0 21:0 22:0 23:3 24:1 25:1 26:1 27:2 28:3 29:3 30:6 31:3 32:0 33:0 34:0 35:0 36:0 37:0 38:0 39:23 
-0.125 1:3 2:0 3:0 4:0 5:0 6:4 7:6 8:7 9:7 10:7 11:8 12:5 13:0 14:0 15:0 16:0 17:0 18:0 19:0 20:0 21:0 22:0 23:3 24:5 25:5 26:5 27:3 28:2 29:3 30:3 31:2 32:2 33:7 34:7 35:0 36:0 37:0 38:0 39:47 
-0.125 1:0 2:0 3:0 4:0 5:4 6:6 7:7 8:7 9:7 10:7 11:5 12:0 13:0 14:0 15:0 16:0 17:0 18:0 19:0 20:0 21:3 22:5 23:4 24:4 25:2 26:2 27:2 28:3 29:2 30:2 31:7 32:7 33:0 34:0 35:0 36:0 37:0 38:0 39:43 
-0.125 1:0 2:0 3:0 4:0 5:4 6:6 7:5 8:5 9:5 10:7 11:5 12:0 13:0 14:0 15:0 16:0 17:0 18:0 19:0 20:0 21:0 22:0 23:0 24:3 25:4 26:4 27:3 28:2 29:1 30:2 31:1 32:2 33:2 34:6 35:7 36:0 37:0 38:0 39:37 
-0.125 1:0 2:0 3:0 4:0 5:0 6:0 7:3 8:5 9:6 10:7 11:6 12:6 13:3 14:0 15:0 16:0 17:0 18:0 19:0 20:0 21:0 22:0 23:0 24:3 25:5 26:4 27:2 28:1 29:2 30:3 31:1 32:2 33:2 34:6 35:5 36:0 37:0 38:0 39:36 
-0.125 1:0 2:0 3:0 4:0 5:1 6:3 7:6 8:7 9:7 10:7 11:7 12:3 13:0 14:0 15:0 16:0 17:0 18:0 19:0 20:3 21:4 22:2 23:4 24:1 25:2 26:3 27:3 28:2 29:2 30:8 31:7 32:0 33:0 34:0 35:0 36:0 37:0 38:0 39:41 
-0.125 1:0 2:0 3:0 4:0 5:0 6:0 7:3 8:6 9:5 10:7 11:6 12:7 13:5 14:0 15:0 16:0 17:0 18:0 19:0 20:0 21:0 22:0 23:2 24:5 25:4 26:3 27:2 28:2 29:3 30:2 31:2 32:2 33:6 34:6 35:0 36:0 37:0 38:0 39:39 
-0.125 1:0 2:0 3:0 4:0 5:0 6:3 7:6 8:7 9:3 10:5 11:8 12:4 13:0 14:0 15:0 16:0 17:0 18:0 19:0 20:2 21:4 22:3 23:3 24:2 25:1 26:2 27:2 28:2 29:2 30:6 31:7 32:0 33:0 34:0 35:0 36:0 37:0 38:0 39:36 
-0.125 1:0 2:0 3:0 4:0 5:4 6:6 7:6 8:6 9:7 10:7 11:5 12:0 13:0 14:0 15:0 16:0 17:0 18:0 19:0 20:0 21:3 22:5 23:4 24:3 25:2 26:2 27:3 28:1 29:2 30:3 31:7 32:6 33:0 34:0 35:0 36:0 37:0 38:0 39:41 
-0.125 1:0 2:0 3:0 4:4 5:6 6:6 7:7 8:6 9:7 10:4 11:0 12:0 13:0 14:0 15:0 16:0 17:0 18:0 19:0 20:0 21:3 22:5 23:4 24:3 25:2 26:2 27:3 28:2 29:2 30:2 31:6 32:6 33:0 34:0 35:0 36:0 37:0 38:0 39:40 
-0.125 1:0 2:0 3:0 4:4 5:5 6:7 7:5 8:6 9:6 10:5 11:0 12:0 13:0 14:0 15:0 16:0 17:0 18:0 19:0 20:0 21:0 22:0 23:3 24:5 25:3 26:4 27:2 28:2 29:1 30:2 31:2 32:1 33:7 34:6 35:0 36:0 37:0 38:0 39:38 
-0.125 1:0 2:0 3:0 4:0 5:0 6:0 7:3 8:6 9:6 10:6 11:7 12:8 13:6 14:0 15:0 16:0 17:0 18:0 19:0 20:0 21:0 22:0 23:0 24:4 25:5 26:3 27:4 28:2 29:2 30:2 31:2 32:2 33:2 34:7 35:7 36:0 37:0 38:0 39:42 
-0.03622800579760709 1:0 2:0 3:0 4:0 5:0 6:3 7:6 8:7 9:6 10:7 11:8 12:3 13:0 14:0 15:0 16:0 17:0 18:0 19:0 20:0 21:3 22:5 23:3 24:4 25:2 26:2 27:2 28:3 29:2 30:2 31:6 32:6 33:0 34:0 35:0 36:0 37:0 38:0 39:40 
-0.125 1:0 2:0 3:0 4:0 5:0 6:0 7:3 8:6 9:5 10:6 11:6 12:7 13:5 14:0 15:0 16:0 17:0 18:0 19:0 20:0 21:0 22:0 23:0 24:4 25:4 26:3 27:3 28:2 29:1 30:2 31:3 32:3 33:1 34:5 35:7 36:0 37:0 38:0 39:38 
-0.125 1:0 2:0 3:0 4:0 5:0 6:0 7:4 8:6 9:7 10:6 11:7 12:6 13:5 14:0 15:0 16:0 17:0 18:0 19:0 20:0 21:0 22:0 23:3 24:5 25:4 26:3 27:2 28:2 29:3 30:3 31:2 32:2 33:5 34:7 35:0 36:0 37:0 38:0 39:41 
-0.125 1:1 2:0 3:0 4:0 5:0 6:4 7:6 8:7 9:6 10:6 11:7 12:5 13:0 14:0 15:0 16:0 17:0 18:0 19:0 20:0 21:3 22:5 23:4 24:4 25:2 26:1 27:2 28:3 29:2 30:2 31:7 32:7 33:0 34:0 35:0 36:0 37:0 38:0 39:42 
-0.125 1:0 2:0 3:0 4:0 5:4 6:5 7:6 8:6 9:5 10:6 11:5 12:0 13:0 14:0 15:0 16:0 17:0 18:0 19:0 20:0 21:0 22:0 23:0 24:3 25:4 26:4 27:3 28:2 29:1 30:2 31:1 32:2 33:2 34:6 35:7 36:0 37:0 38:0 39:37 
-0.125 1:0 2:0 3:0 4:0 5:0 6:4 7:6 8:5 9:6 10:7 11:4 12:4 13:0 14:0 15:0 16:0 17:0 18:0 19:0 20:0 21:0 22:0 23:0 24:3 25:5 26:3 27:4 28:1 29:0 30:3 31:2 32:1 33:3 34:6 35:5 36:0 37:0 38:0 39:36 
-0.125 1:0 2:0 3:0 4:0 5:1 6:3 7:6 8:7 9:6 10:6 11:8 12:4 13:0 14:0 15:0 16:0 17:0 18:0 19:0 20:0 21:4 22:5 23:2 24:4 25:2 26:2 27:3 28:1 29:2 30:3 31:7 32:6 33:0 34:0 35:0 36:0 37:0 38:0 39:41 
-0.125 1:0 2:0 3:0 4:3 5:6 6:7 7:6 8:7 9:7 10:3 11:0 12:0 13:0 14:0 15:0 16:0 17:0 18:0 19:0 20:0 21:0 22:0 23:0 24:3 25:5 26:3 27:3 28:2 29:1 30:3 31:2 32:2 33:2 34:7 35:6 36:0 37:0 38:0 39:39 
-0.125 1:0 2:0 3:0 4:0 5:4 6:6 7:6 8:7 9:7 10:7 11:4 12:0 13:0 14:0 15:0 16:0 17:0 18:0 19:0 20:0 21:0 22:3 23:5 24:3 25:3 26:1 27:2 28:3 29:3 30:2 31:2 32:7 33:7 34:0 35:0 36:0 37:0 38:0 39:41 
-0.125 1:0 2:0 3:0 4:0 5:0 6:2 7:5 8:7 9:7 10:6 11:7 12:4 13:0 14:0 15:0 16:0 17:0 18:0 19:0 20:0 21:0 22:0 23:0 24:3 25:5 26:2 27:2 28:2 29:1 30:2 31:3 32:2 33:2 34:7 35:7 36:0 37:0 38:0 39:38 
-0.125 1:0 2:0 3:0 4:0 5:0 6:3 7:5 8:5 9:6 10:7 11:7 12:4 13:0 14:0 15:0 16:0 17:0 18:0 19:0 20:0 21:3 22:3 23:3 24:4 25:2 26:2 27:3 28:2 29:2 30:2 31:7 32:4 33:0 34:0 35:0 36:0 37:0 38:0 39:37 
-0.125 1:0 2:0 3:0 4:0 5:0 6:0 7:3 8:6 9:7 10:7 11:7 12:6 13:5 14:1 15:0 16:0 17:0 18:0 19:0 20:3 21:5 22:3 23:4 24:1 25:2 26:3 27:3 28:2 29:2 30:7 31:7 32:0 33:0 34:0 35:0 36:0 37:0 38:0 39:42 
-0.125 1:2 2:1 3:0 4:0 5:0 6:0 7:4 8:6 9:7 10:7 11:7 12:6 13:4 14:0 15:0 16:0 17:0 18:0 19:0 20:0 21:0 22:0 23:1 24:4 25:5 26:3 27:4 28:1 29:2 30:3 31:3 32:2 33:2 34:7 35:7 36:0 37:0 38:0 39:44 
-0.125 1:0 2:0 3:0 4:1 5:4 6:5 7:7 8:7 9:7 10:8 11:5 12:0 13:0 14:0 15:0 16:0 17:0 18:0 19:0 20:0 21:0 22:0 23:3 24:5 25:4 26:4 27:3 28:2 29:3 30:3 31:2 32:2 33:6 34:7 35:0 36:0 37:0 38:0 39:44 
-0.125 1:0 2:0 3:0 4:0 5:0 6:0 7:3 8:4 9:5 10:7 11:5 12:8 13:5 14:0 15:0 16:0 17:0 18:0 19:0 20:0 21:0 22:0 23:2 24:4 25:4 26:3 27:2 28:2 29:3 30:3 31:2 32:2 33:5 34:5 35:0 36:0 37:0 38:0 39:37 
-0.125 1:0 2:0 3:0 4:0 5:0 6:3 7:6 8:7 9:5 10:6 11:7 12:4 13:0 14:0 15:0 16:0 17:0 18:0 19:0 20:0 21:0 22:3 23:5 24:3 25:3 26:2 27:1 28:2 29:3 30:2 31:2 32:7 33:5 34:0 35:0 36:0 37:0 38:0 39:38 
-0.01251267063348625 1:0 2:0 3:0 4:0 5:0 6:3 7:6 8:7 9:6 10:6 11:8 12:5 13:0 14:0 15:0 16:0 17:0 18:0 19:0 20:0 21:0 22:0 23:0 24:3 25:5 26:3 27:4 28:2 29:1 30:2 31:3 32:2 33:2 34:7 35:7 36:0 37:0 38:0 39:41 
-0.125 1:0 2:0 3:0 4:0 5:4 6:5 7:5 8:5 9:6 10:8 11:4 12:0 13:0 14:0 15:0 16:0 17:0 18:0 19:0 20:0 21:0 22:0 23:0 24:3 25:3 26:3 27:3 28:2 29:2 30:2 31:1 32:2 33:2 34:7 35:7 36:0 37:0 38:0 39:37 
-0.125 1:0 2:0 3:0 4:4 5:6 6:7 7:6 8:7 9:8 10:5 11:0 12:0 13:0 14:0 15:0 16:0 17:0 18:0 19:0 20:0 21:0 22:0 23:3 24:5 25:4 26:4 27:2 28:2 29:3 30:3 31:2 32:2 33:6 34:7 35:0 36:0 37:0 38:0 39:43 
-0.125 1:0 2:0 3:0 4:0 5:0 6:0 7:3 8:6 9:6 10:7 11:6 12:7 13:5 14:0 15:0 16:0 17:0 18:0 19:0 20:0 21:3 22:4 23:3 24:4 25:2 26:2 27:3 28:3 29:1 30:2 31:6 32:7 33:0 34:0 35:0 36:0 37:0 38:0 39:40 
