svm_type c_svc
kernel_type rbf
gamma 0.00012207
nr_class 2
total_sv 19
rho -1.38643
label 0 1
probA -2.63178
probB -0.111573
nr_sv 9 10
SV
129.9741978674147 1:0 2:0 3:0 4:0 5:1 6:4 7:6 8:4 9:7 10:7 11:6 12:5 13:0 14:0 15:0 16:0 17:0 18:0 19:0 20:0 21:0 22:0 23:0 24:3 25:5 26:4 27:3 28:1 29:2 30:3 31:2 32:2 33:2 34:6 35:7 36:0 37:0 38:0 39:40 
34.74229460934367 1:3 2:0 3:0 4:0 5:0 6:4 7:6 8:7 9:7 10:7 11:8 12:5 13:0 14:0 15:0 16:0 17:0 18:0 19:0 20:0 21:0 22:0 23:3 24:5 25:5 26:5 27:3 28:2 29:3 30:3 31:2 32:2 33:7 34:7 35:0 36:0 37:0 38:0 39:47 
184.9136271374019 1:0 2:0 3:0 4:0 5:4 6:6 7:5 8:5 9:5 10:7 11:5 12:0 13:0 14:0 15:0 16:0 17:0 18:0 19:0 20:0 21:0 22:0 23:0 24:3 25:4 26:4 27:3 28:2 29:1 30:2 31:1 32:2 33:2 34:6 35:7 36:0 37:0 38:0 39:37 
464.5181483270326 1:0 2:0 3:0 4:0 5:1 6:3 7:6 8:7 9:7 10:7 11:7 12:3 13:0 14:0 15:0 16:0 17:0 18:0 19:0 20:3 21:4 22:2 23:4 24:1 25:2 26:3 27:3 28:2 29:2 30:8 31:7 32:0 33:0 34:0 35:0 36:0 37:0 38:0 39:41 
180.0357455690356 1:0 2:0 3:0 4:4 5:6 6:6 7:7 8:6 9:7 10:4 11:0 12:0 13:0 14:0 15:0 16:0 17:0 18:0 19:0 20:0 21:3 22:5 23:4 24:3 25:2 26:2 27:3 28:2 29:2 30:2 31:6 32:6 33:0 34:0 35:0 36:0 37:0 38:0 39:40 
94.60712266937728 1:0 2:0 3:0 4:0 5:0 6:0 7:3 8:6 9:6 10:6 11:7 12:8 13:6 14:0 15:0 16:0 17:0 18:0 19:0 20:0 21:0 22:0 23:0 24:4 25:5 26:3 27:4 28:2 29:2 30:2 31:2 32:2 33:2 34:7 35:7 36:0 37:0 38:0 39:42 
75.70648243713403 1:0 2:0 3:0 4:3 5:6 6:7 7:6 8:7 9:7 10:3 11:0 12:0 13:0 14:0 15:0 16:0 17:0 18:0 19:0 20:0 21:0 22:0 23:0 24:3 25:5 26:3 27:3 28:2 29:1 30:3 31:2 32:2 33:2 34:7 35:6 36:0 37:0 38:0 39:39 
128.906569439275 1:0 2:0 3:0 4:0 5:4 6:6 7:6 8:7 9:7 10:7 11:4 12:0 13:0 14:0 15:0 16:0 17:0 18:0 19:0 20:0 21:0 22:3 23:5 24:3 25:3 26:1 27:2 28:3 29:3 30:2 31:2 32:7 33:7 34:0 35:0 36:0 37:0 38:0 39:41 
431.7553792679102 1:0 2:0 3:0 4:0 5:0 6:0 7:3 8:4 9:5 10:7 11:5 12:8 13:5 14:0 15:0 16:0 17:0 18:0 19:0 20:0 21:0 22:0 23:2 24:4 25:4 26:3 27:2 28:2 29:3 30:3 31:2 32:2 33:5 34:5 35:0 36:0 37:0 38:0 39:37 
-132.4675314999407 1:0 2:0 3:0 4:0 5:4 6:6 7:4 8:6 9:5 10:9 11:7 12:0 13:0 14:0 15:0 16:0 17:0 18:0 19:0 20:0 21:2 22:5 23:4 24:3 25:3 26:4 27:6 28:3 29:1 30:2 31:5 32:3 33:0 34:0 35:0 36:0 37:0 38:0 39:41 
-131.4515219883226 1:0 2:0 3:0 4:0 5:0 6:5 7:6 8:6 9:6 10:4 11:7 12:5 13:0 14:0 15:0 16:0 17:0 18:0 19:0 20:0 21:0 22:2 23:4 24:3 25:2 26:3 27:4 28:4 29:4 30:2 31:3 32:4 33:3 34:1 35:0 36:0 37:0 38:0 39:39 
-124.561607070409 1:0 2:0 3:0 4:0 5:0 6:3 7:5 8:4 9:6 10:5 11:8 12:6 13:0 14:0 15:0 16:0 17:0 18:0 19:0 20:3 21:5 22:2 23:3 24:2 25:4 26:5 27:4 28:2 29:2 30:3 31:2 32:0 33:0 34:0 35:0 36:0 37:0 38:0 39:37 
-207.6172589575837 1:0 2:0 3:0 4:5 5:6 6:7 7:5 8:5 9:10 10:6 11:0 12:0 13:0 14:0 15:0 16:0 17:0 18:0 19:0 20:0 21:1 22:3 23:5 24:3 25:3 26:3 27:4 28:5 29:3 30:2 31:3 32:5 33:4 34:0 35:0 36:0 37:0 38:0 39:44 
-31.88791997969911 1:4 2:3 3:10 4:0 5:0 6:0 7:4 8:5 9:6 10:6 11:5 12:8 13:4 14:0 15:0 16:0 17:0 18:0 19:0 20:3 21:8 22:6 23:5 24:6 25:4 26:7 27:4 28:1 29:1 30:6 31:4 32:0 33:0 34:0 35:0 36:0 37:0 38:0 39:55 
-86.69781509376624 1:0 2:0 3:0 4:0 5:0 6:5 7:6 8:5 9:6 10:4 11:9 12:6 13:0 14:0 15:0 16:0 17:0 18:0 19:0 20:0 21:0 22:0 23:0 24:1 25:4 26:3 27:3 28:3 29:4 30:6 31:4 32:2 33:3 34:5 35:3 36:0 37:0 38:0 39:41 
-24.32120820441012 1:0 2:0 3:0 4:0 5:0 6:0 7:3 8:6 9:5 10:6 11:5 12:10 13:4 14:0 15:0 16:0 17:0 18:0 19:0 20:0 21:3 22:5 23:3 24:3 25:3 26:2 27:6 28:4 29:1 30:2 31:5 32:2 33:0 34:0 35:0 36:0 37:0 38:0 39:39 
-455.9625848739795 1:0 2:0 3:0 4:0 5:0 6:0 7:4 8:6 9:5 10:5 11:4 12:8 13:5 14:0 15:0 16:0 17:0 18:0 19:0 20:0 21:0 22:0 23:0 24:2 25:4 26:2 27:3 28:2 29:4 30:6 31:2 32:2 33:3 34:4 35:3 36:0 37:0 38:0 39:37 
-131.1640144432038 1:0 2:0 3:0 4:0 5:0 6:4 7:4 8:6 9:6 10:4 11:9 12:5 13:0 14:0 15:0 16:0 17:0 18:0 19:0 20:3 21:5 22:2 23:3 24:3 25:3 26:6 27:3 28:1 29:3 30:4 31:2 32:0 33:0 34:0 35:0 36:0 37:0 38:0 39:38 
-399.0281052126105 1:0 2:0 3:0 4:0 5:5 6:4 7:6 8:6 9:5 10:10 11:4 12:0 13:0 14:0 15:0 16:0 17:0 18:0 19:0 20:0 21:0 22:0 23:0 24:3 25:5 26:3 27:3 28:2 29:4 30:5 31:4 32:1 33:2 34:5 35:3 36:0 37:0 38:0 39:40 
