svm_type c_svc
kernel_type rbf
gamma 0.00012207
nr_class 2
total_sv 22
rho -1.96967
label 0 1
probA -2.90408
probB 0.0407006
nr_sv 11 11
SV
95.89046617257407 1:0 2:0 3:0 4:0 5:1 6:4 7:6 8:4 9:7 10:7 11:6 12:5 13:0 14:0 15:0 16:0 17:0 18:0 19:0 20:0 21:0 22:0 23:0 24:3 25:5 26:4 27:3 28:1 29:2 30:3 31:2 32:2 33:2 34:6 35:7 36:0 37:0 38:0 39:40 
16.67221387197812 1:3 2:0 3:0 4:0 5:0 6:4 7:6 8:7 9:7 10:7 11:8 12:5 13:0 14:0 15:0 16:0 17:0 18:0 19:0 20:0 21:0 22:0 23:3 24:5 25:5 26:5 27:3 28:2 29:3 30:3 31:2 32:2 33:7 34:7 35:0 36:0 37:0 38:0 39:47 
65.61145887117532 1:0 2:0 3:0 4:0 5:4 6:6 7:5 8:5 9:5 10:7 11:5 12:0 13:0 14:0 15:0 16:0 17:0 18:0 19:0 20:0 21:0 22:0 23:0 24:3 25:4 26:4 27:3 28:2 29:1 30:2 31:1 32:2 33:2 34:6 35:7 36:0 37:0 38:0 39:37 
73.90349138552531 1:0 2:0 3:0 4:0 5:1 6:3 7:6 8:7 9:7 10:7 11:7 12:3 13:0 14:0 15:0 16:0 17:0 18:0 19:0 20:3 21:4 22:2 23:4 24:1 25:2 26:3 27:3 28:2 29:2 30:8 31:7 32:0 33:0 34:0 35:0 36:0 37:0 38:0 39:41 
328.0773613564641 1:0 2:0 3:0 4:0 5:0 6:3 7:6 8:7 9:3 10:5 11:8 12:4 13:0 14:0 15:0 16:0 17:0 18:0 19:0 20:2 21:4 22:3 23:3 24:2 25:1 26:2 27:2 28:2 29:2 30:6 31:7 32:0 33:0 34:0 35:0 36:0 37:0 38:0 39:36 
32.54118276661032 1:0 2:0 3:0 4:4 5:6 6:6 7:7 8:6 9:7 10:4 11:0 12:0 13:0 14:0 15:0 16:0 17:0 18:0 19:0 20:0 21:3 22:5 23:4 24:3 25:2 26:2 27:3 28:2 29:2 30:2 31:6 32:6 33:0 34:0 35:0 36:0 37:0 38:0 39:40 
35.17227966406439 1:0 2:0 3:0 4:0 5:0 6:0 7:3 8:6 9:6 10:6 11:7 12:8 13:6 14:0 15:0 16:0 17:0 18:0 19:0 20:0 21:0 22:0 23:0 24:4 25:5 26:3 27:4 28:2 29:2 30:2 31:2 32:2 33:2 34:7 35:7 36:0 37:0 38:0 39:42 
56.62673412932297 1:0 2:0 3:0 4:3 5:6 6:7 7:6 8:7 9:7 10:3 11:0 12:0 13:0 14:0 15:0 16:0 17:0 18:0 19:0 20:0 21:0 22:0 23:0 24:3 25:5 26:3 27:3 28:2 29:1 30:3 31:2 32:2 33:2 34:7 35:6 36:0 37:0 38:0 39:39 
274.5769817481979 1:0 2:0 3:0 4:0 5:4 6:6 7:6 8:7 9:7 10:7 11:4 12:0 13:0 14:0 15:0 16:0 17:0 18:0 19:0 20:0 21:0 22:3 23:5 24:3 25:3 26:1 27:2 28:3 29:3 30:2 31:2 32:7 33:7 34:0 35:0 36:0 37:0 38:0 39:41 
32.92817330277352 1:0 2:0 3:0 4:1 5:4 6:5 7:7 8:7 9:7 10:8 11:5 12:0 13:0 14:0 15:0 16:0 17:0 18:0 19:0 20:0 21:0 22:0 23:3 24:5 25:4 26:4 27:3 28:2 29:3 30:3 31:2 32:2 33:6 34:7 35:0 36:0 37:0 38:0 39:44 
167.0659536988861 1:0 2:0 3:0 4:0 5:0 6:0 7:3 8:4 9:5 10:7 11:5 12:8 13:5 14:0 15:0 16:0 17:0 18:0 19:0 20:0 21:0 22:0 23:2 24:4 25:4 26:3 27:2 28:2 29:3 30:3 31:2 32:2 33:5 34:5 35:0 36:0 37:0 38:0 39:37 
-65.24878736048109 1:0 2:0 3:0 4:0 5:0 6:5 7:7 8:3 9:7 10:6 11:6 12:4 13:0 14:0 15:0 16:0 17:0 18:0 19:0 20:0 21:0 22:4 23:4 24:2 25:2 26:3 27:5 28:5 29:2 30:3 31:1 32:4 33:3 34:0 35:0 36:0 37:0 38:0 39:38 
-60.69386220188571 1:0 2:0 3:0 4:0 5:5 6:9 7:3 8:6 9:6 10:7 11:4 12:0 13:0 14:0 15:0 16:0 17:0 18:0 19:0 20:0 21:0 22:0 23:0 24:3 25:4 26:2 27:1 28:3 29:5 30:4 31:3 32:4 33:3 34:5 35:3 36:0 37:0 38:0 39:40 
-52.71121047830395 1:0 2:0 3:0 4:0 5:5 6:9 7:5 8:6 9:5 10:7 11:4 12:0 13:0 14:0 15:0 16:0 17:0 18:0 19:0 20:0 21:2 22:5 23:2 24:2 25:4 26:6 27:4 28:4 29:2 30:3 31:5 32:2 33:0 34:0 35:0 36:0 37:0 38:0 39:41 
-122.9013399513502 1:0 2:0 3:0 4:5 5:9 6:4 7:6 8:5 9:7 10:3 11:0 12:0 13:0 14:0 15:0 16:0 17:0 18:0 19:0 20:3 21:4 22:2 23:2 24:3 25:5 26:4 27:3 28:3 29:2 30:5 31:3 32:0 33:0 34:0 35:0 36:0 37:0 38:0 39:39 
-76.06966192611993 1:0 2:0 3:0 4:0 5:6 6:7 7:4 8:6 9:5 10:7 11:3 12:0 13:0 14:0 15:0 16:0 17:0 18:0 19:0 20:3 21:5 22:2 23:1 24:2 25:6 26:4 27:3 28:2 29:3 30:5 31:2 32:0 33:0 34:0 35:0 36:0 37:0 38:0 39:38 
-108.3671122312241 1:0 2:0 3:0 4:0 5:0 6:6 7:8 8:4 9:6 10:7 11:8 12:3 13:0 14:0 15:0 16:0 17:0 18:0 19:0 20:0 21:0 22:0 23:0 24:3 25:5 26:2 27:3 28:3 29:4 30:4 31:4 32:3 33:3 34:5 35:3 36:0 37:0 38:0 39:42 
-48.46862290084704 1:0 2:0 3:0 4:0 5:0 6:5 7:9 8:5 9:6 10:5 11:8 12:4 13:0 14:0 15:0 16:0 17:0 18:0 19:0 20:0 21:0 22:0 23:3 24:5 25:2 26:1 27:3 28:5 29:4 30:4 31:4 32:3 33:5 34:3 35:0 36:0 37:0 38:0 39:42 
-20.31211361682334 1:0 2:0 3:0 4:0 5:6 6:8 7:5 8:6 9:6 10:8 11:3 12:0 13:0 14:0 15:0 16:0 17:0 18:0 19:0 20:0 21:0 22:0 23:3 24:5 25:1 26:2 27:3 28:6 29:4 30:4 31:3 32:3 33:5 34:3 35:0 36:0 37:0 38:0 39:42 
-33.62503465818248 1:0 2:0 3:0 4:0 5:6 6:8 7:5 8:6 9:6 10:8 11:3 12:0 13:0 14:0 15:0 16:0 17:0 18:0 19:0 20:3 21:5 22:2 23:2 24:3 25:6 26:4 27:3 28:4 29:3 30:4 31:3 32:0 33:0 34:0 35:0 36:0 37:0 38:0 39:42 
-266.9160987865304 1:0 2:0 3:0 4:0 5:0 6:0 7:5 8:9 9:4 10:5 11:7 12:7 13:4 14:0 15:0 16:0 17:0 18:0 19:0 20:0 21:0 22:0 23:0 24:3 25:4 26:2 27:2 28:2 29:6 30:4 31:4 32:3 33:4 34:4 35:3 36:0 37:0 38:0 39:41 
-323.7524528558235 1:0 2:0 3:0 4:0 5:0 6:3 7:5 8:5 9:5 10:6 11:8 12:3 13:0 14:0 15:0 16:0 17:0 18:0 19:0 20:0 21:0 22:3 23:4 24:2 25:0 26:2 27:4 28:3 29:4 30:4 31:3 32:3 33:3 34:0 35:0 36:0 37:0 38:0 39:35 
