svm_type c_svc
kernel_type rbf
gamma 0.0078125
nr_class 2
total_sv 32
rho 0.24651
label 1 0
probA -3.82768
probB 0.132275
nr_sv 15 17
SV
1.648571960004624 1:0 2:0 3:0 4:0 5:0 6:3 7:5 8:5 9:4 10:5 11:5 12:2 13:1 14:0 15:0 16:0 17:0 18:0 19:0 20:0 21:0 22:0 23:0 24:0 25:4 26:4 27:3 28:3 29:2 30:3 31:4 32:2 33:5 34:0 35:0 36:0 37:0 38:0 39:30 
0.4357013332846768 1:0 2:0 3:0 4:0 5:2 6:5 7:3 8:4 9:5 10:5 11:2 12:0 13:0 14:0 15:0 16:0 17:0 18:0 19:0 20:0 21:0 22:0 23:4 24:2 25:4 26:2 27:2 28:3 29:3 30:2 31:4 32:0 33:0 34:0 35:0 36:0 37:0 38:0 39:26 
0.6023910176938448 1:0 2:0 3:0 4:2 5:4 6:5 7:3 8:5 9:5 10:2 11:0 12:0 13:0 14:0 15:0 16:0 17:0 18:0 19:0 20:0 21:0 22:0 23:4 24:3 25:3 26:2 27:1 28:3 29:3 30:3 31:4 32:0 33:0 34:0 35:0 36:0 37:0 38:0 39:26 
0.03121123869602543 1:0 2:0 3:0 4:0 5:0 6:2 7:6 8:4 9:4 10:5 11:5 12:2 13:0 14:0 15:0 16:0 17:0 18:0 19:0 20:0 21:0 22:0 23:0 24:4 25:3 26:4 27:3 28:2 29:2 30:4 31:2 32:4 33:0 34:0 35:0 36:0 37:0 38:0 39:28 
1.393690650260062 1:3 2:0 3:0 4:0 5:0 6:2 7:5 8:4 9:4 10:5 11:5 12:2 13:0 14:0 15:0 16:0 17:0 18:0 19:0 20:0 21:0 22:1 23:0 24:4 25:3 26:3 27:3 28:2 29:4 30:4 31:2 32:4 33:0 34:0 35:0 36:0 37:0 38:0 39:30 
0.717160733197763 1:0 2:0 3:0 4:0 5:3 6:6 7:4 8:4 9:5 10:4 11:2 12:0 13:0 14:0 15:0 16:0 17:0 18:0 19:0 20:2 21:0 22:0 23:0 24:0 25:0 26:4 27:2 28:4 29:3 30:2 31:3 32:3 33:2 34:3 35:0 36:0 37:0 38:0 39:28 
0.6614650324226449 1:0 2:0 3:1 4:1 5:1 6:6 7:5 8:4 9:5 10:5 11:2 12:0 13:0 14:0 15:0 16:0 17:0 18:0 19:0 20:0 21:0 22:0 23:0 24:0 25:0 26:3 27:4 28:5 29:4 30:1 31:3 32:4 33:2 34:4 35:0 36:0 37:0 38:0 39:30 
0.2570838857458732 1:0 2:0 3:0 4:0 5:0 6:0 7:2 8:6 9:3 10:3 11:4 12:4 13:2 14:0 15:0 16:0 17:0 18:0 19:0 20:0 21:0 22:0 23:0 24:4 25:3 26:3 27:2 28:1 29:2 30:3 31:2 32:4 33:0 34:0 35:0 36:0 37:0 38:0 39:24 
0.1219349053362156 1:0 2:0 3:0 4:0 5:0 6:0 7:1 8:4 9:4 10:4 11:4 12:5 13:2 14:0 15:0 16:0 17:0 18:0 19:0 20:0 21:0 22:0 23:4 24:3 25:4 26:3 27:1 28:2 29:4 30:1 31:2 32:0 33:0 34:0 35:0 36:0 37:0 38:0 39:24 
2 1:0 2:0 3:0 4:0 5:0 6:2 7:4 8:4 9:4 10:5 11:5 12:2 13:0 14:0 15:0 16:0 17:0 18:0 19:0 20:0 21:0 22:1 23:4 24:3 25:3 26:3 27:1 28:3 29:3 30:1 31:4 32:0 33:0 34:0 35:0 36:0 37:0 38:0 39:26 
0.4409192428313832 1:0 2:0 3:0 4:0 5:2 6:5 7:4 8:3 9:5 10:5 11:2 12:0 13:0 14:0 15:0 16:0 17:0 18:0 19:0 20:0 21:0 22:0 23:0 24:0 25:0 26:0 27:4 28:3 29:3 30:2 31:1 32:3 33:4 34:2 35:4 36:0 37:0 38:0 39:26 
0.1315295647836189 1:0 2:0 3:0 4:0 5:1 6:5 7:5 8:4 9:5 10:5 11:3 12:0 13:0 14:0 15:0 16:0 17:0 18:0 19:0 20:0 21:0 22:0 23:3 24:3 25:4 26:3 27:2 28:3 29:4 30:2 31:2 32:0 33:0 34:1 35:1 36:0 37:0 38:0 39:28 
0.4426906991057148 1:0 2:0 3:0 4:1 5:4 6:4 7:3 8:5 9:5 10:2 11:0 12:0 13:0 14:0 15:0 16:0 17:0 18:0 19:0 20:0 21:0 22:0 23:0 24:2 25:2 26:4 27:3 28:0 29:3 30:4 31:2 32:4 33:0 34:0 35:0 36:0 37:0 38:0 39:24 
1.262780333130262 1:0 2:0 3:0 4:0 5:0 6:2 7:6 8:5 9:4 10:5 11:5 12:2 13:1 14:0 15:0 16:0 17:0 18:0 19:0 20:0 21:0 22:0 23:0 24:0 25:0 26:0 27:4 28:3 29:4 30:3 31:2 32:3 33:4 34:2 35:4 36:1 37:0 38:0 39:30 
1.373288140340496 1:6 2:0 3:0 4:0 5:2 6:5 7:5 8:4 9:5 10:5 11:2 12:0 13:0 14:0 15:0 16:1 17:0 18:0 19:0 20:0 21:0 22:0 23:1 24:4 25:3 26:4 27:4 28:3 29:4 30:4 31:3 32:4 33:0 34:0 35:1 36:0 37:0 38:0 39:35 
-0.7807525423651546 1:0 2:0 3:0 4:0 5:0 6:0 7:3 8:5 9:4 10:5 11:6 12:7 13:3 14:0 15:0 16:0 17:0 18:0 19:0 20:0 21:0 22:0 23:0 24:3 25:5 26:3 27:1 28:1 29:3 30:0 31:1 32:4 33:4 34:5 35:3 36:0 37:0 38:0 39:33 
-0.2168350850706702 1:0 2:0 3:0 4:0 5:0 6:3 7:5 8:4 9:5 10:6 11:8 12:3 13:0 14:0 15:0 16:0 17:0 18:0 19:0 20:0 21:0 22:0 23:0 24:3 25:5 26:3 27:1 28:1 29:3 30:1 31:1 32:4 33:4 34:5 35:3 36:0 37:0 38:0 39:34 
-2 1:0 2:0 3:0 4:0 5:2 6:4 7:3 8:5 9:5 10:7 11:2 12:0 13:0 14:0 15:0 16:0 17:0 18:0 19:0 20:0 21:0 22:3 23:3 24:3 25:1 26:2 27:3 28:0 29:2 30:2 31:3 32:4 33:2 34:0 35:0 36:0 37:0 38:0 39:28 
-2 1:0 2:0 3:0 4:0 5:0 6:3 7:5 8:3 9:6 10:4 11:6 12:1 13:0 14:0 15:0 16:0 17:0 18:0 19:0 20:0 21:3 22:3 23:3 24:0 25:1 26:3 27:1 28:2 29:3 30:2 31:4 32:3 33:0 34:0 35:0 36:0 37:0 38:0 39:28 
-0.5417979003611894 1:0 2:0 3:0 4:0 5:3 6:4 7:4 8:5 9:4 10:7 11:3 12:0 13:0 14:0 15:0 16:0 17:0 18:0 19:0 20:0 21:3 22:4 23:3 24:0 25:1 26:3 27:1 28:2 29:3 30:4 31:4 32:2 33:0 34:0 35:0 36:0 37:0 38:0 39:30 
-0.1868863405990536 1:0 2:0 3:0 4:0 5:0 6:3 7:5 8:4 9:6 10:4 11:7 12:3 13:0 14:0 15:0 16:0 17:0 18:0 19:1 20:3 21:5 22:3 23:0 24:1 25:3 26:1 27:2 28:4 29:4 30:2 31:3 32:0 33:0 34:0 35:0 36:0 37:0 38:0 39:32 
-1.422764106389722 1:0 2:0 3:0 4:0 5:3 6:3 7:3 8:5 9:5 10:9 11:3 12:0 13:0 14:0 15:0 16:0 17:0 18:0 19:0 20:0 21:0 22:0 23:0 24:3 25:5 26:3 27:1 28:2 29:3 30:1 31:1 32:3 33:3 34:4 35:2 36:0 37:0 38:0 39:31 
-0.6464663107266853 1:0 2:0 3:0 4:0 5:0 6:3 7:4 8:4 9:5 10:5 11:9 12:3 13:0 14:0 15:0 16:0 17:0 18:0 19:0 20:0 21:0 22:0 23:3 24:5 25:4 26:1 27:1 28:3 29:1 30:2 31:4 32:4 33:4 34:1 35:0 36:0 37:0 38:0 39:33 
-0.23613458509006 1:0 2:0 3:0 4:3 5:5 6:4 7:6 8:6 9:8 10:3 11:0 12:0 13:0 14:0 15:0 16:1 17:0 18:0 19:0 20:0 21:3 22:5 23:3 24:1 25:2 26:2 27:1 28:2 29:4 30:5 31:5 32:3 33:0 34:0 35:0 36:0 37:0 38:0 39:36 
-0.5046340487669992 1:0 2:0 3:0 4:0 5:2 6:5 7:2 8:6 9:6 10:7 11:3 12:0 13:0 14:0 15:0 16:0 17:0 18:0 19:0 20:3 21:4 22:3 23:0 24:2 25:3 26:1 27:1 28:4 29:3 30:4 31:3 32:0 33:0 34:0 35:0 36:0 37:0 38:0 39:31 
-0.9446532854953272 1:0 2:0 3:0 4:0 5:0 6:1 7:4 8:4 9:6 10:5 11:8 12:2 13:1 14:0 15:0 16:0 17:0 18:0 19:0 20:3 21:5 22:1 23:1 24:2 25:3 26:1 27:2 28:4 29:3 30:3 31:3 32:0 33:0 34:0 35:0 36:0 37:0 38:0 39:31 
-0.8984267020771832 1:0 2:0 3:0 4:3 5:5 6:4 7:5 8:5 9:9 10:3 11:0 12:0 13:0 14:0 15:0 16:0 17:0 18:0 19:0 20:0 21:0 22:0 23:3 24:4 25:3 26:1 27:2 28:3 29:1 30:2 31:4 32:4 33:4 34:2 35:1 36:0 37:0 38:0 39:34 
-0.1837505876001254 1:0 2:0 3:0 4:0 5:0 6:0 7:3 8:6 9:5 10:6 11:6 12:8 13:3 14:0 15:0 16:0 17:0 18:0 19:1 20:3 21:5 22:3 23:1 24:2 25:3 26:1 27:2 28:4 29:4 30:5 31:3 32:0 33:0 34:0 35:0 36:0 37:0 38:0 39:37 
-0.005911313754030034 1:0 2:0 3:0 4:0 5:1 6:4 7:3 8:4 9:6 10:9 11:3 12:0 13:0 14:0 15:0 16:0 17:0 18:0 19:0 20:0 21:0 22:0 23:3 24:5 25:2 26:1 27:1 28:3 29:1 30:2 31:3 32:4 33:3 34:2 35:0 36:0 37:0 38:0 39:30 
-0.3272856066284053 1:0 2:0 3:0 4:0 5:0 6:2 7:4 8:4 9:5 10:6 11:9 12:2 13:0 14:0 15:0 16:0 17:0 18:0 19:0 20:0 21:0 22:3 23:4 24:1 25:1 26:2 27:3 28:1 29:2 30:4 31:3 32:5 33:3 34:0 35:0 36:0 37:0 38:0 39:32 
-0.2147763173153389 1:0 2:0 3:0 4:0 5:0 6:0 7:3 8:4 9:4 10:6 11:6 12:9 13:2 14:0 15:0 16:0 17:0 18:0 19:0 20:0 21:0 22:0 23:3 24:5 25:3 26:1 27:2 28:3 29:1 30:2 31:2 32:4 33:5 34:3 35:0 36:0 37:0 38:0 39:34 
-0.4093440045932599 1:0 2:0 3:0 4:0 5:3 6:5 7:4 8:4 9:4 10:7 11:3 12:0 13:0 14:0 15:0 16:0 17:0 18:0 19:0 20:0 21:0 22:0 23:3 24:5 25:3 26:1 27:1 28:1 29:1 30:1 31:3 32:4 33:5 34:2 35:0 36:0 37:0 38:0 39:30 
