svm_type c_svc
kernel_type rbf
gamma 0.0078125
nr_class 2
total_sv 35
rho 0.370426
label 1 0
probA -3.91273
probB -0.128332
nr_sv 15 20
SV
0.5 1:0 2:0 3:0 4:0 5:0 6:3 7:5 8:4 9:4 10:5 11:3 12:4 13:3 14:2 15:3 16:3 17:0 18:0 19:0 20:0 21:0 22:0 23:0 24:4 25:5 26:6 27:4 28:3 29:5 30:5 31:3 32:4 33:0 34:0 35:0 36:0 37:0 38:0 39:39 
0.5 1:0 2:0 3:0 4:0 5:0 6:2 7:5 8:3 9:4 10:3 11:3 12:5 13:4 14:3 15:3 16:3 17:0 18:0 19:0 20:0 21:0 22:0 23:3 24:5 25:5 26:4 27:3 28:5 29:5 30:4 31:4 32:0 33:0 34:0 35:0 36:0 37:0 38:0 39:38 
0.4213307227463307 1:0 2:0 3:0 4:0 5:3 6:4 7:3 8:4 9:3 10:3 11:5 12:2 13:3 14:4 15:2 16:0 17:0 18:0 19:0 20:0 21:0 22:0 23:0 24:3 25:5 26:6 27:3 28:4 29:4 30:4 31:3 32:4 33:0 34:0 35:0 36:0 37:0 38:0 39:36 
0.283241433138628 1:0 2:0 3:0 4:0 5:0 6:0 7:1 8:4 9:3 10:4 11:3 12:3 13:6 14:4 15:2 16:4 17:0 18:0 19:0 20:0 21:0 22:0 23:0 24:0 25:0 26:1 27:3 28:4 29:4 30:4 31:5 32:5 33:4 34:4 35:0 36:0 37:0 38:0 39:34 
0.1282413231770637 1:0 2:0 3:0 4:0 5:0 6:2 7:3 8:3 9:3 10:3 11:3 12:5 13:4 14:3 15:3 16:5 17:0 18:0 19:0 20:0 21:0 22:0 23:0 24:0 25:0 26:0 27:2 28:5 29:5 30:5 31:3 32:6 33:4 34:4 35:3 36:0 37:0 38:0 39:37 
0.2314949403082623 1:0 2:0 3:0 4:3 5:5 6:3 7:4 8:4 9:3 10:5 11:4 12:3 13:4 14:2 15:0 16:0 17:0 18:0 19:0 20:0 21:0 22:0 23:0 24:0 25:2 26:5 27:7 28:4 29:4 30:5 31:5 32:4 33:4 34:0 35:0 36:0 37:0 38:0 39:40 
0.5 1:0 2:0 3:0 4:0 5:3 6:3 7:3 8:3 9:4 10:2 11:4 12:4 13:3 14:3 15:2 16:0 17:0 18:0 19:0 20:0 21:0 22:0 23:0 24:0 25:0 26:0 27:3 28:4 29:5 30:3 31:3 32:4 33:4 34:4 35:4 36:0 37:0 38:0 39:34 
0.3188493540263881 1:0 2:0 3:0 4:3 5:2 6:3 7:4 8:4 9:3 10:5 11:4 12:3 13:3 14:3 15:0 16:0 17:0 18:0 19:0 20:0 21:0 22:0 23:0 24:0 25:3 26:5 27:6 28:3 29:3 30:4 31:5 32:4 33:4 34:0 35:0 36:0 37:0 38:0 39:37 
0.1051938695977047 1:0 2:0 3:0 4:0 5:0 6:0 7:3 8:6 9:3 10:4 11:3 12:4 13:5 14:3 15:3 16:5 17:0 18:0 19:0 20:0 21:0 22:0 23:0 24:0 25:2 26:4 27:5 28:4 29:5 30:4 31:6 32:4 33:5 34:0 35:0 36:0 37:0 38:0 39:39 
0.5 1:0 2:0 3:0 4:3 5:4 6:3 7:4 8:4 9:4 10:5 11:3 12:3 13:3 14:1 15:0 16:0 17:0 18:0 19:0 20:0 21:0 22:0 23:0 24:0 25:0 26:3 27:4 28:5 29:5 30:4 31:4 32:4 33:4 34:4 35:0 36:0 37:0 38:0 39:37 
0.1108367394121658 1:0 2:0 3:0 4:0 5:0 6:3 7:5 8:3 9:4 10:4 11:2 12:5 13:4 14:3 15:4 16:2 17:0 18:0 19:0 20:0 21:0 22:0 23:0 24:0 25:0 26:1 27:4 28:5 29:5 30:4 31:5 32:6 33:4 34:5 35:0 36:0 37:0 38:0 39:39 
0.5 1:0 2:0 3:0 4:0 5:0 6:0 7:1 8:4 9:2 10:3 11:3 12:2 13:3 14:4 15:3 16:4 17:0 18:0 19:0 20:0 21:0 22:0 23:0 24:0 25:0 26:0 27:1 28:2 29:5 30:3 31:3 32:6 33:4 34:3 35:2 36:0 37:0 38:0 39:29 
0.5 1:0 2:0 3:0 4:0 5:2 6:4 7:3 8:4 9:3 10:3 11:4 12:5 13:3 14:2 15:2 16:0 17:0 18:0 19:0 20:0 21:0 22:0 23:3 24:4 25:5 26:3 27:4 28:4 29:4 30:4 31:4 32:0 33:0 34:0 35:0 36:0 37:0 38:0 39:35 
0.3531882910971602 1:0 2:0 3:0 4:0 5:3 6:5 7:3 8:4 9:4 10:3 11:3 12:4 13:2 14:3 15:3 16:0 17:0 18:0 19:0 20:0 21:0 22:0 23:0 24:0 25:0 26:0 27:3 28:5 29:6 30:5 31:2 32:4 33:5 34:3 35:4 36:0 37:0 38:0 39:37 
0.5 1:0 2:0 3:0 4:0 5:2 6:5 7:3 8:4 9:3 10:3 11:5 12:4 13:3 14:0 15:1 16:0 17:0 18:0 19:0 20:0 21:0 22:0 23:0 24:0 25:3 26:3 27:4 28:3 29:3 30:4 31:5 32:4 33:4 34:0 35:0 36:0 37:0 38:0 39:33 
-0.05099078713761886 1:0 2:0 3:0 4:3 5:5 6:4 7:5 8:4 9:9 10:4 11:0 12:0 13:0 14:0 15:0 16:0 17:0 18:0 19:0 20:0 21:0 22:2 23:5 24:3 25:1 26:2 27:2 28:2 29:2 30:4 31:4 32:5 33:2 34:0 35:0 36:0 37:0 38:0 39:34 
-0.111255788497782 1:0 2:0 3:0 4:0 5:0 6:0 7:3 8:5 9:4 10:5 11:6 12:7 13:3 14:0 15:0 16:0 17:0 18:0 19:0 20:0 21:0 22:0 23:0 24:3 25:5 26:3 27:1 28:1 29:3 30:0 31:1 32:4 33:4 34:5 35:3 36:0 37:0 38:0 39:33 
-0.236802201616744 1:0 2:0 3:0 4:0 5:3 6:6 7:5 8:5 9:5 10:8 11:3 12:0 13:0 14:0 15:0 16:0 17:0 18:0 19:0 20:0 21:0 22:0 23:3 24:5 25:3 26:2 27:1 28:2 29:1 30:2 31:5 32:4 33:4 34:3 35:0 36:0 37:0 38:0 39:35 
-0.1117495688487631 1:0 2:0 3:0 4:0 5:2 6:4 7:3 8:5 9:5 10:7 11:2 12:0 13:0 14:0 15:0 16:0 17:0 18:0 19:0 20:0 21:0 22:3 23:3 24:3 25:1 26:2 27:3 28:0 29:2 30:2 31:3 32:4 33:2 34:0 35:0 36:0 37:0 38:0 39:28 
-0.2237768811884529 1:0 2:0 3:0 4:0 5:3 6:5 7:4 8:5 9:6 10:9 11:3 12:0 13:0 14:0 15:0 16:0 17:0 18:0 19:0 20:3 21:4 22:3 23:1 24:2 25:3 26:1 27:2 28:4 29:4 30:5 31:3 32:0 33:0 34:0 35:0 36:0 37:0 38:0 39:35 
-0.2541333816463543 1:0 2:0 3:0 4:0 5:0 6:3 7:5 8:3 9:6 10:4 11:6 12:1 13:0 14:0 15:0 16:0 17:0 18:0 19:0 20:0 21:3 22:3 23:3 24:0 25:1 26:3 27:1 28:2 29:3 30:2 31:4 32:3 33:0 34:0 35:0 36:0 37:0 38:0 39:28 
-0.3747731581200567 1:0 2:0 3:0 4:1 5:2 6:5 7:4 8:4 9:7 10:9 11:3 12:0 13:0 14:0 15:0 16:0 17:0 18:0 19:0 20:0 21:0 22:0 23:0 24:2 25:5 26:2 27:1 28:1 29:3 30:1 31:3 32:5 33:4 34:5 35:3 36:0 37:0 38:0 39:35 
-0.1186137779410754 1:0 2:0 3:0 4:0 5:3 6:4 7:4 8:5 9:4 10:7 11:3 12:0 13:0 14:0 15:0 16:0 17:0 18:0 19:0 20:0 21:3 22:4 23:3 24:0 25:1 26:3 27:1 28:2 29:3 30:4 31:4 32:2 33:0 34:0 35:0 36:0 37:0 38:0 39:30 
-0.1298131631258464 1:0 2:0 3:0 4:0 5:0 6:3 7:5 8:4 9:6 10:4 11:7 12:3 13:0 14:0 15:0 16:0 17:0 18:0 19:1 20:3 21:5 22:3 23:0 24:1 25:3 26:1 27:2 28:4 29:4 30:2 31:3 32:0 33:0 34:0 35:0 36:0 37:0 38:0 39:32 
-0.1239401795054211 1:0 2:0 3:0 4:0 5:3 6:3 7:3 8:5 9:5 10:9 11:3 12:0 13:0 14:0 15:0 16:0 17:0 18:0 19:0 20:0 21:0 22:0 23:0 24:3 25:5 26:3 27:1 28:2 29:3 30:1 31:1 32:3 33:3 34:4 35:2 36:0 37:0 38:0 39:31 
-0.03149939311814903 1:0 2:0 3:0 4:0 5:0 6:3 7:4 8:4 9:5 10:5 11:9 12:3 13:0 14:0 15:0 16:0 17:0 18:0 19:0 20:0 21:0 22:0 23:3 24:5 25:4 26:1 27:1 28:3 29:1 30:2 31:4 32:4 33:4 34:1 35:0 36:0 37:0 38:0 39:33 
-0.5 1:0 2:0 3:0 4:3 5:5 6:4 7:6 8:6 9:8 10:3 11:0 12:0 13:0 14:0 15:0 16:1 17:0 18:0 19:0 20:0 21:3 22:5 23:3 24:1 25:2 26:2 27:1 28:2 29:4 30:5 31:5 32:3 33:0 34:0 35:0 36:0 37:0 38:0 39:36 
-0.3989410990285337 1:0 2:0 3:0 4:0 5:0 6:3 7:5 8:5 9:6 10:6 11:9 12:4 13:0 14:0 15:0 16:0 17:0 18:0 19:0 20:3 21:5 22:2 23:2 24:3 25:3 26:1 27:3 28:4 29:4 30:5 31:3 32:0 33:0 34:0 35:0 36:0 37:0 38:0 39:38 
-0.2503590170218323 1:0 2:0 3:0 4:0 5:0 6:3 7:5 8:4 9:6 10:6 11:8 12:3 13:0 14:0 15:0 16:0 17:0 18:0 19:0 20:0 21:0 22:3 23:5 24:3 25:0 26:2 27:3 28:1 29:2 30:4 31:4 32:5 33:3 34:0 35:0 36:0 37:0 38:0 39:35 
-0.5 1:0 2:0 3:0 4:3 5:5 6:4 7:5 8:5 9:9 10:3 11:0 12:0 13:0 14:0 15:0 16:0 17:0 18:0 19:0 20:0 21:0 22:0 23:3 24:4 25:3 26:1 27:2 28:3 29:1 30:2 31:4 32:4 33:4 34:2 35:1 36:0 37:0 38:0 39:34 
-0.5 1:0 2:0 3:0 4:0 5:0 6:0 7:3 8:5 9:4 10:5 11:6 12:8 13:3 14:0 15:0 16:0 17:0 18:0 19:0 20:0 21:0 22:0 23:0 24:3 25:5 26:3 27:1 28:1 29:3 30:1 31:1 32:4 33:4 34:5 35:3 36:0 37:0 38:0 39:34 
-0.5 1:0 2:0 3:0 4:0 5:0 6:0 7:3 8:6 9:5 10:6 11:6 12:8 13:3 14:0 15:0 16:0 17:0 18:0 19:1 20:3 21:5 22:3 23:1 24:2 25:3 26:1 27:2 28:4 29:4 30:5 31:3 32:0 33:0 34:0 35:0 36:0 37:0 38:0 39:37 
-0.2839616674927481 1:0 2:0 3:0 4:0 5:0 6:2 7:4 8:4 9:5 10:6 11:9 12:2 13:0 14:0 15:0 16:0 17:0 18:0 19:0 20:0 21:0 22:3 23:4 24:1 25:1 26:2 27:3 28:1 29:2 30:4 31:3 32:5 33:3 34:0 35:0 36:0 37:0 38:0 39:32 
-0.3271560272885325 1:0 2:0 3:0 4:0 5:0 6:0 7:3 8:6 9:4 10:6 11:6 12:9 13:2 14:0 15:0 16:0 17:0 18:0 19:0 20:0 21:0 22:0 23:0 24:3 25:5 26:3 27:1 28:2 29:3 30:1 31:2 32:4 33:3 34:5 35:4 36:0 37:0 38:0 39:36 
-0.424610581925793 1:0 2:0 3:0 4:0 5:0 6:0 7:3 8:4 9:4 10:6 11:6 12:9 13:2 14:0 15:0 16:0 17:0 18:0 19:0 20:0 21:0 22:0 23:3 24:5 25:3 26:1 27:2 28:3 29:1 30:2 31:2 32:4 33:5 34:3 35:0 36:0 37:0 38:0 39:34 
