svm_type c_svc
kernel_type rbf
gamma 0.03125
nr_class 2
total_sv 66
rho 0.108118
label 0 1
probA -6.11702
probB 0.377919
nr_sv 35 31
SV
0.09210469037970892 1:0 2:0 3:0 4:0 5:2 6:4 7:4 8:5 9:5 10:9 11:3 12:0 13:0 14:0 15:0 16:0 17:0 18:0 19:0 20:0 21:0 22:0 23:3 24:5 25:3 26:1 27:2 28:3 29:1 30:2 31:2 32:4 33:5 34:1 35:0 36:0 37:0 38:0 39:32 
0.4474544042825759 1:0 2:0 3:0 4:0 5:0 6:3 7:5 8:4 9:4 10:6 11:9 12:3 13:0 14:0 15:0 16:0 17:0 18:0 19:0 20:0 21:0 22:0 23:3 24:5 25:3 26:1 27:1 28:2 29:1 30:2 31:4 32:4 33:5 34:3 35:0 36:0 37:0 38:0 39:34 
0.583143110812108 1:0 2:0 3:0 4:3 5:5 6:4 7:5 8:4 9:9 10:4 11:0 12:0 13:0 14:0 15:0 16:0 17:0 18:0 19:0 20:0 21:0 22:2 23:5 24:3 25:1 26:2 27:2 28:2 29:2 30:4 31:4 32:5 33:2 34:0 35:0 36:0 37:0 38:0 39:34 
0.4593928376737805 1:0 2:0 3:0 4:0 5:0 6:0 7:3 8:5 9:4 10:5 11:6 12:7 13:3 14:0 15:0 16:0 17:0 18:0 19:0 20:0 21:0 22:0 23:0 24:3 25:5 26:3 27:1 28:1 29:3 30:0 31:1 32:4 33:4 34:5 35:3 36:0 37:0 38:0 39:33 
0.1109818909549284 1:0 2:0 3:0 4:0 5:1 6:2 7:5 8:4 9:6 10:5 11:8 12:3 13:0 14:0 15:0 16:0 17:0 18:0 19:0 20:3 21:5 22:2 23:1 24:2 25:3 26:0 27:2 28:4 29:5 30:5 31:2 32:0 33:0 34:0 35:0 36:0 37:0 38:0 39:34 
0.1321847169726263 1:0 2:0 3:0 4:0 5:0 6:3 7:5 8:4 9:5 10:6 11:8 12:3 13:0 14:0 15:0 16:0 17:0 18:0 19:0 20:0 21:0 22:0 23:0 24:3 25:5 26:3 27:1 28:1 29:3 30:1 31:1 32:4 33:4 34:5 35:3 36:0 37:0 38:0 39:34 
0.4850544443801633 1:0 2:0 3:0 4:0 5:3 6:6 7:5 8:5 9:5 10:8 11:3 12:0 13:0 14:0 15:0 16:0 17:0 18:0 19:0 20:0 21:0 22:0 23:3 24:5 25:3 26:2 27:1 28:2 29:1 30:2 31:5 32:4 33:4 34:3 35:0 36:0 37:0 38:0 39:35 
0.5516772022178325 1:0 2:0 3:0 4:0 5:2 6:4 7:3 8:5 9:5 10:7 11:2 12:0 13:0 14:0 15:0 16:0 17:0 18:0 19:0 20:0 21:0 22:3 23:3 24:3 25:1 26:2 27:3 28:0 29:2 30:2 31:3 32:4 33:2 34:0 35:0 36:0 37:0 38:0 39:28 
0.3755975910672463 1:0 2:0 3:0 4:0 5:0 6:2 7:5 8:4 9:6 10:6 11:8 12:2 13:0 14:0 15:0 16:0 17:0 18:0 19:0 20:0 21:3 22:5 23:2 24:1 25:2 26:3 27:1 28:1 29:4 30:4 31:3 32:3 33:1 34:0 35:0 36:0 37:0 38:0 39:33 
0.05854640163029497 1:0 2:0 3:0 4:0 5:0 6:3 7:5 8:4 9:6 10:6 11:9 12:3 13:0 14:0 15:0 16:0 17:0 18:0 19:0 20:3 21:5 22:3 23:1 24:2 25:3 26:2 27:2 28:3 29:4 30:5 31:3 32:0 33:0 34:0 35:0 36:0 37:0 38:0 39:36 
0.6352397635686774 1:0 2:0 3:0 4:0 5:0 6:2 7:5 8:3 9:7 10:7 11:9 12:2 13:0 14:0 15:0 16:0 17:0 18:0 19:0 20:0 21:0 22:0 23:1 24:3 25:5 26:3 27:1 28:2 29:3 30:2 31:2 32:3 33:3 34:4 35:3 36:0 37:0 38:0 39:35 
0.1525391302673842 1:0 2:0 3:0 4:0 5:3 6:5 7:4 8:5 9:6 10:9 11:3 12:0 13:0 14:0 15:0 16:0 17:0 18:0 19:0 20:3 21:4 22:3 23:1 24:2 25:3 26:1 27:2 28:4 29:4 30:5 31:3 32:0 33:0 34:0 35:0 36:0 37:0 38:0 39:35 
0.6524587828937736 1:0 2:0 3:0 4:0 5:0 6:3 7:5 8:3 9:6 10:4 11:6 12:1 13:0 14:0 15:0 16:0 17:0 18:0 19:0 20:0 21:3 22:3 23:3 24:0 25:1 26:3 27:1 28:2 29:3 30:2 31:4 32:3 33:0 34:0 35:0 36:0 37:0 38:0 39:28 
0.8089053188249025 1:0 2:0 3:0 4:1 5:2 6:5 7:4 8:4 9:7 10:9 11:3 12:0 13:0 14:0 15:0 16:0 17:0 18:0 19:0 20:0 21:0 22:0 23:0 24:2 25:5 26:2 27:1 28:1 29:3 30:1 31:3 32:5 33:4 34:5 35:3 36:0 37:0 38:0 39:35 
0.3142788357955215 1:0 2:0 3:0 4:0 5:3 6:4 7:4 8:5 9:4 10:7 11:3 12:0 13:0 14:0 15:0 16:0 17:0 18:0 19:0 20:0 21:3 22:4 23:3 24:0 25:1 26:3 27:1 28:2 29:3 30:4 31:4 32:2 33:0 34:0 35:0 36:0 37:0 38:0 39:30 
0.3384706832690333 1:0 2:0 3:0 4:0 5:0 6:3 7:5 8:4 9:6 10:4 11:7 12:3 13:0 14:0 15:0 16:0 17:0 18:0 19:1 20:3 21:5 22:3 23:0 24:1 25:3 26:1 27:2 28:4 29:4 30:2 31:3 32:0 33:0 34:0 35:0 36:0 37:0 38:0 39:32 
0.003330685734622356 1:0 2:0 3:0 4:0 5:0 6:3 7:4 8:4 9:6 10:6 11:9 12:2 13:0 14:0 15:0 16:0 17:0 18:0 19:0 20:3 21:5 22:2 23:1 24:2 25:3 26:1 27:2 28:4 29:3 30:5 31:3 32:0 33:0 34:0 35:0 36:0 37:0 38:0 39:34 
0.5629833037010491 1:0 2:0 3:0 4:0 5:3 6:3 7:3 8:5 9:5 10:9 11:3 12:0 13:0 14:0 15:0 16:0 17:0 18:0 19:0 20:0 21:0 22:0 23:0 24:3 25:5 26:3 27:1 28:2 29:3 30:1 31:1 32:3 33:3 34:4 35:2 36:0 37:0 38:0 39:31 
0.6610497585287767 1:0 2:0 3:0 4:0 5:3 6:5 7:4 8:7 9:6 10:8 11:3 12:0 13:0 14:0 15:0 16:0 17:0 18:0 19:0 20:0 21:3 22:5 23:4 24:2 25:2 26:3 27:1 28:1 29:3 30:4 31:5 32:3 33:0 34:0 35:0 36:0 37:0 38:0 39:36 
0.2914433781398123 1:0 2:0 3:0 4:0 5:0 6:3 7:4 8:4 9:5 10:5 11:9 12:3 13:0 14:0 15:0 16:0 17:0 18:0 19:0 20:0 21:0 22:0 23:3 24:5 25:4 26:1 27:1 28:3 29:1 30:2 31:4 32:4 33:4 34:1 35:0 36:0 37:0 38:0 39:33 
0.7366384760866536 1:0 2:0 3:0 4:0 5:2 6:4 7:4 8:6 9:6 10:10 11:3 12:0 13:0 14:0 15:0 16:0 17:0 18:0 19:1 20:3 21:4 22:2 23:1 24:2 25:3 26:1 27:2 28:4 29:4 30:5 31:3 32:0 33:0 34:0 35:0 36:0 37:0 38:0 39:35 
0.2732874706513446 1:0 2:0 3:0 4:0 5:2 6:4 7:4 8:6 9:6 10:7 11:3 12:0 13:0 14:0 15:0 16:0 17:0 18:0 19:0 20:0 21:0 22:3 23:5 24:1 25:1 26:2 27:3 28:1 29:1 30:4 31:3 32:5 33:3 34:0 35:0 36:0 37:0 38:0 39:32 
0.8900572698855099 1:0 2:0 3:0 4:3 5:5 6:4 7:6 8:6 9:8 10:3 11:0 12:0 13:0 14:0 15:0 16:1 17:0 18:0 19:0 20:0 21:3 22:5 23:3 24:1 25:2 26:2 27:1 28:2 29:4 30:5 31:5 32:3 33:0 34:0 35:0 36:0 37:0 38:0 39:36 
0.4652006504229689 1:0 2:0 3:0 4:0 5:2 6:5 7:2 8:6 9:6 10:7 11:3 12:0 13:0 14:0 15:0 16:0 17:0 18:0 19:0 20:3 21:4 22:3 23:0 24:2 25:3 26:1 27:1 28:4 29:3 30:4 31:3 32:0 33:0 34:0 35:0 36:0 37:0 38:0 39:31 
0.7808312220239279 1:0 2:0 3:0 4:0 5:0 6:3 7:5 8:5 9:6 10:6 11:9 12:4 13:0 14:0 15:0 16:0 17:0 18:0 19:0 20:3 21:5 22:2 23:2 24:3 25:3 26:1 27:3 28:4 29:4 30:5 31:3 32:0 33:0 34:0 35:0 36:0 37:0 38:0 39:38 
0.6235612979347021 1:0 2:0 3:0 4:0 5:0 6:3 7:5 8:4 9:6 10:6 11:8 12:3 13:0 14:0 15:0 16:0 17:0 18:0 19:0 20:0 21:0 22:3 23:5 24:3 25:0 26:2 27:3 28:1 29:2 30:4 31:4 32:5 33:3 34:0 35:0 36:0 37:0 38:0 39:35 
0.4760904635403386 1:0 2:0 3:0 4:0 5:0 6:1 7:4 8:4 9:6 10:5 11:8 12:2 13:1 14:0 15:0 16:0 17:0 18:0 19:0 20:3 21:5 22:1 23:1 24:2 25:3 26:1 27:2 28:4 29:3 30:3 31:3 32:0 33:0 34:0 35:0 36:0 37:0 38:0 39:31 
0.1405749340350674 1:0 2:0 3:0 4:0 5:0 6:2 7:5 8:4 9:6 10:7 11:8 12:3 13:0 14:0 15:0 16:0 17:0 18:0 19:0 20:0 21:0 22:1 23:1 24:2 25:5 26:1 27:1 28:2 29:3 30:1 31:2 32:4 33:4 34:5 35:3 36:0 37:0 38:0 39:35 
0.7672732254125952 1:0 2:0 3:0 4:3 5:5 6:4 7:5 8:5 9:9 10:3 11:0 12:0 13:0 14:0 15:0 16:0 17:0 18:0 19:0 20:0 21:0 22:0 23:3 24:4 25:3 26:1 27:2 28:3 29:1 30:2 31:4 32:4 33:4 34:2 35:1 36:0 37:0 38:0 39:34 
0.9456357683452861 1:0 2:0 3:0 4:0 5:0 6:0 7:3 8:6 9:5 10:6 11:6 12:8 13:3 14:0 15:0 16:0 17:0 18:0 19:1 20:3 21:5 22:3 23:1 24:2 25:3 26:1 27:2 28:4 29:4 30:5 31:3 32:0 33:0 34:0 35:0 36:0 37:0 38:0 39:37 
0.4005582593475833 1:0 2:0 3:0 4:0 5:1 6:4 7:3 8:4 9:6 10:9 11:3 12:0 13:0 14:0 15:0 16:0 17:0 18:0 19:0 20:0 21:0 22:0 23:3 24:5 25:2 26:1 27:1 28:3 29:1 30:2 31:3 32:4 33:3 34:2 35:0 36:0 37:0 38:0 39:30 
0.4462968560548627 1:0 2:0 3:0 4:0 5:0 6:2 7:4 8:4 9:5 10:6 11:9 12:2 13:0 14:0 15:0 16:0 17:0 18:0 19:0 20:0 21:0 22:3 23:4 24:1 25:1 26:2 27:3 28:1 29:2 30:4 31:3 32:5 33:3 34:0 35:0 36:0 37:0 38:0 39:32 
0.6732934877204753 1:0 2:0 3:0 4:0 5:0 6:0 7:3 8:6 9:4 10:6 11:6 12:9 13:2 14:0 15:0 16:0 17:0 18:0 19:0 20:0 21:0 22:0 23:0 24:3 25:5 26:3 27:1 28:2 29:3 30:1 31:2 32:4 33:3 34:5 35:4 36:0 37:0 38:0 39:36 
0.8109044749930034 1:0 2:0 3:0 4:0 5:0 6:0 7:3 8:4 9:4 10:6 11:6 12:9 13:2 14:0 15:0 16:0 17:0 18:0 19:0 20:0 21:0 22:0 23:3 24:5 25:3 26:1 27:2 28:3 29:1 30:2 31:2 32:4 33:5 34:3 35:0 36:0 37:0 38:0 39:34 
0.2584150020114306 1:0 2:0 3:0 4:0 5:3 6:5 7:4 8:4 9:4 10:7 11:3 12:0 13:0 14:0 15:0 16:0 17:0 18:0 19:0 20:0 21:0 22:0 23:3 24:5 25:3 26:1 27:1 28:1 29:1 30:1 31:3 32:4 33:5 34:2 35:0 36:0 37:0 38:0 39:30 
-0.1265045442580847 1:0 2:0 3:0 4:0 5:4 6:4 7:4 8:3 9:10 10:12 11:2 12:0 13:0 14:0 15:0 16:0 17:0 18:0 19:0 20:2 21:2 22:2 23:3 24:4 25:3 26:3 27:2 28:7 29:7 30:2 31:2 32:0 33:0 34:0 35:0 36:0 37:0 38:0 39:39 
-0.8164050674784309 1:6 2:0 3:0 4:0 5:0 6:3 7:5 8:4 9:3 10:10 11:12 12:2 13:0 14:0 15:0 16:0 17:0 18:0 19:0 20:0 21:0 22:0 23:1 24:1 25:2 26:4 27:4 28:4 29:4 30:4 31:4 32:7 33:6 34:2 35:2 36:0 37:0 38:0 39:45 
-0.8147634477845402 1:6 2:0 3:0 4:0 5:3 6:4 7:4 8:5 9:11 10:10 11:2 12:0 13:0 14:0 15:0 16:0 17:0 18:0 19:0 20:0 21:0 22:2 23:3 24:3 25:3 26:3 27:5 28:3 29:4 30:8 31:7 32:2 33:2 34:0 35:0 36:0 37:0 38:0 39:45 
-0.6102327355564637 1:0 2:0 3:0 4:0 5:3 6:4 7:3 8:4 9:10 10:11 11:2 12:0 13:0 14:0 15:0 16:0 17:0 18:0 19:0 20:0 21:2 22:2 23:3 24:4 25:3 26:2 27:2 28:3 29:6 30:6 31:2 32:2 33:0 34:0 35:0 36:0 37:0 38:0 39:37 
-0.5879422818374056 1:0 2:0 3:0 4:0 5:0 6:0 7:3 8:3 9:4 10:4 11:11 12:10 13:2 14:0 15:0 16:0 17:0 18:0 19:0 20:1 21:2 22:3 23:4 24:3 25:2 26:3 27:3 28:7 29:6 30:1 31:2 32:0 33:0 34:0 35:0 36:0 37:0 38:0 39:37 
-0.8061731252076263 1:0 2:0 3:0 4:3 5:4 6:3 7:4 8:12 9:11 10:2 11:0 12:0 13:0 14:0 15:0 16:0 17:0 18:0 19:0 20:0 21:0 22:2 23:2 24:3 25:4 26:2 27:3 28:3 29:3 30:6 31:7 32:2 33:2 34:0 35:0 36:0 37:0 38:0 39:39 
-0.3661486998200692 1:0 2:0 3:0 4:0 5:0 6:0 7:2 8:3 9:4 10:5 11:12 12:12 13:2 14:0 15:0 16:0 17:0 18:0 19:0 20:0 21:2 22:2 23:3 24:4 25:3 26:2 27:3 28:3 29:7 30:6 31:3 32:2 33:0 34:0 35:0 36:0 37:0 38:0 39:40 
-0.2985962030153465 1:0 2:0 3:0 4:0 5:0 6:0 7:3 8:3 9:4 10:4 11:12 12:10 13:2 14:0 15:0 16:0 17:0 18:0 19:0 20:2 21:2 22:3 23:4 24:3 25:3 26:2 27:3 28:6 29:7 30:2 31:1 32:0 33:0 34:0 35:0 36:0 37:0 38:0 39:38 
-0.8897223391974057 1:0 2:0 3:0 4:0 5:0 6:3 7:4 8:4 9:5 10:9 11:10 12:1 13:0 14:0 15:0 16:0 17:0 18:0 19:0 20:0 21:0 22:0 23:1 24:2 25:2 26:2 27:4 28:2 29:3 30:4 31:3 32:6 33:6 34:1 35:0 36:0 37:0 38:0 39:36 
-0.5799797855720362 1:0 2:0 3:0 4:0 5:0 6:0 7:3 8:4 9:4 10:3 11:11 12:11 13:2 14:0 15:0 16:0 17:0 18:0 19:0 20:0 21:2 22:2 23:1 24:4 25:3 26:3 27:3 28:3 29:7 30:7 31:1 32:2 33:0 34:0 35:0 36:0 37:0 38:0 39:38 
-0.5445307639552647 1:0 2:0 3:0 4:1 5:5 6:5 7:3 8:12 9:12 10:2 11:0 12:0 13:0 14:0 15:0 16:0 17:0 18:0 19:0 20:1 21:2 22:2 23:3 24:4 25:3 26:3 27:3 28:3 29:7 30:5 31:2 32:2 33:0 34:0 35:0 36:0 37:0 38:0 39:40 
-0.5236023472093777 1:0 2:0 3:0 4:0 5:0 6:3 7:4 8:3 9:4 10:12 11:9 12:2 13:0 14:0 15:0 16:0 17:0 18:0 19:0 20:0 21:0 22:0 23:2 24:1 25:3 26:3 27:2 28:3 29:2 30:3 31:7 32:7 33:2 34:2 35:0 36:0 37:0 38:0 39:37 
-0.3067771568947117 1:0 2:0 3:0 4:0 5:0 6:2 7:3 8:3 9:4 10:12 11:11 12:2 13:0 14:0 15:0 16:0 17:0 18:0 19:0 20:0 21:0 22:0 23:0 24:2 25:2 26:3 27:2 28:3 29:2 30:3 31:3 32:6 33:7 34:2 35:2 36:0 37:0 38:0 39:37 
-1.012354026615883 1:0 2:0 3:0 4:0 5:2 6:2 7:2 8:3 9:11 10:9 11:2 12:0 13:0 14:0 15:0 16:0 17:0 18:0 19:0 20:0 21:0 22:0 23:0 24:2 25:2 26:2 27:2 28:1 29:1 30:3 31:3 32:7 33:4 34:2 35:2 36:0 37:0 38:0 39:31 
-0.5844705542266782 1:0 2:0 3:0 4:0 5:0 6:0 7:2 8:4 9:3 10:4 11:12 12:11 13:2 14:0 15:0 16:0 17:0 18:0 19:0 20:0 21:0 22:2 23:2 24:3 25:2 26:3 27:3 28:3 29:3 30:6 31:7 32:2 33:2 34:0 35:0 36:0 37:0 38:0 39:38 
-1.001272070195835 1:0 2:0 3:0 4:0 5:0 6:2 7:4 8:2 9:3 10:10 11:10 12:2 13:0 14:0 15:0 16:0 17:0 18:0 19:0 20:0 21:2 22:2 23:1 24:3 25:3 26:3 27:3 28:3 29:5 30:7 31:1 32:0 33:0 34:0 35:0 36:0 37:0 38:0 39:33 
-0.3463868956946175 1:0 2:0 3:0 4:0 5:3 6:4 7:3 8:4 9:11 10:12 11:2 12:0 13:0 14:0 15:0 16:0 17:0 18:0 19:0 20:2 21:2 22:3 23:3 24:3 25:3 26:3 27:3 28:7 29:7 30:1 31:2 32:0 33:0 34:0 35:0 36:0 37:0 38:0 39:39 
-0.3344295227754354 1:1 2:0 3:0 4:0 5:3 6:4 7:4 8:2 9:12 10:12 11:2 12:0 13:0 14:0 15:0 16:0 17:0 18:0 19:0 20:0 21:2 22:2 23:2 24:4 25:3 26:3 27:3 28:3 29:7 30:6 31:2 32:2 33:0 34:0 35:1 36:0 37:0 38:0 39:40 
-0.5578017620933081 1:0 2:0 3:0 4:0 5:0 6:3 7:4 8:4 9:4 10:12 11:11 12:2 13:0 14:0 15:0 16:0 17:0 18:0 19:0 20:2 21:2 22:3 23:4 24:3 25:3 26:2 27:3 28:7 29:7 30:2 31:2 32:0 33:0 34:0 35:0 36:0 37:0 38:0 39:40 
-0.4105266081817887 1:0 2:0 3:0 4:0 5:0 6:3 7:4 8:2 9:4 10:10 11:12 12:2 13:0 14:0 15:0 16:0 17:0 18:0 19:0 20:0 21:0 22:0 23:1 24:2 25:2 26:3 27:2 28:3 29:3 30:3 31:7 32:7 33:2 34:2 35:0 36:0 37:0 38:0 39:37 
-0.1605215633929514 1:0 2:0 3:0 4:0 5:3 6:4 7:4 8:4 9:11 10:12 11:2 12:0 13:0 14:0 15:0 16:0 17:0 18:0 19:0 20:0 21:0 22:2 23:2 24:3 25:4 26:3 27:2 28:3 29:3 30:7 31:7 32:2 33:2 34:0 35:0 36:0 37:0 38:0 39:40 
-0.3603033094053534 1:0 2:0 3:0 4:0 5:3 6:3 7:3 8:3 9:10 10:12 11:2 12:0 13:0 14:0 15:0 16:0 17:0 18:0 19:0 20:0 21:0 22:0 23:1 24:2 25:3 26:3 27:3 28:3 29:3 30:3 31:7 32:5 33:2 34:1 35:0 36:0 37:0 38:0 39:36 
-0.5242814997003497 1:0 2:0 3:0 4:0 5:2 6:3 7:4 8:4 9:10 10:12 11:2 12:0 13:0 14:0 15:0 16:0 17:0 18:0 19:0 20:2 21:2 22:3 23:4 24:3 25:3 26:1 27:1 28:7 29:7 30:2 31:2 32:0 33:0 34:0 35:0 36:0 37:0 38:0 39:37 
-0.5982176775750851 1:0 2:0 3:0 4:3 5:3 6:3 7:4 8:11 9:12 10:2 11:0 12:0 13:0 14:0 15:0 16:0 17:0 18:0 19:0 20:0 21:2 22:2 23:3 24:3 25:3 26:3 27:2 28:3 29:7 30:7 31:1 32:2 33:0 34:0 35:0 36:0 37:0 38:0 39:38 
-0.6834511692162355 1:0 2:0 3:0 4:0 5:3 6:4 7:3 8:4 9:12 10:8 11:2 12:0 13:0 14:0 15:0 16:0 17:0 18:0 19:0 20:0 21:0 22:0 23:2 24:2 25:2 26:3 27:3 28:2 29:3 30:2 31:6 32:7 33:2 34:2 35:0 36:0 37:0 38:0 39:36 
-0.05398412527044323 1:0 2:0 3:0 4:0 5:3 6:4 7:5 8:3 9:11 10:12 11:2 12:0 13:0 14:0 15:0 16:0 17:0 18:0 19:0 20:0 21:2 22:2 23:3 24:4 25:3 26:3 27:4 28:3 29:6 30:6 31:2 32:2 33:0 34:0 35:0 36:0 37:0 38:0 39:40 
-0.7902419456421461 1:0 2:0 3:0 4:0 5:0 6:0 7:3 8:4 9:4 10:4 11:11 12:10 13:2 14:0 15:0 16:0 17:0 18:0 19:0 20:0 21:0 22:0 23:2 24:2 25:2 26:4 27:3 28:2 29:2 30:3 31:7 32:7 33:2 34:2 35:0 36:0 37:0 38:0 39:38 
-0.4069567541347863 1:0 2:0 3:0 4:0 5:0 6:3 7:4 8:4 9:4 10:12 11:12 12:2 13:0 14:0 15:0 16:0 17:0 18:0 19:0 20:0 21:0 22:0 23:0 24:2 25:2 26:3 27:4 28:3 29:3 30:3 31:3 32:7 33:7 34:2 35:2 36:0 37:0 38:0 39:41 
-0.5692818561679543 1:0 2:0 3:0 4:0 5:0 6:3 7:4 8:4 9:4 10:10 11:10 12:2 13:0 14:0 15:0 16:0 17:0 18:0 19:0 20:1 21:1 22:3 23:4 24:3 25:3 26:2 27:2 28:7 29:7 30:2 31:2 32:0 33:0 34:0 35:0 36:0 37:0 38:0 39:37 
-0.3933074393221072 1:0 2:0 3:0 4:0 5:3 6:4 7:4 8:4 9:12 10:11 11:2 12:0 13:0 14:0 15:0 16:0 17:0 18:0 19:0 20:0 21:0 22:2 23:2 24:3 25:4 26:3 27:3 28:3 29:2 30:7 31:7 32:2 33:2 34:0 35:0 36:0 37:0 38:0 39:40 
-0.3462885121628463 1:0 2:0 3:0 4:0 5:3 6:3 7:4 8:4 9:12 10:12 11:2 12:0 13:0 14:0 15:0 16:0 17:0 18:0 19:0 20:0 21:0 22:0 23:2 24:2 25:3 26:4 27:3 28:3 29:3 30:3 31:7 32:6 33:2 34:2 35:0 36:0 37:0 38:0 39:40 
