svm_type c_svc
kernel_type rbf
gamma 0.0078125
nr_class 2
total_sv 43
rho -0.850047
label 0 1
probA -4.29982
probB -0.233755
nr_sv 22 21
SV
0.08061901333911668 1:0 2:0 3:0 4:0 5:2 6:4 7:4 8:5 9:5 10:9 11:3 12:0 13:0 14:0 15:0 16:0 17:0 18:0 19:0 20:0 21:0 22:0 23:3 24:5 25:3 26:1 27:2 28:3 29:1 30:2 31:2 32:4 33:5 34:1 35:0 36:0 37:0 38:0 39:32 
0.5 1:0 2:0 3:0 4:3 5:5 6:4 7:5 8:4 9:9 10:4 11:0 12:0 13:0 14:0 15:0 16:0 17:0 18:0 19:0 20:0 21:0 22:2 23:5 24:3 25:1 26:2 27:2 28:2 29:2 30:4 31:4 32:5 33:2 34:0 35:0 36:0 37:0 38:0 39:34 
0.5 1:0 2:0 3:0 4:0 5:0 6:0 7:3 8:5 9:4 10:5 11:6 12:7 13:3 14:0 15:0 16:0 17:0 18:0 19:0 20:0 21:0 22:0 23:0 24:3 25:5 26:3 27:1 28:1 29:3 30:0 31:1 32:4 33:4 34:5 35:3 36:0 37:0 38:0 39:33 
0.4519777979562428 1:0 2:0 3:0 4:0 5:1 6:2 7:5 8:4 9:6 10:5 11:8 12:3 13:0 14:0 15:0 16:0 17:0 18:0 19:0 20:3 21:5 22:2 23:1 24:2 25:3 26:0 27:2 28:4 29:5 30:5 31:2 32:0 33:0 34:0 35:0 36:0 37:0 38:0 39:34 
0.1108110119150576 1:0 2:0 3:0 4:0 5:3 6:6 7:5 8:5 9:5 10:8 11:3 12:0 13:0 14:0 15:0 16:0 17:0 18:0 19:0 20:0 21:0 22:0 23:3 24:5 25:3 26:2 27:1 28:2 29:1 30:2 31:5 32:4 33:4 34:3 35:0 36:0 37:0 38:0 39:35 
0.5 1:0 2:0 3:0 4:0 5:2 6:4 7:3 8:5 9:5 10:7 11:2 12:0 13:0 14:0 15:0 16:0 17:0 18:0 19:0 20:0 21:0 22:3 23:3 24:3 25:1 26:2 27:3 28:0 29:2 30:2 31:3 32:4 33:2 34:0 35:0 36:0 37:0 38:0 39:28 
0.05640908533950374 1:0 2:0 3:0 4:0 5:3 6:5 7:4 8:5 9:6 10:9 11:3 12:0 13:0 14:0 15:0 16:0 17:0 18:0 19:0 20:3 21:4 22:3 23:1 24:2 25:3 26:1 27:2 28:4 29:4 30:5 31:3 32:0 33:0 34:0 35:0 36:0 37:0 38:0 39:35 
0.5 1:0 2:0 3:0 4:0 5:0 6:3 7:5 8:3 9:6 10:4 11:6 12:1 13:0 14:0 15:0 16:0 17:0 18:0 19:0 20:0 21:3 22:3 23:3 24:0 25:1 26:3 27:1 28:2 29:3 30:2 31:4 32:3 33:0 34:0 35:0 36:0 37:0 38:0 39:28 
0.5 1:0 2:0 3:0 4:0 5:3 6:4 7:4 8:5 9:4 10:7 11:3 12:0 13:0 14:0 15:0 16:0 17:0 18:0 19:0 20:0 21:3 22:4 23:3 24:0 25:1 26:3 27:1 28:2 29:3 30:4 31:4 32:2 33:0 34:0 35:0 36:0 37:0 38:0 39:30 
0.5 1:0 2:0 3:0 4:0 5:0 6:3 7:5 8:4 9:6 10:4 11:7 12:3 13:0 14:0 15:0 16:0 17:0 18:0 19:1 20:3 21:5 22:3 23:0 24:1 25:3 26:1 27:2 28:4 29:4 30:2 31:3 32:0 33:0 34:0 35:0 36:0 37:0 38:0 39:32 
0.5 1:0 2:0 3:0 4:0 5:3 6:3 7:3 8:5 9:5 10:9 11:3 12:0 13:0 14:0 15:0 16:0 17:0 18:0 19:0 20:0 21:0 22:0 23:0 24:3 25:5 26:3 27:1 28:2 29:3 30:1 31:1 32:3 33:3 34:4 35:2 36:0 37:0 38:0 39:31 
0.5 1:0 2:0 3:0 4:0 5:0 6:3 7:4 8:4 9:5 10:5 11:9 12:3 13:0 14:0 15:0 16:0 17:0 18:0 19:0 20:0 21:0 22:0 23:3 24:5 25:4 26:1 27:1 28:3 29:1 30:2 31:4 32:4 33:4 34:1 35:0 36:0 37:0 38:0 39:33 
0.1056443337562 1:0 2:0 3:0 4:0 5:2 6:4 7:4 8:6 9:6 10:7 11:3 12:0 13:0 14:0 15:0 16:0 17:0 18:0 19:0 20:0 21:0 22:3 23:5 24:1 25:1 26:2 27:3 28:1 29:1 30:4 31:3 32:5 33:3 34:0 35:0 36:0 37:0 38:0 39:32 
0.4149725672639051 1:0 2:0 3:0 4:3 5:5 6:4 7:6 8:6 9:8 10:3 11:0 12:0 13:0 14:0 15:0 16:1 17:0 18:0 19:0 20:0 21:3 22:5 23:3 24:1 25:2 26:2 27:1 28:2 29:4 30:5 31:5 32:3 33:0 34:0 35:0 36:0 37:0 38:0 39:36 
0.5 1:0 2:0 3:0 4:0 5:2 6:5 7:2 8:6 9:6 10:7 11:3 12:0 13:0 14:0 15:0 16:0 17:0 18:0 19:0 20:3 21:4 22:3 23:0 24:2 25:3 26:1 27:1 28:4 29:3 30:4 31:3 32:0 33:0 34:0 35:0 36:0 37:0 38:0 39:31 
0.5 1:0 2:0 3:0 4:0 5:0 6:1 7:4 8:4 9:6 10:5 11:8 12:2 13:1 14:0 15:0 16:0 17:0 18:0 19:0 20:3 21:5 22:1 23:1 24:2 25:3 26:1 27:2 28:4 29:3 30:3 31:3 32:0 33:0 34:0 35:0 36:0 37:0 38:0 39:31 
0.5 1:0 2:0 3:0 4:3 5:5 6:4 7:5 8:5 9:9 10:3 11:0 12:0 13:0 14:0 15:0 16:0 17:0 18:0 19:0 20:0 21:0 22:0 23:3 24:4 25:3 26:1 27:2 28:3 29:1 30:2 31:4 32:4 33:4 34:2 35:1 36:0 37:0 38:0 39:34 
0.4038043379754894 1:0 2:0 3:0 4:0 5:0 6:0 7:3 8:5 9:4 10:5 11:6 12:8 13:3 14:0 15:0 16:0 17:0 18:0 19:0 20:0 21:0 22:0 23:0 24:3 25:5 26:3 27:1 28:1 29:3 30:1 31:1 32:4 33:4 34:5 35:3 36:0 37:0 38:0 39:34 
0.3063717442077271 1:0 2:0 3:0 4:0 5:0 6:0 7:3 8:6 9:5 10:6 11:6 12:8 13:3 14:0 15:0 16:0 17:0 18:0 19:1 20:3 21:5 22:3 23:1 24:2 25:3 26:1 27:2 28:4 29:4 30:5 31:3 32:0 33:0 34:0 35:0 36:0 37:0 38:0 39:37 
0.5 1:0 2:0 3:0 4:0 5:0 6:2 7:4 8:4 9:5 10:6 11:9 12:2 13:0 14:0 15:0 16:0 17:0 18:0 19:0 20:0 21:0 22:3 23:4 24:1 25:1 26:2 27:3 28:1 29:2 30:4 31:3 32:5 33:3 34:0 35:0 36:0 37:0 38:0 39:32 
0.5 1:0 2:0 3:0 4:0 5:0 6:0 7:3 8:4 9:4 10:6 11:6 12:9 13:2 14:0 15:0 16:0 17:0 18:0 19:0 20:0 21:0 22:0 23:3 24:5 25:3 26:1 27:2 28:3 29:1 30:2 31:2 32:4 33:5 34:3 35:0 36:0 37:0 38:0 39:34 
0.5 1:0 2:0 3:0 4:0 5:3 6:5 7:4 8:4 9:4 10:7 11:3 12:0 13:0 14:0 15:0 16:0 17:0 18:0 19:0 20:0 21:0 22:0 23:3 24:5 25:3 26:1 27:1 28:1 29:1 30:1 31:3 32:4 33:5 34:2 35:0 36:0 37:0 38:0 39:30 
-0.5 1:0 2:0 3:0 4:2 5:6 6:3 7:4 8:2 9:4 10:4 11:1 12:2 13:0 14:0 15:0 16:0 17:0 18:0 19:1 20:2 21:3 22:2 23:1 24:1 25:2 26:2 27:3 28:3 29:4 30:2 31:2 32:0 33:0 34:0 35:0 36:0 37:0 38:0 39:28 
-0.5 1:0 2:0 3:0 4:0 5:0 6:3 7:5 8:3 9:4 10:3 11:4 12:2 13:3 14:2 15:0 16:0 17:0 18:0 19:0 20:0 21:0 22:0 23:2 24:4 25:2 26:2 27:3 28:2 29:2 30:1 31:3 32:3 33:3 34:2 35:0 36:0 37:0 38:0 39:29 
-0.5 1:0 2:0 3:0 4:0 5:3 6:5 7:4 8:4 9:3 10:4 11:4 12:4 13:2 14:0 15:0 16:0 17:0 18:0 19:0 20:0 21:0 22:0 23:2 24:3 25:3 26:2 27:3 28:4 29:2 30:3 31:3 32:3 33:3 34:2 35:0 36:0 37:0 38:0 39:33 
-0.5 1:0 2:0 3:0 4:3 5:4 6:3 7:4 8:3 9:4 10:3 11:4 12:2 13:0 14:0 15:0 16:0 17:0 18:0 19:0 20:2 21:3 22:3 23:2 24:2 25:3 26:1 27:3 28:3 29:3 30:3 31:2 32:0 33:0 34:0 35:0 36:0 37:0 38:0 39:30 
-0.5 1:0 2:0 3:0 4:0 5:3 6:5 7:4 8:5 9:3 10:4 11:3 12:4 13:2 14:0 15:0 16:0 17:0 18:0 19:0 20:2 21:4 22:3 23:2 24:3 25:2 26:2 27:3 28:3 29:2 30:3 31:2 32:0 33:2 34:0 35:0 36:0 37:0 38:0 39:33 
-0.5 1:0 2:0 3:0 4:3 5:5 6:4 7:4 8:3 9:4 10:3 11:4 12:2 13:0 14:0 15:0 16:0 17:0 18:0 19:0 20:0 21:0 22:0 23:2 24:4 25:3 26:2 27:3 28:2 29:2 30:3 31:3 32:3 33:3 34:2 35:0 36:0 37:0 38:0 39:32 
-0.5 1:0 2:0 3:0 4:0 5:0 6:0 7:2 8:4 9:4 10:4 11:3 12:3 13:4 14:4 15:2 16:0 17:0 18:0 19:0 20:0 21:0 22:0 23:0 24:1 25:4 26:3 27:2 28:2 29:3 30:3 31:3 32:2 33:3 34:2 35:2 36:0 37:0 38:0 39:30 
-0.291011986242378 1:0 2:0 3:0 4:3 5:5 6:3 7:3 8:2 9:3 10:4 11:4 12:2 13:0 14:0 15:0 16:0 17:0 18:0 19:0 20:2 21:4 22:3 23:2 24:3 25:3 26:2 27:2 28:2 29:2 30:3 31:1 32:0 33:0 34:0 35:0 36:0 37:0 38:0 39:29 
-0.3343006203799858 1:0 2:0 3:0 4:0 5:0 6:3 7:5 8:4 9:4 10:3 11:4 12:3 13:4 14:2 15:0 16:0 17:0 18:0 19:0 20:0 21:0 22:2 23:4 24:3 25:2 26:2 27:3 28:2 29:3 30:3 31:3 32:3 33:2 34:0 35:0 36:0 37:0 38:0 39:32 
-0.4045343457584997 1:0 2:0 3:0 4:0 5:0 6:3 7:3 8:2 9:4 10:3 11:4 12:3 13:4 14:3 15:0 16:0 17:0 18:0 19:0 20:2 21:4 22:3 23:2 24:3 25:2 26:0 27:2 28:3 29:3 30:3 31:2 32:0 33:0 34:0 35:0 36:0 37:0 38:0 39:29 
-0.5 1:0 2:0 3:0 4:0 5:3 6:5 7:3 8:3 9:3 10:5 11:4 12:3 13:2 14:0 15:0 16:0 17:0 18:0 19:0 20:2 21:4 22:3 23:2 24:2 25:3 26:3 27:2 28:3 29:3 30:3 31:1 32:0 33:0 34:0 35:0 36:0 37:0 38:0 39:31 
-0.5 1:0 2:0 3:0 4:0 5:0 6:0 7:3 8:5 9:4 10:3 11:3 12:3 13:4 14:4 15:2 16:0 17:0 18:0 19:0 20:0 21:0 22:2 23:4 24:3 25:2 26:3 27:3 28:2 29:3 30:1 31:3 32:3 33:2 34:0 35:0 36:0 37:0 38:0 39:31 
-0.5 1:0 2:0 3:0 4:0 5:0 6:3 7:5 8:4 9:3 10:3 11:4 12:4 13:3 14:2 15:0 16:0 17:0 18:0 19:0 20:2 21:4 22:3 23:1 24:3 25:3 26:2 27:2 28:4 29:2 30:3 31:2 32:0 33:0 34:0 35:0 36:0 37:0 38:0 39:31 
-0.1518103975575718 1:0 2:0 3:0 4:0 5:3 6:4 7:3 8:4 9:3 10:4 11:4 12:4 13:2 14:0 15:0 16:0 17:0 18:0 19:0 20:0 21:0 22:0 23:2 24:4 25:2 26:2 27:3 28:3 29:1 30:3 31:3 32:3 33:3 34:2 35:0 36:0 37:0 38:0 39:31 
-0.5 1:0 2:0 3:0 4:2 5:4 6:4 7:4 8:2 9:5 10:4 11:5 12:2 13:1 14:0 15:0 16:0 17:0 18:0 19:0 20:0 21:1 22:1 23:4 24:3 25:2 26:4 27:2 28:2 29:4 30:3 31:2 32:3 33:2 34:0 35:0 36:0 37:0 38:0 39:33 
-0.26898542103828 1:0 2:0 3:0 4:0 5:4 6:4 7:4 8:3 9:3 10:4 11:4 12:4 13:2 14:0 15:0 16:0 17:0 18:0 19:0 20:0 21:0 22:0 23:1 24:2 25:3 26:3 27:2 28:3 29:3 30:2 31:3 32:3 33:3 34:3 35:1 36:0 37:0 38:0 39:32 
-0.5 1:0 2:0 3:0 4:0 5:0 6:2 7:5 8:4 9:4 10:3 11:4 12:3 13:3 14:0 15:0 16:0 17:0 18:0 19:0 20:0 21:0 22:1 23:1 24:3 25:2 26:2 27:3 28:2 29:3 30:3 31:3 32:3 33:2 34:0 35:0 36:0 37:0 38:0 39:28 
-0.2653087695934064 1:0 2:0 3:0 4:0 5:3 6:4 7:4 8:4 9:3 10:3 11:2 12:3 13:1 14:0 15:0 16:0 17:0 18:0 19:0 20:0 21:0 22:1 23:3 24:3 25:2 26:3 27:2 28:0 29:3 30:2 31:4 32:2 33:2 34:0 35:0 36:0 37:0 38:0 39:27 
-0.2146583511831206 1:0 2:0 3:0 4:3 5:5 6:5 7:3 8:2 9:4 10:4 11:3 12:2 13:0 14:0 15:0 16:0 17:0 18:0 19:0 20:0 21:0 22:0 23:2 24:4 25:3 26:2 27:3 28:3 29:2 30:3 31:3 32:2 33:3 34:1 35:0 36:0 37:0 38:0 39:31 
-0.5 1:0 2:0 3:0 4:3 5:4 6:6 7:4 8:3 9:5 10:4 11:4 12:2 13:0 14:0 15:0 16:0 17:0 18:0 19:0 20:0 21:0 22:3 23:4 24:2 25:2 26:4 27:3 28:3 29:3 30:3 31:3 32:3 33:2 34:0 35:0 36:0 37:0 38:0 39:35 
-0.5 1:0 2:0 3:0 4:0 5:2 6:5 7:4 8:4 9:3 10:3 11:4 12:4 13:2 14:0 15:1 16:1 17:0 18:0 19:0 20:2 21:0 22:0 23:0 24:1 25:4 26:3 27:2 28:3 29:3 30:2 31:2 32:3 33:3 34:3 35:2 36:0 37:0 38:0 39:33 
