svm_type c_svc
kernel_type rbf
gamma 0.03125
nr_class 2
total_sv 63
rho 0.092393
label 1 0
probA -7.64383
probB 0.447601
nr_sv 32 31
SV
0.5 1:0 2:0 3:0 4:0 5:0 6:0 7:10 8:12 9:2 10:2 11:3 12:4 13:2 14:0 15:0 16:0 17:0 18:0 19:0 20:0 21:0 22:0 23:2 24:2 25:1 26:3 27:4 28:1 29:4 30:5 31:3 32:3 33:3 34:3 35:1 36:0 37:0 38:0 39:35 
0.005995850598089069 1:0 2:0 3:0 4:0 5:0 6:8 7:11 8:2 9:3 10:4 11:3 12:1 13:0 14:0 15:0 16:0 17:0 18:0 19:0 20:0 21:0 22:1 23:2 24:2 25:3 26:3 27:4 28:3 29:4 30:3 31:2 32:3 33:2 34:0 35:0 36:0 37:0 38:0 39:32 
0.2476886856616849 1:1 2:0 3:0 4:0 5:0 6:8 7:11 8:2 9:4 10:4 11:3 12:3 13:0 14:0 15:0 16:0 17:0 18:0 19:0 20:0 21:2 22:1 23:1 24:5 25:3 26:3 27:4 28:5 29:3 30:3 31:4 32:2 33:0 34:0 35:0 36:0 37:0 38:0 39:36 
0.08452833215080961 1:0 2:0 3:0 4:0 5:0 6:0 7:9 8:11 9:0 10:3 11:4 12:4 13:2 14:0 15:0 16:0 17:0 18:0 19:0 20:0 21:0 22:0 23:1 24:1 25:2 26:3 27:4 28:4 29:3 30:4 31:3 32:3 33:3 34:2 35:0 36:0 37:0 38:0 39:33 
0.5 1:0 2:0 3:0 4:0 5:10 6:12 7:1 8:2 9:2 10:3 11:2 12:0 13:0 14:0 15:0 16:0 17:0 18:0 19:0 20:0 21:0 22:1 23:2 24:2 25:3 26:3 27:3 28:3 29:4 30:3 31:3 32:3 33:2 34:0 35:0 36:0 37:0 38:0 39:32 
0.5 1:0 2:0 3:1 4:6 5:11 6:3 7:3 8:4 9:4 10:3 11:0 12:0 13:0 14:0 15:0 16:0 17:0 18:0 19:0 20:2 21:2 22:2 23:4 24:4 25:3 26:4 27:5 28:2 29:3 30:3 31:1 32:0 33:0 34:0 35:0 36:0 37:0 38:0 39:35 
0.5 1:0 2:0 3:0 4:0 5:0 6:0 7:9 8:12 9:2 10:3 11:4 12:4 13:3 14:0 15:0 16:0 17:0 18:0 19:0 20:0 21:2 22:2 23:2 24:3 25:4 26:4 27:3 28:4 29:4 30:3 31:3 32:3 33:0 34:0 35:0 36:0 37:0 38:0 39:37 
0.5 1:0 2:0 3:0 4:0 5:0 6:0 7:4 8:10 9:2 10:3 11:2 12:4 13:3 14:0 15:0 16:0 17:0 18:0 19:0 20:0 21:0 22:1 23:1 24:1 25:3 26:3 27:3 28:3 29:3 30:3 31:2 32:3 33:2 34:0 35:0 36:0 37:0 38:0 39:28 
0.2216978800998096 1:0 2:0 3:0 4:0 5:0 6:9 7:12 8:2 9:3 10:2 11:4 12:3 13:0 14:0 15:0 16:0 17:0 18:0 19:0 20:0 21:2 22:2 23:1 24:4 25:2 26:4 27:4 28:5 29:2 30:3 31:3 32:3 33:0 34:0 35:0 36:0 37:0 38:0 39:35 
0.4265942500124201 1:0 2:0 3:0 4:0 5:0 6:6 7:12 8:2 9:3 10:3 11:4 12:2 13:0 14:0 15:0 16:0 17:0 18:0 19:0 20:0 21:0 22:1 23:2 24:2 25:4 26:3 27:4 28:3 29:3 30:2 31:2 32:4 33:2 34:0 35:0 36:0 37:0 38:0 39:32 
0.5 1:1 2:0 3:0 4:0 5:0 6:0 7:6 8:10 9:2 10:3 11:4 12:4 13:2 14:0 15:0 16:0 17:0 18:0 19:0 20:1 21:0 22:0 23:0 24:1 25:2 26:2 27:4 28:3 29:4 30:2 31:5 32:2 33:3 34:2 35:1 36:0 37:0 38:0 39:32 
0.5 1:0 2:0 3:0 4:0 5:0 6:0 7:8 8:11 9:1 10:2 11:4 12:4 13:2 14:0 15:0 16:0 17:0 18:0 19:0 20:2 21:2 22:1 23:4 24:4 25:4 26:3 27:1 28:3 29:3 30:3 31:2 32:0 33:0 34:0 35:0 36:0 37:0 38:0 39:32 
0.1881462491834384 1:0 2:0 3:0 4:7 5:12 6:2 7:3 8:4 9:4 10:3 11:0 12:0 13:0 14:0 15:0 16:0 17:0 18:0 19:0 20:1 21:2 22:2 23:3 24:3 25:3 26:4 27:4 28:3 29:3 30:4 31:3 32:0 33:0 34:0 35:0 36:0 37:0 38:0 39:35 
0.5 1:0 2:0 3:0 4:8 5:12 6:2 7:3 8:4 9:4 10:3 11:0 12:0 13:0 14:0 15:0 16:0 17:0 18:0 19:0 20:0 21:0 22:2 23:1 24:1 25:4 26:4 27:3 28:4 29:4 30:3 31:3 32:4 33:3 34:0 35:0 36:0 37:0 38:0 39:36 
0.5 1:0 2:0 3:0 4:0 5:7 6:10 7:3 8:2 9:4 10:4 11:3 12:0 13:0 14:0 15:0 16:0 17:0 18:0 19:0 20:2 21:1 22:1 23:5 24:4 25:4 26:2 27:5 28:3 29:3 30:2 31:1 32:0 33:0 34:0 35:0 36:0 37:0 38:0 39:33 
0.4574819688344547 1:0 2:0 3:0 4:0 5:9 6:10 7:2 8:3 9:5 10:4 11:2 12:0 13:0 14:0 15:0 16:0 17:0 18:0 19:0 20:0 21:0 22:0 23:0 24:2 25:2 26:1 27:4 28:4 29:4 30:4 31:5 32:2 33:3 34:2 35:2 36:0 37:0 38:0 39:35 
0.5 1:0 2:0 3:0 4:9 5:11 6:3 7:3 8:4 9:4 10:3 11:0 12:0 13:0 14:0 15:0 16:0 17:0 18:0 19:0 20:0 21:2 22:3 23:1 24:4 25:4 26:4 27:4 28:5 29:1 30:3 31:3 32:3 33:0 34:0 35:0 36:0 37:0 38:0 39:37 
0.5 1:0 2:0 3:0 4:0 5:0 6:6 7:10 8:2 9:3 10:3 11:4 12:2 13:0 14:0 15:0 16:0 17:0 18:0 19:0 20:0 21:0 22:0 23:1 24:1 25:2 26:3 27:4 28:3 29:3 30:4 31:3 32:3 33:3 34:0 35:0 36:0 37:0 38:0 39:30 
0.5 1:0 2:0 3:0 4:0 5:7 6:12 7:2 8:3 9:4 10:4 11:2 12:0 13:0 14:0 15:0 16:0 17:0 18:0 19:0 20:0 21:0 22:0 23:0 24:1 25:2 26:1 27:2 28:4 29:3 30:4 31:5 32:3 33:2 34:4 35:3 36:0 37:0 38:0 39:34 
0.5 1:0 2:0 3:0 4:0 5:0 6:10 7:12 8:2 9:2 10:4 11:3 12:3 13:0 14:0 15:0 16:0 17:0 18:0 19:0 20:0 21:0 22:0 23:2 24:2 25:2 26:2 27:4 28:2 29:4 30:5 31:2 32:3 33:4 34:4 35:0 36:0 37:0 38:0 39:36 
0.5 1:0 2:0 3:0 4:8 5:8 6:3 7:3 8:4 9:4 10:3 11:0 12:0 13:0 14:0 15:0 16:0 17:0 18:0 19:0 20:1 21:1 22:2 23:3 24:3 25:4 26:4 27:4 28:4 29:2 30:4 31:1 32:0 33:0 34:0 35:0 36:0 37:0 38:0 39:33 
0.4496985411380028 1:0 2:0 3:0 4:0 5:0 6:0 7:8 8:11 9:2 10:2 11:4 12:4 13:3 14:0 15:0 16:0 17:0 18:0 19:0 20:2 21:2 22:1 23:3 24:3 25:3 26:4 27:5 28:3 29:2 30:4 31:2 32:0 33:0 34:0 35:0 36:0 37:0 38:0 39:34 
0.3300983220712954 1:0 2:0 3:0 4:0 5:0 6:0 7:8 8:11 9:2 10:2 11:5 12:4 13:3 14:0 15:0 16:0 17:0 18:0 19:0 20:0 21:0 22:1 23:1 24:2 25:4 26:3 27:3 28:5 29:5 30:3 31:2 32:3 33:3 34:0 35:0 36:0 37:0 38:0 39:35 
0.4688095636985928 1:0 2:0 3:0 4:0 5:6 6:12 7:2 8:3 9:3 10:5 11:3 12:0 13:0 14:0 15:0 16:0 17:0 18:0 19:0 20:0 21:1 22:2 23:3 24:4 25:3 26:3 27:3 28:5 29:2 30:2 31:4 32:2 33:0 34:0 35:0 36:0 37:0 38:0 39:34 
0.3191646148925904 1:0 2:0 3:0 4:0 5:8 6:12 7:2 8:2 9:3 10:4 11:2 12:0 13:0 14:0 15:0 16:0 17:0 18:0 19:0 20:0 21:0 22:0 23:1 24:2 25:2 26:3 27:4 28:2 29:3 30:5 31:3 32:3 33:3 34:2 35:0 36:0 37:0 38:0 39:33 
0.5 1:0 2:0 3:0 4:0 5:9 6:12 7:2 8:3 9:4 10:4 11:3 12:0 13:0 14:0 15:0 16:0 17:0 18:0 19:0 20:0 21:1 22:2 23:2 24:3 25:4 26:3 27:4 28:5 29:3 30:3 31:4 32:3 33:0 34:0 35:0 36:0 37:0 38:0 39:37 
0.3494656390518242 1:0 2:0 3:0 4:0 5:0 6:0 7:8 8:10 9:2 10:2 11:4 12:4 13:3 14:0 15:0 16:0 17:0 18:0 19:0 20:0 21:0 22:0 23:1 24:2 25:1 26:4 27:3 28:3 29:4 30:5 31:1 32:3 33:4 34:2 35:0 36:0 37:0 38:0 39:33 
0.5 1:0 2:0 3:0 4:0 5:0 6:10 7:12 8:4 9:3 10:3 11:4 12:3 13:0 14:0 15:0 16:0 17:0 18:0 19:0 20:0 21:0 22:2 23:1 24:2 25:4 26:4 27:4 28:3 29:4 30:4 31:3 32:4 33:3 34:1 35:0 36:0 37:0 38:0 39:39 
0.3793204471816558 1:0 2:0 3:0 4:0 5:1 6:8 7:12 8:2 9:3 10:3 11:3 12:2 13:0 14:0 15:0 16:0 17:0 18:0 19:0 20:0 21:2 22:2 23:1 24:4 25:5 26:3 27:4 28:5 29:2 30:2 31:3 32:1 33:0 34:0 35:0 36:0 37:0 38:0 39:34 
0.5 1:0 2:0 3:0 4:7 5:11 6:0 7:3 8:4 9:4 10:3 11:0 12:0 13:0 14:0 15:0 16:0 17:0 18:0 19:0 20:0 21:0 22:2 23:2 24:1 25:4 26:4 27:2 28:2 29:4 30:3 31:2 32:4 33:2 34:0 35:0 36:0 37:0 38:0 39:32 
0.399036058194814 1:1 2:0 3:0 4:0 5:0 6:10 7:11 8:1 9:3 10:4 11:4 12:2 13:0 14:0 15:0 16:0 17:0 18:0 19:0 20:0 21:2 22:2 23:2 24:4 25:4 26:2 27:3 28:5 29:3 30:2 31:4 32:3 33:0 34:0 35:0 36:0 37:0 38:0 39:36 
0.2096823758054008 1:0 2:0 3:0 4:0 5:0 6:9 7:12 8:2 9:3 10:3 11:3 12:3 13:0 14:0 15:0 16:0 17:0 18:0 19:0 20:0 21:0 22:0 23:2 24:2 25:2 26:3 27:3 28:2 29:4 30:4 31:3 32:3 33:4 34:3 35:0 36:0 37:0 38:0 39:35 
-0.1359428989607385 1:0 2:0 3:0 4:0 5:4 6:4 7:4 8:3 9:10 10:12 11:2 12:0 13:0 14:0 15:0 16:0 17:0 18:0 19:0 20:2 21:2 22:2 23:3 24:4 25:3 26:3 27:2 28:7 29:7 30:2 31:2 32:0 33:0 34:0 35:0 36:0 37:0 38:0 39:39 
-0.5 1:6 2:0 3:0 4:0 5:0 6:3 7:5 8:4 9:3 10:10 11:12 12:2 13:0 14:0 15:0 16:0 17:0 18:0 19:0 20:0 21:0 22:0 23:1 24:1 25:2 26:4 27:4 28:4 29:4 30:4 31:4 32:7 33:6 34:2 35:2 36:0 37:0 38:0 39:45 
-0.5 1:6 2:0 3:0 4:0 5:3 6:4 7:4 8:5 9:11 10:10 11:2 12:0 13:0 14:0 15:0 16:0 17:0 18:0 19:0 20:0 21:0 22:2 23:3 24:3 25:3 26:3 27:5 28:3 29:4 30:8 31:7 32:2 33:2 34:0 35:0 36:0 37:0 38:0 39:45 
-0.326398989947683 1:0 2:0 3:0 4:0 5:3 6:4 7:3 8:4 9:10 10:11 11:2 12:0 13:0 14:0 15:0 16:0 17:0 18:0 19:0 20:0 21:2 22:2 23:3 24:4 25:3 26:2 27:2 28:3 29:6 30:6 31:2 32:2 33:0 34:0 35:0 36:0 37:0 38:0 39:37 
-0.5 1:0 2:0 3:0 4:0 5:0 6:0 7:3 8:3 9:4 10:4 11:11 12:10 13:2 14:0 15:0 16:0 17:0 18:0 19:0 20:1 21:2 22:3 23:4 24:3 25:2 26:3 27:3 28:7 29:6 30:1 31:2 32:0 33:0 34:0 35:0 36:0 37:0 38:0 39:37 
-0.5 1:0 2:0 3:0 4:3 5:4 6:3 7:4 8:12 9:11 10:2 11:0 12:0 13:0 14:0 15:0 16:0 17:0 18:0 19:0 20:0 21:0 22:2 23:2 24:3 25:4 26:2 27:3 28:3 29:3 30:6 31:7 32:2 33:2 34:0 35:0 36:0 37:0 38:0 39:39 
-0.41502364899163 1:0 2:0 3:0 4:0 5:0 6:0 7:2 8:3 9:4 10:5 11:12 12:12 13:2 14:0 15:0 16:0 17:0 18:0 19:0 20:0 21:2 22:2 23:3 24:4 25:3 26:2 27:3 28:3 29:7 30:6 31:3 32:2 33:0 34:0 35:0 36:0 37:0 38:0 39:40 
-0.3237338904135639 1:0 2:0 3:0 4:0 5:0 6:0 7:3 8:3 9:4 10:4 11:12 12:10 13:2 14:0 15:0 16:0 17:0 18:0 19:0 20:2 21:2 22:3 23:4 24:3 25:3 26:2 27:3 28:6 29:7 30:2 31:1 32:0 33:0 34:0 35:0 36:0 37:0 38:0 39:38 
-0.4965884631052161 1:0 2:0 3:0 4:0 5:0 6:3 7:4 8:4 9:5 10:9 11:10 12:1 13:0 14:0 15:0 16:0 17:0 18:0 19:0 20:0 21:0 22:0 23:1 24:2 25:2 26:2 27:4 28:2 29:3 30:4 31:3 32:6 33:6 34:1 35:0 36:0 37:0 38:0 39:36 
-0.5 1:0 2:0 3:0 4:0 5:0 6:0 7:3 8:4 9:4 10:3 11:11 12:11 13:2 14:0 15:0 16:0 17:0 18:0 19:0 20:0 21:2 22:2 23:1 24:4 25:3 26:3 27:3 28:3 29:7 30:7 31:1 32:2 33:0 34:0 35:0 36:0 37:0 38:0 39:38 
-0.5 1:0 2:0 3:0 4:1 5:5 6:5 7:3 8:12 9:12 10:2 11:0 12:0 13:0 14:0 15:0 16:0 17:0 18:0 19:0 20:1 21:2 22:2 23:3 24:4 25:3 26:3 27:3 28:3 29:7 30:5 31:2 32:2 33:0 34:0 35:0 36:0 37:0 38:0 39:40 
-0.4624092074365693 1:0 2:0 3:0 4:0 5:0 6:3 7:4 8:3 9:4 10:12 11:9 12:2 13:0 14:0 15:0 16:0 17:0 18:0 19:0 20:0 21:0 22:0 23:2 24:1 25:3 26:3 27:2 28:3 29:2 30:3 31:7 32:7 33:2 34:2 35:0 36:0 37:0 38:0 39:37 
-0.3298424175641825 1:0 2:0 3:0 4:0 5:0 6:2 7:3 8:3 9:4 10:12 11:11 12:2 13:0 14:0 15:0 16:0 17:0 18:0 19:0 20:0 21:0 22:0 23:0 24:2 25:2 26:3 27:2 28:3 29:2 30:3 31:3 32:6 33:7 34:2 35:2 36:0 37:0 38:0 39:37 
-0.5 1:0 2:0 3:0 4:0 5:2 6:2 7:2 8:3 9:11 10:9 11:2 12:0 13:0 14:0 15:0 16:0 17:0 18:0 19:0 20:0 21:0 22:0 23:0 24:2 25:2 26:2 27:2 28:1 29:1 30:3 31:3 32:7 33:4 34:2 35:2 36:0 37:0 38:0 39:31 
-0.5 1:0 2:0 3:0 4:0 5:0 6:0 7:2 8:4 9:3 10:4 11:12 12:11 13:2 14:0 15:0 16:0 17:0 18:0 19:0 20:0 21:0 22:2 23:2 24:3 25:2 26:3 27:3 28:3 29:3 30:6 31:7 32:2 33:2 34:0 35:0 36:0 37:0 38:0 39:38 
-0.5 1:0 2:0 3:0 4:0 5:0 6:2 7:4 8:2 9:3 10:10 11:10 12:2 13:0 14:0 15:0 16:0 17:0 18:0 19:0 20:0 21:2 22:2 23:1 24:3 25:3 26:3 27:3 28:3 29:5 30:7 31:1 32:0 33:0 34:0 35:0 36:0 37:0 38:0 39:33 
-0.3715135880396008 1:0 2:0 3:0 4:0 5:3 6:4 7:3 8:4 9:11 10:12 11:2 12:0 13:0 14:0 15:0 16:0 17:0 18:0 19:0 20:2 21:2 22:3 23:3 24:3 25:3 26:3 27:3 28:7 29:7 30:1 31:2 32:0 33:0 34:0 35:0 36:0 37:0 38:0 39:39 
-0.4201259068498961 1:1 2:0 3:0 4:0 5:3 6:4 7:4 8:2 9:12 10:12 11:2 12:0 13:0 14:0 15:0 16:0 17:0 18:0 19:0 20:0 21:2 22:2 23:2 24:4 25:3 26:3 27:3 28:3 29:7 30:6 31:2 32:2 33:0 34:0 35:1 36:0 37:0 38:0 39:40 
-0.5 1:0 2:0 3:0 4:0 5:0 6:3 7:4 8:4 9:4 10:12 11:11 12:2 13:0 14:0 15:0 16:0 17:0 18:0 19:0 20:2 21:2 22:3 23:4 24:3 25:3 26:2 27:3 28:7 29:7 30:2 31:2 32:0 33:0 34:0 35:0 36:0 37:0 38:0 39:40 
-0.4076784234223872 1:0 2:0 3:0 4:0 5:0 6:3 7:4 8:2 9:4 10:10 11:12 12:2 13:0 14:0 15:0 16:0 17:0 18:0 19:0 20:0 21:0 22:0 23:1 24:2 25:2 26:3 27:2 28:3 29:3 30:3 31:7 32:7 33:2 34:2 35:0 36:0 37:0 38:0 39:37 
-0.1382515408111563 1:0 2:0 3:0 4:0 5:3 6:4 7:4 8:4 9:11 10:12 11:2 12:0 13:0 14:0 15:0 16:0 17:0 18:0 19:0 20:0 21:0 22:2 23:2 24:3 25:4 26:3 27:2 28:3 29:3 30:7 31:7 32:2 33:2 34:0 35:0 36:0 37:0 38:0 39:40 
-0.3090930130226699 1:0 2:0 3:0 4:0 5:3 6:3 7:3 8:3 9:10 10:12 11:2 12:0 13:0 14:0 15:0 16:0 17:0 18:0 19:0 20:0 21:0 22:0 23:1 24:2 25:3 26:3 27:3 28:3 29:3 30:3 31:7 32:5 33:2 34:1 35:0 36:0 37:0 38:0 39:36 
-0.4560310714144359 1:0 2:0 3:0 4:0 5:2 6:3 7:4 8:4 9:10 10:12 11:2 12:0 13:0 14:0 15:0 16:0 17:0 18:0 19:0 20:2 21:2 22:3 23:4 24:3 25:3 26:1 27:1 28:7 29:7 30:2 31:2 32:0 33:0 34:0 35:0 36:0 37:0 38:0 39:37 
-0.5 1:0 2:0 3:0 4:3 5:3 6:3 7:4 8:11 9:12 10:2 11:0 12:0 13:0 14:0 15:0 16:0 17:0 18:0 19:0 20:0 21:2 22:2 23:3 24:3 25:3 26:3 27:2 28:3 29:7 30:7 31:1 32:2 33:0 34:0 35:0 36:0 37:0 38:0 39:38 
-0.5 1:0 2:0 3:0 4:0 5:3 6:4 7:3 8:4 9:12 10:8 11:2 12:0 13:0 14:0 15:0 16:0 17:0 18:0 19:0 20:0 21:0 22:0 23:2 24:2 25:2 26:3 27:3 28:2 29:3 30:2 31:6 32:7 33:2 34:2 35:0 36:0 37:0 38:0 39:36 
-0.1019762879937651 1:0 2:0 3:0 4:0 5:3 6:4 7:5 8:3 9:11 10:12 11:2 12:0 13:0 14:0 15:0 16:0 17:0 18:0 19:0 20:0 21:2 22:2 23:3 24:4 25:3 26:3 27:4 28:3 29:6 30:6 31:2 32:2 33:0 34:0 35:0 36:0 37:0 38:0 39:40 
-0.5 1:0 2:0 3:0 4:0 5:0 6:0 7:3 8:4 9:4 10:4 11:11 12:10 13:2 14:0 15:0 16:0 17:0 18:0 19:0 20:0 21:0 22:0 23:2 24:2 25:2 26:4 27:3 28:2 29:2 30:3 31:7 32:7 33:2 34:2 35:0 36:0 37:0 38:0 39:38 
-0.5 1:0 2:0 3:0 4:0 5:0 6:3 7:4 8:4 9:4 10:12 11:12 12:2 13:0 14:0 15:0 16:0 17:0 18:0 19:0 20:0 21:0 22:0 23:0 24:2 25:2 26:3 27:4 28:3 29:3 30:3 31:3 32:7 33:7 34:2 35:2 36:0 37:0 38:0 39:41 
-0.5 1:0 2:0 3:0 4:0 5:0 6:3 7:4 8:4 9:4 10:10 11:10 12:2 13:0 14:0 15:0 16:0 17:0 18:0 19:0 20:1 21:1 22:3 23:4 24:3 25:3 26:2 27:2 28:7 29:7 30:2 31:2 32:0 33:0 34:0 35:0 36:0 37:0 38:0 39:37 
-0.4328835819596363 1:0 2:0 3:0 4:0 5:3 6:4 7:4 8:4 9:12 10:11 11:2 12:0 13:0 14:0 15:0 16:0 17:0 18:0 19:0 20:0 21:0 22:2 23:2 24:3 25:4 26:3 27:3 28:3 29:2 30:7 31:7 32:2 33:2 34:0 35:0 36:0 37:0 38:0 39:40 
-0.4099158486417513 1:0 2:0 3:0 4:0 5:3 6:3 7:4 8:4 9:12 10:12 11:2 12:0 13:0 14:0 15:0 16:0 17:0 18:0 19:0 20:0 21:0 22:0 23:2 24:2 25:3 26:4 27:3 28:3 29:3 30:3 31:7 32:6 33:2 34:2 35:0 36:0 37:0 38:0 39:40 
