svm_type c_svc
kernel_type rbf
gamma 0.000488281
nr_class 2
total_sv 22
rho -3.69247
label 0 1
probA -3.19345
probB -0.137175
nr_sv 9 13
SV
23.66232932170881 1:6 2:0 3:0 4:0 5:0 6:3 7:5 8:4 9:3 10:10 11:12 12:2 13:0 14:0 15:0 16:0 17:0 18:0 19:0 20:0 21:0 22:0 23:1 24:1 25:2 26:4 27:4 28:4 29:4 30:4 31:4 32:7 33:6 34:2 35:2 36:0 37:0 38:0 39:45 
14.17351719716384 1:0 2:0 3:0 4:0 5:0 6:0 7:3 8:3 9:4 10:4 11:11 12:10 13:2 14:0 15:0 16:0 17:0 18:0 19:0 20:1 21:2 22:3 23:4 24:3 25:2 26:3 27:3 28:7 29:6 30:1 31:2 32:0 33:0 34:0 35:0 36:0 37:0 38:0 39:37 
32 1:0 2:0 3:0 4:3 5:4 6:3 7:4 8:12 9:11 10:2 11:0 12:0 13:0 14:0 15:0 16:0 17:0 18:0 19:0 20:0 21:0 22:2 23:2 24:3 25:4 26:2 27:3 28:3 29:3 30:6 31:7 32:2 33:2 34:0 35:0 36:0 37:0 38:0 39:39 
6.230508656042243 1:0 2:0 3:0 4:0 5:0 6:0 7:3 8:3 9:4 10:4 11:12 12:10 13:2 14:0 15:0 16:0 17:0 18:0 19:0 20:2 21:2 22:3 23:4 24:3 25:3 26:2 27:3 28:6 29:7 30:2 31:1 32:0 33:0 34:0 35:0 36:0 37:0 38:0 39:38 
16.21538747530316 1:0 2:0 3:0 4:1 5:5 6:5 7:3 8:12 9:12 10:2 11:0 12:0 13:0 14:0 15:0 16:0 17:0 18:0 19:0 20:1 21:2 22:2 23:3 24:4 25:3 26:3 27:3 28:3 29:7 30:5 31:2 32:2 33:0 34:0 35:0 36:0 37:0 38:0 39:40 
8.599702120763286 1:0 2:0 3:0 4:0 5:0 6:3 7:4 8:4 9:4 10:12 11:11 12:2 13:0 14:0 15:0 16:0 17:0 18:0 19:0 20:2 21:2 22:3 23:4 24:3 25:3 26:2 27:3 28:7 29:7 30:2 31:2 32:0 33:0 34:0 35:0 36:0 37:0 38:0 39:40 
14.75943859335227 1:0 2:0 3:0 4:0 5:3 6:4 7:5 8:3 9:11 10:12 11:2 12:0 13:0 14:0 15:0 16:0 17:0 18:0 19:0 20:0 21:2 22:2 23:3 24:4 25:3 26:3 27:4 28:3 29:6 30:6 31:2 32:2 33:0 34:0 35:0 36:0 37:0 38:0 39:40 
21.38358974175369 1:0 2:0 3:0 4:0 5:0 6:0 7:3 8:4 9:4 10:4 11:11 12:10 13:2 14:0 15:0 16:0 17:0 18:0 19:0 20:0 21:0 22:0 23:2 24:2 25:2 26:4 27:3 28:2 29:2 30:3 31:7 32:7 33:2 34:2 35:0 36:0 37:0 38:0 39:38 
2.894528699982453 1:0 2:0 3:0 4:0 5:0 6:3 7:4 8:4 9:4 10:12 11:12 12:2 13:0 14:0 15:0 16:0 17:0 18:0 19:0 20:0 21:0 22:0 23:0 24:2 25:2 26:3 27:4 28:3 29:3 30:3 31:3 32:7 33:7 34:2 35:2 36:0 37:0 38:0 39:41 
-32 1:0 2:0 3:0 4:0 5:0 6:0 7:4 8:9 9:6 10:5 11:6 12:7 13:4 14:0 15:0 16:0 17:0 18:0 19:0 20:0 21:0 22:3 23:5 24:3 25:4 26:1 27:3 28:4 29:3 30:3 31:4 32:5 33:3 34:0 35:0 36:0 37:0 38:0 39:41 
-9.594347799479172 1:0 2:0 3:0 4:0 5:0 6:3 7:8 8:6 9:5 10:6 11:8 12:4 13:0 14:0 15:0 16:0 17:0 18:0 19:0 20:2 21:4 22:3 23:2 24:2 25:3 26:5 27:3 28:4 29:4 30:5 31:3 32:0 33:0 34:0 35:0 36:0 37:0 38:0 39:40 
-9.027164276417784 1:0 2:0 3:0 4:0 5:4 6:8 7:5 8:6 9:5 10:7 11:4 12:0 13:0 14:0 15:0 16:0 17:0 18:0 19:0 20:3 21:4 22:1 23:3 24:2 25:3 26:5 27:4 28:4 29:4 30:4 31:2 32:0 33:0 34:0 35:0 36:0 37:0 38:0 39:39 
-1.640081973054619 1:9 2:0 3:0 4:0 5:3 6:9 7:5 8:5 9:6 10:7 11:4 12:0 13:0 14:0 15:0 16:0 17:0 18:0 19:0 20:4 21:6 22:2 23:4 24:2 25:3 26:4 27:5 28:5 29:4 30:6 31:3 32:0 33:0 34:0 35:0 36:0 37:0 38:0 39:48 
-24.72560397996077 1:0 2:0 3:0 4:0 5:0 6:5 7:7 8:5 9:6 10:5 11:9 12:3 13:0 14:0 15:0 16:0 17:0 18:0 19:0 20:0 21:0 22:0 23:0 24:3 25:4 26:2 27:4 28:2 29:4 30:3 31:4 32:4 33:3 34:4 35:3 36:0 37:0 38:0 39:40 
-11.88839438435805 1:0 2:0 3:0 4:4 5:9 6:6 7:6 8:6 9:9 10:4 11:0 12:0 13:0 14:0 15:0 16:0 17:0 18:0 19:1 20:3 21:5 22:2 23:3 24:2 25:3 26:5 27:4 28:4 29:4 30:5 31:3 32:0 33:0 34:0 35:0 36:0 37:0 38:0 39:44 
-2.183410727422222 1:0 2:0 3:0 4:0 5:0 6:2 7:8 8:6 9:5 10:6 11:7 12:4 13:0 14:0 15:0 16:0 17:0 18:0 19:1 20:2 21:5 22:2 23:4 24:2 25:3 26:5 27:2 28:2 29:3 30:4 31:3 32:0 33:0 34:0 35:0 36:0 37:0 38:0 39:38 
-4.091099346122565 1:10 2:0 3:0 4:0 5:0 6:0 7:5 8:9 9:6 10:6 11:4 12:9 13:3 14:0 15:0 16:0 17:0 18:0 19:0 20:0 21:0 22:0 23:1 24:3 25:6 26:4 27:4 28:3 29:6 30:4 31:4 32:5 33:4 34:5 35:3 36:0 37:0 38:0 39:52 
-7.988356644179863 1:0 2:0 3:0 4:3 5:10 6:6 7:6 8:5 9:8 10:3 11:0 12:0 13:0 14:0 15:0 16:0 17:0 18:0 19:0 20:0 21:0 22:0 23:3 24:5 25:3 26:3 27:1 28:3 29:5 30:2 31:4 32:4 33:5 34:3 35:0 36:0 37:0 38:0 39:41 
-14.0784264496151 1:0 2:0 3:0 4:0 5:0 6:0 7:5 8:9 9:5 10:5 11:5 12:7 13:4 14:0 15:0 16:0 17:0 18:0 19:0 20:0 21:0 22:0 23:2 24:4 25:2 26:2 27:2 28:6 29:4 30:4 31:4 32:3 33:5 34:2 35:0 36:0 37:0 38:0 39:40 
-6.751032612247337 1:0 2:0 3:0 4:0 5:0 6:4 7:7 8:6 9:6 10:5 11:9 12:4 13:0 14:0 15:0 16:0 17:0 18:0 19:0 20:0 21:0 22:3 23:5 24:2 25:4 26:2 27:2 28:4 29:3 30:4 31:4 32:5 33:3 34:0 35:0 36:0 37:0 38:0 39:41 
-6.491586318499136 1:1 2:0 3:0 4:0 5:3 6:8 7:5 8:5 9:5 10:9 11:4 12:0 13:0 14:0 15:0 16:0 17:0 18:0 19:0 20:0 21:3 22:5 23:2 24:4 25:2 26:2 27:5 28:4 29:3 30:3 31:4 32:3 33:0 34:0 35:0 36:0 37:0 38:0 39:40 
-9.459497294713136 1:0 2:0 3:0 4:0 5:0 6:5 7:7 8:5 9:5 10:6 11:6 12:4 13:0 14:0 15:0 16:0 17:0 18:0 19:0 20:0 21:1 22:4 23:2 24:4 25:1 26:3 27:5 28:4 29:2 30:4 31:5 32:3 33:0 34:0 35:0 36:0 37:0 38:0 39:38 
