svm_type c_svc
kernel_type rbf
gamma 0.0078125
nr_class 2
total_sv 46
rho -0.494776
label 0 1
probA -4.44228
probB 0.476399
nr_sv 22 24
SV
0.5 1:0 2:0 3:0 4:0 5:4 6:4 7:4 8:3 9:10 10:12 11:2 12:0 13:0 14:0 15:0 16:0 17:0 18:0 19:0 20:2 21:2 22:2 23:3 24:4 25:3 26:3 27:2 28:7 29:7 30:2 31:2 32:0 33:0 34:0 35:0 36:0 37:0 38:0 39:39 
0.5 1:6 2:0 3:0 4:0 5:0 6:3 7:5 8:4 9:3 10:10 11:12 12:2 13:0 14:0 15:0 16:0 17:0 18:0 19:0 20:0 21:0 22:0 23:1 24:1 25:2 26:4 27:4 28:4 29:4 30:4 31:4 32:7 33:6 34:2 35:2 36:0 37:0 38:0 39:45 
0.5 1:6 2:0 3:0 4:0 5:3 6:4 7:4 8:5 9:11 10:10 11:2 12:0 13:0 14:0 15:0 16:0 17:0 18:0 19:0 20:0 21:0 22:2 23:3 24:3 25:3 26:3 27:5 28:3 29:4 30:8 31:7 32:2 33:2 34:0 35:0 36:0 37:0 38:0 39:45 
0.08529804769964699 1:0 2:0 3:0 4:0 5:3 6:4 7:3 8:4 9:10 10:11 11:2 12:0 13:0 14:0 15:0 16:0 17:0 18:0 19:0 20:0 21:2 22:2 23:3 24:4 25:3 26:2 27:2 28:3 29:6 30:6 31:2 32:2 33:0 34:0 35:0 36:0 37:0 38:0 39:37 
0.4381184317525658 1:0 2:0 3:0 4:0 5:0 6:0 7:3 8:3 9:4 10:4 11:11 12:10 13:2 14:0 15:0 16:0 17:0 18:0 19:0 20:1 21:2 22:3 23:4 24:3 25:2 26:3 27:3 28:7 29:6 30:1 31:2 32:0 33:0 34:0 35:0 36:0 37:0 38:0 39:37 
0.5 1:0 2:0 3:0 4:3 5:4 6:3 7:4 8:12 9:11 10:2 11:0 12:0 13:0 14:0 15:0 16:0 17:0 18:0 19:0 20:0 21:0 22:2 23:2 24:3 25:4 26:2 27:3 28:3 29:3 30:6 31:7 32:2 33:2 34:0 35:0 36:0 37:0 38:0 39:39 
0.5 1:0 2:0 3:0 4:0 5:0 6:3 7:4 8:4 9:5 10:9 11:10 12:1 13:0 14:0 15:0 16:0 17:0 18:0 19:0 20:0 21:0 22:0 23:1 24:2 25:2 26:2 27:4 28:2 29:3 30:4 31:3 32:6 33:6 34:1 35:0 36:0 37:0 38:0 39:36 
0.5 1:0 2:0 3:0 4:0 5:0 6:0 7:3 8:4 9:4 10:3 11:11 12:11 13:2 14:0 15:0 16:0 17:0 18:0 19:0 20:0 21:2 22:2 23:1 24:4 25:3 26:3 27:3 28:3 29:7 30:7 31:1 32:2 33:0 34:0 35:0 36:0 37:0 38:0 39:38 
0.5 1:0 2:0 3:0 4:1 5:5 6:5 7:3 8:12 9:12 10:2 11:0 12:0 13:0 14:0 15:0 16:0 17:0 18:0 19:0 20:1 21:2 22:2 23:3 24:4 25:3 26:3 27:3 28:3 29:7 30:5 31:2 32:2 33:0 34:0 35:0 36:0 37:0 38:0 39:40 
0.3953119436804268 1:0 2:0 3:0 4:0 5:0 6:3 7:4 8:3 9:4 10:12 11:9 12:2 13:0 14:0 15:0 16:0 17:0 18:0 19:0 20:0 21:0 22:0 23:2 24:1 25:3 26:3 27:2 28:3 29:2 30:3 31:7 32:7 33:2 34:2 35:0 36:0 37:0 38:0 39:37 
0.1931482394673014 1:0 2:0 3:0 4:0 5:2 6:2 7:2 8:3 9:11 10:9 11:2 12:0 13:0 14:0 15:0 16:0 17:0 18:0 19:0 20:0 21:0 22:0 23:0 24:2 25:2 26:2 27:2 28:1 29:1 30:3 31:3 32:7 33:4 34:2 35:2 36:0 37:0 38:0 39:31 
0.1330035118236021 1:0 2:0 3:0 4:0 5:0 6:0 7:2 8:4 9:3 10:4 11:12 12:11 13:2 14:0 15:0 16:0 17:0 18:0 19:0 20:0 21:0 22:2 23:2 24:3 25:2 26:3 27:3 28:3 29:3 30:6 31:7 32:2 33:2 34:0 35:0 36:0 37:0 38:0 39:38 
0.5 1:0 2:0 3:0 4:0 5:0 6:2 7:4 8:2 9:3 10:10 11:10 12:2 13:0 14:0 15:0 16:0 17:0 18:0 19:0 20:0 21:2 22:2 23:1 24:3 25:3 26:3 27:3 28:3 29:5 30:7 31:1 32:0 33:0 34:0 35:0 36:0 37:0 38:0 39:33 
0.4548355014356918 1:0 2:0 3:0 4:0 5:0 6:3 7:4 8:4 9:4 10:12 11:11 12:2 13:0 14:0 15:0 16:0 17:0 18:0 19:0 20:2 21:2 22:3 23:4 24:3 25:3 26:2 27:3 28:7 29:7 30:2 31:2 32:0 33:0 34:0 35:0 36:0 37:0 38:0 39:40 
0.008237883720266523 1:0 2:0 3:0 4:0 5:3 6:4 7:4 8:4 9:11 10:12 11:2 12:0 13:0 14:0 15:0 16:0 17:0 18:0 19:0 20:0 21:0 22:2 23:2 24:3 25:4 26:3 27:2 28:3 29:3 30:7 31:7 32:2 33:2 34:0 35:0 36:0 37:0 38:0 39:40 
0.4181917040356083 1:0 2:0 3:0 4:3 5:3 6:3 7:4 8:11 9:12 10:2 11:0 12:0 13:0 14:0 15:0 16:0 17:0 18:0 19:0 20:0 21:2 22:2 23:3 24:3 25:3 26:3 27:2 28:3 29:7 30:7 31:1 32:2 33:0 34:0 35:0 36:0 37:0 38:0 39:38 
0.5 1:0 2:0 3:0 4:0 5:3 6:4 7:3 8:4 9:12 10:8 11:2 12:0 13:0 14:0 15:0 16:0 17:0 18:0 19:0 20:0 21:0 22:0 23:2 24:2 25:2 26:3 27:3 28:2 29:3 30:2 31:6 32:7 33:2 34:2 35:0 36:0 37:0 38:0 39:36 
0.5 1:0 2:0 3:0 4:0 5:3 6:4 7:5 8:3 9:11 10:12 11:2 12:0 13:0 14:0 15:0 16:0 17:0 18:0 19:0 20:0 21:2 22:2 23:3 24:4 25:3 26:3 27:4 28:3 29:6 30:6 31:2 32:2 33:0 34:0 35:0 36:0 37:0 38:0 39:40 
0.5 1:0 2:0 3:0 4:0 5:0 6:0 7:3 8:4 9:4 10:4 11:11 12:10 13:2 14:0 15:0 16:0 17:0 18:0 19:0 20:0 21:0 22:0 23:2 24:2 25:2 26:4 27:3 28:2 29:2 30:3 31:7 32:7 33:2 34:2 35:0 36:0 37:0 38:0 39:38 
0.3929107013472978 1:0 2:0 3:0 4:0 5:0 6:3 7:4 8:4 9:4 10:12 11:12 12:2 13:0 14:0 15:0 16:0 17:0 18:0 19:0 20:0 21:0 22:0 23:0 24:2 25:2 26:3 27:4 28:3 29:3 30:3 31:3 32:7 33:7 34:2 35:2 36:0 37:0 38:0 39:41 
0.5 1:0 2:0 3:0 4:0 5:0 6:3 7:4 8:4 9:4 10:10 11:10 12:2 13:0 14:0 15:0 16:0 17:0 18:0 19:0 20:1 21:1 22:3 23:4 24:3 25:3 26:2 27:2 28:7 29:7 30:2 31:2 32:0 33:0 34:0 35:0 36:0 37:0 38:0 39:37 
0.3583666316680156 1:0 2:0 3:0 4:0 5:3 6:4 7:4 8:4 9:12 10:11 11:2 12:0 13:0 14:0 15:0 16:0 17:0 18:0 19:0 20:0 21:0 22:2 23:2 24:3 25:4 26:3 27:3 28:3 29:2 30:7 31:7 32:2 33:2 34:0 35:0 36:0 37:0 38:0 39:40 
-0.5 1:0 2:0 3:0 4:0 5:0 6:4 7:9 8:5 9:6 10:7 11:8 12:3 13:0 14:0 15:0 16:0 17:0 18:0 19:0 20:0 21:0 22:1 23:3 24:5 25:2 26:1 27:3 28:6 29:4 30:4 31:3 32:3 33:4 34:3 35:0 36:0 37:0 38:0 39:42 
-0.5 1:0 2:0 3:0 4:0 5:0 6:5 7:7 8:3 9:7 10:6 11:6 12:4 13:0 14:0 15:0 16:0 17:0 18:0 19:0 20:0 21:0 22:4 23:4 24:2 25:2 26:3 27:5 28:5 29:2 30:3 31:1 32:4 33:3 34:0 35:0 36:0 37:0 38:0 39:38 
-0.5 1:0 2:0 3:0 4:0 5:5 6:9 7:3 8:6 9:6 10:7 11:4 12:0 13:0 14:0 15:0 16:0 17:0 18:0 19:0 20:0 21:0 22:0 23:0 24:3 25:4 26:2 27:1 28:3 29:5 30:4 31:3 32:4 33:3 34:5 35:3 36:0 37:0 38:0 39:40 
-0.1551860247770166 1:0 2:0 3:0 4:0 5:0 6:5 7:8 8:5 9:5 10:6 11:8 12:3 13:0 14:0 15:0 16:0 17:0 18:0 19:0 20:0 21:0 22:0 23:3 24:4 25:2 26:1 27:3 28:6 29:4 30:4 31:3 32:2 33:5 34:3 35:0 36:0 37:0 38:0 39:40 
-0.5 1:7 2:0 3:0 4:0 5:0 6:5 7:9 8:4 9:4 10:7 11:6 12:3 13:0 14:0 15:0 16:0 17:0 18:0 19:0 20:0 21:1 22:2 23:4 24:3 25:3 26:4 27:5 28:4 29:3 30:5 31:3 32:5 33:3 34:0 35:0 36:0 37:0 38:0 39:45 
-0.5 1:0 2:0 3:0 4:5 5:9 6:4 7:6 8:5 9:7 10:3 11:0 12:0 13:0 14:0 15:0 16:0 17:0 18:0 19:0 20:3 21:4 22:2 23:2 24:3 25:5 26:4 27:3 28:3 29:2 30:5 31:3 32:0 33:0 34:0 35:0 36:0 37:0 38:0 39:39 
-0.007858044557532463 1:0 2:0 3:0 4:0 5:0 6:5 7:10 8:5 9:5 10:5 11:9 12:4 13:0 14:0 15:0 16:0 17:0 18:0 19:0 20:0 21:0 22:3 23:5 24:2 25:2 26:4 27:6 28:4 29:4 30:4 31:3 32:4 33:2 34:0 35:0 36:0 37:0 38:0 39:43 
-0.5 1:0 2:0 3:0 4:0 5:6 6:7 7:4 8:6 9:5 10:7 11:3 12:0 13:0 14:0 15:0 16:0 17:0 18:0 19:0 20:3 21:5 22:2 23:1 24:2 25:6 26:4 27:3 28:2 29:3 30:5 31:2 32:0 33:0 34:0 35:0 36:0 37:0 38:0 39:38 
-0.5 1:0 2:0 3:0 4:0 5:0 6:4 7:8 8:5 9:4 10:5 11:7 12:4 13:0 14:0 15:0 16:0 17:0 18:0 19:0 20:2 21:4 22:2 23:2 24:2 25:5 26:3 27:4 28:2 29:4 30:5 31:2 32:0 33:0 34:0 35:0 36:0 37:0 38:0 39:37 
-0.2032113058071187 1:0 2:0 3:0 4:0 5:0 6:6 7:8 8:4 9:6 10:7 11:8 12:3 13:0 14:0 15:0 16:0 17:0 18:0 19:0 20:0 21:0 22:0 23:0 24:3 25:5 26:2 27:3 28:3 29:4 30:4 31:4 32:3 33:3 34:5 35:3 36:0 37:0 38:0 39:42 
-0.05206515272908734 1:0 2:0 3:0 4:0 5:5 6:9 7:4 8:6 9:6 10:8 11:4 12:0 13:0 14:0 15:0 16:0 17:0 18:0 19:0 20:0 21:0 22:0 23:0 24:3 25:6 26:2 27:2 28:3 29:6 30:4 31:3 32:3 33:3 34:4 35:3 36:0 37:0 38:0 39:42 
-0.08163564233904393 1:0 2:0 3:0 4:0 5:0 6:6 7:9 8:4 9:6 10:6 11:8 12:4 13:0 14:0 15:0 16:0 17:0 18:0 19:0 20:2 21:5 22:2 23:2 24:3 25:6 26:4 27:4 28:4 29:3 30:5 31:3 32:0 33:0 34:0 35:0 36:0 37:0 38:0 39:43 
-0.5 1:0 2:0 3:0 4:0 5:0 6:4 7:8 8:5 9:5 10:6 11:8 12:2 13:0 14:0 15:0 16:0 17:0 18:0 19:0 20:0 21:3 22:5 23:2 24:1 25:3 26:6 27:1 28:4 29:4 30:2 31:4 32:3 33:0 34:0 35:0 36:0 37:0 38:0 39:38 
-0.5 1:0 2:0 3:0 4:4 5:9 6:5 7:6 8:6 9:8 10:4 11:0 12:0 13:0 14:0 15:0 16:0 17:0 18:0 19:0 20:0 21:0 22:0 23:0 24:3 25:5 26:2 27:2 28:2 29:6 30:3 31:4 32:4 33:3 34:5 35:3 36:0 37:0 38:0 39:42 
-0.3191384576427378 1:0 2:0 3:0 4:0 5:0 6:4 7:8 8:5 9:6 10:6 11:7 12:4 13:0 14:0 15:0 16:0 17:0 18:0 19:0 20:0 21:3 22:5 23:2 24:0 25:3 26:6 27:3 28:3 29:4 30:3 31:5 32:3 33:0 34:0 35:0 36:0 37:0 38:0 39:40 
-0.5 1:0 2:0 3:0 4:0 5:6 6:8 7:5 8:6 9:6 10:8 11:3 12:0 13:0 14:0 15:0 16:0 17:0 18:0 19:0 20:0 21:0 22:0 23:3 24:5 25:1 26:2 27:3 28:6 29:4 30:4 31:3 32:3 33:5 34:3 35:0 36:0 37:0 38:0 39:42 
-0.2604928303396855 1:0 2:0 3:0 4:0 5:6 6:8 7:5 8:6 9:6 10:8 11:3 12:0 13:0 14:0 15:0 16:0 17:0 18:0 19:0 20:3 21:5 22:2 23:2 24:3 25:6 26:4 27:3 28:4 29:3 30:4 31:3 32:0 33:0 34:0 35:0 36:0 37:0 38:0 39:42 
-0.5 1:0 2:0 3:0 4:0 5:5 6:9 7:5 8:6 9:6 10:8 11:4 12:0 13:0 14:0 15:0 16:0 17:0 18:0 19:0 20:0 21:0 22:3 23:5 24:2 25:2 26:2 27:6 28:4 29:4 30:4 31:3 32:5 33:3 34:0 35:0 36:0 37:0 38:0 39:43 
-0.5 1:0 2:0 3:0 4:0 5:0 6:5 7:7 8:5 9:6 10:3 11:8 12:4 13:0 14:0 15:0 16:0 17:0 18:0 19:0 20:0 21:0 22:0 23:0 24:2 25:4 26:2 27:1 28:3 29:5 30:4 31:3 32:4 33:3 34:4 35:3 36:0 37:0 38:0 39:38 
-0.5 1:0 2:0 3:0 4:0 5:0 6:0 7:5 8:9 9:4 10:5 11:7 12:7 13:4 14:0 15:0 16:0 17:0 18:0 19:0 20:0 21:0 22:0 23:0 24:3 25:4 26:2 27:2 28:2 29:6 30:4 31:4 32:3 33:4 34:4 35:3 36:0 37:0 38:0 39:41 
-0.5 1:0 2:0 3:0 4:6 5:9 6:5 7:6 8:5 9:5 10:5 11:0 12:0 13:0 14:0 15:0 16:0 17:0 18:0 19:0 20:0 21:3 22:4 23:1 24:2 25:4 26:7 27:3 28:3 29:3 30:3 31:5 32:3 33:0 34:0 35:0 36:0 37:0 38:0 39:41 
-0.1830642308146504 1:0 2:0 3:0 4:0 5:0 6:4 7:9 8:4 9:5 10:6 11:8 12:3 13:0 14:0 15:0 16:0 17:0 18:0 19:0 20:2 21:5 22:2 23:1 24:3 25:5 26:4 27:4 28:4 29:2 30:4 31:3 32:0 33:0 34:0 35:0 36:0 37:0 38:0 39:39 
-0.5 1:0 2:0 3:0 4:0 5:0 6:3 7:5 8:5 9:5 10:6 11:8 12:3 13:0 14:0 15:0 16:0 17:0 18:0 19:0 20:0 21:0 22:3 23:4 24:2 25:0 26:2 27:4 28:3 29:4 30:4 31:3 32:3 33:3 34:0 35:0 36:0 37:0 38:0 39:35 
-0.1147709076235506 1:0 2:0 3:0 4:0 5:4 6:9 7:5 8:6 9:4 10:9 11:4 12:0 13:0 14:0 15:0 16:0 17:0 18:0 19:0 20:0 21:3 22:5 23:2 24:1 25:3 26:6 27:4 28:4 29:3 30:3 31:4 32:3 33:0 34:0 35:0 36:0 37:0 38:0 39:41 
