svm_type c_svc
kernel_type rbf
gamma 0.0078125
nr_class 2
total_sv 44
rho 0.222794
label 0 1
probA -4.29287
probB -0.328262
nr_sv 22 22
SV
0.1144217870349465 1:0 2:0 3:0 4:0 5:4 6:4 7:4 8:3 9:10 10:12 11:2 12:0 13:0 14:0 15:0 16:0 17:0 18:0 19:0 20:2 21:2 22:2 23:3 24:4 25:3 26:3 27:2 28:7 29:7 30:2 31:2 32:0 33:0 34:0 35:0 36:0 37:0 38:0 39:39 
0.5 1:6 2:0 3:0 4:0 5:0 6:3 7:5 8:4 9:3 10:10 11:12 12:2 13:0 14:0 15:0 16:0 17:0 18:0 19:0 20:0 21:0 22:0 23:1 24:1 25:2 26:4 27:4 28:4 29:4 30:4 31:4 32:7 33:6 34:2 35:2 36:0 37:0 38:0 39:45 
0.5 1:6 2:0 3:0 4:0 5:3 6:4 7:4 8:5 9:11 10:10 11:2 12:0 13:0 14:0 15:0 16:0 17:0 18:0 19:0 20:0 21:0 22:2 23:3 24:3 25:3 26:3 27:5 28:3 29:4 30:8 31:7 32:2 33:2 34:0 35:0 36:0 37:0 38:0 39:45 
0.2857417747570333 1:0 2:0 3:0 4:0 5:0 6:0 7:3 8:3 9:4 10:4 11:11 12:10 13:2 14:0 15:0 16:0 17:0 18:0 19:0 20:1 21:2 22:3 23:4 24:3 25:2 26:3 27:3 28:7 29:6 30:1 31:2 32:0 33:0 34:0 35:0 36:0 37:0 38:0 39:37 
0.5 1:0 2:0 3:0 4:3 5:4 6:3 7:4 8:12 9:11 10:2 11:0 12:0 13:0 14:0 15:0 16:0 17:0 18:0 19:0 20:0 21:0 22:2 23:2 24:3 25:4 26:2 27:3 28:3 29:3 30:6 31:7 32:2 33:2 34:0 35:0 36:0 37:0 38:0 39:39 
0.1379904779836119 1:0 2:0 3:0 4:0 5:0 6:0 7:2 8:3 9:4 10:5 11:12 12:12 13:2 14:0 15:0 16:0 17:0 18:0 19:0 20:0 21:2 22:2 23:3 24:4 25:3 26:2 27:3 28:3 29:7 30:6 31:3 32:2 33:0 34:0 35:0 36:0 37:0 38:0 39:40 
0.1524724196968653 1:0 2:0 3:0 4:0 5:0 6:0 7:3 8:3 9:4 10:4 11:12 12:10 13:2 14:0 15:0 16:0 17:0 18:0 19:0 20:2 21:2 22:3 23:4 24:3 25:3 26:2 27:3 28:6 29:7 30:2 31:1 32:0 33:0 34:0 35:0 36:0 37:0 38:0 39:38 
0.3268659671723307 1:0 2:0 3:0 4:0 5:0 6:0 7:3 8:4 9:4 10:3 11:11 12:11 13:2 14:0 15:0 16:0 17:0 18:0 19:0 20:0 21:2 22:2 23:1 24:4 25:3 26:3 27:3 28:3 29:7 30:7 31:1 32:2 33:0 34:0 35:0 36:0 37:0 38:0 39:38 
0.5 1:0 2:0 3:0 4:1 5:5 6:5 7:3 8:12 9:12 10:2 11:0 12:0 13:0 14:0 15:0 16:0 17:0 18:0 19:0 20:1 21:2 22:2 23:3 24:4 25:3 26:3 27:3 28:3 29:7 30:5 31:2 32:2 33:0 34:0 35:0 36:0 37:0 38:0 39:40 
0.04691837667141892 1:0 2:0 3:0 4:0 5:0 6:3 7:4 8:3 9:4 10:12 11:9 12:2 13:0 14:0 15:0 16:0 17:0 18:0 19:0 20:0 21:0 22:0 23:2 24:1 25:3 26:3 27:2 28:3 29:2 30:3 31:7 32:7 33:2 34:2 35:0 36:0 37:0 38:0 39:37 
0.04743707607895162 1:0 2:0 3:0 4:0 5:0 6:2 7:3 8:3 9:4 10:12 11:11 12:2 13:0 14:0 15:0 16:0 17:0 18:0 19:0 20:0 21:0 22:0 23:0 24:2 25:2 26:3 27:2 28:3 29:2 30:3 31:3 32:6 33:7 34:2 35:2 36:0 37:0 38:0 39:37 
0.5 1:0 2:0 3:0 4:0 5:2 6:2 7:2 8:3 9:11 10:9 11:2 12:0 13:0 14:0 15:0 16:0 17:0 18:0 19:0 20:0 21:0 22:0 23:0 24:2 25:2 26:2 27:2 28:1 29:1 30:3 31:3 32:7 33:4 34:2 35:2 36:0 37:0 38:0 39:31 
0.1687460186855908 1:0 2:0 3:0 4:0 5:0 6:0 7:2 8:4 9:3 10:4 11:12 12:11 13:2 14:0 15:0 16:0 17:0 18:0 19:0 20:0 21:0 22:2 23:2 24:3 25:2 26:3 27:3 28:3 29:3 30:6 31:7 32:2 33:2 34:0 35:0 36:0 37:0 38:0 39:38 
0.4465197649082741 1:0 2:0 3:0 4:0 5:0 6:2 7:4 8:2 9:3 10:10 11:10 12:2 13:0 14:0 15:0 16:0 17:0 18:0 19:0 20:0 21:2 22:2 23:1 24:3 25:3 26:3 27:3 28:3 29:5 30:7 31:1 32:0 33:0 34:0 35:0 36:0 37:0 38:0 39:33 
0.1808576704855524 1:0 2:0 3:0 4:0 5:3 6:4 7:3 8:4 9:11 10:12 11:2 12:0 13:0 14:0 15:0 16:0 17:0 18:0 19:0 20:2 21:2 22:3 23:3 24:3 25:3 26:3 27:3 28:7 29:7 30:1 31:2 32:0 33:0 34:0 35:0 36:0 37:0 38:0 39:39 
0.09178499490963511 1:1 2:0 3:0 4:0 5:3 6:4 7:4 8:2 9:12 10:12 11:2 12:0 13:0 14:0 15:0 16:0 17:0 18:0 19:0 20:0 21:2 22:2 23:2 24:4 25:3 26:3 27:3 28:3 29:7 30:6 31:2 32:2 33:0 34:0 35:1 36:0 37:0 38:0 39:40 
0.3424265879976609 1:0 2:0 3:0 4:0 5:0 6:3 7:4 8:4 9:4 10:12 11:11 12:2 13:0 14:0 15:0 16:0 17:0 18:0 19:0 20:2 21:2 22:3 23:4 24:3 25:3 26:2 27:3 28:7 29:7 30:2 31:2 32:0 33:0 34:0 35:0 36:0 37:0 38:0 39:40 
0.2232432737483444 1:0 2:0 3:0 4:0 5:2 6:3 7:4 8:4 9:10 10:12 11:2 12:0 13:0 14:0 15:0 16:0 17:0 18:0 19:0 20:2 21:2 22:3 23:4 24:3 25:3 26:1 27:1 28:7 29:7 30:2 31:2 32:0 33:0 34:0 35:0 36:0 37:0 38:0 39:37 
0.2857697961209263 1:0 2:0 3:0 4:3 5:3 6:3 7:4 8:11 9:12 10:2 11:0 12:0 13:0 14:0 15:0 16:0 17:0 18:0 19:0 20:0 21:2 22:2 23:3 24:3 25:3 26:3 27:2 28:3 29:7 30:7 31:1 32:2 33:0 34:0 35:0 36:0 37:0 38:0 39:38 
0.5 1:0 2:0 3:0 4:0 5:0 6:0 7:3 8:4 9:4 10:4 11:11 12:10 13:2 14:0 15:0 16:0 17:0 18:0 19:0 20:0 21:0 22:0 23:2 24:2 25:2 26:4 27:3 28:2 29:2 30:3 31:7 32:7 33:2 34:2 35:0 36:0 37:0 38:0 39:38 
0.4014372509611571 1:0 2:0 3:0 4:0 5:0 6:3 7:4 8:4 9:4 10:12 11:12 12:2 13:0 14:0 15:0 16:0 17:0 18:0 19:0 20:0 21:0 22:0 23:0 24:2 25:2 26:3 27:4 28:3 29:3 30:3 31:3 32:7 33:7 34:2 35:2 36:0 37:0 38:0 39:41 
0.2955845574778433 1:0 2:0 3:0 4:0 5:3 6:3 7:4 8:4 9:12 10:12 11:2 12:0 13:0 14:0 15:0 16:0 17:0 18:0 19:0 20:0 21:0 22:0 23:2 24:2 25:3 26:4 27:3 28:3 29:3 30:3 31:7 32:6 33:2 34:2 35:0 36:0 37:0 38:0 39:40 
-0.5 1:0 2:0 3:0 4:0 5:0 6:0 7:7 8:8 9:4 10:2 11:3 12:4 13:3 14:4 15:8 16:3 17:0 18:0 19:0 20:6 21:5 22:3 23:3 24:2 25:3 26:4 27:3 28:2 29:3 30:8 31:4 32:0 33:0 34:0 35:0 36:0 37:0 38:0 39:46 
-0.264257289089384 1:0 2:0 3:0 4:0 5:9 6:10 7:4 8:4 9:3 10:4 11:2 12:4 13:6 14:0 15:0 16:0 17:0 18:0 19:0 20:0 21:0 22:0 23:5 24:7 25:4 26:3 27:2 28:1 29:2 30:2 31:3 32:3 33:7 34:7 35:0 36:0 37:0 38:0 39:46 
-0.2241458488425556 1:0 2:0 3:0 4:0 5:8 6:12 7:4 8:5 9:4 10:3 11:4 12:3 13:5 14:0 15:0 16:0 17:0 18:0 19:0 20:0 21:6 22:8 23:2 24:2 25:3 26:3 27:2 28:2 29:2 30:5 31:6 32:7 33:0 34:0 35:0 36:0 37:0 38:0 39:48 
-0.2085073529110978 1:0 2:0 3:0 4:0 5:0 6:1 7:6 8:11 9:4 10:4 11:5 12:4 13:3 14:4 15:7 16:1 17:0 18:0 19:1 20:7 21:6 22:3 23:3 24:1 25:3 26:3 27:3 28:2 29:4 30:8 31:6 32:0 33:0 34:0 35:0 36:0 37:0 38:0 39:50 
-0.1170417332311417 1:0 2:0 3:0 4:0 5:0 6:8 7:10 8:4 9:3 10:3 11:4 12:4 13:4 14:6 15:0 16:0 17:0 18:0 19:0 20:0 21:7 22:7 23:3 24:3 25:3 26:2 27:2 28:1 29:2 30:3 31:8 32:5 33:0 34:0 35:0 36:0 37:0 38:0 39:46 
-0.187906128994538 1:0 2:0 3:0 4:0 5:0 6:11 7:12 8:4 9:4 10:4 11:4 12:3 13:5 14:6 15:0 16:0 17:0 18:0 19:0 20:0 21:0 22:0 23:6 24:8 25:4 26:4 27:3 28:3 29:2 30:2 31:3 32:4 33:8 34:6 35:0 36:0 37:0 38:0 39:53 
-0.3105805344107535 1:0 2:0 3:0 4:0 5:8 6:12 7:4 8:5 9:4 10:3 11:4 12:4 13:7 14:0 15:0 16:0 17:0 18:0 19:0 20:0 21:1 22:7 23:8 24:3 25:2 26:3 27:3 28:2 29:3 30:3 31:3 32:8 33:5 34:0 35:0 36:0 37:0 38:0 39:51 
-0.26613201222802 1:1 2:0 3:0 4:0 5:5 6:11 7:4 8:4 9:4 10:4 11:3 12:4 13:7 14:0 15:0 16:0 17:0 18:0 19:0 20:6 21:7 22:3 23:3 24:2 25:4 26:3 27:2 28:1 29:3 30:8 31:5 32:0 33:0 34:0 35:0 36:0 37:0 38:0 39:47 
-0.1190233388334319 1:0 2:0 3:0 4:0 5:0 6:8 7:12 8:4 9:4 10:4 11:4 12:4 13:2 14:5 15:1 16:0 17:0 18:0 19:0 20:0 21:0 22:0 23:7 24:7 25:4 26:3 27:4 28:1 29:2 30:1 31:3 32:2 33:8 34:6 35:0 36:0 37:0 38:0 39:48 
-0.5 1:10 2:0 3:0 4:0 5:0 6:0 7:9 8:12 9:4 10:4 11:4 12:4 13:4 14:3 15:7 16:1 17:0 18:0 19:0 20:0 21:0 22:0 23:0 24:8 25:8 26:4 27:3 28:5 29:3 30:4 31:4 32:4 33:3 34:8 35:8 36:0 37:0 38:0 39:62 
-0.3125820192732501 1:0 2:0 3:0 4:0 5:0 6:10 7:12 8:3 9:4 10:4 11:4 12:4 13:4 14:8 15:0 16:0 17:0 18:0 19:0 20:0 21:0 22:0 23:0 24:7 25:8 26:4 27:3 28:3 29:3 30:2 31:3 32:3 33:3 34:7 35:7 36:0 37:0 38:0 39:53 
-0.4273842351989954 1:0 2:0 3:0 4:0 5:0 6:0 7:10 8:12 9:4 10:4 11:3 12:4 13:4 14:4 15:5 16:0 17:0 18:0 19:0 20:0 21:7 22:6 23:3 24:3 25:3 26:3 27:3 28:2 29:2 30:4 31:8 32:6 33:0 34:0 35:0 36:0 37:0 38:0 39:50 
-0.5 1:0 2:0 3:0 4:7 5:11 6:4 7:4 8:4 9:3 10:4 11:4 12:8 13:0 14:0 15:0 16:0 17:0 18:0 19:0 20:5 21:8 22:4 23:1 24:3 25:3 26:2 27:2 28:3 29:4 30:7 31:7 32:0 33:0 34:0 35:0 36:0 37:0 38:0 39:49 
-0.5 1:0 2:0 3:0 4:0 5:0 6:0 7:7 8:11 9:4 10:4 11:4 12:4 13:4 14:4 15:6 16:1 17:0 18:0 19:0 20:0 21:0 22:0 23:6 24:8 25:3 26:2 27:2 28:3 29:3 30:3 31:3 32:3 33:7 34:6 35:0 36:0 37:0 38:0 39:49 
-0.1574221117372269 1:0 2:0 3:0 4:0 5:8 6:10 7:2 8:3 9:5 10:4 11:4 12:4 13:8 14:0 15:0 16:0 17:0 18:0 19:0 20:0 21:0 22:1 23:4 24:5 25:3 26:3 27:3 28:2 29:3 30:3 31:3 32:4 33:7 34:7 35:0 36:0 37:0 38:0 39:48 
-0.5 1:0 2:0 3:0 4:0 5:0 6:8 7:12 8:4 9:4 10:3 11:3 12:3 13:4 14:3 15:0 16:0 17:0 18:0 19:0 20:0 21:0 22:5 23:8 24:3 25:3 26:2 27:2 28:2 29:2 30:2 31:3 32:6 33:6 34:0 35:0 36:0 37:0 38:0 39:44 
-0.2449440022005502 1:0 2:0 3:0 4:0 5:0 6:9 7:10 8:4 9:4 10:3 11:4 12:4 13:3 14:7 15:0 16:0 17:0 18:0 19:0 20:0 21:0 22:0 23:0 24:4 25:8 26:3 27:2 28:3 29:3 30:2 31:3 32:3 33:4 34:6 35:7 36:0 37:0 38:0 39:48 
-0.1458764700620594 1:0 2:0 3:0 4:0 5:0 6:10 7:11 8:4 9:4 10:4 11:5 12:4 13:2 14:6 15:0 16:0 17:0 18:0 19:0 20:0 21:7 22:7 23:4 24:3 25:3 26:2 27:3 28:2 29:2 30:2 31:7 32:7 33:0 34:0 35:0 36:1 37:0 38:0 39:50 
-0.197319450513262 1:0 2:0 3:0 4:0 5:8 6:12 7:4 8:3 9:4 10:4 11:4 12:4 13:8 14:1 15:0 16:0 17:0 18:0 19:0 20:7 21:7 22:4 23:2 24:3 25:3 26:2 27:3 28:3 29:3 30:8 31:7 32:0 33:0 34:0 35:0 36:0 37:0 38:0 39:52 
-0.3957341387272576 1:0 2:0 3:0 4:0 5:10 6:12 7:4 8:3 9:4 10:4 11:4 12:4 13:6 14:0 15:0 16:0 17:0 18:0 19:0 20:0 21:0 22:0 23:0 24:7 25:7 26:4 27:2 28:2 29:2 30:3 31:3 32:3 33:4 34:8 35:6 36:0 37:0 38:0 39:51 
-0.09257840824977737 1:0 2:0 3:0 4:0 5:10 6:11 7:4 8:4 9:4 10:3 11:4 12:3 13:7 14:1 15:0 16:0 17:0 18:0 19:0 20:0 21:7 22:7 23:4 24:3 25:3 26:2 27:4 28:3 29:2 30:3 31:7 32:6 33:0 34:0 35:0 36:0 37:0 38:0 39:51 
-0.3767827201868411 1:0 2:0 3:0 4:0 5:0 6:11 7:12 8:3 9:3 10:4 11:4 12:4 13:4 14:8 15:0 16:0 17:0 18:0 19:0 20:6 21:7 22:4 23:3 24:3 25:3 26:3 27:3 28:3 29:4 30:7 31:7 32:0 33:0 34:0 35:0 36:0 37:0 38:0 39:53 
