svm_type c_svc
kernel_type rbf
gamma 0.0078125
nr_class 2
total_sv 51
rho 0.350749
label 0 1
probA -4.38113
probB 0.108414
nr_sv 23 28
SV
0.0170434087575242 1:0 2:0 3:0 4:0 5:4 6:4 7:4 8:3 9:10 10:12 11:2 12:0 13:0 14:0 15:0 16:0 17:0 18:0 19:0 20:2 21:2 22:2 23:3 24:4 25:3 26:3 27:2 28:7 29:7 30:2 31:2 32:0 33:0 34:0 35:0 36:0 37:0 38:0 39:39 
0.5 1:6 2:0 3:0 4:0 5:0 6:3 7:5 8:4 9:3 10:10 11:12 12:2 13:0 14:0 15:0 16:0 17:0 18:0 19:0 20:0 21:0 22:0 23:1 24:1 25:2 26:4 27:4 28:4 29:4 30:4 31:4 32:7 33:6 34:2 35:2 36:0 37:0 38:0 39:45 
0.5 1:6 2:0 3:0 4:0 5:3 6:4 7:4 8:5 9:11 10:10 11:2 12:0 13:0 14:0 15:0 16:0 17:0 18:0 19:0 20:0 21:0 22:2 23:3 24:3 25:3 26:3 27:5 28:3 29:4 30:8 31:7 32:2 33:2 34:0 35:0 36:0 37:0 38:0 39:45 
0.3543244137420774 1:0 2:0 3:0 4:0 5:0 6:0 7:3 8:3 9:4 10:4 11:11 12:10 13:2 14:0 15:0 16:0 17:0 18:0 19:0 20:1 21:2 22:3 23:4 24:3 25:2 26:3 27:3 28:7 29:6 30:1 31:2 32:0 33:0 34:0 35:0 36:0 37:0 38:0 39:37 
0.5 1:0 2:0 3:0 4:3 5:4 6:3 7:4 8:12 9:11 10:2 11:0 12:0 13:0 14:0 15:0 16:0 17:0 18:0 19:0 20:0 21:0 22:2 23:2 24:3 25:4 26:2 27:3 28:3 29:3 30:6 31:7 32:2 33:2 34:0 35:0 36:0 37:0 38:0 39:39 
0.08305296386779876 1:0 2:0 3:0 4:0 5:0 6:0 7:2 8:3 9:4 10:5 11:12 12:12 13:2 14:0 15:0 16:0 17:0 18:0 19:0 20:0 21:2 22:2 23:3 24:4 25:3 26:2 27:3 28:3 29:7 30:6 31:3 32:2 33:0 34:0 35:0 36:0 37:0 38:0 39:40 
0.1575643828191871 1:0 2:0 3:0 4:0 5:0 6:0 7:3 8:3 9:4 10:4 11:12 12:10 13:2 14:0 15:0 16:0 17:0 18:0 19:0 20:2 21:2 22:3 23:4 24:3 25:3 26:2 27:3 28:6 29:7 30:2 31:1 32:0 33:0 34:0 35:0 36:0 37:0 38:0 39:38 
0.4328405016267785 1:0 2:0 3:0 4:0 5:0 6:0 7:3 8:4 9:4 10:3 11:11 12:11 13:2 14:0 15:0 16:0 17:0 18:0 19:0 20:0 21:2 22:2 23:1 24:4 25:3 26:3 27:3 28:3 29:7 30:7 31:1 32:2 33:0 34:0 35:0 36:0 37:0 38:0 39:38 
0.5 1:0 2:0 3:0 4:1 5:5 6:5 7:3 8:12 9:12 10:2 11:0 12:0 13:0 14:0 15:0 16:0 17:0 18:0 19:0 20:1 21:2 22:2 23:3 24:4 25:3 26:3 27:3 28:3 29:7 30:5 31:2 32:2 33:0 34:0 35:0 36:0 37:0 38:0 39:40 
0.04335823456715385 1:0 2:0 3:0 4:0 5:0 6:3 7:4 8:3 9:4 10:12 11:9 12:2 13:0 14:0 15:0 16:0 17:0 18:0 19:0 20:0 21:0 22:0 23:2 24:1 25:3 26:3 27:2 28:3 29:2 30:3 31:7 32:7 33:2 34:2 35:0 36:0 37:0 38:0 39:37 
0.07747498276086584 1:0 2:0 3:0 4:0 5:0 6:2 7:3 8:3 9:4 10:12 11:11 12:2 13:0 14:0 15:0 16:0 17:0 18:0 19:0 20:0 21:0 22:0 23:0 24:2 25:2 26:3 27:2 28:3 29:2 30:3 31:3 32:6 33:7 34:2 35:2 36:0 37:0 38:0 39:37 
0.5 1:0 2:0 3:0 4:0 5:2 6:2 7:2 8:3 9:11 10:9 11:2 12:0 13:0 14:0 15:0 16:0 17:0 18:0 19:0 20:0 21:0 22:0 23:0 24:2 25:2 26:2 27:2 28:1 29:1 30:3 31:3 32:7 33:4 34:2 35:2 36:0 37:0 38:0 39:31 
0.2139335075451707 1:0 2:0 3:0 4:0 5:0 6:0 7:2 8:4 9:3 10:4 11:12 12:11 13:2 14:0 15:0 16:0 17:0 18:0 19:0 20:0 21:0 22:2 23:2 24:3 25:2 26:3 27:3 28:3 29:3 30:6 31:7 32:2 33:2 34:0 35:0 36:0 37:0 38:0 39:38 
0.4935907503798326 1:0 2:0 3:0 4:0 5:0 6:2 7:4 8:2 9:3 10:10 11:10 12:2 13:0 14:0 15:0 16:0 17:0 18:0 19:0 20:0 21:2 22:2 23:1 24:3 25:3 26:3 27:3 28:3 29:5 30:7 31:1 32:0 33:0 34:0 35:0 36:0 37:0 38:0 39:33 
0.3188977380405333 1:0 2:0 3:0 4:0 5:3 6:4 7:3 8:4 9:11 10:12 11:2 12:0 13:0 14:0 15:0 16:0 17:0 18:0 19:0 20:2 21:2 22:3 23:3 24:3 25:3 26:3 27:3 28:7 29:7 30:1 31:2 32:0 33:0 34:0 35:0 36:0 37:0 38:0 39:39 
0.09027919285357236 1:1 2:0 3:0 4:0 5:3 6:4 7:4 8:2 9:12 10:12 11:2 12:0 13:0 14:0 15:0 16:0 17:0 18:0 19:0 20:0 21:2 22:2 23:2 24:4 25:3 26:3 27:3 28:3 29:7 30:6 31:2 32:2 33:0 34:0 35:1 36:0 37:0 38:0 39:40 
0.4038022904077217 1:0 2:0 3:0 4:0 5:0 6:3 7:4 8:4 9:4 10:12 11:11 12:2 13:0 14:0 15:0 16:0 17:0 18:0 19:0 20:2 21:2 22:3 23:4 24:3 25:3 26:2 27:3 28:7 29:7 30:2 31:2 32:0 33:0 34:0 35:0 36:0 37:0 38:0 39:40 
0.2474039920493086 1:0 2:0 3:0 4:0 5:2 6:3 7:4 8:4 9:10 10:12 11:2 12:0 13:0 14:0 15:0 16:0 17:0 18:0 19:0 20:2 21:2 22:3 23:4 24:3 25:3 26:1 27:1 28:7 29:7 30:2 31:2 32:0 33:0 34:0 35:0 36:0 37:0 38:0 39:37 
0.4119938108374938 1:0 2:0 3:0 4:3 5:3 6:3 7:4 8:11 9:12 10:2 11:0 12:0 13:0 14:0 15:0 16:0 17:0 18:0 19:0 20:0 21:2 22:2 23:3 24:3 25:3 26:3 27:2 28:3 29:7 30:7 31:1 32:2 33:0 34:0 35:0 36:0 37:0 38:0 39:38 
0.006114789489855054 1:0 2:0 3:0 4:0 5:3 6:4 7:3 8:4 9:12 10:8 11:2 12:0 13:0 14:0 15:0 16:0 17:0 18:0 19:0 20:0 21:0 22:0 23:2 24:2 25:2 26:3 27:3 28:2 29:3 30:2 31:6 32:7 33:2 34:2 35:0 36:0 37:0 38:0 39:36 
0.5 1:0 2:0 3:0 4:0 5:0 6:0 7:3 8:4 9:4 10:4 11:11 12:10 13:2 14:0 15:0 16:0 17:0 18:0 19:0 20:0 21:0 22:0 23:2 24:2 25:2 26:4 27:3 28:2 29:2 30:3 31:7 32:7 33:2 34:2 35:0 36:0 37:0 38:0 39:38 
0.4771241334931846 1:0 2:0 3:0 4:0 5:0 6:3 7:4 8:4 9:4 10:12 11:12 12:2 13:0 14:0 15:0 16:0 17:0 18:0 19:0 20:0 21:0 22:0 23:0 24:2 25:2 26:3 27:4 28:3 29:3 30:3 31:3 32:7 33:7 34:2 35:2 36:0 37:0 38:0 39:41 
0.3426905288222605 1:0 2:0 3:0 4:0 5:3 6:3 7:4 8:4 9:12 10:12 11:2 12:0 13:0 14:0 15:0 16:0 17:0 18:0 19:0 20:0 21:0 22:0 23:2 24:2 25:3 26:4 27:3 28:3 29:3 30:3 31:7 32:6 33:2 34:2 35:0 36:0 37:0 38:0 39:40 
-0.2159335345679132 1:0 2:0 3:0 4:0 5:1 6:10 7:12 8:3 9:4 10:4 11:3 12:4 13:4 14:4 15:3 16:9 17:0 18:0 19:0 20:0 21:0 22:0 23:7 24:5 25:7 26:6 27:4 28:5 29:4 30:4 31:5 32:6 33:5 34:3 35:0 36:0 37:0 38:0 39:61 
-0.1522192170405404 1:0 2:0 3:0 4:0 5:9 6:12 7:3 8:5 9:4 10:4 11:3 12:3 13:3 14:3 15:7 16:0 17:0 18:0 19:0 20:0 21:0 22:0 23:0 24:5 25:7 26:7 27:5 28:4 29:5 30:2 31:3 32:5 33:5 34:5 35:3 36:0 37:0 38:0 39:56 
-0.159153439673093 1:0 2:0 3:0 4:0 5:8 6:12 7:3 8:3 9:3 10:4 11:4 12:3 13:4 14:4 15:11 16:0 17:0 18:0 19:0 20:0 21:6 22:5 23:7 24:5 25:5 26:5 27:4 28:4 29:5 30:6 31:5 32:2 33:0 34:0 35:0 36:0 37:0 38:0 39:59 
-0.3736479891798061 1:0 2:0 3:0 4:0 5:0 6:10 7:12 8:3 9:5 10:5 11:4 12:4 13:4 14:4 15:3 16:11 17:0 18:0 19:0 20:0 21:6 22:7 23:6 24:6 25:5 26:6 27:5 28:5 29:5 30:6 31:5 32:3 33:0 34:0 35:0 36:0 37:0 38:0 39:65 
-0.4826446700266403 1:3 2:4 3:7 4:6 5:0 6:0 7:11 8:12 9:3 10:5 11:3 12:4 13:4 14:5 15:4 16:3 17:0 18:0 19:0 20:0 21:0 22:5 23:7 24:7 25:6 26:5 27:6 28:6 29:4 30:6 31:5 32:7 33:6 34:3 35:1 36:0 37:0 38:0 39:74 
-0.4155187273575838 1:7 2:6 3:2 4:8 5:12 6:3 7:4 8:2 9:2 10:4 11:3 12:4 13:3 14:11 15:0 16:0 17:0 18:0 19:0 20:0 21:5 22:9 23:8 24:6 25:5 26:6 27:5 28:5 29:5 30:5 31:6 32:4 33:1 34:1 35:0 36:0 37:0 38:0 39:71 
-0.3454498045580595 1:0 2:0 3:0 4:9 5:12 6:3 7:4 8:5 9:5 10:3 11:4 12:4 13:2 14:6 15:0 16:0 17:0 18:0 19:0 20:6 21:7 22:6 23:4 24:3 25:6 26:5 27:5 28:6 29:3 30:4 31:2 32:0 33:0 34:0 35:0 36:0 37:0 38:0 39:57 
-0.2565645333857921 1:4 2:6 3:5 4:1 5:0 6:0 7:8 8:12 9:3 10:4 11:5 12:3 13:3 14:5 15:4 16:3 17:0 18:0 19:0 20:0 21:0 22:8 23:6 24:6 25:5 26:6 27:6 28:4 29:5 30:7 31:5 32:5 33:3 34:0 35:0 36:0 37:0 38:0 39:66 
-0.2763978017068305 1:0 2:0 3:0 4:0 5:7 6:11 7:3 8:5 9:4 10:4 11:3 12:4 13:4 14:3 15:11 16:0 17:0 18:0 19:0 20:6 21:7 22:7 23:5 24:4 25:5 26:5 27:5 28:6 29:3 30:5 31:1 32:0 33:0 34:0 35:0 36:0 37:0 38:0 39:59 
-0.2400731414168644 1:0 2:0 3:0 4:0 5:9 6:11 7:3 8:5 9:5 10:3 11:3 12:3 13:4 14:4 15:10 16:0 17:0 18:0 19:0 20:0 21:0 22:0 23:0 24:6 25:6 26:6 27:6 28:5 29:5 30:5 31:3 32:5 33:5 34:5 35:3 36:0 37:0 38:0 39:60 
-0.01587188020597579 1:0 2:0 3:0 4:8 5:10 6:3 7:3 8:5 9:4 10:4 11:4 12:4 13:2 14:9 15:0 16:0 17:0 18:0 19:0 20:0 21:5 22:5 23:7 24:4 25:4 26:5 27:5 28:4 29:4 30:6 31:5 32:2 33:0 34:0 35:0 36:0 37:0 38:0 39:56 
-0.02330833590920787 1:0 2:0 3:0 4:0 5:0 6:0 7:8 8:12 9:2 10:5 11:5 12:5 13:3 14:3 15:4 16:2 17:0 18:1 19:0 20:5 21:4 22:5 23:3 24:4 25:5 26:4 27:3 28:5 29:4 30:4 31:2 32:0 33:0 34:0 35:0 36:0 37:0 38:0 39:49 
-0.3017173691430373 1:0 2:0 3:0 4:0 5:0 6:7 7:10 8:2 9:4 10:5 11:4 12:3 13:2 14:4 15:4 16:11 17:0 18:0 19:0 20:0 21:0 22:0 23:0 24:4 25:4 26:7 27:6 28:4 29:6 30:4 31:3 32:6 33:6 34:3 35:3 36:0 37:0 38:0 39:56 
-0.1917274252979239 1:0 2:0 3:0 4:8 5:12 6:3 7:5 8:5 9:3 10:4 11:4 12:2 13:3 14:11 15:0 16:0 17:0 18:0 19:0 20:0 21:6 22:6 23:6 24:5 25:5 26:5 27:5 28:5 29:5 30:6 31:3 32:3 33:0 34:0 35:0 36:0 37:0 38:0 39:60 
-0.5 1:0 2:0 3:0 4:5 5:11 6:3 7:2 8:4 9:3 10:3 11:3 12:4 13:3 14:7 15:0 16:0 17:0 18:0 19:0 20:0 21:0 22:0 23:0 24:5 25:6 26:5 27:3 28:5 29:4 30:3 31:3 32:4 33:6 34:3 35:1 36:0 37:0 38:0 39:48 
-0.288699325079684 1:0 2:0 3:0 4:9 5:12 6:3 7:4 8:3 9:4 10:4 11:4 12:4 13:3 14:9 15:0 16:0 17:0 18:0 19:0 20:0 21:0 22:0 23:5 24:7 25:7 26:6 27:4 28:5 29:3 30:5 31:5 32:5 33:4 34:3 35:0 36:0 37:0 38:0 39:59 
-0.5 1:0 2:0 3:0 4:0 5:0 6:0 7:6 8:11 9:3 10:4 11:4 12:3 13:4 14:3 15:4 16:3 17:0 18:0 19:0 20:5 21:5 22:5 23:4 24:4 25:4 26:4 27:3 28:4 29:4 30:3 31:0 32:0 33:0 34:0 35:0 36:0 37:0 38:0 39:45 
-0.1311079694669639 1:0 2:0 3:0 4:1 5:8 6:11 7:3 8:4 9:3 10:4 11:4 12:2 13:4 14:3 15:10 16:0 17:0 18:0 19:0 20:0 21:0 22:5 23:5 24:7 25:5 26:3 27:5 28:4 29:5 30:5 31:5 32:5 33:3 34:0 35:0 36:0 37:0 38:0 39:57 
-0.3257055406762334 1:4 2:6 3:5 4:2 5:0 6:0 7:10 8:9 9:3 10:3 11:5 12:4 13:3 14:3 15:4 16:2 17:0 18:0 19:0 20:2 21:5 22:7 23:6 24:5 25:5 26:6 27:4 28:6 29:6 30:6 31:4 32:1 33:0 34:0 35:0 36:0 37:0 38:0 39:63 
-0.4104591980683365 1:0 2:0 3:0 4:1 5:1 6:0 7:5 8:10 9:3 10:5 11:3 12:4 13:4 14:4 15:4 16:3 17:0 18:0 19:0 20:0 21:3 22:5 23:5 24:3 25:4 26:5 27:4 28:4 29:4 30:3 31:4 32:3 33:0 34:0 35:0 36:0 37:0 38:0 39:47 
-0.1742027551528332 1:0 2:0 3:0 4:0 5:7 6:11 7:3 8:4 9:5 10:4 11:4 12:4 13:2 14:3 15:6 16:0 17:0 18:0 19:0 20:4 21:6 22:5 23:5 24:3 25:4 26:4 27:4 28:6 29:5 30:4 31:3 32:0 33:0 34:0 35:0 36:0 37:0 38:0 39:53 
-0.170522086467198 1:0 2:0 3:0 4:0 5:0 6:7 7:12 8:3 9:4 10:4 11:4 12:4 13:3 14:3 15:3 16:8 17:0 18:0 19:0 20:5 21:5 22:7 23:4 24:4 25:5 26:5 27:4 28:4 29:4 30:5 31:3 32:0 33:0 34:0 35:0 36:0 37:0 38:0 39:55 
-0.1355379058422294 1:0 2:0 3:0 4:0 5:0 6:10 7:10 8:4 9:4 10:5 11:4 12:3 13:2 14:4 15:3 16:10 17:0 18:0 19:0 20:0 21:0 22:0 23:0 24:6 25:6 26:7 27:6 28:5 29:3 30:3 31:5 32:5 33:6 34:4 35:3 36:0 37:0 38:0 39:59 
-0.0009888487423166767 1:0 2:0 3:0 4:0 5:0 6:8 7:12 8:3 9:6 10:4 11:4 12:4 13:3 14:4 15:3 16:9 17:0 18:0 19:0 20:4 21:6 22:6 23:5 24:5 25:6 26:4 27:6 28:6 29:4 30:5 31:3 32:0 33:0 34:0 35:0 36:0 37:0 38:0 39:60 
-0.1231327121518563 1:0 2:0 3:0 4:0 5:0 6:7 7:10 8:3 9:4 10:4 11:4 12:2 13:3 14:4 15:3 16:10 17:0 18:0 19:0 20:0 21:6 22:6 23:5 24:5 25:3 26:4 27:4 28:4 29:5 30:4 31:5 32:3 33:0 34:0 35:0 36:0 37:0 38:0 39:54 
-0.5 1:0 2:0 3:0 4:0 5:0 6:1 7:5 8:10 9:3 10:5 11:4 12:4 13:3 14:2 15:3 16:3 17:0 18:0 19:0 20:0 21:0 22:0 23:0 24:4 25:5 26:4 27:6 28:2 29:4 30:3 31:2 32:5 33:3 34:2 35:3 36:0 37:0 38:0 39:43 
-0.05448441714807292 1:0 2:0 3:0 4:1 5:7 6:11 7:3 8:5 9:3 10:4 11:4 12:3 13:4 14:3 15:10 16:1 17:0 18:0 19:0 20:0 21:0 22:0 23:0 24:5 25:7 26:8 27:4 28:6 29:5 30:4 31:4 32:4 33:5 34:5 35:2 36:0 37:0 38:0 39:59 
-0.4064209937953264 1:4 2:6 3:5 4:6 5:11 6:3 7:5 8:5 9:4 10:4 11:4 12:3 13:4 14:11 15:0 16:0 17:0 18:0 19:0 20:0 21:0 22:6 23:6 24:8 25:7 26:5 27:6 28:7 29:5 30:6 31:6 32:7 33:4 34:1 35:1 36:0 37:0 38:0 39:75 
