svm_type c_svc
kernel_type rbf
gamma 0.0078125
nr_class 2
total_sv 30
rho -0.298379
label 0 1
probA -3.71277
probB -0.0174907
nr_sv 13 17
SV
0.2669216320549936 1:0 2:0 3:0 4:0 5:4 6:4 7:4 8:3 9:10 10:12 11:2 12:0 13:0 14:0 15:0 16:0 17:0 18:0 19:0 20:2 21:2 22:2 23:3 24:4 25:3 26:3 27:2 28:7 29:7 30:2 31:2 32:0 33:0 34:0 35:0 36:0 37:0 38:0 39:39 
0.7061918040648633 1:6 2:0 3:0 4:0 5:0 6:3 7:5 8:4 9:3 10:10 11:12 12:2 13:0 14:0 15:0 16:0 17:0 18:0 19:0 20:0 21:0 22:0 23:1 24:1 25:2 26:4 27:4 28:4 29:4 30:4 31:4 32:7 33:6 34:2 35:2 36:0 37:0 38:0 39:45 
0.4724070100611235 1:6 2:0 3:0 4:0 5:3 6:4 7:4 8:5 9:11 10:10 11:2 12:0 13:0 14:0 15:0 16:0 17:0 18:0 19:0 20:0 21:0 22:2 23:3 24:3 25:3 26:3 27:5 28:3 29:4 30:8 31:7 32:2 33:2 34:0 35:0 36:0 37:0 38:0 39:45 
0.6324936601585012 1:0 2:0 3:0 4:0 5:0 6:0 7:3 8:3 9:4 10:4 11:11 12:10 13:2 14:0 15:0 16:0 17:0 18:0 19:0 20:1 21:2 22:3 23:4 24:3 25:2 26:3 27:3 28:7 29:6 30:1 31:2 32:0 33:0 34:0 35:0 36:0 37:0 38:0 39:37 
0.7925309850690591 1:0 2:0 3:0 4:3 5:4 6:3 7:4 8:12 9:11 10:2 11:0 12:0 13:0 14:0 15:0 16:0 17:0 18:0 19:0 20:0 21:0 22:2 23:2 24:3 25:4 26:2 27:3 28:3 29:3 30:6 31:7 32:2 33:2 34:0 35:0 36:0 37:0 38:0 39:39 
1.778012451542955 1:0 2:0 3:0 4:0 5:0 6:3 7:4 8:4 9:5 10:9 11:10 12:1 13:0 14:0 15:0 16:0 17:0 18:0 19:0 20:0 21:0 22:0 23:1 24:2 25:2 26:2 27:4 28:2 29:3 30:4 31:3 32:6 33:6 34:1 35:0 36:0 37:0 38:0 39:36 
0.4426715871124225 1:0 2:0 3:0 4:0 5:0 6:0 7:3 8:4 9:4 10:3 11:11 12:11 13:2 14:0 15:0 16:0 17:0 18:0 19:0 20:0 21:2 22:2 23:1 24:4 25:3 26:3 27:3 28:3 29:7 30:7 31:1 32:2 33:0 34:0 35:0 36:0 37:0 38:0 39:38 
1.388105508065153 1:0 2:0 3:0 4:0 5:2 6:2 7:2 8:3 9:11 10:9 11:2 12:0 13:0 14:0 15:0 16:0 17:0 18:0 19:0 20:0 21:0 22:0 23:0 24:2 25:2 26:2 27:2 28:1 29:1 30:3 31:3 32:7 33:4 34:2 35:2 36:0 37:0 38:0 39:31 
1.340863041826386 1:0 2:0 3:0 4:0 5:0 6:2 7:4 8:2 9:3 10:10 11:10 12:2 13:0 14:0 15:0 16:0 17:0 18:0 19:0 20:0 21:2 22:2 23:1 24:3 25:3 26:3 27:3 28:3 29:5 30:7 31:1 32:0 33:0 34:0 35:0 36:0 37:0 38:0 39:33 
0.3823331922287697 1:0 2:0 3:0 4:0 5:2 6:3 7:4 8:4 9:10 10:12 11:2 12:0 13:0 14:0 15:0 16:0 17:0 18:0 19:0 20:2 21:2 22:3 23:4 24:3 25:3 26:1 27:1 28:7 29:7 30:2 31:2 32:0 33:0 34:0 35:0 36:0 37:0 38:0 39:37 
0.7106264915052979 1:0 2:0 3:0 4:3 5:3 6:3 7:4 8:11 9:12 10:2 11:0 12:0 13:0 14:0 15:0 16:0 17:0 18:0 19:0 20:0 21:2 22:2 23:3 24:3 25:3 26:3 27:2 28:3 29:7 30:7 31:1 32:2 33:0 34:0 35:0 36:0 37:0 38:0 39:38 
0.6654091778759657 1:0 2:0 3:0 4:0 5:3 6:4 7:3 8:4 9:12 10:8 11:2 12:0 13:0 14:0 15:0 16:0 17:0 18:0 19:0 20:0 21:0 22:0 23:2 24:2 25:2 26:3 27:3 28:2 29:3 30:2 31:6 32:7 33:2 34:2 35:0 36:0 37:0 38:0 39:36 
1.208937930965876 1:0 2:0 3:0 4:0 5:0 6:0 7:3 8:4 9:4 10:4 11:11 12:10 13:2 14:0 15:0 16:0 17:0 18:0 19:0 20:0 21:0 22:0 23:2 24:2 25:2 26:4 27:3 28:2 29:2 30:3 31:7 32:7 33:2 34:2 35:0 36:0 37:0 38:0 39:38 
-1.096594315508574 1:0 2:0 3:0 4:0 5:0 6:3 7:6 8:3 9:5 10:4 11:8 12:1 13:0 14:0 15:0 16:0 17:0 18:0 19:0 20:0 21:0 22:0 23:3 24:5 25:2 26:3 27:4 28:3 29:2 30:5 31:3 32:0 33:0 34:0 35:0 36:0 37:0 38:0 39:30 
-0.4316737094408454 1:0 2:0 3:0 4:0 5:4 6:6 7:5 8:5 9:6 10:8 11:1 12:0 13:0 14:0 15:0 16:0 17:0 18:0 19:0 20:0 21:0 22:0 23:0 24:0 25:0 26:3 27:5 28:3 29:3 30:5 31:3 32:2 33:6 34:4 35:1 36:0 37:0 38:0 39:35 
-0.735773714703297 1:0 2:0 3:0 4:0 5:0 6:4 7:7 8:5 9:5 10:5 11:8 12:1 13:0 14:0 15:0 16:0 17:0 18:0 19:0 20:0 21:0 22:0 23:0 24:0 25:0 26:3 27:5 28:3 29:3 30:5 31:3 32:3 33:6 34:4 35:0 36:0 37:0 38:0 39:35 
-0.1267366908558557 1:0 2:0 3:0 4:0 5:3 6:6 7:4 8:4 9:5 10:8 11:2 12:0 13:0 14:0 15:0 16:0 17:0 18:0 19:0 20:0 21:0 22:0 23:0 24:0 25:0 26:0 27:2 28:5 29:3 30:4 31:5 32:3 33:1 34:5 35:4 36:0 37:0 38:0 39:32 
-0.4153511620681187 1:0 2:0 3:0 4:0 5:2 6:6 7:3 8:5 9:5 10:7 11:0 12:0 13:0 14:0 15:0 16:0 17:0 18:0 19:0 20:0 21:0 22:0 23:0 24:2 25:5 26:2 27:3 28:5 29:3 30:1 31:6 32:1 33:0 34:0 35:0 36:0 37:0 38:0 39:28 
-0.8642878350754237 1:0 2:0 3:0 4:0 5:0 6:0 7:3 8:5 9:5 10:5 11:5 12:8 13:2 14:0 15:0 16:0 17:0 18:0 19:0 20:0 21:0 22:0 23:0 24:0 25:0 26:0 27:3 28:5 29:3 30:3 31:5 32:3 33:2 34:5 35:4 36:0 37:0 38:0 39:33 
-0.9805165679966578 1:0 2:0 3:0 4:0 5:0 6:3 7:6 8:5 9:5 10:5 11:8 12:1 13:0 14:0 15:0 16:0 17:0 18:0 19:0 20:0 21:0 22:0 23:0 24:0 25:3 26:5 27:3 28:3 29:5 30:3 31:1 32:6 33:4 34:0 35:0 36:0 37:0 38:0 39:33 
-0.009167959601639056 1:0 2:0 3:0 4:0 5:0 6:4 7:5 8:5 9:6 10:4 11:7 12:1 13:0 14:0 15:0 16:0 17:0 18:0 19:0 20:0 21:0 22:0 23:0 24:3 25:4 26:4 27:3 28:4 29:3 30:2 31:6 32:3 33:0 34:0 35:0 36:0 37:0 38:0 39:32 
-1.719492323364654 1:0 2:0 3:0 4:0 5:0 6:0 7:3 8:6 9:5 10:5 11:6 12:8 13:1 14:0 15:0 16:0 17:0 18:0 19:0 20:0 21:0 22:0 23:0 24:0 25:3 26:5 27:2 28:3 29:5 30:3 31:3 32:6 33:4 34:0 35:0 36:0 37:0 38:0 39:34 
-0.2395460717998379 1:0 2:0 3:0 4:0 5:3 6:5 7:5 8:4 9:5 10:8 11:2 12:0 13:0 14:0 15:0 16:0 17:0 18:0 19:0 20:0 21:0 22:0 23:0 24:0 25:3 26:5 27:2 28:4 29:5 30:2 31:2 32:5 33:4 34:0 35:0 36:0 37:0 38:0 39:32 
-0.5796231832675424 1:0 2:0 3:0 4:4 5:5 6:5 7:5 8:4 9:8 10:2 11:0 12:0 13:0 14:0 15:0 16:0 17:0 18:0 19:0 20:0 21:0 22:0 23:0 24:0 25:3 26:4 27:3 28:3 29:6 30:2 31:2 32:6 33:4 34:0 35:0 36:0 37:0 38:0 39:33 
-0.09810057897935867 1:0 2:0 3:0 4:0 5:3 6:5 7:5 8:5 9:5 10:8 11:1 12:0 13:0 14:0 15:0 16:0 17:0 18:0 19:0 20:0 21:0 22:0 23:3 24:5 25:2 26:3 27:5 28:2 29:2 30:6 31:4 32:0 33:0 34:0 35:0 36:0 37:0 38:0 39:32 
-0.5850538269737517 1:0 2:0 3:0 4:0 5:2 6:7 7:5 8:5 9:5 10:8 11:1 12:0 13:0 14:0 15:0 16:0 17:0 18:0 19:0 20:0 21:0 22:0 23:3 24:5 25:2 26:3 27:5 28:3 29:2 30:6 31:4 32:0 33:0 34:0 35:0 36:0 37:0 38:0 39:33 
-0.6426373688829509 1:0 2:0 3:0 4:4 5:6 6:5 7:5 8:4 9:8 10:1 11:0 12:0 13:0 14:0 15:0 16:0 17:0 18:0 19:0 20:0 21:0 22:0 23:3 24:4 25:3 26:3 27:5 28:3 29:2 30:6 31:4 32:0 33:0 34:0 35:0 36:0 37:0 38:0 39:33 
-0.4031900963882588 1:0 2:0 3:0 4:0 5:4 6:6 7:6 8:5 9:5 10:8 11:1 12:0 13:0 14:0 15:0 16:0 17:0 18:0 19:0 20:0 21:0 22:0 23:0 24:0 25:0 26:0 27:3 28:6 29:2 30:4 31:5 32:3 33:2 34:6 35:4 36:0 37:0 38:0 39:35 
-1.504932660039246 1:11 2:0 3:0 4:0 5:0 6:3 7:5 8:5 9:4 10:4 11:8 12:1 13:0 14:0 15:0 16:0 17:0 18:0 19:0 20:1 21:1 22:1 23:0 24:1 25:1 26:4 27:6 28:3 29:3 30:4 31:4 32:2 33:6 34:4 35:0 36:0 37:0 38:0 39:41 
-0.3548264075853549 1:0 2:0 3:0 4:4 5:5 6:5 7:5 8:5 9:8 10:1 11:0 12:0 13:0 14:0 15:0 16:0 17:0 18:0 19:0 20:0 21:0 22:0 23:0 24:0 25:0 26:0 27:4 28:5 29:1 30:3 31:5 32:3 33:2 34:6 35:4 36:0 37:0 38:0 39:33 
