svm_type c_svc
kernel_type rbf
gamma 0.00012207
nr_class 2
total_sv 32
rho -0.0727269
label 0 1
probA -3.82204
probB 0.351717
nr_sv 16 16
SV
2 1:0 2:0 3:0 4:0 5:0 6:2 7:6 8:6 9:6 10:6 11:6 12:4 13:1 14:0 15:0 16:0 17:0 18:0 19:0 20:0 21:0 22:4 23:4 24:1 25:1 26:4 27:5 28:4 29:1 30:2 31:3 32:5 33:3 34:0 35:0 36:0 37:0 38:0 39:37 
2 1:0 2:0 3:0 4:0 5:0 6:2 7:8 8:6 9:6 10:6 11:6 12:4 13:0 14:0 15:0 16:0 17:0 18:0 19:0 20:0 21:4 22:4 23:1 24:1 25:4 26:5 27:3 28:1 29:3 30:4 31:5 32:3 33:0 34:0 35:0 36:0 37:0 38:0 39:38 
2 1:10 2:0 3:0 4:0 5:0 6:0 7:2 8:8 9:7 10:6 11:6 12:6 13:3 14:0 15:0 16:0 17:0 18:0 19:0 20:0 21:4 22:4 23:2 24:2 25:5 26:6 27:6 28:1 29:4 30:4 31:6 32:4 33:0 34:0 35:0 36:0 37:0 38:0 39:48 
2 1:5 2:0 3:0 4:3 5:8 6:6 7:5 8:8 9:6 10:4 11:0 12:0 13:0 14:0 15:0 16:0 17:0 18:0 19:0 20:0 21:0 22:0 23:0 24:5 25:5 26:1 27:0 28:4 29:6 30:6 31:1 32:4 33:4 34:5 35:3 36:1 37:0 38:0 39:45 
2 1:0 2:0 3:0 4:0 5:0 6:3 7:9 8:5 9:6 10:6 11:6 12:3 13:0 14:0 15:0 16:0 17:0 18:0 19:0 20:0 21:4 22:5 23:2 24:1 25:3 26:5 27:3 28:1 29:3 30:3 31:5 32:3 33:0 34:0 35:0 36:0 37:0 38:0 39:38 
2 1:0 2:0 3:0 4:0 5:2 6:9 7:6 8:6 9:6 10:6 11:4 12:0 13:0 14:0 15:0 16:0 17:0 18:0 19:0 20:0 21:4 22:5 23:1 24:1 25:4 26:5 27:4 28:1 29:3 30:3 31:5 32:3 33:0 34:0 35:0 36:0 37:0 38:0 39:39 
2 1:5 2:0 3:0 4:3 5:7 6:5 7:5 8:5 9:6 10:5 11:1 12:0 13:0 14:0 15:0 16:0 17:0 18:0 19:0 20:0 21:4 22:5 23:1 24:1 25:4 26:5 27:4 28:2 29:4 30:5 31:5 32:2 33:0 34:0 35:0 36:0 37:0 38:0 39:42 
2 1:0 2:0 3:0 4:0 5:0 6:0 7:3 8:8 9:5 10:6 11:6 12:5 13:4 14:0 15:0 16:0 17:0 18:0 19:0 20:4 21:2 22:1 23:1 24:4 25:5 26:4 27:1 28:3 29:4 30:5 31:3 32:0 33:0 34:0 35:0 36:0 37:0 38:0 39:37 
1.360794329440818 1:0 2:0 3:0 4:2 5:9 6:6 7:6 8:6 9:6 10:2 11:0 12:0 13:0 14:0 15:0 16:0 17:0 18:0 19:0 20:0 21:4 22:5 23:1 24:1 25:4 26:5 27:3 28:0 29:2 30:4 31:5 32:3 33:0 34:0 35:0 36:0 37:0 38:0 39:37 
2 1:0 2:0 3:0 4:0 5:2 6:8 7:6 8:6 9:6 10:6 11:4 12:0 13:0 14:0 15:0 16:0 17:0 18:0 19:0 20:4 21:4 22:1 23:1 24:4 25:5 26:4 27:1 28:3 29:3 30:5 31:3 32:0 33:0 34:0 35:0 36:0 37:0 38:0 39:38 
2 1:5 2:0 3:0 4:0 5:0 6:0 7:1 8:9 9:4 10:5 11:6 12:6 13:4 14:0 15:0 16:0 17:0 18:0 19:0 20:0 21:0 22:0 23:1 24:4 25:3 26:1 27:2 28:5 29:5 30:4 31:2 32:3 33:3 34:5 35:2 36:0 37:0 38:0 39:40 
1.552817815856097 1:0 2:0 3:0 4:0 5:3 6:8 7:5 8:6 9:6 10:5 11:4 12:0 13:0 14:0 15:0 16:0 17:0 18:0 19:0 20:0 21:0 22:0 23:4 24:5 25:0 26:1 27:4 28:4 29:4 30:1 31:3 32:4 33:4 34:3 35:0 36:0 37:0 38:0 39:37 
2 1:0 2:0 3:0 4:0 5:2 6:9 7:6 8:6 9:6 10:6 11:4 12:0 13:0 14:0 15:0 16:0 17:0 18:0 19:0 20:0 21:4 22:5 23:1 24:1 25:4 26:4 27:4 28:1 29:3 30:3 31:5 32:3 33:1 34:0 35:0 36:0 37:0 38:0 39:39 
2 1:0 2:0 3:0 4:0 5:0 6:3 7:8 8:6 9:6 10:7 11:5 12:3 13:0 14:0 15:0 16:0 17:0 18:0 19:0 20:0 21:0 22:0 23:4 24:3 25:1 26:1 27:4 28:5 29:4 30:0 31:3 32:5 33:5 34:3 35:0 36:0 37:0 38:0 39:38 
1.120128175020854 1:0 2:0 3:0 4:0 5:0 6:0 7:2 8:8 9:5 10:6 11:5 12:5 13:4 14:0 15:0 16:0 17:0 18:0 19:0 20:0 21:0 22:0 23:4 24:3 25:1 26:1 27:4 28:5 29:4 30:1 31:3 32:3 33:5 34:1 35:0 36:0 37:0 38:0 39:35 
2 1:10 2:0 3:0 4:0 5:0 6:3 7:7 8:6 9:5 10:6 11:5 12:4 13:0 14:0 15:0 16:0 17:0 18:0 19:0 20:0 21:0 22:0 23:5 24:6 25:2 26:2 27:5 28:4 29:5 30:1 31:4 32:4 33:6 34:2 35:0 36:0 37:0 38:0 39:46 
-2 1:0 2:0 3:0 4:0 5:0 6:4 7:7 8:3 9:4 10:4 11:4 12:6 13:6 14:6 15:6 16:0 17:0 18:0 19:0 20:0 21:5 22:6 23:5 24:2 25:2 26:2 27:5 28:5 29:2 30:4 31:7 32:5 33:0 34:0 35:0 36:0 37:0 38:0 39:50 
-2 1:0 2:0 3:0 4:0 5:0 6:0 7:4 8:6 9:2 10:2 11:4 12:3 13:5 14:6 15:7 16:5 17:0 18:0 19:0 20:0 21:0 22:2 23:7 24:5 25:2 26:2 27:2 28:6 29:5 30:2 31:1 32:7 33:3 34:0 35:0 36:0 37:0 38:0 39:44 
-2 1:0 2:0 3:0 4:0 5:4 6:8 7:4 8:2 9:4 10:4 11:6 12:6 13:7 14:6 15:0 16:0 17:0 18:0 19:0 20:0 21:0 22:4 23:7 24:4 25:2 26:2 27:2 28:6 29:6 30:2 31:4 32:8 33:4 34:0 35:0 36:0 37:0 38:0 39:51 
-2 1:0 2:0 3:0 4:0 5:0 6:0 7:3 8:7 9:4 10:4 11:3 12:4 13:6 14:7 15:8 16:5 17:0 18:0 19:0 20:5 21:6 22:5 23:2 24:2 25:1 26:6 27:6 28:0 29:4 30:8 31:5 32:1 33:0 34:0 35:0 36:0 37:0 38:0 39:51 
-2 1:0 2:0 3:0 4:0 5:0 6:4 7:8 8:3 9:4 10:4 11:4 12:6 13:7 14:6 15:5 16:0 17:0 18:0 19:0 20:5 21:7 22:5 23:2 24:2 25:2 26:4 27:6 28:2 29:3 30:8 31:5 32:0 33:0 34:0 35:0 36:0 37:0 38:0 39:51 
-2 1:0 2:0 3:0 4:0 5:3 6:7 7:4 8:5 9:4 10:4 11:6 12:7 13:7 14:6 15:0 16:0 17:0 18:0 19:0 20:0 21:0 22:5 23:7 24:6 25:2 26:2 27:1 28:6 29:6 30:1 31:4 32:8 33:5 34:0 35:0 36:0 37:0 38:0 39:53 
-2 1:0 2:0 3:0 4:0 5:4 6:8 7:4 8:3 9:4 10:4 11:5 12:6 13:6 14:6 15:0 16:0 17:0 18:0 19:0 20:5 21:6 22:5 23:2 24:2 25:2 26:6 27:6 28:2 29:3 30:7 31:4 32:0 33:0 34:0 35:0 36:0 37:0 38:0 39:50 
-2 1:0 2:0 3:0 4:0 5:0 6:3 7:8 8:3 9:3 10:4 11:3 12:6 13:7 14:7 15:5 16:0 17:0 18:0 19:0 20:0 21:4 22:6 23:5 24:2 25:2 26:2 27:6 28:5 29:2 30:4 31:6 32:5 33:0 34:0 35:0 36:0 37:0 38:0 39:49 
-2 1:0 2:0 3:0 4:0 5:3 6:8 7:4 8:4 9:4 10:5 11:5 12:7 13:5 14:4 15:0 16:0 17:0 18:0 19:0 20:0 21:4 22:7 23:2 24:1 25:2 26:2 27:6 28:4 29:3 30:5 31:8 32:5 33:0 34:0 35:0 36:0 37:0 38:0 39:49 
-2 1:0 2:0 3:0 4:0 5:0 6:4 7:8 8:4 9:4 10:2 11:3 12:5 13:6 14:6 15:6 16:0 17:0 18:0 19:0 20:0 21:0 22:4 23:6 24:5 25:1 26:2 27:2 28:5 29:5 30:2 31:4 32:7 33:5 34:0 35:0 36:0 37:0 38:0 39:48 
-2 1:0 2:0 3:0 4:0 5:3 6:7 7:4 8:4 9:3 10:4 11:6 12:5 13:6 14:5 15:0 16:0 17:0 18:0 19:0 20:0 21:0 22:0 23:5 24:7 25:5 26:2 27:2 28:2 29:5 30:3 31:2 32:4 33:6 34:4 35:0 36:0 37:0 38:0 39:47 
-2 1:0 2:0 3:0 4:0 5:4 6:8 7:4 8:3 9:4 10:4 11:6 12:7 13:6 14:6 15:0 16:0 17:0 18:0 19:0 20:4 21:7 22:5 23:2 24:2 25:2 26:6 27:5 28:2 29:4 30:8 31:5 32:0 33:0 34:0 35:0 36:0 37:0 38:0 39:52 
-2 1:0 2:0 3:0 4:0 5:4 6:8 7:4 8:3 9:4 10:3 11:5 12:7 13:5 14:6 15:0 16:0 17:0 18:0 19:0 20:0 21:0 22:0 23:5 24:7 25:5 26:1 27:2 28:2 29:6 30:5 31:2 32:4 33:5 34:5 35:0 36:0 37:0 38:0 39:49 
-0.0337403203177699 1:7 2:6 3:0 4:4 5:7 6:3 7:4 8:4 9:4 10:5 11:6 12:7 13:6 14:0 15:0 16:0 17:0 18:0 19:0 20:0 21:0 22:0 23:4 24:7 25:5 26:2 27:3 28:3 29:8 30:6 31:2 32:5 33:10 34:7 35:1 36:0 37:0 38:0 39:63 
-2 1:0 2:0 3:0 4:0 5:3 6:7 7:4 8:4 9:4 10:4 11:5 12:5 13:6 14:6 15:0 16:0 17:0 18:0 19:0 20:0 21:4 22:6 23:5 24:1 25:1 26:2 27:7 28:6 29:1 30:4 31:6 32:5 33:0 34:0 35:0 36:0 37:0 38:0 39:48 
-2 1:0 2:0 3:0 4:0 5:4 6:8 7:5 8:3 9:4 10:4 11:6 12:7 13:7 14:5 15:0 16:0 17:0 18:0 19:0 20:5 21:7 22:5 23:2 24:2 25:2 26:6 27:6 28:3 29:4 30:6 31:5 32:0 33:0 34:0 35:0 36:0 37:0 38:0 39:53 
