svm_type c_svc
kernel_type rbf
gamma 0.0078125
nr_class 2
total_sv 40
rho -1.02667
label 0 1
probA -4.33606
probB -0.296587
nr_sv 20 20
SV
2 1:0 2:0 3:0 4:0 5:0 6:2 7:6 8:6 9:6 10:6 11:6 12:4 13:1 14:0 15:0 16:0 17:0 18:0 19:0 20:0 21:0 22:4 23:4 24:1 25:1 26:4 27:5 28:4 29:1 30:2 31:3 32:5 33:3 34:0 35:0 36:0 37:0 38:0 39:37 
0.3644392860364563 1:0 2:0 3:0 4:0 5:0 6:2 7:8 8:6 9:6 10:6 11:6 12:4 13:0 14:0 15:0 16:0 17:0 18:0 19:0 20:0 21:4 22:4 23:1 24:1 25:4 26:5 27:3 28:1 29:3 30:4 31:5 32:3 33:0 34:0 35:0 36:0 37:0 38:0 39:38 
0.627447185093474 1:0 2:0 3:0 4:0 5:2 6:9 7:6 8:4 9:5 10:5 11:4 12:1 13:0 14:0 15:0 16:0 17:0 18:0 19:0 20:0 21:0 22:0 23:2 24:4 25:1 26:1 27:4 28:4 29:4 30:1 31:3 32:3 33:6 34:3 35:0 36:0 37:0 38:0 39:36 
0.07217001509212535 1:10 2:0 3:0 4:0 5:0 6:0 7:2 8:8 9:7 10:6 11:6 12:6 13:3 14:0 15:0 16:0 17:0 18:0 19:0 20:0 21:4 22:4 23:2 24:2 25:5 26:6 27:6 28:1 29:4 30:4 31:6 32:4 33:0 34:0 35:0 36:0 37:0 38:0 39:48 
0.3411969765095038 1:5 2:0 3:0 4:3 5:8 6:6 7:5 8:8 9:6 10:4 11:0 12:0 13:0 14:0 15:0 16:0 17:0 18:0 19:0 20:0 21:0 22:0 23:0 24:5 25:5 26:1 27:0 28:4 29:6 30:6 31:1 32:4 33:4 34:5 35:3 36:1 37:0 38:0 39:45 
1.15030026778807 1:0 2:0 3:0 4:0 5:0 6:3 7:9 8:5 9:6 10:6 11:6 12:3 13:0 14:0 15:0 16:0 17:0 18:0 19:0 20:0 21:4 22:5 23:2 24:1 25:3 26:5 27:3 28:1 29:3 30:3 31:5 32:3 33:0 34:0 35:0 36:0 37:0 38:0 39:38 
1.449201426173284 1:0 2:0 3:0 4:0 5:0 6:3 7:8 8:6 9:5 10:4 11:6 12:4 13:0 14:0 15:0 16:0 17:0 18:0 19:0 20:0 21:0 22:0 23:0 24:3 25:5 26:1 27:1 28:4 29:5 30:4 31:1 32:2 33:3 34:3 35:4 36:0 37:0 38:0 39:36 
0.5124450453589473 1:5 2:0 3:0 4:2 5:6 6:5 7:5 8:6 9:5 10:4 11:0 12:0 13:0 14:0 15:0 16:0 17:0 18:0 19:0 20:4 21:4 22:2 23:1 24:4 25:4 26:4 27:2 28:3 29:2 30:5 31:3 32:0 33:0 34:0 35:0 36:0 37:0 38:0 39:38 
0.8719882712686544 1:5 2:0 3:0 4:3 5:7 6:5 7:5 8:5 9:6 10:5 11:1 12:0 13:0 14:0 15:0 16:0 17:0 18:0 19:0 20:0 21:4 22:5 23:1 24:1 25:4 26:5 27:4 28:2 29:4 30:5 31:5 32:2 33:0 34:0 35:0 36:0 37:0 38:0 39:42 
0.06910181274102009 1:0 2:0 3:0 4:0 5:0 6:0 7:3 8:7 9:5 10:6 11:5 12:6 13:3 14:0 15:0 16:0 17:0 18:0 19:0 20:4 21:4 22:0 23:0 24:4 25:4 26:4 27:1 28:3 29:3 30:5 31:3 32:0 33:0 34:0 35:0 36:0 37:0 38:0 39:35 
2 1:0 2:0 3:0 4:0 5:0 6:0 7:3 8:8 9:5 10:6 11:6 12:5 13:4 14:0 15:0 16:0 17:0 18:0 19:0 20:4 21:2 22:1 23:1 24:4 25:5 26:4 27:1 28:3 29:4 30:5 31:3 32:0 33:0 34:0 35:0 36:0 37:0 38:0 39:37 
0.4789817696898245 1:0 2:0 3:0 4:3 5:8 6:5 7:5 8:6 9:6 10:3 11:0 12:0 13:0 14:0 15:0 16:0 17:0 18:0 19:0 20:0 21:0 22:0 23:0 24:4 25:5 26:1 27:0 28:3 29:4 30:3 31:1 32:3 33:5 34:4 35:3 36:0 37:0 38:0 39:36 
0.1141203993365199 1:0 2:0 3:0 4:0 5:0 6:3 7:8 8:6 9:5 10:6 11:6 12:3 13:0 14:0 15:0 16:0 17:0 18:0 19:0 20:0 21:0 22:0 23:0 24:4 25:4 26:1 27:1 28:4 29:4 30:3 31:1 32:3 33:4 34:5 35:3 36:0 37:0 38:0 39:37 
0.3645658276430419 1:0 2:0 3:0 4:2 5:9 6:6 7:6 8:6 9:6 10:2 11:0 12:0 13:0 14:0 15:0 16:0 17:0 18:0 19:0 20:0 21:4 22:5 23:1 24:1 25:4 26:5 27:3 28:0 29:2 30:4 31:5 32:3 33:0 34:0 35:0 36:0 37:0 38:0 39:37 
1.323451482836683 1:0 2:0 3:0 4:0 5:2 6:8 7:6 8:6 9:6 10:6 11:4 12:0 13:0 14:0 15:0 16:0 17:0 18:0 19:0 20:4 21:4 22:1 23:1 24:4 25:5 26:4 27:1 28:3 29:3 30:5 31:3 32:0 33:0 34:0 35:0 36:0 37:0 38:0 39:38 
0.8342329665136503 1:5 2:0 3:0 4:0 5:0 6:0 7:1 8:9 9:4 10:5 11:6 12:6 13:4 14:0 15:0 16:0 17:0 18:0 19:0 20:0 21:0 22:0 23:1 24:4 25:3 26:1 27:2 28:5 29:5 30:4 31:2 32:3 33:3 34:5 35:2 36:0 37:0 38:0 39:40 
1.480283212894373 1:0 2:0 3:0 4:0 5:3 6:8 7:5 8:6 9:6 10:5 11:4 12:0 13:0 14:0 15:0 16:0 17:0 18:0 19:0 20:0 21:0 22:0 23:4 24:5 25:0 26:1 27:4 28:4 29:4 30:1 31:3 32:4 33:4 34:3 35:0 36:0 37:0 38:0 39:37 
1.150934588886101 1:0 2:0 3:0 4:0 5:2 6:9 7:6 8:6 9:6 10:6 11:4 12:0 13:0 14:0 15:0 16:0 17:0 18:0 19:0 20:0 21:4 22:5 23:1 24:1 25:4 26:4 27:4 28:1 29:3 30:3 31:5 32:3 33:1 34:0 35:0 36:0 37:0 38:0 39:39 
1.672184145383062 1:0 2:0 3:0 4:0 5:0 6:0 7:2 8:8 9:5 10:6 11:5 12:5 13:4 14:0 15:0 16:0 17:0 18:0 19:0 20:0 21:0 22:0 23:4 24:3 25:1 26:1 27:4 28:5 29:4 30:1 31:3 32:3 33:5 34:1 35:0 36:0 37:0 38:0 39:35 
0.3091720705509535 1:10 2:0 3:0 4:0 5:0 6:3 7:7 8:6 9:5 10:6 11:5 12:4 13:0 14:0 15:0 16:0 17:0 18:0 19:0 20:0 21:0 22:0 23:5 24:6 25:2 26:2 27:5 28:4 29:5 30:1 31:4 32:4 33:6 34:2 35:0 36:0 37:0 38:0 39:46 
-0.669980475361845 1:0 2:0 3:0 4:3 5:6 6:6 7:4 8:4 9:5 10:5 11:5 12:1 13:0 14:0 15:0 16:0 17:0 18:0 19:0 20:0 21:0 22:3 23:4 24:3 25:5 26:3 27:1 28:2 29:4 30:3 31:3 32:4 33:4 34:0 35:0 36:0 37:0 38:0 39:39 
-0.691514047385537 1:0 2:0 3:0 4:0 5:2 6:5 7:4 8:5 9:5 10:5 11:4 12:5 13:1 14:0 15:0 16:0 17:0 18:0 19:0 20:0 21:0 22:3 23:4 24:2 25:4 26:3 27:2 28:3 29:3 30:2 31:4 32:2 33:4 34:0 35:0 36:0 37:0 38:0 39:36 
-0.8039911002847936 1:0 2:0 3:0 4:3 5:6 6:6 7:4 8:5 9:4 10:6 11:4 12:1 13:0 14:0 15:0 16:0 17:0 18:0 19:0 20:1 21:3 22:4 23:3 24:5 25:2 26:2 27:2 28:4 29:2 30:4 31:4 32:3 33:0 34:0 35:0 36:0 37:0 38:0 39:39 
-0.4940363377586742 1:0 2:0 3:0 4:0 5:0 6:3 7:6 8:6 9:5 10:5 11:6 12:3 13:3 14:1 15:1 16:1 17:0 18:0 19:0 20:2 21:4 22:3 23:5 24:4 25:2 26:3 27:4 28:2 29:3 30:4 31:4 32:0 33:0 34:0 35:0 36:0 37:0 38:0 39:40 
-0.4086323666972679 1:0 2:0 3:0 4:0 5:2 6:5 7:6 8:5 9:4 10:6 11:5 12:5 13:1 14:0 15:0 16:0 17:0 18:0 19:0 20:0 21:0 22:0 23:3 24:3 25:4 26:4 27:3 28:2 29:3 30:3 31:3 32:4 33:3 34:4 35:0 36:0 37:0 38:0 39:39 
-1.126731870607044 1:0 2:0 3:0 4:1 5:5 6:6 7:4 8:5 9:6 10:5 11:5 12:1 13:0 14:0 15:0 16:0 17:0 18:0 19:0 20:0 21:2 22:4 23:3 24:5 25:3 26:2 27:3 28:3 29:3 30:4 31:3 32:3 33:0 34:0 35:0 36:0 37:0 38:0 39:38 
-1.840244491608766 1:0 2:0 3:0 4:0 5:0 6:2 7:6 8:6 9:4 10:4 11:5 12:5 13:4 14:1 15:0 16:0 17:0 18:0 19:0 20:0 21:0 22:3 23:4 24:3 25:5 26:1 27:1 28:3 29:4 30:3 31:3 32:4 33:3 34:0 35:0 36:0 37:0 38:0 39:37 
-1.638530314934847 1:2 2:0 3:0 4:3 5:6 6:6 7:5 8:5 9:6 10:6 11:5 12:1 13:0 14:0 15:0 16:0 17:0 18:0 19:0 20:0 21:0 22:0 23:0 24:3 25:4 26:4 27:5 28:3 29:2 30:3 31:4 32:3 33:4 34:5 35:5 36:0 37:0 38:0 39:45 
-1.340578583160759 1:0 2:0 3:0 4:0 5:2 6:6 7:6 8:2 9:5 10:4 11:6 12:5 13:1 14:0 15:0 16:0 17:0 18:0 19:0 20:0 21:0 22:0 23:0 24:3 25:4 26:3 27:4 28:3 29:1 30:2 31:3 32:3 33:4 34:3 35:4 36:0 37:0 38:0 39:37 
-0.9375999695268455 1:0 2:0 3:0 4:0 5:2 6:6 7:6 8:5 9:5 10:6 11:6 12:3 13:0 14:0 15:0 16:0 17:0 18:0 19:0 20:3 21:4 22:4 23:5 24:3 25:2 26:3 27:4 28:3 29:4 30:2 31:2 32:0 33:0 34:0 35:0 36:0 37:0 38:0 39:39 
-0.9676929727379361 1:0 2:0 3:0 4:3 5:5 6:5 7:4 8:5 9:6 10:6 11:4 12:1 13:0 14:0 15:0 16:0 17:0 18:0 19:0 20:3 21:4 22:2 23:4 24:3 25:2 26:3 27:4 28:3 29:4 30:3 31:4 32:0 33:0 34:0 35:0 36:0 37:0 38:0 39:39 
-1.606315824790417 1:0 2:0 3:0 4:0 5:2 6:5 7:5 8:5 9:5 10:5 11:4 12:4 13:1 14:0 15:0 16:0 17:0 18:0 19:0 20:2 21:4 22:3 23:4 24:2 25:2 26:3 27:4 28:2 29:4 30:3 31:3 32:0 33:0 34:0 35:0 36:0 37:0 38:0 39:36 
-0.3457395975706691 1:0 2:0 3:0 4:0 5:3 6:6 7:6 8:5 9:5 10:6 11:6 12:3 13:1 14:0 15:0 16:0 17:0 18:0 19:0 20:0 21:0 22:0 23:0 24:3 25:3 26:3 27:5 28:3 29:3 30:3 31:4 32:3 33:3 34:4 35:4 36:0 37:0 38:0 39:41 
-0.1648169169629699 1:0 2:0 3:0 4:1 5:6 6:6 7:5 8:4 9:5 10:4 11:5 12:1 13:0 14:0 15:0 16:0 17:0 18:0 19:0 20:0 21:3 22:4 23:4 24:6 25:2 26:2 27:2 28:4 29:2 30:4 31:2 32:2 33:0 34:0 35:0 36:0 37:0 38:0 39:37 
-1.689570044354699 1:0 2:0 3:0 4:0 5:0 6:1 7:3 8:6 9:5 10:5 11:6 12:6 13:5 14:1 15:0 16:0 17:0 18:0 19:0 20:0 21:0 22:0 23:3 24:4 25:3 26:5 27:3 28:2 29:3 30:4 31:3 32:3 33:3 34:2 35:0 36:0 37:0 38:0 39:38 
-0.02634656248551074 1:0 2:0 3:0 4:0 5:0 6:3 7:6 8:6 9:4 10:5 11:6 12:5 13:5 14:1 15:0 16:0 17:0 18:0 19:0 20:0 21:0 22:0 23:0 24:3 25:4 26:4 27:4 28:3 29:2 30:2 31:4 32:3 33:4 34:4 35:4 36:0 37:0 38:0 39:41 
-0.8935132535788652 1:0 2:0 3:0 4:0 5:0 6:0 7:2 8:6 9:5 10:5 11:4 12:5 13:6 14:4 15:0 16:0 17:0 18:0 19:0 20:0 21:0 22:3 23:3 24:3 25:5 26:2 27:2 28:3 29:4 30:2 31:4 32:3 33:3 34:0 35:0 36:0 37:0 38:0 39:37 
-0.6184726009546588 1:0 2:0 3:0 4:0 5:0 6:3 7:5 8:6 9:5 10:4 11:5 12:6 13:5 14:1 15:0 16:0 17:0 18:0 19:0 20:0 21:0 22:0 23:0 24:3 25:4 26:2 27:5 28:4 29:1 30:3 31:4 32:3 33:3 34:4 35:4 36:0 37:0 38:0 39:40 
-0.706862504688726 1:0 2:0 3:0 4:0 5:0 6:0 7:2 8:5 9:6 10:5 11:5 12:6 13:5 14:5 15:1 16:0 17:0 18:0 19:0 20:3 21:4 22:2 23:5 24:3 25:2 26:3 27:4 28:3 29:4 30:4 31:3 32:0 33:0 34:0 35:0 36:0 37:0 38:0 39:40 
-0.215046914344911 1:0 2:0 3:0 4:0 5:0 6:3 7:5 8:6 9:5 10:5 11:6 12:5 13:4 14:1 15:0 16:0 17:0 18:0 19:0 20:0 21:0 22:0 23:0 24:3 25:4 26:3 27:5 28:3 29:2 30:3 31:4 32:2 33:4 34:4 35:3 36:0 37:0 38:0 39:40 
