svm_type c_svc
kernel_type rbf
gamma 0.00195313
nr_class 2
total_sv 22
rho 0.914319
label 0 1
probA -3.49559
probB 0.360482
nr_sv 10 12
SV
2.262158783709026 1:0 2:0 3:0 4:0 5:0 6:2 7:6 8:6 9:6 10:6 11:6 12:4 13:1 14:0 15:0 16:0 17:0 18:0 19:0 20:0 21:0 22:4 23:4 24:1 25:1 26:4 27:5 28:4 29:1 30:2 31:3 32:5 33:3 34:0 35:0 36:0 37:0 38:0 39:37 
6.19708555603135 1:0 2:0 3:0 4:0 5:2 6:9 7:6 8:4 9:5 10:5 11:4 12:1 13:0 14:0 15:0 16:0 17:0 18:0 19:0 20:0 21:0 22:0 23:2 24:4 25:1 26:1 27:4 28:4 29:4 30:1 31:3 32:3 33:6 34:3 35:0 36:0 37:0 38:0 39:36 
1.893413743212146 1:10 2:0 3:0 4:0 5:0 6:0 7:2 8:8 9:7 10:6 11:6 12:6 13:3 14:0 15:0 16:0 17:0 18:0 19:0 20:0 21:4 22:4 23:2 24:2 25:5 26:6 27:6 28:1 29:4 30:4 31:6 32:4 33:0 34:0 35:0 36:0 37:0 38:0 39:48 
3.218479927360187 1:5 2:0 3:0 4:3 5:8 6:6 7:5 8:8 9:6 10:4 11:0 12:0 13:0 14:0 15:0 16:0 17:0 18:0 19:0 20:0 21:0 22:0 23:0 24:5 25:5 26:1 27:0 28:4 29:6 30:6 31:1 32:4 33:4 34:5 35:3 36:1 37:0 38:0 39:45 
0.9020699368365201 1:5 2:0 3:0 4:3 5:7 6:5 7:5 8:5 9:6 10:5 11:1 12:0 13:0 14:0 15:0 16:0 17:0 18:0 19:0 20:0 21:4 22:5 23:1 24:1 25:4 26:5 27:4 28:2 29:4 30:5 31:5 32:2 33:0 34:0 35:0 36:0 37:0 38:0 39:42 
5.164735775771153 1:0 2:0 3:0 4:0 5:0 6:0 7:3 8:8 9:5 10:6 11:6 12:5 13:4 14:0 15:0 16:0 17:0 18:0 19:0 20:4 21:2 22:1 23:1 24:4 25:5 26:4 27:1 28:3 29:4 30:5 31:3 32:0 33:0 34:0 35:0 36:0 37:0 38:0 39:37 
3.945994544415227 1:0 2:0 3:0 4:2 5:9 6:6 7:6 8:6 9:6 10:2 11:0 12:0 13:0 14:0 15:0 16:0 17:0 18:0 19:0 20:0 21:4 22:5 23:1 24:1 25:4 26:5 27:3 28:0 29:2 30:4 31:5 32:3 33:0 34:0 35:0 36:0 37:0 38:0 39:37 
1.372684682090448 1:5 2:0 3:0 4:0 5:0 6:0 7:1 8:9 9:4 10:5 11:6 12:6 13:4 14:0 15:0 16:0 17:0 18:0 19:0 20:0 21:0 22:0 23:1 24:4 25:3 26:1 27:2 28:5 29:5 30:4 31:2 32:3 33:3 34:5 35:2 36:0 37:0 38:0 39:40 
0.5579753155746732 1:0 2:0 3:0 4:0 5:0 6:0 7:2 8:8 9:5 10:6 11:5 12:5 13:4 14:0 15:0 16:0 17:0 18:0 19:0 20:0 21:0 22:0 23:4 24:3 25:1 26:1 27:4 28:5 29:4 30:1 31:3 32:3 33:5 34:1 35:0 36:0 37:0 38:0 39:35 
0.7564222382767568 1:10 2:0 3:0 4:0 5:0 6:3 7:7 8:6 9:5 10:6 11:5 12:4 13:0 14:0 15:0 16:0 17:0 18:0 19:0 20:0 21:0 22:0 23:5 24:6 25:2 26:2 27:5 28:4 29:5 30:1 31:4 32:4 33:6 34:2 35:0 36:0 37:0 38:0 39:46 
-0.8964438623594918 1:0 2:0 3:0 4:0 5:1 6:9 7:12 8:2 9:3 10:3 11:4 12:5 13:2 14:0 15:0 16:0 17:0 18:0 19:0 20:0 21:0 22:0 23:2 24:2 25:2 26:5 27:6 28:3 29:4 30:3 31:3 32:2 33:6 34:3 35:0 36:0 37:0 38:0 39:41 
-4.582422298430695 1:0 2:0 3:0 4:0 5:5 6:12 7:1 8:3 9:4 10:4 11:4 12:4 13:0 14:0 15:0 16:0 17:0 18:0 19:0 20:0 21:0 22:0 23:0 24:1 25:1 26:2 27:3 28:5 29:3 30:2 31:3 32:2 33:3 34:7 35:5 36:0 37:0 38:0 39:37 
-3.549271443403125 1:0 2:0 3:0 4:0 5:0 6:0 7:8 8:11 9:3 10:3 11:3 12:4 13:7 14:2 15:0 16:0 17:0 18:0 19:0 20:0 21:3 22:2 23:1 24:3 25:7 26:3 27:2 28:3 29:3 30:3 31:7 32:4 33:0 34:0 35:0 36:0 37:0 38:0 39:41 
-1.76431696933622 1:0 2:0 3:0 4:8 5:12 6:3 7:3 8:2 9:4 10:5 11:4 12:0 13:0 14:0 15:0 16:0 17:0 18:0 19:0 20:2 21:1 22:2 23:5 24:6 25:5 26:3 27:3 28:3 29:3 30:5 31:3 32:0 33:0 34:0 35:0 36:0 37:0 38:0 39:41 
-0.8511837745657694 1:0 2:0 3:0 4:0 5:7 6:12 7:4 8:3 9:4 10:3 11:7 12:2 13:0 14:0 15:0 16:0 17:0 18:0 19:0 20:0 21:0 22:1 23:2 24:1 25:2 26:3 27:6 28:3 29:3 30:3 31:4 32:3 33:7 34:4 35:0 36:0 37:0 38:0 39:42 
-1.874159288224897 1:0 2:0 3:0 4:7 5:12 6:2 7:3 8:4 9:4 10:7 11:3 12:0 13:0 14:0 15:0 16:0 17:0 18:0 19:0 20:0 21:0 22:0 23:2 24:2 25:2 26:4 27:7 28:3 29:3 30:4 31:3 32:2 33:6 34:4 35:0 36:0 37:0 38:0 39:42 
-3.461097626946308 1:0 2:0 3:0 4:0 5:0 6:8 7:8 8:2 9:2 10:4 11:3 12:7 13:4 14:0 15:0 16:0 17:0 18:0 19:0 20:0 21:0 22:2 23:1 24:2 25:3 26:6 27:3 28:2 29:4 30:3 31:3 32:6 33:3 34:0 35:0 36:0 37:0 38:0 39:38 
-0.9978363429020591 1:1 2:0 3:0 4:0 5:0 6:0 7:9 8:12 9:1 10:4 11:4 12:4 13:5 14:3 15:0 16:0 17:0 18:0 19:0 20:0 21:0 22:0 23:2 24:2 25:3 26:4 27:6 28:4 29:2 30:2 31:4 32:3 33:7 34:4 35:0 36:0 37:0 38:0 39:43 
-1.489568370318023 1:9 2:0 3:0 4:7 5:11 6:4 7:3 8:4 9:4 10:6 11:3 12:0 13:0 14:0 15:0 16:0 17:0 18:0 19:0 20:0 21:0 22:2 23:2 24:1 25:4 26:8 27:3 28:5 29:4 30:5 31:4 32:8 33:4 34:1 35:0 36:0 37:0 38:0 39:51 
-5.16265785844466 1:0 2:0 3:0 4:0 5:0 6:0 7:5 8:9 9:2 10:4 11:4 12:4 13:6 14:1 15:2 16:1 17:0 18:0 19:0 20:2 21:1 22:2 23:6 24:5 25:2 26:1 27:3 28:3 29:2 30:7 31:4 32:0 33:0 34:0 35:0 36:0 37:0 38:0 39:38 
-0.3012960729462993 1:8 2:0 3:0 4:8 5:10 6:2 7:3 8:4 9:4 10:7 11:4 12:0 13:0 14:0 15:0 16:0 17:0 18:0 19:0 20:0 21:0 22:0 23:2 24:3 25:3 26:5 27:8 28:3 29:5 30:4 31:4 32:2 33:7 34:4 35:0 36:0 37:0 38:0 39:50 
-1.340766595399936 1:0 2:0 3:0 4:1 5:8 6:12 7:2 8:3 9:4 10:4 11:6 12:2 13:0 14:0 15:0 16:0 17:0 18:0 19:0 20:1 21:2 22:1 23:2 24:5 25:7 26:2 27:4 28:3 29:2 30:3 31:7 32:3 33:0 34:0 35:0 36:0 37:0 38:0 39:42 
