svm_type c_svc
kernel_type rbf
gamma 0.0078125
nr_class 2
total_sv 39
rho -0.512364
label 0 1
probA -3.8967
probB -0.248169
nr_sv 21 18
SV
0.4454579395002033 1:0 2:0 3:0 4:0 5:0 6:5 7:7 8:3 9:7 10:6 11:6 12:4 13:0 14:0 15:0 16:0 17:0 18:0 19:0 20:0 21:0 22:4 23:4 24:2 25:2 26:3 27:5 28:5 29:2 30:3 31:1 32:4 33:3 34:0 35:0 36:0 37:0 38:0 39:38 
0.5126177810078297 1:0 2:0 3:0 4:0 5:5 6:9 7:3 8:6 9:6 10:7 11:4 12:0 13:0 14:0 15:0 16:0 17:0 18:0 19:0 20:0 21:0 22:0 23:0 24:3 25:4 26:2 27:1 28:3 29:5 30:4 31:3 32:4 33:3 34:5 35:3 36:0 37:0 38:0 39:40 
0.3469227730970766 1:0 2:0 3:0 4:0 5:6 6:9 7:5 8:6 9:5 10:7 11:4 12:0 13:0 14:0 15:0 16:0 17:0 18:0 19:0 20:0 21:0 22:3 23:5 24:2 25:2 26:3 27:6 28:4 29:4 30:3 31:3 32:4 33:3 34:0 35:0 36:0 37:0 38:0 39:42 
0.958522045224856 1:7 2:0 3:0 4:0 5:0 6:5 7:9 8:4 9:4 10:7 11:6 12:3 13:0 14:0 15:0 16:0 17:0 18:0 19:0 20:0 21:1 22:2 23:4 24:3 25:3 26:4 27:5 28:4 29:3 30:5 31:3 32:5 33:3 34:0 35:0 36:0 37:0 38:0 39:45 
0.459484958814513 1:0 2:0 3:0 4:5 5:9 6:4 7:6 8:5 9:7 10:3 11:0 12:0 13:0 14:0 15:0 16:0 17:0 18:0 19:0 20:3 21:4 22:2 23:2 24:3 25:5 26:4 27:3 28:3 29:2 30:5 31:3 32:0 33:0 34:0 35:0 36:0 37:0 38:0 39:39 
1.149271706907364 1:0 2:0 3:0 4:0 5:0 6:6 7:9 8:5 9:6 10:5 11:7 12:4 13:0 14:0 15:0 16:0 17:0 18:0 19:0 20:3 21:5 22:2 23:2 24:3 25:5 26:4 27:4 28:4 29:3 30:4 31:3 32:0 33:0 34:0 35:0 36:0 37:0 38:0 39:42 
0.5972648306865069 1:0 2:0 3:0 4:0 5:6 6:7 7:4 8:6 9:5 10:7 11:3 12:0 13:0 14:0 15:0 16:0 17:0 18:0 19:0 20:3 21:5 22:2 23:1 24:2 25:6 26:4 27:3 28:2 29:3 30:5 31:2 32:0 33:0 34:0 35:0 36:0 37:0 38:0 39:38 
0.7581717402351698 1:0 2:0 3:0 4:0 5:0 6:4 7:8 8:5 9:4 10:5 11:7 12:4 13:0 14:0 15:0 16:0 17:0 18:0 19:0 20:2 21:4 22:2 23:2 24:2 25:5 26:3 27:4 28:2 29:4 30:5 31:2 32:0 33:0 34:0 35:0 36:0 37:0 38:0 39:37 
0.5293114907754369 1:0 2:0 3:0 4:0 5:0 6:6 7:8 8:4 9:6 10:7 11:8 12:3 13:0 14:0 15:0 16:0 17:0 18:0 19:0 20:0 21:0 22:0 23:0 24:3 25:5 26:2 27:3 28:3 29:4 30:4 31:4 32:3 33:3 34:5 35:3 36:0 37:0 38:0 39:42 
0.6005398339260003 1:0 2:0 3:0 4:0 5:0 6:5 7:9 8:5 9:6 10:5 11:8 12:4 13:0 14:0 15:0 16:0 17:0 18:0 19:0 20:0 21:0 22:0 23:3 24:5 25:2 26:1 27:3 28:5 29:4 30:4 31:4 32:3 33:5 34:3 35:0 36:0 37:0 38:0 39:42 
1.325148676940188 1:0 2:0 3:0 4:0 5:1 6:4 7:9 8:5 9:5 10:5 11:6 12:4 13:0 14:0 15:0 16:0 17:0 18:0 19:0 20:0 21:0 22:3 23:4 24:1 25:2 26:3 27:7 28:4 29:4 30:2 31:2 32:5 33:2 34:0 35:0 36:0 37:0 38:0 39:39 
0.6388612217715288 1:0 2:0 3:0 4:4 5:9 6:5 7:6 8:6 9:8 10:4 11:0 12:0 13:0 14:0 15:0 16:0 17:0 18:0 19:0 20:0 21:0 22:0 23:0 24:3 25:5 26:2 27:2 28:2 29:6 30:3 31:4 32:4 33:3 34:5 35:3 36:0 37:0 38:0 39:42 
0.1147759904786192 1:0 2:0 3:0 4:0 5:0 6:4 7:8 8:5 9:6 10:6 11:7 12:4 13:0 14:0 15:0 16:0 17:0 18:0 19:0 20:0 21:3 22:5 23:2 24:0 25:3 26:6 27:3 28:3 29:4 30:3 31:5 32:3 33:0 34:0 35:0 36:0 37:0 38:0 39:40 
0.616384933442028 1:0 2:0 3:0 4:0 5:6 6:8 7:5 8:6 9:6 10:8 11:3 12:0 13:0 14:0 15:0 16:0 17:0 18:0 19:0 20:0 21:0 22:0 23:3 24:5 25:1 26:2 27:3 28:6 29:4 30:4 31:3 32:3 33:5 34:3 35:0 36:0 37:0 38:0 39:42 
0.1524870899004305 1:0 2:0 3:0 4:0 5:6 6:8 7:5 8:6 9:6 10:8 11:3 12:0 13:0 14:0 15:0 16:0 17:0 18:0 19:0 20:3 21:5 22:2 23:2 24:3 25:6 26:4 27:3 28:4 29:3 30:4 31:3 32:0 33:0 34:0 35:0 36:0 37:0 38:0 39:42 
0.8777857958842445 1:0 2:0 3:0 4:0 5:5 6:9 7:5 8:6 9:6 10:8 11:4 12:0 13:0 14:0 15:0 16:0 17:0 18:0 19:0 20:0 21:0 22:3 23:5 24:2 25:2 26:2 27:6 28:4 29:4 30:4 31:3 32:5 33:3 34:0 35:0 36:0 37:0 38:0 39:43 
0.1606153335331827 1:0 2:0 3:0 4:0 5:0 6:5 7:7 8:5 9:6 10:3 11:8 12:4 13:0 14:0 15:0 16:0 17:0 18:0 19:0 20:0 21:0 22:0 23:0 24:2 25:4 26:2 27:1 28:3 29:5 30:4 31:3 32:4 33:3 34:4 35:3 36:0 37:0 38:0 39:38 
2 1:0 2:0 3:0 4:0 5:0 6:0 7:5 8:9 9:4 10:5 11:7 12:7 13:4 14:0 15:0 16:0 17:0 18:0 19:0 20:0 21:0 22:0 23:0 24:3 25:4 26:2 27:2 28:2 29:6 30:4 31:4 32:3 33:4 34:4 35:3 36:0 37:0 38:0 39:41 
0.6331861328817282 1:0 2:0 3:0 4:6 5:9 6:5 7:6 8:5 9:5 10:5 11:0 12:0 13:0 14:0 15:0 16:0 17:0 18:0 19:0 20:0 21:3 22:4 23:1 24:2 25:4 26:7 27:3 28:3 29:3 30:3 31:5 32:3 33:0 34:0 35:0 36:0 37:0 38:0 39:41 
0.8233944215675708 1:0 2:0 3:0 4:0 5:0 6:3 7:5 8:5 9:5 10:6 11:8 12:3 13:0 14:0 15:0 16:0 17:0 18:0 19:0 20:0 21:0 22:3 23:4 24:2 25:0 26:2 27:4 28:3 29:4 30:4 31:3 32:3 33:3 34:0 35:0 36:0 37:0 38:0 39:35 
0.3639122826274725 1:0 2:0 3:0 4:0 5:4 6:9 7:5 8:6 9:4 10:9 11:4 12:0 13:0 14:0 15:0 16:0 17:0 18:0 19:0 20:0 21:3 22:5 23:2 24:1 25:3 26:6 27:4 28:4 29:3 30:3 31:4 32:3 33:0 34:0 35:0 36:0 37:0 38:0 39:41 
-0.0108021742754882 1:0 2:0 3:0 4:0 5:2 6:4 7:6 8:5 9:4 10:5 11:7 12:3 13:3 14:1 15:0 16:0 17:0 18:0 19:0 20:3 21:3 22:2 23:4 24:2 25:3 26:3 27:6 28:8 29:3 30:2 31:1 32:0 33:0 34:0 35:0 36:0 37:0 38:0 39:40 
-1.500789483883926 1:1 2:0 3:0 4:2 5:4 6:6 7:6 8:3 9:7 10:6 11:5 12:4 13:1 14:0 15:0 16:0 17:0 18:0 19:0 20:0 21:0 22:0 23:0 24:3 25:3 26:3 27:4 28:2 29:4 30:3 31:6 32:8 33:5 34:2 35:2 36:0 37:0 38:0 39:45 
-2 1:0 2:0 3:0 4:3 5:4 6:6 7:6 8:4 9:4 10:6 11:5 12:3 13:1 14:0 15:0 16:0 17:0 18:0 19:0 20:0 21:0 22:3 23:3 24:2 25:4 26:1 27:3 28:3 29:6 30:8 31:2 32:4 33:3 34:0 35:0 36:0 37:0 38:0 39:42 
-2 1:0 2:0 3:0 4:2 5:4 6:6 7:5 8:4 9:3 10:7 11:5 12:3 13:0 14:0 15:0 16:0 17:0 18:0 19:0 20:3 21:3 22:2 23:3 24:2 25:3 26:4 27:7 28:6 29:4 30:2 31:0 32:0 33:0 34:0 35:0 36:0 37:0 38:0 39:39 
-0.3024374450348068 1:0 2:0 3:0 4:0 5:0 6:0 7:3 8:4 9:6 10:5 11:4 12:6 13:6 14:3 15:4 16:2 17:0 18:0 19:0 20:0 21:3 22:3 23:2 24:4 25:2 26:3 27:1 28:8 29:7 30:4 31:3 32:3 33:0 34:0 35:0 36:0 37:0 38:0 39:43 
-0.2039420668053705 1:0 2:0 3:0 4:0 5:0 6:0 7:2 8:4 9:6 10:6 11:4 12:5 13:7 14:3 15:4 16:1 17:0 18:0 19:0 20:0 21:0 22:0 23:3 24:3 25:3 26:3 27:2 28:2 29:4 30:7 31:8 32:3 33:2 34:2 35:0 36:0 37:0 38:0 39:42 
-0.2745425156050151 1:1 2:0 3:0 4:0 5:0 6:2 7:3 8:4 9:6 10:4 11:4 12:6 13:5 14:4 15:2 16:0 17:0 18:0 19:0 20:0 21:0 22:0 23:0 24:2 25:3 26:3 27:3 28:2 29:3 30:2 31:5 32:8 33:4 34:3 35:3 36:0 37:0 38:0 39:41 
-0.2495967800339768 1:1 2:0 3:0 4:0 5:0 6:2 7:4 8:6 9:6 10:3 11:6 12:6 13:4 14:4 15:1 16:0 17:0 18:0 19:0 20:0 21:0 22:0 23:3 24:3 25:2 26:4 27:2 28:3 29:4 30:6 31:7 32:4 33:3 34:2 35:0 36:0 37:0 38:0 39:43 
-1.251839331405177 1:0 2:0 3:0 4:2 5:4 6:4 7:5 8:3 9:6 10:7 11:3 12:4 13:1 14:0 15:0 16:0 17:0 18:0 19:0 20:0 21:2 22:2 23:3 24:3 25:2 26:3 27:4 28:6 29:6 30:4 31:2 32:2 33:0 34:0 35:0 36:0 37:0 38:0 39:39 
-0.6375732558646349 1:0 2:0 3:0 4:3 5:3 6:4 7:5 8:4 9:4 10:6 11:5 12:4 13:1 14:0 15:0 16:0 17:0 18:0 19:0 20:0 21:0 22:0 23:0 24:3 25:3 26:2 27:4 28:1 29:2 30:2 31:7 32:8 33:3 34:2 35:2 36:0 37:0 38:0 39:39 
-0.1461877701510523 1:0 2:0 3:0 4:2 5:4 6:6 7:5 8:4 9:4 10:6 11:5 12:4 13:1 14:0 15:0 16:0 17:0 18:0 19:0 20:0 21:2 22:3 23:2 24:4 25:2 26:3 27:3 28:6 29:8 30:4 31:2 32:2 33:0 34:0 35:0 36:0 37:0 38:0 39:41 
-0.04218523066847585 1:0 2:0 3:0 4:0 5:0 6:1 7:2 8:4 9:6 10:6 11:3 12:5 13:5 14:3 15:4 16:1 17:0 18:0 19:0 20:3 21:2 22:3 23:3 24:2 25:2 26:3 27:7 28:7 29:3 30:2 31:3 32:0 33:0 34:0 35:0 36:0 37:0 38:0 39:40 
-2 1:0 2:0 3:0 4:0 5:1 6:4 7:7 8:6 9:4 10:5 11:6 12:3 13:4 14:1 15:0 16:0 17:0 18:0 19:0 20:4 21:3 22:3 23:3 24:2 25:3 26:2 27:7 28:7 29:3 30:2 31:2 32:0 33:0 34:0 35:0 36:0 37:0 38:0 39:41 
-0.7183622668420553 1:4 2:1 3:0 4:0 5:0 6:2 7:3 8:6 9:6 10:3 11:6 12:7 13:4 14:2 15:0 16:0 17:0 18:0 19:0 20:0 21:1 22:2 23:3 24:4 25:4 26:2 27:1 28:4 29:7 30:7 31:5 32:4 33:0 34:0 35:0 36:0 37:0 38:0 39:44 
-1.008202597073829 1:0 2:0 3:0 4:0 5:2 6:4 7:5 8:4 9:4 10:5 11:6 12:4 13:3 14:2 15:0 16:0 17:0 18:0 19:0 20:0 21:0 22:0 23:2 24:3 25:2 26:1 27:2 28:3 29:4 30:7 31:7 32:3 33:3 34:2 35:0 36:0 37:0 38:0 39:39 
-1.267909088194716 1:0 2:0 3:0 4:0 5:2 6:4 7:6 8:6 9:3 10:5 11:6 12:5 13:3 14:1 15:0 16:0 17:0 18:0 19:0 20:0 21:0 22:0 23:0 24:3 25:3 26:3 27:3 28:2 29:3 30:3 31:7 32:7 33:3 34:2 35:2 36:0 37:0 38:0 39:41 
-0.2117331360490709 1:0 2:0 3:0 4:0 5:1 6:3 7:2 8:6 9:6 10:3 11:6 12:6 13:4 14:4 15:1 16:1 17:0 18:0 19:0 20:0 21:0 22:0 23:0 24:3 25:3 26:3 27:4 28:2 29:3 30:2 31:6 32:8 33:2 34:3 35:4 36:0 37:0 38:0 39:43 
-0.2380138373143557 1:0 2:1 3:2 4:1 5:0 6:0 7:2 8:4 9:5 10:4 11:4 12:6 13:6 14:4 15:4 16:2 17:0 18:2 19:0 20:0 21:0 22:2 23:3 24:3 25:3 26:2 27:2 28:3 29:8 30:8 31:4 32:3 33:2 34:0 35:0 36:0 37:0 38:0 39:45 
