svm_type c_svc
kernel_type rbf
gamma 0.0078125
nr_class 2
total_sv 38
rho 0.0274076
label 0 1
probA -4.08333
probB -0.126502
nr_sv 16 22
SV
0.5 1:0 2:0 3:0 4:0 5:0 6:5 7:7 8:3 9:7 10:6 11:6 12:4 13:0 14:0 15:0 16:0 17:0 18:0 19:0 20:0 21:0 22:4 23:4 24:2 25:2 26:3 27:5 28:5 29:2 30:3 31:1 32:4 33:3 34:0 35:0 36:0 37:0 38:0 39:38 
0.5 1:0 2:0 3:0 4:0 5:5 6:9 7:3 8:6 9:6 10:7 11:4 12:0 13:0 14:0 15:0 16:0 17:0 18:0 19:0 20:0 21:0 22:0 23:0 24:3 25:4 26:2 27:1 28:3 29:5 30:4 31:3 32:4 33:3 34:5 35:3 36:0 37:0 38:0 39:40 
0.3791575874625014 1:7 2:0 3:0 4:0 5:0 6:5 7:9 8:4 9:4 10:7 11:6 12:3 13:0 14:0 15:0 16:0 17:0 18:0 19:0 20:0 21:1 22:2 23:4 24:3 25:3 26:4 27:5 28:4 29:3 30:5 31:3 32:5 33:3 34:0 35:0 36:0 37:0 38:0 39:45 
0.5 1:0 2:0 3:0 4:5 5:9 6:4 7:6 8:5 9:7 10:3 11:0 12:0 13:0 14:0 15:0 16:0 17:0 18:0 19:0 20:3 21:4 22:2 23:2 24:3 25:5 26:4 27:3 28:3 29:2 30:5 31:3 32:0 33:0 34:0 35:0 36:0 37:0 38:0 39:39 
0.5 1:0 2:0 3:0 4:0 5:6 6:7 7:4 8:6 9:5 10:7 11:3 12:0 13:0 14:0 15:0 16:0 17:0 18:0 19:0 20:3 21:5 22:2 23:1 24:2 25:6 26:4 27:3 28:2 29:3 30:5 31:2 32:0 33:0 34:0 35:0 36:0 37:0 38:0 39:38 
0.5 1:0 2:0 3:0 4:0 5:0 6:4 7:8 8:5 9:4 10:5 11:7 12:4 13:0 14:0 15:0 16:0 17:0 18:0 19:0 20:2 21:4 22:2 23:2 24:2 25:5 26:3 27:4 28:2 29:4 30:5 31:2 32:0 33:0 34:0 35:0 36:0 37:0 38:0 39:37 
0.3570761918259833 1:0 2:0 3:0 4:0 5:0 6:6 7:8 8:5 9:6 10:5 11:7 12:2 13:0 14:0 15:0 16:0 17:0 18:0 19:0 20:0 21:0 22:0 23:0 24:3 25:4 26:1 27:1 28:4 29:5 30:4 31:3 32:4 33:2 34:5 35:3 36:0 37:0 38:0 39:39 
0.3605894121335102 1:0 2:0 3:0 4:0 5:1 6:4 7:9 8:5 9:5 10:5 11:6 12:4 13:0 14:0 15:0 16:0 17:0 18:0 19:0 20:0 21:0 22:3 23:4 24:1 25:2 26:3 27:7 28:4 29:4 30:2 31:2 32:5 33:2 34:0 35:0 36:0 37:0 38:0 39:39 
0.4612479328240223 1:0 2:0 3:0 4:0 5:0 6:4 7:8 8:5 9:5 10:6 11:8 12:2 13:0 14:0 15:0 16:0 17:0 18:0 19:0 20:0 21:3 22:5 23:2 24:1 25:3 26:6 27:1 28:4 29:4 30:2 31:4 32:3 33:0 34:0 35:0 36:0 37:0 38:0 39:38 
0.5 1:0 2:0 3:0 4:4 5:9 6:5 7:6 8:6 9:8 10:4 11:0 12:0 13:0 14:0 15:0 16:0 17:0 18:0 19:0 20:0 21:0 22:0 23:0 24:3 25:5 26:2 27:2 28:2 29:6 30:3 31:4 32:4 33:3 34:5 35:3 36:0 37:0 38:0 39:42 
0.4306226007538616 1:0 2:0 3:0 4:0 5:6 6:8 7:5 8:6 9:6 10:8 11:3 12:0 13:0 14:0 15:0 16:0 17:0 18:0 19:0 20:0 21:0 22:0 23:3 24:5 25:1 26:2 27:3 28:6 29:4 30:4 31:3 32:3 33:5 34:3 35:0 36:0 37:0 38:0 39:42 
0.5 1:0 2:0 3:0 4:0 5:0 6:5 7:7 8:5 9:6 10:3 11:8 12:4 13:0 14:0 15:0 16:0 17:0 18:0 19:0 20:0 21:0 22:0 23:0 24:2 25:4 26:2 27:1 28:3 29:5 30:4 31:3 32:4 33:3 34:4 35:3 36:0 37:0 38:0 39:38 
0.5 1:0 2:0 3:0 4:0 5:0 6:0 7:5 8:9 9:4 10:5 11:7 12:7 13:4 14:0 15:0 16:0 17:0 18:0 19:0 20:0 21:0 22:0 23:0 24:3 25:4 26:2 27:2 28:2 29:6 30:4 31:4 32:3 33:4 34:4 35:3 36:0 37:0 38:0 39:41 
0.4828297811963987 1:0 2:0 3:0 4:6 5:9 6:5 7:6 8:5 9:5 10:5 11:0 12:0 13:0 14:0 15:0 16:0 17:0 18:0 19:0 20:0 21:3 22:4 23:1 24:2 25:4 26:7 27:3 28:3 29:3 30:3 31:5 32:3 33:0 34:0 35:0 36:0 37:0 38:0 39:41 
0.1978506037595212 1:0 2:0 3:0 4:0 5:0 6:6 7:9 8:5 9:6 10:6 11:6 12:2 13:0 14:0 15:0 16:0 17:0 18:0 19:0 20:0 21:0 22:0 23:3 24:5 25:2 26:2 27:3 28:6 29:4 30:3 31:3 32:1 33:5 34:3 35:0 36:0 37:0 38:0 39:40 
0.5 1:0 2:0 3:0 4:0 5:0 6:3 7:5 8:5 9:5 10:6 11:8 12:3 13:0 14:0 15:0 16:0 17:0 18:0 19:0 20:0 21:0 22:3 23:4 24:2 25:0 26:2 27:4 28:3 29:4 30:4 31:3 32:3 33:3 34:0 35:0 36:0 37:0 38:0 39:35 
-0.3765941099775434 1:0 2:0 3:0 4:0 5:0 6:3 7:6 8:3 9:5 10:4 11:8 12:1 13:0 14:0 15:0 16:0 17:0 18:0 19:0 20:0 21:0 22:0 23:3 24:5 25:2 26:3 27:4 28:3 29:2 30:5 31:3 32:0 33:0 34:0 35:0 36:0 37:0 38:0 39:30 
-0.5 1:0 2:0 3:0 4:0 5:4 6:6 7:5 8:5 9:6 10:8 11:1 12:0 13:0 14:0 15:0 16:0 17:0 18:0 19:0 20:0 21:0 22:0 23:0 24:0 25:0 26:3 27:5 28:3 29:3 30:5 31:3 32:2 33:6 34:4 35:1 36:0 37:0 38:0 39:35 
-0.5 1:0 2:0 3:0 4:0 5:0 6:4 7:7 8:5 9:5 10:5 11:8 12:1 13:0 14:0 15:0 16:0 17:0 18:0 19:0 20:0 21:0 22:0 23:0 24:0 25:0 26:3 27:5 28:3 29:3 30:5 31:3 32:3 33:6 34:4 35:0 36:0 37:0 38:0 39:35 
-0.1811415176806281 1:0 2:0 3:0 4:0 5:0 6:0 7:4 8:6 9:5 10:5 11:5 12:6 13:1 14:0 15:0 16:0 17:0 18:0 19:0 20:0 21:0 22:0 23:0 24:0 25:0 26:0 27:3 28:5 29:3 30:1 31:4 32:4 33:2 34:6 35:4 36:0 37:0 38:0 39:32 
-0.2615111471848393 1:0 2:0 3:0 4:4 5:6 6:5 7:5 8:5 9:5 10:1 11:0 12:0 13:0 14:0 15:0 16:0 17:0 18:0 19:0 20:0 21:0 22:0 23:0 24:3 25:5 26:3 27:3 28:4 29:3 30:1 31:6 32:3 33:0 34:0 35:0 36:0 37:0 38:0 39:31 
-0.5 1:0 2:0 3:0 4:0 5:0 6:0 7:3 8:5 9:5 10:5 11:5 12:8 13:2 14:0 15:0 16:0 17:0 18:0 19:0 20:0 21:0 22:0 23:0 24:0 25:0 26:0 27:3 28:5 29:3 30:3 31:5 32:3 33:2 34:5 35:4 36:0 37:0 38:0 39:33 
-0.5 1:0 2:0 3:0 4:0 5:0 6:3 7:6 8:5 9:5 10:5 11:8 12:1 13:0 14:0 15:0 16:0 17:0 18:0 19:0 20:0 21:0 22:0 23:0 24:0 25:3 26:5 27:3 28:3 29:5 30:3 31:1 32:6 33:4 34:0 35:0 36:0 37:0 38:0 39:33 
-0.5 1:0 2:0 3:0 4:0 5:0 6:4 7:5 8:5 9:6 10:4 11:7 12:1 13:0 14:0 15:0 16:0 17:0 18:0 19:0 20:0 21:0 22:0 23:0 24:3 25:4 26:4 27:3 28:4 29:3 30:2 31:6 32:3 33:0 34:0 35:0 36:0 37:0 38:0 39:32 
-0.5 1:0 2:0 3:0 4:0 5:0 6:0 7:3 8:6 9:5 10:5 11:6 12:8 13:1 14:0 15:0 16:0 17:0 18:0 19:0 20:0 21:0 22:0 23:0 24:0 25:3 26:5 27:2 28:3 29:5 30:3 31:3 32:6 33:4 34:0 35:0 36:0 37:0 38:0 39:34 
-0.01221354467431484 1:0 2:0 3:0 4:0 5:0 6:4 7:6 8:4 9:5 10:5 11:7 12:1 13:0 14:0 15:0 16:0 17:0 18:0 19:0 20:0 21:0 22:0 23:0 24:0 25:0 26:0 27:3 28:4 29:3 30:3 31:5 32:3 33:2 34:6 35:3 36:0 37:0 38:0 39:32 
-0.05123813081172357 1:0 2:0 3:0 4:0 5:3 6:5 7:5 8:4 9:5 10:8 11:2 12:0 13:0 14:0 15:0 16:0 17:0 18:0 19:0 20:0 21:0 22:0 23:0 24:0 25:3 26:5 27:2 28:4 29:5 30:2 31:2 32:5 33:4 34:0 35:0 36:0 37:0 38:0 39:32 
-0.5 1:0 2:0 3:0 4:4 5:5 6:5 7:5 8:4 9:8 10:2 11:0 12:0 13:0 14:0 15:0 16:0 17:0 18:0 19:0 20:0 21:0 22:0 23:0 24:0 25:3 26:4 27:3 28:3 29:6 30:2 31:2 32:6 33:4 34:0 35:0 36:0 37:0 38:0 39:33 
-0.1874304668952123 1:0 2:0 3:0 4:0 5:0 6:4 7:5 8:5 9:4 10:3 11:8 12:1 13:0 14:0 15:0 16:0 17:0 18:0 19:0 20:0 21:0 22:0 23:4 24:4 25:2 26:3 27:5 28:3 29:2 30:4 31:3 32:0 33:0 34:0 35:0 36:0 37:0 38:0 39:30 
-0.09138024932987153 1:0 2:0 3:0 4:3 5:7 6:5 7:5 8:5 9:6 10:1 11:1 12:0 13:0 14:0 15:0 16:0 17:0 18:0 19:0 20:0 21:0 22:0 23:0 24:0 25:1 26:3 27:5 28:3 29:3 30:4 31:2 32:2 33:6 34:4 35:0 36:0 37:0 38:0 39:33 
-0.1139304658280323 1:0 2:0 3:0 4:0 5:3 6:5 7:5 8:5 9:5 10:8 11:1 12:0 13:0 14:0 15:0 16:0 17:0 18:0 19:0 20:0 21:0 22:0 23:3 24:5 25:2 26:3 27:5 28:2 29:2 30:6 31:4 32:0 33:0 34:0 35:0 36:0 37:0 38:0 39:32 
-0.5 1:0 2:0 3:0 4:0 5:2 6:7 7:5 8:5 9:5 10:8 11:1 12:0 13:0 14:0 15:0 16:0 17:0 18:0 19:0 20:0 21:0 22:0 23:3 24:5 25:2 26:3 27:5 28:3 29:2 30:6 31:4 32:0 33:0 34:0 35:0 36:0 37:0 38:0 39:33 
-0.5 1:0 2:0 3:0 4:4 5:6 6:5 7:5 8:4 9:8 10:1 11:0 12:0 13:0 14:0 15:0 16:0 17:0 18:0 19:0 20:0 21:0 22:0 23:3 24:4 25:3 26:3 27:5 28:3 29:2 30:6 31:4 32:0 33:0 34:0 35:0 36:0 37:0 38:0 39:33 
-0.02604403942368488 1:0 2:0 3:0 4:4 5:6 6:6 7:4 8:4 9:7 10:1 11:0 12:0 13:0 14:0 15:0 16:0 17:0 18:0 19:0 20:0 21:0 22:0 23:0 24:0 25:0 26:0 27:3 28:4 29:3 30:3 31:4 32:3 33:2 34:6 35:4 36:0 37:0 38:0 39:32 
-0.5 1:0 2:0 3:0 4:0 5:4 6:6 7:6 8:5 9:5 10:8 11:1 12:0 13:0 14:0 15:0 16:0 17:0 18:0 19:0 20:0 21:0 22:0 23:0 24:0 25:0 26:0 27:3 28:6 29:2 30:4 31:5 32:3 33:2 34:6 35:4 36:0 37:0 38:0 39:35 
-0.5 1:11 2:0 3:0 4:0 5:0 6:3 7:5 8:5 9:4 10:4 11:8 12:1 13:0 14:0 15:0 16:0 17:0 18:0 19:0 20:1 21:1 22:1 23:0 24:1 25:1 26:4 27:6 28:3 29:3 30:4 31:4 32:2 33:6 34:4 35:0 36:0 37:0 38:0 39:41 
-0.212402171737256 1:0 2:0 3:0 4:4 5:5 6:5 7:5 8:5 9:8 10:1 11:0 12:0 13:0 14:0 15:0 16:0 17:0 18:0 19:0 20:0 21:0 22:0 23:0 24:0 25:0 26:0 27:4 28:5 29:1 30:3 31:5 32:3 33:2 34:6 35:4 36:0 37:0 38:0 39:33 
-0.1554882664126925 1:0 2:0 3:0 4:0 5:0 6:4 7:6 8:5 9:5 10:5 11:7 12:0 13:0 14:0 15:0 16:0 17:0 18:0 19:0 20:0 21:0 22:0 23:0 24:0 25:3 26:5 27:3 28:2 29:5 30:3 31:2 32:6 33:3 34:0 35:0 36:0 37:0 38:0 39:32 
