svm_type c_svc
kernel_type rbf
gamma 0.0078125
nr_class 2
total_sv 42
rho -0.306025
label 1 0
probA -4.32077
probB -0.195484
nr_sv 23 19
SV
0.5 1:0 2:0 3:1 4:6 5:8 6:1 7:1 8:1 9:2 10:7 11:0 12:0 13:0 14:0 15:0 16:0 17:0 18:0 19:0 20:0 21:0 22:1 23:3 24:7 25:3 26:2 27:3 28:2 29:2 30:2 31:2 32:0 33:0 34:0 35:0 36:0 37:0 38:0 39:27 
0.1734106146052946 1:0 2:0 3:0 4:0 5:6 6:8 7:1 8:1 9:2 10:2 11:5 12:0 13:0 14:0 15:0 16:0 17:0 18:0 19:0 20:0 21:0 22:0 23:0 24:0 25:0 26:0 27:2 28:7 29:3 30:2 31:3 32:3 33:2 34:2 35:1 36:0 37:0 38:0 39:25 
0.03375785600715269 1:0 2:0 3:0 4:0 5:0 6:4 7:9 8:1 9:1 10:2 11:3 12:6 13:0 14:0 15:0 16:0 17:0 18:0 19:0 20:0 21:0 22:0 23:0 24:0 25:3 26:7 27:2 28:2 29:3 30:3 31:2 32:3 33:1 34:0 35:0 36:0 37:0 38:0 39:26 
0.1042365865517503 1:0 2:0 3:0 4:0 5:0 6:0 7:7 8:8 9:1 10:1 11:2 12:2 13:5 14:0 15:0 16:0 17:0 18:0 19:0 20:0 21:0 22:0 23:0 24:0 25:3 26:6 27:3 28:2 29:3 30:3 31:2 32:2 33:2 34:0 35:0 36:0 37:0 38:0 39:26 
0.161954790073741 1:0 2:0 3:0 4:0 5:9 6:8 7:1 8:1 9:3 10:2 11:7 12:0 13:0 14:0 15:0 16:0 17:0 18:0 19:0 20:0 21:0 22:0 23:0 24:0 25:1 26:4 27:6 28:4 29:3 30:3 31:3 32:3 33:2 34:2 35:0 36:0 37:0 38:0 39:31 
0.3640891338383569 1:3 2:3 3:0 4:0 5:0 6:0 7:5 8:9 9:1 10:1 11:2 12:2 13:7 14:0 15:0 16:0 17:0 18:0 19:0 20:0 21:0 22:0 23:1 24:1 25:1 26:1 27:5 28:6 29:4 30:2 31:3 32:2 33:3 34:2 35:2 36:0 37:0 38:0 39:33 
0.5 1:0 2:0 3:0 4:0 5:0 6:6 7:9 8:1 9:1 10:2 11:2 12:5 13:0 14:0 15:0 16:0 17:0 18:0 19:0 20:0 21:0 22:0 23:0 24:4 25:7 26:2 27:3 28:2 29:2 30:2 31:2 32:2 33:0 34:0 35:0 36:0 37:0 38:0 39:26 
0.5 1:0 2:0 3:0 4:5 5:7 6:1 7:1 8:2 9:1 10:7 11:0 12:0 13:0 14:0 15:0 16:0 17:0 18:0 19:0 20:0 21:0 22:0 23:0 24:0 25:3 26:6 27:2 28:2 29:3 30:2 31:2 32:3 33:1 34:0 35:0 36:0 37:0 38:0 39:24 
0.5 1:0 2:0 3:0 4:1 5:0 6:0 7:5 8:8 9:1 10:1 11:2 12:2 13:5 14:0 15:0 16:0 17:0 18:0 19:1 20:0 21:0 22:0 23:0 24:4 25:6 26:2 27:0 28:1 29:3 30:3 31:3 32:2 33:0 34:0 35:0 36:0 37:0 38:0 39:25 
0.5 1:0 2:0 3:0 4:0 5:7 6:7 7:1 8:1 9:2 10:2 11:7 12:0 13:0 14:0 15:0 16:0 17:0 18:0 19:0 20:0 21:0 22:0 23:4 24:6 25:3 26:1 27:2 28:3 29:3 30:3 31:2 32:0 33:0 34:0 35:0 36:0 37:0 38:0 39:27 
0.2502868563343827 1:0 2:0 3:0 4:6 5:8 6:1 7:1 8:2 9:2 10:5 11:0 12:0 13:0 14:0 15:0 16:0 17:0 18:0 19:0 20:0 21:0 22:0 23:0 24:0 25:4 26:6 27:3 28:1 29:2 30:3 31:2 32:2 33:2 34:0 35:0 36:0 37:0 38:0 39:25 
0.002231855141053553 1:0 2:0 3:0 4:0 5:0 6:5 7:8 8:1 9:1 10:2 11:2 12:7 13:0 14:0 15:0 16:0 17:0 18:0 19:0 20:0 21:0 22:0 23:0 24:0 25:0 26:0 27:4 28:6 29:3 30:2 31:3 32:3 33:3 34:2 35:0 36:0 37:0 38:0 39:26 
0.5 1:0 2:0 3:0 4:0 5:0 6:0 7:5 8:6 9:1 10:1 11:2 12:2 13:7 14:0 15:0 16:0 17:0 18:0 19:0 20:0 21:0 22:0 23:0 24:3 25:7 26:2 27:3 28:3 29:1 30:3 31:2 32:0 33:0 34:0 35:0 36:0 37:0 38:0 39:24 
0.5 1:0 2:0 3:0 4:0 5:0 6:0 7:7 8:9 9:0 10:1 11:2 12:2 13:5 14:0 15:0 16:0 17:0 18:0 19:0 20:0 21:0 22:0 23:0 24:4 25:5 26:2 27:2 28:3 29:3 30:3 31:2 32:2 33:0 34:0 35:0 36:0 37:0 38:0 39:26 
0.5 1:0 2:0 3:0 4:0 5:4 6:8 7:1 8:1 9:2 10:2 11:5 12:0 13:0 14:0 15:0 16:0 17:0 18:0 19:0 20:0 21:0 22:0 23:3 24:6 25:3 26:2 27:2 28:1 29:2 30:2 31:2 32:0 33:0 34:0 35:0 36:0 37:0 38:0 39:23 
0.479551112959921 1:4 2:3 3:0 4:0 5:0 6:6 7:8 8:1 9:1 10:2 11:3 12:7 13:0 14:0 15:0 16:0 17:0 18:0 19:0 20:0 21:0 22:1 23:4 24:6 25:2 26:2 27:4 28:4 29:5 30:3 31:3 32:1 33:0 34:0 35:0 36:0 37:0 38:0 39:35 
0.01171887024957268 1:0 2:0 3:0 4:0 5:7 6:8 7:1 8:0 9:2 10:2 11:5 12:0 13:0 14:0 15:0 16:0 17:0 18:0 19:0 20:0 21:0 22:0 23:0 24:4 25:5 26:3 27:1 28:2 29:3 30:3 31:2 32:2 33:0 34:0 35:0 36:0 37:0 38:0 39:25 
0.4880243841377752 1:0 2:0 3:0 4:0 5:5 6:7 7:1 8:1 9:2 10:1 11:5 12:0 13:0 14:0 15:0 16:0 17:0 18:0 19:0 20:0 21:0 22:0 23:0 24:0 25:1 26:4 27:4 28:3 29:1 30:1 31:3 32:1 33:3 34:1 35:0 36:0 37:0 38:0 39:22 
0.2767786185872156 1:0 2:0 3:0 4:0 5:0 6:6 7:9 8:1 9:1 10:2 11:2 12:6 13:0 14:0 15:0 16:0 17:0 18:0 19:0 20:0 21:0 22:0 23:0 24:0 25:0 26:0 27:4 28:5 29:3 30:2 31:3 32:3 33:2 34:3 35:2 36:0 37:0 38:0 39:27 
0.2674173433214997 1:0 2:0 3:0 4:0 5:0 6:0 7:6 8:9 9:1 10:1 11:2 12:2 13:6 14:0 15:0 16:0 17:0 18:0 19:0 20:0 21:0 22:0 23:0 24:0 25:0 26:0 27:4 28:6 29:3 30:2 31:2 32:3 33:3 34:2 35:2 36:0 37:0 38:0 39:27 
0.1960222340235077 1:0 2:0 3:0 4:0 5:0 6:6 7:9 8:1 9:1 10:2 11:2 12:5 13:0 14:0 15:0 16:0 17:0 18:0 19:0 20:0 21:0 22:0 23:0 24:0 25:0 26:4 27:6 28:3 29:3 30:1 31:2 32:3 33:2 34:2 35:0 36:0 37:0 38:0 39:26 
0.04959170592144028 1:0 2:0 3:0 4:0 5:0 6:5 7:7 8:1 9:1 10:2 11:2 12:7 13:1 14:0 15:0 16:0 17:0 18:0 19:0 20:0 21:0 22:0 23:0 24:3 25:6 26:3 27:2 28:3 29:3 30:2 31:2 32:2 33:0 34:0 35:0 36:0 37:0 38:0 39:26 
0.5 1:0 2:0 3:0 4:0 5:0 6:6 7:8 8:2 9:1 10:1 11:2 12:7 13:0 14:0 15:0 16:0 17:0 18:0 19:0 20:0 21:0 22:0 23:4 24:6 25:3 26:3 27:2 28:2 29:3 30:3 31:1 32:0 33:0 34:0 35:0 36:0 37:0 38:0 39:27 
-0.2040759985754289 1:0 2:0 3:0 4:0 5:2 6:2 7:3 8:6 9:4 10:4 11:2 12:0 13:0 14:0 15:0 16:0 17:0 18:0 19:0 20:0 21:0 22:0 23:7 24:6 25:1 26:2 27:2 28:1 29:1 30:2 31:1 32:0 33:0 34:0 35:0 36:0 37:0 38:0 39:23 
-0.2975777162486801 1:0 2:0 3:0 4:0 5:0 6:0 7:2 8:2 9:6 10:6 11:3 12:4 13:2 14:0 15:0 16:0 17:0 18:0 19:0 20:0 21:0 22:7 23:7 24:1 25:2 26:1 27:1 28:1 29:2 30:1 31:1 32:1 33:0 34:0 35:0 36:0 37:0 38:0 39:25 
-0.4219549392284477 1:0 2:0 3:0 4:0 5:2 6:1 7:6 8:6 9:5 10:3 11:2 12:0 13:0 14:0 15:0 16:0 17:0 18:0 19:0 20:0 21:0 22:0 23:0 24:6 25:6 26:1 27:2 28:2 29:2 30:1 31:2 32:1 33:1 34:1 35:0 36:0 37:0 38:0 39:25 
-0.5 1:0 2:0 3:0 4:0 5:0 6:1 7:2 8:6 9:2 10:4 11:4 12:2 13:0 14:0 15:0 16:0 17:0 18:0 19:0 20:0 21:0 22:0 23:6 24:5 25:1 26:2 27:1 28:0 29:1 30:2 31:1 32:1 33:1 34:0 35:0 36:0 37:0 38:0 39:21 
-0.5 1:0 2:0 3:0 4:2 5:3 6:6 7:7 8:4 9:4 10:2 11:0 12:0 13:0 14:0 15:0 16:0 17:0 18:0 19:0 20:6 21:6 22:1 23:2 24:2 25:2 26:1 27:2 28:1 29:1 30:1 31:3 32:0 33:0 34:0 35:0 36:0 37:0 38:0 39:28 
-0.3498646802064813 1:0 2:0 3:0 4:0 5:0 6:2 7:3 8:3 9:7 10:6 11:4 12:4 13:1 14:0 15:0 16:0 17:0 18:0 19:0 20:1 21:6 22:7 23:1 24:3 25:3 26:1 27:1 28:2 29:1 30:1 31:1 32:2 33:0 34:0 35:0 36:0 37:0 38:0 39:30 
-0.5 1:3 2:1 3:0 4:0 5:0 6:2 7:3 8:7 9:7 10:4 11:3 12:2 13:0 14:0 15:0 16:0 17:0 18:0 19:0 20:1 21:0 22:0 23:1 24:7 25:7 26:1 27:1 28:2 29:2 30:1 31:3 32:1 33:1 34:2 35:2 36:0 37:0 38:0 39:32 
-0.4754637716325799 1:0 2:0 3:0 4:2 5:3 6:5 7:5 8:3 9:3 10:2 11:0 12:0 13:0 14:0 15:0 16:0 17:0 18:0 19:0 20:0 21:6 22:6 23:1 24:2 25:1 26:1 27:1 28:1 29:1 30:2 31:1 32:0 33:0 34:0 35:0 36:0 37:0 38:0 39:23 
-0.4319753046570263 1:0 2:0 3:0 4:0 5:0 6:0 7:2 8:3 9:4 10:4 11:4 12:3 13:2 14:0 15:0 16:0 17:0 18:0 19:0 20:0 21:7 22:5 23:1 24:2 25:1 26:1 27:1 28:1 29:1 30:0 31:0 32:2 33:0 34:0 35:0 36:0 37:0 38:0 39:22 
-0.1743362774934819 1:0 2:0 3:0 4:0 5:0 6:2 7:2 8:6 9:6 10:4 11:4 12:2 13:0 14:0 15:0 16:0 17:0 18:0 19:0 20:7 21:7 22:1 23:2 24:2 25:1 26:1 27:2 28:1 29:1 30:1 31:0 32:0 33:0 34:0 35:0 36:0 37:0 38:0 39:26 
-0.3194879552174233 1:0 2:0 3:0 4:0 5:0 6:0 7:2 8:3 9:7 10:5 11:4 12:4 13:2 14:0 15:0 16:0 17:0 18:0 19:0 20:0 21:0 22:7 23:7 24:1 25:2 26:1 27:1 28:1 29:2 30:1 31:1 32:1 33:2 34:0 35:0 36:0 37:0 38:0 39:27 
-0.5 1:0 2:0 3:0 4:0 5:2 6:3 7:7 8:4 9:4 10:3 11:2 12:0 13:0 14:0 15:0 16:0 17:0 18:0 19:0 20:0 21:0 22:0 23:0 24:7 25:6 26:1 27:2 28:2 29:1 30:0 31:1 32:1 33:1 34:1 35:2 36:0 37:0 38:0 39:25 
-0.06001002474271372 1:0 2:0 3:0 4:0 5:2 6:2 7:7 8:6 9:4 10:4 11:2 12:0 13:0 14:0 15:0 16:0 17:0 18:0 19:0 20:0 21:0 22:7 23:6 24:1 25:2 26:2 27:1 28:1 29:2 30:1 31:1 32:1 33:2 34:0 35:0 36:0 37:0 38:0 39:27 
-0.5 1:0 2:0 3:0 4:2 5:3 6:6 7:6 8:4 9:4 10:2 11:0 12:0 13:0 14:0 15:0 16:0 17:0 18:0 19:0 20:0 21:0 22:7 23:7 24:1 25:2 26:2 27:1 28:1 29:2 30:1 31:0 32:1 33:2 34:0 35:0 36:0 37:0 38:0 39:27 
-0.5 1:0 2:0 3:0 4:0 5:0 6:2 7:2 8:5 9:5 10:4 11:4 12:2 13:0 14:0 15:0 16:0 17:0 18:0 19:0 20:0 21:0 22:0 23:0 24:7 25:7 26:1 27:2 28:1 29:1 30:1 31:2 32:1 33:0 34:1 35:0 36:0 37:0 38:0 39:24 
-0.5 1:0 2:0 3:0 4:0 5:2 6:2 7:6 8:6 9:4 10:3 11:0 12:0 13:0 14:0 15:0 16:0 17:0 18:0 19:0 20:0 21:0 22:0 23:0 24:6 25:5 26:1 27:2 28:2 29:1 30:1 31:2 32:1 33:1 34:1 35:0 36:0 37:0 38:0 39:23 
-0.3597986684386756 1:0 2:0 3:0 4:2 5:3 6:6 7:6 8:4 9:4 10:2 11:0 12:0 13:0 14:0 15:0 16:0 17:0 18:0 19:0 20:7 21:7 22:1 23:2 24:2 25:1 26:1 27:2 28:1 29:1 30:1 31:1 32:0 33:0 34:0 35:0 36:0 37:0 38:0 39:27 
-0.2645266253117253 1:0 2:0 3:0 4:0 5:0 6:2 7:3 8:7 9:5 10:4 11:4 12:2 13:0 14:0 15:0 16:0 17:0 18:0 19:0 20:0 21:0 22:0 23:0 24:7 25:6 26:1 27:2 28:0 29:2 30:2 31:2 32:1 33:1 34:1 35:2 36:0 37:0 38:0 39:27 
-0.5 1:1 2:0 3:0 4:2 5:2 6:7 7:6 8:4 9:1 10:2 11:0 12:0 13:0 14:0 15:0 16:0 17:0 18:0 19:0 20:0 21:0 22:0 23:6 24:6 25:0 26:1 27:2 28:1 29:1 30:2 31:1 32:1 33:1 34:3 35:0 36:0 37:0 38:0 39:25 
