svm_type c_svc
kernel_type rbf
gamma 0.0078125
nr_class 2
total_sv 40
rho 0.669965
label 1 0
probA -3.97782
probB 0.0606758
nr_sv 19 21
SV
0.5 1:0 2:0 3:0 4:0 5:0 6:1 7:5 8:5 9:5 10:3 11:3 12:4 13:3 14:0 15:0 16:0 17:0 18:0 19:0 20:0 21:0 22:0 23:0 24:3 25:3 26:4 27:2 28:3 29:2 30:3 31:2 32:0 33:2 34:3 35:2 36:0 37:0 38:0 39:29 
0.5 1:0 2:0 3:0 4:0 5:0 6:1 7:5 8:6 9:5 10:4 11:3 12:4 13:2 14:0 15:0 16:0 17:0 18:0 19:0 20:0 21:0 22:0 23:0 24:3 25:3 26:3 27:2 28:3 29:3 30:3 31:2 32:2 33:1 34:3 35:2 36:0 37:0 38:0 39:30 
0.5 1:0 2:0 3:1 4:4 5:5 6:5 7:2 8:3 9:2 10:2 11:0 12:0 13:0 14:0 15:0 16:0 17:0 18:0 19:0 20:0 21:0 22:0 23:0 24:0 25:2 26:3 27:2 28:1 29:3 30:3 31:3 32:1 33:0 34:2 35:2 36:2 37:0 38:0 39:24 
0.4863560916561675 1:0 2:0 3:0 4:1 5:5 6:6 7:6 8:4 9:3 10:4 11:2 12:0 13:0 14:0 15:0 16:0 17:0 18:0 19:0 20:0 21:0 22:0 23:3 24:3 25:3 26:2 27:3 28:3 29:3 30:2 31:2 32:2 33:3 34:2 35:0 36:0 37:0 38:0 39:31 
0.5 1:0 2:0 3:0 4:1 5:5 6:5 7:6 8:4 9:3 10:3 11:2 12:0 13:0 14:0 15:0 16:0 17:0 18:0 19:0 20:0 21:0 22:0 23:3 24:3 25:3 26:1 27:3 28:2 29:3 30:2 31:2 32:2 33:3 34:2 35:0 36:0 37:0 38:0 39:29 
0.5 1:0 2:0 3:0 4:0 5:0 6:0 7:2 8:6 9:6 10:4 11:3 12:4 13:1 14:0 15:0 16:0 17:0 18:0 19:0 20:0 21:0 22:0 23:1 24:1 25:3 26:2 27:3 28:3 29:3 30:2 31:2 32:2 33:2 34:2 35:0 36:0 37:0 38:0 39:26 
0.2191967542457538 1:0 2:0 3:0 4:0 5:1 6:5 7:6 8:5 9:4 10:3 11:4 12:0 13:0 14:0 15:0 16:0 17:0 18:0 19:0 20:0 21:0 22:0 23:2 24:2 25:3 26:2 27:3 28:2 29:3 30:2 31:2 32:2 33:3 34:2 35:0 36:0 37:0 38:0 39:28 
0.1203297014420483 1:0 2:0 3:0 4:3 5:6 6:5 7:3 8:3 9:3 10:2 11:0 12:0 13:0 14:0 15:0 16:0 17:0 18:0 19:0 20:0 21:0 22:0 23:0 24:0 25:0 26:1 27:2 28:2 29:2 30:3 31:3 32:3 33:2 34:1 35:1 36:3 37:2 38:0 39:25 
0.1051015154520411 1:0 2:0 3:0 4:0 5:0 6:1 7:4 8:5 9:5 10:4 11:3 12:3 13:1 14:0 15:0 16:0 17:0 18:0 19:0 20:0 21:0 22:0 23:0 24:0 25:0 26:0 27:2 28:1 29:4 30:2 31:3 32:3 33:3 34:2 35:2 36:1 37:3 38:0 39:26 
0.5 1:0 2:0 3:0 4:0 5:0 6:3 7:4 8:6 9:4 10:3 11:2 12:2 13:0 14:0 15:0 16:0 17:0 18:0 19:0 20:0 21:0 22:0 23:0 24:0 25:0 26:0 27:2 28:2 29:3 30:1 31:3 32:3 33:3 34:2 35:2 36:2 37:1 38:0 39:24 
0.02804055805566225 1:0 2:0 3:0 4:1 5:5 6:6 7:5 8:3 9:2 10:4 11:2 12:0 13:0 14:0 15:0 16:0 17:0 18:0 19:0 20:0 21:0 22:0 23:0 24:3 25:3 26:3 27:2 28:2 29:3 30:3 31:1 32:2 33:1 34:3 35:2 36:0 37:0 38:0 39:28 
0.5 1:0 2:0 3:0 4:0 5:0 6:4 7:6 8:5 9:4 10:3 11:4 12:2 13:0 14:0 15:0 16:0 17:0 18:0 19:0 20:0 21:0 22:0 23:2 24:3 25:3 26:2 27:3 28:3 29:3 30:2 31:2 32:1 33:3 34:1 35:0 36:0 37:0 38:0 39:28 
0.3914152921442761 1:0 2:0 3:0 4:5 5:6 6:5 7:4 8:3 9:3 10:2 11:0 12:0 13:0 14:0 15:0 16:0 17:0 18:0 19:0 20:0 21:0 22:0 23:2 24:2 25:3 26:2 27:3 28:3 29:3 30:2 31:1 32:2 33:3 34:2 35:0 36:0 37:0 38:0 39:28 
0.2317900502359682 1:0 2:0 3:1 4:4 5:4 6:3 7:4 8:3 9:4 10:2 11:0 12:0 13:0 14:0 15:0 16:0 17:0 18:0 19:0 20:0 21:0 22:0 23:0 24:0 25:0 26:1 27:3 28:3 29:2 30:3 31:2 32:3 33:1 34:1 35:2 36:3 37:1 38:0 39:25 
0.5 1:0 2:0 3:0 4:0 5:0 6:1 7:5 8:6 9:6 10:2 11:2 12:4 13:2 14:0 15:0 16:0 17:0 18:0 19:0 20:0 21:0 22:0 23:3 24:3 25:3 26:2 27:2 28:3 29:2 30:2 31:1 32:2 33:3 34:2 35:0 36:0 37:0 38:0 39:28 
0.35024009062016 1:0 2:0 3:0 4:0 5:0 6:4 7:5 8:6 9:3 10:2 11:4 12:1 13:0 14:0 15:0 16:0 17:0 18:0 19:0 20:0 21:0 22:0 23:0 24:0 25:0 26:0 27:2 28:2 29:3 30:2 31:2 32:3 33:3 34:1 35:2 36:2 37:3 38:0 39:25 
0.1179221467354211 1:0 2:0 3:0 4:1 5:5 6:4 7:5 8:3 9:4 10:2 11:2 12:0 13:0 14:0 15:0 16:0 17:0 18:0 19:0 20:0 21:0 22:0 23:0 24:0 25:3 26:3 27:2 28:2 29:1 30:1 31:3 32:3 33:1 34:2 35:3 36:2 37:0 38:0 39:26 
0.5 1:0 2:0 3:0 4:1 5:5 6:5 7:5 8:3 9:2 10:3 11:2 12:0 13:0 14:0 15:0 16:0 17:0 18:0 19:0 20:0 21:0 22:0 23:3 24:3 25:2 26:2 27:3 28:2 29:2 30:2 31:1 32:1 33:3 34:2 35:0 36:0 37:0 38:0 39:26 
0.5 1:0 2:0 3:0 4:0 5:1 6:4 7:6 8:4 9:4 10:1 11:4 12:2 13:0 14:0 15:0 16:0 17:0 18:0 19:0 20:0 21:0 22:0 23:0 24:3 25:3 26:2 27:2 28:2 29:2 30:2 31:2 32:2 33:2 34:2 35:2 36:0 37:0 38:0 39:26 
-0.5 1:0 2:0 3:0 4:0 5:2 6:1 7:6 8:6 9:5 10:3 11:2 12:0 13:0 14:0 15:0 16:0 17:0 18:0 19:0 20:0 21:0 22:0 23:0 24:6 25:6 26:1 27:2 28:2 29:2 30:1 31:2 32:1 33:1 34:1 35:0 36:0 37:0 38:0 39:25 
-0.1225723953686529 1:0 2:0 3:0 4:0 5:0 6:1 7:2 8:6 9:2 10:4 11:4 12:2 13:0 14:0 15:0 16:0 17:0 18:0 19:0 20:0 21:0 22:0 23:6 24:5 25:1 26:2 27:1 28:0 29:1 30:2 31:1 32:1 33:1 34:0 35:0 36:0 37:0 38:0 39:21 
-0.5 1:0 2:0 3:0 4:2 5:3 6:6 7:7 8:4 9:4 10:2 11:0 12:0 13:0 14:0 15:0 16:0 17:0 18:0 19:0 20:6 21:6 22:1 23:2 24:2 25:2 26:1 27:2 28:1 29:1 30:1 31:3 32:0 33:0 34:0 35:0 36:0 37:0 38:0 39:28 
-0.1980818682866857 1:0 2:0 3:0 4:0 5:0 6:2 7:3 8:3 9:7 10:6 11:4 12:4 13:1 14:0 15:0 16:0 17:0 18:0 19:0 20:1 21:6 22:7 23:1 24:3 25:3 26:1 27:1 28:2 29:1 30:1 31:1 32:2 33:0 34:0 35:0 36:0 37:0 38:0 39:30 
-0.1798016885972342 1:0 2:0 3:0 4:0 5:0 6:2 7:3 8:7 9:6 10:4 11:3 12:2 13:0 14:0 15:0 16:0 17:0 18:0 19:0 20:6 21:7 22:1 23:2 24:2 25:1 26:1 27:2 28:1 29:1 30:1 31:2 32:0 33:0 34:0 35:0 36:0 37:0 38:0 39:27 
-0.5 1:3 2:1 3:0 4:0 5:0 6:2 7:3 8:7 9:7 10:4 11:3 12:2 13:0 14:0 15:0 16:0 17:0 18:0 19:0 20:1 21:0 22:0 23:1 24:7 25:7 26:1 27:1 28:2 29:2 30:1 31:3 32:1 33:1 34:2 35:2 36:0 37:0 38:0 39:32 
-0.1352826704749176 1:0 2:0 3:0 4:2 5:3 6:5 7:5 8:3 9:3 10:2 11:0 12:0 13:0 14:0 15:0 16:0 17:0 18:0 19:0 20:0 21:6 22:6 23:1 24:2 25:1 26:1 27:1 28:1 29:1 30:2 31:1 32:0 33:0 34:0 35:0 36:0 37:0 38:0 39:23 
-0.3384822124259179 1:0 2:0 3:0 4:0 5:0 6:2 7:3 8:7 9:6 10:2 11:3 12:2 13:0 14:0 15:0 16:0 17:0 18:0 19:0 20:0 21:6 22:7 23:1 24:0 25:1 26:1 27:1 28:2 29:2 30:1 31:1 32:2 33:0 34:0 35:0 36:0 37:0 38:0 39:25 
-0.03914182787538283 1:0 2:0 3:0 4:0 5:0 6:0 7:2 8:3 9:4 10:4 11:4 12:3 13:2 14:0 15:0 16:0 17:0 18:0 19:0 20:0 21:7 22:5 23:1 24:2 25:1 26:1 27:1 28:1 29:1 30:0 31:0 32:2 33:0 34:0 35:0 36:0 37:0 38:0 39:22 
-0.3379123212137035 1:0 2:0 3:0 4:0 5:0 6:0 7:2 8:3 9:7 10:5 11:4 12:4 13:2 14:0 15:0 16:0 17:0 18:0 19:0 20:0 21:0 22:7 23:7 24:1 25:2 26:1 27:1 28:1 29:2 30:1 31:1 32:1 33:2 34:0 35:0 36:0 37:0 38:0 39:27 
-0.5 1:0 2:0 3:0 4:0 5:2 6:3 7:7 8:4 9:4 10:3 11:2 12:0 13:0 14:0 15:0 16:0 17:0 18:0 19:0 20:0 21:0 22:0 23:0 24:7 25:6 26:1 27:2 28:2 29:1 30:0 31:1 32:1 33:1 34:1 35:2 36:0 37:0 38:0 39:25 
-0.1718201160342202 1:0 2:0 3:0 4:0 5:2 6:2 7:7 8:6 9:4 10:4 11:2 12:0 13:0 14:0 15:0 16:0 17:0 18:0 19:0 20:0 21:0 22:7 23:6 24:1 25:2 26:2 27:1 28:1 29:2 30:1 31:1 32:1 33:2 34:0 35:0 36:0 37:0 38:0 39:27 
-0.005819016118534449 1:0 2:0 3:0 4:0 5:2 6:1 7:5 8:6 9:4 10:3 11:2 12:0 13:0 14:0 15:0 16:0 17:0 18:0 19:0 20:0 21:0 22:0 23:7 24:5 25:1 26:2 27:2 28:1 29:1 30:2 31:0 32:1 33:1 34:0 35:0 36:0 37:0 38:0 39:23 
-0.5 1:0 2:0 3:0 4:2 5:3 6:6 7:6 8:4 9:4 10:2 11:0 12:0 13:0 14:0 15:0 16:0 17:0 18:0 19:0 20:0 21:0 22:7 23:7 24:1 25:2 26:2 27:1 28:1 29:2 30:1 31:0 32:1 33:2 34:0 35:0 36:0 37:0 38:0 39:27 
-0.5 1:0 2:0 3:0 4:0 5:2 6:2 7:6 8:6 9:4 10:3 11:0 12:0 13:0 14:0 15:0 16:0 17:0 18:0 19:0 20:0 21:0 22:0 23:0 24:6 25:5 26:1 27:2 28:2 29:1 30:1 31:2 32:1 33:1 34:1 35:0 36:0 37:0 38:0 39:23 
-0.1798406688699242 1:0 2:0 3:0 4:2 5:3 6:6 7:6 8:4 9:4 10:2 11:0 12:0 13:0 14:0 15:0 16:0 17:0 18:0 19:0 20:7 21:7 22:1 23:2 24:2 25:1 26:1 27:2 28:1 29:1 30:1 31:1 32:0 33:0 34:0 35:0 36:0 37:0 38:0 39:27 
-0.4232263277875901 1:0 2:0 3:0 4:0 5:0 6:1 7:3 8:7 9:7 10:4 11:4 12:2 13:0 14:0 15:0 16:0 17:0 18:0 19:0 20:0 21:0 22:0 23:0 24:7 25:6 26:1 27:2 28:2 29:1 30:1 31:2 32:0 33:1 34:1 35:2 36:1 37:1 38:0 39:28 
-0.5 1:0 2:0 3:0 4:0 5:0 6:2 7:3 8:7 9:5 10:4 11:4 12:2 13:0 14:0 15:0 16:0 17:0 18:0 19:0 20:0 21:0 22:0 23:0 24:7 25:6 26:1 27:2 28:0 29:2 30:2 31:2 32:1 33:1 34:1 35:2 36:0 37:0 38:0 39:27 
-0.4184110875347348 1:0 2:0 3:0 4:0 5:2 6:2 7:6 8:5 9:4 10:2 11:2 12:0 13:0 14:0 15:0 16:0 17:0 18:0 19:0 20:0 21:0 22:5 23:6 24:1 25:1 26:2 27:1 28:1 29:1 30:1 31:1 32:1 33:2 34:0 35:0 36:0 37:0 38:0 39:23 
-0.5 1:1 2:0 3:0 4:2 5:2 6:7 7:6 8:4 9:1 10:2 11:0 12:0 13:0 14:0 15:0 16:0 17:0 18:0 19:0 20:0 21:0 22:0 23:6 24:6 25:0 26:1 27:2 28:1 29:1 30:2 31:1 32:1 33:1 34:3 35:0 36:0 37:0 38:0 39:25 
-0.5 1:0 2:0 3:0 4:0 5:0 6:2 7:3 8:7 9:4 10:4 11:3 12:2 13:0 14:0 15:0 16:0 17:0 18:0 19:0 20:0 21:0 22:0 23:7 24:6 25:1 26:1 27:1 28:1 29:1 30:2 31:1 32:1 33:1 34:2 35:0 36:0 37:0 38:0 39:25 
