svm_type c_svc
kernel_type rbf
gamma 0.0078125
nr_class 2
total_sv 58
rho 0.338717
label 0 1
probA -5.42348
probB 0.705392
nr_sv 29 29
SV
0.1087612804029136 1:0 2:0 3:0 4:0 5:2 6:2 7:3 8:6 9:4 10:4 11:2 12:0 13:0 14:0 15:0 16:0 17:0 18:0 19:0 20:0 21:0 22:0 23:7 24:6 25:1 26:2 27:2 28:1 29:1 30:2 31:1 32:0 33:0 34:0 35:0 36:0 37:0 38:0 39:23 
0.125 1:0 2:0 3:0 4:0 5:2 6:2 7:5 8:5 9:4 10:4 11:1 12:0 13:0 14:0 15:0 16:0 17:0 18:0 19:0 20:6 21:7 22:1 23:2 24:2 25:1 26:1 27:1 28:0 29:1 30:1 31:0 32:0 33:0 34:0 35:0 36:0 37:0 38:0 39:23 
0.125 1:0 2:0 3:0 4:0 5:0 6:0 7:2 8:2 9:6 10:6 11:3 12:4 13:2 14:0 15:0 16:0 17:0 18:0 19:0 20:0 21:0 22:7 23:7 24:1 25:2 26:1 27:1 28:1 29:2 30:1 31:1 32:1 33:0 34:0 35:0 36:0 37:0 38:0 39:25 
0.125 1:0 2:0 3:0 4:0 5:0 6:2 7:3 8:7 9:5 10:4 11:4 12:2 13:0 14:0 15:0 16:0 17:0 18:0 19:0 20:0 21:0 22:0 23:0 24:7 25:7 26:1 27:2 28:2 29:1 30:1 31:1 32:1 33:1 34:1 35:2 36:0 37:0 38:0 39:27 
0.125 1:0 2:0 3:0 4:0 5:0 6:1 7:2 8:6 9:2 10:4 11:4 12:2 13:0 14:0 15:0 16:0 17:0 18:0 19:0 20:0 21:0 22:0 23:6 24:5 25:1 26:2 27:1 28:0 29:1 30:2 31:1 32:1 33:1 34:0 35:0 36:0 37:0 38:0 39:21 
0.125 1:0 2:0 3:0 4:2 5:3 6:6 7:7 8:4 9:4 10:2 11:0 12:0 13:0 14:0 15:0 16:0 17:0 18:0 19:0 20:6 21:6 22:1 23:2 24:2 25:2 26:1 27:2 28:1 29:1 30:1 31:3 32:0 33:0 34:0 35:0 36:0 37:0 38:0 39:28 
0.125 1:0 2:0 3:0 4:0 5:0 6:2 7:3 8:3 9:7 10:6 11:4 12:4 13:1 14:0 15:0 16:0 17:0 18:0 19:0 20:1 21:6 22:7 23:1 24:3 25:3 26:1 27:1 28:2 29:1 30:1 31:1 32:2 33:0 34:0 35:0 36:0 37:0 38:0 39:30 
0.125 1:0 2:0 3:0 4:0 5:0 6:2 7:3 8:7 9:6 10:4 11:3 12:2 13:0 14:0 15:0 16:0 17:0 18:0 19:0 20:6 21:7 22:1 23:2 24:2 25:1 26:1 27:2 28:1 29:1 30:1 31:2 32:0 33:0 34:0 35:0 36:0 37:0 38:0 39:27 
0.125 1:3 2:1 3:0 4:0 5:0 6:2 7:3 8:7 9:7 10:4 11:3 12:2 13:0 14:0 15:0 16:0 17:0 18:0 19:0 20:1 21:0 22:0 23:1 24:7 25:7 26:1 27:1 28:2 29:2 30:1 31:3 32:1 33:1 34:2 35:2 36:0 37:0 38:0 39:32 
0.125 1:0 2:0 3:0 4:2 5:3 6:5 7:5 8:3 9:3 10:2 11:0 12:0 13:0 14:0 15:0 16:0 17:0 18:0 19:0 20:0 21:6 22:6 23:1 24:2 25:1 26:1 27:1 28:1 29:1 30:2 31:1 32:0 33:0 34:0 35:0 36:0 37:0 38:0 39:23 
0.125 1:0 2:0 3:0 4:0 5:0 6:2 7:3 8:7 9:6 10:2 11:3 12:2 13:0 14:0 15:0 16:0 17:0 18:0 19:0 20:0 21:6 22:7 23:1 24:0 25:1 26:1 27:1 28:2 29:2 30:1 31:1 32:2 33:0 34:0 35:0 36:0 37:0 38:0 39:25 
0.125 1:0 2:0 3:0 4:0 5:0 6:0 7:2 8:3 9:4 10:4 11:4 12:3 13:2 14:0 15:0 16:0 17:0 18:0 19:0 20:0 21:7 22:5 23:1 24:2 25:1 26:1 27:1 28:1 29:1 30:0 31:0 32:2 33:0 34:0 35:0 36:0 37:0 38:0 39:22 
0.125 1:0 2:0 3:0 4:0 5:0 6:2 7:2 8:6 9:6 10:4 11:4 12:2 13:0 14:0 15:0 16:0 17:0 18:0 19:0 20:7 21:7 22:1 23:2 24:2 25:1 26:1 27:2 28:1 29:1 30:1 31:0 32:0 33:0 34:0 35:0 36:0 37:0 38:0 39:26 
0.125 1:0 2:0 3:0 4:0 5:0 6:2 7:2 8:6 9:7 10:3 11:4 12:2 13:0 14:0 15:0 16:0 17:0 18:0 19:0 20:0 21:0 22:7 23:7 24:1 25:1 26:2 27:1 28:1 29:2 30:0 31:1 32:2 33:1 34:0 35:0 36:0 37:0 38:0 39:26 
0.125 1:0 2:0 3:0 4:0 5:0 6:0 7:2 8:3 9:7 10:5 11:4 12:4 13:2 14:0 15:0 16:0 17:0 18:0 19:0 20:0 21:0 22:7 23:7 24:1 25:2 26:1 27:1 28:1 29:2 30:1 31:1 32:1 33:2 34:0 35:0 36:0 37:0 38:0 39:27 
0.125 1:0 2:0 3:0 4:0 5:2 6:3 7:7 8:4 9:4 10:3 11:2 12:0 13:0 14:0 15:0 16:0 17:0 18:0 19:0 20:0 21:0 22:0 23:0 24:7 25:6 26:1 27:2 28:2 29:1 30:0 31:1 32:1 33:1 34:1 35:2 36:0 37:0 38:0 39:25 
0.125 1:0 2:0 3:0 4:0 5:2 6:2 7:6 8:7 9:4 10:4 11:2 12:0 13:0 14:0 15:0 16:0 17:0 18:0 19:0 20:0 21:7 22:7 23:1 24:2 25:2 26:1 27:1 28:2 29:2 30:1 31:1 32:0 33:0 34:0 35:0 36:0 37:0 38:0 39:27 
0.125 1:0 2:0 3:0 4:0 5:2 6:2 7:7 8:6 9:4 10:4 11:2 12:0 13:0 14:0 15:0 16:0 17:0 18:0 19:0 20:0 21:0 22:7 23:6 24:1 25:2 26:2 27:1 28:1 29:2 30:1 31:1 32:1 33:2 34:0 35:0 36:0 37:0 38:0 39:27 
0.02074611892637315 1:0 2:0 3:0 4:0 5:2 6:1 7:5 8:6 9:4 10:3 11:2 12:0 13:0 14:0 15:0 16:0 17:0 18:0 19:0 20:0 21:0 22:0 23:7 24:5 25:1 26:2 27:2 28:1 29:1 30:2 31:0 32:1 33:1 34:0 35:0 36:0 37:0 38:0 39:23 
0.125 1:0 2:0 3:0 4:2 5:3 6:6 7:6 8:4 9:4 10:2 11:0 12:0 13:0 14:0 15:0 16:0 17:0 18:0 19:0 20:0 21:0 22:7 23:7 24:1 25:2 26:2 27:1 28:1 29:2 30:1 31:0 32:1 33:2 34:0 35:0 36:0 37:0 38:0 39:27 
0.125 1:0 2:0 3:0 4:0 5:0 6:2 7:2 8:5 9:5 10:4 11:4 12:2 13:0 14:0 15:0 16:0 17:0 18:0 19:0 20:0 21:0 22:0 23:0 24:7 25:7 26:1 27:2 28:1 29:1 30:1 31:2 32:1 33:0 34:1 35:0 36:0 37:0 38:0 39:24 
0.07941120630618395 1:0 2:0 3:0 4:0 5:2 6:2 7:7 8:6 9:4 10:3 11:2 12:0 13:0 14:0 15:0 16:0 17:0 18:0 19:0 20:0 21:0 22:7 23:6 24:1 25:1 26:1 27:1 28:1 29:2 30:2 31:1 32:1 33:1 34:1 35:0 36:0 37:0 38:0 39:26 
0.125 1:0 2:0 3:0 4:0 5:2 6:2 7:6 8:6 9:4 10:3 11:0 12:0 13:0 14:0 15:0 16:0 17:0 18:0 19:0 20:0 21:0 22:0 23:0 24:6 25:5 26:1 27:2 28:2 29:1 30:1 31:2 32:1 33:1 34:1 35:0 36:0 37:0 38:0 39:23 
0.125 1:0 2:0 3:0 4:2 5:3 6:6 7:6 8:4 9:4 10:2 11:0 12:0 13:0 14:0 15:0 16:0 17:0 18:0 19:0 20:7 21:7 22:1 23:2 24:2 25:1 26:1 27:2 28:1 29:1 30:1 31:1 32:0 33:0 34:0 35:0 36:0 37:0 38:0 39:27 
0.125 1:0 2:0 3:0 4:0 5:0 6:1 7:3 8:7 9:7 10:4 11:4 12:2 13:0 14:0 15:0 16:0 17:0 18:0 19:0 20:0 21:0 22:0 23:0 24:7 25:6 26:1 27:2 28:2 29:1 30:1 31:2 32:0 33:1 34:1 35:2 36:1 37:1 38:0 39:28 
0.1211651720060558 1:0 2:0 3:0 4:0 5:0 6:2 7:3 8:7 9:5 10:4 11:4 12:2 13:0 14:0 15:0 16:0 17:0 18:0 19:0 20:0 21:0 22:0 23:0 24:7 25:6 26:1 27:2 28:0 29:2 30:2 31:2 32:1 33:1 34:1 35:2 36:0 37:0 38:0 39:27 
0.125 1:0 2:0 3:0 4:0 5:0 6:2 7:2 8:5 9:5 10:4 11:3 12:2 13:0 14:0 15:0 16:0 17:0 18:0 19:0 20:0 21:0 22:0 23:7 24:7 25:1 26:1 27:1 28:1 29:1 30:2 31:1 32:0 33:1 34:0 35:0 36:0 37:0 38:0 39:23 
0.125 1:0 2:0 3:0 4:2 5:2 6:4 7:5 8:4 9:4 10:2 11:0 12:0 13:0 14:0 15:0 16:0 17:0 18:0 19:0 20:0 21:7 22:7 23:1 24:2 25:1 26:1 27:1 28:2 29:1 30:0 31:0 32:0 33:0 34:0 35:0 36:0 37:0 38:0 39:23 
0.125 1:1 2:0 3:0 4:2 5:2 6:7 7:6 8:4 9:1 10:2 11:0 12:0 13:0 14:0 15:0 16:0 17:0 18:0 19:0 20:0 21:0 22:0 23:6 24:6 25:0 26:1 27:2 28:1 29:1 30:2 31:1 32:1 33:1 34:3 35:0 36:0 37:0 38:0 39:25 
-0.125 1:0 2:0 3:0 4:0 5:0 6:9 7:12 8:3 9:3 10:2 11:3 12:3 13:7 14:12 15:0 16:0 17:0 18:0 19:0 20:4 21:5 22:3 23:6 24:3 25:5 26:5 27:5 28:6 29:4 30:4 31:4 32:0 33:0 34:0 35:0 36:0 37:0 38:0 39:54 
-0.125 1:0 2:0 3:0 4:0 5:0 6:0 7:8 8:11 9:3 10:3 11:3 12:2 13:3 14:8 15:9 16:0 17:0 18:0 19:0 20:0 21:0 22:3 23:4 24:5 25:5 26:4 27:5 28:5 29:3 30:5 31:4 32:3 33:4 34:0 35:0 36:0 37:0 38:0 39:50 
-0.125 1:0 2:0 3:1 4:7 5:11 6:3 7:4 8:3 9:3 10:3 11:8 12:11 13:0 14:0 15:0 16:0 17:0 18:0 19:0 20:0 21:0 22:0 23:0 24:4 25:5 26:4 27:5 28:6 29:6 30:6 31:3 32:4 33:5 34:4 35:2 36:0 37:0 38:0 39:54 
-0.125 1:0 2:0 3:0 4:0 5:9 6:11 7:4 8:2 9:2 10:3 11:3 12:9 13:12 14:0 15:0 16:0 17:0 18:0 19:0 20:0 21:0 22:0 23:3 24:4 25:3 26:6 27:6 28:6 29:5 30:4 31:5 32:5 33:5 34:3 35:0 36:0 37:0 38:0 39:55 
-0.125 1:0 2:0 3:0 4:0 5:9 6:11 7:3 8:2 9:3 10:3 11:3 12:7 13:7 14:0 15:0 16:0 17:0 18:0 19:0 20:0 21:2 22:2 23:4 24:4 25:6 26:3 27:6 28:5 29:5 30:3 31:4 32:4 33:0 34:0 35:0 36:0 37:0 38:0 39:48 
-0.07900900854344857 1:0 2:0 3:0 4:0 5:9 6:11 7:3 8:2 9:3 10:3 11:3 12:9 13:11 14:0 15:0 16:0 17:0 18:0 19:0 20:0 21:0 22:4 23:4 24:3 25:6 26:6 27:5 28:6 29:4 30:6 31:4 32:4 33:2 34:0 35:0 36:0 37:0 38:0 39:54 
-0.125 1:0 2:0 3:0 4:0 5:4 6:11 7:4 8:3 9:4 10:3 11:3 12:9 13:12 14:0 15:0 16:0 17:0 18:0 19:0 20:0 21:0 22:0 23:0 24:3 25:4 26:5 27:5 28:5 29:5 30:5 31:3 32:6 33:4 34:5 35:3 36:0 37:0 38:0 39:53 
-0.125 1:0 2:0 3:0 4:8 5:10 6:3 7:3 8:3 9:3 10:3 11:7 12:11 13:0 14:0 15:0 16:0 17:0 18:0 19:0 20:3 21:5 22:4 23:4 24:6 25:3 26:5 27:3 28:5 29:5 30:4 31:4 32:0 33:0 34:0 35:0 36:0 37:0 38:0 39:51 
-0.125 1:0 2:0 3:0 4:0 5:7 6:11 7:3 8:3 9:3 10:3 11:3 12:7 13:12 14:0 15:0 16:0 17:0 18:0 19:0 20:0 21:0 22:4 23:4 24:4 25:5 26:5 27:5 28:5 29:4 30:6 31:5 32:4 33:1 34:0 35:0 36:0 37:0 38:0 39:52 
-0.125 1:1 2:1 3:0 4:0 5:1 6:9 7:11 8:3 9:2 10:2 11:3 12:3 13:10 14:11 15:0 16:0 17:0 18:0 19:0 20:0 21:0 22:0 23:0 24:3 25:5 26:4 27:6 28:5 29:4 30:6 31:5 32:6 33:4 34:5 35:4 36:0 37:0 38:0 39:57 
-0.125 1:0 2:0 3:0 4:0 5:0 6:7 7:12 8:3 9:1 10:3 11:3 12:3 13:9 14:11 15:0 16:0 17:0 18:0 19:0 20:0 21:3 22:4 23:4 24:5 25:5 26:3 27:6 28:4 29:5 30:4 31:5 32:4 33:0 34:0 35:0 36:0 37:0 38:0 39:52 
-0.117045307790311 1:0 2:0 3:0 4:0 5:0 6:5 7:12 8:4 9:2 10:2 11:3 12:3 13:10 14:12 15:0 16:0 17:0 18:0 19:0 20:0 21:0 22:0 23:0 24:4 25:4 26:4 27:6 28:4 29:5 30:5 31:3 32:6 33:4 34:5 35:3 36:0 37:0 38:0 39:53 
-0.125 1:0 2:0 3:0 4:0 5:9 6:10 7:3 8:2 9:3 10:2 11:3 12:11 13:12 14:0 15:0 16:0 17:0 18:0 19:0 20:3 21:5 22:3 23:5 24:5 25:5 26:6 27:5 28:5 29:4 30:5 31:4 32:0 33:0 34:0 35:0 36:0 37:0 38:0 39:55 
-0.09567950454732066 1:0 2:0 3:0 4:0 5:0 6:10 7:10 8:3 9:3 10:3 11:3 12:3 13:8 14:12 15:0 16:0 17:0 18:0 19:0 20:0 21:0 22:0 23:3 24:5 25:6 26:4 27:5 28:6 29:6 30:3 31:4 32:5 33:5 34:3 35:0 36:0 37:0 38:0 39:55 
-0.125 1:0 2:0 3:0 4:0 5:0 6:0 7:6 8:11 9:3 10:3 11:3 12:3 13:2 14:10 15:10 16:0 17:0 18:0 19:0 20:0 21:0 22:0 23:0 24:4 25:5 26:4 27:4 28:5 29:4 30:5 31:5 32:5 33:4 34:3 35:3 36:0 37:0 38:0 39:51 
-0.125 1:0 2:0 3:0 4:0 5:0 6:4 7:11 8:3 9:1 10:3 11:2 12:3 13:9 14:10 15:0 16:0 17:0 18:0 19:0 20:0 21:0 22:2 23:4 24:4 25:5 26:4 27:4 28:5 29:3 30:5 31:2 32:4 33:4 34:0 35:0 36:0 37:0 38:0 39:46 
-0.125 1:0 2:0 3:0 4:0 5:0 6:5 7:9 8:3 9:3 10:3 11:2 12:3 13:9 14:12 15:0 16:0 17:0 18:0 19:0 20:0 21:0 22:0 23:0 24:4 25:5 26:2 27:6 28:5 29:4 30:3 31:4 32:5 33:5 34:4 35:2 36:0 37:0 38:0 39:49 
-0.1053092874614225 1:0 2:0 3:0 4:0 5:0 6:8 7:12 8:3 9:3 10:3 11:2 12:1 13:8 14:9 15:1 16:0 17:0 18:0 19:0 20:0 21:0 22:0 23:1 24:4 25:4 26:7 27:6 28:6 29:3 30:4 31:4 32:4 33:3 34:4 35:0 36:0 37:0 38:0 39:50 
-0.125 1:0 2:0 3:0 4:7 5:12 6:1 7:3 8:3 9:3 10:1 11:12 12:9 13:1 14:0 15:0 16:0 17:0 18:0 19:0 20:0 21:3 22:4 23:4 24:6 25:5 26:5 27:5 28:5 29:5 30:4 31:2 32:4 33:0 34:0 35:0 36:0 37:0 38:0 39:52 
-0.125 1:0 2:0 3:0 4:0 5:0 6:8 7:12 8:3 9:3 10:3 11:3 12:3 13:10 14:11 15:1 16:0 17:0 18:0 19:0 20:0 21:0 22:4 23:4 24:5 25:6 26:5 27:6 28:5 29:4 30:5 31:5 32:4 33:4 34:0 35:0 36:0 37:0 38:0 39:57 
-0.125 1:0 2:0 3:0 4:0 5:0 6:0 7:7 8:9 9:3 10:3 11:3 12:3 13:3 14:10 15:10 16:0 17:0 18:0 19:0 20:0 21:0 22:1 23:2 24:4 25:4 26:5 27:5 28:6 29:4 30:4 31:6 32:5 33:3 34:2 35:0 36:0 37:0 38:0 39:51 
-0.125 1:1 2:0 3:0 4:7 5:12 6:3 7:3 8:3 9:3 10:2 11:8 12:11 13:0 14:0 15:0 16:0 17:0 18:0 19:0 20:0 21:0 22:0 23:3 24:5 25:5 26:5 27:5 28:5 29:4 30:3 31:5 32:5 33:3 34:4 35:1 36:0 37:0 38:0 39:53 
-0.05804066929902391 1:0 2:0 3:0 4:0 5:9 6:11 7:4 8:3 9:3 10:3 11:2 12:9 13:11 14:0 15:0 16:0 17:0 18:0 19:0 20:0 21:0 22:0 23:4 24:5 25:5 26:5 27:6 28:6 29:4 30:3 31:4 32:5 33:5 34:3 35:0 36:0 37:0 38:0 39:55 
-0.125 1:0 2:0 3:0 4:0 5:0 6:0 7:7 8:8 9:4 10:3 11:3 12:3 13:3 14:10 15:12 16:0 17:0 18:0 19:0 20:3 21:3 22:3 23:5 24:5 25:5 26:6 27:5 28:7 29:3 30:4 31:4 32:0 33:0 34:0 35:0 36:0 37:0 38:0 39:53 
-0.125 1:0 2:0 3:0 4:0 5:8 6:10 7:2 8:3 9:3 10:3 11:2 12:11 13:12 14:0 15:0 16:0 17:0 18:0 19:0 20:0 21:0 22:0 23:4 24:4 25:4 26:5 27:6 28:5 29:6 30:4 31:4 32:4 33:5 34:3 35:0 36:0 37:0 38:0 39:54 
-0.125 1:0 2:0 3:0 4:9 5:12 6:3 7:3 8:3 9:2 10:3 11:11 12:10 13:0 14:0 15:0 16:0 17:0 18:0 19:0 20:4 21:4 22:5 23:6 24:4 25:6 26:5 27:4 28:6 29:5 30:4 31:3 32:0 33:0 34:0 35:0 36:0 37:0 38:0 39:56 
-0.125 1:0 2:0 3:0 4:8 5:12 6:3 7:3 8:3 9:3 10:2 11:8 12:11 13:0 14:0 15:0 16:0 17:0 18:0 19:0 20:4 21:4 22:4 23:6 24:4 25:5 26:5 27:5 28:6 29:4 30:4 31:2 32:0 33:0 34:0 35:0 36:0 37:0 38:0 39:53 
-0.125 1:0 2:0 3:0 4:0 5:0 6:0 7:4 8:10 9:4 10:3 11:3 12:3 13:3 14:7 15:11 16:0 17:0 18:0 19:0 20:0 21:0 22:0 23:0 24:3 25:3 26:5 27:4 28:5 29:3 30:4 31:4 32:6 33:5 34:4 35:2 36:0 37:0 38:0 39:48 
-0.125 1:0 2:0 3:0 4:0 5:0 6:0 7:8 8:10 9:3 10:3 11:3 12:3 13:3 14:10 15:11 16:0 17:0 18:0 19:1 20:3 21:4 22:5 23:4 24:6 25:3 26:6 27:4 28:6 29:5 30:4 31:3 32:0 33:0 34:0 35:0 36:0 37:0 38:0 39:54 
