svm_type c_svc
kernel_type rbf
gamma 0.00012207
nr_class 2
total_sv 33
rho -1.12124
label 1 0
probA -4.09697
probB -0.433715
nr_sv 16 17
SV
8 1:0 2:0 3:0 4:10 5:12 6:1 7:1 8:1 9:2 10:8 11:1 12:0 13:0 14:0 15:0 16:0 17:0 18:0 19:1 20:2 21:2 22:2 23:4 24:6 25:3 26:2 27:3 28:2 29:3 30:3 31:3 32:0 33:0 34:0 35:0 36:0 37:0 38:0 39:36 
0.6958800250502122 1:3 2:4 3:6 4:3 5:1 6:9 7:9 8:1 9:1 10:2 11:2 12:5 13:0 14:0 15:0 16:0 17:0 18:0 19:0 20:0 21:0 22:0 23:2 24:3 25:2 26:1 27:5 28:8 29:2 30:4 31:6 32:6 33:3 34:2 35:2 36:0 37:0 38:0 39:46 
8 1:0 2:0 3:0 4:0 5:1 6:10 7:12 8:1 9:1 10:1 11:3 12:6 13:1 14:0 15:0 16:0 17:0 18:0 19:0 20:0 21:0 22:2 23:2 24:3 25:4 26:6 27:3 28:3 29:2 30:3 31:3 32:3 33:2 34:0 35:0 36:0 37:0 38:0 39:36 
1.375457772104077 1:0 2:0 3:0 4:0 5:8 6:12 7:2 8:1 9:1 10:2 11:6 12:0 13:0 14:0 15:0 16:0 17:0 18:0 19:0 20:0 21:0 22:0 23:0 24:2 25:2 26:1 27:3 28:6 29:3 30:3 31:2 32:3 33:3 34:3 35:1 36:0 37:0 38:0 39:32 
8 1:4 2:7 3:5 4:2 5:0 6:9 7:10 8:1 9:1 10:2 11:2 12:7 13:0 14:0 15:0 16:0 17:0 18:0 19:0 20:4 21:4 22:1 23:4 24:9 25:5 26:3 27:4 28:5 29:5 30:4 31:2 32:0 33:0 34:0 35:0 36:0 37:0 38:0 39:50 
8 1:0 2:0 3:0 4:0 5:0 6:11 7:11 8:2 9:1 10:2 11:2 12:5 13:0 14:0 15:0 16:0 17:0 18:0 19:0 20:0 21:0 22:0 23:0 24:2 25:1 26:3 27:3 28:7 29:3 30:3 31:2 32:2 33:3 34:3 35:2 36:0 37:0 38:0 39:34 
8 1:4 2:6 3:6 4:2 5:0 6:9 7:11 8:1 9:1 10:2 11:2 12:6 13:1 14:0 15:0 16:0 17:0 18:0 19:0 20:0 21:0 22:0 23:2 24:3 25:4 26:5 27:7 28:3 29:5 30:4 31:4 32:4 33:6 34:3 35:1 36:0 37:0 38:0 39:51 
8 1:2 2:0 3:0 4:0 5:0 6:0 7:8 8:10 9:1 10:1 11:2 12:2 13:7 14:0 15:0 16:0 17:0 18:0 19:0 20:0 21:1 22:1 23:4 24:7 25:4 26:3 27:2 28:3 29:3 30:3 31:2 32:0 33:0 34:0 35:0 36:0 37:0 38:0 39:33 
2.869578359691831 1:0 2:0 3:0 4:0 5:0 6:7 7:12 8:2 9:1 10:2 11:2 12:6 13:0 14:0 15:0 16:0 17:0 18:0 19:0 20:0 21:0 22:0 23:0 24:2 25:2 26:1 27:3 28:7 29:2 30:2 31:3 32:2 33:3 34:3 35:2 36:0 37:0 38:0 39:32 
8 1:4 2:6 3:5 4:1 5:0 6:9 7:11 8:1 9:1 10:2 11:2 12:7 13:0 14:0 15:0 16:0 17:0 18:0 19:0 20:0 21:4 22:3 23:3 24:4 25:8 26:4 27:4 28:3 29:4 30:5 31:4 32:3 33:0 34:0 35:0 36:0 37:0 38:0 39:49 
8 1:0 2:0 3:0 4:8 5:12 6:1 7:1 8:2 9:2 10:7 11:0 12:0 13:0 14:0 15:0 16:0 17:0 18:0 19:0 20:1 21:1 22:2 23:4 24:6 25:2 26:3 27:3 28:3 29:3 30:3 31:2 32:0 33:0 34:0 35:0 36:0 37:0 38:0 39:33 
8 1:4 2:5 3:1 4:8 5:10 6:2 7:1 8:2 9:2 10:7 11:0 12:0 13:0 14:0 15:0 16:0 17:0 18:0 19:0 20:0 21:2 22:1 23:3 24:3 25:3 26:4 27:6 28:3 29:4 30:3 31:4 32:3 33:2 34:1 35:0 36:0 37:0 38:0 39:42 
8 1:0 2:0 3:0 4:0 5:6 6:9 7:2 8:1 9:2 10:2 11:7 12:0 13:0 14:0 15:0 16:0 17:0 18:0 19:0 20:0 21:0 22:0 23:0 24:1 25:1 26:1 27:4 28:5 29:2 30:4 31:1 32:3 33:3 34:3 35:1 36:0 37:0 38:0 39:29 
8 1:5 2:2 3:6 4:11 5:12 6:1 7:1 8:2 9:2 10:7 11:0 12:0 13:0 14:0 15:0 16:0 17:0 18:0 19:0 20:0 21:0 22:0 23:0 24:2 25:2 26:2 27:4 28:8 29:4 30:4 31:5 32:4 33:6 34:4 35:4 36:0 37:0 38:0 39:49 
8 1:4 2:4 3:7 4:5 5:2 6:10 7:11 8:1 9:1 10:2 11:2 12:7 13:0 14:0 15:0 16:0 17:0 18:0 19:0 20:0 21:2 22:2 23:2 24:3 25:4 26:4 27:8 28:4 29:6 30:6 31:5 32:5 33:3 34:2 35:0 36:0 37:0 38:0 39:56 
8 1:7 2:5 3:1 4:0 5:9 6:12 7:3 8:1 9:2 10:2 11:7 12:0 13:0 14:0 15:0 16:0 17:0 18:0 19:0 20:0 21:2 22:2 23:3 24:5 25:8 26:5 27:4 28:5 29:4 30:3 31:3 32:3 33:1 34:1 35:0 36:0 37:0 38:0 39:49 
-8 1:0 2:0 3:0 4:0 5:4 6:8 7:5 8:6 9:5 10:7 11:4 12:0 13:0 14:0 15:0 16:0 17:0 18:0 19:0 20:3 21:4 22:1 23:3 24:2 25:3 26:5 27:4 28:4 29:4 30:4 31:2 32:0 33:0 34:0 35:0 36:0 37:0 38:0 39:39 
-6.66355072017894 1:3 2:11 3:0 4:4 5:10 6:6 7:6 8:6 9:9 10:4 11:0 12:0 13:0 14:0 15:0 16:0 17:0 18:0 19:0 20:0 21:0 22:5 23:7 24:5 25:5 26:3 27:5 28:6 29:4 30:5 31:5 32:6 33:3 34:0 35:0 36:0 37:0 38:0 39:59 
-3.076999994300766 1:9 2:0 3:0 4:0 5:3 6:9 7:5 8:5 9:6 10:7 11:4 12:0 13:0 14:0 15:0 16:0 17:0 18:0 19:0 20:4 21:6 22:2 23:4 24:2 25:3 26:4 27:5 28:5 29:4 30:6 31:3 32:0 33:0 34:0 35:0 36:0 37:0 38:0 39:48 
-8 1:0 2:0 3:0 4:0 5:0 6:5 7:7 8:5 9:6 10:5 11:9 12:3 13:0 14:0 15:0 16:0 17:0 18:0 19:0 20:0 21:0 22:0 23:0 24:3 25:4 26:2 27:4 28:2 29:4 30:3 31:4 32:4 33:3 34:4 35:3 36:0 37:0 38:0 39:40 
-8 1:0 2:0 3:0 4:0 5:0 6:4 7:9 8:5 9:6 10:5 11:6 12:4 13:0 14:0 15:0 16:0 17:0 18:0 19:0 20:2 21:5 22:2 23:3 24:2 25:4 26:4 27:4 28:4 29:3 30:3 31:3 32:0 33:0 34:0 35:0 36:0 37:0 38:0 39:39 
-3.390964683694393 1:0 2:0 3:0 4:4 5:9 6:6 7:6 8:6 9:9 10:4 11:0 12:0 13:0 14:0 15:0 16:0 17:0 18:0 19:1 20:3 21:5 22:2 23:3 24:2 25:3 26:5 27:4 28:4 29:4 30:5 31:3 32:0 33:0 34:0 35:0 36:0 37:0 38:0 39:44 
-8 1:0 2:0 3:0 4:0 5:0 6:4 7:8 8:6 9:4 10:5 11:8 12:4 13:1 14:0 15:0 16:0 17:0 18:0 19:0 20:0 21:2 22:3 23:2 24:4 25:2 26:3 27:5 28:4 29:4 30:4 31:5 32:2 33:0 34:0 35:0 36:0 37:0 38:0 39:40 
-3.135739305699996 1:4 2:2 3:11 4:0 5:4 6:8 7:5 8:6 9:4 10:8 11:3 12:0 13:0 14:0 15:0 16:0 17:0 18:0 19:0 20:2 21:5 22:6 23:6 24:3 25:5 26:5 27:5 28:4 29:5 30:5 31:4 32:0 33:0 34:0 35:0 36:0 37:0 38:0 39:55 
-8 1:0 2:0 3:0 4:5 5:10 6:6 7:6 8:5 9:9 10:4 11:0 12:0 13:0 14:0 15:0 16:0 17:0 18:0 19:0 20:3 21:5 22:3 23:4 24:2 25:3 26:5 27:4 28:4 29:4 30:5 31:3 32:0 33:0 34:0 35:0 36:0 37:0 38:0 39:45 
-8 1:0 2:0 3:0 4:3 5:10 6:6 7:6 8:5 9:8 10:3 11:0 12:0 13:0 14:0 15:0 16:0 17:0 18:0 19:0 20:0 21:0 22:0 23:3 24:5 25:3 26:3 27:1 28:3 29:5 30:2 31:4 32:4 33:5 34:3 35:0 36:0 37:0 38:0 39:41 
-3.240589620864225 1:0 2:0 3:0 4:0 5:4 6:10 7:5 8:5 9:5 10:9 11:4 12:0 13:0 14:0 15:0 16:0 17:0 18:0 19:0 20:0 21:0 22:3 23:5 24:2 25:4 26:2 27:3 28:4 29:4 30:4 31:4 32:5 33:2 34:0 35:0 36:0 37:0 38:0 39:42 
-7.378989786151837 1:0 2:0 3:0 4:0 5:0 6:0 7:5 8:9 9:5 10:5 11:5 12:7 13:4 14:0 15:0 16:0 17:0 18:0 19:0 20:0 21:0 22:0 23:2 24:4 25:2 26:2 27:2 28:6 29:4 30:4 31:4 32:3 33:5 34:2 35:0 36:0 37:0 38:0 39:40 
-8 1:3 2:3 3:11 4:0 5:0 6:5 7:9 8:4 9:5 10:6 11:8 12:4 13:0 14:0 15:0 16:0 17:0 18:0 19:0 20:0 21:0 22:0 23:3 24:8 25:6 26:5 27:4 28:5 29:5 30:5 31:4 32:5 33:5 34:3 35:0 36:0 37:0 38:0 39:58 
-8 1:1 2:0 3:0 4:0 5:3 6:8 7:5 8:5 9:5 10:9 11:4 12:0 13:0 14:0 15:0 16:0 17:0 18:0 19:0 20:0 21:3 22:5 23:2 24:4 25:2 26:2 27:5 28:4 29:3 30:3 31:4 32:3 33:0 34:0 35:0 36:0 37:0 38:0 39:40 
-8 1:0 2:0 3:0 4:4 5:9 6:6 7:6 8:6 9:8 10:4 11:0 12:0 13:0 14:0 15:0 16:0 17:0 18:0 19:0 20:0 21:0 22:0 23:0 24:3 25:5 26:3 27:3 28:3 29:3 30:5 31:3 32:4 33:4 34:5 35:2 36:0 37:0 38:0 39:43 
-2.054082045955964 1:0 2:0 3:0 4:0 5:2 6:10 7:6 8:6 9:6 10:8 11:3 12:1 13:0 14:0 15:0 16:0 17:0 18:0 19:0 20:0 21:0 22:0 23:3 24:5 25:2 26:3 27:2 28:4 29:6 30:2 31:4 32:3 33:5 34:3 35:0 36:0 37:0 38:0 39:42 
-8 1:0 2:0 3:0 4:0 5:0 6:5 7:7 8:5 9:5 10:6 11:6 12:4 13:0 14:0 15:0 16:0 17:0 18:0 19:0 20:0 21:1 22:4 23:2 24:4 25:1 26:3 27:5 28:4 29:2 30:4 31:5 32:3 33:0 34:0 35:0 36:0 37:0 38:0 39:38 
