svm_type c_svc
kernel_type rbf
gamma 0.0078125
nr_class 2
total_sv 49
rho -0.0912393
label 1 0
probA -4.79049
probB -0.080205
nr_sv 24 25
SV
0.260155494442776 1:0 2:0 3:0 4:5 5:11 6:3 7:4 8:4 9:4 10:7 11:3 12:0 13:0 14:0 15:0 16:0 17:0 18:0 19:0 20:0 21:0 22:0 23:0 24:0 25:0 26:0 27:5 28:7 29:2 30:3 31:3 32:4 33:3 34:6 35:5 36:1 37:2 38:0 39:41 
0.6820466627006998 1:0 2:0 3:0 4:8 5:11 6:2 7:4 8:4 9:5 10:6 11:3 12:0 13:0 14:0 15:0 16:0 17:0 18:0 19:0 20:0 21:0 22:0 23:0 24:3 25:7 26:3 27:4 28:5 29:4 30:3 31:5 32:5 33:1 34:1 35:2 36:0 37:0 38:0 39:43 
0.336819133888656 1:0 2:0 3:0 4:0 5:7 6:11 7:2 8:2 9:4 10:4 11:5 12:3 13:0 14:0 15:0 16:0 17:0 18:0 19:0 20:0 21:0 22:0 23:0 24:0 25:3 26:6 27:3 28:4 29:2 30:4 31:1 32:6 33:5 34:1 35:2 36:1 37:0 38:0 39:38 
0.7412284927979652 1:0 2:0 3:0 4:0 5:10 6:11 7:2 8:4 9:4 10:4 11:5 12:1 13:0 14:0 15:0 16:0 17:0 18:0 19:0 20:0 21:0 22:0 23:0 24:0 25:0 26:5 27:7 28:3 29:4 30:3 31:1 32:2 33:7 34:4 35:2 36:2 37:1 38:0 39:41 
0.2915469578570176 1:0 2:0 3:0 4:0 5:0 6:8 7:10 8:2 9:4 10:5 11:4 12:7 13:2 14:0 15:0 16:0 17:0 18:0 19:0 20:0 21:0 22:0 23:0 24:0 25:3 26:7 27:3 28:3 29:3 30:4 31:2 32:7 33:5 34:1 35:2 36:2 37:0 38:0 39:42 
0.523856439633556 1:0 2:0 3:0 4:0 5:0 6:1 7:9 8:9 9:2 10:3 11:4 12:3 13:6 14:2 15:0 16:0 17:0 18:0 19:0 20:0 21:0 22:0 23:0 24:0 25:0 26:3 27:7 28:2 29:3 30:4 31:4 32:0 33:6 34:5 35:1 36:2 37:2 38:0 39:39 
0.1674529317919936 1:0 2:0 3:0 4:0 5:8 6:12 7:2 8:4 9:4 10:3 11:6 12:3 13:0 14:0 15:0 16:0 17:0 18:0 19:0 20:0 21:0 22:0 23:0 24:0 25:5 26:7 27:2 28:4 29:4 30:2 31:3 32:6 33:5 34:1 35:1 36:2 37:0 38:0 39:42 
0.2751382959952224 1:0 2:0 3:0 4:0 5:0 6:9 7:12 8:3 9:4 10:3 11:4 12:7 13:3 14:0 15:0 16:0 17:0 18:0 19:0 20:0 21:0 22:0 23:0 24:0 25:0 26:5 27:7 28:2 29:3 30:5 31:4 32:3 33:7 34:4 35:1 36:2 37:2 38:0 39:45 
0.3518914295452619 1:0 2:0 3:0 4:7 5:11 6:2 7:4 8:4 9:4 10:7 11:2 12:0 13:0 14:0 15:0 16:0 17:0 18:0 19:0 20:0 21:0 22:0 23:0 24:0 25:5 26:7 27:2 28:4 29:2 30:3 31:3 32:5 33:5 34:2 35:2 36:1 37:0 38:0 39:41 
0.6108701810900634 1:0 2:0 3:0 4:0 5:0 6:0 7:5 8:10 9:1 10:3 11:4 12:3 13:6 14:3 15:0 16:0 17:0 18:0 19:0 20:0 21:0 22:0 23:0 24:0 25:2 26:5 27:3 28:3 29:3 30:4 31:0 32:6 33:4 34:2 35:2 36:1 37:0 38:0 39:35 
0.453220052273785 1:0 2:0 3:0 4:7 5:11 6:3 7:4 8:3 9:4 10:7 11:3 12:0 13:0 14:0 15:0 16:0 17:0 18:0 19:0 20:0 21:0 22:0 23:0 24:0 25:3 26:7 27:3 28:3 29:3 30:4 31:3 32:7 33:6 34:2 35:1 36:0 37:0 38:0 39:42 
1.104485776417105 1:0 2:0 3:0 4:0 5:0 6:0 7:7 8:11 9:2 10:4 11:3 12:4 13:6 14:2 15:0 16:0 17:0 18:0 19:0 20:0 21:0 22:0 23:0 24:5 25:7 26:1 27:4 28:3 29:2 30:2 31:7 32:3 33:2 34:1 35:2 36:0 37:0 38:0 39:39 
0.7519909641335841 1:0 2:0 3:0 4:0 5:0 6:8 7:11 8:4 9:4 10:4 11:4 12:7 13:1 14:0 15:0 16:0 17:0 18:0 19:0 20:0 21:0 22:0 23:0 24:0 25:0 26:0 27:4 28:7 29:4 30:2 31:3 32:4 33:4 34:7 35:5 36:2 37:1 38:0 39:43 
0.6207645430420243 1:0 2:0 3:0 4:0 5:0 6:5 7:12 8:2 9:4 10:4 11:4 12:7 13:2 14:0 15:0 16:0 17:0 18:0 19:0 20:0 21:0 22:0 23:0 24:0 25:4 26:6 27:3 28:4 29:4 30:2 31:2 32:7 33:4 34:1 35:2 36:1 37:0 38:0 39:40 
0.8748745460027201 1:0 2:0 3:0 4:0 5:1 6:11 7:12 8:2 9:4 10:4 11:4 12:7 13:2 14:0 15:0 16:0 17:0 18:0 19:0 20:0 21:0 22:0 23:5 24:7 25:3 26:4 27:3 28:4 29:3 30:7 31:6 32:1 33:2 34:2 35:0 36:0 37:0 38:0 39:47 
1.000075264668245 1:0 2:0 3:0 4:0 5:0 6:9 7:10 8:4 9:4 10:3 11:3 12:4 13:5 14:0 15:0 16:0 17:0 18:0 19:0 20:0 21:0 22:0 23:0 24:7 25:7 26:3 27:2 28:2 29:6 30:7 31:1 32:2 33:2 34:2 35:1 36:0 37:0 38:0 39:42 
0.9846105594749063 1:0 2:0 3:0 4:0 5:0 6:0 7:8 8:11 9:2 10:3 11:3 12:3 13:6 14:2 15:0 16:0 17:0 18:0 19:0 20:0 21:0 22:0 23:3 24:6 25:2 26:3 27:4 28:4 29:2 30:7 31:3 32:1 33:2 34:1 35:0 36:0 37:0 38:0 39:38 
1.499699368138095 1:0 2:0 3:0 4:1 5:8 6:12 7:2 8:4 9:4 10:4 11:5 12:3 13:0 14:0 15:0 16:0 17:0 18:0 19:0 20:0 21:0 22:0 23:0 24:6 25:6 26:3 27:2 28:3 29:4 30:3 31:6 32:5 33:2 34:2 35:1 36:0 37:0 38:0 39:43 
0.3341070131992596 1:0 2:0 3:0 4:0 5:1 6:6 7:12 8:2 9:2 10:4 11:3 12:6 13:3 14:0 15:0 16:0 17:0 18:0 19:0 20:0 21:0 22:0 23:0 24:3 25:3 26:3 27:3 28:4 29:3 30:3 31:7 32:5 33:1 34:2 35:2 36:0 37:0 38:0 39:39 
0.3590316950558217 1:0 2:0 3:0 4:7 5:10 6:2 7:4 8:4 9:4 10:7 11:3 12:0 13:0 14:0 15:0 16:0 17:0 18:0 19:0 20:0 21:0 22:0 23:0 24:0 25:0 26:0 27:4 28:7 29:3 30:4 31:4 32:4 33:3 34:7 35:4 36:1 37:0 38:0 39:41 
0.4123513090631382 1:0 2:0 3:0 4:0 5:7 6:11 7:2 8:4 9:3 10:3 11:7 12:4 13:0 14:0 15:0 16:0 17:0 18:0 19:0 20:0 21:0 22:0 23:0 24:0 25:0 26:0 27:4 28:5 29:3 30:4 31:3 32:4 33:3 34:7 35:5 36:2 37:1 38:0 39:41 
1.033269911286462 1:0 2:0 3:0 4:9 5:11 6:2 7:4 8:4 9:4 10:6 11:2 12:0 13:0 14:0 15:0 16:0 17:0 18:0 19:0 20:0 21:0 22:0 23:4 24:7 25:3 26:4 27:3 28:3 29:3 30:6 31:5 32:2 33:0 34:2 35:0 36:0 37:0 38:0 39:42 
0.5082025899152943 1:0 2:0 3:0 4:0 5:0 6:0 7:8 8:10 9:2 10:3 11:4 12:4 13:6 14:3 15:0 16:0 17:0 18:0 19:0 20:0 21:0 22:0 23:0 24:0 25:0 26:0 27:5 28:7 29:3 30:3 31:4 32:4 33:0 34:6 35:4 36:2 37:2 38:0 39:40 
0.3839738357821114 1:0 2:0 3:0 4:7 5:11 6:2 7:2 8:2 9:2 10:5 11:2 12:0 13:0 14:0 15:0 16:0 17:0 18:0 19:0 20:0 21:0 22:0 23:0 24:0 25:0 26:0 27:4 28:7 29:2 30:4 31:2 32:3 33:3 34:4 35:1 36:1 37:2 38:0 39:33 
-0.09104142158599687 1:0 2:0 3:0 4:0 5:0 6:0 7:4 8:9 9:6 10:5 11:6 12:7 13:4 14:0 15:0 16:0 17:0 18:0 19:0 20:0 21:0 22:3 23:5 24:3 25:4 26:1 27:3 28:4 29:3 30:3 31:4 32:5 33:3 34:0 35:0 36:0 37:0 38:0 39:41 
-0.007714454708335452 1:0 2:0 3:0 4:0 5:0 6:0 7:4 8:9 9:6 10:5 11:6 12:9 13:4 14:0 15:0 16:0 17:0 18:0 19:0 20:0 21:0 22:0 23:0 24:3 25:5 26:2 27:3 28:2 29:4 30:5 31:4 32:4 33:4 34:4 35:3 36:0 37:0 38:0 39:43 
-0.2527756320091614 1:0 2:0 3:0 4:0 5:4 6:8 7:5 8:6 9:5 10:7 11:4 12:0 13:0 14:0 15:0 16:0 17:0 18:0 19:0 20:3 21:4 22:1 23:3 24:2 25:3 26:5 27:4 28:4 29:4 30:4 31:2 32:0 33:0 34:0 35:0 36:0 37:0 38:0 39:39 
-0.08953922260882859 1:4 2:1 3:0 4:0 5:0 6:0 7:5 8:10 9:6 10:6 11:5 12:9 13:4 14:1 15:0 16:0 17:0 18:0 19:0 20:0 21:0 22:0 23:3 24:5 25:3 26:4 27:2 28:4 29:6 30:4 31:4 32:4 33:6 34:4 35:2 36:0 37:0 38:0 39:51 
-0.9450813260440959 1:0 2:0 3:0 4:0 5:3 6:10 7:6 8:6 9:6 10:8 11:4 12:0 13:0 14:0 15:0 16:0 17:0 18:0 19:0 20:0 21:0 22:0 23:0 24:3 25:5 26:3 27:3 28:2 29:4 30:5 31:3 32:4 33:4 34:4 35:3 36:0 37:0 38:0 39:43 
-0.9714874051268858 1:3 2:11 3:0 4:4 5:10 6:6 7:6 8:6 9:9 10:4 11:0 12:0 13:0 14:0 15:0 16:0 17:0 18:0 19:0 20:0 21:0 22:5 23:7 24:5 25:5 26:3 27:5 28:6 29:4 30:5 31:5 32:6 33:3 34:0 35:0 36:0 37:0 38:0 39:59 
-0.3055645712766882 1:9 2:0 3:0 4:0 5:3 6:9 7:5 8:5 9:6 10:7 11:4 12:0 13:0 14:0 15:0 16:0 17:0 18:0 19:0 20:4 21:6 22:2 23:4 24:2 25:3 26:4 27:5 28:5 29:4 30:6 31:3 32:0 33:0 34:0 35:0 36:0 37:0 38:0 39:48 
-1.032098286792288 1:0 2:0 3:0 4:0 5:0 6:5 7:7 8:5 9:6 10:5 11:9 12:3 13:0 14:0 15:0 16:0 17:0 18:0 19:0 20:0 21:0 22:0 23:0 24:3 25:4 26:2 27:4 28:2 29:4 30:3 31:4 32:4 33:3 34:4 35:3 36:0 37:0 38:0 39:40 
-0.1273309159681439 1:0 2:0 3:0 4:0 5:0 6:4 7:9 8:5 9:6 10:5 11:6 12:4 13:0 14:0 15:0 16:0 17:0 18:0 19:0 20:2 21:5 22:2 23:3 24:2 25:4 26:4 27:4 28:4 29:3 30:3 31:3 32:0 33:0 34:0 35:0 36:0 37:0 38:0 39:39 
-0.5469871872205634 1:11 2:0 3:0 4:0 5:0 6:5 7:9 8:5 9:6 10:5 11:8 12:3 13:0 14:0 15:0 16:0 17:0 18:0 19:0 20:2 21:4 22:3 23:2 24:3 25:5 26:6 27:5 28:5 29:5 30:6 31:3 32:1 33:1 34:1 35:0 36:0 37:0 38:0 39:52 
-0.2875997053184493 1:0 2:0 3:0 4:0 5:0 6:2 7:8 8:6 9:5 10:6 11:7 12:4 13:0 14:0 15:0 16:0 17:0 18:0 19:1 20:2 21:5 22:2 23:4 24:2 25:3 26:5 27:2 28:2 29:3 30:4 31:3 32:0 33:0 34:0 35:0 36:0 37:0 38:0 39:38 
-0.6890410303799225 1:10 2:0 3:0 4:0 5:0 6:0 7:5 8:9 9:6 10:6 11:4 12:9 13:3 14:0 15:0 16:0 17:0 18:0 19:0 20:0 21:0 22:0 23:1 24:3 25:6 26:4 27:4 28:3 29:6 30:4 31:4 32:5 33:4 34:5 35:3 36:0 37:0 38:0 39:52 
-0.4263823968299323 1:0 2:0 3:0 4:0 5:0 6:4 7:8 8:6 9:4 10:5 11:8 12:4 13:1 14:0 15:0 16:0 17:0 18:0 19:0 20:0 21:2 22:3 23:2 24:4 25:2 26:3 27:5 28:4 29:4 30:4 31:5 32:2 33:0 34:0 35:0 36:0 37:0 38:0 39:40 
-0.5530568360536565 1:0 2:0 3:0 4:0 5:0 6:0 7:4 8:10 9:5 10:6 11:6 12:9 13:3 14:0 15:0 16:0 17:0 18:0 19:0 20:0 21:0 22:0 23:0 24:3 25:5 26:3 27:3 28:2 29:3 30:5 31:4 32:3 33:4 34:5 35:3 36:0 37:0 38:0 39:43 
-0.6517908322882076 1:4 2:2 3:11 4:0 5:4 6:8 7:5 8:6 9:4 10:8 11:3 12:0 13:0 14:0 15:0 16:0 17:0 18:0 19:0 20:2 21:5 22:6 23:6 24:3 25:5 26:5 27:5 28:4 29:5 30:5 31:4 32:0 33:0 34:0 35:0 36:0 37:0 38:0 39:55 
-0.6908402253104886 1:0 2:0 3:0 4:5 5:10 6:6 7:6 8:5 9:9 10:4 11:0 12:0 13:0 14:0 15:0 16:0 17:0 18:0 19:0 20:3 21:5 22:3 23:4 24:2 25:3 26:5 27:4 28:4 29:4 30:5 31:3 32:0 33:0 34:0 35:0 36:0 37:0 38:0 39:45 
-1.071466261011714 1:0 2:0 3:0 4:3 5:10 6:6 7:6 8:5 9:8 10:3 11:0 12:0 13:0 14:0 15:0 16:0 17:0 18:0 19:0 20:0 21:0 22:0 23:3 24:5 25:3 26:3 27:1 28:3 29:5 30:2 31:4 32:4 33:5 34:3 35:0 36:0 37:0 38:0 39:41 
-0.4856525289108664 1:0 2:0 3:0 4:0 5:4 6:10 7:5 8:5 9:5 10:9 11:4 12:0 13:0 14:0 15:0 16:0 17:0 18:0 19:0 20:0 21:0 22:3 23:5 24:2 25:4 26:2 27:3 28:4 29:4 30:4 31:4 32:5 33:2 34:0 35:0 36:0 37:0 38:0 39:42 
-1.656854073212692 1:0 2:0 3:0 4:0 5:0 6:0 7:5 8:9 9:5 10:5 11:5 12:7 13:4 14:0 15:0 16:0 17:0 18:0 19:0 20:0 21:0 22:0 23:2 24:4 25:2 26:2 27:2 28:6 29:4 30:4 31:4 32:3 33:5 34:2 35:0 36:0 37:0 38:0 39:40 
-0.7408246649537833 1:3 2:3 3:11 4:0 5:0 6:5 7:9 8:4 9:5 10:6 11:8 12:4 13:0 14:0 15:0 16:0 17:0 18:0 19:0 20:0 21:0 22:0 23:3 24:8 25:6 26:5 27:4 28:5 29:5 30:5 31:4 32:5 33:5 34:3 35:0 36:0 37:0 38:0 39:58 
-0.2665674979688729 1:0 2:0 3:0 4:0 5:5 6:11 7:6 8:6 9:6 10:8 11:3 12:1 13:0 14:0 15:0 16:0 17:0 18:0 19:0 20:0 21:4 22:5 23:3 24:4 25:2 26:4 27:5 28:4 29:4 30:3 31:5 32:3 33:0 34:0 35:0 36:0 37:0 38:0 39:46 
-1.454320537113814 1:0 2:0 3:0 4:4 5:9 6:6 7:6 8:6 9:8 10:4 11:0 12:0 13:0 14:0 15:0 16:0 17:0 18:0 19:0 20:0 21:0 22:0 23:0 24:3 25:5 26:3 27:3 28:3 29:3 30:5 31:3 32:4 33:4 34:5 35:2 36:0 37:0 38:0 39:43 
-0.559509589978136 1:4 2:3 3:8 4:0 5:0 6:4 7:10 8:6 9:6 10:6 11:9 12:3 13:0 14:0 15:0 16:0 17:0 18:0 19:0 20:3 21:2 22:7 23:7 24:4 25:3 26:2 27:5 28:6 29:4 30:5 31:3 32:5 33:3 34:0 35:0 36:0 37:0 38:0 39:59 
-0.1959508344340231 1:0 2:0 3:0 4:0 5:2 6:10 7:6 8:6 9:6 10:8 11:3 12:1 13:0 14:0 15:0 16:0 17:0 18:0 19:0 20:0 21:0 22:0 23:3 24:5 25:2 26:3 27:2 28:4 29:6 30:2 31:4 32:3 33:5 34:3 35:0 36:0 37:0 38:0 39:42 
-0.462186011090218 1:0 2:0 3:0 4:0 5:0 6:5 7:7 8:5 9:5 10:6 11:6 12:4 13:0 14:0 15:0 16:0 17:0 18:0 19:0 20:0 21:1 22:4 23:2 24:4 25:1 26:3 27:5 28:4 29:2 30:4 31:5 32:3 33:0 34:0 35:0 36:0 37:0 38:0 39:38 
