svm_type c_svc
kernel_type rbf
gamma 0.0078125
nr_class 2
total_sv 49
rho -0.00418986
label 1 0
probA -4.24203
probB -0.239823
nr_sv 23 26
SV
0.293088370323847 1:0 2:0 3:0 4:0 5:4 6:8 7:5 8:5 9:3 10:3 11:10 12:0 13:0 14:0 15:0 16:0 17:0 18:0 19:0 20:0 21:0 22:0 23:0 24:0 25:0 26:0 27:2 28:4 29:3 30:3 31:3 32:3 33:4 34:5 35:3 36:2 37:6 38:0 39:38 
1.006726389919862 1:0 2:0 3:0 4:0 5:0 6:0 7:4 8:8 9:5 10:5 11:3 12:3 13:8 14:0 15:0 16:0 17:0 18:0 19:0 20:0 21:0 22:0 23:0 24:0 25:0 26:0 27:2 28:5 29:4 30:3 31:3 32:3 33:2 34:5 35:2 36:1 37:6 38:0 39:36 
0.009321165279314036 1:0 2:0 3:0 4:0 5:6 6:9 7:6 8:6 9:4 10:5 11:11 12:0 13:0 14:0 15:0 16:0 17:0 18:0 19:0 20:0 21:0 22:0 23:0 24:3 25:6 26:4 27:3 28:3 29:3 30:3 31:6 32:3 33:3 34:6 35:4 36:0 37:0 38:0 39:47 
0.2192403904788498 1:0 2:0 3:0 4:0 5:5 6:9 7:4 8:5 9:3 10:2 11:9 12:0 13:0 14:0 15:0 16:0 17:0 18:0 19:0 20:0 21:0 22:0 23:0 24:0 25:0 26:0 27:2 28:5 29:2 30:3 31:3 32:3 33:3 34:5 35:2 36:3 37:6 38:0 39:37 
0.9366740342134421 1:0 2:0 3:0 4:4 5:8 6:5 7:3 8:3 9:5 10:11 11:0 12:0 13:0 14:0 15:0 16:0 17:0 18:0 19:0 20:0 21:0 22:0 23:0 24:0 25:2 26:6 27:4 28:3 29:2 30:3 31:3 32:4 33:3 34:2 35:5 36:2 37:0 38:0 39:39 
0.4457253065121893 1:0 2:0 3:0 4:5 5:7 6:5 7:6 8:4 9:5 10:10 11:0 12:0 13:0 14:0 15:0 16:0 17:0 18:0 19:0 20:0 21:0 22:0 23:3 24:6 25:3 26:2 27:3 28:3 29:3 30:5 31:2 32:2 33:6 34:4 35:0 36:0 37:0 38:0 39:42 
1.728769574166904 1:0 2:0 3:0 4:3 5:9 6:5 7:6 8:4 9:5 10:10 11:0 12:0 13:0 14:0 15:0 16:0 17:0 18:0 19:0 20:0 21:0 22:0 23:3 24:6 25:4 26:2 27:3 28:2 29:3 30:5 31:2 32:3 33:6 34:3 35:0 36:0 37:0 38:0 39:42 
1.238784743458493 1:0 2:0 3:0 4:0 5:6 6:9 7:6 8:6 9:4 10:4 11:8 12:0 13:0 14:0 15:0 16:0 17:0 18:0 19:0 20:0 21:0 22:0 23:0 24:0 25:3 26:5 27:4 28:2 29:3 30:3 31:4 32:5 33:3 34:2 35:4 36:4 37:1 38:0 39:43 
0.7603376649105563 1:0 2:0 3:0 4:0 5:0 6:2 7:9 8:4 9:6 10:4 11:5 12:7 13:0 14:0 15:0 16:0 17:0 18:0 19:0 20:0 21:0 22:0 23:0 24:0 25:0 26:3 27:5 28:3 29:3 30:1 31:2 32:3 33:5 34:2 35:1 36:6 37:3 38:0 39:37 
0.8251403705659789 1:0 2:0 3:0 4:0 5:0 6:0 7:5 8:8 9:6 10:5 11:3 12:5 13:10 14:0 15:0 16:0 17:0 18:0 19:0 20:0 21:0 22:0 23:1 24:6 25:4 26:3 27:3 28:3 29:2 30:5 31:3 32:3 33:6 34:3 35:0 36:0 37:0 38:0 39:42 
1.679229162296941 1:0 2:0 3:0 4:0 5:5 6:8 7:6 8:5 9:4 10:4 11:11 12:0 13:0 14:0 15:0 16:0 17:0 18:0 19:0 20:0 21:0 22:0 23:0 24:3 25:6 26:2 27:3 28:3 29:3 30:3 31:4 32:3 33:3 34:6 35:4 36:0 37:0 38:0 39:43 
1.051107244608075 1:0 2:0 3:0 4:0 5:6 6:9 7:6 8:6 9:4 10:4 11:10 12:0 13:0 14:0 15:0 16:0 17:0 18:0 19:0 20:0 21:0 22:0 23:2 24:6 25:4 26:3 27:3 28:3 29:3 30:5 31:3 32:3 33:6 34:4 35:0 36:0 37:0 38:0 39:45 
1.581064314080484 1:0 2:0 3:0 4:0 5:0 6:0 7:3 8:8 9:5 10:6 11:4 12:5 13:9 14:1 15:0 16:0 17:0 18:0 19:0 20:0 21:0 22:1 23:3 24:6 25:3 26:4 27:3 28:3 29:2 30:5 31:2 32:2 33:4 34:3 35:0 36:0 37:0 38:0 39:41 
2 1:0 2:0 3:0 4:0 5:0 6:5 7:8 8:6 9:6 10:4 11:4 12:8 13:0 14:0 15:0 16:0 17:0 18:0 19:0 20:0 21:0 22:0 23:2 24:6 25:3 26:2 27:2 28:2 29:5 30:5 31:2 32:2 33:6 34:4 35:0 36:0 37:0 38:0 39:41 
0.09972285900101294 1:2 2:0 3:0 4:0 5:0 6:0 7:5 8:7 9:5 10:6 11:4 12:4 13:11 14:0 15:0 16:0 17:0 18:0 19:0 20:0 21:0 22:1 23:1 24:0 25:0 26:3 27:6 28:2 29:3 30:3 31:2 32:4 33:5 34:3 35:3 36:4 37:4 38:0 39:44 
1.501650263186995 1:0 2:0 3:0 4:0 5:0 6:6 7:9 8:6 9:6 10:4 11:5 12:11 13:0 14:0 15:0 16:0 17:0 18:0 19:0 20:0 21:0 22:0 23:1 24:4 25:6 26:4 27:3 28:3 29:3 30:4 31:5 32:2 33:3 34:6 35:3 36:0 37:0 38:0 39:47 
0.2725985240298193 1:0 2:0 3:0 4:6 5:7 6:4 7:5 8:3 9:4 10:11 11:0 12:0 13:0 14:0 15:0 16:0 17:0 18:0 19:0 20:0 21:0 22:0 23:0 24:0 25:0 26:0 27:2 28:5 29:4 30:3 31:3 32:3 33:4 34:4 35:3 36:3 37:6 38:0 39:40 
0.1054813251289598 1:0 2:0 3:0 4:0 5:4 6:8 7:6 8:6 9:4 10:3 11:11 12:0 13:0 14:0 15:0 16:0 17:0 18:0 19:0 20:0 21:0 22:0 23:0 24:0 25:3 26:6 27:2 28:3 29:3 30:3 31:2 32:5 33:3 34:2 35:6 36:4 37:0 38:0 39:42 
0.3699161514291502 1:0 2:0 3:0 4:6 5:9 6:6 7:5 8:3 9:4 10:11 11:0 12:0 13:0 14:0 15:0 16:0 17:0 18:0 19:0 20:0 21:0 22:0 23:3 24:5 25:4 26:3 27:3 28:3 29:3 30:5 31:3 32:3 33:5 34:4 35:0 36:0 37:0 38:0 39:44 
0.5099300754651854 1:0 2:0 3:0 4:0 5:0 6:5 7:9 8:6 9:6 10:3 11:5 12:9 13:0 14:0 15:0 16:0 17:0 18:0 19:0 20:0 21:0 22:0 23:0 24:0 25:0 26:3 27:6 28:4 29:3 30:3 31:3 32:4 33:4 34:2 35:2 36:5 37:4 38:0 39:43 
0.5142643929292487 1:0 2:0 3:0 4:6 5:9 6:6 7:6 8:3 9:3 10:4 11:0 12:0 13:0 14:0 15:0 16:0 17:0 18:0 19:0 20:0 21:0 22:0 23:0 24:0 25:0 26:2 27:4 28:4 29:2 30:3 31:2 32:2 33:3 34:2 35:3 36:6 37:4 38:0 39:37 
1.008238646753888 1:0 2:0 3:0 4:0 5:0 6:0 7:3 8:9 9:6 10:5 11:4 12:5 13:11 14:0 15:0 16:0 17:0 18:0 19:0 20:0 21:0 22:0 23:0 24:0 25:3 26:6 27:3 28:3 29:3 30:3 31:3 32:5 33:3 34:2 35:6 36:3 37:0 38:0 39:43 
0.8106504098440608 1:0 2:0 3:0 4:0 5:0 6:5 7:7 8:6 9:6 10:3 11:3 12:9 13:0 14:0 15:0 16:0 17:0 18:0 19:0 20:0 21:0 22:0 23:3 24:6 25:3 26:2 27:3 28:3 29:2 30:3 31:2 32:3 33:6 34:3 35:0 36:0 37:0 38:0 39:39 
-0.1939159527528409 1:0 2:0 3:0 4:0 5:0 6:0 7:4 8:9 9:6 10:5 11:6 12:7 13:4 14:0 15:0 16:0 17:0 18:0 19:0 20:0 21:0 22:3 23:5 24:3 25:4 26:1 27:3 28:4 29:3 30:3 31:4 32:5 33:3 34:0 35:0 36:0 37:0 38:0 39:41 
-1.089304508908214 1:0 2:0 3:0 4:0 5:0 6:0 7:4 8:9 9:6 10:5 11:6 12:9 13:4 14:0 15:0 16:0 17:0 18:0 19:0 20:0 21:0 22:0 23:0 24:3 25:5 26:2 27:3 28:2 29:4 30:5 31:4 32:4 33:4 34:4 35:3 36:0 37:0 38:0 39:43 
-0.3435356948278575 1:0 2:0 3:0 4:0 5:4 6:8 7:5 8:6 9:5 10:7 11:4 12:0 13:0 14:0 15:0 16:0 17:0 18:0 19:0 20:3 21:4 22:1 23:3 24:2 25:3 26:5 27:4 28:4 29:4 30:4 31:2 32:0 33:0 34:0 35:0 36:0 37:0 38:0 39:39 
-0.1385504575894979 1:4 2:1 3:0 4:0 5:0 6:0 7:5 8:10 9:6 10:6 11:5 12:9 13:4 14:1 15:0 16:0 17:0 18:0 19:0 20:0 21:0 22:0 23:3 24:5 25:3 26:4 27:2 28:4 29:6 30:4 31:4 32:4 33:6 34:4 35:2 36:0 37:0 38:0 39:51 
-1.925796601866826 1:0 2:0 3:0 4:0 5:3 6:10 7:6 8:6 9:6 10:8 11:4 12:0 13:0 14:0 15:0 16:0 17:0 18:0 19:0 20:0 21:0 22:0 23:0 24:3 25:5 26:3 27:3 28:2 29:4 30:5 31:3 32:4 33:4 34:4 35:3 36:0 37:0 38:0 39:43 
-0.8941147731493115 1:3 2:11 3:0 4:4 5:10 6:6 7:6 8:6 9:9 10:4 11:0 12:0 13:0 14:0 15:0 16:0 17:0 18:0 19:0 20:0 21:0 22:5 23:7 24:5 25:5 26:3 27:5 28:6 29:4 30:5 31:5 32:6 33:3 34:0 35:0 36:0 37:0 38:0 39:59 
-0.2917440983690842 1:9 2:0 3:0 4:0 5:3 6:9 7:5 8:5 9:6 10:7 11:4 12:0 13:0 14:0 15:0 16:0 17:0 18:0 19:0 20:4 21:6 22:2 23:4 24:2 25:3 26:4 27:5 28:5 29:4 30:6 31:3 32:0 33:0 34:0 35:0 36:0 37:0 38:0 39:48 
-2 1:0 2:0 3:0 4:0 5:0 6:5 7:7 8:5 9:6 10:5 11:9 12:3 13:0 14:0 15:0 16:0 17:0 18:0 19:0 20:0 21:0 22:0 23:0 24:3 25:4 26:2 27:4 28:2 29:4 30:3 31:4 32:4 33:3 34:4 35:3 36:0 37:0 38:0 39:40 
-0.20729945791926 1:0 2:0 3:0 4:0 5:0 6:4 7:9 8:5 9:6 10:5 11:6 12:4 13:0 14:0 15:0 16:0 17:0 18:0 19:0 20:2 21:5 22:2 23:3 24:2 25:4 26:4 27:4 28:4 29:3 30:3 31:3 32:0 33:0 34:0 35:0 36:0 37:0 38:0 39:39 
-0.5723071626109923 1:11 2:0 3:0 4:0 5:0 6:5 7:9 8:5 9:6 10:5 11:8 12:3 13:0 14:0 15:0 16:0 17:0 18:0 19:0 20:2 21:4 22:3 23:2 24:3 25:5 26:6 27:5 28:5 29:5 30:6 31:3 32:1 33:1 34:1 35:0 36:0 37:0 38:0 39:52 
-0.4100395789713888 1:0 2:0 3:0 4:0 5:0 6:2 7:8 8:6 9:5 10:6 11:7 12:4 13:0 14:0 15:0 16:0 17:0 18:0 19:1 20:2 21:5 22:2 23:4 24:2 25:3 26:5 27:2 28:2 29:3 30:4 31:3 32:0 33:0 34:0 35:0 36:0 37:0 38:0 39:38 
-0.5021983750686316 1:10 2:0 3:0 4:0 5:0 6:0 7:5 8:9 9:6 10:6 11:4 12:9 13:3 14:0 15:0 16:0 17:0 18:0 19:0 20:0 21:0 22:0 23:1 24:3 25:6 26:4 27:4 28:3 29:6 30:4 31:4 32:5 33:4 34:5 35:3 36:0 37:0 38:0 39:52 
-0.678357365442685 1:0 2:0 3:0 4:0 5:0 6:0 7:4 8:10 9:5 10:6 11:6 12:9 13:3 14:0 15:0 16:0 17:0 18:0 19:0 20:0 21:0 22:0 23:0 24:3 25:5 26:3 27:3 28:2 29:3 30:5 31:4 32:3 33:4 34:5 35:3 36:0 37:0 38:0 39:43 
-0.6191833103160883 1:4 2:2 3:11 4:0 5:4 6:8 7:5 8:6 9:4 10:8 11:3 12:0 13:0 14:0 15:0 16:0 17:0 18:0 19:0 20:2 21:5 22:6 23:6 24:3 25:5 26:5 27:5 28:4 29:5 30:5 31:4 32:0 33:0 34:0 35:0 36:0 37:0 38:0 39:55 
-0.4918603060678183 1:0 2:0 3:0 4:5 5:10 6:6 7:6 8:5 9:9 10:4 11:0 12:0 13:0 14:0 15:0 16:0 17:0 18:0 19:0 20:3 21:5 22:3 23:4 24:2 25:3 26:5 27:4 28:4 29:4 30:5 31:3 32:0 33:0 34:0 35:0 36:0 37:0 38:0 39:45 
-1.272878556878654 1:0 2:0 3:0 4:3 5:10 6:6 7:6 8:5 9:8 10:3 11:0 12:0 13:0 14:0 15:0 16:0 17:0 18:0 19:0 20:0 21:0 22:0 23:3 24:5 25:3 26:3 27:1 28:3 29:5 30:2 31:4 32:4 33:5 34:3 35:0 36:0 37:0 38:0 39:41 
-0.3118987492359712 1:0 2:0 3:0 4:0 5:4 6:10 7:5 8:5 9:5 10:9 11:4 12:0 13:0 14:0 15:0 16:0 17:0 18:0 19:0 20:0 21:0 22:3 23:5 24:2 25:4 26:2 27:3 28:4 29:4 30:4 31:4 32:5 33:2 34:0 35:0 36:0 37:0 38:0 39:42 
-2 1:0 2:0 3:0 4:0 5:0 6:0 7:5 8:9 9:5 10:5 11:5 12:7 13:4 14:0 15:0 16:0 17:0 18:0 19:0 20:0 21:0 22:0 23:2 24:4 25:2 26:2 27:2 28:6 29:4 30:4 31:4 32:3 33:5 34:2 35:0 36:0 37:0 38:0 39:40 
-0.7228095907148817 1:3 2:3 3:11 4:0 5:0 6:5 7:9 8:4 9:5 10:6 11:8 12:4 13:0 14:0 15:0 16:0 17:0 18:0 19:0 20:0 21:0 22:0 23:3 24:8 25:6 26:5 27:4 28:5 29:5 30:5 31:4 32:5 33:5 34:3 35:0 36:0 37:0 38:0 39:58 
-0.05565726617912024 1:0 2:0 3:0 4:0 5:0 6:4 7:7 8:6 9:6 10:5 11:9 12:4 13:0 14:0 15:0 16:0 17:0 18:0 19:0 20:0 21:0 22:3 23:5 24:2 25:4 26:2 27:2 28:4 29:3 30:4 31:4 32:5 33:3 34:0 35:0 36:0 37:0 38:0 39:41 
-0.06091667178643075 1:0 2:0 3:0 4:0 5:5 6:11 7:6 8:6 9:6 10:8 11:3 12:1 13:0 14:0 15:0 16:0 17:0 18:0 19:0 20:0 21:4 22:5 23:3 24:4 25:2 26:4 27:5 28:4 29:4 30:3 31:5 32:3 33:0 34:0 35:0 36:0 37:0 38:0 39:46 
-0.8115883951308155 1:4 2:1 3:0 4:0 5:0 6:0 7:5 8:10 9:6 10:6 11:4 12:7 13:3 14:0 15:0 16:0 17:0 18:0 19:0 20:0 21:0 22:0 23:4 24:5 25:3 26:3 27:1 28:4 29:4 30:4 31:2 32:5 33:6 34:5 35:0 36:0 37:0 38:0 39:46 
-1.539305363096307 1:0 2:0 3:0 4:4 5:9 6:6 7:6 8:6 9:8 10:4 11:0 12:0 13:0 14:0 15:0 16:0 17:0 18:0 19:0 20:0 21:0 22:0 23:0 24:3 25:5 26:3 27:3 28:3 29:3 30:5 31:3 32:4 33:4 34:5 35:2 36:0 37:0 38:0 39:43 
-0.5077523633655983 1:4 2:3 3:8 4:0 5:0 6:4 7:10 8:6 9:6 10:6 11:9 12:3 13:0 14:0 15:0 16:0 17:0 18:0 19:0 20:3 21:2 22:7 23:7 24:4 25:3 26:2 27:5 28:6 29:4 30:5 31:3 32:5 33:3 34:0 35:0 36:0 37:0 38:0 39:59 
-0.8142274980351072 1:0 2:0 3:0 4:0 5:2 6:10 7:6 8:6 9:6 10:8 11:3 12:1 13:0 14:0 15:0 16:0 17:0 18:0 19:0 20:0 21:0 22:0 23:3 24:5 25:2 26:3 27:2 28:4 29:6 30:2 31:4 32:3 33:5 34:3 35:0 36:0 37:0 38:0 39:42 
-0.5124192802998738 1:0 2:0 3:0 4:0 5:0 6:5 7:7 8:5 9:5 10:6 11:6 12:4 13:0 14:0 15:0 16:0 17:0 18:0 19:0 20:0 21:1 22:4 23:2 24:4 25:1 26:3 27:5 28:4 29:2 30:4 31:5 32:3 33:0 34:0 35:0 36:0 37:0 38:0 39:38 
