svm_type c_svc
kernel_type rbf
gamma 0.00012207
nr_class 2
total_sv 20
rho 0.404175
label 0 1
probA -3.2468
probB -0.170867
nr_sv 9 11
SV
8 1:4 2:1 3:0 4:0 5:0 6:0 7:5 8:10 9:6 10:6 11:5 12:9 13:4 14:1 15:0 16:0 17:0 18:0 19:0 20:0 21:0 22:0 23:3 24:5 25:3 26:4 27:2 28:4 29:6 30:4 31:4 32:4 33:6 34:4 35:2 36:0 37:0 38:0 39:51 
8 1:3 2:11 3:0 4:4 5:10 6:6 7:6 8:6 9:9 10:4 11:0 12:0 13:0 14:0 15:0 16:0 17:0 18:0 19:0 20:0 21:0 22:5 23:7 24:5 25:5 26:3 27:5 28:6 29:4 30:5 31:5 32:6 33:3 34:0 35:0 36:0 37:0 38:0 39:59 
0.5000294404760397 1:11 2:0 3:0 4:0 5:0 6:5 7:9 8:5 9:6 10:5 11:8 12:3 13:0 14:0 15:0 16:0 17:0 18:0 19:0 20:2 21:4 22:3 23:2 24:3 25:5 26:6 27:5 28:5 29:5 30:6 31:3 32:1 33:1 34:1 35:0 36:0 37:0 38:0 39:52 
7.864733002653989 1:10 2:0 3:0 4:0 5:0 6:0 7:5 8:9 9:6 10:6 11:4 12:9 13:3 14:0 15:0 16:0 17:0 18:0 19:0 20:0 21:0 22:0 23:1 24:3 25:6 26:4 27:4 28:3 29:6 30:4 31:4 32:5 33:4 34:5 35:3 36:0 37:0 38:0 39:52 
3.956306391666516 1:4 2:2 3:11 4:0 5:4 6:8 7:5 8:6 9:4 10:8 11:3 12:0 13:0 14:0 15:0 16:0 17:0 18:0 19:0 20:2 21:5 22:6 23:6 24:3 25:5 26:5 27:5 28:4 29:5 30:5 31:4 32:0 33:0 34:0 35:0 36:0 37:0 38:0 39:55 
4.134544899010887 1:0 2:0 3:0 4:5 5:10 6:6 7:6 8:5 9:9 10:4 11:0 12:0 13:0 14:0 15:0 16:0 17:0 18:0 19:0 20:3 21:5 22:3 23:4 24:2 25:3 26:5 27:4 28:4 29:4 30:5 31:3 32:0 33:0 34:0 35:0 36:0 37:0 38:0 39:45 
8 1:3 2:3 3:11 4:0 5:0 6:5 7:9 8:4 9:5 10:6 11:8 12:4 13:0 14:0 15:0 16:0 17:0 18:0 19:0 20:0 21:0 22:0 23:3 24:8 25:6 26:5 27:4 28:5 29:5 30:5 31:4 32:5 33:5 34:3 35:0 36:0 37:0 38:0 39:58 
7.077649934823089 1:0 2:0 3:0 4:0 5:5 6:11 7:6 8:6 9:6 10:8 11:3 12:1 13:0 14:0 15:0 16:0 17:0 18:0 19:0 20:0 21:4 22:5 23:3 24:4 25:2 26:4 27:5 28:4 29:4 30:3 31:5 32:3 33:0 34:0 35:0 36:0 37:0 38:0 39:46 
8 1:4 2:3 3:8 4:0 5:0 6:4 7:10 8:6 9:6 10:6 11:9 12:3 13:0 14:0 15:0 16:0 17:0 18:0 19:0 20:3 21:2 22:7 23:7 24:4 25:3 26:2 27:5 28:6 29:4 30:5 31:3 32:5 33:3 34:0 35:0 36:0 37:0 38:0 39:59 
-7.586854023180861 1:0 2:0 3:0 4:0 5:0 6:10 7:12 8:4 9:5 10:6 11:6 12:6 13:6 14:6 15:0 16:0 17:0 18:0 19:0 20:0 21:0 22:0 23:0 24:8 25:8 26:3 27:3 28:4 29:6 30:6 31:2 32:2 33:2 34:9 35:8 36:0 37:0 38:0 39:61 
-0.8794375927476927 1:0 2:0 3:0 4:0 5:7 6:11 7:5 8:6 9:5 10:6 11:5 12:6 13:8 14:0 15:0 16:0 17:0 18:0 19:0 20:7 21:8 22:3 23:2 24:2 25:8 26:8 27:2 28:3 29:2 30:6 31:8 32:0 33:0 34:0 35:0 36:0 37:0 38:0 39:59 
-8 1:0 2:0 3:0 4:0 5:0 6:1 7:7 8:10 9:6 10:5 11:5 12:5 13:5 14:7 15:6 16:2 17:0 18:0 19:0 20:8 21:6 22:5 23:1 24:3 25:6 26:7 27:2 28:3 29:3 30:8 31:7 32:0 33:0 34:0 35:0 36:0 37:0 38:0 39:59 
-0.1498717453261267 1:11 2:0 3:0 4:0 5:7 6:11 7:3 8:6 9:6 10:5 11:6 12:6 13:7 14:0 15:0 16:0 17:0 18:0 19:0 20:1 21:1 22:1 23:1 24:8 25:9 26:5 27:3 28:2 29:5 30:8 31:2 32:3 33:2 34:9 35:8 36:0 37:0 38:0 39:68 
-1.602005884613154 1:0 2:0 3:0 4:0 5:0 6:6 7:11 8:6 9:6 10:6 11:6 12:5 13:7 14:9 15:0 16:0 17:0 18:0 19:0 20:0 21:0 22:0 23:7 24:9 25:3 26:2 27:4 28:7 29:9 30:3 31:1 32:2 33:7 34:8 35:0 36:0 37:0 38:0 39:62 
-8 1:0 2:0 3:0 4:8 5:11 6:6 7:5 8:5 9:5 10:5 11:7 12:8 13:0 14:0 15:0 16:0 17:0 18:0 19:0 20:0 21:0 22:7 23:8 24:4 25:2 26:3 27:8 28:9 29:2 30:2 31:3 32:8 33:4 34:0 35:0 36:0 37:0 38:0 39:60 
-8 1:0 2:0 3:0 4:7 5:12 6:5 7:6 8:6 9:6 10:5 11:8 12:5 13:0 14:0 15:0 16:0 17:0 18:0 19:0 20:7 21:7 22:3 23:3 24:4 25:8 26:6 27:3 28:2 29:1 30:9 31:7 32:0 33:0 34:0 35:0 36:0 37:0 38:0 39:60 
-7.26210137532474 1:0 2:0 3:0 4:0 5:6 6:12 7:6 8:7 9:6 10:5 11:5 12:8 13:7 14:0 15:0 16:0 17:0 18:0 19:0 20:0 21:0 22:7 23:8 24:2 25:2 26:3 27:8 28:8 29:3 30:3 31:3 32:8 33:7 34:0 35:0 36:0 37:0 38:0 39:62 
-5.043740267612211 1:0 2:0 3:0 4:0 5:7 6:12 7:6 8:5 9:6 10:5 11:4 12:6 13:9 14:0 15:0 16:0 17:0 18:0 19:0 20:0 21:8 22:7 23:3 24:3 25:3 26:6 27:9 28:2 29:2 30:2 31:8 32:7 33:0 34:0 35:0 36:0 37:0 38:0 39:60 
-8 1:0 2:0 3:0 4:0 5:0 6:0 7:9 8:9 9:5 10:6 11:5 12:4 13:6 14:7 15:9 16:0 17:0 18:0 19:0 20:0 21:0 22:0 23:7 24:7 25:3 26:2 27:3 28:7 29:9 30:3 31:3 32:3 33:7 34:6 35:0 36:0 37:0 38:0 39:60 
-1.009252779825738 1:0 2:0 3:0 4:0 5:0 6:9 7:8 8:5 9:5 10:5 11:6 12:5 13:7 14:8 15:2 16:0 17:0 18:0 19:0 20:0 21:0 22:0 23:0 24:7 25:9 26:3 27:2 28:3 29:5 30:9 31:2 32:4 33:3 34:8 35:5 36:0 37:0 38:0 39:60 
