svm_type c_svc
kernel_type rbf
gamma 0.0078125
nr_class 2
total_sv 68
rho -0.192373
label 0 1
probA -5.6948
probB -0.622678
nr_sv 34 34
SV
0.125 1:0 2:0 3:0 4:0 5:0 6:0 7:4 8:9 9:6 10:5 11:6 12:7 13:4 14:0 15:0 16:0 17:0 18:0 19:0 20:0 21:0 22:3 23:5 24:3 25:4 26:1 27:3 28:4 29:3 30:3 31:4 32:5 33:3 34:0 35:0 36:0 37:0 38:0 39:41 
0.125 1:0 2:0 3:0 4:0 5:0 6:3 7:8 8:6 9:5 10:6 11:8 12:4 13:0 14:0 15:0 16:0 17:0 18:0 19:0 20:2 21:4 22:3 23:2 24:2 25:3 26:5 27:3 28:4 29:4 30:5 31:3 32:0 33:0 34:0 35:0 36:0 37:0 38:0 39:40 
0.125 1:0 2:0 3:0 4:0 5:0 6:0 7:4 8:9 9:6 10:5 11:6 12:9 13:4 14:0 15:0 16:0 17:0 18:0 19:0 20:0 21:0 22:0 23:0 24:3 25:5 26:2 27:3 28:2 29:4 30:5 31:4 32:4 33:4 34:4 35:3 36:0 37:0 38:0 39:43 
0.125 1:0 2:0 3:0 4:0 5:3 6:9 7:6 8:6 9:6 10:9 11:4 12:0 13:0 14:0 15:0 16:0 17:0 18:0 19:0 20:0 21:0 22:3 23:5 24:2 25:4 26:1 27:4 28:5 29:3 30:4 31:4 32:5 33:3 34:0 35:0 36:0 37:0 38:0 39:43 
0.125 1:0 2:0 3:0 4:0 5:4 6:8 7:5 8:6 9:5 10:7 11:4 12:0 13:0 14:0 15:0 16:0 17:0 18:0 19:0 20:3 21:4 22:1 23:3 24:2 25:3 26:5 27:4 28:4 29:4 30:4 31:2 32:0 33:0 34:0 35:0 36:0 37:0 38:0 39:39 
0.125 1:4 2:1 3:0 4:0 5:0 6:0 7:5 8:10 9:6 10:6 11:5 12:9 13:4 14:1 15:0 16:0 17:0 18:0 19:0 20:0 21:0 22:0 23:3 24:5 25:3 26:4 27:2 28:4 29:6 30:4 31:4 32:4 33:6 34:4 35:2 36:0 37:0 38:0 39:51 
0.125 1:0 2:0 3:0 4:0 5:3 6:10 7:6 8:6 9:6 10:8 11:4 12:0 13:0 14:0 15:0 16:0 17:0 18:0 19:0 20:0 21:0 22:0 23:0 24:3 25:5 26:3 27:3 28:2 29:4 30:5 31:3 32:4 33:4 34:4 35:3 36:0 37:0 38:0 39:43 
0.125 1:3 2:11 3:0 4:4 5:10 6:6 7:6 8:6 9:9 10:4 11:0 12:0 13:0 14:0 15:0 16:0 17:0 18:0 19:0 20:0 21:0 22:5 23:7 24:5 25:5 26:3 27:5 28:6 29:4 30:5 31:5 32:6 33:3 34:0 35:0 36:0 37:0 38:0 39:59 
0.125 1:9 2:0 3:0 4:0 5:3 6:9 7:5 8:5 9:6 10:7 11:4 12:0 13:0 14:0 15:0 16:0 17:0 18:0 19:0 20:4 21:6 22:2 23:4 24:2 25:3 26:4 27:5 28:5 29:4 30:6 31:3 32:0 33:0 34:0 35:0 36:0 37:0 38:0 39:48 
0.125 1:0 2:0 3:0 4:0 5:0 6:5 7:7 8:5 9:6 10:5 11:9 12:3 13:0 14:0 15:0 16:0 17:0 18:0 19:0 20:0 21:0 22:0 23:0 24:3 25:4 26:2 27:4 28:2 29:4 30:3 31:4 32:4 33:3 34:4 35:3 36:0 37:0 38:0 39:40 
0.00274564623126268 1:0 2:0 3:0 4:0 5:0 6:4 7:9 8:5 9:6 10:6 11:8 12:4 13:0 14:0 15:0 16:0 17:0 18:0 19:0 20:0 21:3 22:5 23:2 24:4 25:2 26:3 27:4 28:3 29:4 30:4 31:5 32:3 33:0 34:0 35:0 36:0 37:0 38:0 39:42 
0.125 1:0 2:0 3:0 4:0 5:0 6:4 7:9 8:5 9:6 10:5 11:6 12:4 13:0 14:0 15:0 16:0 17:0 18:0 19:0 20:2 21:5 22:2 23:3 24:2 25:4 26:4 27:4 28:4 29:3 30:3 31:3 32:0 33:0 34:0 35:0 36:0 37:0 38:0 39:39 
0.125 1:0 2:0 3:0 4:0 5:4 6:8 7:6 8:5 9:6 10:9 11:4 12:0 13:0 14:0 15:0 16:0 17:0 18:0 19:0 20:3 21:5 22:2 23:4 24:2 25:4 26:4 27:4 28:3 29:4 30:5 31:2 32:0 33:0 34:0 35:0 36:0 37:0 38:0 39:42 
0.125 1:11 2:0 3:0 4:0 5:0 6:5 7:9 8:5 9:6 10:5 11:8 12:3 13:0 14:0 15:0 16:0 17:0 18:0 19:0 20:2 21:4 22:3 23:2 24:3 25:5 26:6 27:5 28:5 29:5 30:6 31:3 32:1 33:1 34:1 35:0 36:0 37:0 38:0 39:52 
0.125 1:0 2:0 3:0 4:4 5:9 6:6 7:6 8:6 9:9 10:4 11:0 12:0 13:0 14:0 15:0 16:0 17:0 18:0 19:1 20:3 21:5 22:2 23:3 24:2 25:3 26:5 27:4 28:4 29:4 30:5 31:3 32:0 33:0 34:0 35:0 36:0 37:0 38:0 39:44 
0.125 1:0 2:0 3:0 4:0 5:0 6:2 7:8 8:6 9:5 10:6 11:7 12:4 13:0 14:0 15:0 16:0 17:0 18:0 19:1 20:2 21:5 22:2 23:4 24:2 25:3 26:5 27:2 28:2 29:3 30:4 31:3 32:0 33:0 34:0 35:0 36:0 37:0 38:0 39:38 
0.125 1:10 2:0 3:0 4:0 5:0 6:0 7:5 8:9 9:6 10:6 11:4 12:9 13:3 14:0 15:0 16:0 17:0 18:0 19:0 20:0 21:0 22:0 23:1 24:3 25:6 26:4 27:4 28:3 29:6 30:4 31:4 32:5 33:4 34:5 35:3 36:0 37:0 38:0 39:52 
0.125 1:0 2:0 3:0 4:0 5:0 6:4 7:8 8:6 9:4 10:5 11:8 12:4 13:1 14:0 15:0 16:0 17:0 18:0 19:0 20:0 21:2 22:3 23:2 24:4 25:2 26:3 27:5 28:4 29:4 30:4 31:5 32:2 33:0 34:0 35:0 36:0 37:0 38:0 39:40 
0.125 1:0 2:0 3:0 4:0 5:0 6:0 7:4 8:10 9:5 10:6 11:6 12:9 13:3 14:0 15:0 16:0 17:0 18:0 19:0 20:0 21:0 22:0 23:0 24:3 25:5 26:3 27:3 28:2 29:3 30:5 31:4 32:3 33:4 34:5 35:3 36:0 37:0 38:0 39:43 
0.125 1:4 2:2 3:11 4:0 5:4 6:8 7:5 8:6 9:4 10:8 11:3 12:0 13:0 14:0 15:0 16:0 17:0 18:0 19:0 20:2 21:5 22:6 23:6 24:3 25:5 26:5 27:5 28:4 29:5 30:5 31:4 32:0 33:0 34:0 35:0 36:0 37:0 38:0 39:55 
0.125 1:0 2:0 3:0 4:5 5:10 6:6 7:6 8:5 9:9 10:4 11:0 12:0 13:0 14:0 15:0 16:0 17:0 18:0 19:0 20:3 21:5 22:3 23:4 24:2 25:3 26:5 27:4 28:4 29:4 30:5 31:3 32:0 33:0 34:0 35:0 36:0 37:0 38:0 39:45 
0.125 1:0 2:0 3:0 4:3 5:10 6:6 7:6 8:5 9:8 10:3 11:0 12:0 13:0 14:0 15:0 16:0 17:0 18:0 19:0 20:0 21:0 22:0 23:3 24:5 25:3 26:3 27:1 28:3 29:5 30:2 31:4 32:4 33:5 34:3 35:0 36:0 37:0 38:0 39:41 
0.125 1:0 2:0 3:0 4:0 5:4 6:10 7:5 8:5 9:5 10:9 11:4 12:0 13:0 14:0 15:0 16:0 17:0 18:0 19:0 20:0 21:0 22:3 23:5 24:2 25:4 26:2 27:3 28:4 29:4 30:4 31:4 32:5 33:2 34:0 35:0 36:0 37:0 38:0 39:42 
0.125 1:0 2:0 3:0 4:0 5:0 6:0 7:5 8:9 9:5 10:5 11:5 12:7 13:4 14:0 15:0 16:0 17:0 18:0 19:0 20:0 21:0 22:0 23:2 24:4 25:2 26:2 27:2 28:6 29:4 30:4 31:4 32:3 33:5 34:2 35:0 36:0 37:0 38:0 39:40 
0.125 1:3 2:3 3:11 4:0 5:0 6:5 7:9 8:4 9:5 10:6 11:8 12:4 13:0 14:0 15:0 16:0 17:0 18:0 19:0 20:0 21:0 22:0 23:3 24:8 25:6 26:5 27:4 28:5 29:5 30:5 31:4 32:5 33:5 34:3 35:0 36:0 37:0 38:0 39:58 
0.125 1:0 2:0 3:0 4:0 5:0 6:4 7:7 8:6 9:6 10:5 11:9 12:4 13:0 14:0 15:0 16:0 17:0 18:0 19:0 20:0 21:0 22:3 23:5 24:2 25:4 26:2 27:2 28:4 29:3 30:4 31:4 32:5 33:3 34:0 35:0 36:0 37:0 38:0 39:41 
0.108655313084202 1:0 2:0 3:0 4:0 5:5 6:11 7:6 8:6 9:6 10:8 11:3 12:1 13:0 14:0 15:0 16:0 17:0 18:0 19:0 20:0 21:4 22:5 23:3 24:4 25:2 26:4 27:5 28:4 29:4 30:3 31:5 32:3 33:0 34:0 35:0 36:0 37:0 38:0 39:46 
0.125 1:1 2:0 3:0 4:0 5:3 6:8 7:5 8:5 9:5 10:9 11:4 12:0 13:0 14:0 15:0 16:0 17:0 18:0 19:0 20:0 21:3 22:5 23:2 24:4 25:2 26:2 27:5 28:4 29:3 30:3 31:4 32:3 33:0 34:0 35:0 36:0 37:0 38:0 39:40 
0.125 1:4 2:1 3:0 4:0 5:0 6:0 7:5 8:10 9:6 10:6 11:4 12:7 13:3 14:0 15:0 16:0 17:0 18:0 19:0 20:0 21:0 22:0 23:4 24:5 25:3 26:3 27:1 28:4 29:4 30:4 31:2 32:5 33:6 34:5 35:0 36:0 37:0 38:0 39:46 
0.125 1:0 2:0 3:0 4:0 5:0 6:4 7:9 8:6 9:6 10:5 11:8 12:2 13:0 14:0 15:0 16:0 17:0 18:0 19:0 20:0 21:3 22:5 23:3 24:2 25:2 26:3 27:5 28:3 29:4 30:3 31:4 32:3 33:0 34:0 35:0 36:0 37:0 38:0 39:40 
0.125 1:0 2:0 3:0 4:4 5:9 6:6 7:6 8:6 9:8 10:4 11:0 12:0 13:0 14:0 15:0 16:0 17:0 18:0 19:0 20:0 21:0 22:0 23:0 24:3 25:5 26:3 27:3 28:3 29:3 30:5 31:3 32:4 33:4 34:5 35:2 36:0 37:0 38:0 39:43 
0.125 1:4 2:3 3:8 4:0 5:0 6:4 7:10 8:6 9:6 10:6 11:9 12:3 13:0 14:0 15:0 16:0 17:0 18:0 19:0 20:3 21:2 22:7 23:7 24:4 25:3 26:2 27:5 28:6 29:4 30:5 31:3 32:5 33:3 34:0 35:0 36:0 37:0 38:0 39:59 
0.125 1:0 2:0 3:0 4:0 5:2 6:10 7:6 8:6 9:6 10:8 11:3 12:1 13:0 14:0 15:0 16:0 17:0 18:0 19:0 20:0 21:0 22:0 23:3 24:5 25:2 26:3 27:2 28:4 29:6 30:2 31:4 32:3 33:5 34:3 35:0 36:0 37:0 38:0 39:42 
0.125 1:0 2:0 3:0 4:0 5:0 6:5 7:7 8:5 9:5 10:6 11:6 12:4 13:0 14:0 15:0 16:0 17:0 18:0 19:0 20:0 21:1 22:4 23:2 24:4 25:1 26:3 27:5 28:4 29:2 30:4 31:5 32:3 33:0 34:0 35:0 36:0 37:0 38:0 39:38 
-0.125 1:0 2:0 3:0 4:3 5:5 6:5 7:5 8:5 9:6 10:0 11:0 12:0 13:0 14:0 15:0 16:0 17:0 18:0 19:0 20:0 21:0 22:0 23:0 24:0 25:3 26:4 27:2 28:2 29:4 30:3 31:2 32:6 33:3 34:0 35:0 36:0 37:0 38:0 39:29 
-0.125 1:0 2:0 3:0 4:0 5:0 6:0 7:3 8:6 9:4 10:4 11:3 12:6 13:1 14:0 15:0 16:0 17:0 18:0 19:0 20:0 21:0 22:0 23:0 24:0 25:3 26:3 27:2 28:1 29:5 30:3 31:2 32:5 33:3 34:0 35:0 36:0 37:0 38:0 39:27 
-0.125 1:0 2:0 3:0 4:0 5:0 6:3 7:6 8:3 9:5 10:4 11:8 12:1 13:0 14:0 15:0 16:0 17:0 18:0 19:0 20:0 21:0 22:0 23:3 24:5 25:2 26:3 27:4 28:3 29:2 30:5 31:3 32:0 33:0 34:0 35:0 36:0 37:0 38:0 39:30 
-0.125 1:0 2:0 3:0 4:0 5:4 6:6 7:5 8:5 9:6 10:8 11:1 12:0 13:0 14:0 15:0 16:0 17:0 18:0 19:0 20:0 21:0 22:0 23:0 24:0 25:0 26:3 27:5 28:3 29:3 30:5 31:3 32:2 33:6 34:4 35:1 36:0 37:0 38:0 39:35 
-0.125 1:0 2:0 3:0 4:0 5:0 6:4 7:7 8:5 9:5 10:5 11:8 12:1 13:0 14:0 15:0 16:0 17:0 18:0 19:0 20:0 21:0 22:0 23:0 24:0 25:0 26:3 27:5 28:3 29:3 30:5 31:3 32:3 33:6 34:4 35:0 36:0 37:0 38:0 39:35 
-0.125 1:0 2:0 3:0 4:0 5:3 6:6 7:4 8:4 9:5 10:8 11:2 12:0 13:0 14:0 15:0 16:0 17:0 18:0 19:0 20:0 21:0 22:0 23:0 24:0 25:0 26:0 27:2 28:5 29:3 30:4 31:5 32:3 33:1 34:5 35:4 36:0 37:0 38:0 39:32 
-0.125 1:0 2:0 3:0 4:0 5:0 6:0 7:4 8:6 9:5 10:5 11:5 12:6 13:1 14:0 15:0 16:0 17:0 18:0 19:0 20:0 21:0 22:0 23:0 24:0 25:0 26:0 27:3 28:5 29:3 30:1 31:4 32:4 33:2 34:6 35:4 36:0 37:0 38:0 39:32 
-0.125 1:0 2:0 3:0 4:0 5:0 6:0 7:2 8:6 9:5 10:5 11:5 12:6 13:1 14:0 15:0 16:0 17:0 18:0 19:0 20:0 21:0 22:0 23:0 24:0 25:3 26:4 27:2 28:4 29:5 30:3 31:2 32:3 33:4 34:0 35:0 36:0 37:0 38:0 39:30 
-0.125 1:0 2:0 3:0 4:3 5:4 6:5 7:5 8:5 9:7 10:1 11:0 12:0 13:0 14:0 15:0 16:0 17:0 18:0 19:0 20:0 21:0 22:0 23:3 24:4 25:3 26:3 27:4 28:3 29:3 30:5 31:2 32:0 33:0 34:0 35:0 36:0 37:0 38:0 39:30 
-0.125 1:0 2:0 3:0 4:4 5:6 6:5 7:5 8:5 9:5 10:1 11:0 12:0 13:0 14:0 15:0 16:0 17:0 18:0 19:0 20:0 21:0 22:0 23:0 24:3 25:5 26:3 27:3 28:4 29:3 30:1 31:6 32:3 33:0 34:0 35:0 36:0 37:0 38:0 39:31 
-0.125 1:0 2:0 3:0 4:0 5:2 6:6 7:3 8:5 9:5 10:7 11:0 12:0 13:0 14:0 15:0 16:0 17:0 18:0 19:0 20:0 21:0 22:0 23:0 24:2 25:5 26:2 27:3 28:5 29:3 30:1 31:6 32:1 33:0 34:0 35:0 36:0 37:0 38:0 39:28 
-0.125 1:0 2:0 3:0 4:0 5:0 6:0 7:3 8:5 9:5 10:5 11:5 12:8 13:2 14:0 15:0 16:0 17:0 18:0 19:0 20:0 21:0 22:0 23:0 24:0 25:0 26:0 27:3 28:5 29:3 30:3 31:5 32:3 33:2 34:5 35:4 36:0 37:0 38:0 39:33 
-0.125 1:0 2:0 3:2 4:4 5:5 6:5 7:3 8:5 9:6 10:1 11:0 12:0 13:0 14:0 15:0 16:0 17:0 18:0 19:0 20:0 21:0 22:0 23:0 24:0 25:0 26:0 27:3 28:5 29:3 30:2 31:4 32:3 33:1 34:6 35:4 36:0 37:0 38:0 39:31 
-0.125 1:0 2:0 3:0 4:0 5:0 6:3 7:6 8:5 9:5 10:5 11:8 12:1 13:0 14:0 15:0 16:0 17:0 18:0 19:0 20:0 21:0 22:0 23:0 24:0 25:3 26:5 27:3 28:3 29:5 30:3 31:1 32:6 33:4 34:0 35:0 36:0 37:0 38:0 39:33 
-0.125 1:1 2:0 3:0 4:0 5:0 6:3 7:6 8:5 9:5 10:5 11:7 12:1 13:0 14:0 15:0 16:0 17:0 18:0 19:0 20:0 21:0 22:0 23:0 24:0 25:0 26:3 27:6 28:2 29:3 30:5 31:3 32:2 33:6 34:3 35:0 36:0 37:0 38:0 39:33 
-0.125 1:0 2:0 3:0 4:0 5:0 6:4 7:5 8:5 9:6 10:4 11:7 12:1 13:0 14:0 15:0 16:0 17:0 18:0 19:0 20:0 21:0 22:0 23:0 24:3 25:4 26:4 27:3 28:4 29:3 30:2 31:6 32:3 33:0 34:0 35:0 36:0 37:0 38:0 39:32 
-0.125 1:0 2:0 3:0 4:0 5:0 6:0 7:3 8:6 9:5 10:5 11:6 12:8 13:1 14:0 15:0 16:0 17:0 18:0 19:0 20:0 21:0 22:0 23:0 24:0 25:3 26:5 27:2 28:3 29:5 30:3 31:3 32:6 33:4 34:0 35:0 36:0 37:0 38:0 39:34 
-0.125 1:0 2:0 3:0 4:0 5:0 6:4 7:6 8:4 9:5 10:5 11:7 12:1 13:0 14:0 15:0 16:0 17:0 18:0 19:0 20:0 21:0 22:0 23:0 24:0 25:0 26:0 27:3 28:4 29:3 30:3 31:5 32:3 33:2 34:6 35:3 36:0 37:0 38:0 39:32 
-0.125 1:0 2:0 3:0 4:0 5:3 6:5 7:5 8:4 9:5 10:8 11:2 12:0 13:0 14:0 15:0 16:0 17:0 18:0 19:0 20:0 21:0 22:0 23:0 24:0 25:3 26:5 27:2 28:4 29:5 30:2 31:2 32:5 33:4 34:0 35:0 36:0 37:0 38:0 39:32 
-0.01778214130506604 1:0 2:0 3:0 4:0 5:0 6:3 7:6 8:5 9:4 10:4 11:6 12:1 13:0 14:0 15:0 16:0 17:0 18:0 19:0 20:0 21:0 22:0 23:0 24:0 25:3 26:4 27:2 28:3 29:4 30:2 31:1 32:6 33:4 34:0 35:0 36:0 37:0 38:0 39:29 
-0.125 1:0 2:0 3:0 4:4 5:5 6:5 7:5 8:4 9:8 10:2 11:0 12:0 13:0 14:0 15:0 16:0 17:0 18:0 19:0 20:0 21:0 22:0 23:0 24:0 25:3 26:4 27:3 28:3 29:6 30:2 31:2 32:6 33:4 34:0 35:0 36:0 37:0 38:0 39:33 
-0.125 1:0 2:0 3:0 4:0 5:0 6:4 7:5 8:5 9:4 10:3 11:8 12:1 13:0 14:0 15:0 16:0 17:0 18:0 19:0 20:0 21:0 22:0 23:4 24:4 25:2 26:3 27:5 28:3 29:2 30:4 31:3 32:0 33:0 34:0 35:0 36:0 37:0 38:0 39:30 
-0.125 1:0 2:0 3:0 4:3 5:7 6:5 7:5 8:5 9:6 10:1 11:1 12:0 13:0 14:0 15:0 16:0 17:0 18:0 19:0 20:0 21:0 22:0 23:0 24:0 25:1 26:3 27:5 28:3 29:3 30:4 31:2 32:2 33:6 34:4 35:0 36:0 37:0 38:0 39:33 
-0.125 1:0 2:0 3:0 4:0 5:3 6:5 7:5 8:5 9:5 10:8 11:1 12:0 13:0 14:0 15:0 16:0 17:0 18:0 19:0 20:0 21:0 22:0 23:3 24:5 25:2 26:3 27:5 28:2 29:2 30:6 31:4 32:0 33:0 34:0 35:0 36:0 37:0 38:0 39:32 
-0.125 1:0 2:0 3:0 4:0 5:2 6:7 7:5 8:5 9:5 10:8 11:1 12:0 13:0 14:0 15:0 16:0 17:0 18:0 19:0 20:0 21:0 22:0 23:3 24:5 25:2 26:3 27:5 28:3 29:2 30:6 31:4 32:0 33:0 34:0 35:0 36:0 37:0 38:0 39:33 
-0.125 1:0 2:0 3:0 4:0 5:0 6:0 7:3 8:6 9:4 10:5 11:4 12:6 13:0 14:0 15:0 16:0 17:0 18:0 19:0 20:0 21:0 22:0 23:0 24:0 25:3 26:4 27:2 28:3 29:4 30:3 31:2 32:5 33:2 34:0 35:0 36:0 37:0 38:0 39:28 
-0.125 1:0 2:0 3:0 4:0 5:3 6:6 7:5 8:4 9:4 10:8 11:1 12:0 13:0 14:0 15:0 16:0 17:0 18:0 19:0 20:0 21:0 22:0 23:3 24:4 25:2 26:3 27:5 28:3 29:2 30:5 31:4 32:0 33:0 34:0 35:0 36:0 37:0 38:0 39:31 
-0.09361881801039865 1:0 2:0 3:0 4:0 5:4 6:6 7:4 8:4 9:5 10:7 11:1 12:0 13:0 14:0 15:0 16:0 17:0 18:0 19:0 20:0 21:0 22:0 23:0 24:0 25:0 26:0 27:3 28:5 29:3 30:3 31:2 32:3 33:2 34:6 35:4 36:0 37:0 38:0 39:31 
-0.125 1:0 2:0 3:0 4:4 5:6 6:5 7:5 8:4 9:8 10:1 11:0 12:0 13:0 14:0 15:0 16:0 17:0 18:0 19:0 20:0 21:0 22:0 23:3 24:4 25:3 26:3 27:5 28:3 29:2 30:6 31:4 32:0 33:0 34:0 35:0 36:0 37:0 38:0 39:33 
-0.125 1:0 2:0 3:0 4:4 5:6 6:6 7:4 8:4 9:7 10:1 11:0 12:0 13:0 14:0 15:0 16:0 17:0 18:0 19:0 20:0 21:0 22:0 23:0 24:0 25:0 26:0 27:3 28:4 29:3 30:3 31:4 32:3 33:2 34:6 35:4 36:0 37:0 38:0 39:32 
-0.125 1:0 2:0 3:0 4:0 5:4 6:6 7:6 8:5 9:5 10:8 11:1 12:0 13:0 14:0 15:0 16:0 17:0 18:0 19:0 20:0 21:0 22:0 23:0 24:0 25:0 26:0 27:3 28:6 29:2 30:4 31:5 32:3 33:2 34:6 35:4 36:0 37:0 38:0 39:35 
-0.125 1:11 2:0 3:0 4:0 5:0 6:3 7:5 8:5 9:4 10:4 11:8 12:1 13:0 14:0 15:0 16:0 17:0 18:0 19:0 20:1 21:1 22:1 23:0 24:1 25:1 26:4 27:6 28:3 29:3 30:4 31:4 32:2 33:6 34:4 35:0 36:0 37:0 38:0 39:41 
-0.125 1:0 2:0 3:0 4:4 5:5 6:5 7:5 8:5 9:8 10:1 11:0 12:0 13:0 14:0 15:0 16:0 17:0 18:0 19:0 20:0 21:0 22:0 23:0 24:0 25:0 26:0 27:4 28:5 29:1 30:3 31:5 32:3 33:2 34:6 35:4 36:0 37:0 38:0 39:33 
-0.125 1:0 2:0 3:0 4:0 5:0 6:4 7:6 8:5 9:5 10:5 11:7 12:0 13:0 14:0 15:0 16:0 17:0 18:0 19:0 20:0 21:0 22:0 23:0 24:0 25:3 26:5 27:3 28:2 29:5 30:3 31:2 32:6 33:3 34:0 35:0 36:0 37:0 38:0 39:32 
