svm_type c_svc
kernel_type rbf
gamma 0.00012207
nr_class 2
total_sv 20
rho -0.947041
label 1 0
probA -3.2646
probB -0.219484
nr_sv 10 10
SV
32 1:0 2:0 3:0 4:0 5:0 6:0 7:7 8:9 9:1 10:1 11:2 12:9 13:6 14:1 15:2 16:1 17:0 18:0 19:0 20:0 21:0 22:0 23:0 24:0 25:0 26:0 27:6 28:7 29:4 30:4 31:4 32:4 33:3 34:3 35:4 36:0 37:0 38:0 39:39 
3.55784165535206 1:3 2:0 3:0 4:0 5:0 6:6 7:8 8:0 9:2 10:2 11:8 12:6 13:1 14:1 15:2 16:6 17:0 18:0 19:0 20:0 21:0 22:0 23:0 24:1 25:1 26:8 27:8 28:3 29:4 30:4 31:4 32:3 33:5 34:4 35:0 36:0 37:0 38:0 39:45 
10.1295700360005 1:0 2:0 3:0 4:0 5:5 6:7 7:2 8:1 9:2 10:7 11:6 12:1 13:2 14:2 15:5 16:7 17:0 18:0 19:0 20:0 21:0 22:0 23:0 24:7 25:11 26:5 27:2 28:4 29:6 30:4 31:2 32:6 33:0 34:0 35:0 36:0 37:0 38:0 39:47 
9.052910660948401 1:0 2:0 3:0 4:0 5:0 6:1 7:6 8:8 9:1 10:2 11:2 12:9 13:7 14:1 15:2 16:2 17:0 18:0 19:0 20:0 21:0 22:0 23:0 24:0 25:7 26:9 27:4 28:3 29:4 30:4 31:4 32:4 33:2 34:0 35:0 36:0 37:0 38:0 39:41 
5.770065794067224 1:5 2:0 3:0 4:0 5:0 6:3 7:8 8:1 9:2 10:2 11:8 12:6 13:1 14:2 15:1 16:6 17:0 18:0 19:0 20:0 21:0 22:0 23:0 24:6 25:8 26:4 27:6 28:3 29:6 30:3 31:5 32:4 33:0 34:0 35:0 36:0 37:0 38:0 39:45 
15.3687140492372 1:1 2:0 3:0 4:5 5:8 6:1 7:1 8:2 9:8 10:7 11:1 12:2 13:2 14:7 15:6 16:0 17:0 18:0 19:0 20:0 21:0 22:1 23:0 24:0 25:0 26:7 27:11 28:4 29:4 30:6 31:6 32:5 33:3 34:4 35:0 36:0 37:0 38:0 39:51 
24.61688955554066 1:0 2:0 3:0 4:0 5:0 6:3 7:9 8:1 9:2 10:2 11:9 12:7 13:1 14:2 15:2 16:4 17:0 18:0 19:0 20:0 21:0 22:0 23:0 24:0 25:7 26:9 27:5 28:4 29:3 30:3 31:4 32:3 33:4 34:0 35:0 36:0 37:0 38:0 39:42 
1.437441384029993 1:3 2:0 3:0 4:0 5:0 6:7 7:7 8:1 9:1 10:1 11:7 12:8 13:1 14:1 15:2 16:2 17:0 18:0 19:0 20:0 21:0 22:0 23:0 24:0 25:0 26:3 27:12 28:6 29:5 30:3 31:4 32:4 33:2 34:2 35:0 36:0 37:0 38:0 39:41 
32 1:0 2:0 3:0 4:0 5:0 6:0 7:7 8:9 9:1 10:2 11:3 12:9 13:7 14:1 15:3 16:2 17:0 18:0 19:0 20:0 21:0 22:1 23:7 24:9 25:4 26:4 27:3 28:3 29:4 30:4 31:5 32:0 33:0 34:0 35:0 36:0 37:0 38:0 39:44 
3.041058119220811 1:0 2:0 3:0 4:0 5:0 6:4 7:9 8:1 9:1 10:1 11:7 12:6 13:1 14:2 15:2 16:4 17:0 18:0 19:0 20:0 21:0 22:0 23:0 24:0 25:0 26:0 27:7 28:8 29:3 30:3 31:4 32:3 33:4 34:4 35:2 36:0 37:0 38:0 39:38 
-7.14485727442375 1:0 2:0 3:0 4:0 5:0 6:5 7:6 8:6 9:6 10:4 11:7 12:5 13:0 14:0 15:0 16:0 17:0 18:0 19:0 20:0 21:0 22:2 23:4 24:3 25:2 26:3 27:4 28:4 29:4 30:2 31:3 32:4 33:3 34:1 35:0 36:0 37:0 38:0 39:39 
-4.877398058186684 1:0 2:0 3:0 4:5 5:6 6:7 7:5 8:5 9:10 10:6 11:0 12:0 13:0 14:0 15:0 16:0 17:0 18:0 19:0 20:0 21:1 22:3 23:5 24:3 25:3 26:3 27:4 28:5 29:3 30:2 31:3 32:5 33:4 34:0 35:0 36:0 37:0 38:0 39:44 
-3.906871518672384 1:4 2:3 3:11 4:0 5:4 6:6 7:6 8:6 9:3 10:8 11:5 12:0 13:0 14:0 15:0 16:0 17:0 18:0 19:0 20:3 21:3 22:3 23:5 24:5 25:3 26:5 27:4 28:5 29:6 30:5 31:0 32:2 33:5 34:2 35:0 36:0 37:0 38:0 39:56 
-14.39080656670139 1:0 2:0 3:0 4:0 5:0 6:5 7:5 8:6 9:5 10:5 11:9 12:6 13:0 14:0 15:0 16:0 17:0 18:0 19:0 20:1 21:2 22:4 23:2 24:3 25:3 26:4 27:6 28:4 29:1 30:3 31:5 32:3 33:0 34:0 35:0 36:0 37:0 38:0 39:41 
-2.021386600390926 1:2 2:10 3:0 4:0 5:3 6:7 7:5 8:5 9:4 10:9 11:6 12:0 13:0 14:0 15:0 16:0 17:0 18:0 19:0 20:0 21:2 22:1 23:4 24:5 25:4 26:4 27:4 28:5 29:6 30:3 31:3 32:2 33:5 34:3 35:0 36:0 37:0 38:0 39:51 
-8.362738013754967 1:0 2:0 3:0 4:0 5:0 6:5 7:6 8:5 9:6 10:4 11:9 12:6 13:0 14:0 15:0 16:0 17:0 18:0 19:0 20:0 21:0 22:0 23:0 24:1 25:4 26:3 27:3 28:3 29:4 30:6 31:4 32:2 33:3 34:5 35:3 36:0 37:0 38:0 39:41 
-30.00163102207001 1:0 2:0 3:0 4:0 5:0 6:0 7:5 8:6 9:5 10:6 11:4 12:9 13:6 14:0 15:0 16:0 17:0 18:0 19:0 20:1 21:5 22:3 23:2 24:3 25:4 26:7 27:4 28:2 29:3 30:4 31:3 32:0 33:0 34:0 35:0 36:0 37:0 38:0 39:41 
-21.83787881320576 1:10 2:0 3:0 4:0 5:0 6:0 7:5 8:6 9:5 10:6 11:5 12:7 13:5 14:0 15:0 16:0 17:0 18:0 19:0 20:0 21:0 22:1 23:3 24:5 25:3 26:4 27:4 28:5 29:5 30:5 31:2 32:3 33:5 34:4 35:0 36:0 37:0 38:0 39:49 
-32 1:0 2:0 3:0 4:0 5:0 6:0 7:4 8:6 9:5 10:5 11:4 12:8 13:5 14:0 15:0 16:0 17:0 18:0 19:0 20:0 21:0 22:0 23:0 24:2 25:4 26:2 27:3 28:2 29:4 30:6 31:2 32:2 33:3 34:4 35:3 36:0 37:0 38:0 39:37 
-12.43092338699099 1:0 2:0 3:0 4:0 5:0 6:3 7:7 8:7 9:6 10:6 11:9 12:6 13:0 14:0 15:0 16:0 17:0 18:0 19:0 20:0 21:0 22:3 23:5 24:2 25:4 26:3 27:4 28:6 29:4 30:2 31:3 32:5 33:3 34:0 35:0 36:0 37:0 38:0 39:44 
