svm_type c_svc
kernel_type rbf
gamma 0.0078125
nr_class 2
total_sv 33
rho 0.45714
label 1 0
probA -4.13227
probB 0.239638
nr_sv 12 21
SV
0.2102364553680378 1:0 2:0 3:0 4:0 5:0 6:5 7:5 8:5 9:6 10:6 11:6 12:4 13:1 14:0 15:0 16:0 17:0 18:0 19:0 20:0 21:0 22:0 23:0 24:0 25:0 26:2 27:4 28:3 29:8 30:7 31:2 32:4 33:5 34:3 35:0 36:0 37:0 38:0 39:38 
0.5703003670535722 1:0 2:0 3:0 4:5 5:6 6:5 7:5 8:6 9:6 10:4 11:0 12:0 13:0 14:0 15:0 16:0 17:0 18:0 19:0 20:0 21:0 22:0 23:0 24:0 25:1 26:3 27:5 28:4 29:7 30:5 31:1 32:4 33:5 34:2 35:0 36:0 37:0 38:0 39:37 
1.78297848140326 1:0 2:0 3:0 4:0 5:0 6:0 7:4 8:6 9:6 10:6 11:6 12:6 13:3 14:0 15:0 16:0 17:0 18:0 19:0 20:0 21:0 22:0 23:0 24:0 25:0 26:3 27:5 28:4 29:7 30:6 31:1 32:4 33:4 34:3 35:0 36:0 37:0 38:0 39:37 
0.7807183664331789 1:0 2:0 3:0 4:0 5:5 6:6 7:5 8:4 9:6 10:6 11:3 12:1 13:0 14:0 15:0 16:0 17:0 18:0 19:0 20:0 21:0 22:0 23:0 24:0 25:0 26:0 27:2 28:5 29:3 30:5 31:7 32:2 33:4 34:5 35:3 36:0 37:0 38:0 39:36 
0.8350223068863448 1:0 2:0 3:0 4:0 5:0 6:5 7:4 8:5 9:6 10:5 11:6 12:3 13:0 14:0 15:0 16:0 17:0 18:0 19:0 20:0 21:0 22:1 23:2 24:5 25:4 26:3 27:6 28:1 29:4 30:5 31:3 32:0 33:0 34:0 35:0 36:0 37:0 38:0 39:34 
2 1:0 2:0 3:0 4:0 5:0 6:0 7:5 8:6 9:6 10:6 11:6 12:5 13:4 14:0 15:0 16:0 17:0 18:0 19:0 20:0 21:0 22:0 23:3 24:5 25:4 26:6 27:7 28:1 29:4 30:5 31:3 32:0 33:0 34:0 35:0 36:0 37:0 38:0 39:38 
1.328110523614897 1:0 2:0 3:0 4:0 5:0 6:5 7:6 8:6 9:5 10:6 11:6 12:3 13:0 14:0 15:0 16:0 17:0 18:0 19:0 20:0 21:0 22:0 23:0 24:0 25:2 26:5 27:4 28:7 29:6 30:1 31:4 32:5 33:3 34:0 35:0 36:0 37:0 38:0 39:37 
0.2809409605190028 1:0 2:0 3:0 4:3 5:5 6:5 7:6 8:6 9:5 10:3 11:0 12:0 13:0 14:0 15:0 16:0 17:0 18:0 19:0 20:0 21:0 22:0 23:0 24:2 25:5 26:2 27:7 28:7 29:2 30:0 31:5 32:3 33:0 34:0 35:0 36:0 37:0 38:0 39:33 
1.483240458097875 1:0 2:0 3:0 4:0 5:0 6:6 7:5 8:6 9:4 10:6 11:6 12:4 13:0 14:0 15:0 16:0 17:0 18:0 19:0 20:0 21:0 22:0 23:3 24:4 25:4 26:7 27:6 28:1 29:4 30:5 31:3 32:0 33:0 34:0 35:0 36:0 37:0 38:0 39:37 
2 1:0 2:0 3:0 4:0 5:0 6:5 7:7 8:6 9:5 10:5 11:6 12:4 13:0 14:0 15:0 16:0 17:0 18:0 19:0 20:0 21:0 22:0 23:0 24:0 25:0 26:0 27:2 28:5 29:4 30:7 31:6 32:2 33:4 34:5 35:3 36:0 37:0 38:0 39:38 
1.443300700690583 1:0 2:0 3:0 4:0 5:5 6:6 7:6 8:6 9:6 10:6 11:3 12:0 13:0 14:0 15:0 16:0 17:0 18:0 19:0 20:0 21:0 22:0 23:0 24:3 25:5 26:4 27:6 28:7 29:1 30:4 31:5 32:3 33:0 34:0 35:0 36:0 37:0 38:0 39:38 
1.045803183587354 1:0 2:0 3:0 4:5 5:6 6:6 7:6 8:6 9:6 10:4 11:0 12:0 13:0 14:0 15:0 16:0 17:0 18:0 19:0 20:0 21:0 22:0 23:3 24:5 25:4 26:7 27:7 28:1 29:4 30:5 31:3 32:0 33:0 34:0 35:0 36:0 37:0 38:0 39:39 
-0.09468277832563649 1:0 2:0 3:0 4:0 5:0 6:5 7:5 8:5 9:6 10:5 11:10 12:5 13:0 14:0 15:0 16:0 17:0 18:0 19:0 20:0 21:0 22:0 23:3 24:5 25:2 26:2 27:3 28:4 29:6 30:4 31:2 32:3 33:5 34:2 35:0 36:0 37:0 38:0 39:41 
-0.384927554569758 1:3 2:11 3:0 4:5 5:6 6:5 7:5 8:4 9:9 10:6 11:0 12:0 13:0 14:0 15:0 16:0 17:0 18:0 19:0 20:2 21:5 22:5 23:5 24:6 25:5 26:5 27:5 28:3 29:4 30:5 31:3 32:1 33:0 34:0 35:0 36:0 37:0 38:0 39:54 
-2 1:0 2:0 3:0 4:0 5:0 6:5 7:6 8:6 9:6 10:4 11:7 12:5 13:0 14:0 15:0 16:0 17:0 18:0 19:0 20:0 21:0 22:2 23:4 24:3 25:2 26:3 27:4 28:4 29:4 30:2 31:3 32:4 33:3 34:1 35:0 36:0 37:0 38:0 39:39 
-0.5247959580600948 1:0 2:0 3:0 4:0 5:0 6:5 7:4 8:6 9:5 10:4 11:9 12:5 13:0 14:0 15:0 16:0 17:0 18:0 19:0 20:0 21:0 22:3 23:4 24:2 25:3 26:3 27:4 28:4 29:4 30:2 31:3 32:5 33:1 34:0 35:0 36:0 37:0 38:0 39:38 
-0.1609370271811088 1:0 2:0 3:0 4:0 5:0 6:3 7:5 8:4 9:6 10:5 11:8 12:6 13:0 14:0 15:0 16:0 17:0 18:0 19:0 20:3 21:5 22:2 23:3 24:2 25:4 26:5 27:4 28:2 29:2 30:3 31:2 32:0 33:0 34:0 35:0 36:0 37:0 38:0 39:37 
-0.6618809999000401 1:0 2:0 3:0 4:5 5:6 6:7 7:5 8:5 9:10 10:6 11:0 12:0 13:0 14:0 15:0 16:0 17:0 18:0 19:0 20:0 21:1 22:3 23:5 24:3 25:3 26:3 27:4 28:5 29:3 30:2 31:3 32:5 33:4 34:0 35:0 36:0 37:0 38:0 39:44 
-1.200033930854262 1:0 2:0 3:0 4:0 5:5 6:5 7:6 8:5 9:5 10:8 11:3 12:0 13:0 14:0 15:0 16:0 17:0 18:0 19:0 20:3 21:5 22:3 23:2 24:2 25:3 26:5 27:3 28:1 29:3 30:4 31:3 32:0 33:0 34:0 35:0 36:0 37:0 38:0 39:37 
-0.3465238605663984 1:4 2:3 3:11 4:0 5:4 6:6 7:6 8:6 9:3 10:8 11:5 12:0 13:0 14:0 15:0 16:0 17:0 18:0 19:0 20:3 21:3 22:3 23:5 24:5 25:3 26:5 27:4 28:5 29:6 30:5 31:0 32:2 33:5 34:2 35:0 36:0 37:0 38:0 39:56 
-0.1317474359581469 1:2 2:10 3:0 4:0 5:3 6:7 7:5 8:5 9:4 10:9 11:6 12:0 13:0 14:0 15:0 16:0 17:0 18:0 19:0 20:0 21:2 22:1 23:4 24:5 25:4 26:4 27:4 28:5 29:6 30:3 31:3 32:2 33:5 34:3 35:0 36:0 37:0 38:0 39:51 
-0.4098675999600283 1:4 2:3 3:10 4:0 5:0 6:0 7:4 8:5 9:6 10:6 11:5 12:8 13:4 14:0 15:0 16:0 17:0 18:0 19:0 20:3 21:8 22:6 23:5 24:6 25:4 26:7 27:4 28:1 29:1 30:6 31:4 32:0 33:0 34:0 35:0 36:0 37:0 38:0 39:55 
-1.068300624167872 1:0 2:0 3:0 4:0 5:0 6:5 7:6 8:4 9:5 10:5 11:9 12:5 13:0 14:0 15:0 16:0 17:0 18:0 19:0 20:0 21:0 22:0 23:0 24:3 25:5 26:3 27:3 28:2 29:4 30:5 31:4 32:2 33:2 34:4 35:2 36:0 37:0 38:0 39:39 
-0.5777342826736432 1:0 2:0 3:0 4:0 5:0 6:5 7:6 8:5 9:6 10:4 11:9 12:6 13:0 14:0 15:0 16:0 17:0 18:0 19:0 20:0 21:0 22:0 23:0 24:1 25:4 26:3 27:3 28:3 29:4 30:6 31:4 32:2 33:3 34:5 35:3 36:0 37:0 38:0 39:41 
-0.06970972912522577 1:0 2:0 3:0 4:0 5:0 6:0 7:3 8:6 9:5 10:6 11:5 12:10 13:4 14:0 15:0 16:0 17:0 18:0 19:0 20:0 21:3 22:5 23:3 24:3 25:3 26:2 27:6 28:4 29:1 30:2 31:5 32:2 33:0 34:0 35:0 36:0 37:0 38:0 39:39 
-0.3089137039545486 1:0 2:0 3:0 4:0 5:0 6:5 7:6 8:5 9:5 10:5 11:9 12:5 13:0 14:0 15:0 16:0 17:0 18:0 19:0 20:3 21:2 22:3 23:3 24:3 25:4 26:6 27:4 28:1 29:3 30:5 31:3 32:0 33:0 34:0 35:0 36:0 37:0 38:0 39:40 
-0.6284349825691889 1:0 2:0 3:0 4:0 5:0 6:0 7:5 8:6 9:5 10:6 11:4 12:9 13:6 14:0 15:0 16:0 17:0 18:0 19:0 20:1 21:5 22:3 23:2 24:3 25:4 26:7 27:4 28:2 29:3 30:4 31:3 32:0 33:0 34:0 35:0 36:0 37:0 38:0 39:41 
-0.2742744745852584 1:10 2:0 3:0 4:0 5:0 6:0 7:5 8:6 9:5 10:6 11:5 12:7 13:5 14:0 15:0 16:0 17:0 18:0 19:0 20:0 21:0 22:1 23:3 24:5 25:3 26:4 27:4 28:5 29:5 30:5 31:2 32:3 33:5 34:4 35:0 36:0 37:0 38:0 39:49 
-2 1:0 2:0 3:0 4:0 5:0 6:0 7:4 8:6 9:5 10:5 11:4 12:8 13:5 14:0 15:0 16:0 17:0 18:0 19:0 20:0 21:0 22:0 23:0 24:2 25:4 26:2 27:3 28:2 29:4 30:6 31:2 32:2 33:3 34:4 35:3 36:0 37:0 38:0 39:37 
-0.2730672827783575 1:12 2:0 3:0 4:0 5:4 6:6 7:6 8:6 9:4 10:10 11:5 12:0 13:0 14:0 15:0 16:0 17:0 18:0 19:0 20:1 21:1 22:4 23:6 24:4 25:4 26:3 27:5 28:6 29:5 30:3 31:3 32:5 33:3 34:0 35:0 36:0 37:0 38:0 39:53 
-0.8845911397042334 1:0 2:0 3:0 4:0 5:5 6:6 7:5 8:5 9:5 10:10 11:4 12:0 13:0 14:0 15:0 16:0 17:0 18:0 19:0 20:0 21:1 22:5 23:3 24:3 25:3 26:3 27:6 28:4 29:1 30:3 31:5 32:3 33:0 34:0 35:0 36:0 37:0 38:0 39:40 
-0.332875332737656 1:0 2:0 3:0 4:0 5:0 6:4 7:4 8:6 9:6 10:4 11:9 12:5 13:0 14:0 15:0 16:0 17:0 18:0 19:0 20:3 21:5 22:2 23:3 24:3 25:3 26:6 27:3 28:1 29:3 30:4 31:2 32:0 33:0 34:0 35:0 36:0 37:0 38:0 39:38 
-1.427353105982649 1:0 2:0 3:0 4:0 5:5 6:4 7:6 8:6 9:5 10:10 11:4 12:0 13:0 14:0 15:0 16:0 17:0 18:0 19:0 20:0 21:0 22:0 23:0 24:3 25:5 26:3 27:3 28:2 29:4 30:5 31:4 32:1 33:2 34:5 35:3 36:0 37:0 38:0 39:40 
