svm_type c_svc
kernel_type rbf
gamma 0.00012207
nr_class 2
total_sv 20
rho -0.376037
label 1 0
probA -3.11032
probB -0.059075
nr_sv 10 10
SV
1.259913380836002 1:0 2:0 3:0 4:0 5:0 6:6 7:8 8:1 9:2 10:2 11:2 12:9 13:0 14:0 15:0 16:0 17:0 18:0 19:0 20:0 21:0 22:0 23:0 24:0 25:3 26:2 27:3 28:2 29:3 30:3 31:5 32:6 33:3 34:0 35:0 36:0 37:0 38:0 39:30 
8 1:0 2:0 3:0 4:0 5:0 6:0 7:6 8:8 9:2 10:2 11:1 12:1 13:9 14:0 15:0 16:0 17:0 18:0 19:0 20:0 21:0 22:0 23:3 24:2 25:3 26:3 27:3 28:3 29:3 30:6 31:3 32:0 33:0 34:0 35:0 36:0 37:0 38:0 39:29 
8 1:0 2:0 3:0 4:0 5:0 6:6 7:8 8:2 9:2 10:1 11:2 12:9 13:1 14:0 15:0 16:0 17:0 18:0 19:0 20:0 21:0 22:0 23:0 24:0 25:3 26:3 27:3 28:3 29:2 30:3 31:4 32:7 33:3 34:0 35:0 36:0 37:0 38:0 39:31 
8 1:7 2:1 3:0 4:0 5:0 6:0 7:6 8:5 9:2 10:2 11:1 12:3 13:8 14:1 15:0 16:0 17:0 18:0 19:0 20:0 21:0 22:0 23:4 24:3 25:4 26:3 27:6 28:3 29:4 30:6 31:3 32:0 33:0 34:0 35:0 36:0 37:0 38:0 39:36 
5.315872179703614 1:0 2:0 3:0 4:5 5:8 6:3 7:1 8:1 9:2 10:9 11:0 12:0 13:0 14:0 15:0 16:0 17:0 18:0 19:0 20:0 21:0 22:0 23:0 24:0 25:3 26:2 27:3 28:3 29:3 30:3 31:4 32:6 33:2 34:0 35:0 36:0 37:0 38:0 39:29 
7.901974687137768 1:0 2:0 3:0 4:0 5:5 6:7 7:2 8:2 9:1 10:2 11:8 12:0 13:0 14:0 15:0 16:1 17:0 18:0 19:0 20:0 21:0 22:0 23:0 24:3 25:4 26:2 27:3 28:2 29:3 30:3 31:6 32:2 33:0 34:0 35:0 36:0 37:0 38:0 39:28 
8 1:0 2:0 3:0 4:0 5:0 6:7 7:8 8:2 9:2 10:1 11:2 12:9 13:0 14:0 15:0 16:0 17:0 18:0 19:0 20:0 21:0 22:1 23:3 24:3 25:3 26:3 27:3 28:3 29:3 30:6 31:3 32:0 33:0 34:0 35:0 36:0 37:0 38:0 39:31 
8 1:0 2:0 3:0 4:0 5:5 6:8 7:2 8:2 9:2 10:3 11:9 12:0 13:0 14:0 15:0 16:0 17:0 18:0 19:0 20:0 21:0 22:0 23:0 24:0 25:0 26:3 27:3 28:2 29:3 30:2 31:4 32:4 33:6 34:4 35:0 36:0 37:0 38:0 39:31 
0.2386275057174954 1:0 2:0 3:0 4:0 5:0 6:0 7:5 8:8 9:2 10:2 11:1 12:2 13:9 14:0 15:0 16:0 17:0 18:0 19:0 20:0 21:0 22:0 23:0 24:3 25:3 26:3 27:3 28:2 29:3 30:3 31:6 32:3 33:0 34:0 35:0 36:0 37:0 38:0 39:29 
8 1:0 2:0 3:0 4:0 5:1 6:7 7:7 8:2 9:2 10:1 11:2 12:9 13:1 14:0 15:0 16:0 17:0 18:1 19:1 20:0 21:0 22:0 23:0 24:0 25:0 26:3 27:2 28:3 29:2 30:3 31:4 32:4 33:6 34:3 35:0 36:0 37:0 38:0 39:32 
-8 1:0 2:0 3:0 4:0 5:0 6:5 7:6 8:6 9:6 10:4 11:7 12:5 13:0 14:0 15:0 16:0 17:0 18:0 19:0 20:0 21:0 22:2 23:4 24:3 25:2 26:3 27:4 28:4 29:4 30:2 31:3 32:4 33:3 34:1 35:0 36:0 37:0 38:0 39:39 
-8 1:0 2:0 3:0 4:0 5:0 6:5 7:4 8:6 9:5 10:4 11:9 12:5 13:0 14:0 15:0 16:0 17:0 18:0 19:0 20:0 21:0 22:3 23:4 24:2 25:3 26:3 27:4 28:4 29:4 30:2 31:3 32:5 33:1 34:0 35:0 36:0 37:0 38:0 39:38 
-8 1:0 2:0 3:0 4:0 5:0 6:3 7:5 8:4 9:6 10:5 11:8 12:6 13:0 14:0 15:0 16:0 17:0 18:0 19:0 20:3 21:5 22:2 23:3 24:2 25:4 26:5 27:4 28:2 29:2 30:3 31:2 32:0 33:0 34:0 35:0 36:0 37:0 38:0 39:37 
-8 1:0 2:0 3:0 4:0 5:5 6:5 7:6 8:5 9:5 10:8 11:3 12:0 13:0 14:0 15:0 16:0 17:0 18:0 19:0 20:3 21:5 22:3 23:2 24:2 25:3 26:5 27:3 28:1 29:3 30:4 31:3 32:0 33:0 34:0 35:0 36:0 37:0 38:0 39:37 
-8 1:0 2:0 3:0 4:0 5:0 6:5 7:6 8:4 9:5 10:5 11:9 12:5 13:0 14:0 15:0 16:0 17:0 18:0 19:0 20:0 21:0 22:0 23:0 24:3 25:5 26:3 27:3 28:2 29:4 30:5 31:4 32:2 33:2 34:4 35:2 36:0 37:0 38:0 39:39 
-3.027669960169777 1:0 2:0 3:0 4:0 5:0 6:0 7:3 8:6 9:5 10:6 11:5 12:10 13:4 14:0 15:0 16:0 17:0 18:0 19:0 20:0 21:3 22:5 23:3 24:3 25:3 26:2 27:6 28:4 29:1 30:2 31:5 32:2 33:0 34:0 35:0 36:0 37:0 38:0 39:39 
-8 1:0 2:0 3:0 4:0 5:0 6:0 7:4 8:6 9:5 10:5 11:4 12:8 13:5 14:0 15:0 16:0 17:0 18:0 19:0 20:0 21:0 22:0 23:0 24:2 25:4 26:2 27:3 28:2 29:4 30:6 31:2 32:2 33:3 34:4 35:3 36:0 37:0 38:0 39:37 
-0.5570328937069 1:0 2:0 3:0 4:0 5:5 6:6 7:5 8:5 9:5 10:10 11:4 12:0 13:0 14:0 15:0 16:0 17:0 18:0 19:0 20:0 21:1 22:5 23:3 24:3 25:3 26:3 27:6 28:4 29:1 30:3 31:5 32:3 33:0 34:0 35:0 36:0 37:0 38:0 39:40 
-6.044275272810663 1:0 2:0 3:0 4:0 5:0 6:4 7:5 8:6 9:5 10:5 11:8 12:6 13:0 14:0 15:0 16:0 17:0 18:0 19:0 20:0 21:0 22:2 23:5 24:3 25:3 26:3 27:4 28:4 29:3 30:2 31:2 32:5 33:3 34:0 35:0 36:0 37:0 38:0 39:39 
-5.08740962670754 1:0 2:0 3:0 4:0 5:5 6:4 7:6 8:6 9:5 10:10 11:4 12:0 13:0 14:0 15:0 16:0 17:0 18:0 19:0 20:0 21:0 22:0 23:0 24:3 25:5 26:3 27:3 28:2 29:4 30:5 31:4 32:1 33:2 34:5 35:3 36:0 37:0 38:0 39:40 
