svm_type c_svc
kernel_type rbf
gamma 0.00012207
nr_class 2
total_sv 17
rho 0.471224
label 0 1
probA -3.08193
probB 0.148549
nr_sv 9 8
SV
8.476943112383632 1:3 2:11 3:0 4:5 5:6 6:5 7:5 8:4 9:9 10:6 11:0 12:0 13:0 14:0 15:0 16:0 17:0 18:0 19:0 20:2 21:5 22:5 23:5 24:6 25:5 26:5 27:5 28:3 29:4 30:5 31:3 32:1 33:0 34:0 35:0 36:0 37:0 38:0 39:54 
24.28712063270043 1:0 2:0 3:0 4:0 5:5 6:7 7:6 8:6 9:5 10:8 11:6 12:0 13:0 14:0 15:0 16:0 17:0 18:0 19:0 20:3 21:5 22:3 23:3 24:4 25:4 26:5 27:4 28:1 29:3 30:5 31:3 32:0 33:0 34:0 35:0 36:0 37:0 38:0 39:43 
32 1:0 2:0 3:0 4:5 5:6 6:7 7:5 8:5 9:10 10:6 11:0 12:0 13:0 14:0 15:0 16:0 17:0 18:0 19:0 20:0 21:1 22:3 23:5 24:3 25:3 26:3 27:4 28:5 29:3 30:2 31:3 32:5 33:4 34:0 35:0 36:0 37:0 38:0 39:44 
6.81638264078681 1:4 2:3 3:11 4:0 5:4 6:6 7:6 8:6 9:3 10:8 11:5 12:0 13:0 14:0 15:0 16:0 17:0 18:0 19:0 20:3 21:3 22:3 23:5 24:5 25:3 26:5 27:4 28:5 29:6 30:5 31:0 32:2 33:5 34:2 35:0 36:0 37:0 38:0 39:56 
15.53595693764663 1:4 2:3 3:10 4:0 5:0 6:0 7:4 8:5 9:6 10:6 11:5 12:8 13:4 14:0 15:0 16:0 17:0 18:0 19:0 20:3 21:8 22:6 23:5 24:6 25:4 26:7 27:4 28:1 29:1 30:6 31:4 32:0 33:0 34:0 35:0 36:0 37:0 38:0 39:55 
27.0822602193971 1:0 2:0 3:0 4:0 5:0 6:5 7:6 8:5 9:6 10:4 11:9 12:6 13:0 14:0 15:0 16:0 17:0 18:0 19:0 20:0 21:0 22:0 23:0 24:1 25:4 26:3 27:3 28:3 29:4 30:6 31:4 32:2 33:3 34:5 35:3 36:0 37:0 38:0 39:41 
10.14275617608532 1:0 2:0 3:0 4:0 5:0 6:0 7:5 8:6 9:5 10:6 11:4 12:9 13:6 14:0 15:0 16:0 17:0 18:0 19:0 20:1 21:5 22:3 23:2 24:3 25:4 26:7 27:4 28:2 29:3 30:4 31:3 32:0 33:0 34:0 35:0 36:0 37:0 38:0 39:41 
19.22128324980045 1:10 2:0 3:0 4:0 5:0 6:0 7:5 8:6 9:5 10:6 11:5 12:7 13:5 14:0 15:0 16:0 17:0 18:0 19:0 20:0 21:0 22:1 23:3 24:5 25:3 26:4 27:4 28:5 29:5 30:5 31:2 32:3 33:5 34:4 35:0 36:0 37:0 38:0 39:49 
4.168215484464271 1:0 2:0 3:0 4:0 5:0 6:0 7:4 8:6 9:5 10:5 11:4 12:8 13:5 14:0 15:0 16:0 17:0 18:0 19:0 20:0 21:0 22:0 23:0 24:2 25:4 26:2 27:3 28:2 29:4 30:6 31:2 32:2 33:3 34:4 35:3 36:0 37:0 38:0 39:37 
-26.88937318606758 1:0 2:0 3:0 4:0 5:0 6:0 7:7 8:8 9:4 10:2 11:3 12:4 13:3 14:4 15:8 16:3 17:0 18:0 19:0 20:6 21:5 22:3 23:3 24:2 25:3 26:4 27:3 28:2 29:3 30:8 31:4 32:0 33:0 34:0 35:0 36:0 37:0 38:0 39:46 
-7.368586549652396 1:1 2:0 3:0 4:0 5:5 6:11 7:4 8:4 9:4 10:4 11:3 12:4 13:7 14:0 15:0 16:0 17:0 18:0 19:0 20:6 21:7 22:3 23:3 24:2 25:4 26:3 27:2 28:1 29:3 30:8 31:5 32:0 33:0 34:0 35:0 36:0 37:0 38:0 39:47 
-6.746791074670783 1:10 2:0 3:0 4:0 5:0 6:0 7:9 8:12 9:4 10:4 11:4 12:4 13:4 14:3 15:7 16:1 17:0 18:0 19:0 20:0 21:0 22:0 23:0 24:8 25:8 26:4 27:3 28:5 29:3 30:4 31:4 32:4 33:3 34:8 35:8 36:0 37:0 38:0 39:62 
-32 1:0 2:0 3:0 4:7 5:11 6:4 7:4 8:4 9:3 10:4 11:4 12:8 13:0 14:0 15:0 16:0 17:0 18:0 19:0 20:5 21:8 22:4 23:1 24:3 25:3 26:2 27:2 28:3 29:4 30:7 31:7 32:0 33:0 34:0 35:0 36:0 37:0 38:0 39:49 
-7.749116481447826 1:0 2:0 3:0 4:0 5:0 6:0 7:7 8:11 9:4 10:4 11:4 12:4 13:4 14:4 15:6 16:1 17:0 18:0 19:0 20:0 21:0 22:0 23:6 24:8 25:3 26:2 27:2 28:3 29:3 30:3 31:3 32:3 33:7 34:6 35:0 36:0 37:0 38:0 39:49 
-27.26410689936231 1:0 2:0 3:0 4:0 5:8 6:10 7:2 8:3 9:5 10:4 11:4 12:4 13:8 14:0 15:0 16:0 17:0 18:0 19:0 20:0 21:0 22:1 23:4 24:5 25:3 26:3 27:3 28:2 29:3 30:3 31:3 32:4 33:7 34:7 35:0 36:0 37:0 38:0 39:48 
-32 1:0 2:0 3:0 4:0 5:0 6:8 7:12 8:4 9:4 10:3 11:3 12:3 13:4 14:3 15:0 16:0 17:0 18:0 19:0 20:0 21:0 22:5 23:8 24:3 25:3 26:2 27:2 28:2 29:2 30:2 31:3 32:6 33:6 34:0 35:0 36:0 37:0 38:0 39:44 
-7.712944262063753 1:0 2:0 3:0 4:0 5:0 6:9 7:10 8:4 9:4 10:3 11:4 12:4 13:3 14:7 15:0 16:0 17:0 18:0 19:0 20:0 21:0 22:0 23:0 24:4 25:8 26:3 27:2 28:3 29:3 30:2 31:3 32:3 33:4 34:6 35:7 36:0 37:0 38:0 39:48 
