svm_type c_svc
kernel_type rbf
gamma 0.0078125
nr_class 2
total_sv 37
rho -0.0721061
label 1 0
probA -4.07783
probB -0.172209
nr_sv 16 21
SV
0.2408881698048309 1:0 2:0 3:0 4:5 5:6 6:6 7:4 8:6 9:5 10:4 11:0 12:0 13:0 14:0 15:0 16:0 17:0 18:0 19:0 20:0 21:0 22:0 23:0 24:2 25:5 26:4 27:6 28:7 29:1 30:4 31:4 32:3 33:0 34:0 35:0 36:0 37:0 38:0 39:36 
0.5 1:0 2:0 3:0 4:0 5:0 6:5 7:5 8:5 9:6 10:6 11:6 12:4 13:1 14:0 15:0 16:0 17:0 18:0 19:0 20:0 21:0 22:0 23:0 24:0 25:0 26:2 27:4 28:3 29:8 30:7 31:2 32:4 33:5 34:3 35:0 36:0 37:0 38:0 39:38 
0.5 1:0 2:0 3:0 4:5 5:6 6:5 7:5 8:6 9:6 10:4 11:0 12:0 13:0 14:0 15:0 16:0 17:0 18:0 19:0 20:0 21:0 22:0 23:0 24:0 25:1 26:3 27:5 28:4 29:7 30:5 31:1 32:4 33:5 34:2 35:0 36:0 37:0 38:0 39:37 
0.271608083162031 1:0 2:0 3:0 4:0 5:5 6:6 7:5 8:5 9:5 10:4 11:5 12:0 13:0 14:0 15:0 16:0 17:0 18:0 19:0 20:0 21:0 22:0 23:0 24:2 25:5 26:3 27:6 28:6 29:1 30:4 31:5 32:3 33:0 34:0 35:0 36:0 37:0 38:0 39:35 
0.5 1:0 2:0 3:0 4:0 5:0 6:0 7:4 8:6 9:6 10:6 11:6 12:6 13:3 14:0 15:0 16:0 17:0 18:0 19:0 20:0 21:0 22:0 23:0 24:0 25:0 26:3 27:5 28:4 29:7 30:6 31:1 32:4 33:4 34:3 35:0 36:0 37:0 38:0 39:37 
0.5 1:0 2:0 3:0 4:0 5:5 6:6 7:5 8:4 9:6 10:6 11:3 12:1 13:0 14:0 15:0 16:0 17:0 18:0 19:0 20:0 21:0 22:0 23:0 24:0 25:0 26:0 27:2 28:5 29:3 30:5 31:7 32:2 33:4 34:5 35:3 36:0 37:0 38:0 39:36 
0.5 1:0 2:0 3:0 4:0 5:1 6:4 7:5 8:6 9:6 10:6 11:5 12:4 13:0 14:0 15:0 16:0 17:0 18:0 19:0 20:0 21:0 22:0 23:3 24:5 25:4 26:6 27:6 28:1 29:4 30:5 31:3 32:0 33:0 34:0 35:0 36:0 37:0 38:0 39:37 
0.2258177257748659 1:0 2:0 3:0 4:0 5:0 6:5 7:4 8:5 9:6 10:5 11:6 12:3 13:0 14:0 15:0 16:0 17:0 18:0 19:0 20:0 21:0 22:1 23:2 24:5 25:4 26:3 27:6 28:1 29:4 30:5 31:3 32:0 33:0 34:0 35:0 36:0 37:0 38:0 39:34 
0.5 1:0 2:0 3:0 4:0 5:0 6:0 7:5 8:6 9:6 10:6 11:6 12:5 13:4 14:0 15:0 16:0 17:0 18:0 19:0 20:0 21:0 22:0 23:3 24:5 25:4 26:6 27:7 28:1 29:4 30:5 31:3 32:0 33:0 34:0 35:0 36:0 37:0 38:0 39:38 
0.5 1:0 2:0 3:0 4:0 5:0 6:5 7:6 8:6 9:5 10:6 11:6 12:3 13:0 14:0 15:0 16:0 17:0 18:0 19:0 20:0 21:0 22:0 23:0 24:0 25:2 26:5 27:4 28:7 29:6 30:1 31:4 32:5 33:3 34:0 35:0 36:0 37:0 38:0 39:37 
0.2980320794786242 1:0 2:0 3:0 4:3 5:5 6:5 7:6 8:6 9:5 10:3 11:0 12:0 13:0 14:0 15:0 16:0 17:0 18:0 19:0 20:0 21:0 22:0 23:0 24:2 25:5 26:2 27:7 28:7 29:2 30:0 31:5 32:3 33:0 34:0 35:0 36:0 37:0 38:0 39:33 
0.5 1:0 2:0 3:0 4:0 5:0 6:6 7:5 8:6 9:4 10:6 11:6 12:4 13:0 14:0 15:0 16:0 17:0 18:0 19:0 20:0 21:0 22:0 23:3 24:4 25:4 26:7 27:6 28:1 29:4 30:5 31:3 32:0 33:0 34:0 35:0 36:0 37:0 38:0 39:37 
0.4743776663332794 1:0 2:0 3:0 4:0 5:0 6:5 7:6 8:5 9:6 10:6 11:6 12:3 13:0 14:0 15:0 16:0 17:0 18:0 19:0 20:0 21:0 22:0 23:0 24:0 25:0 26:0 27:3 28:5 29:3 30:7 31:7 32:1 33:4 34:5 35:2 36:0 37:0 38:0 39:37 
0.5 1:0 2:0 3:0 4:0 5:0 6:5 7:7 8:6 9:5 10:5 11:6 12:4 13:0 14:0 15:0 16:0 17:0 18:0 19:0 20:0 21:0 22:0 23:0 24:0 25:0 26:0 27:2 28:5 29:4 30:7 31:6 32:2 33:4 34:5 35:3 36:0 37:0 38:0 39:38 
0.5 1:0 2:0 3:0 4:0 5:5 6:6 7:6 8:6 9:6 10:6 11:3 12:0 13:0 14:0 15:0 16:0 17:0 18:0 19:0 20:0 21:0 22:0 23:0 24:3 25:5 26:4 27:6 28:7 29:1 30:4 31:5 32:3 33:0 34:0 35:0 36:0 37:0 38:0 39:38 
0.5 1:0 2:0 3:0 4:5 5:6 6:6 7:6 8:6 9:6 10:4 11:0 12:0 13:0 14:0 15:0 16:0 17:0 18:0 19:0 20:0 21:0 22:0 23:3 24:5 25:4 26:7 27:7 28:1 29:4 30:5 31:3 32:0 33:0 34:0 35:0 36:0 37:0 38:0 39:39 
-0.399612788480613 1:0 2:0 3:0 4:0 5:0 6:2 7:4 8:6 9:6 10:4 11:5 12:5 13:5 14:3 15:1 16:0 17:0 18:0 19:0 20:0 21:0 22:0 23:0 24:2 25:3 26:3 27:4 28:2 29:2 30:4 31:6 32:8 33:4 34:2 35:1 36:0 37:0 38:0 39:41 
-0.5 1:0 2:0 3:0 4:0 5:2 6:4 7:6 8:5 9:4 10:5 11:7 12:3 13:3 14:1 15:0 16:0 17:0 18:0 19:0 20:3 21:3 22:2 23:4 24:2 25:3 26:3 27:6 28:8 29:3 30:2 31:1 32:0 33:0 34:0 35:0 36:0 37:0 38:0 39:40 
-0.3949592203711371 1:1 2:0 3:0 4:2 5:4 6:6 7:6 8:3 9:7 10:6 11:5 12:4 13:1 14:0 15:0 16:0 17:0 18:0 19:0 20:0 21:0 22:0 23:0 24:3 25:3 26:3 27:4 28:2 29:4 30:3 31:6 32:8 33:5 34:2 35:2 36:0 37:0 38:0 39:45 
-0.5 1:0 2:0 3:0 4:3 5:4 6:6 7:6 8:4 9:4 10:6 11:5 12:3 13:1 14:0 15:0 16:0 17:0 18:0 19:0 20:0 21:0 22:3 23:3 24:2 25:4 26:1 27:3 28:3 29:6 30:8 31:2 32:4 33:3 34:0 35:0 36:0 37:0 38:0 39:42 
-0.5 1:0 2:0 3:0 4:2 5:4 6:6 7:5 8:4 9:3 10:7 11:5 12:3 13:0 14:0 15:0 16:0 17:0 18:0 19:0 20:3 21:3 22:2 23:3 24:2 25:3 26:4 27:7 28:6 29:4 30:2 31:0 32:0 33:0 34:0 35:0 36:0 37:0 38:0 39:39 
-0.2914043967764769 1:0 2:0 3:0 4:0 5:2 6:4 7:6 8:5 9:3 10:6 11:5 12:5 13:4 14:1 15:0 16:0 17:0 18:0 19:0 20:0 21:0 22:0 23:2 24:3 25:3 26:3 27:2 28:3 29:3 30:6 31:8 32:4 33:2 34:2 35:0 36:0 37:0 38:0 39:41 
-0.2351385166801331 1:0 2:0 3:0 4:0 5:0 6:0 7:2 8:4 9:6 10:6 11:4 12:5 13:7 14:3 15:4 16:1 17:0 18:0 19:0 20:0 21:0 22:0 23:3 24:3 25:3 26:3 27:2 28:2 29:4 30:7 31:8 32:3 33:2 34:2 35:0 36:0 37:0 38:0 39:42 
-0.1650622053139818 1:1 2:0 3:0 4:0 5:0 6:2 7:3 8:4 9:6 10:4 11:4 12:6 13:5 14:4 15:2 16:0 17:0 18:0 19:0 20:0 21:0 22:0 23:0 24:2 25:3 26:3 27:3 28:2 29:3 30:2 31:5 32:8 33:4 34:3 35:3 36:0 37:0 38:0 39:41 
-0.5 1:0 2:0 3:0 4:2 5:4 6:4 7:5 8:3 9:6 10:7 11:3 12:4 13:1 14:0 15:0 16:0 17:0 18:0 19:0 20:0 21:2 22:2 23:3 24:3 25:2 26:3 27:4 28:6 29:6 30:4 31:2 32:2 33:0 34:0 35:0 36:0 37:0 38:0 39:39 
-0.5 1:0 2:0 3:0 4:3 5:3 6:4 7:5 8:4 9:4 10:6 11:5 12:4 13:1 14:0 15:0 16:0 17:0 18:0 19:0 20:0 21:0 22:0 23:0 24:3 25:3 26:2 27:4 28:1 29:2 30:2 31:7 32:8 33:3 34:2 35:2 36:0 37:0 38:0 39:39 
-0.3462452676883446 1:0 2:0 3:0 4:2 5:4 6:6 7:5 8:4 9:4 10:6 11:5 12:4 13:1 14:0 15:0 16:0 17:0 18:0 19:0 20:0 21:2 22:3 23:2 24:4 25:2 26:3 27:3 28:6 29:8 30:4 31:2 32:2 33:0 34:0 35:0 36:0 37:0 38:0 39:41 
-0.4824612233997533 1:0 2:0 3:0 4:0 5:0 6:1 7:2 8:4 9:6 10:6 11:3 12:5 13:5 14:3 15:4 16:1 17:0 18:0 19:0 20:3 21:2 22:3 23:3 24:2 25:2 26:3 27:7 28:7 29:3 30:2 31:3 32:0 33:0 34:0 35:0 36:0 37:0 38:0 39:40 
-0.01787526657725452 1:0 2:0 3:0 4:0 5:0 6:0 7:2 8:4 9:5 10:6 11:4 12:5 13:7 14:4 15:3 16:1 17:0 18:0 19:0 20:0 21:0 22:3 23:3 24:2 25:4 26:2 27:3 28:4 29:7 30:6 31:3 32:2 33:2 34:0 35:0 36:0 37:0 38:0 39:41 
-0.4492308613598139 1:0 2:0 3:0 4:0 5:1 6:3 7:5 8:6 9:3 10:5 11:5 12:5 13:4 14:2 15:0 16:0 17:0 18:0 19:0 20:3 21:2 22:3 23:3 24:3 25:2 26:1 27:8 28:8 29:3 30:1 31:2 32:0 33:0 34:0 35:0 36:0 37:0 38:0 39:39 
-0.02945403759400596 1:0 2:0 3:0 4:0 5:1 6:4 7:7 8:6 9:4 10:5 11:6 12:3 13:4 14:1 15:0 16:0 17:0 18:0 19:0 20:4 21:3 22:3 23:3 24:2 25:3 26:2 27:7 28:7 29:3 30:2 31:2 32:0 33:0 34:0 35:0 36:0 37:0 38:0 39:41 
-0.09436617173475675 1:4 2:1 3:0 4:0 5:0 6:2 7:3 8:6 9:6 10:3 11:6 12:7 13:4 14:2 15:0 16:0 17:0 18:0 19:0 20:0 21:1 22:2 23:3 24:4 25:4 26:2 27:1 28:4 29:7 30:7 31:5 32:4 33:0 34:0 35:0 36:0 37:0 38:0 39:44 
-0.5 1:0 2:0 3:0 4:0 5:2 6:4 7:5 8:4 9:4 10:5 11:6 12:4 13:3 14:2 15:0 16:0 17:0 18:0 19:0 20:0 21:0 22:0 23:2 24:3 25:2 26:1 27:2 28:3 29:4 30:7 31:7 32:3 33:3 34:2 35:0 36:0 37:0 38:0 39:39 
-0.5 1:1 2:0 3:0 4:2 5:4 6:4 7:5 8:3 9:6 10:6 11:5 12:4 13:1 14:0 15:0 16:0 17:0 18:0 19:0 20:0 21:0 22:2 23:3 24:3 25:2 26:1 27:2 28:4 29:7 30:8 31:4 32:3 33:2 34:0 35:0 36:0 37:0 38:0 39:41 
-0.3201285510226926 1:0 2:0 3:0 4:0 5:2 6:4 7:6 8:6 9:3 10:5 11:6 12:5 13:3 14:1 15:0 16:0 17:0 18:0 19:0 20:0 21:0 22:0 23:0 24:3 25:3 26:3 27:3 28:2 29:3 30:3 31:7 32:7 33:3 34:2 35:2 36:0 37:0 38:0 39:41 
-0.008915704123800662 1:0 2:0 3:0 4:0 5:1 6:3 7:2 8:6 9:6 10:3 11:6 12:6 13:4 14:4 15:1 16:1 17:0 18:0 19:0 20:0 21:0 22:0 23:0 24:3 25:3 26:3 27:4 28:2 29:3 30:2 31:6 32:8 33:2 34:3 35:4 36:0 37:0 38:0 39:43 
-0.2758695134308673 1:0 2:1 3:2 4:1 5:0 6:0 7:2 8:4 9:5 10:4 11:4 12:6 13:6 14:4 15:4 16:2 17:0 18:2 19:0 20:0 21:0 22:2 23:3 24:3 25:3 26:2 27:2 28:3 29:8 30:8 31:4 32:3 33:2 34:0 35:0 36:0 37:0 38:0 39:45 
