svm_type c_svc
kernel_type rbf
gamma 0.0078125
nr_class 2
total_sv 39
rho 0.559488
label 0 1
probA -4.0116
probB 0.167055
nr_sv 18 21
SV
0.5 1:1 2:0 3:0 4:2 5:4 6:6 7:6 8:3 9:7 10:6 11:5 12:4 13:1 14:0 15:0 16:0 17:0 18:0 19:0 20:0 21:0 22:0 23:0 24:3 25:3 26:3 27:4 28:2 29:4 30:3 31:6 32:8 33:5 34:2 35:2 36:0 37:0 38:0 39:45 
0.5 1:0 2:0 3:0 4:3 5:4 6:6 7:6 8:4 9:4 10:6 11:5 12:3 13:1 14:0 15:0 16:0 17:0 18:0 19:0 20:0 21:0 22:3 23:3 24:2 25:4 26:1 27:3 28:3 29:6 30:8 31:2 32:4 33:3 34:0 35:0 36:0 37:0 38:0 39:42 
0.2028612004706916 1:0 2:0 3:0 4:1 5:4 6:6 7:6 8:4 9:5 10:7 11:5 12:4 13:1 14:0 15:0 16:0 17:0 18:0 19:0 20:0 21:0 22:0 23:0 24:3 25:3 26:3 27:3 28:2 29:3 30:4 31:7 32:8 33:3 34:2 35:2 36:0 37:0 38:0 39:43 
0.5 1:0 2:0 3:0 4:2 5:4 6:6 7:5 8:4 9:3 10:7 11:5 12:3 13:0 14:0 15:0 16:0 17:0 18:0 19:0 20:3 21:3 22:2 23:3 24:2 25:3 26:4 27:7 28:6 29:4 30:2 31:0 32:0 33:0 34:0 35:0 36:0 37:0 38:0 39:39 
0.4030388512386728 1:0 2:0 3:0 4:0 5:0 6:0 7:3 8:4 9:6 10:5 11:4 12:6 13:6 14:3 15:4 16:2 17:0 18:0 19:0 20:0 21:3 22:3 23:2 24:4 25:2 26:3 27:1 28:8 29:7 30:4 31:3 32:3 33:0 34:0 35:0 36:0 37:0 38:0 39:43 
0.2024969664113364 1:0 2:0 3:0 4:0 5:0 6:0 7:2 8:4 9:6 10:6 11:4 12:5 13:7 14:3 15:4 16:1 17:0 18:0 19:0 20:0 21:0 22:0 23:3 24:3 25:3 26:3 27:2 28:2 29:4 30:7 31:8 32:3 33:2 34:2 35:0 36:0 37:0 38:0 39:42 
0.4302100581216264 1:0 2:0 3:0 4:0 5:0 6:2 7:4 8:6 9:6 10:4 11:5 12:7 13:6 14:4 15:1 16:0 17:0 18:0 19:0 20:0 21:0 22:0 23:3 24:3 25:3 26:3 27:2 28:3 29:4 30:7 31:8 32:4 33:2 34:2 35:1 36:0 37:0 38:0 39:45 
0.07143176451571251 1:1 2:0 3:0 4:0 5:0 6:2 7:3 8:4 9:6 10:4 11:4 12:6 13:5 14:4 15:2 16:0 17:0 18:0 19:0 20:0 21:0 22:0 23:0 24:2 25:3 26:3 27:3 28:2 29:3 30:2 31:5 32:8 33:4 34:3 35:3 36:0 37:0 38:0 39:41 
0.348923672197347 1:0 2:0 3:0 4:3 5:3 6:4 7:5 8:4 9:4 10:6 11:5 12:4 13:1 14:0 15:0 16:0 17:0 18:0 19:0 20:0 21:0 22:0 23:0 24:3 25:3 26:2 27:4 28:1 29:2 30:2 31:7 32:8 33:3 34:2 35:2 36:0 37:0 38:0 39:39 
0.1283479219438484 1:0 2:0 3:0 4:2 5:4 6:6 7:5 8:4 9:4 10:6 11:5 12:4 13:1 14:0 15:0 16:0 17:0 18:0 19:0 20:0 21:2 22:3 23:2 24:4 25:2 26:3 27:3 28:6 29:8 30:4 31:2 32:2 33:0 34:0 35:0 36:0 37:0 38:0 39:41 
0.4205986447975635 1:0 2:0 3:0 4:0 5:0 6:1 7:2 8:4 9:6 10:6 11:3 12:5 13:5 14:3 15:4 16:1 17:0 18:0 19:0 20:3 21:2 22:3 23:3 24:2 25:2 26:3 27:7 28:7 29:3 30:2 31:3 32:0 33:0 34:0 35:0 36:0 37:0 38:0 39:40 
0.07098832954491845 1:0 2:0 3:0 4:0 5:0 6:0 7:2 8:4 9:4 10:6 11:4 12:6 13:6 14:5 15:4 16:1 17:0 18:0 19:0 20:0 21:0 22:3 23:3 24:3 25:4 26:2 27:1 28:3 29:7 30:8 31:4 32:3 33:1 34:0 35:0 36:0 37:0 38:0 39:42 
0.1988142314935576 1:0 2:0 3:0 4:0 5:1 6:3 7:5 8:6 9:3 10:5 11:5 12:5 13:4 14:2 15:0 16:0 17:0 18:0 19:0 20:3 21:2 22:3 23:3 24:3 25:2 26:1 27:8 28:8 29:3 30:1 31:2 32:0 33:0 34:0 35:0 36:0 37:0 38:0 39:39 
0.5 1:0 2:0 3:0 4:0 5:1 6:4 7:7 8:6 9:4 10:5 11:6 12:3 13:4 14:1 15:0 16:0 17:0 18:0 19:0 20:4 21:3 22:3 23:3 24:2 25:3 26:2 27:7 28:7 29:3 30:2 31:2 32:0 33:0 34:0 35:0 36:0 37:0 38:0 39:41 
0.3071324379791522 1:4 2:1 3:0 4:0 5:0 6:2 7:3 8:6 9:6 10:3 11:6 12:7 13:4 14:2 15:0 16:0 17:0 18:0 19:0 20:0 21:1 22:2 23:3 24:4 25:4 26:2 27:1 28:4 29:7 30:7 31:5 32:4 33:0 34:0 35:0 36:0 37:0 38:0 39:44 
0.4314190626677272 1:0 2:0 3:0 4:0 5:1 6:3 7:2 8:6 9:6 10:3 11:6 12:6 13:4 14:4 15:1 16:1 17:0 18:0 19:0 20:0 21:0 22:0 23:0 24:3 25:3 26:3 27:4 28:2 29:3 30:2 31:6 32:8 33:2 34:3 35:4 36:0 37:0 38:0 39:43 
0.1461781201068388 1:1 2:0 3:0 4:0 5:2 6:4 7:6 8:5 9:4 10:5 11:7 12:5 13:4 14:1 15:0 16:0 17:0 18:0 19:0 20:0 21:0 22:0 23:0 24:3 25:3 26:3 27:3 28:2 29:3 30:4 31:7 32:7 33:4 34:3 35:2 36:0 37:0 38:0 39:44 
0.5 1:0 2:1 3:2 4:1 5:0 6:0 7:2 8:4 9:5 10:4 11:4 12:6 13:6 14:4 15:4 16:2 17:0 18:2 19:0 20:0 21:0 22:2 23:3 24:3 25:3 26:2 27:2 28:3 29:8 30:8 31:4 32:3 33:2 34:0 35:0 36:0 37:0 38:0 39:45 
-0.5 1:0 2:0 3:0 4:0 5:0 6:0 7:7 8:8 9:4 10:2 11:3 12:4 13:3 14:4 15:8 16:3 17:0 18:0 19:0 20:6 21:5 22:3 23:3 24:2 25:3 26:4 27:3 28:2 29:3 30:8 31:4 32:0 33:0 34:0 35:0 36:0 37:0 38:0 39:46 
-0.153053717073196 1:0 2:0 3:0 4:0 5:9 6:10 7:4 8:4 9:3 10:4 11:2 12:4 13:6 14:0 15:0 16:0 17:0 18:0 19:0 20:0 21:0 22:0 23:5 24:7 25:4 26:3 27:2 28:1 29:2 30:2 31:3 32:3 33:7 34:7 35:0 36:0 37:0 38:0 39:46 
-0.03713292885108532 1:0 2:0 3:0 4:0 5:8 6:11 7:4 8:4 9:3 10:4 11:4 12:4 13:7 14:1 15:0 16:0 17:0 18:0 19:0 20:0 21:0 22:0 23:0 24:7 25:7 26:4 27:2 28:2 29:2 30:2 31:3 32:3 33:4 34:8 35:6 36:0 37:0 38:0 39:50 
-0.277437167913774 1:0 2:0 3:0 4:0 5:8 6:12 7:4 8:5 9:4 10:3 11:4 12:3 13:5 14:0 15:0 16:0 17:0 18:0 19:0 20:0 21:6 22:8 23:2 24:2 25:3 26:3 27:2 28:2 29:2 30:5 31:6 32:7 33:0 34:0 35:0 36:0 37:0 38:0 39:48 
-0.2183227691929981 1:0 2:0 3:0 4:0 5:0 6:1 7:6 8:11 9:4 10:4 11:5 12:4 13:3 14:4 15:7 16:1 17:0 18:0 19:1 20:7 21:6 22:3 23:3 24:1 25:3 26:3 27:3 28:2 29:4 30:8 31:6 32:0 33:0 34:0 35:0 36:0 37:0 38:0 39:50 
-0.3663161340837762 1:0 2:0 3:0 4:0 5:0 6:8 7:10 8:4 9:3 10:3 11:4 12:4 13:4 14:6 15:0 16:0 17:0 18:0 19:0 20:0 21:7 22:7 23:3 24:3 25:3 26:2 27:2 28:1 29:2 30:3 31:8 32:5 33:0 34:0 35:0 36:0 37:0 38:0 39:46 
-0.02438520402199531 1:0 2:0 3:0 4:0 5:0 6:11 7:12 8:4 9:4 10:4 11:4 12:3 13:5 14:6 15:0 16:0 17:0 18:0 19:0 20:0 21:0 22:0 23:6 24:8 25:4 26:4 27:3 28:3 29:2 30:2 31:3 32:4 33:8 34:6 35:0 36:0 37:0 38:0 39:53 
-0.1736205637847463 1:0 2:0 3:0 4:0 5:8 6:12 7:4 8:5 9:4 10:3 11:4 12:4 13:7 14:0 15:0 16:0 17:0 18:0 19:0 20:0 21:1 22:7 23:8 24:3 25:2 26:3 27:3 28:2 29:3 30:3 31:3 32:8 33:5 34:0 35:0 36:0 37:0 38:0 39:51 
-0.4232611962340154 1:1 2:0 3:0 4:0 5:5 6:11 7:4 8:4 9:4 10:4 11:3 12:4 13:7 14:0 15:0 16:0 17:0 18:0 19:0 20:6 21:7 22:3 23:3 24:2 25:4 26:3 27:2 28:1 29:3 30:8 31:5 32:0 33:0 34:0 35:0 36:0 37:0 38:0 39:47 
-0.1425977125581355 1:0 2:0 3:0 4:0 5:0 6:8 7:12 8:4 9:4 10:4 11:4 12:4 13:2 14:5 15:1 16:0 17:0 18:0 19:0 20:0 21:0 22:0 23:7 24:7 25:4 26:3 27:4 28:1 29:2 30:1 31:3 32:2 33:8 34:6 35:0 36:0 37:0 38:0 39:48 
-0.4134346867589798 1:10 2:0 3:0 4:0 5:0 6:0 7:9 8:12 9:4 10:4 11:4 12:4 13:4 14:3 15:7 16:1 17:0 18:0 19:0 20:0 21:0 22:0 23:0 24:8 25:8 26:4 27:3 28:5 29:3 30:4 31:4 32:4 33:3 34:8 35:8 36:0 37:0 38:0 39:62 
-0.008071648541827868 1:0 2:0 3:0 4:0 5:0 6:10 7:12 8:3 9:4 10:4 11:4 12:4 13:4 14:8 15:0 16:0 17:0 18:0 19:0 20:0 21:0 22:0 23:0 24:7 25:8 26:4 27:3 28:3 29:3 30:2 31:3 32:3 33:3 34:7 35:7 36:0 37:0 38:0 39:53 
-0.3271006232584246 1:0 2:0 3:0 4:0 5:0 6:0 7:10 8:12 9:4 10:4 11:3 12:4 13:4 14:4 15:5 16:0 17:0 18:0 19:0 20:0 21:7 22:6 23:3 24:3 25:3 26:3 27:3 28:2 29:2 30:4 31:8 32:6 33:0 34:0 35:0 36:0 37:0 38:0 39:50 
-0.492216225832708 1:0 2:0 3:0 4:7 5:11 6:4 7:4 8:4 9:3 10:4 11:4 12:8 13:0 14:0 15:0 16:0 17:0 18:0 19:0 20:5 21:8 22:4 23:1 24:3 25:3 26:2 27:2 28:3 29:4 30:7 31:7 32:0 33:0 34:0 35:0 36:0 37:0 38:0 39:49 
-0.5 1:0 2:0 3:0 4:0 5:0 6:0 7:7 8:11 9:4 10:4 11:4 12:4 13:4 14:4 15:6 16:1 17:0 18:0 19:0 20:0 21:0 22:0 23:6 24:8 25:3 26:2 27:2 28:3 29:3 30:3 31:3 32:3 33:7 34:6 35:0 36:0 37:0 38:0 39:49 
-0.06072415619221948 1:1 2:0 3:0 4:0 5:0 6:7 7:11 8:4 9:4 10:3 11:4 12:4 13:4 14:7 15:1 16:0 17:0 18:0 19:0 20:0 21:5 22:7 23:4 24:2 25:2 26:4 27:2 28:2 29:4 30:2 31:8 32:7 33:1 34:0 35:0 36:0 37:0 38:0 39:50 
-0.4188105050707199 1:0 2:0 3:0 4:0 5:8 6:10 7:2 8:3 9:5 10:4 11:4 12:4 13:8 14:0 15:0 16:0 17:0 18:0 19:0 20:0 21:0 22:1 23:4 24:5 25:3 26:3 27:3 28:2 29:3 30:3 31:3 32:4 33:7 34:7 35:0 36:0 37:0 38:0 39:48 
-0.5 1:0 2:0 3:0 4:0 5:0 6:8 7:12 8:4 9:4 10:3 11:3 12:3 13:4 14:3 15:0 16:0 17:0 18:0 19:0 20:0 21:0 22:5 23:8 24:3 25:3 26:2 27:2 28:2 29:2 30:2 31:3 32:6 33:6 34:0 35:0 36:0 37:0 38:0 39:44 
-0.5 1:0 2:0 3:0 4:0 5:0 6:9 7:10 8:4 9:4 10:3 11:4 12:4 13:3 14:7 15:0 16:0 17:0 18:0 19:0 20:0 21:0 22:0 23:0 24:4 25:8 26:3 27:2 28:3 29:3 30:2 31:3 32:3 33:4 34:6 35:7 36:0 37:0 38:0 39:48 
-0.159180131115559 1:0 2:0 3:0 4:0 5:10 6:12 7:4 8:3 9:4 10:4 11:4 12:4 13:6 14:0 15:0 16:0 17:0 18:0 19:0 20:0 21:0 22:0 23:0 24:7 25:7 26:4 27:2 28:2 29:2 30:3 31:3 32:3 33:4 34:8 35:6 36:0 37:0 38:0 39:51 
-0.1667758910048321 1:0 2:0 3:0 4:0 5:0 6:11 7:12 8:3 9:3 10:4 11:4 12:4 13:4 14:8 15:0 16:0 17:0 18:0 19:0 20:6 21:7 22:4 23:3 24:3 25:3 26:3 27:3 28:3 29:4 30:7 31:7 32:0 33:0 34:0 35:0 36:0 37:0 38:0 39:53 
