svm_type c_svc
kernel_type rbf
gamma 0.0078125
nr_class 2
total_sv 41
rho 0.517888
label 0 1
probA -4.06054
probB 0.0931472
nr_sv 16 25
SV
0.3118164170571979 1:0 2:0 3:0 4:0 5:2 6:4 7:6 8:5 9:4 10:5 11:7 12:3 13:3 14:1 15:0 16:0 17:0 18:0 19:0 20:3 21:3 22:2 23:4 24:2 25:3 26:3 27:6 28:8 29:3 30:2 31:1 32:0 33:0 34:0 35:0 36:0 37:0 38:0 39:40 
0.4782921946121782 1:1 2:0 3:0 4:2 5:4 6:6 7:6 8:3 9:7 10:6 11:5 12:4 13:1 14:0 15:0 16:0 17:0 18:0 19:0 20:0 21:0 22:0 23:0 24:3 25:3 26:3 27:4 28:2 29:4 30:3 31:6 32:8 33:5 34:2 35:2 36:0 37:0 38:0 39:45 
0.4094521507157989 1:0 2:0 3:0 4:3 5:4 6:6 7:6 8:4 9:4 10:6 11:5 12:3 13:1 14:0 15:0 16:0 17:0 18:0 19:0 20:0 21:0 22:3 23:3 24:2 25:4 26:1 27:3 28:3 29:6 30:8 31:2 32:4 33:3 34:0 35:0 36:0 37:0 38:0 39:42 
0.5 1:0 2:0 3:0 4:2 5:4 6:6 7:5 8:4 9:3 10:7 11:5 12:3 13:0 14:0 15:0 16:0 17:0 18:0 19:0 20:3 21:3 22:2 23:3 24:2 25:3 26:4 27:7 28:6 29:4 30:2 31:0 32:0 33:0 34:0 35:0 36:0 37:0 38:0 39:39 
0.313189684263634 1:0 2:0 3:0 4:0 5:0 6:0 7:3 8:4 9:6 10:5 11:4 12:6 13:6 14:3 15:4 16:2 17:0 18:0 19:0 20:0 21:3 22:3 23:2 24:4 25:2 26:3 27:1 28:8 29:7 30:4 31:3 32:3 33:0 34:0 35:0 36:0 37:0 38:0 39:43 
0.3998118368395463 1:0 2:0 3:0 4:0 5:0 6:0 7:2 8:4 9:6 10:6 11:4 12:5 13:7 14:3 15:4 16:1 17:0 18:0 19:0 20:0 21:0 22:0 23:3 24:3 25:3 26:3 27:2 28:2 29:4 30:7 31:8 32:3 33:2 34:2 35:0 36:0 37:0 38:0 39:42 
0.206571495063312 1:1 2:0 3:0 4:0 5:0 6:2 7:3 8:4 9:6 10:4 11:4 12:6 13:5 14:4 15:2 16:0 17:0 18:0 19:0 20:0 21:0 22:0 23:0 24:2 25:3 26:3 27:3 28:2 29:3 30:2 31:5 32:8 33:4 34:3 35:3 36:0 37:0 38:0 39:41 
0.2773151180886748 1:0 2:0 3:0 4:2 5:4 6:4 7:5 8:3 9:6 10:7 11:3 12:4 13:1 14:0 15:0 16:0 17:0 18:0 19:0 20:0 21:2 22:2 23:3 24:3 25:2 26:3 27:4 28:6 29:6 30:4 31:2 32:2 33:0 34:0 35:0 36:0 37:0 38:0 39:39 
0.5 1:0 2:0 3:0 4:3 5:3 6:4 7:5 8:4 9:4 10:6 11:5 12:4 13:1 14:0 15:0 16:0 17:0 18:0 19:0 20:0 21:0 22:0 23:0 24:3 25:3 26:2 27:4 28:1 29:2 30:2 31:7 32:8 33:3 34:2 35:2 36:0 37:0 38:0 39:39 
0.5 1:0 2:0 3:0 4:0 5:0 6:1 7:2 8:4 9:6 10:6 11:3 12:5 13:5 14:3 15:4 16:1 17:0 18:0 19:0 20:3 21:2 22:3 23:3 24:2 25:2 26:3 27:7 28:7 29:3 30:2 31:3 32:0 33:0 34:0 35:0 36:0 37:0 38:0 39:40 
0.1678053177314613 1:0 2:0 3:0 4:0 5:0 6:0 7:2 8:4 9:4 10:6 11:4 12:6 13:6 14:5 15:4 16:1 17:0 18:0 19:0 20:0 21:0 22:3 23:3 24:3 25:4 26:2 27:1 28:3 29:7 30:8 31:4 32:3 33:1 34:0 35:0 36:0 37:0 38:0 39:42 
0.4948897119340812 1:0 2:0 3:0 4:0 5:1 6:3 7:5 8:6 9:3 10:5 11:5 12:5 13:4 14:2 15:0 16:0 17:0 18:0 19:0 20:3 21:2 22:3 23:3 24:3 25:2 26:1 27:8 28:8 29:3 30:1 31:2 32:0 33:0 34:0 35:0 36:0 37:0 38:0 39:39 
0.4232734631845202 1:4 2:1 3:0 4:0 5:0 6:2 7:3 8:6 9:6 10:3 11:6 12:7 13:4 14:2 15:0 16:0 17:0 18:0 19:0 20:0 21:1 22:2 23:3 24:4 25:4 26:2 27:1 28:4 29:7 30:7 31:5 32:4 33:0 34:0 35:0 36:0 37:0 38:0 39:44 
0.0213417064860965 1:0 2:0 3:0 4:0 5:2 6:4 7:5 8:4 9:4 10:5 11:6 12:4 13:3 14:2 15:0 16:0 17:0 18:0 19:0 20:0 21:0 22:0 23:2 24:3 25:2 26:1 27:2 28:3 29:4 30:7 31:7 32:3 33:3 34:2 35:0 36:0 37:0 38:0 39:39 
0.3590634879819756 1:0 2:0 3:0 4:0 5:1 6:3 7:2 8:6 9:6 10:3 11:6 12:6 13:4 14:4 15:1 16:1 17:0 18:0 19:0 20:0 21:0 22:0 23:0 24:3 25:3 26:3 27:4 28:2 29:3 30:2 31:6 32:8 33:2 34:3 35:4 36:0 37:0 38:0 39:43 
0.2746665729702729 1:0 2:1 3:2 4:1 5:0 6:0 7:2 8:4 9:5 10:4 11:4 12:6 13:6 14:4 15:4 16:2 17:0 18:2 19:0 20:0 21:0 22:2 23:3 24:3 25:3 26:2 27:2 28:3 29:8 30:8 31:4 32:3 33:2 34:0 35:0 36:0 37:0 38:0 39:45 
-0.1225080894166026 1:0 2:0 3:0 4:1 5:1 6:0 7:2 8:1 9:1 10:11 11:8 12:2 13:2 14:2 15:0 16:0 17:0 18:0 19:0 20:0 21:0 22:6 23:7 24:2 25:2 26:2 27:1 28:0 29:2 30:1 31:2 32:2 33:2 34:0 35:0 36:0 37:2 38:0 39:31 
-0.2139683042238247 1:0 2:0 3:0 4:0 5:0 6:0 7:2 8:2 9:2 10:12 11:11 12:2 13:1 14:2 15:0 16:0 17:0 18:0 19:0 20:0 21:0 22:8 23:7 24:2 25:2 26:2 27:2 28:1 29:2 30:2 31:2 32:2 33:2 34:0 35:0 36:0 37:0 38:0 39:34 
-0.3591994743197248 1:0 2:0 3:0 4:0 5:0 6:0 7:0 8:2 9:2 10:1 11:12 12:10 13:2 14:2 15:2 16:0 17:0 18:0 19:0 20:0 21:0 22:0 23:0 24:7 25:8 26:1 27:2 28:2 29:1 30:2 31:2 32:2 33:2 34:2 35:2 36:0 37:0 38:0 39:33 
-0.08015693849770243 1:0 2:0 3:0 4:0 5:1 6:1 7:2 8:2 9:12 10:9 11:2 12:2 13:2 14:0 15:0 16:0 17:0 18:0 19:0 20:0 21:0 22:0 23:0 24:8 25:8 26:1 27:2 28:2 29:2 30:2 31:1 32:2 33:1 34:2 35:2 36:0 37:0 38:0 39:33 
-0.3965772292553248 1:0 2:0 3:0 4:0 5:0 6:0 7:0 8:2 9:2 10:2 11:12 12:11 13:2 14:1 15:2 16:0 17:0 18:0 19:0 20:0 21:0 22:7 23:8 24:2 25:2 26:2 27:2 28:2 29:2 30:1 31:2 32:2 33:2 34:0 35:0 36:0 37:0 38:0 39:34 
-0.06670414365519001 1:0 2:0 3:0 4:0 5:2 6:2 7:2 8:12 9:10 10:2 11:2 12:2 13:0 14:0 15:0 16:0 17:0 18:0 19:0 20:0 21:0 22:0 23:8 24:8 25:2 26:1 27:2 28:1 29:2 30:2 31:2 32:2 33:2 34:2 35:0 36:0 37:0 38:0 39:34 
-0.1917170525175128 1:0 2:0 3:0 4:0 5:2 6:2 7:2 8:12 9:11 10:2 11:2 12:2 13:0 14:0 15:0 16:0 17:0 18:0 19:0 20:0 21:0 22:0 23:8 24:8 25:2 26:2 27:2 28:2 29:2 30:2 31:2 32:1 33:2 34:2 35:0 36:0 37:0 38:0 39:35 
-0.0478177282203224 1:0 2:0 3:0 4:0 5:2 6:1 7:2 8:10 9:11 10:2 11:2 12:1 13:0 14:0 15:0 16:0 17:0 18:0 19:0 20:7 21:7 22:2 23:2 24:2 25:1 26:1 27:2 28:2 29:2 30:2 31:1 32:0 33:0 34:0 35:0 36:0 37:0 38:0 39:31 
-0.004190948588088875 1:0 2:0 3:0 4:0 5:0 6:1 7:2 8:2 9:2 10:11 11:11 12:2 13:2 14:2 15:0 16:0 17:0 18:0 19:1 20:8 21:7 22:2 23:2 24:2 25:2 26:2 27:2 28:2 29:2 30:2 31:1 32:0 33:0 34:0 35:0 36:0 37:0 38:0 39:35 
-0.02481843912918328 1:0 2:0 3:0 4:0 5:0 6:0 7:0 8:2 9:3 10:11 11:10 12:1 13:1 14:2 15:1 16:0 17:0 18:0 19:0 20:0 21:6 22:6 23:2 24:1 25:2 26:2 27:3 28:2 29:2 30:1 31:2 32:2 33:0 34:0 35:0 36:0 37:0 38:0 39:31 
-0.1499226182641793 1:0 2:0 3:0 4:0 5:2 6:2 7:2 8:9 9:10 10:2 11:1 12:2 13:0 14:0 15:0 16:0 17:0 18:0 19:0 20:6 21:8 22:2 23:2 24:1 25:2 26:1 27:2 28:2 29:2 30:1 31:1 32:0 33:0 34:0 35:0 36:0 37:0 38:0 39:30 
-0.2659235711853431 1:0 2:0 3:0 4:0 5:2 6:2 7:2 8:12 9:10 10:2 11:2 12:2 13:0 14:0 15:0 16:0 17:0 18:0 19:0 20:0 21:0 22:8 23:8 24:2 25:1 26:2 27:2 28:2 29:2 30:2 31:2 32:2 33:1 34:0 35:0 36:0 37:0 38:0 39:34 
-0.199746592877062 1:0 2:0 3:0 4:0 5:0 6:3 7:2 8:1 9:12 10:9 11:2 12:2 13:2 14:0 15:0 16:0 17:0 18:0 19:0 20:0 21:1 22:7 23:7 24:2 25:2 26:2 27:1 28:2 29:2 30:2 31:2 32:2 33:1 34:0 35:0 36:0 37:0 38:0 39:33 
-0.3236969366080882 1:0 2:0 3:1 4:1 5:0 6:2 7:2 8:2 9:10 10:9 11:1 12:2 13:2 14:0 15:0 16:0 17:0 18:0 19:0 20:7 21:7 22:1 23:2 24:1 25:2 26:2 27:2 28:3 29:2 30:2 31:1 32:0 33:0 34:0 35:0 36:0 37:0 38:0 39:32 
-0.5 1:5 2:3 3:0 4:0 5:0 6:2 7:2 8:3 9:11 10:11 11:2 12:2 13:2 14:0 15:0 16:0 17:0 18:0 19:0 20:0 21:8 22:7 23:3 24:2 25:3 26:3 27:4 28:3 29:3 30:2 31:3 32:2 33:0 34:0 35:0 36:0 37:0 38:0 39:43 
-0.2927434980565411 1:0 2:0 3:0 4:0 5:0 6:0 7:0 8:2 9:2 10:1 11:11 12:12 13:2 14:2 15:2 16:0 17:0 18:0 19:0 20:8 21:7 22:2 23:2 24:2 25:2 26:1 27:2 28:2 29:2 30:2 31:2 32:0 33:0 34:0 35:0 36:0 37:0 38:0 39:34 
-0.4788889278747754 1:4 2:1 3:0 4:0 5:2 6:2 7:2 8:11 9:11 10:3 11:2 12:2 13:0 14:0 15:0 16:0 17:0 18:0 19:0 20:0 21:8 22:8 23:2 24:1 25:3 26:4 27:3 28:4 29:2 30:2 31:2 32:1 33:0 34:0 35:0 36:0 37:0 38:0 39:40 
-0.3045916220539532 1:0 2:0 3:0 4:0 5:0 6:0 7:2 8:2 9:3 10:10 11:13 12:2 13:2 14:2 15:0 16:0 17:0 18:0 19:0 20:0 21:0 22:0 23:1 24:7 25:8 26:3 27:2 28:2 29:2 30:2 31:2 32:1 33:2 34:2 35:2 36:0 37:0 38:0 39:36 
-0.1747196680637362 1:0 2:0 3:0 4:0 5:0 6:0 7:2 8:2 9:2 10:12 11:10 12:3 13:2 14:2 15:0 16:0 17:0 18:0 19:0 20:0 21:0 22:0 23:0 24:8 25:8 26:3 27:1 28:2 29:2 30:2 31:1 32:2 33:2 34:2 35:2 36:0 37:0 38:0 39:35 
-0.2326519617944208 1:0 2:0 3:0 4:0 5:0 6:2 7:2 8:2 9:11 10:11 11:2 12:1 13:2 14:0 15:0 16:0 17:0 18:0 19:0 20:0 21:0 22:0 23:7 24:7 25:2 26:2 27:2 28:2 29:2 30:1 31:2 32:2 33:2 34:2 35:0 36:0 37:0 38:0 39:33 
-0.2011145842172516 1:0 2:0 3:0 4:0 5:0 6:2 7:1 8:2 9:12 10:10 11:1 12:2 13:2 14:1 15:0 16:0 17:0 18:0 19:0 20:0 21:0 22:0 23:0 24:6 25:9 26:2 27:2 28:2 29:2 30:1 31:2 32:1 33:2 34:2 35:2 36:0 37:0 38:0 39:33 
-0.4719978890324734 1:0 2:0 3:0 4:0 5:1 6:1 7:2 8:2 9:2 10:12 11:11 12:1 13:3 14:2 15:0 16:0 17:0 18:0 19:0 20:6 21:8 22:3 23:2 24:4 25:2 26:2 27:2 28:2 29:2 30:2 31:2 32:0 33:0 34:0 35:0 36:0 37:0 38:0 39:37 
-0.3974801840500587 1:0 2:0 3:0 4:0 5:2 6:2 7:2 8:12 9:12 10:2 11:2 12:2 13:0 14:0 15:0 16:0 17:0 18:0 19:0 20:0 21:0 22:0 23:0 24:8 25:8 26:2 27:2 28:2 29:2 30:2 31:2 32:2 33:2 34:2 35:2 36:0 37:0 38:0 39:36 
-0.1353956512063596 1:0 2:0 3:0 4:0 5:0 6:0 7:0 8:1 9:3 10:3 11:12 12:11 13:1 14:2 15:2 16:0 17:0 18:0 19:0 20:6 21:8 22:1 23:2 24:2 25:2 26:2 27:2 28:2 29:2 30:2 31:2 32:0 33:1 34:1 35:0 36:0 37:0 38:0 39:35 
-0.000957103821030601 1:0 2:0 3:0 4:0 5:0 6:0 7:0 8:2 9:2 10:2 11:12 12:11 13:1 14:1 15:2 16:0 17:0 18:0 19:0 20:0 21:0 22:0 23:0 24:7 25:7 26:2 27:2 28:2 29:2 30:2 31:1 32:2 33:2 34:2 35:2 36:0 37:0 38:0 39:33 
