svm_type c_svc
kernel_type rbf
gamma 0.0078125
nr_class 2
total_sv 60
rho -0.415799
label 0 1
probA -5.29378
probB 0.36206
nr_sv 33 27
SV
0.120793169342838 1:0 2:0 3:0 4:0 5:0 6:10 7:12 8:4 9:5 10:6 11:6 12:6 13:6 14:6 15:0 16:0 17:0 18:0 19:0 20:0 21:0 22:0 23:0 24:8 25:8 26:3 27:3 28:4 29:6 30:6 31:2 32:2 33:2 34:9 35:8 36:0 37:0 38:0 39:61 
0.1497704139036161 1:0 2:0 3:0 4:7 5:12 6:6 7:5 8:6 9:5 10:6 11:8 12:7 13:1 14:0 15:0 16:0 17:0 18:0 19:0 20:5 21:9 22:2 23:3 24:4 25:7 26:9 27:3 28:1 29:1 30:9 31:8 32:0 33:0 34:0 35:0 36:1 37:1 38:0 39:63 
0.5 1:7 2:0 3:0 4:7 5:12 6:5 7:6 8:5 9:6 10:6 11:7 12:8 13:0 14:0 15:0 16:0 17:0 18:0 19:0 20:0 21:0 22:0 23:7 24:10 25:4 26:3 27:3 28:9 29:7 30:2 31:3 32:3 33:9 34:9 35:0 36:0 37:0 38:0 39:69 
0.5 1:0 2:0 3:0 4:0 5:0 6:8 7:12 8:6 9:6 10:3 11:5 12:5 13:8 14:9 15:1 16:0 17:0 18:0 19:0 20:0 21:0 22:0 23:8 24:7 25:4 26:3 27:3 28:6 29:8 30:3 31:3 32:3 33:8 34:7 35:0 36:0 37:0 38:0 39:63 
0.4798717121036866 1:0 2:0 3:0 4:0 5:7 6:11 7:5 8:6 9:5 10:6 11:5 12:6 13:8 14:0 15:0 16:0 17:0 18:0 19:0 20:7 21:8 22:3 23:2 24:2 25:8 26:8 27:2 28:3 29:2 30:6 31:8 32:0 33:0 34:0 35:0 36:0 37:0 38:0 39:59 
0.5 1:0 2:0 3:0 4:0 5:0 6:1 7:7 8:10 9:6 10:5 11:5 12:5 13:5 14:7 15:6 16:2 17:0 18:0 19:0 20:8 21:6 22:5 23:1 24:3 25:6 26:7 27:2 28:3 29:3 30:8 31:7 32:0 33:0 34:0 35:0 36:0 37:0 38:0 39:59 
0.421947792860658 1:0 2:0 3:0 4:0 5:0 6:8 7:11 8:5 9:6 10:6 11:6 12:5 13:7 14:7 15:0 16:0 17:0 18:0 19:0 20:0 21:7 22:7 23:4 24:3 25:4 26:7 27:8 28:1 29:2 30:3 31:8 32:7 33:0 34:0 35:0 36:0 37:0 38:0 39:61 
0.2984156292962243 1:11 2:0 3:0 4:0 5:7 6:11 7:3 8:6 9:6 10:5 11:6 12:6 13:7 14:0 15:0 16:0 17:0 18:0 19:0 20:1 21:1 22:1 23:1 24:8 25:9 26:5 27:3 28:2 29:5 30:8 31:2 32:3 33:2 34:9 35:8 36:0 37:0 38:0 39:68 
0.1092102630608822 1:0 2:0 3:0 4:0 5:0 6:6 7:11 8:6 9:6 10:6 11:6 12:5 13:7 14:9 15:0 16:0 17:0 18:0 19:0 20:0 21:0 22:0 23:7 24:9 25:3 26:2 27:4 28:7 29:9 30:3 31:1 32:2 33:7 34:8 35:0 36:0 37:0 38:0 39:62 
0.1689031686719924 1:0 2:0 3:0 4:7 5:11 6:6 7:5 8:6 9:6 10:6 11:7 12:9 13:1 14:0 15:0 16:0 17:0 18:0 19:0 20:0 21:8 22:7 23:4 24:2 25:4 26:8 27:9 28:2 29:3 30:3 31:7 32:7 33:0 34:0 35:0 36:0 37:0 38:0 39:64 
0.5 1:0 2:0 3:0 4:8 5:11 6:6 7:5 8:5 9:5 10:5 11:7 12:8 13:0 14:0 15:0 16:0 17:0 18:0 19:0 20:0 21:0 22:7 23:8 24:4 25:2 26:3 27:8 28:9 29:2 30:2 31:3 32:8 33:4 34:0 35:0 36:0 37:0 38:0 39:60 
0.3446208789475208 1:9 2:0 3:0 4:6 5:11 6:5 7:7 8:6 9:5 10:5 11:8 12:8 13:0 14:0 15:0 16:0 17:0 18:0 19:0 20:1 21:8 22:8 23:6 24:4 25:3 26:7 27:10 28:4 29:3 30:1 31:8 32:7 33:0 34:0 35:0 36:0 37:0 38:0 39:70 
0.453276717102408 1:2 2:11 3:0 4:8 5:11 6:5 7:4 8:6 9:6 10:5 11:7 12:8 13:0 14:0 15:0 16:0 17:0 18:0 19:0 20:2 21:7 22:10 23:3 24:4 25:4 26:6 27:10 28:3 29:4 30:5 31:9 32:6 33:0 34:0 35:0 36:0 37:0 38:0 39:73 
0.5 1:0 2:0 3:0 4:7 5:12 6:5 7:6 8:6 9:6 10:5 11:8 12:5 13:0 14:0 15:0 16:0 17:0 18:0 19:0 20:7 21:7 22:3 23:3 24:4 25:8 26:6 27:3 28:2 29:1 30:9 31:7 32:0 33:0 34:0 35:0 36:0 37:0 38:0 39:60 
0.07828778659201353 1:0 2:0 3:0 4:9 5:11 6:6 7:6 8:5 9:6 10:5 11:7 12:9 13:1 14:0 15:0 16:0 17:0 18:0 19:0 20:0 21:0 22:6 23:9 24:4 25:3 26:2 27:8 28:8 29:3 30:4 31:2 32:9 33:7 34:0 35:0 36:0 37:0 38:0 39:65 
0.1003705190757042 1:0 2:0 3:0 4:0 5:0 6:8 7:11 8:7 9:6 10:6 11:6 12:6 13:7 14:8 15:0 16:0 17:0 18:0 19:0 20:8 21:9 22:3 23:4 24:4 25:7 26:8 27:1 28:3 29:2 30:8 31:8 32:0 33:0 34:0 35:0 36:0 37:0 38:0 39:65 
0.4160650268327615 1:0 2:0 3:0 4:0 5:6 6:12 7:6 8:7 9:6 10:5 11:5 12:8 13:7 14:0 15:0 16:0 17:0 18:0 19:0 20:0 21:0 22:7 23:8 24:2 25:2 26:3 27:8 28:8 29:3 30:3 31:3 32:8 33:7 34:0 35:0 36:0 37:0 38:0 39:62 
0.2428394137353838 1:0 2:0 3:0 4:0 5:0 6:8 7:11 8:5 9:5 10:6 11:6 12:6 13:9 14:7 15:0 16:0 17:0 18:0 19:0 20:8 21:9 22:3 23:3 24:4 25:6 26:6 27:3 28:2 29:3 30:8 31:8 32:0 33:0 34:0 35:0 36:0 37:0 38:0 39:63 
0.06529695205532947 1:0 2:0 3:0 4:8 5:12 6:6 7:5 8:5 9:6 10:7 11:6 12:9 13:0 14:0 15:0 16:0 17:0 18:0 19:0 20:0 21:0 22:8 23:7 24:3 25:4 26:4 27:8 28:8 29:2 30:3 31:2 32:8 33:7 34:0 35:0 36:0 37:0 38:0 39:64 
0.2729918921673112 1:3 2:8 3:0 4:0 5:7 6:10 7:6 8:6 9:5 10:6 11:6 12:8 13:7 14:0 15:0 16:0 17:0 18:0 19:0 20:2 21:2 22:2 23:0 24:7 25:10 26:4 27:3 28:3 29:7 30:9 31:3 32:3 33:3 34:7 35:7 36:0 37:0 38:0 39:72 
0.3642870063754458 1:10 2:0 3:0 4:0 5:0 6:8 7:12 8:5 9:4 10:6 11:6 12:6 13:6 14:7 15:2 16:0 17:0 18:0 19:0 20:0 21:0 22:0 23:0 24:9 25:11 26:3 27:4 28:4 29:9 30:8 31:2 32:3 33:5 34:8 35:6 36:0 37:0 38:0 39:72 
0.5 1:3 2:9 3:0 4:0 5:0 6:8 7:11 8:6 9:5 10:5 11:4 12:6 13:8 14:8 15:1 16:0 17:0 18:0 19:0 20:1 21:2 22:8 23:8 24:4 25:4 26:5 27:8 28:9 29:3 30:4 31:3 32:8 33:7 34:0 35:0 36:0 37:0 38:0 39:74 
0.1569474506050699 1:1 2:0 3:0 4:0 5:10 6:12 7:7 8:5 9:6 10:5 11:5 12:8 13:9 14:0 15:0 16:0 17:0 18:0 19:0 20:0 21:0 22:0 23:0 24:8 25:9 26:5 27:3 28:4 29:8 30:6 31:4 32:3 33:2 34:8 35:8 36:0 37:0 38:0 39:68 
0.4784511127323412 1:0 2:0 3:0 4:0 5:7 6:12 7:6 8:5 9:6 10:5 11:4 12:6 13:9 14:0 15:0 16:0 17:0 18:0 19:0 20:0 21:8 22:7 23:3 24:3 25:3 26:6 27:9 28:2 29:2 30:2 31:8 32:7 33:0 34:0 35:0 36:0 37:0 38:0 39:60 
0.5 1:0 2:0 3:0 4:0 5:0 6:0 7:9 8:9 9:5 10:6 11:5 12:4 13:6 14:7 15:9 16:0 17:0 18:0 19:0 20:0 21:0 22:0 23:7 24:7 25:3 26:2 27:3 28:7 29:9 30:3 31:3 32:3 33:7 34:6 35:0 36:0 37:0 38:0 39:60 
0.2968481718526043 1:0 2:0 3:0 4:0 5:6 6:12 7:5 8:6 9:6 10:5 11:6 12:8 13:8 14:0 15:0 16:0 17:0 18:0 19:0 20:0 21:0 22:0 23:0 24:8 25:8 26:3 27:2 28:4 29:7 30:9 31:3 32:2 33:2 34:9 35:5 36:0 37:0 38:0 39:62 
0.3976374185801605 1:0 2:0 3:0 4:0 5:0 6:0 7:7 8:12 9:5 10:6 11:6 12:6 13:6 14:8 15:9 16:1 17:0 18:0 19:0 20:0 21:0 22:0 23:0 24:8 25:7 26:4 27:3 28:5 29:8 30:9 31:2 32:2 33:2 34:8 35:8 36:0 37:0 38:0 39:66 
0.02339474208275692 1:0 2:0 3:0 4:0 5:0 6:10 7:11 8:6 9:6 10:5 11:6 12:5 13:7 14:8 15:0 16:0 17:0 18:0 19:0 20:0 21:0 22:0 23:7 24:6 25:4 26:3 27:4 28:8 29:8 30:3 31:2 32:3 33:8 34:8 35:0 36:0 37:0 38:0 39:64 
0.1220521565730564 1:0 2:0 3:0 4:0 5:8 6:10 7:6 8:5 9:6 10:6 11:6 12:8 13:7 14:1 15:0 16:0 17:0 18:0 19:0 20:0 21:0 22:7 23:8 24:2 25:4 26:3 27:7 28:8 29:2 30:3 31:3 32:8 33:8 34:0 35:0 36:0 37:0 38:0 39:63 
0.122315807672882 1:0 2:0 3:0 4:0 5:0 6:7 7:10 8:5 9:6 10:6 11:5 12:6 13:8 14:8 15:0 16:0 17:0 18:0 19:0 20:0 21:0 22:0 23:0 24:7 25:8 26:4 27:3 28:2 29:6 30:9 31:3 32:2 33:3 34:7 35:7 36:0 37:0 38:0 39:61 
0.01279824156112397 1:0 2:0 3:0 4:0 5:9 6:11 7:6 8:6 9:6 10:5 11:6 12:8 13:7 14:0 15:0 16:0 17:0 18:0 19:0 20:8 21:7 22:3 23:3 24:3 25:8 26:9 27:2 28:2 29:3 30:9 31:7 32:0 33:0 34:0 35:0 36:0 37:0 38:0 39:64 
0.4189612393307422 1:0 2:0 3:0 4:0 5:0 6:1 7:9 8:11 9:4 10:6 11:6 12:6 13:4 14:8 15:7 16:3 17:0 18:0 19:0 20:0 21:8 22:7 23:5 24:2 25:5 26:8 27:8 28:2 29:2 30:3 31:7 32:8 33:0 34:0 35:0 36:0 37:0 38:0 39:65 
0.5 1:0 2:0 3:0 4:0 5:0 6:9 7:8 8:5 9:5 10:5 11:6 12:5 13:7 14:8 15:2 16:0 17:0 18:0 19:0 20:0 21:0 22:0 23:0 24:7 25:9 26:3 27:2 28:3 29:5 30:9 31:2 32:4 33:3 34:8 35:5 36:0 37:0 38:0 39:60 
-0.5 1:0 2:0 3:0 4:0 5:0 6:9 7:12 8:3 9:3 10:2 11:3 12:3 13:7 14:12 15:0 16:0 17:0 18:0 19:0 20:4 21:5 22:3 23:6 24:3 25:5 26:5 27:5 28:6 29:4 30:4 31:4 32:0 33:0 34:0 35:0 36:0 37:0 38:0 39:54 
-0.2848016970095038 1:0 2:0 3:0 4:0 5:0 6:0 7:8 8:11 9:3 10:3 11:3 12:2 13:3 14:8 15:9 16:0 17:0 18:0 19:0 20:0 21:0 22:3 23:4 24:5 25:5 26:4 27:5 28:5 29:3 30:5 31:4 32:3 33:4 34:0 35:0 36:0 37:0 38:0 39:50 
-0.5 1:0 2:0 3:1 4:7 5:11 6:3 7:4 8:3 9:3 10:3 11:8 12:11 13:0 14:0 15:0 16:0 17:0 18:0 19:0 20:0 21:0 22:0 23:0 24:4 25:5 26:4 27:5 28:6 29:6 30:6 31:3 32:4 33:5 34:4 35:2 36:0 37:0 38:0 39:54 
-0.2888673052124496 1:0 2:0 3:0 4:0 5:9 6:11 7:4 8:2 9:2 10:3 11:3 12:9 13:12 14:0 15:0 16:0 17:0 18:0 19:0 20:0 21:0 22:0 23:3 24:4 25:3 26:6 27:6 28:6 29:5 30:4 31:5 32:5 33:5 34:3 35:0 36:0 37:0 38:0 39:55 
-0.5 1:0 2:0 3:0 4:0 5:9 6:11 7:3 8:2 9:3 10:3 11:3 12:7 13:7 14:0 15:0 16:0 17:0 18:0 19:0 20:0 21:2 22:2 23:4 24:4 25:6 26:3 27:6 28:5 29:5 30:3 31:4 32:4 33:0 34:0 35:0 36:0 37:0 38:0 39:48 
-0.2313045650139081 1:0 2:0 3:0 4:0 5:9 6:11 7:3 8:2 9:3 10:3 11:3 12:9 13:11 14:0 15:0 16:0 17:0 18:0 19:0 20:0 21:0 22:4 23:4 24:3 25:6 26:6 27:5 28:6 29:4 30:6 31:4 32:4 33:2 34:0 35:0 36:0 37:0 38:0 39:54 
-0.5 1:0 2:0 3:0 4:0 5:4 6:11 7:4 8:3 9:4 10:3 11:3 12:9 13:12 14:0 15:0 16:0 17:0 18:0 19:0 20:0 21:0 22:0 23:0 24:3 25:4 26:5 27:5 28:5 29:5 30:5 31:3 32:6 33:4 34:5 35:3 36:0 37:0 38:0 39:53 
-0.4727773642066677 1:0 2:0 3:0 4:8 5:10 6:3 7:3 8:3 9:3 10:3 11:7 12:11 13:0 14:0 15:0 16:0 17:0 18:0 19:0 20:3 21:5 22:4 23:4 24:6 25:3 26:5 27:3 28:5 29:5 30:4 31:4 32:0 33:0 34:0 35:0 36:0 37:0 38:0 39:51 
-0.1033436761576513 1:0 2:0 3:0 4:0 5:7 6:11 7:3 8:3 9:3 10:3 11:3 12:7 13:12 14:0 15:0 16:0 17:0 18:0 19:0 20:0 21:0 22:4 23:4 24:4 25:5 26:5 27:5 28:5 29:4 30:6 31:5 32:4 33:1 34:0 35:0 36:0 37:0 38:0 39:52 
-0.5 1:1 2:1 3:0 4:0 5:1 6:9 7:11 8:3 9:2 10:2 11:3 12:3 13:10 14:11 15:0 16:0 17:0 18:0 19:0 20:0 21:0 22:0 23:0 24:3 25:5 26:4 27:6 28:5 29:4 30:6 31:5 32:6 33:4 34:5 35:4 36:0 37:0 38:0 39:57 
-0.06530569429876347 1:0 2:0 3:0 4:0 5:0 6:7 7:12 8:3 9:1 10:3 11:3 12:3 13:9 14:11 15:0 16:0 17:0 18:0 19:0 20:0 21:3 22:4 23:4 24:5 25:5 26:3 27:6 28:4 29:5 30:4 31:5 32:4 33:0 34:0 35:0 36:0 37:0 38:0 39:52 
-0.2772951038454941 1:0 2:0 3:0 4:0 5:0 6:5 7:12 8:4 9:2 10:2 11:3 12:3 13:10 14:12 15:0 16:0 17:0 18:0 19:0 20:0 21:0 22:0 23:0 24:4 25:4 26:4 27:6 28:4 29:5 30:5 31:3 32:6 33:4 34:5 35:3 36:0 37:0 38:0 39:53 
-0.5 1:0 2:0 3:0 4:0 5:9 6:10 7:3 8:2 9:3 10:2 11:3 12:11 13:12 14:0 15:0 16:0 17:0 18:0 19:0 20:3 21:5 22:3 23:5 24:5 25:5 26:6 27:5 28:5 29:4 30:5 31:4 32:0 33:0 34:0 35:0 36:0 37:0 38:0 39:55 
-0.3995791241219903 1:0 2:0 3:0 4:0 5:0 6:10 7:10 8:3 9:3 10:3 11:3 12:3 13:8 14:12 15:0 16:0 17:0 18:0 19:0 20:0 21:0 22:0 23:3 24:5 25:6 26:4 27:5 28:6 29:6 30:3 31:4 32:5 33:5 34:3 35:0 36:0 37:0 38:0 39:55 
-0.5 1:0 2:0 3:0 4:0 5:0 6:0 7:6 8:11 9:3 10:3 11:3 12:3 13:2 14:10 15:10 16:0 17:0 18:0 19:0 20:0 21:0 22:0 23:0 24:4 25:5 26:4 27:4 28:5 29:4 30:5 31:5 32:5 33:4 34:3 35:3 36:0 37:0 38:0 39:51 
-0.5 1:0 2:0 3:0 4:0 5:0 6:4 7:11 8:3 9:1 10:3 11:2 12:3 13:9 14:10 15:0 16:0 17:0 18:0 19:0 20:0 21:0 22:2 23:4 24:4 25:5 26:4 27:4 28:5 29:3 30:5 31:2 32:4 33:4 34:0 35:0 36:0 37:0 38:0 39:46 
-0.1257356945454204 1:0 2:0 3:0 4:0 5:0 6:5 7:9 8:3 9:3 10:3 11:2 12:3 13:9 14:12 15:0 16:0 17:0 18:0 19:0 20:0 21:0 22:0 23:0 24:4 25:5 26:2 27:6 28:5 29:4 30:3 31:4 32:5 33:5 34:4 35:2 36:0 37:0 38:0 39:49 
-0.01814343544683746 1:0 2:0 3:0 4:0 5:0 6:8 7:12 8:3 9:3 10:3 11:2 12:1 13:8 14:9 15:1 16:0 17:0 18:0 19:0 20:0 21:0 22:0 23:1 24:4 25:4 26:7 27:6 28:6 29:3 30:4 31:4 32:4 33:3 34:4 35:0 36:0 37:0 38:0 39:50 
-0.4642238914798095 1:0 2:0 3:0 4:7 5:12 6:1 7:3 8:3 9:3 10:1 11:12 12:9 13:1 14:0 15:0 16:0 17:0 18:0 19:0 20:0 21:3 22:4 23:4 24:6 25:5 26:5 27:5 28:5 29:5 30:4 31:2 32:4 33:0 34:0 35:0 36:0 37:0 38:0 39:52 
-0.5 1:0 2:0 3:0 4:0 5:0 6:8 7:12 8:3 9:3 10:3 11:3 12:3 13:10 14:11 15:1 16:0 17:0 18:0 19:0 20:0 21:0 22:4 23:4 24:5 25:6 26:5 27:6 28:5 29:4 30:5 31:5 32:4 33:4 34:0 35:0 36:0 37:0 38:0 39:57 
-0.4243081056770683 1:1 2:0 3:0 4:7 5:12 6:3 7:3 8:3 9:3 10:2 11:8 12:11 13:0 14:0 15:0 16:0 17:0 18:0 19:0 20:0 21:0 22:0 23:3 24:5 25:5 26:5 27:5 28:5 29:4 30:3 31:5 32:5 33:3 34:4 35:1 36:0 37:0 38:0 39:53 
-0.3185254697480849 1:0 2:0 3:0 4:0 5:9 6:11 7:4 8:3 9:3 10:3 11:2 12:9 13:11 14:0 15:0 16:0 17:0 18:0 19:0 20:0 21:0 22:0 23:4 24:5 25:5 26:5 27:6 28:6 29:4 30:3 31:4 32:5 33:5 34:3 35:0 36:0 37:0 38:0 39:55 
-0.5 1:0 2:0 3:0 4:0 5:0 6:0 7:7 8:8 9:4 10:3 11:3 12:3 13:3 14:10 15:12 16:0 17:0 18:0 19:0 20:3 21:3 22:3 23:5 24:5 25:5 26:6 27:5 28:7 29:3 30:4 31:4 32:0 33:0 34:0 35:0 36:0 37:0 38:0 39:53 
-0.5 1:0 2:0 3:0 4:9 5:12 6:3 7:3 8:3 9:2 10:3 11:11 12:10 13:0 14:0 15:0 16:0 17:0 18:0 19:0 20:4 21:4 22:5 23:6 24:4 25:6 26:5 27:4 28:6 29:5 30:4 31:3 32:0 33:0 34:0 35:0 36:0 37:0 38:0 39:56 
-0.1421435563508647 1:0 2:0 3:0 4:8 5:12 6:3 7:3 8:3 9:3 10:2 11:8 12:11 13:0 14:0 15:0 16:0 17:0 18:0 19:0 20:4 21:4 22:4 23:6 24:4 25:5 26:5 27:5 28:6 29:4 30:4 31:2 32:0 33:0 34:0 35:0 36:0 37:0 38:0 39:53 
-0.5 1:0 2:0 3:0 4:0 5:0 6:0 7:4 8:10 9:4 10:3 11:3 12:3 13:3 14:7 15:11 16:0 17:0 18:0 19:0 20:0 21:0 22:0 23:0 24:3 25:3 26:5 27:4 28:5 29:3 30:4 31:4 32:6 33:5 34:4 35:2 36:0 37:0 38:0 39:48 
-0.5 1:0 2:0 3:0 4:0 5:0 6:0 7:8 8:10 9:3 10:3 11:3 12:3 13:3 14:10 15:11 16:0 17:0 18:0 19:1 20:3 21:4 22:5 23:4 24:6 25:3 26:6 27:4 28:6 29:5 30:4 31:3 32:0 33:0 34:0 35:0 36:0 37:0 38:0 39:54 
