svm_type c_svc
kernel_type rbf
gamma 0.0078125
nr_class 2
total_sv 58
rho -0.392207
label 0 1
probA -4.77499
probB 0.234773
nr_sv 33 25
SV
0.2445654880572357 1:0 2:0 3:0 4:0 5:0 6:10 7:12 8:4 9:5 10:6 11:6 12:6 13:6 14:6 15:0 16:0 17:0 18:0 19:0 20:0 21:0 22:0 23:0 24:8 25:8 26:3 27:3 28:4 29:6 30:6 31:2 32:2 33:2 34:9 35:8 36:0 37:0 38:0 39:61 
0.06789472322404927 1:0 2:0 3:0 4:1 5:6 6:12 7:6 8:6 9:6 10:6 11:6 12:7 13:9 14:0 15:0 16:0 17:0 18:0 19:0 20:0 21:8 22:8 23:3 24:3 25:2 26:8 27:8 28:2 29:3 30:3 31:9 32:8 33:0 34:0 35:0 36:0 37:0 38:0 39:65 
0.1321508280118513 1:0 2:0 3:0 4:7 5:12 6:6 7:5 8:6 9:5 10:6 11:8 12:7 13:1 14:0 15:0 16:0 17:0 18:0 19:0 20:5 21:9 22:2 23:3 24:4 25:7 26:9 27:3 28:1 29:1 30:9 31:8 32:0 33:0 34:0 35:0 36:1 37:1 38:0 39:63 
0.5 1:7 2:0 3:0 4:7 5:12 6:5 7:6 8:5 9:6 10:6 11:7 12:8 13:0 14:0 15:0 16:0 17:0 18:0 19:0 20:0 21:0 22:0 23:7 24:10 25:4 26:3 27:3 28:9 29:7 30:2 31:3 32:3 33:9 34:9 35:0 36:0 37:0 38:0 39:69 
0.1005010487144679 1:0 2:0 3:0 4:0 5:0 6:8 7:12 8:6 9:6 10:3 11:5 12:5 13:8 14:9 15:1 16:0 17:0 18:0 19:0 20:0 21:0 22:0 23:8 24:7 25:4 26:3 27:3 28:6 29:8 30:3 31:3 32:3 33:8 34:7 35:0 36:0 37:0 38:0 39:63 
0.3051567247808531 1:0 2:0 3:0 4:0 5:7 6:11 7:5 8:6 9:5 10:6 11:5 12:6 13:8 14:0 15:0 16:0 17:0 18:0 19:0 20:7 21:8 22:3 23:2 24:2 25:8 26:8 27:2 28:3 29:2 30:6 31:8 32:0 33:0 34:0 35:0 36:0 37:0 38:0 39:59 
0.4922293124735345 1:0 2:0 3:0 4:0 5:0 6:1 7:7 8:10 9:6 10:5 11:5 12:5 13:5 14:7 15:6 16:2 17:0 18:0 19:0 20:8 21:6 22:5 23:1 24:3 25:6 26:7 27:2 28:3 29:3 30:8 31:7 32:0 33:0 34:0 35:0 36:0 37:0 38:0 39:59 
0.2727358178951994 1:0 2:0 3:0 4:0 5:0 6:8 7:11 8:5 9:6 10:6 11:6 12:5 13:7 14:7 15:0 16:0 17:0 18:0 19:0 20:0 21:7 22:7 23:4 24:3 25:4 26:7 27:8 28:1 29:2 30:3 31:8 32:7 33:0 34:0 35:0 36:0 37:0 38:0 39:61 
0.3270109290463272 1:11 2:0 3:0 4:0 5:7 6:11 7:3 8:6 9:6 10:5 11:6 12:6 13:7 14:0 15:0 16:0 17:0 18:0 19:0 20:1 21:1 22:1 23:1 24:8 25:9 26:5 27:3 28:2 29:5 30:8 31:2 32:3 33:2 34:9 35:8 36:0 37:0 38:0 39:68 
0.1941919588928945 1:0 2:0 3:0 4:0 5:0 6:6 7:11 8:6 9:6 10:6 11:6 12:5 13:7 14:9 15:0 16:0 17:0 18:0 19:0 20:0 21:0 22:0 23:7 24:9 25:3 26:2 27:4 28:7 29:9 30:3 31:1 32:2 33:7 34:8 35:0 36:0 37:0 38:0 39:62 
0.09550253436224403 1:0 2:0 3:0 4:7 5:11 6:6 7:5 8:6 9:6 10:6 11:7 12:9 13:1 14:0 15:0 16:0 17:0 18:0 19:0 20:0 21:8 22:7 23:4 24:2 25:4 26:8 27:9 28:2 29:3 30:3 31:7 32:7 33:0 34:0 35:0 36:0 37:0 38:0 39:64 
0.3427998239155378 1:0 2:0 3:0 4:8 5:11 6:6 7:5 8:5 9:5 10:5 11:7 12:8 13:0 14:0 15:0 16:0 17:0 18:0 19:0 20:0 21:0 22:7 23:8 24:4 25:2 26:3 27:8 28:9 29:2 30:2 31:3 32:8 33:4 34:0 35:0 36:0 37:0 38:0 39:60 
0.3827835519055235 1:9 2:0 3:0 4:6 5:11 6:5 7:7 8:6 9:5 10:5 11:8 12:8 13:0 14:0 15:0 16:0 17:0 18:0 19:0 20:1 21:8 22:8 23:6 24:4 25:3 26:7 27:10 28:4 29:3 30:1 31:8 32:7 33:0 34:0 35:0 36:0 37:0 38:0 39:70 
0.4793749678096804 1:2 2:11 3:0 4:8 5:11 6:5 7:4 8:6 9:6 10:5 11:7 12:8 13:0 14:0 15:0 16:0 17:0 18:0 19:0 20:2 21:7 22:10 23:3 24:4 25:4 26:6 27:10 28:3 29:4 30:5 31:9 32:6 33:0 34:0 35:0 36:0 37:0 38:0 39:73 
0.382789258607261 1:0 2:0 3:0 4:7 5:12 6:5 7:6 8:6 9:6 10:5 11:8 12:5 13:0 14:0 15:0 16:0 17:0 18:0 19:0 20:7 21:7 22:3 23:3 24:4 25:8 26:6 27:3 28:2 29:1 30:9 31:7 32:0 33:0 34:0 35:0 36:0 37:0 38:0 39:60 
0.1263518858891523 1:0 2:0 3:0 4:9 5:11 6:6 7:6 8:5 9:6 10:5 11:7 12:9 13:1 14:0 15:0 16:0 17:0 18:0 19:0 20:0 21:0 22:6 23:9 24:4 25:3 26:2 27:8 28:8 29:3 30:4 31:2 32:9 33:7 34:0 35:0 36:0 37:0 38:0 39:65 
0.2047204200939339 1:0 2:0 3:0 4:0 5:0 6:8 7:11 8:7 9:6 10:6 11:6 12:6 13:7 14:8 15:0 16:0 17:0 18:0 19:0 20:8 21:9 22:3 23:4 24:4 25:7 26:8 27:1 28:3 29:2 30:8 31:8 32:0 33:0 34:0 35:0 36:0 37:0 38:0 39:65 
0.3284903792972045 1:0 2:0 3:0 4:0 5:6 6:12 7:6 8:7 9:6 10:5 11:5 12:8 13:7 14:0 15:0 16:0 17:0 18:0 19:0 20:0 21:0 22:7 23:8 24:2 25:2 26:3 27:8 28:8 29:3 30:3 31:3 32:8 33:7 34:0 35:0 36:0 37:0 38:0 39:62 
0.1040776273736412 1:0 2:0 3:0 4:0 5:0 6:8 7:11 8:5 9:5 10:6 11:6 12:6 13:9 14:7 15:0 16:0 17:0 18:0 19:0 20:8 21:9 22:3 23:3 24:4 25:6 26:6 27:3 28:2 29:3 30:8 31:8 32:0 33:0 34:0 35:0 36:0 37:0 38:0 39:63 
0.06024742450569118 1:0 2:0 3:0 4:8 5:12 6:6 7:5 8:5 9:6 10:7 11:6 12:9 13:0 14:0 15:0 16:0 17:0 18:0 19:0 20:0 21:0 22:8 23:7 24:3 25:4 26:4 27:8 28:8 29:2 30:3 31:2 32:8 33:7 34:0 35:0 36:0 37:0 38:0 39:64 
0.3053391110175249 1:3 2:8 3:0 4:0 5:7 6:10 7:6 8:6 9:5 10:6 11:6 12:8 13:7 14:0 15:0 16:0 17:0 18:0 19:0 20:2 21:2 22:2 23:0 24:7 25:10 26:4 27:3 28:3 29:7 30:9 31:3 32:3 33:3 34:7 35:7 36:0 37:0 38:0 39:72 
0.4045550172416673 1:10 2:0 3:0 4:0 5:0 6:8 7:12 8:5 9:4 10:6 11:6 12:6 13:6 14:7 15:2 16:0 17:0 18:0 19:0 20:0 21:0 22:0 23:0 24:9 25:11 26:3 27:4 28:4 29:9 30:8 31:2 32:3 33:5 34:8 35:6 36:0 37:0 38:0 39:72 
0.5 1:3 2:9 3:0 4:0 5:0 6:8 7:11 8:6 9:5 10:5 11:4 12:6 13:8 14:8 15:1 16:0 17:0 18:0 19:0 20:1 21:2 22:8 23:8 24:4 25:4 26:5 27:8 28:9 29:3 30:4 31:3 32:8 33:7 34:0 35:0 36:0 37:0 38:0 39:74 
0.162675496768788 1:1 2:0 3:0 4:0 5:10 6:12 7:7 8:5 9:6 10:5 11:5 12:8 13:9 14:0 15:0 16:0 17:0 18:0 19:0 20:0 21:0 22:0 23:0 24:8 25:9 26:5 27:3 28:4 29:8 30:6 31:4 32:3 33:2 34:8 35:8 36:0 37:0 38:0 39:68 
0.3111019416954995 1:0 2:0 3:0 4:0 5:7 6:12 7:6 8:5 9:6 10:5 11:4 12:6 13:9 14:0 15:0 16:0 17:0 18:0 19:0 20:0 21:8 22:7 23:3 24:3 25:3 26:6 27:9 28:2 29:2 30:2 31:8 32:7 33:0 34:0 35:0 36:0 37:0 38:0 39:60 
0.4354881939369071 1:0 2:0 3:0 4:0 5:0 6:0 7:9 8:9 9:5 10:6 11:5 12:4 13:6 14:7 15:9 16:0 17:0 18:0 19:0 20:0 21:0 22:0 23:7 24:7 25:3 26:2 27:3 28:7 29:9 30:3 31:3 32:3 33:7 34:6 35:0 36:0 37:0 38:0 39:60 
0.188129336862355 1:0 2:0 3:0 4:0 5:6 6:12 7:5 8:6 9:6 10:5 11:6 12:8 13:8 14:0 15:0 16:0 17:0 18:0 19:0 20:0 21:0 22:0 23:0 24:8 25:8 26:3 27:2 28:4 29:7 30:9 31:3 32:2 33:2 34:9 35:5 36:0 37:0 38:0 39:62 
0.4160340583453574 1:0 2:0 3:0 4:0 5:0 6:0 7:7 8:12 9:5 10:6 11:6 12:6 13:6 14:8 15:9 16:1 17:0 18:0 19:0 20:0 21:0 22:0 23:0 24:8 25:7 26:4 27:3 28:5 29:8 30:9 31:2 32:2 33:2 34:8 35:8 36:0 37:0 38:0 39:66 
0.111458561665327 1:0 2:0 3:0 4:0 5:0 6:10 7:11 8:6 9:6 10:5 11:6 12:5 13:7 14:8 15:0 16:0 17:0 18:0 19:0 20:0 21:0 22:0 23:7 24:6 25:4 26:3 27:4 28:8 29:8 30:3 31:2 32:3 33:8 34:8 35:0 36:0 37:0 38:0 39:64 
0.04912052587609596 1:0 2:0 3:0 4:0 5:8 6:10 7:6 8:5 9:6 10:6 11:6 12:8 13:7 14:1 15:0 16:0 17:0 18:0 19:0 20:0 21:0 22:7 23:8 24:2 25:4 26:3 27:7 28:8 29:2 30:3 31:3 32:8 33:8 34:0 35:0 36:0 37:0 38:0 39:63 
0.06982416480943386 1:0 2:0 3:0 4:0 5:9 6:11 7:6 8:6 9:6 10:5 11:6 12:8 13:7 14:0 15:0 16:0 17:0 18:0 19:0 20:8 21:7 22:3 23:3 24:3 25:8 26:9 27:2 28:2 29:3 30:9 31:7 32:0 33:0 34:0 35:0 36:0 37:0 38:0 39:64 
0.3973088412876605 1:0 2:0 3:0 4:0 5:0 6:1 7:9 8:11 9:4 10:6 11:6 12:6 13:4 14:8 15:7 16:3 17:0 18:0 19:0 20:0 21:8 22:7 23:5 24:2 25:5 26:8 27:8 28:2 29:2 30:3 31:7 32:8 33:0 34:0 35:0 36:0 37:0 38:0 39:65 
0.1803125589345923 1:0 2:0 3:0 4:0 5:0 6:9 7:8 8:5 9:5 10:5 11:6 12:5 13:7 14:8 15:2 16:0 17:0 18:0 19:0 20:0 21:0 22:0 23:0 24:7 25:9 26:3 27:2 28:3 29:5 30:9 31:2 32:4 33:3 34:8 35:5 36:0 37:0 38:0 39:60 
-0.4683380524583889 1:0 2:0 3:0 4:4 5:4 6:7 7:6 8:4 9:5 10:6 11:4 12:0 13:0 14:0 15:0 16:0 17:0 18:0 19:0 20:0 21:0 22:0 23:7 24:7 25:2 26:1 27:1 28:1 29:2 30:2 31:2 32:2 33:7 34:6 35:0 36:0 37:0 38:0 39:40 
-0.5 1:0 2:0 3:0 4:0 5:0 6:0 7:5 8:5 9:7 10:7 11:6 12:7 13:6 14:4 15:0 16:0 17:0 18:0 19:0 20:8 21:7 22:2 23:2 24:2 25:2 26:2 27:2 28:2 29:2 30:8 31:8 32:0 33:0 34:0 35:0 36:0 37:0 38:0 39:47 
-0.5 1:0 2:1 3:1 4:0 5:0 6:5 7:5 8:7 9:7 10:6 11:7 12:6 13:4 14:0 15:0 16:0 17:0 18:0 19:0 20:0 21:0 22:0 23:8 24:7 25:2 26:3 27:3 28:2 29:2 30:2 31:2 32:2 33:8 34:8 35:0 36:0 37:0 38:0 39:49 
-0.3172977880148349 1:0 2:0 3:0 4:0 5:0 6:4 7:5 8:7 9:7 10:7 11:8 12:5 13:4 14:0 15:0 16:0 17:0 18:0 19:1 20:7 21:8 22:2 23:1 24:2 25:2 26:3 27:2 28:2 29:2 30:7 31:8 32:0 33:0 34:0 35:0 36:0 37:0 38:0 39:47 
-0.5 1:0 2:0 3:0 4:0 5:0 6:0 7:3 8:6 9:6 10:6 11:6 12:6 13:6 14:4 15:0 16:0 17:0 18:0 19:0 20:0 21:0 22:8 23:7 24:2 25:2 26:2 27:2 28:1 29:1 30:2 31:2 32:7 33:7 34:0 35:0 36:0 37:0 38:0 39:43 
-0.06777500623376322 1:0 2:0 3:0 4:0 5:4 6:6 7:7 8:7 9:7 10:8 11:6 12:3 13:0 14:0 15:0 16:0 17:0 18:0 19:0 20:0 21:0 22:7 23:7 24:2 25:2 26:2 27:3 28:2 29:2 30:2 31:2 32:7 33:8 34:1 35:1 36:0 37:0 38:0 39:48 
-0.5 1:0 2:0 3:0 4:5 5:6 6:8 7:7 8:6 9:7 10:6 11:4 12:0 13:0 14:0 15:0 16:0 17:0 18:0 19:0 20:0 21:1 22:1 23:8 24:8 25:2 26:3 27:2 28:2 29:1 30:2 31:2 32:2 33:7 34:8 35:0 36:0 37:0 38:0 39:49 
-0.488995842656083 1:1 2:0 3:0 4:4 5:6 6:7 7:7 8:5 9:6 10:5 11:4 12:1 13:0 14:0 15:0 16:0 17:0 18:0 19:0 20:0 21:0 22:0 23:0 24:7 25:6 26:1 27:3 28:2 29:2 30:2 31:2 32:2 33:3 34:8 35:8 36:0 37:0 38:0 39:46 
-0.1532884849846246 1:1 2:0 3:0 4:0 5:5 6:6 7:7 8:6 9:6 10:5 11:5 12:4 13:0 14:0 15:0 16:0 17:0 18:0 19:0 20:0 21:0 22:0 23:0 24:8 25:8 26:1 27:0 28:3 29:2 30:2 31:2 32:2 33:2 34:7 35:8 36:0 37:0 38:0 39:45 
-0.005463381725172801 1:0 2:0 3:0 4:0 5:0 6:5 7:6 8:7 9:6 10:5 11:7 12:6 13:4 14:0 15:0 16:0 17:0 18:0 19:0 20:8 21:7 22:2 23:2 24:2 25:2 26:2 27:1 28:2 29:2 30:8 31:8 32:0 33:0 34:0 35:0 36:0 37:0 38:0 39:46 
-0.06371907472782463 1:0 2:0 3:0 4:0 5:0 6:4 7:6 8:6 9:7 10:6 11:7 12:6 13:5 14:0 15:0 16:0 17:0 18:0 19:0 20:0 21:0 22:0 23:0 24:8 25:7 26:2 27:3 28:2 29:2 30:1 31:2 32:2 33:2 34:8 35:8 36:0 37:0 38:0 39:47 
-0.1687960919486553 1:0 2:0 3:0 4:0 5:5 6:6 7:5 8:6 9:6 10:5 11:6 12:3 13:0 14:0 15:0 16:0 17:0 18:0 19:0 20:0 21:0 22:8 23:8 24:1 25:1 26:2 27:2 28:2 29:2 30:1 31:2 32:6 33:7 34:0 35:0 36:0 37:0 38:0 39:42 
-0.5 1:5 2:0 3:0 4:0 5:0 6:0 7:5 8:4 9:6 10:6 11:6 12:7 13:6 14:3 15:0 16:0 17:0 18:0 19:0 20:0 21:7 22:7 23:2 24:3 25:3 26:3 27:3 28:2 29:2 30:3 31:6 32:7 33:0 34:0 35:0 36:0 37:0 38:0 39:48 
-0.5 1:0 2:0 3:0 4:5 5:6 6:7 7:6 8:6 9:6 10:6 11:4 12:0 13:0 14:0 15:0 16:0 17:0 18:0 19:0 20:0 21:0 22:8 23:8 24:1 25:2 26:2 27:1 28:2 29:2 30:2 31:2 32:8 33:8 34:0 35:0 36:0 37:0 38:0 39:46 
-0.1328972678627408 1:0 2:0 3:0 4:0 5:0 6:0 7:5 8:6 9:7 10:7 11:5 12:5 13:6 14:4 15:0 16:0 17:0 18:0 19:0 20:7 21:8 22:2 23:2 24:1 25:2 26:2 27:2 28:2 29:2 30:7 31:8 32:0 33:0 34:0 35:0 36:0 37:0 38:0 39:45 
-0.5 1:0 2:0 3:0 4:4 5:6 6:6 7:6 8:6 9:5 10:6 11:4 12:0 13:0 14:0 15:0 16:0 17:0 18:0 19:0 20:0 21:8 22:7 23:1 24:1 25:2 26:1 27:1 28:2 29:2 30:2 31:8 32:8 33:0 34:0 35:0 36:0 37:0 38:0 39:43 
-0.5 1:0 2:0 3:0 4:0 5:5 6:7 7:7 8:7 9:6 10:6 11:6 12:4 13:0 14:0 15:0 16:0 17:0 18:0 19:0 20:0 21:8 22:8 23:2 24:2 25:2 26:2 27:2 28:2 29:2 30:2 31:8 32:8 33:0 34:0 35:0 36:0 37:0 38:0 39:48 
-0.4413913735127726 1:0 2:0 3:0 4:0 5:0 6:0 7:4 8:4 9:7 10:6 11:6 12:6 13:7 14:4 15:0 16:0 17:0 18:0 19:0 20:0 21:0 22:0 23:7 24:7 25:2 26:2 27:2 28:2 29:1 30:2 31:2 32:2 33:7 34:8 35:0 36:0 37:0 38:0 39:44 
-0.4886736606299976 1:0 2:0 3:0 4:0 5:0 6:0 7:5 8:4 9:7 10:8 11:7 12:7 13:5 14:3 15:0 16:0 17:0 18:0 19:0 20:0 21:0 22:0 23:1 24:8 25:8 26:1 27:3 28:2 29:2 30:2 31:2 32:1 33:2 34:6 35:8 36:0 37:0 38:0 39:46 
-0.5 1:0 2:0 3:0 4:5 5:6 6:6 7:7 8:5 9:6 10:6 11:3 12:0 13:0 14:0 15:0 16:0 17:0 18:0 19:0 20:8 21:6 22:2 23:2 24:2 25:1 26:2 27:2 28:1 29:3 30:7 31:8 32:0 33:0 34:0 35:0 36:0 37:0 38:0 39:44 
-0.06290461544643797 1:0 2:0 3:0 4:5 5:6 6:6 7:6 8:6 9:7 10:5 11:4 12:0 13:0 14:0 15:0 16:0 17:0 18:0 19:0 20:0 21:0 22:7 23:7 24:1 25:2 26:2 27:2 28:2 29:2 30:2 31:2 32:8 33:8 34:0 35:0 36:0 37:0 38:0 39:45 
-0.2184620651958361 1:0 2:0 3:0 4:0 5:0 6:5 7:6 8:6 9:7 10:5 11:7 12:6 13:4 14:0 15:0 16:0 17:0 18:0 19:0 20:0 21:0 22:8 23:8 24:2 25:2 26:3 27:2 28:2 29:1 30:2 31:2 32:8 33:6 34:0 35:0 36:0 37:0 38:0 39:46 
-0.2820126701515205 1:0 2:0 3:0 4:0 5:5 6:6 7:7 8:7 9:5 10:6 11:7 12:4 13:0 14:0 15:0 16:0 17:0 18:0 19:0 20:0 21:0 22:0 23:0 24:8 25:8 26:1 27:2 28:2 29:2 30:2 31:2 32:2 33:3 34:7 35:8 36:0 37:0 38:0 39:47 
-0.3349846029880217 1:0 2:0 3:0 4:0 5:0 6:0 7:4 8:5 9:7 10:6 11:6 12:7 13:5 14:3 15:0 16:0 17:0 18:0 19:0 20:0 21:0 22:0 23:0 24:7 25:7 26:2 27:1 28:2 29:2 30:2 31:2 32:2 33:1 34:8 35:7 36:0 37:0 38:0 39:43 
-0.479922534760817 1:0 2:0 3:0 4:0 5:0 6:4 7:5 8:7 9:6 10:5 11:6 12:5 13:2 14:0 15:0 16:0 17:0 18:0 19:0 20:7 21:3 22:2 23:2 24:2 25:1 26:2 27:2 28:2 29:2 30:8 31:7 32:0 33:0 34:0 35:0 36:0 37:0 38:0 39:40 
