svm_type c_svc
kernel_type rbf
gamma 0.0078125
nr_class 2
total_sv 32
rho 0.27355
label 0 1
probA -3.8711
probB 0.128756
nr_sv 16 16
SV
0.3708703937604252 1:0 2:0 3:0 4:5 5:6 6:4 7:5 8:4 9:4 10:4 11:3 12:2 13:0 14:0 15:0 16:0 17:0 18:0 19:1 20:4 21:5 22:4 23:1 24:2 25:2 26:2 27:2 28:1 29:4 30:5 31:4 32:0 33:0 34:0 35:0 36:0 37:0 38:0 39:37 
0.7793486140171203 1:0 2:0 3:0 4:5 5:8 6:4 7:4 8:4 9:3 10:4 11:4 12:2 13:0 14:0 15:0 16:0 17:0 18:0 19:0 20:0 21:0 22:0 23:0 24:4 25:6 26:4 27:2 28:2 29:2 30:2 31:2 32:1 33:4 34:5 35:4 36:0 37:0 38:0 39:38 
1.471976186808866 1:0 2:0 3:0 4:0 5:6 6:8 7:4 8:4 9:4 10:4 11:4 12:4 13:2 14:0 15:0 16:0 17:0 18:0 19:0 20:1 21:4 22:6 23:4 24:2 25:2 26:2 27:2 28:2 29:2 30:4 31:5 32:4 33:0 34:0 35:0 36:0 37:0 38:0 39:40 
0.08924531457391525 1:0 2:0 3:0 4:0 5:0 6:5 7:8 8:4 9:4 10:4 11:4 12:3 13:4 14:1 15:0 16:0 17:0 18:0 19:0 20:4 21:6 22:4 23:2 24:1 25:2 26:2 27:2 28:2 29:3 30:6 31:3 32:0 33:0 34:0 35:0 36:0 37:0 38:0 39:37 
0.9610142549473474 1:0 2:0 3:0 4:0 5:0 6:6 7:8 8:4 9:4 10:5 11:5 12:3 13:4 14:2 15:0 16:0 17:0 18:0 19:0 20:0 21:0 22:0 23:4 24:5 25:4 26:2 27:2 28:2 29:2 30:4 31:3 32:4 33:6 34:3 35:0 36:0 37:0 38:0 39:41 
0.3556767727980273 1:0 2:0 3:0 4:5 5:8 6:4 7:3 8:4 9:3 10:3 11:4 12:1 13:0 14:0 15:0 16:0 17:0 18:0 19:0 20:0 21:0 22:0 23:4 24:5 25:3 26:2 27:2 28:2 29:2 30:2 31:1 32:4 33:6 34:2 35:0 36:0 37:0 38:0 39:35 
0.3387200362609598 1:0 2:0 3:0 4:0 5:0 6:4 7:7 8:4 9:3 10:4 11:3 12:4 13:4 14:3 15:0 16:0 17:0 18:0 19:0 20:4 21:6 22:4 23:2 24:2 25:2 26:0 27:2 28:1 29:4 30:6 31:3 32:0 33:0 34:0 35:0 36:0 37:0 38:0 39:36 
0.03107974134306307 1:0 2:0 3:0 4:0 5:5 6:8 7:4 8:4 9:3 10:4 11:3 12:4 13:2 14:0 15:0 16:0 17:0 18:0 19:0 20:0 21:0 22:4 23:6 24:4 25:2 26:2 27:2 28:2 29:2 30:1 31:4 32:6 33:2 34:0 35:0 36:0 37:0 38:0 39:37 
0.07536248592358938 1:0 2:0 3:0 4:0 5:0 6:4 7:8 8:4 9:4 10:4 11:5 12:4 13:4 14:2 15:0 16:0 17:0 18:0 19:0 20:1 21:4 22:6 23:4 24:1 25:2 26:2 27:2 28:2 29:1 30:4 31:6 32:4 33:0 34:0 35:0 36:0 37:0 38:0 39:39 
0.5037844906198571 1:0 2:0 3:0 4:0 5:5 6:7 7:5 8:4 9:4 10:4 11:4 12:4 13:2 14:0 15:0 16:0 17:0 18:0 19:0 20:4 21:7 22:3 23:1 24:3 25:2 26:2 27:2 28:2 29:3 30:6 31:4 32:0 33:0 34:0 35:0 36:0 37:0 38:0 39:39 
0.825340148828786 1:0 2:0 3:0 4:0 5:0 6:0 7:6 8:8 9:4 10:4 11:4 12:2 13:4 14:4 15:2 16:0 17:0 18:0 19:0 20:0 21:0 22:0 23:3 24:5 25:4 26:2 27:2 28:2 29:2 30:2 31:2 32:4 33:6 34:4 35:0 36:0 37:0 38:0 39:38 
0.175899158059662 1:0 2:0 3:0 4:0 5:0 6:0 7:6 8:8 9:4 10:4 11:4 12:3 13:2 14:2 15:1 16:0 17:0 18:0 19:0 20:0 21:0 22:0 23:0 24:3 25:4 26:2 27:2 28:2 29:2 30:2 31:2 32:2 33:4 34:5 35:4 36:0 37:0 38:0 39:34 
0.7444712579829191 1:1 2:0 3:0 4:0 5:0 6:6 7:7 8:4 9:3 10:4 11:4 12:4 13:4 14:2 15:0 16:0 17:0 18:0 19:0 20:0 21:0 22:3 23:6 24:4 25:1 26:2 27:3 28:3 29:2 30:1 31:5 32:5 33:4 34:0 35:0 36:0 37:0 38:0 39:39 
1.094031245582982 1:0 2:0 3:0 4:0 5:6 6:8 7:5 8:3 9:4 10:5 11:3 12:3 13:2 14:0 15:0 16:0 17:0 18:0 19:0 20:0 21:0 22:0 23:0 24:4 25:6 26:4 27:2 28:3 29:2 30:2 31:2 32:2 33:3 34:6 35:2 36:1 37:0 38:0 39:39 
0.8383266149483171 1:0 2:0 3:0 4:5 5:8 6:1 7:4 8:3 9:4 10:3 11:3 12:2 13:0 14:0 15:0 16:0 17:0 18:0 19:0 20:0 21:0 22:3 23:4 24:4 25:2 26:1 27:2 28:2 29:2 30:2 31:2 32:5 33:4 34:0 35:0 36:0 37:0 38:0 39:33 
0.157336172067893 1:0 2:0 3:0 4:0 5:5 6:8 7:4 8:4 9:4 10:4 11:4 12:3 13:2 14:0 15:0 16:0 17:0 18:0 19:0 20:4 21:5 22:4 23:2 24:1 25:2 26:2 27:2 28:2 29:4 30:6 31:4 32:0 33:0 34:0 35:0 36:0 37:0 38:0 39:38 
-0.5848690875779752 1:0 2:0 3:0 4:0 5:0 6:8 7:11 8:2 9:2 10:2 11:4 12:5 13:5 14:4 15:1 16:0 17:0 18:0 19:0 20:0 21:0 22:4 23:3 24:4 25:3 26:3 27:5 28:6 29:3 30:3 31:4 32:2 33:4 34:0 35:0 36:0 37:0 38:0 39:44 
-2 1:0 2:0 3:0 4:6 5:9 6:3 7:2 8:3 9:4 10:5 11:4 12:3 13:0 14:0 15:0 16:0 17:0 18:0 19:0 20:0 21:0 22:1 23:4 24:4 25:3 26:3 27:5 28:5 29:3 30:4 31:3 32:3 33:1 34:0 35:0 36:0 37:0 38:0 39:39 
-0.1797794592595839 1:0 2:0 3:0 4:0 5:0 6:0 7:7 8:12 9:3 10:3 11:2 12:5 13:4 14:5 15:3 16:1 17:0 18:0 19:0 20:3 21:4 22:4 23:3 24:4 25:5 26:5 27:4 28:3 29:3 30:3 31:4 32:0 33:0 34:0 35:0 36:0 37:0 38:0 39:45 
-0.4996847237546403 1:0 2:0 3:0 4:0 5:0 6:0 7:8 8:10 9:3 10:2 11:2 12:4 13:5 14:5 15:3 16:1 17:0 18:0 19:0 20:0 21:0 22:0 23:0 24:4 25:3 26:3 27:3 28:5 29:4 30:5 31:4 32:4 33:3 34:3 35:2 36:0 37:0 38:0 39:43 
-1.075795062396263 1:0 2:0 3:0 4:0 5:5 6:12 7:4 8:1 9:2 10:5 11:3 12:4 13:4 14:1 15:0 16:0 17:0 18:0 19:0 20:0 21:3 22:3 23:4 24:2 25:3 26:4 27:4 28:4 29:4 30:4 31:2 32:2 33:0 34:0 35:1 36:1 37:0 38:0 39:41 
-0.5477198828101895 1:0 2:0 3:0 4:0 5:0 6:7 7:11 8:3 9:2 10:2 11:5 12:5 13:4 14:4 15:1 16:0 17:0 18:0 19:0 20:3 21:4 22:4 23:3 24:3 25:6 26:6 27:3 28:4 29:3 30:2 31:3 32:0 33:0 34:0 35:0 36:0 37:0 38:0 39:44 
-0.01836199476906794 1:0 2:0 3:0 4:5 5:12 6:3 7:3 8:2 9:4 10:5 11:5 12:4 13:1 14:0 15:0 16:0 17:0 18:0 19:0 20:0 21:4 22:3 23:2 24:3 25:3 26:5 27:6 28:4 29:3 30:4 31:3 32:4 33:0 34:0 35:0 36:0 37:0 38:0 39:44 
-0.5722714062948715 1:0 2:0 3:0 4:0 5:7 6:12 7:2 8:3 9:3 10:4 11:4 12:4 13:4 14:1 15:0 16:0 17:0 18:0 19:0 20:4 21:3 22:3 23:3 24:5 25:4 26:6 27:3 28:3 29:3 30:3 31:4 32:0 33:0 34:0 35:0 36:0 37:0 38:0 39:44 
-0.5796142157117061 1:0 2:0 3:0 4:1 5:6 6:11 7:3 8:2 9:3 10:5 11:5 12:4 13:3 14:1 15:0 16:0 17:0 18:0 19:0 20:0 21:0 22:0 23:0 24:4 25:4 26:3 27:3 28:3 29:5 30:5 31:3 32:5 33:4 34:1 35:4 36:0 37:0 38:0 39:44 
-0.6078983199409937 1:0 2:0 3:0 4:0 5:1 6:8 7:10 8:3 9:3 10:2 11:5 12:4 13:4 14:4 15:1 16:0 17:0 18:0 19:0 20:0 21:0 22:0 23:1 24:4 25:4 26:2 27:2 28:4 29:6 30:5 31:3 32:4 33:2 34:4 35:4 36:0 37:0 38:0 39:45 
-0.08572912538674984 1:0 2:0 3:0 4:10 5:12 6:3 7:3 8:3 9:3 10:5 11:4 12:4 13:1 14:0 15:0 16:0 17:0 18:0 19:0 20:0 21:3 22:4 23:3 24:4 25:4 26:5 27:6 28:3 29:4 30:4 31:4 32:4 33:0 34:0 35:0 36:0 37:0 38:0 39:48 
-0.3475369834636829 1:0 2:0 3:0 4:10 5:12 6:2 7:3 8:3 9:5 10:4 11:5 12:4 13:0 14:0 15:0 16:0 17:0 18:0 19:0 20:0 21:0 22:0 23:0 24:4 25:3 26:3 27:4 28:5 29:6 30:5 31:4 32:4 33:4 34:3 35:3 36:0 37:0 38:0 39:48 
-0.847353939671411 1:0 2:0 3:0 4:0 5:0 6:0 7:6 8:12 9:2 10:2 11:3 12:4 13:5 14:5 15:2 16:1 17:0 18:0 19:0 20:0 21:0 22:0 23:2 24:4 25:4 26:3 27:4 28:5 29:5 30:3 31:3 32:3 33:3 34:3 35:0 36:0 37:0 38:0 39:42 
-0.2712965798432457 1:0 2:0 3:0 4:0 5:0 6:1 7:5 8:12 9:3 10:2 11:3 12:5 13:4 14:5 15:3 16:1 17:0 18:0 19:0 20:3 21:3 22:3 23:4 24:3 25:5 26:6 27:4 28:3 29:3 30:4 31:3 32:0 33:0 34:0 35:0 36:0 37:0 38:0 39:44 
-0.1100174382690131 1:0 2:0 3:0 4:0 5:0 6:8 7:12 8:2 9:2 10:3 11:4 12:5 13:6 14:4 15:1 16:0 17:0 18:0 19:0 20:0 21:0 22:1 23:4 24:4 25:5 26:4 27:3 28:4 29:4 30:4 31:3 32:4 33:4 34:3 35:0 36:0 37:0 38:0 39:47 
-0.484554669374336 1:0 2:0 3:0 4:0 5:6 6:11 7:3 8:2 9:3 10:4 11:4 12:5 13:3 14:0 15:0 16:0 17:0 18:0 19:0 20:0 21:0 22:0 23:4 24:4 25:3 26:4 27:4 28:5 29:4 30:4 31:2 32:4 33:2 34:1 35:0 36:0 37:0 38:0 39:41 
