svm_type c_svc
kernel_type rbf
gamma 0.0078125
nr_class 2
total_sv 40
rho 0.538576
label 0 1
probA -4.26707
probB 0.265043
nr_sv 20 20
SV
0.5 1:0 2:0 3:0 4:5 5:6 6:4 7:5 8:4 9:4 10:4 11:3 12:2 13:0 14:0 15:0 16:0 17:0 18:0 19:1 20:4 21:5 22:4 23:1 24:2 25:2 26:2 27:2 28:1 29:4 30:5 31:4 32:0 33:0 34:0 35:0 36:0 37:0 38:0 39:37 
0.4421093829765463 1:0 2:0 3:0 4:5 5:8 6:4 7:4 8:4 9:3 10:4 11:4 12:2 13:0 14:0 15:0 16:0 17:0 18:0 19:0 20:0 21:0 22:0 23:0 24:4 25:6 26:4 27:2 28:2 29:2 30:2 31:2 32:1 33:4 34:5 35:4 36:0 37:0 38:0 39:38 
0.5 1:0 2:0 3:0 4:0 5:6 6:8 7:4 8:4 9:4 10:4 11:4 12:4 13:2 14:0 15:0 16:0 17:0 18:0 19:0 20:1 21:4 22:6 23:4 24:2 25:2 26:2 27:2 28:2 29:2 30:4 31:5 32:4 33:0 34:0 35:0 36:0 37:0 38:0 39:40 
0.2546696456681751 1:0 2:0 3:0 4:0 5:0 6:5 7:8 8:4 9:4 10:4 11:4 12:3 13:4 14:1 15:0 16:0 17:0 18:0 19:0 20:4 21:6 22:4 23:2 24:1 25:2 26:2 27:2 28:2 29:3 30:6 31:3 32:0 33:0 34:0 35:0 36:0 37:0 38:0 39:37 
0.3046808529644147 1:0 2:0 3:0 4:0 5:6 6:8 7:3 8:4 9:4 10:4 11:4 12:4 13:2 14:0 15:0 16:0 17:0 18:0 19:0 20:0 21:4 22:6 23:3 24:2 25:2 26:2 27:2 28:2 29:2 30:4 31:6 32:4 33:0 34:0 35:0 36:0 37:0 38:0 39:39 
0.5 1:0 2:0 3:0 4:0 5:0 6:6 7:8 8:4 9:4 10:5 11:5 12:3 13:4 14:2 15:0 16:0 17:0 18:0 19:0 20:0 21:0 22:0 23:4 24:5 25:4 26:2 27:2 28:2 29:2 30:4 31:3 32:4 33:6 34:3 35:0 36:0 37:0 38:0 39:41 
0.5 1:0 2:0 3:0 4:0 5:0 6:5 7:8 8:4 9:4 10:4 11:4 12:4 13:4 14:2 15:0 16:0 17:0 18:0 19:0 20:0 21:0 22:4 23:6 24:4 25:2 26:2 27:2 28:2 29:2 30:1 31:4 32:6 33:4 34:0 35:0 36:0 37:0 38:0 39:39 
0.07510080794336857 1:0 2:0 3:0 4:5 5:8 6:4 7:3 8:4 9:3 10:3 11:4 12:1 13:0 14:0 15:0 16:0 17:0 18:0 19:0 20:0 21:0 22:0 23:4 24:5 25:3 26:2 27:2 28:2 29:2 30:2 31:1 32:4 33:6 34:2 35:0 36:0 37:0 38:0 39:35 
0.235086918903045 1:0 2:0 3:0 4:0 5:0 6:4 7:7 8:4 9:3 10:4 11:3 12:4 13:4 14:3 15:0 16:0 17:0 18:0 19:0 20:4 21:6 22:4 23:2 24:2 25:2 26:0 27:2 28:1 29:4 30:6 31:3 32:0 33:0 34:0 35:0 36:0 37:0 38:0 39:36 
0.5 1:0 2:0 3:0 4:0 5:0 6:4 7:8 8:4 9:4 10:4 11:5 12:4 13:4 14:2 15:0 16:0 17:0 18:0 19:0 20:1 21:4 22:6 23:4 24:1 25:2 26:2 27:2 28:2 29:1 30:4 31:6 32:4 33:0 34:0 35:0 36:0 37:0 38:0 39:39 
0.3304276621775516 1:0 2:0 3:0 4:0 5:5 6:8 7:4 8:4 9:4 10:4 11:4 12:4 13:2 14:0 15:0 16:0 17:0 18:0 19:0 20:0 21:0 22:0 23:4 24:6 25:4 26:2 27:2 28:2 29:2 30:2 31:1 32:4 33:6 34:4 35:0 36:0 37:0 38:0 39:39 
0.1472948488986189 1:0 2:0 3:0 4:0 5:0 6:5 7:5 8:3 9:4 10:4 11:4 12:4 13:3 14:1 15:0 16:0 17:0 18:0 19:0 20:4 21:6 22:3 23:1 24:2 25:1 26:2 27:2 28:0 29:3 30:5 31:4 32:0 33:0 34:0 35:0 36:0 37:0 38:0 39:33 
0.5 1:0 2:0 3:0 4:0 5:5 6:7 7:5 8:4 9:4 10:4 11:4 12:4 13:2 14:0 15:0 16:0 17:0 18:0 19:0 20:4 21:7 22:3 23:1 24:3 25:2 26:2 27:2 28:2 29:3 30:6 31:4 32:0 33:0 34:0 35:0 36:0 37:0 38:0 39:39 
0.5 1:0 2:0 3:0 4:0 5:0 6:0 7:6 8:8 9:4 10:4 11:4 12:2 13:4 14:4 15:2 16:0 17:0 18:0 19:0 20:0 21:0 22:0 23:3 24:5 25:4 26:2 27:2 28:2 29:2 30:2 31:2 32:4 33:6 34:4 35:0 36:0 37:0 38:0 39:38 
0.3597366043638857 1:0 2:0 3:0 4:0 5:5 6:8 7:4 8:4 9:4 10:4 11:4 12:4 13:2 14:0 15:0 16:0 17:0 18:0 19:0 20:0 21:0 22:0 23:4 24:6 25:4 26:2 27:2 28:2 29:2 30:2 31:1 32:4 33:6 34:4 35:0 36:0 37:0 38:0 39:39 
0.5 1:0 2:0 3:0 4:0 5:0 6:0 7:6 8:8 9:4 10:4 11:4 12:3 13:2 14:2 15:1 16:0 17:0 18:0 19:0 20:0 21:0 22:0 23:0 24:3 25:4 26:2 27:2 28:2 29:2 30:2 31:2 32:2 33:4 34:5 35:4 36:0 37:0 38:0 39:34 
0.2785424472933095 1:1 2:0 3:0 4:0 5:0 6:6 7:7 8:4 9:3 10:4 11:4 12:4 13:4 14:2 15:0 16:0 17:0 18:0 19:0 20:0 21:0 22:3 23:6 24:4 25:1 26:2 27:3 28:3 29:2 30:1 31:5 32:5 33:4 34:0 35:0 36:0 37:0 38:0 39:39 
0.3156070901416077 1:0 2:0 3:0 4:0 5:6 6:8 7:5 8:3 9:4 10:5 11:3 12:3 13:2 14:0 15:0 16:0 17:0 18:0 19:0 20:0 21:0 22:0 23:0 24:4 25:6 26:4 27:2 28:3 29:2 30:2 31:2 32:2 33:3 34:6 35:2 36:1 37:0 38:0 39:39 
0.5 1:0 2:0 3:0 4:4 5:8 6:4 7:4 8:4 9:4 10:4 11:4 12:3 13:0 14:0 15:0 16:0 17:0 18:0 19:0 20:0 21:0 22:0 23:0 24:4 25:7 26:4 27:1 28:2 29:2 30:2 31:2 32:1 33:4 34:6 35:4 36:0 37:0 38:0 39:39 
0.5 1:0 2:0 3:0 4:5 5:8 6:1 7:4 8:3 9:4 10:3 11:3 12:2 13:0 14:0 15:0 16:0 17:0 18:0 19:0 20:0 21:0 22:3 23:4 24:4 25:2 26:1 27:2 28:2 29:2 30:2 31:2 32:5 33:4 34:0 35:0 36:0 37:0 38:0 39:33 
-0.5 1:0 2:0 3:0 4:4 5:4 6:7 7:6 8:4 9:5 10:6 11:4 12:0 13:0 14:0 15:0 16:0 17:0 18:0 19:0 20:0 21:0 22:0 23:7 24:7 25:2 26:1 27:1 28:1 29:2 30:2 31:2 32:2 33:7 34:6 35:0 36:0 37:0 38:0 39:40 
-0.5 1:0 2:0 3:0 4:4 5:5 6:7 7:6 8:6 9:6 10:5 11:4 12:0 13:0 14:0 15:0 16:0 17:0 18:0 19:0 20:0 21:0 22:6 23:8 24:1 25:2 26:2 27:1 28:2 29:2 30:2 31:2 32:8 33:7 34:0 35:0 36:0 37:0 38:0 39:43 
-0.5 1:0 2:0 3:0 4:0 5:4 6:4 7:7 8:7 9:6 10:6 11:6 12:4 13:0 14:0 15:0 16:0 17:0 18:0 19:0 20:6 21:7 22:2 23:2 24:2 25:2 26:2 27:2 28:2 29:2 30:7 31:8 32:0 33:0 34:0 35:0 36:0 37:0 38:0 39:44 
-0.5 1:0 2:0 3:0 4:0 5:0 6:0 7:3 8:6 9:6 10:6 11:6 12:6 13:6 14:4 15:0 16:0 17:0 18:0 19:0 20:0 21:0 22:8 23:7 24:2 25:2 26:2 27:2 28:1 29:1 30:2 31:2 32:7 33:7 34:0 35:0 36:0 37:0 38:0 39:43 
-0.07431509225619064 1:0 2:0 3:0 4:5 5:6 6:8 7:7 8:6 9:7 10:6 11:4 12:0 13:0 14:0 15:0 16:0 17:0 18:0 19:0 20:0 21:1 22:1 23:8 24:8 25:2 26:3 27:2 28:2 29:1 30:2 31:2 32:2 33:7 34:8 35:0 36:0 37:0 38:0 39:49 
-0.4940273308662777 1:1 2:0 3:0 4:4 5:6 6:7 7:7 8:5 9:6 10:5 11:4 12:1 13:0 14:0 15:0 16:0 17:0 18:0 19:0 20:0 21:0 22:0 23:0 24:7 25:6 26:1 27:3 28:2 29:2 30:2 31:2 32:2 33:3 34:8 35:8 36:0 37:0 38:0 39:46 
-0.1166160189555607 1:1 2:0 3:0 4:0 5:5 6:6 7:7 8:6 9:6 10:5 11:5 12:4 13:0 14:0 15:0 16:0 17:0 18:0 19:0 20:0 21:0 22:0 23:0 24:8 25:8 26:1 27:0 28:3 29:2 30:2 31:2 32:2 33:2 34:7 35:8 36:0 37:0 38:0 39:45 
-0.5 1:0 2:0 3:0 4:0 5:5 6:6 7:5 8:6 9:6 10:5 11:6 12:3 13:0 14:0 15:0 16:0 17:0 18:0 19:0 20:0 21:0 22:8 23:8 24:1 25:1 26:2 27:2 28:2 29:2 30:1 31:2 32:6 33:7 34:0 35:0 36:0 37:0 38:0 39:42 
-0.4132502488754765 1:5 2:0 3:0 4:0 5:0 6:0 7:5 8:4 9:6 10:6 11:6 12:7 13:6 14:3 15:0 16:0 17:0 18:0 19:0 20:0 21:7 22:7 23:2 24:3 25:3 26:3 27:3 28:2 29:2 30:3 31:6 32:7 33:0 34:0 35:0 36:0 37:0 38:0 39:48 
-0.223501481551666 1:0 2:0 3:0 4:0 5:4 6:6 7:7 8:6 9:5 10:7 11:6 12:3 13:0 14:0 15:0 16:0 17:0 18:0 19:0 20:0 21:0 22:8 23:8 24:2 25:2 26:2 27:2 28:2 29:2 30:2 31:1 32:8 33:5 34:0 35:0 36:0 37:0 38:0 39:44 
-0.2798072970767314 1:0 2:0 3:0 4:0 5:0 6:0 7:5 8:6 9:7 10:7 11:5 12:5 13:6 14:4 15:0 16:0 17:0 18:0 19:0 20:7 21:8 22:2 23:2 24:1 25:2 26:2 27:2 28:2 29:2 30:7 31:8 32:0 33:0 34:0 35:0 36:0 37:0 38:0 39:45 
-0.5 1:0 2:0 3:0 4:4 5:6 6:6 7:6 8:6 9:5 10:6 11:4 12:0 13:0 14:0 15:0 16:0 17:0 18:0 19:0 20:0 21:8 22:7 23:1 24:1 25:2 26:1 27:1 28:2 29:2 30:2 31:8 32:8 33:0 34:0 35:0 36:0 37:0 38:0 39:43 
-0.1930673578832125 1:0 2:0 3:0 4:0 5:5 6:7 7:7 8:7 9:6 10:6 11:6 12:4 13:0 14:0 15:0 16:0 17:0 18:0 19:0 20:0 21:8 22:8 23:2 24:2 25:2 26:2 27:2 28:2 29:2 30:2 31:8 32:8 33:0 34:0 35:0 36:0 37:0 38:0 39:48 
-0.453907494477238 1:0 2:0 3:0 4:0 5:0 6:0 7:4 8:4 9:7 10:6 11:6 12:6 13:7 14:4 15:0 16:0 17:0 18:0 19:0 20:0 21:0 22:0 23:7 24:7 25:2 26:2 27:2 28:2 29:1 30:2 31:2 32:2 33:7 34:8 35:0 36:0 37:0 38:0 39:44 
-0.5 1:0 2:0 3:0 4:0 5:4 6:5 7:7 8:7 9:5 10:5 11:6 12:4 13:0 14:0 15:0 16:0 17:0 18:0 19:0 20:0 21:0 22:0 23:0 24:7 25:7 26:2 27:2 28:1 29:2 30:2 31:2 32:2 33:2 34:7 35:7 36:0 37:0 38:0 39:43 
-0.4698407338361194 1:0 2:0 3:0 4:0 5:0 6:5 7:6 8:7 9:6 10:5 11:7 12:5 13:4 14:0 15:0 16:0 17:0 18:0 19:0 20:0 21:0 22:0 23:8 24:8 25:2 26:2 27:2 28:1 29:2 30:2 31:2 32:2 33:6 34:8 35:0 36:0 37:0 38:0 39:45 
-0.5 1:0 2:0 3:0 4:5 5:6 6:6 7:7 8:5 9:6 10:6 11:3 12:0 13:0 14:0 15:0 16:0 17:0 18:0 19:0 20:8 21:6 22:2 23:2 24:2 25:1 26:2 27:2 28:1 29:3 30:7 31:8 32:0 33:0 34:0 35:0 36:0 37:0 38:0 39:44 
-0.02561707661144095 1:0 2:0 3:0 4:0 5:0 6:5 7:6 8:6 9:7 10:5 11:7 12:6 13:4 14:0 15:0 16:0 17:0 18:0 19:0 20:0 21:0 22:8 23:8 24:2 25:2 26:3 27:2 28:2 29:1 30:2 31:2 32:8 33:6 34:0 35:0 36:0 37:0 38:0 39:46 
-0.4993061289406094 1:0 2:0 3:0 4:0 5:0 6:0 7:4 8:5 9:7 10:6 11:6 12:7 13:5 14:3 15:0 16:0 17:0 18:0 19:0 20:0 21:0 22:0 23:0 24:7 25:7 26:2 27:1 28:2 29:2 30:2 31:2 32:2 33:1 34:8 35:7 36:0 37:0 38:0 39:43 
-0.5 1:0 2:0 3:0 4:0 5:0 6:4 7:5 8:7 9:6 10:5 11:6 12:5 13:2 14:0 15:0 16:0 17:0 18:0 19:0 20:7 21:3 22:2 23:2 24:2 25:1 26:2 27:2 28:2 29:2 30:8 31:7 32:0 33:0 34:0 35:0 36:0 37:0 38:0 39:40 
