svm_type c_svc
kernel_type rbf
gamma 0.0078125
nr_class 2
total_sv 56
rho 0.0144362
label 1 0
probA -0.00813264
probB 0.0012065
nr_sv 28 28
SV
0.03125 1:0 2:0 3:0 4:0 5:0 6:0 7:3 8:7 9:4 10:4 11:2 12:4 13:10 14:0 15:0 16:0 17:0 18:0 19:0 20:0 21:0 22:0 23:1 24:1 25:1 26:3 27:6 28:2 29:3 30:3 31:3 32:3 33:5 34:3 35:0 36:0 37:0 38:0 39:34 
0.03125 1:0 2:0 3:0 4:0 5:4 6:7 7:4 8:4 9:2 10:3 11:12 12:2 13:0 14:0 15:0 16:0 17:0 18:0 19:0 20:1 21:1 22:2 23:3 24:6 25:3 26:2 27:3 28:3 29:4 30:6 31:4 32:0 33:0 34:0 35:0 36:0 37:0 38:0 39:38 
0.03125 1:0 2:0 3:1 4:5 5:7 6:4 7:3 8:2 9:3 10:10 11:0 12:0 13:0 14:0 15:0 16:0 17:0 18:0 19:0 20:1 21:1 22:1 23:2 24:6 25:5 26:3 27:3 28:2 29:2 30:6 31:3 32:0 33:0 34:0 35:0 36:0 37:0 38:0 39:35 
0.03125 1:0 2:0 3:0 4:0 5:3 6:7 7:3 8:4 9:2 10:2 11:11 12:1 13:0 14:0 15:0 16:0 17:0 18:0 19:0 20:0 21:0 22:0 23:2 24:1 25:1 26:2 27:6 28:3 29:3 30:2 31:2 32:4 33:5 34:2 35:0 36:0 37:0 38:0 39:33 
0.03125 1:0 2:0 3:0 4:4 5:7 6:4 7:3 8:2 9:2 10:9 11:0 12:0 13:0 14:0 15:0 16:0 17:0 18:0 19:0 20:0 21:0 22:0 23:1 24:1 25:1 26:3 27:6 28:4 29:3 30:2 31:2 32:2 33:5 34:1 35:0 36:0 37:0 38:0 39:31 
0.03125 1:0 2:0 3:0 4:0 5:0 6:4 7:7 8:4 9:4 10:3 11:4 12:10 13:0 14:0 15:0 16:0 17:0 18:0 19:0 20:0 21:0 22:0 23:1 24:2 25:1 26:3 27:6 28:1 29:3 30:3 31:3 32:4 33:6 34:3 35:0 36:0 37:0 38:0 39:36 
0.03125 1:0 2:0 3:0 4:0 5:0 6:3 7:7 8:5 9:4 10:2 11:3 12:10 13:1 14:0 15:0 16:0 17:0 18:0 19:0 20:0 21:0 22:1 23:1 24:3 25:6 26:3 27:3 28:4 29:2 30:3 31:6 32:3 33:0 34:0 35:0 36:0 37:0 38:0 39:35 
0.03125 1:0 2:0 3:0 4:0 5:0 6:5 7:7 8:3 9:4 10:1 11:4 12:11 13:0 14:0 15:0 16:0 17:0 18:0 19:0 20:0 21:0 22:0 23:0 24:1 25:1 26:3 27:5 28:4 29:3 30:3 31:3 32:4 33:5 34:3 35:0 36:0 37:0 38:0 39:35 
0.03125 1:0 2:0 3:0 4:0 5:0 6:5 7:6 8:4 9:4 10:1 11:4 12:12 13:0 14:0 15:0 16:0 17:0 18:0 19:0 20:0 21:1 22:1 23:1 24:3 25:6 26:4 27:3 28:3 29:3 30:4 31:4 32:3 33:0 34:0 35:0 36:0 37:0 38:0 39:36 
0.03125 1:0 2:0 3:0 4:0 5:0 6:4 7:6 8:4 9:4 10:2 11:3 12:8 13:0 14:0 15:0 16:0 17:0 18:0 19:0 20:0 21:0 22:1 23:1 24:3 25:5 26:3 27:3 28:3 29:1 30:2 31:6 32:3 33:0 34:0 35:0 36:0 37:0 38:0 39:31 
0.03125 1:0 2:0 3:0 4:0 5:4 6:6 7:4 8:3 9:2 10:3 11:12 12:0 13:0 14:0 15:0 16:0 17:0 18:0 19:0 20:0 21:0 22:0 23:1 24:1 25:1 26:3 27:4 28:2 29:3 30:3 31:3 32:4 33:6 34:3 35:0 36:0 37:0 38:0 39:34 
0.03125 1:0 2:0 3:0 4:4 5:7 6:4 7:4 8:1 9:3 10:12 11:1 12:0 13:0 14:0 15:0 16:0 17:0 18:0 19:0 20:0 21:0 22:0 23:0 24:1 25:1 26:1 27:3 28:5 29:3 30:3 31:3 32:4 33:3 34:6 35:3 36:0 37:0 38:0 39:36 
0.03125 1:0 2:0 3:0 4:0 5:0 6:0 7:4 8:7 9:4 10:4 11:2 12:3 13:10 14:0 15:0 16:0 17:0 18:0 19:0 20:0 21:0 22:0 23:0 24:1 25:1 26:1 27:3 28:6 29:2 30:2 31:3 32:3 33:4 34:5 35:3 36:0 37:0 38:0 39:34 
0.03125 1:0 2:0 3:0 4:4 5:7 6:4 7:4 8:2 9:4 10:12 11:0 12:0 13:0 14:0 15:0 16:0 17:0 18:0 19:0 20:1 21:1 22:1 23:3 24:6 25:3 26:3 27:3 28:3 29:4 30:6 31:3 32:0 33:0 34:0 35:0 36:0 37:0 38:0 39:37 
0.03125 1:0 2:0 3:0 4:0 5:3 6:7 7:4 8:4 9:2 10:3 11:10 12:0 13:0 14:0 15:0 16:0 17:0 18:0 19:0 20:0 21:0 22:0 23:0 24:1 25:2 26:1 27:2 28:4 29:3 30:3 31:3 32:2 33:3 34:6 35:3 36:0 37:0 38:0 39:33 
0.03125 1:1 2:0 3:0 4:0 5:1 6:4 7:8 8:4 9:4 10:2 11:4 12:12 13:0 14:0 15:0 16:0 17:0 18:0 19:0 20:0 21:0 22:0 23:1 24:1 25:1 26:4 27:7 28:4 29:2 30:3 31:3 32:4 33:6 34:3 35:1 36:0 37:0 38:0 39:40 
0.03125 1:0 2:0 3:0 4:0 5:0 6:4 7:7 8:2 9:4 10:2 11:3 12:6 13:0 14:0 15:0 16:0 17:0 18:0 19:0 20:0 21:0 22:0 23:1 24:3 25:4 26:3 27:3 28:2 29:2 30:2 31:5 32:3 33:0 34:0 35:0 36:0 37:0 38:0 39:28 
0.03125 1:0 2:0 3:0 4:0 5:5 6:7 7:3 8:4 9:2 10:2 11:11 12:1 13:0 14:0 15:0 16:0 17:0 18:0 19:0 20:1 21:1 22:1 23:3 24:4 25:3 26:3 27:3 28:3 29:3 30:6 31:4 32:0 33:0 34:0 35:0 36:0 37:0 38:0 39:35 
0.03125 1:6 2:1 3:0 4:0 5:0 6:0 7:4 8:6 9:3 10:2 11:2 12:4 13:11 14:0 15:0 16:0 17:0 18:0 19:0 20:0 21:0 22:1 23:1 24:2 25:6 26:4 27:4 28:4 29:3 30:3 31:6 32:2 33:0 34:1 35:2 36:0 37:0 38:0 39:39 
0.03125 1:0 2:0 3:0 4:0 5:5 6:6 7:4 8:3 9:2 10:4 11:12 12:2 13:0 14:0 15:0 16:0 17:0 18:0 19:0 20:0 21:0 22:0 23:0 24:1 25:1 26:1 27:2 28:6 29:4 30:3 31:2 32:3 33:5 34:7 35:3 36:0 37:0 38:0 39:38 
0.03125 1:0 2:0 3:0 4:0 5:0 6:4 7:7 8:2 9:4 10:2 11:3 12:9 13:0 14:0 15:0 16:0 17:0 18:0 19:0 20:0 21:0 22:0 23:0 24:0 25:1 26:1 27:2 28:5 29:3 30:3 31:2 32:2 33:3 34:6 35:3 36:0 37:0 38:0 39:31 
0.03125 1:0 2:0 3:0 4:3 5:7 6:4 7:4 8:3 9:4 10:12 11:0 12:0 13:0 14:0 15:1 16:0 17:0 18:0 19:0 20:1 21:1 22:1 23:3 24:6 25:4 26:3 27:3 28:2 29:4 30:6 31:4 32:0 33:0 34:0 35:0 36:0 37:0 38:0 39:38 
0.03125 1:0 2:0 3:0 4:0 5:5 6:7 7:4 8:4 9:2 10:3 11:12 12:1 13:0 14:0 15:0 16:0 17:0 18:0 19:0 20:0 21:0 22:1 23:1 24:1 25:5 26:5 27:4 28:3 29:3 30:3 31:3 32:6 33:3 34:0 35:0 36:0 37:0 38:0 39:38 
0.03125 1:0 2:0 3:0 4:0 5:0 6:4 7:7 8:4 9:4 10:2 11:4 12:12 13:0 14:0 15:0 16:0 17:0 18:0 19:0 20:0 21:0 22:0 23:0 24:1 25:1 26:1 27:3 28:6 29:3 30:3 31:3 32:3 33:4 34:6 35:3 36:0 37:0 38:0 39:37 
0.03125 1:0 2:0 3:0 4:4 5:7 6:5 7:4 8:1 9:3 10:11 11:0 12:0 13:0 14:0 15:0 16:0 17:0 18:0 19:0 20:0 21:0 22:0 23:0 24:1 25:1 26:1 27:3 28:6 29:2 30:2 31:3 32:3 33:4 34:5 35:3 36:1 37:0 38:0 39:35 
0.03125 1:0 2:0 3:0 4:0 5:0 6:0 7:5 8:7 9:4 10:4 11:2 12:3 13:12 14:0 15:0 16:0 17:0 18:0 19:0 20:1 21:1 22:1 23:3 24:6 25:3 26:3 27:3 28:3 29:4 30:6 31:3 32:0 33:0 34:0 35:0 36:0 37:0 38:0 39:37 
0.03125 1:0 2:0 3:0 4:0 5:0 6:0 7:3 8:7 9:4 10:3 11:1 12:3 13:11 14:0 15:0 16:1 17:0 18:1 19:0 20:0 21:0 22:1 23:1 24:2 25:5 26:2 27:3 28:2 29:3 30:4 31:6 32:3 33:0 34:0 35:0 36:0 37:0 38:0 39:33 
0.03125 1:0 2:0 3:0 4:0 5:0 6:5 7:7 8:4 9:4 10:2 11:4 12:10 13:0 14:0 15:0 16:0 17:0 18:0 19:0 20:0 21:0 22:0 23:0 24:1 25:3 26:6 27:4 28:3 29:3 30:3 31:4 32:6 33:3 34:0 35:0 36:0 37:0 38:0 39:36 
-0.03125 1:0 2:0 3:0 4:0 5:0 6:0 7:7 8:8 9:4 10:2 11:3 12:4 13:3 14:4 15:8 16:3 17:0 18:0 19:0 20:6 21:5 22:3 23:3 24:2 25:3 26:4 27:3 28:2 29:3 30:8 31:4 32:0 33:0 34:0 35:0 36:0 37:0 38:0 39:46 
-0.03125 1:0 2:0 3:0 4:0 5:9 6:10 7:4 8:4 9:3 10:4 11:2 12:4 13:6 14:0 15:0 16:0 17:0 18:0 19:0 20:0 21:0 22:0 23:5 24:7 25:4 26:3 27:2 28:1 29:2 30:2 31:3 32:3 33:7 34:7 35:0 36:0 37:0 38:0 39:46 
-0.03125 1:0 2:0 3:0 4:0 5:8 6:11 7:4 8:4 9:3 10:4 11:4 12:4 13:7 14:1 15:0 16:0 17:0 18:0 19:0 20:0 21:0 22:0 23:0 24:7 25:7 26:4 27:2 28:2 29:2 30:2 31:3 32:3 33:4 34:8 35:6 36:0 37:0 38:0 39:50 
-0.03125 1:0 2:0 3:0 4:0 5:0 6:10 7:11 8:4 9:4 10:4 11:3 12:4 13:4 14:7 15:1 16:0 17:0 18:0 19:0 20:7 21:8 22:3 23:3 24:2 25:2 26:4 27:2 28:3 29:4 30:7 31:7 32:0 33:0 34:0 35:0 36:0 37:0 38:0 39:52 
-0.03125 1:0 2:0 3:0 4:0 5:8 6:12 7:4 8:5 9:4 10:3 11:4 12:3 13:5 14:0 15:0 16:0 17:0 18:0 19:0 20:0 21:6 22:8 23:2 24:2 25:3 26:3 27:2 28:2 29:2 30:5 31:6 32:7 33:0 34:0 35:0 36:0 37:0 38:0 39:48 
-0.03125 1:0 2:0 3:0 4:0 5:0 6:1 7:6 8:11 9:4 10:4 11:5 12:4 13:3 14:4 15:7 16:1 17:0 18:0 19:1 20:7 21:6 22:3 23:3 24:1 25:3 26:3 27:3 28:2 29:4 30:8 31:6 32:0 33:0 34:0 35:0 36:0 37:0 38:0 39:50 
-0.03125 1:0 2:0 3:0 4:0 5:0 6:8 7:11 8:4 9:4 10:3 11:4 12:4 13:3 14:8 15:0 16:0 17:0 18:0 19:0 20:0 21:6 22:6 23:4 24:2 25:3 26:3 27:2 28:3 29:2 30:4 31:7 32:7 33:0 34:0 35:0 36:0 37:0 38:0 39:49 
-0.03125 1:0 2:0 3:0 4:0 5:9 6:11 7:4 8:4 9:3 10:4 11:3 12:4 13:6 14:0 15:0 16:0 17:0 18:0 19:0 20:0 21:7 22:7 23:3 24:3 25:3 26:3 27:3 28:2 29:2 30:3 31:7 32:5 33:0 34:0 35:0 36:0 37:0 38:0 39:48 
-0.03125 1:0 2:0 3:0 4:0 5:0 6:8 7:10 8:4 9:3 10:3 11:4 12:4 13:4 14:6 15:0 16:0 17:0 18:0 19:0 20:0 21:7 22:7 23:3 24:3 25:3 26:2 27:2 28:1 29:2 30:3 31:8 32:5 33:0 34:0 35:0 36:0 37:0 38:0 39:46 
-0.03125 1:0 2:0 3:0 4:0 5:0 6:11 7:12 8:4 9:4 10:4 11:4 12:3 13:5 14:6 15:0 16:0 17:0 18:0 19:0 20:0 21:0 22:0 23:6 24:8 25:4 26:4 27:3 28:3 29:2 30:2 31:3 32:4 33:8 34:6 35:0 36:0 37:0 38:0 39:53 
-0.03125 1:0 2:0 3:0 4:0 5:8 6:12 7:4 8:5 9:4 10:3 11:4 12:4 13:7 14:0 15:0 16:0 17:0 18:0 19:0 20:0 21:1 22:7 23:8 24:3 25:2 26:3 27:3 28:2 29:3 30:3 31:3 32:8 33:5 34:0 35:0 36:0 37:0 38:0 39:51 
-0.03125 1:1 2:0 3:0 4:0 5:5 6:11 7:4 8:4 9:4 10:4 11:3 12:4 13:7 14:0 15:0 16:0 17:0 18:0 19:0 20:6 21:7 22:3 23:3 24:2 25:4 26:3 27:2 28:1 29:3 30:8 31:5 32:0 33:0 34:0 35:0 36:0 37:0 38:0 39:47 
-0.03125 1:0 2:0 3:0 4:0 5:0 6:8 7:12 8:4 9:4 10:4 11:4 12:4 13:2 14:5 15:1 16:0 17:0 18:0 19:0 20:0 21:0 22:0 23:7 24:7 25:4 26:3 27:4 28:1 29:2 30:1 31:3 32:2 33:8 34:6 35:0 36:0 37:0 38:0 39:48 
-0.03125 1:10 2:0 3:0 4:0 5:0 6:0 7:9 8:12 9:4 10:4 11:4 12:4 13:4 14:3 15:7 16:1 17:0 18:0 19:0 20:0 21:0 22:0 23:0 24:8 25:8 26:4 27:3 28:5 29:3 30:4 31:4 32:4 33:3 34:8 35:8 36:0 37:0 38:0 39:62 
-0.03125 1:0 2:0 3:0 4:0 5:0 6:10 7:12 8:3 9:4 10:4 11:4 12:4 13:4 14:8 15:0 16:0 17:0 18:0 19:0 20:0 21:0 22:0 23:0 24:7 25:8 26:4 27:3 28:3 29:3 30:2 31:3 32:3 33:3 34:7 35:7 36:0 37:0 38:0 39:53 
-0.03125 1:0 2:0 3:0 4:0 5:0 6:0 7:10 8:12 9:4 10:4 11:3 12:4 13:4 14:4 15:5 16:0 17:0 18:0 19:0 20:0 21:7 22:6 23:3 24:3 25:3 26:3 27:3 28:2 29:2 30:4 31:8 32:6 33:0 34:0 35:0 36:0 37:0 38:0 39:50 
-0.03125 1:0 2:0 3:0 4:7 5:11 6:4 7:4 8:4 9:3 10:4 11:4 12:8 13:0 14:0 15:0 16:0 17:0 18:0 19:0 20:5 21:8 22:4 23:1 24:3 25:3 26:2 27:2 28:3 29:4 30:7 31:7 32:0 33:0 34:0 35:0 36:0 37:0 38:0 39:49 
-0.03125 1:0 2:0 3:0 4:0 5:0 6:0 7:7 8:11 9:4 10:4 11:4 12:4 13:4 14:4 15:6 16:1 17:0 18:0 19:0 20:0 21:0 22:0 23:6 24:8 25:3 26:2 27:2 28:3 29:3 30:3 31:3 32:3 33:7 34:6 35:0 36:0 37:0 38:0 39:49 
-0.03125 1:1 2:0 3:0 4:0 5:0 6:7 7:11 8:4 9:4 10:3 11:4 12:4 13:4 14:7 15:1 16:0 17:0 18:0 19:0 20:0 21:5 22:7 23:4 24:2 25:2 26:4 27:2 28:2 29:4 30:2 31:8 32:7 33:1 34:0 35:0 36:0 37:0 38:0 39:50 
-0.03125 1:0 2:0 3:0 4:0 5:0 6:9 7:11 8:4 9:4 10:4 11:4 12:4 13:4 14:6 15:0 16:0 17:0 18:0 19:0 20:0 21:6 22:8 23:3 24:3 25:2 26:2 27:3 28:3 29:3 30:3 31:8 32:6 33:0 34:0 35:0 36:0 37:0 38:0 39:50 
-0.03125 1:0 2:0 3:0 4:0 5:8 6:10 7:2 8:3 9:5 10:4 11:4 12:4 13:8 14:0 15:0 16:0 17:0 18:0 19:0 20:0 21:0 22:1 23:4 24:5 25:3 26:3 27:3 28:2 29:3 30:3 31:3 32:4 33:7 34:7 35:0 36:0 37:0 38:0 39:48 
-0.03125 1:0 2:0 3:0 4:0 5:0 6:8 7:12 8:4 9:4 10:3 11:3 12:3 13:4 14:3 15:0 16:0 17:0 18:0 19:0 20:0 21:0 22:5 23:8 24:3 25:3 26:2 27:2 28:2 29:2 30:2 31:3 32:6 33:6 34:0 35:0 36:0 37:0 38:0 39:44 
-0.03125 1:0 2:0 3:0 4:0 5:0 6:9 7:10 8:4 9:4 10:3 11:4 12:4 13:3 14:7 15:0 16:0 17:0 18:0 19:0 20:0 21:0 22:0 23:0 24:4 25:8 26:3 27:2 28:3 29:3 30:2 31:3 32:3 33:4 34:6 35:7 36:0 37:0 38:0 39:48 
-0.03125 1:0 2:0 3:0 4:0 5:0 6:10 7:11 8:4 9:4 10:4 11:5 12:4 13:2 14:6 15:0 16:0 17:0 18:0 19:0 20:0 21:7 22:7 23:4 24:3 25:3 26:2 27:3 28:2 29:2 30:2 31:7 32:7 33:0 34:0 35:0 36:1 37:0 38:0 39:50 
-0.03125 1:0 2:0 3:0 4:0 5:8 6:12 7:4 8:3 9:4 10:4 11:4 12:4 13:8 14:1 15:0 16:0 17:0 18:0 19:0 20:7 21:7 22:4 23:2 24:3 25:3 26:2 27:3 28:3 29:3 30:8 31:7 32:0 33:0 34:0 35:0 36:0 37:0 38:0 39:52 
-0.03125 1:0 2:0 3:0 4:0 5:10 6:12 7:4 8:3 9:4 10:4 11:4 12:4 13:6 14:0 15:0 16:0 17:0 18:0 19:0 20:0 21:0 22:0 23:0 24:7 25:7 26:4 27:2 28:2 29:2 30:3 31:3 32:3 33:4 34:8 35:6 36:0 37:0 38:0 39:51 
-0.03125 1:0 2:0 3:0 4:0 5:10 6:11 7:4 8:4 9:4 10:3 11:4 12:3 13:7 14:1 15:0 16:0 17:0 18:0 19:0 20:0 21:7 22:7 23:4 24:3 25:3 26:2 27:4 28:3 29:2 30:3 31:7 32:6 33:0 34:0 35:0 36:0 37:0 38:0 39:51 
-0.03125 1:0 2:0 3:0 4:0 5:0 6:11 7:12 8:3 9:3 10:4 11:4 12:4 13:4 14:8 15:0 16:0 17:0 18:0 19:0 20:6 21:7 22:4 23:3 24:3 25:3 26:3 27:3 28:3 29:4 30:7 31:7 32:0 33:0 34:0 35:0 36:0 37:0 38:0 39:53 
