svm_type c_svc
kernel_type rbf
gamma 0.00012207
nr_class 2
total_sv 26
rho -1.57846
label 0 1
probA -3.58341
probB 0.0531339
nr_sv 12 14
SV
32 1:0 2:0 3:0 4:0 5:0 6:0 7:7 8:8 9:4 10:2 11:3 12:4 13:3 14:4 15:8 16:3 17:0 18:0 19:0 20:6 21:5 22:3 23:3 24:2 25:3 26:4 27:3 28:2 29:3 30:8 31:4 32:0 33:0 34:0 35:0 36:0 37:0 38:0 39:46 
26.6957950592712 1:0 2:0 3:0 4:0 5:0 6:1 7:6 8:11 9:4 10:4 11:5 12:4 13:3 14:4 15:7 16:1 17:0 18:0 19:1 20:7 21:6 22:3 23:3 24:1 25:3 26:3 27:3 28:2 29:4 30:8 31:6 32:0 33:0 34:0 35:0 36:0 37:0 38:0 39:50 
32 1:0 2:0 3:0 4:0 5:0 6:8 7:11 8:4 9:4 10:3 11:4 12:4 13:3 14:8 15:0 16:0 17:0 18:0 19:0 20:0 21:6 22:6 23:4 24:2 25:3 26:3 27:2 28:3 29:2 30:4 31:7 32:7 33:0 34:0 35:0 36:0 37:0 38:0 39:49 
32 1:0 2:0 3:0 4:0 5:8 6:12 7:4 8:5 9:4 10:3 11:4 12:4 13:7 14:0 15:0 16:0 17:0 18:0 19:0 20:0 21:1 22:7 23:8 24:3 25:2 26:3 27:3 28:2 29:3 30:3 31:3 32:8 33:5 34:0 35:0 36:0 37:0 38:0 39:51 
22.49390162464253 1:0 2:0 3:0 4:0 5:0 6:10 7:12 8:3 9:4 10:4 11:4 12:4 13:4 14:8 15:0 16:0 17:0 18:0 19:0 20:0 21:0 22:0 23:0 24:7 25:8 26:4 27:3 28:3 29:3 30:2 31:3 32:3 33:3 34:7 35:7 36:0 37:0 38:0 39:53 
10.41553879332576 1:0 2:0 3:0 4:7 5:11 6:4 7:4 8:4 9:3 10:4 11:4 12:8 13:0 14:0 15:0 16:0 17:0 18:0 19:0 20:5 21:8 22:4 23:1 24:3 25:3 26:2 27:2 28:3 29:4 30:7 31:7 32:0 33:0 34:0 35:0 36:0 37:0 38:0 39:49 
32 1:0 2:0 3:0 4:0 5:0 6:0 7:7 8:11 9:4 10:4 11:4 12:4 13:4 14:4 15:6 16:1 17:0 18:0 19:0 20:0 21:0 22:0 23:6 24:8 25:3 26:2 27:2 28:3 29:3 30:3 31:3 32:3 33:7 34:6 35:0 36:0 37:0 38:0 39:49 
32 1:1 2:0 3:0 4:0 5:0 6:7 7:11 8:4 9:4 10:3 11:4 12:4 13:4 14:7 15:1 16:0 17:0 18:0 19:0 20:0 21:5 22:7 23:4 24:2 25:2 26:4 27:2 28:2 29:4 30:2 31:8 32:7 33:1 34:0 35:0 36:0 37:0 38:0 39:50 
6.280268519419733 1:0 2:0 3:0 4:0 5:0 6:9 7:11 8:4 9:4 10:4 11:4 12:4 13:4 14:6 15:0 16:0 17:0 18:0 19:0 20:0 21:6 22:8 23:3 24:3 25:2 26:2 27:3 28:3 29:3 30:3 31:8 32:6 33:0 34:0 35:0 36:0 37:0 38:0 39:50 
32 1:0 2:0 3:0 4:0 5:8 6:10 7:2 8:3 9:5 10:4 11:4 12:4 13:8 14:0 15:0 16:0 17:0 18:0 19:0 20:0 21:0 22:1 23:4 24:5 25:3 26:3 27:3 28:2 29:3 30:3 31:3 32:4 33:7 34:7 35:0 36:0 37:0 38:0 39:48 
32 1:0 2:0 3:0 4:0 5:8 6:12 7:4 8:3 9:4 10:4 11:4 12:4 13:8 14:1 15:0 16:0 17:0 18:0 19:0 20:7 21:7 22:4 23:2 24:3 25:3 26:2 27:3 28:3 29:3 30:8 31:7 32:0 33:0 34:0 35:0 36:0 37:0 38:0 39:52 
12.4832856008696 1:0 2:0 3:0 4:0 5:0 6:11 7:12 8:3 9:3 10:4 11:4 12:4 13:4 14:8 15:0 16:0 17:0 18:0 19:0 20:6 21:7 22:4 23:3 24:3 25:3 26:3 27:3 28:3 29:4 30:7 31:7 32:0 33:0 34:0 35:0 36:0 37:0 38:0 39:53 
-32 1:0 2:0 3:0 4:0 5:0 6:4 7:7 8:3 9:4 10:4 11:4 12:6 13:6 14:6 15:6 16:0 17:0 18:0 19:0 20:0 21:5 22:6 23:5 24:2 25:2 26:2 27:5 28:5 29:2 30:4 31:7 32:5 33:0 34:0 35:0 36:0 37:0 38:0 39:50 
-1.466312972634302 1:2 2:5 3:7 4:0 5:1 6:3 7:6 8:4 9:4 10:4 11:4 12:5 13:5 14:5 15:3 16:0 17:0 18:0 19:0 20:5 21:7 22:4 23:2 24:1 25:4 26:5 27:6 28:4 29:5 30:8 31:6 32:1 33:0 34:0 35:0 36:0 37:0 38:0 39:58 
-18.41897802031783 1:0 2:0 3:0 4:0 5:0 6:0 7:4 8:6 9:2 10:2 11:4 12:3 13:5 14:6 15:7 16:5 17:0 18:0 19:0 20:0 21:0 22:2 23:7 24:5 25:2 26:2 27:2 28:6 29:5 30:2 31:1 32:7 33:3 34:0 35:0 36:0 37:0 38:0 39:44 
-7.391025388096151 1:0 2:0 3:0 4:0 5:0 6:0 7:3 8:7 9:4 10:4 11:3 12:4 13:6 14:7 15:8 16:5 17:0 18:0 19:0 20:5 21:6 22:5 23:2 24:2 25:1 26:6 27:6 28:0 29:4 30:8 31:5 32:1 33:0 34:0 35:0 36:0 37:0 38:0 39:51 
-32 1:0 2:0 3:0 4:0 5:0 6:4 7:8 8:3 9:4 10:4 11:4 12:6 13:7 14:6 15:5 16:0 17:0 18:0 19:0 20:5 21:7 22:5 23:2 24:2 25:2 26:4 27:6 28:2 29:3 30:8 31:5 32:0 33:0 34:0 35:0 36:0 37:0 38:0 39:51 
-32 1:0 2:0 3:0 4:0 5:4 6:8 7:4 8:3 9:4 10:4 11:5 12:6 13:6 14:6 15:0 16:0 17:0 18:0 19:0 20:5 21:6 22:5 23:2 24:2 25:2 26:6 27:6 28:2 29:3 30:7 31:4 32:0 33:0 34:0 35:0 36:0 37:0 38:0 39:50 
-6.159834766850304 1:7 2:8 3:0 4:0 5:4 6:8 7:4 8:4 9:4 10:3 11:6 12:7 13:5 14:6 15:1 16:0 17:0 18:0 19:0 20:0 21:0 22:0 23:0 24:6 25:9 26:7 27:4 28:4 29:3 30:8 31:6 32:4 33:3 34:7 35:6 36:0 37:0 38:0 39:67 
-32 1:0 2:0 3:0 4:0 5:3 6:8 7:4 8:4 9:4 10:5 11:5 12:7 13:5 14:4 15:0 16:0 17:0 18:0 19:0 20:0 21:4 22:7 23:2 24:1 25:2 26:2 27:6 28:4 29:3 30:5 31:8 32:5 33:0 34:0 35:0 36:0 37:0 38:0 39:49 
-32 1:0 2:0 3:0 4:0 5:0 6:4 7:8 8:4 9:4 10:2 11:3 12:5 13:6 14:6 15:6 16:0 17:0 18:0 19:0 20:0 21:0 22:4 23:6 24:5 25:1 26:2 27:2 28:5 29:5 30:2 31:4 32:7 33:5 34:0 35:0 36:0 37:0 38:0 39:48 
-32 1:0 2:0 3:0 4:0 5:3 6:7 7:4 8:4 9:3 10:4 11:6 12:5 13:6 14:5 15:0 16:0 17:0 18:0 19:0 20:0 21:0 22:0 23:5 24:7 25:5 26:2 27:2 28:2 29:5 30:3 31:2 32:4 33:6 34:4 35:0 36:0 37:0 38:0 39:47 
-32 1:0 2:0 3:0 4:0 5:4 6:8 7:4 8:3 9:4 10:3 11:5 12:7 13:5 14:6 15:0 16:0 17:0 18:0 19:0 20:0 21:0 22:0 23:5 24:7 25:5 26:1 27:2 28:2 29:6 30:5 31:2 32:4 33:5 34:5 35:0 36:0 37:0 38:0 39:49 
-9.397424448758173 1:7 2:6 3:0 4:4 5:7 6:3 7:4 8:4 9:4 10:5 11:6 12:7 13:6 14:0 15:0 16:0 17:0 18:0 19:0 20:0 21:0 22:0 23:4 24:7 25:5 26:2 27:3 28:3 29:8 30:6 31:2 32:5 33:10 34:7 35:1 36:0 37:0 38:0 39:63 
-3.535214000872074 1:0 2:0 3:0 4:0 5:3 6:7 7:4 8:4 9:4 10:4 11:5 12:5 13:6 14:6 15:0 16:0 17:0 18:0 19:0 20:0 21:4 22:6 23:5 24:1 25:1 26:2 27:7 28:6 29:1 30:4 31:6 32:5 33:0 34:0 35:0 36:0 37:0 38:0 39:48 
-32 1:0 2:0 3:0 4:0 5:4 6:8 7:5 8:3 9:4 10:4 11:6 12:7 13:7 14:5 15:0 16:0 17:0 18:0 19:0 20:5 21:7 22:5 23:2 24:2 25:2 26:6 27:6 28:3 29:4 30:6 31:5 32:0 33:0 34:0 35:0 36:0 37:0 38:0 39:53 
