svm_type c_svc
kernel_type rbf
gamma 0.0078125
nr_class 2
total_sv 43
rho -0.569942
label 0 1
probA -4.64876
probB -0.566814
nr_sv 20 23
SV
1.423082108177774 1:0 2:0 3:0 4:0 5:0 6:0 7:7 8:8 9:4 10:2 11:3 12:4 13:3 14:4 15:8 16:3 17:0 18:0 19:0 20:6 21:5 22:3 23:3 24:2 25:3 26:4 27:3 28:2 29:3 30:8 31:4 32:0 33:0 34:0 35:0 36:0 37:0 38:0 39:46 
0.3012746209742526 1:0 2:0 3:0 4:0 5:9 6:10 7:4 8:4 9:3 10:4 11:2 12:4 13:6 14:0 15:0 16:0 17:0 18:0 19:0 20:0 21:0 22:0 23:5 24:7 25:4 26:3 27:2 28:1 29:2 30:2 31:3 32:3 33:7 34:7 35:0 36:0 37:0 38:0 39:46 
0.02542327746624056 1:0 2:0 3:0 4:0 5:8 6:11 7:4 8:4 9:3 10:4 11:4 12:4 13:7 14:1 15:0 16:0 17:0 18:0 19:0 20:0 21:0 22:0 23:0 24:7 25:7 26:4 27:2 28:2 29:2 30:2 31:3 32:3 33:4 34:8 35:6 36:0 37:0 38:0 39:50 
0.205125704765439 1:0 2:0 3:0 4:0 5:0 6:8 7:11 8:4 9:4 10:3 11:4 12:4 13:3 14:8 15:0 16:0 17:0 18:0 19:0 20:0 21:6 22:6 23:4 24:2 25:3 26:3 27:2 28:3 29:2 30:4 31:7 32:7 33:0 34:0 35:0 36:0 37:0 38:0 39:49 
1.000068587270702 1:0 2:0 3:0 4:0 5:9 6:11 7:4 8:4 9:3 10:4 11:3 12:4 13:6 14:0 15:0 16:0 17:0 18:0 19:0 20:0 21:7 22:7 23:3 24:3 25:3 26:3 27:3 28:2 29:2 30:3 31:7 32:5 33:0 34:0 35:0 36:0 37:0 38:0 39:48 
0.2636794235400703 1:0 2:0 3:0 4:0 5:0 6:8 7:10 8:4 9:3 10:3 11:4 12:4 13:4 14:6 15:0 16:0 17:0 18:0 19:0 20:0 21:7 22:7 23:3 24:3 25:3 26:2 27:2 28:1 29:2 30:3 31:8 32:5 33:0 34:0 35:0 36:0 37:0 38:0 39:46 
0.3479197344926147 1:0 2:0 3:0 4:0 5:0 6:11 7:12 8:4 9:4 10:4 11:4 12:3 13:5 14:6 15:0 16:0 17:0 18:0 19:0 20:0 21:0 22:0 23:6 24:8 25:4 26:4 27:3 28:3 29:2 30:2 31:3 32:4 33:8 34:6 35:0 36:0 37:0 38:0 39:53 
0.5242922599460539 1:0 2:0 3:0 4:0 5:8 6:12 7:4 8:5 9:4 10:3 11:4 12:4 13:7 14:0 15:0 16:0 17:0 18:0 19:0 20:0 21:1 22:7 23:8 24:3 25:2 26:3 27:3 28:2 29:3 30:3 31:3 32:8 33:5 34:0 35:0 36:0 37:0 38:0 39:51 
0.9536471556772568 1:1 2:0 3:0 4:0 5:5 6:11 7:4 8:4 9:4 10:4 11:3 12:4 13:7 14:0 15:0 16:0 17:0 18:0 19:0 20:6 21:7 22:3 23:3 24:2 25:4 26:3 27:2 28:1 29:3 30:8 31:5 32:0 33:0 34:0 35:0 36:0 37:0 38:0 39:47 
0.3670521013546954 1:0 2:0 3:0 4:0 5:0 6:8 7:12 8:4 9:4 10:4 11:4 12:4 13:2 14:5 15:1 16:0 17:0 18:0 19:0 20:0 21:0 22:0 23:7 24:7 25:4 26:3 27:4 28:1 29:2 30:1 31:3 32:2 33:8 34:6 35:0 36:0 37:0 38:0 39:48 
0.4143266856029747 1:10 2:0 3:0 4:0 5:0 6:0 7:9 8:12 9:4 10:4 11:4 12:4 13:4 14:3 15:7 16:1 17:0 18:0 19:0 20:0 21:0 22:0 23:0 24:8 25:8 26:4 27:3 28:5 29:3 30:4 31:4 32:4 33:3 34:8 35:8 36:0 37:0 38:0 39:62 
1.018264426412052 1:0 2:0 3:0 4:0 5:0 6:0 7:10 8:12 9:4 10:4 11:3 12:4 13:4 14:4 15:5 16:0 17:0 18:0 19:0 20:0 21:7 22:6 23:3 24:3 25:3 26:3 27:3 28:2 29:2 30:4 31:8 32:6 33:0 34:0 35:0 36:0 37:0 38:0 39:50 
0.9667470688576113 1:0 2:0 3:0 4:7 5:11 6:4 7:4 8:4 9:3 10:4 11:4 12:8 13:0 14:0 15:0 16:0 17:0 18:0 19:0 20:5 21:8 22:4 23:1 24:3 25:3 26:2 27:2 28:3 29:4 30:7 31:7 32:0 33:0 34:0 35:0 36:0 37:0 38:0 39:49 
1.205075355764793 1:0 2:0 3:0 4:0 5:0 6:0 7:7 8:11 9:4 10:4 11:4 12:4 13:4 14:4 15:6 16:1 17:0 18:0 19:0 20:0 21:0 22:0 23:6 24:8 25:3 26:2 27:2 28:3 29:3 30:3 31:3 32:3 33:7 34:6 35:0 36:0 37:0 38:0 39:49 
0.1749060775570872 1:1 2:0 3:0 4:0 5:0 6:7 7:11 8:4 9:4 10:3 11:4 12:4 13:4 14:7 15:1 16:0 17:0 18:0 19:0 20:0 21:5 22:7 23:4 24:2 25:2 26:4 27:2 28:2 29:4 30:2 31:8 32:7 33:1 34:0 35:0 36:0 37:0 38:0 39:50 
0.9093315239979639 1:0 2:0 3:0 4:0 5:8 6:10 7:2 8:3 9:5 10:4 11:4 12:4 13:8 14:0 15:0 16:0 17:0 18:0 19:0 20:0 21:0 22:1 23:4 24:5 25:3 26:3 27:3 28:2 29:3 30:3 31:3 32:4 33:7 34:7 35:0 36:0 37:0 38:0 39:48 
1.256698652641225 1:0 2:0 3:0 4:0 5:0 6:8 7:12 8:4 9:4 10:3 11:3 12:3 13:4 14:3 15:0 16:0 17:0 18:0 19:0 20:0 21:0 22:5 23:8 24:3 25:3 26:2 27:2 28:2 29:2 30:2 31:3 32:6 33:6 34:0 35:0 36:0 37:0 38:0 39:44 
1.705785051735446 1:0 2:0 3:0 4:0 5:0 6:9 7:10 8:4 9:4 10:3 11:4 12:4 13:3 14:7 15:0 16:0 17:0 18:0 19:0 20:0 21:0 22:0 23:0 24:4 25:8 26:3 27:2 28:3 29:3 30:2 31:3 32:3 33:4 34:6 35:7 36:0 37:0 38:0 39:48 
0.4119010709130889 1:0 2:0 3:0 4:0 5:10 6:12 7:4 8:3 9:4 10:4 11:4 12:4 13:6 14:0 15:0 16:0 17:0 18:0 19:0 20:0 21:0 22:0 23:0 24:7 25:7 26:4 27:2 28:2 29:2 30:3 31:3 32:3 33:4 34:8 35:6 36:0 37:0 38:0 39:51 
0.4738205996113528 1:0 2:0 3:0 4:0 5:0 6:11 7:12 8:3 9:3 10:4 11:4 12:4 13:4 14:8 15:0 16:0 17:0 18:0 19:0 20:6 21:7 22:4 23:3 24:3 25:3 26:3 27:3 28:3 29:4 30:7 31:7 32:0 33:0 34:0 35:0 36:0 37:0 38:0 39:53 
-0.08869347228657559 1:0 2:0 3:0 4:0 5:0 6:8 7:11 8:2 9:2 10:2 11:4 12:5 13:5 14:4 15:1 16:0 17:0 18:0 19:0 20:0 21:0 22:4 23:3 24:4 25:3 26:3 27:5 28:6 29:3 30:3 31:4 32:2 33:4 34:0 35:0 36:0 37:0 38:0 39:44 
-0.08408122510158045 1:0 2:0 3:0 4:0 5:0 6:0 7:7 8:10 9:3 10:3 11:3 12:5 13:5 14:5 15:4 16:1 17:0 18:0 19:0 20:0 21:0 22:0 23:0 24:3 25:3 26:4 27:4 28:4 29:6 30:5 31:4 32:4 33:3 34:4 35:2 36:0 37:0 38:0 39:46 
-0.5720355831444495 1:0 2:0 3:0 4:6 5:9 6:3 7:2 8:3 9:4 10:5 11:4 12:3 13:0 14:0 15:0 16:0 17:0 18:0 19:0 20:0 21:0 22:1 23:4 24:4 25:3 26:3 27:5 28:5 29:3 30:4 31:3 32:3 33:1 34:0 35:0 36:0 37:0 38:0 39:39 
-0.7693082437793932 1:0 2:0 3:0 4:0 5:0 6:9 7:11 8:3 9:3 10:3 11:3 12:4 13:5 14:4 15:1 16:0 17:0 18:0 19:0 20:0 21:0 22:0 23:0 24:3 25:4 26:3 27:3 28:5 29:6 30:4 31:2 32:4 33:4 34:4 35:4 36:0 37:0 38:0 39:46 
-1.317643057335201 1:0 2:0 3:0 4:0 5:0 6:0 7:7 8:12 9:3 10:3 11:2 12:5 13:4 14:5 15:3 16:1 17:0 18:0 19:0 20:3 21:4 22:4 23:3 24:4 25:5 26:5 27:4 28:3 29:3 30:3 31:4 32:0 33:0 34:0 35:0 36:0 37:0 38:0 39:45 
-0.2852800256710911 1:0 2:0 3:0 4:0 5:0 6:0 7:8 8:10 9:3 10:2 11:2 12:4 13:5 14:5 15:3 16:1 17:0 18:0 19:0 20:0 21:0 22:0 23:0 24:4 25:3 26:3 27:3 28:5 29:4 30:5 31:4 32:4 33:3 34:3 35:2 36:0 37:0 38:0 39:43 
-0.4417127819637672 1:0 2:0 3:0 4:0 5:8 6:12 7:3 8:2 9:3 10:4 11:4 12:5 13:4 14:1 15:0 16:0 17:0 18:0 19:0 20:0 21:0 22:0 23:3 24:4 25:2 26:4 27:3 28:6 29:6 30:4 31:3 32:4 33:4 34:3 35:0 36:0 37:0 38:0 39:46 
-0.135860808866571 1:0 2:0 3:0 4:0 5:5 6:12 7:4 8:1 9:2 10:5 11:3 12:4 13:4 14:1 15:0 16:0 17:0 18:0 19:0 20:0 21:3 22:3 23:4 24:2 25:3 26:4 27:4 28:4 29:4 30:4 31:2 32:2 33:0 34:0 35:1 36:1 37:0 38:0 39:41 
-0.2542857571310631 1:0 2:0 3:0 4:0 5:1 6:9 7:12 8:3 9:1 10:2 11:5 12:4 13:5 14:3 15:1 16:0 17:0 18:0 19:0 20:0 21:0 22:3 23:4 24:2 25:4 26:4 27:5 28:5 29:4 30:3 31:4 32:4 33:4 34:0 35:0 36:0 37:0 38:0 39:46 
-0.9438197443381312 1:0 2:0 3:0 4:0 5:8 6:12 7:2 8:3 9:3 10:5 11:5 12:5 13:4 14:1 15:0 16:0 17:0 18:0 19:0 20:0 21:3 22:3 23:4 24:3 25:5 26:6 27:5 28:3 29:4 30:4 31:4 32:4 33:0 34:0 35:0 36:0 37:0 38:0 39:48 
-0.8021740362591245 1:0 2:0 3:0 4:0 5:0 6:7 7:11 8:3 9:2 10:2 11:5 12:5 13:4 14:4 15:1 16:0 17:0 18:0 19:0 20:3 21:4 22:4 23:3 24:3 25:6 26:6 27:3 28:4 29:3 30:2 31:3 32:0 33:0 34:0 35:0 36:0 37:0 38:0 39:44 
-0.9934712003437106 1:0 2:0 3:0 4:0 5:7 6:12 7:2 8:3 9:3 10:4 11:4 12:4 13:4 14:1 15:0 16:0 17:0 18:0 19:0 20:4 21:3 22:3 23:3 24:5 25:4 26:6 27:3 28:3 29:3 30:3 31:4 32:0 33:0 34:0 35:0 36:0 37:0 38:0 39:44 
-0.3989344578474429 1:0 2:0 3:0 4:1 5:6 6:11 7:3 8:2 9:3 10:5 11:5 12:4 13:3 14:1 15:0 16:0 17:0 18:0 19:0 20:0 21:0 22:0 23:0 24:4 25:4 26:3 27:3 28:3 29:5 30:5 31:3 32:5 33:4 34:1 35:4 36:0 37:0 38:0 39:44 
-0.7514002628167882 1:0 2:0 3:0 4:0 5:1 6:9 7:10 8:3 9:3 10:3 11:5 12:7 13:4 14:4 15:2 16:0 17:0 18:0 19:0 20:0 21:0 22:0 23:1 24:4 25:3 26:4 27:5 28:5 29:6 30:6 31:3 32:3 33:3 34:5 35:3 36:0 37:0 38:0 39:51 
-0.2698326523329629 1:0 2:0 3:0 4:0 5:1 6:8 7:10 8:3 9:3 10:2 11:5 12:4 13:4 14:4 15:1 16:0 17:0 18:0 19:0 20:0 21:0 22:0 23:1 24:4 25:4 26:2 27:2 28:4 29:6 30:5 31:3 32:4 33:2 34:4 35:4 36:0 37:0 38:0 39:45 
-0.6540216044722182 1:0 2:0 3:0 4:0 5:0 6:1 7:9 8:11 9:3 10:3 11:2 12:4 13:4 14:5 15:4 16:1 17:0 18:0 19:0 20:0 21:4 22:4 23:2 24:4 25:5 26:5 27:5 28:5 29:3 30:3 31:3 32:4 33:0 34:0 35:0 36:0 37:0 38:0 39:47 
-0.7156753530358478 1:0 2:0 3:0 4:10 5:12 6:3 7:3 8:3 9:3 10:5 11:4 12:4 13:1 14:0 15:0 16:0 17:0 18:0 19:0 20:0 21:3 22:4 23:3 24:4 25:4 26:5 27:6 28:3 29:4 30:4 31:4 32:4 33:0 34:0 35:0 36:0 37:0 38:0 39:48 
-0.9124338256206238 1:0 2:0 3:0 4:10 5:12 6:2 7:3 8:3 9:5 10:4 11:5 12:4 13:0 14:0 15:0 16:0 17:0 18:0 19:0 20:0 21:0 22:0 23:0 24:4 25:3 26:3 27:4 28:5 29:6 30:5 31:4 32:4 33:4 34:3 35:3 36:0 37:0 38:0 39:48 
-0.2475754970849239 1:0 2:0 3:0 4:0 5:0 6:1 7:5 8:12 9:3 10:2 11:3 12:5 13:4 14:5 15:3 16:1 17:0 18:0 19:0 20:3 21:3 22:3 23:4 24:3 25:5 26:6 27:4 28:3 29:3 30:4 31:3 32:0 33:0 34:0 35:0 36:0 37:0 38:0 39:44 
-1.193970243028634 1:0 2:0 3:0 4:0 5:0 6:0 7:9 8:11 9:3 10:3 11:2 12:5 13:5 14:5 15:4 16:1 17:0 18:0 19:0 20:0 21:0 22:0 23:4 24:3 25:3 26:3 27:5 28:6 29:5 30:4 31:4 32:4 33:3 34:4 35:0 36:0 37:0 38:0 39:48 
-0.3504581084833961 1:0 2:0 3:0 4:7 5:12 6:3 7:2 8:3 9:6 10:5 11:5 12:4 13:1 14:0 15:0 16:0 17:0 18:0 19:0 20:0 21:4 22:3 23:4 24:4 25:4 26:6 27:5 28:4 29:4 30:3 31:4 32:3 33:0 34:0 35:0 36:0 37:0 38:0 39:48 
-1.148522212680983 1:0 2:0 3:0 4:0 5:0 6:8 7:12 8:2 9:2 10:3 11:4 12:5 13:6 14:4 15:1 16:0 17:0 18:0 19:0 20:0 21:0 22:1 23:4 24:4 25:5 26:4 27:3 28:4 29:4 30:4 31:3 32:4 33:4 34:3 35:0 36:0 37:0 38:0 39:47 
-0.6172313331342147 1:1 2:1 3:0 4:0 5:7 6:11 7:3 8:3 9:3 10:5 11:5 12:5 13:4 14:1 15:0 16:0 17:0 18:0 19:0 20:2 21:0 22:4 23:4 24:3 25:3 26:5 27:6 28:5 29:4 30:2 31:4 32:3 33:4 34:0 35:0 36:0 37:0 38:0 39:49 
