svm_type c_svc
kernel_type rbf
gamma 0.00012207
nr_class 2
total_sv 28
rho -0.190928
label 0 1
probA -3.64879
probB -0.0322384
nr_sv 14 14
SV
2 1:0 2:0 3:0 4:0 5:0 6:0 7:7 8:8 9:4 10:2 11:3 12:4 13:3 14:4 15:8 16:3 17:0 18:0 19:0 20:6 21:5 22:3 23:3 24:2 25:3 26:4 27:3 28:2 29:3 30:8 31:4 32:0 33:0 34:0 35:0 36:0 37:0 38:0 39:46 
2 1:0 2:0 3:0 4:0 5:9 6:10 7:4 8:4 9:3 10:4 11:2 12:4 13:6 14:0 15:0 16:0 17:0 18:0 19:0 20:0 21:0 22:0 23:5 24:7 25:4 26:3 27:2 28:1 29:2 30:2 31:3 32:3 33:7 34:7 35:0 36:0 37:0 38:0 39:46 
0.641958723201728 1:0 2:0 3:0 4:0 5:8 6:11 7:4 8:4 9:3 10:4 11:4 12:4 13:7 14:1 15:0 16:0 17:0 18:0 19:0 20:0 21:0 22:0 23:0 24:7 25:7 26:4 27:2 28:2 29:2 30:2 31:3 32:3 33:4 34:8 35:6 36:0 37:0 38:0 39:50 
2 1:0 2:0 3:0 4:0 5:8 6:12 7:4 8:5 9:4 10:3 11:4 12:3 13:5 14:0 15:0 16:0 17:0 18:0 19:0 20:0 21:6 22:8 23:2 24:2 25:3 26:3 27:2 28:2 29:2 30:5 31:6 32:7 33:0 34:0 35:0 36:0 37:0 38:0 39:48 
2 1:0 2:0 3:0 4:0 5:0 6:1 7:6 8:11 9:4 10:4 11:5 12:4 13:3 14:4 15:7 16:1 17:0 18:0 19:1 20:7 21:6 22:3 23:3 24:1 25:3 26:3 27:3 28:2 29:4 30:8 31:6 32:0 33:0 34:0 35:0 36:0 37:0 38:0 39:50 
0.9543066843096953 1:0 2:0 3:0 4:0 5:9 6:11 7:4 8:4 9:3 10:4 11:3 12:4 13:6 14:0 15:0 16:0 17:0 18:0 19:0 20:0 21:7 22:7 23:3 24:3 25:3 26:3 27:3 28:2 29:2 30:3 31:7 32:5 33:0 34:0 35:0 36:0 37:0 38:0 39:48 
2 1:0 2:0 3:0 4:0 5:0 6:8 7:10 8:4 9:3 10:3 11:4 12:4 13:4 14:6 15:0 16:0 17:0 18:0 19:0 20:0 21:7 22:7 23:3 24:3 25:3 26:2 27:2 28:1 29:2 30:3 31:8 32:5 33:0 34:0 35:0 36:0 37:0 38:0 39:46 
2 1:1 2:0 3:0 4:0 5:5 6:11 7:4 8:4 9:4 10:4 11:3 12:4 13:7 14:0 15:0 16:0 17:0 18:0 19:0 20:6 21:7 22:3 23:3 24:2 25:4 26:3 27:2 28:1 29:3 30:8 31:5 32:0 33:0 34:0 35:0 36:0 37:0 38:0 39:47 
2 1:0 2:0 3:0 4:0 5:0 6:8 7:12 8:4 9:4 10:4 11:4 12:4 13:2 14:5 15:1 16:0 17:0 18:0 19:0 20:0 21:0 22:0 23:7 24:7 25:4 26:3 27:4 28:1 29:2 30:1 31:3 32:2 33:8 34:6 35:0 36:0 37:0 38:0 39:48 
2 1:0 2:0 3:0 4:7 5:11 6:4 7:4 8:4 9:3 10:4 11:4 12:8 13:0 14:0 15:0 16:0 17:0 18:0 19:0 20:5 21:8 22:4 23:1 24:3 25:3 26:2 27:2 28:3 29:4 30:7 31:7 32:0 33:0 34:0 35:0 36:0 37:0 38:0 39:49 
2 1:0 2:0 3:0 4:0 5:0 6:0 7:7 8:11 9:4 10:4 11:4 12:4 13:4 14:4 15:6 16:1 17:0 18:0 19:0 20:0 21:0 22:0 23:6 24:8 25:3 26:2 27:2 28:3 29:3 30:3 31:3 32:3 33:7 34:6 35:0 36:0 37:0 38:0 39:49 
2 1:0 2:0 3:0 4:0 5:8 6:10 7:2 8:3 9:5 10:4 11:4 12:4 13:8 14:0 15:0 16:0 17:0 18:0 19:0 20:0 21:0 22:1 23:4 24:5 25:3 26:3 27:3 28:2 29:3 30:3 31:3 32:4 33:7 34:7 35:0 36:0 37:0 38:0 39:48 
2 1:0 2:0 3:0 4:0 5:0 6:8 7:12 8:4 9:4 10:3 11:3 12:3 13:4 14:3 15:0 16:0 17:0 18:0 19:0 20:0 21:0 22:5 23:8 24:3 25:3 26:2 27:2 28:2 29:2 30:2 31:3 32:6 33:6 34:0 35:0 36:0 37:0 38:0 39:44 
2 1:0 2:0 3:0 4:0 5:0 6:9 7:10 8:4 9:4 10:3 11:4 12:4 13:3 14:7 15:0 16:0 17:0 18:0 19:0 20:0 21:0 22:0 23:0 24:4 25:8 26:3 27:2 28:3 29:3 30:2 31:3 32:3 33:4 34:6 35:7 36:0 37:0 38:0 39:48 
-2 1:0 2:0 3:0 4:0 5:4 6:6 7:5 8:5 9:6 10:8 11:1 12:0 13:0 14:0 15:0 16:0 17:0 18:0 19:0 20:0 21:0 22:0 23:0 24:0 25:0 26:3 27:5 28:3 29:3 30:5 31:3 32:2 33:6 34:4 35:1 36:0 37:0 38:0 39:35 
-2 1:0 2:0 3:0 4:0 5:0 6:4 7:7 8:5 9:5 10:5 11:8 12:1 13:0 14:0 15:0 16:0 17:0 18:0 19:0 20:0 21:0 22:0 23:0 24:0 25:0 26:3 27:5 28:3 29:3 30:5 31:3 32:3 33:6 34:4 35:0 36:0 37:0 38:0 39:35 
-2 1:0 2:0 3:0 4:0 5:0 6:0 7:3 8:5 9:5 10:5 11:5 12:8 13:2 14:0 15:0 16:0 17:0 18:0 19:0 20:0 21:0 22:0 23:0 24:0 25:0 26:0 27:3 28:5 29:3 30:3 31:5 32:3 33:2 34:5 35:4 36:0 37:0 38:0 39:33 
-1.358355449784901 1:0 2:0 3:0 4:0 5:0 6:3 7:6 8:5 9:5 10:5 11:8 12:1 13:0 14:0 15:0 16:0 17:0 18:0 19:0 20:0 21:0 22:0 23:0 24:0 25:3 26:5 27:3 28:3 29:5 30:3 31:1 32:6 33:4 34:0 35:0 36:0 37:0 38:0 39:33 
-1.56202296522152 1:0 2:0 3:0 4:0 5:0 6:4 7:5 8:5 9:6 10:4 11:7 12:1 13:0 14:0 15:0 16:0 17:0 18:0 19:0 20:0 21:0 22:0 23:0 24:3 25:4 26:4 27:3 28:4 29:3 30:2 31:6 32:3 33:0 34:0 35:0 36:0 37:0 38:0 39:32 
-2 1:0 2:0 3:0 4:0 5:0 6:0 7:3 8:6 9:5 10:5 11:6 12:8 13:1 14:0 15:0 16:0 17:0 18:0 19:0 20:0 21:0 22:0 23:0 24:0 25:3 26:5 27:2 28:3 29:5 30:3 31:3 32:6 33:4 34:0 35:0 36:0 37:0 38:0 39:34 
-2 1:0 2:0 3:0 4:4 5:5 6:5 7:5 8:4 9:8 10:2 11:0 12:0 13:0 14:0 15:0 16:0 17:0 18:0 19:0 20:0 21:0 22:0 23:0 24:0 25:3 26:4 27:3 28:3 29:6 30:2 31:2 32:6 33:4 34:0 35:0 36:0 37:0 38:0 39:33 
-2 1:0 2:0 3:0 4:3 5:7 6:5 7:5 8:5 9:6 10:1 11:1 12:0 13:0 14:0 15:0 16:0 17:0 18:0 19:0 20:0 21:0 22:0 23:0 24:0 25:1 26:3 27:5 28:3 29:3 30:4 31:2 32:2 33:6 34:4 35:0 36:0 37:0 38:0 39:33 
-2 1:0 2:0 3:0 4:0 5:3 6:5 7:5 8:5 9:5 10:8 11:1 12:0 13:0 14:0 15:0 16:0 17:0 18:0 19:0 20:0 21:0 22:0 23:3 24:5 25:2 26:3 27:5 28:2 29:2 30:6 31:4 32:0 33:0 34:0 35:0 36:0 37:0 38:0 39:32 
-2 1:0 2:0 3:0 4:0 5:2 6:7 7:5 8:5 9:5 10:8 11:1 12:0 13:0 14:0 15:0 16:0 17:0 18:0 19:0 20:0 21:0 22:0 23:3 24:5 25:2 26:3 27:5 28:3 29:2 30:6 31:4 32:0 33:0 34:0 35:0 36:0 37:0 38:0 39:33 
-2 1:0 2:0 3:0 4:4 5:6 6:5 7:5 8:4 9:8 10:1 11:0 12:0 13:0 14:0 15:0 16:0 17:0 18:0 19:0 20:0 21:0 22:0 23:3 24:4 25:3 26:3 27:5 28:3 29:2 30:6 31:4 32:0 33:0 34:0 35:0 36:0 37:0 38:0 39:33 
-2 1:0 2:0 3:0 4:0 5:4 6:6 7:6 8:5 9:5 10:8 11:1 12:0 13:0 14:0 15:0 16:0 17:0 18:0 19:0 20:0 21:0 22:0 23:0 24:0 25:0 26:0 27:3 28:6 29:2 30:4 31:5 32:3 33:2 34:6 35:4 36:0 37:0 38:0 39:35 
-2 1:11 2:0 3:0 4:0 5:0 6:3 7:5 8:5 9:4 10:4 11:8 12:1 13:0 14:0 15:0 16:0 17:0 18:0 19:0 20:1 21:1 22:1 23:0 24:1 25:1 26:4 27:6 28:3 29:3 30:4 31:4 32:2 33:6 34:4 35:0 36:0 37:0 38:0 39:41 
-0.6758869925050026 1:0 2:0 3:0 4:4 5:5 6:5 7:5 8:5 9:8 10:1 11:0 12:0 13:0 14:0 15:0 16:0 17:0 18:0 19:0 20:0 21:0 22:0 23:0 24:0 25:0 26:0 27:4 28:5 29:1 30:3 31:5 32:3 33:2 34:6 35:4 36:0 37:0 38:0 39:33 
