svm_type c_svc
kernel_type rbf
gamma 0.0078125
nr_class 2
total_sv 44
rho 0.348937
label 1 0
probA -4.26986
probB 0.191419
nr_sv 20 24
SV
0.1202341710107365 1:0 2:0 3:0 4:0 5:0 6:0 7:3 8:7 9:4 10:4 11:2 12:4 13:10 14:0 15:0 16:0 17:0 18:0 19:0 20:0 21:0 22:0 23:1 24:1 25:1 26:3 27:6 28:2 29:3 30:3 31:3 32:3 33:5 34:3 35:0 36:0 37:0 38:0 39:34 
0.5 1:0 2:0 3:0 4:0 5:4 6:7 7:4 8:4 9:2 10:3 11:12 12:2 13:0 14:0 15:0 16:0 17:0 18:0 19:0 20:1 21:1 22:2 23:3 24:6 25:3 26:2 27:3 28:3 29:4 30:6 31:4 32:0 33:0 34:0 35:0 36:0 37:0 38:0 39:38 
0.2224024763503447 1:0 2:0 3:1 4:5 5:7 6:4 7:3 8:2 9:3 10:10 11:0 12:0 13:0 14:0 15:0 16:0 17:0 18:0 19:0 20:1 21:1 22:1 23:2 24:6 25:5 26:3 27:3 28:2 29:2 30:6 31:3 32:0 33:0 34:0 35:0 36:0 37:0 38:0 39:35 
0.183646965061379 1:0 2:0 3:0 4:0 5:3 6:7 7:3 8:4 9:2 10:2 11:11 12:1 13:0 14:0 15:0 16:0 17:0 18:0 19:0 20:0 21:0 22:0 23:2 24:1 25:1 26:2 27:6 28:3 29:3 30:2 31:2 32:4 33:5 34:2 35:0 36:0 37:0 38:0 39:33 
0.4388183951044661 1:0 2:0 3:0 4:4 5:7 6:4 7:3 8:2 9:2 10:9 11:0 12:0 13:0 14:0 15:0 16:0 17:0 18:0 19:0 20:0 21:0 22:0 23:1 24:1 25:1 26:3 27:6 28:4 29:3 30:2 31:2 32:2 33:5 34:1 35:0 36:0 37:0 38:0 39:31 
0.3864251632207386 1:0 2:0 3:0 4:0 5:0 6:5 7:6 8:4 9:4 10:1 11:4 12:12 13:0 14:0 15:0 16:0 17:0 18:0 19:0 20:0 21:1 22:1 23:1 24:3 25:6 26:4 27:3 28:3 29:3 30:4 31:4 32:3 33:0 34:0 35:0 36:0 37:0 38:0 39:36 
0.5 1:0 2:0 3:0 4:4 5:7 6:4 7:4 8:1 9:3 10:12 11:1 12:0 13:0 14:0 15:0 16:0 17:0 18:0 19:0 20:0 21:0 22:0 23:0 24:1 25:1 26:1 27:3 28:5 29:3 30:3 31:3 32:4 33:3 34:6 35:3 36:0 37:0 38:0 39:36 
0.4206722351356686 1:0 2:0 3:0 4:0 5:0 6:0 7:4 8:7 9:4 10:4 11:2 12:3 13:10 14:0 15:0 16:0 17:0 18:0 19:0 20:0 21:0 22:0 23:0 24:1 25:1 26:1 27:3 28:6 29:2 30:2 31:3 32:3 33:4 34:5 35:3 36:0 37:0 38:0 39:34 
0.1169562015158089 1:0 2:0 3:0 4:4 5:7 6:4 7:4 8:2 9:4 10:12 11:0 12:0 13:0 14:0 15:0 16:0 17:0 18:0 19:0 20:1 21:1 22:1 23:3 24:6 25:3 26:3 27:3 28:3 29:4 30:6 31:3 32:0 33:0 34:0 35:0 36:0 37:0 38:0 39:37 
0.5 1:1 2:0 3:0 4:0 5:1 6:4 7:8 8:4 9:4 10:2 11:4 12:12 13:0 14:0 15:0 16:0 17:0 18:0 19:0 20:0 21:0 22:0 23:1 24:1 25:1 26:4 27:7 28:4 29:2 30:3 31:3 32:4 33:6 34:3 35:1 36:0 37:0 38:0 39:40 
0.5 1:0 2:0 3:0 4:0 5:0 6:4 7:7 8:2 9:4 10:2 11:3 12:6 13:0 14:0 15:0 16:0 17:0 18:0 19:0 20:0 21:0 22:0 23:1 24:3 25:4 26:3 27:3 28:2 29:2 30:2 31:5 32:3 33:0 34:0 35:0 36:0 37:0 38:0 39:28 
0.5 1:6 2:1 3:0 4:0 5:0 6:0 7:4 8:6 9:3 10:2 11:2 12:4 13:11 14:0 15:0 16:0 17:0 18:0 19:0 20:0 21:0 22:1 23:1 24:2 25:6 26:4 27:4 28:4 29:3 30:3 31:6 32:2 33:0 34:1 35:2 36:0 37:0 38:0 39:39 
0.5 1:0 2:0 3:0 4:0 5:5 6:6 7:4 8:3 9:2 10:4 11:12 12:2 13:0 14:0 15:0 16:0 17:0 18:0 19:0 20:0 21:0 22:0 23:0 24:1 25:1 26:1 27:2 28:6 29:4 30:3 31:2 32:3 33:5 34:7 35:3 36:0 37:0 38:0 39:38 
0.2659823566907082 1:0 2:0 3:0 4:0 5:0 6:4 7:7 8:2 9:4 10:2 11:3 12:9 13:0 14:0 15:0 16:0 17:0 18:0 19:0 20:0 21:0 22:0 23:0 24:0 25:1 26:1 27:2 28:5 29:3 30:3 31:2 32:2 33:3 34:6 35:3 36:0 37:0 38:0 39:31 
0.5 1:0 2:0 3:0 4:3 5:7 6:4 7:4 8:3 9:4 10:12 11:0 12:0 13:0 14:0 15:1 16:0 17:0 18:0 19:0 20:1 21:1 22:1 23:3 24:6 25:4 26:3 27:3 28:2 29:4 30:6 31:4 32:0 33:0 34:0 35:0 36:0 37:0 38:0 39:38 
0.4956563804996094 1:0 2:0 3:0 4:0 5:5 6:7 7:4 8:4 9:2 10:3 11:12 12:1 13:0 14:0 15:0 16:0 17:0 18:0 19:0 20:0 21:0 22:1 23:1 24:1 25:5 26:5 27:4 28:3 29:3 30:3 31:3 32:6 33:3 34:0 35:0 36:0 37:0 38:0 39:38 
0.2534980926932628 1:0 2:0 3:0 4:0 5:0 6:4 7:7 8:4 9:4 10:2 11:4 12:12 13:0 14:0 15:0 16:0 17:0 18:0 19:0 20:0 21:0 22:0 23:0 24:1 25:1 26:1 27:3 28:6 29:3 30:3 31:3 32:3 33:4 34:6 35:3 36:0 37:0 38:0 39:37 
0.06992695411176597 1:0 2:0 3:0 4:4 5:7 6:5 7:4 8:1 9:3 10:11 11:0 12:0 13:0 14:0 15:0 16:0 17:0 18:0 19:0 20:0 21:0 22:0 23:0 24:1 25:1 26:1 27:3 28:6 29:2 30:2 31:3 32:3 33:4 34:5 35:3 36:1 37:0 38:0 39:35 
0.5 1:0 2:0 3:0 4:0 5:0 6:0 7:5 8:7 9:4 10:4 11:2 12:3 13:12 14:0 15:0 16:0 17:0 18:0 19:0 20:1 21:1 22:1 23:3 24:6 25:3 26:3 27:3 28:3 29:4 30:6 31:3 32:0 33:0 34:0 35:0 36:0 37:0 38:0 39:37 
0.2709311828682671 1:0 2:0 3:0 4:0 5:0 6:0 7:3 8:7 9:4 10:3 11:1 12:3 13:11 14:0 15:0 16:1 17:0 18:1 19:0 20:0 21:0 22:1 23:1 24:2 25:5 26:2 27:3 28:2 29:3 30:4 31:6 32:3 33:0 34:0 35:0 36:0 37:0 38:0 39:33 
-0.5 1:7 2:0 3:0 4:0 5:0 6:12 7:12 8:6 9:5 10:6 11:6 12:6 13:6 14:1 15:0 16:0 17:0 18:0 19:0 20:0 21:0 22:0 23:8 24:9 25:2 26:2 27:3 28:9 29:9 30:3 31:3 32:3 33:7 34:8 35:1 36:0 37:0 38:0 39:67 
-0.3214734613766851 1:2 2:0 3:0 4:0 5:8 6:12 7:6 8:5 9:6 10:6 11:6 12:6 13:0 14:0 15:0 16:0 17:0 18:0 19:0 20:0 21:0 22:7 23:8 24:2 25:1 26:2 27:9 28:7 29:2 30:1 31:2 32:8 33:8 34:0 35:0 36:0 37:0 38:0 39:57 
-0.1864106930214672 1:0 2:0 3:0 4:0 5:8 6:12 7:6 8:6 9:5 10:6 11:6 12:4 13:0 14:0 15:0 16:0 17:0 18:0 19:0 20:0 21:0 22:0 23:5 24:6 25:2 26:2 27:2 28:8 29:8 30:2 31:2 32:1 33:8 34:7 35:0 36:0 37:0 38:0 39:53 
-0.2593388124701427 1:0 2:0 3:0 4:0 5:0 6:7 7:11 8:6 9:6 10:6 11:6 12:6 13:6 14:0 15:0 16:0 17:0 18:0 19:0 20:0 21:8 22:7 23:2 24:0 25:2 26:7 27:8 28:2 29:2 30:1 31:8 32:7 33:0 34:0 35:0 36:0 37:0 38:0 39:54 
-0.5 1:7 2:2 3:0 4:0 5:0 6:0 7:9 8:11 9:6 10:5 11:6 12:6 13:6 14:6 15:0 16:0 17:0 18:0 19:0 20:8 21:8 22:2 23:2 24:2 25:7 26:9 27:2 28:4 29:2 30:8 31:9 32:1 33:0 34:0 35:0 36:0 37:0 38:0 39:64 
-0.4611765977036398 1:0 2:0 3:0 4:0 5:0 6:0 7:9 8:11 9:6 10:6 11:6 12:6 13:6 14:6 15:0 16:0 17:0 18:0 19:0 20:0 21:0 22:8 23:8 24:2 25:1 26:2 27:7 28:8 29:1 30:2 31:1 32:8 33:8 34:0 35:0 36:0 37:0 38:0 39:56 
-0.4217183142966455 1:0 2:0 3:0 4:0 5:0 6:0 7:7 8:11 9:6 10:6 11:6 12:4 13:5 14:5 15:0 16:0 17:0 18:0 19:0 20:7 21:8 22:1 23:2 24:1 25:8 26:5 27:2 28:1 29:1 30:6 31:8 32:0 33:0 34:0 35:0 36:0 37:0 38:0 39:50 
-0.5 1:0 2:0 3:0 4:0 5:0 6:6 7:11 8:6 9:6 10:5 11:6 12:6 13:4 14:0 15:0 16:0 17:0 18:0 19:0 20:0 21:0 22:0 23:0 24:8 25:7 26:1 27:1 28:1 29:6 30:8 31:2 32:1 33:2 34:6 35:7 36:0 37:0 38:0 39:50 
-0.03829034295446394 1:0 2:0 3:0 4:0 5:10 6:11 7:6 8:5 9:6 10:6 11:5 12:5 13:0 14:0 15:0 16:0 17:0 18:0 19:0 20:0 21:0 22:1 23:7 24:6 25:2 26:0 27:2 28:8 29:7 30:2 31:2 32:2 33:7 34:8 35:0 36:0 37:0 38:0 39:54 
-0.3231780567377673 1:1 2:1 3:0 4:0 5:10 6:11 7:6 8:6 9:5 10:6 11:5 12:5 13:0 14:0 15:0 16:0 17:0 18:0 19:0 20:8 21:8 22:2 23:2 24:2 25:10 26:6 27:1 28:2 29:1 30:6 31:8 32:0 33:0 34:0 35:0 36:0 37:0 38:0 39:56 
-0.3051711321399391 1:0 2:0 3:0 4:0 5:0 6:9 7:10 8:5 9:6 10:6 11:5 12:6 13:6 14:0 15:0 16:0 17:0 18:0 19:0 20:7 21:7 22:1 23:1 24:2 25:8 26:8 27:1 28:2 29:1 30:7 31:8 32:0 33:0 34:0 35:0 36:0 37:0 38:0 39:53 
-0.2236816804813007 1:0 2:0 3:0 4:0 5:9 6:12 7:6 8:5 9:5 10:6 11:4 12:5 13:0 14:0 15:0 16:0 17:0 18:0 19:0 20:0 21:0 22:0 23:0 24:7 25:8 26:2 27:2 28:2 29:6 30:6 31:2 32:1 33:1 34:8 35:7 36:0 37:0 38:0 39:52 
-0.195458674204986 1:0 2:0 3:0 4:1 5:8 6:11 7:6 8:5 9:6 10:6 11:6 12:6 13:0 14:0 15:0 16:0 17:0 18:0 19:0 20:0 21:8 22:9 23:2 24:2 25:1 26:7 27:6 28:2 29:2 30:1 31:7 32:8 33:0 34:0 35:0 36:0 37:0 38:0 39:55 
-0.4511354123399905 1:0 2:0 3:0 4:9 5:10 6:6 7:5 8:5 9:6 10:6 11:6 12:0 13:0 14:0 15:0 16:0 17:0 18:0 19:0 20:8 21:8 22:2 23:1 24:1 25:6 26:8 27:2 28:2 29:1 30:7 31:7 32:0 33:0 34:0 35:0 36:0 37:0 38:0 39:53 
-0.4634429442654784 1:0 2:0 3:0 4:6 5:10 6:5 7:6 8:6 9:6 10:5 11:4 12:0 13:0 14:0 15:0 16:0 17:0 18:0 19:0 20:0 21:0 22:0 23:0 24:6 25:7 26:2 27:1 28:2 29:7 30:7 31:1 32:2 33:0 34:6 35:7 36:0 37:0 38:0 39:48 
-0.3773781880558668 1:0 2:0 3:0 4:0 5:0 6:0 7:7 8:11 9:5 10:6 11:7 12:4 13:6 14:7 15:0 16:0 17:0 18:0 19:0 20:0 21:7 22:5 23:3 24:2 25:2 26:8 27:7 28:1 29:2 30:2 31:7 32:7 33:0 34:0 35:0 36:0 37:0 38:0 39:53 
-0.003920327395794823 1:0 2:0 3:0 4:0 5:8 6:11 7:6 8:6 9:6 10:5 11:6 12:6 13:0 14:0 15:0 16:0 17:0 18:0 19:0 20:0 21:0 22:7 23:8 24:2 25:1 26:2 27:7 28:6 29:1 30:2 31:3 32:7 33:8 34:0 35:0 36:0 37:0 38:0 39:54 
-0.273374392132431 1:8 2:0 3:0 4:0 5:6 6:11 7:7 8:6 9:5 10:6 11:6 12:6 13:0 14:0 15:0 16:0 17:0 18:0 19:0 20:0 21:0 22:0 23:7 24:8 25:1 26:2 27:3 28:8 29:8 30:1 31:3 32:3 33:9 34:7 35:1 36:0 37:0 38:0 39:61 
-0.2472201899752755 1:0 2:0 3:0 4:1 5:8 6:12 7:5 8:5 9:6 10:6 11:4 12:6 13:0 14:0 15:0 16:0 17:0 18:0 19:0 20:0 21:0 22:0 23:7 24:8 25:1 26:2 27:2 28:8 29:5 30:1 31:2 32:2 33:8 34:7 35:0 36:0 37:0 38:0 39:53 
-0.2952998326474408 1:2 2:0 3:1 4:8 5:12 6:6 7:5 8:5 9:6 10:6 11:5 12:0 13:0 14:0 15:0 16:0 17:0 18:0 19:0 20:0 21:0 22:0 23:1 24:8 25:7 26:2 27:2 28:1 29:6 30:8 31:3 32:2 33:1 34:8 35:7 36:0 37:0 38:0 39:56 
-0.3765410803139478 1:7 2:1 3:0 4:0 5:9 6:10 7:6 8:5 9:6 10:6 11:5 12:5 13:0 14:0 15:0 16:0 17:0 18:0 19:0 20:0 21:7 22:6 23:1 24:2 25:2 26:8 27:9 28:3 29:2 30:2 31:9 32:7 33:1 34:1 35:0 36:0 37:0 38:0 39:60 
-0.02601362175452797 1:0 2:0 3:0 4:0 5:7 6:12 7:6 8:5 9:6 10:6 11:5 12:6 13:0 14:0 15:0 16:0 17:0 18:0 19:0 20:0 21:0 22:7 23:8 24:2 25:2 26:1 27:7 28:6 29:2 30:2 31:2 32:7 33:7 34:0 35:0 36:0 37:0 38:0 39:53 
-0.4414332469835902 1:0 2:0 3:0 4:0 5:0 6:8 7:9 8:5 9:5 10:6 11:6 12:5 13:6 14:0 15:0 16:0 17:0 18:0 19:0 20:0 21:0 22:7 23:8 24:2 25:2 26:1 27:8 28:5 29:2 30:2 31:1 32:6 33:6 34:0 35:0 36:0 37:0 38:0 39:50 
-0.05349357301137468 1:0 2:0 3:0 4:0 5:9 6:12 7:6 8:6 9:5 10:6 11:6 12:6 13:0 14:0 15:0 16:0 17:0 18:0 19:0 20:0 21:7 22:8 23:1 24:2 25:2 26:8 27:7 28:2 29:2 30:2 31:7 32:8 33:0 34:0 35:0 36:0 37:0 38:0 39:56 
