svm_type c_svc
kernel_type rbf
gamma 0.00012207
nr_class 2
total_sv 16
rho 0.842964
label 0 1
probA -3.04552
probB 0.0702578
nr_sv 6 10
SV
9.811883574061929 1:0 2:0 3:0 4:0 5:8 6:12 7:6 8:6 9:5 10:6 11:6 12:4 13:0 14:0 15:0 16:0 17:0 18:0 19:0 20:0 21:0 22:0 23:5 24:6 25:2 26:2 27:2 28:8 29:8 30:2 31:2 32:1 33:8 34:7 35:0 36:0 37:0 38:0 39:53 
0.7090008444784226 1:0 2:0 3:0 4:0 5:0 6:0 7:7 8:11 9:6 10:6 11:6 12:4 13:5 14:5 15:0 16:0 17:0 18:0 19:0 20:7 21:8 22:1 23:2 24:1 25:8 26:5 27:2 28:1 29:1 30:6 31:8 32:0 33:0 34:0 35:0 36:0 37:0 38:0 39:50 
15.29885535194211 1:0 2:0 3:0 4:0 5:0 6:9 7:10 8:5 9:6 10:6 11:5 12:6 13:6 14:0 15:0 16:0 17:0 18:0 19:0 20:7 21:7 22:1 23:1 24:2 25:8 26:8 27:1 28:2 29:1 30:7 31:8 32:0 33:0 34:0 35:0 36:0 37:0 38:0 39:53 
31.8679496556051 1:0 2:0 3:0 4:6 5:10 6:5 7:6 8:6 9:6 10:5 11:4 12:0 13:0 14:0 15:0 16:0 17:0 18:0 19:0 20:0 21:0 22:0 23:0 24:6 25:7 26:2 27:1 28:2 29:7 30:7 31:1 32:2 33:0 34:6 35:7 36:0 37:0 38:0 39:48 
9.320928081648415 1:0 2:0 3:0 4:0 5:0 6:0 7:7 8:11 9:5 10:6 11:7 12:4 13:6 14:7 15:0 16:0 17:0 18:0 19:0 20:0 21:7 22:5 23:3 24:2 25:2 26:8 27:7 28:1 29:2 30:2 31:7 32:7 33:0 34:0 35:0 36:0 37:0 38:0 39:53 
17.56965733323841 1:0 2:0 3:0 4:0 5:0 6:8 7:9 8:5 9:5 10:6 11:6 12:5 13:6 14:0 15:0 16:0 17:0 18:0 19:0 20:0 21:0 22:7 23:8 24:2 25:2 26:1 27:8 28:5 29:2 30:2 31:1 32:6 33:6 34:0 35:0 36:0 37:0 38:0 39:50 
-13.67083933971591 1:0 2:0 3:0 4:7 5:12 6:2 7:2 8:2 9:2 10:2 11:2 12:11 13:0 14:0 15:0 16:0 17:0 18:0 19:0 20:0 21:0 22:0 23:0 24:3 25:2 26:3 27:3 28:2 29:9 30:8 31:3 32:2 33:2 34:3 35:2 36:0 37:0 38:0 39:42 
-6.727153725513682 1:6 2:8 3:0 4:7 5:10 6:2 7:2 8:2 9:2 10:2 11:2 12:9 13:1 14:0 15:0 16:0 17:0 18:0 19:0 20:0 21:0 22:0 23:0 24:3 25:2 26:3 27:4 28:4 29:11 30:10 31:4 32:3 33:3 34:2 35:4 36:0 37:0 38:0 39:53 
-13.26270923921519 1:1 2:6 3:6 4:0 5:0 6:10 7:11 8:2 9:2 10:2 11:2 12:3 13:2 14:8 15:0 16:0 17:0 18:0 19:0 20:0 21:0 22:0 23:0 24:4 25:6 26:4 27:3 28:4 29:11 30:8 31:5 32:4 33:1 34:3 35:2 36:0 37:0 38:0 39:55 
-2.66537382077951 1:1 2:0 3:0 4:0 5:0 6:0 7:9 8:10 9:2 10:2 11:2 12:2 13:2 14:1 15:9 16:0 17:0 18:0 19:0 20:0 21:0 22:1 23:3 24:3 25:2 26:2 27:8 28:9 29:3 30:2 31:3 32:2 33:2 34:0 35:0 36:0 37:0 38:0 39:40 
-5.580995494518708 1:7 2:0 3:0 4:0 5:0 6:12 7:12 8:2 9:2 10:2 11:2 12:2 13:1 14:11 15:0 16:0 17:0 18:0 19:0 20:0 21:3 22:3 23:3 24:2 25:3 26:9 27:8 28:4 29:4 30:4 31:4 32:3 33:2 34:0 35:1 36:0 37:0 38:0 39:53 
-1.203472600008401 1:0 2:0 3:0 4:0 5:10 6:11 7:2 8:2 9:2 10:2 11:2 12:2 13:10 14:0 15:0 16:0 17:0 18:0 19:0 20:0 21:0 22:0 23:0 24:3 25:2 26:3 27:3 28:3 29:9 30:9 31:3 32:2 33:2 34:3 35:1 36:0 37:0 38:0 39:43 
-13.42902727819237 1:0 2:0 3:0 4:0 5:6 6:11 7:2 8:2 9:2 10:2 11:2 12:1 13:11 14:0 15:0 16:0 17:0 18:0 19:0 20:2 21:3 22:3 23:3 24:3 25:8 26:8 27:2 28:3 29:2 30:2 31:0 32:0 33:0 34:0 35:0 36:0 37:0 38:0 39:39 
-10.37079014691478 1:8 2:6 3:0 4:0 5:0 6:10 7:12 8:2 9:2 10:2 11:2 12:2 13:2 14:11 15:0 16:0 17:0 18:0 19:0 20:3 21:3 22:3 23:3 24:3 25:10 26:11 27:5 28:4 29:4 30:5 31:3 32:0 33:2 34:0 35:0 36:0 37:0 38:0 39:59 
-4.124615506084689 1:0 2:0 3:0 4:0 5:10 6:11 7:3 8:2 9:1 10:2 11:1 12:1 13:11 14:0 15:0 16:0 17:0 18:0 19:0 20:0 21:0 22:3 23:3 24:3 25:2 26:3 27:6 28:8 29:3 30:4 31:2 32:3 33:2 34:0 35:0 36:0 37:0 38:0 39:42 
-13.54329769003113 1:0 2:0 3:0 4:0 5:0 6:1 7:7 8:12 9:3 10:2 11:2 12:2 13:1 14:2 15:10 16:0 17:0 18:0 19:0 20:0 21:0 22:0 23:3 24:2 25:2 26:3 27:3 28:8 29:8 30:3 31:3 32:2 33:4 34:1 35:0 36:0 37:0 38:0 39:42 
