svm_type c_svc
kernel_type rbf
gamma 0.0078125
nr_class 2
total_sv 46
rho -0.16649
label 0 1
probA -5.79406
probB 0.0467894
nr_sv 23 23
SV
0.7890780659254606 1:7 2:0 3:0 4:0 5:0 6:12 7:12 8:6 9:5 10:6 11:6 12:6 13:6 14:1 15:0 16:0 17:0 18:0 19:0 20:0 21:0 22:0 23:8 24:9 25:2 26:2 27:3 28:9 29:9 30:3 31:3 32:3 33:7 34:8 35:1 36:0 37:0 38:0 39:67 
0.2526811806317595 1:2 2:0 3:0 4:0 5:8 6:12 7:6 8:5 9:6 10:6 11:6 12:6 13:0 14:0 15:0 16:0 17:0 18:0 19:0 20:0 21:0 22:7 23:8 24:2 25:1 26:2 27:9 28:7 29:2 30:1 31:2 32:8 33:8 34:0 35:0 36:0 37:0 38:0 39:57 
0.2475018322788848 1:0 2:0 3:0 4:0 5:8 6:12 7:6 8:6 9:5 10:6 11:6 12:4 13:0 14:0 15:0 16:0 17:0 18:0 19:0 20:0 21:0 22:0 23:5 24:6 25:2 26:2 27:2 28:8 29:8 30:2 31:2 32:1 33:8 34:7 35:0 36:0 37:0 38:0 39:53 
0.6251085571868177 1:0 2:0 3:0 4:0 5:0 6:7 7:11 8:6 9:6 10:6 11:6 12:6 13:6 14:0 15:0 16:0 17:0 18:0 19:0 20:0 21:8 22:7 23:2 24:0 25:2 26:7 27:8 28:2 29:2 30:1 31:8 32:7 33:0 34:0 35:0 36:0 37:0 38:0 39:54 
0.9739024332025086 1:7 2:2 3:0 4:0 5:0 6:0 7:9 8:11 9:6 10:5 11:6 12:6 13:6 14:6 15:0 16:0 17:0 18:0 19:0 20:8 21:8 22:2 23:2 24:2 25:7 26:9 27:2 28:4 29:2 30:8 31:9 32:1 33:0 34:0 35:0 36:0 37:0 38:0 39:64 
0.7933076314203227 1:0 2:0 3:0 4:0 5:0 6:0 7:9 8:11 9:6 10:6 11:6 12:6 13:6 14:6 15:0 16:0 17:0 18:0 19:0 20:0 21:0 22:8 23:8 24:2 25:1 26:2 27:7 28:8 29:1 30:2 31:1 32:8 33:8 34:0 35:0 36:0 37:0 38:0 39:56 
0.694592841798362 1:0 2:0 3:0 4:0 5:0 6:0 7:7 8:11 9:6 10:6 11:6 12:4 13:5 14:5 15:0 16:0 17:0 18:0 19:0 20:7 21:8 22:1 23:2 24:1 25:8 26:5 27:2 28:1 29:1 30:6 31:8 32:0 33:0 34:0 35:0 36:0 37:0 38:0 39:50 
0.8108400802925593 1:0 2:0 3:0 4:0 5:0 6:6 7:11 8:6 9:6 10:5 11:6 12:6 13:4 14:0 15:0 16:0 17:0 18:0 19:0 20:0 21:0 22:0 23:0 24:8 25:7 26:1 27:1 28:1 29:6 30:8 31:2 32:1 33:2 34:6 35:7 36:0 37:0 38:0 39:50 
0.5105584933686451 1:1 2:1 3:0 4:0 5:10 6:11 7:6 8:6 9:5 10:6 11:5 12:5 13:0 14:0 15:0 16:0 17:0 18:0 19:0 20:8 21:8 22:2 23:2 24:2 25:10 26:6 27:1 28:2 29:1 30:6 31:8 32:0 33:0 34:0 35:0 36:0 37:0 38:0 39:56 
0.6884764630146248 1:0 2:0 3:0 4:0 5:0 6:9 7:10 8:5 9:6 10:6 11:5 12:6 13:6 14:0 15:0 16:0 17:0 18:0 19:0 20:7 21:7 22:1 23:1 24:2 25:8 26:8 27:1 28:2 29:1 30:7 31:8 32:0 33:0 34:0 35:0 36:0 37:0 38:0 39:53 
0.3815820797416931 1:0 2:0 3:0 4:0 5:9 6:12 7:6 8:5 9:5 10:6 11:4 12:5 13:0 14:0 15:0 16:0 17:0 18:0 19:0 20:0 21:0 22:0 23:0 24:7 25:8 26:2 27:2 28:2 29:6 30:6 31:2 32:1 33:1 34:8 35:7 36:0 37:0 38:0 39:52 
0.4634028736705261 1:0 2:0 3:0 4:1 5:8 6:11 7:6 8:5 9:6 10:6 11:6 12:6 13:0 14:0 15:0 16:0 17:0 18:0 19:0 20:0 21:8 22:9 23:2 24:2 25:1 26:7 27:6 28:2 29:2 30:1 31:7 32:8 33:0 34:0 35:0 36:0 37:0 38:0 39:55 
0.6141688125810388 1:0 2:0 3:0 4:9 5:10 6:6 7:5 8:5 9:6 10:6 11:6 12:0 13:0 14:0 15:0 16:0 17:0 18:0 19:0 20:8 21:8 22:2 23:1 24:1 25:6 26:8 27:2 28:2 29:1 30:7 31:7 32:0 33:0 34:0 35:0 36:0 37:0 38:0 39:53 
0.3778623005218754 1:0 2:0 3:0 4:6 5:10 6:5 7:6 8:6 9:6 10:5 11:4 12:0 13:0 14:0 15:0 16:0 17:0 18:0 19:0 20:0 21:0 22:0 23:0 24:6 25:7 26:2 27:1 28:2 29:7 30:7 31:1 32:2 33:0 34:6 35:7 36:0 37:0 38:0 39:48 
0.1763290042387449 1:2 2:0 3:0 4:0 5:9 6:11 7:6 8:6 9:6 10:6 11:5 12:4 13:0 14:0 15:0 16:0 17:0 18:0 19:0 20:0 21:0 22:0 23:8 24:7 25:2 26:3 27:2 28:8 29:8 30:2 31:2 32:3 33:4 34:6 35:0 36:0 37:0 38:0 39:55 
0.9228698105931264 1:0 2:0 3:0 4:0 5:0 6:0 7:7 8:11 9:5 10:6 11:7 12:4 13:6 14:7 15:0 16:0 17:0 18:0 19:0 20:0 21:7 22:5 23:3 24:2 25:2 26:8 27:7 28:1 29:2 30:2 31:7 32:7 33:0 34:0 35:0 36:0 37:0 38:0 39:53 
0.1031533507825213 1:0 2:0 3:0 4:0 5:8 6:11 7:6 8:6 9:6 10:5 11:6 12:6 13:0 14:0 15:0 16:0 17:0 18:0 19:0 20:0 21:0 22:7 23:8 24:2 25:1 26:2 27:7 28:6 29:1 30:2 31:3 32:7 33:8 34:0 35:0 36:0 37:0 38:0 39:54 
0.4914460254274497 1:8 2:0 3:0 4:0 5:6 6:11 7:7 8:6 9:5 10:6 11:6 12:6 13:0 14:0 15:0 16:0 17:0 18:0 19:0 20:0 21:0 22:0 23:7 24:8 25:1 26:2 27:3 28:8 29:8 30:1 31:3 32:3 33:9 34:7 35:1 36:0 37:0 38:0 39:61 
0.4347797841396766 1:0 2:0 3:0 4:1 5:8 6:12 7:5 8:5 9:6 10:6 11:4 12:6 13:0 14:0 15:0 16:0 17:0 18:0 19:0 20:0 21:0 22:0 23:7 24:8 25:1 26:2 27:2 28:8 29:5 30:1 31:2 32:2 33:8 34:7 35:0 36:0 37:0 38:0 39:53 
0.5206280405160248 1:2 2:0 3:1 4:8 5:12 6:6 7:5 8:5 9:6 10:6 11:5 12:0 13:0 14:0 15:0 16:0 17:0 18:0 19:0 20:0 21:0 22:0 23:1 24:8 25:7 26:2 27:2 28:1 29:6 30:8 31:3 32:2 33:1 34:8 35:7 36:0 37:0 38:0 39:56 
0.6789191857378214 1:7 2:1 3:0 4:0 5:9 6:10 7:6 8:5 9:6 10:6 11:5 12:5 13:0 14:0 15:0 16:0 17:0 18:0 19:0 20:0 21:7 22:6 23:1 24:2 25:2 26:8 27:9 28:3 29:2 30:2 31:9 32:7 33:1 34:1 35:0 36:0 37:0 38:0 39:60 
0.2062575820824839 1:0 2:0 3:0 4:0 5:7 6:12 7:6 8:5 9:6 10:6 11:5 12:6 13:0 14:0 15:0 16:0 17:0 18:0 19:0 20:0 21:0 22:7 23:8 24:2 25:2 26:1 27:7 28:6 29:2 30:2 31:2 32:7 33:7 34:0 35:0 36:0 37:0 38:0 39:53 
1.023584215960099 1:0 2:0 3:0 4:0 5:0 6:8 7:9 8:5 9:5 10:6 11:6 12:5 13:6 14:0 15:0 16:0 17:0 18:0 19:0 20:0 21:0 22:7 23:8 24:2 25:2 26:1 27:8 28:5 29:2 30:2 31:1 32:6 33:6 34:0 35:0 36:0 37:0 38:0 39:50 
-0.6453071015779891 1:2 2:6 3:8 4:0 5:4 6:7 7:4 8:4 9:4 10:3 11:6 12:7 13:8 14:5 15:0 16:0 17:0 18:0 19:0 20:0 21:0 22:0 23:5 24:7 25:5 26:4 27:4 28:4 29:6 30:8 31:4 32:5 33:10 34:6 35:0 36:0 37:0 38:0 39:68 
-0.8199103016385002 1:8 2:0 3:0 4:0 5:0 6:4 7:8 8:4 9:4 10:4 11:2 12:6 13:7 14:7 15:6 16:0 17:0 18:0 19:0 20:0 21:4 22:7 23:6 24:2 25:2 26:2 27:7 28:7 29:3 30:5 31:8 32:5 33:1 34:1 35:0 36:0 37:0 38:0 39:60 
-0.4273277643127029 1:2 2:5 3:7 4:0 5:1 6:3 7:6 8:4 9:4 10:4 11:4 12:5 13:5 14:5 15:3 16:0 17:0 18:0 19:0 20:5 21:7 22:4 23:2 24:1 25:4 26:5 27:6 28:4 29:5 30:8 31:6 32:1 33:0 34:0 35:0 36:0 37:0 38:0 39:58 
-0.7059475391845225 1:3 2:8 3:8 4:0 5:0 6:4 7:7 8:4 9:4 10:4 11:4 12:6 13:6 14:6 15:5 16:0 17:0 18:0 19:0 20:5 21:7 22:4 23:1 24:2 25:2 26:6 27:7 28:5 29:5 30:9 31:7 32:2 33:2 34:3 35:2 36:0 37:0 38:0 39:69 
-0.7810785433239653 1:0 2:0 3:0 4:0 5:0 6:0 7:4 8:6 9:2 10:2 11:4 12:3 13:5 14:6 15:7 16:5 17:0 18:0 19:0 20:0 21:0 22:2 23:7 24:5 25:2 26:2 27:2 28:6 29:5 30:2 31:1 32:7 33:3 34:0 35:0 36:0 37:0 38:0 39:44 
-0.9155266096464779 1:8 2:0 3:0 4:0 5:4 6:8 7:4 8:4 9:4 10:4 11:6 12:6 13:6 14:5 15:0 16:0 17:0 18:0 19:0 20:5 21:7 22:3 23:1 24:3 25:3 26:7 27:7 28:3 29:5 30:9 31:6 32:0 33:0 34:0 35:0 36:0 37:0 38:0 39:59 
-0.8575604699519135 1:0 2:0 3:0 4:0 5:0 6:0 7:3 8:7 9:4 10:4 11:3 12:4 13:6 14:7 15:8 16:5 17:0 18:0 19:0 20:5 21:6 22:5 23:2 24:2 25:1 26:6 27:6 28:0 29:4 30:8 31:5 32:1 33:0 34:0 35:0 36:0 37:0 38:0 39:51 
-0.274124726865791 1:0 2:0 3:0 4:0 5:0 6:4 7:8 8:3 9:4 10:4 11:4 12:6 13:7 14:6 15:5 16:0 17:0 18:0 19:0 20:5 21:7 22:5 23:2 24:2 25:2 26:4 27:6 28:2 29:3 30:8 31:5 32:0 33:0 34:0 35:0 36:0 37:0 38:0 39:51 
-0.8340643426772071 1:0 2:0 3:0 4:0 5:3 6:7 7:4 8:5 9:4 10:4 11:6 12:7 13:7 14:6 15:0 16:0 17:0 18:0 19:0 20:0 21:0 22:5 23:7 24:6 25:2 26:2 27:1 28:6 29:6 30:1 31:4 32:8 33:5 34:0 35:0 36:0 37:0 38:0 39:53 
-0.06246695384644972 1:0 2:0 3:0 4:0 5:4 6:7 7:4 8:4 9:4 10:4 11:6 12:7 13:6 14:6 15:1 16:0 17:0 18:0 19:0 20:0 21:5 22:7 23:5 24:3 25:2 26:2 27:5 28:6 29:2 30:3 31:8 32:5 33:0 34:0 35:0 36:0 37:0 38:0 39:53 
-0.006487764794274378 1:0 2:0 3:0 4:0 5:4 6:8 7:4 8:3 9:4 10:4 11:5 12:6 13:6 14:6 15:0 16:0 17:0 18:0 19:0 20:5 21:6 22:5 23:2 24:2 25:2 26:6 27:6 28:2 29:3 30:7 31:4 32:0 33:0 34:0 35:0 36:0 37:0 38:0 39:50 
-0.7647166115008169 1:7 2:8 3:0 4:0 5:4 6:8 7:4 8:4 9:4 10:3 11:6 12:7 13:5 14:6 15:1 16:0 17:0 18:0 19:0 20:0 21:0 22:0 23:0 24:6 25:9 26:7 27:4 28:4 29:3 30:8 31:6 32:4 33:3 34:7 35:6 36:0 37:0 38:0 39:67 
-0.1560815772523761 1:0 2:0 3:0 4:0 5:0 6:3 7:8 8:3 9:3 10:4 11:3 12:6 13:7 14:7 15:5 16:0 17:0 18:0 19:0 20:0 21:4 22:6 23:5 24:2 25:2 26:2 27:6 28:5 29:2 30:4 31:6 32:5 33:0 34:0 35:0 36:0 37:0 38:0 39:49 
-0.7333926297728462 1:0 2:0 3:0 4:0 5:3 6:8 7:4 8:4 9:4 10:5 11:5 12:7 13:5 14:4 15:0 16:0 17:0 18:0 19:0 20:0 21:4 22:7 23:2 24:1 25:2 26:2 27:6 28:4 29:3 30:5 31:8 32:5 33:0 34:0 35:0 36:0 37:0 38:0 39:49 
-0.2653746197665812 1:0 2:0 3:0 4:0 5:0 6:4 7:8 8:4 9:4 10:2 11:3 12:5 13:6 14:6 15:6 16:0 17:0 18:0 19:0 20:0 21:0 22:4 23:6 24:5 25:1 26:2 27:2 28:5 29:5 30:2 31:4 32:7 33:5 34:0 35:0 36:0 37:0 38:0 39:48 
-0.4338913557938053 1:0 2:0 3:0 4:0 5:3 6:7 7:4 8:4 9:3 10:4 11:6 12:5 13:6 14:5 15:0 16:0 17:0 18:0 19:0 20:0 21:0 22:0 23:5 24:7 25:5 26:2 27:2 28:2 29:5 30:3 31:2 32:4 33:6 34:4 35:0 36:0 37:0 38:0 39:47 
-0.6482918754920569 1:0 2:0 3:0 4:0 5:4 6:8 7:4 8:3 9:4 10:3 11:5 12:7 13:5 14:6 15:0 16:0 17:0 18:0 19:0 20:0 21:0 22:0 23:5 24:7 25:5 26:1 27:2 28:2 29:6 30:5 31:2 32:4 33:5 34:5 35:0 36:0 37:0 38:0 39:49 
-1.025111895197023 1:7 2:6 3:0 4:4 5:7 6:3 7:4 8:4 9:4 10:5 11:6 12:7 13:6 14:0 15:0 16:0 17:0 18:0 19:0 20:0 21:0 22:0 23:4 24:7 25:5 26:2 27:3 28:3 29:8 30:6 31:2 32:5 33:10 34:7 35:1 36:0 37:0 38:0 39:63 
-0.3503401031958214 1:0 2:0 3:0 4:0 5:3 6:7 7:4 8:4 9:4 10:4 11:5 12:5 13:6 14:6 15:0 16:0 17:0 18:0 19:0 20:0 21:4 22:6 23:5 24:1 25:1 26:2 27:7 28:6 29:1 30:4 31:6 32:5 33:0 34:0 35:0 36:0 37:0 38:0 39:48 
-0.06455599917155642 1:2 2:6 3:6 4:0 5:3 6:7 7:4 8:3 9:4 10:4 11:5 12:7 13:7 14:5 15:1 16:0 17:0 18:0 19:0 20:0 21:0 22:0 23:5 24:7 25:5 26:2 27:4 28:4 29:8 30:6 31:4 32:5 33:9 34:5 35:0 36:0 37:0 38:0 39:64 
-0.5841911816749453 1:2 2:6 3:8 4:0 5:0 6:4 7:6 8:3 9:4 10:3 11:4 12:6 13:7 14:7 15:5 16:0 17:0 18:0 19:0 20:0 21:0 22:0 23:0 24:7 25:9 26:6 27:4 28:2 29:4 30:7 31:7 32:3 33:4 34:7 35:5 36:0 37:0 38:0 39:65 
-0.9051061354969827 1:1 2:7 3:7 4:0 5:0 6:0 7:4 8:8 9:4 10:4 11:4 12:2 13:6 14:6 15:6 16:6 17:0 18:0 19:0 20:0 21:3 22:6 23:5 24:4 25:4 26:4 27:7 28:8 29:3 30:5 31:9 32:7 33:0 34:0 35:0 36:0 37:0 38:0 39:65 
-0.5201745429784211 1:0 2:0 3:0 4:0 5:4 6:8 7:5 8:3 9:4 10:4 11:6 12:7 13:7 14:5 15:0 16:0 17:0 18:0 19:0 20:5 21:7 22:5 23:2 24:2 25:2 26:6 27:6 28:3 29:4 30:6 31:5 32:0 33:0 34:0 35:0 36:0 37:0 38:0 39:53 
