svm_type c_svc
kernel_type rbf
gamma 0.0078125
nr_class 2
total_sv 52
rho -0.218087
label 0 1
probA -4.5422
probB -0.378309
nr_sv 23 29
SV
0.5 1:7 2:0 3:0 4:0 5:0 6:12 7:12 8:6 9:5 10:6 11:6 12:6 13:6 14:1 15:0 16:0 17:0 18:0 19:0 20:0 21:0 22:0 23:8 24:9 25:2 26:2 27:3 28:9 29:9 30:3 31:3 32:3 33:7 34:8 35:1 36:0 37:0 38:0 39:67 
0.4226864031315143 1:2 2:0 3:0 4:0 5:8 6:12 7:6 8:5 9:6 10:6 11:6 12:6 13:0 14:0 15:0 16:0 17:0 18:0 19:0 20:0 21:0 22:7 23:8 24:2 25:1 26:2 27:9 28:7 29:2 30:1 31:2 32:8 33:8 34:0 35:0 36:0 37:0 38:0 39:57 
0.1356817475472439 1:0 2:0 3:0 4:0 5:8 6:12 7:6 8:6 9:5 10:6 11:6 12:4 13:0 14:0 15:0 16:0 17:0 18:0 19:0 20:0 21:0 22:0 23:5 24:6 25:2 26:2 27:2 28:8 29:8 30:2 31:2 32:1 33:8 34:7 35:0 36:0 37:0 38:0 39:53 
0.3150255980894777 1:0 2:0 3:0 4:0 5:0 6:7 7:11 8:6 9:6 10:6 11:6 12:6 13:6 14:0 15:0 16:0 17:0 18:0 19:0 20:0 21:8 22:7 23:2 24:0 25:2 26:7 27:8 28:2 29:2 30:1 31:8 32:7 33:0 34:0 35:0 36:0 37:0 38:0 39:54 
0.5 1:7 2:2 3:0 4:0 5:0 6:0 7:9 8:11 9:6 10:5 11:6 12:6 13:6 14:6 15:0 16:0 17:0 18:0 19:0 20:8 21:8 22:2 23:2 24:2 25:7 26:9 27:2 28:4 29:2 30:8 31:9 32:1 33:0 34:0 35:0 36:0 37:0 38:0 39:64 
0.5 1:0 2:0 3:0 4:0 5:0 6:0 7:9 8:11 9:6 10:6 11:6 12:6 13:6 14:6 15:0 16:0 17:0 18:0 19:0 20:0 21:0 22:8 23:8 24:2 25:1 26:2 27:7 28:8 29:1 30:2 31:1 32:8 33:8 34:0 35:0 36:0 37:0 38:0 39:56 
0.5 1:0 2:0 3:0 4:0 5:0 6:0 7:7 8:11 9:6 10:6 11:6 12:4 13:5 14:5 15:0 16:0 17:0 18:0 19:0 20:7 21:8 22:1 23:2 24:1 25:8 26:5 27:2 28:1 29:1 30:6 31:8 32:0 33:0 34:0 35:0 36:0 37:0 38:0 39:50 
0.5 1:0 2:0 3:0 4:0 5:0 6:6 7:11 8:6 9:6 10:5 11:6 12:6 13:4 14:0 15:0 16:0 17:0 18:0 19:0 20:0 21:0 22:0 23:0 24:8 25:7 26:1 27:1 28:1 29:6 30:8 31:2 32:1 33:2 34:6 35:7 36:0 37:0 38:0 39:50 
0.08904553683160371 1:0 2:0 3:0 4:0 5:10 6:11 7:6 8:5 9:6 10:6 11:5 12:5 13:0 14:0 15:0 16:0 17:0 18:0 19:0 20:0 21:0 22:1 23:7 24:6 25:2 26:0 27:2 28:8 29:7 30:2 31:2 32:2 33:7 34:8 35:0 36:0 37:0 38:0 39:54 
0.4001256583915235 1:1 2:1 3:0 4:0 5:10 6:11 7:6 8:6 9:5 10:6 11:5 12:5 13:0 14:0 15:0 16:0 17:0 18:0 19:0 20:8 21:8 22:2 23:2 24:2 25:10 26:6 27:1 28:2 29:1 30:6 31:8 32:0 33:0 34:0 35:0 36:0 37:0 38:0 39:56 
0.3609680678097714 1:0 2:0 3:0 4:0 5:0 6:9 7:10 8:5 9:6 10:6 11:5 12:6 13:6 14:0 15:0 16:0 17:0 18:0 19:0 20:7 21:7 22:1 23:1 24:2 25:8 26:8 27:1 28:2 29:1 30:7 31:8 32:0 33:0 34:0 35:0 36:0 37:0 38:0 39:53 
0.2791748064836108 1:0 2:0 3:0 4:0 5:9 6:12 7:6 8:5 9:5 10:6 11:4 12:5 13:0 14:0 15:0 16:0 17:0 18:0 19:0 20:0 21:0 22:0 23:0 24:7 25:8 26:2 27:2 28:2 29:6 30:6 31:2 32:1 33:1 34:8 35:7 36:0 37:0 38:0 39:52 
0.2585955967963415 1:0 2:0 3:0 4:1 5:8 6:11 7:6 8:5 9:6 10:6 11:6 12:6 13:0 14:0 15:0 16:0 17:0 18:0 19:0 20:0 21:8 22:9 23:2 24:2 25:1 26:7 27:6 28:2 29:2 30:1 31:7 32:8 33:0 34:0 35:0 36:0 37:0 38:0 39:55 
0.5 1:0 2:0 3:0 4:9 5:10 6:6 7:5 8:5 9:6 10:6 11:6 12:0 13:0 14:0 15:0 16:0 17:0 18:0 19:0 20:8 21:8 22:2 23:1 24:1 25:6 26:8 27:2 28:2 29:1 30:7 31:7 32:0 33:0 34:0 35:0 36:0 37:0 38:0 39:53 
0.3920365347211208 1:0 2:0 3:0 4:6 5:10 6:5 7:6 8:6 9:6 10:5 11:4 12:0 13:0 14:0 15:0 16:0 17:0 18:0 19:0 20:0 21:0 22:0 23:0 24:6 25:7 26:2 27:1 28:2 29:7 30:7 31:1 32:2 33:0 34:6 35:7 36:0 37:0 38:0 39:48 
0.008637689463402152 1:2 2:0 3:0 4:0 5:9 6:11 7:6 8:6 9:6 10:6 11:5 12:4 13:0 14:0 15:0 16:0 17:0 18:0 19:0 20:0 21:0 22:0 23:8 24:7 25:2 26:3 27:2 28:8 29:8 30:2 31:2 32:3 33:4 34:6 35:0 36:0 37:0 38:0 39:55 
0.4651134605289045 1:0 2:0 3:0 4:0 5:0 6:0 7:7 8:11 9:5 10:6 11:7 12:4 13:6 14:7 15:0 16:0 17:0 18:0 19:0 20:0 21:7 22:5 23:3 24:2 25:2 26:8 27:7 28:1 29:2 30:2 31:7 32:7 33:0 34:0 35:0 36:0 37:0 38:0 39:53 
0.3716582770904328 1:8 2:0 3:0 4:0 5:6 6:11 7:7 8:6 9:5 10:6 11:6 12:6 13:0 14:0 15:0 16:0 17:0 18:0 19:0 20:0 21:0 22:0 23:7 24:8 25:1 26:2 27:3 28:8 29:8 30:1 31:3 32:3 33:9 34:7 35:1 36:0 37:0 38:0 39:61 
0.2827295783491536 1:0 2:0 3:0 4:1 5:8 6:12 7:5 8:5 9:6 10:6 11:4 12:6 13:0 14:0 15:0 16:0 17:0 18:0 19:0 20:0 21:0 22:0 23:7 24:8 25:1 26:2 27:2 28:8 29:5 30:1 31:2 32:2 33:8 34:7 35:0 36:0 37:0 38:0 39:53 
0.4209709091375388 1:2 2:0 3:1 4:8 5:12 6:6 7:5 8:5 9:6 10:6 11:5 12:0 13:0 14:0 15:0 16:0 17:0 18:0 19:0 20:0 21:0 22:0 23:1 24:8 25:7 26:2 27:2 28:1 29:6 30:8 31:3 32:2 33:1 34:8 35:7 36:0 37:0 38:0 39:56 
0.4572998036547449 1:7 2:1 3:0 4:0 5:9 6:10 7:6 8:5 9:6 10:6 11:5 12:5 13:0 14:0 15:0 16:0 17:0 18:0 19:0 20:0 21:7 22:6 23:1 24:2 25:2 26:8 27:9 28:3 29:2 30:2 31:9 32:7 33:1 34:1 35:0 36:0 37:0 38:0 39:60 
0.4670704277212365 1:0 2:0 3:0 4:0 5:0 6:8 7:9 8:5 9:5 10:6 11:6 12:5 13:6 14:0 15:0 16:0 17:0 18:0 19:0 20:0 21:0 22:7 23:8 24:2 25:2 26:1 27:8 28:5 29:2 30:2 31:1 32:6 33:6 34:0 35:0 36:0 37:0 38:0 39:50 
0.03677861923966168 1:0 2:0 3:0 4:0 5:9 6:12 7:6 8:6 9:5 10:6 11:6 12:6 13:0 14:0 15:0 16:0 17:0 18:0 19:0 20:0 21:7 22:8 23:1 24:2 25:2 26:8 27:7 28:2 29:2 30:2 31:7 32:8 33:0 34:0 35:0 36:0 37:0 38:0 39:56 
-0.009885041259031276 1:0 2:0 3:0 4:0 5:0 6:2 7:1 8:2 9:11 10:10 11:2 12:2 13:2 14:0 15:0 16:0 17:0 18:0 19:0 20:0 21:7 22:8 23:2 24:2 25:2 26:2 27:0 28:2 29:2 30:2 31:2 32:1 33:0 34:0 35:0 36:0 37:0 38:0 39:32 
-0.2758576855603716 1:0 2:0 3:0 4:1 5:1 6:0 7:2 8:1 9:1 10:11 11:8 12:2 13:2 14:2 15:0 16:0 17:0 18:0 19:0 20:0 21:0 22:6 23:7 24:2 25:2 26:2 27:1 28:0 29:2 30:1 31:2 32:2 33:2 34:0 35:0 36:0 37:2 38:0 39:31 
-0.2725462126514899 1:0 2:0 3:0 4:0 5:0 6:0 7:2 8:2 9:2 10:12 11:11 12:2 13:1 14:2 15:0 16:0 17:0 18:0 19:0 20:0 21:0 22:8 23:7 24:2 25:2 26:2 27:2 28:1 29:2 30:2 31:2 32:2 33:2 34:0 35:0 36:0 37:0 38:0 39:34 
-0.5 1:0 2:0 3:0 4:0 5:0 6:0 7:0 8:2 9:2 10:1 11:12 12:10 13:2 14:2 15:2 16:0 17:0 18:0 19:0 20:0 21:0 22:0 23:0 24:7 25:8 26:1 27:2 28:2 29:1 30:2 31:2 32:2 33:2 34:2 35:2 36:0 37:0 38:0 39:33 
-0.5 1:0 2:0 3:0 4:0 5:0 6:0 7:0 8:2 9:2 10:2 11:12 12:11 13:2 14:1 15:2 16:0 17:0 18:0 19:0 20:0 21:0 22:7 23:8 24:2 25:2 26:2 27:2 28:2 29:2 30:1 31:2 32:2 33:2 34:0 35:0 36:0 37:0 38:0 39:34 
-0.2732709602158754 1:0 2:0 3:0 4:0 5:2 6:2 7:2 8:12 9:10 10:2 11:2 12:2 13:0 14:0 15:0 16:0 17:0 18:0 19:0 20:0 21:0 22:0 23:8 24:8 25:2 26:1 27:2 28:1 29:2 30:2 31:2 32:2 33:2 34:2 35:0 36:0 37:0 38:0 39:34 
-0.1662679407094491 1:0 2:0 3:0 4:0 5:2 6:2 7:2 8:12 9:11 10:2 11:2 12:2 13:0 14:0 15:0 16:0 17:0 18:0 19:0 20:0 21:0 22:0 23:8 24:8 25:2 26:2 27:2 28:2 29:2 30:2 31:2 32:1 33:2 34:2 35:0 36:0 37:0 38:0 39:35 
-0.2223560371760091 1:0 2:0 3:0 4:0 5:2 6:1 7:2 8:10 9:11 10:2 11:2 12:1 13:0 14:0 15:0 16:0 17:0 18:0 19:0 20:7 21:7 22:2 23:2 24:2 25:1 26:1 27:2 28:2 29:2 30:2 31:1 32:0 33:0 34:0 35:0 36:0 37:0 38:0 39:31 
-0.1012779861472679 1:0 2:0 3:0 4:0 5:0 6:1 7:2 8:2 9:2 10:11 11:11 12:2 13:2 14:2 15:0 16:0 17:0 18:0 19:1 20:8 21:7 22:2 23:2 24:2 25:2 26:2 27:2 28:2 29:2 30:2 31:1 32:0 33:0 34:0 35:0 36:0 37:0 38:0 39:35 
-0.2271808526099417 1:0 2:0 3:0 4:0 5:0 6:2 7:2 8:2 9:12 10:11 11:2 12:0 13:1 14:0 15:0 16:0 17:0 18:0 19:0 20:0 21:0 22:7 23:6 24:2 25:2 26:2 27:2 28:2 29:2 30:2 31:2 32:1 33:2 34:0 35:0 36:0 37:0 38:0 39:32 
-0.09313056760495361 1:0 2:0 3:0 4:0 5:0 6:0 7:0 8:2 9:3 10:11 11:10 12:1 13:1 14:2 15:1 16:0 17:0 18:0 19:0 20:0 21:6 22:6 23:2 24:1 25:2 26:2 27:3 28:2 29:2 30:1 31:2 32:2 33:0 34:0 35:0 36:0 37:0 38:0 39:31 
-0.1800622660789698 1:0 2:0 3:0 4:0 5:0 6:2 7:2 8:2 9:11 10:11 11:1 12:2 13:2 14:0 15:0 16:0 17:0 18:0 19:0 20:0 21:7 22:8 23:2 24:2 25:2 26:1 27:2 28:2 29:2 30:1 31:2 32:2 33:0 34:0 35:0 36:0 37:0 38:0 39:33 
-0.1044868261746419 1:0 2:0 3:0 4:0 5:0 6:0 7:2 8:1 9:2 10:11 11:12 12:2 13:2 14:2 15:0 16:0 17:0 18:0 19:0 20:0 21:0 22:0 23:0 24:8 25:7 26:2 27:2 28:2 29:2 30:2 31:1 32:2 33:2 34:2 35:2 36:0 37:0 38:0 39:34 
-0.3380295092731878 1:0 2:0 3:0 4:0 5:2 6:2 7:2 8:9 9:10 10:2 11:1 12:2 13:0 14:0 15:0 16:0 17:0 18:0 19:0 20:6 21:8 22:2 23:2 24:1 25:2 26:1 27:2 28:2 29:2 30:1 31:1 32:0 33:0 34:0 35:0 36:0 37:0 38:0 39:30 
-0.1415756130204754 1:0 2:0 3:0 4:0 5:0 6:0 7:0 8:2 9:2 10:2 11:12 12:10 13:2 14:2 15:1 16:0 17:0 18:0 19:0 20:0 21:0 22:7 23:8 24:1 25:2 26:2 27:2 28:2 29:1 30:2 31:2 32:2 33:2 34:0 35:0 36:0 37:0 38:0 39:33 
-0.4509011561243335 1:0 2:0 3:0 4:0 5:2 6:2 7:2 8:12 9:10 10:2 11:2 12:2 13:0 14:0 15:0 16:0 17:0 18:0 19:0 20:0 21:0 22:8 23:8 24:2 25:1 26:2 27:2 28:2 29:2 30:2 31:2 32:2 33:1 34:0 35:0 36:0 37:0 38:0 39:34 
-0.2831204133134637 1:0 2:0 3:1 4:1 5:0 6:2 7:2 8:2 9:10 10:9 11:1 12:2 13:2 14:0 15:0 16:0 17:0 18:0 19:0 20:7 21:7 22:1 23:2 24:1 25:2 26:2 27:2 28:3 29:2 30:2 31:1 32:0 33:0 34:0 35:0 36:0 37:0 38:0 39:32 
-0.5 1:5 2:3 3:0 4:0 5:0 6:2 7:2 8:3 9:11 10:11 11:2 12:2 13:2 14:0 15:0 16:0 17:0 18:0 19:0 20:0 21:8 22:7 23:3 24:2 25:3 26:3 27:4 28:3 29:3 30:2 31:3 32:2 33:0 34:0 35:0 36:0 37:0 38:0 39:43 
-0.5 1:0 2:0 3:0 4:0 5:0 6:0 7:0 8:2 9:2 10:1 11:11 12:12 13:2 14:2 15:2 16:0 17:0 18:0 19:0 20:8 21:7 22:2 23:2 24:2 25:2 26:1 27:2 28:2 29:2 30:2 31:2 32:0 33:0 34:0 35:0 36:0 37:0 38:0 39:34 
-0.5 1:4 2:1 3:0 4:0 5:2 6:2 7:2 8:11 9:11 10:3 11:2 12:2 13:0 14:0 15:0 16:0 17:0 18:0 19:0 20:0 21:8 22:8 23:2 24:1 25:3 26:4 27:3 28:4 29:2 30:2 31:2 32:1 33:0 34:0 35:0 36:0 37:0 38:0 39:40 
-0.1539064280012883 1:0 2:0 3:0 4:0 5:0 6:0 7:2 8:2 9:3 10:10 11:13 12:2 13:2 14:2 15:0 16:0 17:0 18:0 19:0 20:0 21:0 22:0 23:1 24:7 25:8 26:3 27:2 28:2 29:2 30:2 31:2 32:1 33:2 34:2 35:2 36:0 37:0 38:0 39:36 
-0.3111974660436516 1:0 2:0 3:0 4:0 5:0 6:0 7:2 8:2 9:2 10:12 11:10 12:3 13:2 14:2 15:0 16:0 17:0 18:0 19:0 20:0 21:0 22:0 23:0 24:8 25:8 26:3 27:1 28:2 29:2 30:2 31:1 32:2 33:2 34:2 35:2 36:0 37:0 38:0 39:35 
-0.242946399013789 1:0 2:0 3:0 4:0 5:0 6:2 7:2 8:2 9:11 10:11 11:2 12:1 13:2 14:0 15:0 16:0 17:0 18:0 19:0 20:0 21:0 22:0 23:7 24:7 25:2 26:2 27:2 28:2 29:2 30:1 31:2 32:2 33:2 34:2 35:0 36:0 37:0 38:0 39:33 
-0.486536251612374 1:0 2:0 3:0 4:0 5:0 6:2 7:1 8:2 9:12 10:10 11:1 12:2 13:2 14:1 15:0 16:0 17:0 18:0 19:0 20:0 21:0 22:0 23:0 24:6 25:9 26:2 27:2 28:2 29:2 30:1 31:2 32:1 33:2 34:2 35:2 36:0 37:0 38:0 39:33 
-0.4933500926846614 1:0 2:0 3:0 4:0 5:1 6:1 7:2 8:2 9:2 10:12 11:11 12:1 13:3 14:2 15:0 16:0 17:0 18:0 19:0 20:6 21:8 22:3 23:2 24:4 25:2 26:2 27:2 28:2 29:2 30:2 31:2 32:0 33:0 34:0 35:0 36:0 37:0 38:0 39:37 
-0.01674553350255418 1:0 2:0 3:0 4:0 5:2 6:1 7:2 8:11 9:12 10:2 11:2 12:2 13:0 14:0 15:0 16:0 17:0 18:0 19:0 20:0 21:0 22:0 23:0 24:7 25:8 26:1 27:2 28:2 29:2 30:2 31:2 32:2 33:2 34:2 35:2 36:0 37:0 38:0 39:34 
-0.5 1:0 2:0 3:0 4:0 5:2 6:2 7:2 8:12 9:12 10:2 11:2 12:2 13:0 14:0 15:0 16:0 17:0 18:0 19:0 20:0 21:0 22:0 23:0 24:8 25:8 26:2 27:2 28:2 29:2 30:2 31:2 32:2 33:2 34:2 35:2 36:0 37:0 38:0 39:36 
-0.1812355567594094 1:0 2:0 3:0 4:0 5:0 6:0 7:0 8:1 9:3 10:3 11:12 12:11 13:1 14:2 15:2 16:0 17:0 18:0 19:0 20:6 21:8 22:1 23:2 24:2 25:2 26:2 27:2 28:2 29:2 30:2 31:2 32:0 33:1 34:1 35:0 36:0 37:0 38:0 39:35 
-0.1377319194500933 1:0 2:0 3:0 4:0 5:0 6:0 7:0 8:2 9:2 10:2 11:12 12:11 13:1 14:1 15:2 16:0 17:0 18:0 19:0 20:0 21:0 22:0 23:0 24:7 25:7 26:2 27:2 28:2 29:2 30:2 31:1 32:2 33:2 34:2 35:2 36:0 37:0 38:0 39:33 
