svm_type c_svc
kernel_type rbf
gamma 0.00012207
nr_class 2
total_sv 23
rho -0.272848
label 0 1
probA -3.49809
probB -0.0748399
nr_sv 11 12
SV
2 1:0 2:0 3:0 4:0 5:8 6:12 7:6 8:6 9:5 10:6 11:6 12:4 13:0 14:0 15:0 16:0 17:0 18:0 19:0 20:0 21:0 22:0 23:5 24:6 25:2 26:2 27:2 28:8 29:8 30:2 31:2 32:1 33:8 34:7 35:0 36:0 37:0 38:0 39:53 
0.4039010513526973 1:0 2:0 3:0 4:0 5:0 6:7 7:11 8:6 9:6 10:6 11:6 12:6 13:6 14:0 15:0 16:0 17:0 18:0 19:0 20:0 21:8 22:7 23:2 24:0 25:2 26:7 27:8 28:2 29:2 30:1 31:8 32:7 33:0 34:0 35:0 36:0 37:0 38:0 39:54 
2 1:0 2:0 3:0 4:0 5:0 6:0 7:7 8:11 9:6 10:6 11:6 12:4 13:5 14:5 15:0 16:0 17:0 18:0 19:0 20:7 21:8 22:1 23:2 24:1 25:8 26:5 27:2 28:1 29:1 30:6 31:8 32:0 33:0 34:0 35:0 36:0 37:0 38:0 39:50 
2 1:0 2:0 3:0 4:0 5:0 6:6 7:11 8:6 9:6 10:5 11:6 12:6 13:4 14:0 15:0 16:0 17:0 18:0 19:0 20:0 21:0 22:0 23:0 24:8 25:7 26:1 27:1 28:1 29:6 30:8 31:2 32:1 33:2 34:6 35:7 36:0 37:0 38:0 39:50 
2 1:0 2:0 3:0 4:0 5:9 6:12 7:6 8:5 9:5 10:6 11:4 12:5 13:0 14:0 15:0 16:0 17:0 18:0 19:0 20:0 21:0 22:0 23:0 24:7 25:8 26:2 27:2 28:2 29:6 30:6 31:2 32:1 33:1 34:8 35:7 36:0 37:0 38:0 39:52 
2 1:0 2:0 3:0 4:9 5:10 6:6 7:5 8:5 9:6 10:6 11:6 12:0 13:0 14:0 15:0 16:0 17:0 18:0 19:0 20:8 21:8 22:2 23:1 24:1 25:6 26:8 27:2 28:2 29:1 30:7 31:7 32:0 33:0 34:0 35:0 36:0 37:0 38:0 39:53 
2 1:0 2:0 3:0 4:6 5:10 6:5 7:6 8:6 9:6 10:5 11:4 12:0 13:0 14:0 15:0 16:0 17:0 18:0 19:0 20:0 21:0 22:0 23:0 24:6 25:7 26:2 27:1 28:2 29:7 30:7 31:1 32:2 33:0 34:6 35:7 36:0 37:0 38:0 39:48 
2 1:0 2:0 3:0 4:0 5:0 6:0 7:7 8:11 9:5 10:6 11:7 12:4 13:6 14:7 15:0 16:0 17:0 18:0 19:0 20:0 21:7 22:5 23:3 24:2 25:2 26:8 27:7 28:1 29:2 30:2 31:7 32:7 33:0 34:0 35:0 36:0 37:0 38:0 39:53 
1.540913355185427 1:0 2:0 3:0 4:1 5:8 6:12 7:5 8:5 9:6 10:6 11:4 12:6 13:0 14:0 15:0 16:0 17:0 18:0 19:0 20:0 21:0 22:0 23:7 24:8 25:1 26:2 27:2 28:8 29:5 30:1 31:2 32:2 33:8 34:7 35:0 36:0 37:0 38:0 39:53 
2 1:0 2:0 3:0 4:0 5:7 6:12 7:6 8:5 9:6 10:6 11:5 12:6 13:0 14:0 15:0 16:0 17:0 18:0 19:0 20:0 21:0 22:7 23:8 24:2 25:2 26:1 27:7 28:6 29:2 30:2 31:2 32:7 33:7 34:0 35:0 36:0 37:0 38:0 39:53 
2 1:0 2:0 3:0 4:0 5:0 6:8 7:9 8:5 9:5 10:6 11:6 12:5 13:6 14:0 15:0 16:0 17:0 18:0 19:0 20:0 21:0 22:7 23:8 24:2 25:2 26:1 27:8 28:5 29:2 30:2 31:1 32:6 33:6 34:0 35:0 36:0 37:0 38:0 39:50 
-2 1:0 2:0 3:0 4:0 5:4 6:6 7:5 8:5 9:6 10:8 11:1 12:0 13:0 14:0 15:0 16:0 17:0 18:0 19:0 20:0 21:0 22:0 23:0 24:0 25:0 26:3 27:5 28:3 29:3 30:5 31:3 32:2 33:6 34:4 35:1 36:0 37:0 38:0 39:35 
-2 1:0 2:0 3:0 4:0 5:0 6:4 7:7 8:5 9:5 10:5 11:8 12:1 13:0 14:0 15:0 16:0 17:0 18:0 19:0 20:0 21:0 22:0 23:0 24:0 25:0 26:3 27:5 28:3 29:3 30:5 31:3 32:3 33:6 34:4 35:0 36:0 37:0 38:0 39:35 
-1.515511208821847 1:0 2:0 3:0 4:0 5:0 6:0 7:3 8:5 9:5 10:5 11:5 12:8 13:2 14:0 15:0 16:0 17:0 18:0 19:0 20:0 21:0 22:0 23:0 24:0 25:0 26:0 27:3 28:5 29:3 30:3 31:5 32:3 33:2 34:5 35:4 36:0 37:0 38:0 39:33 
-1.409827372578705 1:0 2:0 3:0 4:0 5:0 6:3 7:6 8:5 9:5 10:5 11:8 12:1 13:0 14:0 15:0 16:0 17:0 18:0 19:0 20:0 21:0 22:0 23:0 24:0 25:3 26:5 27:3 28:3 29:5 30:3 31:1 32:6 33:4 34:0 35:0 36:0 37:0 38:0 39:33 
-2 1:0 2:0 3:0 4:0 5:0 6:0 7:3 8:6 9:5 10:5 11:6 12:8 13:1 14:0 15:0 16:0 17:0 18:0 19:0 20:0 21:0 22:0 23:0 24:0 25:3 26:5 27:2 28:3 29:5 30:3 31:3 32:6 33:4 34:0 35:0 36:0 37:0 38:0 39:34 
-1.611809120075681 1:0 2:0 3:0 4:4 5:5 6:5 7:5 8:4 9:8 10:2 11:0 12:0 13:0 14:0 15:0 16:0 17:0 18:0 19:0 20:0 21:0 22:0 23:0 24:0 25:3 26:4 27:3 28:3 29:6 30:2 31:2 32:6 33:4 34:0 35:0 36:0 37:0 38:0 39:33 
-0.8808969596739156 1:0 2:0 3:0 4:3 5:7 6:5 7:5 8:5 9:6 10:1 11:1 12:0 13:0 14:0 15:0 16:0 17:0 18:0 19:0 20:0 21:0 22:0 23:0 24:0 25:1 26:3 27:5 28:3 29:3 30:4 31:2 32:2 33:6 34:4 35:0 36:0 37:0 38:0 39:33 
-0.5267697453879768 1:0 2:0 3:0 4:0 5:3 6:5 7:5 8:5 9:5 10:8 11:1 12:0 13:0 14:0 15:0 16:0 17:0 18:0 19:0 20:0 21:0 22:0 23:3 24:5 25:2 26:3 27:5 28:2 29:2 30:6 31:4 32:0 33:0 34:0 35:0 36:0 37:0 38:0 39:32 
-2 1:0 2:0 3:0 4:0 5:2 6:7 7:5 8:5 9:5 10:8 11:1 12:0 13:0 14:0 15:0 16:0 17:0 18:0 19:0 20:0 21:0 22:0 23:3 24:5 25:2 26:3 27:5 28:3 29:2 30:6 31:4 32:0 33:0 34:0 35:0 36:0 37:0 38:0 39:33 
-2 1:0 2:0 3:0 4:4 5:6 6:5 7:5 8:4 9:8 10:1 11:0 12:0 13:0 14:0 15:0 16:0 17:0 18:0 19:0 20:0 21:0 22:0 23:3 24:4 25:3 26:3 27:5 28:3 29:2 30:6 31:4 32:0 33:0 34:0 35:0 36:0 37:0 38:0 39:33 
-2 1:0 2:0 3:0 4:0 5:4 6:6 7:6 8:5 9:5 10:8 11:1 12:0 13:0 14:0 15:0 16:0 17:0 18:0 19:0 20:0 21:0 22:0 23:0 24:0 25:0 26:0 27:3 28:6 29:2 30:4 31:5 32:3 33:2 34:6 35:4 36:0 37:0 38:0 39:35 
-2 1:11 2:0 3:0 4:0 5:0 6:3 7:5 8:5 9:4 10:4 11:8 12:1 13:0 14:0 15:0 16:0 17:0 18:0 19:0 20:1 21:1 22:1 23:0 24:1 25:1 26:4 27:6 28:3 29:3 30:4 31:4 32:2 33:6 34:4 35:0 36:0 37:0 38:0 39:41 
