svm_type c_svc
kernel_type rbf
gamma 0.00012207
nr_class 2
total_sv 22
rho -0.380676
label 0 1
probA -3.32365
probB 0.132984
nr_sv 12 10
SV
32 1:0 2:0 3:0 4:0 5:8 6:12 7:6 8:6 9:5 10:6 11:6 12:4 13:0 14:0 15:0 16:0 17:0 18:0 19:0 20:0 21:0 22:0 23:5 24:6 25:2 26:2 27:2 28:8 29:8 30:2 31:2 32:1 33:8 34:7 35:0 36:0 37:0 38:0 39:53 
10.07704576801291 1:0 2:0 3:0 4:0 5:0 6:0 7:7 8:11 9:6 10:6 11:6 12:4 13:5 14:5 15:0 16:0 17:0 18:0 19:0 20:7 21:8 22:1 23:2 24:1 25:8 26:5 27:2 28:1 29:1 30:6 31:8 32:0 33:0 34:0 35:0 36:0 37:0 38:0 39:50 
18.16845580643484 1:0 2:0 3:0 4:0 5:0 6:6 7:11 8:6 9:6 10:5 11:6 12:6 13:4 14:0 15:0 16:0 17:0 18:0 19:0 20:0 21:0 22:0 23:0 24:8 25:7 26:1 27:1 28:1 29:6 30:8 31:2 32:1 33:2 34:6 35:7 36:0 37:0 38:0 39:50 
11.14279259920101 1:0 2:0 3:0 4:0 5:0 6:9 7:10 8:5 9:6 10:6 11:5 12:6 13:6 14:0 15:0 16:0 17:0 18:0 19:0 20:7 21:7 22:1 23:1 24:2 25:8 26:8 27:1 28:2 29:1 30:7 31:8 32:0 33:0 34:0 35:0 36:0 37:0 38:0 39:53 
14.59808756535344 1:0 2:0 3:0 4:9 5:10 6:6 7:5 8:5 9:6 10:6 11:6 12:0 13:0 14:0 15:0 16:0 17:0 18:0 19:0 20:8 21:8 22:2 23:1 24:1 25:6 26:8 27:2 28:2 29:1 30:7 31:7 32:0 33:0 34:0 35:0 36:0 37:0 38:0 39:53 
32 1:0 2:0 3:0 4:6 5:10 6:5 7:6 8:6 9:6 10:5 11:4 12:0 13:0 14:0 15:0 16:0 17:0 18:0 19:0 20:0 21:0 22:0 23:0 24:6 25:7 26:2 27:1 28:2 29:7 30:7 31:1 32:2 33:0 34:6 35:7 36:0 37:0 38:0 39:48 
8.767158926224795 1:0 2:0 3:0 4:0 5:0 6:0 7:7 8:11 9:5 10:6 11:7 12:4 13:6 14:7 15:0 16:0 17:0 18:0 19:0 20:0 21:7 22:5 23:3 24:2 25:2 26:8 27:7 28:1 29:2 30:2 31:7 32:7 33:0 34:0 35:0 36:0 37:0 38:0 39:53 
9.152026015133831 1:8 2:0 3:0 4:0 5:6 6:11 7:7 8:6 9:5 10:6 11:6 12:6 13:0 14:0 15:0 16:0 17:0 18:0 19:0 20:0 21:0 22:0 23:7 24:8 25:1 26:2 27:3 28:8 29:8 30:1 31:3 32:3 33:9 34:7 35:1 36:0 37:0 38:0 39:61 
11.88549265800981 1:0 2:0 3:0 4:1 5:8 6:12 7:5 8:5 9:6 10:6 11:4 12:6 13:0 14:0 15:0 16:0 17:0 18:0 19:0 20:0 21:0 22:0 23:7 24:8 25:1 26:2 27:2 28:8 29:5 30:1 31:2 32:2 33:8 34:7 35:0 36:0 37:0 38:0 39:53 
32 1:7 2:1 3:0 4:0 5:9 6:10 7:6 8:5 9:6 10:6 11:5 12:5 13:0 14:0 15:0 16:0 17:0 18:0 19:0 20:0 21:7 22:6 23:1 24:2 25:2 26:8 27:9 28:3 29:2 30:2 31:9 32:7 33:1 34:1 35:0 36:0 37:0 38:0 39:60 
6.266970585881748 1:0 2:0 3:0 4:0 5:7 6:12 7:6 8:5 9:6 10:6 11:5 12:6 13:0 14:0 15:0 16:0 17:0 18:0 19:0 20:0 21:0 22:7 23:8 24:2 25:2 26:1 27:7 28:6 29:2 30:2 31:2 32:7 33:7 34:0 35:0 36:0 37:0 38:0 39:53 
32 1:0 2:0 3:0 4:0 5:0 6:8 7:9 8:5 9:5 10:6 11:6 12:5 13:6 14:0 15:0 16:0 17:0 18:0 19:0 20:0 21:0 22:7 23:8 24:2 25:2 26:1 27:8 28:5 29:2 30:2 31:1 32:6 33:6 34:0 35:0 36:0 37:0 38:0 39:50 
-29.07169123626812 1:2 2:1 3:8 4:6 5:0 6:0 7:8 8:12 9:1 10:4 11:4 12:3 13:5 14:3 15:0 16:0 17:0 18:0 19:0 20:2 21:1 22:2 23:4 24:6 25:4 26:2 27:5 28:7 29:5 30:7 31:7 32:1 33:2 34:2 35:0 36:0 37:0 38:0 39:57 
-24.27489045984219 1:8 2:0 3:0 4:1 5:8 6:11 7:2 8:4 9:4 10:4 11:6 12:3 13:0 14:0 15:0 16:0 17:0 18:0 19:0 20:0 21:0 22:0 23:1 24:3 25:3 26:3 27:5 28:7 29:4 30:4 31:5 32:2 33:3 34:7 35:4 36:0 37:0 38:0 39:51 
-14.55245093691199 1:7 2:7 3:1 4:0 5:0 6:10 7:9 8:2 9:3 10:4 11:4 12:6 13:4 14:0 15:0 16:0 17:0 18:0 19:0 20:2 21:2 22:3 23:5 24:9 25:4 26:5 27:2 28:4 29:5 30:9 31:4 32:2 33:1 34:0 35:0 36:0 37:0 38:0 39:57 
-9.710475570178133 1:0 2:0 3:0 4:0 5:0 6:0 7:9 8:12 9:2 10:3 11:4 12:4 13:7 14:4 15:0 16:0 17:0 18:0 19:0 20:0 21:0 22:0 23:1 24:2 25:3 26:4 27:7 28:3 29:4 30:2 31:4 32:3 33:7 34:5 35:0 36:0 37:0 38:0 39:45 
-12.35112241370554 1:0 2:0 3:0 4:0 5:0 6:8 7:11 8:2 9:3 10:4 11:4 12:6 13:4 14:0 15:0 16:0 17:0 18:0 19:0 20:0 21:2 22:1 23:3 24:3 25:7 26:4 27:4 28:3 29:4 30:1 31:7 32:3 33:0 34:0 35:0 36:0 37:0 38:0 39:42 
-28.9847770956732 1:0 2:0 3:0 4:0 5:11 6:12 7:1 8:3 9:4 10:4 11:6 12:4 13:1 14:0 15:0 16:0 17:0 18:0 19:0 20:0 21:0 22:0 23:2 24:2 25:2 26:4 27:6 28:5 29:4 30:3 31:4 32:3 33:7 34:4 35:0 36:0 37:0 38:0 39:46 
-9.114529999652982 1:0 2:0 3:0 4:0 5:0 6:0 7:7 8:12 9:2 10:4 11:4 12:4 13:6 14:3 15:1 16:0 17:0 18:0 19:0 20:2 21:1 22:1 23:5 24:8 25:3 26:4 27:4 28:1 29:2 30:7 31:5 32:0 33:0 34:0 35:0 36:0 37:0 38:0 39:43 
-32 1:0 2:0 3:0 4:0 5:0 6:10 7:12 8:2 9:3 10:4 11:3 12:7 13:5 14:0 15:0 16:0 17:0 18:0 19:0 20:0 21:0 22:2 23:2 24:2 25:4 26:6 27:4 28:3 29:4 30:4 31:3 32:7 33:5 34:0 35:0 36:0 37:0 38:0 39:46 
-32 1:8 2:1 3:0 4:0 5:9 6:12 7:3 8:3 9:4 10:5 11:6 12:4 13:0 14:0 15:0 16:0 17:0 18:0 19:0 20:0 21:0 22:2 23:1 24:2 25:6 26:7 27:6 28:5 29:4 30:4 31:4 32:6 33:6 34:2 35:0 36:0 37:0 38:0 39:55 
-25.99809221202024 1:4 2:8 3:0 4:10 5:12 6:4 7:2 8:4 9:4 10:5 11:4 12:0 13:0 14:0 15:0 16:0 17:0 18:0 19:0 20:1 21:2 22:3 23:4 24:7 25:3 26:3 27:4 28:6 29:5 30:8 31:6 32:1 33:1 34:2 35:1 36:0 37:0 38:0 39:57 
