svm_type c_svc
kernel_type rbf
gamma 0.0078125
nr_class 2
total_sv 44
rho 0.315182
label 1 0
probA -4.25675
probB 0.250679
nr_sv 23 21
SV
0.5 1:0 2:0 3:0 4:0 5:0 6:0 7:4 8:6 9:6 10:7 11:6 12:5 13:0 14:0 15:0 16:0 17:0 18:0 19:0 20:0 21:0 22:0 23:0 24:0 25:0 26:0 27:6 28:6 29:3 30:2 31:2 32:2 33:1 34:6 35:6 36:0 37:0 38:0 39:34 
0.5 1:0 2:0 3:0 4:5 5:6 6:6 7:7 8:5 9:5 10:0 11:0 12:0 13:0 14:0 15:0 16:0 17:0 18:0 19:0 20:0 21:0 22:0 23:0 24:5 25:6 26:3 27:2 28:2 29:2 30:2 31:6 32:6 33:0 34:0 35:0 36:0 37:0 38:0 39:34 
0.4920666290126285 1:0 2:0 3:0 4:0 5:0 6:0 7:5 8:6 9:6 10:6 11:7 12:5 13:0 14:0 15:0 16:0 17:0 18:0 19:0 20:0 21:0 22:0 23:0 24:0 25:6 26:5 27:3 28:2 29:2 30:2 31:3 32:6 33:6 34:0 35:0 36:0 37:0 38:0 39:35 
0.5 1:8 2:0 3:0 4:0 5:0 6:4 7:6 8:6 9:7 10:5 11:5 12:0 13:0 14:0 15:0 16:0 17:0 18:0 19:0 20:0 21:0 22:1 23:1 24:1 25:7 26:7 27:3 28:3 29:2 30:2 31:2 32:6 33:6 34:0 35:0 36:0 37:0 38:0 39:41 
0.5 1:0 2:0 3:0 4:0 5:0 6:6 7:7 8:5 9:7 10:6 11:5 12:0 13:0 14:0 15:0 16:0 17:0 18:0 19:0 20:2 21:0 22:0 23:6 24:6 25:3 26:2 27:2 28:1 29:2 30:6 31:6 32:0 33:0 34:0 35:0 36:0 37:0 38:0 39:36 
0.2157211812854824 1:0 2:0 3:0 4:0 5:5 6:6 7:7 8:6 9:6 10:5 11:0 12:0 13:0 14:0 15:0 16:0 17:0 18:0 19:0 20:0 21:0 22:0 23:0 24:6 25:6 26:3 27:2 28:2 29:2 30:3 31:6 32:5 33:0 34:0 35:0 36:0 37:0 38:0 39:35 
0.5 1:0 2:0 3:0 4:5 5:6 6:6 7:6 8:4 9:5 10:0 11:0 12:0 13:0 14:0 15:0 16:0 17:0 18:0 19:0 20:0 21:0 22:0 23:6 24:6 25:1 26:1 27:2 28:2 29:2 30:6 31:6 32:0 33:0 34:0 35:0 36:0 37:0 38:0 39:32 
0.1216392272923151 1:0 2:0 3:0 4:0 5:4 6:5 7:5 8:6 9:5 10:5 11:0 12:0 13:0 14:0 15:0 16:0 17:0 18:0 19:0 20:0 21:0 22:0 23:0 24:0 25:0 26:0 27:5 28:2 29:3 30:2 31:2 32:2 33:2 34:6 35:6 36:0 37:0 38:0 39:30 
0.0296308379060827 1:0 2:0 3:0 4:0 5:0 6:0 7:4 8:5 9:6 10:6 11:4 12:5 13:0 14:0 15:0 16:0 17:0 18:0 19:0 20:0 21:0 22:0 23:5 24:5 25:2 26:1 27:2 28:2 29:2 30:5 31:6 32:0 33:0 34:0 35:0 36:0 37:0 38:0 39:30 
0.08348793602603272 1:0 2:0 3:0 4:0 5:0 6:4 7:6 8:5 9:7 10:5 11:5 12:1 13:1 14:1 15:0 16:0 17:0 18:0 19:0 20:0 21:0 22:0 23:0 24:0 25:0 26:5 27:4 28:3 29:3 30:3 31:2 32:3 33:6 34:6 35:0 36:0 37:0 38:0 39:35 
0.332592017904397 1:0 2:0 3:0 4:4 5:6 6:7 7:6 8:5 9:5 10:0 11:0 12:0 13:0 14:0 15:0 16:0 17:0 18:0 19:0 20:0 21:0 22:0 23:0 24:0 25:6 26:5 27:3 28:2 29:2 30:2 31:3 32:5 33:5 34:0 35:0 36:0 37:0 38:0 39:33 
0.2241800130874921 1:0 2:0 3:0 4:0 5:0 6:5 7:6 8:6 9:5 10:6 11:5 12:0 13:0 14:0 15:0 16:0 17:0 18:0 19:0 20:0 21:0 22:0 23:0 24:6 25:6 26:2 27:1 28:2 29:2 30:2 31:6 32:6 33:0 34:0 35:0 36:0 37:0 38:0 39:33 
0.5 1:0 2:0 3:0 4:0 5:5 6:6 7:6 8:6 9:6 10:5 11:0 12:0 13:0 14:0 15:0 16:0 17:0 18:0 19:0 20:0 21:0 22:0 23:0 24:0 25:0 26:0 27:6 28:6 29:3 30:2 31:1 32:2 33:2 34:6 35:6 36:0 37:0 38:0 39:34 
0.02587446231138585 1:0 2:0 3:0 4:0 5:5 6:6 7:5 8:5 9:6 10:6 11:0 12:0 13:0 14:0 15:0 16:0 17:0 18:0 19:1 20:1 21:0 22:0 23:0 24:0 25:5 26:5 27:2 28:2 29:2 30:1 31:2 32:6 33:6 34:0 35:0 36:0 37:0 38:0 39:33 
0.314731283343319 1:0 2:0 3:0 4:0 5:0 6:0 7:5 8:5 9:5 10:6 11:6 12:5 13:0 14:0 15:0 16:0 17:0 18:0 19:0 20:0 21:0 22:0 23:0 24:0 25:0 26:6 27:5 28:3 29:2 30:1 31:1 32:2 33:6 34:6 35:0 36:0 37:0 38:0 39:32 
0.5 1:0 2:0 3:0 4:0 5:5 6:6 7:6 8:7 9:6 10:6 11:0 12:0 13:0 14:0 15:0 16:0 17:0 18:0 19:0 20:0 21:0 22:0 23:6 24:6 25:3 26:2 27:2 28:2 29:3 30:6 31:6 32:0 33:0 34:0 35:0 36:0 37:0 38:0 39:36 
0.3020146960947036 1:0 2:0 3:0 4:4 5:4 6:6 7:7 8:4 9:5 10:0 11:0 12:0 13:0 14:0 15:0 16:0 17:0 18:0 19:0 20:0 21:0 22:0 23:5 24:6 25:3 26:1 27:2 28:2 29:1 30:6 31:4 32:0 33:0 34:0 35:0 36:0 37:0 38:0 39:30 
0.3271612379191207 1:0 2:0 3:0 4:0 5:4 6:6 7:6 8:7 9:5 10:5 11:0 12:0 13:0 14:0 15:0 16:0 17:0 18:0 19:0 20:0 21:0 22:0 23:0 24:0 25:6 26:6 27:2 28:2 29:2 30:2 31:1 32:6 33:6 34:0 35:0 36:0 37:0 38:0 39:33 
0.3462800652213881 1:0 2:0 3:0 4:0 5:0 6:0 7:5 8:5 9:6 10:7 11:5 12:5 13:0 14:0 15:0 16:0 17:0 18:0 19:0 20:0 21:0 22:0 23:0 24:6 25:6 26:3 27:2 28:2 29:1 30:2 31:5 32:6 33:0 34:0 35:0 36:0 37:0 38:0 39:33 
0.1853577296124006 1:0 2:0 3:0 4:0 5:0 6:0 7:3 8:4 9:5 10:7 11:6 12:4 13:0 14:0 15:0 16:0 17:0 18:0 19:0 20:0 21:0 22:0 23:0 24:0 25:0 26:4 27:6 28:3 29:2 30:2 31:2 32:1 33:5 34:4 35:0 36:0 37:0 38:0 39:29 
0.2451473852829028 1:0 2:0 3:0 4:0 5:0 6:5 7:6 8:6 9:7 10:5 11:4 12:1 13:0 14:0 15:0 16:0 17:0 18:0 19:0 20:0 21:0 22:0 23:0 24:0 25:0 26:0 27:6 28:7 29:2 30:2 31:2 32:2 33:2 34:5 35:6 36:0 37:0 38:0 39:34 
0.5 1:0 2:0 3:0 4:0 5:0 6:0 7:3 8:6 9:6 10:6 11:5 12:5 13:0 14:0 15:0 16:0 17:0 18:0 19:0 20:0 21:0 22:0 23:5 24:6 25:2 26:1 27:2 28:2 29:2 30:5 31:6 32:0 33:0 34:0 35:0 36:0 37:0 38:0 39:31 
0.5 1:0 2:0 3:0 4:5 5:5 6:5 7:6 8:6 9:5 10:0 11:0 12:0 13:0 14:0 15:0 16:0 17:0 18:0 19:0 20:0 21:0 22:0 23:0 24:0 25:0 26:6 27:4 28:2 29:2 30:2 31:2 32:2 33:6 34:6 35:0 36:0 37:0 38:0 39:32 
-0.5 1:0 2:0 3:0 4:0 5:0 6:0 7:7 8:9 9:4 10:4 11:4 12:4 13:4 14:1 15:0 16:0 17:0 18:0 19:0 20:0 21:0 22:0 23:0 24:6 25:8 26:2 27:0 28:1 29:6 30:7 31:1 32:2 33:1 34:1 35:2 36:0 37:0 38:0 39:37 
-0.3658183234644166 1:1 2:0 3:0 4:0 5:0 6:7 7:11 8:4 9:4 10:4 11:3 12:3 13:1 14:0 15:0 16:0 17:0 18:0 19:0 20:0 21:6 22:7 23:2 24:1 25:2 26:5 27:6 28:2 29:2 30:1 31:2 32:2 33:0 34:0 35:0 36:0 37:0 38:0 39:38 
-0.3195844875911858 1:0 2:0 3:0 4:0 5:9 6:11 7:4 8:2 9:4 10:3 11:4 12:2 13:0 14:0 15:0 16:0 17:0 18:0 19:0 20:0 21:0 22:0 23:6 24:6 25:2 26:2 27:2 28:7 29:6 30:1 31:2 32:2 33:2 34:1 35:0 36:0 37:0 38:0 39:39 
-0.5 1:0 2:0 3:0 4:0 5:0 6:2 7:9 8:3 9:3 10:0 11:0 12:1 13:1 14:0 15:0 16:0 17:0 18:0 19:0 20:0 21:0 22:1 23:1 24:2 25:2 26:1 27:3 28:3 29:1 30:1 31:1 32:1 33:1 34:1 35:0 36:0 37:0 38:0 39:19 
-0.4803909394991727 1:0 2:0 3:0 4:9 5:9 6:4 7:3 8:3 9:4 10:4 11:2 12:0 13:0 14:0 15:0 16:0 17:0 18:0 19:0 20:0 21:0 22:7 23:8 24:2 25:1 26:1 27:5 28:7 29:0 30:2 31:2 32:2 33:1 34:0 35:0 36:0 37:0 38:0 39:38 
-0.5 1:0 2:0 3:0 4:0 5:1 6:8 7:11 8:4 9:3 10:4 11:4 12:3 13:2 14:0 15:0 16:0 17:0 18:0 19:0 20:0 21:0 22:0 23:0 24:6 25:8 26:1 27:3 28:2 29:7 30:5 31:1 32:2 33:2 34:2 35:1 36:0 37:0 38:0 39:40 
-0.08354967007492986 1:1 2:0 3:0 4:7 5:11 6:4 7:4 8:4 9:4 10:4 11:2 12:0 13:0 14:0 15:0 16:0 17:0 18:0 19:0 20:0 21:0 22:0 23:8 24:7 25:2 26:2 27:1 28:7 29:7 30:1 31:2 32:0 33:2 34:2 35:0 36:0 37:0 38:0 39:41 
-0.3612004188153096 1:0 2:0 3:0 4:0 5:7 6:12 7:4 8:4 9:3 10:4 11:4 12:0 13:0 14:0 15:0 16:0 17:0 18:0 19:0 20:0 21:0 22:7 23:6 24:1 25:2 26:1 27:7 28:5 29:2 30:2 31:1 32:2 33:2 34:0 35:0 36:0 37:0 38:0 39:38 
-0.4433732707921118 1:0 2:0 3:0 4:0 5:0 6:0 7:7 8:11 9:4 10:3 11:3 12:4 13:4 14:2 15:0 16:0 17:0 18:0 19:0 20:0 21:0 22:0 23:7 24:8 25:2 26:0 27:2 28:5 29:6 30:2 31:1 32:2 33:2 34:1 35:0 36:0 37:0 38:0 39:38 
-0.5 1:0 2:0 3:0 4:0 5:8 6:9 7:4 8:3 9:4 10:4 11:4 12:2 13:0 14:0 15:0 16:0 17:0 18:0 19:0 20:0 21:0 22:0 23:0 24:7 25:7 26:2 27:1 28:2 29:6 30:6 31:1 32:1 33:2 34:2 35:1 36:0 37:0 38:0 39:38 
-0.1059405469992755 1:0 2:0 3:0 4:0 5:0 6:0 7:8 8:12 9:4 10:4 11:4 12:4 13:4 14:2 15:0 16:0 17:0 18:0 19:0 20:0 21:0 22:8 23:8 24:2 25:2 26:1 27:7 28:6 29:2 30:1 31:2 32:2 33:1 34:0 35:0 36:0 37:0 38:0 39:42 
-0.3718223843622726 1:0 2:0 3:0 4:0 5:0 6:8 7:12 8:4 9:4 10:3 11:4 12:4 13:2 14:0 15:0 16:0 17:0 18:0 19:0 20:8 21:8 22:2 23:2 24:1 25:6 26:7 27:1 28:1 29:2 30:2 31:1 32:0 33:0 34:0 35:0 36:0 37:0 38:0 39:41 
-0.2559653265876518 1:0 2:0 3:0 4:0 5:0 6:0 7:7 8:12 9:4 10:4 11:3 12:3 13:4 14:2 15:0 16:0 17:0 18:0 19:0 20:0 21:0 22:0 23:6 24:7 25:2 26:2 27:1 28:7 29:6 30:2 31:1 32:2 33:1 34:2 35:0 36:0 37:0 38:0 39:39 
-0.2859392819065575 1:0 2:0 3:0 4:0 5:6 6:10 7:4 8:4 9:4 10:3 11:4 12:2 13:0 14:0 15:0 16:0 17:0 18:0 19:0 20:0 21:6 22:8 23:2 24:1 25:1 26:6 27:6 28:0 29:2 30:2 31:1 32:2 33:0 34:0 35:0 36:0 37:0 38:0 39:37 
-0.5 1:0 2:0 3:0 4:0 5:0 6:0 7:6 8:12 9:3 10:4 11:4 12:4 13:3 14:1 15:0 16:0 17:0 18:0 19:0 20:0 21:0 22:5 23:8 24:1 25:2 26:2 27:6 28:5 29:2 30:1 31:2 32:2 33:1 34:0 35:0 36:0 37:0 38:0 39:37 
-0.5 1:0 2:0 3:0 4:1 5:5 6:12 7:4 8:3 9:4 10:3 11:4 12:1 13:0 14:0 15:0 16:0 17:0 18:0 19:0 20:7 21:5 22:2 23:2 24:2 25:5 26:6 27:1 28:1 29:2 30:2 31:2 32:0 33:0 34:0 35:0 36:0 37:0 38:0 39:37 
-0.36006567514972 1:0 2:0 3:0 4:0 5:0 6:9 7:12 8:3 9:4 10:4 11:3 12:4 13:2 14:0 15:0 16:0 17:0 18:0 19:0 20:0 21:0 22:0 23:7 24:8 25:2 26:1 27:2 28:6 29:6 30:1 31:2 32:2 33:2 34:2 35:0 36:0 37:0 38:0 39:41 
-0.5 1:0 2:0 3:0 4:7 5:10 6:4 7:3 8:4 9:4 10:4 11:2 12:0 13:0 14:0 15:0 16:0 17:0 18:0 19:0 20:0 21:0 22:0 23:7 24:7 25:2 26:1 27:0 28:6 29:6 30:2 31:2 32:1 33:2 34:2 35:0 36:0 37:0 38:0 39:38 
-0.4481312875060511 1:0 2:0 3:0 4:8 5:12 6:3 7:4 8:4 9:4 10:4 11:2 12:0 13:0 14:0 15:0 16:0 17:0 18:0 19:0 20:0 21:8 22:8 23:2 24:2 25:1 26:5 27:7 28:2 29:1 30:2 31:1 32:2 33:0 34:0 35:0 36:0 37:0 38:0 39:41 
-0.1934167860480008 1:0 2:0 3:0 4:0 5:0 6:7 7:12 8:4 9:4 10:4 11:4 12:4 13:2 14:0 15:0 16:0 17:0 18:0 19:0 20:0 21:0 22:7 23:7 24:1 25:1 26:2 27:6 28:7 29:2 30:2 31:2 32:2 33:2 34:0 35:0 36:0 37:0 38:0 39:41 
-0.1706863035029956 1:1 2:0 3:0 4:0 5:0 6:7 7:11 8:4 9:4 10:4 11:3 12:3 13:3 14:0 15:0 16:0 17:0 18:0 19:0 20:0 21:6 22:7 23:1 24:2 25:3 26:7 27:6 28:2 29:0 30:2 31:3 32:1 33:0 34:0 35:0 36:0 37:0 38:0 39:40 
