svm_type c_svc
kernel_type rbf
gamma 0.0078125
nr_class 2
total_sv 42
rho 0.210217
label 1 0
probA -4.11225
probB 0.403022
nr_sv 20 22
SV
0.1089899703983064 1:0 2:0 3:0 4:0 5:0 6:0 7:3 8:7 9:4 10:4 11:2 12:4 13:10 14:0 15:0 16:0 17:0 18:0 19:0 20:0 21:0 22:0 23:1 24:1 25:1 26:3 27:6 28:2 29:3 30:3 31:3 32:3 33:5 34:3 35:0 36:0 37:0 38:0 39:34 
1.360444264879635 1:0 2:0 3:0 4:0 5:4 6:7 7:4 8:4 9:2 10:3 11:12 12:2 13:0 14:0 15:0 16:0 17:0 18:0 19:0 20:1 21:1 22:2 23:3 24:6 25:3 26:2 27:3 28:3 29:4 30:6 31:4 32:0 33:0 34:0 35:0 36:0 37:0 38:0 39:38 
0.525390299444813 1:0 2:0 3:1 4:5 5:7 6:4 7:3 8:2 9:3 10:10 11:0 12:0 13:0 14:0 15:0 16:0 17:0 18:0 19:0 20:1 21:1 22:1 23:2 24:6 25:5 26:3 27:3 28:2 29:2 30:6 31:3 32:0 33:0 34:0 35:0 36:0 37:0 38:0 39:35 
0.1197002313375581 1:0 2:0 3:0 4:0 5:3 6:7 7:3 8:4 9:2 10:2 11:11 12:1 13:0 14:0 15:0 16:0 17:0 18:0 19:0 20:0 21:0 22:0 23:2 24:1 25:1 26:2 27:6 28:3 29:3 30:2 31:2 32:4 33:5 34:2 35:0 36:0 37:0 38:0 39:33 
0.5716889045935685 1:0 2:0 3:0 4:4 5:7 6:4 7:3 8:2 9:2 10:9 11:0 12:0 13:0 14:0 15:0 16:0 17:0 18:0 19:0 20:0 21:0 22:0 23:1 24:1 25:1 26:3 27:6 28:4 29:3 30:2 31:2 32:2 33:5 34:1 35:0 36:0 37:0 38:0 39:31 
0.7428989420340446 1:0 2:0 3:0 4:0 5:0 6:5 7:6 8:4 9:4 10:1 11:4 12:12 13:0 14:0 15:0 16:0 17:0 18:0 19:0 20:0 21:1 22:1 23:1 24:3 25:6 26:4 27:3 28:3 29:3 30:4 31:4 32:3 33:0 34:0 35:0 36:0 37:0 38:0 39:36 
0.2352631588070894 1:0 2:0 3:0 4:4 5:7 6:4 7:4 8:1 9:3 10:12 11:1 12:0 13:0 14:0 15:0 16:0 17:0 18:0 19:0 20:0 21:0 22:0 23:0 24:1 25:1 26:1 27:3 28:5 29:3 30:3 31:3 32:4 33:3 34:6 35:3 36:0 37:0 38:0 39:36 
0.5519255922924532 1:0 2:0 3:0 4:0 5:0 6:0 7:4 8:7 9:4 10:4 11:2 12:3 13:10 14:0 15:0 16:0 17:0 18:0 19:0 20:0 21:0 22:0 23:0 24:1 25:1 26:1 27:3 28:6 29:2 30:2 31:3 32:3 33:4 34:5 35:3 36:0 37:0 38:0 39:34 
0.1463290004156113 1:0 2:0 3:0 4:0 5:3 6:7 7:4 8:4 9:2 10:3 11:10 12:0 13:0 14:0 15:0 16:0 17:0 18:0 19:0 20:0 21:0 22:0 23:0 24:1 25:2 26:1 27:2 28:4 29:3 30:3 31:3 32:2 33:3 34:6 35:3 36:0 37:0 38:0 39:33 
0.8311390639739314 1:1 2:0 3:0 4:0 5:1 6:4 7:8 8:4 9:4 10:2 11:4 12:12 13:0 14:0 15:0 16:0 17:0 18:0 19:0 20:0 21:0 22:0 23:1 24:1 25:1 26:4 27:7 28:4 29:2 30:3 31:3 32:4 33:6 34:3 35:1 36:0 37:0 38:0 39:40 
0.9459589468190873 1:0 2:0 3:0 4:0 5:0 6:4 7:7 8:2 9:4 10:2 11:3 12:6 13:0 14:0 15:0 16:0 17:0 18:0 19:0 20:0 21:0 22:0 23:1 24:3 25:4 26:3 27:3 28:2 29:2 30:2 31:5 32:3 33:0 34:0 35:0 36:0 37:0 38:0 39:28 
0.6848875432647459 1:6 2:1 3:0 4:0 5:0 6:0 7:4 8:6 9:3 10:2 11:2 12:4 13:11 14:0 15:0 16:0 17:0 18:0 19:0 20:0 21:0 22:1 23:1 24:2 25:6 26:4 27:4 28:4 29:3 30:3 31:6 32:2 33:0 34:1 35:2 36:0 37:0 38:0 39:39 
0.5567887934355824 1:0 2:0 3:0 4:0 5:5 6:6 7:4 8:3 9:2 10:4 11:12 12:2 13:0 14:0 15:0 16:0 17:0 18:0 19:0 20:0 21:0 22:0 23:0 24:1 25:1 26:1 27:2 28:6 29:4 30:3 31:2 32:3 33:5 34:7 35:3 36:0 37:0 38:0 39:38 
0.3248769431307045 1:0 2:0 3:0 4:0 5:0 6:4 7:7 8:2 9:4 10:2 11:3 12:9 13:0 14:0 15:0 16:0 17:0 18:0 19:0 20:0 21:0 22:0 23:0 24:0 25:1 26:1 27:2 28:5 29:3 30:3 31:2 32:2 33:3 34:6 35:3 36:0 37:0 38:0 39:31 
1.130328650995517 1:0 2:0 3:0 4:3 5:7 6:4 7:4 8:3 9:4 10:12 11:0 12:0 13:0 14:0 15:1 16:0 17:0 18:0 19:0 20:1 21:1 22:1 23:3 24:6 25:4 26:3 27:3 28:2 29:4 30:6 31:4 32:0 33:0 34:0 35:0 36:0 37:0 38:0 39:38 
0.7366466970990321 1:0 2:0 3:0 4:0 5:5 6:7 7:4 8:4 9:2 10:3 11:12 12:1 13:0 14:0 15:0 16:0 17:0 18:0 19:0 20:0 21:0 22:1 23:1 24:1 25:5 26:5 27:4 28:3 29:3 30:3 31:3 32:6 33:3 34:0 35:0 36:0 37:0 38:0 39:38 
0.07131703934684451 1:0 2:0 3:0 4:0 5:0 6:4 7:7 8:4 9:4 10:2 11:4 12:12 13:0 14:0 15:0 16:0 17:0 18:0 19:0 20:0 21:0 22:0 23:0 24:1 25:1 26:1 27:3 28:6 29:3 30:3 31:3 32:3 33:4 34:6 35:3 36:0 37:0 38:0 39:37 
0.3905314562494759 1:0 2:0 3:0 4:4 5:7 6:5 7:4 8:1 9:3 10:11 11:0 12:0 13:0 14:0 15:0 16:0 17:0 18:0 19:0 20:0 21:0 22:0 23:0 24:1 25:1 26:1 27:3 28:6 29:2 30:2 31:3 32:3 33:4 34:5 35:3 36:1 37:0 38:0 39:35 
1.216419323540754 1:0 2:0 3:0 4:0 5:0 6:0 7:5 8:7 9:4 10:4 11:2 12:3 13:12 14:0 15:0 16:0 17:0 18:0 19:0 20:1 21:1 22:1 23:3 24:6 25:3 26:3 27:3 28:3 29:4 30:6 31:3 32:0 33:0 34:0 35:0 36:0 37:0 38:0 39:37 
0.1308062230291507 1:0 2:0 3:0 4:0 5:0 6:0 7:3 8:7 9:4 10:3 11:1 12:3 13:11 14:0 15:0 16:1 17:0 18:1 19:0 20:0 21:0 22:1 23:1 24:2 25:5 26:2 27:3 28:2 29:3 30:4 31:6 32:3 33:0 34:0 35:0 36:0 37:0 38:0 39:33 
-1.358151454122619 1:0 2:0 3:0 4:0 5:0 6:0 7:7 8:9 9:4 10:4 11:4 12:4 13:4 14:1 15:0 16:0 17:0 18:0 19:0 20:0 21:0 22:0 23:0 24:6 25:8 26:2 27:0 28:1 29:6 30:7 31:1 32:2 33:1 34:1 35:2 36:0 37:0 38:0 39:37 
-0.1168426773768286 1:1 2:0 3:0 4:0 5:0 6:7 7:11 8:4 9:4 10:4 11:3 12:3 13:1 14:0 15:0 16:0 17:0 18:0 19:0 20:0 21:6 22:7 23:2 24:1 25:2 26:5 27:6 28:2 29:2 30:1 31:2 32:2 33:0 34:0 35:0 36:0 37:0 38:0 39:38 
-0.3551674906181335 1:0 2:0 3:0 4:0 5:9 6:11 7:4 8:2 9:4 10:3 11:4 12:2 13:0 14:0 15:0 16:0 17:0 18:0 19:0 20:0 21:0 22:0 23:6 24:6 25:2 26:2 27:2 28:7 29:6 30:1 31:2 32:2 33:2 34:1 35:0 36:0 37:0 38:0 39:39 
-1.148556888587116 1:0 2:0 3:0 4:0 5:0 6:2 7:9 8:3 9:3 10:0 11:0 12:1 13:1 14:0 15:0 16:0 17:0 18:0 19:0 20:0 21:0 22:1 23:1 24:2 25:2 26:1 27:3 28:3 29:1 30:1 31:1 32:1 33:1 34:1 35:0 36:0 37:0 38:0 39:19 
-0.5206127098967853 1:0 2:0 3:0 4:9 5:9 6:4 7:3 8:3 9:4 10:4 11:2 12:0 13:0 14:0 15:0 16:0 17:0 18:0 19:0 20:0 21:0 22:7 23:8 24:2 25:1 26:1 27:5 28:7 29:0 30:2 31:2 32:2 33:1 34:0 35:0 36:0 37:0 38:0 39:38 
-0.4234494558985465 1:0 2:0 3:0 4:0 5:1 6:8 7:11 8:4 9:3 10:4 11:4 12:3 13:2 14:0 15:0 16:0 17:0 18:0 19:0 20:0 21:0 22:0 23:0 24:6 25:8 26:1 27:3 28:2 29:7 30:5 31:1 32:2 33:2 34:2 35:1 36:0 37:0 38:0 39:40 
-0.4578739600857906 1:0 2:0 3:0 4:0 5:7 6:12 7:4 8:4 9:3 10:4 11:4 12:0 13:0 14:0 15:0 16:0 17:0 18:0 19:0 20:0 21:0 22:7 23:6 24:1 25:2 26:1 27:7 28:5 29:2 30:2 31:1 32:2 33:2 34:0 35:0 36:0 37:0 38:0 39:38 
-0.3498531817915624 1:0 2:0 3:0 4:0 5:0 6:0 7:7 8:11 9:4 10:3 11:3 12:4 13:4 14:2 15:0 16:0 17:0 18:0 19:0 20:0 21:0 22:0 23:7 24:8 25:2 26:0 27:2 28:5 29:6 30:2 31:1 32:2 33:2 34:1 35:0 36:0 37:0 38:0 39:38 
-1.24591038585377 1:0 2:0 3:0 4:0 5:8 6:9 7:4 8:3 9:4 10:4 11:4 12:2 13:0 14:0 15:0 16:0 17:0 18:0 19:0 20:0 21:0 22:0 23:0 24:7 25:7 26:2 27:1 28:2 29:6 30:6 31:1 32:1 33:2 34:2 35:1 36:0 37:0 38:0 39:38 
-0.02728420763275271 1:0 2:0 3:0 4:0 5:0 6:0 7:8 8:12 9:4 10:4 11:4 12:4 13:4 14:2 15:0 16:0 17:0 18:0 19:0 20:0 21:0 22:8 23:8 24:2 25:2 26:1 27:7 28:6 29:2 30:1 31:2 32:2 33:1 34:0 35:0 36:0 37:0 38:0 39:42 
-0.03075423433347623 1:0 2:0 3:0 4:0 5:8 6:11 7:3 8:3 9:4 10:4 11:3 12:4 13:1 14:0 15:0 16:0 17:0 18:0 19:0 20:0 21:5 22:7 23:3 24:3 25:3 26:7 27:6 28:1 29:2 30:2 31:1 32:1 33:0 34:0 35:0 36:0 37:0 38:0 39:41 
-0.4343057774196482 1:0 2:0 3:0 4:0 5:0 6:8 7:12 8:4 9:4 10:3 11:4 12:4 13:2 14:0 15:0 16:0 17:0 18:0 19:0 20:8 21:8 22:2 23:2 24:1 25:6 26:7 27:1 28:1 29:2 30:2 31:1 32:0 33:0 34:0 35:0 36:0 37:0 38:0 39:41 
-0.3096097297126513 1:0 2:0 3:0 4:0 5:0 6:0 7:7 8:12 9:4 10:4 11:3 12:3 13:4 14:2 15:0 16:0 17:0 18:0 19:0 20:0 21:0 22:0 23:6 24:7 25:2 26:2 27:1 28:7 29:6 30:2 31:1 32:2 33:1 34:2 35:0 36:0 37:0 38:0 39:39 
-0.3669545853541824 1:0 2:0 3:0 4:0 5:6 6:10 7:4 8:4 9:4 10:3 11:4 12:2 13:0 14:0 15:0 16:0 17:0 18:0 19:0 20:0 21:6 22:8 23:2 24:1 25:1 26:6 27:6 28:0 29:2 30:2 31:1 32:2 33:0 34:0 35:0 36:0 37:0 38:0 39:37 
-0.8478901120930821 1:0 2:0 3:0 4:0 5:0 6:0 7:6 8:12 9:3 10:4 11:4 12:4 13:3 14:1 15:0 16:0 17:0 18:0 19:0 20:0 21:0 22:5 23:8 24:1 25:2 26:2 27:6 28:5 29:2 30:1 31:2 32:2 33:1 34:0 35:0 36:0 37:0 38:0 39:37 
-0.6529613771577709 1:0 2:0 3:0 4:1 5:5 6:12 7:4 8:3 9:4 10:3 11:4 12:1 13:0 14:0 15:0 16:0 17:0 18:0 19:0 20:7 21:5 22:2 23:2 24:2 25:5 26:6 27:1 28:1 29:2 30:2 31:2 32:0 33:0 34:0 35:0 36:0 37:0 38:0 39:37 
-0.4341484342272527 1:0 2:0 3:0 4:0 5:0 6:9 7:12 8:3 9:4 10:4 11:3 12:4 13:2 14:0 15:0 16:0 17:0 18:0 19:0 20:0 21:0 22:0 23:7 24:8 25:2 26:1 27:2 28:6 29:6 30:1 31:2 32:2 33:2 34:2 35:0 36:0 37:0 38:0 39:41 
-0.8049308597263959 1:0 2:0 3:0 4:7 5:10 6:4 7:3 8:4 9:4 10:4 11:2 12:0 13:0 14:0 15:0 16:0 17:0 18:0 19:0 20:0 21:0 22:0 23:7 24:7 25:2 26:1 27:0 28:6 29:6 30:2 31:2 32:1 33:2 34:2 35:0 36:0 37:0 38:0 39:38 
-0.03408810113082365 1:0 2:0 3:0 4:0 5:8 6:11 7:3 8:4 9:4 10:5 11:4 12:2 13:0 14:0 15:0 16:0 17:0 18:0 19:0 20:0 21:0 22:8 23:8 24:1 25:2 26:1 27:6 28:6 29:3 30:2 31:2 32:1 33:1 34:0 35:0 36:0 37:0 38:0 39:41 
-0.5820199778692863 1:0 2:0 3:0 4:8 5:12 6:3 7:4 8:4 9:4 10:4 11:2 12:0 13:0 14:0 15:0 16:0 17:0 18:0 19:0 20:0 21:8 22:8 23:2 24:2 25:1 26:5 27:7 28:2 29:1 30:2 31:1 32:2 33:0 34:0 35:0 36:0 37:0 38:0 39:41 
-0.3888142996847424 1:0 2:0 3:0 4:0 5:0 6:7 7:12 8:4 9:4 10:4 11:4 12:4 13:2 14:0 15:0 16:0 17:0 18:0 19:0 20:0 21:0 22:7 23:7 24:1 25:1 26:2 27:6 28:7 29:2 30:2 31:2 32:2 33:2 34:0 35:0 36:0 37:0 38:0 39:41 
-0.4921511445146874 1:1 2:0 3:0 4:0 5:0 6:7 7:11 8:4 9:4 10:4 11:3 12:3 13:3 14:0 15:0 16:0 17:0 18:0 19:0 20:0 21:6 22:7 23:1 24:2 25:3 26:7 27:6 28:2 29:0 30:2 31:3 32:1 33:0 34:0 35:0 36:0 37:0 38:0 39:40 
