svm_type c_svc
kernel_type rbf
gamma 0.00012207
nr_class 2
total_sv 23
rho -0.313032
label 1 0
probA -3.44374
probB -0.176244
nr_sv 11 12
SV
8 1:0 2:0 3:0 4:0 5:0 6:0 7:7 8:9 9:1 10:1 11:2 12:9 13:6 14:1 15:2 16:1 17:0 18:0 19:0 20:0 21:0 22:0 23:0 24:0 25:0 26:0 27:6 28:7 29:4 30:4 31:4 32:4 33:3 34:3 35:4 36:0 37:0 38:0 39:39 
7.059125593469151 1:0 2:0 3:0 4:0 5:5 6:7 7:2 8:1 9:2 10:7 11:6 12:1 13:2 14:2 15:5 16:7 17:0 18:0 19:0 20:0 21:0 22:0 23:0 24:7 25:11 26:5 27:2 28:4 29:6 30:4 31:2 32:6 33:0 34:0 35:0 36:0 37:0 38:0 39:47 
8 1:0 2:0 3:0 4:0 5:0 6:1 7:6 8:8 9:1 10:2 11:2 12:9 13:7 14:1 15:2 16:2 17:0 18:0 19:0 20:0 21:0 22:0 23:0 24:0 25:7 26:9 27:4 28:3 29:4 30:4 31:4 32:4 33:2 34:0 35:0 36:0 37:0 38:0 39:41 
8 1:0 2:0 3:0 4:8 5:9 6:1 7:3 8:2 9:8 10:5 11:0 12:2 13:2 14:6 15:8 16:0 17:0 18:0 19:0 20:0 21:0 22:0 23:8 24:9 25:6 26:4 27:6 28:5 29:5 30:5 31:6 32:0 33:0 34:0 35:0 36:0 37:0 38:0 39:54 
7.218256219217619 1:3 2:0 3:0 4:0 5:0 6:7 7:7 8:1 9:1 10:1 11:7 12:8 13:1 14:1 15:2 16:2 17:0 18:0 19:0 20:0 21:0 22:0 23:0 24:0 25:0 26:3 27:12 28:6 29:5 30:3 31:4 32:4 33:2 34:2 35:0 36:0 37:0 38:0 39:41 
8 1:0 2:0 3:0 4:0 5:0 6:4 7:8 8:1 9:1 10:2 11:6 12:6 13:1 14:2 15:2 16:6 17:0 18:0 19:0 20:0 21:0 22:0 23:0 24:0 25:0 26:0 27:7 28:9 29:5 30:3 31:3 32:4 33:4 34:3 35:1 36:0 37:0 38:0 39:39 
3.0389790091989 1:0 2:0 3:0 4:0 5:6 6:9 7:1 8:1 9:2 10:6 11:5 12:1 13:2 14:2 15:7 16:7 17:0 18:0 19:0 20:0 21:0 22:0 23:6 24:11 25:5 26:4 27:5 28:5 29:4 30:3 31:6 32:0 33:0 34:0 35:0 36:0 37:0 38:0 39:49 
5.733604106271673 1:0 2:0 3:0 4:0 5:0 6:5 7:8 8:0 9:2 10:2 11:7 12:7 13:1 14:2 15:2 16:6 17:0 18:0 19:0 20:0 21:0 22:0 23:0 24:8 25:9 26:4 27:3 28:4 29:2 30:4 31:4 32:4 33:0 34:0 35:0 36:0 37:0 38:0 39:42 
8 1:0 2:0 3:0 4:0 5:0 6:5 7:8 8:1 9:2 10:2 11:7 12:6 13:1 14:2 15:1 16:7 17:0 18:0 19:0 20:0 21:0 22:0 23:0 24:8 25:8 26:5 27:4 28:5 29:2 30:4 31:4 32:2 33:0 34:0 35:0 36:0 37:0 38:0 39:42 
8 1:0 2:0 3:0 4:0 5:0 6:0 7:7 8:9 9:1 10:2 11:3 12:9 13:7 14:1 15:3 16:2 17:0 18:0 19:0 20:0 21:0 22:1 23:7 24:9 25:4 26:4 27:3 28:3 29:4 30:4 31:5 32:0 33:0 34:0 35:0 36:0 37:0 38:0 39:44 
8 1:0 2:0 3:0 4:0 5:0 6:4 7:9 8:1 9:1 10:1 11:7 12:6 13:1 14:2 15:2 16:4 17:0 18:0 19:0 20:0 21:0 22:0 23:0 24:0 25:0 26:0 27:7 28:8 29:3 30:3 31:4 32:3 33:4 34:4 35:2 36:0 37:0 38:0 39:38 
-5.085544154597581 1:1 2:0 3:0 4:1 5:8 6:12 7:4 8:2 9:4 10:3 11:4 12:2 13:0 14:0 15:0 16:0 17:0 18:0 19:0 20:0 21:0 22:0 23:7 24:6 25:3 26:1 27:2 28:6 29:7 30:1 31:1 32:3 33:2 34:2 35:0 36:0 37:0 38:0 39:41 
-8 1:0 2:0 3:0 4:0 5:0 6:0 7:7 8:9 9:4 10:4 11:4 12:4 13:4 14:1 15:0 16:0 17:0 18:0 19:0 20:0 21:0 22:0 23:0 24:6 25:8 26:2 27:0 28:1 29:6 30:7 31:1 32:2 33:1 34:1 35:2 36:0 37:0 38:0 39:37 
-5.539589025149856 1:0 2:0 3:0 4:0 5:9 6:11 7:4 8:2 9:4 10:3 11:4 12:2 13:0 14:0 15:0 16:0 17:0 18:0 19:0 20:0 21:0 22:0 23:6 24:6 25:2 26:2 27:2 28:7 29:6 30:1 31:2 32:2 33:2 34:1 35:0 36:0 37:0 38:0 39:39 
-8 1:0 2:0 3:0 4:0 5:1 6:8 7:11 8:4 9:3 10:4 11:4 12:3 13:2 14:0 15:0 16:0 17:0 18:0 19:0 20:0 21:0 22:0 23:0 24:6 25:8 26:1 27:3 28:2 29:7 30:5 31:1 32:2 33:2 34:2 35:1 36:0 37:0 38:0 39:40 
-2.073792426135179 1:1 2:0 3:0 4:7 5:11 6:4 7:4 8:4 9:4 10:4 11:2 12:0 13:0 14:0 15:0 16:0 17:0 18:0 19:0 20:0 21:0 22:0 23:8 24:7 25:2 26:2 27:1 28:7 29:7 30:1 31:2 32:0 33:2 34:2 35:0 36:0 37:0 38:0 39:41 
-8 1:0 2:0 3:0 4:0 5:0 6:8 7:12 8:4 9:4 10:4 11:4 12:4 13:2 14:0 15:0 16:0 17:0 18:0 19:0 20:0 21:7 22:7 23:2 24:2 25:2 26:7 27:7 28:1 29:1 30:2 31:2 32:2 33:0 34:0 35:0 36:0 37:0 38:0 39:42 
-8 1:0 2:0 3:0 4:0 5:8 6:9 7:4 8:3 9:4 10:4 11:4 12:2 13:0 14:0 15:0 16:0 17:0 18:0 19:0 20:0 21:0 22:0 23:0 24:7 25:7 26:2 27:1 28:2 29:6 30:6 31:1 32:1 33:2 34:2 35:1 36:0 37:0 38:0 39:38 
-7.818244031179558 1:0 2:0 3:0 4:0 5:0 6:0 7:8 8:12 9:4 10:4 11:4 12:4 13:4 14:2 15:0 16:0 17:0 18:0 19:0 20:0 21:0 22:8 23:8 24:2 25:2 26:1 27:7 28:6 29:2 30:1 31:2 32:2 33:1 34:0 35:0 36:0 37:0 38:0 39:42 
-4.938356815051032 1:0 2:0 3:0 4:0 5:0 6:0 7:7 8:12 9:4 10:4 11:3 12:3 13:4 14:2 15:0 16:0 17:0 18:0 19:0 20:0 21:0 22:0 23:6 24:7 25:2 26:2 27:1 28:7 29:6 30:2 31:1 32:2 33:1 34:2 35:0 36:0 37:0 38:0 39:39 
-8 1:0 2:0 3:0 4:0 5:0 6:0 7:8 8:11 9:4 10:4 11:4 12:4 13:3 14:2 15:0 16:0 17:0 18:0 19:0 20:0 21:0 22:6 23:8 24:2 25:1 26:1 27:6 28:7 29:2 30:2 31:2 32:2 33:1 34:0 35:0 36:0 37:0 38:0 39:40 
-6.378639436444399 1:0 2:0 3:0 4:0 5:0 6:9 7:12 8:3 9:4 10:4 11:3 12:4 13:2 14:0 15:0 16:0 17:0 18:0 19:0 20:0 21:0 22:0 23:7 24:8 25:2 26:1 27:2 28:6 29:6 30:1 31:2 32:2 33:2 34:2 35:0 36:0 37:0 38:0 39:41 
-7.215799039599737 1:1 2:0 3:0 4:0 5:0 6:7 7:11 8:4 9:4 10:4 11:3 12:3 13:3 14:0 15:0 16:0 17:0 18:0 19:0 20:0 21:6 22:7 23:1 24:2 25:3 26:7 27:6 28:2 29:0 30:2 31:3 32:1 33:0 34:0 35:0 36:0 37:0 38:0 39:40 
