svm_type c_svc
kernel_type rbf
gamma 0.0078125
nr_class 2
total_sv 47
rho -0.0210443
label 0 1
probA -4.25472
probB -0.199733
nr_sv 24 23
SV
0.3076695025301507 1:1 2:0 3:0 4:1 5:8 6:12 7:4 8:2 9:4 10:3 11:4 12:2 13:0 14:0 15:0 16:0 17:0 18:0 19:0 20:0 21:0 22:0 23:7 24:6 25:3 26:1 27:2 28:6 29:7 30:1 31:1 32:3 33:2 34:2 35:0 36:0 37:0 38:0 39:41 
0.5 1:0 2:0 3:0 4:0 5:0 6:0 7:7 8:9 9:4 10:4 11:4 12:4 13:4 14:1 15:0 16:0 17:0 18:0 19:0 20:0 21:0 22:0 23:0 24:6 25:8 26:2 27:0 28:1 29:6 30:7 31:1 32:2 33:1 34:1 35:2 36:0 37:0 38:0 39:37 
0.04803367642512305 1:0 2:0 3:0 4:0 5:0 6:10 7:10 8:4 9:4 10:3 11:4 12:4 13:2 14:0 15:0 16:0 17:0 18:0 19:0 20:7 21:8 22:2 23:2 24:2 25:7 26:5 27:1 28:2 29:2 30:1 31:2 32:0 33:0 34:0 35:0 36:0 37:0 38:0 39:41 
0.5 1:0 2:0 3:0 4:0 5:0 6:2 7:9 8:3 9:3 10:0 11:0 12:1 13:1 14:0 15:0 16:0 17:0 18:0 19:0 20:0 21:0 22:1 23:1 24:2 25:2 26:1 27:3 28:3 29:1 30:1 31:1 32:1 33:1 34:1 35:0 36:0 37:0 38:0 39:19 
0.3112321416478452 1:0 2:0 3:0 4:9 5:9 6:4 7:3 8:3 9:4 10:4 11:2 12:0 13:0 14:0 15:0 16:0 17:0 18:0 19:0 20:0 21:0 22:7 23:8 24:2 25:1 26:1 27:5 28:7 29:0 30:2 31:2 32:2 33:1 34:0 35:0 36:0 37:0 38:0 39:38 
0.2939670909934929 1:0 2:0 3:0 4:0 5:1 6:8 7:11 8:4 9:3 10:4 11:4 12:3 13:2 14:0 15:0 16:0 17:0 18:0 19:0 20:0 21:0 22:0 23:0 24:6 25:8 26:1 27:3 28:2 29:7 30:5 31:1 32:2 33:2 34:2 35:1 36:0 37:0 38:0 39:40 
0.1723393215399364 1:0 2:0 3:0 4:7 5:12 6:4 7:4 8:4 9:4 10:4 11:2 12:0 13:0 14:0 15:0 16:0 17:0 18:0 19:0 20:0 21:1 22:8 23:8 24:1 25:1 26:1 27:6 28:7 29:1 30:2 31:2 32:2 33:1 34:0 35:0 36:0 37:0 38:0 39:41 
0.5 1:1 2:0 3:0 4:7 5:11 6:4 7:4 8:4 9:4 10:4 11:2 12:0 13:0 14:0 15:0 16:0 17:0 18:0 19:0 20:0 21:0 22:0 23:8 24:7 25:2 26:2 27:1 28:7 29:7 30:1 31:2 32:0 33:2 34:2 35:0 36:0 37:0 38:0 39:41 
0.06389733511387209 1:0 2:0 3:0 4:0 5:0 6:0 7:7 8:11 9:4 10:3 11:3 12:4 13:4 14:2 15:0 16:0 17:0 18:0 19:0 20:0 21:0 22:0 23:7 24:8 25:2 26:0 27:2 28:5 29:6 30:2 31:1 32:2 33:2 34:1 35:0 36:0 37:0 38:0 39:38 
0.4558816355199547 1:0 2:0 3:0 4:0 5:0 6:8 7:12 8:4 9:4 10:4 11:4 12:4 13:2 14:0 15:0 16:0 17:0 18:0 19:0 20:0 21:7 22:7 23:2 24:2 25:2 26:7 27:7 28:1 29:1 30:2 31:2 32:2 33:0 34:0 35:0 36:0 37:0 38:0 39:42 
0.3602266757662408 1:0 2:0 3:0 4:0 5:8 6:9 7:4 8:3 9:4 10:4 11:4 12:2 13:0 14:0 15:0 16:0 17:0 18:0 19:0 20:0 21:0 22:0 23:0 24:7 25:7 26:2 27:1 28:2 29:6 30:6 31:1 32:1 33:2 34:2 35:1 36:0 37:0 38:0 39:38 
0.5 1:0 2:0 3:0 4:0 5:0 6:0 7:8 8:12 9:4 10:4 11:4 12:4 13:4 14:2 15:0 16:0 17:0 18:0 19:0 20:0 21:0 22:8 23:8 24:2 25:2 26:1 27:7 28:6 29:2 30:1 31:2 32:2 33:1 34:0 35:0 36:0 37:0 38:0 39:42 
0.3126531011552648 1:0 2:0 3:0 4:0 5:8 6:11 7:3 8:3 9:4 10:4 11:3 12:4 13:1 14:0 15:0 16:0 17:0 18:0 19:0 20:0 21:5 22:7 23:3 24:3 25:3 26:7 27:6 28:1 29:2 30:2 31:1 32:1 33:0 34:0 35:0 36:0 37:0 38:0 39:41 
0.2965613236941309 1:0 2:0 3:0 4:0 5:8 6:12 7:4 8:4 9:4 10:4 11:4 12:1 13:0 14:0 15:0 16:0 17:0 18:0 19:0 20:0 21:0 22:7 23:8 24:2 25:1 26:2 27:7 28:7 29:1 30:1 31:2 32:1 33:2 34:0 35:0 36:0 37:0 38:0 39:41 
0.5 1:0 2:0 3:0 4:0 5:0 6:8 7:12 8:4 9:4 10:3 11:4 12:4 13:2 14:0 15:0 16:0 17:0 18:0 19:0 20:8 21:8 22:2 23:2 24:1 25:6 26:7 27:1 28:1 29:2 30:2 31:1 32:0 33:0 34:0 35:0 36:0 37:0 38:0 39:41 
0.4059066433246464 1:0 2:0 3:0 4:0 5:0 6:0 7:7 8:12 9:4 10:4 11:3 12:3 13:4 14:2 15:0 16:0 17:0 18:0 19:0 20:0 21:0 22:0 23:6 24:7 25:2 26:2 27:1 28:7 29:6 30:2 31:1 32:2 33:1 34:2 35:0 36:0 37:0 38:0 39:39 
0.04764925069261015 1:0 2:0 3:0 4:0 5:8 6:11 7:4 8:3 9:4 10:4 11:4 12:2 13:0 14:0 15:0 16:0 17:0 18:0 19:0 20:0 21:7 22:7 23:1 24:2 25:2 26:6 27:7 28:1 29:2 30:2 31:2 32:1 33:0 34:0 35:0 36:0 37:0 38:0 39:40 
0.1719357000235925 1:0 2:0 3:0 4:0 5:0 6:0 7:6 8:12 9:3 10:4 11:4 12:4 13:3 14:1 15:0 16:0 17:0 18:0 19:0 20:0 21:0 22:5 23:8 24:1 25:2 26:2 27:6 28:5 29:2 30:1 31:2 32:2 33:1 34:0 35:0 36:0 37:0 38:0 39:37 
0.3431609986200814 1:0 2:0 3:0 4:1 5:5 6:12 7:4 8:3 9:4 10:3 11:4 12:1 13:0 14:0 15:0 16:0 17:0 18:0 19:0 20:7 21:5 22:2 23:2 24:2 25:5 26:6 27:1 28:1 29:2 30:2 31:2 32:0 33:0 34:0 35:0 36:0 37:0 38:0 39:37 
0.4073435587346146 1:0 2:0 3:0 4:0 5:0 6:9 7:12 8:3 9:4 10:4 11:3 12:4 13:2 14:0 15:0 16:0 17:0 18:0 19:0 20:0 21:0 22:0 23:7 24:8 25:2 26:1 27:2 28:6 29:6 30:1 31:2 32:2 33:2 34:2 35:0 36:0 37:0 38:0 39:41 
0.001531650789158874 1:0 2:0 3:0 4:7 5:10 6:4 7:3 8:4 9:4 10:4 11:2 12:0 13:0 14:0 15:0 16:0 17:0 18:0 19:0 20:0 21:0 22:0 23:7 24:7 25:2 26:1 27:0 28:6 29:6 30:2 31:2 32:1 33:2 34:2 35:0 36:0 37:0 38:0 39:38 
0.04715991895432335 1:0 2:0 3:0 4:0 5:8 6:11 7:3 8:4 9:4 10:5 11:4 12:2 13:0 14:0 15:0 16:0 17:0 18:0 19:0 20:0 21:0 22:8 23:8 24:1 25:2 26:1 27:6 28:6 29:3 30:2 31:2 32:1 33:1 34:0 35:0 36:0 37:0 38:0 39:41 
0.5 1:0 2:0 3:0 4:8 5:12 6:3 7:4 8:4 9:4 10:4 11:2 12:0 13:0 14:0 15:0 16:0 17:0 18:0 19:0 20:0 21:8 22:8 23:2 24:2 25:1 26:5 27:7 28:2 29:1 30:2 31:1 32:2 33:0 34:0 35:0 36:0 37:0 38:0 39:41 
0.2197993636917943 1:0 2:0 3:0 4:0 5:0 6:7 7:12 8:4 9:4 10:4 11:4 12:4 13:2 14:0 15:0 16:0 17:0 18:0 19:0 20:0 21:0 22:7 23:7 24:1 25:1 26:2 27:6 28:7 29:2 30:2 31:2 32:2 33:2 34:0 35:0 36:0 37:0 38:0 39:41 
-0.5 1:0 2:0 3:0 4:0 5:0 6:9 7:12 8:3 9:3 10:2 11:3 12:3 13:7 14:12 15:0 16:0 17:0 18:0 19:0 20:4 21:5 22:3 23:6 24:3 25:5 26:5 27:5 28:6 29:4 30:4 31:4 32:0 33:0 34:0 35:0 36:0 37:0 38:0 39:54 
-0.2911968570840751 1:0 2:0 3:0 4:0 5:0 6:0 7:8 8:11 9:3 10:3 11:3 12:2 13:3 14:8 15:9 16:0 17:0 18:0 19:0 20:0 21:0 22:3 23:4 24:5 25:5 26:4 27:5 28:5 29:3 30:5 31:4 32:3 33:4 34:0 35:0 36:0 37:0 38:0 39:50 
-0.5 1:0 2:0 3:1 4:7 5:11 6:3 7:4 8:3 9:3 10:3 11:8 12:11 13:0 14:0 15:0 16:0 17:0 18:0 19:0 20:0 21:0 22:0 23:0 24:4 25:5 26:4 27:5 28:6 29:6 30:6 31:3 32:4 33:5 34:4 35:2 36:0 37:0 38:0 39:54 
-0.183227169077656 1:0 2:0 3:0 4:0 5:9 6:11 7:4 8:2 9:2 10:3 11:3 12:9 13:12 14:0 15:0 16:0 17:0 18:0 19:0 20:0 21:0 22:0 23:3 24:4 25:3 26:6 27:6 28:6 29:5 30:4 31:5 32:5 33:5 34:3 35:0 36:0 37:0 38:0 39:55 
-0.5 1:0 2:0 3:0 4:0 5:9 6:11 7:3 8:2 9:3 10:3 11:3 12:7 13:7 14:0 15:0 16:0 17:0 18:0 19:0 20:0 21:2 22:2 23:4 24:4 25:6 26:3 27:6 28:5 29:5 30:3 31:4 32:4 33:0 34:0 35:0 36:0 37:0 38:0 39:48 
-0.4666523768056593 1:0 2:0 3:0 4:0 5:4 6:11 7:4 8:3 9:4 10:3 11:3 12:9 13:12 14:0 15:0 16:0 17:0 18:0 19:0 20:0 21:0 22:0 23:0 24:3 25:4 26:5 27:5 28:5 29:5 30:5 31:3 32:6 33:4 34:5 35:3 36:0 37:0 38:0 39:53 
-0.4473115848014638 1:0 2:0 3:0 4:8 5:10 6:3 7:3 8:3 9:3 10:3 11:7 12:11 13:0 14:0 15:0 16:0 17:0 18:0 19:0 20:3 21:5 22:4 23:4 24:6 25:3 26:5 27:3 28:5 29:5 30:4 31:4 32:0 33:0 34:0 35:0 36:0 37:0 38:0 39:51 
-0.06049933047733543 1:0 2:0 3:0 4:0 5:7 6:11 7:3 8:3 9:3 10:3 11:3 12:7 13:12 14:0 15:0 16:0 17:0 18:0 19:0 20:0 21:0 22:4 23:4 24:4 25:5 26:5 27:5 28:5 29:4 30:6 31:5 32:4 33:1 34:0 35:0 36:0 37:0 38:0 39:52 
-0.4539487712845003 1:1 2:1 3:0 4:0 5:1 6:9 7:11 8:3 9:2 10:2 11:3 12:3 13:10 14:11 15:0 16:0 17:0 18:0 19:0 20:0 21:0 22:0 23:0 24:3 25:5 26:4 27:6 28:5 29:4 30:6 31:5 32:6 33:4 34:5 35:4 36:0 37:0 38:0 39:57 
-0.01882373626514112 1:0 2:0 3:0 4:0 5:0 6:7 7:12 8:3 9:1 10:3 11:3 12:3 13:9 14:11 15:0 16:0 17:0 18:0 19:0 20:0 21:3 22:4 23:4 24:5 25:5 26:3 27:6 28:4 29:5 30:4 31:5 32:4 33:0 34:0 35:0 36:0 37:0 38:0 39:52 
-0.5 1:0 2:0 3:0 4:0 5:9 6:10 7:3 8:2 9:3 10:2 11:3 12:11 13:12 14:0 15:0 16:0 17:0 18:0 19:0 20:3 21:5 22:3 23:5 24:5 25:5 26:6 27:5 28:5 29:4 30:5 31:4 32:0 33:0 34:0 35:0 36:0 37:0 38:0 39:55 
-0.1797384414982742 1:0 2:0 3:0 4:0 5:0 6:0 7:6 8:11 9:3 10:3 11:3 12:3 13:2 14:10 15:10 16:0 17:0 18:0 19:0 20:0 21:0 22:0 23:0 24:4 25:5 26:4 27:4 28:5 29:4 30:5 31:5 32:5 33:4 34:3 35:3 36:0 37:0 38:0 39:51 
-0.5 1:0 2:0 3:0 4:0 5:0 6:4 7:11 8:3 9:1 10:3 11:2 12:3 13:9 14:10 15:0 16:0 17:0 18:0 19:0 20:0 21:0 22:2 23:4 24:4 25:5 26:4 27:4 28:5 29:3 30:5 31:2 32:4 33:4 34:0 35:0 36:0 37:0 38:0 39:46 
-0.2211946285862051 1:0 2:0 3:0 4:0 5:0 6:5 7:9 8:3 9:3 10:3 11:2 12:3 13:9 14:12 15:0 16:0 17:0 18:0 19:0 20:0 21:0 22:0 23:0 24:4 25:5 26:2 27:6 28:5 29:4 30:3 31:4 32:5 33:5 34:4 35:2 36:0 37:0 38:0 39:49 
-0.1690976835359034 1:0 2:0 3:0 4:0 5:0 6:8 7:12 8:3 9:3 10:3 11:2 12:1 13:8 14:9 15:1 16:0 17:0 18:0 19:0 20:0 21:0 22:0 23:1 24:4 25:4 26:7 27:6 28:6 29:3 30:4 31:4 32:4 33:3 34:4 35:0 36:0 37:0 38:0 39:50 
-0.3234897708968868 1:0 2:0 3:0 4:7 5:12 6:1 7:3 8:3 9:3 10:1 11:12 12:9 13:1 14:0 15:0 16:0 17:0 18:0 19:0 20:0 21:3 22:4 23:4 24:6 25:5 26:5 27:5 28:5 29:5 30:4 31:2 32:4 33:0 34:0 35:0 36:0 37:0 38:0 39:52 
-0.1651433461138808 1:0 2:0 3:0 4:0 5:0 6:8 7:12 8:3 9:3 10:3 11:3 12:3 13:10 14:11 15:1 16:0 17:0 18:0 19:0 20:0 21:0 22:4 23:4 24:5 25:6 26:5 27:6 28:5 29:4 30:5 31:5 32:4 33:4 34:0 35:0 36:0 37:0 38:0 39:57 
-0.1386822864097095 1:1 2:0 3:0 4:7 5:12 6:3 7:3 8:3 9:3 10:2 11:8 12:11 13:0 14:0 15:0 16:0 17:0 18:0 19:0 20:0 21:0 22:0 23:3 24:5 25:5 26:5 27:5 28:5 29:4 30:3 31:5 32:5 33:3 34:4 35:1 36:0 37:0 38:0 39:53 
-0.2124646990884714 1:0 2:0 3:0 4:0 5:0 6:0 7:7 8:8 9:4 10:3 11:3 12:3 13:3 14:10 15:12 16:0 17:0 18:0 19:0 20:3 21:3 22:3 23:5 24:5 25:5 26:6 27:5 28:7 29:3 30:4 31:4 32:0 33:0 34:0 35:0 36:0 37:0 38:0 39:53 
-0.04420612646613052 1:0 2:0 3:0 4:0 5:8 6:10 7:2 8:3 9:3 10:3 11:2 12:11 13:12 14:0 15:0 16:0 17:0 18:0 19:0 20:0 21:0 22:0 23:4 24:4 25:4 26:5 27:6 28:5 29:6 30:4 31:4 32:4 33:5 34:3 35:0 36:0 37:0 38:0 39:54 
-0.3912720808255405 1:0 2:0 3:0 4:9 5:12 6:3 7:3 8:3 9:2 10:3 11:11 12:10 13:0 14:0 15:0 16:0 17:0 18:0 19:0 20:4 21:4 22:5 23:6 24:4 25:6 26:5 27:4 28:6 29:5 30:4 31:3 32:0 33:0 34:0 35:0 36:0 37:0 38:0 39:56 
-0.5 1:0 2:0 3:0 4:0 5:0 6:0 7:4 8:10 9:4 10:3 11:3 12:3 13:3 14:7 15:11 16:0 17:0 18:0 19:0 20:0 21:0 22:0 23:0 24:3 25:3 26:5 27:4 28:5 29:3 30:4 31:4 32:6 33:5 34:4 35:2 36:0 37:0 38:0 39:48 
-0.5 1:0 2:0 3:0 4:0 5:0 6:0 7:8 8:10 9:3 10:3 11:3 12:3 13:3 14:10 15:11 16:0 17:0 18:0 19:1 20:3 21:4 22:5 23:4 24:6 25:3 26:6 27:4 28:6 29:5 30:4 31:3 32:0 33:0 34:0 35:0 36:0 37:0 38:0 39:54 
