svm_type c_svc
kernel_type rbf
gamma 0.00012207
nr_class 2
total_sv 19
rho -0.385947
label 0 1
probA -3.05043
probB 0.0323484
nr_sv 11 8
SV
8 1:1 2:0 3:0 4:1 5:8 6:12 7:4 8:2 9:4 10:3 11:4 12:2 13:0 14:0 15:0 16:0 17:0 18:0 19:0 20:0 21:0 22:0 23:7 24:6 25:3 26:1 27:2 28:6 29:7 30:1 31:1 32:3 33:2 34:2 35:0 36:0 37:0 38:0 39:41 
5.414825274879579 1:0 2:0 3:0 4:0 5:0 6:0 7:7 8:9 9:4 10:4 11:4 12:4 13:4 14:1 15:0 16:0 17:0 18:0 19:0 20:0 21:0 22:0 23:0 24:6 25:8 26:2 27:0 28:1 29:6 30:7 31:1 32:2 33:1 34:1 35:2 36:0 37:0 38:0 39:37 
0.9166809069403314 1:0 2:0 3:0 4:0 5:0 6:10 7:10 8:4 9:4 10:3 11:4 12:4 13:2 14:0 15:0 16:0 17:0 18:0 19:0 20:7 21:8 22:2 23:2 24:2 25:7 26:5 27:1 28:2 29:2 30:1 31:2 32:0 33:0 34:0 35:0 36:0 37:0 38:0 39:41 
1.698093713944507 1:0 2:0 3:0 4:0 5:1 6:8 7:11 8:4 9:3 10:4 11:4 12:3 13:2 14:0 15:0 16:0 17:0 18:0 19:0 20:0 21:0 22:0 23:0 24:6 25:8 26:1 27:3 28:2 29:7 30:5 31:1 32:2 33:2 34:2 35:1 36:0 37:0 38:0 39:40 
7.296380218205964 1:0 2:0 3:0 4:0 5:0 6:8 7:12 8:4 9:4 10:4 11:4 12:4 13:2 14:0 15:0 16:0 17:0 18:0 19:0 20:0 21:7 22:7 23:2 24:2 25:2 26:7 27:7 28:1 29:1 30:2 31:2 32:2 33:0 34:0 35:0 36:0 37:0 38:0 39:42 
8 1:0 2:0 3:0 4:0 5:0 6:0 7:8 8:12 9:4 10:4 11:4 12:4 13:4 14:2 15:0 16:0 17:0 18:0 19:0 20:0 21:0 22:8 23:8 24:2 25:2 26:1 27:7 28:6 29:2 30:1 31:2 32:2 33:1 34:0 35:0 36:0 37:0 38:0 39:42 
8 1:0 2:0 3:0 4:0 5:8 6:11 7:3 8:3 9:4 10:4 11:3 12:4 13:1 14:0 15:0 16:0 17:0 18:0 19:0 20:0 21:5 22:7 23:3 24:3 25:3 26:7 27:6 28:1 29:2 30:2 31:1 32:1 33:0 34:0 35:0 36:0 37:0 38:0 39:41 
1.637690379116408 1:0 2:0 3:0 4:0 5:0 6:0 7:7 8:12 9:4 10:4 11:3 12:3 13:4 14:2 15:0 16:0 17:0 18:0 19:0 20:0 21:0 22:0 23:6 24:7 25:2 26:2 27:1 28:7 29:6 30:2 31:1 32:2 33:1 34:2 35:0 36:0 37:0 38:0 39:39 
5.138174118451272 1:0 2:0 3:0 4:0 5:0 6:0 7:8 8:11 9:4 10:4 11:4 12:4 13:3 14:2 15:0 16:0 17:0 18:0 19:0 20:0 21:0 22:6 23:8 24:2 25:1 26:1 27:6 28:7 29:2 30:2 31:2 32:2 33:1 34:0 35:0 36:0 37:0 38:0 39:40 
7.096313054411223 1:0 2:0 3:0 4:0 5:0 6:9 7:12 8:3 9:4 10:4 11:3 12:4 13:2 14:0 15:0 16:0 17:0 18:0 19:0 20:0 21:0 22:0 23:7 24:8 25:2 26:1 27:2 28:6 29:6 30:1 31:2 32:2 33:2 34:2 35:0 36:0 37:0 38:0 39:41 
2.870607082033945 1:0 2:0 3:0 4:0 5:8 6:11 7:3 8:4 9:4 10:5 11:4 12:2 13:0 14:0 15:0 16:0 17:0 18:0 19:0 20:0 21:0 22:8 23:8 24:1 25:2 26:1 27:6 28:6 29:3 30:2 31:2 32:1 33:1 34:0 35:0 36:0 37:0 38:0 39:41 
-8 1:0 2:0 3:0 4:0 5:0 6:0 7:4 8:6 9:2 10:2 11:4 12:3 13:5 14:6 15:7 16:5 17:0 18:0 19:0 20:0 21:0 22:2 23:7 24:5 25:2 26:2 27:2 28:6 29:5 30:2 31:1 32:7 33:3 34:0 35:0 36:0 37:0 38:0 39:44 
-8 1:0 2:0 3:0 4:0 5:4 6:8 7:4 8:3 9:4 10:4 11:5 12:6 13:6 14:6 15:0 16:0 17:0 18:0 19:0 20:5 21:6 22:5 23:2 24:2 25:2 26:6 27:6 28:2 29:3 30:7 31:4 32:0 33:0 34:0 35:0 36:0 37:0 38:0 39:50 
-0.06876474798322789 1:0 2:0 3:0 4:0 5:0 6:3 7:8 8:3 9:3 10:4 11:3 12:6 13:7 14:7 15:5 16:0 17:0 18:0 19:0 20:0 21:4 22:6 23:5 24:2 25:2 26:2 27:6 28:5 29:2 30:4 31:6 32:5 33:0 34:0 35:0 36:0 37:0 38:0 39:49 
-8 1:0 2:0 3:0 4:0 5:3 6:8 7:4 8:4 9:4 10:5 11:5 12:7 13:5 14:4 15:0 16:0 17:0 18:0 19:0 20:0 21:4 22:7 23:2 24:1 25:2 26:2 27:6 28:4 29:3 30:5 31:8 32:5 33:0 34:0 35:0 36:0 37:0 38:0 39:49 
-8 1:0 2:0 3:0 4:0 5:0 6:4 7:8 8:4 9:4 10:2 11:3 12:5 13:6 14:6 15:6 16:0 17:0 18:0 19:0 20:0 21:0 22:4 23:6 24:5 25:1 26:2 27:2 28:5 29:5 30:2 31:4 32:7 33:5 34:0 35:0 36:0 37:0 38:0 39:48 
-8 1:0 2:0 3:0 4:0 5:3 6:7 7:4 8:4 9:3 10:4 11:6 12:5 13:6 14:5 15:0 16:0 17:0 18:0 19:0 20:0 21:0 22:0 23:5 24:7 25:5 26:2 27:2 28:2 29:5 30:3 31:2 32:4 33:6 34:4 35:0 36:0 37:0 38:0 39:47 
-8 1:0 2:0 3:0 4:0 5:4 6:8 7:4 8:3 9:4 10:3 11:5 12:7 13:5 14:6 15:0 16:0 17:0 18:0 19:0 20:0 21:0 22:0 23:5 24:7 25:5 26:1 27:2 28:2 29:6 30:5 31:2 32:4 33:5 34:5 35:0 36:0 37:0 38:0 39:49 
-8 1:0 2:0 3:0 4:0 5:3 6:7 7:4 8:4 9:4 10:4 11:5 12:5 13:6 14:6 15:0 16:0 17:0 18:0 19:0 20:0 21:4 22:6 23:5 24:1 25:1 26:2 27:7 28:6 29:1 30:4 31:6 32:5 33:0 34:0 35:0 36:0 37:0 38:0 39:48 
