svm_type c_svc
kernel_type rbf
gamma 0.000488281
nr_class 2
total_sv 33
rho -1.80218
label 0 1
probA -1.82464
probB 0.0576536
nr_sv 16 17
SV
32 1:1 2:0 3:0 4:1 5:8 6:12 7:4 8:2 9:4 10:3 11:4 12:2 13:0 14:0 15:0 16:0 17:0 18:0 19:0 20:0 21:0 22:0 23:7 24:6 25:3 26:1 27:2 28:6 29:7 30:1 31:1 32:3 33:2 34:2 35:0 36:0 37:0 38:0 39:41 
32 1:0 2:0 3:0 4:0 5:0 6:0 7:7 8:9 9:4 10:4 11:4 12:4 13:4 14:1 15:0 16:0 17:0 18:0 19:0 20:0 21:0 22:0 23:0 24:6 25:8 26:2 27:0 28:1 29:6 30:7 31:1 32:2 33:1 34:1 35:2 36:0 37:0 38:0 39:37 
32 1:0 2:0 3:0 4:0 5:0 6:10 7:10 8:4 9:4 10:3 11:4 12:4 13:2 14:0 15:0 16:0 17:0 18:0 19:0 20:7 21:8 22:2 23:2 24:2 25:7 26:5 27:1 28:2 29:2 30:1 31:2 32:0 33:0 34:0 35:0 36:0 37:0 38:0 39:41 
12.71395068822804 1:0 2:0 3:0 4:0 5:9 6:11 7:4 8:2 9:4 10:3 11:4 12:2 13:0 14:0 15:0 16:0 17:0 18:0 19:0 20:0 21:0 22:0 23:6 24:6 25:2 26:2 27:2 28:7 29:6 30:1 31:2 32:2 33:2 34:1 35:0 36:0 37:0 38:0 39:39 
32 1:0 2:0 3:0 4:0 5:1 6:8 7:11 8:4 9:3 10:4 11:4 12:3 13:2 14:0 15:0 16:0 17:0 18:0 19:0 20:0 21:0 22:0 23:0 24:6 25:8 26:1 27:3 28:2 29:7 30:5 31:1 32:2 33:2 34:2 35:1 36:0 37:0 38:0 39:40 
17.59593967701546 1:1 2:0 3:0 4:7 5:11 6:4 7:4 8:4 9:4 10:4 11:2 12:0 13:0 14:0 15:0 16:0 17:0 18:0 19:0 20:0 21:0 22:0 23:8 24:7 25:2 26:2 27:1 28:7 29:7 30:1 31:2 32:0 33:2 34:2 35:0 36:0 37:0 38:0 39:41 
32 1:0 2:0 3:0 4:0 5:8 6:9 7:4 8:3 9:4 10:4 11:4 12:2 13:0 14:0 15:0 16:0 17:0 18:0 19:0 20:0 21:0 22:0 23:0 24:7 25:7 26:2 27:1 28:2 29:6 30:6 31:1 32:1 33:2 34:2 35:1 36:0 37:0 38:0 39:38 
32 1:0 2:0 3:0 4:0 5:0 6:0 7:8 8:12 9:4 10:4 11:4 12:4 13:4 14:2 15:0 16:0 17:0 18:0 19:0 20:0 21:0 22:8 23:8 24:2 25:2 26:1 27:7 28:6 29:2 30:1 31:2 32:2 33:1 34:0 35:0 36:0 37:0 38:0 39:42 
32 1:0 2:0 3:0 4:0 5:8 6:11 7:3 8:3 9:4 10:4 11:3 12:4 13:1 14:0 15:0 16:0 17:0 18:0 19:0 20:0 21:5 22:7 23:3 24:3 25:3 26:7 27:6 28:1 29:2 30:2 31:1 32:1 33:0 34:0 35:0 36:0 37:0 38:0 39:41 
27.15283409646674 1:0 2:0 3:0 4:0 5:0 6:8 7:12 8:4 9:4 10:3 11:4 12:4 13:2 14:0 15:0 16:0 17:0 18:0 19:0 20:8 21:8 22:2 23:2 24:1 25:6 26:7 27:1 28:1 29:2 30:2 31:1 32:0 33:0 34:0 35:0 36:0 37:0 38:0 39:41 
4.00456477262371 1:0 2:0 3:0 4:0 5:0 6:0 7:7 8:12 9:4 10:4 11:3 12:3 13:4 14:2 15:0 16:0 17:0 18:0 19:0 20:0 21:0 22:0 23:6 24:7 25:2 26:2 27:1 28:7 29:6 30:2 31:1 32:2 33:1 34:2 35:0 36:0 37:0 38:0 39:39 
24.37801112450856 1:0 2:0 3:0 4:0 5:0 6:0 7:8 8:11 9:4 10:4 11:4 12:4 13:3 14:2 15:0 16:0 17:0 18:0 19:0 20:0 21:0 22:6 23:8 24:2 25:1 26:1 27:6 28:7 29:2 30:2 31:2 32:2 33:1 34:0 35:0 36:0 37:0 38:0 39:40 
32 1:0 2:0 3:0 4:0 5:0 6:9 7:12 8:3 9:4 10:4 11:3 12:4 13:2 14:0 15:0 16:0 17:0 18:0 19:0 20:0 21:0 22:0 23:7 24:8 25:2 26:1 27:2 28:6 29:6 30:1 31:2 32:2 33:2 34:2 35:0 36:0 37:0 38:0 39:41 
9.160156102949355 1:0 2:0 3:0 4:0 5:0 6:8 7:12 8:4 9:4 10:4 11:3 12:4 13:2 14:0 15:0 16:0 17:0 18:0 19:0 20:0 21:0 22:1 23:8 24:7 25:2 26:2 27:2 28:6 29:7 30:2 31:1 32:2 33:1 34:0 35:0 36:0 37:0 38:0 39:41 
17.86526453101003 1:0 2:0 3:0 4:8 5:12 6:3 7:4 8:4 9:4 10:4 11:2 12:0 13:0 14:0 15:0 16:0 17:0 18:0 19:0 20:0 21:8 22:8 23:2 24:2 25:1 26:5 27:7 28:2 29:1 30:2 31:1 32:2 33:0 34:0 35:0 36:0 37:0 38:0 39:41 
32 1:1 2:0 3:0 4:0 5:0 6:7 7:11 8:4 9:4 10:4 11:3 12:3 13:3 14:0 15:0 16:0 17:0 18:0 19:0 20:0 21:6 22:7 23:1 24:2 25:3 26:7 27:6 28:2 29:0 30:2 31:3 32:1 33:0 34:0 35:0 36:0 37:0 38:0 39:40 
-23.08985108725229 1:0 2:0 3:0 4:0 5:0 6:6 7:12 8:4 9:2 10:4 11:4 12:3 13:5 14:1 15:0 16:0 17:0 18:0 19:0 20:0 21:0 22:5 23:8 24:2 25:4 26:2 27:8 28:4 29:2 30:1 31:2 32:2 33:1 34:0 35:0 36:0 37:0 38:0 39:41 
-12.78031950768702 1:0 2:0 3:0 4:1 5:8 6:10 7:4 8:4 9:3 10:3 11:3 12:5 13:0 14:1 15:0 16:0 17:0 18:0 19:0 20:6 21:6 22:3 23:2 24:3 25:8 26:5 27:1 28:3 29:1 30:2 31:2 32:0 33:0 34:0 35:0 36:0 37:0 38:0 39:42 
-32 1:0 2:0 3:0 4:0 5:4 6:11 7:3 8:4 9:4 10:3 11:3 12:3 13:1 14:0 15:0 16:0 17:0 18:0 19:0 20:0 21:0 22:0 23:0 24:7 25:6 26:2 27:2 28:2 29:7 30:3 31:1 32:1 33:1 34:2 35:2 36:0 37:0 38:0 39:36 
-19.65018495999124 1:1 2:0 3:0 4:0 5:0 6:0 7:9 8:12 9:4 10:4 11:2 12:3 13:4 14:5 15:1 16:0 17:0 18:0 19:0 20:0 21:6 22:8 23:4 24:4 25:3 26:6 27:6 28:1 29:2 30:2 31:2 32:1 33:0 34:0 35:0 36:0 37:0 38:0 39:45 
-32 1:0 2:0 3:0 4:0 5:0 6:6 7:12 8:3 9:4 10:4 11:4 12:3 13:5 14:0 15:0 16:0 17:0 18:0 19:0 20:6 21:8 22:2 23:2 24:2 25:8 26:4 27:2 28:2 29:1 30:2 31:2 32:0 33:0 34:0 35:0 36:0 37:0 38:0 39:41 
-13.11940777716132 1:0 2:0 3:0 4:0 5:7 6:10 7:4 8:4 9:4 10:4 11:4 12:5 13:1 14:0 15:0 16:0 17:0 18:0 19:0 20:0 21:0 22:0 23:6 24:8 25:3 26:3 27:3 28:7 29:6 30:1 31:1 32:2 33:1 34:2 35:0 36:0 37:0 38:0 39:43 
-20.91569925504351 1:0 2:0 3:0 4:0 5:0 6:0 7:4 8:10 9:4 10:4 11:3 12:4 13:3 14:5 15:1 16:0 17:0 18:0 19:0 20:0 21:0 22:5 23:7 24:2 25:3 26:3 27:8 28:5 29:2 30:0 31:2 32:1 33:0 34:0 35:0 36:0 37:0 38:0 39:38 
-32 1:0 2:0 3:0 4:0 5:8 6:12 7:3 8:4 9:4 10:4 11:2 12:4 13:1 14:0 15:0 16:0 17:0 18:0 19:0 20:0 21:0 22:0 23:5 24:6 25:3 26:3 27:3 28:6 29:7 30:1 31:2 32:2 33:2 34:2 35:0 36:0 37:0 38:0 39:42 
-32 1:0 2:0 3:0 4:0 5:6 6:11 7:4 8:3 9:4 10:3 11:4 12:5 13:1 14:0 15:0 16:0 17:0 18:0 19:0 20:5 21:8 22:3 23:2 24:3 25:7 26:6 27:1 28:1 29:2 30:1 31:2 32:0 33:0 34:0 35:0 36:0 37:0 38:0 39:41 
-29.88894260266614 1:0 2:0 3:0 4:0 5:0 6:0 7:7 8:10 9:4 10:4 11:4 12:3 13:4 14:4 15:1 16:0 17:0 18:0 19:0 20:0 21:0 22:6 23:6 24:2 25:3 26:3 27:7 28:7 29:1 30:2 31:0 32:2 33:2 34:0 35:0 36:0 37:0 38:0 39:41 
-32 1:1 2:0 3:0 4:7 5:12 6:4 7:4 8:3 9:4 10:3 11:4 12:1 13:0 14:0 15:0 16:0 17:0 18:0 19:0 20:0 21:6 22:6 23:3 24:4 25:3 26:7 27:5 28:2 29:1 30:1 31:2 32:2 33:0 34:1 35:0 36:0 37:0 38:0 39:43 
-12.23109166429131 1:0 2:0 3:0 4:0 5:1 6:9 7:12 8:2 9:3 10:4 11:4 12:6 13:3 14:0 15:0 16:0 17:0 18:0 19:0 20:0 21:0 22:0 23:5 24:7 25:3 26:4 27:2 28:4 29:3 30:6 31:4 32:1 33:2 34:2 35:1 36:0 37:0 38:0 39:44 
-31.83908181498354 1:0 2:0 3:0 4:0 5:0 6:7 7:11 8:3 9:4 10:2 11:4 12:4 13:4 14:1 15:0 16:0 17:0 18:0 19:0 20:0 21:0 22:0 23:0 24:5 25:6 26:1 27:3 28:3 29:8 30:5 31:2 32:2 33:2 34:1 35:2 36:0 37:0 38:0 39:40 
-3.372260426995185 1:0 2:0 3:0 4:8 5:11 6:3 7:4 8:4 9:4 10:3 11:5 12:1 13:0 14:0 15:0 16:0 17:0 18:0 19:0 20:6 21:8 22:2 23:4 24:3 25:7 26:6 27:1 28:2 29:1 30:1 31:2 32:0 33:0 34:0 35:0 36:0 37:0 38:0 39:43 
-32 1:0 2:0 3:0 4:0 5:0 6:9 7:11 8:4 9:4 10:4 11:3 12:2 13:3 14:0 15:0 16:0 17:0 18:0 19:0 20:0 21:0 22:0 23:0 24:5 25:7 26:1 27:3 28:2 29:7 30:7 31:1 32:2 33:2 34:1 35:2 36:0 37:0 38:0 39:40 
-32 1:0 2:0 3:0 4:0 5:0 6:6 7:11 8:4 9:3 10:4 11:4 12:4 13:5 14:0 15:0 16:0 17:0 18:0 19:0 20:0 21:0 22:0 23:7 24:7 25:2 26:2 27:3 28:8 29:6 30:2 31:1 32:2 33:1 34:0 35:0 36:0 37:0 38:0 39:41 
-9.983881896730367 1:0 2:0 3:0 4:9 5:11 6:3 7:4 8:4 9:3 10:4 11:5 12:1 13:0 14:0 15:0 16:0 17:0 18:0 19:0 20:0 21:0 22:0 23:6 24:7 25:3 26:4 27:3 28:7 29:7 30:2 31:2 32:0 33:1 34:2 35:0 36:0 37:0 38:0 39:44 
