svm_type c_svc
kernel_type rbf
gamma 0.00012207
nr_class 2
total_sv 37
rho -0.456856
label 0 1
probA -3.4248
probB -0.227289
nr_sv 18 19
SV
2 1:0 2:0 3:0 4:0 5:0 6:0 7:7 8:9 9:4 10:4 11:4 12:4 13:4 14:1 15:0 16:0 17:0 18:0 19:0 20:0 21:0 22:0 23:0 24:6 25:8 26:2 27:0 28:1 29:6 30:7 31:1 32:2 33:1 34:1 35:2 36:0 37:0 38:0 39:37 
2 1:1 2:0 3:0 4:0 5:0 6:7 7:11 8:4 9:4 10:4 11:3 12:3 13:1 14:0 15:0 16:0 17:0 18:0 19:0 20:0 21:6 22:7 23:2 24:1 25:2 26:5 27:6 28:2 29:2 30:1 31:2 32:2 33:0 34:0 35:0 36:0 37:0 38:0 39:38 
2 1:0 2:0 3:0 4:0 5:9 6:11 7:4 8:2 9:4 10:3 11:4 12:2 13:0 14:0 15:0 16:0 17:0 18:0 19:0 20:0 21:0 22:0 23:6 24:6 25:2 26:2 27:2 28:7 29:6 30:1 31:2 32:2 33:2 34:1 35:0 36:0 37:0 38:0 39:39 
2 1:0 2:0 3:0 4:0 5:0 6:2 7:9 8:3 9:3 10:0 11:0 12:1 13:1 14:0 15:0 16:0 17:0 18:0 19:0 20:0 21:0 22:1 23:1 24:2 25:2 26:1 27:3 28:3 29:1 30:1 31:1 32:1 33:1 34:1 35:0 36:0 37:0 38:0 39:19 
2 1:0 2:0 3:0 4:9 5:9 6:4 7:3 8:3 9:4 10:4 11:2 12:0 13:0 14:0 15:0 16:0 17:0 18:0 19:0 20:0 21:0 22:7 23:8 24:2 25:1 26:1 27:5 28:7 29:0 30:2 31:2 32:2 33:1 34:0 35:0 36:0 37:0 38:0 39:38 
2 1:0 2:0 3:0 4:0 5:1 6:8 7:11 8:4 9:3 10:4 11:4 12:3 13:2 14:0 15:0 16:0 17:0 18:0 19:0 20:0 21:0 22:0 23:0 24:6 25:8 26:1 27:3 28:2 29:7 30:5 31:1 32:2 33:2 34:2 35:1 36:0 37:0 38:0 39:40 
0.354963378451251 1:1 2:0 3:0 4:7 5:11 6:4 7:4 8:4 9:4 10:4 11:2 12:0 13:0 14:0 15:0 16:0 17:0 18:0 19:0 20:0 21:0 22:0 23:8 24:7 25:2 26:2 27:1 28:7 29:7 30:1 31:2 32:0 33:2 34:2 35:0 36:0 37:0 38:0 39:41 
2 1:0 2:0 3:0 4:0 5:7 6:12 7:4 8:4 9:3 10:4 11:4 12:0 13:0 14:0 15:0 16:0 17:0 18:0 19:0 20:0 21:0 22:7 23:6 24:1 25:2 26:1 27:7 28:5 29:2 30:2 31:1 32:2 33:2 34:0 35:0 36:0 37:0 38:0 39:38 
2 1:0 2:0 3:0 4:0 5:0 6:0 7:7 8:11 9:4 10:3 11:3 12:4 13:4 14:2 15:0 16:0 17:0 18:0 19:0 20:0 21:0 22:0 23:7 24:8 25:2 26:0 27:2 28:5 29:6 30:2 31:1 32:2 33:2 34:1 35:0 36:0 37:0 38:0 39:38 
2 1:0 2:0 3:0 4:0 5:8 6:9 7:4 8:3 9:4 10:4 11:4 12:2 13:0 14:0 15:0 16:0 17:0 18:0 19:0 20:0 21:0 22:0 23:0 24:7 25:7 26:2 27:1 28:2 29:6 30:6 31:1 32:1 33:2 34:2 35:1 36:0 37:0 38:0 39:38 
2 1:0 2:0 3:0 4:0 5:0 6:0 7:7 8:12 9:4 10:4 11:3 12:3 13:4 14:2 15:0 16:0 17:0 18:0 19:0 20:0 21:0 22:0 23:6 24:7 25:2 26:2 27:1 28:7 29:6 30:2 31:1 32:2 33:1 34:2 35:0 36:0 37:0 38:0 39:39 
2 1:0 2:0 3:0 4:0 5:6 6:10 7:4 8:4 9:4 10:3 11:4 12:2 13:0 14:0 15:0 16:0 17:0 18:0 19:0 20:0 21:6 22:8 23:2 24:1 25:1 26:6 27:6 28:0 29:2 30:2 31:1 32:2 33:0 34:0 35:0 36:0 37:0 38:0 39:37 
2 1:0 2:0 3:0 4:0 5:0 6:0 7:8 8:11 9:4 10:4 11:4 12:4 13:3 14:2 15:0 16:0 17:0 18:0 19:0 20:0 21:0 22:6 23:8 24:2 25:1 26:1 27:6 28:7 29:2 30:2 31:2 32:2 33:1 34:0 35:0 36:0 37:0 38:0 39:40 
1.781517457732844 1:0 2:0 3:0 4:0 5:8 6:11 7:4 8:3 9:4 10:4 11:4 12:2 13:0 14:0 15:0 16:0 17:0 18:0 19:0 20:0 21:7 22:7 23:1 24:2 25:2 26:6 27:7 28:1 29:2 30:2 31:2 32:1 33:0 34:0 35:0 36:0 37:0 38:0 39:40 
2 1:0 2:0 3:0 4:0 5:0 6:0 7:6 8:12 9:3 10:4 11:4 12:4 13:3 14:1 15:0 16:0 17:0 18:0 19:0 20:0 21:0 22:5 23:8 24:1 25:2 26:2 27:6 28:5 29:2 30:1 31:2 32:2 33:1 34:0 35:0 36:0 37:0 38:0 39:37 
2 1:0 2:0 3:0 4:1 5:5 6:12 7:4 8:3 9:4 10:3 11:4 12:1 13:0 14:0 15:0 16:0 17:0 18:0 19:0 20:7 21:5 22:2 23:2 24:2 25:5 26:6 27:1 28:1 29:2 30:2 31:2 32:0 33:0 34:0 35:0 36:0 37:0 38:0 39:37 
2 1:0 2:0 3:0 4:7 5:10 6:4 7:3 8:4 9:4 10:4 11:2 12:0 13:0 14:0 15:0 16:0 17:0 18:0 19:0 20:0 21:0 22:0 23:7 24:7 25:2 26:1 27:0 28:6 29:6 30:2 31:2 32:1 33:2 34:2 35:0 36:0 37:0 38:0 39:38 
2 1:1 2:0 3:0 4:0 5:0 6:7 7:11 8:4 9:4 10:4 11:3 12:3 13:3 14:0 15:0 16:0 17:0 18:0 19:0 20:0 21:6 22:7 23:1 24:2 25:3 26:7 27:6 28:2 29:0 30:2 31:3 32:1 33:0 34:0 35:0 36:0 37:0 38:0 39:40 
-2 1:0 2:0 3:0 4:2 5:1 6:3 7:2 8:6 9:3 10:3 11:3 12:1 13:0 14:0 15:0 16:0 17:0 18:0 19:0 20:0 21:0 22:0 23:3 24:2 25:4 26:2 27:4 28:2 29:2 30:1 31:1 32:1 33:1 34:1 35:0 36:0 37:0 38:0 39:24 
-2 1:2 2:0 3:0 4:0 5:2 6:3 7:3 8:3 9:6 10:2 11:2 12:3 13:1 14:1 15:0 16:0 17:0 18:0 19:0 20:0 21:0 22:1 23:4 24:3 25:5 26:2 27:3 28:3 29:3 30:1 31:1 32:1 33:1 34:0 35:0 36:0 37:0 38:0 39:28 
-2 1:0 2:0 3:0 4:0 5:0 6:0 7:2 8:2 9:3 10:3 11:6 12:2 13:4 14:2 15:1 16:0 17:0 18:0 19:0 20:0 21:0 22:0 23:4 24:3 25:3 26:2 27:4 28:3 29:2 30:1 31:1 32:1 33:1 34:0 35:0 36:0 37:0 38:0 39:25 
-2 1:0 2:0 3:0 4:0 5:3 6:5 7:4 8:4 9:3 10:4 11:4 12:3 13:1 14:0 15:0 16:0 17:0 18:0 19:0 20:0 21:1 22:4 23:2 24:2 25:3 26:3 27:2 28:3 29:3 30:3 31:3 32:2 33:0 34:0 35:0 36:0 37:0 38:0 39:31 
-2 1:0 2:0 3:0 4:0 5:2 6:2 7:2 8:4 9:7 10:2 11:3 12:3 13:1 14:0 15:0 16:0 17:0 18:0 19:0 20:0 21:0 22:0 23:0 24:3 25:3 26:3 27:2 28:4 29:3 30:2 31:1 32:1 33:1 34:2 35:1 36:0 37:0 38:0 39:26 
-2 1:0 2:0 3:0 4:2 5:2 6:3 7:3 8:5 9:3 10:3 11:2 12:1 13:0 14:0 15:0 16:0 17:0 18:0 19:0 20:3 21:4 22:3 23:2 24:3 25:2 26:2 27:1 28:2 29:1 30:1 31:0 32:0 33:0 34:0 35:0 36:0 37:0 38:0 39:24 
-2 1:0 2:0 3:0 4:0 5:1 6:2 7:2 8:3 9:3 10:6 11:2 12:3 13:3 14:1 15:0 16:0 17:0 18:0 19:0 20:0 21:4 22:3 23:4 24:2 25:4 26:3 27:2 28:1 29:1 30:1 31:1 32:0 33:0 34:0 35:0 36:0 37:0 38:0 39:26 
-2 1:0 2:0 3:0 4:2 5:2 6:3 7:3 8:6 9:2 10:2 11:3 12:1 13:0 14:0 15:0 16:0 17:0 18:0 19:0 20:0 21:0 22:0 23:0 24:3 25:3 26:3 27:2 28:4 29:3 30:2 31:1 32:1 33:1 34:1 35:0 36:0 37:0 38:0 39:24 
-2 1:0 2:0 3:0 4:0 5:2 6:2 7:3 8:3 9:6 10:2 11:3 12:3 13:2 14:1 15:1 16:0 17:0 18:0 19:0 20:0 21:0 22:0 23:0 24:3 25:3 26:4 27:2 28:4 29:3 30:2 31:1 32:1 33:1 34:3 35:1 36:0 37:0 38:0 39:28 
-2 1:0 2:0 3:0 4:0 5:1 6:2 7:2 8:3 9:4 10:6 11:2 12:3 13:3 14:1 15:0 16:0 17:0 18:0 19:0 20:0 21:0 22:0 23:0 24:3 25:3 26:5 27:3 28:4 29:3 30:2 31:2 32:0 33:1 34:1 35:0 36:0 37:0 38:0 39:27 
-2 1:0 2:0 3:0 4:0 5:2 6:2 7:3 8:3 9:5 10:2 11:3 12:3 13:1 14:0 15:0 16:0 17:0 18:0 19:0 20:0 21:0 22:3 23:3 24:4 25:2 26:4 27:3 28:2 29:0 30:1 31:1 32:1 33:0 34:0 35:0 36:0 37:0 38:0 39:24 
-2 1:0 2:0 3:0 4:0 5:0 6:2 7:3 8:3 9:3 10:6 11:2 12:2 13:3 14:1 15:1 16:0 17:0 18:0 19:0 20:0 21:0 22:1 23:3 24:3 25:4 26:3 27:3 28:3 29:2 30:1 31:1 32:1 33:1 34:0 35:0 36:0 37:0 38:0 39:26 
-0.1497916979712356 1:0 2:0 3:0 4:0 5:2 6:2 7:2 8:4 9:6 10:2 11:4 12:2 13:0 14:0 15:0 16:0 17:0 18:0 19:0 20:0 21:0 22:0 23:0 24:2 25:3 26:3 27:2 28:4 29:3 30:3 31:1 32:1 33:1 34:1 35:0 36:0 37:0 38:0 39:24 
-2 1:1 2:0 3:0 4:0 5:0 6:2 7:2 8:3 9:2 10:6 11:2 12:3 13:3 14:1 15:1 16:0 17:0 18:0 19:0 20:0 21:0 22:0 23:4 24:3 25:4 26:2 27:3 28:3 29:1 30:2 31:1 32:1 33:2 34:0 35:0 36:0 37:0 38:0 39:26 
-2 1:0 2:0 3:0 4:0 5:2 6:2 7:2 8:3 9:6 10:2 11:3 12:3 13:1 14:0 15:0 16:0 17:0 18:0 19:0 20:0 21:3 22:3 23:4 24:2 25:3 26:3 27:2 28:1 29:1 30:1 31:1 32:0 33:0 34:0 35:0 36:0 37:0 38:0 39:24 
-2 1:2 2:0 3:1 4:2 5:3 6:3 7:3 8:7 9:2 10:3 11:3 12:1 13:0 14:0 15:0 16:0 17:0 18:0 19:0 20:0 21:0 22:5 23:3 24:4 25:3 26:5 27:3 28:2 29:1 30:1 31:1 32:1 33:1 34:0 35:0 36:0 37:0 38:0 39:30 
-2 1:0 2:0 3:0 4:2 5:2 6:3 7:3 8:7 9:3 10:3 11:3 12:1 13:0 14:0 15:0 16:0 17:0 18:0 19:0 20:0 21:0 22:0 23:3 24:3 25:4 26:2 27:4 28:3 29:2 30:1 31:1 32:1 33:1 34:2 35:0 36:0 37:0 38:0 39:27 
-1.33663219356964 1:0 2:0 3:0 4:0 5:2 6:2 7:2 8:3 9:6 10:2 11:3 12:3 13:1 14:0 15:0 16:0 17:0 18:0 19:0 20:0 21:0 22:0 23:3 24:3 25:4 26:1 27:4 28:3 29:2 30:1 31:1 32:1 33:1 34:0 35:0 36:0 37:0 38:0 39:24 
-0.6500569446432194 1:0 2:0 3:0 4:2 5:3 6:2 7:3 8:4 9:2 10:3 11:3 12:1 13:0 14:0 15:0 16:0 17:0 18:0 19:0 20:0 21:0 22:0 23:4 24:3 25:4 26:0 27:4 28:4 29:2 30:1 31:0 32:1 33:0 34:0 35:0 36:0 37:0 38:0 39:23 
