svm_type c_svc
kernel_type rbf
gamma 0.0078125
nr_class 2
total_sv 48
rho 0.110446
label 0 1
probA -4.71148
probB 0.0199576
nr_sv 22 26
SV
0.5942565226441072 1:2 2:6 3:8 4:0 5:4 6:7 7:4 8:4 9:4 10:3 11:6 12:7 13:8 14:5 15:0 16:0 17:0 18:0 19:0 20:0 21:0 22:0 23:5 24:7 25:5 26:4 27:4 28:4 29:6 30:8 31:4 32:5 33:10 34:6 35:0 36:0 37:0 38:0 39:68 
0.6833290875671516 1:8 2:0 3:0 4:0 5:0 6:4 7:8 8:4 9:4 10:4 11:2 12:6 13:7 14:7 15:6 16:0 17:0 18:0 19:0 20:0 21:4 22:7 23:6 24:2 25:2 26:2 27:7 28:7 29:3 30:5 31:8 32:5 33:1 34:1 35:0 36:0 37:0 38:0 39:60 
0.3249865955929685 1:2 2:5 3:7 4:0 5:1 6:3 7:6 8:4 9:4 10:4 11:4 12:5 13:5 14:5 15:3 16:0 17:0 18:0 19:0 20:5 21:7 22:4 23:2 24:1 25:4 26:5 27:6 28:4 29:5 30:8 31:6 32:1 33:0 34:0 35:0 36:0 37:0 38:0 39:58 
0.6620659997437461 1:3 2:8 3:8 4:0 5:0 6:4 7:7 8:4 9:4 10:4 11:4 12:6 13:6 14:6 15:5 16:0 17:0 18:0 19:0 20:5 21:7 22:4 23:1 24:2 25:2 26:6 27:7 28:5 29:5 30:9 31:7 32:2 33:2 34:3 35:2 36:0 37:0 38:0 39:69 
1.088206030207262 1:0 2:0 3:0 4:0 5:0 6:0 7:4 8:6 9:2 10:2 11:4 12:3 13:5 14:6 15:7 16:5 17:0 18:0 19:0 20:0 21:0 22:2 23:7 24:5 25:2 26:2 27:2 28:6 29:5 30:2 31:1 32:7 33:3 34:0 35:0 36:0 37:0 38:0 39:44 
0.6931205418467076 1:8 2:0 3:0 4:0 5:4 6:8 7:4 8:4 9:4 10:4 11:6 12:6 13:6 14:5 15:0 16:0 17:0 18:0 19:0 20:5 21:7 22:3 23:1 24:3 25:3 26:7 27:7 28:3 29:5 30:9 31:6 32:0 33:0 34:0 35:0 36:0 37:0 38:0 39:59 
0.05432605777784017 1:0 2:0 3:0 4:0 5:4 6:8 7:4 8:2 9:4 10:4 11:6 12:6 13:7 14:6 15:0 16:0 17:0 18:0 19:0 20:0 21:0 22:4 23:7 24:4 25:2 26:2 27:2 28:6 29:6 30:2 31:4 32:8 33:4 34:0 35:0 36:0 37:0 38:0 39:51 
0.6972333986417357 1:0 2:0 3:0 4:0 5:0 6:0 7:3 8:7 9:4 10:4 11:3 12:4 13:6 14:7 15:8 16:5 17:0 18:0 19:0 20:5 21:6 22:5 23:2 24:2 25:1 26:6 27:6 28:0 29:4 30:8 31:5 32:1 33:0 34:0 35:0 36:0 37:0 38:0 39:51 
0.1036864417622611 1:0 2:0 3:0 4:0 5:0 6:4 7:8 8:3 9:4 10:4 11:4 12:6 13:7 14:6 15:5 16:0 17:0 18:0 19:0 20:5 21:7 22:5 23:2 24:2 25:2 26:4 27:6 28:2 29:3 30:8 31:5 32:0 33:0 34:0 35:0 36:0 37:0 38:0 39:51 
0.2425751014275839 1:0 2:0 3:0 4:0 5:3 6:7 7:4 8:5 9:4 10:4 11:6 12:7 13:7 14:6 15:0 16:0 17:0 18:0 19:0 20:0 21:0 22:5 23:7 24:6 25:2 26:2 27:1 28:6 29:6 30:1 31:4 32:8 33:5 34:0 35:0 36:0 37:0 38:0 39:53 
0.489188123455998 1:0 2:0 3:0 4:0 5:4 6:8 7:4 8:3 9:4 10:4 11:5 12:6 13:6 14:6 15:0 16:0 17:0 18:0 19:0 20:5 21:6 22:5 23:2 24:2 25:2 26:6 27:6 28:2 29:3 30:7 31:4 32:0 33:0 34:0 35:0 36:0 37:0 38:0 39:50 
0.7229058748800324 1:7 2:8 3:0 4:0 5:4 6:8 7:4 8:4 9:4 10:3 11:6 12:7 13:5 14:6 15:1 16:0 17:0 18:0 19:0 20:0 21:0 22:0 23:0 24:6 25:9 26:7 27:4 28:4 29:3 30:8 31:6 32:4 33:3 34:7 35:6 36:0 37:0 38:0 39:67 
0.1378757978821921 1:0 2:0 3:0 4:0 5:0 6:3 7:8 8:3 9:3 10:4 11:3 12:6 13:7 14:7 15:5 16:0 17:0 18:0 19:0 20:0 21:4 22:6 23:5 24:2 25:2 26:2 27:6 28:5 29:2 30:4 31:6 32:5 33:0 34:0 35:0 36:0 37:0 38:0 39:49 
0.2599266623682011 1:0 2:0 3:0 4:0 5:3 6:8 7:4 8:4 9:4 10:5 11:5 12:7 13:5 14:4 15:0 16:0 17:0 18:0 19:0 20:0 21:4 22:7 23:2 24:1 25:2 26:2 27:6 28:4 29:3 30:5 31:8 32:5 33:0 34:0 35:0 36:0 37:0 38:0 39:49 
0.3473600522183338 1:0 2:0 3:0 4:0 5:0 6:4 7:8 8:4 9:4 10:2 11:3 12:5 13:6 14:6 15:6 16:0 17:0 18:0 19:0 20:0 21:0 22:4 23:6 24:5 25:1 26:2 27:2 28:5 29:5 30:2 31:4 32:7 33:5 34:0 35:0 36:0 37:0 38:0 39:48 
0.4931440604839933 1:0 2:0 3:0 4:0 5:3 6:7 7:4 8:4 9:3 10:4 11:6 12:5 13:6 14:5 15:0 16:0 17:0 18:0 19:0 20:0 21:0 22:0 23:5 24:7 25:5 26:2 27:2 28:2 29:5 30:3 31:2 32:4 33:6 34:4 35:0 36:0 37:0 38:0 39:47 
0.5473170511485929 1:0 2:0 3:0 4:0 5:4 6:8 7:4 8:3 9:4 10:3 11:5 12:7 13:5 14:6 15:0 16:0 17:0 18:0 19:0 20:0 21:0 22:0 23:5 24:7 25:5 26:1 27:2 28:2 29:6 30:5 31:2 32:4 33:5 34:5 35:0 36:0 37:0 38:0 39:49 
0.8610363754406649 1:7 2:6 3:0 4:4 5:7 6:3 7:4 8:4 9:4 10:5 11:6 12:7 13:6 14:0 15:0 16:0 17:0 18:0 19:0 20:0 21:0 22:0 23:4 24:7 25:5 26:2 27:3 28:3 29:8 30:6 31:2 32:5 33:10 34:7 35:1 36:0 37:0 38:0 39:63 
0.4935318924686063 1:0 2:0 3:0 4:0 5:3 6:7 7:4 8:4 9:4 10:4 11:5 12:5 13:6 14:6 15:0 16:0 17:0 18:0 19:0 20:0 21:4 22:6 23:5 24:1 25:1 26:2 27:7 28:6 29:1 30:4 31:6 32:5 33:0 34:0 35:0 36:0 37:0 38:0 39:48 
0.04224437084150402 1:2 2:6 3:6 4:0 5:3 6:7 7:4 8:3 9:4 10:4 11:5 12:7 13:7 14:5 15:1 16:0 17:0 18:0 19:0 20:0 21:0 22:0 23:5 24:7 25:5 26:2 27:4 28:4 29:8 30:6 31:4 32:5 33:9 34:5 35:0 36:0 37:0 38:0 39:64 
0.613155385587359 1:2 2:6 3:8 4:0 5:0 6:4 7:6 8:3 9:4 10:3 11:4 12:6 13:7 14:7 15:5 16:0 17:0 18:0 19:0 20:0 21:0 22:0 23:0 24:7 25:9 26:6 27:4 28:2 29:4 30:7 31:7 32:3 33:4 34:7 35:5 36:0 37:0 38:0 39:65 
0.8226933319240947 1:1 2:7 3:7 4:0 5:0 6:0 7:4 8:8 9:4 10:4 11:4 12:2 13:6 14:6 15:6 16:6 17:0 18:0 19:0 20:0 21:3 22:6 23:5 24:4 25:4 26:4 27:7 28:8 29:3 30:5 31:9 32:7 33:0 34:0 35:0 36:0 37:0 38:0 39:65 
-0.4055698104818404 1:0 2:0 3:0 4:7 5:12 6:2 7:2 8:2 9:2 10:2 11:2 12:11 13:0 14:0 15:0 16:0 17:0 18:0 19:0 20:0 21:0 22:0 23:0 24:3 25:2 26:3 27:3 28:2 29:9 30:8 31:3 32:2 33:2 34:3 35:2 36:0 37:0 38:0 39:42 
-0.3138068519734856 1:0 2:0 3:0 4:0 5:7 6:12 7:3 8:2 9:1 10:2 11:2 12:2 13:9 14:0 15:0 16:0 17:0 18:0 19:0 20:0 21:0 22:0 23:0 24:4 25:2 26:2 27:1 28:2 29:8 30:8 31:3 32:3 33:3 34:2 35:2 36:0 37:0 38:0 39:40 
-0.3813984147069109 1:0 2:0 3:0 4:0 5:7 6:10 7:2 8:2 9:2 10:2 11:2 12:2 13:7 14:0 15:0 16:0 17:0 18:0 19:0 20:0 21:3 22:3 23:2 24:1 25:2 26:9 27:9 28:2 29:2 30:2 31:1 32:0 33:0 34:0 35:0 36:0 37:0 38:0 39:36 
-0.470972172577408 1:0 2:0 3:0 4:7 5:10 6:2 7:2 8:2 9:2 10:2 11:2 12:11 13:0 14:0 15:0 16:0 17:0 18:0 19:0 20:0 21:0 22:0 23:3 24:3 25:3 26:2 27:3 28:8 29:9 30:3 31:3 32:2 33:1 34:0 35:0 36:0 37:0 38:0 39:40 
-0.01205425083010096 1:0 2:0 3:0 4:0 5:0 6:0 7:7 8:12 9:1 10:2 11:2 12:2 13:2 14:2 15:8 16:0 17:0 18:0 19:0 20:0 21:0 22:3 23:2 24:3 25:2 26:3 27:6 28:9 29:2 30:2 31:2 32:2 33:2 34:0 35:0 36:0 37:0 38:0 39:38 
-0.1825300752999318 1:0 2:0 3:0 4:0 5:0 6:9 7:12 8:2 9:2 10:1 11:2 12:2 13:2 14:9 15:0 16:0 17:0 18:0 19:0 20:0 21:0 22:0 23:3 24:2 25:1 26:2 27:3 28:9 29:7 30:3 31:3 32:3 33:3 34:2 35:0 36:0 37:0 38:0 39:41 
-0.4507334262847267 1:0 2:0 3:0 4:0 5:0 6:0 7:7 8:11 9:0 10:1 11:2 12:0 13:2 14:2 15:7 16:0 17:0 18:0 19:0 20:0 21:2 22:2 23:1 24:3 25:3 26:7 27:5 28:3 29:2 30:3 31:1 32:0 33:0 34:0 35:0 36:0 37:0 38:0 39:32 
-0.3679807454561643 1:0 2:0 3:0 4:0 5:0 6:0 7:9 8:11 9:2 10:2 11:2 12:2 13:2 14:2 15:10 16:0 17:0 18:0 19:0 20:0 21:0 22:0 23:3 24:2 25:2 26:2 27:3 28:9 29:9 30:3 31:2 32:3 33:2 34:2 35:0 36:0 37:0 38:0 39:42 
-0.04484820351604308 1:0 2:0 3:0 4:0 5:1 6:10 7:11 8:2 9:2 10:1 11:2 12:2 13:2 14:10 15:0 16:0 17:0 18:0 19:1 20:2 21:3 22:3 23:2 24:3 25:8 26:9 27:3 28:3 29:1 30:3 31:2 32:0 33:0 34:0 35:0 36:0 37:0 38:0 39:43 
-0.3994982157446935 1:0 2:0 3:0 4:0 5:0 6:0 7:8 8:12 9:1 10:1 11:2 12:3 13:2 14:2 15:9 16:1 17:0 18:0 19:0 20:0 21:0 22:0 23:0 24:2 25:3 26:3 27:2 28:4 29:7 30:7 31:3 32:3 33:3 34:3 35:1 36:0 37:0 38:0 39:41 
-0.9035975045282441 1:6 2:8 3:0 4:7 5:10 6:2 7:2 8:2 9:2 10:2 11:2 12:9 13:1 14:0 15:0 16:0 17:0 18:0 19:0 20:0 21:0 22:0 23:0 24:3 25:2 26:3 27:4 28:4 29:11 30:10 31:4 32:3 33:3 34:2 35:4 36:0 37:0 38:0 39:53 
-0.9370562278104498 1:1 2:6 3:6 4:0 5:0 6:10 7:11 8:2 9:2 10:2 11:2 12:3 13:2 14:8 15:0 16:0 17:0 18:0 19:0 20:0 21:0 22:0 23:0 24:4 25:6 26:4 27:3 28:4 29:11 30:8 31:5 32:4 33:1 34:3 35:2 36:0 37:0 38:0 39:55 
-0.5745504552209316 1:0 2:0 3:0 4:7 5:11 6:2 7:2 8:1 9:1 10:1 11:2 12:8 13:0 14:0 15:1 16:1 17:0 18:0 19:0 20:2 21:3 22:3 23:3 24:1 25:5 26:9 27:2 28:3 29:3 30:2 31:1 32:0 33:0 34:0 35:0 36:0 37:0 38:0 39:37 
-0.5561707387370665 1:0 2:0 3:0 4:0 5:9 6:10 7:2 8:2 9:1 10:2 11:2 12:2 13:11 14:0 15:0 16:0 17:0 18:0 19:0 20:0 21:0 22:3 23:3 24:3 25:1 26:3 27:6 28:9 29:3 30:3 31:3 32:3 33:1 34:0 35:0 36:0 37:0 38:0 39:41 
-0.393361672326991 1:1 2:0 3:0 4:0 5:0 6:0 7:9 8:10 9:2 10:2 11:2 12:2 13:2 14:1 15:9 16:0 17:0 18:0 19:0 20:0 21:0 22:1 23:3 24:3 25:2 26:2 27:8 28:9 29:3 30:2 31:3 32:2 33:2 34:0 35:0 36:0 37:0 38:0 39:40 
-0.5344019625132294 1:7 2:0 3:0 4:0 5:0 6:12 7:12 8:2 9:2 10:2 11:2 12:2 13:1 14:11 15:0 16:0 17:0 18:0 19:0 20:0 21:3 22:3 23:3 24:2 25:3 26:9 27:8 28:4 29:4 30:4 31:4 32:3 33:2 34:0 35:1 36:0 37:0 38:0 39:53 
-0.4342556482631335 1:0 2:0 3:0 4:0 5:10 6:11 7:2 8:2 9:2 10:2 11:2 12:2 13:10 14:0 15:0 16:0 17:0 18:0 19:0 20:0 21:0 22:0 23:0 24:3 25:2 26:3 27:3 28:3 29:9 30:9 31:3 32:2 33:2 34:3 35:1 36:0 37:0 38:0 39:43 
-0.5011827098631982 1:2 2:0 3:0 4:0 5:0 6:9 7:11 8:2 9:2 10:2 11:1 12:1 13:3 14:10 15:0 16:0 17:0 18:0 19:0 20:1 21:2 22:3 23:3 24:2 25:3 26:3 27:7 28:8 29:0 30:3 31:4 32:3 33:1 34:0 35:0 36:0 37:0 38:0 39:43 
-0.3046931828033348 1:0 2:0 3:0 4:0 5:0 6:11 7:12 8:2 9:2 10:2 11:2 12:2 13:2 14:12 15:0 16:0 17:0 18:0 19:0 20:0 21:3 22:2 23:3 24:3 25:3 26:9 27:9 28:3 29:3 30:3 31:3 32:3 33:0 34:0 35:0 36:0 37:0 38:0 39:47 
-0.478116881237147 1:0 2:0 3:0 4:0 5:6 6:11 7:2 8:2 9:2 10:2 11:2 12:1 13:11 14:0 15:0 16:0 17:0 18:0 19:0 20:2 21:3 22:3 23:3 24:3 25:8 26:8 27:2 28:3 29:2 30:2 31:0 32:0 33:0 34:0 35:0 36:0 37:0 38:0 39:39 
-0.446493026234308 1:0 2:0 3:0 4:0 5:1 6:6 7:12 8:2 9:2 10:2 11:2 12:2 13:2 14:9 15:0 16:0 17:0 18:0 19:0 20:2 21:2 22:2 23:2 24:3 25:9 26:9 27:2 28:2 29:2 30:3 31:2 32:0 33:0 34:0 35:0 36:0 37:0 38:0 39:40 
-0.194637096626348 1:0 2:0 3:0 4:0 5:0 6:0 7:9 8:11 9:1 10:1 11:1 12:2 13:2 14:2 15:8 16:0 17:0 18:0 19:0 20:0 21:3 22:3 23:1 24:2 25:2 26:8 27:6 28:2 29:2 30:3 31:3 32:2 33:0 34:0 35:0 36:0 37:0 38:0 39:37 
-0.7996428824468955 1:8 2:6 3:0 4:0 5:0 6:10 7:12 8:2 9:2 10:2 11:2 12:2 13:2 14:11 15:0 16:0 17:0 18:0 19:0 20:3 21:3 22:3 23:3 24:3 25:10 26:11 27:5 28:4 29:4 30:5 31:3 32:0 33:2 34:0 35:0 36:0 37:0 38:0 39:59 
-0.368319881940804 1:0 2:0 3:0 4:0 5:0 6:10 7:12 8:2 9:2 10:2 11:2 12:2 13:1 14:8 15:0 16:0 17:0 18:0 19:0 20:0 21:0 22:0 23:0 24:1 25:2 26:3 27:3 28:2 29:8 30:8 31:3 32:3 33:3 34:3 35:2 36:0 37:0 38:0 39:41 
-0.2489557406286828 1:0 2:0 3:0 4:0 5:0 6:1 7:7 8:12 9:3 10:2 11:2 12:2 13:1 14:2 15:10 16:0 17:0 18:0 19:0 20:0 21:0 22:0 23:3 24:2 25:2 26:3 27:3 28:8 29:8 30:3 31:3 32:2 33:4 34:1 35:0 36:0 37:0 38:0 39:42 
-0.2693369778588664 1:0 2:0 3:0 4:0 5:0 6:7 7:10 8:1 9:2 10:2 11:2 12:2 13:2 14:11 15:0 16:0 17:0 18:0 19:0 20:0 21:0 22:0 23:2 24:2 25:2 26:3 27:2 28:8 29:7 30:3 31:3 32:3 33:2 34:2 35:0 36:0 37:0 38:0 39:39 
