svm_type c_svc
kernel_type rbf
gamma 0.0078125
nr_class 2
total_sv 55
rho 0.150197
label 0 1
probA -5.15004
probB -0.0154078
nr_sv 22 33
SV
0.5850815325701514 1:2 2:6 3:8 4:0 5:4 6:7 7:4 8:4 9:4 10:3 11:6 12:7 13:8 14:5 15:0 16:0 17:0 18:0 19:0 20:0 21:0 22:0 23:5 24:7 25:5 26:4 27:4 28:4 29:6 30:8 31:4 32:5 33:10 34:6 35:0 36:0 37:0 38:0 39:68 
0.7247491449503494 1:8 2:0 3:0 4:0 5:0 6:4 7:8 8:4 9:4 10:4 11:2 12:6 13:7 14:7 15:6 16:0 17:0 18:0 19:0 20:0 21:4 22:7 23:6 24:2 25:2 26:2 27:7 28:7 29:3 30:5 31:8 32:5 33:1 34:1 35:0 36:0 37:0 38:0 39:60 
0.4550504510646743 1:2 2:5 3:7 4:0 5:1 6:3 7:6 8:4 9:4 10:4 11:4 12:5 13:5 14:5 15:3 16:0 17:0 18:0 19:0 20:5 21:7 22:4 23:2 24:1 25:4 26:5 27:6 28:4 29:5 30:8 31:6 32:1 33:0 34:0 35:0 36:0 37:0 38:0 39:58 
0.6610831964579145 1:3 2:8 3:8 4:0 5:0 6:4 7:7 8:4 9:4 10:4 11:4 12:6 13:6 14:6 15:5 16:0 17:0 18:0 19:0 20:5 21:7 22:4 23:1 24:2 25:2 26:6 27:7 28:5 29:5 30:9 31:7 32:2 33:2 34:3 35:2 36:0 37:0 38:0 39:69 
0.9558977992632856 1:0 2:0 3:0 4:0 5:0 6:0 7:4 8:6 9:2 10:2 11:4 12:3 13:5 14:6 15:7 16:5 17:0 18:0 19:0 20:0 21:0 22:2 23:7 24:5 25:2 26:2 27:2 28:6 29:5 30:2 31:1 32:7 33:3 34:0 35:0 36:0 37:0 38:0 39:44 
0.893169394546571 1:8 2:0 3:0 4:0 5:4 6:8 7:4 8:4 9:4 10:4 11:6 12:6 13:6 14:5 15:0 16:0 17:0 18:0 19:0 20:5 21:7 22:3 23:1 24:3 25:3 26:7 27:7 28:3 29:5 30:9 31:6 32:0 33:0 34:0 35:0 36:0 37:0 38:0 39:59 
0.07661125731460383 1:0 2:0 3:0 4:0 5:4 6:8 7:4 8:2 9:4 10:4 11:6 12:6 13:7 14:6 15:0 16:0 17:0 18:0 19:0 20:0 21:0 22:4 23:7 24:4 25:2 26:2 27:2 28:6 29:6 30:2 31:4 32:8 33:4 34:0 35:0 36:0 37:0 38:0 39:51 
0.7707783475576201 1:0 2:0 3:0 4:0 5:0 6:0 7:3 8:7 9:4 10:4 11:3 12:4 13:6 14:7 15:8 16:5 17:0 18:0 19:0 20:5 21:6 22:5 23:2 24:2 25:1 26:6 27:6 28:0 29:4 30:8 31:5 32:1 33:0 34:0 35:0 36:0 37:0 38:0 39:51 
0.1011777675761396 1:0 2:0 3:0 4:0 5:0 6:4 7:8 8:3 9:4 10:4 11:4 12:6 13:7 14:6 15:5 16:0 17:0 18:0 19:0 20:5 21:7 22:5 23:2 24:2 25:2 26:4 27:6 28:2 29:3 30:8 31:5 32:0 33:0 34:0 35:0 36:0 37:0 38:0 39:51 
0.3372985084532885 1:0 2:0 3:0 4:0 5:3 6:7 7:4 8:5 9:4 10:4 11:6 12:7 13:7 14:6 15:0 16:0 17:0 18:0 19:0 20:0 21:0 22:5 23:7 24:6 25:2 26:2 27:1 28:6 29:6 30:1 31:4 32:8 33:5 34:0 35:0 36:0 37:0 38:0 39:53 
0.3823461414625008 1:0 2:0 3:0 4:0 5:4 6:8 7:4 8:3 9:4 10:4 11:5 12:6 13:6 14:6 15:0 16:0 17:0 18:0 19:0 20:5 21:6 22:5 23:2 24:2 25:2 26:6 27:6 28:2 29:3 30:7 31:4 32:0 33:0 34:0 35:0 36:0 37:0 38:0 39:50 
0.7843924639733647 1:7 2:8 3:0 4:0 5:4 6:8 7:4 8:4 9:4 10:3 11:6 12:7 13:5 14:6 15:1 16:0 17:0 18:0 19:0 20:0 21:0 22:0 23:0 24:6 25:9 26:7 27:4 28:4 29:3 30:8 31:6 32:4 33:3 34:7 35:6 36:0 37:0 38:0 39:67 
0.1250689265566287 1:0 2:0 3:0 4:0 5:0 6:3 7:8 8:3 9:3 10:4 11:3 12:6 13:7 14:7 15:5 16:0 17:0 18:0 19:0 20:0 21:4 22:6 23:5 24:2 25:2 26:2 27:6 28:5 29:2 30:4 31:6 32:5 33:0 34:0 35:0 36:0 37:0 38:0 39:49 
0.8251192035671073 1:0 2:0 3:0 4:0 5:3 6:8 7:4 8:4 9:4 10:5 11:5 12:7 13:5 14:4 15:0 16:0 17:0 18:0 19:0 20:0 21:4 22:7 23:2 24:1 25:2 26:2 27:6 28:4 29:3 30:5 31:8 32:5 33:0 34:0 35:0 36:0 37:0 38:0 39:49 
0.4040660795795329 1:0 2:0 3:0 4:0 5:0 6:4 7:8 8:4 9:4 10:2 11:3 12:5 13:6 14:6 15:6 16:0 17:0 18:0 19:0 20:0 21:0 22:4 23:6 24:5 25:1 26:2 27:2 28:5 29:5 30:2 31:4 32:7 33:5 34:0 35:0 36:0 37:0 38:0 39:48 
1.191984609948185 1:0 2:0 3:0 4:0 5:3 6:7 7:4 8:4 9:3 10:4 11:6 12:5 13:6 14:5 15:0 16:0 17:0 18:0 19:0 20:0 21:0 22:0 23:5 24:7 25:5 26:2 27:2 28:2 29:5 30:3 31:2 32:4 33:6 34:4 35:0 36:0 37:0 38:0 39:47 
0.2178673601258539 1:0 2:0 3:0 4:0 5:4 6:8 7:4 8:3 9:4 10:3 11:5 12:7 13:5 14:6 15:0 16:0 17:0 18:0 19:0 20:0 21:0 22:0 23:5 24:7 25:5 26:1 27:2 28:2 29:6 30:5 31:2 32:4 33:5 34:5 35:0 36:0 37:0 38:0 39:49 
0.9934766223540974 1:7 2:6 3:0 4:4 5:7 6:3 7:4 8:4 9:4 10:5 11:6 12:7 13:6 14:0 15:0 16:0 17:0 18:0 19:0 20:0 21:0 22:0 23:4 24:7 25:5 26:2 27:3 28:3 29:8 30:6 31:2 32:5 33:10 34:7 35:1 36:0 37:0 38:0 39:63 
0.2195676710742165 1:0 2:0 3:0 4:0 5:3 6:7 7:4 8:4 9:4 10:4 11:5 12:5 13:6 14:6 15:0 16:0 17:0 18:0 19:0 20:0 21:4 22:6 23:5 24:1 25:1 26:2 27:7 28:6 29:1 30:4 31:6 32:5 33:0 34:0 35:0 36:0 37:0 38:0 39:48 
0.1304735677299654 1:2 2:6 3:6 4:0 5:3 6:7 7:4 8:3 9:4 10:4 11:5 12:7 13:7 14:5 15:1 16:0 17:0 18:0 19:0 20:0 21:0 22:0 23:5 24:7 25:5 26:2 27:4 28:4 29:8 30:6 31:4 32:5 33:9 34:5 35:0 36:0 37:0 38:0 39:64 
0.6032535412982364 1:2 2:6 3:8 4:0 5:0 6:4 7:6 8:3 9:4 10:3 11:4 12:6 13:7 14:7 15:5 16:0 17:0 18:0 19:0 20:0 21:0 22:0 23:0 24:7 25:9 26:6 27:4 28:2 29:4 30:7 31:7 32:3 33:4 34:7 35:5 36:0 37:0 38:0 39:65 
0.9180453590607923 1:1 2:7 3:7 4:0 5:0 6:0 7:4 8:8 9:4 10:4 11:4 12:2 13:6 14:6 15:6 16:6 17:0 18:0 19:0 20:0 21:3 22:6 23:5 24:4 25:4 26:4 27:7 28:8 29:3 30:5 31:9 32:7 33:0 34:0 35:0 36:0 37:0 38:0 39:65 
-1.03411479459389 1:2 2:1 3:8 4:6 5:0 6:0 7:8 8:12 9:1 10:4 11:4 12:3 13:5 14:3 15:0 16:0 17:0 18:0 19:0 20:2 21:1 22:2 23:4 24:6 25:4 26:2 27:5 28:7 29:5 30:7 31:7 32:1 33:2 34:2 35:0 36:0 37:0 38:0 39:57 
-0.6692115775473716 1:3 2:7 3:1 4:0 5:0 6:7 7:11 8:2 9:4 10:4 11:3 12:7 13:4 14:0 15:0 16:0 17:0 18:0 19:0 20:0 21:0 22:1 23:3 24:3 25:5 26:8 27:5 28:5 29:4 30:3 31:3 32:7 33:6 34:0 35:0 36:0 37:0 38:0 39:53 
-0.1408846172756391 1:0 2:0 3:0 4:0 5:1 6:9 7:12 8:2 9:3 10:3 11:4 12:5 13:2 14:0 15:0 16:0 17:0 18:0 19:0 20:0 21:0 22:0 23:2 24:2 25:2 26:5 27:6 28:3 29:4 30:3 31:3 32:2 33:6 34:3 35:0 36:0 37:0 38:0 39:41 
-0.04134484235548264 1:8 2:0 3:0 4:1 5:8 6:11 7:2 8:4 9:4 10:4 11:6 12:3 13:0 14:0 15:0 16:0 17:0 18:0 19:0 20:0 21:0 22:0 23:1 24:3 25:3 26:3 27:5 28:7 29:4 30:4 31:5 32:2 33:3 34:7 35:4 36:0 37:0 38:0 39:51 
-0.1707917932404026 1:6 2:7 3:0 4:0 5:8 6:11 7:2 8:4 9:4 10:4 11:5 12:3 13:0 14:0 15:0 16:0 17:0 18:0 19:0 20:0 21:0 22:0 23:2 24:2 25:7 26:9 27:4 28:6 29:4 30:5 31:5 32:6 33:4 34:0 35:0 36:0 37:0 38:0 39:54 
-0.3316177219685294 1:2 2:6 3:7 4:11 5:12 6:2 7:2 8:4 9:4 10:6 11:4 12:0 13:0 14:0 15:0 16:0 17:0 18:0 19:0 20:0 21:0 22:2 23:2 24:3 25:7 26:9 27:6 28:5 29:4 30:6 31:3 32:9 33:4 34:0 35:0 36:0 37:0 38:0 39:60 
-0.9257950878292485 1:7 2:7 3:1 4:0 5:0 6:10 7:9 8:2 9:3 10:4 11:4 12:6 13:4 14:0 15:0 16:0 17:0 18:0 19:0 20:2 21:2 22:3 23:5 24:9 25:4 26:5 27:2 28:4 29:5 30:9 31:4 32:2 33:1 34:0 35:0 36:0 37:0 38:0 39:57 
-0.238282807168279 1:0 2:0 3:1 4:8 5:11 6:2 7:3 8:3 9:4 10:6 11:4 12:0 13:0 14:0 15:0 16:0 17:0 18:0 19:0 20:0 21:0 22:1 23:2 24:1 25:1 26:4 27:6 28:4 29:3 30:3 31:4 32:3 33:5 34:5 35:0 36:0 37:0 38:0 39:42 
-0.7885657232054539 1:0 2:0 3:0 4:0 5:0 6:0 7:9 8:12 9:2 10:3 11:4 12:4 13:7 14:4 15:0 16:0 17:0 18:0 19:0 20:0 21:0 22:0 23:1 24:2 25:3 26:4 27:7 28:3 29:4 30:2 31:4 32:3 33:7 34:5 35:0 36:0 37:0 38:0 39:45 
-0.5317015851416883 1:0 2:0 3:0 4:0 5:5 6:12 7:1 8:3 9:4 10:4 11:4 12:4 13:0 14:0 15:0 16:0 17:0 18:0 19:0 20:0 21:0 22:0 23:0 24:1 25:1 26:2 27:3 28:5 29:3 30:2 31:3 32:2 33:3 34:7 35:5 36:0 37:0 38:0 39:37 
-0.4011789844546907 1:0 2:0 3:0 4:0 5:0 6:0 7:8 8:11 9:3 10:3 11:3 12:4 13:7 14:2 15:0 16:0 17:0 18:0 19:0 20:0 21:3 22:2 23:1 24:3 25:7 26:3 27:2 28:3 29:3 30:3 31:7 32:4 33:0 34:0 35:0 36:0 37:0 38:0 39:41 
-0.4628280137811598 1:0 2:0 3:0 4:8 5:12 6:3 7:3 8:2 9:4 10:5 11:4 12:0 13:0 14:0 15:0 16:0 17:0 18:0 19:0 20:2 21:1 22:2 23:5 24:6 25:5 26:3 27:3 28:3 29:3 30:5 31:3 32:0 33:0 34:0 35:0 36:0 37:0 38:0 39:41 
-0.4031950090582172 1:0 2:0 3:0 4:0 5:0 6:8 7:11 8:2 9:3 10:4 11:4 12:6 13:4 14:0 15:0 16:0 17:0 18:0 19:0 20:0 21:2 22:1 23:3 24:3 25:7 26:4 27:4 28:3 29:4 30:1 31:7 32:3 33:0 34:0 35:0 36:0 37:0 38:0 39:42 
-0.01124256802034539 1:0 2:0 3:0 4:0 5:7 6:12 7:4 8:3 9:4 10:3 11:7 12:2 13:0 14:0 15:0 16:0 17:0 18:0 19:0 20:0 21:0 22:1 23:2 24:1 25:2 26:3 27:6 28:3 29:3 30:3 31:4 32:3 33:7 34:4 35:0 36:0 37:0 38:0 39:42 
-0.1167674848145537 1:0 2:0 3:0 4:7 5:12 6:2 7:3 8:4 9:4 10:7 11:3 12:0 13:0 14:0 15:0 16:0 17:0 18:0 19:0 20:0 21:0 22:0 23:2 24:2 25:2 26:4 27:7 28:3 29:3 30:4 31:3 32:2 33:6 34:4 35:0 36:0 37:0 38:0 39:42 
-0.3700103858920464 1:0 2:0 3:0 4:0 5:11 6:12 7:1 8:3 9:4 10:4 11:6 12:4 13:1 14:0 15:0 16:0 17:0 18:0 19:0 20:0 21:0 22:0 23:2 24:2 25:2 26:4 27:6 28:5 29:4 30:3 31:4 32:3 33:7 34:4 35:0 36:0 37:0 38:0 39:46 
-0.4653901092323378 1:0 2:0 3:0 4:0 5:0 6:0 7:7 8:12 9:2 10:4 11:4 12:4 13:6 14:3 15:1 16:0 17:0 18:0 19:0 20:2 21:1 22:1 23:5 24:8 25:3 26:4 27:4 28:1 29:2 30:7 31:5 32:0 33:0 34:0 35:0 36:0 37:0 38:0 39:43 
-0.2673612479383581 1:0 2:0 3:0 4:0 5:0 6:8 7:8 8:2 9:2 10:4 11:3 12:7 13:4 14:0 15:0 16:0 17:0 18:0 19:0 20:0 21:0 22:2 23:1 24:2 25:3 26:6 27:3 28:2 29:4 30:3 31:3 32:6 33:3 34:0 35:0 36:0 37:0 38:0 39:38 
-0.2700168601384221 1:0 2:0 3:0 4:1 5:8 6:12 7:2 8:3 9:3 10:4 11:6 12:4 13:0 14:0 15:0 16:0 17:0 18:0 19:0 20:0 21:2 22:3 23:2 24:5 25:5 26:3 27:4 28:4 29:3 30:2 31:7 32:3 33:0 34:0 35:0 36:0 37:0 38:0 39:43 
-0.2671799857292775 1:9 2:0 3:0 4:7 5:11 6:4 7:3 8:4 9:4 10:6 11:3 12:0 13:0 14:0 15:0 16:0 17:0 18:0 19:0 20:0 21:0 22:2 23:2 24:1 25:4 26:8 27:3 28:5 29:4 30:5 31:4 32:8 33:4 34:1 35:0 36:0 37:0 38:0 39:51 
-0.2242486142944435 1:8 2:0 3:0 4:8 5:11 6:4 7:3 8:3 9:3 10:7 11:3 12:0 13:0 14:0 15:0 16:0 17:0 18:0 19:0 20:1 21:1 22:2 23:5 24:7 25:3 26:6 27:4 28:5 29:4 30:8 31:4 32:0 33:0 34:0 35:0 36:0 37:0 38:0 39:50 
-0.4137971142968601 1:9 2:0 3:0 4:0 5:8 6:12 7:3 8:2 9:4 10:6 11:7 12:4 13:0 14:0 15:0 16:0 17:0 18:0 19:0 20:0 21:1 22:1 23:2 24:3 25:7 26:5 27:6 28:5 29:4 30:6 31:7 32:6 33:1 34:0 35:1 36:0 37:0 38:0 39:55 
-0.1557932664317571 1:0 2:0 3:0 4:0 5:8 6:12 7:2 8:4 9:2 10:4 11:7 12:4 13:0 14:0 15:0 16:0 17:0 18:0 19:0 20:0 21:2 22:1 23:2 24:4 25:7 26:4 27:3 28:4 29:4 30:2 31:6 32:4 33:0 34:0 35:0 36:0 37:0 38:0 39:43 
-0.5458082282443714 1:0 2:0 3:0 4:0 5:0 6:10 7:12 8:2 9:3 10:4 11:3 12:7 13:5 14:0 15:0 16:0 17:0 18:0 19:0 20:0 21:0 22:2 23:2 24:2 25:4 26:6 27:4 28:3 29:4 30:4 31:3 32:7 33:5 34:0 35:0 36:0 37:0 38:0 39:46 
-0.5734648201018956 1:0 2:0 3:0 4:0 5:0 6:0 7:5 8:9 9:2 10:4 11:4 12:4 13:6 14:1 15:2 16:1 17:0 18:0 19:0 20:2 21:1 22:2 23:6 24:5 25:2 26:1 27:3 28:3 29:2 30:7 31:4 32:0 33:0 34:0 35:0 36:0 37:0 38:0 39:38 
-0.1633688225520875 1:8 2:1 3:0 4:0 5:9 6:12 7:3 8:3 9:4 10:5 11:6 12:4 13:0 14:0 15:0 16:0 17:0 18:0 19:0 20:0 21:0 22:2 23:1 24:2 25:6 26:7 27:6 28:5 29:4 30:4 31:4 32:6 33:6 34:2 35:0 36:0 37:0 38:0 39:55 
-0.06617737928762141 1:0 2:0 3:0 4:0 5:8 6:12 7:3 8:4 9:3 10:3 11:7 12:3 13:0 14:0 15:0 16:0 17:0 18:0 19:0 20:0 21:0 22:1 23:1 24:2 25:5 26:7 27:5 28:3 29:2 30:4 31:3 32:6 33:4 34:0 35:0 36:0 37:0 38:0 39:43 
-0.3074932485521615 1:8 2:0 3:0 4:8 5:10 6:2 7:3 8:4 9:4 10:7 11:4 12:0 13:0 14:0 15:0 16:0 17:0 18:0 19:0 20:0 21:0 22:0 23:2 24:3 25:3 26:5 27:8 28:3 29:5 30:4 31:4 32:2 33:7 34:4 35:0 36:0 37:0 38:0 39:50 
-0.4227866984427645 1:7 2:7 3:0 4:0 5:7 6:11 7:3 8:3 9:4 10:3 11:5 12:4 13:0 14:0 15:0 16:0 17:0 18:0 19:0 20:1 21:3 22:1 23:4 24:7 25:4 26:5 27:5 28:5 29:4 30:8 31:7 32:0 33:0 34:0 35:0 36:0 37:0 38:0 39:54 
-0.087928528639551 1:0 2:0 3:0 4:1 5:8 6:12 7:2 8:3 9:4 10:4 11:6 12:2 13:0 14:0 15:0 16:0 17:0 18:0 19:0 20:1 21:2 22:1 23:2 24:5 25:7 26:2 27:4 28:3 29:2 30:3 31:7 32:3 33:0 34:0 35:0 36:0 37:0 38:0 39:42 
-0.400938461731225 1:8 2:0 3:0 4:0 5:7 6:11 7:2 8:3 9:3 10:5 11:7 12:3 13:0 14:0 15:0 16:0 17:0 18:0 19:0 20:0 21:0 22:0 23:0 24:1 25:2 26:1 27:5 28:6 29:5 30:4 31:5 32:5 33:4 34:6 35:5 36:0 37:0 38:0 39:49 
-0.5767770564980937 1:2 2:8 3:8 4:12 5:11 6:2 7:4 8:4 9:4 10:5 11:4 12:0 13:0 14:0 15:0 16:0 17:0 18:0 19:0 20:0 21:0 22:2 23:4 24:5 25:7 26:9 27:5 28:5 29:5 30:6 31:5 32:6 33:5 34:0 35:0 36:0 37:0 38:0 39:64 
-0.5104955080268533 1:4 2:8 3:0 4:10 5:12 6:4 7:2 8:4 9:4 10:5 11:4 12:0 13:0 14:0 15:0 16:0 17:0 18:0 19:0 20:1 21:2 22:3 23:4 24:7 25:3 26:3 27:4 28:6 29:5 30:8 31:6 32:1 33:1 34:2 35:1 36:0 37:0 38:0 39:57 
