svm_type c_svc
kernel_type rbf
gamma 0.0078125
nr_class 2
total_sv 49
rho 0.484175
label 1 0
probA -4.34702
probB 0.0509843
nr_sv 22 27
SV
0.3580035308979638 1:0 2:0 3:0 4:0 5:5 6:7 7:4 8:3 9:3 10:4 11:9 12:0 13:0 14:0 15:0 16:0 17:0 18:0 19:0 20:0 21:0 22:0 23:0 24:0 25:0 26:4 27:7 28:3 29:3 30:3 31:3 32:4 33:6 34:2 35:0 36:0 37:0 38:0 39:35 
0.5 1:0 2:0 3:0 4:0 5:0 6:3 7:5 8:5 9:4 10:3 11:3 12:10 13:0 14:0 15:0 16:0 17:0 18:0 19:0 20:0 21:0 22:0 23:4 24:5 25:2 26:1 27:3 28:3 29:4 30:6 31:3 32:1 33:1 34:0 35:0 36:0 37:0 38:0 39:33 
0.5 1:0 2:0 3:0 4:0 5:0 6:0 7:4 8:7 9:3 10:4 11:2 12:3 13:11 14:0 15:0 16:0 17:0 18:0 19:0 20:0 21:0 22:0 23:4 24:5 25:3 26:3 27:3 28:2 29:4 30:6 31:2 32:1 33:1 34:0 35:0 36:0 37:0 38:0 39:34 
0.5 1:0 2:0 3:0 4:0 5:5 6:7 7:4 8:5 9:2 10:4 11:11 12:0 13:0 14:0 15:0 16:0 17:0 18:0 19:0 20:0 21:0 22:0 23:4 24:6 25:5 26:3 27:3 28:3 29:4 30:5 31:3 32:1 33:1 34:0 35:0 36:0 37:0 38:0 39:38 
0.5 1:0 2:0 3:0 4:4 5:6 6:4 7:4 8:3 9:4 10:11 11:0 12:0 13:0 14:0 15:0 16:0 17:0 18:0 19:0 20:0 21:0 22:0 23:4 24:6 25:3 26:3 27:3 28:3 29:3 30:6 31:3 32:1 33:1 34:0 35:0 36:0 37:0 38:0 39:36 
0.5 1:0 2:0 3:0 4:0 5:0 6:0 7:3 8:6 9:4 10:4 11:4 12:2 13:9 14:0 15:0 16:0 17:0 18:0 19:0 20:0 21:0 22:0 23:0 24:0 25:0 26:0 27:4 28:6 29:3 30:2 31:3 32:3 33:2 34:5 35:4 36:0 37:0 38:0 39:32 
0.3146262861067238 1:0 2:0 3:0 4:0 5:3 6:6 7:4 8:4 9:3 10:3 11:11 12:0 13:0 14:0 15:0 16:0 17:0 18:0 19:0 20:0 21:0 22:0 23:0 24:0 25:4 26:6 27:1 28:3 29:2 30:3 31:4 32:6 33:3 34:1 35:1 36:0 37:0 38:0 39:34 
0.4549512219790077 1:0 2:0 3:0 4:3 5:6 6:4 7:4 8:3 9:3 10:6 11:0 12:0 13:0 14:0 15:0 16:0 17:0 18:0 19:0 20:0 21:0 22:0 23:0 24:0 25:0 26:0 27:4 28:5 29:3 30:2 31:2 32:2 33:2 34:5 35:3 36:1 37:0 38:0 39:29 
0.01509233323464906 1:0 2:0 3:0 4:0 5:0 6:4 7:6 8:4 9:1 10:2 11:4 12:9 13:0 14:0 15:0 16:0 17:0 18:0 19:0 20:0 21:0 22:0 23:0 24:0 25:0 26:3 27:6 28:3 29:2 30:3 31:3 32:4 33:4 34:2 35:0 36:0 37:0 38:0 39:30 
0.06026762485392568 1:0 2:0 3:0 4:0 5:0 6:5 7:5 8:4 9:4 10:2 11:1 12:9 13:0 14:0 15:0 16:0 17:0 18:0 19:0 20:0 21:0 22:0 23:0 24:0 25:0 26:2 27:4 28:2 29:3 30:3 31:2 32:3 33:6 34:3 35:1 36:1 37:0 38:0 39:30 
0.1445495286347264 1:0 2:0 3:0 4:0 5:0 6:3 7:7 8:4 9:4 10:3 11:4 12:9 13:0 14:0 15:0 16:0 17:0 18:0 19:0 20:0 21:0 22:0 23:0 24:0 25:0 26:0 27:4 28:6 29:3 30:2 31:3 32:3 33:4 34:5 35:3 36:1 37:0 38:0 39:34 
0.1138473375523306 1:0 2:0 3:0 4:0 5:0 6:3 7:6 8:4 9:3 10:3 11:3 12:11 13:0 14:0 15:0 16:0 17:0 18:0 19:0 20:0 21:0 22:0 23:0 24:0 25:4 26:5 27:3 28:3 29:2 30:3 31:2 32:6 33:3 34:1 35:1 36:0 37:0 38:0 39:33 
0.1361483420982706 1:0 2:0 3:0 4:4 5:7 6:4 7:4 8:3 9:4 10:8 11:1 12:0 13:0 14:0 15:0 16:0 17:0 18:0 19:0 20:0 21:0 22:0 23:4 24:5 25:4 26:1 27:2 28:3 29:4 30:6 31:3 32:2 33:1 34:0 35:0 36:0 37:0 38:0 39:35 
0.3732698049778709 1:0 2:0 3:0 4:0 5:4 6:7 7:4 8:4 9:2 10:3 11:11 12:0 13:0 14:0 15:0 16:0 17:0 18:0 19:0 20:0 21:0 22:0 23:0 24:3 25:6 26:4 27:3 28:2 29:3 30:3 31:6 32:3 33:1 34:1 35:0 36:0 37:0 38:0 39:35 
0.2341259574428843 1:0 2:1 3:1 4:0 5:1 6:5 7:5 8:3 9:4 10:2 11:3 12:9 13:0 14:0 15:0 16:0 17:0 18:0 19:0 20:0 21:0 22:0 23:0 24:0 25:0 26:0 27:4 28:5 29:4 30:5 31:3 32:3 33:2 34:5 35:3 36:0 37:0 38:0 39:34 
0.5 1:0 2:0 3:0 4:4 5:7 6:4 7:4 8:3 9:3 10:11 11:0 12:0 13:0 14:0 15:0 16:0 17:0 18:0 19:0 20:0 21:0 22:0 23:0 24:0 25:0 26:4 27:6 28:3 29:3 30:3 31:3 32:3 33:6 34:3 35:1 36:1 37:0 38:0 39:36 
0.5 1:0 2:0 3:0 4:0 5:0 6:5 7:6 8:4 9:4 10:3 11:3 12:10 13:0 14:0 15:0 16:0 17:0 18:0 19:0 20:0 21:0 22:0 23:0 24:0 25:4 26:6 27:3 28:3 29:3 30:3 31:2 32:6 33:3 34:1 35:1 36:0 37:0 38:0 39:35 
0.2817548568437698 1:0 2:0 3:0 4:0 5:0 6:4 7:7 8:4 9:4 10:1 11:3 12:8 13:0 14:0 15:0 16:0 17:0 18:0 19:0 20:0 21:0 22:0 23:0 24:0 25:0 26:3 27:5 28:4 29:3 30:2 31:2 32:1 33:6 34:3 35:1 36:1 37:0 38:0 39:31 
0.5 1:0 2:0 3:0 4:0 5:0 6:0 7:4 8:6 9:4 10:4 11:2 12:4 13:8 14:0 15:0 16:0 17:0 18:0 19:0 20:0 21:0 22:0 23:0 24:2 25:6 26:4 27:3 28:1 29:3 30:4 31:5 32:3 33:0 34:1 35:0 36:0 37:0 38:0 39:32 
0.2870005604086677 1:0 2:0 3:0 4:5 5:6 6:4 7:4 8:3 9:3 10:9 11:0 12:0 13:0 14:0 15:0 16:0 17:0 18:0 19:0 20:0 21:0 22:0 23:0 24:4 25:6 26:3 27:3 28:3 29:3 30:3 31:6 32:3 33:0 34:0 35:0 36:0 37:0 38:0 39:34 
0.27692839286493 1:0 2:0 3:0 4:5 5:6 6:4 7:4 8:3 9:4 10:9 11:0 12:0 13:0 14:0 15:0 16:0 17:0 18:0 19:0 20:0 21:0 22:0 23:0 24:0 25:4 26:6 27:4 28:3 29:1 30:2 31:4 32:6 33:3 34:1 35:1 36:0 37:0 38:0 39:35 
0.3067726437560914 1:0 2:0 3:0 4:0 5:4 6:7 7:3 8:4 9:3 10:3 11:9 12:0 13:0 14:0 15:0 16:0 17:0 18:0 19:0 20:0 21:0 22:0 23:0 24:0 25:0 26:0 27:3 28:6 29:2 30:3 31:3 32:3 33:4 34:6 35:2 36:1 37:0 38:0 39:33 
-0.2902727663397197 1:0 2:0 3:0 4:7 5:12 6:2 7:2 8:2 9:2 10:2 11:2 12:11 13:0 14:0 15:0 16:0 17:0 18:0 19:0 20:0 21:0 22:0 23:0 24:3 25:2 26:3 27:3 28:2 29:9 30:8 31:3 32:2 33:2 34:3 35:2 36:0 37:0 38:0 39:42 
-0.5 1:0 2:0 3:0 4:0 5:7 6:12 7:3 8:2 9:1 10:2 11:2 12:2 13:9 14:0 15:0 16:0 17:0 18:0 19:0 20:0 21:0 22:0 23:0 24:4 25:2 26:2 27:1 28:2 29:8 30:8 31:3 32:3 33:3 34:2 35:2 36:0 37:0 38:0 39:40 
-0.5 1:0 2:0 3:0 4:0 5:7 6:10 7:2 8:2 9:2 10:2 11:2 12:2 13:7 14:0 15:0 16:0 17:0 18:0 19:0 20:0 21:3 22:3 23:2 24:1 25:2 26:9 27:9 28:2 29:2 30:2 31:1 32:0 33:0 34:0 35:0 36:0 37:0 38:0 39:36 
-0.484581794598677 1:0 2:0 3:0 4:7 5:10 6:2 7:2 8:2 9:2 10:2 11:2 12:11 13:0 14:0 15:0 16:0 17:0 18:0 19:0 20:0 21:0 22:0 23:3 24:3 25:3 26:2 27:3 28:8 29:9 30:3 31:3 32:2 33:1 34:0 35:0 36:0 37:0 38:0 39:40 
-0.1807137998558706 1:0 2:0 3:0 4:0 5:0 6:0 7:7 8:12 9:1 10:2 11:2 12:2 13:2 14:2 15:8 16:0 17:0 18:0 19:0 20:0 21:0 22:3 23:2 24:3 25:2 26:3 27:6 28:9 29:2 30:2 31:2 32:2 33:2 34:0 35:0 36:0 37:0 38:0 39:38 
-0.5 1:0 2:0 3:0 4:0 5:0 6:0 7:7 8:11 9:0 10:1 11:2 12:0 13:2 14:2 15:7 16:0 17:0 18:0 19:0 20:0 21:2 22:2 23:1 24:3 25:3 26:7 27:5 28:3 29:2 30:3 31:1 32:0 33:0 34:0 35:0 36:0 37:0 38:0 39:32 
-0.02551160291214864 1:0 2:0 3:0 4:0 5:0 6:0 7:9 8:11 9:2 10:2 11:2 12:2 13:2 14:2 15:10 16:0 17:0 18:0 19:0 20:0 21:0 22:0 23:3 24:2 25:2 26:2 27:3 28:9 29:9 30:3 31:2 32:3 33:2 34:2 35:0 36:0 37:0 38:0 39:42 
-0.3796211145961522 1:0 2:0 3:0 4:0 5:0 6:0 7:8 8:12 9:1 10:1 11:2 12:3 13:2 14:2 15:9 16:1 17:0 18:0 19:0 20:0 21:0 22:0 23:0 24:2 25:3 26:3 27:2 28:4 29:7 30:7 31:3 32:3 33:3 34:3 35:1 36:0 37:0 38:0 39:41 
-0.1148988239614107 1:0 2:0 3:0 4:0 5:0 6:9 7:11 8:2 9:2 10:2 11:2 12:2 13:2 14:9 15:0 16:0 17:0 18:0 19:0 20:0 21:0 22:0 23:3 24:3 25:2 26:3 27:7 28:9 29:3 30:3 31:3 32:3 33:2 34:0 35:0 36:0 37:0 38:0 39:41 
-0.4362542906705842 1:6 2:8 3:0 4:7 5:10 6:2 7:2 8:2 9:2 10:2 11:2 12:9 13:1 14:0 15:0 16:0 17:0 18:0 19:0 20:0 21:0 22:0 23:0 24:3 25:2 26:3 27:4 28:4 29:11 30:10 31:4 32:3 33:3 34:2 35:4 36:0 37:0 38:0 39:53 
-0.3870639848284321 1:1 2:6 3:6 4:0 5:0 6:10 7:11 8:2 9:2 10:2 11:2 12:3 13:2 14:8 15:0 16:0 17:0 18:0 19:0 20:0 21:0 22:0 23:0 24:4 25:6 26:4 27:3 28:4 29:11 30:8 31:5 32:4 33:1 34:3 35:2 36:0 37:0 38:0 39:55 
-0.5 1:0 2:0 3:0 4:7 5:11 6:2 7:2 8:1 9:1 10:1 11:2 12:8 13:0 14:0 15:1 16:1 17:0 18:0 19:0 20:2 21:3 22:3 23:3 24:1 25:5 26:9 27:2 28:3 29:3 30:2 31:1 32:0 33:0 34:0 35:0 36:0 37:0 38:0 39:37 
-0.3451438887513137 1:0 2:0 3:0 4:0 5:9 6:10 7:2 8:2 9:1 10:2 11:2 12:2 13:11 14:0 15:0 16:0 17:0 18:0 19:0 20:0 21:0 22:3 23:3 24:3 25:1 26:3 27:6 28:9 29:3 30:3 31:3 32:3 33:1 34:0 35:0 36:0 37:0 38:0 39:41 
-0.240606336653157 1:1 2:0 3:0 4:0 5:0 6:0 7:9 8:10 9:2 10:2 11:2 12:2 13:2 14:1 15:9 16:0 17:0 18:0 19:0 20:0 21:0 22:1 23:3 24:3 25:2 26:2 27:8 28:9 29:3 30:2 31:3 32:2 33:2 34:0 35:0 36:0 37:0 38:0 39:40 
-0.2393393924580614 1:7 2:0 3:0 4:0 5:0 6:12 7:12 8:2 9:2 10:2 11:2 12:2 13:1 14:11 15:0 16:0 17:0 18:0 19:0 20:0 21:3 22:3 23:3 24:2 25:3 26:9 27:8 28:4 29:4 30:4 31:4 32:3 33:2 34:0 35:1 36:0 37:0 38:0 39:53 
-0.03222421621218534 1:0 2:0 3:0 4:0 5:10 6:11 7:2 8:2 9:2 10:2 11:2 12:2 13:10 14:0 15:0 16:0 17:0 18:0 19:0 20:0 21:0 22:0 23:0 24:3 25:2 26:3 27:3 28:3 29:9 30:9 31:3 32:2 33:2 34:3 35:1 36:0 37:0 38:0 39:43 
-0.09128723540326028 1:2 2:0 3:0 4:0 5:0 6:9 7:11 8:2 9:2 10:2 11:1 12:1 13:3 14:10 15:0 16:0 17:0 18:0 19:0 20:1 21:2 22:3 23:3 24:2 25:3 26:3 27:7 28:8 29:0 30:3 31:4 32:3 33:1 34:0 35:0 36:0 37:0 38:0 39:43 
-0.07320705718156889 1:0 2:0 3:0 4:0 5:0 6:11 7:12 8:2 9:2 10:2 11:2 12:2 13:2 14:12 15:0 16:0 17:0 18:0 19:0 20:0 21:3 22:2 23:3 24:3 25:3 26:9 27:9 28:3 29:3 30:3 31:3 32:3 33:0 34:0 35:0 36:0 37:0 38:0 39:47 
-0.3043448527678304 1:0 2:0 3:0 4:0 5:6 6:11 7:2 8:2 9:2 10:2 11:2 12:1 13:11 14:0 15:0 16:0 17:0 18:0 19:0 20:2 21:3 22:3 23:3 24:3 25:8 26:8 27:2 28:3 29:2 30:2 31:0 32:0 33:0 34:0 35:0 36:0 37:0 38:0 39:39 
-0.3882396429207253 1:0 2:0 3:0 4:0 5:1 6:6 7:12 8:2 9:2 10:2 11:2 12:2 13:2 14:9 15:0 16:0 17:0 18:0 19:0 20:2 21:2 22:2 23:2 24:3 25:9 26:9 27:2 28:2 29:2 30:3 31:2 32:0 33:0 34:0 35:0 36:0 37:0 38:0 39:40 
-0.1492411417768427 1:0 2:0 3:0 4:0 5:0 6:0 7:9 8:11 9:1 10:1 11:1 12:2 13:2 14:2 15:8 16:0 17:0 18:0 19:0 20:0 21:3 22:3 23:1 24:2 25:2 26:8 27:6 28:2 29:2 30:3 31:3 32:2 33:0 34:0 35:0 36:0 37:0 38:0 39:37 
-0.3452048189767686 1:0 2:0 3:0 4:0 5:0 6:7 7:11 8:2 9:2 10:2 11:2 12:2 13:2 14:9 15:0 16:0 17:0 18:0 19:0 20:0 21:0 22:0 23:2 24:2 25:2 26:3 27:3 28:7 29:8 30:3 31:3 32:2 33:3 34:1 35:0 36:0 37:0 38:0 39:39 
-0.3945384594628624 1:8 2:6 3:0 4:0 5:0 6:10 7:12 8:2 9:2 10:2 11:2 12:2 13:2 14:11 15:0 16:0 17:0 18:0 19:0 20:3 21:3 22:3 23:3 24:3 25:10 26:11 27:5 28:4 29:4 30:5 31:3 32:0 33:2 34:0 35:0 36:0 37:0 38:0 39:59 
-0.0190726152344808 1:0 2:0 3:0 4:0 5:7 6:12 7:1 8:1 9:2 10:2 11:1 12:2 13:10 14:0 15:0 16:0 17:0 18:0 19:0 20:2 21:2 22:3 23:3 24:3 25:7 26:8 27:2 28:2 29:2 30:2 31:2 32:0 33:0 34:0 35:0 36:0 37:0 38:0 39:38 
-0.2890012022375784 1:0 2:0 3:0 4:0 5:0 6:10 7:12 8:2 9:2 10:2 11:2 12:2 13:1 14:8 15:0 16:0 17:0 18:0 19:0 20:0 21:0 22:0 23:0 24:1 25:2 26:3 27:3 28:2 29:8 30:8 31:3 32:3 33:3 34:3 35:2 36:0 37:0 38:0 39:41 
-0.07537218245806653 1:0 2:0 3:0 4:0 5:0 6:1 7:7 8:12 9:3 10:2 11:2 12:2 13:1 14:2 15:10 16:0 17:0 18:0 19:0 20:0 21:0 22:0 23:3 24:2 25:2 26:3 27:3 28:8 29:8 30:3 31:3 32:2 33:4 34:1 35:0 36:0 37:0 38:0 39:42 
-0.07159720139411473 1:0 2:0 3:0 4:0 5:0 6:7 7:10 8:1 9:2 10:2 11:2 12:2 13:2 14:11 15:0 16:0 17:0 18:0 19:0 20:0 21:0 22:0 23:2 24:2 25:2 26:3 27:2 28:8 29:7 30:3 31:3 32:3 33:2 34:2 35:0 36:0 37:0 38:0 39:39 
