svm_type c_svc
kernel_type rbf
gamma 0.0078125
nr_class 2
total_sv 48
rho 0.464955
label 1 0
probA -4.25021
probB -0.171441
nr_sv 22 26
SV
0.5 1:0 2:0 3:1 4:6 5:8 6:1 7:1 8:1 9:2 10:7 11:0 12:0 13:0 14:0 15:0 16:0 17:0 18:0 19:0 20:0 21:0 22:1 23:3 24:7 25:3 26:2 27:3 28:2 29:2 30:2 31:2 32:0 33:0 34:0 35:0 36:0 37:0 38:0 39:27 
0.2280946888025644 1:0 2:0 3:0 4:0 5:0 6:6 7:8 8:1 9:1 10:2 11:3 12:7 13:0 14:0 15:0 16:0 17:0 18:0 19:0 20:0 21:0 22:0 23:0 24:0 25:0 26:4 27:7 28:2 29:2 30:3 31:4 32:3 33:3 34:0 35:0 36:0 37:0 38:0 39:28 
0.1842927773265621 1:0 2:0 3:0 4:0 5:6 6:8 7:1 8:1 9:2 10:2 11:5 12:0 13:0 14:0 15:0 16:0 17:0 18:0 19:0 20:0 21:0 22:0 23:0 24:0 25:0 26:0 27:2 28:7 29:3 30:2 31:3 32:3 33:2 34:2 35:1 36:0 37:0 38:0 39:25 
0.5 1:0 2:0 3:0 4:0 5:9 6:8 7:1 8:1 9:3 10:2 11:7 12:0 13:0 14:0 15:0 16:0 17:0 18:0 19:0 20:0 21:0 22:0 23:0 24:0 25:1 26:4 27:6 28:4 29:3 30:3 31:3 32:3 33:2 34:2 35:0 36:0 37:0 38:0 39:31 
0.5 1:3 2:3 3:0 4:0 5:0 6:0 7:5 8:9 9:1 10:1 11:2 12:2 13:7 14:0 15:0 16:0 17:0 18:0 19:0 20:0 21:0 22:0 23:1 24:1 25:1 26:1 27:5 28:6 29:4 30:2 31:3 32:2 33:3 34:2 35:2 36:0 37:0 38:0 39:33 
0.01903881984533985 1:0 2:0 3:0 4:0 5:0 6:6 7:9 8:1 9:1 10:2 11:2 12:5 13:0 14:0 15:0 16:0 17:0 18:0 19:0 20:0 21:0 22:0 23:0 24:4 25:7 26:2 27:3 28:2 29:2 30:2 31:2 32:2 33:0 34:0 35:0 36:0 37:0 38:0 39:26 
0.2499409487976761 1:0 2:0 3:0 4:5 5:7 6:1 7:1 8:2 9:1 10:7 11:0 12:0 13:0 14:0 15:0 16:0 17:0 18:0 19:0 20:0 21:0 22:0 23:0 24:0 25:3 26:6 27:2 28:2 29:3 30:2 31:2 32:3 33:1 34:0 35:0 36:0 37:0 38:0 39:24 
0.1957209037846659 1:0 2:0 3:0 4:0 5:8 6:7 7:1 8:1 9:1 10:2 11:7 12:0 13:0 14:0 15:0 16:0 17:0 18:0 19:0 20:0 21:0 22:0 23:0 24:0 25:0 26:0 27:4 28:5 29:3 30:2 31:3 32:3 33:3 34:2 35:2 36:0 37:0 38:0 39:27 
0.1459213283424027 1:0 2:0 3:0 4:0 5:6 6:9 7:1 8:0 9:2 10:2 11:7 12:0 13:0 14:0 15:0 16:0 17:0 18:0 19:0 20:0 21:0 22:0 23:0 24:3 25:6 26:3 27:3 28:3 29:2 30:3 31:3 32:1 33:0 34:0 35:0 36:0 37:0 38:0 39:27 
0.274821512964038 1:0 2:0 3:0 4:1 5:0 6:0 7:5 8:8 9:1 10:1 11:2 12:2 13:5 14:0 15:0 16:0 17:0 18:0 19:1 20:0 21:0 22:0 23:0 24:4 25:6 26:2 27:0 28:1 29:3 30:3 31:3 32:2 33:0 34:0 35:0 36:0 37:0 38:0 39:25 
0.2572589065725079 1:0 2:0 3:0 4:0 5:7 6:7 7:1 8:1 9:2 10:2 11:7 12:0 13:0 14:0 15:0 16:0 17:0 18:0 19:0 20:0 21:0 22:0 23:4 24:6 25:3 26:1 27:2 28:3 29:3 30:3 31:2 32:0 33:0 34:0 35:0 36:0 37:0 38:0 39:27 
0.4010949998372757 1:0 2:0 3:0 4:0 5:0 6:6 7:9 8:2 9:1 10:2 11:2 12:7 13:0 14:0 15:0 16:0 17:0 18:0 19:0 20:0 21:0 22:0 23:0 24:0 25:0 26:0 27:3 28:6 29:3 30:3 31:3 32:3 33:3 34:2 35:2 36:1 37:0 38:0 39:29 
0.4759026495075285 1:0 2:0 3:0 4:6 5:8 6:1 7:1 8:2 9:2 10:5 11:0 12:0 13:0 14:0 15:0 16:0 17:0 18:0 19:0 20:0 21:0 22:0 23:0 24:0 25:4 26:6 27:3 28:1 29:2 30:3 31:2 32:2 33:2 34:0 35:0 36:0 37:0 38:0 39:25 
0.2777985717471315 1:0 2:0 3:0 4:0 5:0 6:0 7:5 8:6 9:1 10:1 11:2 12:2 13:7 14:0 15:0 16:0 17:0 18:0 19:0 20:0 21:0 22:0 23:0 24:3 25:7 26:2 27:3 28:3 29:1 30:3 31:2 32:0 33:0 34:0 35:0 36:0 37:0 38:0 39:24 
0.1120907080506957 1:0 2:0 3:0 4:0 5:5 6:8 7:0 8:1 9:1 10:2 11:5 12:1 13:0 14:0 15:0 16:0 17:0 18:0 19:0 20:0 21:0 22:0 23:0 24:0 25:3 26:6 27:2 28:3 29:4 30:2 31:2 32:1 33:0 34:0 35:0 36:0 37:0 38:0 39:23 
0.2346815405562633 1:0 2:0 3:0 4:0 5:4 6:8 7:1 8:1 9:2 10:2 11:5 12:0 13:0 14:0 15:0 16:0 17:0 18:0 19:0 20:0 21:0 22:0 23:3 24:6 25:3 26:2 27:2 28:1 29:2 30:2 31:2 32:0 33:0 34:0 35:0 36:0 37:0 38:0 39:23 
0.5 1:4 2:3 3:0 4:0 5:0 6:6 7:8 8:1 9:1 10:2 11:3 12:7 13:0 14:0 15:0 16:0 17:0 18:0 19:0 20:0 21:0 22:1 23:4 24:6 25:2 26:2 27:4 28:4 29:5 30:3 31:3 32:1 33:0 34:0 35:0 36:0 37:0 38:0 39:35 
0.5 1:0 2:0 3:0 4:0 5:0 6:0 7:6 8:8 9:1 10:1 11:2 12:2 13:7 14:0 15:0 16:0 17:0 18:0 19:0 20:0 21:0 22:0 23:0 24:0 25:4 26:7 27:3 28:3 29:3 30:2 31:3 32:2 33:0 34:0 35:0 36:0 37:0 38:0 39:27 
0.004804148100964386 1:0 2:0 3:0 4:0 5:5 6:7 7:1 8:1 9:2 10:1 11:5 12:0 13:0 14:0 15:0 16:0 17:0 18:0 19:0 20:0 21:0 22:0 23:0 24:0 25:1 26:4 27:4 28:3 29:1 30:1 31:3 32:1 33:3 34:1 35:0 36:0 37:0 38:0 39:22 
0.4367493899746238 1:0 2:0 3:0 4:0 5:0 6:0 7:6 8:9 9:1 10:1 11:2 12:2 13:6 14:0 15:0 16:0 17:0 18:0 19:0 20:0 21:0 22:0 23:0 24:0 25:0 26:0 27:4 28:6 29:3 30:2 31:2 32:3 33:3 34:2 35:2 36:0 37:0 38:0 39:27 
0.4479319892260111 1:0 2:0 3:0 4:0 5:1 6:6 7:9 8:1 9:1 10:2 11:2 12:7 13:0 14:0 15:0 16:0 17:0 18:0 19:0 20:0 21:0 22:0 23:0 24:0 25:4 26:7 27:2 28:3 29:2 30:3 31:3 32:3 33:2 34:0 35:0 36:0 37:0 38:0 39:29 
0.2918018467617061 1:0 2:0 3:0 4:0 5:0 6:6 7:8 8:2 9:1 10:1 11:2 12:7 13:0 14:0 15:0 16:0 17:0 18:0 19:0 20:0 21:0 22:0 23:4 24:6 25:3 26:3 27:2 28:2 29:3 30:3 31:1 32:0 33:0 34:0 35:0 36:0 37:0 38:0 39:27 
-0.2177696217324298 1:0 2:0 3:0 4:7 5:12 6:2 7:2 8:2 9:2 10:2 11:2 12:11 13:0 14:0 15:0 16:0 17:0 18:0 19:0 20:0 21:0 22:0 23:0 24:3 25:2 26:3 27:3 28:2 29:9 30:8 31:3 32:2 33:2 34:3 35:2 36:0 37:0 38:0 39:42 
-0.3747395546230157 1:0 2:0 3:0 4:0 5:7 6:12 7:3 8:2 9:1 10:2 11:2 12:2 13:9 14:0 15:0 16:0 17:0 18:0 19:0 20:0 21:0 22:0 23:0 24:4 25:2 26:2 27:1 28:2 29:8 30:8 31:3 32:3 33:3 34:2 35:2 36:0 37:0 38:0 39:40 
-0.5 1:0 2:0 3:0 4:0 5:7 6:10 7:2 8:2 9:2 10:2 11:2 12:2 13:7 14:0 15:0 16:0 17:0 18:0 19:0 20:0 21:3 22:3 23:2 24:1 25:2 26:9 27:9 28:2 29:2 30:2 31:1 32:0 33:0 34:0 35:0 36:0 37:0 38:0 39:36 
-0.3617259407930637 1:0 2:0 3:0 4:7 5:10 6:2 7:2 8:2 9:2 10:2 11:2 12:11 13:0 14:0 15:0 16:0 17:0 18:0 19:0 20:0 21:0 22:0 23:3 24:3 25:3 26:2 27:3 28:8 29:9 30:3 31:3 32:2 33:1 34:0 35:0 36:0 37:0 38:0 39:40 
-0.219136591100558 1:0 2:0 3:0 4:0 5:0 6:0 7:7 8:12 9:1 10:2 11:2 12:2 13:2 14:2 15:8 16:0 17:0 18:0 19:0 20:0 21:0 22:3 23:2 24:3 25:2 26:3 27:6 28:9 29:2 30:2 31:2 32:2 33:2 34:0 35:0 36:0 37:0 38:0 39:38 
-0.5 1:0 2:0 3:0 4:0 5:0 6:0 7:7 8:11 9:0 10:1 11:2 12:0 13:2 14:2 15:7 16:0 17:0 18:0 19:0 20:0 21:2 22:2 23:1 24:3 25:3 26:7 27:5 28:3 29:2 30:3 31:1 32:0 33:0 34:0 35:0 36:0 37:0 38:0 39:32 
-0.1455128022866895 1:0 2:0 3:0 4:0 5:0 6:0 7:9 8:11 9:2 10:2 11:2 12:2 13:2 14:2 15:10 16:0 17:0 18:0 19:0 20:0 21:0 22:0 23:3 24:2 25:2 26:2 27:3 28:9 29:9 30:3 31:2 32:3 33:2 34:2 35:0 36:0 37:0 38:0 39:42 
-0.2520900536248439 1:0 2:0 3:0 4:0 5:0 6:0 7:8 8:12 9:1 10:1 11:2 12:3 13:2 14:2 15:9 16:1 17:0 18:0 19:0 20:0 21:0 22:0 23:0 24:2 25:3 26:3 27:2 28:4 29:7 30:7 31:3 32:3 33:3 34:3 35:1 36:0 37:0 38:0 39:41 
-0.06796489972959426 1:0 2:0 3:0 4:0 5:0 6:9 7:11 8:2 9:2 10:2 11:2 12:2 13:2 14:9 15:0 16:0 17:0 18:0 19:0 20:0 21:0 22:0 23:3 24:3 25:2 26:3 27:7 28:9 29:3 30:3 31:3 32:3 33:2 34:0 35:0 36:0 37:0 38:0 39:41 
-0.4639758801678252 1:6 2:8 3:0 4:7 5:10 6:2 7:2 8:2 9:2 10:2 11:2 12:9 13:1 14:0 15:0 16:0 17:0 18:0 19:0 20:0 21:0 22:0 23:0 24:3 25:2 26:3 27:4 28:4 29:11 30:10 31:4 32:3 33:3 34:2 35:4 36:0 37:0 38:0 39:53 
-0.4087226458803521 1:1 2:6 3:6 4:0 5:0 6:10 7:11 8:2 9:2 10:2 11:2 12:3 13:2 14:8 15:0 16:0 17:0 18:0 19:0 20:0 21:0 22:0 23:0 24:4 25:6 26:4 27:3 28:4 29:11 30:8 31:5 32:4 33:1 34:3 35:2 36:0 37:0 38:0 39:55 
-0.5 1:0 2:0 3:0 4:7 5:11 6:2 7:2 8:1 9:1 10:1 11:2 12:8 13:0 14:0 15:1 16:1 17:0 18:0 19:0 20:2 21:3 22:3 23:3 24:1 25:5 26:9 27:2 28:3 29:3 30:2 31:1 32:0 33:0 34:0 35:0 36:0 37:0 38:0 39:37 
-0.2803121000284406 1:0 2:0 3:0 4:0 5:9 6:10 7:2 8:2 9:1 10:2 11:2 12:2 13:11 14:0 15:0 16:0 17:0 18:0 19:0 20:0 21:0 22:3 23:3 24:3 25:1 26:3 27:6 28:9 29:3 30:3 31:3 32:3 33:1 34:0 35:0 36:0 37:0 38:0 39:41 
-0.1645888246936455 1:1 2:0 3:0 4:0 5:0 6:0 7:9 8:10 9:2 10:2 11:2 12:2 13:2 14:1 15:9 16:0 17:0 18:0 19:0 20:0 21:0 22:1 23:3 24:3 25:2 26:2 27:8 28:9 29:3 30:2 31:3 32:2 33:2 34:0 35:0 36:0 37:0 38:0 39:40 
-0.2455124337621351 1:7 2:0 3:0 4:0 5:0 6:12 7:12 8:2 9:2 10:2 11:2 12:2 13:1 14:11 15:0 16:0 17:0 18:0 19:0 20:0 21:3 22:3 23:3 24:2 25:3 26:9 27:8 28:4 29:4 30:4 31:4 32:3 33:2 34:0 35:1 36:0 37:0 38:0 39:53 
-0.05185663491685297 1:0 2:0 3:0 4:0 5:10 6:11 7:2 8:2 9:2 10:2 11:2 12:2 13:10 14:0 15:0 16:0 17:0 18:0 19:0 20:0 21:0 22:0 23:0 24:3 25:2 26:3 27:3 28:3 29:9 30:9 31:3 32:2 33:2 34:3 35:1 36:0 37:0 38:0 39:43 
-0.1113349403947154 1:2 2:0 3:0 4:0 5:0 6:9 7:11 8:2 9:2 10:2 11:1 12:1 13:3 14:10 15:0 16:0 17:0 18:0 19:0 20:1 21:2 22:3 23:3 24:2 25:3 26:3 27:7 28:8 29:0 30:3 31:4 32:3 33:1 34:0 35:0 36:0 37:0 38:0 39:43 
-0.1016776795377565 1:0 2:0 3:0 4:0 5:0 6:11 7:12 8:2 9:2 10:2 11:2 12:2 13:2 14:12 15:0 16:0 17:0 18:0 19:0 20:0 21:3 22:2 23:3 24:3 25:3 26:9 27:9 28:3 29:3 30:3 31:3 32:3 33:0 34:0 35:0 36:0 37:0 38:0 39:47 
-0.1656726721526419 1:0 2:0 3:0 4:0 5:6 6:11 7:2 8:2 9:2 10:2 11:2 12:1 13:11 14:0 15:0 16:0 17:0 18:0 19:0 20:2 21:3 22:3 23:3 24:3 25:8 26:8 27:2 28:3 29:2 30:2 31:0 32:0 33:0 34:0 35:0 36:0 37:0 38:0 39:39 
-0.3434051096656959 1:0 2:0 3:0 4:0 5:1 6:6 7:12 8:2 9:2 10:2 11:2 12:2 13:2 14:9 15:0 16:0 17:0 18:0 19:0 20:2 21:2 22:2 23:2 24:3 25:9 26:9 27:2 28:2 29:2 30:3 31:2 32:0 33:0 34:0 35:0 36:0 37:0 38:0 39:40 
-0.150444771125055 1:0 2:0 3:0 4:0 5:0 6:0 7:9 8:11 9:1 10:1 11:1 12:2 13:2 14:2 15:8 16:0 17:0 18:0 19:0 20:0 21:3 22:3 23:1 24:2 25:2 26:8 27:6 28:2 29:2 30:3 31:3 32:2 33:0 34:0 35:0 36:0 37:0 38:0 39:37 
-0.2563074676251487 1:0 2:0 3:0 4:0 5:0 6:7 7:11 8:2 9:2 10:2 11:2 12:2 13:2 14:9 15:0 16:0 17:0 18:0 19:0 20:0 21:0 22:0 23:2 24:2 25:2 26:3 27:3 28:7 29:8 30:3 31:3 32:2 33:3 34:1 35:0 36:0 37:0 38:0 39:39 
-0.4099065774425323 1:8 2:6 3:0 4:0 5:0 6:10 7:12 8:2 9:2 10:2 11:2 12:2 13:2 14:11 15:0 16:0 17:0 18:0 19:0 20:3 21:3 22:3 23:3 24:3 25:10 26:11 27:5 28:4 29:4 30:5 31:3 32:0 33:2 34:0 35:0 36:0 37:0 38:0 39:59 
-0.1007303494217879 1:0 2:0 3:0 4:0 5:7 6:12 7:1 8:1 9:2 10:2 11:1 12:2 13:10 14:0 15:0 16:0 17:0 18:0 19:0 20:2 21:2 22:3 23:3 24:3 25:7 26:8 27:2 28:2 29:2 30:2 31:2 32:0 33:0 34:0 35:0 36:0 37:0 38:0 39:38 
-0.2130919861893551 1:0 2:0 3:0 4:0 5:0 6:10 7:12 8:2 9:2 10:2 11:2 12:2 13:1 14:8 15:0 16:0 17:0 18:0 19:0 20:0 21:0 22:0 23:0 24:1 25:2 26:3 27:3 28:2 29:8 30:8 31:3 32:3 33:3 34:3 35:2 36:0 37:0 38:0 39:41 
-0.131466193303822 1:0 2:0 3:0 4:0 5:0 6:7 7:10 8:1 9:2 10:2 11:2 12:2 13:2 14:11 15:0 16:0 17:0 18:0 19:0 20:0 21:0 22:0 23:2 24:2 25:2 26:3 27:2 28:8 29:7 30:3 31:3 32:3 33:2 34:2 35:0 36:0 37:0 38:0 39:39 
