svm_type c_svc
kernel_type rbf
gamma 0.0078125
nr_class 2
total_sv 47
rho -0.415559
label 0 1
probA -4.77701
probB -0.31375
nr_sv 25 22
SV
0.9808610207942634 1:0 2:0 3:0 4:7 5:12 6:2 7:2 8:2 9:2 10:2 11:2 12:11 13:0 14:0 15:0 16:0 17:0 18:0 19:0 20:0 21:0 22:0 23:0 24:3 25:2 26:3 27:3 28:2 29:9 30:8 31:3 32:2 33:2 34:3 35:2 36:0 37:0 38:0 39:42 
1.044272125873301 1:0 2:0 3:0 4:0 5:7 6:12 7:3 8:2 9:1 10:2 11:2 12:2 13:9 14:0 15:0 16:0 17:0 18:0 19:0 20:0 21:0 22:0 23:0 24:4 25:2 26:2 27:1 28:2 29:8 30:8 31:3 32:3 33:3 34:2 35:2 36:0 37:0 38:0 39:40 
0.3470911046349117 1:0 2:0 3:0 4:0 5:7 6:10 7:2 8:2 9:2 10:2 11:2 12:2 13:7 14:0 15:0 16:0 17:0 18:0 19:0 20:0 21:3 22:3 23:2 24:1 25:2 26:9 27:9 28:2 29:2 30:2 31:1 32:0 33:0 34:0 35:0 36:0 37:0 38:0 39:36 
0.7891927920033517 1:0 2:0 3:0 4:7 5:10 6:2 7:2 8:2 9:2 10:2 11:2 12:11 13:0 14:0 15:0 16:0 17:0 18:0 19:0 20:0 21:0 22:0 23:3 24:3 25:3 26:2 27:3 28:8 29:9 30:3 31:3 32:2 33:1 34:0 35:0 36:0 37:0 38:0 39:40 
0.2617456695102828 1:0 2:0 3:0 4:0 5:0 6:0 7:7 8:12 9:1 10:2 11:2 12:2 13:2 14:2 15:8 16:0 17:0 18:0 19:0 20:0 21:0 22:3 23:2 24:3 25:2 26:3 27:6 28:9 29:2 30:2 31:2 32:2 33:2 34:0 35:0 36:0 37:0 38:0 39:38 
0.10281018071912 1:0 2:0 3:0 4:0 5:0 6:0 7:7 8:11 9:0 10:1 11:2 12:0 13:2 14:2 15:7 16:0 17:0 18:0 19:0 20:0 21:2 22:2 23:1 24:3 25:3 26:7 27:5 28:3 29:2 30:3 31:1 32:0 33:0 34:0 35:0 36:0 37:0 38:0 39:32 
1.014258018851117 1:0 2:0 3:0 4:0 5:0 6:0 7:8 8:12 9:1 10:1 11:2 12:3 13:2 14:2 15:9 16:1 17:0 18:0 19:0 20:0 21:0 22:0 23:0 24:2 25:3 26:3 27:2 28:4 29:7 30:7 31:3 32:3 33:3 34:3 35:1 36:0 37:0 38:0 39:41 
0.5272032278269958 1:6 2:8 3:0 4:7 5:10 6:2 7:2 8:2 9:2 10:2 11:2 12:9 13:1 14:0 15:0 16:0 17:0 18:0 19:0 20:0 21:0 22:0 23:0 24:3 25:2 26:3 27:4 28:4 29:11 30:10 31:4 32:3 33:3 34:2 35:4 36:0 37:0 38:0 39:53 
0.5561289126926122 1:1 2:6 3:6 4:0 5:0 6:10 7:11 8:2 9:2 10:2 11:2 12:3 13:2 14:8 15:0 16:0 17:0 18:0 19:0 20:0 21:0 22:0 23:0 24:4 25:6 26:4 27:3 28:4 29:11 30:8 31:5 32:4 33:1 34:3 35:2 36:0 37:0 38:0 39:55 
0.8420380298423619 1:0 2:0 3:0 4:7 5:11 6:2 7:2 8:1 9:1 10:1 11:2 12:8 13:0 14:0 15:1 16:1 17:0 18:0 19:0 20:2 21:3 22:3 23:3 24:1 25:5 26:9 27:2 28:3 29:3 30:2 31:1 32:0 33:0 34:0 35:0 36:0 37:0 38:0 39:37 
1.135952046357535 1:0 2:0 3:0 4:0 5:9 6:10 7:2 8:2 9:1 10:2 11:2 12:2 13:11 14:0 15:0 16:0 17:0 18:0 19:0 20:0 21:0 22:3 23:3 24:3 25:1 26:3 27:6 28:9 29:3 30:3 31:3 32:3 33:1 34:0 35:0 36:0 37:0 38:0 39:41 
0.551102518427485 1:0 2:0 3:0 4:0 5:0 6:10 7:11 8:2 9:2 10:2 11:2 12:2 13:2 14:9 15:0 16:0 17:0 18:0 19:0 20:0 21:0 22:0 23:0 24:3 25:3 26:3 27:3 28:3 29:9 30:7 31:3 32:3 33:2 34:1 35:2 36:0 37:0 38:0 39:42 
0.2048346583623384 1:1 2:0 3:0 4:0 5:0 6:0 7:9 8:10 9:2 10:2 11:2 12:2 13:2 14:1 15:9 16:0 17:0 18:0 19:0 20:0 21:0 22:1 23:3 24:3 25:2 26:2 27:8 28:9 29:3 30:2 31:3 32:2 33:2 34:0 35:0 36:0 37:0 38:0 39:40 
0.2587104224053728 1:7 2:0 3:0 4:0 5:0 6:12 7:12 8:2 9:2 10:2 11:2 12:2 13:1 14:11 15:0 16:0 17:0 18:0 19:0 20:0 21:3 22:3 23:3 24:2 25:3 26:9 27:8 28:4 29:4 30:4 31:4 32:3 33:2 34:0 35:1 36:0 37:0 38:0 39:53 
0.2396852943885406 1:0 2:0 3:0 4:0 5:10 6:11 7:2 8:2 9:2 10:2 11:2 12:2 13:10 14:0 15:0 16:0 17:0 18:0 19:0 20:0 21:0 22:0 23:0 24:3 25:2 26:3 27:3 28:3 29:9 30:9 31:3 32:2 33:2 34:3 35:1 36:0 37:0 38:0 39:43 
1.232408167938338 1:2 2:0 3:0 4:0 5:0 6:9 7:11 8:2 9:2 10:2 11:1 12:1 13:3 14:10 15:0 16:0 17:0 18:0 19:0 20:1 21:2 22:3 23:3 24:2 25:3 26:3 27:7 28:8 29:0 30:3 31:4 32:3 33:1 34:0 35:0 36:0 37:0 38:0 39:43 
0.3261325433990915 1:0 2:0 3:0 4:0 5:0 6:11 7:12 8:2 9:2 10:2 11:2 12:2 13:2 14:12 15:0 16:0 17:0 18:0 19:0 20:0 21:3 22:2 23:3 24:3 25:3 26:9 27:9 28:3 29:3 30:3 31:3 32:3 33:0 34:0 35:0 36:0 37:0 38:0 39:47 
0.2670735334773769 1:0 2:0 3:0 4:0 5:6 6:11 7:2 8:2 9:2 10:2 11:2 12:1 13:11 14:0 15:0 16:0 17:0 18:0 19:0 20:2 21:3 22:3 23:3 24:3 25:8 26:8 27:2 28:3 29:2 30:2 31:0 32:0 33:0 34:0 35:0 36:0 37:0 38:0 39:39 
1.049287251255663 1:0 2:0 3:0 4:0 5:1 6:6 7:12 8:2 9:2 10:2 11:2 12:2 13:2 14:9 15:0 16:0 17:0 18:0 19:0 20:2 21:2 22:2 23:2 24:3 25:9 26:9 27:2 28:2 29:2 30:3 31:2 32:0 33:0 34:0 35:0 36:0 37:0 38:0 39:40 
0.5788857458328384 1:0 2:0 3:0 4:0 5:0 6:0 7:9 8:11 9:1 10:1 11:1 12:2 13:2 14:2 15:8 16:0 17:0 18:0 19:0 20:0 21:3 22:3 23:1 24:2 25:2 26:8 27:6 28:2 29:2 30:3 31:3 32:2 33:0 34:0 35:0 36:0 37:0 38:0 39:37 
0.4720430343316415 1:8 2:6 3:0 4:0 5:0 6:10 7:12 8:2 9:2 10:2 11:2 12:2 13:2 14:11 15:0 16:0 17:0 18:0 19:0 20:3 21:3 22:3 23:3 24:3 25:10 26:11 27:5 28:4 29:4 30:5 31:3 32:0 33:2 34:0 35:0 36:0 37:0 38:0 39:59 
0.6692188893098971 1:0 2:0 3:0 4:0 5:7 6:12 7:1 8:1 9:2 10:2 11:1 12:2 13:10 14:0 15:0 16:0 17:0 18:0 19:0 20:2 21:2 22:3 23:3 24:3 25:7 26:8 27:2 28:2 29:2 30:2 31:2 32:0 33:0 34:0 35:0 36:0 37:0 38:0 39:38 
0.2350577984865062 1:0 2:0 3:0 4:0 5:0 6:10 7:12 8:2 9:2 10:2 11:2 12:2 13:1 14:8 15:0 16:0 17:0 18:0 19:0 20:0 21:0 22:0 23:0 24:1 25:2 26:3 27:3 28:2 29:8 30:8 31:3 32:3 33:3 34:3 35:2 36:0 37:0 38:0 39:41 
0.5412937501474268 1:0 2:0 3:0 4:0 5:0 6:1 7:7 8:12 9:3 10:2 11:2 12:2 13:1 14:2 15:10 16:0 17:0 18:0 19:0 20:0 21:0 22:0 23:3 24:2 25:2 26:3 27:3 28:8 29:8 30:3 31:3 32:2 33:4 34:1 35:0 36:0 37:0 38:0 39:42 
0.8540885981610802 1:0 2:0 3:0 4:0 5:0 6:7 7:10 8:1 9:2 10:2 11:2 12:2 13:2 14:11 15:0 16:0 17:0 18:0 19:0 20:0 21:0 22:0 23:2 24:2 25:2 26:3 27:2 28:8 29:7 30:3 31:3 32:3 33:2 34:2 35:0 36:0 37:0 38:0 39:39 
-1.048333400089758 1:0 2:0 3:0 4:0 5:0 6:6 7:11 8:2 9:2 10:2 11:1 12:2 13:8 14:8 15:0 16:0 17:0 18:0 19:0 20:0 21:0 22:0 23:0 24:3 25:4 26:3 27:4 28:4 29:2 30:3 31:2 32:2 33:4 34:7 35:4 36:0 37:0 38:0 39:42 
-0.6668537095418758 1:0 2:0 3:0 4:0 5:0 6:6 7:11 8:3 9:2 10:2 11:2 12:3 13:8 14:10 15:0 16:0 17:0 18:0 19:0 20:0 21:0 22:3 23:3 24:4 25:4 26:3 27:5 28:4 29:4 30:2 31:4 32:6 33:5 34:0 35:0 36:0 37:0 38:0 39:47 
-1.70963830089452 1:0 2:0 3:0 4:6 5:11 6:3 7:2 8:2 9:2 10:1 11:5 12:9 13:0 14:0 15:0 16:0 17:0 18:0 19:0 20:0 21:0 22:0 23:3 24:2 25:4 26:4 27:3 28:4 29:3 30:3 31:3 32:2 33:6 34:4 35:0 36:0 37:0 38:0 39:41 
-1.259280996052028 1:0 2:0 3:0 4:0 5:5 6:9 7:2 8:1 9:2 10:2 11:1 12:9 13:10 14:0 15:0 16:0 17:0 18:0 19:0 20:3 21:3 22:4 23:3 24:4 25:2 26:3 27:4 28:2 29:4 30:7 31:2 32:0 33:0 34:0 35:0 36:0 37:0 38:0 39:41 
-0.4155629913759187 1:0 2:0 3:0 4:0 5:0 6:0 7:7 8:10 9:3 10:2 11:2 12:1 13:2 14:8 15:9 16:0 17:0 18:0 19:0 20:4 21:3 22:3 23:4 24:4 25:4 26:4 27:2 28:2 29:4 30:6 31:4 32:0 33:0 34:0 35:0 36:0 37:0 38:0 39:44 
-1.689243000160366 1:0 2:0 3:0 4:0 5:0 6:5 7:9 8:2 9:1 10:2 11:2 12:2 13:7 14:9 15:0 16:0 17:0 18:0 19:0 20:0 21:2 22:3 23:2 24:3 25:4 26:4 27:2 28:3 29:3 30:4 31:5 32:4 33:0 34:0 35:0 36:0 37:0 38:0 39:39 
-0.7202157700007911 1:0 2:0 3:0 4:0 5:0 6:0 7:5 8:10 9:3 10:2 11:2 12:2 13:2 14:11 15:10 16:0 17:0 18:0 19:0 20:0 21:0 22:0 23:0 24:3 25:4 26:4 27:4 28:3 29:3 30:4 31:4 32:2 33:3 34:7 35:6 36:0 37:0 38:0 39:47 
-0.1394308004284462 1:0 2:0 3:0 4:1 5:6 6:10 7:3 8:2 9:2 10:2 11:2 12:9 13:10 14:0 15:0 16:0 17:0 18:0 19:0 20:0 21:0 22:3 23:4 24:4 25:4 26:3 27:3 28:4 29:3 30:3 31:4 32:7 33:5 34:0 35:0 36:0 37:0 38:0 39:47 
-0.04212418014222049 1:0 2:0 3:0 4:0 5:0 6:0 7:7 8:10 9:3 10:1 11:2 12:2 13:1 14:11 15:9 16:0 17:0 18:0 19:0 20:0 21:0 22:0 23:0 24:4 25:4 26:4 27:4 28:4 29:3 30:4 31:2 32:3 33:4 34:6 35:4 36:0 37:0 38:0 39:46 
-0.9386798157309837 1:0 2:0 3:0 4:0 5:0 6:0 7:7 8:11 9:2 10:2 11:2 12:2 13:2 14:8 15:8 16:0 17:0 18:0 19:0 20:4 21:2 22:3 23:4 24:3 25:4 26:3 27:4 28:3 29:3 30:7 31:4 32:0 33:0 34:0 35:0 36:0 37:0 38:0 39:44 
-0.8427970677055779 1:0 2:0 3:0 4:0 5:0 6:0 7:3 8:9 9:3 10:2 11:2 12:1 13:2 14:9 15:10 16:0 17:0 18:0 19:0 20:0 21:0 22:3 23:2 24:4 25:3 26:2 27:4 28:3 29:3 30:3 31:3 32:7 33:4 34:0 35:0 36:0 37:0 38:0 39:41 
-0.3382741421967833 1:0 2:0 3:0 4:5 5:11 6:4 7:2 8:2 9:2 10:2 11:9 12:10 13:0 14:0 15:0 16:0 17:0 18:0 19:0 20:0 21:0 22:0 23:4 24:4 25:4 26:3 27:3 28:2 29:4 30:4 31:3 32:4 33:7 34:5 35:0 36:0 37:0 38:0 39:47 
-0.7477497148918281 1:0 2:0 3:0 4:0 5:0 6:0 7:5 8:10 9:3 10:2 11:2 12:3 13:2 14:8 15:9 16:0 17:0 18:0 19:0 20:0 21:0 22:0 23:3 24:2 25:3 26:3 27:3 28:3 29:4 30:3 31:3 32:5 33:7 34:5 35:0 36:0 37:0 38:0 39:44 
-0.1316347989853837 1:0 2:0 3:0 4:0 5:5 6:11 7:2 8:2 9:2 10:2 11:3 12:7 13:9 14:0 15:0 16:0 17:0 18:0 19:0 20:0 21:3 22:4 23:4 24:2 25:4 26:3 27:3 28:3 29:3 30:2 31:7 32:5 33:0 34:0 35:0 36:0 37:0 38:0 39:43 
-0.02845802658158576 1:0 2:0 3:0 4:0 5:0 6:5 7:10 8:3 9:2 10:2 11:1 12:3 13:8 14:8 15:0 16:0 17:0 18:0 19:0 20:2 21:4 22:4 23:5 24:1 25:4 26:3 27:4 28:1 29:3 30:6 31:5 32:0 33:0 34:0 35:0 36:0 37:0 38:0 39:42 
-0.6658233148631338 1:0 2:0 3:0 4:4 5:11 6:2 7:2 8:2 9:2 10:1 11:10 12:10 13:0 14:0 15:0 16:0 17:0 18:0 19:0 20:0 21:0 22:0 23:0 24:3 25:3 26:4 27:3 28:4 29:3 30:3 31:3 32:3 33:4 34:7 35:4 36:0 37:0 38:0 39:44 
-1.067356330567463 1:0 2:0 3:0 4:0 5:5 6:11 7:3 8:1 9:2 10:2 11:2 12:7 13:8 14:0 15:0 16:0 17:0 18:0 19:0 20:0 21:2 22:3 23:4 24:4 25:4 26:2 27:3 28:4 29:3 30:2 31:6 32:4 33:0 34:0 35:0 36:0 37:0 38:0 39:41 
-0.2926013555503703 1:0 2:0 3:0 4:0 5:5 6:11 7:4 8:2 9:2 10:1 11:2 12:7 13:9 14:0 15:0 16:0 17:0 18:0 19:0 20:0 21:0 22:4 23:3 24:3 25:2 26:4 27:4 28:2 29:3 30:3 31:4 32:6 33:5 34:0 35:0 36:0 37:0 38:0 39:43 
-0.04602777134558066 1:0 2:0 3:0 4:0 5:6 6:9 7:3 8:2 9:2 10:2 11:2 12:9 13:10 14:0 15:0 16:0 17:0 18:0 19:0 20:0 21:0 22:4 23:2 24:4 25:3 26:4 27:4 28:2 29:3 30:2 31:4 32:8 33:5 34:0 35:0 36:0 37:0 38:0 39:45 
-0.9493777685130168 1:0 2:0 3:0 4:0 5:6 6:11 7:3 8:2 9:2 10:1 11:2 12:9 13:10 14:0 15:0 16:0 17:0 18:0 19:0 20:0 21:0 22:0 23:0 24:4 25:3 26:4 27:3 28:3 29:4 30:4 31:2 32:3 33:5 34:7 35:4 36:0 37:0 38:0 39:46 
-0.3707111200586368 1:0 2:0 3:0 4:0 5:0 6:8 7:10 8:3 9:2 10:2 11:2 12:2 13:8 14:10 15:0 16:0 17:0 18:0 19:0 20:0 21:0 22:1 23:4 24:4 25:3 26:4 27:3 28:3 29:3 30:4 31:2 32:4 33:7 34:5 35:0 36:0 37:0 38:0 39:47 
-0.971200959353179 1:0 2:0 3:0 4:0 5:0 6:8 7:11 8:4 9:2 10:2 11:2 12:1 13:10 14:8 15:0 16:0 17:0 18:0 19:0 20:3 21:4 22:4 23:4 24:4 25:3 26:4 27:4 28:3 29:4 30:7 31:4 32:0 33:0 34:0 35:0 36:0 37:0 38:0 39:48 
