svm_type c_svc
kernel_type rbf
gamma 0.0078125
nr_class 2
total_sv 43
rho -0.683205
label 0 1
probA -4.26486
probB 0.333187
nr_sv 26 17
SV
0.1928025477225044 1:0 2:0 3:0 4:7 5:12 6:2 7:2 8:2 9:2 10:2 11:2 12:11 13:0 14:0 15:0 16:0 17:0 18:0 19:0 20:0 21:0 22:0 23:0 24:3 25:2 26:3 27:3 28:2 29:9 30:8 31:3 32:2 33:2 34:3 35:2 36:0 37:0 38:0 39:42 
0.2376899707603816 1:0 2:0 3:0 4:0 5:7 6:12 7:3 8:2 9:1 10:2 11:2 12:2 13:9 14:0 15:0 16:0 17:0 18:0 19:0 20:0 21:0 22:0 23:0 24:4 25:2 26:2 27:1 28:2 29:8 30:8 31:3 32:3 33:3 34:2 35:2 36:0 37:0 38:0 39:40 
0.2052471646237569 1:0 2:0 3:0 4:0 5:7 6:10 7:2 8:2 9:2 10:2 11:2 12:2 13:7 14:0 15:0 16:0 17:0 18:0 19:0 20:0 21:3 22:3 23:2 24:1 25:2 26:9 27:9 28:2 29:2 30:2 31:1 32:0 33:0 34:0 35:0 36:0 37:0 38:0 39:36 
0.2696971607090201 1:0 2:0 3:0 4:7 5:10 6:2 7:2 8:2 9:2 10:2 11:2 12:11 13:0 14:0 15:0 16:0 17:0 18:0 19:0 20:0 21:0 22:0 23:3 24:3 25:3 26:2 27:3 28:8 29:9 30:3 31:3 32:2 33:1 34:0 35:0 36:0 37:0 38:0 39:40 
0.1103443883643709 1:0 2:0 3:0 4:0 5:0 6:0 7:7 8:11 9:0 10:1 11:2 12:0 13:2 14:2 15:7 16:0 17:0 18:0 19:0 20:0 21:2 22:2 23:1 24:3 25:3 26:7 27:5 28:3 29:2 30:3 31:1 32:0 33:0 34:0 35:0 36:0 37:0 38:0 39:32 
0.0135297272877764 1:0 2:0 3:0 4:0 5:1 6:10 7:11 8:2 9:2 10:1 11:2 12:2 13:2 14:10 15:0 16:0 17:0 18:0 19:1 20:2 21:3 22:3 23:2 24:3 25:8 26:9 27:3 28:3 29:1 30:3 31:2 32:0 33:0 34:0 35:0 36:0 37:0 38:0 39:43 
0.5 1:0 2:0 3:0 4:0 5:0 6:0 7:8 8:12 9:1 10:1 11:2 12:3 13:2 14:2 15:9 16:1 17:0 18:0 19:0 20:0 21:0 22:0 23:0 24:2 25:3 26:3 27:2 28:4 29:7 30:7 31:3 32:3 33:3 34:3 35:1 36:0 37:0 38:0 39:41 
0.02633532338909356 1:0 2:0 3:0 4:0 5:0 6:9 7:11 8:2 9:2 10:2 11:2 12:2 13:2 14:9 15:0 16:0 17:0 18:0 19:0 20:0 21:0 22:0 23:3 24:3 25:2 26:3 27:7 28:9 29:3 30:3 31:3 32:3 33:2 34:0 35:0 36:0 37:0 38:0 39:41 
0.3648191746624109 1:6 2:8 3:0 4:7 5:10 6:2 7:2 8:2 9:2 10:2 11:2 12:9 13:1 14:0 15:0 16:0 17:0 18:0 19:0 20:0 21:0 22:0 23:0 24:3 25:2 26:3 27:4 28:4 29:11 30:10 31:4 32:3 33:3 34:2 35:4 36:0 37:0 38:0 39:53 
0.3857038199089549 1:1 2:6 3:6 4:0 5:0 6:10 7:11 8:2 9:2 10:2 11:2 12:3 13:2 14:8 15:0 16:0 17:0 18:0 19:0 20:0 21:0 22:0 23:0 24:4 25:6 26:4 27:3 28:4 29:11 30:8 31:5 32:4 33:1 34:3 35:2 36:0 37:0 38:0 39:55 
0.2969736308892547 1:0 2:0 3:0 4:7 5:11 6:2 7:2 8:1 9:1 10:1 11:2 12:8 13:0 14:0 15:1 16:1 17:0 18:0 19:0 20:2 21:3 22:3 23:3 24:1 25:5 26:9 27:2 28:3 29:3 30:2 31:1 32:0 33:0 34:0 35:0 36:0 37:0 38:0 39:37 
0.2864867828247348 1:0 2:0 3:0 4:0 5:9 6:10 7:2 8:2 9:1 10:2 11:2 12:2 13:11 14:0 15:0 16:0 17:0 18:0 19:0 20:0 21:0 22:3 23:3 24:3 25:1 26:3 27:6 28:9 29:3 30:3 31:3 32:3 33:1 34:0 35:0 36:0 37:0 38:0 39:41 
0.1209081703557838 1:0 2:0 3:0 4:0 5:0 6:10 7:11 8:2 9:2 10:2 11:2 12:2 13:2 14:9 15:0 16:0 17:0 18:0 19:0 20:0 21:0 22:0 23:0 24:3 25:3 26:3 27:3 28:3 29:9 30:7 31:3 32:3 33:2 34:1 35:2 36:0 37:0 38:0 39:42 
0.3568683060005207 1:1 2:0 3:0 4:0 5:0 6:0 7:9 8:10 9:2 10:2 11:2 12:2 13:2 14:1 15:9 16:0 17:0 18:0 19:0 20:0 21:0 22:1 23:3 24:3 25:2 26:2 27:8 28:9 29:3 30:2 31:3 32:2 33:2 34:0 35:0 36:0 37:0 38:0 39:40 
0.2175158818565711 1:7 2:0 3:0 4:0 5:0 6:12 7:12 8:2 9:2 10:2 11:2 12:2 13:1 14:11 15:0 16:0 17:0 18:0 19:0 20:0 21:3 22:3 23:3 24:2 25:3 26:9 27:8 28:4 29:4 30:4 31:4 32:3 33:2 34:0 35:1 36:0 37:0 38:0 39:53 
0.1457818072797521 1:0 2:0 3:0 4:0 5:10 6:11 7:2 8:2 9:2 10:2 11:2 12:2 13:10 14:0 15:0 16:0 17:0 18:0 19:0 20:0 21:0 22:0 23:0 24:3 25:2 26:3 27:3 28:3 29:9 30:9 31:3 32:2 33:2 34:3 35:1 36:0 37:0 38:0 39:43 
0.3634673022054984 1:2 2:0 3:0 4:0 5:0 6:9 7:11 8:2 9:2 10:2 11:1 12:1 13:3 14:10 15:0 16:0 17:0 18:0 19:0 20:1 21:2 22:3 23:3 24:2 25:3 26:3 27:7 28:8 29:0 30:3 31:4 32:3 33:1 34:0 35:0 36:0 37:0 38:0 39:43 
0.0754665449642815 1:0 2:0 3:0 4:0 5:0 6:11 7:12 8:2 9:2 10:2 11:2 12:2 13:2 14:12 15:0 16:0 17:0 18:0 19:0 20:0 21:3 22:2 23:3 24:3 25:3 26:9 27:9 28:3 29:3 30:3 31:3 32:3 33:0 34:0 35:0 36:0 37:0 38:0 39:47 
0.2567408496542855 1:0 2:0 3:0 4:0 5:6 6:11 7:2 8:2 9:2 10:2 11:2 12:1 13:11 14:0 15:0 16:0 17:0 18:0 19:0 20:2 21:3 22:3 23:3 24:3 25:8 26:8 27:2 28:3 29:2 30:2 31:0 32:0 33:0 34:0 35:0 36:0 37:0 38:0 39:39 
0.3773061091635916 1:0 2:0 3:0 4:0 5:1 6:6 7:12 8:2 9:2 10:2 11:2 12:2 13:2 14:9 15:0 16:0 17:0 18:0 19:0 20:2 21:2 22:2 23:2 24:3 25:9 26:9 27:2 28:2 29:2 30:3 31:2 32:0 33:0 34:0 35:0 36:0 37:0 38:0 39:40 
0.2622162980523398 1:0 2:0 3:0 4:0 5:0 6:0 7:9 8:11 9:1 10:1 11:1 12:2 13:2 14:2 15:8 16:0 17:0 18:0 19:0 20:0 21:3 22:3 23:1 24:2 25:2 26:8 27:6 28:2 29:2 30:3 31:3 32:2 33:0 34:0 35:0 36:0 37:0 38:0 39:37 
0.2705205074879468 1:0 2:0 3:0 4:0 5:0 6:7 7:11 8:2 9:2 10:2 11:2 12:2 13:2 14:9 15:0 16:0 17:0 18:0 19:0 20:0 21:0 22:0 23:2 24:2 25:2 26:3 27:3 28:7 29:8 30:3 31:3 32:2 33:3 34:1 35:0 36:0 37:0 38:0 39:39 
0.2640328273280038 1:8 2:6 3:0 4:0 5:0 6:10 7:12 8:2 9:2 10:2 11:2 12:2 13:2 14:11 15:0 16:0 17:0 18:0 19:0 20:3 21:3 22:3 23:3 24:3 25:10 26:11 27:5 28:4 29:4 30:5 31:3 32:0 33:2 34:0 35:0 36:0 37:0 38:0 39:59 
0.1928854211966445 1:0 2:0 3:0 4:0 5:0 6:10 7:12 8:2 9:2 10:2 11:2 12:2 13:1 14:8 15:0 16:0 17:0 18:0 19:0 20:0 21:0 22:0 23:0 24:1 25:2 26:3 27:3 28:2 29:8 30:8 31:3 32:3 33:3 34:3 35:2 36:0 37:0 38:0 39:41 
0.2369891235470696 1:0 2:0 3:0 4:0 5:0 6:1 7:7 8:12 9:3 10:2 11:2 12:2 13:1 14:2 15:10 16:0 17:0 18:0 19:0 20:0 21:0 22:0 23:3 24:2 25:2 26:3 27:3 28:8 29:8 30:3 31:3 32:2 33:4 34:1 35:0 36:0 37:0 38:0 39:42 
0.03807476954367026 1:0 2:0 3:0 4:0 5:0 6:7 7:10 8:1 9:2 10:2 11:2 12:2 13:2 14:11 15:0 16:0 17:0 18:0 19:0 20:0 21:0 22:0 23:2 24:2 25:2 26:3 27:2 28:8 29:7 30:3 31:3 32:3 33:2 34:2 35:0 36:0 37:0 38:0 39:39 
-0.5 1:0 2:0 3:0 4:4 5:7 6:5 7:3 8:4 9:4 10:3 11:5 12:5 13:4 14:4 15:4 16:4 17:0 18:0 19:0 20:0 21:0 22:0 23:3 24:4 25:6 26:6 27:6 28:4 29:4 30:5 31:5 32:5 33:4 34:4 35:0 36:0 37:0 38:0 39:56 
-0.0187311094377627 1:0 2:0 3:0 4:0 5:5 6:5 7:4 8:3 9:4 10:5 11:3 12:5 13:2 14:3 15:4 16:3 17:0 18:0 19:0 20:0 21:0 22:0 23:3 24:4 25:4 26:4 27:4 28:4 29:2 30:4 31:6 32:5 33:3 34:3 35:0 36:0 37:0 38:0 39:46 
-0.5 1:0 2:0 3:0 4:4 5:5 6:5 7:3 8:4 9:4 10:3 11:5 12:4 13:4 14:4 15:7 16:6 17:0 18:0 19:0 20:0 21:0 22:4 23:4 24:5 25:5 26:6 27:4 28:4 29:5 30:5 31:5 32:5 33:5 34:1 35:0 36:0 37:0 38:0 39:58 
-0.01636291020069015 1:0 2:0 3:0 4:0 5:5 6:6 7:6 8:3 9:3 10:4 11:3 12:4 13:2 14:4 15:4 16:7 17:0 18:0 19:0 20:2 21:4 22:4 23:4 24:6 25:4 26:2 27:4 28:7 29:5 30:4 31:4 32:1 33:0 34:0 35:0 36:0 37:0 38:0 39:51 
-0.5 1:0 2:0 3:0 4:0 5:0 6:0 7:5 8:4 9:5 10:4 11:4 12:5 13:3 14:5 15:3 16:3 17:0 18:0 19:0 20:0 21:0 22:3 23:4 24:4 25:3 26:5 27:4 28:2 29:4 30:4 31:3 32:3 33:2 34:0 35:0 36:0 37:0 38:0 39:41 
-0.3286109252039419 1:0 2:0 3:0 4:4 5:5 6:5 7:4 8:4 9:3 10:2 11:5 12:4 13:3 14:4 15:6 16:5 17:0 18:0 19:0 20:0 21:0 22:4 23:3 24:5 25:3 26:6 27:5 28:4 29:5 30:7 31:5 32:4 33:3 34:0 35:0 36:0 37:0 38:0 39:54 
-0.3948892981956624 1:0 2:0 3:0 4:0 5:0 6:5 7:6 8:4 9:4 10:4 11:3 12:3 13:4 14:2 15:4 16:4 17:0 18:0 19:0 20:0 21:0 22:0 23:1 24:3 25:3 26:4 27:3 28:2 29:3 30:3 31:5 32:6 33:2 34:4 35:4 36:0 37:0 38:0 39:43 
-0.05313668454846927 1:0 2:0 3:0 4:0 5:4 6:4 7:5 8:4 9:2 10:5 11:3 12:5 13:4 14:4 15:4 16:4 17:0 18:0 19:0 20:0 21:0 22:0 23:0 24:3 25:4 26:4 27:4 28:5 29:3 30:3 31:4 32:5 33:5 34:4 35:4 36:0 37:0 38:0 39:48 
-0.5 1:0 2:0 3:0 4:0 5:5 6:6 7:5 8:4 9:4 10:5 11:3 12:5 13:3 14:4 15:4 16:6 17:0 18:0 19:0 20:4 21:3 22:4 23:4 24:7 25:5 26:4 27:4 28:6 29:5 30:4 31:4 32:0 33:0 34:0 35:0 36:0 37:0 38:0 39:54 
-0.08729345138941233 1:0 2:0 3:0 4:0 5:0 6:3 7:6 8:5 9:3 10:4 11:4 12:3 13:4 14:5 15:3 16:4 17:0 18:0 19:0 20:0 21:0 22:0 23:1 24:3 25:2 26:4 27:3 28:4 29:4 30:3 31:4 32:6 33:3 34:4 35:3 36:0 37:0 38:0 39:44 
-0.5 1:0 2:0 3:0 4:0 5:4 6:6 7:5 8:3 9:4 10:4 11:2 12:3 13:0 14:2 15:4 16:4 17:0 18:0 19:0 20:0 21:3 22:4 23:3 24:2 25:4 26:3 27:2 28:3 29:5 30:4 31:5 32:3 33:0 34:0 35:0 36:0 37:0 38:0 39:41 
-0.438353429303117 1:0 2:0 3:0 4:0 5:0 6:5 7:6 8:5 9:4 10:3 11:4 12:3 13:4 14:3 15:3 16:4 17:0 18:0 19:0 20:3 21:3 22:4 23:4 24:3 25:4 26:2 27:4 28:6 29:4 30:4 31:3 32:0 33:0 34:0 35:0 36:0 37:0 38:0 39:44 
-0.5 1:0 2:0 3:0 4:0 5:0 6:5 7:6 8:5 9:4 10:3 11:5 12:3 13:3 14:2 15:3 16:3 17:0 18:0 19:0 20:2 21:4 22:4 23:4 24:4 25:4 26:1 27:3 28:5 29:4 30:4 31:3 32:0 33:0 34:0 35:0 36:0 37:0 38:0 39:42 
-0.417083061981793 1:0 2:0 3:0 4:0 5:4 6:7 7:5 8:4 9:4 10:5 11:2 12:3 13:4 14:4 15:3 16:6 17:0 18:0 19:0 20:2 21:4 22:5 23:2 24:5 25:5 26:4 27:5 28:7 29:5 30:4 31:3 32:0 33:0 34:0 35:0 36:0 37:0 38:0 39:51 
-0.5 1:0 2:0 3:0 4:0 5:0 6:0 7:4 8:6 9:3 10:4 11:4 12:5 13:3 14:3 15:4 16:5 17:0 18:0 19:0 20:0 21:0 22:0 23:0 24:2 25:4 26:4 27:4 28:3 29:4 30:3 31:5 32:4 33:3 34:2 35:3 36:0 37:0 38:0 39:41 
-0.3139427395173697 1:0 2:0 3:0 4:0 5:0 6:5 7:7 8:5 9:4 10:4 11:5 12:3 13:4 14:4 15:4 16:4 17:0 18:0 19:0 20:0 21:0 22:0 23:0 24:3 25:4 26:5 27:3 28:5 29:4 30:3 31:4 32:6 33:4 34:4 35:4 36:0 37:0 38:0 39:49 
-0.5 1:0 2:0 3:0 4:0 5:2 6:6 7:5 8:4 9:4 10:5 11:3 12:3 13:1 14:4 15:3 16:7 17:0 18:0 19:0 20:0 21:0 22:0 23:0 24:1 25:4 26:4 27:3 28:3 29:4 30:3 31:5 32:7 33:5 34:5 35:3 36:0 37:0 38:0 39:47 
