svm_type c_svc
kernel_type rbf
gamma 0.00012207
nr_class 2
total_sv 28
rho -1.87801
label 0 1
probA -3.80747
probB 0.154547
nr_sv 14 14
SV
32 1:0 2:0 3:0 4:7 5:12 6:2 7:2 8:2 9:2 10:2 11:2 12:11 13:0 14:0 15:0 16:0 17:0 18:0 19:0 20:0 21:0 22:0 23:0 24:3 25:2 26:3 27:3 28:2 29:9 30:8 31:3 32:2 33:2 34:3 35:2 36:0 37:0 38:0 39:42 
32 1:0 2:0 3:0 4:0 5:7 6:12 7:3 8:2 9:1 10:2 11:2 12:2 13:9 14:0 15:0 16:0 17:0 18:0 19:0 20:0 21:0 22:0 23:0 24:4 25:2 26:2 27:1 28:2 29:8 30:8 31:3 32:3 33:3 34:2 35:2 36:0 37:0 38:0 39:40 
5.351117292330317 1:0 2:0 3:0 4:7 5:10 6:2 7:2 8:2 9:2 10:2 11:2 12:11 13:0 14:0 15:0 16:0 17:0 18:0 19:0 20:0 21:0 22:0 23:3 24:3 25:3 26:2 27:3 28:8 29:9 30:3 31:3 32:2 33:1 34:0 35:0 36:0 37:0 38:0 39:40 
32 1:0 2:0 3:0 4:0 5:0 6:0 7:7 8:12 9:1 10:2 11:2 12:2 13:2 14:2 15:8 16:0 17:0 18:0 19:0 20:0 21:0 22:3 23:2 24:3 25:2 26:3 27:6 28:9 29:2 30:2 31:2 32:2 33:2 34:0 35:0 36:0 37:0 38:0 39:38 
8.730250208908835 1:0 2:0 3:0 4:0 5:0 6:9 7:11 8:2 9:2 10:2 11:2 12:2 13:2 14:9 15:0 16:0 17:0 18:0 19:0 20:0 21:0 22:0 23:3 24:3 25:2 26:3 27:7 28:9 29:3 30:3 31:3 32:3 33:2 34:0 35:0 36:0 37:0 38:0 39:41 
27.04605015924767 1:6 2:8 3:0 4:7 5:10 6:2 7:2 8:2 9:2 10:2 11:2 12:9 13:1 14:0 15:0 16:0 17:0 18:0 19:0 20:0 21:0 22:0 23:0 24:3 25:2 26:3 27:4 28:4 29:11 30:10 31:4 32:3 33:3 34:2 35:4 36:0 37:0 38:0 39:53 
32 1:1 2:0 3:0 4:0 5:0 6:0 7:9 8:10 9:2 10:2 11:2 12:2 13:2 14:1 15:9 16:0 17:0 18:0 19:0 20:0 21:0 22:1 23:3 24:3 25:2 26:2 27:8 28:9 29:3 30:2 31:3 32:2 33:2 34:0 35:0 36:0 37:0 38:0 39:40 
12.9577951739543 1:7 2:0 3:0 4:0 5:0 6:12 7:12 8:2 9:2 10:2 11:2 12:2 13:1 14:11 15:0 16:0 17:0 18:0 19:0 20:0 21:3 22:3 23:3 24:2 25:3 26:9 27:8 28:4 29:4 30:4 31:4 32:3 33:2 34:0 35:1 36:0 37:0 38:0 39:53 
12.75409296226048 1:2 2:0 3:0 4:0 5:0 6:9 7:11 8:2 9:2 10:2 11:1 12:1 13:3 14:10 15:0 16:0 17:0 18:0 19:0 20:1 21:2 22:3 23:3 24:2 25:3 26:3 27:7 28:8 29:0 30:3 31:4 32:3 33:1 34:0 35:0 36:0 37:0 38:0 39:43 
16.06477270124821 1:0 2:0 3:0 4:0 5:6 6:11 7:2 8:2 9:2 10:2 11:2 12:1 13:11 14:0 15:0 16:0 17:0 18:0 19:0 20:2 21:3 22:3 23:3 24:3 25:8 26:8 27:2 28:3 29:2 30:2 31:0 32:0 33:0 34:0 35:0 36:0 37:0 38:0 39:39 
29.18027796980592 1:0 2:0 3:0 4:0 5:1 6:6 7:12 8:2 9:2 10:2 11:2 12:2 13:2 14:9 15:0 16:0 17:0 18:0 19:0 20:2 21:2 22:2 23:2 24:3 25:9 26:9 27:2 28:2 29:2 30:3 31:2 32:0 33:0 34:0 35:0 36:0 37:0 38:0 39:40 
2.797914644974686 1:0 2:0 3:0 4:0 5:0 6:0 7:9 8:11 9:1 10:1 11:1 12:2 13:2 14:2 15:8 16:0 17:0 18:0 19:0 20:0 21:3 22:3 23:1 24:2 25:2 26:8 27:6 28:2 29:2 30:3 31:3 32:2 33:0 34:0 35:0 36:0 37:0 38:0 39:37 
25.79757044320608 1:0 2:0 3:0 4:0 5:7 6:12 7:1 8:1 9:2 10:2 11:1 12:2 13:10 14:0 15:0 16:0 17:0 18:0 19:0 20:2 21:2 22:3 23:3 24:3 25:7 26:8 27:2 28:2 29:2 30:2 31:2 32:0 33:0 34:0 35:0 36:0 37:0 38:0 39:38 
7.154665053697649 1:0 2:0 3:0 4:0 5:0 6:10 7:12 8:2 9:2 10:2 11:2 12:2 13:1 14:8 15:0 16:0 17:0 18:0 19:0 20:0 21:0 22:0 23:0 24:1 25:2 26:3 27:3 28:2 29:8 30:8 31:3 32:3 33:3 34:3 35:2 36:0 37:0 38:0 39:41 
-2.793087748789147 1:0 2:0 3:0 4:1 5:7 6:12 7:1 8:3 9:4 10:4 11:4 12:4 13:0 14:0 15:0 16:0 17:0 18:0 19:0 20:0 21:0 22:0 23:1 24:2 25:2 26:4 27:5 28:4 29:2 30:4 31:4 32:3 33:6 34:3 35:0 36:0 37:0 38:0 39:40 
-32 1:0 2:0 3:0 4:0 5:0 6:0 7:9 8:10 9:2 10:3 11:4 12:3 13:6 14:4 15:0 16:0 17:0 18:0 19:0 20:2 21:1 22:1 23:3 24:7 25:4 26:2 27:4 28:4 29:2 30:6 31:5 32:0 33:0 34:0 35:0 36:0 37:0 38:0 39:41 
-32 1:0 2:0 3:0 4:0 5:1 6:9 7:12 8:2 9:3 10:3 11:4 12:5 13:2 14:0 15:0 16:0 17:0 18:0 19:0 20:0 21:0 22:0 23:2 24:2 25:2 26:5 27:6 28:3 29:4 30:3 31:3 32:2 33:6 34:3 35:0 36:0 37:0 38:0 39:41 
-20.4862950033571 1:6 2:7 3:0 4:0 5:8 6:11 7:2 8:4 9:4 10:4 11:5 12:3 13:0 14:0 15:0 16:0 17:0 18:0 19:0 20:0 21:0 22:0 23:2 24:2 25:7 26:9 27:4 28:6 29:4 30:5 31:5 32:6 33:4 34:0 35:0 36:0 37:0 38:0 39:54 
-10.3859318091819 1:0 2:0 3:0 4:0 5:0 6:0 7:9 8:12 9:2 10:3 11:4 12:4 13:7 14:4 15:0 16:0 17:0 18:0 19:0 20:0 21:0 22:0 23:1 24:2 25:3 26:4 27:7 28:3 29:4 30:2 31:4 32:3 33:7 34:5 35:0 36:0 37:0 38:0 39:45 
-32 1:0 2:0 3:0 4:0 5:5 6:12 7:1 8:3 9:4 10:4 11:4 12:4 13:0 14:0 15:0 16:0 17:0 18:0 19:0 20:0 21:0 22:0 23:0 24:1 25:1 26:2 27:3 28:5 29:3 30:2 31:3 32:2 33:3 34:7 35:5 36:0 37:0 38:0 39:37 
-19.74813577689462 1:0 2:0 3:0 4:0 5:0 6:0 7:8 8:11 9:3 10:3 11:3 12:4 13:7 14:2 15:0 16:0 17:0 18:0 19:0 20:0 21:3 22:2 23:1 24:3 25:7 26:3 27:2 28:3 29:3 30:3 31:7 32:4 33:0 34:0 35:0 36:0 37:0 38:0 39:41 
-32 1:0 2:0 3:0 4:8 5:12 6:3 7:3 8:2 9:4 10:5 11:4 12:0 13:0 14:0 15:0 16:0 17:0 18:0 19:0 20:2 21:1 22:2 23:5 24:6 25:5 26:3 27:3 28:3 29:3 30:5 31:3 32:0 33:0 34:0 35:0 36:0 37:0 38:0 39:41 
-32 1:0 2:0 3:0 4:0 5:0 6:8 7:8 8:2 9:2 10:4 11:3 12:7 13:4 14:0 15:0 16:0 17:0 18:0 19:0 20:0 21:0 22:2 23:1 24:2 25:3 26:6 27:3 28:2 29:4 30:3 31:3 32:6 33:3 34:0 35:0 36:0 37:0 38:0 39:38 
-22.47454430900338 1:8 2:0 3:0 4:8 5:11 6:4 7:3 8:3 9:3 10:7 11:3 12:0 13:0 14:0 15:0 16:0 17:0 18:0 19:0 20:1 21:1 22:2 23:5 24:7 25:3 26:6 27:4 28:5 29:4 30:8 31:4 32:0 33:0 34:0 35:0 36:0 37:0 38:0 39:50 
-16.41709817915585 1:0 2:0 3:0 4:0 5:0 6:10 7:12 8:2 9:3 10:4 11:3 12:7 13:5 14:0 15:0 16:0 17:0 18:0 19:0 20:0 21:0 22:2 23:2 24:2 25:4 26:6 27:4 28:3 29:4 30:4 31:3 32:7 33:5 34:0 35:0 36:0 37:0 38:0 39:46 
-21.21817689320893 1:0 2:0 3:0 4:0 5:0 6:0 7:5 8:9 9:2 10:4 11:4 12:4 13:6 14:1 15:2 16:1 17:0 18:0 19:0 20:2 21:1 22:2 23:6 24:5 25:2 26:1 27:3 28:3 29:2 30:7 31:4 32:0 33:0 34:0 35:0 36:0 37:0 38:0 39:38 
-1.029066835697658 1:7 2:7 3:0 4:0 5:7 6:11 7:3 8:3 9:4 10:3 11:5 12:4 13:0 14:0 15:0 16:0 17:0 18:0 19:0 20:1 21:3 22:1 23:4 24:7 25:4 26:5 27:5 28:5 29:4 30:8 31:7 32:0 33:0 34:0 35:0 36:0 37:0 38:0 39:54 
-1.282170054345561 1:4 2:8 3:0 4:10 5:12 6:4 7:2 8:4 9:4 10:5 11:4 12:0 13:0 14:0 15:0 16:0 17:0 18:0 19:0 20:1 21:2 22:3 23:4 24:7 25:3 26:3 27:4 28:6 29:5 30:8 31:6 32:1 33:1 34:2 35:1 36:0 37:0 38:0 39:57 
