svm_type c_svc
kernel_type rbf
gamma 0.0078125
nr_class 2
total_sv 53
rho -0.017038
label 1 0
probA -4.80873
probB -0.341928
nr_sv 27 26
SV
0.5 1:0 2:0 3:0 4:0 5:0 6:2 7:8 8:2 9:2 10:1 11:1 12:8 13:1 14:0 15:0 16:0 17:0 18:0 19:0 20:0 21:0 22:0 23:2 24:3 25:2 26:3 27:2 28:3 29:3 30:5 31:2 32:0 33:0 34:0 35:0 36:0 37:0 38:0 39:25 
0.1554276201234164 1:0 2:0 3:0 4:0 5:0 6:0 7:6 8:8 9:2 10:2 11:1 12:1 13:9 14:0 15:0 16:0 17:0 18:0 19:0 20:0 21:0 22:0 23:3 24:2 25:3 26:3 27:3 28:3 29:3 30:6 31:3 32:0 33:0 34:0 35:0 36:0 37:0 38:0 39:29 
0.5 1:0 2:0 3:0 4:0 5:3 6:7 7:1 8:2 9:1 10:2 11:8 12:0 13:0 14:0 15:0 16:0 17:0 18:0 19:0 20:0 21:0 22:0 23:0 24:0 25:2 26:3 27:2 28:3 29:4 30:2 31:5 32:3 33:0 34:0 35:0 36:0 37:0 38:0 39:24 
0.5 1:0 2:0 3:1 4:5 5:7 6:2 7:1 8:1 9:1 10:9 11:0 12:0 13:0 14:0 15:0 16:0 17:0 18:0 19:0 20:0 21:0 22:0 23:0 24:0 25:1 26:3 27:2 28:2 29:2 30:3 31:3 32:3 33:5 34:3 35:0 36:0 37:0 38:0 39:27 
0.5 1:0 2:0 3:0 4:0 5:4 6:7 7:2 8:2 9:0 10:2 11:7 12:0 13:0 14:0 15:0 16:0 17:0 18:0 19:0 20:0 21:0 22:0 23:0 24:0 25:0 26:0 27:1 28:2 29:2 30:3 31:2 32:3 33:3 34:5 35:3 36:0 37:0 38:0 39:24 
0.5 1:0 2:0 3:0 4:0 5:3 6:7 7:2 8:1 9:1 10:2 11:7 12:0 13:0 14:0 15:0 16:0 17:0 18:0 19:0 20:0 21:0 22:0 23:0 24:0 25:2 26:0 27:3 28:3 29:2 30:2 31:3 32:5 33:3 34:0 35:0 36:0 37:0 38:0 39:23 
0.5 1:0 2:0 3:0 4:5 5:7 6:2 7:2 8:1 9:1 10:7 11:0 12:0 13:0 14:0 15:0 16:0 17:0 18:0 19:0 20:0 21:0 22:0 23:3 24:3 25:2 26:3 27:2 28:2 29:1 30:6 31:3 32:0 33:0 34:0 35:0 36:0 37:0 38:0 39:25 
0.2955560841799315 1:0 2:0 3:0 4:0 5:0 6:4 7:7 8:2 9:2 10:2 11:2 12:9 13:0 14:0 15:0 16:0 17:0 18:0 19:0 20:0 21:0 22:0 23:0 24:1 25:3 26:3 27:2 28:3 29:3 30:3 31:6 32:4 33:0 34:0 35:0 36:0 37:0 38:0 39:28 
0.5 1:0 2:0 3:0 4:0 5:4 6:6 7:2 8:2 9:1 10:1 11:5 12:0 13:0 14:0 15:0 16:0 17:0 18:0 19:0 20:0 21:0 22:0 23:0 24:0 25:3 26:1 27:1 28:1 29:1 30:3 31:2 32:6 33:3 34:0 35:0 36:0 37:0 38:0 39:21 
0.5 1:7 2:1 3:0 4:0 5:0 6:0 7:6 8:5 9:2 10:2 11:1 12:3 13:8 14:1 15:0 16:0 17:0 18:0 19:0 20:0 21:0 22:0 23:4 24:3 25:4 26:3 27:6 28:3 29:4 30:6 31:3 32:0 33:0 34:0 35:0 36:0 37:0 38:0 39:36 
0.1457424345618209 1:0 2:0 3:0 4:5 5:8 6:3 7:1 8:1 9:2 10:9 11:0 12:0 13:0 14:0 15:0 16:0 17:0 18:0 19:0 20:0 21:0 22:0 23:0 24:0 25:3 26:2 27:3 28:3 29:3 30:3 31:4 32:6 33:2 34:0 35:0 36:0 37:0 38:0 39:29 
0.2204440907209936 1:0 2:0 3:0 4:0 5:5 6:8 7:2 8:2 9:1 10:2 11:6 12:0 13:0 14:0 15:0 16:0 17:0 18:0 19:0 20:0 21:0 22:0 23:3 24:3 25:3 26:3 27:1 28:2 29:3 30:6 31:2 32:0 33:0 34:0 35:0 36:0 37:0 38:0 39:26 
0.5 1:0 2:0 3:0 4:0 5:0 6:0 7:4 8:8 9:2 10:2 11:1 12:2 13:7 14:0 15:0 16:0 17:0 18:0 19:0 20:0 21:0 22:0 23:0 24:0 25:0 26:0 27:2 28:2 29:1 30:3 31:3 32:2 33:4 34:6 35:3 36:0 37:0 38:0 39:26 
0.5 1:0 2:0 3:0 4:0 5:0 6:0 7:4 8:8 9:2 10:2 11:1 12:2 13:4 14:0 15:0 16:0 17:0 18:0 19:0 20:0 21:0 22:0 23:0 24:0 25:3 26:1 27:2 28:1 29:2 30:2 31:3 32:6 33:3 34:0 35:0 36:0 37:0 38:0 39:23 
0.0434524369160262 1:1 2:0 3:0 4:0 5:5 6:8 7:2 8:2 9:1 10:1 11:7 12:0 13:0 14:0 15:0 16:0 17:0 18:0 19:0 20:0 21:0 22:0 23:0 24:0 25:0 26:0 27:2 28:2 29:3 30:3 31:3 32:2 33:3 34:6 35:3 36:0 37:0 38:0 39:27 
0.2047827793623855 1:0 2:0 3:0 4:0 5:5 6:8 7:2 8:2 9:2 10:3 11:9 12:0 13:0 14:0 15:0 16:0 17:0 18:0 19:0 20:0 21:0 22:0 23:0 24:0 25:0 26:3 27:3 28:2 29:3 30:2 31:4 32:4 33:6 34:4 35:0 36:0 37:0 38:0 39:31 
0.5 1:0 2:0 3:0 4:0 5:0 6:4 7:7 8:3 9:2 10:1 11:0 12:8 13:0 14:0 15:0 16:0 17:0 18:0 19:0 20:0 21:0 22:0 23:0 24:0 25:0 26:2 27:2 28:2 29:3 30:3 31:3 32:3 33:5 34:2 35:0 36:0 37:0 38:0 39:25 
0.5 1:0 2:0 3:0 4:5 5:7 6:1 7:1 8:1 9:1 10:8 11:0 12:0 13:0 14:0 15:0 16:0 17:0 18:0 19:0 20:0 21:0 22:0 23:0 24:0 25:3 26:3 27:2 28:2 29:3 30:3 31:2 32:4 33:2 34:0 35:0 36:0 37:0 38:0 39:24 
0.5 1:0 2:0 3:0 4:0 5:0 6:3 7:8 8:2 9:2 10:1 11:2 12:9 13:0 14:0 15:0 16:0 17:0 18:0 19:0 20:0 21:0 22:0 23:0 24:0 25:2 26:2 27:3 28:2 29:2 30:3 31:4 32:6 33:3 34:0 35:0 36:0 37:0 38:0 39:27 
0.03170866975217716 1:0 2:0 3:0 4:0 5:0 6:0 7:5 8:8 9:2 10:2 11:1 12:2 13:9 14:0 15:0 16:0 17:0 18:0 19:0 20:0 21:0 22:0 23:0 24:3 25:3 26:3 27:3 28:2 29:3 30:3 31:6 32:3 33:0 34:0 35:0 36:0 37:0 38:0 39:29 
0.09931884649553015 1:0 2:0 3:0 4:1 5:3 6:8 7:2 8:2 9:1 10:1 11:9 12:0 13:0 14:0 15:0 16:0 17:0 18:0 19:0 20:0 21:0 22:0 23:0 24:2 25:3 26:3 27:3 28:3 29:2 30:2 31:6 32:3 33:0 34:0 35:0 36:0 37:0 38:0 39:27 
0.5 1:0 2:0 3:0 4:0 5:0 6:4 7:8 8:2 9:1 10:1 11:1 12:5 13:0 14:0 15:0 16:0 17:0 18:0 19:0 20:0 21:0 22:0 23:2 24:3 25:1 26:2 27:1 28:2 29:3 30:5 31:3 32:0 33:0 34:0 35:0 36:0 37:0 38:0 39:22 
0.5 1:0 2:0 3:0 4:0 5:4 6:6 7:2 8:2 9:1 10:1 11:8 12:0 13:0 14:0 15:0 16:0 17:0 18:0 19:0 20:0 21:0 22:0 23:0 24:0 25:3 26:2 27:2 28:3 29:3 30:2 31:3 32:4 33:2 34:0 35:0 36:0 37:0 38:0 39:24 
0.295569376215252 1:0 2:0 3:0 4:0 5:0 6:6 7:7 8:2 9:3 10:1 11:2 12:6 13:0 14:0 15:0 16:0 17:0 18:0 19:0 20:0 21:0 22:0 23:0 24:0 25:0 26:0 27:3 28:3 29:2 30:2 31:2 32:2 33:4 34:5 35:3 36:1 37:0 38:0 39:27 
0.5 1:0 2:0 3:0 4:0 5:0 6:0 7:5 8:7 9:1 10:2 11:1 12:1 13:6 14:0 15:0 16:0 17:0 18:0 19:0 20:0 21:0 22:0 23:0 24:0 25:2 26:2 27:1 28:3 29:2 30:2 31:3 32:5 33:3 34:0 35:0 36:0 37:0 38:0 39:23 
0.5 1:0 2:0 3:0 4:4 5:8 6:2 7:2 8:1 9:2 10:7 11:0 12:0 13:0 14:0 15:0 16:0 17:0 18:0 19:0 20:0 21:0 22:0 23:0 24:0 25:0 26:3 27:2 28:3 29:1 30:2 31:3 32:3 33:6 34:3 35:0 36:0 37:0 38:0 39:26 
0.5 1:0 2:0 3:0 4:0 5:3 6:8 7:2 8:2 9:1 10:1 11:6 12:0 13:0 14:0 15:0 16:0 17:0 18:0 19:0 20:0 21:0 22:0 23:3 24:1 25:1 26:1 27:2 28:3 29:3 30:6 31:3 32:0 33:0 34:0 35:0 36:0 37:0 38:0 39:23 
-0.189942372569945 1:0 2:0 3:0 4:0 5:3 6:3 7:2 8:1 9:2 10:11 11:0 12:0 13:0 14:0 15:0 16:0 17:0 18:0 19:0 20:1 21:1 22:1 23:1 24:1 25:1 26:1 27:1 28:2 29:3 30:6 31:3 32:0 33:0 34:0 35:0 36:0 37:0 38:0 39:22 
-0.2591436944462903 1:0 2:0 3:0 4:3 5:2 6:2 7:2 8:2 9:8 10:0 11:0 12:0 13:0 14:0 15:0 16:0 17:0 18:0 19:0 20:2 21:0 22:1 23:1 24:1 25:0 26:0 27:0 28:0 29:1 30:2 31:2 32:6 33:3 34:0 35:0 36:0 37:0 38:0 39:19 
-0.5 1:0 2:0 3:0 4:0 5:0 6:0 7:3 8:3 9:0 10:2 11:2 12:11 13:1 14:0 15:0 16:0 17:0 18:0 19:0 20:0 21:0 22:1 23:1 24:1 25:1 26:2 27:1 28:1 29:1 30:2 31:3 32:5 33:3 34:0 35:0 36:0 37:0 38:0 39:22 
-0.5 1:0 2:0 3:0 4:0 5:0 6:0 7:3 8:3 9:2 10:2 11:1 12:11 13:0 14:0 15:0 16:0 17:0 18:0 19:0 20:0 21:1 22:1 23:1 24:1 25:1 26:1 27:1 28:1 29:2 30:3 31:6 32:3 33:0 34:0 35:0 36:0 37:0 38:0 39:22 
-0.5 1:0 2:0 3:0 4:0 5:2 6:4 7:3 8:2 9:2 10:2 11:7 12:1 13:0 14:0 15:0 16:0 17:0 18:2 19:0 20:1 21:0 22:0 23:0 24:1 25:1 26:1 27:1 28:2 29:3 30:6 31:5 32:0 33:0 34:0 35:0 36:0 37:0 38:0 39:23 
-0.5 1:0 2:0 3:0 4:0 5:0 6:0 7:2 8:3 9:2 10:2 11:2 12:11 13:0 14:0 15:0 16:0 17:0 18:0 19:0 20:1 21:1 22:1 23:1 24:1 25:1 26:1 27:1 28:1 29:3 30:6 31:4 32:0 33:0 34:0 35:0 36:0 37:0 38:0 39:22 
-0.5 1:0 2:0 3:0 4:0 5:0 6:3 7:2 8:2 9:2 10:2 11:11 12:1 13:0 14:0 15:0 16:0 17:0 18:0 19:1 20:1 21:1 22:1 23:1 24:1 25:1 26:1 27:1 28:2 29:3 30:6 31:3 32:0 33:0 34:0 35:0 36:0 37:0 38:0 39:23 
-0.5 1:0 2:1 3:1 4:3 5:3 6:2 7:2 8:2 9:11 10:0 11:0 12:0 13:0 14:0 15:0 16:0 17:0 18:1 19:1 20:0 21:0 22:0 23:1 24:1 25:1 26:1 27:1 28:1 29:1 30:1 31:2 32:3 33:6 34:4 35:0 36:0 37:0 38:0 39:25 
-0.5 1:0 2:0 3:0 4:0 5:3 6:3 7:2 8:2 9:2 10:11 11:0 12:0 13:0 14:0 15:0 16:0 17:0 18:0 19:0 20:1 21:1 22:1 23:1 24:1 25:1 26:1 27:1 28:2 29:3 30:6 31:4 32:0 33:0 34:0 35:0 36:0 37:0 38:0 39:23 
-0.4898057280172497 1:0 2:0 3:0 4:0 5:3 6:3 7:2 8:2 9:1 10:9 11:0 12:0 13:0 14:0 15:0 16:0 17:0 18:0 19:0 20:0 21:0 22:1 23:1 24:1 25:1 26:1 27:1 28:0 29:0 30:2 31:3 32:6 33:3 34:0 35:0 36:0 37:0 38:0 39:20 
-0.2172719085655401 1:0 2:0 3:0 4:0 5:0 6:0 7:3 8:3 9:2 10:2 11:3 12:7 13:0 14:0 15:0 16:0 17:0 18:0 19:0 20:0 21:0 22:0 23:1 24:1 25:1 26:0 27:0 28:0 29:0 30:1 31:2 32:3 33:6 34:4 35:1 36:0 37:0 38:0 39:20 
-0.5 1:0 2:0 3:0 4:0 5:0 6:0 7:3 8:3 9:2 10:2 11:1 12:11 13:0 14:0 15:0 16:0 17:0 18:0 19:0 20:0 21:0 22:1 23:1 24:1 25:1 26:1 27:1 28:1 29:1 30:2 31:3 32:6 33:3 34:0 35:0 36:0 37:0 38:0 39:22 
-0.4988300353927869 1:0 2:0 3:0 4:0 5:0 6:3 7:3 8:2 9:2 10:2 11:11 12:0 13:0 14:0 15:0 16:0 17:0 18:0 19:0 20:1 21:1 22:1 23:1 24:1 25:1 26:1 27:1 28:2 29:3 30:6 31:4 32:0 33:0 34:0 35:0 36:0 37:0 38:0 39:23 
-0.5 1:0 2:0 3:0 4:0 5:3 6:3 7:2 8:2 9:2 10:11 11:0 12:0 13:0 14:0 15:0 16:0 17:0 18:0 19:0 20:0 21:0 22:0 23:1 24:1 25:1 26:1 27:1 28:1 29:1 30:1 31:2 32:3 33:6 34:4 35:0 36:0 37:0 38:0 39:23 
-0.06784758864404035 1:0 2:0 3:0 4:0 5:3 6:3 7:2 8:2 9:2 10:11 11:0 12:0 13:0 14:0 15:0 16:0 17:0 18:0 19:0 20:0 21:1 22:1 23:1 24:1 25:1 26:1 27:1 28:1 29:2 30:3 31:6 32:4 33:0 34:0 35:0 36:0 37:0 38:0 39:23 
-0.4572959469060576 1:0 2:0 3:0 4:0 5:0 6:3 7:3 8:2 9:2 10:2 11:8 12:0 13:0 14:0 15:0 16:0 17:0 18:0 19:0 20:0 21:0 22:1 23:1 24:1 25:0 26:0 27:1 28:1 29:1 30:2 31:3 32:5 33:4 34:0 35:0 36:0 37:0 38:0 39:20 
-0.2003460710052819 1:0 2:0 3:0 4:0 5:0 6:3 7:3 8:2 9:2 10:2 11:9 12:0 13:0 14:0 15:0 16:0 17:0 18:0 19:0 20:0 21:1 22:1 23:0 24:0 25:1 26:1 27:1 28:1 29:2 30:3 31:6 32:4 33:0 34:0 35:0 36:0 37:0 38:0 39:21 
-0.1634213826770605 1:0 2:0 3:0 4:0 5:3 6:3 7:2 8:2 9:2 10:4 11:0 12:0 13:0 14:0 15:0 16:0 17:0 18:0 19:0 20:0 21:0 22:1 23:0 24:0 25:1 26:1 27:1 28:1 29:2 30:5 31:4 32:0 33:0 34:0 35:0 36:0 37:0 38:0 39:16 
-0.5 1:0 2:0 3:0 4:0 5:0 6:3 7:3 8:2 9:2 10:2 11:9 12:0 13:0 14:0 15:0 16:0 17:0 18:0 19:0 20:0 21:0 22:0 23:0 24:1 25:1 26:0 27:0 28:1 29:1 30:1 31:1 32:2 33:3 34:6 35:4 36:0 37:0 38:0 39:21 
-0.5 1:0 2:0 3:0 4:0 5:3 6:3 7:2 8:2 9:2 10:11 11:0 12:0 13:0 14:0 15:0 16:0 17:0 18:0 19:0 20:0 21:1 22:1 23:1 24:1 25:1 26:1 27:1 28:1 29:2 30:3 31:6 32:4 33:0 34:0 35:0 36:0 37:0 38:0 39:23 
-0.5 1:0 2:0 3:0 4:0 5:0 6:3 7:3 8:2 9:2 10:2 11:9 12:0 13:0 14:0 15:0 16:0 17:0 18:0 19:0 20:0 21:1 22:0 23:0 24:1 25:1 26:1 27:1 28:1 29:2 30:3 31:6 32:4 33:0 34:0 35:0 36:0 37:0 38:0 39:21 
-0.3883589448889651 1:0 2:0 3:0 4:3 5:2 6:2 7:2 8:2 9:8 10:0 11:0 12:0 13:0 14:0 15:0 16:0 17:0 18:0 19:0 20:0 21:0 22:0 23:1 24:1 25:1 26:1 27:1 28:2 29:3 30:5 31:4 32:0 33:0 34:0 35:0 36:0 37:0 38:0 39:19 
-0.5 1:0 2:0 3:0 4:0 5:0 6:3 7:3 8:1 9:2 10:2 11:11 12:1 13:0 14:0 15:0 16:0 17:0 18:0 19:0 20:0 21:0 22:0 23:1 24:1 25:1 26:1 27:1 28:1 29:1 30:1 31:2 32:3 33:7 34:3 35:0 36:0 37:0 38:0 39:23 
-0.5 1:0 2:0 3:0 4:0 5:2 6:3 7:2 8:2 9:3 10:11 11:0 12:0 13:0 14:0 15:0 16:0 17:0 18:0 19:0 20:0 21:0 22:0 23:0 24:1 25:2 26:1 27:1 28:1 29:1 30:1 31:1 32:2 33:3 34:5 35:4 36:0 37:0 38:0 39:23 
-0.399292440925988 1:0 2:0 3:0 4:2 5:3 6:2 7:2 8:2 9:8 10:0 11:0 12:0 13:0 14:0 15:0 16:0 17:0 18:0 19:0 20:0 21:0 22:0 23:0 24:1 25:1 26:1 27:1 28:1 29:1 30:1 31:0 32:1 33:3 34:4 35:4 36:0 37:0 38:0 39:19 
-0.1604462242883281 1:0 2:0 3:0 4:2 5:3 6:2 7:1 8:2 9:10 10:1 11:0 12:0 13:0 14:0 15:0 16:0 17:0 18:0 19:0 20:0 21:1 22:2 23:1 24:1 25:1 26:1 27:1 28:2 29:2 30:5 31:4 32:0 33:0 34:0 35:0 36:0 37:0 38:0 39:21 
