svm_type c_svc
kernel_type rbf
gamma 0.0078125
nr_class 2
total_sv 47
rho -0.0682067
label 1 0
probA -4.21624
probB -0.358878
nr_sv 23 24
SV
0.5 1:0 2:0 3:1 4:6 5:8 6:1 7:1 8:1 9:2 10:7 11:0 12:0 13:0 14:0 15:0 16:0 17:0 18:0 19:0 20:0 21:0 22:1 23:3 24:7 25:3 26:2 27:3 28:2 29:2 30:2 31:2 32:0 33:0 34:0 35:0 36:0 37:0 38:0 39:27 
0.1775302353907518 1:0 2:0 3:0 4:0 5:0 6:6 7:8 8:1 9:1 10:2 11:3 12:7 13:0 14:0 15:0 16:0 17:0 18:0 19:0 20:0 21:0 22:0 23:0 24:0 25:0 26:4 27:7 28:2 29:2 30:3 31:4 32:3 33:3 34:0 35:0 36:0 37:0 38:0 39:28 
0.5 1:0 2:0 3:0 4:0 5:6 6:8 7:1 8:1 9:2 10:2 11:5 12:0 13:0 14:0 15:0 16:0 17:0 18:0 19:0 20:0 21:0 22:0 23:0 24:0 25:0 26:0 27:2 28:7 29:3 30:2 31:3 32:3 33:2 34:2 35:1 36:0 37:0 38:0 39:25 
0.5 1:0 2:0 3:0 4:0 5:0 6:4 7:9 8:1 9:1 10:2 11:3 12:6 13:0 14:0 15:0 16:0 17:0 18:0 19:0 20:0 21:0 22:0 23:0 24:0 25:3 26:7 27:2 28:2 29:3 30:3 31:2 32:3 33:1 34:0 35:0 36:0 37:0 38:0 39:26 
0.03251069591922028 1:0 2:0 3:0 4:0 5:0 6:0 7:7 8:8 9:1 10:1 11:2 12:2 13:5 14:0 15:0 16:0 17:0 18:0 19:0 20:0 21:0 22:0 23:0 24:0 25:3 26:6 27:3 28:2 29:3 30:3 31:2 32:2 33:2 34:0 35:0 36:0 37:0 38:0 39:26 
0.3002673933373308 1:3 2:3 3:0 4:0 5:0 6:0 7:5 8:9 9:1 10:1 11:2 12:2 13:7 14:0 15:0 16:0 17:0 18:0 19:0 20:0 21:0 22:0 23:1 24:1 25:1 26:1 27:5 28:6 29:4 30:2 31:3 32:2 33:3 34:2 35:2 36:0 37:0 38:0 39:33 
0.5 1:0 2:0 3:0 4:5 5:7 6:1 7:1 8:2 9:1 10:7 11:0 12:0 13:0 14:0 15:0 16:0 17:0 18:0 19:0 20:0 21:0 22:0 23:0 24:0 25:3 26:6 27:2 28:2 29:3 30:2 31:2 32:3 33:1 34:0 35:0 36:0 37:0 38:0 39:24 
0.08819708873889268 1:0 2:0 3:0 4:0 5:6 6:7 7:1 8:1 9:2 10:2 11:7 12:0 13:0 14:0 15:0 16:0 17:0 18:0 19:0 20:0 21:0 22:0 23:0 24:0 25:4 26:5 27:2 28:2 29:3 30:2 31:3 32:3 33:2 34:0 35:0 36:0 37:0 38:0 39:26 
0.5 1:0 2:0 3:0 4:1 5:0 6:0 7:5 8:8 9:1 10:1 11:2 12:2 13:5 14:0 15:0 16:0 17:0 18:0 19:1 20:0 21:0 22:0 23:0 24:4 25:6 26:2 27:0 28:1 29:3 30:3 31:3 32:2 33:0 34:0 35:0 36:0 37:0 38:0 39:25 
0.2117382857724567 1:0 2:0 3:0 4:0 5:7 6:7 7:1 8:1 9:2 10:2 11:7 12:0 13:0 14:0 15:0 16:0 17:0 18:0 19:0 20:0 21:0 22:0 23:4 24:6 25:3 26:1 27:2 28:3 29:3 30:3 31:2 32:0 33:0 34:0 35:0 36:0 37:0 38:0 39:27 
0.5 1:0 2:0 3:0 4:6 5:8 6:1 7:1 8:2 9:2 10:5 11:0 12:0 13:0 14:0 15:0 16:0 17:0 18:0 19:0 20:0 21:0 22:0 23:0 24:0 25:4 26:6 27:3 28:1 29:2 30:3 31:2 32:2 33:2 34:0 35:0 36:0 37:0 38:0 39:25 
0.2944560719231055 1:0 2:0 3:0 4:0 5:7 6:8 7:1 8:1 9:2 10:2 11:6 12:0 13:0 14:0 15:0 16:0 17:0 18:0 19:0 20:0 21:0 22:0 23:0 24:0 25:0 26:0 27:3 28:5 29:3 30:3 31:3 32:3 33:2 34:3 35:2 36:0 37:0 38:0 39:27 
0.5 1:0 2:0 3:0 4:0 5:0 6:5 7:8 8:1 9:1 10:2 11:2 12:7 13:0 14:0 15:0 16:0 17:0 18:0 19:0 20:0 21:0 22:0 23:0 24:0 25:0 26:0 27:4 28:6 29:3 30:2 31:3 32:3 33:3 34:2 35:0 36:0 37:0 38:0 39:26 
0.5 1:0 2:0 3:0 4:0 5:0 6:0 7:5 8:6 9:1 10:1 11:2 12:2 13:7 14:0 15:0 16:0 17:0 18:0 19:0 20:0 21:0 22:0 23:0 24:3 25:7 26:2 27:3 28:3 29:1 30:3 31:2 32:0 33:0 34:0 35:0 36:0 37:0 38:0 39:24 
0.2009684509885491 1:0 2:0 3:0 4:0 5:5 6:8 7:0 8:1 9:1 10:2 11:5 12:1 13:0 14:0 15:0 16:0 17:0 18:0 19:0 20:0 21:0 22:0 23:0 24:0 25:3 26:6 27:2 28:3 29:4 30:2 31:2 32:1 33:0 34:0 35:0 36:0 37:0 38:0 39:23 
0.5 1:0 2:0 3:0 4:0 5:4 6:8 7:1 8:1 9:2 10:2 11:5 12:0 13:0 14:0 15:0 16:0 17:0 18:0 19:0 20:0 21:0 22:0 23:3 24:6 25:3 26:2 27:2 28:1 29:2 30:2 31:2 32:0 33:0 34:0 35:0 36:0 37:0 38:0 39:23 
0.4439642992283762 1:4 2:3 3:0 4:0 5:0 6:6 7:8 8:1 9:1 10:2 11:3 12:7 13:0 14:0 15:0 16:0 17:0 18:0 19:0 20:0 21:0 22:1 23:4 24:6 25:2 26:2 27:4 28:4 29:5 30:3 31:3 32:1 33:0 34:0 35:0 36:0 37:0 38:0 39:35 
0.5 1:0 2:0 3:0 4:0 5:5 6:7 7:1 8:1 9:2 10:1 11:5 12:0 13:0 14:0 15:0 16:0 17:0 18:0 19:0 20:0 21:0 22:0 23:0 24:0 25:1 26:4 27:4 28:3 29:1 30:1 31:3 32:1 33:3 34:1 35:0 36:0 37:0 38:0 39:22 
0.1417519012953107 1:0 2:0 3:0 4:0 5:0 6:6 7:9 8:1 9:1 10:2 11:2 12:6 13:0 14:0 15:0 16:0 17:0 18:0 19:0 20:0 21:0 22:0 23:0 24:0 25:0 26:0 27:4 28:5 29:3 30:2 31:3 32:3 33:2 34:3 35:2 36:0 37:0 38:0 39:27 
0.4797685990188903 1:0 2:0 3:0 4:0 5:0 6:0 7:6 8:9 9:1 10:1 11:2 12:2 13:6 14:0 15:0 16:0 17:0 18:0 19:0 20:0 21:0 22:0 23:0 24:0 25:0 26:0 27:4 28:6 29:3 30:2 31:2 32:3 33:3 34:2 35:2 36:0 37:0 38:0 39:27 
0.2159928449911861 1:0 2:0 3:0 4:0 5:5 6:8 7:1 8:1 9:2 10:3 11:4 12:0 13:0 14:0 15:0 16:0 17:0 18:0 19:0 20:0 21:0 22:0 23:0 24:0 25:1 26:4 27:6 28:2 29:3 30:2 31:2 32:0 33:3 34:1 35:0 36:0 37:0 38:0 39:24 
0.1004287921396015 1:0 2:0 3:0 4:0 5:0 6:5 7:7 8:1 9:1 10:2 11:2 12:7 13:1 14:0 15:0 16:0 17:0 18:0 19:0 20:0 21:0 22:0 23:0 24:3 25:6 26:3 27:2 28:3 29:3 30:2 31:2 32:2 33:0 34:0 35:0 36:0 37:0 38:0 39:26 
0.2083604848272464 1:0 2:0 3:0 4:0 5:0 6:6 7:8 8:2 9:1 10:1 11:2 12:7 13:0 14:0 15:0 16:0 17:0 18:0 19:0 20:0 21:0 22:0 23:4 24:6 25:3 26:3 27:2 28:2 29:3 30:3 31:1 32:0 33:0 34:0 35:0 36:0 37:0 38:0 39:27 
-0.08260776133299982 1:0 2:0 3:0 4:3 5:2 6:2 7:2 8:2 9:8 10:0 11:0 12:0 13:0 14:0 15:0 16:0 17:0 18:0 19:0 20:2 21:0 22:1 23:1 24:1 25:0 26:0 27:0 28:0 29:1 30:2 31:2 32:6 33:3 34:0 35:0 36:0 37:0 38:0 39:19 
-0.5 1:0 2:0 3:0 4:0 5:0 6:0 7:3 8:3 9:0 10:2 11:2 12:11 13:1 14:0 15:0 16:0 17:0 18:0 19:0 20:0 21:0 22:1 23:1 24:1 25:1 26:2 27:1 28:1 29:1 30:2 31:3 32:5 33:3 34:0 35:0 36:0 37:0 38:0 39:22 
-0.0008560882228524366 1:0 2:0 3:0 4:0 5:0 6:3 7:3 8:2 9:2 10:2 11:11 12:0 13:0 14:0 15:0 16:0 17:0 18:0 19:0 20:1 21:1 22:1 23:1 24:1 25:1 26:1 27:1 28:2 29:3 30:6 31:4 32:0 33:0 34:0 35:0 36:0 37:0 38:0 39:23 
-0.1475175223591175 1:0 2:0 3:0 4:0 5:0 6:0 7:3 8:3 9:2 10:2 11:1 12:11 13:0 14:0 15:0 16:0 17:0 18:0 19:0 20:0 21:1 22:1 23:1 24:1 25:1 26:1 27:1 28:1 29:2 30:3 31:6 32:3 33:0 34:0 35:0 36:0 37:0 38:0 39:22 
-0.5 1:0 2:0 3:0 4:0 5:2 6:4 7:3 8:2 9:2 10:2 11:7 12:1 13:0 14:0 15:0 16:0 17:0 18:2 19:0 20:1 21:0 22:0 23:0 24:1 25:1 26:1 27:1 28:2 29:3 30:6 31:5 32:0 33:0 34:0 35:0 36:0 37:0 38:0 39:23 
-0.4751937800154213 1:0 2:0 3:0 4:0 5:0 6:0 7:2 8:3 9:2 10:2 11:2 12:11 13:0 14:0 15:0 16:0 17:0 18:0 19:0 20:1 21:1 22:1 23:1 24:1 25:1 26:1 27:1 28:1 29:3 30:6 31:4 32:0 33:0 34:0 35:0 36:0 37:0 38:0 39:22 
-0.5 1:0 2:0 3:0 4:0 5:0 6:3 7:2 8:2 9:2 10:2 11:11 12:1 13:0 14:0 15:0 16:0 17:0 18:0 19:1 20:1 21:1 22:1 23:1 24:1 25:1 26:1 27:1 28:2 29:3 30:6 31:3 32:0 33:0 34:0 35:0 36:0 37:0 38:0 39:23 
-0.5 1:0 2:1 3:1 4:3 5:3 6:2 7:2 8:2 9:11 10:0 11:0 12:0 13:0 14:0 15:0 16:0 17:0 18:1 19:1 20:0 21:0 22:0 23:1 24:1 25:1 26:1 27:1 28:1 29:1 30:1 31:2 32:3 33:6 34:4 35:0 36:0 37:0 38:0 39:25 
-0.5 1:0 2:0 3:0 4:0 5:3 6:3 7:2 8:2 9:2 10:11 11:0 12:0 13:0 14:0 15:0 16:0 17:0 18:0 19:0 20:1 21:1 22:1 23:1 24:1 25:1 26:1 27:1 28:2 29:3 30:6 31:4 32:0 33:0 34:0 35:0 36:0 37:0 38:0 39:23 
-0.1205266431622588 1:0 2:0 3:0 4:0 5:3 6:3 7:2 8:2 9:1 10:9 11:0 12:0 13:0 14:0 15:0 16:0 17:0 18:0 19:0 20:0 21:0 22:1 23:1 24:1 25:1 26:1 27:1 28:0 29:0 30:2 31:3 32:6 33:3 34:0 35:0 36:0 37:0 38:0 39:20 
-0.4549085675389452 1:0 2:0 3:0 4:0 5:0 6:0 7:3 8:3 9:2 10:2 11:1 12:11 13:0 14:0 15:0 16:0 17:0 18:0 19:0 20:0 21:0 22:1 23:1 24:1 25:1 26:1 27:1 28:1 29:1 30:2 31:3 32:6 33:3 34:0 35:0 36:0 37:0 38:0 39:22 
-0.1780114028619706 1:0 2:0 3:0 4:3 5:3 6:2 7:1 8:2 9:8 10:0 11:0 12:0 13:0 14:0 15:0 16:0 17:0 18:0 19:0 20:0 21:0 22:0 23:0 24:1 25:1 26:1 27:1 28:1 29:0 30:0 31:1 32:2 33:3 34:5 35:3 36:0 37:0 38:0 39:19 
-0.2563864536901532 1:0 2:0 3:0 4:0 5:0 6:3 7:3 8:2 9:2 10:2 11:11 12:0 13:0 14:0 15:0 16:0 17:0 18:0 19:0 20:1 21:1 22:1 23:1 24:1 25:1 26:1 27:1 28:2 29:3 30:6 31:4 32:0 33:0 34:0 35:0 36:0 37:0 38:0 39:23 
-0.5 1:0 2:0 3:0 4:0 5:3 6:3 7:2 8:2 9:2 10:11 11:0 12:0 13:0 14:0 15:0 16:0 17:0 18:0 19:0 20:0 21:0 22:0 23:1 24:1 25:1 26:1 27:1 28:1 29:1 30:1 31:2 32:3 33:6 34:4 35:0 36:0 37:0 38:0 39:23 
-0.2486751302834323 1:0 2:0 3:0 4:0 5:3 6:3 7:2 8:2 9:2 10:4 11:0 12:0 13:0 14:0 15:0 16:0 17:0 18:0 19:0 20:0 21:0 22:1 23:0 24:0 25:1 26:1 27:1 28:1 29:2 30:5 31:4 32:0 33:0 34:0 35:0 36:0 37:0 38:0 39:16 
-0.4385094885920281 1:0 2:0 3:0 4:0 5:0 6:3 7:3 8:2 9:2 10:2 11:9 12:0 13:0 14:0 15:0 16:0 17:0 18:0 19:0 20:0 21:0 22:0 23:0 24:1 25:1 26:0 27:0 28:1 29:1 30:1 31:1 32:2 33:3 34:6 35:4 36:0 37:0 38:0 39:21 
-0.3897795124950711 1:0 2:0 3:0 4:0 5:3 6:3 7:2 8:2 9:2 10:11 11:0 12:0 13:0 14:0 15:0 16:0 17:0 18:0 19:0 20:0 21:1 22:1 23:1 24:1 25:1 26:1 27:1 28:1 29:2 30:3 31:6 32:4 33:0 34:0 35:0 36:0 37:0 38:0 39:23 
-0.2440733144020367 1:0 2:0 3:0 4:0 5:0 6:3 7:3 8:2 9:2 10:2 11:9 12:0 13:0 14:0 15:0 16:0 17:0 18:0 19:0 20:0 21:1 22:0 23:0 24:1 25:1 26:1 27:1 28:1 29:2 30:3 31:6 32:4 33:0 34:0 35:0 36:0 37:0 38:0 39:21 
-0.1192687410388439 1:0 2:0 3:0 4:0 5:3 6:3 7:2 8:2 9:1 10:11 11:0 12:0 13:0 14:0 15:0 16:0 17:0 18:0 19:0 20:1 21:1 22:1 23:1 24:1 25:1 26:1 27:1 28:2 29:3 30:4 31:5 32:0 33:0 34:0 35:0 36:0 37:0 38:0 39:22 
-0.1696574329502193 1:0 2:0 3:0 4:3 5:2 6:2 7:2 8:2 9:8 10:0 11:0 12:0 13:0 14:0 15:0 16:0 17:0 18:0 19:0 20:0 21:0 22:0 23:1 24:1 25:1 26:1 27:1 28:2 29:3 30:5 31:4 32:0 33:0 34:0 35:0 36:0 37:0 38:0 39:19 
-0.5 1:0 2:0 3:0 4:0 5:0 6:3 7:3 8:1 9:2 10:2 11:11 12:1 13:0 14:0 15:0 16:0 17:0 18:0 19:0 20:0 21:0 22:0 23:1 24:1 25:1 26:1 27:1 28:1 29:1 30:1 31:2 32:3 33:7 34:3 35:0 36:0 37:0 38:0 39:23 
-0.3714497364305805 1:0 2:0 3:0 4:0 5:2 6:3 7:2 8:2 9:3 10:11 11:0 12:0 13:0 14:0 15:0 16:0 17:0 18:0 19:0 20:0 21:0 22:0 23:0 24:1 25:2 26:1 27:1 28:1 29:1 30:1 31:1 32:2 33:3 34:5 35:4 36:0 37:0 38:0 39:23 
-0.2928952220359028 1:0 2:0 3:0 4:2 5:3 6:2 7:2 8:2 9:8 10:0 11:0 12:0 13:0 14:0 15:0 16:0 17:0 18:0 19:0 20:0 21:0 22:0 23:0 24:1 25:1 26:1 27:1 28:1 29:1 30:1 31:0 32:1 33:3 34:4 35:4 36:0 37:0 38:0 39:19 
-0.4056183461590843 1:0 2:0 3:0 4:2 5:3 6:2 7:1 8:2 9:10 10:1 11:0 12:0 13:0 14:0 15:0 16:0 17:0 18:0 19:0 20:0 21:1 22:2 23:1 24:1 25:1 26:1 27:1 28:2 29:2 30:5 31:4 32:0 33:0 34:0 35:0 36:0 37:0 38:0 39:21 
