svm_type c_svc
kernel_type rbf
gamma 0.0078125
nr_class 2
total_sv 44
rho -0.330782
label 1 0
probA -4.05557
probB -0.153096
nr_sv 21 23
SV
0.395173899968614 1:0 2:0 3:0 4:0 5:2 6:9 7:11 8:0 9:0 10:0 11:0 12:0 13:0 14:0 15:0 16:0 17:0 18:0 19:0 20:0 21:0 22:0 23:1 24:2 25:0 26:0 27:0 28:2 29:2 30:1 31:2 32:2 33:2 34:1 35:2 36:3 37:2 38:0 39:22 
0.2236153458429938 1:0 2:0 3:4 4:12 5:12 6:0 7:0 8:0 9:0 10:0 11:0 12:0 13:0 14:0 15:0 16:0 17:0 18:0 19:0 20:0 21:2 22:2 23:0 24:2 25:2 26:3 27:2 28:1 29:2 30:1 31:2 32:2 33:2 34:3 35:2 36:0 37:0 38:0 39:28 
0.09300788960718988 1:0 2:0 3:1 4:2 5:7 6:12 7:0 8:0 9:0 10:0 11:0 12:0 13:0 14:0 15:0 16:0 17:0 18:0 19:0 20:0 21:0 22:0 23:1 24:0 25:0 26:2 27:1 28:2 29:1 30:2 31:1 32:2 33:1 34:2 35:2 36:3 37:2 38:0 39:22 
0.06243208773293082 1:0 2:0 3:0 4:3 5:12 6:13 7:0 8:0 9:0 10:0 11:0 12:0 13:0 14:0 15:0 16:0 17:0 18:0 19:0 20:1 21:2 22:2 23:0 24:2 25:2 26:2 27:2 28:1 29:1 30:1 31:2 32:3 33:2 34:3 35:2 36:0 37:0 38:0 39:28 
0.4761407994598423 1:5 2:4 3:1 4:2 5:11 6:11 7:0 8:0 9:0 10:0 11:0 12:0 13:0 14:0 15:0 16:0 17:0 18:0 19:0 20:0 21:0 22:1 23:3 24:3 25:1 26:3 27:2 28:3 29:3 30:3 31:2 32:2 33:1 34:2 35:1 36:2 37:2 38:0 39:34 
0.460269693508773 1:3 2:3 3:3 4:6 5:8 6:12 7:12 8:0 9:0 10:0 11:0 12:0 13:0 14:0 15:0 16:0 17:0 18:0 19:0 20:1 21:2 22:2 23:2 24:3 25:3 26:5 27:5 28:2 29:4 30:4 31:5 32:3 33:4 34:2 35:0 36:0 37:0 38:0 39:47 
0.5 1:0 2:0 3:0 4:0 5:0 6:1 7:7 8:11 9:0 10:0 11:0 12:0 13:0 14:0 15:0 16:0 17:0 18:0 19:0 20:0 21:0 22:0 23:0 24:2 25:1 26:0 27:1 28:2 29:0 30:1 31:1 32:1 33:2 34:2 35:2 36:1 37:3 38:0 39:19 
0.297868117409204 1:0 2:0 3:2 4:7 5:13 6:0 7:0 8:0 9:0 10:0 11:0 12:0 13:0 14:0 15:0 16:0 17:0 18:0 19:0 20:1 21:2 22:0 23:2 24:1 25:2 26:1 27:2 28:1 29:1 30:2 31:1 32:1 33:3 34:2 35:0 36:0 37:0 38:0 39:22 
0.3896176088729569 1:0 2:0 3:0 4:0 5:2 6:9 7:12 8:0 9:0 10:0 11:0 12:0 13:0 14:0 15:0 16:0 17:0 18:0 19:0 20:0 21:1 22:2 23:0 24:0 25:1 26:2 27:2 28:2 29:2 30:1 31:2 32:2 33:1 34:3 35:2 36:0 37:0 38:0 39:23 
0.5 1:0 2:0 3:0 4:1 5:6 6:12 7:0 8:0 9:0 10:1 11:0 12:0 13:0 14:0 15:0 16:0 17:0 18:0 19:0 20:0 21:0 22:0 23:0 24:1 25:0 26:0 27:2 28:2 29:1 30:3 31:1 32:2 33:2 34:1 35:1 36:1 37:3 38:0 39:20 
0.02284124670392738 1:1 2:0 3:0 4:0 5:2 6:13 7:11 8:0 9:0 10:0 11:0 12:0 13:0 14:0 15:0 16:0 17:0 18:0 19:0 20:0 21:1 22:2 23:1 24:2 25:3 26:2 27:1 28:2 29:1 30:1 31:2 32:2 33:2 34:3 35:2 36:0 37:0 38:0 39:27 
0.5 1:4 2:5 3:5 4:1 5:0 6:1 7:10 8:12 9:0 10:0 11:0 12:0 13:0 14:0 15:0 16:0 17:0 18:0 19:0 20:0 21:0 22:2 23:1 24:2 25:3 26:2 27:2 28:3 29:3 30:2 31:4 32:3 33:3 34:1 35:2 36:2 37:3 38:0 39:38 
0.4739577667299829 1:0 2:0 3:0 4:0 5:0 6:2 7:8 8:13 9:0 10:0 11:0 12:0 13:0 14:0 15:0 16:0 17:0 18:0 19:0 20:2 21:1 22:0 23:1 24:2 25:1 26:2 27:2 28:1 29:2 30:2 31:1 32:2 33:2 34:2 35:0 36:0 37:0 38:0 39:23 
0.1668208180304365 1:0 2:0 3:0 4:0 5:1 6:11 7:10 8:0 9:0 10:0 11:0 12:0 13:0 14:0 15:0 16:0 17:0 18:0 19:0 20:0 21:0 22:2 23:2 24:0 25:2 26:0 27:2 28:2 29:2 30:1 31:1 32:2 33:2 34:1 35:2 36:1 37:0 38:0 39:22 
0.172126061277395 1:0 2:0 3:0 4:0 5:0 6:2 7:9 8:11 9:0 10:0 11:0 12:0 13:0 14:0 15:0 16:0 17:0 18:0 19:0 20:0 21:0 22:0 23:2 24:2 25:0 26:2 27:2 28:1 29:1 30:1 31:2 32:1 33:1 34:1 35:1 36:3 37:2 38:0 39:22 
0.006000282027259813 1:0 2:0 3:0 4:0 5:2 6:11 7:12 8:0 9:0 10:0 11:0 12:0 13:0 14:0 15:0 16:0 17:0 18:0 19:0 20:2 21:2 22:0 23:1 24:1 25:1 26:2 27:2 28:2 29:1 30:2 31:2 32:2 33:3 34:2 35:0 36:0 37:0 38:0 39:25 
0.3200732373291642 1:0 2:0 3:1 4:2 5:7 6:13 7:0 8:0 9:0 10:0 11:0 12:0 13:0 14:0 15:0 16:0 17:0 18:0 19:0 20:2 21:2 22:0 23:1 24:1 25:1 26:2 27:1 28:1 29:1 30:2 31:1 32:2 33:4 34:2 35:0 36:0 37:0 38:0 39:23 
0.4242014669587098 1:4 2:6 3:5 4:2 5:2 6:12 7:13 8:0 9:0 10:0 11:0 12:0 13:0 14:0 15:0 16:0 17:0 18:0 19:0 20:2 21:2 22:0 23:2 24:4 25:4 26:3 27:3 28:4 29:3 30:2 31:2 32:4 33:5 34:3 35:1 36:0 37:0 38:0 39:44 
0.1174421487030934 1:0 2:0 3:0 4:0 5:0 6:1 7:13 8:12 9:0 10:0 11:0 12:0 13:0 14:0 15:0 16:0 17:0 18:0 19:0 20:0 21:0 22:2 23:2 24:0 25:2 26:1 27:2 28:2 29:1 30:2 31:2 32:2 33:2 34:2 35:2 36:2 37:0 38:0 39:26 
0.5 1:0 2:0 3:2 4:9 5:10 6:0 7:0 8:0 9:0 10:0 11:0 12:0 13:0 14:0 15:0 16:0 17:0 18:0 19:0 20:0 21:2 22:1 23:0 24:2 25:2 26:2 27:1 28:1 29:0 30:0 31:2 32:1 33:2 34:3 35:2 36:0 37:0 38:0 39:21 
0.1707731416698676 1:0 2:0 3:2 4:8 5:13 6:0 7:0 8:0 9:0 10:0 11:0 12:0 13:0 14:0 15:0 16:0 17:0 18:0 19:0 20:0 21:0 22:0 23:2 24:1 25:0 26:1 27:2 28:1 29:1 30:2 31:1 32:2 33:2 34:1 35:2 36:3 37:2 38:0 39:23 
-0.3196851440957262 1:0 2:0 3:0 4:3 5:2 6:2 7:2 8:2 9:8 10:0 11:0 12:0 13:0 14:0 15:0 16:0 17:0 18:0 19:0 20:2 21:0 22:1 23:1 24:1 25:0 26:0 27:0 28:0 29:1 30:2 31:2 32:6 33:3 34:0 35:0 36:0 37:0 38:0 39:19 
-0.04965340647552809 1:0 2:0 3:0 4:0 5:3 6:3 7:1 8:2 9:2 10:7 11:0 12:0 13:0 14:0 15:0 16:0 17:0 18:0 19:0 20:0 21:0 22:0 23:1 24:1 25:1 26:1 27:0 28:0 29:1 30:1 31:1 32:2 33:6 34:3 35:0 36:0 37:0 38:0 39:18 
-0.5 1:0 2:0 3:0 4:0 5:0 6:0 7:3 8:3 9:0 10:2 11:2 12:11 13:1 14:0 15:0 16:0 17:0 18:0 19:0 20:0 21:0 22:1 23:1 24:1 25:1 26:2 27:1 28:1 29:1 30:2 31:3 32:5 33:3 34:0 35:0 36:0 37:0 38:0 39:22 
-0.1212226238873071 1:0 2:0 3:0 4:0 5:0 6:3 7:3 8:2 9:2 10:2 11:11 12:0 13:0 14:0 15:0 16:0 17:0 18:0 19:0 20:1 21:1 22:1 23:1 24:1 25:1 26:1 27:1 28:2 29:3 30:6 31:4 32:0 33:0 34:0 35:0 36:0 37:0 38:0 39:23 
-0.02496803859837145 1:0 2:0 3:0 4:0 5:0 6:0 7:3 8:3 9:2 10:2 11:1 12:11 13:0 14:0 15:0 16:0 17:0 18:0 19:0 20:0 21:1 22:1 23:1 24:1 25:1 26:1 27:1 28:1 29:2 30:3 31:6 32:3 33:0 34:0 35:0 36:0 37:0 38:0 39:22 
-0.0051551166507425 1:0 2:0 3:0 4:0 5:2 6:4 7:3 8:2 9:2 10:2 11:7 12:1 13:0 14:0 15:0 16:0 17:0 18:2 19:0 20:1 21:0 22:0 23:0 24:1 25:1 26:1 27:1 28:2 29:3 30:6 31:5 32:0 33:0 34:0 35:0 36:0 37:0 38:0 39:23 
-0.4685961828589364 1:0 2:0 3:0 4:0 5:0 6:0 7:2 8:3 9:2 10:2 11:2 12:11 13:0 14:0 15:0 16:0 17:0 18:0 19:0 20:1 21:1 22:1 23:1 24:1 25:1 26:1 27:1 28:1 29:3 30:6 31:4 32:0 33:0 34:0 35:0 36:0 37:0 38:0 39:22 
-0.5 1:0 2:1 3:1 4:3 5:3 6:2 7:2 8:2 9:11 10:0 11:0 12:0 13:0 14:0 15:0 16:0 17:0 18:1 19:1 20:0 21:0 22:0 23:1 24:1 25:1 26:1 27:1 28:1 29:1 30:1 31:2 32:3 33:6 34:4 35:0 36:0 37:0 38:0 39:25 
-0.3690666399116217 1:0 2:0 3:0 4:0 5:3 6:3 7:2 8:2 9:2 10:11 11:0 12:0 13:0 14:0 15:0 16:0 17:0 18:0 19:0 20:1 21:1 22:1 23:1 24:1 25:1 26:1 27:1 28:2 29:3 30:6 31:4 32:0 33:0 34:0 35:0 36:0 37:0 38:0 39:23 
-0.1507899195621561 1:0 2:0 3:0 4:0 5:3 6:3 7:2 8:2 9:1 10:9 11:0 12:0 13:0 14:0 15:0 16:0 17:0 18:0 19:0 20:0 21:0 22:1 23:1 24:1 25:1 26:1 27:1 28:0 29:0 30:2 31:3 32:6 33:3 34:0 35:0 36:0 37:0 38:0 39:20 
-0.2001178435115281 1:0 2:0 3:0 4:0 5:0 6:0 7:3 8:3 9:2 10:2 11:1 12:11 13:0 14:0 15:0 16:0 17:0 18:0 19:0 20:0 21:0 22:1 23:1 24:1 25:1 26:1 27:1 28:1 29:1 30:2 31:3 32:6 33:3 34:0 35:0 36:0 37:0 38:0 39:22 
-0.3297840746978158 1:0 2:0 3:0 4:3 5:3 6:2 7:1 8:2 9:8 10:0 11:0 12:0 13:0 14:0 15:0 16:0 17:0 18:0 19:0 20:0 21:0 22:0 23:0 24:1 25:1 26:1 27:1 28:1 29:0 30:0 31:1 32:2 33:3 34:5 35:3 36:0 37:0 38:0 39:19 
-0.5 1:0 2:0 3:0 4:0 5:0 6:3 7:3 8:2 9:2 10:2 11:11 12:0 13:0 14:0 15:0 16:0 17:0 18:0 19:0 20:1 21:1 22:1 23:1 24:1 25:1 26:1 27:1 28:2 29:3 30:6 31:4 32:0 33:0 34:0 35:0 36:0 37:0 38:0 39:23 
-0.3020283843597804 1:0 2:0 3:0 4:0 5:3 6:3 7:2 8:2 9:2 10:11 11:0 12:0 13:0 14:0 15:0 16:0 17:0 18:0 19:0 20:0 21:0 22:0 23:1 24:1 25:1 26:1 27:1 28:1 29:1 30:1 31:2 32:3 33:6 34:4 35:0 36:0 37:0 38:0 39:23 
-0.01009976647842892 1:0 2:0 3:0 4:0 5:3 6:3 7:2 8:2 9:2 10:11 11:0 12:0 13:0 14:0 15:0 16:0 17:0 18:0 19:0 20:0 21:1 22:1 23:1 24:1 25:1 26:1 27:1 28:1 29:2 30:3 31:6 32:4 33:0 34:0 35:0 36:0 37:0 38:0 39:23 
-0.5 1:0 2:0 3:0 4:0 5:3 6:3 7:2 8:2 9:2 10:4 11:0 12:0 13:0 14:0 15:0 16:0 17:0 18:0 19:0 20:0 21:0 22:1 23:0 24:0 25:1 26:1 27:1 28:1 29:2 30:5 31:4 32:0 33:0 34:0 35:0 36:0 37:0 38:0 39:16 
-0.4238318762503144 1:0 2:0 3:0 4:0 5:0 6:3 7:3 8:2 9:2 10:2 11:9 12:0 13:0 14:0 15:0 16:0 17:0 18:0 19:0 20:0 21:0 22:0 23:0 24:1 25:1 26:0 27:0 28:1 29:1 30:1 31:1 32:2 33:3 34:6 35:4 36:0 37:0 38:0 39:21 
-0.162926454950659 1:0 2:0 3:0 4:0 5:3 6:3 7:2 8:2 9:2 10:11 11:0 12:0 13:0 14:0 15:0 16:0 17:0 18:0 19:0 20:0 21:1 22:1 23:1 24:1 25:1 26:1 27:1 28:1 29:2 30:3 31:6 32:4 33:0 34:0 35:0 36:0 37:0 38:0 39:23 
-0.1301814537146553 1:0 2:0 3:0 4:3 5:2 6:2 7:2 8:2 9:8 10:0 11:0 12:0 13:0 14:0 15:0 16:0 17:0 18:0 19:0 20:0 21:0 22:0 23:1 24:1 25:1 26:1 27:1 28:2 29:3 30:5 31:4 32:0 33:0 34:0 35:0 36:0 37:0 38:0 39:19 
-0.4586579472189313 1:0 2:0 3:0 4:0 5:0 6:3 7:3 8:1 9:2 10:2 11:11 12:1 13:0 14:0 15:0 16:0 17:0 18:0 19:0 20:0 21:0 22:0 23:1 24:1 25:1 26:1 27:1 28:1 29:1 30:1 31:2 32:3 33:7 34:3 35:0 36:0 37:0 38:0 39:23 
-0.3509513662951663 1:0 2:0 3:0 4:0 5:2 6:3 7:2 8:2 9:3 10:11 11:0 12:0 13:0 14:0 15:0 16:0 17:0 18:0 19:0 20:0 21:0 22:0 23:0 24:1 25:2 26:1 27:1 28:1 29:1 30:1 31:1 32:2 33:3 34:5 35:4 36:0 37:0 38:0 39:23 
-0.2480763933282133 1:0 2:0 3:0 4:2 5:3 6:2 7:2 8:2 9:8 10:0 11:0 12:0 13:0 14:0 15:0 16:0 17:0 18:0 19:0 20:0 21:0 22:0 23:0 24:1 25:1 26:1 27:1 28:1 29:1 30:1 31:0 32:1 33:3 34:4 35:4 36:0 37:0 38:0 39:19 
-0.1465689789864591 1:0 2:0 3:0 4:2 5:3 6:2 7:1 8:2 9:10 10:1 11:0 12:0 13:0 14:0 15:0 16:0 17:0 18:0 19:0 20:0 21:1 22:2 23:1 24:1 25:1 26:1 27:1 28:2 29:2 30:5 31:4 32:0 33:0 34:0 35:0 36:0 37:0 38:0 39:21 
