svm_type c_svc
kernel_type rbf
gamma 0.0078125
nr_class 2
total_sv 64
rho 0.114179
label 0 1
probA -5.29489
probB 0.652331
nr_sv 31 33
SV
0.125 1:0 2:0 3:0 4:0 5:3 6:3 7:2 8:1 9:2 10:11 11:0 12:0 13:0 14:0 15:0 16:0 17:0 18:0 19:0 20:1 21:1 22:1 23:1 24:1 25:1 26:1 27:1 28:2 29:3 30:6 31:3 32:0 33:0 34:0 35:0 36:0 37:0 38:0 39:22 
0.125 1:0 2:0 3:0 4:3 5:2 6:2 7:2 8:2 9:8 10:0 11:0 12:0 13:0 14:0 15:0 16:0 17:0 18:0 19:0 20:2 21:0 22:1 23:1 24:1 25:0 26:0 27:0 28:0 29:1 30:2 31:2 32:6 33:3 34:0 35:0 36:0 37:0 38:0 39:19 
0.1177326916171449 1:0 2:0 3:0 4:0 5:3 6:3 7:1 8:2 9:2 10:7 11:0 12:0 13:0 14:0 15:0 16:0 17:0 18:0 19:0 20:0 21:0 22:0 23:1 24:1 25:1 26:1 27:0 28:0 29:1 30:1 31:1 32:2 33:6 34:3 35:0 36:0 37:0 38:0 39:18 
0.125 1:0 2:0 3:0 4:3 5:2 6:2 7:0 8:2 9:11 10:0 11:0 12:0 13:0 14:0 15:0 16:0 17:0 18:0 19:0 20:0 21:0 22:0 23:0 24:1 25:1 26:1 27:1 28:1 29:1 30:1 31:1 32:2 33:2 34:5 35:3 36:0 37:0 38:0 39:20 
0.125 1:0 2:0 3:0 4:0 5:0 6:0 7:3 8:3 9:0 10:2 11:2 12:11 13:1 14:0 15:0 16:0 17:0 18:0 19:0 20:0 21:0 22:1 23:1 24:1 25:1 26:2 27:1 28:1 29:1 30:2 31:3 32:5 33:3 34:0 35:0 36:0 37:0 38:0 39:22 
0.125 1:0 2:0 3:0 4:0 5:0 6:3 7:3 8:2 9:2 10:2 11:11 12:0 13:0 14:0 15:0 16:0 17:0 18:0 19:0 20:1 21:1 22:1 23:1 24:1 25:1 26:1 27:1 28:2 29:3 30:6 31:4 32:0 33:0 34:0 35:0 36:0 37:0 38:0 39:23 
0.125 1:0 2:0 3:0 4:0 5:0 6:0 7:3 8:3 9:2 10:2 11:1 12:11 13:0 14:0 15:0 16:0 17:0 18:0 19:0 20:0 21:1 22:1 23:1 24:1 25:1 26:1 27:1 28:1 29:2 30:3 31:6 32:3 33:0 34:0 35:0 36:0 37:0 38:0 39:22 
0.125 1:0 2:0 3:0 4:0 5:0 6:0 7:2 8:3 9:2 10:2 11:2 12:11 13:0 14:0 15:0 16:0 17:0 18:0 19:0 20:1 21:1 22:1 23:1 24:1 25:1 26:1 27:1 28:1 29:3 30:6 31:4 32:0 33:0 34:0 35:0 36:0 37:0 38:0 39:22 
0.125 1:0 2:0 3:0 4:0 5:0 6:3 7:2 8:2 9:2 10:2 11:11 12:1 13:0 14:0 15:0 16:0 17:0 18:0 19:1 20:1 21:1 22:1 23:1 24:1 25:1 26:1 27:1 28:2 29:3 30:6 31:3 32:0 33:0 34:0 35:0 36:0 37:0 38:0 39:23 
0.125 1:0 2:1 3:1 4:3 5:3 6:2 7:2 8:2 9:11 10:0 11:0 12:0 13:0 14:0 15:0 16:0 17:0 18:1 19:1 20:0 21:0 22:0 23:1 24:1 25:1 26:1 27:1 28:1 29:1 30:1 31:2 32:3 33:6 34:4 35:0 36:0 37:0 38:0 39:25 
0.125 1:0 2:0 3:0 4:0 5:3 6:3 7:2 8:2 9:2 10:11 11:0 12:0 13:0 14:0 15:0 16:0 17:0 18:0 19:0 20:1 21:1 22:1 23:1 24:1 25:1 26:1 27:1 28:2 29:3 30:6 31:4 32:0 33:0 34:0 35:0 36:0 37:0 38:0 39:23 
0.03418834163488273 1:0 2:0 3:0 4:0 5:3 6:3 7:2 8:2 9:1 10:9 11:0 12:0 13:0 14:0 15:0 16:0 17:0 18:0 19:0 20:0 21:0 22:1 23:1 24:1 25:1 26:1 27:1 28:0 29:0 30:2 31:3 32:6 33:3 34:0 35:0 36:0 37:0 38:0 39:20 
0.125 1:0 2:0 3:0 4:0 5:0 6:0 7:3 8:3 9:2 10:2 11:3 12:7 13:0 14:0 15:0 16:0 17:0 18:0 19:0 20:0 21:0 22:0 23:1 24:1 25:1 26:0 27:0 28:0 29:0 30:1 31:2 32:3 33:6 34:4 35:1 36:0 37:0 38:0 39:20 
0.125 1:0 2:0 3:0 4:0 5:0 6:0 7:3 8:3 9:2 10:2 11:1 12:11 13:0 14:0 15:0 16:0 17:0 18:0 19:0 20:0 21:0 22:1 23:1 24:1 25:1 26:1 27:1 28:1 29:1 30:2 31:3 32:6 33:3 34:0 35:0 36:0 37:0 38:0 39:22 
0.08104690646287924 1:0 2:0 3:0 4:0 5:3 6:2 7:2 8:2 9:2 10:11 11:0 12:0 13:0 14:0 15:0 16:0 17:0 18:0 19:0 20:1 21:1 22:1 23:1 24:1 25:1 26:1 27:1 28:2 29:3 30:6 31:3 32:0 33:0 34:0 35:0 36:0 37:0 38:0 39:22 
0.125 1:0 2:0 3:0 4:3 5:3 6:2 7:1 8:2 9:8 10:0 11:0 12:0 13:0 14:0 15:0 16:0 17:0 18:0 19:0 20:0 21:0 22:0 23:0 24:1 25:1 26:1 27:1 28:1 29:0 30:0 31:1 32:2 33:3 34:5 35:3 36:0 37:0 38:0 39:19 
0.125 1:0 2:0 3:0 4:0 5:0 6:2 7:3 8:1 9:2 10:2 11:11 12:0 13:0 14:0 15:0 16:0 17:0 18:0 19:0 20:0 21:1 22:1 23:1 24:1 25:1 26:1 27:1 28:1 29:2 30:3 31:4 32:4 33:0 34:0 35:0 36:0 37:0 38:0 39:21 
0.125 1:0 2:0 3:0 4:0 5:0 6:2 7:3 8:1 9:2 10:2 11:11 12:0 13:0 14:0 15:0 16:0 17:0 18:0 19:0 20:1 21:1 22:1 23:1 24:1 25:1 26:1 27:1 28:1 29:3 30:6 31:3 32:0 33:0 34:0 35:0 36:0 37:0 38:0 39:21 
0.125 1:0 2:0 3:0 4:0 5:0 6:0 7:3 8:3 9:2 10:2 11:1 12:9 13:0 14:0 15:0 16:0 17:0 18:0 19:0 20:0 21:0 22:1 23:1 24:1 25:1 26:0 27:0 28:1 29:1 30:2 31:3 32:6 33:3 34:0 35:0 36:0 37:0 38:0 39:20 
0.125 1:0 2:0 3:0 4:0 5:0 6:3 7:3 8:2 9:2 10:2 11:11 12:0 13:0 14:0 15:0 16:0 17:0 18:0 19:0 20:1 21:1 22:1 23:1 24:1 25:1 26:1 27:1 28:2 29:3 30:6 31:4 32:0 33:0 34:0 35:0 36:0 37:0 38:0 39:23 
0.125 1:0 2:0 3:0 4:0 5:3 6:3 7:2 8:2 9:2 10:11 11:0 12:0 13:0 14:0 15:0 16:0 17:0 18:0 19:0 20:0 21:0 22:0 23:1 24:1 25:1 26:1 27:1 28:1 29:1 30:1 31:2 32:3 33:6 34:4 35:0 36:0 37:0 38:0 39:23 
0.125 1:0 2:0 3:0 4:0 5:3 6:3 7:2 8:2 9:2 10:11 11:0 12:0 13:0 14:0 15:0 16:0 17:0 18:0 19:0 20:0 21:1 22:1 23:1 24:1 25:1 26:1 27:1 28:1 29:2 30:3 31:6 32:4 33:0 34:0 35:0 36:0 37:0 38:0 39:23 
0.1168352916197066 1:0 2:0 3:0 4:0 5:3 6:3 7:2 8:2 9:2 10:4 11:0 12:0 13:0 14:0 15:0 16:0 17:0 18:0 19:0 20:0 21:0 22:1 23:0 24:0 25:1 26:1 27:1 28:1 29:2 30:5 31:4 32:0 33:0 34:0 35:0 36:0 37:0 38:0 39:16 
0.125 1:0 2:0 3:0 4:0 5:0 6:3 7:3 8:2 9:2 10:2 11:9 12:0 13:0 14:0 15:0 16:0 17:0 18:0 19:0 20:0 21:0 22:0 23:0 24:1 25:1 26:0 27:0 28:1 29:1 30:1 31:1 32:2 33:3 34:6 35:4 36:0 37:0 38:0 39:21 
0.125 1:0 2:0 3:0 4:0 5:3 6:3 7:2 8:2 9:2 10:11 11:0 12:0 13:0 14:0 15:0 16:0 17:0 18:0 19:0 20:0 21:1 22:1 23:1 24:1 25:1 26:1 27:1 28:1 29:2 30:3 31:6 32:4 33:0 34:0 35:0 36:0 37:0 38:0 39:23 
0.002520143455012191 1:0 2:0 3:0 4:0 5:3 6:3 7:2 8:2 9:1 10:11 11:0 12:0 13:0 14:0 15:0 16:0 17:0 18:0 19:0 20:1 21:1 22:1 23:1 24:1 25:1 26:1 27:1 28:2 29:3 30:4 31:5 32:0 33:0 34:0 35:0 36:0 37:0 38:0 39:22 
0.125 1:0 2:0 3:0 4:3 5:2 6:2 7:2 8:2 9:8 10:0 11:0 12:0 13:0 14:0 15:0 16:0 17:0 18:0 19:0 20:0 21:0 22:0 23:1 24:1 25:1 26:1 27:1 28:2 29:3 30:5 31:4 32:0 33:0 34:0 35:0 36:0 37:0 38:0 39:19 
0.125 1:0 2:0 3:0 4:0 5:0 6:3 7:3 8:1 9:2 10:2 11:11 12:1 13:0 14:0 15:0 16:0 17:0 18:0 19:0 20:0 21:0 22:0 23:1 24:1 25:1 26:1 27:1 28:1 29:1 30:1 31:2 32:3 33:7 34:3 35:0 36:0 37:0 38:0 39:23 
0.125 1:0 2:0 3:0 4:0 5:2 6:3 7:2 8:2 9:3 10:11 11:0 12:0 13:0 14:0 15:0 16:0 17:0 18:0 19:0 20:0 21:0 22:0 23:0 24:1 25:2 26:1 27:1 28:1 29:1 30:1 31:1 32:2 33:3 34:5 35:4 36:0 37:0 38:0 39:23 
0.125 1:0 2:0 3:0 4:2 5:3 6:2 7:2 8:2 9:8 10:0 11:0 12:0 13:0 14:0 15:0 16:0 17:0 18:0 19:0 20:0 21:0 22:0 23:0 24:1 25:1 26:1 27:1 28:1 29:1 30:1 31:0 32:1 33:3 34:4 35:4 36:0 37:0 38:0 39:19 
0.125 1:0 2:0 3:0 4:2 5:3 6:2 7:1 8:2 9:10 10:1 11:0 12:0 13:0 14:0 15:0 16:0 17:0 18:0 19:0 20:0 21:1 22:2 23:1 24:1 25:1 26:1 27:1 28:2 29:2 30:5 31:4 32:0 33:0 34:0 35:0 36:0 37:0 38:0 39:21 
-0.05606759019404722 1:0 2:0 3:0 4:0 5:0 6:6 7:11 8:2 9:2 10:2 11:2 12:2 13:8 14:8 15:0 16:0 17:0 18:0 19:0 20:0 21:0 22:0 23:0 24:2 25:4 26:3 27:4 28:3 29:3 30:4 31:2 32:3 33:4 34:7 35:4 36:0 37:0 38:0 39:43 
-0.125 1:0 2:0 3:0 4:0 5:0 6:6 7:11 8:2 9:2 10:2 11:1 12:2 13:8 14:8 15:0 16:0 17:0 18:0 19:0 20:0 21:0 22:0 23:0 24:3 25:4 26:3 27:4 28:4 29:2 30:3 31:2 32:2 33:4 34:7 35:4 36:0 37:0 38:0 39:42 
-0.125 1:0 2:0 3:0 4:0 5:0 6:6 7:11 8:3 9:2 10:2 11:2 12:3 13:8 14:10 15:0 16:0 17:0 18:0 19:0 20:0 21:0 22:3 23:3 24:4 25:4 26:3 27:5 28:4 29:4 30:2 31:4 32:6 33:5 34:0 35:0 36:0 37:0 38:0 39:47 
-0.125 1:0 2:0 3:0 4:6 5:11 6:3 7:2 8:2 9:2 10:1 11:5 12:9 13:0 14:0 15:0 16:0 17:0 18:0 19:0 20:0 21:0 22:0 23:3 24:2 25:4 26:4 27:3 28:4 29:3 30:3 31:3 32:2 33:6 34:4 35:0 36:0 37:0 38:0 39:41 
-0.125 1:0 2:0 3:0 4:0 5:5 6:9 7:2 8:1 9:2 10:2 11:1 12:9 13:10 14:0 15:0 16:0 17:0 18:0 19:0 20:3 21:3 22:4 23:3 24:4 25:2 26:3 27:4 28:2 29:4 30:7 31:2 32:0 33:0 34:0 35:0 36:0 37:0 38:0 39:41 
-0.125 1:0 2:0 3:0 4:0 5:0 6:0 7:7 8:10 9:3 10:2 11:2 12:1 13:2 14:8 15:9 16:0 17:0 18:0 19:0 20:4 21:3 22:3 23:4 24:4 25:4 26:4 27:2 28:2 29:4 30:6 31:4 32:0 33:0 34:0 35:0 36:0 37:0 38:0 39:44 
-0.125 1:0 2:0 3:0 4:0 5:0 6:5 7:9 8:2 9:1 10:2 11:2 12:2 13:7 14:9 15:0 16:0 17:0 18:0 19:0 20:0 21:2 22:3 23:2 24:3 25:4 26:4 27:2 28:3 29:3 30:4 31:5 32:4 33:0 34:0 35:0 36:0 37:0 38:0 39:39 
-0.125 1:0 2:0 3:0 4:0 5:0 6:0 7:5 8:10 9:3 10:2 11:2 12:2 13:2 14:11 15:10 16:0 17:0 18:0 19:0 20:0 21:0 22:0 23:0 24:3 25:4 26:4 27:4 28:3 29:3 30:4 31:4 32:2 33:3 34:7 35:6 36:0 37:0 38:0 39:47 
-0.125 1:0 2:0 3:0 4:1 5:6 6:10 7:3 8:2 9:2 10:2 11:2 12:9 13:10 14:0 15:0 16:0 17:0 18:0 19:0 20:0 21:0 22:3 23:4 24:4 25:4 26:3 27:3 28:4 29:3 30:3 31:4 32:7 33:5 34:0 35:0 36:0 37:0 38:0 39:47 
-0.04477618436204866 1:0 2:0 3:0 4:0 5:0 6:6 7:11 8:2 9:2 10:2 11:1 12:2 13:9 14:10 15:0 16:0 17:0 18:0 19:0 20:0 21:0 22:0 23:0 24:4 25:4 26:3 27:4 28:4 29:3 30:3 31:3 32:3 33:4 34:7 35:3 36:0 37:0 38:0 39:45 
-0.0823860128605208 1:0 2:0 3:0 4:1 5:5 6:9 7:3 8:2 9:2 10:2 11:1 12:9 13:10 14:0 15:0 16:0 17:0 18:0 19:0 20:0 21:0 22:4 23:1 24:4 25:3 26:4 27:4 28:3 29:4 30:3 31:4 32:6 33:4 34:0 35:0 36:0 37:0 38:0 39:44 
-0.125 1:0 2:0 3:0 4:0 5:0 6:0 7:7 8:10 9:3 10:1 11:2 12:2 13:1 14:11 15:9 16:0 17:0 18:0 19:0 20:0 21:0 22:0 23:0 24:4 25:4 26:4 27:4 28:4 29:3 30:4 31:2 32:3 33:4 34:6 35:4 36:0 37:0 38:0 39:46 
-0.05794284027227471 1:0 2:0 3:0 4:0 5:0 6:4 7:10 8:3 9:2 10:1 11:1 12:3 13:9 14:10 15:0 16:0 17:0 18:0 19:0 20:0 21:0 22:0 23:3 24:4 25:4 26:3 27:3 28:3 29:4 30:3 31:2 32:4 33:7 34:3 35:0 36:0 37:0 38:0 39:43 
-0.08060435134041327 1:0 2:0 3:0 4:0 5:0 6:4 7:11 8:4 9:2 10:1 11:2 12:1 13:9 14:9 15:0 16:0 17:0 18:0 19:0 20:0 21:0 22:3 23:3 24:3 25:4 26:4 27:3 28:4 29:2 30:3 31:4 32:6 33:4 34:0 35:0 36:0 37:0 38:0 39:43 
-0.125 1:0 2:0 3:0 4:0 5:0 6:4 7:10 8:3 9:2 10:2 11:2 12:3 13:9 14:9 15:0 16:0 17:0 18:0 19:0 20:4 21:4 22:3 23:3 24:2 25:3 26:4 27:3 28:3 29:4 30:6 31:5 32:0 33:0 34:0 35:0 36:0 37:0 38:0 39:44 
-0.125 1:0 2:0 3:0 4:0 5:0 6:0 7:7 8:11 9:2 10:2 11:2 12:2 13:2 14:8 15:8 16:0 17:0 18:0 19:0 20:4 21:2 22:3 23:4 24:3 25:4 26:3 27:4 28:3 29:3 30:7 31:4 32:0 33:0 34:0 35:0 36:0 37:0 38:0 39:44 
-0.125 1:0 2:0 3:0 4:0 5:0 6:0 7:3 8:9 9:3 10:2 11:2 12:1 13:2 14:9 15:10 16:0 17:0 18:0 19:0 20:0 21:0 22:3 23:2 24:4 25:3 26:2 27:4 28:3 29:3 30:3 31:3 32:7 33:4 34:0 35:0 36:0 37:0 38:0 39:41 
-0.125 1:0 2:0 3:0 4:5 5:11 6:4 7:2 8:2 9:2 10:2 11:9 12:10 13:0 14:0 15:0 16:0 17:0 18:0 19:0 20:0 21:0 22:0 23:4 24:4 25:4 26:3 27:3 28:2 29:4 30:4 31:3 32:4 33:7 34:5 35:0 36:0 37:0 38:0 39:47 
-0.01042907776676058 1:0 2:0 3:0 4:0 5:0 6:5 7:11 8:2 9:1 10:2 11:2 12:2 13:9 14:9 15:1 16:0 17:0 18:0 19:0 20:0 21:0 22:0 23:0 24:4 25:4 26:4 27:2 28:2 29:4 30:4 31:3 32:3 33:4 34:7 35:3 36:0 37:0 38:0 39:44 
-0.125 1:0 2:0 3:0 4:0 5:0 6:0 7:5 8:10 9:3 10:2 11:2 12:3 13:2 14:8 15:9 16:0 17:0 18:0 19:0 20:0 21:0 22:0 23:3 24:2 25:3 26:3 27:3 28:3 29:4 30:3 31:3 32:5 33:7 34:5 35:0 36:0 37:0 38:0 39:44 
-0.125 1:0 2:0 3:0 4:0 5:5 6:11 7:2 8:2 9:2 10:2 11:3 12:7 13:9 14:0 15:0 16:0 17:0 18:0 19:0 20:0 21:3 22:4 23:4 24:2 25:4 26:3 27:3 28:3 29:3 30:2 31:7 32:5 33:0 34:0 35:0 36:0 37:0 38:0 39:43 
-0.125 1:0 2:0 3:0 4:0 5:0 6:5 7:10 8:3 9:2 10:2 11:1 12:3 13:8 14:8 15:0 16:0 17:0 18:0 19:0 20:2 21:4 22:4 23:5 24:1 25:4 26:3 27:4 28:1 29:3 30:6 31:5 32:0 33:0 34:0 35:0 36:0 37:0 38:0 39:42 
-0.125 1:0 2:0 3:0 4:4 5:11 6:2 7:2 8:2 9:2 10:1 11:10 12:10 13:0 14:0 15:0 16:0 17:0 18:0 19:0 20:0 21:0 22:0 23:0 24:3 25:3 26:4 27:3 28:4 29:3 30:3 31:3 32:3 33:4 34:7 35:4 36:0 37:0 38:0 39:44 
-0.125 1:0 2:0 3:0 4:0 5:5 6:11 7:3 8:1 9:2 10:2 11:2 12:7 13:8 14:0 15:0 16:0 17:0 18:0 19:0 20:0 21:2 22:3 23:4 24:4 25:4 26:2 27:3 28:4 29:3 30:2 31:6 32:4 33:0 34:0 35:0 36:0 37:0 38:0 39:41 
-0.08740899529744474 1:0 2:0 3:0 4:0 5:0 6:5 7:10 8:2 9:1 10:2 11:2 12:2 13:9 14:10 15:0 16:0 17:0 18:0 19:0 20:3 21:3 22:3 23:3 24:4 25:4 26:4 27:3 28:2 29:4 30:6 31:4 32:0 33:0 34:0 35:0 36:0 37:0 38:0 39:43 
-0.125 1:0 2:0 3:0 4:0 5:0 6:5 7:10 8:3 9:2 10:2 11:2 12:1 13:9 14:10 15:0 16:0 17:0 18:0 19:0 20:0 21:0 22:0 23:0 24:3 25:3 26:4 27:3 28:3 29:2 30:4 31:3 32:3 33:4 34:7 35:5 36:0 37:0 38:0 39:44 
-0.1023850082573484 1:0 2:0 3:0 4:0 5:5 6:11 7:4 8:2 9:2 10:1 11:2 12:7 13:9 14:0 15:0 16:0 17:0 18:0 19:0 20:0 21:0 22:4 23:3 24:3 25:2 26:4 27:4 28:2 29:3 30:3 31:4 32:6 33:5 34:0 35:0 36:0 37:0 38:0 39:43 
-0.125 1:0 2:0 3:0 4:0 5:6 6:9 7:3 8:2 9:2 10:2 11:2 12:9 13:10 14:0 15:0 16:0 17:0 18:0 19:0 20:0 21:0 22:4 23:2 24:4 25:3 26:4 27:4 28:2 29:3 30:2 31:4 32:8 33:5 34:0 35:0 36:0 37:0 38:0 39:45 
-0.125 1:0 2:0 3:0 4:0 5:6 6:11 7:3 8:2 9:2 10:1 11:2 12:9 13:10 14:0 15:0 16:0 17:0 18:0 19:0 20:0 21:0 22:0 23:0 24:4 25:3 26:4 27:3 28:3 29:4 30:4 31:2 32:3 33:5 34:7 35:4 36:0 37:0 38:0 39:46 
-0.125 1:0 2:0 3:0 4:0 5:0 6:8 7:10 8:3 9:2 10:2 11:2 12:2 13:8 14:10 15:0 16:0 17:0 18:0 19:0 20:0 21:0 22:1 23:4 24:4 25:3 26:4 27:3 28:3 29:3 30:4 31:2 32:4 33:7 34:5 35:0 36:0 37:0 38:0 39:47 
-0.125 1:0 2:0 3:0 4:0 5:0 6:8 7:11 8:4 9:2 10:2 11:2 12:1 13:10 14:8 15:0 16:0 17:0 18:0 19:0 20:3 21:4 22:4 23:4 24:4 25:3 26:4 27:4 28:3 29:4 30:7 31:4 32:0 33:0 34:0 35:0 36:0 37:0 38:0 39:48 
-0.09206671206562202 1:0 2:0 3:0 4:0 5:0 6:5 7:11 8:2 9:2 10:2 11:2 12:1 13:8 14:10 15:0 16:0 17:0 18:0 19:0 20:0 21:0 22:0 23:0 24:4 25:4 26:2 27:4 28:2 29:3 30:4 31:4 32:2 33:4 34:6 35:4 36:0 37:0 38:0 39:43 
-0.1132566023731453 1:0 2:1 3:1 4:0 5:5 6:10 7:2 8:2 9:2 10:2 11:2 12:8 13:9 14:0 15:0 16:0 17:0 18:0 19:0 20:0 21:0 22:3 23:3 24:3 25:4 26:2 27:3 28:3 29:3 30:3 31:4 32:7 33:4 34:0 35:1 36:1 37:0 38:0 39:44 
