svm_type c_svc
kernel_type rbf
gamma 0.0078125
nr_class 2
total_sv 40
rho -0.423259
label 1 0
probA -4.33356
probB -0.383891
nr_sv 19 21
SV
0.5519517995458589 1:0 2:0 3:0 4:10 5:12 6:1 7:1 8:1 9:2 10:8 11:1 12:0 13:0 14:0 15:0 16:0 17:0 18:0 19:1 20:2 21:2 22:2 23:4 24:6 25:3 26:2 27:3 28:2 29:3 30:3 31:3 32:0 33:0 34:0 35:0 36:0 37:0 38:0 39:36 
0.7525285540705765 1:3 2:4 3:6 4:3 5:1 6:9 7:9 8:1 9:1 10:2 11:2 12:5 13:0 14:0 15:0 16:0 17:0 18:0 19:0 20:0 21:0 22:0 23:2 24:3 25:2 26:1 27:5 28:8 29:2 30:4 31:6 32:6 33:3 34:2 35:2 36:0 37:0 38:0 39:46 
1.050828963442078 1:0 2:0 3:0 4:0 5:1 6:10 7:12 8:1 9:1 10:1 11:3 12:6 13:1 14:0 15:0 16:0 17:0 18:0 19:0 20:0 21:0 22:2 23:2 24:3 25:4 26:6 27:3 28:3 29:2 30:3 31:3 32:3 33:2 34:0 35:0 36:0 37:0 38:0 39:36 
0.6767480021265814 1:0 2:0 3:0 4:0 5:8 6:12 7:2 8:1 9:1 10:2 11:6 12:0 13:0 14:0 15:0 16:0 17:0 18:0 19:0 20:0 21:0 22:0 23:0 24:2 25:2 26:1 27:3 28:6 29:3 30:3 31:2 32:3 33:3 34:3 35:1 36:0 37:0 38:0 39:32 
0.3995356087771832 1:4 2:7 3:5 4:2 5:0 6:9 7:10 8:1 9:1 10:2 11:2 12:7 13:0 14:0 15:0 16:0 17:0 18:0 19:0 20:4 21:4 22:1 23:4 24:9 25:5 26:3 27:4 28:5 29:5 30:4 31:2 32:0 33:0 34:0 35:0 36:0 37:0 38:0 39:50 
0.138460394614594 1:0 2:0 3:0 4:0 5:0 6:11 7:11 8:2 9:1 10:2 11:2 12:5 13:0 14:0 15:0 16:0 17:0 18:0 19:0 20:0 21:0 22:0 23:0 24:2 25:1 26:3 27:3 28:7 29:3 30:3 31:2 32:2 33:3 34:3 35:2 36:0 37:0 38:0 39:34 
0.3380340202761389 1:4 2:6 3:6 4:2 5:0 6:9 7:11 8:1 9:1 10:2 11:2 12:6 13:1 14:0 15:0 16:0 17:0 18:0 19:0 20:0 21:0 22:0 23:2 24:3 25:4 26:5 27:7 28:3 29:5 30:4 31:4 32:4 33:6 34:3 35:1 36:0 37:0 38:0 39:51 
0.8720583374551893 1:2 2:0 3:0 4:0 5:0 6:0 7:8 8:10 9:1 10:1 11:2 12:2 13:7 14:0 15:0 16:0 17:0 18:0 19:0 20:0 21:1 22:1 23:4 24:7 25:4 26:3 27:2 28:3 29:3 30:3 31:2 32:0 33:0 34:0 35:0 36:0 37:0 38:0 39:33 
0.05142554670740622 1:0 2:0 3:0 4:0 5:0 6:7 7:12 8:2 9:1 10:2 11:2 12:6 13:0 14:0 15:0 16:0 17:0 18:0 19:0 20:0 21:0 22:0 23:0 24:2 25:2 26:1 27:3 28:7 29:2 30:2 31:3 32:2 33:3 34:3 35:2 36:0 37:0 38:0 39:32 
0.1430013675687116 1:0 2:0 3:0 4:0 5:0 6:8 7:10 8:1 9:1 10:2 11:2 12:7 13:0 14:0 15:0 16:0 17:0 18:0 19:0 20:2 21:2 22:2 23:3 24:7 25:3 26:2 27:3 28:3 29:2 30:2 31:0 32:0 33:0 34:0 35:0 36:0 37:0 38:0 39:31 
0.3688581899936031 1:4 2:6 3:5 4:1 5:0 6:9 7:11 8:1 9:1 10:2 11:2 12:7 13:0 14:0 15:0 16:0 17:0 18:0 19:0 20:0 21:4 22:3 23:3 24:4 25:8 26:4 27:4 28:3 29:4 30:5 31:4 32:3 33:0 34:0 35:0 36:0 37:0 38:0 39:49 
0.2647655682719007 1:0 2:0 3:0 4:7 5:9 6:1 7:1 8:1 9:2 10:4 11:0 12:0 13:0 14:0 15:0 16:0 17:0 18:0 19:0 20:0 21:0 22:0 23:2 24:1 25:1 26:3 27:6 28:1 29:2 30:1 31:2 32:2 33:3 34:1 35:0 36:0 37:0 38:0 39:25 
1.307457878943955 1:4 2:5 3:1 4:8 5:10 6:2 7:1 8:2 9:2 10:7 11:0 12:0 13:0 14:0 15:0 16:0 17:0 18:0 19:0 20:0 21:2 22:1 23:3 24:3 25:3 26:4 27:6 28:3 29:4 30:3 31:4 32:3 33:2 34:1 35:0 36:0 37:0 38:0 39:42 
0.2487221988577376 1:0 2:0 3:0 4:7 5:12 6:1 7:1 8:2 9:2 10:4 11:0 12:0 13:0 14:0 15:0 16:0 17:0 18:0 19:0 20:0 21:0 22:1 23:2 24:1 25:3 26:7 27:2 28:3 29:3 30:1 31:2 32:2 33:2 34:0 35:0 36:0 37:0 38:0 39:29 
0.1911923705335258 1:0 2:0 3:0 4:0 5:6 6:12 7:1 8:1 9:2 10:2 11:4 12:0 13:0 14:0 15:0 16:0 17:0 18:0 19:0 20:0 21:0 22:0 23:2 24:1 25:2 26:3 27:7 28:2 29:2 30:1 31:2 32:2 33:3 34:1 35:0 36:0 37:0 38:0 39:28 
0.7516170272027001 1:5 2:2 3:6 4:11 5:12 6:1 7:1 8:2 9:2 10:7 11:0 12:0 13:0 14:0 15:0 16:0 17:0 18:0 19:0 20:0 21:0 22:0 23:0 24:2 25:2 26:2 27:4 28:8 29:4 30:4 31:5 32:4 33:6 34:4 35:4 36:0 37:0 38:0 39:49 
0.2758176361926724 1:4 2:4 3:7 4:5 5:2 6:10 7:11 8:1 9:1 10:2 11:2 12:7 13:0 14:0 15:0 16:0 17:0 18:0 19:0 20:0 21:2 22:2 23:2 24:3 25:4 26:4 27:8 28:4 29:6 30:6 31:5 32:5 33:3 34:2 35:0 36:0 37:0 38:0 39:56 
0.4480577877653825 1:0 2:0 3:2 4:9 5:11 6:1 7:1 8:2 9:2 10:7 11:0 12:0 13:0 14:0 15:0 16:0 17:0 18:0 19:0 20:1 21:1 22:2 23:4 24:7 25:4 26:3 27:3 28:3 29:3 30:3 31:1 32:0 33:0 34:0 35:0 36:0 37:0 38:0 39:35 
0.9627850851346647 1:7 2:5 3:1 4:0 5:9 6:12 7:3 8:1 9:2 10:2 11:7 12:0 13:0 14:0 15:0 16:0 17:0 18:0 19:0 20:0 21:2 22:2 23:3 24:5 25:8 26:5 27:4 28:5 29:4 30:3 31:3 32:3 33:1 34:1 35:0 36:0 37:0 38:0 39:49 
-0.4260711528379866 1:0 2:0 3:0 4:0 5:0 6:8 7:11 8:2 9:2 10:2 11:4 12:5 13:5 14:4 15:1 16:0 17:0 18:0 19:0 20:0 21:0 22:4 23:3 24:4 25:3 26:3 27:5 28:6 29:3 30:3 31:4 32:2 33:4 34:0 35:0 36:0 37:0 38:0 39:44 
-1.797298160586681 1:0 2:0 3:0 4:6 5:9 6:3 7:2 8:3 9:4 10:5 11:4 12:3 13:0 14:0 15:0 16:0 17:0 18:0 19:0 20:0 21:0 22:1 23:4 24:4 25:3 26:3 27:5 28:5 29:3 30:4 31:3 32:3 33:1 34:0 35:0 36:0 37:0 38:0 39:39 
-0.3367086353881693 1:0 2:0 3:0 4:0 5:0 6:9 7:11 8:3 9:3 10:3 11:3 12:4 13:5 14:4 15:1 16:0 17:0 18:0 19:0 20:0 21:0 22:0 23:0 24:3 25:4 26:3 27:3 28:5 29:6 30:4 31:2 32:4 33:4 34:4 35:4 36:0 37:0 38:0 39:46 
-0.4715141139049097 1:0 2:0 3:0 4:0 5:0 6:0 7:7 8:12 9:3 10:3 11:2 12:5 13:4 14:5 15:3 16:1 17:0 18:0 19:0 20:3 21:4 22:4 23:3 24:4 25:5 26:5 27:4 28:3 29:3 30:3 31:4 32:0 33:0 34:0 35:0 36:0 37:0 38:0 39:45 
-0.1375217874893787 1:0 2:0 3:0 4:0 5:0 6:0 7:8 8:10 9:3 10:2 11:2 12:4 13:5 14:5 15:3 16:1 17:0 18:0 19:0 20:0 21:0 22:0 23:0 24:4 25:3 26:3 27:3 28:5 29:4 30:5 31:4 32:4 33:3 34:3 35:2 36:0 37:0 38:0 39:43 
-0.09686943271384371 1:0 2:0 3:0 4:0 5:8 6:12 7:3 8:2 9:3 10:4 11:4 12:5 13:4 14:1 15:0 16:0 17:0 18:0 19:0 20:0 21:0 22:0 23:3 24:4 25:2 26:4 27:3 28:6 29:6 30:4 31:3 32:4 33:4 34:3 35:0 36:0 37:0 38:0 39:46 
-0.6306022808253641 1:0 2:0 3:0 4:0 5:5 6:12 7:4 8:1 9:2 10:5 11:3 12:4 13:4 14:1 15:0 16:0 17:0 18:0 19:0 20:0 21:3 22:3 23:4 24:2 25:3 26:4 27:4 28:4 29:4 30:4 31:2 32:2 33:0 34:0 35:1 36:1 37:0 38:0 39:41 
-0.2591409885506713 1:0 2:0 3:0 4:0 5:1 6:9 7:12 8:3 9:1 10:2 11:5 12:4 13:5 14:3 15:1 16:0 17:0 18:0 19:0 20:0 21:0 22:3 23:4 24:2 25:4 26:4 27:5 28:5 29:4 30:3 31:4 32:4 33:4 34:0 35:0 36:0 37:0 38:0 39:46 
-0.1939814558782484 1:0 2:0 3:0 4:0 5:8 6:12 7:2 8:3 9:3 10:5 11:5 12:5 13:4 14:1 15:0 16:0 17:0 18:0 19:0 20:0 21:3 22:3 23:4 24:3 25:5 26:6 27:5 28:3 29:4 30:4 31:4 32:4 33:0 34:0 35:0 36:0 37:0 38:0 39:48 
-0.7056380714758149 1:0 2:0 3:0 4:0 5:0 6:7 7:11 8:3 9:2 10:2 11:5 12:5 13:4 14:4 15:1 16:0 17:0 18:0 19:0 20:3 21:4 22:4 23:3 24:3 25:6 26:6 27:3 28:4 29:3 30:2 31:3 32:0 33:0 34:0 35:0 36:0 37:0 38:0 39:44 
-0.320907287783548 1:0 2:0 3:0 4:0 5:7 6:12 7:2 8:3 9:3 10:4 11:4 12:4 13:4 14:1 15:0 16:0 17:0 18:0 19:0 20:4 21:3 22:3 23:3 24:5 25:4 26:6 27:3 28:3 29:3 30:3 31:4 32:0 33:0 34:0 35:0 36:0 37:0 38:0 39:44 
-0.3152512238977391 1:0 2:0 3:0 4:1 5:6 6:11 7:3 8:2 9:3 10:5 11:5 12:4 13:3 14:1 15:0 16:0 17:0 18:0 19:0 20:0 21:0 22:0 23:0 24:4 25:4 26:3 27:3 28:3 29:5 30:5 31:3 32:5 33:4 34:1 35:4 36:0 37:0 38:0 39:44 
-0.7135093804149333 1:0 2:0 3:0 4:0 5:1 6:9 7:10 8:3 9:3 10:3 11:5 12:7 13:4 14:4 15:2 16:0 17:0 18:0 19:0 20:0 21:0 22:0 23:1 24:4 25:3 26:4 27:5 28:5 29:6 30:6 31:3 32:3 33:3 34:5 35:3 36:0 37:0 38:0 39:51 
-0.07388190962535449 1:0 2:0 3:0 4:0 5:0 6:1 7:9 8:11 9:3 10:3 11:2 12:4 13:4 14:5 15:4 16:1 17:0 18:0 19:0 20:0 21:4 22:4 23:2 24:4 25:5 26:5 27:5 28:5 29:3 30:3 31:3 32:4 33:0 34:0 35:0 36:0 37:0 38:0 39:47 
-0.7994046713837509 1:0 2:0 3:0 4:10 5:12 6:3 7:3 8:3 9:3 10:5 11:4 12:4 13:1 14:0 15:0 16:0 17:0 18:0 19:0 20:0 21:3 22:4 23:3 24:4 25:4 26:5 27:6 28:3 29:4 30:4 31:4 32:4 33:0 34:0 35:0 36:0 37:0 38:0 39:48 
-0.9839132470034085 1:0 2:0 3:0 4:10 5:12 6:2 7:3 8:3 9:5 10:4 11:5 12:4 13:0 14:0 15:0 16:0 17:0 18:0 19:0 20:0 21:0 22:0 23:0 24:4 25:3 26:3 27:4 28:5 29:6 30:5 31:4 32:4 33:4 34:3 35:3 36:0 37:0 38:0 39:48 
-0.5827768299348408 1:0 2:0 3:0 4:0 5:0 6:0 7:6 8:12 9:2 10:2 11:3 12:4 13:5 14:5 15:2 16:1 17:0 18:0 19:0 20:0 21:0 22:0 23:2 24:4 25:4 26:3 27:4 28:5 29:5 30:3 31:3 32:3 33:3 34:3 35:0 36:0 37:0 38:0 39:42 
-0.1647818181602006 1:0 2:0 3:0 4:0 5:0 6:1 7:5 8:12 9:3 10:2 11:3 12:5 13:4 14:5 15:3 16:1 17:0 18:0 19:0 20:3 21:3 22:3 23:4 24:3 25:5 26:6 27:4 28:3 29:3 30:4 31:3 32:0 33:0 34:0 35:0 36:0 37:0 38:0 39:44 
-0.3137706092682537 1:0 2:0 3:0 4:0 5:0 6:0 7:9 8:11 9:3 10:3 11:2 12:5 13:5 14:5 15:4 16:1 17:0 18:0 19:0 20:0 21:0 22:0 23:4 24:3 25:3 26:3 27:5 28:6 29:5 30:4 31:4 32:4 33:3 34:4 35:0 36:0 37:0 38:0 39:48 
-0.3766310253012361 1:1 2:1 3:0 4:0 5:7 6:11 7:3 8:3 9:3 10:5 11:5 12:5 13:4 14:1 15:0 16:0 17:0 18:0 19:0 20:2 21:0 22:4 23:4 24:3 25:3 26:5 27:6 28:5 29:4 30:2 31:4 32:3 33:4 34:0 35:0 36:0 37:0 38:0 39:49 
-0.09367225505612614 1:0 2:0 3:0 4:0 5:6 6:11 7:3 8:2 9:3 10:4 11:4 12:5 13:3 14:0 15:0 16:0 17:0 18:0 19:0 20:0 21:0 22:0 23:4 24:4 25:3 26:4 27:4 28:5 29:4 30:4 31:2 32:4 33:2 34:1 35:0 36:0 37:0 38:0 39:41 
