svm_type c_svc
kernel_type rbf
gamma 0.0078125
nr_class 2
total_sv 44
rho -0.136263
label 1 0
probA -4.06668
probB 0.0867128
nr_sv 23 21
SV
0.2017176315097587 1:0 2:0 3:0 4:0 5:0 6:0 7:3 8:7 9:4 10:4 11:2 12:4 13:10 14:0 15:0 16:0 17:0 18:0 19:0 20:0 21:0 22:0 23:1 24:1 25:1 26:3 27:6 28:2 29:3 30:3 31:3 32:3 33:5 34:3 35:0 36:0 37:0 38:0 39:34 
0.5 1:0 2:0 3:0 4:0 5:4 6:7 7:4 8:4 9:2 10:3 11:12 12:2 13:0 14:0 15:0 16:0 17:0 18:0 19:0 20:1 21:1 22:2 23:3 24:6 25:3 26:2 27:3 28:3 29:4 30:6 31:4 32:0 33:0 34:0 35:0 36:0 37:0 38:0 39:38 
0.1947472748729826 1:0 2:0 3:1 4:5 5:7 6:4 7:3 8:2 9:3 10:10 11:0 12:0 13:0 14:0 15:0 16:0 17:0 18:0 19:0 20:1 21:1 22:1 23:2 24:6 25:5 26:3 27:3 28:2 29:2 30:6 31:3 32:0 33:0 34:0 35:0 36:0 37:0 38:0 39:35 
0.05560555283340898 1:0 2:0 3:0 4:0 5:3 6:7 7:3 8:4 9:2 10:2 11:11 12:1 13:0 14:0 15:0 16:0 17:0 18:0 19:0 20:0 21:0 22:0 23:2 24:1 25:1 26:2 27:6 28:3 29:3 30:2 31:2 32:4 33:5 34:2 35:0 36:0 37:0 38:0 39:33 
0.3256903642642215 1:0 2:0 3:0 4:4 5:7 6:4 7:3 8:2 9:2 10:9 11:0 12:0 13:0 14:0 15:0 16:0 17:0 18:0 19:0 20:0 21:0 22:0 23:1 24:1 25:1 26:3 27:6 28:4 29:3 30:2 31:2 32:2 33:5 34:1 35:0 36:0 37:0 38:0 39:31 
0.04309301387542992 1:0 2:0 3:0 4:0 5:0 6:3 7:7 8:5 9:4 10:2 11:3 12:10 13:1 14:0 15:0 16:0 17:0 18:0 19:0 20:0 21:0 22:1 23:1 24:3 25:6 26:3 27:3 28:4 29:2 30:3 31:6 32:3 33:0 34:0 35:0 36:0 37:0 38:0 39:35 
0.5 1:0 2:0 3:0 4:0 5:0 6:5 7:6 8:4 9:4 10:1 11:4 12:12 13:0 14:0 15:0 16:0 17:0 18:0 19:0 20:0 21:1 22:1 23:1 24:3 25:6 26:4 27:3 28:3 29:3 30:4 31:4 32:3 33:0 34:0 35:0 36:0 37:0 38:0 39:36 
0.4570966299673513 1:0 2:0 3:0 4:4 5:7 6:4 7:4 8:1 9:3 10:12 11:1 12:0 13:0 14:0 15:0 16:0 17:0 18:0 19:0 20:0 21:0 22:0 23:0 24:1 25:1 26:1 27:3 28:5 29:3 30:3 31:3 32:4 33:3 34:6 35:3 36:0 37:0 38:0 39:36 
0.3784443449458404 1:0 2:0 3:0 4:0 5:0 6:0 7:4 8:7 9:4 10:4 11:2 12:3 13:10 14:0 15:0 16:0 17:0 18:0 19:0 20:0 21:0 22:0 23:0 24:1 25:1 26:1 27:3 28:6 29:2 30:2 31:3 32:3 33:4 34:5 35:3 36:0 37:0 38:0 39:34 
0.3117863580730521 1:0 2:0 3:0 4:4 5:7 6:4 7:4 8:2 9:4 10:12 11:0 12:0 13:0 14:0 15:0 16:0 17:0 18:0 19:0 20:1 21:1 22:1 23:3 24:6 25:3 26:3 27:3 28:3 29:4 30:6 31:3 32:0 33:0 34:0 35:0 36:0 37:0 38:0 39:37 
0.5 1:1 2:0 3:0 4:0 5:1 6:4 7:8 8:4 9:4 10:2 11:4 12:12 13:0 14:0 15:0 16:0 17:0 18:0 19:0 20:0 21:0 22:0 23:1 24:1 25:1 26:4 27:7 28:4 29:2 30:3 31:3 32:4 33:6 34:3 35:1 36:0 37:0 38:0 39:40 
0.2273120377892716 1:0 2:0 3:0 4:0 5:0 6:4 7:7 8:2 9:4 10:2 11:3 12:6 13:0 14:0 15:0 16:0 17:0 18:0 19:0 20:0 21:0 22:0 23:1 24:3 25:4 26:3 27:3 28:2 29:2 30:2 31:5 32:3 33:0 34:0 35:0 36:0 37:0 38:0 39:28 
0.2813618453511383 1:0 2:0 3:0 4:0 5:5 6:7 7:3 8:4 9:2 10:2 11:11 12:1 13:0 14:0 15:0 16:0 17:0 18:0 19:0 20:1 21:1 22:1 23:3 24:4 25:3 26:3 27:3 28:3 29:3 30:6 31:4 32:0 33:0 34:0 35:0 36:0 37:0 38:0 39:35 
0.5 1:6 2:1 3:0 4:0 5:0 6:0 7:4 8:6 9:3 10:2 11:2 12:4 13:11 14:0 15:0 16:0 17:0 18:0 19:0 20:0 21:0 22:1 23:1 24:2 25:6 26:4 27:4 28:4 29:3 30:3 31:6 32:2 33:0 34:1 35:2 36:0 37:0 38:0 39:39 
0.5 1:0 2:0 3:0 4:0 5:5 6:6 7:4 8:3 9:2 10:4 11:12 12:2 13:0 14:0 15:0 16:0 17:0 18:0 19:0 20:0 21:0 22:0 23:0 24:1 25:1 26:1 27:2 28:6 29:4 30:3 31:2 32:3 33:5 34:7 35:3 36:0 37:0 38:0 39:38 
0.004704905856350691 1:0 2:0 3:0 4:0 5:0 6:4 7:7 8:2 9:4 10:2 11:3 12:9 13:0 14:0 15:0 16:0 17:0 18:0 19:0 20:0 21:0 22:0 23:0 24:0 25:1 26:1 27:2 28:5 29:3 30:3 31:2 32:2 33:3 34:6 35:3 36:0 37:0 38:0 39:31 
0.5 1:0 2:0 3:0 4:3 5:7 6:4 7:4 8:3 9:4 10:12 11:0 12:0 13:0 14:0 15:1 16:0 17:0 18:0 19:0 20:1 21:1 22:1 23:3 24:6 25:4 26:3 27:3 28:2 29:4 30:6 31:4 32:0 33:0 34:0 35:0 36:0 37:0 38:0 39:38 
0.5 1:0 2:0 3:0 4:0 5:5 6:7 7:4 8:4 9:2 10:3 11:12 12:1 13:0 14:0 15:0 16:0 17:0 18:0 19:0 20:0 21:0 22:1 23:1 24:1 25:5 26:5 27:4 28:3 29:3 30:3 31:3 32:6 33:3 34:0 35:0 36:0 37:0 38:0 39:38 
0.3425323071018885 1:0 2:0 3:0 4:0 5:0 6:4 7:7 8:4 9:4 10:2 11:4 12:12 13:0 14:0 15:0 16:0 17:0 18:0 19:0 20:0 21:0 22:0 23:0 24:1 25:1 26:1 27:3 28:6 29:3 30:3 31:3 32:3 33:4 34:6 35:3 36:0 37:0 38:0 39:37 
0.07226320092194222 1:0 2:0 3:0 4:4 5:7 6:5 7:4 8:1 9:3 10:11 11:0 12:0 13:0 14:0 15:0 16:0 17:0 18:0 19:0 20:0 21:0 22:0 23:0 24:1 25:1 26:1 27:3 28:6 29:2 30:2 31:3 32:3 33:4 34:5 35:3 36:1 37:0 38:0 39:35 
0.5 1:0 2:0 3:0 4:0 5:0 6:0 7:5 8:7 9:4 10:4 11:2 12:3 13:12 14:0 15:0 16:0 17:0 18:0 19:0 20:1 21:1 22:1 23:3 24:6 25:3 26:3 27:3 28:3 29:4 30:6 31:3 32:0 33:0 34:0 35:0 36:0 37:0 38:0 39:37 
0.125216706985923 1:0 2:0 3:0 4:0 5:0 6:0 7:3 8:7 9:4 10:3 11:1 12:3 13:11 14:0 15:0 16:1 17:0 18:1 19:0 20:0 21:0 22:1 23:1 24:2 25:5 26:2 27:3 28:2 29:3 30:4 31:6 32:3 33:0 34:0 35:0 36:0 37:0 38:0 39:33 
0.1577543410055449 1:0 2:0 3:0 4:0 5:0 6:5 7:7 8:4 9:4 10:2 11:4 12:10 13:0 14:0 15:0 16:0 17:0 18:0 19:0 20:0 21:0 22:0 23:0 24:1 25:3 26:6 27:4 28:3 29:3 30:3 31:4 32:6 33:3 34:0 35:0 36:0 37:0 38:0 39:36 
-0.3793722007453099 1:0 2:0 3:0 4:0 5:0 6:8 7:11 8:2 9:2 10:2 11:4 12:5 13:5 14:4 15:1 16:0 17:0 18:0 19:0 20:0 21:0 22:4 23:3 24:4 25:3 26:3 27:5 28:6 29:3 30:3 31:4 32:2 33:4 34:0 35:0 36:0 37:0 38:0 39:44 
-0.5 1:0 2:0 3:0 4:6 5:9 6:3 7:2 8:3 9:4 10:5 11:4 12:3 13:0 14:0 15:0 16:0 17:0 18:0 19:0 20:0 21:0 22:1 23:4 24:4 25:3 26:3 27:5 28:5 29:3 30:4 31:3 32:3 33:1 34:0 35:0 36:0 37:0 38:0 39:39 
-0.08258826238119699 1:0 2:0 3:0 4:0 5:0 6:9 7:11 8:3 9:3 10:3 11:3 12:4 13:5 14:4 15:1 16:0 17:0 18:0 19:0 20:0 21:0 22:0 23:0 24:3 25:4 26:3 27:3 28:5 29:6 30:4 31:2 32:4 33:4 34:4 35:4 36:0 37:0 38:0 39:46 
-0.1552732570085484 1:0 2:0 3:0 4:0 5:0 6:0 7:7 8:12 9:3 10:3 11:2 12:5 13:4 14:5 15:3 16:1 17:0 18:0 19:0 20:3 21:4 22:4 23:3 24:4 25:5 26:5 27:4 28:3 29:3 30:3 31:4 32:0 33:0 34:0 35:0 36:0 37:0 38:0 39:45 
-0.5 1:0 2:0 3:0 4:0 5:0 6:0 7:8 8:10 9:3 10:2 11:2 12:4 13:5 14:5 15:3 16:1 17:0 18:0 19:0 20:0 21:0 22:0 23:0 24:4 25:3 26:3 27:3 28:5 29:4 30:5 31:4 32:4 33:3 34:3 35:2 36:0 37:0 38:0 39:43 
-0.4981203579823174 1:0 2:0 3:0 4:0 5:5 6:12 7:4 8:1 9:2 10:5 11:3 12:4 13:4 14:1 15:0 16:0 17:0 18:0 19:0 20:0 21:3 22:3 23:4 24:2 25:3 26:4 27:4 28:4 29:4 30:4 31:2 32:2 33:0 34:0 35:1 36:1 37:0 38:0 39:41 
-0.5 1:0 2:0 3:0 4:0 5:0 6:7 7:11 8:3 9:2 10:2 11:5 12:5 13:4 14:4 15:1 16:0 17:0 18:0 19:0 20:3 21:4 22:4 23:3 24:3 25:6 26:6 27:3 28:4 29:3 30:2 31:3 32:0 33:0 34:0 35:0 36:0 37:0 38:0 39:44 
-0.1922512016266683 1:0 2:0 3:0 4:8 5:12 6:3 7:3 8:2 9:5 10:4 11:5 12:3 13:1 14:0 15:0 16:0 17:0 18:0 19:0 20:0 21:0 22:0 23:4 24:3 25:4 26:4 27:4 28:5 29:6 30:3 31:3 32:3 33:3 34:4 35:0 36:0 37:0 38:0 39:46 
-0.3770853418081759 1:0 2:0 3:0 4:5 5:12 6:3 7:3 8:2 9:4 10:5 11:5 12:4 13:1 14:0 15:0 16:0 17:0 18:0 19:0 20:0 21:4 22:3 23:2 24:3 25:3 26:5 27:6 28:4 29:3 30:4 31:3 32:4 33:0 34:0 35:0 36:0 37:0 38:0 39:44 
-0.3316522753778847 1:0 2:0 3:0 4:0 5:7 6:12 7:2 8:3 9:3 10:4 11:4 12:4 13:4 14:1 15:0 16:0 17:0 18:0 19:0 20:4 21:3 22:3 23:3 24:5 25:4 26:6 27:3 28:3 29:3 30:3 31:4 32:0 33:0 34:0 35:0 36:0 37:0 38:0 39:44 
-0.5 1:0 2:0 3:0 4:1 5:6 6:11 7:3 8:2 9:3 10:5 11:5 12:4 13:3 14:1 15:0 16:0 17:0 18:0 19:0 20:0 21:0 22:0 23:0 24:4 25:4 26:3 27:3 28:3 29:5 30:5 31:3 32:5 33:4 34:1 35:4 36:0 37:0 38:0 39:44 
-0.4305617437934657 1:0 2:0 3:0 4:0 5:1 6:9 7:10 8:3 9:3 10:3 11:5 12:7 13:4 14:4 15:2 16:0 17:0 18:0 19:0 20:0 21:0 22:0 23:1 24:4 25:3 26:4 27:5 28:5 29:6 30:6 31:3 32:3 33:3 34:5 35:3 36:0 37:0 38:0 39:51 
-0.1581804196315656 1:0 2:0 3:0 4:0 5:1 6:8 7:10 8:3 9:3 10:2 11:5 12:4 13:4 14:4 15:1 16:0 17:0 18:0 19:0 20:0 21:0 22:0 23:1 24:4 25:4 26:2 27:2 28:4 29:6 30:5 31:3 32:4 33:2 34:4 35:4 36:0 37:0 38:0 39:45 
-0.09510709245242295 1:0 2:0 3:0 4:0 5:0 6:0 7:7 8:10 9:3 10:2 11:3 12:5 13:5 14:4 15:4 16:1 17:0 18:0 19:0 20:0 21:3 22:3 23:4 24:3 25:5 26:5 27:6 28:4 29:4 30:3 31:2 32:2 33:0 34:0 35:0 36:0 37:0 38:0 39:44 
-0.3083537495069607 1:0 2:0 3:0 4:10 5:12 6:3 7:3 8:3 9:3 10:5 11:4 12:4 13:1 14:0 15:0 16:0 17:0 18:0 19:0 20:0 21:3 22:4 23:3 24:4 25:4 26:5 27:6 28:3 29:4 30:4 31:4 32:4 33:0 34:0 35:0 36:0 37:0 38:0 39:48 
-0.5 1:0 2:0 3:0 4:10 5:12 6:2 7:3 8:3 9:5 10:4 11:5 12:4 13:0 14:0 15:0 16:0 17:0 18:0 19:0 20:0 21:0 22:0 23:0 24:4 25:3 26:3 27:4 28:5 29:6 30:5 31:4 32:4 33:4 34:3 35:3 36:0 37:0 38:0 39:48 
-0.5 1:0 2:0 3:0 4:0 5:0 6:0 7:6 8:12 9:2 10:2 11:3 12:4 13:5 14:5 15:2 16:1 17:0 18:0 19:0 20:0 21:0 22:0 23:2 24:4 25:4 26:3 27:4 28:5 29:5 30:3 31:3 32:3 33:3 34:3 35:0 36:0 37:0 38:0 39:42 
-0.4627069391983621 1:0 2:0 3:0 4:0 5:0 6:1 7:5 8:12 9:3 10:2 11:3 12:5 13:4 14:5 15:3 16:1 17:0 18:0 19:0 20:3 21:3 22:3 23:4 24:3 25:5 26:6 27:4 28:3 29:3 30:4 31:3 32:0 33:0 34:0 35:0 36:0 37:0 38:0 39:44 
-0.1460925334934184 1:0 2:0 3:0 4:0 5:0 6:0 7:9 8:11 9:3 10:3 11:2 12:5 13:5 14:5 15:4 16:1 17:0 18:0 19:0 20:0 21:0 22:0 23:4 24:3 25:3 26:3 27:5 28:6 29:5 30:4 31:4 32:4 33:3 34:4 35:0 36:0 37:0 38:0 39:48 
-0.06198114034780804 1:1 2:1 3:0 4:0 5:7 6:11 7:3 8:3 9:3 10:5 11:5 12:5 13:4 14:1 15:0 16:0 17:0 18:0 19:0 20:2 21:0 22:4 23:4 24:3 25:3 26:5 27:6 28:5 29:4 30:2 31:4 32:3 33:4 34:0 35:0 36:0 37:0 38:0 39:49 
-0.5 1:0 2:0 3:0 4:0 5:6 6:11 7:3 8:2 9:3 10:4 11:4 12:5 13:3 14:0 15:0 16:0 17:0 18:0 19:0 20:0 21:0 22:0 23:4 24:4 25:3 26:4 27:4 28:5 29:4 30:4 31:2 32:4 33:2 34:1 35:0 36:0 37:0 38:0 39:41 
