svm_type c_svc
kernel_type rbf
gamma 0.0078125
nr_class 2
total_sv 57
rho -0.432921
label 1 0
probA -4.71031
probB -0.729617
nr_sv 31 26
SV
0.5 1:0 2:0 3:0 4:0 5:0 6:0 7:7 8:9 9:1 10:1 11:2 12:9 13:6 14:1 15:2 16:1 17:0 18:0 19:0 20:0 21:0 22:0 23:0 24:0 25:0 26:0 27:6 28:7 29:4 30:4 31:4 32:4 33:3 34:3 35:4 36:0 37:0 38:0 39:39 
0.2348192967248461 1:3 2:0 3:0 4:0 5:0 6:6 7:8 8:0 9:2 10:2 11:8 12:6 13:1 14:1 15:2 16:6 17:0 18:0 19:0 20:0 21:0 22:0 23:0 24:1 25:1 26:8 27:8 28:3 29:4 30:4 31:4 32:3 33:5 34:4 35:0 36:0 37:0 38:0 39:45 
0.04486751686657678 1:0 2:0 3:0 4:0 5:6 6:9 7:1 8:1 9:2 10:8 11:8 12:1 13:2 14:3 15:6 16:8 17:0 18:0 19:0 20:0 21:0 22:0 23:0 24:0 25:0 26:6 27:12 28:5 29:6 30:6 31:5 32:6 33:5 34:4 35:0 36:0 37:0 38:0 39:55 
0.4696117353838083 1:0 2:0 3:0 4:0 5:5 6:7 7:2 8:1 9:2 10:7 11:6 12:1 13:2 14:2 15:5 16:7 17:0 18:0 19:0 20:0 21:0 22:0 23:0 24:7 25:11 26:5 27:2 28:4 29:6 30:4 31:2 32:6 33:0 34:0 35:0 36:0 37:0 38:0 39:47 
0.5 1:0 2:0 3:0 4:0 5:0 6:1 7:6 8:8 9:1 10:2 11:2 12:9 13:7 14:1 15:2 16:2 17:0 18:0 19:0 20:0 21:0 22:0 23:0 24:0 25:7 26:9 27:4 28:3 29:4 30:4 31:4 32:4 33:2 34:0 35:0 36:0 37:0 38:0 39:41 
0.228602335338204 1:0 2:0 3:0 4:0 5:10 6:8 7:1 8:1 9:2 10:5 11:6 12:1 13:2 14:2 15:6 16:7 17:0 18:0 19:0 20:0 21:0 22:0 23:0 24:0 25:1 26:7 27:11 28:5 29:5 30:5 31:4 32:5 33:4 34:4 35:0 36:0 37:0 38:0 39:51 
0.01371725955908732 1:0 2:0 3:0 4:0 5:0 6:5 7:7 8:1 9:2 10:2 11:8 12:7 13:1 14:1 15:3 16:8 17:0 18:0 19:0 20:0 21:0 22:0 23:0 24:0 25:0 26:0 27:4 28:10 29:4 30:4 31:5 32:4 33:4 34:6 35:4 36:0 37:0 38:0 39:45 
0.5 1:0 2:0 3:0 4:8 5:9 6:1 7:3 8:2 9:8 10:5 11:0 12:2 13:2 14:6 15:8 16:0 17:0 18:0 19:0 20:0 21:0 22:0 23:8 24:9 25:6 26:4 27:6 28:5 29:5 30:5 31:6 32:0 33:0 34:0 35:0 36:0 37:0 38:0 39:54 
0.398651882907945 1:3 2:3 3:4 4:0 5:0 6:7 7:8 8:1 9:2 10:2 11:7 12:5 13:1 14:2 15:1 16:6 17:0 18:0 19:0 20:0 21:0 22:0 23:0 24:0 25:1 26:1 27:10 28:11 29:4 30:6 31:3 32:5 33:4 34:4 35:3 36:0 37:0 38:0 39:52 
0.2531289069029029 1:0 2:0 3:0 4:0 5:0 6:7 7:9 8:1 9:2 10:2 11:8 12:8 13:1 14:2 15:2 16:6 17:0 18:0 19:0 20:0 21:0 22:0 23:0 24:8 25:11 26:4 27:5 28:4 29:3 30:4 31:4 32:5 33:0 34:0 35:0 36:0 37:0 38:0 39:48 
0.1878765689872815 1:5 2:0 3:0 4:0 5:0 6:3 7:8 8:1 9:2 10:2 11:8 12:6 13:1 14:2 15:1 16:6 17:0 18:0 19:0 20:0 21:0 22:0 23:0 24:6 25:8 26:4 27:6 28:3 29:6 30:3 31:5 32:4 33:0 34:0 35:0 36:0 37:0 38:0 39:45 
0.1589863997506161 1:4 2:3 3:0 4:0 5:0 6:5 7:9 8:1 9:2 10:2 11:7 12:6 13:1 14:2 15:1 16:7 17:0 18:0 19:0 20:0 21:0 22:0 23:1 24:6 25:11 26:5 27:5 28:5 29:4 30:4 31:4 32:5 33:0 34:0 35:0 36:0 37:0 38:0 39:50 
0.4914203028468357 1:0 2:0 3:0 4:6 5:7 6:1 7:2 8:2 9:7 10:7 11:1 12:1 13:1 14:8 15:7 16:0 17:0 18:0 19:0 20:0 21:0 22:0 23:0 24:0 25:0 26:0 27:7 28:8 29:5 30:6 31:6 32:4 33:6 34:3 35:5 36:0 37:0 38:0 39:50 
0.1367178174920997 1:0 2:0 3:0 4:0 5:0 6:6 7:9 8:2 9:2 10:2 11:7 12:6 13:1 14:2 15:2 16:6 17:0 18:0 19:0 20:0 21:0 22:0 23:0 24:0 25:8 26:10 27:5 28:2 29:4 30:4 31:4 32:3 33:5 34:0 35:0 36:0 37:0 38:0 39:45 
0.5 1:1 2:0 3:0 4:5 5:8 6:1 7:1 8:2 9:8 10:7 11:1 12:2 13:2 14:7 15:6 16:0 17:0 18:0 19:0 20:0 21:0 22:1 23:0 24:0 25:0 26:7 27:11 28:4 29:4 30:6 31:6 32:5 33:3 34:4 35:0 36:0 37:0 38:0 39:51 
0.09587660991900759 1:0 2:0 3:0 4:0 5:7 6:9 7:1 8:2 9:2 10:6 11:5 12:1 13:3 14:2 15:7 16:8 17:0 18:0 19:0 20:0 21:0 22:1 23:8 24:11 25:5 26:3 27:5 28:6 29:5 30:4 31:5 32:0 33:0 34:0 35:0 36:0 37:0 38:0 39:53 
0.4250462112833899 1:0 2:0 3:0 4:0 5:10 6:7 7:1 8:1 9:2 10:7 11:7 12:1 13:2 14:1 15:5 16:6 17:0 18:0 19:0 20:0 21:0 22:0 23:0 24:0 25:0 26:0 27:5 28:10 29:6 30:4 31:5 32:6 33:6 34:3 35:4 36:1 37:0 38:0 39:50 
0.04142321938228069 1:0 2:0 3:0 4:0 5:0 6:3 7:9 8:1 9:2 10:2 11:9 12:7 13:1 14:2 15:2 16:4 17:0 18:0 19:0 20:0 21:0 22:0 23:0 24:0 25:7 26:9 27:5 28:4 29:3 30:3 31:4 32:3 33:4 34:0 35:0 36:0 37:0 38:0 39:42 
0.1919826866652711 1:0 2:0 3:0 4:0 5:4 6:8 7:1 8:2 9:2 10:8 11:6 12:1 13:2 14:2 15:8 16:6 17:0 18:0 19:0 20:0 21:0 22:0 23:0 24:0 25:7 26:11 27:6 28:5 29:4 30:6 31:4 32:3 33:4 34:0 35:0 36:0 37:0 38:0 39:50 
0.2505021389568244 1:3 2:3 3:0 4:0 5:6 6:9 7:1 8:1 9:2 10:8 11:8 12:1 13:2 14:2 15:5 16:7 17:0 18:0 19:0 20:0 21:0 22:0 23:0 24:1 25:1 26:1 27:8 28:12 29:6 30:5 31:5 32:4 33:5 34:6 35:4 36:0 37:0 38:0 39:58 
0.2059676469280392 1:2 2:0 3:0 4:0 5:0 6:4 7:9 8:1 9:1 10:2 11:7 12:7 13:1 14:2 15:2 16:7 17:0 18:0 19:0 20:0 21:0 22:0 23:1 24:1 25:0 26:0 27:5 28:10 29:4 30:3 31:4 32:5 33:4 34:5 35:3 36:0 37:0 38:0 39:45 
0.4633722459749162 1:3 2:0 3:0 4:0 5:0 6:7 7:7 8:1 9:1 10:1 11:7 12:8 13:1 14:1 15:2 16:2 17:0 18:0 19:0 20:0 21:0 22:0 23:0 24:0 25:0 26:3 27:12 28:6 29:5 30:3 31:4 32:4 33:2 34:2 35:0 36:0 37:0 38:0 39:41 
0.1540199938430546 1:0 2:0 3:0 4:0 5:7 6:9 7:2 8:2 9:2 10:8 11:7 12:1 13:1 14:1 15:8 16:8 17:0 18:0 19:0 20:0 21:0 22:1 23:5 24:11 25:6 26:6 27:6 28:5 29:5 30:6 31:5 32:0 33:0 34:0 35:0 36:0 37:0 38:0 39:56 
0.4316577469527442 1:0 2:0 3:0 4:0 5:6 6:9 7:1 8:1 9:2 10:6 11:5 12:1 13:2 14:2 15:7 16:7 17:0 18:0 19:0 20:0 21:0 22:0 23:6 24:11 25:5 26:4 27:5 28:5 29:4 30:3 31:6 32:0 33:0 34:0 35:0 36:0 37:0 38:0 39:49 
0.0362982542430137 1:0 2:0 3:0 4:0 5:0 6:5 7:8 8:0 9:2 10:2 11:7 12:7 13:1 14:2 15:2 16:6 17:0 18:0 19:0 20:0 21:0 22:0 23:0 24:8 25:9 26:4 27:3 28:4 29:2 30:4 31:4 32:4 33:0 34:0 35:0 36:0 37:0 38:0 39:42 
0.2328890060818647 1:0 2:0 3:0 4:0 5:8 6:9 7:1 8:2 9:2 10:7 11:7 12:2 13:2 14:2 15:6 16:7 17:0 18:0 19:0 20:0 21:0 22:0 23:0 24:0 25:8 26:10 27:6 28:5 29:5 30:4 31:4 32:6 33:6 34:1 35:0 36:0 37:0 38:0 39:55 
0.4087522118469527 1:0 2:0 3:0 4:0 5:0 6:5 7:8 8:1 9:2 10:2 11:7 12:6 13:1 14:2 15:1 16:7 17:0 18:0 19:0 20:0 21:0 22:0 23:0 24:8 25:8 26:5 27:4 28:5 29:2 30:4 31:4 32:2 33:0 34:0 35:0 36:0 37:0 38:0 39:42 
0.5 1:0 2:0 3:0 4:0 5:0 6:7 7:9 8:1 9:2 10:2 11:8 12:6 13:1 14:2 15:2 16:5 17:0 18:0 19:0 20:0 21:0 22:0 23:0 24:0 25:8 26:10 27:4 28:4 29:4 30:4 31:4 32:3 33:4 34:0 35:0 36:0 37:0 38:0 39:45 
0.5 1:0 2:0 3:0 4:0 5:0 6:0 7:7 8:9 9:1 10:2 11:3 12:9 13:7 14:1 15:3 16:2 17:0 18:0 19:0 20:0 21:0 22:1 23:7 24:9 25:4 26:4 27:3 28:3 29:4 30:4 31:5 32:0 33:0 34:0 35:0 36:0 37:0 38:0 39:44 
0.1046439492720076 1:0 2:0 3:0 4:0 5:0 6:7 7:9 8:1 9:2 10:2 11:9 12:7 13:1 14:1 15:2 16:7 17:0 18:0 19:0 20:0 21:0 22:0 23:0 24:0 25:0 26:0 27:7 28:10 29:4 30:5 31:4 32:4 33:5 34:5 35:4 36:0 37:0 38:0 39:48 
0.3394087749212332 1:0 2:0 3:0 4:0 5:0 6:4 7:9 8:1 9:1 10:1 11:7 12:6 13:1 14:2 15:2 16:4 17:0 18:0 19:0 20:0 21:0 22:0 23:0 24:0 25:0 26:0 27:7 28:8 29:3 30:3 31:4 32:3 33:4 34:4 35:2 36:0 37:0 38:0 39:38 
-0.4650924779978197 1:0 2:0 3:0 4:0 5:0 6:8 7:11 8:2 9:2 10:2 11:4 12:5 13:5 14:4 15:1 16:0 17:0 18:0 19:0 20:0 21:0 22:4 23:3 24:4 25:3 26:3 27:5 28:6 29:3 30:3 31:4 32:2 33:4 34:0 35:0 36:0 37:0 38:0 39:44 
-0.2578228669476869 1:0 2:0 3:0 4:0 5:0 6:0 7:7 8:10 9:3 10:3 11:3 12:5 13:5 14:5 15:4 16:1 17:0 18:0 19:0 20:0 21:0 22:0 23:0 24:3 25:3 26:4 27:4 28:4 29:6 30:5 31:4 32:4 33:3 34:4 35:2 36:0 37:0 38:0 39:46 
-0.5 1:0 2:0 3:0 4:6 5:9 6:3 7:2 8:3 9:4 10:5 11:4 12:3 13:0 14:0 15:0 16:0 17:0 18:0 19:0 20:0 21:0 22:1 23:4 24:4 25:3 26:3 27:5 28:5 29:3 30:4 31:3 32:3 33:1 34:0 35:0 36:0 37:0 38:0 39:39 
-0.3493427661050598 1:0 2:0 3:0 4:0 5:0 6:9 7:11 8:3 9:3 10:3 11:3 12:4 13:5 14:4 15:1 16:0 17:0 18:0 19:0 20:0 21:0 22:0 23:0 24:3 25:4 26:3 27:3 28:5 29:6 30:4 31:2 32:4 33:4 34:4 35:4 36:0 37:0 38:0 39:46 
-0.2725577625164649 1:0 2:0 3:0 4:0 5:0 6:0 7:7 8:12 9:3 10:3 11:2 12:5 13:4 14:5 15:3 16:1 17:0 18:0 19:0 20:3 21:4 22:4 23:3 24:4 25:5 26:5 27:4 28:3 29:3 30:3 31:4 32:0 33:0 34:0 35:0 36:0 37:0 38:0 39:45 
-0.4011727667533819 1:0 2:0 3:0 4:0 5:0 6:0 7:8 8:10 9:3 10:2 11:2 12:4 13:5 14:5 15:3 16:1 17:0 18:0 19:0 20:0 21:0 22:0 23:0 24:4 25:3 26:3 27:3 28:5 29:4 30:5 31:4 32:4 33:3 34:3 35:2 36:0 37:0 38:0 39:43 
-0.4961376961944706 1:0 2:0 3:0 4:0 5:0 6:8 7:11 8:3 9:3 10:3 11:5 12:5 13:4 14:3 15:1 16:1 17:0 18:0 19:0 20:0 21:3 22:3 23:3 24:4 25:5 26:6 27:6 28:3 29:3 30:4 31:2 32:4 33:1 34:0 35:0 36:0 37:0 38:0 39:47 
-0.1731460916319368 1:0 2:0 3:0 4:0 5:8 6:12 7:3 8:2 9:3 10:4 11:4 12:5 13:4 14:1 15:0 16:0 17:0 18:0 19:0 20:0 21:0 22:0 23:3 24:4 25:2 26:4 27:3 28:6 29:6 30:4 31:3 32:4 33:4 34:3 35:0 36:0 37:0 38:0 39:46 
-0.1907229515806426 1:0 2:0 3:0 4:0 5:5 6:12 7:4 8:1 9:2 10:5 11:3 12:4 13:4 14:1 15:0 16:0 17:0 18:0 19:0 20:0 21:3 22:3 23:4 24:2 25:3 26:4 27:4 28:4 29:4 30:4 31:2 32:2 33:0 34:0 35:1 36:1 37:0 38:0 39:41 
-0.05485506387627965 1:0 2:0 3:0 4:0 5:1 6:9 7:12 8:3 9:1 10:2 11:5 12:4 13:5 14:3 15:1 16:0 17:0 18:0 19:0 20:0 21:0 22:3 23:4 24:2 25:4 26:4 27:5 28:5 29:4 30:3 31:4 32:4 33:4 34:0 35:0 36:0 37:0 38:0 39:46 
-0.2448447912613083 1:0 2:0 3:0 4:0 5:8 6:12 7:2 8:3 9:3 10:5 11:5 12:5 13:4 14:1 15:0 16:0 17:0 18:0 19:0 20:0 21:3 22:3 23:4 24:3 25:5 26:6 27:5 28:3 29:4 30:4 31:4 32:4 33:0 34:0 35:0 36:0 37:0 38:0 39:48 
-0.5 1:0 2:0 3:0 4:0 5:0 6:7 7:11 8:3 9:2 10:2 11:5 12:5 13:4 14:4 15:1 16:0 17:0 18:0 19:0 20:3 21:4 22:4 23:3 24:3 25:6 26:6 27:3 28:4 29:3 30:2 31:3 32:0 33:0 34:0 35:0 36:0 37:0 38:0 39:44 
-0.3212868443273099 1:0 2:0 3:0 4:8 5:12 6:3 7:3 8:2 9:5 10:4 11:5 12:3 13:1 14:0 15:0 16:0 17:0 18:0 19:0 20:0 21:0 22:0 23:4 24:3 25:4 26:4 27:4 28:5 29:6 30:3 31:3 32:3 33:3 34:4 35:0 36:0 37:0 38:0 39:46 
-0.3170695125497809 1:0 2:0 3:0 4:0 5:7 6:12 7:2 8:3 9:3 10:4 11:4 12:4 13:4 14:1 15:0 16:0 17:0 18:0 19:0 20:4 21:3 22:3 23:3 24:5 25:4 26:6 27:3 28:3 29:3 30:3 31:4 32:0 33:0 34:0 35:0 36:0 37:0 38:0 39:44 
-0.5 1:0 2:0 3:0 4:1 5:6 6:11 7:3 8:2 9:3 10:5 11:5 12:4 13:3 14:1 15:0 16:0 17:0 18:0 19:0 20:0 21:0 22:0 23:0 24:4 25:4 26:3 27:3 28:3 29:5 30:5 31:3 32:5 33:4 34:1 35:4 36:0 37:0 38:0 39:44 
-0.5 1:0 2:0 3:0 4:0 5:1 6:9 7:10 8:3 9:3 10:3 11:5 12:7 13:4 14:4 15:2 16:0 17:0 18:0 19:0 20:0 21:0 22:0 23:1 24:4 25:3 26:4 27:5 28:5 29:6 30:6 31:3 32:3 33:3 34:5 35:3 36:0 37:0 38:0 39:51 
-0.09355833496029081 1:0 2:0 3:0 4:0 5:1 6:8 7:10 8:3 9:3 10:2 11:5 12:4 13:4 14:4 15:1 16:0 17:0 18:0 19:0 20:0 21:0 22:0 23:1 24:4 25:4 26:2 27:2 28:4 29:6 30:5 31:3 32:4 33:2 34:4 35:4 36:0 37:0 38:0 39:45 
-0.1484119246628731 1:0 2:0 3:0 4:0 5:0 6:0 7:7 8:10 9:3 10:2 11:3 12:5 13:5 14:4 15:4 16:1 17:0 18:0 19:0 20:0 21:3 22:3 23:4 24:3 25:5 26:5 27:6 28:4 29:4 30:3 31:2 32:2 33:0 34:0 35:0 36:0 37:0 38:0 39:44 
-0.5 1:0 2:0 3:0 4:10 5:12 6:3 7:3 8:3 9:3 10:5 11:4 12:4 13:1 14:0 15:0 16:0 17:0 18:0 19:0 20:0 21:3 22:4 23:3 24:4 25:4 26:5 27:6 28:3 29:4 30:4 31:4 32:4 33:0 34:0 35:0 36:0 37:0 38:0 39:48 
-0.5 1:0 2:0 3:0 4:10 5:12 6:2 7:3 8:3 9:5 10:4 11:5 12:4 13:0 14:0 15:0 16:0 17:0 18:0 19:0 20:0 21:0 22:0 23:0 24:4 25:3 26:3 27:4 28:5 29:6 30:5 31:4 32:4 33:4 34:3 35:3 36:0 37:0 38:0 39:48 
-0.474215365879302 1:0 2:0 3:0 4:0 5:0 6:0 7:6 8:12 9:2 10:2 11:3 12:4 13:5 14:5 15:2 16:1 17:0 18:0 19:0 20:0 21:0 22:0 23:2 24:4 25:4 26:3 27:4 28:5 29:5 30:3 31:3 32:3 33:3 34:3 35:0 36:0 37:0 38:0 39:42 
-0.4844078476623874 1:0 2:0 3:0 4:0 5:0 6:1 7:5 8:12 9:3 10:2 11:3 12:5 13:4 14:5 15:3 16:1 17:0 18:0 19:0 20:3 21:3 22:3 23:4 24:3 25:5 26:6 27:4 28:3 29:3 30:4 31:3 32:0 33:0 34:0 35:0 36:0 37:0 38:0 39:44 
-0.4308742564006166 1:0 2:0 3:0 4:0 5:0 6:0 7:9 8:11 9:3 10:3 11:2 12:5 13:5 14:5 15:4 16:1 17:0 18:0 19:0 20:0 21:0 22:0 23:4 24:3 25:3 26:3 27:5 28:6 29:5 30:4 31:4 32:4 33:3 34:4 35:0 36:0 37:0 38:0 39:48 
-0.3024257786073657 1:0 2:0 3:0 4:7 5:12 6:3 7:2 8:3 9:6 10:5 11:5 12:4 13:1 14:0 15:0 16:0 17:0 18:0 19:0 20:0 21:4 22:3 23:4 24:4 25:4 26:6 27:5 28:4 29:4 30:3 31:4 32:3 33:0 34:0 35:0 36:0 37:0 38:0 39:48 
-0.4315467032498502 1:1 2:1 3:0 4:0 5:7 6:11 7:3 8:3 9:3 10:5 11:5 12:5 13:4 14:1 15:0 16:0 17:0 18:0 19:0 20:2 21:0 22:4 23:4 24:3 25:3 26:5 27:6 28:5 29:4 30:2 31:4 32:3 33:4 34:0 35:0 36:0 37:0 38:0 39:49 
-0.09074891586597544 1:0 2:0 3:0 4:0 5:6 6:11 7:3 8:2 9:3 10:4 11:4 12:5 13:3 14:0 15:0 16:0 17:0 18:0 19:0 20:0 21:0 22:0 23:4 24:4 25:3 26:4 27:4 28:5 29:4 30:4 31:2 32:4 33:2 34:1 35:0 36:0 37:0 38:0 39:41 
