svm_type c_svc
kernel_type rbf
gamma 0.0078125
nr_class 2
total_sv 49
rho 0.343938
label 0 1
probA -4.93645
probB 0.301205
nr_sv 23 26
SV
0.08329576572764616 1:0 2:0 3:0 4:0 5:9 6:10 7:3 8:3 9:3 10:5 11:4 12:4 13:4 14:1 15:0 16:0 17:0 18:0 19:0 20:0 21:0 22:4 23:4 24:3 25:4 26:4 27:6 28:6 29:3 30:3 31:2 32:3 33:4 34:0 35:0 36:0 37:0 38:0 39:46 
0.5 1:0 2:0 3:0 4:0 5:0 6:0 7:7 8:10 9:3 10:3 11:3 12:5 13:5 14:5 15:4 16:1 17:0 18:0 19:0 20:0 21:0 22:0 23:0 24:3 25:3 26:4 27:4 28:4 29:6 30:5 31:4 32:4 33:3 34:4 35:2 36:0 37:0 38:0 39:46 
0.3092732103462627 1:0 2:0 3:0 4:6 5:9 6:3 7:2 8:3 9:4 10:5 11:4 12:3 13:0 14:0 15:0 16:0 17:0 18:0 19:0 20:0 21:0 22:1 23:4 24:4 25:3 26:3 27:5 28:5 29:3 30:4 31:3 32:3 33:1 34:0 35:0 36:0 37:0 38:0 39:39 
0.3527142956449411 1:0 2:0 3:0 4:0 5:0 6:9 7:11 8:3 9:3 10:3 11:3 12:4 13:5 14:4 15:1 16:0 17:0 18:0 19:0 20:0 21:0 22:0 23:0 24:3 25:4 26:3 27:3 28:5 29:6 30:4 31:2 32:4 33:4 34:4 35:4 36:0 37:0 38:0 39:46 
0.5 1:0 2:0 3:0 4:0 5:0 6:0 7:7 8:12 9:3 10:3 11:2 12:5 13:4 14:5 15:3 16:1 17:0 18:0 19:0 20:3 21:4 22:4 23:3 24:4 25:5 26:5 27:4 28:3 29:3 30:3 31:4 32:0 33:0 34:0 35:0 36:0 37:0 38:0 39:45 
0.1456386812137129 1:0 2:0 3:0 4:0 5:0 6:8 7:11 8:3 9:2 10:4 11:5 12:5 13:5 14:2 15:1 16:0 17:0 18:0 19:0 20:0 21:0 22:3 23:4 24:4 25:4 26:3 27:6 28:5 29:4 30:3 31:4 32:3 33:3 34:0 35:0 36:0 37:0 38:0 39:46 
0.5 1:0 2:0 3:0 4:0 5:0 6:8 7:11 8:3 9:3 10:3 11:5 12:5 13:4 14:3 15:1 16:1 17:0 18:0 19:0 20:0 21:3 22:3 23:3 24:4 25:5 26:6 27:6 28:3 29:3 30:4 31:2 32:4 33:1 34:0 35:0 36:0 37:0 38:0 39:47 
0.5 1:0 2:0 3:0 4:0 5:8 6:12 7:3 8:2 9:3 10:4 11:4 12:5 13:4 14:1 15:0 16:0 17:0 18:0 19:0 20:0 21:0 22:0 23:3 24:4 25:2 26:4 27:3 28:6 29:6 30:4 31:3 32:4 33:4 34:3 35:0 36:0 37:0 38:0 39:46 
0.5 1:0 2:0 3:0 4:0 5:8 6:12 7:2 8:3 9:3 10:5 11:5 12:5 13:4 14:1 15:0 16:0 17:0 18:0 19:0 20:0 21:3 22:3 23:4 24:3 25:5 26:6 27:5 28:3 29:4 30:4 31:4 32:4 33:0 34:0 35:0 36:0 37:0 38:0 39:48 
0.5 1:0 2:0 3:0 4:0 5:0 6:7 7:11 8:3 9:2 10:2 11:5 12:5 13:4 14:4 15:1 16:0 17:0 18:0 19:0 20:3 21:4 22:4 23:3 24:3 25:6 26:6 27:3 28:4 29:3 30:2 31:3 32:0 33:0 34:0 35:0 36:0 37:0 38:0 39:44 
0.4275778296081348 1:0 2:0 3:0 4:8 5:12 6:3 7:3 8:2 9:5 10:4 11:5 12:3 13:1 14:0 15:0 16:0 17:0 18:0 19:0 20:0 21:0 22:0 23:4 24:3 25:4 26:4 27:4 28:5 29:6 30:3 31:3 32:3 33:3 34:4 35:0 36:0 37:0 38:0 39:46 
0.4879020681372613 1:0 2:0 3:0 4:0 5:7 6:12 7:2 8:3 9:3 10:4 11:4 12:4 13:4 14:1 15:0 16:0 17:0 18:0 19:0 20:4 21:3 22:3 23:3 24:5 25:4 26:6 27:3 28:3 29:3 30:3 31:4 32:0 33:0 34:0 35:0 36:0 37:0 38:0 39:44 
0.195564551182999 1:0 2:0 3:0 4:1 5:6 6:11 7:3 8:2 9:3 10:5 11:5 12:4 13:3 14:1 15:0 16:0 17:0 18:0 19:0 20:0 21:0 22:0 23:0 24:4 25:4 26:3 27:3 28:3 29:5 30:5 31:3 32:5 33:4 34:1 35:4 36:0 37:0 38:0 39:44 
0.5 1:0 2:0 3:0 4:0 5:1 6:9 7:10 8:3 9:3 10:3 11:5 12:7 13:4 14:4 15:2 16:0 17:0 18:0 19:0 20:0 21:0 22:0 23:1 24:4 25:3 26:4 27:5 28:5 29:6 30:6 31:3 32:3 33:3 34:5 35:3 36:0 37:0 38:0 39:51 
0.5 1:0 2:0 3:0 4:0 5:0 6:1 7:9 8:11 9:3 10:3 11:2 12:4 13:4 14:5 15:4 16:1 17:0 18:0 19:0 20:0 21:4 22:4 23:2 24:4 25:5 26:5 27:5 28:5 29:3 30:3 31:3 32:4 33:0 34:0 35:0 36:0 37:0 38:0 39:47 
0.1078452865301473 1:0 2:0 3:0 4:0 5:0 6:7 7:12 8:4 9:2 10:3 11:5 12:5 13:5 14:4 15:0 16:0 17:0 18:0 19:0 20:0 21:0 22:0 23:4 24:4 25:3 26:4 27:3 28:6 29:5 30:3 31:4 32:4 33:3 34:3 35:1 36:0 37:0 38:0 39:47 
0.5 1:0 2:0 3:0 4:10 5:12 6:3 7:3 8:3 9:3 10:5 11:4 12:4 13:1 14:0 15:0 16:0 17:0 18:0 19:0 20:0 21:3 22:4 23:3 24:4 25:4 26:5 27:6 28:3 29:4 30:4 31:4 32:4 33:0 34:0 35:0 36:0 37:0 38:0 39:48 
0.5 1:0 2:0 3:0 4:10 5:12 6:2 7:3 8:3 9:5 10:4 11:5 12:4 13:0 14:0 15:0 16:0 17:0 18:0 19:0 20:0 21:0 22:0 23:0 24:4 25:3 26:3 27:4 28:5 29:6 30:5 31:4 32:4 33:4 34:3 35:3 36:0 37:0 38:0 39:48 
0.3962033604888769 1:0 2:0 3:0 4:0 5:0 6:1 7:5 8:12 9:3 10:2 11:3 12:5 13:4 14:5 15:3 16:1 17:0 18:0 19:0 20:3 21:3 22:3 23:4 24:3 25:5 26:6 27:4 28:3 29:3 30:4 31:3 32:0 33:0 34:0 35:0 36:0 37:0 38:0 39:44 
0.5 1:0 2:0 3:0 4:0 5:0 6:0 7:9 8:11 9:3 10:3 11:2 12:5 13:5 14:5 15:4 16:1 17:0 18:0 19:0 20:0 21:0 22:0 23:4 24:3 25:3 26:3 27:5 28:6 29:5 30:4 31:4 32:4 33:3 34:4 35:0 36:0 37:0 38:0 39:48 
0.5 1:0 2:0 3:0 4:7 5:12 6:3 7:2 8:3 9:6 10:5 11:5 12:4 13:1 14:0 15:0 16:0 17:0 18:0 19:0 20:0 21:4 22:3 23:4 24:4 25:4 26:6 27:5 28:4 29:4 30:3 31:4 32:3 33:0 34:0 35:0 36:0 37:0 38:0 39:48 
0.5 1:0 2:0 3:0 4:0 5:0 6:8 7:12 8:2 9:2 10:3 11:4 12:5 13:6 14:4 15:1 16:0 17:0 18:0 19:0 20:0 21:0 22:1 23:4 24:4 25:5 26:4 27:3 28:4 29:4 30:4 31:3 32:4 33:4 34:3 35:0 36:0 37:0 38:0 39:47 
0.5 1:1 2:1 3:0 4:0 5:7 6:11 7:3 8:3 9:3 10:5 11:5 12:5 13:4 14:1 15:0 16:0 17:0 18:0 19:0 20:2 21:0 22:4 23:4 24:3 25:3 26:5 27:6 28:5 29:4 30:2 31:4 32:3 33:4 34:0 35:0 36:0 37:0 38:0 39:49 
-0.4773991577778976 1:0 2:0 3:0 4:0 5:0 6:0 7:8 8:11 9:4 10:4 11:3 12:5 13:7 14:6 15:5 16:1 17:0 18:0 19:0 20:0 21:7 22:6 23:4 24:2 25:3 26:8 27:6 28:4 29:4 30:2 31:4 32:4 33:0 34:0 35:0 36:0 37:0 38:0 39:54 
-0.5 1:0 2:0 3:0 4:8 5:12 6:3 7:4 8:4 9:4 10:6 11:8 12:5 13:1 14:0 15:0 16:0 17:0 18:0 19:0 20:0 21:0 22:0 23:8 24:8 25:3 26:3 27:2 28:6 29:6 30:4 31:4 32:3 33:4 34:4 35:0 36:0 37:0 38:0 39:55 
-0.05666348535795613 1:0 2:0 3:0 4:8 5:11 6:4 7:4 8:3 9:6 10:7 11:7 12:5 13:1 14:0 15:0 16:0 17:0 18:0 19:0 20:0 21:0 22:1 23:8 24:9 25:2 26:3 27:3 28:6 29:7 30:2 31:4 32:4 33:3 34:4 35:0 36:0 37:0 38:0 39:56 
-0.5 1:0 2:0 3:0 4:0 5:0 6:0 7:4 8:10 9:5 10:4 11:4 12:4 13:7 14:8 15:6 16:1 17:0 18:0 19:0 20:0 21:1 22:7 23:7 24:4 25:3 26:3 27:7 28:6 29:4 30:4 31:3 32:2 33:2 34:0 35:0 36:0 37:0 38:0 39:53 
-0.5 1:0 2:0 3:0 4:0 5:0 6:7 7:11 8:3 9:4 10:4 11:5 12:6 13:7 14:4 15:1 16:0 17:0 18:0 19:0 20:6 21:6 22:4 23:3 24:4 25:7 26:5 27:3 28:4 29:4 30:2 31:4 32:0 33:0 34:0 35:0 36:0 37:0 38:0 39:52 
-0.1228704021154323 1:0 2:0 3:0 4:0 5:9 6:12 7:4 8:4 9:4 10:5 11:6 12:8 13:5 14:1 15:0 16:0 17:0 18:0 19:0 20:0 21:0 22:8 23:8 24:4 25:3 26:4 27:8 28:7 29:3 30:4 31:3 32:2 33:4 34:0 35:0 36:0 37:0 38:0 39:58 
-0.5 1:0 2:0 3:0 4:7 5:12 6:4 7:4 8:3 9:4 10:7 11:6 12:5 13:1 14:0 15:0 16:0 17:0 18:0 19:0 20:0 21:0 22:0 23:6 24:7 25:3 26:2 27:4 28:7 29:7 30:4 31:3 32:4 33:2 34:4 35:0 36:0 37:0 38:0 39:53 
-0.1983739228930749 1:0 2:0 3:0 4:0 5:0 6:0 7:8 8:11 9:4 10:4 11:3 12:5 13:7 14:8 15:5 16:1 17:0 18:0 19:0 20:0 21:0 22:7 23:7 24:3 25:3 26:4 27:7 28:7 29:3 30:4 31:3 32:4 33:4 34:0 35:0 36:0 37:0 38:0 39:56 
-0.5 1:0 2:0 3:0 4:0 5:6 6:12 7:3 8:4 9:4 10:5 11:7 12:6 13:6 14:0 15:0 16:0 17:0 18:0 19:0 20:0 21:0 22:0 23:0 24:6 25:8 26:3 27:2 28:4 29:8 30:6 31:4 32:4 33:3 34:3 35:2 36:0 37:0 38:0 39:53 
-0.5 1:0 2:0 3:0 4:9 5:12 6:4 7:3 8:4 9:5 10:6 11:6 12:6 13:1 14:0 15:0 16:0 17:0 18:0 19:0 20:0 21:7 22:9 23:3 24:3 25:3 26:8 27:5 28:4 29:4 30:2 31:4 32:4 33:0 34:0 35:0 36:0 37:0 38:0 39:56 
-0.5 1:0 2:0 3:0 4:0 5:0 6:7 7:12 8:4 9:4 10:4 11:5 12:5 13:5 14:5 15:0 16:0 17:0 18:0 19:0 20:0 21:7 22:8 23:2 24:2 25:4 26:7 27:6 28:4 29:3 30:3 31:3 32:2 33:0 34:0 35:0 36:0 37:0 38:0 39:51 
-0.3371500328206498 1:0 2:0 3:0 4:0 5:8 6:11 7:4 8:4 9:3 10:5 11:5 12:7 13:6 14:1 15:0 16:0 17:0 18:0 19:0 20:0 21:0 22:0 23:0 24:8 25:7 26:4 27:3 28:2 29:8 30:6 31:4 32:2 33:3 34:3 35:4 36:0 37:0 38:0 39:54 
-0.3617238161393053 1:0 2:0 3:0 4:0 5:8 6:12 7:3 8:4 9:4 10:4 11:6 12:7 13:6 14:1 15:0 16:0 17:0 18:0 19:0 20:0 21:0 22:7 23:9 24:4 25:2 26:4 27:6 28:6 29:4 30:3 31:3 32:3 33:4 34:0 35:0 36:0 37:0 38:0 39:55 
-0.5 1:0 2:0 3:0 4:0 5:7 6:11 7:3 8:4 9:4 10:5 11:5 12:6 13:6 14:0 15:0 16:0 17:0 18:0 19:0 20:0 21:0 22:0 23:7 24:8 25:2 26:3 27:4 28:7 29:7 30:4 31:3 32:2 33:3 34:1 35:0 36:0 37:0 38:0 39:51 
-0.5 1:0 2:0 3:0 4:0 5:7 6:10 7:4 8:4 9:4 10:4 11:6 12:7 13:6 14:1 15:0 16:0 17:0 18:0 19:0 20:7 21:7 22:2 23:2 24:4 25:8 26:5 27:3 28:4 29:4 30:3 31:4 32:0 33:0 34:0 35:0 36:0 37:0 38:0 39:53 
-0.07328643302757788 1:0 2:0 3:0 4:0 5:8 6:12 7:4 8:4 9:4 10:4 11:7 12:7 13:6 14:1 15:0 16:0 17:0 18:0 19:0 20:7 21:9 22:3 23:3 24:3 25:8 26:6 27:3 28:4 29:4 30:3 31:4 32:0 33:0 34:0 35:0 36:0 37:0 38:0 39:57 
-0.5 1:0 2:0 3:0 4:0 5:0 6:8 7:11 8:5 9:3 10:4 11:3 12:7 13:6 14:5 15:1 16:0 17:0 18:0 19:0 20:0 21:0 22:0 23:0 24:8 25:6 26:3 27:3 28:1 29:7 30:7 31:3 32:3 33:3 34:4 35:5 36:0 37:0 38:0 39:53 
-0.2046726288599988 1:0 2:0 3:0 4:0 5:2 6:8 7:12 8:4 9:3 10:4 11:5 12:6 13:7 14:6 15:1 16:0 17:0 18:0 19:0 20:0 21:0 22:0 23:8 24:7 25:4 26:3 27:3 28:6 29:7 30:4 31:4 32:5 33:4 34:3 35:0 36:0 37:0 38:0 39:58 
-0.5 1:0 2:0 3:0 4:0 5:0 6:0 7:9 8:12 9:4 10:2 11:4 12:5 13:6 14:7 15:5 16:0 17:0 18:0 19:0 20:0 21:0 22:0 23:0 24:8 25:7 26:4 27:3 28:4 29:7 30:6 31:3 32:3 33:4 34:3 35:2 36:0 37:0 38:0 39:54 
-0.1944647587393024 1:0 2:0 3:0 4:0 5:0 6:0 7:8 8:11 9:4 10:4 11:5 12:5 13:6 14:7 15:6 16:1 17:0 18:0 19:0 20:0 21:0 22:0 23:0 24:7 25:9 26:3 27:3 28:3 29:7 30:7 31:3 32:5 33:4 34:2 35:4 36:0 37:0 38:0 39:57 
-0.5 1:0 2:0 3:0 4:0 5:0 6:9 7:10 8:3 9:4 10:2 11:4 12:6 13:9 14:4 15:1 16:0 17:0 18:0 19:0 20:0 21:0 22:0 23:6 24:6 25:4 26:0 27:4 28:7 29:7 30:5 31:3 32:4 33:4 34:2 35:0 36:0 37:0 38:0 39:52 
-0.5 1:0 2:0 3:0 4:0 5:2 6:10 7:4 8:4 9:4 10:5 11:6 12:8 13:6 14:1 15:0 16:0 17:0 18:0 19:0 20:0 21:0 22:7 23:8 24:3 25:1 26:2 27:6 28:6 29:4 30:3 31:3 32:4 33:3 34:0 35:0 36:0 37:0 38:0 39:50 
-0.2050721083928562 1:0 2:0 3:0 4:0 5:0 6:10 7:9 8:4 9:3 10:3 11:5 12:6 13:6 14:6 15:1 16:0 17:0 18:0 19:0 20:3 21:9 22:3 23:3 24:3 25:8 26:7 27:3 28:3 29:3 30:4 31:4 32:0 33:0 34:0 35:0 36:0 37:0 38:0 39:53 
-0.2578392123106952 1:0 2:0 3:0 4:0 5:0 6:7 7:11 8:4 9:4 10:3 11:5 12:5 13:7 14:6 15:0 16:0 17:0 18:0 19:0 20:0 21:7 22:9 23:3 24:3 25:4 26:7 27:6 28:2 29:4 30:3 31:3 32:1 33:0 34:0 35:0 36:0 37:0 38:0 39:52 
-0.01649909044523558 1:0 2:0 3:0 4:0 5:0 6:8 7:10 8:4 9:4 10:5 11:4 12:7 13:8 14:5 15:1 16:0 17:0 18:0 19:0 20:0 21:0 22:0 23:1 24:7 25:8 26:3 27:1 28:4 29:8 30:7 31:3 32:4 33:4 34:4 35:2 36:0 37:0 38:0 39:56 
-0.5 1:0 2:0 3:0 4:0 5:0 6:0 7:9 8:11 9:4 10:3 11:3 12:5 13:6 14:6 15:5 16:1 17:0 18:0 19:0 20:3 21:9 22:3 23:1 24:4 25:8 26:7 27:4 28:2 29:4 30:4 31:4 32:0 33:0 34:0 35:0 36:0 37:0 38:0 39:53 
