svm_type c_svc
kernel_type rbf
gamma 0.0078125
nr_class 2
total_sv 52
rho 0.234845
label 0 1
probA -4.24073
probB 0.15404
nr_sv 25 27
SV
0.1965233751786632 1:0 2:0 3:0 4:0 5:0 6:8 7:11 8:2 9:2 10:2 11:4 12:5 13:5 14:4 15:1 16:0 17:0 18:0 19:0 20:0 21:0 22:4 23:3 24:4 25:3 26:3 27:5 28:6 29:3 30:3 31:4 32:2 33:4 34:0 35:0 36:0 37:0 38:0 39:44 
0.07981118686365601 1:0 2:0 3:0 4:0 5:0 6:0 7:7 8:10 9:3 10:3 11:3 12:5 13:5 14:5 15:4 16:1 17:0 18:0 19:0 20:0 21:0 22:0 23:0 24:3 25:3 26:4 27:4 28:4 29:6 30:5 31:4 32:4 33:3 34:4 35:2 36:0 37:0 38:0 39:46 
0.5 1:0 2:0 3:0 4:6 5:9 6:3 7:2 8:3 9:4 10:5 11:4 12:3 13:0 14:0 15:0 16:0 17:0 18:0 19:0 20:0 21:0 22:1 23:4 24:4 25:3 26:3 27:5 28:5 29:3 30:4 31:3 32:3 33:1 34:0 35:0 36:0 37:0 38:0 39:39 
0.5 1:0 2:0 3:0 4:0 5:0 6:0 7:7 8:12 9:3 10:3 11:2 12:5 13:4 14:5 15:3 16:1 17:0 18:0 19:0 20:3 21:4 22:4 23:3 24:4 25:5 26:5 27:4 28:3 29:3 30:3 31:4 32:0 33:0 34:0 35:0 36:0 37:0 38:0 39:45 
0.3270777236855188 1:0 2:0 3:0 4:0 5:0 6:0 7:8 8:10 9:3 10:2 11:2 12:4 13:5 14:5 15:3 16:1 17:0 18:0 19:0 20:0 21:0 22:0 23:0 24:4 25:3 26:3 27:3 28:5 29:4 30:5 31:4 32:4 33:3 34:3 35:2 36:0 37:0 38:0 39:43 
0.09542247835862112 1:0 2:0 3:0 4:0 5:0 6:8 7:11 8:3 9:3 10:3 11:5 12:5 13:4 14:3 15:1 16:1 17:0 18:0 19:0 20:0 21:3 22:3 23:3 24:4 25:5 26:6 27:6 28:3 29:3 30:4 31:2 32:4 33:1 34:0 35:0 36:0 37:0 38:0 39:47 
0.3124946406039944 1:0 2:0 3:0 4:0 5:5 6:12 7:4 8:1 9:2 10:5 11:3 12:4 13:4 14:1 15:0 16:0 17:0 18:0 19:0 20:0 21:3 22:3 23:4 24:2 25:3 26:4 27:4 28:4 29:4 30:4 31:2 32:2 33:0 34:0 35:1 36:1 37:0 38:0 39:41 
0.0357434351829827 1:0 2:0 3:0 4:0 5:8 6:12 7:2 8:3 9:3 10:5 11:5 12:5 13:4 14:1 15:0 16:0 17:0 18:0 19:0 20:0 21:3 22:3 23:4 24:3 25:5 26:6 27:5 28:3 29:4 30:4 31:4 32:4 33:0 34:0 35:0 36:0 37:0 38:0 39:48 
0.5 1:0 2:0 3:0 4:0 5:0 6:7 7:11 8:3 9:2 10:2 11:5 12:5 13:4 14:4 15:1 16:0 17:0 18:0 19:0 20:3 21:4 22:4 23:3 24:3 25:6 26:6 27:3 28:4 29:3 30:2 31:3 32:0 33:0 34:0 35:0 36:0 37:0 38:0 39:44 
0.3048600986804494 1:0 2:0 3:0 4:8 5:12 6:3 7:3 8:2 9:5 10:4 11:5 12:3 13:1 14:0 15:0 16:0 17:0 18:0 19:0 20:0 21:0 22:0 23:4 24:3 25:4 26:4 27:4 28:5 29:6 30:3 31:3 32:3 33:3 34:4 35:0 36:0 37:0 38:0 39:46 
0.1225123080568883 1:0 2:0 3:0 4:5 5:12 6:3 7:3 8:2 9:4 10:5 11:5 12:4 13:1 14:0 15:0 16:0 17:0 18:0 19:0 20:0 21:4 22:3 23:2 24:3 25:3 26:5 27:6 28:4 29:3 30:4 31:3 32:4 33:0 34:0 35:0 36:0 37:0 38:0 39:44 
0.5 1:0 2:0 3:0 4:0 5:7 6:12 7:2 8:3 9:3 10:4 11:4 12:4 13:4 14:1 15:0 16:0 17:0 18:0 19:0 20:4 21:3 22:3 23:3 24:5 25:4 26:6 27:3 28:3 29:3 30:3 31:4 32:0 33:0 34:0 35:0 36:0 37:0 38:0 39:44 
0.5 1:0 2:0 3:0 4:1 5:6 6:11 7:3 8:2 9:3 10:5 11:5 12:4 13:3 14:1 15:0 16:0 17:0 18:0 19:0 20:0 21:0 22:0 23:0 24:4 25:4 26:3 27:3 28:3 29:5 30:5 31:3 32:5 33:4 34:1 35:4 36:0 37:0 38:0 39:44 
0.5 1:0 2:0 3:0 4:0 5:1 6:9 7:10 8:3 9:3 10:3 11:5 12:7 13:4 14:4 15:2 16:0 17:0 18:0 19:0 20:0 21:0 22:0 23:1 24:4 25:3 26:4 27:5 28:5 29:6 30:6 31:3 32:3 33:3 34:5 35:3 36:0 37:0 38:0 39:51 
0.4808136774298618 1:0 2:0 3:0 4:0 5:1 6:8 7:10 8:3 9:3 10:2 11:5 12:4 13:4 14:4 15:1 16:0 17:0 18:0 19:0 20:0 21:0 22:0 23:1 24:4 25:4 26:2 27:2 28:4 29:6 30:5 31:3 32:4 33:2 34:4 35:4 36:0 37:0 38:0 39:45 
0.1338846091007721 1:0 2:0 3:0 4:0 5:0 6:1 7:9 8:11 9:3 10:3 11:2 12:4 13:4 14:5 15:4 16:1 17:0 18:0 19:0 20:0 21:4 22:4 23:2 24:4 25:5 26:5 27:5 28:5 29:3 30:3 31:3 32:4 33:0 34:0 35:0 36:0 37:0 38:0 39:47 
0.3673027443668768 1:0 2:0 3:0 4:10 5:12 6:3 7:3 8:3 9:3 10:5 11:4 12:4 13:1 14:0 15:0 16:0 17:0 18:0 19:0 20:0 21:3 22:4 23:3 24:4 25:4 26:5 27:6 28:3 29:4 30:4 31:4 32:4 33:0 34:0 35:0 36:0 37:0 38:0 39:48 
0.5 1:0 2:0 3:0 4:10 5:12 6:2 7:3 8:3 9:5 10:4 11:5 12:4 13:0 14:0 15:0 16:0 17:0 18:0 19:0 20:0 21:0 22:0 23:0 24:4 25:3 26:3 27:4 28:5 29:6 30:5 31:4 32:4 33:4 34:3 35:3 36:0 37:0 38:0 39:48 
0.3085572942856151 1:0 2:0 3:0 4:0 5:0 6:0 7:6 8:12 9:2 10:2 11:3 12:4 13:5 14:5 15:2 16:1 17:0 18:0 19:0 20:0 21:0 22:0 23:2 24:4 25:4 26:3 27:4 28:5 29:5 30:3 31:3 32:3 33:3 34:3 35:0 36:0 37:0 38:0 39:42 
0.4072546017121746 1:0 2:0 3:0 4:0 5:0 6:1 7:5 8:12 9:3 10:2 11:3 12:5 13:4 14:5 15:3 16:1 17:0 18:0 19:0 20:3 21:3 22:3 23:4 24:3 25:5 26:6 27:4 28:3 29:3 30:4 31:3 32:0 33:0 34:0 35:0 36:0 37:0 38:0 39:44 
0.3941977100616264 1:0 2:0 3:0 4:0 5:0 6:0 7:9 8:11 9:3 10:3 11:2 12:5 13:5 14:5 15:4 16:1 17:0 18:0 19:0 20:0 21:0 22:0 23:4 24:3 25:3 26:3 27:5 28:6 29:5 30:4 31:4 32:4 33:3 34:4 35:0 36:0 37:0 38:0 39:48 
0.3304224237446022 1:0 2:0 3:0 4:7 5:12 6:3 7:2 8:3 9:6 10:5 11:5 12:4 13:1 14:0 15:0 16:0 17:0 18:0 19:0 20:0 21:4 22:3 23:4 24:4 25:4 26:6 27:5 28:4 29:4 30:3 31:4 32:3 33:0 34:0 35:0 36:0 37:0 38:0 39:48 
0.1327515987010336 1:0 2:0 3:0 4:0 5:0 6:8 7:12 8:2 9:2 10:3 11:4 12:5 13:6 14:4 15:1 16:0 17:0 18:0 19:0 20:0 21:0 22:1 23:4 24:4 25:5 26:4 27:3 28:4 29:4 30:4 31:3 32:4 33:4 34:3 35:0 36:0 37:0 38:0 39:47 
0.5 1:1 2:1 3:0 4:0 5:7 6:11 7:3 8:3 9:3 10:5 11:5 12:5 13:4 14:1 15:0 16:0 17:0 18:0 19:0 20:2 21:0 22:4 23:4 24:3 25:3 26:5 27:6 28:5 29:4 30:2 31:4 32:3 33:4 34:0 35:0 36:0 37:0 38:0 39:49 
0.03619817824694289 1:0 2:0 3:0 4:0 5:6 6:11 7:3 8:2 9:3 10:4 11:4 12:5 13:3 14:0 15:0 16:0 17:0 18:0 19:0 20:0 21:0 22:0 23:4 24:4 25:3 26:4 27:4 28:5 29:4 30:4 31:2 32:4 33:2 34:1 35:0 36:0 37:0 38:0 39:41 
-0.4992619544568521 1:0 2:0 3:0 4:4 5:4 6:7 7:6 8:4 9:5 10:6 11:4 12:0 13:0 14:0 15:0 16:0 17:0 18:0 19:0 20:0 21:0 22:0 23:7 24:7 25:2 26:1 27:1 28:1 29:2 30:2 31:2 32:2 33:7 34:6 35:0 36:0 37:0 38:0 39:40 
-0.3168367056698521 1:0 2:0 3:0 4:0 5:0 6:0 7:5 8:5 9:7 10:7 11:6 12:7 13:6 14:4 15:0 16:0 17:0 18:0 19:0 20:8 21:7 22:2 23:2 24:2 25:2 26:2 27:2 28:2 29:2 30:8 31:8 32:0 33:0 34:0 35:0 36:0 37:0 38:0 39:47 
-0.3822632688190013 1:0 2:1 3:1 4:0 5:0 6:5 7:5 8:7 9:7 10:6 11:7 12:6 13:4 14:0 15:0 16:0 17:0 18:0 19:0 20:0 21:0 22:0 23:8 24:7 25:2 26:3 27:3 28:2 29:2 30:2 31:2 32:2 33:8 34:8 35:0 36:0 37:0 38:0 39:49 
-0.08692037247910381 1:0 2:0 3:0 4:0 5:4 6:4 7:7 8:7 9:6 10:6 11:6 12:4 13:0 14:0 15:0 16:0 17:0 18:0 19:0 20:6 21:7 22:2 23:2 24:2 25:2 26:2 27:2 28:2 29:2 30:7 31:8 32:0 33:0 34:0 35:0 36:0 37:0 38:0 39:44 
-0.4304120625930621 1:0 2:0 3:0 4:0 5:0 6:0 7:3 8:6 9:6 10:6 11:6 12:6 13:6 14:4 15:0 16:0 17:0 18:0 19:0 20:0 21:0 22:8 23:7 24:2 25:2 26:2 27:2 28:1 29:1 30:2 31:2 32:7 33:7 34:0 35:0 36:0 37:0 38:0 39:43 
-0.2277544269459491 1:0 2:0 3:0 4:0 5:5 6:6 7:6 8:7 9:4 10:6 11:6 12:4 13:1 14:0 15:0 16:0 17:0 18:0 19:0 20:0 21:0 22:8 23:8 24:2 25:2 26:1 27:2 28:2 29:2 30:2 31:2 32:6 33:8 34:0 35:0 36:0 37:0 38:0 39:45 
-0.3878219560921378 1:0 2:0 3:0 4:5 5:6 6:8 7:7 8:6 9:7 10:6 11:4 12:0 13:0 14:0 15:0 16:0 17:0 18:0 19:0 20:0 21:1 22:1 23:8 24:8 25:2 26:3 27:2 28:2 29:1 30:2 31:2 32:2 33:7 34:8 35:0 36:0 37:0 38:0 39:49 
-0.5 1:1 2:0 3:0 4:4 5:6 6:7 7:7 8:5 9:6 10:5 11:4 12:1 13:0 14:0 15:0 16:0 17:0 18:0 19:0 20:0 21:0 22:0 23:0 24:7 25:6 26:1 27:3 28:2 29:2 30:2 31:2 32:2 33:3 34:8 35:8 36:0 37:0 38:0 39:46 
-0.1065672975277163 1:1 2:0 3:0 4:0 5:5 6:6 7:7 8:6 9:6 10:5 11:5 12:4 13:0 14:0 15:0 16:0 17:0 18:0 19:0 20:0 21:0 22:0 23:0 24:8 25:8 26:1 27:0 28:3 29:2 30:2 31:2 32:2 33:2 34:7 35:8 36:0 37:0 38:0 39:45 
-0.1842674501643198 1:0 2:0 3:0 4:0 5:0 6:5 7:6 8:7 9:6 10:5 11:7 12:6 13:4 14:0 15:0 16:0 17:0 18:0 19:0 20:8 21:7 22:2 23:2 24:2 25:2 26:2 27:1 28:2 29:2 30:8 31:8 32:0 33:0 34:0 35:0 36:0 37:0 38:0 39:46 
-0.1007226779743706 1:0 2:0 3:0 4:0 5:0 6:4 7:6 8:6 9:7 10:6 11:7 12:6 13:5 14:0 15:0 16:0 17:0 18:0 19:0 20:0 21:0 22:0 23:0 24:8 25:7 26:2 27:3 28:2 29:2 30:1 31:2 32:2 33:2 34:8 35:8 36:0 37:0 38:0 39:47 
-0.08329778334231423 1:0 2:0 3:0 4:0 5:5 6:6 7:5 8:6 9:6 10:5 11:6 12:3 13:0 14:0 15:0 16:0 17:0 18:0 19:0 20:0 21:0 22:8 23:8 24:1 25:1 26:2 27:2 28:2 29:2 30:1 31:2 32:6 33:7 34:0 35:0 36:0 37:0 38:0 39:42 
-0.5 1:5 2:0 3:0 4:0 5:0 6:0 7:5 8:4 9:6 10:6 11:6 12:7 13:6 14:3 15:0 16:0 17:0 18:0 19:0 20:0 21:7 22:7 23:2 24:3 25:3 26:3 27:3 28:2 29:2 30:3 31:6 32:7 33:0 34:0 35:0 36:0 37:0 38:0 39:48 
-0.06630643129303339 1:0 2:0 3:0 4:0 5:4 6:6 7:7 8:6 9:5 10:7 11:6 12:3 13:0 14:0 15:0 16:0 17:0 18:0 19:0 20:0 21:0 22:8 23:8 24:2 25:2 26:2 27:2 28:2 29:2 30:2 31:1 32:8 33:5 34:0 35:0 36:0 37:0 38:0 39:44 
-0.2155851311647086 1:0 2:0 3:0 4:0 5:0 6:0 7:5 8:6 9:7 10:7 11:5 12:5 13:6 14:4 15:0 16:0 17:0 18:0 19:0 20:7 21:8 22:2 23:2 24:1 25:2 26:2 27:2 28:2 29:2 30:7 31:8 32:0 33:0 34:0 35:0 36:0 37:0 38:0 39:45 
-0.4904168286243013 1:0 2:0 3:0 4:4 5:6 6:6 7:6 8:6 9:5 10:6 11:4 12:0 13:0 14:0 15:0 16:0 17:0 18:0 19:0 20:0 21:8 22:7 23:1 24:1 25:2 26:1 27:1 28:2 29:2 30:2 31:8 32:8 33:0 34:0 35:0 36:0 37:0 38:0 39:43 
-0.4282769195557681 1:0 2:0 3:0 4:0 5:5 6:7 7:7 8:7 9:6 10:6 11:6 12:4 13:0 14:0 15:0 16:0 17:0 18:0 19:0 20:0 21:8 22:8 23:2 24:2 25:2 26:2 27:2 28:2 29:2 30:2 31:8 32:8 33:0 34:0 35:0 36:0 37:0 38:0 39:48 
-0.3856239467415404 1:0 2:0 3:0 4:0 5:0 6:0 7:4 8:4 9:7 10:6 11:6 12:6 13:7 14:4 15:0 16:0 17:0 18:0 19:0 20:0 21:0 22:0 23:7 24:7 25:2 26:2 27:2 28:2 29:1 30:2 31:2 32:2 33:7 34:8 35:0 36:0 37:0 38:0 39:44 
-0.3681673210776895 1:0 2:0 3:0 4:0 5:4 6:5 7:7 8:7 9:5 10:5 11:6 12:4 13:0 14:0 15:0 16:0 17:0 18:0 19:0 20:0 21:0 22:0 23:0 24:7 25:7 26:2 27:2 28:1 29:2 30:2 31:2 32:2 33:2 34:7 35:7 36:0 37:0 38:0 39:43 
-0.02745264084132816 1:0 2:0 3:0 4:0 5:5 6:6 7:6 8:7 9:6 10:7 11:6 12:5 13:0 14:0 15:0 16:0 17:0 18:0 19:0 20:0 21:0 22:0 23:8 24:8 25:3 26:2 27:2 28:2 29:2 30:2 31:2 32:2 33:8 34:7 35:0 36:0 37:0 38:0 39:48 
-0.2507145258581602 1:0 2:0 3:0 4:0 5:0 6:0 7:5 8:4 9:7 10:8 11:7 12:7 13:5 14:3 15:0 16:0 17:0 18:0 19:0 20:0 21:0 22:0 23:1 24:8 25:8 26:1 27:3 28:2 29:2 30:2 31:2 32:1 33:2 34:6 35:8 36:0 37:0 38:0 39:46 
-0.5 1:0 2:0 3:0 4:5 5:6 6:6 7:7 8:5 9:6 10:6 11:3 12:0 13:0 14:0 15:0 16:0 17:0 18:0 19:0 20:8 21:6 22:2 23:2 24:2 25:1 26:2 27:2 28:1 29:3 30:7 31:8 32:0 33:0 34:0 35:0 36:0 37:0 38:0 39:44 
-0.4401386537672897 1:0 2:0 3:0 4:5 5:6 6:6 7:6 8:6 9:7 10:5 11:4 12:0 13:0 14:0 15:0 16:0 17:0 18:0 19:0 20:0 21:0 22:7 23:7 24:1 25:2 26:2 27:2 28:2 29:2 30:2 31:2 32:8 33:8 34:0 35:0 36:0 37:0 38:0 39:45 
-0.1755602348945287 1:0 2:0 3:0 4:0 5:0 6:5 7:6 8:6 9:7 10:5 11:7 12:6 13:4 14:0 15:0 16:0 17:0 18:0 19:0 20:0 21:0 22:8 23:8 24:2 25:2 26:3 27:2 28:2 29:1 30:2 31:2 32:8 33:6 34:0 35:0 36:0 37:0 38:0 39:46 
-0.06323160487424653 1:0 2:0 3:0 4:0 5:5 6:6 7:7 8:7 9:5 10:6 11:7 12:4 13:0 14:0 15:0 16:0 17:0 18:0 19:0 20:0 21:0 22:0 23:0 24:8 25:8 26:1 27:2 28:2 29:2 30:2 31:2 32:2 33:3 34:7 35:8 36:0 37:0 38:0 39:47 
-0.3482278895030054 1:0 2:0 3:0 4:0 5:0 6:0 7:4 8:5 9:7 10:6 11:6 12:7 13:5 14:3 15:0 16:0 17:0 18:0 19:0 20:0 21:0 22:0 23:0 24:7 25:7 26:2 27:1 28:2 29:2 30:2 31:2 32:2 33:1 34:8 35:7 36:0 37:0 38:0 39:43 
-0.5 1:0 2:0 3:0 4:0 5:0 6:4 7:5 8:7 9:6 10:5 11:6 12:5 13:2 14:0 15:0 16:0 17:0 18:0 19:0 20:7 21:3 22:2 23:2 24:2 25:1 26:2 27:2 28:2 29:2 30:8 31:7 32:0 33:0 34:0 35:0 36:0 37:0 38:0 39:40 
