svm_type c_svc
kernel_type rbf
gamma 0.00012207
nr_class 2
total_sv 14
rho -2.09226
label 0 1
probA -3.04202
probB -0.0716384
nr_sv 6 8
SV
2.758630865771526 1:0 2:0 3:0 4:0 5:1 6:10 7:12 8:3 9:4 10:4 11:3 12:4 13:4 14:4 15:3 16:9 17:0 18:0 19:0 20:0 21:0 22:0 23:7 24:5 25:7 26:6 27:4 28:5 29:4 30:4 31:5 32:6 33:5 34:3 35:0 36:0 37:0 38:0 39:61 
45.24651161825098 1:0 2:0 3:0 4:0 5:8 6:12 7:3 8:3 9:3 10:4 11:4 12:3 13:4 14:4 15:11 16:0 17:0 18:0 19:0 20:0 21:6 22:5 23:7 24:5 25:5 26:5 27:4 28:4 29:5 30:6 31:5 32:2 33:0 34:0 35:0 36:0 37:0 38:0 39:59 
108.1441344836064 1:0 2:0 3:0 4:5 5:11 6:3 7:2 8:4 9:3 10:3 11:3 12:4 13:3 14:7 15:0 16:0 17:0 18:0 19:0 20:0 21:0 22:0 23:0 24:5 25:6 26:5 27:3 28:5 29:4 30:3 31:3 32:4 33:6 34:3 35:1 36:0 37:0 38:0 39:48 
125.1343715834489 1:0 2:0 3:0 4:0 5:0 6:7 7:10 8:3 9:4 10:4 11:4 12:2 13:3 14:4 15:3 16:10 17:0 18:0 19:0 20:0 21:6 22:6 23:5 24:5 25:3 26:4 27:4 28:4 29:5 30:4 31:5 32:3 33:0 34:0 35:0 36:0 37:0 38:0 39:54 
173.4228172817657 1:0 2:0 3:0 4:0 5:0 6:1 7:5 8:10 9:3 10:5 11:4 12:4 13:3 14:2 15:3 16:3 17:0 18:0 19:0 20:0 21:0 22:0 23:0 24:4 25:5 26:4 27:6 28:2 29:4 30:3 31:2 32:5 33:3 34:2 35:3 36:0 37:0 38:0 39:43 
102.2630694515139 1:0 2:0 3:0 4:0 5:0 6:0 7:7 8:11 9:2 10:5 11:4 12:3 13:3 14:5 15:4 16:3 17:0 18:0 19:1 20:5 21:5 22:4 23:4 24:3 25:5 26:4 27:2 28:4 29:3 30:4 31:3 32:0 33:0 34:0 35:0 36:0 37:0 38:0 39:47 
-106.6360159352482 1:0 2:0 3:0 4:0 5:0 6:0 7:5 8:8 9:2 10:4 11:3 12:5 13:4 14:4 15:6 16:7 17:0 18:0 19:0 20:0 21:0 22:0 23:0 24:3 25:7 26:3 27:3 28:3 29:3 30:3 31:2 32:5 33:5 34:4 35:7 36:0 37:0 38:0 39:48 
-114.3846192601153 1:0 2:0 3:0 4:0 5:0 6:0 7:6 8:8 9:4 10:3 11:4 12:4 13:5 14:5 15:3 16:7 17:0 18:0 19:0 20:0 21:4 22:5 23:4 24:4 25:3 26:3 27:3 28:3 29:3 30:4 31:6 32:7 33:0 34:0 35:0 36:0 37:0 38:0 39:49 
-25.66533031432656 1:0 2:0 3:0 4:0 5:0 6:6 7:6 8:4 9:4 10:3 11:3 12:4 13:4 14:6 15:8 16:1 17:0 18:0 19:0 20:0 21:0 22:0 23:3 24:7 25:4 26:3 27:3 28:2 29:3 30:2 31:4 32:5 33:6 34:6 35:1 36:0 37:0 38:0 39:49 
-56.80973949424183 1:0 2:0 3:0 4:0 5:0 6:6 7:8 8:4 9:4 10:4 11:4 12:4 13:3 14:6 15:4 16:0 17:0 18:0 19:0 20:0 21:0 22:0 23:0 24:4 25:6 26:3 27:4 28:2 29:2 30:3 31:3 32:4 33:3 34:7 35:6 36:0 37:0 38:0 39:47 
-19.68448904162956 1:0 2:0 3:0 4:0 5:0 6:0 7:3 8:7 9:4 10:4 11:4 12:4 13:3 14:3 15:6 16:9 17:0 18:0 19:0 20:0 21:0 22:0 23:4 24:6 25:4 26:2 27:3 28:2 29:3 30:3 31:3 32:4 33:7 34:6 35:0 36:0 37:0 38:0 39:47 
-119.4126696904619 1:0 2:0 3:0 4:0 5:7 6:8 7:4 8:4 9:4 10:5 11:5 12:4 13:4 14:6 15:0 16:0 17:0 18:0 19:0 20:4 21:7 22:3 23:4 24:3 25:3 26:3 27:2 28:3 29:6 30:7 31:6 32:0 33:0 34:0 35:0 36:0 37:0 38:0 39:51 
-66.0844929224881 1:0 2:0 3:0 4:5 5:7 6:4 7:3 8:4 9:5 10:5 11:4 12:3 13:7 14:0 15:0 16:0 17:0 18:0 19:0 20:4 21:6 22:3 23:2 24:3 25:3 26:3 27:3 28:3 29:5 30:6 31:6 32:0 33:0 34:0 35:0 36:0 37:0 38:0 39:47 
-48.29217862584581 1:0 2:0 3:0 4:0 5:0 6:0 7:6 8:8 9:3 10:4 11:2 12:4 13:3 14:4 15:6 16:7 17:0 18:0 19:0 20:0 21:0 22:2 23:5 24:3 25:4 26:2 27:3 28:3 29:2 30:4 31:6 32:6 33:7 34:0 35:0 36:0 37:0 38:0 39:47 
