svm_type c_svc
kernel_type rbf
gamma 0.0078125
nr_class 2
total_sv 47
rho -0.0630266
label 1 0
probA -4.3852
probB -0.468144
nr_sv 22 25
SV
0.4415149928755948 1:0 2:0 3:0 4:10 5:12 6:1 7:1 8:1 9:2 10:8 11:1 12:0 13:0 14:0 15:0 16:0 17:0 18:0 19:1 20:2 21:2 22:2 23:4 24:6 25:3 26:2 27:3 28:2 29:3 30:3 31:3 32:0 33:0 34:0 35:0 36:0 37:0 38:0 39:36 
0.5 1:3 2:4 3:6 4:3 5:1 6:9 7:9 8:1 9:1 10:2 11:2 12:5 13:0 14:0 15:0 16:0 17:0 18:0 19:0 20:0 21:0 22:0 23:2 24:3 25:2 26:1 27:5 28:8 29:2 30:4 31:6 32:6 33:3 34:2 35:2 36:0 37:0 38:0 39:46 
0.3721488365661664 1:0 2:0 3:0 4:0 5:1 6:10 7:12 8:1 9:1 10:1 11:3 12:6 13:1 14:0 15:0 16:0 17:0 18:0 19:0 20:0 21:0 22:2 23:2 24:3 25:4 26:6 27:3 28:3 29:2 30:3 31:3 32:3 33:2 34:0 35:0 36:0 37:0 38:0 39:36 
0.2676047323066967 1:0 2:0 3:0 4:0 5:8 6:12 7:2 8:1 9:1 10:2 11:6 12:0 13:0 14:0 15:0 16:0 17:0 18:0 19:0 20:0 21:0 22:0 23:0 24:2 25:2 26:1 27:3 28:6 29:3 30:3 31:2 32:3 33:3 34:3 35:1 36:0 37:0 38:0 39:32 
0.5 1:4 2:7 3:5 4:2 5:0 6:9 7:10 8:1 9:1 10:2 11:2 12:7 13:0 14:0 15:0 16:0 17:0 18:0 19:0 20:4 21:4 22:1 23:4 24:9 25:5 26:3 27:4 28:5 29:5 30:4 31:2 32:0 33:0 34:0 35:0 36:0 37:0 38:0 39:50 
0.3415129864008925 1:0 2:0 3:0 4:0 5:5 6:12 7:1 8:1 9:2 10:1 11:5 12:0 13:0 14:0 15:0 16:0 17:0 18:0 19:0 20:0 21:0 22:0 23:0 24:2 25:1 26:1 27:2 28:6 29:3 30:3 31:2 32:3 33:1 34:1 35:2 36:0 37:0 38:0 39:27 
0.06044175647830473 1:0 2:0 3:0 4:0 5:0 6:11 7:11 8:2 9:1 10:2 11:2 12:5 13:0 14:0 15:0 16:0 17:0 18:0 19:0 20:0 21:0 22:0 23:0 24:2 25:1 26:3 27:3 28:7 29:3 30:3 31:2 32:2 33:3 34:3 35:2 36:0 37:0 38:0 39:34 
0.3599841743767206 1:4 2:6 3:6 4:2 5:0 6:9 7:11 8:1 9:1 10:2 11:2 12:6 13:1 14:0 15:0 16:0 17:0 18:0 19:0 20:0 21:0 22:0 23:2 24:3 25:4 26:5 27:7 28:3 29:5 30:4 31:4 32:4 33:6 34:3 35:1 36:0 37:0 38:0 39:51 
0.5 1:2 2:0 3:0 4:0 5:0 6:0 7:8 8:10 9:1 10:1 11:2 12:2 13:7 14:0 15:0 16:0 17:0 18:0 19:0 20:0 21:1 22:1 23:4 24:7 25:4 26:3 27:2 28:3 29:3 30:3 31:2 32:0 33:0 34:0 35:0 36:0 37:0 38:0 39:33 
0.3208688674048593 1:0 2:0 3:0 4:0 5:0 6:7 7:12 8:2 9:1 10:2 11:2 12:6 13:0 14:0 15:0 16:0 17:0 18:0 19:0 20:0 21:0 22:0 23:0 24:2 25:2 26:1 27:3 28:7 29:2 30:2 31:3 32:2 33:3 34:3 35:2 36:0 37:0 38:0 39:32 
0.3627223250778069 1:0 2:0 3:0 4:0 5:0 6:8 7:10 8:1 9:1 10:2 11:2 12:7 13:0 14:0 15:0 16:0 17:0 18:0 19:0 20:2 21:2 22:2 23:3 24:7 25:3 26:2 27:3 28:3 29:2 30:2 31:0 32:0 33:0 34:0 35:0 36:0 37:0 38:0 39:31 
0.304182555842949 1:4 2:6 3:5 4:1 5:0 6:9 7:11 8:1 9:1 10:2 11:2 12:7 13:0 14:0 15:0 16:0 17:0 18:0 19:0 20:0 21:4 22:3 23:3 24:4 25:8 26:4 27:4 28:3 29:4 30:5 31:4 32:3 33:0 34:0 35:0 36:0 37:0 38:0 39:49 
0.02913428694553227 1:0 2:0 3:0 4:0 5:0 6:8 7:11 8:1 9:1 10:2 11:2 12:5 13:0 14:0 15:0 16:0 17:0 18:0 19:0 20:0 21:1 22:2 23:1 24:3 25:6 26:3 27:3 28:2 29:3 30:2 31:2 32:2 33:0 34:0 35:0 36:0 37:0 38:0 39:30 
0.4666840012887699 1:0 2:0 3:0 4:7 5:9 6:1 7:1 8:1 9:2 10:4 11:0 12:0 13:0 14:0 15:0 16:0 17:0 18:0 19:0 20:0 21:0 22:0 23:2 24:1 25:1 26:3 27:6 28:1 29:2 30:1 31:2 32:2 33:3 34:1 35:0 36:0 37:0 38:0 39:25 
0.5 1:4 2:5 3:1 4:8 5:10 6:2 7:1 8:2 9:2 10:7 11:0 12:0 13:0 14:0 15:0 16:0 17:0 18:0 19:0 20:0 21:2 22:1 23:3 24:3 25:3 26:4 27:6 28:3 29:4 30:3 31:4 32:3 33:2 34:1 35:0 36:0 37:0 38:0 39:42 
0.2638720206597622 1:0 2:0 3:0 4:7 5:12 6:1 7:1 8:2 9:2 10:4 11:0 12:0 13:0 14:0 15:0 16:0 17:0 18:0 19:0 20:0 21:0 22:1 23:2 24:1 25:3 26:7 27:2 28:3 29:3 30:1 31:2 32:2 33:2 34:0 35:0 36:0 37:0 38:0 39:29 
0.07496973621496873 1:0 2:0 3:0 4:6 5:10 6:1 7:1 8:2 9:2 10:6 11:0 12:0 13:0 14:0 15:0 16:0 17:0 18:0 19:0 20:0 21:2 22:2 23:1 24:3 25:5 26:2 27:3 28:2 29:3 30:3 31:2 32:0 33:0 34:0 35:0 36:0 37:0 38:0 39:28 
0.302342455196084 1:0 2:0 3:0 4:0 5:6 6:12 7:1 8:1 9:2 10:2 11:4 12:0 13:0 14:0 15:0 16:0 17:0 18:0 19:0 20:0 21:0 22:0 23:2 24:1 25:2 26:3 27:7 28:2 29:2 30:1 31:2 32:2 33:3 34:1 35:0 36:0 37:0 38:0 39:28 
0.5 1:5 2:2 3:6 4:11 5:12 6:1 7:1 8:2 9:2 10:7 11:0 12:0 13:0 14:0 15:0 16:0 17:0 18:0 19:0 20:0 21:0 22:0 23:0 24:2 25:2 26:2 27:4 28:8 29:4 30:4 31:5 32:4 33:6 34:4 35:4 36:0 37:0 38:0 39:49 
0.5 1:4 2:4 3:7 4:5 5:2 6:10 7:11 8:1 9:1 10:2 11:2 12:7 13:0 14:0 15:0 16:0 17:0 18:0 19:0 20:0 21:2 22:2 23:2 24:3 25:4 26:4 27:8 28:4 29:6 30:6 31:5 32:5 33:3 34:2 35:0 36:0 37:0 38:0 39:56 
0.1025968144329144 1:0 2:0 3:2 4:9 5:11 6:1 7:1 8:2 9:2 10:7 11:0 12:0 13:0 14:0 15:0 16:0 17:0 18:0 19:0 20:1 21:1 22:2 23:4 24:7 25:4 26:3 27:3 28:3 29:3 30:3 31:1 32:0 33:0 34:0 35:0 36:0 37:0 38:0 39:35 
0.5 1:7 2:5 3:1 4:0 5:9 6:12 7:3 8:1 9:2 10:2 11:7 12:0 13:0 14:0 15:0 16:0 17:0 18:0 19:0 20:0 21:2 22:2 23:3 24:5 25:8 26:5 27:4 28:5 29:4 30:3 31:3 32:3 33:1 34:1 35:0 36:0 37:0 38:0 39:49 
-0.5 1:0 2:0 3:0 4:0 5:0 6:9 7:12 8:3 9:3 10:2 11:3 12:3 13:7 14:12 15:0 16:0 17:0 18:0 19:0 20:4 21:5 22:3 23:6 24:3 25:5 26:5 27:5 28:6 29:4 30:4 31:4 32:0 33:0 34:0 35:0 36:0 37:0 38:0 39:54 
-0.1274584545927155 1:0 2:0 3:0 4:0 5:0 6:0 7:8 8:11 9:3 10:3 11:3 12:2 13:3 14:8 15:9 16:0 17:0 18:0 19:0 20:0 21:0 22:3 23:4 24:5 25:5 26:4 27:5 28:5 29:3 30:5 31:4 32:3 33:4 34:0 35:0 36:0 37:0 38:0 39:50 
-0.5 1:0 2:0 3:1 4:7 5:11 6:3 7:4 8:3 9:3 10:3 11:8 12:11 13:0 14:0 15:0 16:0 17:0 18:0 19:0 20:0 21:0 22:0 23:0 24:4 25:5 26:4 27:5 28:6 29:6 30:6 31:3 32:4 33:5 34:4 35:2 36:0 37:0 38:0 39:54 
-0.2424982824537587 1:0 2:0 3:0 4:0 5:9 6:11 7:4 8:2 9:2 10:3 11:3 12:9 13:12 14:0 15:0 16:0 17:0 18:0 19:0 20:0 21:0 22:0 23:3 24:4 25:3 26:6 27:6 28:6 29:5 30:4 31:5 32:5 33:5 34:3 35:0 36:0 37:0 38:0 39:55 
-0.5 1:0 2:0 3:0 4:0 5:9 6:11 7:3 8:2 9:3 10:3 11:3 12:7 13:7 14:0 15:0 16:0 17:0 18:0 19:0 20:0 21:2 22:2 23:4 24:4 25:6 26:3 27:6 28:5 29:5 30:3 31:4 32:4 33:0 34:0 35:0 36:0 37:0 38:0 39:48 
-0.5 1:0 2:0 3:0 4:0 5:4 6:11 7:4 8:3 9:4 10:3 11:3 12:9 13:12 14:0 15:0 16:0 17:0 18:0 19:0 20:0 21:0 22:0 23:0 24:3 25:4 26:5 27:5 28:5 29:5 30:5 31:3 32:6 33:4 34:5 35:3 36:0 37:0 38:0 39:53 
-0.410768844855009 1:0 2:0 3:0 4:8 5:10 6:3 7:3 8:3 9:3 10:3 11:7 12:11 13:0 14:0 15:0 16:0 17:0 18:0 19:0 20:3 21:5 22:4 23:4 24:6 25:3 26:5 27:3 28:5 29:5 30:4 31:4 32:0 33:0 34:0 35:0 36:0 37:0 38:0 39:51 
-0.05978224059221519 1:0 2:0 3:0 4:0 5:7 6:11 7:3 8:3 9:3 10:3 11:3 12:7 13:12 14:0 15:0 16:0 17:0 18:0 19:0 20:0 21:0 22:4 23:4 24:4 25:5 26:5 27:5 28:5 29:4 30:6 31:5 32:4 33:1 34:0 35:0 36:0 37:0 38:0 39:52 
-0.5 1:1 2:1 3:0 4:0 5:1 6:9 7:11 8:3 9:2 10:2 11:3 12:3 13:10 14:11 15:0 16:0 17:0 18:0 19:0 20:0 21:0 22:0 23:0 24:3 25:5 26:4 27:6 28:5 29:4 30:6 31:5 32:6 33:4 34:5 35:4 36:0 37:0 38:0 39:57 
-0.02148320864282617 1:0 2:0 3:0 4:0 5:0 6:7 7:12 8:3 9:1 10:3 11:3 12:3 13:9 14:11 15:0 16:0 17:0 18:0 19:0 20:0 21:3 22:4 23:4 24:5 25:5 26:3 27:6 28:4 29:5 30:4 31:5 32:4 33:0 34:0 35:0 36:0 37:0 38:0 39:52 
-0.5 1:0 2:0 3:0 4:0 5:9 6:10 7:3 8:2 9:3 10:2 11:3 12:11 13:12 14:0 15:0 16:0 17:0 18:0 19:0 20:3 21:5 22:3 23:5 24:5 25:5 26:6 27:5 28:5 29:4 30:5 31:4 32:0 33:0 34:0 35:0 36:0 37:0 38:0 39:55 
-0.03495298764426023 1:0 2:0 3:0 4:0 5:0 6:10 7:10 8:3 9:3 10:3 11:3 12:3 13:8 14:12 15:0 16:0 17:0 18:0 19:0 20:0 21:0 22:0 23:3 24:5 25:6 26:4 27:5 28:6 29:6 30:3 31:4 32:5 33:5 34:3 35:0 36:0 37:0 38:0 39:55 
-0.2645207395452002 1:0 2:0 3:0 4:0 5:0 6:0 7:6 8:11 9:3 10:3 11:3 12:3 13:2 14:10 15:10 16:0 17:0 18:0 19:0 20:0 21:0 22:0 23:0 24:4 25:5 26:4 27:4 28:5 29:4 30:5 31:5 32:5 33:4 34:3 35:3 36:0 37:0 38:0 39:51 
-0.5 1:0 2:0 3:0 4:0 5:0 6:4 7:11 8:3 9:1 10:3 11:2 12:3 13:9 14:10 15:0 16:0 17:0 18:0 19:0 20:0 21:0 22:2 23:4 24:4 25:5 26:4 27:4 28:5 29:3 30:5 31:2 32:4 33:4 34:0 35:0 36:0 37:0 38:0 39:46 
-0.1947594781494184 1:0 2:0 3:0 4:0 5:0 6:5 7:9 8:3 9:3 10:3 11:2 12:3 13:9 14:12 15:0 16:0 17:0 18:0 19:0 20:0 21:0 22:0 23:0 24:4 25:5 26:2 27:6 28:5 29:4 30:3 31:4 32:5 33:5 34:4 35:2 36:0 37:0 38:0 39:49 
-0.1914495649675321 1:0 2:0 3:0 4:0 5:0 6:8 7:12 8:3 9:3 10:3 11:2 12:1 13:8 14:9 15:1 16:0 17:0 18:0 19:0 20:0 21:0 22:0 23:1 24:4 25:4 26:7 27:6 28:6 29:3 30:4 31:4 32:4 33:3 34:4 35:0 36:0 37:0 38:0 39:50 
-0.2890422748040091 1:0 2:0 3:0 4:7 5:12 6:1 7:3 8:3 9:3 10:1 11:12 12:9 13:1 14:0 15:0 16:0 17:0 18:0 19:0 20:0 21:3 22:4 23:4 24:6 25:5 26:5 27:5 28:5 29:5 30:4 31:2 32:4 33:0 34:0 35:0 36:0 37:0 38:0 39:52 
-0.2015986984967501 1:0 2:0 3:0 4:0 5:0 6:8 7:12 8:3 9:3 10:3 11:3 12:3 13:10 14:11 15:1 16:0 17:0 18:0 19:0 20:0 21:0 22:4 23:4 24:5 25:6 26:5 27:6 28:5 29:4 30:5 31:5 32:4 33:4 34:0 35:0 36:0 37:0 38:0 39:57 
-0.2548151995569952 1:1 2:0 3:0 4:7 5:12 6:3 7:3 8:3 9:3 10:2 11:8 12:11 13:0 14:0 15:0 16:0 17:0 18:0 19:0 20:0 21:0 22:0 23:3 24:5 25:5 26:5 27:5 28:5 29:4 30:3 31:5 32:5 33:3 34:4 35:1 36:0 37:0 38:0 39:53 
-0.0433863481745522 1:0 2:0 3:0 4:0 5:9 6:11 7:4 8:3 9:3 10:3 11:2 12:9 13:11 14:0 15:0 16:0 17:0 18:0 19:0 20:0 21:0 22:0 23:4 24:5 25:5 26:5 27:6 28:6 29:4 30:3 31:4 32:5 33:5 34:3 35:0 36:0 37:0 38:0 39:55 
-0.2818504730821349 1:0 2:0 3:0 4:0 5:0 6:0 7:7 8:8 9:4 10:3 11:3 12:3 13:3 14:10 15:12 16:0 17:0 18:0 19:0 20:3 21:3 22:3 23:5 24:5 25:5 26:6 27:5 28:7 29:3 30:4 31:4 32:0 33:0 34:0 35:0 36:0 37:0 38:0 39:53 
-0.002173705315886752 1:0 2:0 3:0 4:0 5:8 6:10 7:2 8:3 9:3 10:3 11:2 12:11 13:12 14:0 15:0 16:0 17:0 18:0 19:0 20:0 21:0 22:0 23:4 24:4 25:4 26:5 27:6 28:5 29:6 30:4 31:4 32:4 33:5 34:3 35:0 36:0 37:0 38:0 39:54 
-0.4500400411947585 1:0 2:0 3:0 4:9 5:12 6:3 7:3 8:3 9:2 10:3 11:11 12:10 13:0 14:0 15:0 16:0 17:0 18:0 19:0 20:4 21:4 22:5 23:6 24:4 25:6 26:5 27:4 28:6 29:5 30:4 31:3 32:0 33:0 34:0 35:0 36:0 37:0 38:0 39:56 
-0.5 1:0 2:0 3:0 4:0 5:0 6:0 7:4 8:10 9:4 10:3 11:3 12:3 13:3 14:7 15:11 16:0 17:0 18:0 19:0 20:0 21:0 22:0 23:0 24:3 25:3 26:5 27:4 28:5 29:3 30:4 31:4 32:6 33:5 34:4 35:2 36:0 37:0 38:0 39:48 
-0.5 1:0 2:0 3:0 4:0 5:0 6:0 7:8 8:10 9:3 10:3 11:3 12:3 13:3 14:10 15:11 16:0 17:0 18:0 19:1 20:3 21:4 22:5 23:4 24:6 25:3 26:6 27:4 28:6 29:5 30:4 31:3 32:0 33:0 34:0 35:0 36:0 37:0 38:0 39:54 
