svm_type c_svc
kernel_type rbf
gamma 0.0078125
nr_class 2
total_sv 38
rho 0.671991
label 1 0
probA -4.01698
probB 0.0231632
nr_sv 15 23
SV
0.4497548850838075 1:0 2:0 3:0 4:0 5:0 6:3 7:5 8:4 9:4 10:5 11:3 12:4 13:3 14:2 15:3 16:3 17:0 18:0 19:0 20:0 21:0 22:0 23:0 24:4 25:5 26:6 27:4 28:3 29:5 30:5 31:3 32:4 33:0 34:0 35:0 36:0 37:0 38:0 39:39 
0.5 1:0 2:0 3:0 4:0 5:0 6:2 7:5 8:3 9:4 10:3 11:3 12:5 13:4 14:3 15:3 16:3 17:0 18:0 19:0 20:0 21:0 22:0 23:3 24:5 25:5 26:4 27:3 28:5 29:5 30:4 31:4 32:0 33:0 34:0 35:0 36:0 37:0 38:0 39:38 
0.2907017611236258 1:0 2:0 3:0 4:0 5:3 6:4 7:3 8:4 9:3 10:3 11:5 12:2 13:3 14:4 15:2 16:0 17:0 18:0 19:0 20:0 21:0 22:0 23:0 24:3 25:5 26:6 27:3 28:4 29:4 30:4 31:3 32:4 33:0 34:0 35:0 36:0 37:0 38:0 39:36 
0.1531424580795208 1:0 2:0 3:0 4:0 5:0 6:0 7:1 8:4 9:3 10:4 11:3 12:3 13:6 14:4 15:2 16:4 17:0 18:0 19:0 20:0 21:0 22:0 23:0 24:0 25:0 26:1 27:3 28:4 29:4 30:4 31:5 32:5 33:4 34:4 35:0 36:0 37:0 38:0 39:34 
0.5 1:0 2:0 3:0 4:3 5:5 6:3 7:4 8:4 9:3 10:5 11:4 12:3 13:4 14:2 15:0 16:0 17:0 18:0 19:0 20:0 21:0 22:0 23:0 24:0 25:2 26:5 27:7 28:4 29:4 30:5 31:5 32:4 33:4 34:0 35:0 36:0 37:0 38:0 39:40 
0.04552387173133956 1:0 2:0 3:0 4:0 5:0 6:3 7:5 8:4 9:4 10:4 11:3 12:4 13:4 14:3 15:4 16:3 17:0 18:0 19:0 20:0 21:0 22:0 23:0 24:0 25:3 26:4 27:7 28:4 29:4 30:6 31:5 32:4 33:4 34:0 35:0 36:0 37:0 38:0 39:41 
0.1981725902139724 1:0 2:0 3:0 4:0 5:0 6:0 7:3 8:6 9:3 10:4 11:3 12:4 13:5 14:3 15:3 16:5 17:0 18:0 19:0 20:0 21:0 22:0 23:0 24:0 25:2 26:4 27:5 28:4 29:5 30:4 31:6 32:4 33:5 34:0 35:0 36:0 37:0 38:0 39:39 
0.2072424852621558 1:0 2:0 3:0 4:3 5:4 6:3 7:4 8:4 9:4 10:5 11:3 12:3 13:3 14:1 15:0 16:0 17:0 18:0 19:0 20:0 21:0 22:0 23:0 24:0 25:0 26:3 27:4 28:5 29:5 30:4 31:4 32:4 33:4 34:4 35:0 36:0 37:0 38:0 39:37 
0.1811988833688077 1:0 2:0 3:0 4:0 5:0 6:3 7:5 8:3 9:4 10:4 11:2 12:5 13:4 14:3 15:4 16:2 17:0 18:0 19:0 20:0 21:0 22:0 23:0 24:0 25:0 26:1 27:4 28:5 29:5 30:4 31:5 32:6 33:4 34:5 35:0 36:0 37:0 38:0 39:39 
0.5 1:0 2:0 3:0 4:0 5:0 6:0 7:1 8:4 9:2 10:3 11:3 12:2 13:3 14:4 15:3 16:4 17:0 18:0 19:0 20:0 21:0 22:0 23:0 24:0 25:0 26:0 27:1 28:2 29:5 30:3 31:3 32:6 33:4 34:3 35:2 36:0 37:0 38:0 39:29 
0.5 1:0 2:0 3:0 4:0 5:0 6:4 7:5 8:3 9:4 10:4 11:3 12:5 13:4 14:3 15:3 16:3 17:0 18:0 19:0 20:0 21:0 22:0 23:1 24:3 25:5 26:6 27:4 28:4 29:5 30:5 31:4 32:4 33:0 34:0 35:0 36:0 37:0 38:0 39:41 
0.5 1:0 2:0 3:0 4:0 5:2 6:4 7:3 8:4 9:3 10:3 11:4 12:5 13:3 14:2 15:2 16:0 17:0 18:0 19:0 20:0 21:0 22:0 23:3 24:4 25:5 26:3 27:4 28:4 29:4 30:4 31:4 32:0 33:0 34:0 35:0 36:0 37:0 38:0 39:35 
0.4435007884768057 1:0 2:0 3:0 4:0 5:3 6:5 7:3 8:4 9:4 10:3 11:3 12:4 13:2 14:3 15:3 16:0 17:0 18:0 19:0 20:0 21:0 22:0 23:0 24:0 25:0 26:0 27:3 28:5 29:6 30:5 31:2 32:4 33:5 34:3 35:4 36:0 37:0 38:0 39:37 
0.197545573894437 1:0 2:0 3:0 4:0 5:2 6:5 7:3 8:4 9:3 10:3 11:5 12:4 13:3 14:0 15:1 16:0 17:0 18:0 19:0 20:0 21:0 22:0 23:0 24:0 25:3 26:3 27:4 28:3 29:3 30:4 31:5 32:4 33:4 34:0 35:0 36:0 37:0 38:0 39:33 
0.3872290435314846 1:0 2:0 3:0 4:0 5:2 6:5 7:3 8:4 9:4 10:2 11:4 12:4 13:2 14:5 15:3 16:0 17:0 18:0 19:0 20:0 21:0 22:0 23:0 24:0 25:0 26:0 27:3 28:6 29:5 30:4 31:4 32:4 33:5 34:3 35:4 36:0 37:0 38:0 39:38 
-0.113008670195033 1:0 2:0 3:0 4:0 5:0 6:0 7:8 8:11 9:4 10:4 11:4 12:4 13:4 14:5 15:2 16:0 17:0 18:0 19:0 20:0 21:0 22:0 23:0 24:8 25:7 26:3 27:3 28:3 29:8 30:6 31:2 32:2 33:1 34:1 35:2 36:0 37:0 38:0 39:46 
-0.1585407075420387 1:0 2:0 3:0 4:0 5:0 6:6 7:12 8:4 9:2 10:4 11:4 12:3 13:5 14:1 15:0 16:0 17:0 18:0 19:0 20:0 21:0 22:5 23:8 24:2 25:4 26:2 27:8 28:4 29:2 30:1 31:2 32:2 33:1 34:0 35:0 36:0 37:0 38:0 39:41 
-0.0333406231080149 1:0 2:0 3:0 4:0 5:0 6:7 7:12 8:4 9:4 10:4 11:4 12:3 13:4 14:1 15:0 16:0 17:0 18:0 19:0 20:0 21:0 22:0 23:0 24:5 25:7 26:3 27:3 28:3 29:7 30:7 31:2 32:1 33:2 34:2 35:1 36:0 37:0 38:0 39:43 
-0.06377677274577691 1:0 2:0 3:0 4:1 5:8 6:10 7:4 8:4 9:3 10:3 11:3 12:5 13:0 14:1 15:0 16:0 17:0 18:0 19:0 20:6 21:6 22:3 23:2 24:3 25:8 26:5 27:1 28:3 29:1 30:2 31:2 32:0 33:0 34:0 35:0 36:0 37:0 38:0 39:42 
-0.5 1:0 2:0 3:0 4:0 5:4 6:11 7:3 8:4 9:4 10:3 11:3 12:3 13:1 14:0 15:0 16:0 17:0 18:0 19:0 20:0 21:0 22:0 23:0 24:7 25:6 26:2 27:2 28:2 29:7 30:3 31:1 32:1 33:1 34:2 35:2 36:0 37:0 38:0 39:36 
-0.1178918058963342 1:1 2:0 3:0 4:0 5:0 6:0 7:9 8:12 9:4 10:4 11:2 12:3 13:4 14:5 15:1 16:0 17:0 18:0 19:0 20:0 21:6 22:8 23:4 24:4 25:3 26:6 27:6 28:1 29:2 30:2 31:2 32:1 33:0 34:0 35:0 36:0 37:0 38:0 39:45 
-0.2585611549946836 1:0 2:0 3:0 4:0 5:0 6:6 7:12 8:3 9:4 10:4 11:4 12:3 13:5 14:0 15:0 16:0 17:0 18:0 19:0 20:6 21:8 22:2 23:2 24:2 25:8 26:4 27:2 28:2 29:1 30:2 31:2 32:0 33:0 34:0 35:0 36:0 37:0 38:0 39:41 
-0.1620915292972288 1:0 2:0 3:0 4:0 5:0 6:12 7:12 8:4 9:3 10:4 11:4 12:4 13:4 14:1 15:0 16:0 17:0 18:0 19:0 20:0 21:7 22:6 23:3 24:4 25:3 26:8 27:7 28:2 29:2 30:2 31:2 32:2 33:0 34:0 35:0 36:0 37:0 38:0 39:48 
-0.5 1:0 2:0 3:0 4:0 5:0 6:0 7:4 8:10 9:4 10:4 11:3 12:4 13:3 14:5 15:1 16:0 17:0 18:0 19:0 20:0 21:0 22:5 23:7 24:2 25:3 26:3 27:8 28:5 29:2 30:0 31:2 32:1 33:0 34:0 35:0 36:0 37:0 38:0 39:38 
-0.1351162782827169 1:0 2:0 3:0 4:0 5:9 6:11 7:2 8:3 9:4 10:4 11:4 12:5 13:1 14:0 15:0 16:0 17:0 18:0 19:0 20:0 21:0 22:0 23:0 24:5 25:8 26:3 27:3 28:3 29:7 30:6 31:2 32:1 33:2 34:2 35:1 36:0 37:0 38:0 39:43 
-0.1699535040381793 1:0 2:0 3:0 4:0 5:8 6:12 7:3 8:4 9:4 10:4 11:2 12:4 13:1 14:0 15:0 16:0 17:0 18:0 19:0 20:0 21:0 22:0 23:5 24:6 25:3 26:3 27:3 28:6 29:7 30:1 31:2 32:2 33:2 34:2 35:0 36:0 37:0 38:0 39:42 
-0.1396939727953054 1:0 2:0 3:0 4:0 5:6 6:11 7:4 8:3 9:4 10:3 11:4 12:5 13:1 14:0 15:0 16:0 17:0 18:0 19:0 20:5 21:8 22:3 23:2 24:3 25:7 26:6 27:1 28:1 29:2 30:1 31:2 32:0 33:0 34:0 35:0 36:0 37:0 38:0 39:41 
-0.4586848753156201 1:0 2:0 3:0 4:0 5:0 6:0 7:8 8:11 9:3 10:4 11:4 12:4 13:4 14:4 15:1 16:1 17:0 18:0 19:0 20:0 21:0 22:0 23:0 24:7 25:7 26:1 27:4 28:3 29:8 30:6 31:1 32:2 33:2 34:2 35:1 36:0 37:0 38:0 39:44 
-0.1908560127686468 1:0 2:0 3:0 4:0 5:8 6:12 7:3 8:4 9:3 10:4 11:7 12:3 13:0 14:0 15:0 16:0 17:0 18:0 19:0 20:0 21:0 22:0 23:4 24:7 25:4 26:3 27:4 28:4 29:3 30:6 31:5 32:1 33:2 34:1 35:0 36:0 37:0 38:0 39:44 
-0.2569643845474597 1:0 2:0 3:0 4:0 5:0 6:0 7:7 8:10 9:4 10:4 11:4 12:3 13:4 14:4 15:1 16:0 17:0 18:0 19:0 20:0 21:0 22:6 23:6 24:2 25:3 26:3 27:7 28:7 29:1 30:2 31:0 32:2 33:2 34:0 35:0 36:0 37:0 38:0 39:41 
-0.2169342620938721 1:1 2:0 3:0 4:7 5:12 6:4 7:4 8:3 9:4 10:3 11:4 12:1 13:0 14:0 15:0 16:0 17:0 18:0 19:0 20:0 21:6 22:6 23:3 24:4 25:3 26:7 27:5 28:2 29:1 30:1 31:2 32:2 33:0 34:1 35:0 36:0 37:0 38:0 39:43 
-0.1283947970962451 1:0 2:0 3:0 4:0 5:1 6:9 7:12 8:2 9:3 10:4 11:4 12:6 13:3 14:0 15:0 16:0 17:0 18:0 19:0 20:0 21:0 22:0 23:5 24:7 25:3 26:4 27:2 28:4 29:3 30:6 31:4 32:1 33:2 34:2 35:1 36:0 37:0 38:0 39:44 
-0.5 1:0 2:0 3:0 4:0 5:0 6:7 7:11 8:3 9:4 10:2 11:4 12:4 13:4 14:1 15:0 16:0 17:0 18:0 19:0 20:0 21:0 22:0 23:0 24:5 25:6 26:1 27:3 28:3 29:8 30:5 31:2 32:2 33:2 34:1 35:2 36:0 37:0 38:0 39:40 
-0.1383657076840475 1:0 2:0 3:0 4:8 5:11 6:3 7:4 8:4 9:4 10:3 11:5 12:1 13:0 14:0 15:0 16:0 17:0 18:0 19:0 20:6 21:8 22:2 23:4 24:3 25:7 26:6 27:1 28:2 29:1 30:1 31:2 32:0 33:0 34:0 35:0 36:0 37:0 38:0 39:43 
-0.245818721935314 1:0 2:0 3:0 4:9 5:11 6:4 7:3 8:4 9:4 10:4 11:5 12:1 13:0 14:0 15:0 16:0 17:0 18:0 19:0 20:0 21:0 22:0 23:0 24:6 25:7 26:3 27:4 28:2 29:8 30:7 31:2 32:2 33:2 34:0 35:2 36:0 37:0 38:0 39:45 
-0.04639291273940667 1:0 2:0 3:0 4:0 5:0 6:9 7:11 8:4 9:4 10:4 11:3 12:2 13:3 14:0 15:0 16:0 17:0 18:0 19:0 20:0 21:0 22:0 23:0 24:5 25:7 26:1 27:3 28:2 29:7 30:7 31:1 32:2 33:2 34:1 35:2 36:0 37:0 38:0 39:40 
-0.3300938905337166 1:0 2:0 3:0 4:0 5:0 6:6 7:11 8:4 9:3 10:4 11:4 12:4 13:5 14:0 15:0 16:0 17:0 18:0 19:0 20:0 21:0 22:0 23:7 24:7 25:2 26:2 27:3 28:8 29:6 30:2 31:1 32:2 33:1 34:0 35:0 36:0 37:0 38:0 39:41 
-0.1895317571563166 1:0 2:0 3:0 4:9 5:11 6:3 7:4 8:4 9:3 10:4 11:5 12:1 13:0 14:0 15:0 16:0 17:0 18:0 19:0 20:0 21:0 22:0 23:6 24:7 25:3 26:4 27:3 28:7 29:7 30:2 31:2 32:0 33:1 34:2 35:0 36:0 37:0 38:0 39:44 
