svm_type c_svc
kernel_type rbf
gamma 0.000488281
nr_class 2
total_sv 21
rho -0.789436
label 1 0
probA -2.73817
probB -0.201575
nr_sv 9 12
SV
4.471155499244063 1:0 2:0 3:0 4:0 5:0 6:10 7:12 8:1 9:3 10:3 11:4 12:7 13:2 14:0 15:0 16:0 17:0 18:0 19:0 20:0 21:0 22:0 23:0 24:0 25:0 26:5 27:7 28:3 29:4 30:3 31:3 32:3 33:6 34:2 35:2 36:2 37:2 38:0 39:42 
6.700021279021815 1:0 2:0 3:0 4:8 5:11 6:2 7:4 8:4 9:5 10:6 11:3 12:0 13:0 14:0 15:0 16:0 17:0 18:0 19:0 20:0 21:0 22:0 23:0 24:3 25:7 26:3 27:4 28:5 29:4 30:3 31:5 32:5 33:1 34:1 35:2 36:0 37:0 38:0 39:43 
11.83667015865531 1:0 2:0 3:0 4:0 5:10 6:11 7:2 8:4 9:4 10:4 11:5 12:1 13:0 14:0 15:0 16:0 17:0 18:0 19:0 20:0 21:0 22:0 23:0 24:0 25:0 26:5 27:7 28:3 29:4 30:3 31:1 32:2 33:7 34:4 35:2 36:2 37:1 38:0 39:41 
32 1:0 2:0 3:0 4:0 5:1 6:11 7:12 8:2 9:4 10:4 11:4 12:7 13:2 14:0 15:0 16:0 17:0 18:0 19:0 20:0 21:0 22:0 23:5 24:7 25:3 26:4 27:3 28:4 29:3 30:7 31:6 32:1 33:2 34:2 35:0 36:0 37:0 38:0 39:47 
32 1:0 2:0 3:0 4:0 5:0 6:9 7:10 8:4 9:4 10:3 11:3 12:4 13:5 14:0 15:0 16:0 17:0 18:0 19:0 20:0 21:0 22:0 23:0 24:7 25:7 26:3 27:2 28:2 29:6 30:7 31:1 32:2 33:2 34:2 35:1 36:0 37:0 38:0 39:42 
19.95952275443009 1:0 2:0 3:0 4:0 5:0 6:0 7:8 8:11 9:2 10:3 11:3 12:3 13:6 14:2 15:0 16:0 17:0 18:0 19:0 20:0 21:0 22:0 23:3 24:6 25:2 26:3 27:4 28:4 29:2 30:7 31:3 32:1 33:2 34:1 35:0 36:0 37:0 38:0 39:38 
32 1:0 2:0 3:0 4:1 5:8 6:12 7:2 8:4 9:4 10:4 11:5 12:3 13:0 14:0 15:0 16:0 17:0 18:0 19:0 20:0 21:0 22:0 23:0 24:6 25:6 26:3 27:2 28:3 29:4 30:3 31:6 32:5 33:2 34:2 35:1 36:0 37:0 38:0 39:43 
25.44907656604091 1:0 2:0 3:0 4:9 5:11 6:2 7:4 8:4 9:4 10:6 11:2 12:0 13:0 14:0 15:0 16:0 17:0 18:0 19:0 20:0 21:0 22:0 23:4 24:7 25:3 26:4 27:3 28:3 29:3 30:6 31:5 32:2 33:0 34:2 35:0 36:0 37:0 38:0 39:42 
5.892313872305771 1:0 2:0 3:0 4:0 5:8 6:11 7:1 8:3 9:4 10:3 11:7 12:3 13:0 14:0 15:0 16:0 17:0 18:0 19:0 20:0 21:0 22:0 23:0 24:0 25:5 26:7 27:3 28:3 29:3 30:3 31:3 32:4 33:5 34:1 35:1 36:2 37:0 38:0 39:40 
-1.763312418120571 1:0 2:0 3:0 4:0 5:0 6:0 7:8 8:11 9:4 10:4 11:4 12:4 13:4 14:5 15:2 16:0 17:0 18:0 19:0 20:0 21:0 22:0 23:0 24:8 25:7 26:3 27:3 28:3 29:8 30:6 31:2 32:2 33:1 34:1 35:2 36:0 37:0 38:0 39:46 
-29.40831520915773 1:0 2:0 3:0 4:0 5:0 6:7 7:12 8:4 9:4 10:4 11:4 12:3 13:4 14:1 15:0 16:0 17:0 18:0 19:0 20:0 21:0 22:0 23:0 24:5 25:7 26:3 27:3 28:3 29:7 30:7 31:2 32:1 33:2 34:2 35:1 36:0 37:0 38:0 39:43 
-13.95384102263902 1:0 2:0 3:0 4:0 5:4 6:11 7:3 8:4 9:4 10:3 11:3 12:3 13:1 14:0 15:0 16:0 17:0 18:0 19:0 20:0 21:0 22:0 23:0 24:7 25:6 26:2 27:2 28:2 29:7 30:3 31:1 32:1 33:1 34:2 35:2 36:0 37:0 38:0 39:36 
-4.175024926641249 1:0 2:0 3:0 4:0 5:0 6:0 7:7 8:11 9:4 10:4 11:4 12:4 13:3 14:4 15:1 16:1 17:0 18:0 19:0 20:0 21:0 22:6 23:6 24:2 25:3 26:2 27:7 28:7 29:2 30:2 31:2 32:2 33:2 34:0 35:0 36:0 37:0 38:0 39:43 
-4.23905481310214 1:0 2:0 3:0 4:0 5:0 6:0 7:4 8:10 9:4 10:4 11:3 12:4 13:3 14:5 15:1 16:0 17:0 18:0 19:0 20:0 21:0 22:5 23:7 24:2 25:3 26:3 27:8 28:5 29:2 30:0 31:2 32:1 33:0 34:0 35:0 36:0 37:0 38:0 39:38 
-9.82530855826657 1:0 2:0 3:0 4:0 5:8 6:12 7:3 8:4 9:4 10:4 11:2 12:4 13:1 14:0 15:0 16:0 17:0 18:0 19:0 20:0 21:0 22:0 23:5 24:6 25:3 26:3 27:3 28:6 29:7 30:1 31:2 32:2 33:2 34:2 35:0 36:0 37:0 38:0 39:42 
-2.840357340506207 1:0 2:0 3:0 4:0 5:0 6:0 7:8 8:11 9:3 10:4 11:4 12:4 13:4 14:4 15:1 16:1 17:0 18:0 19:0 20:0 21:0 22:0 23:0 24:7 25:7 26:1 27:4 28:3 29:8 30:6 31:1 32:2 33:2 34:2 35:1 36:0 37:0 38:0 39:44 
-32 1:0 2:0 3:0 4:0 5:8 6:12 7:3 8:4 9:3 10:4 11:7 12:3 13:0 14:0 15:0 16:0 17:0 18:0 19:0 20:0 21:0 22:0 23:4 24:7 25:4 26:3 27:4 28:4 29:3 30:6 31:5 32:1 33:2 34:1 35:0 36:0 37:0 38:0 39:44 
-14.94500043528087 1:1 2:0 3:0 4:7 5:12 6:4 7:4 8:3 9:4 10:3 11:4 12:1 13:0 14:0 15:0 16:0 17:0 18:0 19:0 20:0 21:6 22:6 23:3 24:4 25:3 26:7 27:5 28:2 29:1 30:1 31:2 32:2 33:0 34:1 35:0 36:0 37:0 38:0 39:43 
-32 1:0 2:0 3:0 4:0 5:1 6:9 7:12 8:2 9:3 10:4 11:4 12:6 13:3 14:0 15:0 16:0 17:0 18:0 19:0 20:0 21:0 22:0 23:5 24:7 25:3 26:4 27:2 28:4 29:3 30:6 31:4 32:1 33:2 34:2 35:1 36:0 37:0 38:0 39:44 
-19.50288223046388 1:0 2:0 3:0 4:9 5:11 6:4 7:3 8:4 9:4 10:4 11:5 12:1 13:0 14:0 15:0 16:0 17:0 18:0 19:0 20:0 21:0 22:0 23:0 24:6 25:7 26:3 27:4 28:2 29:8 30:7 31:2 32:2 33:2 34:0 35:2 36:0 37:0 38:0 39:45 
-5.655663175519726 1:0 2:0 3:0 4:0 5:0 6:9 7:11 8:4 9:4 10:4 11:3 12:2 13:3 14:0 15:0 16:0 17:0 18:0 19:0 20:0 21:0 22:0 23:0 24:5 25:7 26:1 27:3 28:2 29:7 30:7 31:1 32:2 33:2 34:1 35:2 36:0 37:0 38:0 39:40 
