svm_type c_svc
kernel_type rbf
gamma 0.0078125
nr_class 2
total_sv 49
rho 0.178144
label 1 0
probA -4.827
probB -0.204066
nr_sv 25 24
SV
0.2365643794274875 1:0 2:0 3:0 4:0 5:0 6:0 7:3 8:7 9:4 10:4 11:2 12:4 13:10 14:0 15:0 16:0 17:0 18:0 19:0 20:0 21:0 22:0 23:1 24:1 25:1 26:3 27:6 28:2 29:3 30:3 31:3 32:3 33:5 34:3 35:0 36:0 37:0 38:0 39:34 
0.5 1:0 2:0 3:0 4:0 5:4 6:7 7:4 8:4 9:2 10:3 11:12 12:2 13:0 14:0 15:0 16:0 17:0 18:0 19:0 20:1 21:1 22:2 23:3 24:6 25:3 26:2 27:3 28:3 29:4 30:6 31:4 32:0 33:0 34:0 35:0 36:0 37:0 38:0 39:38 
0.2949807481819793 1:0 2:0 3:1 4:5 5:7 6:4 7:3 8:2 9:3 10:10 11:0 12:0 13:0 14:0 15:0 16:0 17:0 18:0 19:0 20:1 21:1 22:1 23:2 24:6 25:5 26:3 27:3 28:2 29:2 30:6 31:3 32:0 33:0 34:0 35:0 36:0 37:0 38:0 39:35 
0.1454019098666975 1:0 2:0 3:0 4:0 5:3 6:7 7:3 8:4 9:2 10:2 11:11 12:1 13:0 14:0 15:0 16:0 17:0 18:0 19:0 20:0 21:0 22:0 23:2 24:1 25:1 26:2 27:6 28:3 29:3 30:2 31:2 32:4 33:5 34:2 35:0 36:0 37:0 38:0 39:33 
0.3508243182894708 1:0 2:0 3:0 4:4 5:7 6:4 7:3 8:2 9:2 10:9 11:0 12:0 13:0 14:0 15:0 16:0 17:0 18:0 19:0 20:0 21:0 22:0 23:1 24:1 25:1 26:3 27:6 28:4 29:3 30:2 31:2 32:2 33:5 34:1 35:0 36:0 37:0 38:0 39:31 
0.02716725569840222 1:0 2:0 3:0 4:0 5:0 6:4 7:7 8:4 9:4 10:3 11:4 12:10 13:0 14:0 15:0 16:0 17:0 18:0 19:0 20:0 21:0 22:0 23:1 24:2 25:1 26:3 27:6 28:1 29:3 30:3 31:3 32:4 33:6 34:3 35:0 36:0 37:0 38:0 39:36 
0.2112056017063916 1:0 2:0 3:0 4:0 5:0 6:3 7:7 8:5 9:4 10:2 11:3 12:10 13:1 14:0 15:0 16:0 17:0 18:0 19:0 20:0 21:0 22:1 23:1 24:3 25:6 26:3 27:3 28:4 29:2 30:3 31:6 32:3 33:0 34:0 35:0 36:0 37:0 38:0 39:35 
0.5 1:0 2:0 3:0 4:0 5:0 6:5 7:6 8:4 9:4 10:1 11:4 12:12 13:0 14:0 15:0 16:0 17:0 18:0 19:0 20:0 21:1 22:1 23:1 24:3 25:6 26:4 27:3 28:3 29:3 30:4 31:4 32:3 33:0 34:0 35:0 36:0 37:0 38:0 39:36 
0.3926050178135805 1:0 2:0 3:0 4:4 5:7 6:4 7:4 8:1 9:3 10:12 11:1 12:0 13:0 14:0 15:0 16:0 17:0 18:0 19:0 20:0 21:0 22:0 23:0 24:1 25:1 26:1 27:3 28:5 29:3 30:3 31:3 32:4 33:3 34:6 35:3 36:0 37:0 38:0 39:36 
0.4340684586621444 1:0 2:0 3:0 4:0 5:0 6:0 7:4 8:7 9:4 10:4 11:2 12:3 13:10 14:0 15:0 16:0 17:0 18:0 19:0 20:0 21:0 22:0 23:0 24:1 25:1 26:1 27:3 28:6 29:2 30:2 31:3 32:3 33:4 34:5 35:3 36:0 37:0 38:0 39:34 
0.4483754850856504 1:0 2:0 3:0 4:4 5:7 6:4 7:4 8:2 9:4 10:12 11:0 12:0 13:0 14:0 15:0 16:0 17:0 18:0 19:0 20:1 21:1 22:1 23:3 24:6 25:3 26:3 27:3 28:3 29:4 30:6 31:3 32:0 33:0 34:0 35:0 36:0 37:0 38:0 39:37 
0.02515162317128866 1:0 2:0 3:0 4:0 5:3 6:7 7:4 8:4 9:2 10:3 11:10 12:0 13:0 14:0 15:0 16:0 17:0 18:0 19:0 20:0 21:0 22:0 23:0 24:1 25:2 26:1 27:2 28:4 29:3 30:3 31:3 32:2 33:3 34:6 35:3 36:0 37:0 38:0 39:33 
0.5 1:1 2:0 3:0 4:0 5:1 6:4 7:8 8:4 9:4 10:2 11:4 12:12 13:0 14:0 15:0 16:0 17:0 18:0 19:0 20:0 21:0 22:0 23:1 24:1 25:1 26:4 27:7 28:4 29:2 30:3 31:3 32:4 33:6 34:3 35:1 36:0 37:0 38:0 39:40 
0.4234796364047169 1:0 2:0 3:0 4:0 5:0 6:4 7:7 8:2 9:4 10:2 11:3 12:6 13:0 14:0 15:0 16:0 17:0 18:0 19:0 20:0 21:0 22:0 23:1 24:3 25:4 26:3 27:3 28:2 29:2 30:2 31:5 32:3 33:0 34:0 35:0 36:0 37:0 38:0 39:28 
0.5 1:0 2:0 3:0 4:0 5:5 6:7 7:3 8:4 9:2 10:2 11:11 12:1 13:0 14:0 15:0 16:0 17:0 18:0 19:0 20:1 21:1 22:1 23:3 24:4 25:3 26:3 27:3 28:3 29:3 30:6 31:4 32:0 33:0 34:0 35:0 36:0 37:0 38:0 39:35 
0.5 1:6 2:1 3:0 4:0 5:0 6:0 7:4 8:6 9:3 10:2 11:2 12:4 13:11 14:0 15:0 16:0 17:0 18:0 19:0 20:0 21:0 22:1 23:1 24:2 25:6 26:4 27:4 28:4 29:3 30:3 31:6 32:2 33:0 34:1 35:2 36:0 37:0 38:0 39:39 
0.5 1:0 2:0 3:0 4:0 5:5 6:6 7:4 8:3 9:2 10:4 11:12 12:2 13:0 14:0 15:0 16:0 17:0 18:0 19:0 20:0 21:0 22:0 23:0 24:1 25:1 26:1 27:2 28:6 29:4 30:3 31:2 32:3 33:5 34:7 35:3 36:0 37:0 38:0 39:38 
0.1712038687619121 1:0 2:0 3:0 4:0 5:0 6:4 7:7 8:2 9:4 10:2 11:3 12:9 13:0 14:0 15:0 16:0 17:0 18:0 19:0 20:0 21:0 22:0 23:0 24:0 25:1 26:1 27:2 28:5 29:3 30:3 31:2 32:2 33:3 34:6 35:3 36:0 37:0 38:0 39:31 
0.5 1:0 2:0 3:0 4:3 5:7 6:4 7:4 8:3 9:4 10:12 11:0 12:0 13:0 14:0 15:1 16:0 17:0 18:0 19:0 20:1 21:1 22:1 23:3 24:6 25:4 26:3 27:3 28:2 29:4 30:6 31:4 32:0 33:0 34:0 35:0 36:0 37:0 38:0 39:38 
0.5 1:0 2:0 3:0 4:0 5:5 6:7 7:4 8:4 9:2 10:3 11:12 12:1 13:0 14:0 15:0 16:0 17:0 18:0 19:0 20:0 21:0 22:1 23:1 24:1 25:5 26:5 27:4 28:3 29:3 30:3 31:3 32:6 33:3 34:0 35:0 36:0 37:0 38:0 39:38 
0.3568369773806437 1:0 2:0 3:0 4:0 5:0 6:4 7:7 8:4 9:4 10:2 11:4 12:12 13:0 14:0 15:0 16:0 17:0 18:0 19:0 20:0 21:0 22:0 23:0 24:1 25:1 26:1 27:3 28:6 29:3 30:3 31:3 32:3 33:4 34:6 35:3 36:0 37:0 38:0 39:37 
0.1617084119120513 1:0 2:0 3:0 4:4 5:7 6:5 7:4 8:1 9:3 10:11 11:0 12:0 13:0 14:0 15:0 16:0 17:0 18:0 19:0 20:0 21:0 22:0 23:0 24:1 25:1 26:1 27:3 28:6 29:2 30:2 31:3 32:3 33:4 34:5 35:3 36:1 37:0 38:0 39:35 
0.5 1:0 2:0 3:0 4:0 5:0 6:0 7:5 8:7 9:4 10:4 11:2 12:3 13:12 14:0 15:0 16:0 17:0 18:0 19:0 20:1 21:1 22:1 23:3 24:6 25:3 26:3 27:3 28:3 29:4 30:6 31:3 32:0 33:0 34:0 35:0 36:0 37:0 38:0 39:37 
0.2797323751165051 1:0 2:0 3:0 4:0 5:0 6:0 7:3 8:7 9:4 10:3 11:1 12:3 13:11 14:0 15:0 16:1 17:0 18:1 19:0 20:0 21:0 22:1 23:1 24:2 25:5 26:2 27:3 28:2 29:3 30:4 31:6 32:3 33:0 34:0 35:0 36:0 37:0 38:0 39:33 
0.04142444531002366 1:0 2:0 3:0 4:0 5:0 6:5 7:7 8:4 9:4 10:2 11:4 12:10 13:0 14:0 15:0 16:0 17:0 18:0 19:0 20:0 21:0 22:0 23:0 24:1 25:3 26:6 27:4 28:3 29:3 30:3 31:4 32:6 33:3 34:0 35:0 36:0 37:0 38:0 39:36 
-0.2125445220889973 1:0 2:0 3:0 4:0 5:0 6:0 7:8 8:11 9:4 10:4 11:4 12:4 13:4 14:5 15:2 16:0 17:0 18:0 19:0 20:0 21:0 22:0 23:0 24:8 25:7 26:3 27:3 28:3 29:8 30:6 31:2 32:2 33:1 34:1 35:2 36:0 37:0 38:0 39:46 
-0.2770945145516877 1:0 2:0 3:0 4:0 5:0 6:6 7:12 8:4 9:2 10:4 11:4 12:3 13:5 14:1 15:0 16:0 17:0 18:0 19:0 20:0 21:0 22:5 23:8 24:2 25:4 26:2 27:8 28:4 29:2 30:1 31:2 32:2 33:1 34:0 35:0 36:0 37:0 38:0 39:41 
-0.02649114875755244 1:0 2:0 3:0 4:1 5:8 6:10 7:4 8:4 9:3 10:3 11:3 12:5 13:0 14:1 15:0 16:0 17:0 18:0 19:0 20:6 21:6 22:3 23:2 24:3 25:8 26:5 27:1 28:3 29:1 30:2 31:2 32:0 33:0 34:0 35:0 36:0 37:0 38:0 39:42 
-0.5 1:0 2:0 3:0 4:0 5:4 6:11 7:3 8:4 9:4 10:3 11:3 12:3 13:1 14:0 15:0 16:0 17:0 18:0 19:0 20:0 21:0 22:0 23:0 24:7 25:6 26:2 27:2 28:2 29:7 30:3 31:1 32:1 33:1 34:2 35:2 36:0 37:0 38:0 39:36 
-0.3838381920674575 1:1 2:0 3:0 4:0 5:0 6:0 7:9 8:12 9:4 10:4 11:2 12:3 13:4 14:5 15:1 16:0 17:0 18:0 19:0 20:0 21:6 22:8 23:4 24:4 25:3 26:6 27:6 28:1 29:2 30:2 31:2 32:1 33:0 34:0 35:0 36:0 37:0 38:0 39:45 
-0.5 1:0 2:0 3:0 4:0 5:0 6:6 7:12 8:3 9:4 10:4 11:4 12:3 13:5 14:0 15:0 16:0 17:0 18:0 19:0 20:6 21:8 22:2 23:2 24:2 25:8 26:4 27:2 28:2 29:1 30:2 31:2 32:0 33:0 34:0 35:0 36:0 37:0 38:0 39:41 
-0.3754542853524537 1:0 2:0 3:0 4:0 5:0 6:12 7:12 8:4 9:3 10:4 11:4 12:4 13:4 14:1 15:0 16:0 17:0 18:0 19:0 20:0 21:7 22:6 23:3 24:4 25:3 26:8 27:7 28:2 29:2 30:2 31:2 32:2 33:0 34:0 35:0 36:0 37:0 38:0 39:48 
-0.5 1:0 2:0 3:0 4:0 5:0 6:0 7:4 8:10 9:4 10:4 11:3 12:4 13:3 14:5 15:1 16:0 17:0 18:0 19:0 20:0 21:0 22:5 23:7 24:2 25:3 26:3 27:8 28:5 29:2 30:0 31:2 32:1 33:0 34:0 35:0 36:0 37:0 38:0 39:38 
-0.2478752851269867 1:0 2:0 3:0 4:0 5:9 6:11 7:2 8:3 9:4 10:4 11:4 12:5 13:1 14:0 15:0 16:0 17:0 18:0 19:0 20:0 21:0 22:0 23:0 24:5 25:8 26:3 27:3 28:3 29:7 30:6 31:2 32:1 33:2 34:2 35:1 36:0 37:0 38:0 39:43 
-0.2781954475356505 1:0 2:0 3:0 4:0 5:8 6:12 7:3 8:4 9:4 10:4 11:2 12:4 13:1 14:0 15:0 16:0 17:0 18:0 19:0 20:0 21:0 22:0 23:5 24:6 25:3 26:3 27:3 28:6 29:7 30:1 31:2 32:2 33:2 34:2 35:0 36:0 37:0 38:0 39:42 
-0.4001242186689525 1:0 2:0 3:0 4:0 5:6 6:11 7:4 8:3 9:4 10:3 11:4 12:5 13:1 14:0 15:0 16:0 17:0 18:0 19:0 20:5 21:8 22:3 23:2 24:3 25:7 26:6 27:1 28:1 29:2 30:1 31:2 32:0 33:0 34:0 35:0 36:0 37:0 38:0 39:41 
-0.4595513567299921 1:0 2:0 3:0 4:0 5:0 6:0 7:8 8:11 9:3 10:4 11:4 12:4 13:4 14:4 15:1 16:1 17:0 18:0 19:0 20:0 21:0 22:0 23:0 24:7 25:7 26:1 27:4 28:3 29:8 30:6 31:1 32:2 33:2 34:2 35:1 36:0 37:0 38:0 39:44 
-0.1261059898748437 1:0 2:0 3:0 4:0 5:0 6:9 7:11 8:4 9:4 10:4 11:4 12:4 13:4 14:1 15:0 16:0 17:0 18:0 19:0 20:0 21:0 22:7 23:8 24:3 25:4 26:1 27:8 28:7 29:1 30:2 31:2 32:0 33:2 34:0 35:0 36:0 37:0 38:0 39:45 
-0.5 1:0 2:0 3:0 4:0 5:8 6:12 7:3 8:4 9:3 10:4 11:7 12:3 13:0 14:0 15:0 16:0 17:0 18:0 19:0 20:0 21:0 22:0 23:4 24:7 25:4 26:3 27:4 28:4 29:3 30:6 31:5 32:1 33:2 34:1 35:0 36:0 37:0 38:0 39:44 
-0.3933752056643771 1:0 2:0 3:0 4:0 5:0 6:0 7:7 8:10 9:4 10:4 11:4 12:3 13:4 14:4 15:1 16:0 17:0 18:0 19:0 20:0 21:0 22:6 23:6 24:2 25:3 26:3 27:7 28:7 29:1 30:2 31:0 32:2 33:2 34:0 35:0 36:0 37:0 38:0 39:41 
-0.4758897753017098 1:1 2:0 3:0 4:7 5:12 6:4 7:4 8:3 9:4 10:3 11:4 12:1 13:0 14:0 15:0 16:0 17:0 18:0 19:0 20:0 21:6 22:6 23:3 24:4 25:3 26:7 27:5 28:2 29:1 30:1 31:2 32:2 33:0 34:1 35:0 36:0 37:0 38:0 39:43 
-0.2603381890781058 1:0 2:0 3:0 4:0 5:1 6:9 7:12 8:2 9:3 10:4 11:4 12:6 13:3 14:0 15:0 16:0 17:0 18:0 19:0 20:0 21:0 22:0 23:5 24:7 25:3 26:4 27:2 28:4 29:3 30:6 31:4 32:1 33:2 34:2 35:1 36:0 37:0 38:0 39:44 
-0.5 1:0 2:0 3:0 4:0 5:0 6:7 7:11 8:3 9:4 10:2 11:4 12:4 13:4 14:1 15:0 16:0 17:0 18:0 19:0 20:0 21:0 22:0 23:0 24:5 25:6 26:1 27:3 28:3 29:8 30:5 31:2 32:2 33:2 34:1 35:2 36:0 37:0 38:0 39:40 
-0.4035019216780725 1:0 2:0 3:0 4:8 5:11 6:3 7:4 8:4 9:4 10:3 11:5 12:1 13:0 14:0 15:0 16:0 17:0 18:0 19:0 20:6 21:8 22:2 23:4 24:3 25:7 26:6 27:1 28:2 29:1 30:1 31:2 32:0 33:0 34:0 35:0 36:0 37:0 38:0 39:43 
-0.5 1:0 2:0 3:0 4:9 5:11 6:4 7:3 8:4 9:4 10:4 11:5 12:1 13:0 14:0 15:0 16:0 17:0 18:0 19:0 20:0 21:0 22:0 23:0 24:6 25:7 26:3 27:4 28:2 29:8 30:7 31:2 32:2 33:2 34:0 35:2 36:0 37:0 38:0 39:45 
-0.2030156911682189 1:0 2:0 3:0 4:0 5:0 6:9 7:11 8:4 9:4 10:4 11:3 12:2 13:3 14:0 15:0 16:0 17:0 18:0 19:0 20:0 21:0 22:0 23:0 24:5 25:7 26:1 27:3 28:2 29:7 30:7 31:1 32:2 33:2 34:1 35:2 36:0 37:0 38:0 39:40 
-0.408708504920294 1:0 2:0 3:0 4:0 5:0 6:6 7:11 8:4 9:3 10:4 11:4 12:4 13:5 14:0 15:0 16:0 17:0 18:0 19:0 20:0 21:0 22:0 23:7 24:7 25:2 26:2 27:3 28:8 29:6 30:2 31:1 32:2 33:1 34:0 35:0 36:0 37:0 38:0 39:41 
-0.06862626422359361 1:0 2:0 3:0 4:0 5:9 6:12 7:4 8:4 9:2 10:4 11:4 12:5 13:0 14:0 15:0 16:0 17:0 18:0 19:0 20:6 21:7 22:2 23:2 24:3 25:8 26:6 27:2 28:2 29:2 30:2 31:2 32:0 33:0 34:0 35:0 36:0 37:0 38:0 39:44 
-0.5 1:0 2:0 3:0 4:9 5:11 6:3 7:4 8:4 9:3 10:4 11:5 12:1 13:0 14:0 15:0 16:0 17:0 18:0 19:0 20:0 21:0 22:0 23:6 24:7 25:3 26:4 27:3 28:7 29:7 30:2 31:2 32:0 33:1 34:2 35:0 36:0 37:0 38:0 39:44 
