svm_type c_svc
kernel_type rbf
gamma 0.0078125
nr_class 2
total_sv 53
rho 0.193719
label 1 0
probA -5.19503
probB 0.194632
nr_sv 25 28
SV
0.5 1:0 2:0 3:0 4:0 5:0 6:0 7:4 8:8 9:5 10:5 11:3 12:3 13:8 14:0 15:0 16:0 17:0 18:0 19:0 20:0 21:0 22:0 23:0 24:0 25:0 26:0 27:2 28:5 29:4 30:3 31:3 32:3 33:2 34:5 35:2 36:1 37:6 38:0 39:36 
0.5 1:0 2:0 3:0 4:0 5:6 6:9 7:6 8:6 9:4 10:5 11:11 12:0 13:0 14:0 15:0 16:0 17:0 18:0 19:0 20:0 21:0 22:0 23:0 24:3 25:6 26:4 27:3 28:3 29:3 30:3 31:6 32:3 33:3 34:6 35:4 36:0 37:0 38:0 39:47 
0.5 1:0 2:0 3:0 4:0 5:5 6:9 7:4 8:5 9:3 10:2 11:9 12:0 13:0 14:0 15:0 16:0 17:0 18:0 19:0 20:0 21:0 22:0 23:0 24:0 25:0 26:0 27:2 28:5 29:2 30:3 31:3 32:3 33:3 34:5 35:2 36:3 37:6 38:0 39:37 
0.429623055610282 1:0 2:0 3:0 4:4 5:8 6:5 7:3 8:3 9:5 10:11 11:0 12:0 13:0 14:0 15:0 16:0 17:0 18:0 19:0 20:0 21:0 22:0 23:0 24:0 25:2 26:6 27:4 28:3 29:2 30:3 31:3 32:4 33:3 34:2 35:5 36:2 37:0 38:0 39:39 
0.1927987042444939 1:0 2:0 3:0 4:5 5:7 6:5 7:6 8:4 9:5 10:10 11:0 12:0 13:0 14:0 15:0 16:0 17:0 18:0 19:0 20:0 21:0 22:0 23:3 24:6 25:3 26:2 27:3 28:3 29:3 30:5 31:2 32:2 33:6 34:4 35:0 36:0 37:0 38:0 39:42 
0.2059394083971302 1:0 2:0 3:1 4:6 5:8 6:6 7:5 8:4 9:2 10:11 11:0 12:0 13:0 14:0 15:0 16:0 17:0 18:0 19:0 20:0 21:0 22:0 23:0 24:0 25:0 26:3 27:6 28:3 29:3 30:3 31:4 32:3 33:5 34:3 35:2 36:5 37:3 38:0 39:43 
0.5 1:0 2:0 3:0 4:3 5:9 6:5 7:6 8:4 9:5 10:10 11:0 12:0 13:0 14:0 15:0 16:0 17:0 18:0 19:0 20:0 21:0 22:0 23:3 24:6 25:4 26:2 27:3 28:2 29:3 30:5 31:2 32:3 33:6 34:3 35:0 36:0 37:0 38:0 39:42 
0.2201286963815936 1:0 2:0 3:0 4:0 5:5 6:9 7:5 8:6 9:4 10:2 11:9 12:0 13:0 14:0 15:0 16:0 17:0 18:0 19:0 20:0 21:0 22:0 23:0 24:0 25:3 26:5 27:3 28:3 29:2 30:3 31:3 32:4 33:2 34:3 35:4 36:5 37:0 38:0 39:40 
0.3560493349373314 1:0 2:0 3:0 4:0 5:0 6:2 7:9 8:4 9:6 10:4 11:5 12:7 13:0 14:0 15:0 16:0 17:0 18:0 19:0 20:0 21:0 22:0 23:0 24:0 25:0 26:3 27:5 28:3 29:3 30:1 31:2 32:3 33:5 34:2 35:1 36:6 37:3 38:0 39:37 
0.4467876950152539 1:0 2:0 3:0 4:0 5:0 6:0 7:5 8:8 9:6 10:5 11:3 12:5 13:10 14:0 15:0 16:0 17:0 18:0 19:0 20:0 21:0 22:0 23:1 24:6 25:4 26:3 27:3 28:3 29:2 30:5 31:3 32:3 33:6 34:3 35:0 36:0 37:0 38:0 39:42 
0.3549772177995681 1:0 2:0 3:0 4:0 5:5 6:8 7:6 8:5 9:4 10:4 11:11 12:0 13:0 14:0 15:0 16:0 17:0 18:0 19:0 20:0 21:0 22:0 23:0 24:3 25:6 26:2 27:3 28:3 29:3 30:3 31:4 32:3 33:3 34:6 35:4 36:0 37:0 38:0 39:43 
0.5 1:0 2:0 3:0 4:0 5:6 6:9 7:6 8:6 9:4 10:4 11:10 12:0 13:0 14:0 15:0 16:0 17:0 18:0 19:0 20:0 21:0 22:0 23:2 24:6 25:4 26:3 27:3 28:3 29:3 30:5 31:3 32:3 33:6 34:4 35:0 36:0 37:0 38:0 39:45 
0.5 1:0 2:0 3:0 4:0 5:0 6:0 7:3 8:8 9:5 10:6 11:4 12:5 13:9 14:1 15:0 16:0 17:0 18:0 19:0 20:0 21:0 22:1 23:3 24:6 25:3 26:4 27:3 28:3 29:2 30:5 31:2 32:2 33:4 34:3 35:0 36:0 37:0 38:0 39:41 
0.5 1:0 2:0 3:0 4:0 5:0 6:5 7:8 8:6 9:6 10:4 11:4 12:8 13:0 14:0 15:0 16:0 17:0 18:0 19:0 20:0 21:0 22:0 23:2 24:6 25:3 26:2 27:2 28:2 29:5 30:5 31:2 32:2 33:6 34:4 35:0 36:0 37:0 38:0 39:41 
0.5 1:0 2:0 3:0 4:0 5:0 6:5 7:9 8:5 9:5 10:3 11:5 12:11 13:0 14:0 15:0 16:0 17:0 18:0 19:0 20:0 21:0 22:0 23:3 24:5 25:4 26:3 27:3 28:3 29:4 30:4 31:2 32:2 33:6 34:4 35:0 36:0 37:0 38:0 39:43 
0.3664507641286935 1:2 2:0 3:0 4:0 5:0 6:0 7:5 8:7 9:5 10:6 11:4 12:4 13:11 14:0 15:0 16:0 17:0 18:0 19:0 20:0 21:0 22:1 23:1 24:0 25:0 26:3 27:6 28:2 29:3 30:3 31:2 32:4 33:5 34:3 35:3 36:4 37:4 38:0 39:44 
0.5 1:0 2:0 3:0 4:0 5:0 6:6 7:9 8:6 9:6 10:4 11:5 12:11 13:0 14:0 15:0 16:0 17:0 18:0 19:0 20:0 21:0 22:0 23:1 24:4 25:6 26:4 27:3 28:3 29:3 30:4 31:5 32:2 33:3 34:6 35:3 36:0 37:0 38:0 39:47 
0.1964890594059039 1:0 2:0 3:0 4:6 5:7 6:4 7:5 8:3 9:4 10:11 11:0 12:0 13:0 14:0 15:0 16:0 17:0 18:0 19:0 20:0 21:0 22:0 23:0 24:0 25:0 26:0 27:2 28:5 29:4 30:3 31:3 32:3 33:4 34:4 35:3 36:3 37:6 38:0 39:40 
0.3580247451386314 1:0 2:0 3:0 4:0 5:4 6:8 7:6 8:6 9:4 10:3 11:11 12:0 13:0 14:0 15:0 16:0 17:0 18:0 19:0 20:0 21:0 22:0 23:0 24:0 25:3 26:6 27:2 28:3 29:3 30:3 31:2 32:5 33:3 34:2 35:6 36:4 37:0 38:0 39:42 
0.5 1:0 2:0 3:0 4:6 5:9 6:6 7:5 8:3 9:4 10:11 11:0 12:0 13:0 14:0 15:0 16:0 17:0 18:0 19:0 20:0 21:0 22:0 23:3 24:5 25:4 26:3 27:3 28:3 29:3 30:5 31:3 32:3 33:5 34:4 35:0 36:0 37:0 38:0 39:44 
0.3083445542184663 1:0 2:0 3:0 4:0 5:0 6:5 7:9 8:6 9:6 10:3 11:5 12:9 13:0 14:0 15:0 16:0 17:0 18:0 19:0 20:0 21:0 22:0 23:0 24:0 25:0 26:3 27:6 28:4 29:3 30:3 31:3 32:4 33:4 34:2 35:2 36:5 37:4 38:0 39:43 
0.5 1:0 2:0 3:0 4:6 5:9 6:6 7:6 8:3 9:3 10:4 11:0 12:0 13:0 14:0 15:0 16:0 17:0 18:0 19:0 20:0 21:0 22:0 23:0 24:0 25:0 26:2 27:4 28:4 29:2 30:3 31:2 32:2 33:3 34:2 35:3 36:6 37:4 38:0 39:37 
0.5 1:0 2:0 3:0 4:0 5:0 6:0 7:3 8:9 9:6 10:5 11:4 12:5 13:11 14:0 15:0 16:0 17:0 18:0 19:0 20:0 21:0 22:0 23:0 24:0 25:3 26:6 27:3 28:3 29:3 30:3 31:3 32:5 33:3 34:2 35:6 36:3 37:0 38:0 39:43 
0.4198533618215867 1:0 2:0 3:0 4:0 5:0 6:5 7:7 8:6 9:6 10:3 11:3 12:9 13:0 14:0 15:0 16:0 17:0 18:0 19:0 20:0 21:0 22:0 23:3 24:6 25:3 26:2 27:3 28:3 29:2 30:3 31:2 32:3 33:6 34:3 35:0 36:0 37:0 38:0 39:39 
0.02974237849063154 1:0 2:0 3:0 4:0 5:0 6:0 7:5 8:8 9:5 10:5 11:3 12:4 13:9 14:0 15:0 16:0 17:0 18:0 19:0 20:0 21:0 22:0 23:0 24:0 25:0 26:0 27:3 28:6 29:4 30:3 31:2 32:2 33:4 34:4 35:3 36:2 37:6 38:0 39:39 
-0.4908504516097426 1:0 2:0 3:0 4:0 5:0 6:0 7:8 8:11 9:4 10:4 11:4 12:4 13:4 14:5 15:2 16:0 17:0 18:0 19:0 20:0 21:0 22:0 23:0 24:8 25:7 26:3 27:3 28:3 29:8 30:6 31:2 32:2 33:1 34:1 35:2 36:0 37:0 38:0 39:46 
-0.08051303344185437 1:0 2:0 3:0 4:0 5:0 6:6 7:12 8:4 9:2 10:4 11:4 12:3 13:5 14:1 15:0 16:0 17:0 18:0 19:0 20:0 21:0 22:5 23:8 24:2 25:4 26:2 27:8 28:4 29:2 30:1 31:2 32:2 33:1 34:0 35:0 36:0 37:0 38:0 39:41 
-0.2154943671230663 1:0 2:0 3:0 4:0 5:0 6:7 7:12 8:4 9:4 10:4 11:4 12:3 13:4 14:1 15:0 16:0 17:0 18:0 19:0 20:0 21:0 22:0 23:0 24:5 25:7 26:3 27:3 28:3 29:7 30:7 31:2 32:1 33:2 34:2 35:1 36:0 37:0 38:0 39:43 
-0.07140364242283266 1:0 2:0 3:0 4:0 5:8 6:12 7:4 8:3 9:4 10:4 11:5 12:5 13:0 14:0 15:0 16:0 17:0 18:0 19:0 20:0 21:0 22:0 23:6 24:6 25:4 26:2 27:3 28:8 29:7 30:2 31:2 32:1 33:2 34:2 35:0 36:0 37:0 38:0 39:45 
-0.5 1:0 2:0 3:0 4:0 5:4 6:11 7:3 8:4 9:4 10:3 11:3 12:3 13:1 14:0 15:0 16:0 17:0 18:0 19:0 20:0 21:0 22:0 23:0 24:7 25:6 26:2 27:2 28:2 29:7 30:3 31:1 32:1 33:1 34:2 35:2 36:0 37:0 38:0 39:36 
-0.4010790479596799 1:1 2:0 3:0 4:0 5:0 6:0 7:9 8:12 9:4 10:4 11:2 12:3 13:4 14:5 15:1 16:0 17:0 18:0 19:0 20:0 21:6 22:8 23:4 24:4 25:3 26:6 27:6 28:1 29:2 30:2 31:2 32:1 33:0 34:0 35:0 36:0 37:0 38:0 39:45 
-0.1046115975633349 1:0 2:0 3:0 4:1 5:10 6:11 7:3 8:3 9:4 10:4 11:4 12:5 13:1 14:0 15:0 16:0 17:0 18:0 19:0 20:6 21:8 22:3 23:3 24:3 25:7 26:6 27:2 28:2 29:2 30:2 31:2 32:0 33:0 34:0 35:0 36:0 37:0 38:0 39:46 
-0.4699522913231149 1:0 2:0 3:0 4:0 5:0 6:6 7:12 8:3 9:4 10:4 11:4 12:3 13:5 14:0 15:0 16:0 17:0 18:0 19:0 20:6 21:8 22:2 23:2 24:2 25:8 26:4 27:2 28:2 29:1 30:2 31:2 32:0 33:0 34:0 35:0 36:0 37:0 38:0 39:41 
-0.432919996891109 1:0 2:0 3:0 4:0 5:0 6:12 7:12 8:4 9:3 10:4 11:4 12:4 13:4 14:1 15:0 16:0 17:0 18:0 19:0 20:0 21:7 22:6 23:3 24:4 25:3 26:8 27:7 28:2 29:2 30:2 31:2 32:2 33:0 34:0 35:0 36:0 37:0 38:0 39:48 
-0.1908316536048447 1:0 2:0 3:0 4:0 5:0 6:0 7:7 8:11 9:4 10:4 11:4 12:4 13:3 14:4 15:1 16:1 17:0 18:0 19:0 20:0 21:0 22:6 23:6 24:2 25:3 26:2 27:7 28:7 29:2 30:2 31:2 32:2 33:2 34:0 35:0 36:0 37:0 38:0 39:43 
-0.4665234221238066 1:1 2:1 3:0 4:0 5:8 6:12 7:4 8:4 9:4 10:4 11:4 12:5 13:1 14:0 15:0 16:0 17:0 18:0 19:0 20:0 21:0 22:0 23:0 24:7 25:8 26:3 27:4 28:2 29:7 30:6 31:2 32:3 33:2 34:1 35:2 36:1 37:0 38:0 39:48 
-0.5 1:0 2:0 3:0 4:0 5:0 6:0 7:4 8:10 9:4 10:4 11:3 12:4 13:3 14:5 15:1 16:0 17:0 18:0 19:0 20:0 21:0 22:5 23:7 24:2 25:3 26:3 27:8 28:5 29:2 30:0 31:2 32:1 33:0 34:0 35:0 36:0 37:0 38:0 39:38 
-0.1227245809900993 1:0 2:0 3:0 4:0 5:9 6:11 7:2 8:3 9:4 10:4 11:4 12:5 13:1 14:0 15:0 16:0 17:0 18:0 19:0 20:0 21:0 22:0 23:0 24:5 25:8 26:3 27:3 28:3 29:7 30:6 31:2 32:1 33:2 34:2 35:1 36:0 37:0 38:0 39:43 
-0.4236771217047025 1:0 2:0 3:0 4:0 5:8 6:12 7:3 8:4 9:4 10:4 11:2 12:4 13:1 14:0 15:0 16:0 17:0 18:0 19:0 20:0 21:0 22:0 23:5 24:6 25:3 26:3 27:3 28:6 29:7 30:1 31:2 32:2 33:2 34:2 35:0 36:0 37:0 38:0 39:42 
-0.1718270445325599 1:0 2:0 3:0 4:0 5:6 6:11 7:4 8:3 9:4 10:3 11:4 12:5 13:1 14:0 15:0 16:0 17:0 18:0 19:0 20:5 21:8 22:3 23:2 24:3 25:7 26:6 27:1 28:1 29:2 30:1 31:2 32:0 33:0 34:0 35:0 36:0 37:0 38:0 39:41 
-0.5 1:0 2:0 3:0 4:0 5:0 6:0 7:8 8:11 9:3 10:4 11:4 12:4 13:4 14:4 15:1 16:1 17:0 18:0 19:0 20:0 21:0 22:0 23:0 24:7 25:7 26:1 27:4 28:3 29:8 30:6 31:1 32:2 33:2 34:2 35:1 36:0 37:0 38:0 39:44 
-0.2854152941800295 1:0 2:0 3:0 4:0 5:0 6:9 7:11 8:4 9:4 10:4 11:4 12:4 13:4 14:1 15:0 16:0 17:0 18:0 19:0 20:0 21:0 22:7 23:8 24:3 25:4 26:1 27:8 28:7 29:1 30:2 31:2 32:0 33:2 34:0 35:0 36:0 37:0 38:0 39:45 
-0.5 1:0 2:0 3:0 4:0 5:8 6:12 7:3 8:4 9:3 10:4 11:7 12:3 13:0 14:0 15:0 16:0 17:0 18:0 19:0 20:0 21:0 22:0 23:4 24:7 25:4 26:3 27:4 28:4 29:3 30:6 31:5 32:1 33:2 34:1 35:0 36:0 37:0 38:0 39:44 
-0.3580189177650117 1:0 2:0 3:0 4:0 5:0 6:0 7:7 8:10 9:4 10:4 11:4 12:3 13:4 14:4 15:1 16:0 17:0 18:0 19:0 20:0 21:0 22:6 23:6 24:2 25:3 26:3 27:7 28:7 29:1 30:2 31:0 32:2 33:2 34:0 35:0 36:0 37:0 38:0 39:41 
-0.5 1:1 2:0 3:0 4:7 5:12 6:4 7:4 8:3 9:4 10:3 11:4 12:1 13:0 14:0 15:0 16:0 17:0 18:0 19:0 20:0 21:6 22:6 23:3 24:4 25:3 26:7 27:5 28:2 29:1 30:1 31:2 32:2 33:0 34:1 35:0 36:0 37:0 38:0 39:43 
-0.5 1:0 2:0 3:0 4:0 5:1 6:9 7:12 8:2 9:3 10:4 11:4 12:6 13:3 14:0 15:0 16:0 17:0 18:0 19:0 20:0 21:0 22:0 23:5 24:7 25:3 26:4 27:2 28:4 29:3 30:6 31:4 32:1 33:2 34:2 35:1 36:0 37:0 38:0 39:44 
-0.5 1:0 2:0 3:0 4:0 5:0 6:7 7:11 8:3 9:4 10:2 11:4 12:4 13:4 14:1 15:0 16:0 17:0 18:0 19:0 20:0 21:0 22:0 23:0 24:5 25:6 26:1 27:3 28:3 29:8 30:5 31:2 32:2 33:2 34:1 35:2 36:0 37:0 38:0 39:40 
-0.4092189281398602 1:0 2:0 3:0 4:8 5:11 6:3 7:4 8:4 9:4 10:3 11:5 12:1 13:0 14:0 15:0 16:0 17:0 18:0 19:0 20:6 21:8 22:2 23:4 24:3 25:7 26:6 27:1 28:2 29:1 30:1 31:2 32:0 33:0 34:0 35:0 36:0 37:0 38:0 39:43 
-0.5 1:0 2:0 3:0 4:9 5:11 6:4 7:3 8:4 9:4 10:4 11:5 12:1 13:0 14:0 15:0 16:0 17:0 18:0 19:0 20:0 21:0 22:0 23:0 24:6 25:7 26:3 27:4 28:2 29:8 30:7 31:2 32:2 33:2 34:0 35:2 36:0 37:0 38:0 39:45 
-0.1891240518570029 1:0 2:0 3:0 4:0 5:0 6:9 7:11 8:4 9:4 10:4 11:3 12:2 13:3 14:0 15:0 16:0 17:0 18:0 19:0 20:0 21:0 22:0 23:0 24:5 25:7 26:1 27:3 28:2 29:7 30:7 31:1 32:2 33:2 34:1 35:2 36:0 37:0 38:0 39:40 
-0.3742308792273995 1:0 2:0 3:0 4:0 5:0 6:6 7:11 8:4 9:3 10:4 11:4 12:4 13:5 14:0 15:0 16:0 17:0 18:0 19:0 20:0 21:0 22:0 23:7 24:7 25:2 26:2 27:3 28:8 29:6 30:2 31:1 32:2 33:1 34:0 35:0 36:0 37:0 38:0 39:41 
-0.126792653129515 1:0 2:0 3:0 4:0 5:9 6:12 7:4 8:4 9:2 10:4 11:4 12:5 13:0 14:0 15:0 16:0 17:0 18:0 19:0 20:6 21:7 22:2 23:2 24:3 25:8 26:6 27:2 28:2 29:2 30:2 31:2 32:0 33:0 34:0 35:0 36:0 37:0 38:0 39:44 
-0.5 1:0 2:0 3:0 4:9 5:11 6:3 7:4 8:4 9:3 10:4 11:5 12:1 13:0 14:0 15:0 16:0 17:0 18:0 19:0 20:0 21:0 22:0 23:6 24:7 25:3 26:4 27:3 28:7 29:7 30:2 31:2 32:0 33:1 34:2 35:0 36:0 37:0 38:0 39:44 
