svm_type c_svc
kernel_type rbf
gamma 0.0078125
nr_class 2
total_sv 39
rho -0.0606796
label 1 0
probA -3.77433
probB -0.0450429
nr_sv 22 17
SV
0.4915551386401842 1:0 2:0 3:1 4:6 5:8 6:1 7:1 8:1 9:2 10:7 11:0 12:0 13:0 14:0 15:0 16:0 17:0 18:0 19:0 20:0 21:0 22:1 23:3 24:7 25:3 26:2 27:3 28:2 29:2 30:2 31:2 32:0 33:0 34:0 35:0 36:0 37:0 38:0 39:27 
0.1296967601519537 1:0 2:0 3:0 4:0 5:0 6:6 7:8 8:1 9:1 10:2 11:3 12:7 13:0 14:0 15:0 16:0 17:0 18:0 19:0 20:0 21:0 22:0 23:0 24:0 25:0 26:4 27:7 28:2 29:2 30:3 31:4 32:3 33:3 34:0 35:0 36:0 37:0 38:0 39:28 
0.1420800386060804 1:0 2:0 3:0 4:0 5:6 6:8 7:1 8:1 9:2 10:2 11:5 12:0 13:0 14:0 15:0 16:0 17:0 18:0 19:0 20:0 21:0 22:0 23:0 24:0 25:0 26:0 27:2 28:7 29:3 30:2 31:3 32:3 33:2 34:2 35:1 36:0 37:0 38:0 39:25 
0.5 1:0 2:0 3:0 4:0 5:9 6:8 7:1 8:1 9:3 10:2 11:7 12:0 13:0 14:0 15:0 16:0 17:0 18:0 19:0 20:0 21:0 22:0 23:0 24:0 25:1 26:4 27:6 28:4 29:3 30:3 31:3 32:3 33:2 34:2 35:0 36:0 37:0 38:0 39:31 
0.5 1:3 2:3 3:0 4:0 5:0 6:0 7:5 8:9 9:1 10:1 11:2 12:2 13:7 14:0 15:0 16:0 17:0 18:0 19:0 20:0 21:0 22:0 23:1 24:1 25:1 26:1 27:5 28:6 29:4 30:2 31:3 32:2 33:3 34:2 35:2 36:0 37:0 38:0 39:33 
0.03366227625091241 1:0 2:0 3:0 4:0 5:0 6:6 7:9 8:1 9:1 10:2 11:2 12:5 13:0 14:0 15:0 16:0 17:0 18:0 19:0 20:0 21:0 22:0 23:0 24:4 25:7 26:2 27:3 28:2 29:2 30:2 31:2 32:2 33:0 34:0 35:0 36:0 37:0 38:0 39:26 
0.2133081165697713 1:0 2:0 3:0 4:5 5:7 6:1 7:1 8:2 9:1 10:7 11:0 12:0 13:0 14:0 15:0 16:0 17:0 18:0 19:0 20:0 21:0 22:0 23:0 24:0 25:3 26:6 27:2 28:2 29:3 30:2 31:2 32:3 33:1 34:0 35:0 36:0 37:0 38:0 39:24 
0.03730961675115561 1:0 2:0 3:0 4:0 5:8 6:7 7:1 8:1 9:1 10:2 11:7 12:0 13:0 14:0 15:0 16:0 17:0 18:0 19:0 20:0 21:0 22:0 23:0 24:0 25:0 26:0 27:4 28:5 29:3 30:2 31:3 32:3 33:3 34:2 35:2 36:0 37:0 38:0 39:27 
0.07526682915203273 1:0 2:0 3:0 4:0 5:6 6:9 7:1 8:0 9:2 10:2 11:7 12:0 13:0 14:0 15:0 16:0 17:0 18:0 19:0 20:0 21:0 22:0 23:0 24:3 25:6 26:3 27:3 28:3 29:2 30:3 31:3 32:1 33:0 34:0 35:0 36:0 37:0 38:0 39:27 
0.2231507756957093 1:0 2:0 3:0 4:1 5:0 6:0 7:5 8:8 9:1 10:1 11:2 12:2 13:5 14:0 15:0 16:0 17:0 18:0 19:1 20:0 21:0 22:0 23:0 24:4 25:6 26:2 27:0 28:1 29:3 30:3 31:3 32:2 33:0 34:0 35:0 36:0 37:0 38:0 39:25 
0.1242973955564118 1:0 2:0 3:0 4:0 5:7 6:7 7:1 8:1 9:2 10:2 11:7 12:0 13:0 14:0 15:0 16:0 17:0 18:0 19:0 20:0 21:0 22:0 23:4 24:6 25:3 26:1 27:2 28:3 29:3 30:3 31:2 32:0 33:0 34:0 35:0 36:0 37:0 38:0 39:27 
0.3328952458771474 1:0 2:0 3:0 4:0 5:0 6:6 7:9 8:2 9:1 10:2 11:2 12:7 13:0 14:0 15:0 16:0 17:0 18:0 19:0 20:0 21:0 22:0 23:0 24:0 25:0 26:0 27:3 28:6 29:3 30:3 31:3 32:3 33:3 34:2 35:2 36:1 37:0 38:0 39:29 
0.1417158101800215 1:0 2:0 3:0 4:6 5:8 6:1 7:1 8:2 9:2 10:5 11:0 12:0 13:0 14:0 15:0 16:0 17:0 18:0 19:0 20:0 21:0 22:0 23:0 24:0 25:4 26:6 27:3 28:1 29:2 30:3 31:2 32:2 33:2 34:0 35:0 36:0 37:0 38:0 39:25 
0.1551588879674526 1:0 2:0 3:0 4:0 5:0 6:0 7:5 8:6 9:1 10:1 11:2 12:2 13:7 14:0 15:0 16:0 17:0 18:0 19:0 20:0 21:0 22:0 23:0 24:3 25:7 26:2 27:3 28:3 29:1 30:3 31:2 32:0 33:0 34:0 35:0 36:0 37:0 38:0 39:24 
0.03289718971505191 1:0 2:0 3:0 4:0 5:5 6:8 7:0 8:1 9:1 10:2 11:5 12:1 13:0 14:0 15:0 16:0 17:0 18:0 19:0 20:0 21:0 22:0 23:0 24:0 25:3 26:6 27:2 28:3 29:4 30:2 31:2 32:1 33:0 34:0 35:0 36:0 37:0 38:0 39:23 
0.1742476838486448 1:0 2:0 3:0 4:0 5:4 6:8 7:1 8:1 9:2 10:2 11:5 12:0 13:0 14:0 15:0 16:0 17:0 18:0 19:0 20:0 21:0 22:0 23:3 24:6 25:3 26:2 27:2 28:1 29:2 30:2 31:2 32:0 33:0 34:0 35:0 36:0 37:0 38:0 39:23 
0.5 1:4 2:3 3:0 4:0 5:0 6:6 7:8 8:1 9:1 10:2 11:3 12:7 13:0 14:0 15:0 16:0 17:0 18:0 19:0 20:0 21:0 22:1 23:4 24:6 25:2 26:2 27:4 28:4 29:5 30:3 31:3 32:1 33:0 34:0 35:0 36:0 37:0 38:0 39:35 
0.246068316452094 1:0 2:0 3:0 4:0 5:0 6:0 7:6 8:8 9:1 10:1 11:2 12:2 13:7 14:0 15:0 16:0 17:0 18:0 19:0 20:0 21:0 22:0 23:0 24:0 25:4 26:7 27:3 28:3 29:3 30:2 31:3 32:2 33:0 34:0 35:0 36:0 37:0 38:0 39:27 
0.01477336577953148 1:0 2:0 3:0 4:0 5:5 6:7 7:1 8:1 9:2 10:1 11:5 12:0 13:0 14:0 15:0 16:0 17:0 18:0 19:0 20:0 21:0 22:0 23:0 24:0 25:1 26:4 27:4 28:3 29:1 30:1 31:3 32:1 33:3 34:1 35:0 36:0 37:0 38:0 39:22 
0.1711836111629601 1:0 2:0 3:0 4:0 5:0 6:0 7:6 8:9 9:1 10:1 11:2 12:2 13:6 14:0 15:0 16:0 17:0 18:0 19:0 20:0 21:0 22:0 23:0 24:0 25:0 26:0 27:4 28:6 29:3 30:2 31:2 32:3 33:3 34:2 35:2 36:0 37:0 38:0 39:27 
0.3178393581949673 1:0 2:0 3:0 4:0 5:1 6:6 7:9 8:1 9:1 10:2 11:2 12:7 13:0 14:0 15:0 16:0 17:0 18:0 19:0 20:0 21:0 22:0 23:0 24:0 25:4 26:7 27:2 28:3 29:2 30:3 31:3 32:3 33:2 34:0 35:0 36:0 37:0 38:0 39:29 
0.09581018753031482 1:0 2:0 3:0 4:0 5:0 6:6 7:8 8:2 9:1 10:1 11:2 12:7 13:0 14:0 15:0 16:0 17:0 18:0 19:0 20:0 21:0 22:0 23:4 24:6 25:3 26:3 27:2 28:2 29:3 30:3 31:1 32:0 33:0 34:0 35:0 36:0 37:0 38:0 39:27 
-0.005703009619704422 1:0 2:0 3:0 4:0 5:0 6:0 7:4 8:8 9:6 10:6 11:6 12:7 13:6 14:0 15:0 16:0 17:0 18:0 19:0 20:3 21:5 22:3 23:3 24:2 25:5 26:4 27:2 28:3 29:3 30:6 31:4 32:0 33:0 34:0 35:0 36:0 37:0 38:0 39:43 
-0.004006987772088384 1:0 2:0 3:0 4:0 5:0 6:0 7:4 8:7 9:6 10:7 11:7 12:7 13:7 14:0 15:0 16:0 17:0 18:0 19:0 20:1 21:3 22:5 23:5 24:3 25:2 26:5 27:4 28:2 29:2 30:3 31:6 32:4 33:0 34:0 35:0 36:0 37:0 38:0 39:45 
-0.5 1:0 2:0 3:0 4:0 5:0 6:0 7:0 8:3 9:8 10:6 11:5 12:6 13:7 14:7 15:0 16:0 17:0 18:0 19:0 20:0 21:0 22:0 23:0 24:3 25:5 26:3 27:3 28:2 29:5 30:4 31:2 32:3 33:3 34:5 35:4 36:0 37:0 38:0 39:42 
-0.111992827923535 1:0 2:0 3:0 4:0 5:0 6:3 7:7 8:6 9:6 10:6 11:6 12:7 13:0 14:0 15:0 16:0 17:0 18:0 19:0 20:3 21:4 22:4 23:2 24:2 25:5 26:4 27:2 28:3 29:3 30:6 31:3 32:0 33:0 34:0 35:0 36:0 37:0 38:0 39:41 
-0.5 1:2 2:4 3:4 4:0 5:0 6:0 7:1 8:4 9:6 10:5 11:6 12:6 13:5 14:5 15:1 16:0 17:0 18:0 19:0 20:0 21:0 22:3 23:6 24:3 25:4 26:2 27:6 28:5 29:4 30:3 31:3 32:6 33:3 34:1 35:0 36:0 37:0 38:0 39:49 
-0.06696911588343511 1:0 2:0 3:0 4:0 5:0 6:3 7:7 8:6 9:6 10:6 11:7 12:7 13:0 14:0 15:0 16:0 17:0 18:0 19:0 20:3 21:5 22:4 23:1 24:2 25:5 26:4 27:2 28:3 29:3 30:6 31:4 32:0 33:0 34:0 35:0 36:0 37:0 38:0 39:42 
-0.3445092815271176 1:0 2:0 3:0 4:0 5:0 6:2 7:7 8:6 9:6 10:5 11:7 12:7 13:0 14:0 15:0 16:0 17:0 18:0 19:0 20:0 21:0 22:0 23:3 24:4 25:3 26:3 27:2 28:5 29:4 30:2 31:3 32:2 33:6 34:3 35:0 36:0 37:0 38:0 39:40 
-0.3613099422709249 1:3 2:2 3:0 4:0 5:0 6:0 7:2 8:9 9:5 10:5 11:4 12:6 13:6 14:1 15:0 16:0 17:0 18:0 19:0 20:3 21:5 22:3 23:2 24:3 25:4 26:3 27:2 28:3 29:5 30:4 31:5 32:1 33:0 34:0 35:0 36:0 37:0 38:0 39:43 
-0.006603520405180239 1:0 2:0 3:0 4:0 5:3 6:7 7:5 8:6 9:6 10:6 11:7 12:0 13:0 14:0 15:0 16:0 17:0 18:0 19:0 20:0 21:0 22:0 23:0 24:3 25:5 26:3 27:2 28:2 29:5 30:4 31:1 32:3 33:3 34:5 35:4 36:0 37:0 38:0 39:40 
-0.5 1:0 2:0 3:0 4:0 5:0 6:4 7:8 8:6 9:5 10:4 11:6 12:6 13:0 14:0 15:0 16:0 17:0 18:0 19:0 20:0 21:0 22:0 23:0 24:2 25:5 26:4 27:3 28:2 29:5 30:3 31:1 32:3 33:3 34:5 35:3 36:0 37:0 38:0 39:39 
-0.3081062831518086 1:0 2:0 3:0 4:0 5:0 6:0 7:0 8:4 9:7 10:5 11:6 12:6 13:7 14:6 15:0 16:0 17:0 18:0 19:0 20:0 21:3 22:5 23:3 24:3 25:1 26:5 27:4 28:2 29:3 30:3 31:5 32:4 33:0 34:0 35:0 36:0 37:0 38:0 39:41 
-0.5 1:3 2:4 3:0 4:2 5:3 6:8 7:6 8:5 9:6 10:6 11:7 12:0 13:0 14:0 15:0 16:0 17:0 18:0 19:0 20:3 21:6 22:4 23:2 24:3 25:6 26:5 27:4 28:4 29:5 30:6 31:2 32:0 33:0 34:0 35:0 36:0 37:0 38:0 39:50 
-0.1576456186429105 1:0 2:0 3:0 4:0 5:0 6:0 7:3 8:7 9:5 10:6 11:6 12:6 13:6 14:0 15:0 16:0 17:0 18:0 19:0 20:0 21:3 22:5 23:3 24:3 25:2 26:5 27:3 28:2 29:2 30:3 31:5 32:3 33:0 34:0 35:0 36:0 37:0 38:0 39:39 
-0.5 1:0 2:0 3:0 4:0 5:2 6:7 7:5 8:6 9:5 10:7 11:7 12:0 13:0 14:0 15:0 16:0 17:0 18:0 19:0 20:0 21:2 22:4 23:3 24:3 25:2 26:4 27:4 28:2 29:3 30:2 31:6 32:4 33:0 34:0 35:0 36:0 37:0 38:0 39:39 
-0.157713458873653 1:0 2:0 3:0 4:0 5:0 6:0 7:4 8:8 9:5 10:6 11:7 12:7 13:6 14:0 15:0 16:0 17:0 18:1 19:1 20:0 21:0 22:3 23:4 24:3 25:3 26:1 27:5 28:4 29:2 30:2 31:3 32:6 33:4 34:1 35:0 36:0 37:0 38:0 39:43 
-0.1283565580120395 1:0 2:0 3:0 4:0 5:0 6:3 7:8 8:5 9:6 10:6 11:7 12:7 13:0 14:0 15:0 16:0 17:0 18:0 19:0 20:0 21:3 22:5 23:4 24:3 25:1 26:5 27:4 28:2 29:3 30:2 31:6 32:4 33:0 34:0 35:0 36:0 37:0 38:0 39:42 
-0.5 1:0 2:0 3:0 4:0 5:3 6:8 7:5 8:4 9:6 10:7 11:6 12:0 13:0 14:0 15:0 16:0 17:0 18:0 19:0 20:0 21:0 22:0 23:0 24:2 25:4 26:2 27:3 28:2 29:5 30:3 31:2 32:3 33:3 34:6 35:4 36:0 37:0 38:0 39:39 
