svm_type c_svc
kernel_type rbf
gamma 0.0078125
nr_class 2
total_sv 36
rho -0.288307
label 0 1
probA -4.00953
probB 0.157282
nr_sv 18 18
SV
0.1282992248204192 1:0 2:0 3:0 4:0 5:0 6:0 7:4 8:8 9:6 10:6 11:6 12:7 13:6 14:0 15:0 16:0 17:0 18:0 19:0 20:3 21:5 22:3 23:3 24:2 25:5 26:4 27:2 28:3 29:3 30:6 31:4 32:0 33:0 34:0 35:0 36:0 37:0 38:0 39:43 
0.03478278837985067 1:0 2:0 3:0 4:0 5:0 6:0 7:4 8:7 9:6 10:7 11:7 12:7 13:7 14:0 15:0 16:0 17:0 18:0 19:0 20:1 21:3 22:5 23:5 24:3 25:2 26:5 27:4 28:2 29:2 30:3 31:6 32:4 33:0 34:0 35:0 36:0 37:0 38:0 39:45 
0.5 1:0 2:0 3:0 4:0 5:0 6:0 7:0 8:3 9:8 10:6 11:5 12:6 13:7 14:7 15:0 16:0 17:0 18:0 19:0 20:0 21:0 22:0 23:0 24:3 25:5 26:3 27:3 28:2 29:5 30:4 31:2 32:3 33:3 34:5 35:4 36:0 37:0 38:0 39:42 
0.378665599577474 1:0 2:0 3:0 4:0 5:0 6:3 7:7 8:6 9:6 10:6 11:6 12:7 13:0 14:0 15:0 16:0 17:0 18:0 19:0 20:3 21:4 22:4 23:2 24:2 25:5 26:4 27:2 28:3 29:3 30:6 31:3 32:0 33:0 34:0 35:0 36:0 37:0 38:0 39:41 
0.5 1:2 2:4 3:4 4:0 5:0 6:0 7:1 8:4 9:6 10:5 11:6 12:6 13:5 14:5 15:1 16:0 17:0 18:0 19:0 20:0 21:0 22:3 23:6 24:3 25:4 26:2 27:6 28:5 29:4 30:3 31:3 32:6 33:3 34:1 35:0 36:0 37:0 38:0 39:49 
0.07171943035529636 1:0 2:0 3:0 4:0 5:0 6:3 7:7 8:6 9:6 10:6 11:7 12:7 13:0 14:0 15:0 16:0 17:0 18:0 19:0 20:3 21:5 22:4 23:1 24:2 25:5 26:4 27:2 28:3 29:3 30:6 31:4 32:0 33:0 34:0 35:0 36:0 37:0 38:0 39:42 
0.5 1:3 2:2 3:0 4:0 5:0 6:0 7:2 8:9 9:5 10:5 11:4 12:6 13:6 14:1 15:0 16:0 17:0 18:0 19:0 20:3 21:5 22:3 23:2 24:3 25:4 26:3 27:2 28:3 29:5 30:4 31:5 32:1 33:0 34:0 35:0 36:0 37:0 38:0 39:43 
0.1452776244955059 1:0 2:0 3:0 4:0 5:3 6:7 7:5 8:6 9:6 10:6 11:7 12:0 13:0 14:0 15:0 16:0 17:0 18:0 19:0 20:0 21:0 22:0 23:0 24:3 25:5 26:3 27:2 28:2 29:5 30:4 31:1 32:3 33:3 34:5 35:4 36:0 37:0 38:0 39:40 
0.3563961144767652 1:0 2:0 3:0 4:0 5:0 6:3 7:8 8:6 9:6 10:5 11:7 12:6 13:1 14:0 15:0 16:0 17:0 18:0 19:0 20:0 21:0 22:3 23:5 24:4 25:2 26:2 27:5 28:4 29:2 30:3 31:3 32:5 33:4 34:0 35:0 36:0 37:0 38:0 39:42 
0.4743134021874577 1:0 2:0 3:0 4:0 5:0 6:4 7:8 8:6 9:5 10:4 11:6 12:6 13:0 14:0 15:0 16:0 17:0 18:0 19:0 20:0 21:0 22:0 23:0 24:2 25:5 26:4 27:3 28:2 29:5 30:3 31:1 32:3 33:3 34:5 35:3 36:0 37:0 38:0 39:39 
0.4363242595310652 1:0 2:0 3:0 4:0 5:0 6:0 7:0 8:4 9:7 10:5 11:6 12:6 13:7 14:6 15:0 16:0 17:0 18:0 19:0 20:0 21:3 22:5 23:3 24:3 25:1 26:5 27:4 28:2 29:3 30:3 31:5 32:4 33:0 34:0 35:0 36:0 37:0 38:0 39:41 
0.5 1:3 2:4 3:0 4:2 5:3 6:8 7:6 8:5 9:6 10:6 11:7 12:0 13:0 14:0 15:0 16:0 17:0 18:0 19:0 20:3 21:6 22:4 23:2 24:3 25:6 26:5 27:4 28:4 29:5 30:6 31:2 32:0 33:0 34:0 35:0 36:0 37:0 38:0 39:50 
0.3906320064921015 1:0 2:0 3:0 4:0 5:0 6:4 7:8 8:6 9:6 10:6 11:7 12:5 13:0 14:0 15:0 16:0 17:0 18:0 19:0 20:0 21:0 22:0 23:3 24:5 25:4 26:3 27:2 28:5 29:4 30:1 31:3 32:3 33:5 34:4 35:0 36:0 37:0 38:0 39:42 
0.5 1:0 2:0 3:0 4:0 5:2 6:7 7:5 8:6 9:5 10:7 11:7 12:0 13:0 14:0 15:0 16:0 17:0 18:0 19:0 20:0 21:2 22:4 23:3 24:3 25:2 26:4 27:4 28:2 29:3 30:2 31:6 32:4 33:0 34:0 35:0 36:0 37:0 38:0 39:39 
0.301673352473923 1:0 2:0 3:0 4:0 5:0 6:0 7:4 8:8 9:5 10:6 11:7 12:7 13:6 14:0 15:0 16:0 17:0 18:1 19:1 20:0 21:0 22:3 23:4 24:3 25:3 26:1 27:5 28:4 29:2 30:2 31:3 32:6 33:4 34:1 35:0 36:0 37:0 38:0 39:43 
0.2060752970923604 1:0 2:0 3:0 4:0 5:0 6:3 7:8 8:5 9:6 10:6 11:7 12:7 13:0 14:0 15:0 16:0 17:0 18:0 19:0 20:0 21:3 22:5 23:4 24:3 25:1 26:5 27:4 28:2 29:3 30:2 31:6 32:4 33:0 34:0 35:0 36:0 37:0 38:0 39:42 
0.5 1:0 2:0 3:0 4:0 5:3 6:8 7:5 8:4 9:6 10:7 11:6 12:0 13:0 14:0 15:0 16:0 17:0 18:0 19:0 20:0 21:0 22:0 23:0 24:2 25:4 26:2 27:3 28:2 29:5 30:3 31:2 32:3 33:3 34:6 35:4 36:0 37:0 38:0 39:39 
0.2109180585437267 1:0 2:0 3:0 4:0 5:0 6:0 7:0 8:4 9:7 10:6 11:6 12:6 13:6 14:7 15:0 16:0 17:0 18:0 19:0 20:0 21:3 22:5 23:4 24:3 25:2 26:4 27:4 28:2 29:2 30:3 31:5 32:4 33:1 34:0 35:0 36:0 37:0 38:0 39:42 
-0.5 1:0 2:0 3:0 4:4 5:7 6:5 7:3 8:4 9:4 10:3 11:5 12:5 13:4 14:4 15:4 16:4 17:0 18:0 19:0 20:0 21:0 22:0 23:3 24:4 25:6 26:6 27:6 28:4 29:4 30:5 31:5 32:5 33:4 34:4 35:0 36:0 37:0 38:0 39:56 
-0.5 1:0 2:0 3:0 4:0 5:0 6:4 7:5 8:5 9:4 10:4 11:5 12:3 13:5 14:3 15:3 16:4 17:0 18:0 19:0 20:0 21:0 22:0 23:0 24:3 25:4 26:4 27:4 28:3 29:4 30:3 31:4 32:5 33:4 34:4 35:3 36:0 37:0 38:0 39:45 
-0.3216967208139688 1:0 2:0 3:0 4:0 5:5 6:5 7:4 8:3 9:4 10:5 11:3 12:5 13:2 14:3 15:4 16:3 17:0 18:0 19:0 20:0 21:0 22:0 23:3 24:4 25:4 26:4 27:4 28:4 29:2 30:4 31:6 32:5 33:3 34:3 35:0 36:0 37:0 38:0 39:46 
-0.5 1:0 2:0 3:0 4:4 5:5 6:5 7:3 8:4 9:4 10:3 11:5 12:4 13:4 14:4 15:7 16:6 17:0 18:0 19:0 20:0 21:0 22:4 23:4 24:5 25:5 26:6 27:4 28:4 29:5 30:5 31:5 32:5 33:5 34:1 35:0 36:0 37:0 38:0 39:58 
-0.5 1:0 2:0 3:0 4:0 5:0 6:0 7:5 8:4 9:5 10:4 11:4 12:5 13:3 14:5 15:3 16:3 17:0 18:0 19:0 20:0 21:0 22:3 23:4 24:4 25:3 26:5 27:4 28:2 29:4 30:4 31:3 32:3 33:2 34:0 35:0 36:0 37:0 38:0 39:41 
-0.02485931504635268 1:0 2:0 3:0 4:4 5:5 6:5 7:4 8:4 9:3 10:2 11:5 12:4 13:3 14:4 15:6 16:5 17:0 18:0 19:0 20:0 21:0 22:4 23:3 24:5 25:3 26:6 27:5 28:4 29:5 30:7 31:5 32:4 33:3 34:0 35:0 36:0 37:0 38:0 39:54 
-0.1534220327743744 1:0 2:0 3:0 4:0 5:0 6:5 7:5 8:4 9:4 10:4 11:4 12:2 13:5 14:3 15:4 16:4 17:0 18:0 19:0 20:0 21:3 22:3 23:3 24:4 25:5 26:4 27:2 28:4 29:5 30:4 31:3 32:4 33:0 34:0 35:0 36:0 37:0 38:0 39:44 
-0.5 1:0 2:0 3:0 4:0 5:0 6:5 7:6 8:4 9:4 10:4 11:3 12:3 13:4 14:2 15:4 16:4 17:0 18:0 19:0 20:0 21:0 22:0 23:1 24:3 25:3 26:4 27:3 28:2 29:3 30:3 31:5 32:6 33:2 34:4 35:4 36:0 37:0 38:0 39:43 
-0.5 1:0 2:0 3:0 4:0 5:5 6:6 7:5 8:4 9:4 10:5 11:3 12:5 13:3 14:4 15:4 16:6 17:0 18:0 19:0 20:4 21:3 22:4 23:4 24:7 25:5 26:4 27:4 28:6 29:5 30:4 31:4 32:0 33:0 34:0 35:0 36:0 37:0 38:0 39:54 
-0.1400854426423807 1:0 2:0 3:0 4:0 5:0 6:3 7:6 8:5 9:3 10:4 11:4 12:3 13:4 14:5 15:3 16:4 17:0 18:0 19:0 20:0 21:0 22:0 23:1 24:3 25:2 26:4 27:3 28:4 29:4 30:3 31:4 32:6 33:3 34:4 35:3 36:0 37:0 38:0 39:44 
-0.5 1:0 2:0 3:0 4:0 5:4 6:6 7:5 8:3 9:4 10:4 11:2 12:3 13:0 14:2 15:4 16:4 17:0 18:0 19:0 20:0 21:3 22:4 23:3 24:2 25:4 26:3 27:2 28:3 29:5 30:4 31:5 32:3 33:0 34:0 35:0 36:0 37:0 38:0 39:41 
-0.5 1:0 2:0 3:0 4:0 5:0 6:5 7:6 8:5 9:4 10:3 11:4 12:3 13:4 14:3 15:3 16:4 17:0 18:0 19:0 20:3 21:3 22:4 23:4 24:3 25:4 26:2 27:4 28:6 29:4 30:4 31:3 32:0 33:0 34:0 35:0 36:0 37:0 38:0 39:44 
-0.5 1:0 2:0 3:0 4:0 5:0 6:5 7:6 8:5 9:4 10:3 11:5 12:3 13:3 14:2 15:3 16:3 17:0 18:0 19:0 20:2 21:4 22:4 23:4 24:4 25:4 26:1 27:3 28:5 29:4 30:4 31:3 32:0 33:0 34:0 35:0 36:0 37:0 38:0 39:42 
-0.2160433998711394 1:0 2:0 3:0 4:0 5:4 6:7 7:5 8:4 9:4 10:5 11:2 12:3 13:4 14:4 15:3 16:6 17:0 18:0 19:0 20:2 21:4 22:5 23:2 24:5 25:5 26:4 27:5 28:7 29:5 30:4 31:3 32:0 33:0 34:0 35:0 36:0 37:0 38:0 39:51 
-0.5 1:0 2:0 3:0 4:0 5:0 6:0 7:4 8:6 9:3 10:4 11:4 12:5 13:3 14:3 15:4 16:5 17:0 18:0 19:0 20:0 21:0 22:0 23:0 24:2 25:4 26:4 27:4 28:3 29:4 30:3 31:5 32:4 33:3 34:2 35:3 36:0 37:0 38:0 39:41 
-0.005521286795349586 1:0 2:0 3:0 4:0 5:0 6:5 7:7 8:5 9:4 10:4 11:5 12:3 13:4 14:4 15:4 16:4 17:0 18:0 19:0 20:0 21:0 22:0 23:0 24:3 25:4 26:5 27:3 28:5 29:4 30:3 31:4 32:6 33:4 34:4 35:4 36:0 37:0 38:0 39:49 
-0.04414446332170377 1:0 2:0 3:0 4:0 5:0 6:5 7:6 8:4 9:4 10:3 11:5 12:3 13:5 14:3 15:4 16:4 17:0 18:0 19:0 20:0 21:3 22:4 23:4 24:4 25:5 26:2 27:3 28:4 29:5 30:4 31:4 32:4 33:0 34:0 35:0 36:0 37:0 38:0 39:46 
-0.2293044971606765 1:0 2:0 3:0 4:0 5:2 6:6 7:5 8:4 9:4 10:5 11:3 12:3 13:1 14:4 15:3 16:7 17:0 18:0 19:0 20:0 21:0 22:0 23:0 24:1 25:4 26:4 27:3 28:3 29:4 30:3 31:5 32:7 33:5 34:5 35:3 36:0 37:0 38:0 39:47 
