svm_type c_svc
kernel_type rbf
gamma 0.0078125
nr_class 2
total_sv 22
rho -0.500285
label 0 1
probA -3.54972
probB -0.0303542
nr_sv 12 10
SV
0.3376660097031056 1:0 2:0 3:0 4:0 5:0 6:0 7:0 8:3 9:8 10:6 11:5 12:6 13:7 14:7 15:0 16:0 17:0 18:0 19:0 20:0 21:0 22:0 23:0 24:3 25:5 26:3 27:3 28:2 29:5 30:4 31:2 32:3 33:3 34:5 35:4 36:0 37:0 38:0 39:42 
0.2166517286834809 1:0 2:0 3:0 4:0 5:0 6:3 7:7 8:6 9:6 10:6 11:6 12:7 13:0 14:0 15:0 16:0 17:0 18:0 19:0 20:3 21:4 22:4 23:2 24:2 25:5 26:4 27:2 28:3 29:3 30:6 31:3 32:0 33:0 34:0 35:0 36:0 37:0 38:0 39:41 
0.2331948207458487 1:2 2:4 3:4 4:0 5:0 6:0 7:1 8:4 9:6 10:5 11:6 12:6 13:5 14:5 15:1 16:0 17:0 18:0 19:0 20:0 21:0 22:3 23:6 24:3 25:4 26:2 27:6 28:5 29:4 30:3 31:3 32:6 33:3 34:1 35:0 36:0 37:0 38:0 39:49 
0.4122506551379885 1:0 2:0 3:0 4:0 5:0 6:2 7:7 8:6 9:6 10:5 11:7 12:7 13:0 14:0 15:0 16:0 17:0 18:0 19:0 20:0 21:0 22:0 23:3 24:4 25:3 26:3 27:2 28:5 29:4 30:2 31:3 32:2 33:6 34:3 35:0 36:0 37:0 38:0 39:40 
0.06203574912803934 1:3 2:2 3:0 4:0 5:0 6:0 7:2 8:9 9:5 10:5 11:4 12:6 13:6 14:1 15:0 16:0 17:0 18:0 19:0 20:3 21:5 22:3 23:2 24:3 25:4 26:3 27:2 28:3 29:5 30:4 31:5 32:1 33:0 34:0 35:0 36:0 37:0 38:0 39:43 
0.02496545649446352 1:0 2:0 3:0 4:0 5:3 6:7 7:5 8:6 9:6 10:6 11:7 12:0 13:0 14:0 15:0 16:0 17:0 18:0 19:0 20:0 21:0 22:0 23:0 24:3 25:5 26:3 27:2 28:2 29:5 30:4 31:1 32:3 33:3 34:5 35:4 36:0 37:0 38:0 39:40 
0.5 1:0 2:0 3:0 4:0 5:0 6:4 7:8 8:6 9:5 10:4 11:6 12:6 13:0 14:0 15:0 16:0 17:0 18:0 19:0 20:0 21:0 22:0 23:0 24:2 25:5 26:4 27:3 28:2 29:5 30:3 31:1 32:3 33:3 34:5 35:3 36:0 37:0 38:0 39:39 
0.2316978692786811 1:0 2:0 3:0 4:0 5:0 6:0 7:0 8:4 9:7 10:5 11:6 12:6 13:7 14:6 15:0 16:0 17:0 18:0 19:0 20:0 21:3 22:5 23:3 24:3 25:1 26:5 27:4 28:2 29:3 30:3 31:5 32:4 33:0 34:0 35:0 36:0 37:0 38:0 39:41 
0.3093663234379573 1:3 2:4 3:0 4:2 5:3 6:8 7:6 8:5 9:6 10:6 11:7 12:0 13:0 14:0 15:0 16:0 17:0 18:0 19:0 20:3 21:6 22:4 23:2 24:3 25:6 26:5 27:4 28:4 29:5 30:6 31:2 32:0 33:0 34:0 35:0 36:0 37:0 38:0 39:50 
0.5 1:0 2:0 3:0 4:0 5:0 6:0 7:3 8:7 9:5 10:6 11:6 12:6 13:6 14:0 15:0 16:0 17:0 18:0 19:0 20:0 21:3 22:5 23:3 24:3 25:2 26:5 27:3 28:2 29:2 30:3 31:5 32:3 33:0 34:0 35:0 36:0 37:0 38:0 39:39 
0.5 1:0 2:0 3:0 4:0 5:2 6:7 7:5 8:6 9:5 10:7 11:7 12:0 13:0 14:0 15:0 16:0 17:0 18:0 19:0 20:0 21:2 22:4 23:3 24:3 25:2 26:4 27:4 28:2 29:3 30:2 31:6 32:4 33:0 34:0 35:0 36:0 37:0 38:0 39:39 
0.5 1:0 2:0 3:0 4:0 5:3 6:8 7:5 8:4 9:6 10:7 11:6 12:0 13:0 14:0 15:0 16:0 17:0 18:0 19:0 20:0 21:0 22:0 23:0 24:2 25:4 26:2 27:3 28:2 29:5 30:3 31:2 32:3 33:3 34:6 35:4 36:0 37:0 38:0 39:39 
-0.342292230565586 1:0 2:0 3:0 4:2 5:6 6:3 7:4 8:2 9:4 10:4 11:1 12:2 13:0 14:0 15:0 16:0 17:0 18:0 19:1 20:2 21:3 22:2 23:1 24:1 25:2 26:2 27:3 28:3 29:4 30:2 31:2 32:0 33:0 34:0 35:0 36:0 37:0 38:0 39:28 
-0.3355920509108288 1:0 2:0 3:0 4:0 5:3 6:5 7:4 8:4 9:3 10:4 11:4 12:4 13:2 14:0 15:0 16:0 17:0 18:0 19:0 20:0 21:0 22:0 23:2 24:3 25:3 26:2 27:3 28:4 29:2 30:3 31:3 32:3 33:3 34:2 35:0 36:0 37:0 38:0 39:33 
-0.4542164926030167 1:0 2:0 3:0 4:0 5:3 6:5 7:4 8:5 9:3 10:4 11:3 12:4 13:2 14:0 15:0 16:0 17:0 18:0 19:0 20:2 21:4 22:3 23:2 24:3 25:2 26:2 27:3 28:3 29:2 30:3 31:2 32:0 33:2 34:0 35:0 36:0 37:0 38:0 39:33 
-0.5 1:0 2:0 3:0 4:0 5:0 6:0 7:2 8:4 9:4 10:4 11:3 12:3 13:4 14:4 15:2 16:0 17:0 18:0 19:0 20:0 21:0 22:0 23:0 24:1 25:4 26:3 27:2 28:2 29:3 30:3 31:3 32:2 33:3 34:2 35:2 36:0 37:0 38:0 39:30 
-0.1468358527302939 1:0 2:0 3:0 4:0 5:0 6:3 7:3 8:2 9:4 10:3 11:4 12:3 13:4 14:3 15:0 16:0 17:0 18:0 19:0 20:2 21:4 22:3 23:2 24:3 25:2 26:0 27:2 28:3 29:3 30:3 31:2 32:0 33:0 34:0 35:0 36:0 37:0 38:0 39:29 
-0.5 1:0 2:0 3:0 4:0 5:0 6:0 7:3 8:5 9:4 10:3 11:3 12:3 13:4 14:4 15:2 16:0 17:0 18:0 19:0 20:0 21:0 22:2 23:4 24:3 25:2 26:3 27:3 28:2 29:3 30:1 31:3 32:3 33:2 34:0 35:0 36:0 37:0 38:0 39:31 
-0.1597829201998998 1:0 2:0 3:0 4:0 5:0 6:3 7:5 8:4 9:3 10:3 11:4 12:4 13:3 14:2 15:0 16:0 17:0 18:0 19:0 20:2 21:4 22:3 23:1 24:3 25:3 26:2 27:2 28:4 29:2 30:3 31:2 32:0 33:0 34:0 35:0 36:0 37:0 38:0 39:31 
-0.3891090655999399 1:0 2:0 3:0 4:2 5:4 6:4 7:4 8:2 9:5 10:4 11:5 12:2 13:1 14:0 15:0 16:0 17:0 18:0 19:0 20:0 21:1 22:1 23:4 24:3 25:2 26:4 27:2 28:2 29:4 30:3 31:2 32:3 33:2 34:0 35:0 36:0 37:0 38:0 39:33 
-0.5 1:0 2:0 3:0 4:3 5:4 6:6 7:4 8:3 9:5 10:4 11:4 12:2 13:0 14:0 15:0 16:0 17:0 18:0 19:0 20:0 21:0 22:3 23:4 24:2 25:2 26:4 27:3 28:3 29:3 30:3 31:3 32:3 33:2 34:0 35:0 36:0 37:0 38:0 39:35 
-0.5 1:0 2:0 3:0 4:0 5:2 6:5 7:4 8:4 9:3 10:3 11:4 12:4 13:2 14:0 15:1 16:1 17:0 18:0 19:0 20:2 21:0 22:0 23:0 24:1 25:4 26:3 27:2 28:3 29:3 30:2 31:2 32:3 33:3 34:3 35:2 36:0 37:0 38:0 39:33 
