svm_type c_svc
kernel_type rbf
gamma 0.00012207
nr_class 2
total_sv 39
rho 1.62648
label 1 0
probA -3.94477
probB -0.279321
nr_sv 18 21
SV
8 1:0 2:0 3:0 4:0 5:0 6:0 7:3 8:6 9:4 10:6 11:6 12:3 13:1 14:0 15:0 16:0 17:0 18:0 19:0 20:0 21:0 22:0 23:0 24:0 25:0 26:3 27:5 28:2 29:3 30:5 31:1 32:4 33:4 34:2 35:0 36:0 37:0 38:0 39:29 
3.423788811320627 1:0 2:0 3:0 4:0 5:0 6:0 7:4 8:6 9:6 10:6 11:5 12:6 13:2 14:0 15:0 16:0 17:0 18:0 19:0 20:0 21:0 22:0 23:0 24:0 25:0 26:0 27:4 28:5 29:3 30:4 31:5 32:3 33:4 34:4 35:3 36:0 37:0 38:0 39:35 
8 1:0 2:0 3:0 4:0 5:2 6:6 7:6 8:6 9:6 10:6 11:2 12:0 13:0 14:0 15:0 16:0 17:0 18:0 19:0 20:0 21:0 22:0 23:4 24:5 25:3 26:2 27:5 28:3 29:4 30:5 31:3 32:0 33:0 34:0 35:0 36:0 37:0 38:0 39:34 
8 1:0 2:0 3:0 4:0 5:0 6:4 7:6 8:4 9:6 10:6 11:6 12:2 13:0 14:0 15:0 16:0 17:0 18:0 19:0 20:0 21:0 22:0 23:4 24:6 25:3 26:3 27:4 28:3 29:3 30:5 31:3 32:0 33:0 34:0 35:0 36:0 37:0 38:0 39:34 
8 1:0 2:0 3:0 4:0 5:0 6:4 7:7 8:5 9:6 10:6 11:6 12:2 13:0 14:0 15:0 16:0 17:0 18:0 19:0 20:0 21:0 22:0 23:0 24:4 25:6 26:3 27:4 28:5 29:3 30:4 31:4 32:3 33:0 34:0 35:0 36:0 37:0 38:0 39:36 
8 1:0 2:0 3:0 4:0 5:0 6:0 7:4 8:5 9:4 10:6 11:6 12:6 13:3 14:0 15:0 16:0 17:0 18:0 19:0 20:0 21:0 22:0 23:0 24:0 25:0 26:0 27:3 28:5 29:3 30:3 31:5 32:3 33:4 34:5 35:3 36:0 37:0 38:0 39:34 
8 1:0 2:0 3:0 4:0 5:0 6:0 7:4 8:5 9:6 10:6 11:7 12:5 13:1 14:0 15:0 16:0 17:0 18:0 19:0 20:0 21:0 22:0 23:0 24:0 25:0 26:3 27:6 28:3 29:3 30:4 31:2 32:4 33:5 34:3 35:1 36:0 37:0 38:0 39:34 
8 1:0 2:0 3:0 4:0 5:2 6:6 7:6 8:6 9:6 10:5 11:2 12:0 13:0 14:0 15:0 16:0 17:0 18:0 19:0 20:0 21:0 22:0 23:4 24:6 25:2 26:3 27:5 28:3 29:3 30:4 31:3 32:0 33:0 34:0 35:0 36:0 37:0 38:0 39:33 
7.250888340205877 1:0 2:0 3:0 4:0 5:0 6:2 7:6 8:6 9:6 10:6 11:6 12:2 13:0 14:0 15:0 16:0 17:0 18:0 19:0 20:0 21:0 22:0 23:0 24:0 25:4 26:6 27:2 28:3 29:5 30:3 31:3 32:5 33:3 34:0 35:0 36:0 37:0 38:0 39:34 
8 1:0 2:0 3:0 4:0 5:0 6:3 7:6 8:6 9:6 10:6 11:6 12:2 13:0 14:0 15:0 16:0 17:0 18:0 19:0 20:0 21:0 22:0 23:4 24:6 25:3 26:2 27:5 28:3 29:4 30:5 31:3 32:0 33:0 34:0 35:0 36:0 37:0 38:0 39:35 
4.17315508247427 1:0 2:0 3:0 4:3 5:7 6:6 7:6 8:6 9:6 10:2 11:0 12:0 13:0 14:0 15:0 16:0 17:0 18:0 19:0 20:0 21:0 22:0 23:0 24:4 25:6 26:3 27:3 28:5 29:3 30:4 31:5 32:3 33:0 34:0 35:0 36:0 37:0 38:0 39:36 
8 1:0 2:0 3:0 4:0 5:0 6:0 7:2 8:7 9:5 10:6 11:5 12:6 13:2 14:0 15:0 16:0 17:0 18:0 19:0 20:0 21:0 22:0 23:0 24:0 25:0 26:4 27:6 28:2 29:3 30:5 31:2 32:4 33:5 34:2 35:0 36:0 37:0 38:0 39:33 
8 1:0 2:0 3:0 4:0 5:0 6:0 7:3 8:6 9:6 10:5 11:5 12:5 13:1 14:0 15:0 16:0 17:0 18:0 19:0 20:0 21:0 22:0 23:0 24:0 25:0 26:0 27:3 28:5 29:3 30:4 31:2 32:2 33:4 34:5 35:3 36:0 37:0 38:0 39:31 
8 1:0 2:0 3:0 4:1 5:1 6:2 7:7 8:4 9:6 10:5 11:7 12:2 13:0 14:0 15:0 16:0 17:0 18:0 19:1 20:0 21:0 22:0 23:0 24:6 25:6 26:3 27:3 28:3 29:3 30:3 31:4 32:3 33:0 34:0 35:0 36:0 37:0 38:0 39:35 
8 1:0 2:0 3:0 4:0 5:0 6:2 7:7 8:6 9:5 10:6 11:6 12:1 13:0 14:0 15:0 16:0 17:0 18:0 19:0 20:0 21:0 22:0 23:0 24:4 25:5 26:3 27:3 28:5 29:2 30:4 31:5 32:2 33:0 34:0 35:0 36:0 37:0 38:0 39:33 
8 1:0 2:0 3:0 4:0 5:0 6:5 7:6 8:6 9:5 10:5 11:5 12:1 13:0 14:0 15:0 16:0 17:0 18:0 19:0 20:0 21:0 22:0 23:0 24:3 25:6 26:3 27:4 28:4 29:3 30:2 31:5 32:3 33:0 34:0 35:0 36:0 37:0 38:0 39:33 
8 1:0 2:0 3:0 4:0 5:0 6:0 7:3 8:7 9:5 10:6 11:6 12:6 13:2 14:0 15:0 16:0 17:0 18:0 19:0 20:0 21:0 22:0 23:0 24:3 25:6 26:3 27:3 28:5 29:3 30:4 31:5 32:3 33:0 34:0 35:0 36:0 37:0 38:0 39:35 
2.987274249036857 1:3 2:0 3:0 4:0 5:3 6:8 7:6 8:6 9:6 10:5 11:2 12:0 13:0 14:0 15:0 16:0 17:0 18:0 19:0 20:0 21:1 22:0 23:1 24:4 25:6 26:3 27:4 28:5 29:3 30:5 31:4 32:3 33:0 34:0 35:0 36:0 37:0 38:0 39:39 
-8 1:0 2:0 3:0 4:1 5:1 6:0 7:2 8:1 9:1 10:11 11:8 12:2 13:2 14:2 15:0 16:0 17:0 18:0 19:0 20:0 21:0 22:6 23:7 24:2 25:2 26:2 27:1 28:0 29:2 30:1 31:2 32:2 33:2 34:0 35:0 36:0 37:2 38:0 39:31 
-7.153462334985841 1:0 2:0 3:0 4:0 5:0 6:0 7:0 8:2 9:2 10:1 11:12 12:10 13:2 14:2 15:2 16:0 17:0 18:0 19:0 20:0 21:0 22:0 23:0 24:7 25:8 26:1 27:2 28:2 29:1 30:2 31:2 32:2 33:2 34:2 35:2 36:0 37:0 38:0 39:33 
-1.087681544821451 1:0 2:0 3:0 4:0 5:0 6:2 7:2 8:2 9:11 10:9 11:2 12:2 13:1 14:1 15:0 16:0 17:0 18:0 19:0 20:0 21:0 22:0 23:1 24:8 25:6 26:2 27:2 28:2 29:1 30:1 31:2 32:2 33:2 34:1 35:2 36:0 37:0 38:0 39:32 
-8 1:0 2:0 3:0 4:0 5:2 6:2 7:2 8:12 9:10 10:2 11:2 12:2 13:0 14:0 15:0 16:0 17:0 18:0 19:0 20:0 21:0 22:0 23:8 24:8 25:2 26:1 27:2 28:1 29:2 30:2 31:2 32:2 33:2 34:2 35:0 36:0 37:0 38:0 39:34 
-5.942269223869502 1:0 2:0 3:0 4:0 5:2 6:2 7:2 8:12 9:11 10:2 11:2 12:2 13:0 14:0 15:0 16:0 17:0 18:0 19:0 20:0 21:0 22:0 23:8 24:8 25:2 26:2 27:2 28:2 29:2 30:2 31:2 32:1 33:2 34:2 35:0 36:0 37:0 38:0 39:35 
-3.629724800522799 1:0 2:0 3:0 4:0 5:0 6:1 7:2 8:2 9:2 10:11 11:11 12:2 13:2 14:2 15:0 16:0 17:0 18:0 19:1 20:8 21:7 22:2 23:2 24:2 25:2 26:2 27:2 28:2 29:2 30:2 31:1 32:0 33:0 34:0 35:0 36:0 37:0 38:0 39:35 
-5.92656013728082 1:0 2:0 3:0 4:0 5:0 6:2 7:2 8:2 9:12 10:11 11:2 12:0 13:1 14:0 15:0 16:0 17:0 18:0 19:0 20:0 21:0 22:7 23:6 24:2 25:2 26:2 27:2 28:2 29:2 30:2 31:2 32:1 33:2 34:0 35:0 36:0 37:0 38:0 39:32 
-0.3159072479982935 1:0 2:0 3:0 4:0 5:0 6:0 7:0 8:2 9:3 10:11 11:10 12:1 13:1 14:2 15:1 16:0 17:0 18:0 19:0 20:0 21:6 22:6 23:2 24:1 25:2 26:2 27:3 28:2 29:2 30:1 31:2 32:2 33:0 34:0 35:0 36:0 37:0 38:0 39:31 
-8 1:0 2:0 3:0 4:0 5:0 6:0 7:2 8:1 9:2 10:11 11:12 12:2 13:2 14:2 15:0 16:0 17:0 18:0 19:0 20:0 21:0 22:0 23:0 24:8 25:7 26:2 27:2 28:2 29:2 30:2 31:1 32:2 33:2 34:2 35:2 36:0 37:0 38:0 39:34 
-8 1:0 2:0 3:0 4:0 5:2 6:2 7:2 8:9 9:10 10:2 11:1 12:2 13:0 14:0 15:0 16:0 17:0 18:0 19:0 20:6 21:8 22:2 23:2 24:1 25:2 26:1 27:2 28:2 29:2 30:1 31:1 32:0 33:0 34:0 35:0 36:0 37:0 38:0 39:30 
-8 1:0 2:0 3:0 4:0 5:2 6:2 7:2 8:12 9:10 10:2 11:2 12:2 13:0 14:0 15:0 16:0 17:0 18:0 19:0 20:0 21:0 22:8 23:8 24:2 25:1 26:2 27:2 28:2 29:2 30:2 31:2 32:2 33:1 34:0 35:0 36:0 37:0 38:0 39:34 
-8 1:0 2:0 3:1 4:1 5:0 6:2 7:2 8:2 9:10 10:9 11:1 12:2 13:2 14:0 15:0 16:0 17:0 18:0 19:0 20:7 21:7 22:1 23:2 24:1 25:2 26:2 27:2 28:3 29:2 30:2 31:1 32:0 33:0 34:0 35:0 36:0 37:0 38:0 39:32 
-0.03081654708162217 1:5 2:3 3:0 4:0 5:0 6:2 7:2 8:3 9:11 10:11 11:2 12:2 13:2 14:0 15:0 16:0 17:0 18:0 19:0 20:0 21:8 22:7 23:3 24:2 25:3 26:3 27:4 28:3 29:3 30:2 31:3 32:2 33:0 34:0 35:0 36:0 37:0 38:0 39:43 
-8 1:4 2:1 3:0 4:0 5:2 6:2 7:2 8:11 9:11 10:3 11:2 12:2 13:0 14:0 15:0 16:0 17:0 18:0 19:0 20:0 21:8 22:8 23:2 24:1 25:3 26:4 27:3 28:4 29:2 30:2 31:2 32:1 33:0 34:0 35:0 36:0 37:0 38:0 39:40 
-8 1:0 2:0 3:0 4:0 5:0 6:0 7:2 8:2 9:3 10:10 11:13 12:2 13:2 14:2 15:0 16:0 17:0 18:0 19:0 20:0 21:0 22:0 23:1 24:7 25:8 26:3 27:2 28:2 29:2 30:2 31:2 32:1 33:2 34:2 35:2 36:0 37:0 38:0 39:36 
-8 1:0 2:0 3:0 4:0 5:0 6:0 7:2 8:2 9:2 10:12 11:10 12:3 13:2 14:2 15:0 16:0 17:0 18:0 19:0 20:0 21:0 22:0 23:0 24:8 25:8 26:3 27:1 28:2 29:2 30:2 31:1 32:2 33:2 34:2 35:2 36:0 37:0 38:0 39:35 
-4.371485715312425 1:0 2:0 3:0 4:0 5:0 6:2 7:2 8:2 9:11 10:11 11:2 12:1 13:2 14:0 15:0 16:0 17:0 18:0 19:0 20:0 21:0 22:0 23:7 24:7 25:2 26:2 27:2 28:2 29:2 30:1 31:2 32:2 33:2 34:2 35:0 36:0 37:0 38:0 39:33 
-5.377198931164883 1:0 2:0 3:0 4:0 5:0 6:0 7:2 8:2 9:3 10:10 11:9 12:2 13:2 14:2 15:0 16:0 17:0 18:0 19:0 20:0 21:0 22:0 23:0 24:7 25:8 26:2 27:1 28:2 29:0 30:2 31:1 32:2 33:2 34:2 35:3 36:0 37:0 38:0 39:32 
-8 1:0 2:0 3:0 4:0 5:2 6:1 7:2 8:11 9:12 10:2 11:2 12:2 13:0 14:0 15:0 16:0 17:0 18:0 19:0 20:0 21:0 22:0 23:0 24:7 25:8 26:1 27:2 28:2 29:2 30:2 31:2 32:2 33:2 34:2 35:2 36:0 37:0 38:0 39:34 
-8 1:0 2:0 3:0 4:0 5:2 6:2 7:2 8:12 9:12 10:2 11:2 12:2 13:0 14:0 15:0 16:0 17:0 18:0 19:0 20:0 21:0 22:0 23:0 24:8 25:8 26:2 27:2 28:2 29:2 30:2 31:2 32:2 33:2 34:2 35:2 36:0 37:0 38:0 39:36 
-8 1:0 2:0 3:0 4:0 5:0 6:0 7:0 8:2 9:2 10:2 11:12 12:11 13:1 14:1 15:2 16:0 17:0 18:0 19:0 20:0 21:0 22:0 23:0 24:7 25:7 26:2 27:2 28:2 29:2 30:2 31:1 32:2 33:2 34:2 35:2 36:0 37:0 38:0 39:33 
