svm_type c_svc
kernel_type rbf
gamma 0.0078125
nr_class 2
total_sv 33
rho 0.388772
label 1 0
probA -3.95364
probB -0.296235
nr_sv 15 18
SV
0.3987151042265523 1:0 2:0 3:0 4:0 5:0 6:1 7:4 8:7 9:6 10:6 11:6 12:6 13:1 14:0 15:0 16:0 17:0 18:0 19:0 20:0 21:0 22:0 23:0 24:0 25:0 26:4 27:6 28:3 29:4 30:6 31:2 32:4 33:5 34:3 35:0 36:0 37:0 38:0 39:37 
0.3869388345049163 1:0 2:0 3:0 4:0 5:0 6:0 7:3 8:6 9:4 10:6 11:6 12:3 13:1 14:0 15:0 16:0 17:0 18:0 19:0 20:0 21:0 22:0 23:0 24:0 25:0 26:3 27:5 28:2 29:3 30:5 31:1 32:4 33:4 34:2 35:0 36:0 37:0 38:0 39:29 
0.2575318894616078 1:0 2:0 3:0 4:0 5:0 6:4 7:6 8:4 9:6 10:6 11:6 12:2 13:0 14:0 15:0 16:0 17:0 18:0 19:0 20:0 21:0 22:0 23:4 24:6 25:3 26:3 27:4 28:3 29:3 30:5 31:3 32:0 33:0 34:0 35:0 36:0 37:0 38:0 39:34 
0.0693504246327013 1:1 2:0 3:0 4:0 5:3 6:7 7:6 8:6 9:5 10:4 11:1 12:0 13:0 14:0 15:0 16:0 17:0 18:0 19:0 20:0 21:0 22:0 23:0 24:0 25:0 26:4 27:5 28:2 29:4 30:4 31:3 32:2 33:5 34:4 35:0 36:0 37:0 38:0 39:33 
0.3240016487427775 1:0 2:0 3:0 4:0 5:4 6:7 7:5 8:5 9:6 10:6 11:2 12:0 13:0 14:0 15:0 16:0 17:0 18:0 19:0 20:0 21:0 22:0 23:0 24:0 25:0 26:0 27:4 28:6 29:3 30:3 31:4 32:3 33:4 34:5 35:3 36:0 37:0 38:0 39:35 
0.1146042312050107 1:0 2:0 3:0 4:0 5:3 6:7 7:6 8:6 9:5 10:6 11:2 12:0 13:0 14:0 15:0 16:0 17:0 18:0 19:0 20:0 21:0 22:0 23:0 24:0 25:0 26:4 27:6 28:2 29:5 30:4 31:2 32:4 33:5 34:3 35:0 36:0 37:0 38:0 39:35 
0.5 1:0 2:0 3:0 4:0 5:0 6:0 7:4 8:5 9:4 10:6 11:6 12:6 13:3 14:0 15:0 16:0 17:0 18:0 19:0 20:0 21:0 22:0 23:0 24:0 25:0 26:0 27:3 28:5 29:3 30:3 31:5 32:3 33:4 34:5 35:3 36:0 37:0 38:0 39:34 
0.1587324638707906 1:0 2:0 3:0 4:0 5:2 6:6 7:6 8:6 9:6 10:5 11:2 12:0 13:0 14:0 15:0 16:0 17:0 18:0 19:0 20:0 21:0 22:0 23:4 24:6 25:2 26:3 27:5 28:3 29:3 30:4 31:3 32:0 33:0 34:0 35:0 36:0 37:0 38:0 39:33 
0.2396130623368239 1:0 2:0 3:0 4:0 5:3 6:6 7:6 8:5 9:4 10:4 11:2 12:0 13:0 14:0 15:0 16:0 17:0 18:0 19:0 20:0 21:0 22:0 23:0 24:0 25:0 26:3 27:4 28:2 29:3 30:4 31:3 32:4 33:5 34:2 35:0 36:0 37:0 38:0 39:30 
0.2485585738304441 1:0 2:0 3:0 4:3 5:7 6:6 7:6 8:6 9:6 10:2 11:0 12:0 13:0 14:0 15:0 16:0 17:0 18:0 19:0 20:0 21:0 22:0 23:0 24:4 25:6 26:3 27:3 28:5 29:3 30:4 31:5 32:3 33:0 34:0 35:0 36:0 37:0 38:0 39:36 
0.5 1:0 2:0 3:0 4:4 5:7 6:6 7:6 8:6 9:6 10:2 11:0 12:0 13:0 14:0 15:0 16:0 17:0 18:0 19:0 20:0 21:0 22:0 23:0 24:4 25:6 26:3 27:4 28:5 29:3 30:4 31:5 32:3 33:0 34:0 35:0 36:0 37:0 38:0 39:37 
0.5 1:9 2:1 3:0 4:0 5:0 6:3 7:6 8:6 9:6 10:5 11:6 12:1 13:0 14:0 15:0 16:0 17:0 18:0 19:0 20:0 21:0 22:0 23:0 24:0 25:1 26:1 27:4 28:8 29:2 30:5 31:6 32:3 33:4 34:6 35:3 36:0 37:0 38:0 39:43 
0.1797559627651663 1:0 2:0 3:0 4:1 5:1 6:2 7:7 8:4 9:6 10:5 11:7 12:2 13:0 14:0 15:0 16:0 17:0 18:0 19:1 20:0 21:0 22:0 23:0 24:6 25:6 26:3 27:3 28:3 29:3 30:3 31:4 32:3 33:0 34:0 35:0 36:0 37:0 38:0 39:35 
0.4346562213292116 1:0 2:0 3:0 4:0 5:0 6:0 7:3 8:7 9:5 10:6 11:6 12:6 13:2 14:0 15:0 16:0 17:0 18:0 19:0 20:0 21:0 22:0 23:0 24:3 25:6 26:3 27:3 28:5 29:3 30:4 31:5 32:3 33:0 34:0 35:0 36:0 37:0 38:0 39:35 
0.4610460500866301 1:3 2:0 3:0 4:0 5:3 6:8 7:6 8:6 9:6 10:5 11:2 12:0 13:0 14:0 15:0 16:0 17:0 18:0 19:0 20:0 21:1 22:0 23:1 24:4 25:6 26:3 27:4 28:5 29:3 30:5 31:4 32:3 33:0 34:0 35:0 36:0 37:0 38:0 39:39 
-0.3897698537089407 1:0 2:0 3:0 4:0 5:0 6:6 7:11 8:2 9:2 10:2 11:1 12:2 13:8 14:8 15:0 16:0 17:0 18:0 19:0 20:0 21:0 22:0 23:0 24:3 25:4 26:3 27:4 28:4 29:2 30:3 31:2 32:2 33:4 34:7 35:4 36:0 37:0 38:0 39:42 
-0.06911976118782152 1:0 2:0 3:0 4:0 5:0 6:6 7:11 8:3 9:2 10:2 11:2 12:3 13:8 14:10 15:0 16:0 17:0 18:0 19:0 20:0 21:0 22:3 23:3 24:4 25:4 26:3 27:5 28:4 29:4 30:2 31:4 32:6 33:5 34:0 35:0 36:0 37:0 38:0 39:47 
-0.5 1:0 2:0 3:0 4:6 5:11 6:3 7:2 8:2 9:2 10:1 11:5 12:9 13:0 14:0 15:0 16:0 17:0 18:0 19:0 20:0 21:0 22:0 23:3 24:2 25:4 26:4 27:3 28:4 29:3 30:3 31:3 32:2 33:6 34:4 35:0 36:0 37:0 38:0 39:41 
-0.3164655823545636 1:0 2:0 3:0 4:0 5:5 6:9 7:2 8:1 9:2 10:2 11:1 12:9 13:10 14:0 15:0 16:0 17:0 18:0 19:0 20:3 21:3 22:4 23:3 24:4 25:2 26:3 27:4 28:2 29:4 30:7 31:2 32:0 33:0 34:0 35:0 36:0 37:0 38:0 39:41 
-0.1309590819702565 1:0 2:0 3:0 4:0 5:0 6:0 7:7 8:10 9:3 10:2 11:2 12:1 13:2 14:8 15:9 16:0 17:0 18:0 19:0 20:4 21:3 22:3 23:4 24:4 25:4 26:4 27:2 28:2 29:4 30:6 31:4 32:0 33:0 34:0 35:0 36:0 37:0 38:0 39:44 
-0.4775375623673986 1:0 2:0 3:0 4:0 5:0 6:5 7:9 8:2 9:1 10:2 11:2 12:2 13:7 14:9 15:0 16:0 17:0 18:0 19:0 20:0 21:2 22:3 23:2 24:3 25:4 26:4 27:2 28:3 29:3 30:4 31:5 32:4 33:0 34:0 35:0 36:0 37:0 38:0 39:39 
-0.3118330512650636 1:0 2:0 3:0 4:0 5:0 6:0 7:5 8:10 9:3 10:2 11:2 12:2 13:2 14:11 15:10 16:0 17:0 18:0 19:0 20:0 21:0 22:0 23:0 24:3 25:4 26:4 27:4 28:3 29:3 30:4 31:4 32:2 33:3 34:7 35:6 36:0 37:0 38:0 39:47 
-0.2639616501602826 1:0 2:0 3:0 4:0 5:0 6:0 7:7 8:11 9:2 10:2 11:2 12:2 13:2 14:8 15:8 16:0 17:0 18:0 19:0 20:4 21:2 22:3 23:4 24:3 25:4 26:3 27:4 28:3 29:3 30:7 31:4 32:0 33:0 34:0 35:0 36:0 37:0 38:0 39:44 
-0.3918528630221377 1:0 2:0 3:0 4:0 5:0 6:0 7:3 8:9 9:3 10:2 11:2 12:1 13:2 14:9 15:10 16:0 17:0 18:0 19:0 20:0 21:0 22:3 23:2 24:4 25:3 26:2 27:4 28:3 29:3 30:3 31:3 32:7 33:4 34:0 35:0 36:0 37:0 38:0 39:41 
-0.1317085579106527 1:0 2:0 3:0 4:5 5:11 6:4 7:2 8:2 9:2 10:2 11:9 12:10 13:0 14:0 15:0 16:0 17:0 18:0 19:0 20:0 21:0 22:0 23:4 24:4 25:4 26:3 27:3 28:2 29:4 30:4 31:3 32:4 33:7 34:5 35:0 36:0 37:0 38:0 39:47 
-0.2097290166832856 1:0 2:0 3:0 4:0 5:0 6:0 7:5 8:10 9:3 10:2 11:2 12:3 13:2 14:8 15:9 16:0 17:0 18:0 19:0 20:0 21:0 22:0 23:3 24:2 25:3 26:3 27:3 28:3 29:4 30:3 31:3 32:5 33:7 34:5 35:0 36:0 37:0 38:0 39:44 
-0.01443746223000658 1:0 2:0 3:0 4:0 5:0 6:5 7:10 8:3 9:2 10:2 11:1 12:3 13:8 14:8 15:0 16:0 17:0 18:0 19:0 20:2 21:4 22:4 23:5 24:1 25:4 26:3 27:4 28:1 29:3 30:6 31:5 32:0 33:0 34:0 35:0 36:0 37:0 38:0 39:42 
-0.3386219680156913 1:0 2:0 3:0 4:4 5:11 6:2 7:2 8:2 9:2 10:1 11:10 12:10 13:0 14:0 15:0 16:0 17:0 18:0 19:0 20:0 21:0 22:0 23:0 24:3 25:3 26:4 27:3 28:4 29:3 30:3 31:3 32:3 33:4 34:7 35:4 36:0 37:0 38:0 39:44 
-0.4197809055312248 1:0 2:0 3:0 4:0 5:5 6:11 7:3 8:1 9:2 10:2 11:2 12:7 13:8 14:0 15:0 16:0 17:0 18:0 19:0 20:0 21:2 22:3 23:4 24:4 25:4 26:2 27:3 28:4 29:3 30:2 31:6 32:4 33:0 34:0 35:0 36:0 37:0 38:0 39:41 
-0.1591629670247336 1:0 2:0 3:0 4:0 5:6 6:9 7:3 8:2 9:2 10:2 11:2 12:9 13:10 14:0 15:0 16:0 17:0 18:0 19:0 20:0 21:0 22:4 23:2 24:4 25:3 26:4 27:4 28:2 29:3 30:2 31:4 32:8 33:5 34:0 35:0 36:0 37:0 38:0 39:45 
-0.2878506746955737 1:0 2:0 3:0 4:0 5:6 6:11 7:3 8:2 9:2 10:1 11:2 12:9 13:10 14:0 15:0 16:0 17:0 18:0 19:0 20:0 21:0 22:0 23:0 24:4 25:3 26:4 27:3 28:3 29:4 30:4 31:2 32:3 33:5 34:7 35:4 36:0 37:0 38:0 39:46 
-0.09253181670946758 1:0 2:0 3:0 4:0 5:0 6:8 7:10 8:3 9:2 10:2 11:2 12:2 13:8 14:10 15:0 16:0 17:0 18:0 19:0 20:0 21:0 22:1 23:4 24:4 25:3 26:4 27:3 28:3 29:3 30:4 31:2 32:4 33:7 34:5 35:0 36:0 37:0 38:0 39:47 
-0.2681816921555319 1:0 2:0 3:0 4:0 5:0 6:8 7:11 8:4 9:2 10:2 11:2 12:1 13:10 14:8 15:0 16:0 17:0 18:0 19:0 20:3 21:4 22:4 23:4 24:4 25:3 26:4 27:4 28:3 29:4 30:7 31:4 32:0 33:0 34:0 35:0 36:0 37:0 38:0 39:48 
