svm_type c_svc
kernel_type rbf
gamma 0.0078125
nr_class 2
total_sv 52
rho -0.232408
label 1 0
probA -4.93734
probB 0.626773
nr_sv 28 24
SV
0.125 1:0 2:0 3:1 4:6 5:8 6:1 7:1 8:1 9:2 10:7 11:0 12:0 13:0 14:0 15:0 16:0 17:0 18:0 19:0 20:0 21:0 22:1 23:3 24:7 25:3 26:2 27:3 28:2 29:2 30:2 31:2 32:0 33:0 34:0 35:0 36:0 37:0 38:0 39:27 
0.125 1:0 2:0 3:0 4:0 5:0 6:6 7:8 8:1 9:1 10:2 11:3 12:7 13:0 14:0 15:0 16:0 17:0 18:0 19:0 20:0 21:0 22:0 23:0 24:0 25:0 26:4 27:7 28:2 29:2 30:3 31:4 32:3 33:3 34:0 35:0 36:0 37:0 38:0 39:28 
0.125 1:0 2:0 3:0 4:0 5:6 6:8 7:1 8:1 9:2 10:2 11:5 12:0 13:0 14:0 15:0 16:0 17:0 18:0 19:0 20:0 21:0 22:0 23:0 24:0 25:0 26:0 27:2 28:7 29:3 30:2 31:3 32:3 33:2 34:2 35:1 36:0 37:0 38:0 39:25 
0.0211888026318813 1:0 2:0 3:0 4:0 5:0 6:4 7:9 8:1 9:1 10:2 11:3 12:6 13:0 14:0 15:0 16:0 17:0 18:0 19:0 20:0 21:0 22:0 23:0 24:0 25:3 26:7 27:2 28:2 29:3 30:3 31:2 32:3 33:1 34:0 35:0 36:0 37:0 38:0 39:26 
0.05149353983886616 1:0 2:0 3:0 4:0 5:0 6:0 7:7 8:8 9:1 10:1 11:2 12:2 13:5 14:0 15:0 16:0 17:0 18:0 19:0 20:0 21:0 22:0 23:0 24:0 25:3 26:6 27:3 28:2 29:3 30:3 31:2 32:2 33:2 34:0 35:0 36:0 37:0 38:0 39:26 
0.125 1:0 2:0 3:0 4:0 5:9 6:8 7:1 8:1 9:3 10:2 11:7 12:0 13:0 14:0 15:0 16:0 17:0 18:0 19:0 20:0 21:0 22:0 23:0 24:0 25:1 26:4 27:6 28:4 29:3 30:3 31:3 32:3 33:2 34:2 35:0 36:0 37:0 38:0 39:31 
0.125 1:3 2:3 3:0 4:0 5:0 6:0 7:5 8:9 9:1 10:1 11:2 12:2 13:7 14:0 15:0 16:0 17:0 18:0 19:0 20:0 21:0 22:0 23:1 24:1 25:1 26:1 27:5 28:6 29:4 30:2 31:3 32:2 33:3 34:2 35:2 36:0 37:0 38:0 39:33 
0.08085352700179885 1:0 2:0 3:0 4:0 5:0 6:6 7:9 8:1 9:1 10:2 11:2 12:5 13:0 14:0 15:0 16:0 17:0 18:0 19:0 20:0 21:0 22:0 23:0 24:4 25:7 26:2 27:3 28:2 29:2 30:2 31:2 32:2 33:0 34:0 35:0 36:0 37:0 38:0 39:26 
0.125 1:0 2:0 3:0 4:5 5:7 6:1 7:1 8:2 9:1 10:7 11:0 12:0 13:0 14:0 15:0 16:0 17:0 18:0 19:0 20:0 21:0 22:0 23:0 24:0 25:3 26:6 27:2 28:2 29:3 30:2 31:2 32:3 33:1 34:0 35:0 36:0 37:0 38:0 39:24 
0.125 1:0 2:0 3:0 4:0 5:8 6:7 7:1 8:1 9:1 10:2 11:7 12:0 13:0 14:0 15:0 16:0 17:0 18:0 19:0 20:0 21:0 22:0 23:0 24:0 25:0 26:0 27:4 28:5 29:3 30:2 31:3 32:3 33:3 34:2 35:2 36:0 37:0 38:0 39:27 
0.1126797780903899 1:0 2:0 3:0 4:0 5:6 6:9 7:1 8:0 9:2 10:2 11:7 12:0 13:0 14:0 15:0 16:0 17:0 18:0 19:0 20:0 21:0 22:0 23:0 24:3 25:6 26:3 27:3 28:3 29:2 30:3 31:3 32:1 33:0 34:0 35:0 36:0 37:0 38:0 39:27 
0.125 1:0 2:0 3:0 4:1 5:0 6:0 7:5 8:8 9:1 10:1 11:2 12:2 13:5 14:0 15:0 16:0 17:0 18:0 19:1 20:0 21:0 22:0 23:0 24:4 25:6 26:2 27:0 28:1 29:3 30:3 31:3 32:2 33:0 34:0 35:0 36:0 37:0 38:0 39:25 
0.125 1:0 2:0 3:0 4:0 5:7 6:7 7:1 8:1 9:2 10:2 11:7 12:0 13:0 14:0 15:0 16:0 17:0 18:0 19:0 20:0 21:0 22:0 23:4 24:6 25:3 26:1 27:2 28:3 29:3 30:3 31:2 32:0 33:0 34:0 35:0 36:0 37:0 38:0 39:27 
0.125 1:0 2:0 3:0 4:0 5:0 6:6 7:9 8:2 9:1 10:2 11:2 12:7 13:0 14:0 15:0 16:0 17:0 18:0 19:0 20:0 21:0 22:0 23:0 24:0 25:0 26:0 27:3 28:6 29:3 30:3 31:3 32:3 33:3 34:2 35:2 36:1 37:0 38:0 39:29 
0.125 1:0 2:0 3:0 4:6 5:8 6:1 7:1 8:2 9:2 10:5 11:0 12:0 13:0 14:0 15:0 16:0 17:0 18:0 19:0 20:0 21:0 22:0 23:0 24:0 25:4 26:6 27:3 28:1 29:2 30:3 31:2 32:2 33:2 34:0 35:0 36:0 37:0 38:0 39:25 
0.007207249834528797 1:0 2:0 3:0 4:0 5:7 6:8 7:1 8:1 9:2 10:2 11:6 12:0 13:0 14:0 15:0 16:0 17:0 18:0 19:0 20:0 21:0 22:0 23:0 24:0 25:0 26:0 27:3 28:5 29:3 30:3 31:3 32:3 33:2 34:3 35:2 36:0 37:0 38:0 39:27 
0.04052475571095189 1:0 2:0 3:0 4:0 5:0 6:5 7:8 8:1 9:1 10:2 11:2 12:7 13:0 14:0 15:0 16:0 17:0 18:0 19:0 20:0 21:0 22:0 23:0 24:0 25:0 26:0 27:4 28:6 29:3 30:2 31:3 32:3 33:3 34:2 35:0 36:0 37:0 38:0 39:26 
0.125 1:0 2:0 3:0 4:0 5:0 6:0 7:5 8:6 9:1 10:1 11:2 12:2 13:7 14:0 15:0 16:0 17:0 18:0 19:0 20:0 21:0 22:0 23:0 24:3 25:7 26:2 27:3 28:3 29:1 30:3 31:2 32:0 33:0 34:0 35:0 36:0 37:0 38:0 39:24 
0.09696510517085195 1:0 2:0 3:0 4:0 5:0 6:0 7:7 8:9 9:0 10:1 11:2 12:2 13:5 14:0 15:0 16:0 17:0 18:0 19:0 20:0 21:0 22:0 23:0 24:4 25:5 26:2 27:2 28:3 29:3 30:3 31:2 32:2 33:0 34:0 35:0 36:0 37:0 38:0 39:26 
0.07396561340667628 1:0 2:0 3:0 4:0 5:5 6:8 7:0 8:1 9:1 10:2 11:5 12:1 13:0 14:0 15:0 16:0 17:0 18:0 19:0 20:0 21:0 22:0 23:0 24:0 25:3 26:6 27:2 28:3 29:4 30:2 31:2 32:1 33:0 34:0 35:0 36:0 37:0 38:0 39:23 
0.125 1:0 2:0 3:0 4:0 5:4 6:8 7:1 8:1 9:2 10:2 11:5 12:0 13:0 14:0 15:0 16:0 17:0 18:0 19:0 20:0 21:0 22:0 23:3 24:6 25:3 26:2 27:2 28:1 29:2 30:2 31:2 32:0 33:0 34:0 35:0 36:0 37:0 38:0 39:23 
0.125 1:4 2:3 3:0 4:0 5:0 6:6 7:8 8:1 9:1 10:2 11:3 12:7 13:0 14:0 15:0 16:0 17:0 18:0 19:0 20:0 21:0 22:1 23:4 24:6 25:2 26:2 27:4 28:4 29:5 30:3 31:3 32:1 33:0 34:0 35:0 36:0 37:0 38:0 39:35 
0.125 1:0 2:0 3:0 4:0 5:0 6:0 7:6 8:8 9:1 10:1 11:2 12:2 13:7 14:0 15:0 16:0 17:0 18:0 19:0 20:0 21:0 22:0 23:0 24:0 25:4 26:7 27:3 28:3 29:3 30:2 31:3 32:2 33:0 34:0 35:0 36:0 37:0 38:0 39:27 
0.03567912903970728 1:0 2:0 3:0 4:0 5:5 6:7 7:1 8:1 9:2 10:1 11:5 12:0 13:0 14:0 15:0 16:0 17:0 18:0 19:0 20:0 21:0 22:0 23:0 24:0 25:1 26:4 27:4 28:3 29:1 30:1 31:3 32:1 33:3 34:1 35:0 36:0 37:0 38:0 39:22 
0.08138012759581942 1:0 2:0 3:0 4:0 5:0 6:6 7:9 8:1 9:1 10:2 11:2 12:6 13:0 14:0 15:0 16:0 17:0 18:0 19:0 20:0 21:0 22:0 23:0 24:0 25:0 26:0 27:4 28:5 29:3 30:2 31:3 32:3 33:2 34:3 35:2 36:0 37:0 38:0 39:27 
0.125 1:0 2:0 3:0 4:0 5:0 6:0 7:6 8:9 9:1 10:1 11:2 12:2 13:6 14:0 15:0 16:0 17:0 18:0 19:0 20:0 21:0 22:0 23:0 24:0 25:0 26:0 27:4 28:6 29:3 30:2 31:2 32:3 33:3 34:2 35:2 36:0 37:0 38:0 39:27 
0.125 1:0 2:0 3:0 4:0 5:1 6:6 7:9 8:1 9:1 10:2 11:2 12:7 13:0 14:0 15:0 16:0 17:0 18:0 19:0 20:0 21:0 22:0 23:0 24:0 25:4 26:7 27:2 28:3 29:2 30:3 31:3 32:3 33:2 34:0 35:0 36:0 37:0 38:0 39:29 
0.125 1:0 2:0 3:0 4:0 5:0 6:6 7:8 8:2 9:1 10:1 11:2 12:7 13:0 14:0 15:0 16:0 17:0 18:0 19:0 20:0 21:0 22:0 23:4 24:6 25:3 26:3 27:2 28:2 29:3 30:3 31:1 32:0 33:0 34:0 35:0 36:0 37:0 38:0 39:27 
-0.125 1:0 2:0 3:0 4:4 5:7 6:5 7:3 8:4 9:4 10:3 11:5 12:5 13:4 14:4 15:4 16:4 17:0 18:0 19:0 20:0 21:0 22:0 23:3 24:4 25:6 26:6 27:6 28:4 29:4 30:5 31:5 32:5 33:4 34:4 35:0 36:0 37:0 38:0 39:56 
-0.07830592580775329 1:0 2:0 3:0 4:0 5:0 6:4 7:5 8:5 9:4 10:4 11:5 12:3 13:5 14:3 15:3 16:4 17:0 18:0 19:0 20:0 21:0 22:0 23:0 24:3 25:4 26:4 27:4 28:3 29:4 30:3 31:4 32:5 33:4 34:4 35:3 36:0 37:0 38:0 39:45 
-0.125 1:0 2:0 3:0 4:0 5:5 6:5 7:4 8:3 9:4 10:5 11:3 12:5 13:2 14:3 15:4 16:3 17:0 18:0 19:0 20:0 21:0 22:0 23:3 24:4 25:4 26:4 27:4 28:4 29:2 30:4 31:6 32:5 33:3 34:3 35:0 36:0 37:0 38:0 39:46 
-0.125 1:0 2:0 3:0 4:4 5:5 6:5 7:3 8:4 9:4 10:3 11:5 12:4 13:4 14:4 15:7 16:6 17:0 18:0 19:0 20:0 21:0 22:4 23:4 24:5 25:5 26:6 27:4 28:4 29:5 30:5 31:5 32:5 33:5 34:1 35:0 36:0 37:0 38:0 39:58 
-0.125 1:0 2:0 3:0 4:0 5:4 6:6 7:4 8:4 9:5 10:4 11:3 12:5 13:4 14:4 15:4 16:6 17:0 18:0 19:0 20:0 21:0 22:3 23:4 24:4 25:4 26:5 27:4 28:4 29:5 30:6 31:6 32:4 33:4 34:0 35:0 36:0 37:0 38:0 39:53 
-0.125 1:0 2:0 3:0 4:0 5:5 6:6 7:6 8:3 9:3 10:4 11:3 12:4 13:2 14:4 15:4 16:7 17:0 18:0 19:0 20:2 21:4 22:4 23:4 24:6 25:4 26:2 27:4 28:7 29:5 30:4 31:4 32:1 33:0 34:0 35:0 36:0 37:0 38:0 39:51 
-0.125 1:0 2:0 3:0 4:0 5:0 6:0 7:5 8:4 9:5 10:4 11:4 12:5 13:3 14:5 15:3 16:3 17:0 18:0 19:0 20:0 21:0 22:3 23:4 24:4 25:3 26:5 27:4 28:2 29:4 30:4 31:3 32:3 33:2 34:0 35:0 36:0 37:0 38:0 39:41 
-0.125 1:0 2:0 3:0 4:4 5:5 6:5 7:4 8:4 9:3 10:2 11:5 12:4 13:3 14:4 15:6 16:5 17:0 18:0 19:0 20:0 21:0 22:4 23:3 24:5 25:3 26:6 27:5 28:4 29:5 30:7 31:5 32:4 33:3 34:0 35:0 36:0 37:0 38:0 39:54 
-0.125 1:0 2:0 3:0 4:0 5:0 6:5 7:6 8:5 9:4 10:4 11:4 12:3 13:5 14:3 15:5 16:4 17:0 18:0 19:0 20:0 21:0 22:0 23:0 24:3 25:3 26:4 27:4 28:4 29:4 30:4 31:4 32:6 33:4 34:4 35:4 36:0 37:0 38:0 39:48 
-0.125 1:0 2:0 3:0 4:0 5:0 6:5 7:5 8:4 9:4 10:4 11:4 12:2 13:5 14:3 15:4 16:4 17:0 18:0 19:0 20:0 21:3 22:3 23:3 24:4 25:5 26:4 27:2 28:4 29:5 30:4 31:3 32:4 33:0 34:0 35:0 36:0 37:0 38:0 39:44 
-0.125 1:0 2:0 3:0 4:0 5:0 6:5 7:6 8:4 9:4 10:4 11:3 12:3 13:4 14:2 15:4 16:4 17:0 18:0 19:0 20:0 21:0 22:0 23:1 24:3 25:3 26:4 27:3 28:2 29:3 30:3 31:5 32:6 33:2 34:4 35:4 36:0 37:0 38:0 39:43 
-0.118061127930655 1:1 2:0 3:0 4:0 5:4 6:3 7:4 8:3 9:4 10:5 11:3 12:5 13:3 14:3 15:4 16:6 17:0 18:0 19:0 20:0 21:3 22:4 23:4 24:4 25:4 26:4 27:3 28:5 29:6 30:3 31:3 32:4 33:1 34:0 35:0 36:0 37:0 38:0 39:48 
-0.125 1:0 2:0 3:0 4:0 5:4 6:4 7:5 8:4 9:2 10:5 11:3 12:5 13:4 14:4 15:4 16:4 17:0 18:0 19:0 20:0 21:0 22:0 23:0 24:3 25:4 26:4 27:4 28:5 29:3 30:3 31:4 32:5 33:5 34:4 35:4 36:0 37:0 38:0 39:48 
-0.125 1:0 2:0 3:0 4:0 5:5 6:6 7:5 8:4 9:4 10:5 11:3 12:5 13:3 14:4 15:4 16:6 17:0 18:0 19:0 20:4 21:3 22:4 23:4 24:7 25:5 26:4 27:4 28:6 29:5 30:4 31:4 32:0 33:0 34:0 35:0 36:0 37:0 38:0 39:54 
-0.125 1:0 2:0 3:0 4:0 5:0 6:3 7:6 8:5 9:3 10:4 11:4 12:3 13:4 14:5 15:3 16:4 17:0 18:0 19:0 20:0 21:0 22:0 23:1 24:3 25:2 26:4 27:3 28:4 29:4 30:3 31:4 32:6 33:3 34:4 35:3 36:0 37:0 38:0 39:44 
-0.125 1:0 2:0 3:0 4:0 5:4 6:6 7:5 8:3 9:4 10:4 11:2 12:3 13:0 14:2 15:4 16:4 17:0 18:0 19:0 20:0 21:3 22:4 23:3 24:2 25:4 26:3 27:2 28:3 29:5 30:4 31:5 32:3 33:0 34:0 35:0 36:0 37:0 38:0 39:41 
-0.125 1:0 2:0 3:0 4:0 5:0 6:5 7:6 8:5 9:4 10:3 11:4 12:3 13:4 14:3 15:3 16:4 17:0 18:0 19:0 20:3 21:3 22:4 23:4 24:3 25:4 26:2 27:4 28:6 29:4 30:4 31:3 32:0 33:0 34:0 35:0 36:0 37:0 38:0 39:44 
-0.03057057458306353 1:0 2:0 3:0 4:0 5:4 6:6 7:5 8:4 9:3 10:5 11:2 12:3 13:3 14:4 15:4 16:5 17:0 18:0 19:0 20:0 21:0 22:3 23:4 24:3 25:3 26:3 27:5 28:4 29:5 30:6 31:4 32:4 33:4 34:0 35:0 36:0 37:0 38:0 39:48 
-0.125 1:0 2:0 3:0 4:0 5:0 6:5 7:6 8:5 9:4 10:3 11:5 12:3 13:3 14:2 15:3 16:3 17:0 18:0 19:0 20:2 21:4 22:4 23:4 24:4 25:4 26:1 27:3 28:5 29:4 30:4 31:3 32:0 33:0 34:0 35:0 36:0 37:0 38:0 39:42 
-0.125 1:0 2:0 3:0 4:0 5:4 6:7 7:5 8:4 9:4 10:5 11:2 12:3 13:4 14:4 15:3 16:6 17:0 18:0 19:0 20:2 21:4 22:5 23:2 24:5 25:5 26:4 27:5 28:7 29:5 30:4 31:3 32:0 33:0 34:0 35:0 36:0 37:0 38:0 39:51 
-0.125 1:0 2:0 3:0 4:0 5:0 6:0 7:4 8:6 9:3 10:4 11:4 12:5 13:3 14:3 15:4 16:5 17:0 18:0 19:0 20:0 21:0 22:0 23:0 24:2 25:4 26:4 27:4 28:3 29:4 30:3 31:5 32:4 33:3 34:2 35:3 36:0 37:0 38:0 39:41 
-0.125 1:0 2:0 3:0 4:0 5:0 6:5 7:7 8:5 9:4 10:4 11:5 12:3 13:4 14:4 15:4 16:4 17:0 18:0 19:0 20:0 21:0 22:0 23:0 24:3 25:4 26:5 27:3 28:5 29:4 30:3 31:4 32:6 33:4 34:4 35:4 36:0 37:0 38:0 39:49 
-0.125 1:0 2:0 3:0 4:0 5:0 6:5 7:6 8:4 9:4 10:3 11:5 12:3 13:5 14:3 15:4 16:4 17:0 18:0 19:0 20:0 21:3 22:4 23:4 24:4 25:5 26:2 27:3 28:4 29:5 30:4 31:4 32:4 33:0 34:0 35:0 36:0 37:0 38:0 39:46 
-0.125 1:0 2:0 3:0 4:0 5:2 6:6 7:5 8:4 9:4 10:5 11:3 12:3 13:1 14:4 15:3 16:7 17:0 18:0 19:0 20:0 21:0 22:0 23:0 24:1 25:4 26:4 27:3 28:3 29:4 30:3 31:5 32:7 33:5 34:5 35:3 36:0 37:0 38:0 39:47 
