svm_type c_svc
kernel_type rbf
gamma 0.0078125
nr_class 2
total_sv 23
rho 0.00205745
label 0 1
probA -3.53974
probB -0.0314706
nr_sv 10 13
SV
0.4317387712218942 1:0 2:0 3:0 4:4 5:7 6:5 7:3 8:4 9:4 10:3 11:5 12:5 13:4 14:4 15:4 16:4 17:0 18:0 19:0 20:0 21:0 22:0 23:3 24:4 25:6 26:6 27:6 28:4 29:4 30:5 31:5 32:5 33:4 34:4 35:0 36:0 37:0 38:0 39:56 
0.6441326992486642 1:0 2:0 3:0 4:0 5:0 6:4 7:5 8:5 9:4 10:4 11:5 12:3 13:5 14:3 15:3 16:4 17:0 18:0 19:0 20:0 21:0 22:0 23:0 24:3 25:4 26:4 27:4 28:3 29:4 30:3 31:4 32:5 33:4 34:4 35:3 36:0 37:0 38:0 39:45 
0.4546738450202715 1:0 2:0 3:0 4:0 5:5 6:5 7:4 8:3 9:4 10:5 11:3 12:5 13:2 14:3 15:4 16:3 17:0 18:0 19:0 20:0 21:0 22:0 23:3 24:4 25:4 26:4 27:4 28:4 29:2 30:4 31:6 32:5 33:3 34:3 35:0 36:0 37:0 38:0 39:46 
0.4205653824382725 1:0 2:0 3:0 4:4 5:5 6:5 7:3 8:4 9:4 10:3 11:5 12:4 13:4 14:4 15:7 16:6 17:0 18:0 19:0 20:0 21:0 22:4 23:4 24:5 25:5 26:6 27:4 28:4 29:5 30:5 31:5 32:5 33:5 34:1 35:0 36:0 37:0 38:0 39:58 
2 1:0 2:0 3:0 4:0 5:0 6:0 7:5 8:4 9:5 10:4 11:4 12:5 13:3 14:5 15:3 16:3 17:0 18:0 19:0 20:0 21:0 22:3 23:4 24:4 25:3 26:5 27:4 28:2 29:4 30:4 31:3 32:3 33:2 34:0 35:0 36:0 37:0 38:0 39:41 
0.5382106190233991 1:0 2:0 3:0 4:0 5:0 6:5 7:6 8:4 9:4 10:4 11:3 12:3 13:4 14:2 15:4 16:4 17:0 18:0 19:0 20:0 21:0 22:0 23:1 24:3 25:3 26:4 27:3 28:2 29:3 30:3 31:5 32:6 33:2 34:4 35:4 36:0 37:0 38:0 39:43 
0.3249176517753886 1:0 2:0 3:0 4:0 5:5 6:6 7:5 8:4 9:4 10:5 11:3 12:5 13:3 14:4 15:4 16:6 17:0 18:0 19:0 20:4 21:3 22:4 23:4 24:7 25:5 26:4 27:4 28:6 29:5 30:4 31:4 32:0 33:0 34:0 35:0 36:0 37:0 38:0 39:54 
0.6976216634110942 1:0 2:0 3:0 4:0 5:4 6:6 7:5 8:3 9:4 10:4 11:2 12:3 13:0 14:2 15:4 16:4 17:0 18:0 19:0 20:0 21:3 22:4 23:3 24:2 25:4 26:3 27:2 28:3 29:5 30:4 31:5 32:3 33:0 34:0 35:0 36:0 37:0 38:0 39:41 
2 1:0 2:0 3:0 4:0 5:0 6:5 7:6 8:5 9:4 10:3 11:5 12:3 13:3 14:2 15:3 16:3 17:0 18:0 19:0 20:2 21:4 22:4 23:4 24:4 25:4 26:1 27:3 28:5 29:4 30:4 31:3 32:0 33:0 34:0 35:0 36:0 37:0 38:0 39:42 
0.4929929177311304 1:0 2:0 3:0 4:0 5:0 6:0 7:4 8:6 9:3 10:4 11:4 12:5 13:3 14:3 15:4 16:5 17:0 18:0 19:0 20:0 21:0 22:0 23:0 24:2 25:4 26:4 27:4 28:3 29:4 30:3 31:5 32:4 33:3 34:2 35:3 36:0 37:0 38:0 39:41 
-0.08453368261780807 1:0 2:0 3:0 4:3 5:6 6:6 7:4 8:4 9:5 10:5 11:5 12:1 13:0 14:0 15:0 16:0 17:0 18:0 19:0 20:0 21:0 22:3 23:4 24:3 25:5 26:3 27:1 28:2 29:4 30:3 31:3 32:4 33:4 34:0 35:0 36:0 37:0 38:0 39:39 
-0.2827148805893757 1:0 2:0 3:0 4:3 5:6 6:6 7:4 8:5 9:4 10:6 11:4 12:1 13:0 14:0 15:0 16:0 17:0 18:0 19:0 20:1 21:3 22:4 23:3 24:5 25:2 26:2 27:2 28:4 29:2 30:4 31:4 32:3 33:0 34:0 35:0 36:0 37:0 38:0 39:39 
-1.614603236077529 1:0 2:0 3:0 4:0 5:0 6:3 7:6 8:6 9:5 10:5 11:6 12:3 13:3 14:1 15:1 16:1 17:0 18:0 19:0 20:2 21:4 22:3 23:5 24:4 25:2 26:3 27:4 28:2 29:3 30:4 31:4 32:0 33:0 34:0 35:0 36:0 37:0 38:0 39:40 
-0.8589437456996145 1:2 2:0 3:0 4:3 5:6 6:6 7:5 8:5 9:6 10:6 11:5 12:1 13:0 14:0 15:0 16:0 17:0 18:0 19:0 20:0 21:0 22:0 23:0 24:3 25:4 26:4 27:5 28:3 29:2 30:3 31:4 32:3 33:4 34:5 35:5 36:0 37:0 38:0 39:45 
-0.4756442986055535 1:1 2:0 3:0 4:2 5:3 6:5 7:6 8:6 9:4 10:6 11:5 12:5 13:1 14:0 15:0 16:0 17:0 18:0 19:0 20:0 21:0 22:0 23:3 24:4 25:4 26:5 27:3 28:2 29:3 30:3 31:4 32:3 33:4 34:5 35:1 36:0 37:0 38:0 39:44 
-0.384805467620464 1:0 2:0 3:0 4:1 5:6 6:6 7:5 8:4 9:5 10:4 11:5 12:1 13:0 14:0 15:0 16:0 17:0 18:0 19:0 20:0 21:3 22:4 23:4 24:6 25:2 26:2 27:2 28:4 29:2 30:4 31:2 32:2 33:0 34:0 35:0 36:0 37:0 38:0 39:37 
-0.4165602202799775 1:0 2:0 3:0 4:0 5:0 6:2 7:5 8:6 9:5 10:5 11:5 12:6 13:5 14:0 15:1 16:0 17:0 18:0 19:0 20:0 21:1 22:4 23:4 24:5 25:3 26:2 27:2 28:4 29:3 30:4 31:4 32:3 33:0 34:0 35:1 36:0 37:0 38:0 39:40 
-0.6771604960186957 1:0 2:0 3:0 4:0 5:0 6:3 7:6 8:6 9:4 10:5 11:6 12:5 13:5 14:1 15:0 16:0 17:0 18:0 19:0 20:0 21:0 22:0 23:0 24:3 25:4 26:4 27:4 28:3 29:2 30:2 31:4 32:3 33:4 34:4 35:4 36:0 37:0 38:0 39:41 
-0.7170606650911837 1:0 2:0 3:0 4:0 5:0 6:0 7:2 8:6 9:5 10:5 11:4 12:5 13:6 14:4 15:0 16:0 17:0 18:0 19:0 20:0 21:0 22:3 23:3 24:3 25:5 26:2 27:2 28:3 29:4 30:2 31:4 32:3 33:3 34:0 35:0 36:0 37:0 38:0 39:37 
-0.7755672052029834 1:0 2:0 3:0 4:0 5:3 6:6 7:6 8:4 9:5 10:5 11:6 12:5 13:1 14:0 15:0 16:0 17:0 18:0 19:0 20:0 21:0 22:3 23:4 24:4 25:5 26:2 27:1 28:3 29:4 30:3 31:4 32:4 33:4 34:0 35:0 36:0 37:0 38:0 39:41 
-0.2179376237594644 1:0 2:0 3:0 4:0 5:0 6:3 7:5 8:6 9:5 10:4 11:5 12:6 13:5 14:1 15:0 16:0 17:0 18:0 19:0 20:0 21:0 22:0 23:0 24:3 25:4 26:2 27:5 28:4 29:1 30:3 31:4 32:3 33:3 34:4 35:4 36:0 37:0 38:0 39:40 
-1.156746070236176 1:0 2:0 3:0 4:0 5:0 6:0 7:2 8:5 9:6 10:5 11:5 12:6 13:5 14:5 15:1 16:0 17:0 18:0 19:0 20:3 21:4 22:2 23:5 24:3 25:2 26:3 27:4 28:3 29:4 30:4 31:3 32:0 33:0 34:0 35:0 36:0 37:0 38:0 39:40 
-0.3425759580712889 1:0 2:0 3:0 4:0 5:0 6:3 7:5 8:5 9:5 10:4 11:5 12:6 13:5 14:1 15:0 16:0 17:0 18:0 19:0 20:0 21:0 22:0 23:2 24:3 25:3 26:5 27:3 28:1 29:3 30:4 31:3 32:4 33:4 34:4 35:0 36:0 37:0 38:0 39:39 
