svm_type c_svc
kernel_type rbf
gamma 0.0078125
nr_class 2
total_sv 43
rho -0.193266
label 1 0
probA -4.76886
probB -0.573498
nr_sv 21 22
SV
0.125 1:0 2:0 3:0 4:5 5:6 6:6 7:4 8:6 9:5 10:4 11:0 12:0 13:0 14:0 15:0 16:0 17:0 18:0 19:0 20:0 21:0 22:0 23:0 24:2 25:5 26:4 27:6 28:7 29:1 30:4 31:4 32:3 33:0 34:0 35:0 36:0 37:0 38:0 39:36 
0.08364255177415655 1:0 2:0 3:0 4:0 5:0 6:5 7:5 8:5 9:6 10:6 11:6 12:4 13:1 14:0 15:0 16:0 17:0 18:0 19:0 20:0 21:0 22:0 23:0 24:0 25:0 26:2 27:4 28:3 29:8 30:7 31:2 32:4 33:5 34:3 35:0 36:0 37:0 38:0 39:38 
0.125 1:0 2:0 3:0 4:0 5:4 6:6 7:5 8:6 9:6 10:6 11:3 12:0 13:0 14:0 15:0 16:0 17:0 18:0 19:0 20:0 21:0 22:0 23:0 24:0 25:0 26:3 27:5 28:3 29:6 30:7 31:1 32:4 33:5 34:2 35:0 36:0 37:0 38:0 39:36 
0.125 1:0 2:0 3:0 4:0 5:0 6:4 7:7 8:4 9:4 10:6 11:6 12:4 13:0 14:0 15:0 16:0 17:0 18:0 19:0 20:0 21:0 22:0 23:0 24:0 25:0 26:0 27:4 28:4 29:3 30:7 31:5 32:1 33:4 34:5 35:2 36:0 37:0 38:0 39:35 
0.125 1:0 2:0 3:0 4:5 5:6 6:5 7:5 8:6 9:6 10:4 11:0 12:0 13:0 14:0 15:0 16:0 17:0 18:0 19:0 20:0 21:0 22:0 23:0 24:0 25:1 26:3 27:5 28:4 29:7 30:5 31:1 32:4 33:5 34:2 35:0 36:0 37:0 38:0 39:37 
0.125 1:0 2:0 3:0 4:0 5:4 6:6 7:6 8:5 9:6 10:6 11:2 12:0 13:0 14:0 15:0 16:0 17:0 18:0 19:0 20:0 21:0 22:0 23:0 24:0 25:0 26:0 27:3 28:5 29:3 30:4 31:7 32:1 33:4 34:5 35:3 36:0 37:0 38:0 39:35 
0.125 1:0 2:0 3:0 4:0 5:5 6:6 7:5 8:5 9:5 10:4 11:5 12:0 13:0 14:0 15:0 16:0 17:0 18:0 19:0 20:0 21:0 22:0 23:0 24:2 25:5 26:3 27:6 28:6 29:1 30:4 31:5 32:3 33:0 34:0 35:0 36:0 37:0 38:0 39:35 
0.125 1:0 2:0 3:0 4:0 5:0 6:0 7:4 8:6 9:6 10:6 11:6 12:6 13:3 14:0 15:0 16:0 17:0 18:0 19:0 20:0 21:0 22:0 23:0 24:0 25:0 26:3 27:5 28:4 29:7 30:6 31:1 32:4 33:4 34:3 35:0 36:0 37:0 38:0 39:37 
0.125 1:0 2:0 3:0 4:0 5:5 6:6 7:5 8:4 9:6 10:6 11:3 12:1 13:0 14:0 15:0 16:0 17:0 18:0 19:0 20:0 21:0 22:0 23:0 24:0 25:0 26:0 27:2 28:5 29:3 30:5 31:7 32:2 33:4 34:5 35:3 36:0 37:0 38:0 39:36 
0.125 1:0 2:0 3:0 4:0 5:1 6:4 7:5 8:6 9:6 10:6 11:5 12:4 13:0 14:0 15:0 16:0 17:0 18:0 19:0 20:0 21:0 22:0 23:3 24:5 25:4 26:6 27:6 28:1 29:4 30:5 31:3 32:0 33:0 34:0 35:0 36:0 37:0 38:0 39:37 
0.125 1:0 2:0 3:0 4:0 5:0 6:5 7:4 8:5 9:6 10:5 11:6 12:3 13:0 14:0 15:0 16:0 17:0 18:0 19:0 20:0 21:0 22:1 23:2 24:5 25:4 26:3 27:6 28:1 29:4 30:5 31:3 32:0 33:0 34:0 35:0 36:0 37:0 38:0 39:34 
0.09720008161349036 1:0 2:0 3:0 4:0 5:5 6:6 7:6 8:6 9:6 10:5 11:3 12:0 13:0 14:0 15:0 16:0 17:0 18:0 19:0 20:0 21:0 22:0 23:0 24:0 25:0 26:0 27:3 28:5 29:3 30:6 31:7 32:1 33:4 34:5 35:3 36:0 37:0 38:0 39:37 
0.125 1:0 2:0 3:0 4:0 5:0 6:0 7:5 8:6 9:6 10:6 11:6 12:5 13:4 14:0 15:0 16:0 17:0 18:0 19:0 20:0 21:0 22:0 23:3 24:5 25:4 26:6 27:7 28:1 29:4 30:5 31:3 32:0 33:0 34:0 35:0 36:0 37:0 38:0 39:38 
0.125 1:0 2:0 3:0 4:0 5:0 6:5 7:6 8:6 9:5 10:6 11:6 12:3 13:0 14:0 15:0 16:0 17:0 18:0 19:0 20:0 21:0 22:0 23:0 24:0 25:2 26:5 27:4 28:7 29:6 30:1 31:4 32:5 33:3 34:0 35:0 36:0 37:0 38:0 39:37 
0.125 1:0 2:0 3:0 4:0 5:0 6:4 7:6 8:6 9:4 10:6 11:6 12:3 13:0 14:0 15:0 16:0 17:0 18:0 19:0 20:0 21:0 22:0 23:0 24:0 25:0 26:2 27:5 28:4 29:7 30:7 31:0 32:3 33:5 34:2 35:0 36:0 37:0 38:0 39:35 
0.125 1:0 2:0 3:0 4:3 5:5 6:5 7:6 8:6 9:5 10:3 11:0 12:0 13:0 14:0 15:0 16:0 17:0 18:0 19:0 20:0 21:0 22:0 23:0 24:2 25:5 26:2 27:7 28:7 29:2 30:0 31:5 32:3 33:0 34:0 35:0 36:0 37:0 38:0 39:33 
0.125 1:0 2:0 3:0 4:0 5:0 6:6 7:5 8:6 9:4 10:6 11:6 12:4 13:0 14:0 15:0 16:0 17:0 18:0 19:0 20:0 21:0 22:0 23:3 24:4 25:4 26:7 27:6 28:1 29:4 30:5 31:3 32:0 33:0 34:0 35:0 36:0 37:0 38:0 39:37 
0.03400380868846151 1:0 2:0 3:0 4:0 5:0 6:5 7:6 8:5 9:6 10:6 11:6 12:3 13:0 14:0 15:0 16:0 17:0 18:0 19:0 20:0 21:0 22:0 23:0 24:0 25:0 26:0 27:3 28:5 29:3 30:7 31:7 32:1 33:4 34:5 35:2 36:0 37:0 38:0 39:37 
0.125 1:0 2:0 3:0 4:0 5:0 6:5 7:7 8:6 9:5 10:5 11:6 12:4 13:0 14:0 15:0 16:0 17:0 18:0 19:0 20:0 21:0 22:0 23:0 24:0 25:0 26:0 27:2 28:5 29:4 30:7 31:6 32:2 33:4 34:5 35:3 36:0 37:0 38:0 39:38 
0.125 1:0 2:0 3:0 4:0 5:5 6:6 7:6 8:6 9:6 10:6 11:3 12:0 13:0 14:0 15:0 16:0 17:0 18:0 19:0 20:0 21:0 22:0 23:0 24:3 25:5 26:4 27:6 28:7 29:1 30:4 31:5 32:3 33:0 34:0 35:0 36:0 37:0 38:0 39:38 
0.125 1:0 2:0 3:0 4:5 5:6 6:6 7:6 8:6 9:6 10:4 11:0 12:0 13:0 14:0 15:0 16:0 17:0 18:0 19:0 20:0 21:0 22:0 23:3 24:5 25:4 26:7 27:7 28:1 29:4 30:5 31:3 32:0 33:0 34:0 35:0 36:0 37:0 38:0 39:39 
-0.125 1:0 2:0 3:0 4:0 5:1 6:2 7:3 8:3 9:2 10:1 11:2 12:1 13:0 14:0 15:0 16:0 17:0 18:0 19:0 20:0 21:0 22:0 23:1 24:1 25:4 26:2 27:3 28:1 29:2 30:0 31:1 32:0 33:0 34:0 35:0 36:0 37:0 38:0 39:15 
-0.0870176021587495 1:0 2:0 3:0 4:0 5:0 6:0 7:2 8:2 9:3 10:4 11:5 12:1 13:3 14:3 15:1 16:0 17:0 18:0 19:0 20:0 21:0 22:0 23:0 24:3 25:3 26:4 27:2 28:4 29:2 30:2 31:0 32:1 33:2 34:1 35:0 36:0 37:0 38:0 39:24 
-0.125 1:2 2:0 3:0 4:0 5:2 6:3 7:3 8:3 9:6 10:2 11:2 12:3 13:1 14:1 15:0 16:0 17:0 18:0 19:0 20:0 21:0 22:1 23:4 24:3 25:5 26:2 27:3 28:3 29:3 30:1 31:1 32:1 33:1 34:0 35:0 36:0 37:0 38:0 39:28 
-0.125 1:0 2:0 3:0 4:0 5:0 6:0 7:2 8:2 9:3 10:3 11:6 12:2 13:4 14:2 15:1 16:0 17:0 18:0 19:0 20:0 21:0 22:0 23:4 24:3 25:3 26:2 27:4 28:3 29:2 30:1 31:1 32:1 33:1 34:0 35:0 36:0 37:0 38:0 39:25 
-0.125 1:0 2:0 3:0 4:0 5:3 6:5 7:4 8:4 9:3 10:4 11:4 12:3 13:1 14:0 15:0 16:0 17:0 18:0 19:0 20:0 21:1 22:4 23:2 24:2 25:3 26:3 27:2 28:3 29:3 30:3 31:3 32:2 33:0 34:0 35:0 36:0 37:0 38:0 39:31 
-0.125 1:0 2:0 3:0 4:0 5:2 6:2 7:2 8:4 9:7 10:2 11:3 12:3 13:1 14:0 15:0 16:0 17:0 18:0 19:0 20:0 21:0 22:0 23:0 24:3 25:3 26:3 27:2 28:4 29:3 30:2 31:1 32:1 33:1 34:2 35:1 36:0 37:0 38:0 39:26 
-0.02090255793584611 1:0 2:0 3:0 4:1 5:2 6:3 7:2 8:6 9:2 10:3 11:3 12:1 13:0 14:0 15:0 16:0 17:0 18:0 19:0 20:0 21:0 22:0 23:0 24:2 25:3 26:4 27:2 28:4 29:2 30:2 31:1 32:1 33:1 34:1 35:0 36:0 37:0 38:0 39:23 
-0.125 1:0 2:0 3:0 4:0 5:0 6:0 7:2 8:1 9:3 10:3 11:6 12:2 13:3 14:3 15:1 16:0 17:0 18:0 19:0 20:0 21:0 22:3 23:2 24:4 25:2 26:4 27:3 28:2 29:1 30:1 31:1 32:1 33:0 34:0 35:0 36:0 37:0 38:0 39:24 
-0.125 1:0 2:0 3:0 4:2 5:2 6:3 7:3 8:5 9:3 10:3 11:2 12:1 13:0 14:0 15:0 16:0 17:0 18:0 19:0 20:3 21:4 22:3 23:2 24:3 25:2 26:2 27:1 28:2 29:1 30:1 31:0 32:0 33:0 34:0 35:0 36:0 37:0 38:0 39:24 
-0.125 1:0 2:0 3:0 4:0 5:2 6:2 7:3 8:3 9:6 10:1 11:3 12:2 13:1 14:0 15:0 16:0 17:0 18:0 19:0 20:3 21:2 22:4 23:2 24:4 25:2 26:2 27:1 28:1 29:1 30:1 31:0 32:0 33:0 34:0 35:0 36:0 37:0 38:0 39:23 
-0.125 1:0 2:0 3:0 4:0 5:0 6:0 7:2 8:2 9:2 10:4 11:6 12:1 13:3 14:3 15:1 16:0 17:0 18:0 19:0 20:3 21:3 22:3 23:2 24:4 25:2 26:2 27:1 28:2 29:1 30:1 31:0 32:0 33:0 34:0 35:0 36:0 37:0 38:0 39:24 
-0.125 1:0 2:0 3:0 4:0 5:1 6:2 7:2 8:3 9:3 10:6 11:2 12:3 13:3 14:1 15:0 16:0 17:0 18:0 19:0 20:0 21:4 22:3 23:4 24:2 25:4 26:3 27:2 28:1 29:1 30:1 31:1 32:0 33:0 34:0 35:0 36:0 37:0 38:0 39:26 
-0.125 1:0 2:0 3:0 4:2 5:2 6:3 7:3 8:6 9:2 10:2 11:3 12:1 13:0 14:0 15:0 16:0 17:0 18:0 19:0 20:0 21:0 22:0 23:0 24:3 25:3 26:3 27:2 28:4 29:3 30:2 31:1 32:1 33:1 34:1 35:0 36:0 37:0 38:0 39:24 
-0.125 1:0 2:0 3:0 4:0 5:2 6:2 7:3 8:3 9:6 10:2 11:3 12:3 13:2 14:1 15:1 16:0 17:0 18:0 19:0 20:0 21:0 22:0 23:0 24:3 25:3 26:4 27:2 28:4 29:3 30:2 31:1 32:1 33:1 34:3 35:1 36:0 37:0 38:0 39:28 
-0.125 1:0 2:0 3:0 4:0 5:1 6:2 7:2 8:3 9:4 10:6 11:2 12:3 13:3 14:1 15:0 16:0 17:0 18:0 19:0 20:0 21:0 22:0 23:0 24:3 25:3 26:5 27:3 28:4 29:3 30:2 31:2 32:0 33:1 34:1 35:0 36:0 37:0 38:0 39:27 
-0.05282688305972761 1:0 2:0 3:0 4:0 5:0 6:1 7:2 8:3 9:4 10:6 11:2 12:3 13:2 14:1 15:0 16:0 17:0 18:0 19:0 20:2 21:4 22:3 23:2 24:4 25:3 26:2 27:1 28:1 29:1 30:1 31:0 32:0 33:0 34:0 35:0 36:0 37:0 38:0 39:24 
-0.05409939892178522 1:0 2:0 3:0 4:0 5:0 6:2 7:1 8:3 9:2 10:6 11:2 12:3 13:3 14:1 15:0 16:0 17:0 18:0 19:0 20:0 21:3 22:3 23:3 24:2 25:4 26:3 27:1 28:1 29:1 30:1 31:1 32:0 33:0 34:0 35:0 36:0 37:0 38:0 39:23 
-0.125 1:0 2:0 3:0 4:0 5:2 6:2 7:2 8:4 9:6 10:2 11:4 12:2 13:0 14:0 15:0 16:0 17:0 18:0 19:0 20:0 21:0 22:0 23:0 24:2 25:3 26:3 27:2 28:4 29:3 30:3 31:1 32:1 33:1 34:1 35:0 36:0 37:0 38:0 39:24 
-0.125 1:1 2:0 3:0 4:0 5:0 6:2 7:2 8:3 9:2 10:6 11:2 12:3 13:3 14:1 15:1 16:0 17:0 18:0 19:0 20:0 21:0 22:0 23:4 24:3 25:4 26:2 27:3 28:3 29:1 30:2 31:1 32:1 33:2 34:0 35:0 36:0 37:0 38:0 39:26 
-0.125 1:2 2:0 3:1 4:2 5:3 6:3 7:3 8:7 9:2 10:3 11:3 12:1 13:0 14:0 15:0 16:0 17:0 18:0 19:0 20:0 21:0 22:5 23:3 24:4 25:3 26:5 27:3 28:2 29:1 30:1 31:1 32:1 33:1 34:0 35:0 36:0 37:0 38:0 39:30 
-0.125 1:0 2:0 3:0 4:2 5:2 6:3 7:3 8:7 9:3 10:3 11:3 12:1 13:0 14:0 15:0 16:0 17:0 18:0 19:0 20:0 21:0 22:0 23:3 24:3 25:4 26:2 27:4 28:3 29:2 30:1 31:1 32:1 33:1 34:2 35:0 36:0 37:0 38:0 39:27 
-0.125 1:0 2:0 3:0 4:2 5:3 6:2 7:3 8:4 9:2 10:3 11:3 12:1 13:0 14:0 15:0 16:0 17:0 18:0 19:0 20:0 21:0 22:0 23:4 24:3 25:4 26:0 27:4 28:4 29:2 30:1 31:0 32:1 33:0 34:0 35:0 36:0 37:0 38:0 39:23 
