svm_type c_svc
kernel_type rbf
gamma 0.0078125
nr_class 2
total_sv 20
rho -0.595928
label 1 0
probA -3.54205
probB 0.101084
nr_sv 10 10
SV
2 1:0 2:0 3:0 4:0 5:0 6:0 7:4 8:10 9:2 10:3 11:2 12:4 13:3 14:0 15:0 16:0 17:0 18:0 19:0 20:0 21:0 22:1 23:1 24:1 25:3 26:3 27:3 28:3 29:3 30:3 31:2 32:3 33:2 34:0 35:0 36:0 37:0 38:0 39:28 
0.02501509889683829 1:1 2:0 3:0 4:0 5:0 6:0 7:6 8:10 9:2 10:3 11:4 12:4 13:2 14:0 15:0 16:0 17:0 18:0 19:0 20:1 21:0 22:0 23:0 24:1 25:2 26:2 27:4 28:3 29:4 30:2 31:5 32:2 33:3 34:2 35:1 36:0 37:0 38:0 39:32 
0.667326936934606 1:0 2:0 3:0 4:0 5:0 6:0 7:8 8:11 9:1 10:2 11:4 12:4 13:2 14:0 15:0 16:0 17:0 18:0 19:0 20:2 21:2 22:1 23:4 24:4 25:4 26:3 27:1 28:3 29:3 30:3 31:2 32:0 33:0 34:0 35:0 36:0 37:0 38:0 39:32 
0.8119410248486458 1:0 2:0 3:0 4:0 5:7 6:10 7:3 8:2 9:4 10:4 11:3 12:0 13:0 14:0 15:0 16:0 17:0 18:0 19:0 20:2 21:1 22:1 23:5 24:4 25:4 26:2 27:5 28:3 29:3 30:2 31:1 32:0 33:0 34:0 35:0 36:0 37:0 38:0 39:33 
1.348654616003534 1:0 2:0 3:0 4:0 5:0 6:6 7:10 8:2 9:3 10:3 11:4 12:2 13:0 14:0 15:0 16:0 17:0 18:0 19:0 20:0 21:0 22:0 23:1 24:1 25:2 26:3 27:4 28:3 29:3 30:4 31:3 32:3 33:3 34:0 35:0 36:0 37:0 38:0 39:30 
0.2257707011491769 1:0 2:0 3:0 4:0 5:7 6:12 7:2 8:3 9:4 10:4 11:2 12:0 13:0 14:0 15:0 16:0 17:0 18:0 19:0 20:0 21:0 22:0 23:0 24:1 25:2 26:1 27:2 28:4 29:3 30:4 31:5 32:3 33:2 34:4 35:3 36:0 37:0 38:0 39:34 
0.8727192225075516 1:0 2:0 3:0 4:8 5:8 6:3 7:3 8:4 9:4 10:3 11:0 12:0 13:0 14:0 15:0 16:0 17:0 18:0 19:0 20:1 21:1 22:2 23:3 24:3 25:4 26:4 27:4 28:4 29:2 30:4 31:1 32:0 33:0 34:0 35:0 36:0 37:0 38:0 39:33 
0.6137097237832929 1:0 2:0 3:0 4:0 5:6 6:12 7:2 8:3 9:3 10:5 11:3 12:0 13:0 14:0 15:0 16:0 17:0 18:0 19:0 20:0 21:1 22:2 23:3 24:4 25:3 26:3 27:3 28:5 29:2 30:2 31:4 32:2 33:0 34:0 35:0 36:0 37:0 38:0 39:34 
0.241889422645321 1:0 2:0 3:0 4:0 5:1 6:8 7:12 8:2 9:3 10:3 11:3 12:2 13:0 14:0 15:0 16:0 17:0 18:0 19:0 20:0 21:2 22:2 23:1 24:4 25:5 26:3 27:4 28:5 29:2 30:2 31:3 32:1 33:0 34:0 35:0 36:0 37:0 38:0 39:34 
0.4587409017200985 1:0 2:0 3:0 4:7 5:11 6:0 7:3 8:4 9:4 10:3 11:0 12:0 13:0 14:0 15:0 16:0 17:0 18:0 19:0 20:0 21:0 22:2 23:2 24:1 25:4 26:4 27:2 28:2 29:4 30:3 31:2 32:4 33:2 34:0 35:0 36:0 37:0 38:0 39:32 
-1.132323596099034 1:0 2:0 3:0 4:0 5:1 6:2 7:3 8:3 9:2 10:1 11:2 12:1 13:0 14:0 15:0 16:0 17:0 18:0 19:0 20:0 21:0 22:0 23:1 24:1 25:4 26:2 27:3 28:1 29:2 30:0 31:1 32:0 33:0 34:0 35:0 36:0 37:0 38:0 39:15 
-0.05892057562762189 1:2 2:0 3:0 4:0 5:2 6:3 7:3 8:3 9:6 10:2 11:2 12:3 13:1 14:1 15:0 16:0 17:0 18:0 19:0 20:0 21:0 22:1 23:4 24:3 25:5 26:2 27:3 28:3 29:3 30:1 31:1 32:1 33:1 34:0 35:0 36:0 37:0 38:0 39:28 
-0.03618204008700536 1:0 2:0 3:0 4:0 5:0 6:0 7:2 8:2 9:3 10:3 11:6 12:2 13:4 14:2 15:1 16:0 17:0 18:0 19:0 20:0 21:0 22:0 23:4 24:3 25:3 26:2 27:4 28:3 29:2 30:1 31:1 32:1 33:1 34:0 35:0 36:0 37:0 38:0 39:25 
-2 1:0 2:0 3:0 4:0 5:3 6:5 7:4 8:4 9:3 10:4 11:4 12:3 13:1 14:0 15:0 16:0 17:0 18:0 19:0 20:0 21:1 22:4 23:2 24:2 25:3 26:3 27:2 28:3 29:3 30:3 31:3 32:2 33:0 34:0 35:0 36:0 37:0 38:0 39:31 
-0.361196586275937 1:0 2:0 3:0 4:0 5:0 6:0 7:2 8:2 9:2 10:4 11:6 12:1 13:3 14:3 15:1 16:0 17:0 18:0 19:0 20:3 21:3 22:3 23:2 24:4 25:2 26:2 27:1 28:2 29:1 30:1 31:0 32:0 33:0 34:0 35:0 36:0 37:0 38:0 39:24 
-0.7280678081935107 1:0 2:0 3:0 4:0 5:2 6:2 7:3 8:3 9:6 10:2 11:3 12:3 13:2 14:1 15:1 16:0 17:0 18:0 19:0 20:0 21:0 22:0 23:0 24:3 25:3 26:4 27:2 28:4 29:3 30:2 31:1 32:1 33:1 34:3 35:1 36:0 37:0 38:0 39:28 
-0.2974360728603235 1:0 2:0 3:0 4:0 5:1 6:2 7:2 8:3 9:4 10:6 11:2 12:3 13:3 14:1 15:0 16:0 17:0 18:0 19:0 20:0 21:0 22:0 23:0 24:3 25:3 26:5 27:3 28:4 29:3 30:2 31:2 32:0 33:1 34:1 35:0 36:0 37:0 38:0 39:27 
-0.348746445994653 1:1 2:0 3:0 4:0 5:0 6:2 7:2 8:3 9:2 10:6 11:2 12:3 13:3 14:1 15:1 16:0 17:0 18:0 19:0 20:0 21:0 22:0 23:4 24:3 25:4 26:2 27:3 28:3 29:1 30:2 31:1 32:1 33:2 34:0 35:0 36:0 37:0 38:0 39:26 
-1.143431792930611 1:2 2:0 3:1 4:2 5:3 6:3 7:3 8:7 9:2 10:3 11:3 12:1 13:0 14:0 15:0 16:0 17:0 18:0 19:0 20:0 21:0 22:5 23:3 24:4 25:3 26:5 27:3 28:2 29:1 30:1 31:1 32:1 33:1 34:0 35:0 36:0 37:0 38:0 39:30 
-1.159462730420369 1:0 2:0 3:0 4:2 5:2 6:3 7:3 8:7 9:3 10:3 11:3 12:1 13:0 14:0 15:0 16:0 17:0 18:0 19:0 20:0 21:0 22:0 23:3 24:3 25:4 26:2 27:4 28:3 29:2 30:1 31:1 32:1 33:1 34:2 35:0 36:0 37:0 38:0 39:27 
