svm_type c_svc
kernel_type rbf
gamma 0.0078125
nr_class 2
total_sv 29
rho -0.638281
label 1 0
probA -3.78648
probB 0.270708
nr_sv 16 13
SV
0.2137531075645316 1:0 2:0 3:0 4:0 5:0 6:0 7:3 8:7 9:4 10:4 11:2 12:4 13:10 14:0 15:0 16:0 17:0 18:0 19:0 20:0 21:0 22:0 23:1 24:1 25:1 26:3 27:6 28:2 29:3 30:3 31:3 32:3 33:5 34:3 35:0 36:0 37:0 38:0 39:34 
0.5 1:0 2:0 3:1 4:5 5:7 6:4 7:3 8:2 9:3 10:10 11:0 12:0 13:0 14:0 15:0 16:0 17:0 18:0 19:0 20:1 21:1 22:1 23:2 24:6 25:5 26:3 27:3 28:2 29:2 30:6 31:3 32:0 33:0 34:0 35:0 36:0 37:0 38:0 39:35 
0.3496113168635246 1:0 2:0 3:0 4:0 5:3 6:7 7:3 8:4 9:2 10:2 11:11 12:1 13:0 14:0 15:0 16:0 17:0 18:0 19:0 20:0 21:0 22:0 23:2 24:1 25:1 26:2 27:6 28:3 29:3 30:2 31:2 32:4 33:5 34:2 35:0 36:0 37:0 38:0 39:33 
0.5 1:0 2:0 3:0 4:4 5:7 6:4 7:3 8:2 9:2 10:9 11:0 12:0 13:0 14:0 15:0 16:0 17:0 18:0 19:0 20:0 21:0 22:0 23:1 24:1 25:1 26:3 27:6 28:4 29:3 30:2 31:2 32:2 33:5 34:1 35:0 36:0 37:0 38:0 39:31 
0.5 1:0 2:0 3:0 4:0 5:0 6:4 7:6 8:4 9:4 10:2 11:3 12:8 13:0 14:0 15:0 16:0 17:0 18:0 19:0 20:0 21:0 22:1 23:1 24:3 25:5 26:3 27:3 28:3 29:1 30:2 31:6 32:3 33:0 34:0 35:0 36:0 37:0 38:0 39:31 
0.01028599830128158 1:0 2:0 3:0 4:4 5:7 6:4 7:4 8:1 9:3 10:12 11:1 12:0 13:0 14:0 15:0 16:0 17:0 18:0 19:0 20:0 21:0 22:0 23:0 24:1 25:1 26:1 27:3 28:5 29:3 30:3 31:3 32:4 33:3 34:6 35:3 36:0 37:0 38:0 39:36 
0.220316084117611 1:0 2:0 3:0 4:0 5:0 6:0 7:4 8:7 9:4 10:4 11:2 12:3 13:10 14:0 15:0 16:0 17:0 18:0 19:0 20:0 21:0 22:0 23:0 24:1 25:1 26:1 27:3 28:6 29:2 30:2 31:3 32:3 33:4 34:5 35:3 36:0 37:0 38:0 39:34 
0.283100273682053 1:0 2:0 3:0 4:0 5:3 6:7 7:4 8:4 9:2 10:3 11:10 12:0 13:0 14:0 15:0 16:0 17:0 18:0 19:0 20:0 21:0 22:0 23:0 24:1 25:2 26:1 27:2 28:4 29:3 30:3 31:3 32:2 33:3 34:6 35:3 36:0 37:0 38:0 39:33 
0.06632317467204484 1:1 2:0 3:0 4:0 5:1 6:4 7:8 8:4 9:4 10:2 11:4 12:12 13:0 14:0 15:0 16:0 17:0 18:0 19:0 20:0 21:0 22:0 23:1 24:1 25:1 26:4 27:7 28:4 29:2 30:3 31:3 32:4 33:6 34:3 35:1 36:0 37:0 38:0 39:40 
0.5 1:0 2:0 3:0 4:0 5:0 6:4 7:7 8:2 9:4 10:2 11:3 12:6 13:0 14:0 15:0 16:0 17:0 18:0 19:0 20:0 21:0 22:0 23:1 24:3 25:4 26:3 27:3 28:2 29:2 30:2 31:5 32:3 33:0 34:0 35:0 36:0 37:0 38:0 39:28 
0.4476343225232062 1:0 2:0 3:0 4:0 5:5 6:7 7:3 8:4 9:2 10:2 11:11 12:1 13:0 14:0 15:0 16:0 17:0 18:0 19:0 20:1 21:1 22:1 23:3 24:4 25:3 26:3 27:3 28:3 29:3 30:6 31:4 32:0 33:0 34:0 35:0 36:0 37:0 38:0 39:35 
0.05532508947193368 1:6 2:1 3:0 4:0 5:0 6:0 7:4 8:6 9:3 10:2 11:2 12:4 13:11 14:0 15:0 16:0 17:0 18:0 19:0 20:0 21:0 22:1 23:1 24:2 25:6 26:4 27:4 28:4 29:3 30:3 31:6 32:2 33:0 34:1 35:2 36:0 37:0 38:0 39:39 
0.5 1:0 2:0 3:0 4:0 5:0 6:4 7:7 8:2 9:4 10:2 11:3 12:9 13:0 14:0 15:0 16:0 17:0 18:0 19:0 20:0 21:0 22:0 23:0 24:0 25:1 26:1 27:2 28:5 29:3 30:3 31:2 32:2 33:3 34:6 35:3 36:0 37:0 38:0 39:31 
0.05139117148271176 1:0 2:0 3:0 4:4 5:7 6:5 7:4 8:1 9:3 10:11 11:0 12:0 13:0 14:0 15:0 16:0 17:0 18:0 19:0 20:0 21:0 22:0 23:0 24:1 25:1 26:1 27:3 28:6 29:2 30:2 31:3 32:3 33:4 34:5 35:3 36:1 37:0 38:0 39:35 
0.1322245282539575 1:0 2:0 3:0 4:0 5:0 6:0 7:5 8:7 9:4 10:4 11:2 12:3 13:12 14:0 15:0 16:0 17:0 18:0 19:0 20:1 21:1 22:1 23:3 24:6 25:3 26:3 27:3 28:3 29:4 30:6 31:3 32:0 33:0 34:0 35:0 36:0 37:0 38:0 39:37 
0.4446997942609474 1:0 2:0 3:0 4:0 5:0 6:0 7:3 8:7 9:4 10:3 11:1 12:3 13:11 14:0 15:0 16:1 17:0 18:1 19:0 20:0 21:0 22:1 23:1 24:2 25:5 26:2 27:3 28:2 29:3 30:4 31:6 32:3 33:0 34:0 35:0 36:0 37:0 38:0 39:33 
-0.5 1:0 2:0 3:0 4:0 5:1 6:2 7:3 8:3 9:2 10:1 11:2 12:1 13:0 14:0 15:0 16:0 17:0 18:0 19:0 20:0 21:0 22:0 23:1 24:1 25:4 26:2 27:3 28:1 29:2 30:0 31:1 32:0 33:0 34:0 35:0 36:0 37:0 38:0 39:15 
-0.5 1:2 2:0 3:0 4:0 5:2 6:3 7:3 8:3 9:6 10:2 11:2 12:3 13:1 14:1 15:0 16:0 17:0 18:0 19:0 20:0 21:0 22:1 23:4 24:3 25:5 26:2 27:3 28:3 29:3 30:1 31:1 32:1 33:1 34:0 35:0 36:0 37:0 38:0 39:28 
-0.1424525359266356 1:0 2:0 3:0 4:0 5:0 6:0 7:2 8:2 9:3 10:3 11:6 12:2 13:4 14:2 15:1 16:0 17:0 18:0 19:0 20:0 21:0 22:0 23:4 24:3 25:3 26:2 27:4 28:3 29:2 30:1 31:1 32:1 33:1 34:0 35:0 36:0 37:0 38:0 39:25 
-0.5 1:0 2:0 3:0 4:0 5:3 6:5 7:4 8:4 9:3 10:4 11:4 12:3 13:1 14:0 15:0 16:0 17:0 18:0 19:0 20:0 21:1 22:4 23:2 24:2 25:3 26:3 27:2 28:3 29:3 30:3 31:3 32:2 33:0 34:0 35:0 36:0 37:0 38:0 39:31 
-0.1428549490927181 1:0 2:0 3:0 4:0 5:2 6:2 7:2 8:4 9:7 10:2 11:3 12:3 13:1 14:0 15:0 16:0 17:0 18:0 19:0 20:0 21:0 22:0 23:0 24:3 25:3 26:3 27:2 28:4 29:3 30:2 31:1 32:1 33:1 34:2 35:1 36:0 37:0 38:0 39:26 
-0.1198300412790045 1:0 2:0 3:0 4:0 5:2 6:2 7:3 8:3 9:6 10:1 11:3 12:2 13:1 14:0 15:0 16:0 17:0 18:0 19:0 20:3 21:2 22:4 23:2 24:4 25:2 26:2 27:1 28:1 29:1 30:1 31:0 32:0 33:0 34:0 35:0 36:0 37:0 38:0 39:23 
-0.5 1:0 2:0 3:0 4:0 5:0 6:0 7:2 8:2 9:2 10:4 11:6 12:1 13:3 14:3 15:1 16:0 17:0 18:0 19:0 20:3 21:3 22:3 23:2 24:4 25:2 26:2 27:1 28:2 29:1 30:1 31:0 32:0 33:0 34:0 35:0 36:0 37:0 38:0 39:24 
-0.103222221835029 1:0 2:0 3:0 4:0 5:1 6:2 7:2 8:3 9:3 10:6 11:2 12:3 13:3 14:1 15:0 16:0 17:0 18:0 19:0 20:0 21:4 22:3 23:4 24:2 25:4 26:3 27:2 28:1 29:1 30:1 31:1 32:0 33:0 34:0 35:0 36:0 37:0 38:0 39:26 
-0.5 1:0 2:0 3:0 4:0 5:2 6:2 7:3 8:3 9:6 10:2 11:3 12:3 13:2 14:1 15:1 16:0 17:0 18:0 19:0 20:0 21:0 22:0 23:0 24:3 25:3 26:4 27:2 28:4 29:3 30:2 31:1 32:1 33:1 34:3 35:1 36:0 37:0 38:0 39:28 
-0.5 1:0 2:0 3:0 4:0 5:1 6:2 7:2 8:3 9:4 10:6 11:2 12:3 13:3 14:1 15:0 16:0 17:0 18:0 19:0 20:0 21:0 22:0 23:0 24:3 25:3 26:5 27:3 28:4 29:3 30:2 31:2 32:0 33:1 34:1 35:0 36:0 37:0 38:0 39:27 
-0.266305113060416 1:1 2:0 3:0 4:0 5:0 6:2 7:2 8:3 9:2 10:6 11:2 12:3 13:3 14:1 15:1 16:0 17:0 18:0 19:0 20:0 21:0 22:0 23:4 24:3 25:4 26:2 27:3 28:3 29:1 30:2 31:1 32:1 33:2 34:0 35:0 36:0 37:0 38:0 39:26 
-0.5 1:2 2:0 3:1 4:2 5:3 6:3 7:3 8:7 9:2 10:3 11:3 12:1 13:0 14:0 15:0 16:0 17:0 18:0 19:0 20:0 21:0 22:5 23:3 24:4 25:3 26:5 27:3 28:2 29:1 30:1 31:1 32:1 33:1 34:0 35:0 36:0 37:0 38:0 39:30 
-0.5 1:0 2:0 3:0 4:2 5:2 6:3 7:3 8:7 9:3 10:3 11:3 12:1 13:0 14:0 15:0 16:0 17:0 18:0 19:0 20:0 21:0 22:0 23:3 24:3 25:4 26:2 27:4 28:3 29:2 30:1 31:1 32:1 33:1 34:2 35:0 36:0 37:0 38:0 39:27 
