svm_type c_svc
kernel_type rbf
gamma 0.0078125
nr_class 2
total_sv 44
rho -0.944908
label 1 0
probA -4.21113
probB 0.300847
nr_sv 24 20
SV
0.5 1:0 2:0 3:1 4:6 5:8 6:1 7:1 8:1 9:2 10:7 11:0 12:0 13:0 14:0 15:0 16:0 17:0 18:0 19:0 20:0 21:0 22:1 23:3 24:7 25:3 26:2 27:3 28:2 29:2 30:2 31:2 32:0 33:0 34:0 35:0 36:0 37:0 38:0 39:27 
0.1285891034691104 1:0 2:0 3:0 4:0 5:6 6:8 7:1 8:1 9:2 10:2 11:5 12:0 13:0 14:0 15:0 16:0 17:0 18:0 19:0 20:0 21:0 22:0 23:0 24:0 25:0 26:0 27:2 28:7 29:3 30:2 31:3 32:3 33:2 34:2 35:1 36:0 37:0 38:0 39:25 
0.1728189676978972 1:0 2:0 3:0 4:0 5:0 6:4 7:9 8:1 9:1 10:2 11:3 12:6 13:0 14:0 15:0 16:0 17:0 18:0 19:0 20:0 21:0 22:0 23:0 24:0 25:3 26:7 27:2 28:2 29:3 30:3 31:2 32:3 33:1 34:0 35:0 36:0 37:0 38:0 39:26 
0.5 1:0 2:0 3:0 4:0 5:0 6:0 7:7 8:8 9:1 10:1 11:2 12:2 13:5 14:0 15:0 16:0 17:0 18:0 19:0 20:0 21:0 22:0 23:0 24:0 25:3 26:6 27:3 28:2 29:3 30:3 31:2 32:2 33:2 34:0 35:0 36:0 37:0 38:0 39:26 
0.1284481836125503 1:3 2:3 3:0 4:0 5:0 6:0 7:5 8:9 9:1 10:1 11:2 12:2 13:7 14:0 15:0 16:0 17:0 18:0 19:0 20:0 21:0 22:0 23:1 24:1 25:1 26:1 27:5 28:6 29:4 30:2 31:3 32:2 33:3 34:2 35:2 36:0 37:0 38:0 39:33 
0.09303822356121769 1:0 2:0 3:0 4:0 5:0 6:6 7:9 8:1 9:1 10:2 11:2 12:5 13:0 14:0 15:0 16:0 17:0 18:0 19:0 20:0 21:0 22:0 23:0 24:4 25:7 26:2 27:3 28:2 29:2 30:2 31:2 32:2 33:0 34:0 35:0 36:0 37:0 38:0 39:26 
0.5 1:0 2:0 3:0 4:5 5:7 6:1 7:1 8:2 9:1 10:7 11:0 12:0 13:0 14:0 15:0 16:0 17:0 18:0 19:0 20:0 21:0 22:0 23:0 24:0 25:3 26:6 27:2 28:2 29:3 30:2 31:2 32:3 33:1 34:0 35:0 36:0 37:0 38:0 39:24 
0.1026792076632492 1:0 2:0 3:0 4:0 5:6 6:7 7:1 8:1 9:2 10:2 11:7 12:0 13:0 14:0 15:0 16:0 17:0 18:0 19:0 20:0 21:0 22:0 23:0 24:0 25:4 26:5 27:2 28:2 29:3 30:2 31:3 32:3 33:2 34:0 35:0 36:0 37:0 38:0 39:26 
0.5 1:0 2:0 3:0 4:1 5:0 6:0 7:5 8:8 9:1 10:1 11:2 12:2 13:5 14:0 15:0 16:0 17:0 18:0 19:1 20:0 21:0 22:0 23:0 24:4 25:6 26:2 27:0 28:1 29:3 30:3 31:3 32:2 33:0 34:0 35:0 36:0 37:0 38:0 39:25 
0.5 1:0 2:0 3:0 4:0 5:7 6:7 7:1 8:1 9:2 10:2 11:7 12:0 13:0 14:0 15:0 16:0 17:0 18:0 19:0 20:0 21:0 22:0 23:4 24:6 25:3 26:1 27:2 28:3 29:3 30:3 31:2 32:0 33:0 34:0 35:0 36:0 37:0 38:0 39:27 
0.3103741065676306 1:0 2:0 3:0 4:6 5:8 6:1 7:1 8:2 9:2 10:5 11:0 12:0 13:0 14:0 15:0 16:0 17:0 18:0 19:0 20:0 21:0 22:0 23:0 24:0 25:4 26:6 27:3 28:1 29:2 30:3 31:2 32:2 33:2 34:0 35:0 36:0 37:0 38:0 39:25 
0.2543394939857854 1:0 2:0 3:0 4:0 5:0 6:5 7:8 8:1 9:1 10:2 11:2 12:7 13:0 14:0 15:0 16:0 17:0 18:0 19:0 20:0 21:0 22:0 23:0 24:0 25:0 26:0 27:4 28:6 29:3 30:2 31:3 32:3 33:3 34:2 35:0 36:0 37:0 38:0 39:26 
0.5 1:0 2:0 3:0 4:0 5:0 6:0 7:5 8:6 9:1 10:1 11:2 12:2 13:7 14:0 15:0 16:0 17:0 18:0 19:0 20:0 21:0 22:0 23:0 24:3 25:7 26:2 27:3 28:3 29:1 30:3 31:2 32:0 33:0 34:0 35:0 36:0 37:0 38:0 39:24 
0.3018175946314587 1:0 2:0 3:0 4:0 5:0 6:0 7:7 8:9 9:0 10:1 11:2 12:2 13:5 14:0 15:0 16:0 17:0 18:0 19:0 20:0 21:0 22:0 23:0 24:4 25:5 26:2 27:2 28:3 29:3 30:3 31:2 32:2 33:0 34:0 35:0 36:0 37:0 38:0 39:26 
0.2823384350940951 1:0 2:0 3:0 4:0 5:5 6:8 7:0 8:1 9:1 10:2 11:5 12:1 13:0 14:0 15:0 16:0 17:0 18:0 19:0 20:0 21:0 22:0 23:0 24:0 25:3 26:6 27:2 28:3 29:4 30:2 31:2 32:1 33:0 34:0 35:0 36:0 37:0 38:0 39:23 
0.5 1:0 2:0 3:0 4:0 5:4 6:8 7:1 8:1 9:2 10:2 11:5 12:0 13:0 14:0 15:0 16:0 17:0 18:0 19:0 20:0 21:0 22:0 23:3 24:6 25:3 26:2 27:2 28:1 29:2 30:2 31:2 32:0 33:0 34:0 35:0 36:0 37:0 38:0 39:23 
0.1707745618574905 1:4 2:3 3:0 4:0 5:0 6:6 7:8 8:1 9:1 10:2 11:3 12:7 13:0 14:0 15:0 16:0 17:0 18:0 19:0 20:0 21:0 22:1 23:4 24:6 25:2 26:2 27:4 28:4 29:5 30:3 31:3 32:1 33:0 34:0 35:0 36:0 37:0 38:0 39:35 
0.04001792066839667 1:0 2:0 3:0 4:0 5:0 6:0 7:6 8:8 9:1 10:1 11:2 12:2 13:7 14:0 15:0 16:0 17:0 18:0 19:0 20:0 21:0 22:0 23:0 24:0 25:4 26:7 27:3 28:3 29:3 30:2 31:3 32:2 33:0 34:0 35:0 36:0 37:0 38:0 39:27 
0.5 1:0 2:0 3:0 4:0 5:5 6:7 7:1 8:1 9:2 10:1 11:5 12:0 13:0 14:0 15:0 16:0 17:0 18:0 19:0 20:0 21:0 22:0 23:0 24:0 25:1 26:4 27:4 28:3 29:1 30:1 31:3 32:1 33:3 34:1 35:0 36:0 37:0 38:0 39:22 
0.4146892772707979 1:0 2:0 3:0 4:0 5:0 6:0 7:6 8:9 9:1 10:1 11:2 12:2 13:6 14:0 15:0 16:0 17:0 18:0 19:0 20:0 21:0 22:0 23:0 24:0 25:0 26:0 27:4 28:6 29:3 30:2 31:2 32:3 33:3 34:2 35:2 36:0 37:0 38:0 39:27 
0.3165360044330212 1:0 2:0 3:0 4:0 5:5 6:8 7:1 8:1 9:2 10:3 11:4 12:0 13:0 14:0 15:0 16:0 17:0 18:0 19:0 20:0 21:0 22:0 23:0 24:0 25:1 26:4 27:6 28:2 29:3 30:2 31:2 32:0 33:3 34:1 35:0 36:0 37:0 38:0 39:24 
0.03158067539973732 1:0 2:0 3:0 4:0 5:0 6:6 7:9 8:1 9:1 10:2 11:2 12:5 13:0 14:0 15:0 16:0 17:0 18:0 19:0 20:0 21:0 22:0 23:0 24:0 25:0 26:4 27:6 28:3 29:3 30:1 31:2 32:3 33:2 34:2 35:0 36:0 37:0 38:0 39:26 
0.5 1:0 2:0 3:0 4:0 5:0 6:5 7:7 8:1 9:1 10:2 11:2 12:7 13:1 14:0 15:0 16:0 17:0 18:0 19:0 20:0 21:0 22:0 23:0 24:3 25:6 26:3 27:2 28:3 29:3 30:2 31:2 32:2 33:0 34:0 35:0 36:0 37:0 38:0 39:26 
0.5 1:0 2:0 3:0 4:0 5:0 6:6 7:8 8:2 9:1 10:1 11:2 12:7 13:0 14:0 15:0 16:0 17:0 18:0 19:0 20:0 21:0 22:0 23:4 24:6 25:3 26:3 27:2 28:2 29:3 30:3 31:1 32:0 33:0 34:0 35:0 36:0 37:0 38:0 39:27 
-0.5 1:0 2:0 3:0 4:0 5:1 6:2 7:3 8:3 9:2 10:1 11:2 12:1 13:0 14:0 15:0 16:0 17:0 18:0 19:0 20:0 21:0 22:0 23:1 24:1 25:4 26:2 27:3 28:1 29:2 30:0 31:1 32:0 33:0 34:0 35:0 36:0 37:0 38:0 39:15 
-0.4917335070403343 1:2 2:0 3:0 4:0 5:2 6:3 7:3 8:3 9:6 10:2 11:2 12:3 13:1 14:1 15:0 16:0 17:0 18:0 19:0 20:0 21:0 22:1 23:4 24:3 25:5 26:2 27:3 28:3 29:3 30:1 31:1 32:1 33:1 34:0 35:0 36:0 37:0 38:0 39:28 
-0.139909378587376 1:0 2:0 3:0 4:0 5:0 6:0 7:2 8:2 9:3 10:3 11:6 12:2 13:4 14:2 15:1 16:0 17:0 18:0 19:0 20:0 21:0 22:0 23:4 24:3 25:3 26:2 27:4 28:3 29:2 30:1 31:1 32:1 33:1 34:0 35:0 36:0 37:0 38:0 39:25 
-0.5 1:0 2:0 3:0 4:0 5:3 6:5 7:4 8:4 9:3 10:4 11:4 12:3 13:1 14:0 15:0 16:0 17:0 18:0 19:0 20:0 21:1 22:4 23:2 24:2 25:3 26:3 27:2 28:3 29:3 30:3 31:3 32:2 33:0 34:0 35:0 36:0 37:0 38:0 39:31 
-0.5 1:0 2:0 3:0 4:1 5:2 6:3 7:2 8:6 9:2 10:3 11:3 12:1 13:0 14:0 15:0 16:0 17:0 18:0 19:0 20:0 21:0 22:0 23:0 24:2 25:3 26:4 27:2 28:4 29:2 30:2 31:1 32:1 33:1 34:1 35:0 36:0 37:0 38:0 39:23 
-0.2685943492652048 1:0 2:0 3:0 4:2 5:2 6:3 7:3 8:5 9:3 10:3 11:2 12:1 13:0 14:0 15:0 16:0 17:0 18:0 19:0 20:3 21:4 22:3 23:2 24:3 25:2 26:2 27:1 28:2 29:1 30:1 31:0 32:0 33:0 34:0 35:0 36:0 37:0 38:0 39:24 
-0.2705178068034256 1:0 2:0 3:0 4:0 5:2 6:2 7:3 8:3 9:6 10:1 11:3 12:2 13:1 14:0 15:0 16:0 17:0 18:0 19:0 20:3 21:2 22:4 23:2 24:4 25:2 26:2 27:1 28:1 29:1 30:1 31:0 32:0 33:0 34:0 35:0 36:0 37:0 38:0 39:23 
-0.2117127895887992 1:0 2:0 3:0 4:0 5:2 6:2 7:3 8:3 9:6 10:1 11:3 12:2 13:1 14:0 15:0 16:0 17:0 18:0 19:0 20:0 21:0 22:0 23:3 24:2 25:4 26:2 27:4 28:2 29:2 30:1 31:1 32:1 33:1 34:0 35:0 36:0 37:0 38:0 39:23 
-0.3453784438025705 1:0 2:0 3:0 4:0 5:0 6:0 7:2 8:2 9:2 10:4 11:6 12:1 13:3 14:3 15:1 16:0 17:0 18:0 19:0 20:3 21:3 22:3 23:2 24:4 25:2 26:2 27:1 28:2 29:1 30:1 31:0 32:0 33:0 34:0 35:0 36:0 37:0 38:0 39:24 
-0.5 1:0 2:0 3:0 4:2 5:2 6:3 7:3 8:6 9:2 10:2 11:3 12:1 13:0 14:0 15:0 16:0 17:0 18:0 19:0 20:0 21:0 22:0 23:0 24:3 25:3 26:3 27:2 28:4 29:3 30:2 31:1 32:1 33:1 34:1 35:0 36:0 37:0 38:0 39:24 
-0.3075568627064838 1:0 2:0 3:0 4:0 5:1 6:1 7:2 8:2 9:3 10:2 11:6 12:2 13:2 14:2 15:0 16:0 17:0 18:0 19:0 20:0 21:0 22:2 23:3 24:5 25:1 26:4 27:2 28:2 29:1 30:1 31:1 32:1 33:0 34:0 35:0 36:0 37:0 38:0 39:23 
-0.5 1:0 2:0 3:0 4:0 5:2 6:2 7:3 8:3 9:6 10:2 11:3 12:3 13:2 14:1 15:1 16:0 17:0 18:0 19:0 20:0 21:0 22:0 23:0 24:3 25:3 26:4 27:2 28:4 29:3 30:2 31:1 32:1 33:1 34:3 35:1 36:0 37:0 38:0 39:28 
-0.3292375387095251 1:0 2:0 3:0 4:0 5:0 6:2 7:2 8:3 9:3 10:5 11:2 12:3 13:3 14:1 15:0 16:0 17:0 18:0 19:0 20:0 21:0 22:0 23:0 24:3 25:3 26:4 27:2 28:4 29:3 30:2 31:1 32:1 33:1 34:0 35:0 36:0 37:0 38:0 39:24 
-0.5 1:0 2:0 3:0 4:0 5:1 6:2 7:2 8:3 9:4 10:6 11:2 12:3 13:3 14:1 15:0 16:0 17:0 18:0 19:0 20:0 21:0 22:0 23:0 24:3 25:3 26:5 27:3 28:4 29:3 30:2 31:2 32:0 33:1 34:1 35:0 36:0 37:0 38:0 39:27 
-0.2989671404396151 1:0 2:0 3:0 4:0 5:0 6:2 7:1 8:3 9:2 10:6 11:2 12:3 13:3 14:1 15:0 16:0 17:0 18:0 19:0 20:0 21:3 22:3 23:3 24:2 25:4 26:3 27:1 28:1 29:1 30:1 31:1 32:0 33:0 34:0 35:0 36:0 37:0 38:0 39:23 
-0.351632719772683 1:1 2:0 3:0 4:0 5:0 6:2 7:2 8:3 9:2 10:6 11:2 12:3 13:3 14:1 15:1 16:0 17:0 18:0 19:0 20:0 21:0 22:0 23:4 24:3 25:4 26:2 27:3 28:3 29:1 30:2 31:1 32:1 33:2 34:0 35:0 36:0 37:0 38:0 39:26 
-0.5 1:2 2:0 3:1 4:2 5:3 6:3 7:3 8:7 9:2 10:3 11:3 12:1 13:0 14:0 15:0 16:0 17:0 18:0 19:0 20:0 21:0 22:5 23:3 24:4 25:3 26:5 27:3 28:2 29:1 30:1 31:1 32:1 33:1 34:0 35:0 36:0 37:0 38:0 39:30 
-0.4694917532635471 1:0 2:0 3:0 4:2 5:2 6:3 7:3 8:7 9:3 10:3 11:3 12:1 13:0 14:0 15:0 16:0 17:0 18:0 19:0 20:0 21:0 22:0 23:3 24:3 25:4 26:2 27:4 28:3 29:2 30:1 31:1 32:1 33:1 34:2 35:0 36:0 37:0 38:0 39:27 
-0.2633094659328738 1:0 2:0 3:0 4:0 5:0 6:0 7:2 8:2 9:3 10:3 11:5 12:2 13:3 14:3 15:1 16:0 17:0 18:0 19:0 20:0 21:0 22:0 23:0 24:3 25:3 26:4 27:2 28:4 29:3 30:2 31:1 32:0 33:1 34:1 35:0 36:0 37:0 38:0 39:24 
-0.5 1:0 2:0 3:0 4:2 5:3 6:2 7:3 8:4 9:2 10:3 11:3 12:1 13:0 14:0 15:0 16:0 17:0 18:0 19:0 20:0 21:0 22:0 23:4 24:3 25:4 26:0 27:4 28:4 29:2 30:1 31:0 32:1 33:0 34:0 35:0 36:0 37:0 38:0 39:23 
