svm_type c_svc
kernel_type rbf
gamma 0.0078125
nr_class 2
total_sv 19
rho -0.394173
label 1 0
probA -3.49211
probB 0.221819
nr_sv 11 8
SV
0.1319368990668707 1:0 2:0 3:0 4:0 5:4 6:6 7:5 8:6 9:6 10:5 11:2 12:0 13:0 14:0 15:0 16:0 17:0 18:0 19:0 20:0 21:0 22:0 23:0 24:0 25:3 26:6 27:2 28:4 29:5 30:3 31:4 32:4 33:3 34:0 35:0 36:0 37:0 38:0 39:34 
0.9831774690684772 1:0 2:0 3:0 4:0 5:0 6:0 7:3 8:6 9:4 10:6 11:6 12:3 13:1 14:0 15:0 16:0 17:0 18:0 19:0 20:0 21:0 22:0 23:0 24:0 25:0 26:3 27:5 28:2 29:3 30:5 31:1 32:4 33:4 34:2 35:0 36:0 37:0 38:0 39:29 
0.3437773344908011 1:0 2:0 3:0 4:0 5:0 6:4 7:6 8:4 9:6 10:6 11:6 12:2 13:0 14:0 15:0 16:0 17:0 18:0 19:0 20:0 21:0 22:0 23:4 24:6 25:3 26:3 27:4 28:3 29:3 30:5 31:3 32:0 33:0 34:0 35:0 36:0 37:0 38:0 39:34 
0.9302971860919452 1:0 2:0 3:0 4:0 5:2 6:6 7:6 8:6 9:6 10:5 11:2 12:0 13:0 14:0 15:0 16:0 17:0 18:0 19:0 20:0 21:0 22:0 23:4 24:6 25:2 26:3 27:5 28:3 29:3 30:4 31:3 32:0 33:0 34:0 35:0 36:0 37:0 38:0 39:33 
0.9900532769604775 1:0 2:0 3:0 4:0 5:3 6:6 7:6 8:5 9:4 10:4 11:2 12:0 13:0 14:0 15:0 16:0 17:0 18:0 19:0 20:0 21:0 22:0 23:0 24:0 25:0 26:3 27:4 28:2 29:3 30:4 31:3 32:4 33:5 34:2 35:0 36:0 37:0 38:0 39:30 
0.4533554327792024 1:0 2:0 3:0 4:3 5:7 6:6 7:6 8:6 9:6 10:2 11:0 12:0 13:0 14:0 15:0 16:0 17:0 18:0 19:0 20:0 21:0 22:0 23:0 24:4 25:6 26:3 27:3 28:5 29:3 30:4 31:5 32:3 33:0 34:0 35:0 36:0 37:0 38:0 39:36 
0.5649903028091385 1:0 2:0 3:0 4:0 5:0 6:0 7:3 8:6 9:6 10:5 11:5 12:5 13:1 14:0 15:0 16:0 17:0 18:0 19:0 20:0 21:0 22:0 23:0 24:0 25:0 26:0 27:3 28:5 29:3 30:4 31:2 32:2 33:4 34:5 35:3 36:0 37:0 38:0 39:31 
0.3759696803861559 1:9 2:1 3:0 4:0 5:0 6:3 7:6 8:6 9:6 10:5 11:6 12:1 13:0 14:0 15:0 16:0 17:0 18:0 19:0 20:0 21:0 22:0 23:0 24:0 25:1 26:1 27:4 28:8 29:2 30:5 31:6 32:3 33:4 34:6 35:3 36:0 37:0 38:0 39:43 
0.7629860451175199 1:0 2:0 3:0 4:0 5:0 6:5 7:6 8:6 9:5 10:5 11:5 12:1 13:0 14:0 15:0 16:0 17:0 18:0 19:0 20:0 21:0 22:0 23:0 24:3 25:6 26:3 27:4 28:4 29:3 30:2 31:5 32:3 33:0 34:0 35:0 36:0 37:0 38:0 39:33 
0.009060220412894466 1:0 2:0 3:0 4:0 5:0 6:3 7:7 8:5 9:4 10:6 11:6 12:1 13:0 14:0 15:0 16:0 17:0 18:0 19:0 20:0 21:0 22:0 23:0 24:0 25:3 26:5 27:3 28:3 29:4 30:2 31:4 32:5 33:3 34:0 35:0 36:0 37:0 38:0 39:32 
0.5136460299318908 1:0 2:0 3:0 4:0 5:0 6:0 7:3 8:7 9:5 10:6 11:6 12:6 13:2 14:0 15:0 16:0 17:0 18:0 19:0 20:0 21:0 22:0 23:0 24:3 25:6 26:3 27:3 28:5 29:3 30:4 31:5 32:3 33:0 34:0 35:0 36:0 37:0 38:0 39:35 
-0.8949584774398596 1:0 2:0 3:0 4:0 5:1 6:2 7:3 8:3 9:2 10:1 11:2 12:1 13:0 14:0 15:0 16:0 17:0 18:0 19:0 20:0 21:0 22:0 23:1 24:1 25:4 26:2 27:3 28:1 29:2 30:0 31:1 32:0 33:0 34:0 35:0 36:0 37:0 38:0 39:15 
-0.09008471885974739 1:0 2:0 3:0 4:0 5:0 6:0 7:2 8:2 9:3 10:3 11:6 12:2 13:4 14:2 15:1 16:0 17:0 18:0 19:0 20:0 21:0 22:0 23:4 24:3 25:3 26:2 27:4 28:3 29:2 30:1 31:1 32:1 33:1 34:0 35:0 36:0 37:0 38:0 39:25 
-2 1:0 2:0 3:0 4:0 5:3 6:5 7:4 8:4 9:3 10:4 11:4 12:3 13:1 14:0 15:0 16:0 17:0 18:0 19:0 20:0 21:1 22:4 23:2 24:2 25:3 26:3 27:2 28:3 29:3 30:3 31:3 32:2 33:0 34:0 35:0 36:0 37:0 38:0 39:31 
-0.2076172290796256 1:0 2:0 3:0 4:0 5:0 6:0 7:2 8:2 9:2 10:4 11:6 12:1 13:3 14:3 15:1 16:0 17:0 18:0 19:0 20:3 21:3 22:3 23:2 24:4 25:2 26:2 27:1 28:2 29:1 30:1 31:0 32:0 33:0 34:0 35:0 36:0 37:0 38:0 39:24 
-0.9474963887815224 1:0 2:0 3:0 4:0 5:2 6:2 7:3 8:3 9:6 10:2 11:3 12:3 13:2 14:1 15:1 16:0 17:0 18:0 19:0 20:0 21:0 22:0 23:0 24:3 25:3 26:4 27:2 28:4 29:3 30:2 31:1 32:1 33:1 34:3 35:1 36:0 37:0 38:0 39:28 
-0.5604257981859994 1:0 2:0 3:0 4:0 5:1 6:2 7:2 8:3 9:4 10:6 11:2 12:3 13:3 14:1 15:0 16:0 17:0 18:0 19:0 20:0 21:0 22:0 23:0 24:3 25:3 26:5 27:3 28:4 29:3 30:2 31:2 32:0 33:1 34:1 35:0 36:0 37:0 38:0 39:27 
-0.4554118382819544 1:2 2:0 3:1 4:2 5:3 6:3 7:3 8:7 9:2 10:3 11:3 12:1 13:0 14:0 15:0 16:0 17:0 18:0 19:0 20:0 21:0 22:5 23:3 24:4 25:3 26:5 27:3 28:2 29:1 30:1 31:1 32:1 33:1 34:0 35:0 36:0 37:0 38:0 39:30 
-0.9032554264866652 1:0 2:0 3:0 4:2 5:2 6:3 7:3 8:7 9:3 10:3 11:3 12:1 13:0 14:0 15:0 16:0 17:0 18:0 19:0 20:0 21:0 22:0 23:3 24:3 25:4 26:2 27:4 28:3 29:2 30:1 31:1 32:1 33:1 34:2 35:0 36:0 37:0 38:0 39:27 
