svm_type c_svc
kernel_type rbf
gamma 0.00012207
nr_class 2
total_sv 36
rho 0.642688
label 0 1
probA -4.04089
probB 0.0731179
nr_sv 18 18
SV
8 1:0 2:0 3:0 4:2 5:1 6:3 7:2 8:6 9:3 10:3 11:3 12:1 13:0 14:0 15:0 16:0 17:0 18:0 19:0 20:0 21:0 22:0 23:3 24:2 25:4 26:2 27:4 28:2 29:2 30:1 31:1 32:1 33:1 34:1 35:0 36:0 37:0 38:0 39:24 
8 1:2 2:0 3:0 4:0 5:2 6:3 7:3 8:3 9:6 10:2 11:2 12:3 13:1 14:1 15:0 16:0 17:0 18:0 19:0 20:0 21:0 22:1 23:4 24:3 25:5 26:2 27:3 28:3 29:3 30:1 31:1 32:1 33:1 34:0 35:0 36:0 37:0 38:0 39:28 
8 1:0 2:0 3:0 4:0 5:3 6:5 7:4 8:4 9:3 10:4 11:4 12:3 13:1 14:0 15:0 16:0 17:0 18:0 19:0 20:0 21:1 22:4 23:2 24:2 25:3 26:3 27:2 28:3 29:3 30:3 31:3 32:2 33:0 34:0 35:0 36:0 37:0 38:0 39:31 
8 1:0 2:0 3:0 4:0 5:2 6:2 7:2 8:4 9:7 10:2 11:3 12:3 13:1 14:0 15:0 16:0 17:0 18:0 19:0 20:0 21:0 22:0 23:0 24:3 25:3 26:3 27:2 28:4 29:3 30:2 31:1 32:1 33:1 34:2 35:1 36:0 37:0 38:0 39:26 
8 1:0 2:0 3:0 4:1 5:2 6:3 7:2 8:6 9:2 10:3 11:3 12:1 13:0 14:0 15:0 16:0 17:0 18:0 19:0 20:0 21:0 22:0 23:0 24:2 25:3 26:4 27:2 28:4 29:2 30:2 31:1 32:1 33:1 34:1 35:0 36:0 37:0 38:0 39:23 
8 1:0 2:0 3:0 4:0 5:2 6:2 7:2 8:3 9:6 10:2 11:3 12:3 13:1 14:0 15:0 16:0 17:0 18:0 19:0 20:0 21:0 22:0 23:0 24:3 25:3 26:3 27:2 28:4 29:3 30:2 31:1 32:1 33:1 34:1 35:0 36:0 37:0 38:0 39:24 
1.044025103656237 1:0 2:0 3:0 4:0 5:2 6:2 7:3 8:3 9:6 10:1 11:3 12:2 13:1 14:0 15:0 16:0 17:0 18:0 19:0 20:0 21:0 22:0 23:3 24:2 25:4 26:2 27:4 28:2 29:2 30:1 31:1 32:1 33:1 34:0 35:0 36:0 37:0 38:0 39:23 
4.93366441018556 1:0 2:0 3:0 4:0 5:1 6:2 7:2 8:3 9:3 10:6 11:2 12:3 13:3 14:1 15:0 16:0 17:0 18:0 19:0 20:0 21:4 22:3 23:4 24:2 25:4 26:3 27:2 28:1 29:1 30:1 31:1 32:0 33:0 34:0 35:0 36:0 37:0 38:0 39:26 
8 1:0 2:0 3:0 4:2 5:2 6:3 7:3 8:6 9:2 10:2 11:3 12:1 13:0 14:0 15:0 16:0 17:0 18:0 19:0 20:0 21:0 22:0 23:0 24:3 25:3 26:3 27:2 28:4 29:3 30:2 31:1 32:1 33:1 34:1 35:0 36:0 37:0 38:0 39:24 
8 1:0 2:0 3:0 4:0 5:2 6:2 7:3 8:3 9:6 10:2 11:3 12:3 13:2 14:1 15:1 16:0 17:0 18:0 19:0 20:0 21:0 22:0 23:0 24:3 25:3 26:4 27:2 28:4 29:3 30:2 31:1 32:1 33:1 34:3 35:1 36:0 37:0 38:0 39:28 
8 1:0 2:0 3:0 4:0 5:0 6:2 7:2 8:3 9:3 10:5 11:2 12:3 13:3 14:1 15:0 16:0 17:0 18:0 19:0 20:0 21:0 22:0 23:0 24:3 25:3 26:4 27:2 28:4 29:3 30:2 31:1 32:1 33:1 34:0 35:0 36:0 37:0 38:0 39:24 
8 1:0 2:0 3:0 4:0 5:1 6:2 7:2 8:3 9:4 10:6 11:2 12:3 13:3 14:1 15:0 16:0 17:0 18:0 19:0 20:0 21:0 22:0 23:0 24:3 25:3 26:5 27:3 28:4 29:3 30:2 31:2 32:0 33:1 34:1 35:0 36:0 37:0 38:0 39:27 
8 1:0 2:0 3:0 4:0 5:0 6:2 7:3 8:3 9:3 10:6 11:2 12:2 13:3 14:1 15:1 16:0 17:0 18:0 19:0 20:0 21:0 22:1 23:3 24:3 25:4 26:3 27:3 28:3 29:2 30:1 31:1 32:1 33:1 34:0 35:0 36:0 37:0 38:0 39:26 
8 1:0 2:0 3:0 4:0 5:2 6:2 7:2 8:4 9:6 10:2 11:4 12:2 13:0 14:0 15:0 16:0 17:0 18:0 19:0 20:0 21:0 22:0 23:0 24:2 25:3 26:3 27:2 28:4 29:3 30:3 31:1 32:1 33:1 34:1 35:0 36:0 37:0 38:0 39:24 
8 1:1 2:0 3:0 4:0 5:0 6:2 7:2 8:3 9:2 10:6 11:2 12:3 13:3 14:1 15:1 16:0 17:0 18:0 19:0 20:0 21:0 22:0 23:4 24:3 25:4 26:2 27:3 28:3 29:1 30:2 31:1 32:1 33:2 34:0 35:0 36:0 37:0 38:0 39:26 
8 1:2 2:0 3:1 4:2 5:3 6:3 7:3 8:7 9:2 10:3 11:3 12:1 13:0 14:0 15:0 16:0 17:0 18:0 19:0 20:0 21:0 22:5 23:3 24:4 25:3 26:5 27:3 28:2 29:1 30:1 31:1 32:1 33:1 34:0 35:0 36:0 37:0 38:0 39:30 
8 1:0 2:0 3:0 4:2 5:2 6:3 7:3 8:7 9:3 10:3 11:3 12:1 13:0 14:0 15:0 16:0 17:0 18:0 19:0 20:0 21:0 22:0 23:3 24:3 25:4 26:2 27:4 28:3 29:2 30:1 31:1 32:1 33:1 34:2 35:0 36:0 37:0 38:0 39:27 
8 1:0 2:0 3:0 4:0 5:2 6:2 7:2 8:3 9:6 10:2 11:3 12:3 13:1 14:0 15:0 16:0 17:0 18:0 19:0 20:0 21:0 22:0 23:3 24:3 25:4 26:1 27:4 28:3 29:2 30:1 31:1 32:1 33:1 34:0 35:0 36:0 37:0 38:0 39:24 
-8 1:0 2:0 3:0 4:3 5:5 6:5 7:5 8:5 9:6 10:0 11:0 12:0 13:0 14:0 15:0 16:0 17:0 18:0 19:0 20:0 21:0 22:0 23:0 24:0 25:3 26:4 27:2 28:2 29:4 30:3 31:2 32:6 33:3 34:0 35:0 36:0 37:0 38:0 39:29 
-8 1:0 2:0 3:0 4:0 5:0 6:0 7:3 8:6 9:4 10:4 11:3 12:6 13:1 14:0 15:0 16:0 17:0 18:0 19:0 20:0 21:0 22:0 23:0 24:0 25:3 26:3 27:2 28:1 29:5 30:3 31:2 32:5 33:3 34:0 35:0 36:0 37:0 38:0 39:27 
-6.420818496559491 1:0 2:0 3:0 4:0 5:4 6:4 7:5 8:4 9:4 10:8 11:1 12:0 13:0 14:0 15:0 16:0 17:0 18:0 19:0 20:0 21:0 22:0 23:0 24:0 25:2 26:4 27:3 28:3 29:4 30:3 31:2 32:5 33:4 34:0 35:0 36:0 37:0 38:0 39:30 
-8 1:0 2:0 3:0 4:0 5:0 6:3 7:6 8:3 9:5 10:4 11:8 12:1 13:0 14:0 15:0 16:0 17:0 18:0 19:0 20:0 21:0 22:0 23:3 24:5 25:2 26:3 27:4 28:3 29:2 30:5 31:3 32:0 33:0 34:0 35:0 36:0 37:0 38:0 39:30 
-8 1:0 2:0 3:0 4:0 5:0 6:0 7:4 8:6 9:5 10:5 11:5 12:6 13:1 14:0 15:0 16:0 17:0 18:0 19:0 20:0 21:0 22:0 23:0 24:0 25:0 26:0 27:3 28:5 29:3 30:1 31:4 32:4 33:2 34:6 35:4 36:0 37:0 38:0 39:32 
-8 1:0 2:0 3:0 4:0 5:0 6:0 7:2 8:6 9:5 10:5 11:5 12:6 13:1 14:0 15:0 16:0 17:0 18:0 19:0 20:0 21:0 22:0 23:0 24:0 25:3 26:4 27:2 28:4 29:5 30:3 31:2 32:3 33:4 34:0 35:0 36:0 37:0 38:0 39:30 
-8 1:0 2:0 3:0 4:3 5:4 6:5 7:5 8:5 9:7 10:1 11:0 12:0 13:0 14:0 15:0 16:0 17:0 18:0 19:0 20:0 21:0 22:0 23:3 24:4 25:3 26:3 27:4 28:3 29:3 30:5 31:2 32:0 33:0 34:0 35:0 36:0 37:0 38:0 39:30 
-8 1:0 2:0 3:0 4:0 5:4 6:3 7:4 8:5 9:5 10:6 11:1 12:0 13:0 14:0 15:0 16:0 17:0 18:0 19:0 20:0 21:0 22:0 23:0 24:0 25:3 26:5 27:2 28:3 29:4 30:2 31:1 32:5 33:3 34:0 35:0 36:0 37:0 38:0 39:28 
-8 1:0 2:0 3:0 4:4 5:6 6:5 7:5 8:5 9:5 10:1 11:0 12:0 13:0 14:0 15:0 16:0 17:0 18:0 19:0 20:0 21:0 22:0 23:0 24:3 25:5 26:3 27:3 28:4 29:3 30:1 31:6 32:3 33:0 34:0 35:0 36:0 37:0 38:0 39:31 
-8 1:0 2:0 3:0 4:0 5:2 6:6 7:3 8:5 9:5 10:7 11:0 12:0 13:0 14:0 15:0 16:0 17:0 18:0 19:0 20:0 21:0 22:0 23:0 24:2 25:5 26:2 27:3 28:5 29:3 30:1 31:6 32:1 33:0 34:0 35:0 36:0 37:0 38:0 39:28 
-1.812719310006011 1:0 2:0 3:0 4:0 5:0 6:0 7:3 8:5 9:5 10:5 11:5 12:8 13:2 14:0 15:0 16:0 17:0 18:0 19:0 20:0 21:0 22:0 23:0 24:0 25:0 26:0 27:3 28:5 29:3 30:3 31:5 32:3 33:2 34:5 35:4 36:0 37:0 38:0 39:33 
-8 1:0 2:0 3:2 4:4 5:5 6:5 7:3 8:5 9:6 10:1 11:0 12:0 13:0 14:0 15:0 16:0 17:0 18:0 19:0 20:0 21:0 22:0 23:0 24:0 25:0 26:0 27:3 28:5 29:3 30:2 31:4 32:3 33:1 34:6 35:4 36:0 37:0 38:0 39:31 
-5.744151707276294 1:0 2:0 3:0 4:0 5:0 6:4 7:5 8:5 9:6 10:4 11:7 12:1 13:0 14:0 15:0 16:0 17:0 18:0 19:0 20:0 21:0 22:0 23:0 24:3 25:4 26:4 27:3 28:4 29:3 30:2 31:6 32:3 33:0 34:0 35:0 36:0 37:0 38:0 39:32 
-8 1:0 2:0 3:0 4:0 5:0 6:3 7:6 8:5 9:4 10:4 11:6 12:1 13:0 14:0 15:0 16:0 17:0 18:0 19:0 20:0 21:0 22:0 23:0 24:0 25:3 26:4 27:2 28:3 29:4 30:2 31:1 32:6 33:4 34:0 35:0 36:0 37:0 38:0 39:29 
-8 1:0 2:0 3:0 4:0 5:0 6:4 7:5 8:5 9:4 10:3 11:8 12:1 13:0 14:0 15:0 16:0 17:0 18:0 19:0 20:0 21:0 22:0 23:4 24:4 25:2 26:3 27:5 28:3 29:2 30:4 31:3 32:0 33:0 34:0 35:0 36:0 37:0 38:0 39:30 
-8 1:0 2:0 3:0 4:0 5:3 6:5 7:5 8:5 9:5 10:8 11:1 12:0 13:0 14:0 15:0 16:0 17:0 18:0 19:0 20:0 21:0 22:0 23:3 24:5 25:2 26:3 27:5 28:2 29:2 30:6 31:4 32:0 33:0 34:0 35:0 36:0 37:0 38:0 39:32 
-8 1:0 2:0 3:0 4:0 5:0 6:0 7:3 8:6 9:4 10:5 11:4 12:6 13:0 14:0 15:0 16:0 17:0 18:0 19:0 20:0 21:0 22:0 23:0 24:0 25:3 26:4 27:2 28:3 29:4 30:3 31:2 32:5 33:2 34:0 35:0 36:0 37:0 38:0 39:28 
-8 1:0 2:0 3:0 4:0 5:3 6:6 7:5 8:4 9:4 10:8 11:1 12:0 13:0 14:0 15:0 16:0 17:0 18:0 19:0 20:0 21:0 22:0 23:3 24:4 25:2 26:3 27:5 28:3 29:2 30:5 31:4 32:0 33:0 34:0 35:0 36:0 37:0 38:0 39:31 
