svm_type c_svc
kernel_type rbf
gamma 0.0078125
nr_class 2
total_sv 68
rho 0.166263
label 1 0
probA -9.41785
probB 0.102825
nr_sv 35 33
SV
0.125 1:0 2:0 3:0 4:0 5:5 6:7 7:4 8:3 9:3 10:4 11:9 12:0 13:0 14:0 15:0 16:0 17:0 18:0 19:0 20:0 21:0 22:0 23:0 24:0 25:0 26:4 27:7 28:3 29:3 30:3 31:3 32:4 33:6 34:2 35:0 36:0 37:0 38:0 39:35 
0.125 1:0 2:0 3:0 4:0 5:0 6:3 7:5 8:5 9:4 10:3 11:3 12:10 13:0 14:0 15:0 16:0 17:0 18:0 19:0 20:0 21:0 22:0 23:4 24:5 25:2 26:1 27:3 28:3 29:4 30:6 31:3 32:1 33:1 34:0 35:0 36:0 37:0 38:0 39:33 
0.125 1:0 2:0 3:0 4:0 5:0 6:0 7:4 8:7 9:3 10:4 11:2 12:3 13:11 14:0 15:0 16:0 17:0 18:0 19:0 20:0 21:0 22:0 23:4 24:5 25:3 26:3 27:3 28:2 29:4 30:6 31:2 32:1 33:1 34:0 35:0 36:0 37:0 38:0 39:34 
0.125 1:0 2:0 3:0 4:0 5:5 6:7 7:4 8:5 9:2 10:4 11:11 12:0 13:0 14:0 15:0 16:0 17:0 18:0 19:0 20:0 21:0 22:0 23:4 24:6 25:5 26:3 27:3 28:3 29:4 30:5 31:3 32:1 33:1 34:0 35:0 36:0 37:0 38:0 39:38 
0.06722881931638988 1:0 2:0 3:0 4:0 5:3 6:7 7:4 8:3 9:2 10:3 11:10 12:0 13:0 14:0 15:0 16:0 17:0 18:0 19:0 20:0 21:0 22:0 23:0 24:0 25:4 26:5 27:4 28:3 29:2 30:3 31:2 32:5 33:2 34:1 35:1 36:0 37:0 38:0 39:32 
0.125 1:0 2:0 3:0 4:4 5:6 6:4 7:4 8:3 9:4 10:11 11:0 12:0 13:0 14:0 15:0 16:0 17:0 18:0 19:0 20:0 21:0 22:0 23:4 24:6 25:3 26:3 27:3 28:3 29:3 30:6 31:3 32:1 33:1 34:0 35:0 36:0 37:0 38:0 39:36 
0.125 1:0 2:0 3:0 4:0 5:0 6:0 7:3 8:6 9:4 10:4 11:4 12:2 13:9 14:0 15:0 16:0 17:0 18:0 19:0 20:0 21:0 22:0 23:0 24:0 25:0 26:0 27:4 28:6 29:3 30:2 31:3 32:3 33:2 34:5 35:4 36:0 37:0 38:0 39:32 
0.125 1:0 2:0 3:0 4:0 5:3 6:6 7:4 8:4 9:3 10:3 11:11 12:0 13:0 14:0 15:0 16:0 17:0 18:0 19:0 20:0 21:0 22:0 23:0 24:0 25:4 26:6 27:1 28:3 29:2 30:3 31:4 32:6 33:3 34:1 35:1 36:0 37:0 38:0 39:34 
0.125 1:0 2:0 3:0 4:3 5:6 6:4 7:4 8:3 9:3 10:6 11:0 12:0 13:0 14:0 15:0 16:0 17:0 18:0 19:0 20:0 21:0 22:0 23:0 24:0 25:0 26:0 27:4 28:5 29:3 30:2 31:2 32:2 33:2 34:5 35:3 36:1 37:0 38:0 39:29 
0.125 1:0 2:0 3:0 4:0 5:0 6:3 7:7 8:4 9:4 10:3 11:4 12:8 13:0 14:0 15:0 16:0 17:0 18:0 19:0 20:0 21:0 22:0 23:0 24:0 25:4 26:6 27:3 28:3 29:2 30:2 31:4 32:6 33:3 34:0 35:0 36:0 37:0 38:0 39:33 
0.125 1:0 2:0 3:0 4:0 5:0 6:4 7:6 8:4 9:1 10:2 11:4 12:9 13:0 14:0 15:0 16:0 17:0 18:0 19:0 20:0 21:0 22:0 23:0 24:0 25:0 26:3 27:6 28:3 29:2 30:3 31:3 32:4 33:4 34:2 35:0 36:0 37:0 38:0 39:30 
0.01113912320128119 1:0 2:0 3:0 4:0 5:4 6:7 7:4 8:4 9:3 10:4 11:8 12:1 13:0 14:0 15:0 16:0 17:0 18:0 19:0 20:0 21:0 22:0 23:0 24:0 25:0 26:5 27:6 28:3 29:3 30:2 31:3 32:4 33:6 34:3 35:0 36:0 37:0 38:0 39:35 
0.125 1:0 2:0 3:0 4:0 5:0 6:5 7:5 8:4 9:4 10:2 11:1 12:9 13:0 14:0 15:0 16:0 17:0 18:0 19:0 20:0 21:0 22:0 23:0 24:0 25:0 26:2 27:4 28:2 29:3 30:3 31:2 32:3 33:6 34:3 35:1 36:1 37:0 38:0 39:30 
0.125 1:0 2:0 3:0 4:0 5:0 6:0 7:4 8:5 9:3 10:4 11:3 12:4 13:8 14:1 15:0 16:0 17:0 18:0 19:0 20:0 21:0 22:0 23:0 24:3 25:4 26:3 27:3 28:3 29:3 30:4 31:5 32:3 33:1 34:0 35:0 36:0 37:0 38:0 39:32 
0.125 1:0 2:0 3:0 4:0 5:0 6:3 7:7 8:4 9:4 10:3 11:4 12:9 13:0 14:0 15:0 16:0 17:0 18:0 19:0 20:0 21:0 22:0 23:0 24:0 25:0 26:0 27:4 28:6 29:3 30:2 31:3 32:3 33:4 34:5 35:3 36:1 37:0 38:0 39:34 
0.125 1:0 2:0 3:0 4:0 5:0 6:3 7:6 8:4 9:3 10:3 11:3 12:11 13:0 14:0 15:0 16:0 17:0 18:0 19:0 20:0 21:0 22:0 23:0 24:0 25:4 26:5 27:3 28:3 29:2 30:3 31:2 32:6 33:3 34:1 35:1 36:0 37:0 38:0 39:33 
0.125 1:0 2:0 3:0 4:0 5:0 6:5 7:5 8:4 9:4 10:3 11:3 12:10 13:1 14:0 15:0 16:0 17:0 18:0 19:0 20:0 21:0 22:0 23:0 24:0 25:4 26:5 27:4 28:3 29:2 30:2 31:4 32:5 33:3 34:2 35:1 36:0 37:0 38:0 39:35 
0.125 1:0 2:0 3:0 4:0 5:3 6:7 7:4 8:4 9:3 10:4 11:10 12:0 13:0 14:0 15:0 16:0 17:0 18:0 19:0 20:0 21:0 22:0 23:0 24:0 25:0 26:4 27:6 28:3 29:3 30:3 31:3 32:3 33:6 34:2 35:1 36:1 37:0 38:0 39:35 
0.125 1:0 2:0 3:0 4:4 5:7 6:4 7:4 8:3 9:4 10:8 11:1 12:0 13:0 14:0 15:0 16:0 17:0 18:0 19:0 20:0 21:0 22:0 23:4 24:5 25:4 26:1 27:2 28:3 29:4 30:6 31:3 32:2 33:1 34:0 35:0 36:0 37:0 38:0 39:35 
0.125 1:0 2:0 3:0 4:0 5:4 6:7 7:4 8:4 9:2 10:3 11:11 12:0 13:0 14:0 15:0 16:0 17:0 18:0 19:0 20:0 21:0 22:0 23:0 24:3 25:6 26:4 27:3 28:2 29:3 30:3 31:6 32:3 33:1 34:1 35:0 36:0 37:0 38:0 39:35 
0.125 1:0 2:1 3:1 4:0 5:1 6:5 7:5 8:3 9:4 10:2 11:3 12:9 13:0 14:0 15:0 16:0 17:0 18:0 19:0 20:0 21:0 22:0 23:0 24:0 25:0 26:0 27:4 28:5 29:4 30:5 31:3 32:3 33:2 34:5 35:3 36:0 37:0 38:0 39:34 
0.01435441133043166 1:0 2:0 3:0 4:0 5:5 6:7 7:3 8:3 9:3 10:4 11:9 12:0 13:0 14:0 15:0 16:0 17:0 18:0 19:0 20:0 21:0 22:0 23:0 24:0 25:0 26:4 27:5 28:4 29:3 30:3 31:3 32:4 33:6 34:2 35:0 36:0 37:0 38:0 39:34 
0.125 1:0 2:0 3:0 4:4 5:7 6:4 7:4 8:3 9:3 10:11 11:0 12:0 13:0 14:0 15:0 16:0 17:0 18:0 19:0 20:0 21:0 22:0 23:0 24:0 25:0 26:4 27:6 28:3 29:3 30:3 31:3 32:3 33:6 34:3 35:1 36:1 37:0 38:0 39:36 
0.125 1:0 2:0 3:0 4:3 5:7 6:4 7:4 8:3 9:3 10:10 11:0 12:1 13:0 14:0 15:0 16:0 17:0 18:0 19:0 20:0 21:0 22:0 23:0 24:0 25:0 26:4 27:6 28:3 29:3 30:3 31:3 32:2 33:6 34:3 35:0 36:2 37:0 38:0 39:35 
0.125 1:0 2:0 3:0 4:0 5:0 6:5 7:6 8:4 9:4 10:3 11:3 12:10 13:0 14:0 15:0 16:0 17:0 18:0 19:0 20:0 21:0 22:0 23:0 24:0 25:4 26:6 27:3 28:3 29:3 30:3 31:2 32:6 33:3 34:1 35:1 36:0 37:0 38:0 39:35 
0.125 1:0 2:0 3:0 4:0 5:0 6:4 7:7 8:4 9:4 10:1 11:3 12:8 13:0 14:0 15:0 16:0 17:0 18:0 19:0 20:0 21:0 22:0 23:0 24:0 25:0 26:3 27:5 28:4 29:3 30:2 31:2 32:1 33:6 34:3 35:1 36:1 37:0 38:0 39:31 
0.125 1:0 2:0 3:0 4:0 5:0 6:0 7:4 8:6 9:4 10:4 11:2 12:4 13:8 14:0 15:0 16:0 17:0 18:0 19:0 20:0 21:0 22:0 23:0 24:2 25:6 26:4 27:3 28:1 29:3 30:4 31:5 32:3 33:0 34:1 35:0 36:0 37:0 38:0 39:32 
0.125 1:0 2:0 3:0 4:0 5:4 6:6 7:4 8:4 9:2 10:4 11:10 12:0 13:0 14:0 15:0 16:0 17:0 18:0 19:0 20:0 21:0 22:0 23:0 24:0 25:0 26:3 27:6 28:4 29:3 30:1 31:3 32:3 33:6 34:3 35:1 36:1 37:0 38:0 39:34 
0.125 1:0 2:0 3:0 4:5 5:6 6:4 7:4 8:3 9:3 10:9 11:0 12:0 13:0 14:0 15:0 16:0 17:0 18:0 19:0 20:0 21:0 22:0 23:0 24:4 25:6 26:3 27:3 28:3 29:3 30:3 31:6 32:3 33:0 34:0 35:0 36:0 37:0 38:0 39:34 
0.125 1:0 2:0 3:0 4:5 5:6 6:4 7:4 8:3 9:4 10:9 11:0 12:0 13:0 14:0 15:0 16:0 17:0 18:0 19:0 20:0 21:0 22:0 23:0 24:0 25:4 26:6 27:4 28:3 29:1 30:2 31:4 32:6 33:3 34:1 35:1 36:0 37:0 38:0 39:35 
0.125 1:0 2:0 3:0 4:1 5:5 6:7 7:4 8:3 9:3 10:4 11:9 12:0 13:0 14:0 15:0 16:0 17:0 18:0 19:0 20:1 21:1 22:0 23:0 24:4 25:5 26:4 27:3 28:3 29:3 30:3 31:6 32:2 33:1 34:0 35:0 36:0 37:0 38:0 39:36 
0.125 1:0 2:0 3:0 4:3 5:6 6:3 7:4 8:3 9:4 10:11 11:0 12:0 13:0 14:0 15:0 16:0 17:0 18:0 19:0 20:0 21:0 22:0 23:0 24:4 25:6 26:3 27:2 28:3 29:3 30:3 31:5 32:3 33:1 34:1 35:0 36:0 37:0 38:0 39:34 
0.125 1:0 2:0 3:0 4:0 5:3 6:6 7:4 8:4 9:3 10:3 11:10 12:0 13:0 14:0 15:0 16:0 17:0 18:0 19:0 20:0 21:0 22:0 23:0 24:0 25:4 26:6 27:3 28:2 29:3 30:3 31:2 32:5 33:3 34:1 35:1 36:0 37:0 38:0 39:33 
0.125 1:0 2:0 3:0 4:0 5:4 6:7 7:3 8:4 9:3 10:3 11:9 12:0 13:0 14:0 15:0 16:0 17:0 18:0 19:0 20:0 21:0 22:0 23:0 24:0 25:0 26:0 27:3 28:6 29:2 30:3 31:3 32:3 33:4 34:6 35:2 36:1 37:0 38:0 39:33 
0.125 1:0 2:0 3:0 4:4 5:7 6:3 7:4 8:3 9:3 10:10 11:1 12:0 13:0 14:0 15:0 16:0 17:0 18:0 19:0 20:0 21:0 22:0 23:0 24:0 25:0 26:4 27:5 28:3 29:3 30:3 31:3 32:3 33:6 34:2 35:1 36:1 37:1 38:0 39:35 
-0.125 1:0 2:0 3:0 4:4 5:4 6:7 7:6 8:4 9:5 10:6 11:4 12:0 13:0 14:0 15:0 16:0 17:0 18:0 19:0 20:0 21:0 22:0 23:7 24:7 25:2 26:1 27:1 28:1 29:2 30:2 31:2 32:2 33:7 34:6 35:0 36:0 37:0 38:0 39:40 
-0.125 1:0 2:0 3:0 4:4 5:5 6:7 7:7 8:6 9:7 10:6 11:3 12:0 13:0 14:0 15:0 16:0 17:0 18:0 19:0 20:0 21:0 22:8 23:6 24:2 25:2 26:2 27:2 28:2 29:2 30:2 31:2 32:7 33:8 34:0 35:0 36:0 37:0 38:0 39:45 
-0.125 1:0 2:0 3:0 4:0 5:0 6:0 7:5 8:5 9:7 10:7 11:6 12:7 13:6 14:4 15:0 16:0 17:0 18:0 19:0 20:8 21:7 22:2 23:2 24:2 25:2 26:2 27:2 28:2 29:2 30:8 31:8 32:0 33:0 34:0 35:0 36:0 37:0 38:0 39:47 
-0.125 1:0 2:0 3:0 4:4 5:5 6:7 7:6 8:6 9:6 10:5 11:4 12:0 13:0 14:0 15:0 16:0 17:0 18:0 19:0 20:0 21:0 22:6 23:8 24:1 25:2 26:2 27:1 28:2 29:2 30:2 31:2 32:8 33:7 34:0 35:0 36:0 37:0 38:0 39:43 
-0.125 1:0 2:1 3:1 4:0 5:0 6:5 7:5 8:7 9:7 10:6 11:7 12:6 13:4 14:0 15:0 16:0 17:0 18:0 19:0 20:0 21:0 22:0 23:8 24:7 25:2 26:3 27:3 28:2 29:2 30:2 31:2 32:2 33:8 34:8 35:0 36:0 37:0 38:0 39:49 
-0.125 1:0 2:0 3:0 4:0 5:4 6:4 7:7 8:7 9:6 10:6 11:6 12:4 13:0 14:0 15:0 16:0 17:0 18:0 19:0 20:6 21:7 22:2 23:2 24:2 25:2 26:2 27:2 28:2 29:2 30:7 31:8 32:0 33:0 34:0 35:0 36:0 37:0 38:0 39:44 
-0.125 1:0 2:0 3:0 4:0 5:0 6:4 7:5 8:7 9:7 10:7 11:8 12:5 13:4 14:0 15:0 16:0 17:0 18:0 19:1 20:7 21:8 22:2 23:1 24:2 25:2 26:3 27:2 28:2 29:2 30:7 31:8 32:0 33:0 34:0 35:0 36:0 37:0 38:0 39:47 
-0.125 1:0 2:0 3:0 4:0 5:0 6:0 7:3 8:6 9:6 10:6 11:6 12:6 13:6 14:4 15:0 16:0 17:0 18:0 19:0 20:0 21:0 22:8 23:7 24:2 25:2 26:2 27:2 28:1 29:1 30:2 31:2 32:7 33:7 34:0 35:0 36:0 37:0 38:0 39:43 
-0.09272235384810273 1:0 2:0 3:0 4:0 5:5 6:6 7:6 8:7 9:4 10:6 11:6 12:4 13:1 14:0 15:0 16:0 17:0 18:0 19:0 20:0 21:0 22:8 23:8 24:2 25:2 26:1 27:2 28:2 29:2 30:2 31:2 32:6 33:8 34:0 35:0 36:0 37:0 38:0 39:45 
-0.125 1:0 2:0 3:0 4:5 5:6 6:8 7:7 8:6 9:7 10:6 11:4 12:0 13:0 14:0 15:0 16:0 17:0 18:0 19:0 20:0 21:1 22:1 23:8 24:8 25:2 26:3 27:2 28:2 29:1 30:2 31:2 32:2 33:7 34:8 35:0 36:0 37:0 38:0 39:49 
-0.125 1:1 2:0 3:0 4:4 5:6 6:7 7:7 8:5 9:6 10:5 11:4 12:1 13:0 14:0 15:0 16:0 17:0 18:0 19:0 20:0 21:0 22:0 23:0 24:7 25:6 26:1 27:3 28:2 29:2 30:2 31:2 32:2 33:3 34:8 35:8 36:0 37:0 38:0 39:46 
-0.125 1:1 2:0 3:0 4:0 5:5 6:6 7:7 8:6 9:6 10:5 11:5 12:4 13:0 14:0 15:0 16:0 17:0 18:0 19:0 20:0 21:0 22:0 23:0 24:8 25:8 26:1 27:0 28:3 29:2 30:2 31:2 32:2 33:2 34:7 35:8 36:0 37:0 38:0 39:45 
-0.125 1:0 2:0 3:0 4:0 5:0 6:5 7:6 8:7 9:6 10:5 11:7 12:6 13:4 14:0 15:0 16:0 17:0 18:0 19:0 20:8 21:7 22:2 23:2 24:2 25:2 26:2 27:1 28:2 29:2 30:8 31:8 32:0 33:0 34:0 35:0 36:0 37:0 38:0 39:46 
-0.125 1:0 2:0 3:0 4:0 5:0 6:4 7:6 8:6 9:7 10:6 11:7 12:6 13:5 14:0 15:0 16:0 17:0 18:0 19:0 20:0 21:0 22:0 23:0 24:8 25:7 26:2 27:3 28:2 29:2 30:1 31:2 32:2 33:2 34:8 35:8 36:0 37:0 38:0 39:47 
-0.125 1:0 2:0 3:0 4:0 5:5 6:6 7:5 8:6 9:6 10:5 11:6 12:3 13:0 14:0 15:0 16:0 17:0 18:0 19:0 20:0 21:0 22:8 23:8 24:1 25:1 26:2 27:2 28:2 29:2 30:1 31:2 32:6 33:7 34:0 35:0 36:0 37:0 38:0 39:42 
-0.125 1:5 2:0 3:0 4:0 5:0 6:0 7:5 8:4 9:6 10:6 11:6 12:7 13:6 14:3 15:0 16:0 17:0 18:0 19:0 20:0 21:7 22:7 23:2 24:3 25:3 26:3 27:3 28:2 29:2 30:3 31:6 32:7 33:0 34:0 35:0 36:0 37:0 38:0 39:48 
-0.125 1:0 2:0 3:0 4:5 5:6 6:7 7:6 8:6 9:6 10:6 11:4 12:0 13:0 14:0 15:0 16:0 17:0 18:0 19:0 20:0 21:0 22:8 23:8 24:1 25:2 26:2 27:1 28:2 29:2 30:2 31:2 32:8 33:8 34:0 35:0 36:0 37:0 38:0 39:46 
-0.125 1:0 2:0 3:0 4:0 5:4 6:6 7:7 8:6 9:5 10:7 11:6 12:3 13:0 14:0 15:0 16:0 17:0 18:0 19:0 20:0 21:0 22:8 23:8 24:2 25:2 26:2 27:2 28:2 29:2 30:2 31:1 32:8 33:5 34:0 35:0 36:0 37:0 38:0 39:44 
-0.125 1:0 2:0 3:0 4:0 5:0 6:0 7:5 8:6 9:7 10:7 11:5 12:5 13:6 14:4 15:0 16:0 17:0 18:0 19:0 20:7 21:8 22:2 23:2 24:1 25:2 26:2 27:2 28:2 29:2 30:7 31:8 32:0 33:0 34:0 35:0 36:0 37:0 38:0 39:45 
-0.125 1:0 2:0 3:0 4:4 5:6 6:6 7:6 8:6 9:5 10:6 11:4 12:0 13:0 14:0 15:0 16:0 17:0 18:0 19:0 20:0 21:8 22:7 23:1 24:1 25:2 26:1 27:1 28:2 29:2 30:2 31:8 32:8 33:0 34:0 35:0 36:0 37:0 38:0 39:43 
-0.125 1:0 2:0 3:0 4:0 5:0 6:4 7:6 8:6 9:8 10:5 11:6 12:6 13:4 14:0 15:0 16:0 17:0 18:0 19:0 20:0 21:0 22:0 23:7 24:8 25:2 26:1 27:2 28:2 29:1 30:2 31:3 32:2 33:7 34:8 35:0 36:0 37:0 38:0 39:45 
-0.125 1:0 2:0 3:0 4:0 5:5 6:7 7:7 8:7 9:6 10:6 11:6 12:4 13:0 14:0 15:0 16:0 17:0 18:0 19:0 20:0 21:8 22:8 23:2 24:2 25:2 26:2 27:2 28:2 29:2 30:2 31:8 32:8 33:0 34:0 35:0 36:0 37:0 38:0 39:48 
-0.125 1:0 2:0 3:0 4:0 5:0 6:0 7:4 8:4 9:7 10:6 11:6 12:6 13:7 14:4 15:0 16:0 17:0 18:0 19:0 20:0 21:0 22:0 23:7 24:7 25:2 26:2 27:2 28:2 29:1 30:2 31:2 32:2 33:7 34:8 35:0 36:0 37:0 38:0 39:44 
-0.125 1:0 2:0 3:0 4:0 5:4 6:5 7:7 8:7 9:5 10:5 11:6 12:4 13:0 14:0 15:0 16:0 17:0 18:0 19:0 20:0 21:0 22:0 23:0 24:7 25:7 26:2 27:2 28:1 29:2 30:2 31:2 32:2 33:2 34:7 35:7 36:0 37:0 38:0 39:43 
-0.125 1:0 2:0 3:0 4:0 5:5 6:6 7:6 8:7 9:6 10:7 11:6 12:5 13:0 14:0 15:0 16:0 17:0 18:0 19:0 20:0 21:0 22:0 23:8 24:8 25:3 26:2 27:2 28:2 29:2 30:2 31:2 32:2 33:8 34:7 35:0 36:0 37:0 38:0 39:48 
-0.125 1:0 2:0 3:0 4:0 5:0 6:0 7:5 8:4 9:7 10:8 11:7 12:7 13:5 14:3 15:0 16:0 17:0 18:0 19:0 20:0 21:0 22:0 23:1 24:8 25:8 26:1 27:3 28:2 29:2 30:2 31:2 32:1 33:2 34:6 35:8 36:0 37:0 38:0 39:46 
-0.125 1:0 2:0 3:0 4:0 5:0 6:5 7:6 8:7 9:6 10:5 11:7 12:5 13:4 14:0 15:0 16:0 17:0 18:0 19:0 20:0 21:0 22:0 23:8 24:8 25:2 26:2 27:2 28:1 29:2 30:2 31:2 32:2 33:6 34:8 35:0 36:0 37:0 38:0 39:45 
-0.125 1:0 2:0 3:0 4:5 5:6 6:6 7:7 8:5 9:6 10:6 11:3 12:0 13:0 14:0 15:0 16:0 17:0 18:0 19:0 20:8 21:6 22:2 23:2 24:2 25:1 26:2 27:2 28:1 29:3 30:7 31:8 32:0 33:0 34:0 35:0 36:0 37:0 38:0 39:44 
-0.125 1:0 2:0 3:0 4:5 5:6 6:6 7:6 8:6 9:7 10:5 11:4 12:0 13:0 14:0 15:0 16:0 17:0 18:0 19:0 20:0 21:0 22:7 23:7 24:1 25:2 26:2 27:2 28:2 29:2 30:2 31:2 32:8 33:8 34:0 35:0 36:0 37:0 38:0 39:45 
-0.125 1:0 2:0 3:0 4:0 5:0 6:5 7:6 8:6 9:7 10:5 11:7 12:6 13:4 14:0 15:0 16:0 17:0 18:0 19:0 20:0 21:0 22:8 23:8 24:2 25:2 26:3 27:2 28:2 29:1 30:2 31:2 32:8 33:6 34:0 35:0 36:0 37:0 38:0 39:46 
-0.125 1:0 2:0 3:0 4:0 5:5 6:6 7:7 8:7 9:5 10:6 11:7 12:4 13:0 14:0 15:0 16:0 17:0 18:0 19:0 20:0 21:0 22:0 23:0 24:8 25:8 26:1 27:2 28:2 29:2 30:2 31:2 32:2 33:3 34:7 35:8 36:0 37:0 38:0 39:47 
-0.125 1:0 2:0 3:0 4:0 5:0 6:0 7:4 8:5 9:7 10:6 11:6 12:7 13:5 14:3 15:0 16:0 17:0 18:0 19:0 20:0 21:0 22:0 23:0 24:7 25:7 26:2 27:1 28:2 29:2 30:2 31:2 32:2 33:1 34:8 35:7 36:0 37:0 38:0 39:43 
-0.125 1:0 2:0 3:0 4:0 5:0 6:4 7:5 8:7 9:6 10:5 11:6 12:5 13:2 14:0 15:0 16:0 17:0 18:0 19:0 20:7 21:3 22:2 23:2 24:2 25:1 26:2 27:2 28:2 29:2 30:8 31:7 32:0 33:0 34:0 35:0 36:0 37:0 38:0 39:40 
