svm_type c_svc
kernel_type rbf
gamma 0.0078125
nr_class 2
total_sv 52
rho 0.524967
label 1 0
probA -4.11411
probB 0.0205853
nr_sv 25 27
SV
0.125 1:0 2:0 3:1 4:4 5:6 6:6 7:4 8:3 9:3 10:2 11:0 12:0 13:0 14:0 15:0 16:0 17:0 18:0 19:0 20:0 21:0 22:0 23:0 24:0 25:2 26:3 27:2 28:2 29:3 30:3 31:3 32:2 33:2 34:2 35:3 36:2 37:0 38:0 39:29 
0.125 1:0 2:0 3:0 4:0 5:0 6:1 7:5 8:5 9:5 10:3 11:3 12:4 13:3 14:0 15:0 16:0 17:0 18:0 19:0 20:0 21:0 22:0 23:0 24:3 25:3 26:4 27:2 28:3 29:2 30:3 31:2 32:0 33:2 34:3 35:2 36:0 37:0 38:0 39:29 
0.125 1:0 2:0 3:0 4:0 5:0 6:1 7:5 8:6 9:5 10:4 11:3 12:4 13:2 14:0 15:0 16:0 17:0 18:0 19:0 20:0 21:0 22:0 23:0 24:3 25:3 26:3 27:2 28:3 29:3 30:3 31:2 32:2 33:1 34:3 35:2 36:0 37:0 38:0 39:30 
0.125 1:0 2:0 3:1 4:4 5:5 6:5 7:2 8:3 9:2 10:2 11:0 12:0 13:0 14:0 15:0 16:0 17:0 18:0 19:0 20:0 21:0 22:0 23:0 24:0 25:2 26:3 27:2 28:1 29:3 30:3 31:3 32:1 33:0 34:2 35:2 36:2 37:0 38:0 39:24 
0.125 1:0 2:0 3:0 4:0 5:0 6:1 7:4 8:4 9:5 10:4 11:3 12:4 13:2 14:0 15:0 16:0 17:0 18:0 19:0 20:0 21:0 22:0 23:0 24:0 25:0 26:0 27:3 28:3 29:3 30:1 31:3 32:3 33:3 34:1 35:2 36:2 37:3 38:0 39:27 
0.125 1:0 2:0 3:0 4:1 5:5 6:6 7:6 8:4 9:3 10:4 11:2 12:0 13:0 14:0 15:0 16:0 17:0 18:0 19:0 20:0 21:0 22:0 23:3 24:3 25:3 26:2 27:3 28:3 29:3 30:2 31:2 32:2 33:3 34:2 35:0 36:0 37:0 38:0 39:31 
0.125 1:0 2:0 3:0 4:1 5:5 6:6 7:6 8:4 9:3 10:4 11:2 12:0 13:0 14:0 15:0 16:0 17:0 18:0 19:0 20:0 21:0 22:0 23:0 24:0 25:0 26:3 27:3 28:3 29:3 30:3 31:3 32:3 33:2 34:1 35:2 36:3 37:2 38:0 39:31 
0.05173852708427748 1:0 2:0 3:0 4:1 5:5 6:5 7:6 8:4 9:3 10:3 11:2 12:0 13:0 14:0 15:0 16:0 17:0 18:0 19:0 20:0 21:0 22:0 23:3 24:3 25:3 26:1 27:3 28:2 29:3 30:2 31:2 32:2 33:3 34:2 35:0 36:0 37:0 38:0 39:29 
0.125 1:0 2:0 3:0 4:5 5:5 6:6 7:4 8:2 9:4 10:2 11:0 12:0 13:0 14:0 15:0 16:0 17:0 18:0 19:0 20:0 21:0 22:0 23:0 24:0 25:0 26:2 27:3 28:2 29:2 30:3 31:3 32:2 33:2 34:2 35:2 36:3 37:2 38:0 39:28 
0.125 1:0 2:0 3:0 4:0 5:0 6:0 7:2 8:6 9:6 10:4 11:3 12:4 13:1 14:0 15:0 16:0 17:0 18:0 19:0 20:0 21:0 22:0 23:1 24:1 25:3 26:2 27:3 28:3 29:3 30:2 31:2 32:2 33:2 34:2 35:0 36:0 37:0 38:0 39:26 
0.125 1:0 2:0 3:0 4:3 5:6 6:5 7:3 8:3 9:3 10:2 11:0 12:0 13:0 14:0 15:0 16:0 17:0 18:0 19:0 20:0 21:0 22:0 23:0 24:0 25:0 26:1 27:2 28:2 29:2 30:3 31:3 32:3 33:2 34:1 35:1 36:3 37:2 38:0 39:25 
0.125 1:0 2:0 3:0 4:0 5:1 6:6 7:3 8:6 9:3 10:3 11:4 12:1 13:0 14:1 15:1 16:0 17:0 18:0 19:0 20:0 21:0 22:0 23:0 24:0 25:3 26:4 27:2 28:2 29:3 30:2 31:2 32:2 33:2 34:3 35:2 36:2 37:0 38:0 39:29 
0.125 1:0 2:0 3:0 4:0 5:0 6:1 7:4 8:5 9:5 10:4 11:3 12:3 13:1 14:0 15:0 16:0 17:0 18:0 19:0 20:0 21:0 22:0 23:0 24:0 25:0 26:0 27:2 28:1 29:4 30:2 31:3 32:3 33:3 34:2 35:2 36:1 37:3 38:0 39:26 
0.125 1:0 2:0 3:0 4:0 5:0 6:3 7:4 8:6 9:4 10:3 11:2 12:2 13:0 14:0 15:0 16:0 17:0 18:0 19:0 20:0 21:0 22:0 23:0 24:0 25:0 26:0 27:2 28:2 29:3 30:1 31:3 32:3 33:3 34:2 35:2 36:2 37:1 38:0 39:24 
0.0547257521542338 1:0 2:0 3:0 4:1 5:5 6:6 7:5 8:3 9:2 10:4 11:2 12:0 13:0 14:0 15:0 16:0 17:0 18:0 19:0 20:0 21:0 22:0 23:0 24:3 25:3 26:3 27:2 28:2 29:3 30:3 31:1 32:2 33:1 34:3 35:2 36:0 37:0 38:0 39:28 
0.125 1:0 2:0 3:0 4:0 5:0 6:4 7:6 8:5 9:4 10:3 11:4 12:2 13:0 14:0 15:0 16:0 17:0 18:0 19:0 20:0 21:0 22:0 23:2 24:3 25:3 26:2 27:3 28:3 29:3 30:2 31:2 32:1 33:3 34:1 35:0 36:0 37:0 38:0 39:28 
0.06890986359863861 1:0 2:0 3:0 4:0 5:1 6:5 7:5 8:5 9:4 10:3 11:4 12:1 13:0 14:0 15:0 16:0 17:0 18:0 19:0 20:0 21:0 22:0 23:0 24:0 25:0 26:0 27:2 28:2 29:3 30:2 31:3 32:3 33:4 34:2 35:1 36:2 37:4 38:0 39:28 
0.125 1:0 2:0 3:0 4:5 5:6 6:5 7:4 8:3 9:3 10:2 11:0 12:0 13:0 14:0 15:0 16:0 17:0 18:0 19:0 20:0 21:0 22:0 23:2 24:2 25:3 26:2 27:3 28:3 29:3 30:2 31:1 32:2 33:3 34:2 35:0 36:0 37:0 38:0 39:28 
0.08885581176326346 1:0 2:0 3:1 4:4 5:4 6:3 7:4 8:3 9:4 10:2 11:0 12:0 13:0 14:0 15:0 16:0 17:0 18:0 19:0 20:0 21:0 22:0 23:0 24:0 25:0 26:1 27:3 28:3 29:2 30:3 31:2 32:3 33:1 34:1 35:2 36:3 37:1 38:0 39:25 
0.125 1:0 2:0 3:0 4:0 5:5 6:6 7:6 8:4 9:3 10:4 11:2 12:0 13:0 14:0 15:0 16:0 17:0 18:0 19:0 20:0 21:0 22:0 23:0 24:0 25:2 26:3 27:2 28:2 29:4 30:3 31:3 32:2 33:2 34:2 35:3 36:2 37:0 38:0 39:30 
0.125 1:0 2:0 3:0 4:0 5:0 6:1 7:5 8:6 9:6 10:2 11:2 12:4 13:2 14:0 15:0 16:0 17:0 18:0 19:0 20:0 21:0 22:0 23:3 24:3 25:3 26:2 27:2 28:3 29:2 30:2 31:1 32:2 33:3 34:2 35:0 36:0 37:0 38:0 39:28 
0.125 1:0 2:0 3:0 4:0 5:0 6:4 7:5 8:6 9:3 10:2 11:4 12:1 13:0 14:0 15:0 16:0 17:0 18:0 19:0 20:0 21:0 22:0 23:0 24:0 25:0 26:0 27:2 28:2 29:3 30:2 31:2 32:3 33:3 34:1 35:2 36:2 37:3 38:0 39:25 
0.125 1:0 2:0 3:1 4:4 5:5 6:6 7:4 8:3 9:4 10:2 11:0 12:0 13:0 14:0 15:0 16:0 17:0 18:0 19:0 20:0 21:0 22:0 23:0 24:0 25:0 26:0 27:3 28:3 29:3 30:2 31:3 32:3 33:3 34:2 35:2 36:2 37:3 38:0 39:29 
0.125 1:0 2:0 3:0 4:1 5:5 6:5 7:5 8:3 9:2 10:3 11:2 12:0 13:0 14:0 15:0 16:0 17:0 18:0 19:0 20:0 21:0 22:0 23:3 24:3 25:2 26:2 27:3 28:2 29:2 30:2 31:1 32:1 33:3 34:2 35:0 36:0 37:0 38:0 39:26 
0.03339312890529389 1:0 2:0 3:0 4:0 5:1 6:3 7:6 8:6 9:3 10:1 11:4 12:2 13:0 14:0 15:0 16:0 17:0 18:0 19:0 20:0 21:0 22:0 23:0 24:0 25:3 26:2 27:2 28:2 29:2 30:3 31:2 32:2 33:1 34:2 35:3 36:2 37:0 38:0 39:26 
-0.125 1:0 2:0 3:0 4:4 5:4 6:7 7:6 8:4 9:5 10:6 11:4 12:0 13:0 14:0 15:0 16:0 17:0 18:0 19:0 20:0 21:0 22:0 23:7 24:7 25:2 26:1 27:1 28:1 29:2 30:2 31:2 32:2 33:7 34:6 35:0 36:0 37:0 38:0 39:40 
-0.125 1:0 2:0 3:0 4:0 5:0 6:0 7:5 8:5 9:7 10:7 11:6 12:7 13:6 14:4 15:0 16:0 17:0 18:0 19:0 20:8 21:7 22:2 23:2 24:2 25:2 26:2 27:2 28:2 29:2 30:8 31:8 32:0 33:0 34:0 35:0 36:0 37:0 38:0 39:47 
-0.1200388662714536 1:0 2:0 3:0 4:4 5:5 6:7 7:6 8:6 9:6 10:5 11:4 12:0 13:0 14:0 15:0 16:0 17:0 18:0 19:0 20:0 21:0 22:6 23:8 24:1 25:2 26:2 27:1 28:2 29:2 30:2 31:2 32:8 33:7 34:0 35:0 36:0 37:0 38:0 39:43 
-0.125 1:0 2:1 3:1 4:0 5:0 6:5 7:5 8:7 9:7 10:6 11:7 12:6 13:4 14:0 15:0 16:0 17:0 18:0 19:0 20:0 21:0 22:0 23:8 24:7 25:2 26:3 27:3 28:2 29:2 30:2 31:2 32:2 33:8 34:8 35:0 36:0 37:0 38:0 39:49 
-0.05380487611276028 1:0 2:0 3:0 4:0 5:4 6:4 7:7 8:7 9:6 10:6 11:6 12:4 13:0 14:0 15:0 16:0 17:0 18:0 19:0 20:6 21:7 22:2 23:2 24:2 25:2 26:2 27:2 28:2 29:2 30:7 31:8 32:0 33:0 34:0 35:0 36:0 37:0 38:0 39:44 
-0.04816041558851144 1:0 2:0 3:0 4:0 5:0 6:4 7:5 8:7 9:7 10:7 11:8 12:5 13:4 14:0 15:0 16:0 17:0 18:0 19:1 20:7 21:8 22:2 23:1 24:2 25:2 26:3 27:2 28:2 29:2 30:7 31:8 32:0 33:0 34:0 35:0 36:0 37:0 38:0 39:47 
-0.125 1:0 2:0 3:0 4:0 5:0 6:0 7:3 8:6 9:6 10:6 11:6 12:6 13:6 14:4 15:0 16:0 17:0 18:0 19:0 20:0 21:0 22:8 23:7 24:2 25:2 26:2 27:2 28:1 29:1 30:2 31:2 32:7 33:7 34:0 35:0 36:0 37:0 38:0 39:43 
-0.125 1:0 2:0 3:0 4:5 5:6 6:8 7:7 8:6 9:7 10:6 11:4 12:0 13:0 14:0 15:0 16:0 17:0 18:0 19:0 20:0 21:1 22:1 23:8 24:8 25:2 26:3 27:2 28:2 29:1 30:2 31:2 32:2 33:7 34:8 35:0 36:0 37:0 38:0 39:49 
-0.125 1:1 2:0 3:0 4:4 5:6 6:7 7:7 8:5 9:6 10:5 11:4 12:1 13:0 14:0 15:0 16:0 17:0 18:0 19:0 20:0 21:0 22:0 23:0 24:7 25:6 26:1 27:3 28:2 29:2 30:2 31:2 32:2 33:3 34:8 35:8 36:0 37:0 38:0 39:46 
-0.1071566109169635 1:1 2:0 3:0 4:0 5:5 6:6 7:7 8:6 9:6 10:5 11:5 12:4 13:0 14:0 15:0 16:0 17:0 18:0 19:0 20:0 21:0 22:0 23:0 24:8 25:8 26:1 27:0 28:3 29:2 30:2 31:2 32:2 33:2 34:7 35:8 36:0 37:0 38:0 39:45 
-0.04348125987147825 1:0 2:0 3:0 4:0 5:0 6:5 7:6 8:7 9:6 10:5 11:7 12:6 13:4 14:0 15:0 16:0 17:0 18:0 19:0 20:8 21:7 22:2 23:2 24:2 25:2 26:2 27:1 28:2 29:2 30:8 31:8 32:0 33:0 34:0 35:0 36:0 37:0 38:0 39:46 
-0.03489143797525762 1:0 2:0 3:0 4:0 5:0 6:4 7:6 8:6 9:7 10:6 11:7 12:6 13:5 14:0 15:0 16:0 17:0 18:0 19:0 20:0 21:0 22:0 23:0 24:8 25:7 26:2 27:3 28:2 29:2 30:1 31:2 32:2 33:2 34:8 35:8 36:0 37:0 38:0 39:47 
-0.125 1:0 2:0 3:0 4:0 5:5 6:6 7:5 8:6 9:6 10:5 11:6 12:3 13:0 14:0 15:0 16:0 17:0 18:0 19:0 20:0 21:0 22:8 23:8 24:1 25:1 26:2 27:2 28:2 29:2 30:1 31:2 32:6 33:7 34:0 35:0 36:0 37:0 38:0 39:42 
-0.125 1:5 2:0 3:0 4:0 5:0 6:0 7:5 8:4 9:6 10:6 11:6 12:7 13:6 14:3 15:0 16:0 17:0 18:0 19:0 20:0 21:7 22:7 23:2 24:3 25:3 26:3 27:3 28:2 29:2 30:3 31:6 32:7 33:0 34:0 35:0 36:0 37:0 38:0 39:48 
-0.125 1:0 2:0 3:0 4:5 5:6 6:7 7:6 8:6 9:6 10:6 11:4 12:0 13:0 14:0 15:0 16:0 17:0 18:0 19:0 20:0 21:0 22:8 23:8 24:1 25:2 26:2 27:1 28:2 29:2 30:2 31:2 32:8 33:8 34:0 35:0 36:0 37:0 38:0 39:46 
-0.1192967113719042 1:0 2:0 3:0 4:0 5:0 6:0 7:5 8:6 9:7 10:7 11:5 12:5 13:6 14:4 15:0 16:0 17:0 18:0 19:0 20:7 21:8 22:2 23:2 24:1 25:2 26:2 27:2 28:2 29:2 30:7 31:8 32:0 33:0 34:0 35:0 36:0 37:0 38:0 39:45 
-0.125 1:0 2:0 3:0 4:4 5:6 6:6 7:6 8:6 9:5 10:6 11:4 12:0 13:0 14:0 15:0 16:0 17:0 18:0 19:0 20:0 21:8 22:7 23:1 24:1 25:2 26:1 27:1 28:2 29:2 30:2 31:8 32:8 33:0 34:0 35:0 36:0 37:0 38:0 39:43 
-0.125 1:0 2:0 3:0 4:0 5:5 6:7 7:7 8:7 9:6 10:6 11:6 12:4 13:0 14:0 15:0 16:0 17:0 18:0 19:0 20:0 21:8 22:8 23:2 24:2 25:2 26:2 27:2 28:2 29:2 30:2 31:8 32:8 33:0 34:0 35:0 36:0 37:0 38:0 39:48 
-0.125 1:0 2:0 3:0 4:0 5:0 6:0 7:4 8:4 9:7 10:6 11:6 12:6 13:7 14:4 15:0 16:0 17:0 18:0 19:0 20:0 21:0 22:0 23:7 24:7 25:2 26:2 27:2 28:2 29:1 30:2 31:2 32:2 33:7 34:8 35:0 36:0 37:0 38:0 39:44 
-0.125 1:0 2:0 3:0 4:0 5:4 6:5 7:7 8:7 9:5 10:5 11:6 12:4 13:0 14:0 15:0 16:0 17:0 18:0 19:0 20:0 21:0 22:0 23:0 24:7 25:7 26:2 27:2 28:1 29:2 30:2 31:2 32:2 33:2 34:7 35:7 36:0 37:0 38:0 39:43 
-0.05072291763862195 1:0 2:0 3:0 4:0 5:5 6:6 7:6 8:7 9:6 10:7 11:6 12:5 13:0 14:0 15:0 16:0 17:0 18:0 19:0 20:0 21:0 22:0 23:8 24:8 25:3 26:2 27:2 28:2 29:2 30:2 31:2 32:2 33:8 34:7 35:0 36:0 37:0 38:0 39:48 
-0.125 1:0 2:0 3:0 4:0 5:0 6:0 7:5 8:4 9:7 10:8 11:7 12:7 13:5 14:3 15:0 16:0 17:0 18:0 19:0 20:0 21:0 22:0 23:1 24:8 25:8 26:1 27:3 28:2 29:2 30:2 31:2 32:1 33:2 34:6 35:8 36:0 37:0 38:0 39:46 
-0.003461812018995571 1:0 2:0 3:0 4:0 5:0 6:5 7:6 8:7 9:6 10:5 11:7 12:5 13:4 14:0 15:0 16:0 17:0 18:0 19:0 20:0 21:0 22:0 23:8 24:8 25:2 26:2 27:2 28:1 29:2 30:2 31:2 32:2 33:6 34:8 35:0 36:0 37:0 38:0 39:45 
-0.125 1:0 2:0 3:0 4:5 5:6 6:6 7:7 8:5 9:6 10:6 11:3 12:0 13:0 14:0 15:0 16:0 17:0 18:0 19:0 20:8 21:6 22:2 23:2 24:2 25:1 26:2 27:2 28:1 29:3 30:7 31:8 32:0 33:0 34:0 35:0 36:0 37:0 38:0 39:44 
-0.09160817573976085 1:0 2:0 3:0 4:0 5:0 6:5 7:6 8:6 9:7 10:5 11:7 12:6 13:4 14:0 15:0 16:0 17:0 18:0 19:0 20:0 21:0 22:8 23:8 24:2 25:2 26:3 27:2 28:2 29:1 30:2 31:2 32:8 33:6 34:0 35:0 36:0 37:0 38:0 39:46 
-0.125 1:0 2:0 3:0 4:0 5:0 6:0 7:4 8:5 9:7 10:6 11:6 12:7 13:5 14:3 15:0 16:0 17:0 18:0 19:0 20:0 21:0 22:0 23:0 24:7 25:7 26:2 27:1 28:2 29:2 30:2 31:2 32:2 33:1 34:8 35:7 36:0 37:0 38:0 39:43 
-0.125 1:0 2:0 3:0 4:0 5:0 6:4 7:5 8:7 9:6 10:5 11:6 12:5 13:2 14:0 15:0 16:0 17:0 18:0 19:0 20:7 21:3 22:2 23:2 24:2 25:1 26:2 27:2 28:2 29:2 30:8 31:7 32:0 33:0 34:0 35:0 36:0 37:0 38:0 39:40 
