svm_type c_svc
kernel_type rbf
gamma 0.0078125
nr_class 2
total_sv 43
rho -0.100089
label 1 0
probA -4.63016
probB -0.44516
nr_sv 21 22
SV
0.5 1:0 2:0 3:0 4:10 5:12 6:1 7:1 8:1 9:2 10:8 11:1 12:0 13:0 14:0 15:0 16:0 17:0 18:0 19:1 20:2 21:2 22:2 23:4 24:6 25:3 26:2 27:3 28:2 29:3 30:3 31:3 32:0 33:0 34:0 35:0 36:0 37:0 38:0 39:36 
0.5 1:3 2:4 3:6 4:3 5:1 6:9 7:9 8:1 9:1 10:2 11:2 12:5 13:0 14:0 15:0 16:0 17:0 18:0 19:0 20:0 21:0 22:0 23:2 24:3 25:2 26:1 27:5 28:8 29:2 30:4 31:6 32:6 33:3 34:2 35:2 36:0 37:0 38:0 39:46 
0.4623907545147495 1:0 2:0 3:0 4:0 5:1 6:10 7:12 8:1 9:1 10:1 11:3 12:6 13:1 14:0 15:0 16:0 17:0 18:0 19:0 20:0 21:0 22:2 23:2 24:3 25:4 26:6 27:3 28:3 29:2 30:3 31:3 32:3 33:2 34:0 35:0 36:0 37:0 38:0 39:36 
0.3858198327767524 1:0 2:0 3:0 4:0 5:8 6:12 7:2 8:1 9:1 10:2 11:6 12:0 13:0 14:0 15:0 16:0 17:0 18:0 19:0 20:0 21:0 22:0 23:0 24:2 25:2 26:1 27:3 28:6 29:3 30:3 31:2 32:3 33:3 34:3 35:1 36:0 37:0 38:0 39:32 
0.5 1:4 2:7 3:5 4:2 5:0 6:9 7:10 8:1 9:1 10:2 11:2 12:7 13:0 14:0 15:0 16:0 17:0 18:0 19:0 20:4 21:4 22:1 23:4 24:9 25:5 26:3 27:4 28:5 29:5 30:4 31:2 32:0 33:0 34:0 35:0 36:0 37:0 38:0 39:50 
0.2611231263386471 1:0 2:0 3:0 4:0 5:5 6:12 7:1 8:1 9:2 10:1 11:5 12:0 13:0 14:0 15:0 16:0 17:0 18:0 19:0 20:0 21:0 22:0 23:0 24:2 25:1 26:1 27:2 28:6 29:3 30:3 31:2 32:3 33:1 34:1 35:2 36:0 37:0 38:0 39:27 
0.06483753706949309 1:0 2:0 3:0 4:0 5:0 6:11 7:11 8:2 9:1 10:2 11:2 12:5 13:0 14:0 15:0 16:0 17:0 18:0 19:0 20:0 21:0 22:0 23:0 24:2 25:1 26:3 27:3 28:7 29:3 30:3 31:2 32:2 33:3 34:3 35:2 36:0 37:0 38:0 39:34 
0.2399158131613116 1:4 2:6 3:6 4:2 5:0 6:9 7:11 8:1 9:1 10:2 11:2 12:6 13:1 14:0 15:0 16:0 17:0 18:0 19:0 20:0 21:0 22:0 23:2 24:3 25:4 26:5 27:7 28:3 29:5 30:4 31:4 32:4 33:6 34:3 35:1 36:0 37:0 38:0 39:51 
0.5 1:2 2:0 3:0 4:0 5:0 6:0 7:8 8:10 9:1 10:1 11:2 12:2 13:7 14:0 15:0 16:0 17:0 18:0 19:0 20:0 21:1 22:1 23:4 24:7 25:4 26:3 27:2 28:3 29:3 30:3 31:2 32:0 33:0 34:0 35:0 36:0 37:0 38:0 39:33 
0.3516107287320292 1:0 2:0 3:0 4:0 5:0 6:7 7:12 8:2 9:1 10:2 11:2 12:6 13:0 14:0 15:0 16:0 17:0 18:0 19:0 20:0 21:0 22:0 23:0 24:2 25:2 26:1 27:3 28:7 29:2 30:2 31:3 32:2 33:3 34:3 35:2 36:0 37:0 38:0 39:32 
0.3972598915021074 1:0 2:0 3:0 4:0 5:0 6:8 7:10 8:1 9:1 10:2 11:2 12:7 13:0 14:0 15:0 16:0 17:0 18:0 19:0 20:2 21:2 22:2 23:3 24:7 25:3 26:2 27:3 28:3 29:2 30:2 31:0 32:0 33:0 34:0 35:0 36:0 37:0 38:0 39:31 
0.285924391056575 1:4 2:6 3:5 4:1 5:0 6:9 7:11 8:1 9:1 10:2 11:2 12:7 13:0 14:0 15:0 16:0 17:0 18:0 19:0 20:0 21:4 22:3 23:3 24:4 25:8 26:4 27:4 28:3 29:4 30:5 31:4 32:3 33:0 34:0 35:0 36:0 37:0 38:0 39:49 
0.4518279813194528 1:0 2:0 3:0 4:7 5:9 6:1 7:1 8:1 9:2 10:4 11:0 12:0 13:0 14:0 15:0 16:0 17:0 18:0 19:0 20:0 21:0 22:0 23:2 24:1 25:1 26:3 27:6 28:1 29:2 30:1 31:2 32:2 33:3 34:1 35:0 36:0 37:0 38:0 39:25 
0.5 1:4 2:5 3:1 4:8 5:10 6:2 7:1 8:2 9:2 10:7 11:0 12:0 13:0 14:0 15:0 16:0 17:0 18:0 19:0 20:0 21:2 22:1 23:3 24:3 25:3 26:4 27:6 28:3 29:4 30:3 31:4 32:3 33:2 34:1 35:0 36:0 37:0 38:0 39:42 
0.2453623266020898 1:0 2:0 3:0 4:7 5:12 6:1 7:1 8:2 9:2 10:4 11:0 12:0 13:0 14:0 15:0 16:0 17:0 18:0 19:0 20:0 21:0 22:1 23:2 24:1 25:3 26:7 27:2 28:3 29:3 30:1 31:2 32:2 33:2 34:0 35:0 36:0 37:0 38:0 39:29 
0.06538879653657108 1:0 2:0 3:0 4:6 5:10 6:1 7:1 8:2 9:2 10:6 11:0 12:0 13:0 14:0 15:0 16:0 17:0 18:0 19:0 20:0 21:2 22:2 23:1 24:3 25:5 26:2 27:3 28:2 29:3 30:3 31:2 32:0 33:0 34:0 35:0 36:0 37:0 38:0 39:28 
0.2944832781014061 1:0 2:0 3:0 4:0 5:6 6:12 7:1 8:1 9:2 10:2 11:4 12:0 13:0 14:0 15:0 16:0 17:0 18:0 19:0 20:0 21:0 22:0 23:2 24:1 25:2 26:3 27:7 28:2 29:2 30:1 31:2 32:2 33:3 34:1 35:0 36:0 37:0 38:0 39:28 
0.5 1:5 2:2 3:6 4:11 5:12 6:1 7:1 8:2 9:2 10:7 11:0 12:0 13:0 14:0 15:0 16:0 17:0 18:0 19:0 20:0 21:0 22:0 23:0 24:2 25:2 26:2 27:4 28:8 29:4 30:4 31:5 32:4 33:6 34:4 35:4 36:0 37:0 38:0 39:49 
0.4754331579581405 1:4 2:4 3:7 4:5 5:2 6:10 7:11 8:1 9:1 10:2 11:2 12:7 13:0 14:0 15:0 16:0 17:0 18:0 19:0 20:0 21:2 22:2 23:2 24:3 25:4 26:4 27:8 28:4 29:6 30:6 31:5 32:5 33:3 34:2 35:0 36:0 37:0 38:0 39:56 
0.1435907210487829 1:0 2:0 3:2 4:9 5:11 6:1 7:1 8:2 9:2 10:7 11:0 12:0 13:0 14:0 15:0 16:0 17:0 18:0 19:0 20:1 21:1 22:2 23:4 24:7 25:4 26:3 27:3 28:3 29:3 30:3 31:1 32:0 33:0 34:0 35:0 36:0 37:0 38:0 39:35 
0.5 1:7 2:5 3:1 4:0 5:9 6:12 7:3 8:1 9:2 10:2 11:7 12:0 13:0 14:0 15:0 16:0 17:0 18:0 19:0 20:0 21:2 22:2 23:3 24:5 25:8 26:5 27:4 28:5 29:4 30:3 31:3 32:3 33:1 34:1 35:0 36:0 37:0 38:0 39:49 
-0.5 1:0 2:0 3:0 4:4 5:4 6:7 7:6 8:4 9:5 10:6 11:4 12:0 13:0 14:0 15:0 16:0 17:0 18:0 19:0 20:0 21:0 22:0 23:7 24:7 25:2 26:1 27:1 28:1 29:2 30:2 31:2 32:2 33:7 34:6 35:0 36:0 37:0 38:0 39:40 
-0.5 1:0 2:0 3:0 4:0 5:0 6:0 7:5 8:5 9:7 10:7 11:6 12:7 13:6 14:4 15:0 16:0 17:0 18:0 19:0 20:8 21:7 22:2 23:2 24:2 25:2 26:2 27:2 28:2 29:2 30:8 31:8 32:0 33:0 34:0 35:0 36:0 37:0 38:0 39:47 
-0.3790675321736076 1:0 2:1 3:1 4:0 5:0 6:5 7:5 8:7 9:7 10:6 11:7 12:6 13:4 14:0 15:0 16:0 17:0 18:0 19:0 20:0 21:0 22:0 23:8 24:7 25:2 26:3 27:3 28:2 29:2 30:2 31:2 32:2 33:8 34:8 35:0 36:0 37:0 38:0 39:49 
-0.09237008131097642 1:0 2:0 3:0 4:0 5:0 6:4 7:5 8:7 9:7 10:7 11:8 12:5 13:4 14:0 15:0 16:0 17:0 18:0 19:1 20:7 21:8 22:2 23:1 24:2 25:2 26:3 27:2 28:2 29:2 30:7 31:8 32:0 33:0 34:0 35:0 36:0 37:0 38:0 39:47 
-0.4882883593759001 1:0 2:0 3:0 4:0 5:0 6:0 7:3 8:6 9:6 10:6 11:6 12:6 13:6 14:4 15:0 16:0 17:0 18:0 19:0 20:0 21:0 22:8 23:7 24:2 25:2 26:2 27:2 28:1 29:1 30:2 31:2 32:7 33:7 34:0 35:0 36:0 37:0 38:0 39:43 
-0.4451350703009167 1:0 2:0 3:0 4:5 5:6 6:8 7:7 8:6 9:7 10:6 11:4 12:0 13:0 14:0 15:0 16:0 17:0 18:0 19:0 20:0 21:1 22:1 23:8 24:8 25:2 26:3 27:2 28:2 29:1 30:2 31:2 32:2 33:7 34:8 35:0 36:0 37:0 38:0 39:49 
-0.5 1:1 2:0 3:0 4:4 5:6 6:7 7:7 8:5 9:6 10:5 11:4 12:1 13:0 14:0 15:0 16:0 17:0 18:0 19:0 20:0 21:0 22:0 23:0 24:7 25:6 26:1 27:3 28:2 29:2 30:2 31:2 32:2 33:3 34:8 35:8 36:0 37:0 38:0 39:46 
-0.2843858630786634 1:1 2:0 3:0 4:0 5:5 6:6 7:7 8:6 9:6 10:5 11:5 12:4 13:0 14:0 15:0 16:0 17:0 18:0 19:0 20:0 21:0 22:0 23:0 24:8 25:8 26:1 27:0 28:3 29:2 30:2 31:2 32:2 33:2 34:7 35:8 36:0 37:0 38:0 39:45 
-0.04017965648398278 1:0 2:0 3:0 4:0 5:0 6:5 7:6 8:7 9:6 10:5 11:7 12:6 13:4 14:0 15:0 16:0 17:0 18:0 19:0 20:8 21:7 22:2 23:2 24:2 25:2 26:2 27:1 28:2 29:2 30:8 31:8 32:0 33:0 34:0 35:0 36:0 37:0 38:0 39:46 
-0.01533003791287807 1:0 2:0 3:0 4:0 5:0 6:4 7:6 8:6 9:7 10:6 11:7 12:6 13:5 14:0 15:0 16:0 17:0 18:0 19:0 20:0 21:0 22:0 23:0 24:8 25:7 26:2 27:3 28:2 29:2 30:1 31:2 32:2 33:2 34:8 35:8 36:0 37:0 38:0 39:47 
-0.2516390231466052 1:0 2:0 3:0 4:0 5:5 6:6 7:5 8:6 9:6 10:5 11:6 12:3 13:0 14:0 15:0 16:0 17:0 18:0 19:0 20:0 21:0 22:8 23:8 24:1 25:1 26:2 27:2 28:2 29:2 30:1 31:2 32:6 33:7 34:0 35:0 36:0 37:0 38:0 39:42 
-0.5 1:5 2:0 3:0 4:0 5:0 6:0 7:5 8:4 9:6 10:6 11:6 12:7 13:6 14:3 15:0 16:0 17:0 18:0 19:0 20:0 21:7 22:7 23:2 24:3 25:3 26:3 27:3 28:2 29:2 30:3 31:6 32:7 33:0 34:0 35:0 36:0 37:0 38:0 39:48 
-0.5 1:0 2:0 3:0 4:5 5:6 6:7 7:6 8:6 9:6 10:6 11:4 12:0 13:0 14:0 15:0 16:0 17:0 18:0 19:0 20:0 21:0 22:8 23:8 24:1 25:2 26:2 27:1 28:2 29:2 30:2 31:2 32:8 33:8 34:0 35:0 36:0 37:0 38:0 39:46 
-0.5 1:0 2:0 3:0 4:4 5:6 6:6 7:6 8:6 9:5 10:6 11:4 12:0 13:0 14:0 15:0 16:0 17:0 18:0 19:0 20:0 21:8 22:7 23:1 24:1 25:2 26:1 27:1 28:2 29:2 30:2 31:8 32:8 33:0 34:0 35:0 36:0 37:0 38:0 39:43 
-0.405812368510391 1:0 2:0 3:0 4:0 5:5 6:7 7:7 8:7 9:6 10:6 11:6 12:4 13:0 14:0 15:0 16:0 17:0 18:0 19:0 20:0 21:8 22:8 23:2 24:2 25:2 26:2 27:2 28:2 29:2 30:2 31:8 32:8 33:0 34:0 35:0 36:0 37:0 38:0 39:48 
-0.3496644961941802 1:0 2:0 3:0 4:0 5:0 6:0 7:4 8:4 9:7 10:6 11:6 12:6 13:7 14:4 15:0 16:0 17:0 18:0 19:0 20:0 21:0 22:0 23:7 24:7 25:2 26:2 27:2 28:2 29:1 30:2 31:2 32:2 33:7 34:8 35:0 36:0 37:0 38:0 39:44 
-0.3576543478891684 1:0 2:0 3:0 4:0 5:0 6:0 7:5 8:4 9:7 10:8 11:7 12:7 13:5 14:3 15:0 16:0 17:0 18:0 19:0 20:0 21:0 22:0 23:1 24:8 25:8 26:1 27:3 28:2 29:2 30:2 31:2 32:1 33:2 34:6 35:8 36:0 37:0 38:0 39:46 
-0.5 1:0 2:0 3:0 4:5 5:6 6:6 7:7 8:5 9:6 10:6 11:3 12:0 13:0 14:0 15:0 16:0 17:0 18:0 19:0 20:8 21:6 22:2 23:2 24:2 25:1 26:2 27:2 28:1 29:3 30:7 31:8 32:0 33:0 34:0 35:0 36:0 37:0 38:0 39:44 
-0.1003519922374998 1:0 2:0 3:0 4:0 5:0 6:5 7:6 8:6 9:7 10:5 11:7 12:6 13:4 14:0 15:0 16:0 17:0 18:0 19:0 20:0 21:0 22:8 23:8 24:2 25:2 26:3 27:2 28:2 29:1 30:2 31:2 32:8 33:6 34:0 35:0 36:0 37:0 38:0 39:46 
-0.09127130797457618 1:0 2:0 3:0 4:0 5:5 6:6 7:7 8:7 9:5 10:6 11:7 12:4 13:0 14:0 15:0 16:0 17:0 18:0 19:0 20:0 21:0 22:0 23:0 24:8 25:8 26:1 27:2 28:2 29:2 30:2 31:2 32:2 33:3 34:7 35:8 36:0 37:0 38:0 39:47 
-0.3238182001287626 1:0 2:0 3:0 4:0 5:0 6:0 7:4 8:5 9:7 10:6 11:6 12:7 13:5 14:3 15:0 16:0 17:0 18:0 19:0 20:0 21:0 22:0 23:0 24:7 25:7 26:2 27:1 28:2 29:2 30:2 31:2 32:2 33:1 34:8 35:7 36:0 37:0 38:0 39:43 
-0.5 1:0 2:0 3:0 4:0 5:0 6:4 7:5 8:7 9:6 10:5 11:6 12:5 13:2 14:0 15:0 16:0 17:0 18:0 19:0 20:7 21:3 22:2 23:2 24:2 25:1 26:2 27:2 28:2 29:2 30:8 31:7 32:0 33:0 34:0 35:0 36:0 37:0 38:0 39:40 
