svm_type c_svc
kernel_type rbf
gamma 0.00012207
nr_class 2
total_sv 22
rho 1.4938
label 0 1
probA -3.47002
probB -0.0916159
nr_sv 10 12
SV
32 1:0 2:0 3:0 4:4 5:4 6:7 7:6 8:4 9:5 10:6 11:4 12:0 13:0 14:0 15:0 16:0 17:0 18:0 19:0 20:0 21:0 22:0 23:7 24:7 25:2 26:1 27:1 28:1 29:2 30:2 31:2 32:2 33:7 34:6 35:0 36:0 37:0 38:0 39:40 
12.9168965562726 1:0 2:0 3:0 4:4 5:5 6:7 7:6 8:6 9:6 10:5 11:4 12:0 13:0 14:0 15:0 16:0 17:0 18:0 19:0 20:0 21:0 22:6 23:8 24:1 25:2 26:2 27:1 28:2 29:2 30:2 31:2 32:8 33:7 34:0 35:0 36:0 37:0 38:0 39:43 
6.764277767307481 1:0 2:0 3:0 4:0 5:4 6:4 7:7 8:7 9:6 10:6 11:6 12:4 13:0 14:0 15:0 16:0 17:0 18:0 19:0 20:6 21:7 22:2 23:2 24:2 25:2 26:2 27:2 28:2 29:2 30:7 31:8 32:0 33:0 34:0 35:0 36:0 37:0 38:0 39:44 
21.63393782929828 1:0 2:0 3:0 4:0 5:5 6:6 7:6 8:7 9:4 10:6 11:6 12:4 13:1 14:0 15:0 16:0 17:0 18:0 19:0 20:0 21:0 22:8 23:8 24:2 25:2 26:1 27:2 28:2 29:2 30:2 31:2 32:6 33:8 34:0 35:0 36:0 37:0 38:0 39:45 
31.87147936599791 1:1 2:0 3:0 4:4 5:6 6:7 7:7 8:5 9:6 10:5 11:4 12:1 13:0 14:0 15:0 16:0 17:0 18:0 19:0 20:0 21:0 22:0 23:0 24:7 25:6 26:1 27:3 28:2 29:2 30:2 31:2 32:2 33:3 34:8 35:8 36:0 37:0 38:0 39:46 
32 1:5 2:0 3:0 4:0 5:0 6:0 7:5 8:4 9:6 10:6 11:6 12:7 13:6 14:3 15:0 16:0 17:0 18:0 19:0 20:0 21:7 22:7 23:2 24:3 25:3 26:3 27:3 28:2 29:2 30:3 31:6 32:7 33:0 34:0 35:0 36:0 37:0 38:0 39:48 
12.40685091213606 1:0 2:0 3:0 4:0 5:0 6:0 7:4 8:4 9:7 10:6 11:6 12:6 13:7 14:4 15:0 16:0 17:0 18:0 19:0 20:0 21:0 22:0 23:7 24:7 25:2 26:2 27:2 28:2 29:1 30:2 31:2 32:2 33:7 34:8 35:0 36:0 37:0 38:0 39:44 
32 1:0 2:0 3:0 4:0 5:4 6:5 7:7 8:7 9:5 10:5 11:6 12:4 13:0 14:0 15:0 16:0 17:0 18:0 19:0 20:0 21:0 22:0 23:0 24:7 25:7 26:2 27:2 28:1 29:2 30:2 31:2 32:2 33:2 34:7 35:7 36:0 37:0 38:0 39:43 
32 1:0 2:0 3:0 4:5 5:6 6:6 7:7 8:5 9:6 10:6 11:3 12:0 13:0 14:0 15:0 16:0 17:0 18:0 19:0 20:8 21:6 22:2 23:2 24:2 25:1 26:2 27:2 28:1 29:3 30:7 31:8 32:0 33:0 34:0 35:0 36:0 37:0 38:0 39:44 
32 1:0 2:0 3:0 4:0 5:0 6:4 7:5 8:7 9:6 10:5 11:6 12:5 13:2 14:0 15:0 16:0 17:0 18:0 19:0 20:7 21:3 22:2 23:2 24:2 25:1 26:2 27:2 28:2 29:2 30:8 31:7 32:0 33:0 34:0 35:0 36:0 37:0 38:0 39:40 
-23.41894677396746 1:7 2:7 3:1 4:0 5:0 6:10 7:9 8:2 9:3 10:4 11:4 12:6 13:4 14:0 15:0 16:0 17:0 18:0 19:0 20:2 21:2 22:3 23:5 24:9 25:4 26:5 27:2 28:4 29:5 30:9 31:4 32:2 33:1 34:0 35:0 36:0 37:0 38:0 39:57 
-24.5118778307945 1:0 2:0 3:1 4:8 5:11 6:2 7:3 8:3 9:4 10:6 11:4 12:0 13:0 14:0 15:0 16:0 17:0 18:0 19:0 20:0 21:0 22:1 23:2 24:1 25:1 26:4 27:6 28:4 29:3 30:3 31:4 32:3 33:5 34:5 35:0 36:0 37:0 38:0 39:42 
-32 1:0 2:0 3:0 4:0 5:5 6:12 7:1 8:3 9:4 10:4 11:4 12:4 13:0 14:0 15:0 16:0 17:0 18:0 19:0 20:0 21:0 22:0 23:0 24:1 25:1 26:2 27:3 28:5 29:3 30:2 31:3 32:2 33:3 34:7 35:5 36:0 37:0 38:0 39:37 
-32 1:0 2:0 3:0 4:0 5:0 6:0 7:8 8:11 9:3 10:3 11:3 12:4 13:7 14:2 15:0 16:0 17:0 18:0 19:0 20:0 21:3 22:2 23:1 24:3 25:7 26:3 27:2 28:3 29:3 30:3 31:7 32:4 33:0 34:0 35:0 36:0 37:0 38:0 39:41 
-32 1:0 2:0 3:0 4:8 5:12 6:3 7:3 8:2 9:4 10:5 11:4 12:0 13:0 14:0 15:0 16:0 17:0 18:0 19:0 20:2 21:1 22:2 23:5 24:6 25:5 26:3 27:3 28:3 29:3 30:5 31:3 32:0 33:0 34:0 35:0 36:0 37:0 38:0 39:41 
-4.494041902883263 1:0 2:0 3:0 4:0 5:0 6:8 7:11 8:2 9:3 10:4 11:4 12:6 13:4 14:0 15:0 16:0 17:0 18:0 19:0 20:0 21:2 22:1 23:3 24:3 25:7 26:4 27:4 28:3 29:4 30:1 31:7 32:3 33:0 34:0 35:0 36:0 37:0 38:0 39:42 
-21.70621835647324 1:0 2:0 3:0 4:0 5:7 6:12 7:4 8:3 9:4 10:3 11:7 12:2 13:0 14:0 15:0 16:0 17:0 18:0 19:0 20:0 21:0 22:1 23:2 24:1 25:2 26:3 27:6 28:3 29:3 30:3 31:4 32:3 33:7 34:4 35:0 36:0 37:0 38:0 39:42 
-32 1:0 2:0 3:0 4:0 5:0 6:0 7:7 8:12 9:2 10:4 11:4 12:4 13:6 14:3 15:1 16:0 17:0 18:0 19:0 20:2 21:1 22:1 23:5 24:8 25:3 26:4 27:4 28:1 29:2 30:7 31:5 32:0 33:0 34:0 35:0 36:0 37:0 38:0 39:43 
-4.743181625484191 1:1 2:0 3:0 4:0 5:0 6:0 7:9 8:12 9:1 10:4 11:4 12:4 13:5 14:3 15:0 16:0 17:0 18:0 19:0 20:0 21:0 22:0 23:2 24:2 25:3 26:4 27:6 28:4 29:2 30:2 31:4 32:3 33:7 34:4 35:0 36:0 37:0 38:0 39:43 
-10.34338328572854 1:0 2:0 3:0 4:0 5:0 6:10 7:12 8:2 9:3 10:4 11:3 12:7 13:5 14:0 15:0 16:0 17:0 18:0 19:0 20:0 21:0 22:2 23:2 24:2 25:4 26:6 27:4 28:3 29:4 30:4 31:3 32:7 33:5 34:0 35:0 36:0 37:0 38:0 39:46 
-14.19694949174794 1:0 2:0 3:0 4:0 5:0 6:0 7:5 8:9 9:2 10:4 11:4 12:4 13:6 14:1 15:2 16:1 17:0 18:0 19:0 20:2 21:1 22:2 23:6 24:5 25:2 26:1 27:3 28:3 29:2 30:7 31:4 32:0 33:0 34:0 35:0 36:0 37:0 38:0 39:38 
-14.17884316393319 1:8 2:0 3:0 4:0 5:7 6:11 7:2 8:3 9:3 10:5 11:7 12:3 13:0 14:0 15:0 16:0 17:0 18:0 19:0 20:0 21:0 22:0 23:0 24:1 25:2 26:1 27:5 28:6 29:5 30:4 31:5 32:5 33:4 34:6 35:5 36:0 37:0 38:0 39:49 
