svm_type c_svc
kernel_type rbf
gamma 0.0078125
nr_class 2
total_sv 33
rho 1.5661
label 1 0
probA -3.93655
probB 0.219285
nr_sv 16 17
SV
2 1:0 2:0 3:0 4:0 5:0 6:1 7:5 8:6 9:5 10:4 11:3 12:4 13:2 14:0 15:0 16:0 17:0 18:0 19:0 20:0 21:0 22:0 23:0 24:3 25:3 26:3 27:2 28:3 29:3 30:3 31:2 32:2 33:1 34:3 35:2 36:0 37:0 38:0 39:30 
0.3345883030659172 1:0 2:0 3:1 4:4 5:5 6:5 7:2 8:3 9:2 10:2 11:0 12:0 13:0 14:0 15:0 16:0 17:0 18:0 19:0 20:0 21:0 22:0 23:0 24:0 25:2 26:3 27:2 28:1 29:3 30:3 31:3 32:1 33:0 34:2 35:2 36:2 37:0 38:0 39:24 
0.7434201658585472 1:0 2:0 3:0 4:0 5:0 6:1 7:4 8:4 9:5 10:4 11:3 12:4 13:2 14:0 15:0 16:0 17:0 18:0 19:0 20:0 21:0 22:0 23:0 24:0 25:0 26:0 27:3 28:3 29:3 30:1 31:3 32:3 33:3 34:1 35:2 36:2 37:3 38:0 39:27 
2 1:0 2:0 3:0 4:1 5:5 6:6 7:6 8:4 9:3 10:4 11:2 12:0 13:0 14:0 15:0 16:0 17:0 18:0 19:0 20:0 21:0 22:0 23:3 24:3 25:3 26:2 27:3 28:3 29:3 30:2 31:2 32:2 33:3 34:2 35:0 36:0 37:0 38:0 39:31 
2 1:0 2:0 3:0 4:1 5:5 6:6 7:6 8:4 9:3 10:4 11:2 12:0 13:0 14:0 15:0 16:0 17:0 18:0 19:0 20:0 21:0 22:0 23:0 24:0 25:0 26:3 27:3 28:3 29:3 30:3 31:3 32:3 33:2 34:1 35:2 36:3 37:2 38:0 39:31 
2 1:0 2:0 3:0 4:0 5:0 6:0 7:2 8:6 9:6 10:4 11:3 12:4 13:1 14:0 15:0 16:0 17:0 18:0 19:0 20:0 21:0 22:0 23:1 24:1 25:3 26:2 27:3 28:3 29:3 30:2 31:2 32:2 33:2 34:2 35:0 36:0 37:0 38:0 39:26 
1.000851945000869 1:0 2:0 3:0 4:0 5:1 6:5 7:6 8:5 9:4 10:3 11:4 12:0 13:0 14:0 15:0 16:0 17:0 18:0 19:0 20:0 21:0 22:0 23:2 24:2 25:3 26:2 27:3 28:2 29:3 30:2 31:2 32:2 33:3 34:2 35:0 36:0 37:0 38:0 39:28 
1.446943549847198 1:0 2:0 3:0 4:0 5:1 6:6 7:3 8:6 9:3 10:3 11:4 12:1 13:0 14:1 15:1 16:0 17:0 18:0 19:0 20:0 21:0 22:0 23:0 24:0 25:3 26:4 27:2 28:2 29:3 30:2 31:2 32:2 33:2 34:3 35:2 36:2 37:0 38:0 39:29 
0.817075689210884 1:0 2:0 3:0 4:0 5:0 6:1 7:4 8:5 9:5 10:4 11:3 12:3 13:1 14:0 15:0 16:0 17:0 18:0 19:0 20:0 21:0 22:0 23:0 24:0 25:0 26:0 27:2 28:1 29:4 30:2 31:3 32:3 33:3 34:2 35:2 36:1 37:3 38:0 39:26 
0.04466486269015209 1:0 2:0 3:0 4:1 5:4 6:4 7:7 8:4 9:4 10:3 11:2 12:0 13:0 14:0 15:0 16:0 17:0 18:0 19:0 20:0 21:0 22:0 23:0 24:3 25:3 26:1 27:2 28:3 29:3 30:3 31:3 32:2 33:2 34:3 35:1 36:0 37:0 38:0 39:29 
1.641777130483414 1:0 2:0 3:1 4:4 5:6 6:5 7:4 8:3 9:4 10:2 11:0 12:0 13:0 14:0 15:0 16:0 17:0 18:0 19:0 20:0 21:0 22:0 23:0 24:0 25:3 26:2 27:3 28:2 29:3 30:3 31:3 32:2 33:2 34:2 35:2 36:2 37:0 38:0 39:29 
0.9891643429530143 1:0 2:0 3:0 4:0 5:0 6:4 7:6 8:5 9:4 10:3 11:4 12:2 13:0 14:0 15:0 16:0 17:0 18:0 19:0 20:0 21:0 22:0 23:2 24:3 25:3 26:2 27:3 28:3 29:3 30:2 31:2 32:1 33:3 34:1 35:0 36:0 37:0 38:0 39:28 
1.239070514255548 1:0 2:0 3:0 4:5 5:6 6:5 7:4 8:3 9:3 10:2 11:0 12:0 13:0 14:0 15:0 16:0 17:0 18:0 19:0 20:0 21:0 22:0 23:2 24:2 25:3 26:2 27:3 28:3 29:3 30:2 31:1 32:2 33:3 34:2 35:0 36:0 37:0 38:0 39:28 
0.2779642152316893 1:0 2:0 3:0 4:0 5:5 6:6 7:6 8:4 9:3 10:4 11:2 12:0 13:0 14:0 15:0 16:0 17:0 18:0 19:0 20:0 21:0 22:0 23:0 24:0 25:2 26:3 27:2 28:2 29:4 30:3 31:3 32:2 33:2 34:2 35:3 36:2 37:0 38:0 39:30 
0.5702561876822572 1:0 2:0 3:0 4:0 5:0 6:1 7:5 8:6 9:6 10:2 11:2 12:4 13:2 14:0 15:0 16:0 17:0 18:0 19:0 20:0 21:0 22:0 23:3 24:3 25:3 26:2 27:2 28:3 29:2 30:2 31:1 32:2 33:3 34:2 35:0 36:0 37:0 38:0 39:28 
0.7341521304583505 1:0 2:0 3:1 4:4 5:5 6:6 7:4 8:3 9:4 10:2 11:0 12:0 13:0 14:0 15:0 16:0 17:0 18:0 19:0 20:0 21:0 22:0 23:0 24:0 25:0 26:0 27:3 28:3 29:3 30:2 31:3 32:3 33:3 34:2 35:2 36:2 37:3 38:0 39:29 
-1.124292925061339 1:0 2:0 3:0 4:3 5:5 6:5 7:5 8:5 9:6 10:0 11:0 12:0 13:0 14:0 15:0 16:0 17:0 18:0 19:0 20:0 21:0 22:0 23:0 24:0 25:3 26:4 27:2 28:2 29:4 30:3 31:2 32:6 33:3 34:0 35:0 36:0 37:0 38:0 39:29 
-2 1:0 2:0 3:0 4:0 5:0 6:0 7:3 8:6 9:4 10:4 11:3 12:6 13:1 14:0 15:0 16:0 17:0 18:0 19:0 20:0 21:0 22:0 23:0 24:0 25:3 26:3 27:2 28:1 29:5 30:3 31:2 32:5 33:3 34:0 35:0 36:0 37:0 38:0 39:27 
-0.8022248896952919 1:0 2:0 3:0 4:0 5:0 6:0 7:4 8:6 9:5 10:5 11:5 12:6 13:1 14:0 15:0 16:0 17:0 18:0 19:0 20:0 21:0 22:0 23:0 24:0 25:0 26:0 27:3 28:5 29:3 30:1 31:4 32:4 33:2 34:6 35:4 36:0 37:0 38:0 39:32 
-0.2133996404314065 1:0 2:0 3:0 4:0 5:0 6:0 7:2 8:6 9:5 10:5 11:5 12:6 13:1 14:0 15:0 16:0 17:0 18:0 19:0 20:0 21:0 22:0 23:0 24:0 25:3 26:4 27:2 28:4 29:5 30:3 31:2 32:3 33:4 34:0 35:0 36:0 37:0 38:0 39:30 
-1.822691240701517 1:0 2:0 3:0 4:3 5:4 6:5 7:5 8:5 9:7 10:1 11:0 12:0 13:0 14:0 15:0 16:0 17:0 18:0 19:0 20:0 21:0 22:0 23:3 24:4 25:3 26:3 27:4 28:3 29:3 30:5 31:2 32:0 33:0 34:0 35:0 36:0 37:0 38:0 39:30 
-1.39973840792017 1:0 2:0 3:0 4:0 5:4 6:3 7:4 8:5 9:5 10:6 11:1 12:0 13:0 14:0 15:0 16:0 17:0 18:0 19:0 20:0 21:0 22:0 23:0 24:0 25:3 26:5 27:2 28:3 29:4 30:2 31:1 32:5 33:3 34:0 35:0 36:0 37:0 38:0 39:28 
-0.7972180915608275 1:0 2:0 3:0 4:4 5:6 6:5 7:5 8:5 9:5 10:1 11:0 12:0 13:0 14:0 15:0 16:0 17:0 18:0 19:0 20:0 21:0 22:0 23:0 24:3 25:5 26:3 27:3 28:4 29:3 30:1 31:6 32:3 33:0 34:0 35:0 36:0 37:0 38:0 39:31 
-1.127141810024739 1:0 2:0 3:0 4:0 5:2 6:6 7:3 8:5 9:5 10:7 11:0 12:0 13:0 14:0 15:0 16:0 17:0 18:0 19:0 20:0 21:0 22:0 23:0 24:2 25:5 26:2 27:3 28:5 29:3 30:1 31:6 32:1 33:0 34:0 35:0 36:0 37:0 38:0 39:28 
-1.129536026764838 1:0 2:0 3:2 4:4 5:5 6:5 7:3 8:5 9:6 10:1 11:0 12:0 13:0 14:0 15:0 16:0 17:0 18:0 19:0 20:0 21:0 22:0 23:0 24:0 25:0 26:0 27:3 28:5 29:3 30:2 31:4 32:3 33:1 34:6 35:4 36:0 37:0 38:0 39:31 
-0.4989953104683356 1:0 2:0 3:0 4:0 5:0 6:4 7:6 8:4 9:5 10:5 11:7 12:1 13:0 14:0 15:0 16:0 17:0 18:0 19:0 20:0 21:0 22:0 23:0 24:0 25:0 26:0 27:3 28:4 29:3 30:3 31:5 32:3 33:2 34:6 35:3 36:0 37:0 38:0 39:32 
-1.353864676523133 1:0 2:0 3:0 4:0 5:0 6:3 7:6 8:5 9:4 10:4 11:6 12:1 13:0 14:0 15:0 16:0 17:0 18:0 19:0 20:0 21:0 22:0 23:0 24:0 25:3 26:4 27:2 28:3 29:4 30:2 31:1 32:6 33:4 34:0 35:0 36:0 37:0 38:0 39:29 
-1.887691012702443 1:0 2:0 3:0 4:0 5:0 6:4 7:5 8:5 9:4 10:3 11:8 12:1 13:0 14:0 15:0 16:0 17:0 18:0 19:0 20:0 21:0 22:0 23:4 24:4 25:2 26:3 27:5 28:3 29:2 30:4 31:3 32:0 33:0 34:0 35:0 36:0 37:0 38:0 39:30 
-0.6692400952361552 1:0 2:0 3:0 4:3 5:7 6:5 7:5 8:5 9:6 10:1 11:1 12:0 13:0 14:0 15:0 16:0 17:0 18:0 19:0 20:0 21:0 22:0 23:0 24:0 25:1 26:3 27:5 28:3 29:3 30:4 31:2 32:2 33:6 34:4 35:0 36:0 37:0 38:0 39:33 
-1.452957129818724 1:0 2:0 3:0 4:0 5:3 6:7 7:5 8:6 9:4 10:6 11:0 12:0 13:0 14:0 15:0 16:0 17:0 18:0 19:0 20:0 21:0 22:0 23:0 24:0 25:0 26:3 27:5 28:2 29:3 30:4 31:3 32:3 33:5 34:3 35:0 36:0 37:0 38:0 39:31 
-0.3276586405958939 1:0 2:0 3:0 4:0 5:0 6:0 7:3 8:6 9:4 10:5 11:4 12:6 13:0 14:0 15:0 16:0 17:0 18:0 19:0 20:0 21:0 22:0 23:0 24:0 25:3 26:4 27:2 28:3 29:4 30:3 31:2 32:5 33:2 34:0 35:0 36:0 37:0 38:0 39:28 
-0.1124787682217148 1:0 2:0 3:0 4:0 5:3 6:6 7:5 8:4 9:4 10:8 11:1 12:0 13:0 14:0 15:0 16:0 17:0 18:0 19:0 20:0 21:0 22:0 23:3 24:4 25:2 26:3 27:5 28:3 29:2 30:5 31:4 32:0 33:0 34:0 35:0 36:0 37:0 38:0 39:31 
-1.120800371011313 1:0 2:0 3:0 4:0 5:4 6:6 7:4 8:4 9:5 10:7 11:1 12:0 13:0 14:0 15:0 16:0 17:0 18:0 19:0 20:0 21:0 22:0 23:0 24:0 25:0 26:0 27:3 28:5 29:3 30:3 31:2 32:3 33:2 34:6 35:4 36:0 37:0 38:0 39:31 
