svm_type c_svc
kernel_type rbf
gamma 0.0078125
nr_class 2
total_sv 45
rho -0.332917
label 1 0
probA -4.29903
probB 0.155987
nr_sv 23 22
SV
0.07943970151956431 1:0 2:0 3:0 4:0 5:0 6:0 7:4 8:6 9:6 10:7 11:6 12:5 13:0 14:0 15:0 16:0 17:0 18:0 19:0 20:0 21:0 22:0 23:0 24:0 25:0 26:0 27:6 28:6 29:3 30:2 31:2 32:2 33:1 34:6 35:6 36:0 37:0 38:0 39:34 
0.4934592443128166 1:0 2:0 3:0 4:0 5:0 6:0 7:5 8:6 9:6 10:6 11:7 12:5 13:0 14:0 15:0 16:0 17:0 18:0 19:0 20:0 21:0 22:0 23:0 24:0 25:6 26:5 27:3 28:2 29:2 30:2 31:3 32:6 33:6 34:0 35:0 36:0 37:0 38:0 39:35 
1.254806262494455 1:0 2:0 3:0 4:0 5:0 6:0 7:5 8:6 9:6 10:6 11:6 12:4 13:0 14:0 15:0 16:0 17:0 18:0 19:0 20:0 21:0 22:0 23:0 24:0 25:0 26:0 27:6 28:6 29:1 30:2 31:2 32:2 33:2 34:6 35:6 36:0 37:0 38:0 39:33 
1.130527770569455 1:8 2:0 3:0 4:0 5:0 6:4 7:6 8:6 9:7 10:5 11:5 12:0 13:0 14:0 15:0 16:0 17:0 18:0 19:0 20:0 21:0 22:1 23:1 24:1 25:7 26:7 27:3 28:3 29:2 30:2 31:2 32:6 33:6 34:0 35:0 36:0 37:0 38:0 39:41 
0.925291703727926 1:0 2:0 3:0 4:0 5:5 6:4 7:5 8:6 9:6 10:5 11:0 12:0 13:0 14:0 15:0 16:0 17:0 18:0 19:0 20:0 21:0 22:0 23:0 24:6 25:5 26:3 27:2 28:1 29:0 30:2 31:6 32:6 33:0 34:0 35:0 36:0 37:0 38:0 39:31 
1.2314233920476 1:0 2:0 3:0 4:5 5:6 6:6 7:6 8:5 9:4 10:0 11:0 12:0 13:0 14:0 15:0 16:0 17:0 18:0 19:0 20:0 21:0 22:0 23:0 24:6 25:5 26:3 27:2 28:2 29:2 30:2 31:5 32:5 33:0 34:0 35:0 36:0 37:0 38:0 39:32 
2 1:0 2:0 3:0 4:0 5:4 6:5 7:5 8:6 9:5 10:5 11:0 12:0 13:0 14:0 15:0 16:0 17:0 18:0 19:0 20:0 21:0 22:0 23:0 24:0 25:0 26:0 27:5 28:2 29:3 30:2 31:2 32:2 33:2 34:6 35:6 36:0 37:0 38:0 39:30 
1.905476351186353 1:0 2:0 3:0 4:0 5:0 6:0 7:4 8:5 9:6 10:6 11:4 12:5 13:0 14:0 15:0 16:0 17:0 18:0 19:0 20:0 21:0 22:0 23:5 24:5 25:2 26:1 27:2 28:2 29:2 30:5 31:6 32:0 33:0 34:0 35:0 36:0 37:0 38:0 39:30 
0.6704889353022023 1:0 2:0 3:0 4:0 5:0 6:4 7:6 8:6 9:7 10:4 11:4 12:0 13:0 14:0 15:1 16:1 17:0 18:0 19:0 20:0 21:0 22:0 23:0 24:0 25:4 26:7 27:3 28:2 29:2 30:2 31:2 32:6 33:5 34:0 35:0 36:0 37:0 38:0 39:33 
2 1:0 2:0 3:0 4:0 5:4 6:6 7:6 8:6 9:5 10:4 11:0 12:0 13:0 14:0 15:0 16:0 17:0 18:0 19:0 20:0 21:0 22:0 23:5 24:4 25:2 26:2 27:2 28:2 29:2 30:6 31:6 32:0 33:0 34:0 35:0 36:0 37:0 38:0 39:31 
1.116749639692812 1:0 2:0 3:0 4:4 5:6 6:7 7:6 8:5 9:5 10:0 11:0 12:0 13:0 14:0 15:0 16:0 17:0 18:0 19:0 20:0 21:0 22:0 23:0 24:0 25:6 26:5 27:3 28:2 29:2 30:2 31:3 32:5 33:5 34:0 35:0 36:0 37:0 38:0 39:33 
1.681559995659538 1:0 2:0 3:0 4:0 5:0 6:5 7:6 8:6 9:5 10:6 11:5 12:0 13:0 14:0 15:0 16:0 17:0 18:0 19:0 20:0 21:0 22:0 23:0 24:6 25:6 26:2 27:1 28:2 29:2 30:2 31:6 32:6 33:0 34:0 35:0 36:0 37:0 38:0 39:33 
1.199104370005849 1:0 2:0 3:0 4:4 5:6 6:4 7:6 8:5 9:5 10:0 11:0 12:0 13:0 14:0 15:0 16:0 17:0 18:0 19:0 20:0 21:0 22:0 23:5 24:4 25:2 26:2 27:2 28:2 29:2 30:6 31:5 32:0 33:0 34:0 35:0 36:0 37:0 38:0 39:30 
0.4126639087227235 1:0 2:0 3:0 4:0 5:0 6:5 7:6 8:5 9:7 10:5 11:5 12:0 13:0 14:0 15:0 16:0 17:0 18:0 19:0 20:0 21:0 22:0 23:6 24:4 25:3 26:2 27:2 28:2 29:2 30:6 31:6 32:0 33:0 34:0 35:0 36:0 37:0 38:0 39:33 
0.2357509296287094 1:0 2:0 3:0 4:0 5:0 6:0 7:4 8:6 9:6 10:7 11:6 12:4 13:0 14:0 15:0 16:0 17:0 18:0 19:0 20:0 21:0 22:0 23:0 24:0 25:6 26:5 27:3 28:2 29:2 30:2 31:1 32:6 33:6 34:0 35:0 36:0 37:0 38:0 39:33 
0.9066484611041787 1:0 2:0 3:0 4:0 5:5 6:6 7:5 8:5 9:6 10:6 11:0 12:0 13:0 14:0 15:0 16:0 17:0 18:0 19:1 20:1 21:0 22:0 23:0 24:0 25:5 26:5 27:2 28:2 29:2 30:1 31:2 32:6 33:6 34:0 35:0 36:0 37:0 38:0 39:33 
0.2036637710209769 1:0 2:0 3:0 4:0 5:0 6:0 7:5 8:5 9:5 10:6 11:6 12:5 13:0 14:0 15:0 16:0 17:0 18:0 19:0 20:0 21:0 22:0 23:0 24:0 25:0 26:6 27:5 28:3 29:2 30:1 31:1 32:2 33:6 34:6 35:0 36:0 37:0 38:0 39:32 
1.510151226155812 1:1 2:0 3:0 4:0 5:0 6:5 7:6 8:3 9:7 10:6 11:4 12:0 13:0 14:0 15:0 16:0 17:0 18:0 19:0 20:0 21:0 22:0 23:0 24:0 25:1 26:6 27:5 28:2 29:3 30:2 31:2 32:2 33:4 34:5 35:0 36:0 37:0 38:0 39:32 
0.4086309275572155 1:0 2:0 3:0 4:4 5:4 6:6 7:7 8:4 9:5 10:0 11:0 12:0 13:0 14:0 15:0 16:0 17:0 18:0 19:0 20:0 21:0 22:0 23:5 24:6 25:3 26:1 27:2 28:2 29:1 30:6 31:4 32:0 33:0 34:0 35:0 36:0 37:0 38:0 39:30 
0.01185271608735808 1:0 2:0 3:0 4:0 5:0 6:0 7:5 8:5 9:6 10:7 11:5 12:5 13:0 14:0 15:0 16:0 17:0 18:0 19:0 20:0 21:0 22:0 23:0 24:6 25:6 26:3 27:2 28:2 29:1 30:2 31:5 32:6 33:0 34:0 35:0 36:0 37:0 38:0 39:33 
2 1:0 2:0 3:0 4:0 5:0 6:0 7:3 8:4 9:5 10:7 11:6 12:4 13:0 14:0 15:0 16:0 17:0 18:0 19:0 20:0 21:0 22:0 23:0 24:0 25:0 26:4 27:6 28:3 29:2 30:2 31:2 32:1 33:5 34:4 35:0 36:0 37:0 38:0 39:29 
0.9693959571297441 1:0 2:0 3:0 4:0 5:0 6:5 7:6 8:6 9:7 10:5 11:4 12:1 13:0 14:0 15:0 16:0 17:0 18:0 19:0 20:0 21:0 22:0 23:0 24:0 25:0 26:0 27:6 28:7 29:2 30:2 31:2 32:2 33:2 34:5 35:6 36:0 37:0 38:0 39:34 
1.512762479207764 1:0 2:0 3:0 4:5 5:5 6:5 7:6 8:6 9:5 10:0 11:0 12:0 13:0 14:0 15:0 16:0 17:0 18:0 19:0 20:0 21:0 22:0 23:0 24:0 25:0 26:6 27:4 28:2 29:2 30:2 31:2 32:2 33:6 34:6 35:0 36:0 37:0 38:0 39:32 
-1.048596461286005 1:0 2:0 3:0 4:0 5:0 6:0 7:4 8:7 9:4 10:3 11:3 12:3 13:2 14:0 15:0 16:0 17:0 18:0 19:0 20:0 21:0 22:0 23:3 24:5 25:3 26:2 27:2 28:2 29:3 30:3 31:3 32:0 33:0 34:0 35:0 36:0 37:0 38:0 39:26 
-0.0891313638080532 1:8 2:1 3:0 4:0 5:2 6:7 7:4 8:4 9:4 10:3 11:2 12:0 13:0 14:0 15:0 16:0 17:0 18:0 19:0 20:0 21:0 22:0 23:0 24:3 25:4 26:4 27:3 28:3 29:2 30:4 31:6 32:4 33:0 34:1 35:1 36:0 37:0 38:0 39:35 
-0.1397718975858612 1:6 2:1 3:0 4:0 5:5 6:7 7:4 8:4 9:3 10:3 11:2 12:0 13:0 14:0 15:0 16:0 17:0 18:0 19:0 20:0 21:0 22:0 23:1 24:1 25:1 26:1 27:3 28:5 29:4 30:2 31:2 32:3 33:5 34:5 35:2 36:0 37:0 38:0 39:35 
-2 1:0 2:0 3:0 4:0 5:4 6:7 7:4 8:4 9:4 10:4 11:2 12:0 13:0 14:0 15:0 16:0 17:0 18:0 19:0 20:0 21:0 22:0 23:0 24:3 25:5 26:4 27:2 28:2 29:2 30:3 31:5 32:3 33:0 34:0 35:0 36:0 37:0 38:0 39:29 
-1.346358671351736 1:5 2:2 3:0 4:0 5:0 6:4 7:7 8:4 9:4 10:4 11:4 12:2 13:0 14:0 15:0 16:0 17:0 18:0 19:0 20:0 21:0 22:0 23:1 24:2 25:1 26:0 27:5 28:6 29:3 30:2 31:2 32:2 33:4 34:5 35:3 36:0 37:0 38:0 39:36 
-1.739367566489701 1:4 2:0 3:0 4:0 5:0 6:0 7:5 8:7 9:4 10:4 11:4 12:3 13:2 14:0 15:0 16:0 17:0 18:0 19:0 20:0 21:0 22:0 23:0 24:0 25:3 26:5 27:5 28:2 29:2 30:3 31:5 32:5 33:3 34:0 35:0 36:0 37:0 38:0 39:33 
-1.628997198114016 1:0 2:0 3:0 4:0 5:0 6:5 7:7 8:4 9:4 10:4 11:4 12:2 13:0 14:0 15:0 16:0 17:0 18:0 19:0 20:0 21:0 22:0 23:0 24:0 25:0 26:3 27:5 28:4 29:2 30:2 31:2 32:4 33:5 34:3 35:0 36:0 37:0 38:0 39:30 
-0.67527238142791 1:8 2:8 3:0 4:0 5:5 6:5 7:4 8:4 9:4 10:3 11:2 12:0 13:0 14:0 15:0 16:0 17:0 18:0 19:0 20:0 21:0 22:0 23:4 24:6 25:5 26:4 27:3 28:4 29:5 30:7 31:5 32:0 33:0 34:0 35:0 36:0 37:0 38:0 39:43 
-2 1:0 2:0 3:0 4:0 5:5 6:6 7:5 8:5 9:4 10:4 11:2 12:0 13:0 14:0 15:0 16:0 17:0 18:0 19:0 20:0 21:0 22:0 23:3 24:5 25:4 26:3 27:1 28:2 29:4 30:5 31:3 32:1 33:0 34:0 35:0 36:0 37:0 38:0 39:31 
-1.665584222218948 1:6 2:2 3:0 4:1 5:5 6:5 7:4 8:4 9:5 10:3 11:2 12:0 13:0 14:0 15:0 16:0 17:0 18:0 19:0 20:0 21:1 22:1 23:1 24:1 25:4 26:3 27:5 28:1 29:2 30:2 31:6 32:7 33:3 34:0 35:0 36:0 37:0 38:0 39:37 
-0.8276301556208466 1:0 2:0 3:0 4:0 5:0 6:4 7:7 8:4 9:4 10:4 11:4 12:2 13:0 14:0 15:0 16:0 17:0 18:0 19:0 20:0 21:0 22:0 23:0 24:0 25:3 26:5 27:4 28:2 29:2 30:1 31:4 32:5 33:3 34:0 35:0 36:0 37:0 38:0 39:29 
-2 1:0 2:0 3:0 4:0 5:0 6:0 7:4 8:7 9:4 10:4 11:4 12:4 13:3 14:0 15:0 16:0 17:0 18:0 19:0 20:0 21:0 22:0 23:0 24:0 25:0 26:0 27:4 28:5 29:4 30:2 31:2 32:2 33:3 34:5 35:3 36:0 37:0 38:0 39:30 
-0.5324184494353036 1:6 2:9 3:0 4:4 5:6 6:3 7:5 8:3 9:3 10:2 11:0 12:0 13:0 14:0 15:0 16:0 17:0 18:0 19:0 20:0 21:0 22:1 23:3 24:5 25:6 26:4 27:4 28:3 29:5 30:2 31:5 32:1 33:2 34:0 35:0 36:0 37:0 38:0 39:41 
-1.121251057385934 1:0 2:0 3:0 4:0 5:0 6:3 7:7 8:3 9:4 10:4 11:5 12:2 13:0 14:0 15:0 16:0 17:0 18:0 19:0 20:0 21:0 22:0 23:0 24:0 25:0 26:0 27:3 28:4 29:3 30:2 31:2 32:2 33:3 34:5 35:4 36:0 37:0 38:0 39:28 
-0.9258071280105786 1:2 2:4 3:8 4:4 5:7 6:4 7:4 8:4 9:3 10:2 11:0 12:0 13:0 14:0 15:0 16:0 17:0 18:0 19:0 20:0 21:0 22:0 23:0 24:0 25:2 26:3 27:5 28:7 29:4 30:3 31:3 32:3 33:4 34:5 35:3 36:0 37:0 38:0 39:42 
-0.06796741615806874 1:1 2:0 3:0 4:0 5:0 6:1 7:5 8:7 9:4 10:4 11:4 12:3 13:2 14:0 15:0 16:0 17:0 18:0 19:0 20:0 21:0 22:0 23:0 24:0 25:0 26:0 27:3 28:5 29:4 30:3 31:2 32:2 33:4 34:5 35:3 36:0 37:0 38:0 39:31 
-2 1:0 2:0 3:0 4:4 5:6 6:4 7:4 8:4 9:4 10:2 11:0 12:0 13:0 14:0 15:0 16:0 17:0 18:0 19:0 20:0 21:0 22:0 23:0 24:0 25:0 26:3 27:5 28:3 29:1 30:2 31:2 32:4 33:5 34:3 35:0 36:0 37:0 38:0 39:28 
-0.183173737209182 1:6 2:0 3:0 4:0 5:0 6:5 7:6 8:3 9:4 10:3 11:4 12:2 13:0 14:0 15:0 16:0 17:0 18:0 19:0 20:0 21:0 22:0 23:2 24:6 25:5 26:3 27:3 28:2 29:3 30:5 31:3 32:1 33:0 34:0 35:0 36:0 37:0 38:0 39:33 
-0.9128862692545743 1:0 2:0 3:0 4:0 5:0 6:5 7:7 8:3 9:4 10:4 11:5 12:2 13:0 14:0 15:0 16:0 17:0 18:0 19:0 20:0 21:0 22:0 23:3 24:5 25:4 26:2 27:2 28:2 29:4 30:5 31:3 32:0 33:0 34:0 35:0 36:0 37:0 38:0 39:30 
-1.477120881466935 1:0 2:0 3:0 4:0 5:5 6:5 7:4 8:5 9:4 10:3 11:3 12:1 13:0 14:0 15:0 16:0 17:0 18:0 19:0 20:0 21:0 22:0 23:3 24:5 25:3 26:2 27:2 28:2 29:4 30:5 31:4 32:0 33:0 34:0 35:0 36:0 37:0 38:0 39:30 
-0.4983956856062358 1:0 2:0 3:0 4:5 5:7 6:3 7:4 8:4 9:3 10:2 11:0 12:0 13:0 14:0 15:0 16:0 17:0 18:0 19:0 20:0 21:0 22:0 23:0 24:0 25:0 26:3 27:5 28:3 29:2 30:2 31:2 32:4 33:5 34:2 35:0 36:0 37:0 38:0 39:28 
-0.980117200703162 1:2 2:7 3:8 4:0 5:0 6:0 7:5 8:7 9:4 10:4 11:4 12:3 13:2 14:0 15:0 16:0 17:0 18:0 19:0 20:0 21:0 22:0 23:0 24:0 25:0 26:0 27:5 28:8 29:6 30:4 31:4 32:3 33:6 34:6 35:4 36:0 37:0 38:0 39:46 
