svm_type c_svc
kernel_type rbf
gamma 0.0078125
nr_class 2
total_sv 42
rho -0.19521
label 1 0
probA -4.37118
probB -0.0440328
nr_sv 19 23
SV
0.6686593186168057 1:0 2:0 3:0 4:0 5:0 6:0 7:3 8:7 9:4 10:4 11:2 12:4 13:10 14:0 15:0 16:0 17:0 18:0 19:0 20:0 21:0 22:0 23:1 24:1 25:1 26:3 27:6 28:2 29:3 30:3 31:3 32:3 33:5 34:3 35:0 36:0 37:0 38:0 39:34 
0.1523524908266926 1:0 2:0 3:0 4:0 5:4 6:7 7:4 8:4 9:2 10:3 11:12 12:2 13:0 14:0 15:0 16:0 17:0 18:0 19:0 20:1 21:1 22:2 23:3 24:6 25:3 26:2 27:3 28:3 29:4 30:6 31:4 32:0 33:0 34:0 35:0 36:0 37:0 38:0 39:38 
0.5655118713932924 1:0 2:0 3:1 4:5 5:7 6:4 7:3 8:2 9:3 10:10 11:0 12:0 13:0 14:0 15:0 16:0 17:0 18:0 19:0 20:1 21:1 22:1 23:2 24:6 25:5 26:3 27:3 28:2 29:2 30:6 31:3 32:0 33:0 34:0 35:0 36:0 37:0 38:0 39:35 
0.8093116124610967 1:0 2:0 3:0 4:0 5:3 6:7 7:3 8:4 9:2 10:2 11:11 12:1 13:0 14:0 15:0 16:0 17:0 18:0 19:0 20:0 21:0 22:0 23:2 24:1 25:1 26:2 27:6 28:3 29:3 30:2 31:2 32:4 33:5 34:2 35:0 36:0 37:0 38:0 39:33 
2.24225003579522 1:0 2:0 3:0 4:4 5:7 6:4 7:3 8:2 9:2 10:9 11:0 12:0 13:0 14:0 15:0 16:0 17:0 18:0 19:0 20:0 21:0 22:0 23:1 24:1 25:1 26:3 27:6 28:4 29:3 30:2 31:2 32:2 33:5 34:1 35:0 36:0 37:0 38:0 39:31 
0.2086822914136093 1:0 2:0 3:0 4:0 5:0 6:4 7:7 8:4 9:4 10:3 11:4 12:10 13:0 14:0 15:0 16:0 17:0 18:0 19:0 20:0 21:0 22:0 23:1 24:2 25:1 26:3 27:6 28:1 29:3 30:3 31:3 32:4 33:6 34:3 35:0 36:0 37:0 38:0 39:36 
0.2911980343185449 1:0 2:0 3:0 4:4 5:7 6:4 7:4 8:1 9:3 10:12 11:1 12:0 13:0 14:0 15:0 16:0 17:0 18:0 19:0 20:0 21:0 22:0 23:0 24:1 25:1 26:1 27:3 28:5 29:3 30:3 31:3 32:4 33:3 34:6 35:3 36:0 37:0 38:0 39:36 
1.251762036794428 1:0 2:0 3:0 4:0 5:0 6:0 7:4 8:7 9:4 10:4 11:2 12:3 13:10 14:0 15:0 16:0 17:0 18:0 19:0 20:0 21:0 22:0 23:0 24:1 25:1 26:1 27:3 28:6 29:2 30:2 31:3 32:3 33:4 34:5 35:3 36:0 37:0 38:0 39:34 
1.796043476110877 1:0 2:0 3:0 4:0 5:3 6:7 7:4 8:4 9:2 10:3 11:10 12:0 13:0 14:0 15:0 16:0 17:0 18:0 19:0 20:0 21:0 22:0 23:0 24:1 25:2 26:1 27:2 28:4 29:3 30:3 31:3 32:2 33:3 34:6 35:3 36:0 37:0 38:0 39:33 
0.5328658377744923 1:1 2:0 3:0 4:0 5:1 6:4 7:8 8:4 9:4 10:2 11:4 12:12 13:0 14:0 15:0 16:0 17:0 18:0 19:0 20:0 21:0 22:0 23:1 24:1 25:1 26:4 27:7 28:4 29:2 30:3 31:3 32:4 33:6 34:3 35:1 36:0 37:0 38:0 39:40 
5.133911336057455 1:0 2:0 3:0 4:0 5:0 6:4 7:7 8:2 9:4 10:2 11:3 12:6 13:0 14:0 15:0 16:0 17:0 18:0 19:0 20:0 21:0 22:0 23:1 24:3 25:4 26:3 27:3 28:2 29:2 30:2 31:5 32:3 33:0 34:0 35:0 36:0 37:0 38:0 39:28 
0.8307729334912758 1:0 2:0 3:0 4:0 5:5 6:7 7:3 8:4 9:2 10:2 11:11 12:1 13:0 14:0 15:0 16:0 17:0 18:0 19:0 20:1 21:1 22:1 23:3 24:4 25:3 26:3 27:3 28:3 29:3 30:6 31:4 32:0 33:0 34:0 35:0 36:0 37:0 38:0 39:35 
0.5336229545596816 1:6 2:1 3:0 4:0 5:0 6:0 7:4 8:6 9:3 10:2 11:2 12:4 13:11 14:0 15:0 16:0 17:0 18:0 19:0 20:0 21:0 22:1 23:1 24:2 25:6 26:4 27:4 28:4 29:3 30:3 31:6 32:2 33:0 34:1 35:2 36:0 37:0 38:0 39:39 
1.253356017966603 1:0 2:0 3:0 4:0 5:0 6:4 7:7 8:2 9:4 10:2 11:3 12:9 13:0 14:0 15:0 16:0 17:0 18:0 19:0 20:0 21:0 22:0 23:0 24:0 25:1 26:1 27:2 28:5 29:3 30:3 31:2 32:2 33:3 34:6 35:3 36:0 37:0 38:0 39:31 
0.4838552129563463 1:0 2:0 3:0 4:3 5:7 6:4 7:4 8:3 9:4 10:12 11:0 12:0 13:0 14:0 15:1 16:0 17:0 18:0 19:0 20:1 21:1 22:1 23:3 24:6 25:4 26:3 27:3 28:2 29:4 30:6 31:4 32:0 33:0 34:0 35:0 36:0 37:0 38:0 39:38 
0.1313362482686173 1:0 2:0 3:0 4:0 5:5 6:7 7:4 8:4 9:2 10:3 11:12 12:1 13:0 14:0 15:0 16:0 17:0 18:0 19:0 20:0 21:0 22:1 23:1 24:1 25:5 26:5 27:4 28:3 29:3 30:3 31:3 32:6 33:3 34:0 35:0 36:0 37:0 38:0 39:38 
0.07554740441207525 1:0 2:0 3:0 4:4 5:7 6:5 7:4 8:1 9:3 10:11 11:0 12:0 13:0 14:0 15:0 16:0 17:0 18:0 19:0 20:0 21:0 22:0 23:0 24:1 25:1 26:1 27:3 28:6 29:2 30:2 31:3 32:3 33:4 34:5 35:3 36:1 37:0 38:0 39:35 
0.1638718901121939 1:0 2:0 3:0 4:0 5:0 6:0 7:5 8:7 9:4 10:4 11:2 12:3 13:12 14:0 15:0 16:0 17:0 18:0 19:0 20:1 21:1 22:1 23:3 24:6 25:3 26:3 27:3 28:3 29:4 30:6 31:3 32:0 33:0 34:0 35:0 36:0 37:0 38:0 39:37 
0.5013543042098824 1:0 2:0 3:0 4:0 5:0 6:0 7:3 8:7 9:4 10:3 11:1 12:3 13:11 14:0 15:0 16:1 17:0 18:1 19:0 20:0 21:0 22:1 23:1 24:2 25:5 26:2 27:3 28:2 29:3 30:4 31:6 32:3 33:0 34:0 35:0 36:0 37:0 38:0 39:33 
-0.7381519317464431 1:6 2:1 3:0 4:0 5:5 6:7 7:4 8:4 9:3 10:3 11:2 12:0 13:0 14:0 15:0 16:0 17:0 18:0 19:0 20:0 21:0 22:0 23:1 24:1 25:1 26:1 27:3 28:5 29:4 30:2 31:2 32:3 33:5 34:5 35:2 36:0 37:0 38:0 39:35 
-1.988125657729919 1:1 2:0 3:0 4:0 5:0 6:0 7:4 8:6 9:3 10:4 11:4 12:5 13:2 14:0 15:0 16:0 17:0 18:0 19:0 20:0 21:0 22:0 23:0 24:1 25:3 26:5 27:4 28:2 29:1 30:2 31:5 32:4 33:2 34:0 35:0 36:0 37:0 38:0 39:29 
-0.3905378703749526 1:0 2:0 3:0 4:0 5:4 6:7 7:4 8:4 9:4 10:4 11:2 12:0 13:0 14:0 15:0 16:0 17:0 18:0 19:0 20:0 21:0 22:0 23:0 24:3 25:5 26:4 27:2 28:2 29:2 30:3 31:5 32:3 33:0 34:0 35:0 36:0 37:0 38:0 39:29 
-0.7358720041949746 1:5 2:2 3:0 4:0 5:0 6:4 7:7 8:4 9:4 10:4 11:4 12:2 13:0 14:0 15:0 16:0 17:0 18:0 19:0 20:0 21:0 22:0 23:1 24:2 25:1 26:0 27:5 28:6 29:3 30:2 31:2 32:2 33:4 34:5 35:3 36:0 37:0 38:0 39:36 
-0.7524201797036023 1:0 2:0 3:0 4:0 5:0 6:5 7:7 8:4 9:4 10:4 11:4 12:2 13:0 14:0 15:0 16:0 17:0 18:0 19:0 20:0 21:0 22:0 23:0 24:0 25:0 26:3 27:5 28:4 29:2 30:2 31:2 32:4 33:5 34:3 35:0 36:0 37:0 38:0 39:30 
-0.1065036242641212 1:0 2:0 3:0 4:0 5:5 6:6 7:3 8:4 9:4 10:3 11:2 12:0 13:0 14:0 15:0 16:0 17:0 18:0 19:0 20:0 21:0 22:0 23:0 24:0 25:0 26:0 27:3 28:5 29:3 30:2 31:2 32:2 33:4 34:4 35:2 36:0 37:0 38:0 39:27 
-0.6752363933555714 1:8 2:8 3:0 4:0 5:5 6:5 7:4 8:4 9:4 10:3 11:2 12:0 13:0 14:0 15:0 16:0 17:0 18:0 19:0 20:0 21:0 22:0 23:4 24:6 25:5 26:4 27:3 28:4 29:5 30:7 31:5 32:0 33:0 34:0 35:0 36:0 37:0 38:0 39:43 
-1.567994208439166 1:0 2:0 3:0 4:0 5:0 6:4 7:6 8:4 9:3 10:4 11:4 12:2 13:0 14:0 15:0 16:0 17:0 18:0 19:0 20:0 21:0 22:0 23:0 24:3 25:5 26:3 27:1 28:2 29:2 30:3 31:5 32:3 33:0 34:0 35:0 36:0 37:0 38:0 39:27 
-0.6464112015807659 1:6 2:2 3:0 4:1 5:5 6:5 7:4 8:4 9:5 10:3 11:2 12:0 13:0 14:0 15:0 16:0 17:0 18:0 19:0 20:0 21:1 22:1 23:1 24:1 25:4 26:3 27:5 28:1 29:2 30:2 31:6 32:7 33:3 34:0 35:0 36:0 37:0 38:0 39:37 
-0.5188753587173568 1:0 2:0 3:0 4:0 5:0 6:4 7:7 8:4 9:4 10:4 11:4 12:2 13:0 14:0 15:0 16:0 17:0 18:0 19:0 20:0 21:0 22:0 23:0 24:0 25:3 26:5 27:4 28:2 29:2 30:1 31:4 32:5 33:3 34:0 35:0 36:0 37:0 38:0 39:29 
-1.440708152681669 1:0 2:0 3:0 4:0 5:0 6:0 7:4 8:7 9:4 10:4 11:4 12:4 13:3 14:0 15:0 16:0 17:0 18:0 19:0 20:0 21:0 22:0 23:0 24:0 25:0 26:0 27:4 28:5 29:4 30:2 31:2 32:2 33:3 34:5 35:3 36:0 37:0 38:0 39:30 
-0.1399496083541892 1:0 2:0 3:0 4:0 5:4 6:6 7:3 8:3 9:2 10:4 11:2 12:0 13:0 14:0 15:0 16:0 17:0 18:0 19:0 20:0 21:0 22:0 23:0 24:1 25:4 26:4 27:2 28:2 29:1 30:4 31:4 32:2 33:0 34:0 35:0 36:0 37:0 38:0 39:24 
-0.5164432958911053 1:6 2:9 3:0 4:4 5:6 6:3 7:5 8:3 9:3 10:2 11:0 12:0 13:0 14:0 15:0 16:0 17:0 18:0 19:0 20:0 21:0 22:1 23:3 24:5 25:6 26:4 27:4 28:3 29:5 30:2 31:5 32:1 33:2 34:0 35:0 36:0 37:0 38:0 39:41 
-0.6707081840498642 1:0 2:0 3:0 4:0 5:0 6:3 7:7 8:3 9:4 10:4 11:5 12:2 13:0 14:0 15:0 16:0 17:0 18:0 19:0 20:0 21:0 22:0 23:0 24:0 25:0 26:0 27:3 28:4 29:3 30:2 31:2 32:2 33:3 34:5 35:4 36:0 37:0 38:0 39:28 
-0.7760861680474752 1:2 2:4 3:8 4:4 5:7 6:4 7:4 8:4 9:3 10:2 11:0 12:0 13:0 14:0 15:0 16:0 17:0 18:0 19:0 20:0 21:0 22:0 23:0 24:0 25:2 26:3 27:5 28:7 29:4 30:3 31:3 32:3 33:4 34:5 35:3 36:0 37:0 38:0 39:42 
-0.4537541639307027 1:6 2:0 3:0 4:0 5:0 6:5 7:6 8:3 9:4 10:3 11:4 12:2 13:0 14:0 15:0 16:0 17:0 18:0 19:0 20:0 21:0 22:0 23:2 24:6 25:5 26:3 27:3 28:2 29:3 30:5 31:3 32:1 33:0 34:0 35:0 36:0 37:0 38:0 39:33 
-2.052838333221872 1:0 2:0 3:0 4:0 5:0 6:5 7:7 8:3 9:4 10:4 11:5 12:2 13:0 14:0 15:0 16:0 17:0 18:0 19:0 20:0 21:0 22:0 23:3 24:5 25:4 26:2 27:2 28:2 29:4 30:5 31:3 32:0 33:0 34:0 35:0 36:0 37:0 38:0 39:30 
-0.3060019469107066 1:0 2:0 3:0 4:0 5:5 6:5 7:4 8:5 9:4 10:3 11:3 12:1 13:0 14:0 15:0 16:0 17:0 18:0 19:0 20:0 21:0 22:0 23:3 24:5 25:3 26:2 27:2 28:2 29:4 30:5 31:4 32:0 33:0 34:0 35:0 36:0 37:0 38:0 39:30 
-0.1409109315641628 1:5 2:8 3:0 4:0 5:4 6:6 7:4 8:4 9:3 10:4 11:2 12:0 13:0 14:0 15:0 16:0 17:0 18:0 19:0 20:0 21:0 22:0 23:0 24:0 25:1 26:2 27:5 28:6 29:4 30:4 31:3 32:4 33:4 34:5 35:2 36:0 37:0 38:0 39:40 
-1.467596820205883 1:0 2:0 3:0 4:5 5:7 6:3 7:4 8:4 9:3 10:2 11:0 12:0 13:0 14:0 15:0 16:0 17:0 18:0 19:0 20:0 21:0 22:0 23:0 24:0 25:0 26:3 27:5 28:3 29:2 30:2 31:2 32:4 33:5 34:2 35:0 36:0 37:0 38:0 39:28 
-0.3646334691247778 1:0 2:0 3:0 4:0 5:5 6:7 7:3 8:4 9:4 10:4 11:2 12:0 13:0 14:0 15:0 16:0 17:0 18:0 19:0 20:0 21:0 22:0 23:2 24:5 25:4 26:2 27:2 28:2 29:4 30:5 31:3 32:0 33:0 34:0 35:0 36:0 37:0 38:0 39:29 
-0.2209324557423812 1:0 2:0 3:0 4:0 5:0 6:5 7:6 8:4 9:4 10:4 11:4 12:2 13:0 14:0 15:0 16:0 17:0 18:0 19:0 20:0 21:0 22:0 23:0 24:0 25:0 26:0 27:3 28:5 29:4 30:2 31:2 32:2 33:3 34:5 35:3 36:0 37:0 38:0 39:29 
-0.9555733477075274 1:2 2:7 3:8 4:0 5:0 6:0 7:5 8:7 9:4 10:4 11:4 12:3 13:2 14:0 15:0 16:0 17:0 18:0 19:0 20:0 21:0 22:0 23:0 24:0 25:0 26:0 27:5 28:8 29:6 30:4 31:4 32:3 33:6 34:6 35:4 36:0 37:0 38:0 39:46 
