svm_type c_svc
kernel_type rbf
gamma 0.00195313
nr_class 2
total_sv 30
rho -1.76618
label 1 0
probA -3.81945
probB -0.286084
nr_sv 17 13
SV
2.999722693158681 1:0 2:0 3:1 4:6 5:8 6:1 7:1 8:1 9:2 10:7 11:0 12:0 13:0 14:0 15:0 16:0 17:0 18:0 19:0 20:0 21:0 22:1 23:3 24:7 25:3 26:2 27:3 28:2 29:2 30:2 31:2 32:0 33:0 34:0 35:0 36:0 37:0 38:0 39:27 
1.434379821107363 1:0 2:0 3:0 4:0 5:0 6:6 7:8 8:1 9:1 10:2 11:3 12:7 13:0 14:0 15:0 16:0 17:0 18:0 19:0 20:0 21:0 22:0 23:0 24:0 25:0 26:4 27:7 28:2 29:2 30:3 31:4 32:3 33:3 34:0 35:0 36:0 37:0 38:0 39:28 
0.8895123948306474 1:0 2:0 3:0 4:0 5:6 6:8 7:1 8:1 9:2 10:2 11:5 12:0 13:0 14:0 15:0 16:0 17:0 18:0 19:0 20:0 21:0 22:0 23:0 24:0 25:0 26:0 27:2 28:7 29:3 30:2 31:3 32:3 33:2 34:2 35:1 36:0 37:0 38:0 39:25 
2.635797197301347 1:0 2:0 3:0 4:0 5:0 6:0 7:7 8:8 9:1 10:1 11:2 12:2 13:5 14:0 15:0 16:0 17:0 18:0 19:0 20:0 21:0 22:0 23:0 24:0 25:3 26:6 27:3 28:2 29:3 30:3 31:2 32:2 33:2 34:0 35:0 36:0 37:0 38:0 39:26 
1.880432415465302 1:0 2:0 3:0 4:0 5:9 6:8 7:1 8:1 9:3 10:2 11:7 12:0 13:0 14:0 15:0 16:0 17:0 18:0 19:0 20:0 21:0 22:0 23:0 24:0 25:1 26:4 27:6 28:4 29:3 30:3 31:3 32:3 33:2 34:2 35:0 36:0 37:0 38:0 39:31 
5.728228855701112 1:3 2:3 3:0 4:0 5:0 6:0 7:5 8:9 9:1 10:1 11:2 12:2 13:7 14:0 15:0 16:0 17:0 18:0 19:0 20:0 21:0 22:0 23:1 24:1 25:1 26:1 27:5 28:6 29:4 30:2 31:3 32:2 33:3 34:2 35:2 36:0 37:0 38:0 39:33 
1.052592164032957 1:0 2:0 3:0 4:0 5:0 6:6 7:9 8:1 9:1 10:2 11:2 12:5 13:0 14:0 15:0 16:0 17:0 18:0 19:0 20:0 21:0 22:0 23:0 24:4 25:7 26:2 27:3 28:2 29:2 30:2 31:2 32:2 33:0 34:0 35:0 36:0 37:0 38:0 39:26 
1.808788404820052 1:0 2:0 3:0 4:5 5:7 6:1 7:1 8:2 9:1 10:7 11:0 12:0 13:0 14:0 15:0 16:0 17:0 18:0 19:0 20:0 21:0 22:0 23:0 24:0 25:3 26:6 27:2 28:2 29:3 30:2 31:2 32:3 33:1 34:0 35:0 36:0 37:0 38:0 39:24 
6.900642896833452 1:0 2:0 3:0 4:1 5:0 6:0 7:5 8:8 9:1 10:1 11:2 12:2 13:5 14:0 15:0 16:0 17:0 18:0 19:1 20:0 21:0 22:0 23:0 24:4 25:6 26:2 27:0 28:1 29:3 30:3 31:3 32:2 33:0 34:0 35:0 36:0 37:0 38:0 39:25 
3.540572679627594 1:0 2:0 3:0 4:0 5:0 6:6 7:9 8:2 9:1 10:2 11:2 12:7 13:0 14:0 15:0 16:0 17:0 18:0 19:0 20:0 21:0 22:0 23:0 24:0 25:0 26:0 27:3 28:6 29:3 30:3 31:3 32:3 33:3 34:2 35:2 36:1 37:0 38:0 39:29 
6.05196255829296 1:0 2:0 3:0 4:6 5:8 6:1 7:1 8:2 9:2 10:5 11:0 12:0 13:0 14:0 15:0 16:0 17:0 18:0 19:0 20:0 21:0 22:0 23:0 24:0 25:4 26:6 27:3 28:1 29:2 30:3 31:2 32:2 33:2 34:0 35:0 36:0 37:0 38:0 39:25 
5.445785243984401 1:0 2:0 3:0 4:0 5:7 6:8 7:1 8:1 9:2 10:2 11:6 12:0 13:0 14:0 15:0 16:0 17:0 18:0 19:0 20:0 21:0 22:0 23:0 24:0 25:0 26:0 27:3 28:5 29:3 30:3 31:3 32:3 33:2 34:3 35:2 36:0 37:0 38:0 39:27 
3.421202770554792 1:0 2:0 3:0 4:0 5:4 6:8 7:1 8:1 9:2 10:2 11:5 12:0 13:0 14:0 15:0 16:0 17:0 18:0 19:0 20:0 21:0 22:0 23:3 24:6 25:3 26:2 27:2 28:1 29:2 30:2 31:2 32:0 33:0 34:0 35:0 36:0 37:0 38:0 39:23 
2.613344183642896 1:4 2:3 3:0 4:0 5:0 6:6 7:8 8:1 9:1 10:2 11:3 12:7 13:0 14:0 15:0 16:0 17:0 18:0 19:0 20:0 21:0 22:1 23:4 24:6 25:2 26:2 27:4 28:4 29:5 30:3 31:3 32:1 33:0 34:0 35:0 36:0 37:0 38:0 39:35 
2.087372793214502 1:0 2:0 3:0 4:0 5:0 6:0 7:6 8:9 9:1 10:1 11:2 12:2 13:6 14:0 15:0 16:0 17:0 18:0 19:0 20:0 21:0 22:0 23:0 24:0 25:0 26:0 27:4 28:6 29:3 30:2 31:2 32:3 33:3 34:2 35:2 36:0 37:0 38:0 39:27 
3.902446078929102 1:0 2:0 3:0 4:0 5:5 6:8 7:1 8:1 9:2 10:3 11:4 12:0 13:0 14:0 15:0 16:0 17:0 18:0 19:0 20:0 21:0 22:0 23:0 24:0 25:1 26:4 27:6 28:2 29:3 30:2 31:2 32:0 33:3 34:1 35:0 36:0 37:0 38:0 39:24 
0.8540626833886139 1:0 2:0 3:0 4:0 5:1 6:6 7:9 8:1 9:1 10:2 11:2 12:7 13:0 14:0 15:0 16:0 17:0 18:0 19:0 20:0 21:0 22:0 23:0 24:0 25:4 26:7 27:2 28:3 29:2 30:3 31:3 32:3 33:2 34:0 35:0 36:0 37:0 38:0 39:29 
-7.366725481488245 1:0 2:0 3:0 4:0 5:0 6:0 7:4 8:7 9:4 10:3 11:3 12:3 13:2 14:0 15:0 16:0 17:0 18:0 19:0 20:0 21:0 22:0 23:3 24:5 25:3 26:2 27:2 28:2 29:3 30:3 31:3 32:0 33:0 34:0 35:0 36:0 37:0 38:0 39:26 
-0.5565423602310278 1:6 2:1 3:0 4:0 5:5 6:7 7:4 8:4 9:3 10:3 11:2 12:0 13:0 14:0 15:0 16:0 17:0 18:0 19:0 20:0 21:0 22:0 23:1 24:1 25:1 26:1 27:3 28:5 29:4 30:2 31:2 32:3 33:5 34:5 35:2 36:0 37:0 38:0 39:35 
-3.803641226464021 1:1 2:0 3:0 4:0 5:0 6:0 7:4 8:6 9:3 10:4 11:4 12:5 13:2 14:0 15:0 16:0 17:0 18:0 19:0 20:0 21:0 22:0 23:0 24:1 25:3 26:5 27:4 28:2 29:1 30:2 31:5 32:4 33:2 34:0 35:0 36:0 37:0 38:0 39:29 
-0.1062613964180206 1:0 2:0 3:0 4:0 5:4 6:6 7:5 8:2 9:4 10:4 11:2 12:0 13:0 14:0 15:0 16:0 17:0 18:0 19:0 20:0 21:0 22:0 23:2 24:4 25:4 26:2 27:2 28:2 29:2 30:5 31:3 32:1 33:0 34:0 35:0 36:0 37:0 38:0 39:27 
-5.383264888692148 1:0 2:0 3:0 4:0 5:5 6:6 7:3 8:4 9:4 10:3 11:2 12:0 13:0 14:0 15:0 16:0 17:0 18:0 19:0 20:0 21:0 22:0 23:0 24:0 25:0 26:0 27:3 28:5 29:3 30:2 31:2 32:2 33:4 34:4 35:2 36:0 37:0 38:0 39:27 
-4.71530782469945 1:0 2:0 3:0 4:0 5:0 6:0 7:4 8:7 9:4 10:4 11:4 12:4 13:3 14:0 15:0 16:0 17:0 18:0 19:0 20:0 21:0 22:0 23:0 24:0 25:0 26:0 27:4 28:5 29:4 30:2 31:2 32:2 33:3 34:5 35:3 36:0 37:0 38:0 39:30 
-8 1:0 2:0 3:0 4:0 5:4 6:6 7:3 8:3 9:2 10:4 11:2 12:0 13:0 14:0 15:0 16:0 17:0 18:0 19:0 20:0 21:0 22:0 23:0 24:1 25:4 26:4 27:2 28:2 29:1 30:4 31:4 32:2 33:0 34:0 35:0 36:0 37:0 38:0 39:24 
-2.908863964429329 1:6 2:9 3:0 4:4 5:6 6:3 7:5 8:3 9:3 10:2 11:0 12:0 13:0 14:0 15:0 16:0 17:0 18:0 19:0 20:0 21:0 22:1 23:3 24:5 25:6 26:4 27:4 28:3 29:5 30:2 31:5 32:1 33:2 34:0 35:0 36:0 37:0 38:0 39:41 
-1.32243481849892 1:6 2:0 3:0 4:0 5:0 6:5 7:6 8:3 9:4 10:3 11:4 12:2 13:0 14:0 15:0 16:0 17:0 18:0 19:0 20:0 21:0 22:0 23:2 24:6 25:5 26:3 27:3 28:2 29:3 30:5 31:3 32:1 33:0 34:0 35:0 36:0 37:0 38:0 39:33 
-1.810589004696043 1:0 2:0 3:0 4:0 5:0 6:5 7:7 8:3 9:4 10:4 11:5 12:2 13:0 14:0 15:0 16:0 17:0 18:0 19:0 20:0 21:0 22:0 23:3 24:5 25:4 26:2 27:2 28:2 29:4 30:5 31:3 32:0 33:0 34:0 35:0 36:0 37:0 38:0 39:30 
-7.313567260690927 1:0 2:0 3:0 4:0 5:3 6:6 7:3 8:3 9:3 10:4 11:2 12:0 13:0 14:0 15:0 16:0 17:0 18:0 19:0 20:0 21:0 22:0 23:0 24:2 25:3 26:3 27:2 28:2 29:2 30:3 31:5 32:2 33:0 34:0 35:0 36:0 37:0 38:0 39:24 
-8 1:0 2:0 3:0 4:5 5:7 6:3 7:4 8:4 9:3 10:2 11:0 12:0 13:0 14:0 15:0 16:0 17:0 18:0 19:0 20:0 21:0 22:0 23:0 24:0 25:0 26:3 27:5 28:3 29:2 30:2 31:2 32:4 33:5 34:2 35:0 36:0 37:0 38:0 39:28 
-1.959647608577643 1:2 2:7 3:8 4:0 5:0 6:0 7:5 8:7 9:4 10:4 11:4 12:3 13:2 14:0 15:0 16:0 17:0 18:0 19:0 20:0 21:0 22:0 23:0 24:0 25:0 26:0 27:5 28:8 29:6 30:4 31:4 32:3 33:6 34:6 35:4 36:0 37:0 38:0 39:46 
