svm_type c_svc
kernel_type rbf
gamma 0.0078125
nr_class 2
total_sv 17
rho 1.0213
label 1 0
probA -3.24334
probB 0.246211
nr_sv 8 9
SV
0.3615563098690726 1:0 2:0 3:0 4:0 5:0 6:3 7:4 8:3 9:3 10:3 11:4 12:2 13:0 14:0 15:0 16:0 17:0 18:0 19:0 20:0 21:0 22:0 23:0 24:3 25:3 26:3 27:2 28:2 29:3 30:3 31:2 32:1 33:0 34:0 35:0 36:0 37:0 38:0 39:22 
1.674679815818013 1:0 2:0 3:0 4:0 5:2 6:4 7:3 8:3 9:4 10:4 11:2 12:0 13:0 14:0 15:0 16:0 17:0 18:0 19:0 20:0 21:0 22:0 23:0 24:0 25:0 26:3 27:3 28:2 29:3 30:2 31:3 32:3 33:2 34:1 35:0 36:0 37:0 38:0 39:22 
2 1:0 2:0 3:0 4:0 5:0 6:0 7:3 8:4 9:4 10:3 11:4 12:4 13:2 14:0 15:0 16:0 17:0 18:0 19:0 20:0 21:0 22:0 23:0 24:0 25:0 26:3 27:3 28:4 29:3 30:2 31:3 32:3 33:2 34:1 35:0 36:0 37:0 38:0 39:24 
2 1:0 2:0 3:0 4:0 5:0 6:3 7:5 8:3 9:3 10:4 11:4 12:2 13:0 14:0 15:0 16:0 17:0 18:0 19:0 20:0 21:0 22:0 23:0 24:0 25:3 26:4 27:3 28:3 29:2 30:3 31:3 32:2 33:1 34:0 35:0 36:0 37:0 38:0 39:24 
2 1:0 2:0 3:0 4:0 5:0 6:3 7:5 8:4 9:3 10:4 11:2 12:2 13:0 14:0 15:0 16:0 17:0 18:0 19:0 20:0 21:0 22:0 23:2 24:3 25:3 26:2 27:3 28:3 29:3 30:3 31:1 32:0 33:0 34:0 35:0 36:0 37:0 38:0 39:23 
2 1:0 2:0 3:0 4:0 5:3 6:4 7:3 8:3 9:4 10:3 11:2 12:0 13:0 14:0 15:0 16:0 17:0 18:0 19:0 20:0 21:0 22:0 23:0 24:0 25:2 26:3 27:3 28:3 29:2 30:3 31:3 32:2 33:1 34:0 35:0 36:0 37:0 38:0 39:22 
0.182338629238217 1:0 2:0 3:0 4:0 5:4 6:2 7:3 8:3 9:4 10:3 11:1 12:0 13:0 14:0 15:0 16:0 17:0 18:0 19:0 20:0 21:0 22:0 23:0 24:0 25:0 26:0 27:2 28:2 29:2 30:3 31:2 32:3 33:3 34:2 35:1 36:0 37:0 38:0 39:20 
0.4796795311571518 1:0 2:0 3:0 4:0 5:3 6:5 7:2 8:2 9:2 10:4 11:2 12:0 13:0 14:0 15:0 16:0 17:0 18:0 19:0 20:0 21:0 22:0 23:0 24:0 25:3 26:4 27:3 28:2 29:2 30:1 31:2 32:2 33:1 34:0 35:0 36:0 37:0 38:0 39:20 
-1.482535572589548 1:0 2:0 3:0 4:0 5:0 6:0 7:4 8:7 9:4 10:3 11:3 12:3 13:2 14:0 15:0 16:0 17:0 18:0 19:0 20:0 21:0 22:0 23:3 24:5 25:3 26:2 27:2 28:2 29:3 30:3 31:3 32:0 33:0 34:0 35:0 36:0 37:0 38:0 39:26 
-0.07832079062785968 1:0 2:0 3:0 4:0 5:3 6:7 7:2 8:4 9:4 10:4 11:2 12:0 13:0 14:0 15:0 16:0 17:0 18:0 19:0 20:0 21:0 22:0 23:0 24:0 25:3 26:4 27:3 28:2 29:2 30:2 31:3 32:4 33:3 34:0 35:0 36:0 37:0 38:0 39:26 
-0.3645282755982946 1:0 2:0 3:0 4:0 5:5 6:6 7:3 8:4 9:4 10:3 11:2 12:0 13:0 14:0 15:0 16:0 17:0 18:0 19:0 20:0 21:0 22:0 23:0 24:0 25:0 26:0 27:3 28:5 29:3 30:2 31:2 32:2 33:4 34:4 35:2 36:0 37:0 38:0 39:27 
-2 1:0 2:0 3:0 4:0 5:0 6:4 7:5 8:3 9:4 10:4 11:4 12:2 13:0 14:0 15:0 16:0 17:0 18:0 19:0 20:0 21:0 22:0 23:0 24:0 25:0 26:3 27:5 28:2 29:1 30:2 31:2 32:4 33:5 34:2 35:0 36:0 37:0 38:0 39:26 
-0.8900020660608601 1:0 2:0 3:0 4:0 5:0 6:0 7:4 8:6 9:4 10:4 11:4 12:3 13:2 14:0 15:0 16:0 17:0 18:0 19:0 20:0 21:0 22:0 23:0 24:0 25:3 26:5 27:2 28:2 29:2 30:1 31:4 32:5 33:3 34:0 35:0 36:0 37:0 38:0 39:27 
-2 1:0 2:0 3:0 4:0 5:4 6:6 7:3 8:3 9:2 10:4 11:2 12:0 13:0 14:0 15:0 16:0 17:0 18:0 19:0 20:0 21:0 22:0 23:0 24:1 25:4 26:4 27:2 28:2 29:1 30:4 31:4 32:2 33:0 34:0 35:0 36:0 37:0 38:0 39:24 
-0.7956639626328211 1:0 2:0 3:0 4:0 5:0 6:4 7:7 8:4 9:3 10:4 11:4 12:1 13:0 14:0 15:0 16:0 17:0 18:0 19:0 20:0 21:0 22:0 23:3 24:4 25:2 26:2 27:2 28:2 29:4 30:5 31:3 32:0 33:0 34:0 35:0 36:0 37:0 38:0 39:27 
-1.08720361857307 1:0 2:0 3:0 4:0 5:0 6:0 7:4 8:6 9:4 10:4 11:4 12:3 13:2 14:0 15:0 16:0 17:0 18:0 19:0 20:0 21:0 22:0 23:0 24:0 25:0 26:3 27:5 28:3 29:2 30:2 31:2 32:3 33:4 34:3 35:0 36:0 37:0 38:0 39:27 
-2 1:0 2:0 3:0 4:0 5:3 6:6 7:3 8:3 9:3 10:4 11:2 12:0 13:0 14:0 15:0 16:0 17:0 18:0 19:0 20:0 21:0 22:0 23:0 24:2 25:3 26:3 27:2 28:2 29:2 30:3 31:5 32:2 33:0 34:0 35:0 36:0 37:0 38:0 39:24 
