svm_type c_svc
kernel_type rbf
gamma 0.00012207
nr_class 2
total_sv 19
rho -3.21193
label 1 0
probA -3.29407
probB 0.0647837
nr_sv 10 9
SV
8.223989571898166 1:0 2:0 3:4 4:12 5:12 6:0 7:0 8:0 9:0 10:0 11:0 12:0 13:0 14:0 15:0 16:0 17:0 18:0 19:0 20:0 21:2 22:2 23:0 24:2 25:2 26:3 27:2 28:1 29:2 30:1 31:2 32:2 33:2 34:3 35:2 36:0 37:0 38:0 39:28 
32 1:0 2:0 3:2 4:11 5:12 6:0 7:0 8:0 9:0 10:0 11:0 12:0 13:0 14:0 15:0 16:0 17:0 18:0 19:0 20:1 21:2 22:0 23:2 24:1 25:2 26:1 27:2 28:2 29:2 30:1 31:2 32:2 33:3 34:2 35:0 36:0 37:0 38:0 39:25 
32 1:5 2:4 3:1 4:2 5:11 6:11 7:0 8:0 9:0 10:0 11:0 12:0 13:0 14:0 15:0 16:0 17:0 18:0 19:0 20:0 21:0 22:1 23:3 24:3 25:1 26:3 27:2 28:3 29:3 30:3 31:2 32:2 33:1 34:2 35:1 36:2 37:2 38:0 39:34 
26.75743945903208 1:3 2:3 3:3 4:6 5:8 6:12 7:12 8:0 9:0 10:0 11:0 12:0 13:0 14:0 15:0 16:0 17:0 18:0 19:0 20:1 21:2 22:2 23:2 24:3 25:3 26:5 27:5 28:2 29:4 30:4 31:5 32:3 33:4 34:2 35:0 36:0 37:0 38:0 39:47 
4.366214614609845 1:0 2:0 3:2 4:7 5:13 6:0 7:0 8:0 9:0 10:0 11:0 12:0 13:0 14:0 15:0 16:0 17:0 18:0 19:0 20:1 21:2 22:0 23:2 24:1 25:2 26:1 27:2 28:1 29:1 30:2 31:1 32:1 33:3 34:2 35:0 36:0 37:0 38:0 39:22 
24.50937395989591 1:0 2:0 3:0 4:1 5:6 6:12 7:0 8:0 9:0 10:1 11:0 12:0 13:0 14:0 15:0 16:0 17:0 18:0 19:0 20:0 21:0 22:0 23:0 24:1 25:0 26:0 27:2 28:2 29:1 30:3 31:1 32:2 33:2 34:1 35:1 36:1 37:3 38:0 39:20 
32 1:4 2:5 3:5 4:1 5:0 6:1 7:10 8:12 9:0 10:0 11:0 12:0 13:0 14:0 15:0 16:0 17:0 18:0 19:0 20:0 21:0 22:2 23:1 24:2 25:3 26:2 27:2 28:3 29:3 30:2 31:4 32:3 33:3 34:1 35:2 36:2 37:3 38:0 39:38 
32 1:0 2:0 3:0 4:0 5:0 6:2 7:8 8:13 9:0 10:0 11:0 12:0 13:0 14:0 15:0 16:0 17:0 18:0 19:0 20:2 21:1 22:0 23:1 24:2 25:1 26:2 27:2 28:1 29:2 30:2 31:1 32:2 33:2 34:2 35:0 36:0 37:0 38:0 39:23 
11.99547477280672 1:4 2:6 3:5 4:2 5:2 6:12 7:13 8:0 9:0 10:0 11:0 12:0 13:0 14:0 15:0 16:0 17:0 18:0 19:0 20:2 21:2 22:0 23:2 24:4 25:4 26:3 27:3 28:4 29:3 30:2 31:2 32:4 33:5 34:3 35:1 36:0 37:0 38:0 39:44 
9.710340185519376 1:0 2:0 3:0 4:0 5:0 6:1 7:13 8:12 9:0 10:0 11:0 12:0 13:0 14:0 15:0 16:0 17:0 18:0 19:0 20:0 21:0 22:2 23:2 24:0 25:2 26:1 27:2 28:2 29:1 30:2 31:2 32:2 33:2 34:2 35:2 36:2 37:0 38:0 39:26 
-17.48940892758681 1:6 2:1 3:0 4:0 5:5 6:7 7:4 8:4 9:3 10:3 11:2 12:0 13:0 14:0 15:0 16:0 17:0 18:0 19:0 20:0 21:0 22:0 23:1 24:1 25:1 26:1 27:3 28:5 29:4 30:2 31:2 32:3 33:5 34:5 35:2 36:0 37:0 38:0 39:35 
-11.02185904136956 1:0 2:0 3:0 4:0 5:5 6:6 7:5 8:5 9:4 10:4 11:2 12:0 13:0 14:0 15:0 16:0 17:0 18:0 19:0 20:0 21:0 22:0 23:3 24:5 25:4 26:3 27:1 28:2 29:4 30:5 31:3 32:1 33:0 34:0 35:0 36:0 37:0 38:0 39:31 
-32 1:0 2:0 3:0 4:0 5:4 6:6 7:3 8:3 9:2 10:4 11:2 12:0 13:0 14:0 15:0 16:0 17:0 18:0 19:0 20:0 21:0 22:0 23:0 24:1 25:4 26:4 27:2 28:2 29:1 30:4 31:4 32:2 33:0 34:0 35:0 36:0 37:0 38:0 39:24 
-32 1:6 2:9 3:0 4:4 5:6 6:3 7:5 8:3 9:3 10:2 11:0 12:0 13:0 14:0 15:0 16:0 17:0 18:0 19:0 20:0 21:0 22:1 23:3 24:5 25:6 26:4 27:4 28:3 29:5 30:2 31:5 32:1 33:2 34:0 35:0 36:0 37:0 38:0 39:41 
-19.43425811408596 1:0 2:0 3:0 4:0 5:0 6:4 7:7 8:4 9:3 10:4 11:4 12:1 13:0 14:0 15:0 16:0 17:0 18:0 19:0 20:0 21:0 22:0 23:3 24:4 25:2 26:2 27:2 28:2 29:4 30:5 31:3 32:0 33:0 34:0 35:0 36:0 37:0 38:0 39:27 
-32 1:2 2:4 3:8 4:4 5:7 6:4 7:4 8:4 9:3 10:2 11:0 12:0 13:0 14:0 15:0 16:0 17:0 18:0 19:0 20:0 21:0 22:0 23:0 24:0 25:2 26:3 27:5 28:7 29:4 30:3 31:3 32:3 33:4 34:5 35:3 36:0 37:0 38:0 39:42 
-32 1:0 2:0 3:0 4:4 5:6 6:4 7:4 8:4 9:4 10:2 11:0 12:0 13:0 14:0 15:0 16:0 17:0 18:0 19:0 20:0 21:0 22:0 23:0 24:0 25:0 26:3 27:5 28:3 29:1 30:2 31:2 32:4 33:5 34:3 35:0 36:0 37:0 38:0 39:28 
-5.617306480719781 1:0 2:0 3:0 4:0 5:3 6:6 7:3 8:3 9:3 10:4 11:2 12:0 13:0 14:0 15:0 16:0 17:0 18:0 19:0 20:0 21:0 22:0 23:0 24:2 25:3 26:3 27:2 28:2 29:2 30:3 31:5 32:2 33:0 34:0 35:0 36:0 37:0 38:0 39:24 
-32 1:0 2:0 3:0 4:5 5:7 6:3 7:4 8:4 9:3 10:2 11:0 12:0 13:0 14:0 15:0 16:0 17:0 18:0 19:0 20:0 21:0 22:0 23:0 24:0 25:0 26:3 27:5 28:3 29:2 30:2 31:2 32:4 33:5 34:2 35:0 36:0 37:0 38:0 39:28 
